svm_type c_svc
kernel_type linear
nr_class 3
total_sv 1511
rho -2.074704588025273 -1.254547839320489 0.3334706224812444
label 1 2 3
probA -3.087395084683433 -3.535262631156072 -5.365091854811573
probB -1.7824520631747083 -0.6232309537603316 -0.23545179749783715
nr_sv 1371 106 34
SV
0.07268809335073456 0.0 3:1.0 4:1.0 33:1.0 34:1.0 
0.07268809335073456 0.0 3:1.0 4:1.0 33:1.0 40:1.0 
0.07268809335073456 0.0 3:1.0 4:1.0 33:1.0 66:1.0 
0.0726351082469141 0.0 3:1.0 4:1.0 33:1.0 174:1.0 
0.0726430147355841 0.0 3:1.0 4:1.0 33:1.0 181:1.0 
0.0726430147355841 0.0 3:1.0 4:1.0 33:1.0 180:1.0 
0.0726430147355841 0.0 3:1.0 4:1.0 33:1.0 195:1.0 
2.9029178752971143 0.0 3:1.0 4:1.0 37:1.0 339:1.0 
0.072265625 0.0 3:1.0 4:1.0 33:1.0 422:1.0 
0.072265625 0.0 3:1.0 4:1.0 33:1.0 458:1.0 
0.02979687110881272 0.0 3:1.0 4:1.0 105:1.0 472:1.0 
0.072265625 0.0 3:1.0 4:1.0 33:1.0 497:1.0 
0.072265625 0.0 3:1.0 4:1.0 33:1.0 509:1.0 
0.072265625 0.0 3:1.0 4:1.0 33:1.0 529:1.0 
0.029856163902445054 0.0 3:1.0 4:1.0 105:1.0 223:1.0 
0.072265625 0.0 3:1.0 4:1.0 33:1.0 601:1.0 
0.029813334128467428 0.0 3:1.0 4:1.0 105:1.0 604:1.0 
0.0 0.44829610100402245 33:1.0 629:1.0 638:1.0 639:1.0 
0.072265625 0.0 3:1.0 4:1.0 33:1.0 642:1.0 
0.0 0.3522838168243234 2:1.0 63:1.0 638:1.0 639:1.0 
0.029805613556932453 0.0 3:1.0 4:1.0 105:1.0 668:1.0 
0.07226767579746518 0.0 3:1.0 4:1.0 33:1.0 653:1.0 
0.029577688746025843 0.0 3:1.0 4:1.0 105:1.0 165:1.0 
0.07226767579746518 0.0 3:1.0 4:1.0 33:1.0 688:1.0 
0.07226767579746518 0.0 3:1.0 4:1.0 33:1.0 693:1.0 
0.07255302292154309 0.0 3:1.0 4:1.0 33:1.0 701:1.0 
0.07243744049495016 0.0 3:1.0 4:1.0 33:1.0 702:1.0 
0.07243744049495016 0.0 3:1.0 4:1.0 33:1.0 183:1.0 
0.07246532073120626 0.0 3:1.0 4:1.0 33:1.0 709:1.0 
0.07249254065886168 0.0 3:1.0 4:1.0 33:1.0 711:1.0 
0.07250489213450706 0.0 3:1.0 4:1.0 33:1.0 712:1.0 
0.07264471054077148 0.0 3:1.0 4:1.0 33:1.0 743:1.0 
0.07264471054077148 0.0 3:1.0 4:1.0 33:1.0 751:1.0 
0.07264471054077148 0.0 3:1.0 4:1.0 33:1.0 756:1.0 
0.0 0.35243467816525964 2:1.0 100:1.0 638:1.0 639:1.0 
0.0 0.1305456660841581 4:1.0 18:1.0 19:1.0 639:1.0 
0.07268926494996997 0.0 3:1.0 4:1.0 33:1.0 346:1.0 
0.07268948679245568 0.0 3:1.0 4:1.0 33:1.0 816:1.0 
0.07268948679245568 0.0 3:1.0 4:1.0 33:1.0 680:1.0 
0.07268948679245568 0.0 3:1.0 4:1.0 33:1.0 843:1.0 
0.07275772094726562 0.0 3:1.0 4:1.0 33:1.0 865:1.0 
0.07275772094726562 0.0 3:1.0 4:1.0 33:1.0 733:1.0 
0.07224362485813507 0.0 3:1.0 4:1.0 33:1.0 900:1.0 
0.07243677234624712 0.0 3:1.0 4:1.0 33:1.0 912:1.0 
0.07248421887668854 0.0 3:1.0 4:1.0 33:1.0 921:1.0 
7.560786768738836E-4 0.0 3:1.0 4:1.0 105:1.0 922:1.0 
0.07264763367041382 0.0 3:1.0 4:1.0 33:1.0 924:1.0 
0.07242586095160686 0.0 3:1.0 4:1.0 33:1.0 925:1.0 
0.009909476526658079 0.0 3:1.0 4:1.0 33:1.0 840:1.0 
0.029735363830358796 0.0 3:1.0 4:1.0 105:1.0 929:1.0 
5.368179144644714E-4 0.0 3:1.0 4:1.0 33:1.0 930:1.0 
0.009899742503314268 0.0 3:1.0 4:1.0 105:1.0 939:1.0 
0.0 0.44906096387022604 3:1.0 33:1.0 636:1.0 956:1.0 
0.07240947652665808 0.0 3:1.0 4:1.0 33:1.0 974:1.0 
0.07240947652665808 0.0 3:1.0 4:1.0 33:1.0 980:1.0 
0.07239961624145508 0.0 3:1.0 4:1.0 33:1.0 982:1.0 
0.07239961624145508 0.0 3:1.0 4:1.0 33:1.0 985:1.0 
0.009899616241455078 0.0 3:1.0 4:1.0 33:1.0 992:1.0 
0.0 0.3528885233415378 2:1.0 3:1.0 636:1.0 1003:1.0 
0.07239961624145508 0.0 3:1.0 4:1.0 33:1.0 1013:1.0 
0.0 0.35298314810697945 2:1.0 3:1.0 636:1.0 1032:1.0 
0.0 0.07073614131533194 2:1.0 3:1.0 636:1.0 1027:1.0 
0.0 0.006003090879973009 3:1.0 33:1.0 636:1.0 1042:1.0 
0.0 0.44899824930326393 3:1.0 33:1.0 93:1.0 636:1.0 
0.008274661610564752 0.44931689218234605 3:1.0 33:1.0 636:1.0 1092:1.0 
0.07239961624145508 0.0 3:1.0 4:1.0 33:1.0 1102:1.0 
0.029678670813616304 0.0 3:1.0 4:1.0 105:1.0 1091:1.0 
0.00990925688821731 0.0 3:1.0 4:1.0 33:1.0 1132:1.0 
0.009913750995171 0.0 3:1.0 4:1.0 33:1.0 1138:1.0 
0.03125 0.014399938417084786 3:1.0 4:1.0 105:1.0 1141:1.0 
0.07247419202524474 0.0 3:1.0 4:1.0 33:1.0 1142:1.0 
0.07247419202524474 0.0 3:1.0 4:1.0 33:1.0 1143:1.0 
0.07261823973406178 0.0 3:1.0 4:1.0 33:1.0 520:1.0 
0.0 1000.0 3:1.0 50:1.0 79:1.0 636:1.0 
0.0 0.4491927211549457 3:1.0 33:1.0 505:1.0 636:1.0 
0.0 0.3669405111403343 2:1.0 4:1.0 71:1.0 637:1.0 
0.0726240873336792 0.0 3:1.0 4:1.0 33:1.0 1146:1.0 
1000.0 0.0 3:1.0 4:1.0 105:1.0 1160:1.0 
0.07263283585255609 0.0 3:1.0 4:1.0 33:1.0 619:1.0 
0.009764236971022022 0.0 3:1.0 4:1.0 33:1.0 1161:1.0 
0.072265625 0.0 3:1.0 4:1.0 33:1.0 1166:1.0 
0.009765625 0.0 3:1.0 4:1.0 33:1.0 1177:1.0 
0.029654280788653065 0.0 3:1.0 4:1.0 105:1.0 1178:1.0 
0.029654280788653065 0.0 3:1.0 4:1.0 105:1.0 1183:1.0 
0.072265625 0.0 3:1.0 4:1.0 33:1.0 1181:1.0 
0.072265625 0.0 3:1.0 4:1.0 33:1.0 1154:1.0 
0.029654280788653065 0.0 3:1.0 4:1.0 105:1.0 1192:1.0 
0.01009368896484375 0.0 3:1.0 4:1.0 33:1.0 1194:1.0 
0.029654280788653065 0.0 3:1.0 4:1.0 105:1.0 1201:1.0 
0.07259368896484375 0.0 3:1.0 4:1.0 33:1.0 1191:1.0 
0.07278493247118423 0.0 3:1.0 4:1.0 33:1.0 1204:1.0 
0.07285694195557113 0.0 3:1.0 4:1.0 33:1.0 1212:1.0 
0.002445220947265625 0.0 3:1.0 4:1.0 33:1.0 466:1.0 
0.07268809335073456 0.0 3:1.0 4:1.0 33:1.0 1216:1.0 
0.009009092464393298 0.0 3:1.0 4:1.0 33:1.0 954:1.0 
0.009915164973210988 0.0 3:1.0 4:1.0 33:1.0 1010:1.0 
0.072265625 0.0 3:1.0 4:1.0 33:1.0 1226:1.0 
0.0 0.4491423564946677 3:1.0 33:1.0 636:1.0 1004:1.0 
4.4614431681111455E-4 0.0 3:1.0 4:1.0 33:1.0 1081:1.0 
0.009765625 0.0 3:1.0 4:1.0 33:1.0 1227:1.0 
0.009765625 0.0 3:1.0 4:1.0 33:1.0 1228:1.0 
0.00976767579746518 0.0 3:1.0 4:1.0 33:1.0 1237:1.0 
0.029585016643977724 0.0 3:1.0 4:1.0 105:1.0 1239:1.0 
0.010144710540771484 0.0 3:1.0 4:1.0 33:1.0 1225:1.0 
0.0 0.1720353197909946 50:1.0 76:1.0 638:1.0 639:1.0 
0.02955007260930209 0.0 3:1.0 4:1.0 105:1.0 1270:1.0 
0.010189486792455682 0.0 3:1.0 4:1.0 33:1.0 1282:1.0 
0.01045738601250612 0.0 3:1.0 4:1.0 33:1.0 1302:1.0 
0.010132835852559197 0.0 3:1.0 4:1.0 33:1.0 1310:1.0 
0.029798676675922398 0.0 3:1.0 4:1.0 105:1.0 1313:1.0 
0.010471715109241053 0.0 3:1.0 4:1.0 33:1.0 1315:1.0 
0.0 0.44945847571315894 3:1.0 33:1.0 518:1.0 636:1.0 
0.07191133476012494 0.0 4:1.0 33:1.0 637:1.0 1342:1.0 
0.0725838061557631 0.0 3:1.0 4:1.0 33:1.0 1344:1.0 
0.07227670918209306 0.0 3:1.0 4:1.0 33:1.0 1346:1.0 
0.029654280788653065 0.0 3:1.0 4:1.0 105:1.0 586:1.0 
0.029593636677188284 0.0 3:1.0 4:1.0 105:1.0 818:1.0 
0.029685442552927155 0.0 3:1.0 4:1.0 105:1.0 1364:1.0 
0.07268809335073456 0.0 3:1.0 4:1.0 18:1.0 33:1.0 
0.029796871108812795 0.0 3:1.0 4:1.0 105:1.0 1373:1.0 
0.07268809335073456 0.0 3:1.0 4:1.0 33:1.0 1374:1.0 
0.07264487800421193 0.0 3:1.0 4:1.0 33:1.0 1375:1.0 
0.010257720947265625 0.0 3:1.0 4:1.0 33:1.0 1387:1.0 
0.029577688746025732 0.0 3:1.0 4:1.0 105:1.0 1394:1.0 
0.07295738601250612 0.0 3:1.0 4:1.0 33:1.0 1395:1.0 
0.030101661507524358 0.0 3:1.0 4:1.0 105:1.0 480:1.0 
0.029720153983981645 0.0 3:1.0 4:1.0 105:1.0 1397:1.0 
0.07295738601250612 0.0 3:1.0 4:1.0 33:1.0 1363:1.0 
1000.0 0.0 3:1.0 4:1.0 33:1.0 1400:1.0 
0.029672289926827577 0.0 3:1.0 4:1.0 105:1.0 1410:1.0 
7.428472069439529E-4 0.0 3:1.0 4:1.0 33:1.0 683:1.0 
0.07255302292154298 0.0 3:1.0 4:1.0 33:1.0 1424:1.0 
0.07247419202524519 0.0 3:1.0 4:1.0 33:1.0 1425:1.0 
0.009974192025245188 0.0 3:1.0 4:1.0 33:1.0 1426:1.0 
0.009838921708413162 0.0 3:1.0 4:1.0 33:1.0 423:1.0 
1000.0 0.0 3:1.0 4:1.0 33:1.0 422:1.0 
0.009919716709860804 0.0 3:1.0 4:1.0 33:1.0 1428:1.0 
0.009921061058161929 0.0 3:1.0 4:1.0 33:1.0 1430:1.0 
0.00990925688821731 0.0 3:1.0 4:1.0 33:1.0 1431:1.0 
1000.0 0.0 3:1.0 4:1.0 33:1.0 1433:1.0 
0.009899616241455078 0.0 3:1.0 4:1.0 33:1.0 1438:1.0 
0.009899616241455078 0.0 3:1.0 4:1.0 33:1.0 1442:1.0 
0.029977192866263547 0.0 3:1.0 4:1.0 105:1.0 1440:1.0 
0.0011563327699399828 0.0 3:1.0 4:1.0 105:1.0 430:1.0 
0.07243663698878633 0.0 3:1.0 4:1.0 33:1.0 1450:1.0 
0.009921061058162373 0.0 3:1.0 4:1.0 33:1.0 452:1.0 
0.029735363830358796 0.0 3:1.0 4:1.0 105:1.0 1452:1.0 
0.010158260341760705 0.0 3:1.0 4:1.0 33:1.0 127:1.0 
0.072265625 0.0 3:1.0 4:1.0 33:1.0 460:1.0 
0.009765625 0.0 3:1.0 4:1.0 33:1.0 461:1.0 
6.36322635903408E-4 0.0 3:1.0 4:1.0 33:1.0 489:1.0 
0.07268948679245568 0.0 3:1.0 4:1.0 33:1.0 1455:1.0 
0.010122272644973673 0.0 3:1.0 4:1.0 33:1.0 1456:1.0 
0.009961543957173635 0.0 3:1.0 4:1.0 33:1.0 1457:1.0 
0.00990925688821731 0.0 3:1.0 4:1.0 33:1.0 806:1.0 
0.001229157812637105 0.0 3:1.0 4:1.0 33:1.0 510:1.0 
999.998848033003 0.0 3:1.0 4:1.0 105:1.0 1141:1.0 
0.009899616241455078 0.0 3:1.0 4:1.0 33:1.0 518:1.0 
1000.0 0.0 3:1.0 4:1.0 33:1.0 1044:1.0 
0.02994400449649463 0.0 3:1.0 4:1.0 105:1.0 1465:1.0 
0.009758526197401807 0.0 3:1.0 4:1.0 33:1.0 765:1.0 
0.009925860951607746 0.0 3:1.0 4:1.0 33:1.0 1466:1.0 
0.001096169289103166 0.0 3:1.0 4:1.0 33:1.0 1468:1.0 
0.009760925843365964 0.0 3:1.0 4:1.0 33:1.0 1476:1.0 
3.837616972037772E-4 0.0 3:1.0 4:1.0 104:1.0 105:1.0 
0.009817123955545348 0.0 3:1.0 4:1.0 33:1.0 96:1.0 
0.07233493716949813 0.0 3:1.0 4:1.0 33:1.0 1478:1.0 
0.009637779542877034 0.0 3:1.0 4:1.0 33:1.0 1117:1.0 
0.07267580209271873 0.0 3:1.0 4:1.0 33:1.0 1480:1.0 
0.009698733687400818 0.0 3:1.0 4:1.0 33:1.0 416:1.0 
0.072265625 0.0 3:1.0 4:1.0 33:1.0 1498:1.0 
0.01171875 0.0 3:1.0 4:1.0 33:1.0 441:1.0 
0.01171875 0.0 3:1.0 4:1.0 33:1.0 442:1.0 
0.009765625 0.0 3:1.0 4:1.0 33:1.0 443:1.0 
0.009765625 0.0 3:1.0 4:1.0 33:1.0 1502:1.0 
0.07226767579746696 0.0 3:1.0 4:1.0 33:1.0 310:1.0 
0.029678670813616304 0.0 3:1.0 4:1.0 105:1.0 1082:1.0 
0.009765625 0.0 3:1.0 4:1.0 32:1.0 33:1.0 
0.009765625 0.0 3:1.0 4:1.0 33:1.0 59:1.0 
0.011710546810137945 0.0 3:1.0 4:1.0 33:1.0 1505:1.0 
0.0018983978668449808 0.0 3:1.0 4:1.0 104:1.0 105:1.0 
0.0034930701966557898 0.0 3:1.0 4:1.0 33:1.0 1508:1.0 
0.009758526197401807 0.0 3:1.0 4:1.0 33:1.0 1511:1.0 
0.0722585261974018 0.0 3:1.0 4:1.0 33:1.0 1544:1.0 
0.02965402603149414 0.0 3:1.0 4:1.0 105:1.0 362:1.0 
0.009758526197401807 0.0 3:1.0 4:1.0 33:1.0 1028:1.0 
0.009758526197401807 0.0 3:1.0 4:1.0 33:1.0 1094:1.0 
0.02965402603149414 0.0 3:1.0 4:1.0 105:1.0 1556:1.0 
0.009758526197401807 0.0 3:1.0 4:1.0 33:1.0 113:1.0 
1000.0 0.0 3:1.0 4:1.0 33:1.0 1088:1.0 
0.0722585261974018 0.0 3:1.0 4:1.0 33:1.0 1607:1.0 
0.0722585261974018 0.0 3:1.0 4:1.0 33:1.0 1608:1.0 
0.009758526197401807 0.0 3:1.0 4:1.0 33:1.0 1023:1.0 
0.009698733687400818 0.0 3:1.0 4:1.0 33:1.0 958:1.0 
0.009698733687400818 0.0 3:1.0 4:1.0 33:1.0 1014:1.0 
0.009698733687400818 0.0 3:1.0 4:1.0 33:1.0 1006:1.0 
0.009698733687400818 0.0 3:1.0 4:1.0 33:1.0 1081:1.0 
0.009698733687400818 0.0 3:1.0 4:1.0 33:1.0 1025:1.0 
0.0034629554981759902 0.0 3:1.0 4:1.0 33:1.0 593:1.0 
0.009698733687400818 0.0 3:1.0 4:1.0 33:1.0 1078:1.0 
0.009698733687400818 0.0 3:1.0 4:1.0 33:1.0 1022:1.0 
0.07267571585064969 0.0 3:1.0 4:1.0 33:1.0 997:1.0 
0.009637779542877034 0.0 3:1.0 4:1.0 33:1.0 1621:1.0 
0.010188093350734562 0.0 3:1.0 4:1.0 33:1.0 1622:1.0 
0.010188093350734562 0.0 3:1.0 4:1.0 33:1.0 1623:1.0 
4.540160298347473E-4 0.0 3:1.0 4:1.0 33:1.0 1022:1.0 
0.010195138376434265 0.0 3:1.0 4:1.0 33:1.0 1041:1.0 
0.010188093350734562 0.0 3:1.0 4:1.0 33:1.0 1625:1.0 
0.010188093350734562 0.0 3:1.0 4:1.0 33:1.0 451:1.0 
5.52203978561483E-4 0.0 3:1.0 4:1.0 33:1.0 1117:1.0 
0.010188093350734562 0.0 3:1.0 4:1.0 33:1.0 1148:1.0 
0.010188093350734562 0.0 3:1.0 4:1.0 33:1.0 1040:1.0 
0.010188093350734562 0.0 3:1.0 4:1.0 33:1.0 85:1.0 
0.017860545221688975 0.0 4:1.0 33:1.0 639:1.0 1627:1.0 
0.009805280370676073 0.0 3:1.0 4:1.0 33:1.0 1043:1.0 
0.00978904822636073 0.0 3:1.0 4:1.0 33:1.0 1045:1.0 
0.009786885119522193 0.0 3:1.0 4:1.0 33:1.0 967:1.0 
4.826784133911133E-4 0.0 3:1.0 4:1.0 33:1.0 290:1.0 
0.009821851386558222 0.0 3:1.0 4:1.0 33:1.0 1047:1.0 
0.009821851386558222 0.0 3:1.0 4:1.0 33:1.0 1059:1.0 
0.010170171777533765 0.0 3:1.0 4:1.0 33:1.0 1629:1.0 
0.009765909551058272 0.0 3:1.0 4:1.0 33:1.0 1004:1.0 
4.540160298347473E-4 0.0 3:1.0 4:1.0 33:1.0 1025:1.0 
0.0010932891010924095 0.0 3:1.0 4:1.0 33:1.0 1636:1.0 
0.009758526197401807 0.0 3:1.0 4:1.0 33:1.0 1639:1.0 
0.07268809335073456 0.0 3:1.0 4:1.0 33:1.0 1642:1.0 
0.07268809335073456 0.0 3:1.0 4:1.0 33:1.0 1645:1.0 
5.52203978561483E-4 0.0 3:1.0 4:1.0 33:1.0 1621:1.0 
0.010460310742989698 0.0 3:1.0 4:1.0 33:1.0 1647:1.0 
0.07274135415518868 0.0 3:1.0 4:1.0 33:1.0 1649:1.0 
0.009899616241455078 0.0 3:1.0 4:1.0 33:1.0 632:1.0 
4.540160298347473E-4 0.0 3:1.0 4:1.0 33:1.0 958:1.0 
0.009899616241455078 0.0 3:1.0 4:1.0 33:1.0 1053:1.0 
0.0 0.20636810350055 3:1.0 14:1.0 15:1.0 636:1.0 
0.07239961624145508 0.0 3:1.0 4:1.0 33:1.0 1664:1.0 
0.0021144744509009605 0.0 3:1.0 4:1.0 33:1.0 1665:1.0 
0.009953995588313447 0.0 3:1.0 4:1.0 33:1.0 1670:1.0 
0.0 0.4494584757131591 3:1.0 33:1.0 636:1.0 1671:1.0 
0.002087116241455078 0.0 3:1.0 4:1.0 33:1.0 1673:1.0 
0.07285053378590667 0.0 3:1.0 4:1.0 33:1.0 1674:1.0 
0.07268926494996975 0.0 3:1.0 4:1.0 33:1.0 1677:1.0 
0.07262227264497367 0.0 3:1.0 4:1.0 33:1.0 1678:1.0 
0.010122272644973673 0.0 3:1.0 4:1.0 33:1.0 1660:1.0 
0.07264487800421193 0.0 3:1.0 4:1.0 33:1.0 1679:1.0 
9.934913185776217E-4 0.0 3:1.0 4:1.0 33:1.0 1208:1.0 
0.07264487800421193 0.0 3:1.0 4:1.0 33:1.0 1671:1.0 
0.01045738601250612 0.0 3:1.0 4:1.0 33:1.0 506:1.0 
0.010369672237224181 0.0 3:1.0 4:1.0 33:1.0 903:1.0 
0.010189486792455682 0.0 3:1.0 4:1.0 33:1.0 1697:1.0 
0.00990605249267118 0.0 3:1.0 4:1.0 33:1.0 1606:1.0 
0.0013912841450274271 0.0 3:1.0 4:1.0 33:1.0 1710:1.0 
4.540160298347473E-4 0.0 3:1.0 4:1.0 33:1.0 1014:1.0 
0.009936911755995204 0.0 3:1.0 4:1.0 33:1.0 956:1.0 
0.010118239734062229 0.0 3:1.0 4:1.0 33:1.0 1097:1.0 
0.0 0.00611131652412511 3:1.0 33:1.0 310:1.0 636:1.0 
0.010144349597363433 0.0 3:1.0 4:1.0 33:1.0 1715:1.0 
0.009817123955545681 0.0 3:1.0 4:1.0 33:1.0 93:1.0 
0.010368553681337378 0.0 3:1.0 4:1.0 33:1.0 1716:1.0 
0.01035694195557113 0.0 3:1.0 4:1.0 33:1.0 1718:1.0 
0.0016150380251929164 0.0 3:1.0 4:1.0 33:1.0 1104:1.0 
0.0 0.4494242420121208 3:1.0 33:1.0 636:1.0 1223:1.0 
0.0720948857193211 0.0 4:1.0 33:1.0 637:1.0 1720:1.0 
0.0 0.35309910394716487 2:1.0 3:1.0 636:1.0 1451:1.0 
0.010284932471184671 0.0 3:1.0 4:1.0 33:1.0 125:1.0 
7.471127752336493E-4 0.0 3:1.0 4:1.0 105:1.0 1249:1.0 
0.009765625 0.0 3:1.0 4:1.0 33:1.0 1738:1.0 
0.009765625 0.0 3:1.0 4:1.0 33:1.0 533:1.0 
0.001134644520484951 0.0 3:1.0 4:1.0 33:1.0 1744:1.0 
0.07226423697102247 0.0 3:1.0 4:1.0 33:1.0 1753:1.0 
0.009764236971022466 0.0 3:1.0 4:1.0 33:1.0 1042:1.0 
0.010170474453345069 0.0 3:1.0 4:1.0 33:1.0 1759:1.0 
0.009789048226360841 0.0 3:1.0 4:1.0 33:1.0 108:1.0 
0.029735363830358796 0.0 3:1.0 4:1.0 105:1.0 1266:1.0 
0.010144349597363878 0.0 3:1.0 4:1.0 33:1.0 655:1.0 
0.029735363830358796 0.0 3:1.0 4:1.0 105:1.0 1765:1.0 
0.07264434959736388 0.0 3:1.0 4:1.0 33:1.0 1281:1.0 
0.07247419202524519 0.0 3:1.0 4:1.0 33:1.0 749:1.0 
0.00991971670986036 0.0 3:1.0 4:1.0 33:1.0 1771:1.0 
0.07242205721816752 0.0 3:1.0 4:1.0 33:1.0 1778:1.0 
0.009922057218167524 0.0 3:1.0 4:1.0 33:1.0 1780:1.0 
0.00993663698878633 0.0 3:1.0 4:1.0 33:1.0 1782:1.0 
0.009926974450900516 0.0 3:1.0 4:1.0 33:1.0 1783:1.0 
0.009926974450900516 0.0 3:1.0 4:1.0 33:1.0 1785:1.0 
0.07239961624145508 0.0 3:1.0 4:1.0 33:1.0 1787:1.0 
0.07239961624145508 0.0 3:1.0 4:1.0 33:1.0 1791:1.0 
0.07239961624145508 0.0 3:1.0 4:1.0 33:1.0 1795:1.0 
0.0625 0.0 3:1.0 4:1.0 33:1.0 1785:1.0 
0.07239961624145508 0.0 3:1.0 4:1.0 33:1.0 1799:1.0 
0.07240947652665808 0.0 3:1.0 4:1.0 33:1.0 1800:1.0 
0.009909476526658079 0.0 3:1.0 4:1.0 33:1.0 201:1.0 
0.009850252565636541 0.0 3:1.0 4:1.0 33:1.0 190:1.0 
0.07245982866643663 0.0 3:1.0 4:1.0 33:1.0 1294:1.0 
0.07234408218182442 0.0 3:1.0 4:1.0 33:1.0 1819:1.0 
0.00991971670986136 0.0 3:1.0 4:1.0 33:1.0 1821:1.0 
0.009926974450901627 0.0 3:1.0 4:1.0 33:1.0 1823:1.0 
0.07263283585255653 0.0 3:1.0 4:1.0 33:1.0 1829:1.0 
0.07234015636141722 0.0 3:1.0 4:1.0 33:1.0 1838:1.0 
0.07239961624145508 0.0 3:1.0 4:1.0 33:1.0 1849:1.0 
0.07239961624145508 0.0 3:1.0 4:1.0 33:1.0 1853:1.0 
0.07239961624145508 0.0 3:1.0 4:1.0 33:1.0 1854:1.0 
0.0625 0.0 3:1.0 4:1.0 33:1.0 1771:1.0 
0.0 0.3531332887419755 2:1.0 3:1.0 636:1.0 695:1.0 
0.07239961624145508 0.0 3:1.0 4:1.0 33:1.0 1881:1.0 
0.0 0.35325690694564504 2:1.0 3:1.0 262:1.0 636:1.0 
0.009899616241455078 0.0 3:1.0 4:1.0 33:1.0 295:1.0 
4.4614431681111455E-4 0.0 3:1.0 4:1.0 33:1.0 1078:1.0 
0.009899616241455078 0.0 3:1.0 4:1.0 33:1.0 289:1.0 
0.009899616241455078 0.0 3:1.0 4:1.0 33:1.0 297:1.0 
0.009899616241455078 0.0 3:1.0 4:1.0 33:1.0 777:1.0 
0.07239961624145508 0.0 3:1.0 4:1.0 33:1.0 1892:1.0 
0.009899616241455078 0.0 3:1.0 4:1.0 33:1.0 559:1.0 
0.009899616241455078 0.0 3:1.0 4:1.0 33:1.0 995:1.0 
0.07239961624145508 0.0 3:1.0 4:1.0 33:1.0 1897:1.0 
0.07239961624145508 0.0 3:1.0 4:1.0 33:1.0 1898:1.0 
0.07240925688821731 0.0 3:1.0 4:1.0 33:1.0 1903:1.0 
0.07242106105816193 0.0 3:1.0 4:1.0 33:1.0 1904:1.0 
0.029763751113724313 0.0 3:1.0 4:1.0 105:1.0 811:1.0 
0.02397336266756156 0.0 3:1.0 4:1.0 33:1.0 511:1.0 
0.001664983356022276 0.0 3:1.0 4:1.0 105:1.0 1906:1.0 
0.009974192025245188 0.0 3:1.0 4:1.0 33:1.0 1916:1.0 
0.009974192025245188 0.0 3:1.0 4:1.0 33:1.0 696:1.0 
0.019171683431245423 0.0 3:1.0 4:1.0 33:1.0 1414:1.0 
0.07248421887668899 0.0 3:1.0 4:1.0 33:1.0 1926:1.0 
0.010368576971850119 0.0 3:1.0 4:1.0 33:1.0 1934:1.0 
0.0724187293949996 0.0 3:1.0 4:1.0 33:1.0 1939:1.0 
0.005631389355341465 0.0 3:1.0 4:1.0 33:1.0 517:1.0 
0.010120608943449572 0.0 3:1.0 4:1.0 33:1.0 1969:1.0 
0.07243691175599509 0.0 3:1.0 4:1.0 33:1.0 1970:1.0 
0.07263215225643016 0.0 3:1.0 4:1.0 33:1.0 1973:1.0 
0.07263728028834038 0.0 3:1.0 4:1.0 33:1.0 1974:1.0 
0.0625 0.0 3:1.0 4:1.0 33:1.0 1782:1.0 
0.0625 0.0 3:1.0 4:1.0 33:1.0 1783:1.0 
0.07240138617003677 0.0 3:1.0 4:1.0 33:1.0 1975:1.0 
0.07252065010506237 0.0 3:1.0 4:1.0 33:1.0 1978:1.0 
0.010188093350734562 0.0 3:1.0 4:1.0 33:1.0 1979:1.0 
0.010188093350734562 0.0 3:1.0 4:1.0 33:1.0 1274:1.0 
0.010188093350734562 0.0 3:1.0 4:1.0 33:1.0 1984:1.0 
0.07268809335073456 0.0 3:1.0 4:1.0 33:1.0 1985:1.0 
0.07268809335073456 0.0 3:1.0 4:1.0 33:1.0 2005:1.0 
0.029585016643977724 0.0 3:1.0 4:1.0 105:1.0 2011:1.0 
0.029735363830358796 0.0 3:1.0 4:1.0 105:1.0 2021:1.0 
0.07268809335073456 0.0 3:1.0 4:1.0 33:1.0 2033:1.0 
0.010188093350734562 0.0 3:1.0 4:1.0 33:1.0 2038:1.0 
4.1453138127867106E-4 0.0 3:1.0 4:1.0 33:1.0 2041:1.0 
0.010188093350734562 0.0 3:1.0 4:1.0 33:1.0 1303:1.0 
0.010175802092719177 0.0 3:1.0 4:1.0 33:1.0 1304:1.0 
0.029911083582385922 0.0 3:1.0 4:1.0 105:1.0 879:1.0 
0.010175715850650136 0.0 3:1.0 4:1.0 33:1.0 2043:1.0 
0.010174597457341505 0.0 3:1.0 4:1.0 33:1.0 2057:1.0 
0.010170474453344625 0.0 3:1.0 4:1.0 33:1.0 2060:1.0 
0.00982409135496487 0.0 3:1.0 4:1.0 33:1.0 2062:1.0 
0.0101240873336792 0.0 3:1.0 4:1.0 33:1.0 1864:1.0 
0.0101240873336792 0.0 3:1.0 4:1.0 33:1.0 2064:1.0 
0.0101240873336792 0.0 3:1.0 4:1.0 33:1.0 1869:1.0 
0.0101240873336792 0.0 3:1.0 4:1.0 33:1.0 2065:1.0 
0.0101240873336792 0.0 3:1.0 4:1.0 33:1.0 2077:1.0 
0.0101240873336792 0.0 3:1.0 4:1.0 33:1.0 2082:1.0 
0.029593636677189172 0.0 3:1.0 4:1.0 105:1.0 1312:1.0 
0.0101240873336792 0.0 3:1.0 4:1.0 33:1.0 2083:1.0 
0.0101240873336792 0.0 3:1.0 4:1.0 33:1.0 2085:1.0 
0.0101240873336792 0.0 3:1.0 4:1.0 33:1.0 2087:1.0 
0.0101240873336792 0.0 3:1.0 4:1.0 33:1.0 267:1.0 
0.0101240873336792 0.0 3:1.0 4:1.0 33:1.0 268:1.0 
0.0101240873336792 0.0 3:1.0 4:1.0 33:1.0 2093:1.0 
0.0101240873336792 0.0 3:1.0 4:1.0 33:1.0 2095:1.0 
0.0101240873336792 0.0 3:1.0 4:1.0 33:1.0 774:1.0 
0.0101240873336792 0.0 3:1.0 4:1.0 33:1.0 2101:1.0 
0.0101240873336792 0.0 3:1.0 4:1.0 33:1.0 2107:1.0 
0.010144878004211932 0.0 3:1.0 4:1.0 33:1.0 1340:1.0 
0.010144878004211932 0.0 3:1.0 4:1.0 33:1.0 2115:1.0 
0.010144878004211932 0.0 3:1.0 4:1.0 33:1.0 1131:1.0 
0.07264487800421193 0.0 3:1.0 4:1.0 33:1.0 2119:1.0 
0.20286790511809838 0.0 2:1.0 3:1.0 4:1.0 1030:1.0 
0.010144878004211932 0.0 3:1.0 4:1.0 33:1.0 2158:1.0 
0.07264487800421193 0.0 3:1.0 4:1.0 33:1.0 2162:1.0 
0.07264487800421193 0.0 3:1.0 4:1.0 33:1.0 2163:1.0 
0.07264487800421193 0.0 3:1.0 4:1.0 33:1.0 2166:1.0 
0.029816745782383802 0.0 3:1.0 4:1.0 105:1.0 2170:1.0 
0.010144545737864163 0.0 3:1.0 4:1.0 33:1.0 2179:1.0 
0.029887772222151665 0.0 3:1.0 4:1.0 105:1.0 2190:1.0 
0.029774806520538877 0.0 3:1.0 4:1.0 105:1.0 1402:1.0 
4.4614431681111455E-4 0.0 3:1.0 4:1.0 33:1.0 416:1.0 
0.001887820118355088 0.0 3:1.0 4:1.0 33:1.0 2201:1.0 
0.0016108081667103313 0.0 3:1.0 4:1.0 33:1.0 2206:1.0 
0.07264454573786416 0.0 3:1.0 4:1.0 33:1.0 2208:1.0 
0.0010442802284948982 0.0 3:1.0 4:1.0 33:1.0 2209:1.0 
0.010144545737864163 0.0 3:1.0 4:1.0 33:1.0 2221:1.0 
0.010144545737864163 0.0 3:1.0 4:1.0 33:1.0 1133:1.0 
0.010141157896681463 0.0 3:1.0 4:1.0 33:1.0 1135:1.0 
0.010471715109241497 0.0 3:1.0 4:1.0 33:1.0 670:1.0 
0.010460310742989698 0.0 3:1.0 4:1.0 33:1.0 2229:1.0 
0.010457658676175985 0.0 3:1.0 4:1.0 33:1.0 2230:1.0 
0.0011563327699399828 0.0 3:1.0 4:1.0 105:1.0 1566:1.0 
0.07295738601250612 0.0 3:1.0 4:1.0 33:1.0 531:1.0 
0.00145627297276274 0.0 3:1.0 4:1.0 33:1.0 94:1.0 
8.865214234194951E-4 0.0 3:1.0 4:1.0 33:1.0 1519:1.0 
4.4614431681111455E-4 0.0 3:1.0 4:1.0 33:1.0 1534:1.0 
0.01045738601250612 0.0 3:1.0 4:1.0 33:1.0 2235:1.0 
0.0625 0.0 3:1.0 4:1.0 33:1.0 2235:1.0 
0.0728696722372244 0.0 3:1.0 4:1.0 33:1.0 2237:1.0 
1000.0 0.0 3:1.0 4:1.0 33:1.0 1030:1.0 
0.0029063299382761087 0.0 3:1.0 4:1.0 105:1.0 864:1.0 
0.0728696722372244 0.0 3:1.0 4:1.0 33:1.0 2241:1.0 
0.010333058180003185 0.0 3:1.0 4:1.0 33:1.0 2242:1.0 
1000.0 0.0 3:1.0 4:1.0 33:1.0 1088:1.0 
4.826784133911133E-4 0.0 3:1.0 4:1.0 33:1.0 1597:1.0 
4.826784133911133E-4 0.0 3:1.0 4:1.0 33:1.0 1600:1.0 
0.07275772094726562 0.0 3:1.0 4:1.0 33:1.0 2260:1.0 
0.07275772094726562 0.0 3:1.0 4:1.0 33:1.0 2261:1.0 
0.010257720947265625 0.0 3:1.0 4:1.0 33:1.0 1275:1.0 
0.07275772094726562 0.0 3:1.0 4:1.0 33:1.0 2273:1.0 
0.07275772094726562 0.0 3:1.0 4:1.0 33:1.0 2275:1.0 
0.010257720947265625 0.0 3:1.0 4:1.0 33:1.0 706:1.0 
0.009758526197401807 0.0 3:1.0 4:1.0 33:1.0 783:1.0 
0.0722585261974018 0.0 3:1.0 4:1.0 33:1.0 2289:1.0 
0.0722585261974018 0.0 3:1.0 4:1.0 33:1.0 2290:1.0 
0.009758526197401807 0.0 3:1.0 4:1.0 33:1.0 969:1.0 
0.010144878004211932 0.0 3:1.0 4:1.0 33:1.0 2294:1.0 
0.010144878004211932 0.0 3:1.0 4:1.0 33:1.0 1286:1.0 
0.07264487800421193 0.0 3:1.0 4:1.0 33:1.0 2322:1.0 
0.07268998352143896 0.0 3:1.0 4:1.0 33:1.0 2334:1.0 
0.07267580209271918 0.0 3:1.0 4:1.0 33:1.0 222:1.0 
0.07268809335073456 0.0 3:1.0 4:1.0 33:1.0 217:1.0 
0.010188093350734562 0.0 3:1.0 4:1.0 33:1.0 1360:1.0 
0.029856163902445054 0.0 3:1.0 4:1.0 105:1.0 2355:1.0 
0.009834937169498126 0.0 3:1.0 4:1.0 33:1.0 311:1.0 
0.0625 0.0 3:1.0 4:1.0 33:1.0 1821:1.0 
1000.0 0.0 3:1.0 4:1.0 33:1.0 1083:1.0 
0.029750280879766944 0.0 3:1.0 4:1.0 105:1.0 2364:1.0 
0.029744329731999475 0.0 3:1.0 4:1.0 105:1.0 2367:1.0 
0.009840156361417218 0.0 3:1.0 4:1.0 33:1.0 2369:1.0 
0.029685442552927155 0.0 3:1.0 4:1.0 105:1.0 2373:1.0 
0.029813334128467428 0.0 3:1.0 4:1.0 105:1.0 2374:1.0 
0.07237944167804611 0.0 3:1.0 4:1.0 33:1.0 145:1.0 
0.07239961624145508 0.0 3:1.0 4:1.0 33:1.0 2378:1.0 
0.07239961624145508 0.0 3:1.0 4:1.0 33:1.0 2379:1.0 
0.029744329731999253 0.0 3:1.0 4:1.0 105:1.0 2383:1.0 
0.029654280788653065 0.0 3:1.0 4:1.0 105:1.0 2387:1.0 
0.029805613556932453 0.0 3:1.0 4:1.0 105:1.0 2390:1.0 
0.009899616241455078 0.0 3:1.0 4:1.0 33:1.0 2394:1.0 
0.07239961624145508 0.0 3:1.0 4:1.0 33:1.0 2396:1.0 
0.07239961624145508 0.0 3:1.0 4:1.0 33:1.0 2403:1.0 
6.711639252499069E-4 0.0 3:1.0 4:1.0 33:1.0 1233:1.0 
0.009906052492670625 0.0 3:1.0 4:1.0 33:1.0 2406:1.0 
0.009906052492670625 0.0 3:1.0 4:1.0 33:1.0 2407:1.0 
0.029805613556932453 0.0 3:1.0 4:1.0 105:1.0 2410:1.0 
0.0724115303183801 0.0 3:1.0 4:1.0 33:1.0 2411:1.0 
0.07242106105816148 0.0 3:1.0 4:1.0 33:1.0 2412:1.0 
0.029596542811696436 0.0 3:1.0 4:1.0 105:1.0 2422:1.0 
0.07242106105816148 0.0 3:1.0 4:1.0 33:1.0 2423:1.0 
0.07261324247090695 0.0 3:1.0 4:1.0 33:1.0 2424:1.0 
0.010117866241720286 0.0 3:1.0 4:1.0 33:1.0 1076:1.0 
0.01012861574404278 0.0 3:1.0 4:1.0 33:1.0 2429:1.0 
0.07263833323811042 0.0 3:1.0 4:1.0 33:1.0 2431:1.0 
0.013613406268084938 0.0 3:1.0 4:1.0 33:1.0 2440:1.0 
0.010157862963087183 0.0 3:1.0 4:1.0 33:1.0 1223:1.0 
0.010129032938596794 0.0 3:1.0 4:1.0 33:1.0 2451:1.0 
0.010132835852556532 0.0 3:1.0 4:1.0 33:1.0 206:1.0 
0.02966598196057868 0.0 3:1.0 4:1.0 105:1.0 2460:1.0 
0.07263283585255653 0.0 3:1.0 4:1.0 33:1.0 2478:1.0 
0.07263283585255964 0.0 3:1.0 4:1.0 33:1.0 2481:1.0 
0.030101661507524025 0.0 3:1.0 4:1.0 105:1.0 154:1.0 
0.029685442552927377 0.0 3:1.0 4:1.0 105:1.0 2482:1.0 
0.0726351082469141 0.0 3:1.0 4:1.0 33:1.0 2488:1.0 
0.0726351082469141 0.0 3:1.0 4:1.0 33:1.0 2500:1.0 
0.07264173987134859 0.0 3:1.0 4:1.0 33:1.0 2516:1.0 
0.0 0.353001158414944 2:1.0 3:1.0 636:1.0 2517:1.0 
0.01010082573319715 0.0 3:1.0 4:1.0 33:1.0 2521:1.0 
0.0 4.8101929435784285E-4 2:1.0 3:1.0 636:1.0 2523:1.0 
0.07264487800421193 0.0 3:1.0 4:1.0 33:1.0 2524:1.0 
0.07264487800421193 0.0 3:1.0 4:1.0 33:1.0 2526:1.0 
0.07264487800421193 0.0 3:1.0 4:1.0 33:1.0 2527:1.0 
0.07264487800421193 0.0 3:1.0 4:1.0 33:1.0 2530:1.0 
0.029685442552927377 0.0 3:1.0 4:1.0 105:1.0 667:1.0 
0.07264454573786372 0.0 3:1.0 4:1.0 33:1.0 2534:1.0 
0.002445220947265625 0.0 3:1.0 4:1.0 33:1.0 2535:1.0 
0.01014454573786372 0.0 3:1.0 4:1.0 33:1.0 2536:1.0 
0.0625 0.0 3:1.0 4:1.0 33:1.0 903:1.0 
0.07243730255526115 0.0 3:1.0 4:1.0 33:1.0 2545:1.0 
0.01045738601250612 0.0 3:1.0 4:1.0 33:1.0 2547:1.0 
0.001664983356022276 0.0 3:1.0 4:1.0 105:1.0 2548:1.0 
0.029735363830358796 0.0 3:1.0 4:1.0 105:1.0 2553:1.0 
0.0625 0.0 3:1.0 4:1.0 33:1.0 1660:1.0 
0.029735363830358796 0.0 3:1.0 4:1.0 105:1.0 2554:1.0 
0.010369672237224403 0.0 3:1.0 4:1.0 33:1.0 2557:1.0 
0.010333058180002741 0.0 3:1.0 4:1.0 33:1.0 391:1.0 
0.0625 0.0 3:1.0 4:1.0 33:1.0 2557:1.0 
0.029735363830358796 0.0 3:1.0 4:1.0 105:1.0 2564:1.0 
0.0724373025552606 0.0 3:1.0 4:1.0 33:1.0 2568:1.0 
0.0625 0.0 3:1.0 4:1.0 33:1.0 1456:1.0 
0.010257720947265625 0.0 3:1.0 4:1.0 33:1.0 82:1.0 
0.060550976594930805 0.0 3:1.0 4:1.0 33:1.0 1505:1.0 
0.010257720947265625 0.0 3:1.0 4:1.0 33:1.0 2571:1.0 
0.010257720947265625 0.0 3:1.0 4:1.0 33:1.0 2574:1.0 
0.07275772094726562 0.0 3:1.0 4:1.0 33:1.0 2575:1.0 
0.07275772094726562 0.0 3:1.0 4:1.0 33:1.0 2577:1.0 
0.009026490332379788 0.0 3:1.0 4:1.0 33:1.0 2579:1.0 
0.0625 0.0 3:1.0 4:1.0 33:1.0 2574:1.0 
0.07275772094726562 0.0 3:1.0 4:1.0 33:1.0 2587:1.0 
0.029735363830358796 0.0 3:1.0 4:1.0 105:1.0 2588:1.0 
0.010257720947265625 0.0 3:1.0 4:1.0 33:1.0 2591:1.0 
0.07203027574854619 0.0 4:1.0 33:1.0 637:1.0 2596:1.0 
4.4614431681111455E-4 0.0 3:1.0 4:1.0 33:1.0 1006:1.0 
0.010257720947265625 0.0 3:1.0 4:1.0 33:1.0 1008:1.0 
1000.0 0.0 3:1.0 4:1.0 33:1.0 1083:1.0 
0.0 1000.0 50:1.0 132:1.0 637:1.0 638:1.0 
1000.0 0.0 3:1.0 4:1.0 33:1.0 1083:1.0 
0.010189486792455682 0.0 3:1.0 4:1.0 33:1.0 1026:1.0 
0.02955007260930209 0.0 3:1.0 4:1.0 105:1.0 2604:1.0 
1000.0 0.0 3:1.0 4:1.0 33:1.0 1083:1.0 
0.029577688746025732 0.0 3:1.0 4:1.0 105:1.0 1230:1.0 
1000.0 0.0 3:1.0 4:1.0 33:1.0 1083:1.0 
0.001009148828812645 0.0 3:1.0 4:1.0 33:1.0 2606:1.0 
0.07268948679245568 0.0 3:1.0 4:1.0 33:1.0 2614:1.0 
0.0625 0.0 3:1.0 4:1.0 33:1.0 1131:1.0 
0.010189486792455682 0.0 3:1.0 4:1.0 33:1.0 613:1.0 
0.010189264949969523 0.0 3:1.0 4:1.0 33:1.0 804:1.0 
0.07268926494996952 0.0 3:1.0 4:1.0 33:1.0 2623:1.0 
0.07264471054077148 0.0 3:1.0 4:1.0 33:1.0 2633:1.0 
0.029577688746025732 0.0 3:1.0 4:1.0 105:1.0 2634:1.0 
0.0625 0.0 3:1.0 4:1.0 33:1.0 706:1.0 
4.75611120084912 0.0 3:1.0 4:1.0 116:1.0 2648:1.0 
0.07264471054077148 0.0 3:1.0 4:1.0 33:1.0 2658:1.0 
0.005412062732646827 0.0 3:1.0 4:1.0 105:1.0 2667:1.0 
0.0625 0.0 3:1.0 4:1.0 33:1.0 2038:1.0 
0.0625 0.0 3:1.0 4:1.0 33:1.0 1823:1.0 
0.0625 0.0 3:1.0 4:1.0 33:1.0 2043:1.0 
0.029585016643977724 0.0 3:1.0 4:1.0 105:1.0 764:1.0 
0.0625 0.0 3:1.0 4:1.0 33:1.0 2057:1.0 
0.0625 0.0 3:1.0 4:1.0 33:1.0 2060:1.0 
0.0625 0.0 3:1.0 4:1.0 33:1.0 2062:1.0 
0.0625 0.0 3:1.0 4:1.0 33:1.0 1864:1.0 
0.0625 0.0 3:1.0 4:1.0 33:1.0 2064:1.0 
0.0625 0.0 3:1.0 4:1.0 33:1.0 1869:1.0 
0.0625 0.0 3:1.0 4:1.0 33:1.0 2065:1.0 
0.0625 0.0 3:1.0 4:1.0 33:1.0 2082:1.0 
0.0625 0.0 3:1.0 4:1.0 33:1.0 2083:1.0 
0.0625 0.0 3:1.0 4:1.0 33:1.0 2087:1.0 
0.07264471054077148 0.0 3:1.0 4:1.0 33:1.0 2683:1.0 
0.0625 0.0 3:1.0 4:1.0 33:1.0 2093:1.0 
0.0625 0.0 3:1.0 4:1.0 33:1.0 2095:1.0 
0.0625 0.0 3:1.0 4:1.0 33:1.0 2101:1.0 
0.0625 0.0 3:1.0 4:1.0 33:1.0 2107:1.0 
0.0625 0.0 3:1.0 4:1.0 33:1.0 2077:1.0 
0.0625 0.0 3:1.0 4:1.0 33:1.0 2115:1.0 
7.530075620380883 0.0 2:1.0 3:1.0 4:1.0 1030:1.0 
0.0625 0.0 3:1.0 4:1.0 33:1.0 804:1.0 
1000.0 0.0 3:1.0 4:1.0 33:1.0 1030:1.0 
0.07250489213450706 0.0 3:1.0 4:1.0 33:1.0 2708:1.0 
0.07243744049495016 0.0 3:1.0 4:1.0 33:1.0 2254:1.0 
0.029585016643977724 0.0 3:1.0 4:1.0 105:1.0 2712:1.0 
0.0625 0.0 3:1.0 4:1.0 33:1.0 2179:1.0 
0.07226767579746518 0.0 3:1.0 4:1.0 33:1.0 2718:1.0 
0.009765625 0.0 3:1.0 4:1.0 33:1.0 2720:1.0 
0.072265625 0.0 3:1.0 4:1.0 33:1.0 2725:1.0 
0.0625 0.0 3:1.0 4:1.0 33:1.0 696:1.0 
0.009765625 0.0 3:1.0 4:1.0 33:1.0 148:1.0 
0.072265625 0.0 3:1.0 4:1.0 33:1.0 2734:1.0 
0.0625 0.0 3:1.0 4:1.0 33:1.0 1639:1.0 
0.072265625 0.0 3:1.0 4:1.0 33:1.0 2739:1.0 
0.072265625 0.0 3:1.0 4:1.0 33:1.0 2740:1.0 
0.072265625 0.0 3:1.0 4:1.0 33:1.0 2743:1.0 
0.029585016643977724 0.0 3:1.0 4:1.0 105:1.0 2747:1.0 
0.072265625 0.0 3:1.0 4:1.0 33:1.0 225:1.0 
0.072265625 0.0 3:1.0 4:1.0 33:1.0 2757:1.0 
0.072265625 0.0 3:1.0 4:1.0 33:1.0 227:1.0 
0.072265625 0.0 3:1.0 4:1.0 33:1.0 257:1.0 
0.072265625 0.0 3:1.0 4:1.0 33:1.0 259:1.0 
0.072265625 0.0 3:1.0 4:1.0 33:1.0 260:1.0 
0.0625 0.0 3:1.0 4:1.0 33:1.0 267:1.0 
0.0625 0.0 3:1.0 4:1.0 33:1.0 268:1.0 
0.07263510824691388 0.0 3:1.0 4:1.0 33:1.0 282:1.0 
0.07232029961971476 0.0 3:1.0 4:1.0 33:1.0 283:1.0 
0.0625 0.0 3:1.0 4:1.0 33:1.0 295:1.0 
0.07262903293859635 0.0 3:1.0 4:1.0 33:1.0 302:1.0 
0.07243663698878589 0.0 3:1.0 4:1.0 33:1.0 312:1.0 
0.07264434959736343 0.0 3:1.0 4:1.0 33:1.0 316:1.0 
0.010144349597363433 0.0 3:1.0 4:1.0 33:1.0 775:1.0 
0.07264434959736343 0.0 3:1.0 4:1.0 33:1.0 776:1.0 
0.07264434959736343 0.0 3:1.0 4:1.0 33:1.0 787:1.0 
0.07268809335073456 0.0 3:1.0 4:1.0 33:1.0 2766:1.0 
0.0625 0.0 3:1.0 4:1.0 33:1.0 655:1.0 
0.07268809335073456 0.0 3:1.0 4:1.0 33:1.0 768:1.0 
0.0625 0.0 3:1.0 4:1.0 33:1.0 127:1.0 
0.07268809335073456 0.0 3:1.0 4:1.0 33:1.0 2773:1.0 
0.029585016643977724 0.0 3:1.0 4:1.0 105:1.0 2774:1.0 
0.0625 0.0 3:1.0 4:1.0 33:1.0 2242:1.0 
0.010188093350734562 0.0 3:1.0 4:1.0 33:1.0 2777:1.0 
0.010188093350734562 0.0 3:1.0 4:1.0 33:1.0 336:1.0 
0.07268809335073456 0.0 3:1.0 4:1.0 33:1.0 2779:1.0 
0.0725936889648433 0.0 3:1.0 4:1.0 33:1.0 578:1.0 
0.010188093350734562 0.0 3:1.0 4:1.0 33:1.0 2784:1.0 
0.07264301473558366 0.0 3:1.0 4:1.0 33:1.0 2787:1.0 
0.07264301473558366 0.0 3:1.0 4:1.0 33:1.0 2788:1.0 
0.0726350754625269 0.0 3:1.0 4:1.0 33:1.0 160:1.0 
0.0625 0.0 3:1.0 4:1.0 33:1.0 2720:1.0 
0.0625 0.0 3:1.0 4:1.0 33:1.0 1934:1.0 
0.029585016643977724 0.0 3:1.0 4:1.0 105:1.0 2793:1.0 
0.0010337533287074763 0.0 3:1.0 4:1.0 33:1.0 53:1.0 
0.07286855368133693 0.0 3:1.0 4:1.0 33:1.0 2802:1.0 
0.0625 0.0 3:1.0 4:1.0 33:1.0 1076:1.0 
1000.0 0.0 3:1.0 4:1.0 33:1.0 1083:1.0 
0.07285694195557113 0.0 3:1.0 4:1.0 33:1.0 2806:1.0 
0.0625 0.0 3:1.0 4:1.0 33:1.0 1759:1.0 
0.010284932471184227 0.0 3:1.0 4:1.0 33:1.0 2807:1.0 
0.0625 0.0 3:1.0 4:1.0 33:1.0 2158:1.0 
0.0 0.44904789967976455 3:1.0 33:1.0 636:1.0 2822:1.0 
0.0 0.13670510478468412 116:1.0 638:1.0 639:1.0 1142:1.0 
0.072265625 0.0 3:1.0 4:1.0 33:1.0 2825:1.0 
0.0625 0.0 3:1.0 4:1.0 33:1.0 82:1.0 
0.072265625 0.0 3:1.0 4:1.0 33:1.0 2833:1.0 
0.0 0.1376088768494834 3:1.0 39:1.0 636:1.0 2842:1.0 
0.072265625 0.0 3:1.0 4:1.0 33:1.0 2843:1.0 
0.072265625 0.0 3:1.0 4:1.0 33:1.0 2847:1.0 
0.07226423697102202 0.0 3:1.0 4:1.0 33:1.0 2848:1.0 
0.009764236971022022 0.0 3:1.0 4:1.0 33:1.0 2849:1.0 
0.0625 0.0 3:1.0 4:1.0 33:1.0 2429:1.0 
0.07226423697102202 0.0 3:1.0 4:1.0 33:1.0 910:1.0 
4.826784133911133E-4 0.0 3:1.0 4:1.0 33:1.0 2854:1.0 
0.0625 0.0 3:1.0 4:1.0 33:1.0 2451:1.0 
0.0101240873336792 0.0 3:1.0 4:1.0 33:1.0 2866:1.0 
0.0625 0.0 3:1.0 4:1.0 33:1.0 2866:1.0 
0.0726240873336792 0.0 3:1.0 4:1.0 33:1.0 2869:1.0 
0.0101240873336792 0.0 3:1.0 4:1.0 33:1.0 1070:1.0 
0.0726240873336792 0.0 3:1.0 4:1.0 33:1.0 2881:1.0 
0.0625 0.0 3:1.0 4:1.0 33:1.0 1275:1.0 
0.0625 0.0 3:1.0 4:1.0 33:1.0 1274:1.0 
0.0625 0.0 3:1.0 4:1.0 33:1.0 1984:1.0 
0.0726240873336792 0.0 3:1.0 4:1.0 33:1.0 2885:1.0 
0.029720153983981756 0.0 3:1.0 4:1.0 105:1.0 2887:1.0 
0.0726240873336792 0.0 3:1.0 4:1.0 33:1.0 2897:1.0 
0.0726240873336792 0.0 3:1.0 4:1.0 33:1.0 2900:1.0 
1000.0 0.0 3:1.0 4:1.0 33:1.0 1030:1.0 
0.029723085893112344 0.0 3:1.0 4:1.0 105:1.0 2903:1.0 
0.07248012350795863 0.0 3:1.0 4:1.0 33:1.0 2904:1.0 
0.07264434959736343 0.0 3:1.0 4:1.0 33:1.0 2910:1.0 
0.07264434959736343 0.0 3:1.0 4:1.0 33:1.0 2915:1.0 
0.07264434959736343 0.0 3:1.0 4:1.0 33:1.0 2923:1.0 
0.010144349597363433 0.0 3:1.0 4:1.0 33:1.0 554:1.0 
0.029750280879766944 0.0 3:1.0 4:1.0 105:1.0 2926:1.0 
0.07262060894344868 0.0 3:1.0 4:1.0 33:1.0 2927:1.0 
0.0625 0.0 3:1.0 4:1.0 33:1.0 774:1.0 
0.07246154395717364 0.0 3:1.0 4:1.0 33:1.0 2935:1.0 
0.0625 0.0 3:1.0 4:1.0 33:1.0 613:1.0 
0.029750280879766944 0.0 3:1.0 4:1.0 105:1.0 2936:1.0 
0.0625 0.0 3:1.0 4:1.0 33:1.0 1916:1.0 
0.00991971670986036 0.0 3:1.0 4:1.0 33:1.0 2944:1.0 
0.0625 0.0 3:1.0 4:1.0 33:1.0 1387:1.0 
0.0625 0.0 3:1.0 4:1.0 33:1.0 2085:1.0 
0.029774806520538988 0.0 3:1.0 4:1.0 105:1.0 2951:1.0 
0.009009092464393298 0.0 3:1.0 4:1.0 33:1.0 2954:1.0 
0.029796871108812795 0.0 3:1.0 4:1.0 105:1.0 2955:1.0 
0.009921061058161929 0.0 3:1.0 4:1.0 33:1.0 151:1.0 
0.0 0.44916709377338293 3:1.0 33:1.0 636:1.0 2847:1.0 
0.07242106105816193 0.0 3:1.0 4:1.0 33:1.0 2974:1.0 
0.07241516497321099 0.0 3:1.0 4:1.0 33:1.0 2977:1.0 
0.0625 0.0 3:1.0 4:1.0 33:1.0 2784:1.0 
0.0 0.449142558532511 3:1.0 33:1.0 290:1.0 636:1.0 
0.009915164973210988 0.0 3:1.0 4:1.0 33:1.0 2983:1.0 
0.0625 0.0 3:1.0 4:1.0 33:1.0 2849:1.0 
0.029796871108812795 0.0 3:1.0 4:1.0 105:1.0 2986:1.0 
0.06332584470510483 0.0 3:1.0 4:1.0 33:1.0 954:1.0 
0.00990925688821731 0.0 3:1.0 4:1.0 33:1.0 3003:1.0 
0.0 0.06686298920158007 3:1.0 33:1.0 636:1.0 3000:1.0 
0.029678670813616304 0.0 3:1.0 4:1.0 105:1.0 3008:1.0 
0.0 0.3823218911192302 3:1.0 33:1.0 636:1.0 3000:1.0 
0.0723202996197152 0.0 3:1.0 4:1.0 33:1.0 3012:1.0 
0.0723202996197152 0.0 3:1.0 4:1.0 33:1.0 3013:1.0 
0.009906052492670625 0.0 3:1.0 4:1.0 33:1.0 3014:1.0 
0.06332584470510483 0.0 3:1.0 4:1.0 33:1.0 2954:1.0 
0.009899616241455078 0.0 3:1.0 4:1.0 33:1.0 3018:1.0 
0.0725024819594996 0.0 3:1.0 4:1.0 33:1.0 978:1.0 
0.009899616241455078 0.0 3:1.0 4:1.0 33:1.0 3039:1.0 
0.07241153031837966 0.0 3:1.0 4:1.0 33:1.0 3041:1.0 
0.02965402603149414 0.0 3:1.0 4:1.0 105:1.0 3042:1.0 
0.07249361064465853 0.0 3:1.0 4:1.0 33:1.0 3045:1.0 
0.0 0.44916800818662594 3:1.0 33:1.0 636:1.0 1821:1.0 
0.009899616241455078 0.0 3:1.0 4:1.0 33:1.0 1107:1.0 
0.07262028753757477 0.0 3:1.0 4:1.0 33:1.0 1616:1.0 
0.0726758020927194 0.0 3:1.0 4:1.0 33:1.0 3049:1.0 
0.04866779522911968 0.0 3:1.0 4:1.0 33:1.0 511:1.0 
0.0 0.44913355385620046 3:1.0 33:1.0 636:1.0 958:1.0 
0.07240947652665808 0.0 3:1.0 4:1.0 33:1.0 3072:1.0 
1000.0 0.0 3:1.0 4:1.0 33:1.0 635:1.0 
0.07240947652665808 0.0 3:1.0 4:1.0 33:1.0 3073:1.0 
0.07229908826677 0.0 3:1.0 4:1.0 33:1.0 736:1.0 
0.0 0.352963498762353 2:1.0 3:1.0 636:1.0 782:1.0 
0.0 0.35340552177685414 2:1.0 3:1.0 293:1.0 636:1.0 
0.0 0.44919936881187783 3:1.0 33:1.0 636:1.0 1897:1.0 
0.07229525339832543 0.0 3:1.0 4:1.0 33:1.0 3097:1.0 
0.05347286230661824 0.0 3:1.0 4:1.0 33:1.0 1414:1.0 
0.0 0.35305796955925306 2:1.0 3:1.0 636:1.0 689:1.0 
0.07268809335073456 0.0 3:1.0 4:1.0 33:1.0 3113:1.0 
0.07268809335073456 0.0 3:1.0 4:1.0 33:1.0 548:1.0 
0.07268809335073456 0.0 3:1.0 4:1.0 33:1.0 343:1.0 
0.07268809335073456 0.0 3:1.0 4:1.0 33:1.0 558:1.0 
0.0723440821818242 0.0 3:1.0 4:1.0 33:1.0 3145:1.0 
0.0726240873336792 0.0 3:1.0 4:1.0 33:1.0 3152:1.0 
0.0726240873336792 0.0 3:1.0 4:1.0 33:1.0 3156:1.0 
1000.0 0.25774410582099544 3:1.0 4:1.0 33:1.0 955:1.0 
0.009899616241455078 0.0 3:1.0 4:1.0 33:1.0 3157:1.0 
0.0726240873336792 0.0 3:1.0 4:1.0 33:1.0 596:1.0 
0.07214140892028809 0.0 3:1.0 4:1.0 33:1.0 2854:1.0 
0.07267571585065058 0.0 3:1.0 4:1.0 33:1.0 3160:1.0 
0.02965402603149414 0.0 3:1.0 4:1.0 105:1.0 3162:1.0 
998.0732727283984 0.0 3:1.0 4:1.0 116:1.0 2459:1.0 
7.471127752336493E-4 0.0 3:1.0 4:1.0 105:1.0 3100:1.0 
0.05870689335162971 0.0 3:1.0 4:1.0 33:1.0 2440:1.0 
0.0726430147355841 0.0 3:1.0 4:1.0 33:1.0 3185:1.0 
0.07268809335073456 0.0 3:1.0 4:1.0 33:1.0 2157:1.0 
0.02965402603149414 0.0 3:1.0 4:1.0 105:1.0 3187:1.0 
0.07268809335073456 0.0 3:1.0 4:1.0 33:1.0 2456:1.0 
0.07268809335073456 0.0 3:1.0 4:1.0 33:1.0 2733:1.0 
0.07268809335073456 0.0 3:1.0 4:1.0 33:1.0 3245:1.0 
0.07195580723485717 0.0 3:1.0 4:1.0 33:1.0 1233:1.0 
0.07241516497321143 0.0 3:1.0 4:1.0 33:1.0 1150:1.0 
0.072265625 0.0 3:1.0 4:1.0 33:1.0 3256:1.0 
1000.0 0.0 3:1.0 4:1.0 33:1.0 1083:1.0 
0.072265625 0.0 3:1.0 4:1.0 33:1.0 3264:1.0 
0.009899616241455078 0.0 3:1.0 4:1.0 33:1.0 3265:1.0 
0.072265625 0.0 3:1.0 4:1.0 33:1.0 3272:1.0 
0.072265625 0.0 3:1.0 4:1.0 33:1.0 1345:1.0 
0.009899616241455078 0.33727208047539514 3:1.0 4:1.0 33:1.0 3278:1.0 
0.009899616241455078 0.0 3:1.0 4:1.0 33:1.0 3279:1.0 
0.072265625 0.0 3:1.0 4:1.0 33:1.0 1443:1.0 
0.02965402603149414 0.0 3:1.0 4:1.0 105:1.0 3280:1.0 
0.029735363830358796 0.0 3:1.0 4:1.0 105:1.0 3286:1.0 
0.005504712462425232 0.0 3:1.0 4:1.0 33:1.0 3288:1.0 
0.072265625 0.0 3:1.0 4:1.0 33:1.0 507:1.0 
0.0011262839875829656 0.0 3:1.0 4:1.0 33:1.0 3292:1.0 
0.072265625 0.0 3:1.0 4:1.0 33:1.0 3294:1.0 
0.072265625 0.0 3:1.0 4:1.0 33:1.0 261:1.0 
0.07264471054077148 0.0 3:1.0 4:1.0 33:1.0 3295:1.0 
0.0 0.2058131576135877 61:1.0 62:1.0 638:1.0 639:1.0 
1000.0 0.0 3:1.0 4:1.0 33:1.0 1088:1.0 
1000.0 0.0 3:1.0 4:1.0 33:1.0 1088:1.0 
0.009899616241455078 0.0 3:1.0 4:1.0 33:1.0 3300:1.0 
0.029735363830358796 0.0 3:1.0 4:1.0 105:1.0 3302:1.0 
0.0 0.35324361954507655 2:1.0 3:1.0 636:1.0 3005:1.0 
0.07264471054077148 0.0 3:1.0 4:1.0 33:1.0 3312:1.0 
0.07275772094726562 0.0 3:1.0 4:1.0 33:1.0 3015:1.0 
0.07275772094726562 0.0 3:1.0 4:1.0 33:1.0 3016:1.0 
0.07275772094726562 0.0 3:1.0 4:1.0 33:1.0 3313:1.0 
0.009899616241455078 0.0 3:1.0 4:1.0 33:1.0 3315:1.0 
0.07275772094726562 0.0 3:1.0 4:1.0 33:1.0 1062:1.0 
0.009899616241455078 0.0 3:1.0 4:1.0 33:1.0 3326:1.0 
0.009899616241455078 0.0 3:1.0 4:1.0 33:1.0 3327:1.0 
0.0 0.44945839563963785 3:1.0 33:1.0 636:1.0 1022:1.0 
0.0726432766499745 0.0 3:1.0 4:1.0 33:1.0 2597:1.0 
0.0 0.4488832112221426 3:1.0 33:1.0 636:1.0 993:1.0 
0.0010561943054199219 0.0 3:1.0 4:1.0 33:1.0 3335:1.0 
0.07264487800421193 0.0 3:1.0 4:1.0 33:1.0 3336:1.0 
0.002445220947265625 0.0 3:1.0 4:1.0 33:1.0 3337:1.0 
1000.0 0.0 3:1.0 4:1.0 33:1.0 1083:1.0 
0.07264487800421193 0.0 3:1.0 4:1.0 33:1.0 3345:1.0 
0.07246944612249928 0.0 3:1.0 4:1.0 33:1.0 3347:1.0 
0.0013091973406869073 0.0 3:1.0 4:1.0 33:1.0 3348:1.0 
0.009909476526658079 0.0 3:1.0 4:1.0 33:1.0 439:1.0 
0.07128319253907511 0.0 3:1.0 4:1.0 33:1.0 1744:1.0 
0.008991279250440964 0.0 3:1.0 4:1.0 33:1.0 505:1.0 
0.07134342193603516 0.0 3:1.0 4:1.0 33:1.0 1468:1.0 
0.02974432973199903 0.0 3:1.0 4:1.0 105:1.0 3366:1.0 
0.0010561943054199219 0.0 3:1.0 4:1.0 14:1.0 33:1.0 
0.07134342193603516 0.0 3:1.0 4:1.0 14:1.0 33:1.0 
0.07134342193603516 0.0 3:1.0 4:1.0 33:1.0 3335:1.0 
0.0013938360975549458 0.0 3:1.0 4:1.0 105:1.0 3380:1.0 
0.07239961624145508 0.0 3:1.0 4:1.0 33:1.0 3382:1.0 
0.07240925688821731 0.0 3:1.0 4:1.0 33:1.0 3383:1.0 
0.07141191222935017 0.0 3:1.0 4:1.0 33:1.0 2606:1.0 
0.0 0.3530435613141165 2:1.0 3:1.0 636:1.0 1219:1.0 
0.0726321522564306 0.0 3:1.0 4:1.0 33:1.0 3389:1.0 
0.0 0.4482605007150699 33:1.0 638:1.0 639:1.0 3381:1.0 
0.009827944886957152 0.0 3:1.0 4:1.0 33:1.0 3396:1.0 
0.030119125527562574 0.0 3:1.0 4:1.0 105:1.0 3402:1.0 
0.07226423697102291 0.0 3:1.0 4:1.0 33:1.0 3404:1.0 
0.072265625 0.0 3:1.0 4:1.0 33:1.0 1343:1.0 
999.4882003921639 0.0 3:1.0 4:1.0 78:1.0 3407:1.0 
0.072265625 0.0 3:1.0 4:1.0 33:1.0 320:1.0 
0.07243663698878577 0.0 3:1.0 4:1.0 33:1.0 3409:1.0 
0.07187501903477655 0.0 3:1.0 4:1.0 33:1.0 683:1.0 
0.07243677234624785 0.0 3:1.0 4:1.0 33:1.0 2405:1.0 
0.010138333238109754 0.0 3:1.0 4:1.0 33:1.0 3420:1.0 
0.02953596971621142 0.0 3:1.0 4:1.0 105:1.0 3421:1.0 
0.07264434959736343 0.0 3:1.0 4:1.0 33:1.0 3422:1.0 
1000.0 0.0 3:1.0 4:1.0 105:1.0 811:1.0 
0.0 0.3531685986477102 2:1.0 3:1.0 636:1.0 2723:1.0 
0.029789379792546367 0.0 3:1.0 4:1.0 105:1.0 3425:1.0 
0.0726411578966818 0.0 3:1.0 4:1.0 33:1.0 2474:1.0 
0.0 0.4488992836512684 3:1.0 33:1.0 636:1.0 1677:1.0 
0.07268948679245557 0.0 3:1.0 4:1.0 33:1.0 3428:1.0 
0.07264487800421182 0.0 3:1.0 4:1.0 33:1.0 673:1.0 
0.029713278031636925 0.0 3:1.0 4:1.0 105:1.0 3431:1.0 
0.07265274971723545 0.0 3:1.0 4:1.0 33:1.0 826:1.0 
0.07265274971723545 0.0 3:1.0 4:1.0 33:1.0 1085:1.0 
0.07264763367041416 0.0 3:1.0 4:1.0 33:1.0 629:1.0 
0.07243671856839762 0.0 3:1.0 4:1.0 33:1.0 3436:1.0 
0.0724115303183801 0.0 3:1.0 4:1.0 33:1.0 1114:1.0 
0.07242205721816752 0.0 3:1.0 4:1.0 33:1.0 3055:1.0 
0.0725048921345075 0.0 3:1.0 4:1.0 33:1.0 3440:1.0 
0.0 0.3533684813612046 2:1.0 3:1.0 636:1.0 3442:1.0 
0.07241783705956151 0.0 3:1.0 4:1.0 33:1.0 3445:1.0 
0.07234015636141694 0.0 3:1.0 4:1.0 33:1.0 3447:1.0 
0.0724374404949506 0.0 3:1.0 4:1.0 33:1.0 51:1.0 
0.07268809335073456 0.0 3:1.0 4:1.0 33:1.0 91:1.0 
0.0722585261974018 0.0 3:1.0 4:1.0 33:1.0 504:1.0 
1000.0 0.0 3:1.0 4:1.0 33:1.0 1088:1.0 
0.07264173987134748 0.0 3:1.0 4:1.0 33:1.0 3470:1.0 
0.009799088266769562 0.0 3:1.0 4:1.0 33:1.0 3471:1.0 
0.009844082181824643 0.0 3:1.0 4:1.0 33:1.0 412:1.0 
0.029977192866263103 0.0 3:1.0 4:1.0 105:1.0 3474:1.0 
0.07232185138655822 0.0 3:1.0 4:1.0 33:1.0 3478:1.0 
0.07232185138655822 0.0 3:1.0 4:1.0 33:1.0 3484:1.0 
0.010257720947265625 0.0 3:1.0 4:1.0 33:1.0 3485:1.0 
0.0725241902001208 0.0 3:1.0 4:1.0 33:1.0 2118:1.0 
0.0722615234050692 0.0 3:1.0 4:1.0 33:1.0 287:1.0 
0.010257720947265625 0.0 3:1.0 4:1.0 33:1.0 2821:1.0 
0.029977192866263103 0.0 3:1.0 4:1.0 105:1.0 3487:1.0 
0.07232794488695737 0.0 3:1.0 4:1.0 33:1.0 3492:1.0 
0.0297502808797665 0.0 3:1.0 4:1.0 105:1.0 3493:1.0 
1000.0 0.0 3:1.0 4:1.0 33:1.0 1088:1.0 
0.010257720947265625 0.0 3:1.0 4:1.0 33:1.0 3496:1.0 
1000.0 0.0 3:1.0 4:1.0 33:1.0 1088:1.0 
0.07144322724981889 0.0 3:1.0 4:1.0 33:1.0 1208:1.0 
0.0 0.4490388427111956 3:1.0 33:1.0 636:1.0 1146:1.0 
1000.0 0.0 3:1.0 4:1.0 33:1.0 1088:1.0 
0.029585016643977724 0.0 3:1.0 4:1.0 105:1.0 3502:1.0 
0.07264454573786372 0.0 3:1.0 4:1.0 33:1.0 3494:1.0 
0.07278493247118512 0.0 3:1.0 4:1.0 33:1.0 3508:1.0 
0.07213777954287792 0.0 3:1.0 4:1.0 33:1.0 930:1.0 
0.07226767579746562 0.0 3:1.0 4:1.0 33:1.0 3510:1.0 
0.07285694195557113 0.0 3:1.0 4:1.0 33:1.0 3518:1.0 
0.07268926494996952 0.0 3:1.0 4:1.0 33:1.0 1206:1.0 
0.0703125 0.0 3:1.0 4:1.0 33:1.0 3337:1.0 
0.07275772094726562 0.0 3:1.0 4:1.0 33:1.0 3522:1.0 
0.0703125 0.0 3:1.0 4:1.0 33:1.0 2535:1.0 
0.0703125 0.0 3:1.0 4:1.0 33:1.0 1673:1.0 
0.07274135415518868 0.0 3:1.0 4:1.0 33:1.0 2238:1.0 
0.07263728028834016 0.0 3:1.0 4:1.0 33:1.0 597:1.0 
4.239655528697206E-4 0.0 3:1.0 4:1.0 33:1.0 2985:1.0 
0.010215881826785456 0.0 3:1.0 4:1.0 33:1.0 3530:1.0 
0.0703125 0.0 3:1.0 4:1.0 33:1.0 466:1.0 
0.07268948679245568 0.0 3:1.0 4:1.0 33:1.0 3536:1.0 
0.0703125 0.0 3:1.0 4:1.0 33:1.0 1665:1.0 
0.010189486792455682 0.0 3:1.0 4:1.0 33:1.0 3539:1.0 
0.0 0.449189168336303 3:1.0 33:1.0 506:1.0 636:1.0 
0.07231712395554579 0.0 3:1.0 4:1.0 33:1.0 3545:1.0 
0.07230528037067652 0.0 3:1.0 4:1.0 33:1.0 3549:1.0 
1000.0 0.0 3:1.0 4:1.0 33:1.0 629:1.0 
0.07072542235255241 0.0 3:1.0 4:1.0 33:1.0 1104:1.0 
0.07228904822636073 0.0 3:1.0 4:1.0 33:1.0 3554:1.0 
0.07072542235255241 0.0 3:1.0 4:1.0 33:1.0 2201:1.0 
0.07072542235255241 0.0 3:1.0 4:1.0 33:1.0 2206:1.0 
0.07228904822636073 0.0 3:1.0 4:1.0 33:1.0 3556:1.0 
0.0713672500898852 0.0 3:1.0 4:1.0 33:1.0 2209:1.0 
0.07221949475732892 0.0 3:1.0 4:1.0 33:1.0 2041:1.0 
0.07249361064465853 0.0 3:1.0 4:1.0 33:1.0 3572:1.0 
0.07249361064465853 0.0 3:1.0 4:1.0 33:1.0 612:1.0 
0.07262028753757477 0.0 3:1.0 4:1.0 33:1.0 106:1.0 
0.010189486792455682 0.0 3:1.0 4:1.0 33:1.0 2129:1.0 
0.07262028753757477 0.0 3:1.0 4:1.0 33:1.0 1024:1.0 
0.07101192336424189 0.0 3:1.0 4:1.0 33:1.0 3348:1.0 
0.07246532073120604 0.0 3:1.0 4:1.0 33:1.0 3577:1.0 
0.010189486792455682 0.0 3:1.0 4:1.0 33:1.0 3579:1.0 
0.029585016643977724 0.0 3:1.0 4:1.0 105:1.0 3580:1.0 
0.07245399558831345 0.0 3:1.0 4:1.0 33:1.0 3584:1.0 
1000.0 0.0 3:1.0 4:1.0 33:1.0 1088:1.0 
0.07249254065886146 0.0 3:1.0 4:1.0 33:1.0 3592:1.0 
0.010189486792455682 0.0 3:1.0 4:1.0 33:1.0 3593:1.0 
0.07228160926978289 0.0 3:1.0 4:1.0 33:1.0 3599:1.0 
0.07297193719821005 0.0 3:1.0 4:1.0 33:1.0 3601:1.0 
0.07271588182678512 0.0 3:1.0 4:1.0 33:1.0 3570:1.0 
0.07240947652665808 0.0 3:1.0 4:1.0 33:1.0 2234:1.0 
0.010189264949969967 0.0 3:1.0 4:1.0 33:1.0 3602:1.0 
0.008220265349076347 0.4493674460446782 3:1.0 33:1.0 636:1.0 3603:1.0 
0.07240947652665808 0.0 3:1.0 4:1.0 33:1.0 3497:1.0 
1000.0 0.0 3:1.0 4:1.0 33:1.0 511:1.0 
0.07240947652665808 0.0 3:1.0 4:1.0 33:1.0 3609:1.0 
1000.0 0.0 3:1.0 4:1.0 33:1.0 1083:1.0 
1000.0 0.0 3:1.0 4:1.0 33:1.0 1083:1.0 
0.07240947652665808 0.0 3:1.0 4:1.0 33:1.0 3610:1.0 
0.0724404808410608 0.0 3:1.0 4:1.0 33:1.0 3611:1.0 
0.07235914263295173 0.0 3:1.0 4:1.0 33:1.0 1018:1.0 
0.0 0.206276585084401 3:1.0 23:1.0 24:1.0 636:1.0 
1000.0 0.0 3:1.0 4:1.0 33:1.0 1083:1.0 
1000.0 0.0 3:1.0 4:1.0 33:1.0 1083:1.0 
1000.0 0.0 3:1.0 4:1.0 33:1.0 1083:1.0 
1000.0 0.0 3:1.0 4:1.0 33:1.0 629:1.0 
0.07221719234381174 0.0 3:1.0 4:1.0 33:1.0 2985:1.0 
0.07262697116010797 0.0 3:1.0 4:1.0 33:1.0 3612:1.0 
0.07233623051926275 0.0 3:1.0 4:1.0 33:1.0 1633:1.0 
1000.0 0.0 3:1.0 4:1.0 33:1.0 1083:1.0 
0.0 0.3531970007861635 2:1.0 3:1.0 636:1.0 652:1.0 
0.07267571585064991 0.0 3:1.0 4:1.0 33:1.0 3621:1.0 
0.07224364928808358 0.0 3:1.0 4:1.0 33:1.0 2096:1.0 
0.072265625 0.0 3:1.0 4:1.0 33:1.0 3624:1.0 
0.0 1000.0 50:1.0 132:1.0 637:1.0 638:1.0 
0.072265625 0.0 3:1.0 4:1.0 33:1.0 3628:1.0 
0.072265625 0.0 3:1.0 4:1.0 33:1.0 1713:1.0 
998.0735263507293 0.0 3:1.0 4:1.0 116:1.0 1915:1.0 
1000.0 0.0 3:1.0 4:1.0 105:1.0 2410:1.0 
0.072265625 0.0 3:1.0 4:1.0 33:1.0 2108:1.0 
0.0 0.44916137862686334 3:1.0 33:1.0 636:1.0 848:1.0 
0.072265625 0.0 3:1.0 4:1.0 33:1.0 3384:1.0 
1000.0 0.0 3:1.0 4:1.0 33:1.0 1212:1.0 
1000.0 0.0 3:1.0 4:1.0 33:1.0 2985:1.0 
0.072265625 0.0 3:1.0 4:1.0 33:1.0 3631:1.0 
0.072265625 0.0 3:1.0 4:1.0 33:1.0 3632:1.0 
0.0625 0.0 3:1.0 4:1.0 33:1.0 1623:1.0 
0.0625 0.0 3:1.0 4:1.0 33:1.0 2221:1.0 
0.0625 0.0 3:1.0 4:1.0 33:1.0 3471:1.0 
0.0625 0.0 3:1.0 4:1.0 33:1.0 412:1.0 
0.0625 0.0 3:1.0 4:1.0 33:1.0 3278:1.0 
0.010189264949969967 0.0 3:1.0 4:1.0 33:1.0 3640:1.0 
0.0625 0.0 3:1.0 4:1.0 33:1.0 3485:1.0 
0.07268926494996997 0.0 3:1.0 4:1.0 33:1.0 3672:1.0 
0.029585016643977724 0.0 3:1.0 4:1.0 105:1.0 3673:1.0 
0.07264471054077148 0.0 3:1.0 4:1.0 33:1.0 3675:1.0 
0.0625 0.0 3:1.0 4:1.0 33:1.0 956:1.0 
0.0 0.05350984454937158 3:1.0 33:1.0 636:1.0 1225:1.0 
0.0625 0.0 3:1.0 4:1.0 33:1.0 3326:1.0 
0.0 0.3526701796839035 2:1.0 3:1.0 636:1.0 2523:1.0 
0.07264471054077148 0.0 3:1.0 4:1.0 33:1.0 3684:1.0 
0.02955007260930209 0.0 3:1.0 4:1.0 105:1.0 3691:1.0 
0.0625 0.0 3:1.0 4:1.0 33:1.0 3579:1.0 
0.07264471054077148 0.0 3:1.0 4:1.0 33:1.0 2174:1.0 
0.07264471054077148 0.0 3:1.0 4:1.0 33:1.0 3701:1.0 
0.0625 0.0 3:1.0 4:1.0 33:1.0 2983:1.0 
0.07264471054077148 0.0 3:1.0 4:1.0 33:1.0 3705:1.0 
0.0625 0.0 3:1.0 4:1.0 33:1.0 506:1.0 
1000.0 0.0 3:1.0 4:1.0 33:1.0 2648:1.0 
0.0625 0.0 3:1.0 4:1.0 33:1.0 995:1.0 
0.07262878756954372 0.0 3:1.0 4:1.0 33:1.0 3707:1.0 
0.07262861574404322 0.0 3:1.0 4:1.0 33:1.0 3710:1.0 
0.0 1000.0 2:1.0 3:1.0 636:1.0 1213:1.0 
0.0625 0.0 3:1.0 4:1.0 33:1.0 3530:1.0 
0.0625 0.0 3:1.0 4:1.0 33:1.0 1647:1.0 
0.0625 0.0 3:1.0 4:1.0 33:1.0 1979:1.0 
0.0625 0.0 3:1.0 4:1.0 33:1.0 1621:1.0 
0.07265786296308607 0.0 3:1.0 4:1.0 33:1.0 3714:1.0 
0.07253755339660639 0.0 3:1.0 4:1.0 33:1.0 3715:1.0 
0.07252419020012102 0.0 3:1.0 4:1.0 33:1.0 3721:1.0 
0.0625 0.0 3:1.0 4:1.0 33:1.0 2129:1.0 
0.029735363830358796 0.0 3:1.0 4:1.0 105:1.0 3729:1.0 
0.029735363830358796 0.0 3:1.0 4:1.0 105:1.0 3732:1.0 
0.07250489213450706 0.0 3:1.0 4:1.0 33:1.0 3733:1.0 
0.07244048084106058 0.0 3:1.0 4:1.0 33:1.0 3735:1.0 
0.0625 0.0 3:1.0 4:1.0 33:1.0 1026:1.0 
0.009781609269782887 0.0 3:1.0 4:1.0 33:1.0 492:1.0 
0.0016999273906979084 0.0 3:1.0 4:1.0 105:1.0 1012:1.0 
0.02968544255292782 0.0 3:1.0 4:1.0 105:1.0 1115:1.0 
0.0625 0.0 3:1.0 4:1.0 33:1.0 1629:1.0 
0.00976767579746518 0.0 3:1.0 4:1.0 33:1.0 3738:1.0 
0.0625 0.0 3:1.0 4:1.0 33:1.0 3315:1.0 
1000.0 0.0 3:1.0 4:1.0 33:1.0 1083:1.0 
0.0625 0.0 3:1.0 4:1.0 33:1.0 3396:1.0 
0.072265625 0.0 3:1.0 4:1.0 33:1.0 3743:1.0 
0.072265625 0.0 3:1.0 4:1.0 33:1.0 3746:1.0 
0.0625 0.0 3:1.0 4:1.0 33:1.0 1625:1.0 
0.072265625 0.0 3:1.0 4:1.0 33:1.0 3751:1.0 
0.009765625 0.0 3:1.0 4:1.0 33:1.0 3752:1.0 
0.0 0.06468019721405449 50:1.0 76:1.0 637:1.0 638:1.0 
0.018407650049969398 0.0 4:1.0 33:1.0 639:1.0 3753:1.0 
0.072265625 0.0 3:1.0 4:1.0 33:1.0 3754:1.0 
0.072265625 0.0 3:1.0 4:1.0 33:1.0 3755:1.0 
0.072265625 0.0 3:1.0 4:1.0 33:1.0 3761:1.0 
0.072265625 0.0 3:1.0 4:1.0 33:1.0 3765:1.0 
0.029593636677188506 0.0 3:1.0 4:1.0 105:1.0 3775:1.0 
0.02972308589311279 0.0 3:1.0 4:1.0 105:1.0 3776:1.0 
1000.0 0.0 3:1.0 4:1.0 105:1.0 811:1.0 
0.0625 0.0 3:1.0 4:1.0 33:1.0 2944:1.0 
0.072265625 0.0 3:1.0 4:1.0 33:1.0 647:1.0 
0.072265625 0.0 3:1.0 4:1.0 33:1.0 2822:1.0 
0.072265625 0.0 3:1.0 4:1.0 33:1.0 3786:1.0 
0.029816745782384135 0.0 3:1.0 4:1.0 105:1.0 3788:1.0 
0.029798676675922287 0.0 3:1.0 4:1.0 105:1.0 3791:1.0 
0.0625 0.0 3:1.0 4:1.0 33:1.0 2571:1.0 
0.029685442552927377 0.0 3:1.0 4:1.0 105:1.0 3792:1.0 
1000.0 0.0 3:1.0 4:1.0 33:1.0 1031:1.0 
0.0625 0.0 3:1.0 4:1.0 33:1.0 3300:1.0 
0.0625 0.0 3:1.0 4:1.0 33:1.0 3265:1.0 
0.072265625 0.0 3:1.0 4:1.0 33:1.0 2782:1.0 
0.009765625 0.0 3:1.0 4:1.0 33:1.0 3808:1.0 
0.009765625 0.0 3:1.0 4:1.0 33:1.0 3810:1.0 
0.0625 0.0 3:1.0 4:1.0 33:1.0 1228:1.0 
0.0625 0.0 3:1.0 4:1.0 33:1.0 3808:1.0 
0.0625 0.0 3:1.0 4:1.0 33:1.0 3810:1.0 
0.0625 0.0 3:1.0 4:1.0 33:1.0 206:1.0 
0.072265625 0.0 3:1.0 4:1.0 33:1.0 3816:1.0 
0.072265625 0.0 3:1.0 4:1.0 33:1.0 3820:1.0 
0.0625 0.0 3:1.0 4:1.0 33:1.0 1426:1.0 
0.072265625 0.0 3:1.0 4:1.0 33:1.0 3825:1.0 
0.0625 0.0 3:1.0 4:1.0 33:1.0 3496:1.0 
0.009765625 0.0 3:1.0 4:1.0 33:1.0 3829:1.0 
0.0625 0.0 3:1.0 4:1.0 33:1.0 1622:1.0 
0.029685442552927377 0.0 3:1.0 4:1.0 105:1.0 3830:1.0 
0.030093667230060017 0.0 3:1.0 4:1.0 105:1.0 3831:1.0 
0.030083686979424908 0.0 3:1.0 4:1.0 105:1.0 923:1.0 
0.0625 0.0 3:1.0 4:1.0 33:1.0 518:1.0 
0.072265625 0.0 3:1.0 4:1.0 33:1.0 3833:1.0 
0.0625 0.0 3:1.0 4:1.0 33:1.0 2369:1.0 
0.0625 0.0 3:1.0 4:1.0 33:1.0 765:1.0 
0.125 0.0 3:1.0 4:1.0 33:1.0 1716:1.0 
0.0625 0.0 3:1.0 4:1.0 33:1.0 1457:1.0 
0.0625 0.0 3:1.0 4:1.0 33:1.0 1070:1.0 
0.0 0.44336481698954144 3:1.0 33:1.0 636:1.0 1042:1.0 
0.07178502265872244 0.0 4:1.0 33:1.0 637:1.0 3840:1.0 
0.0625 0.0 3:1.0 4:1.0 33:1.0 1006:1.0 
0.0625 0.0 3:1.0 4:1.0 33:1.0 1081:1.0 
0.0625 0.0 3:1.0 4:1.0 33:1.0 1008:1.0 
0.02019392472674597 0.0 3:1.0 4:1.0 105:1.0 939:1.0 
0.02980561355693334 0.0 3:1.0 4:1.0 105:1.0 950:1.0 
0.072265625 0.0 3:1.0 4:1.0 33:1.0 3844:1.0 
0.072265625 0.0 3:1.0 4:1.0 33:1.0 1362:1.0 
0.0625 0.0 3:1.0 4:1.0 33:1.0 1670:1.0 
0.072265625 0.0 3:1.0 4:1.0 33:1.0 3846:1.0 
999.4880656774382 0.0 3:1.0 4:1.0 858:1.0 1417:1.0 
1000.0 0.0 3:1.0 4:1.0 33:1.0 2648:1.0 
0.02980561355693334 0.0 3:1.0 4:1.0 105:1.0 2987:1.0 
1000.0 0.0 3:1.0 4:1.0 33:1.0 1031:1.0 
0.0 0.35332573732928924 2:1.0 3:1.0 636:1.0 3848:1.0 
0.072265625 0.0 3:1.0 4:1.0 33:1.0 3849:1.0 
0.072265625 0.0 3:1.0 4:1.0 33:1.0 3850:1.0 
0.072265625 0.0 3:1.0 4:1.0 33:1.0 3851:1.0 
999.4881941622095 0.0 3:1.0 4:1.0 161:1.0 624:1.0 
0.0625 0.0 3:1.0 4:1.0 33:1.0 1194:1.0 
0.0625 0.0 3:1.0 4:1.0 33:1.0 1177:1.0 
0.0 0.603115811008065 105:1.0 637:1.0 638:1.0 3854:1.0 
0.009765625 0.0 3:1.0 4:1.0 33:1.0 3855:1.0 
0.009765625 0.0 3:1.0 4:1.0 33:1.0 3856:1.0 
0.0625 0.0 3:1.0 4:1.0 33:1.0 3855:1.0 
0.0625 0.0 3:1.0 4:1.0 33:1.0 840:1.0 
1000.0 0.0 3:1.0 4:1.0 33:1.0 1716:1.0 
0.0625 0.0 3:1.0 4:1.0 33:1.0 93:1.0 
0.072265625 0.0 3:1.0 4:1.0 33:1.0 3858:1.0 
0.02980561355693334 0.0 3:1.0 4:1.0 105:1.0 3677:1.0 
0.0625 0.0 3:1.0 4:1.0 33:1.0 1227:1.0 
0.02980561355693334 0.0 3:1.0 4:1.0 105:1.0 2811:1.0 
0.0625 0.0 3:1.0 4:1.0 33:1.0 2536:1.0 
0.0625 0.0 3:1.0 4:1.0 33:1.0 3539:1.0 
0.0625 0.0 3:1.0 4:1.0 33:1.0 992:1.0 
0.0625 0.0 3:1.0 4:1.0 33:1.0 3738:1.0 
0.02981674578238458 0.0 3:1.0 4:1.0 105:1.0 3476:1.0 
0.0625 0.0 3:1.0 4:1.0 33:1.0 148:1.0 
0.02981674578238458 0.0 3:1.0 4:1.0 105:1.0 3869:1.0 
0.0625 0.0 3:1.0 4:1.0 33:1.0 632:1.0 
0.0625 0.0 3:1.0 4:1.0 33:1.0 108:1.0 
0.0298561639024455 0.0 3:1.0 4:1.0 105:1.0 3872:1.0 
1000.0 0.0 3:1.0 4:1.0 33:1.0 1088:1.0 
0.072265625 0.0 3:1.0 4:1.0 33:1.0 3873:1.0 
1000.0 0.0 3:1.0 4:1.0 33:1.0 1088:1.0 
0.0625 0.0 3:1.0 4:1.0 33:1.0 3829:1.0 
1000.0 0.0 3:1.0 4:1.0 33:1.0 1088:1.0 
0.0625 0.0 3:1.0 4:1.0 33:1.0 416:1.0 
0.072265625 0.0 3:1.0 4:1.0 33:1.0 3875:1.0 
0.072265625 0.0 3:1.0 4:1.0 33:1.0 3879:1.0 
0.072265625 0.0 3:1.0 4:1.0 33:1.0 3881:1.0 
0.072265625 0.0 3:1.0 4:1.0 33:1.0 3882:1.0 
0.0298561639024455 0.0 3:1.0 4:1.0 105:1.0 3887:1.0 
0.072265625 0.0 3:1.0 4:1.0 33:1.0 3888:1.0 
0.0298561639024455 0.0 3:1.0 4:1.0 105:1.0 3889:1.0 
0.0 0.058821161045532595 3:1.0 4:1.0 37:1.0 424:1.0 
999.488078800077 0.0 3:1.0 4:1.0 625:1.0 3061:1.0 
0.0298561639024455 0.0 3:1.0 4:1.0 105:1.0 3893:1.0 
0.0625 0.0 3:1.0 4:1.0 33:1.0 439:1.0 
0.0625 0.0 3:1.0 4:1.0 33:1.0 452:1.0 
0.0625 0.0 3:1.0 4:1.0 33:1.0 2821:1.0 
0.0625 0.0 3:1.0 4:1.0 33:1.0 1132:1.0 
0.0625 0.0 3:1.0 4:1.0 33:1.0 1133:1.0 
0.0625 0.0 3:1.0 4:1.0 33:1.0 1135:1.0 
0.029977192866263103 0.0 3:1.0 4:1.0 105:1.0 3656:1.0 
0.0625 0.0 3:1.0 4:1.0 33:1.0 1138:1.0 
0.07226590955105783 0.0 3:1.0 4:1.0 33:1.0 3901:1.0 
0.06332584470510483 0.0 3:1.0 4:1.0 33:1.0 2579:1.0 
0.06686222128931707 0.0 3:1.0 4:1.0 33:1.0 517:1.0 
0.029977192866263103 0.0 3:1.0 4:1.0 105:1.0 1706:1.0 
0.06711557507514954 0.0 3:1.0 4:1.0 33:1.0 3288:1.0 
0.029977192866263103 0.0 3:1.0 4:1.0 105:1.0 149:1.0 
0.029977192866263103 0.0 3:1.0 4:1.0 105:1.0 1095:1.0 
0.06894652102848209 0.0 3:1.0 4:1.0 33:1.0 1508:1.0 
0.07158767060182603 0.0 3:1.0 4:1.0 33:1.0 1519:1.0 
0.07232112070492924 0.0 3:1.0 4:1.0 33:1.0 1520:1.0 
0.02971327803163748 0.0 3:1.0 4:1.0 105:1.0 1539:1.0 
0.07268809335073456 0.0 3:1.0 4:1.0 33:1.0 3912:1.0 
0.07268809335073456 0.0 3:1.0 4:1.0 33:1.0 1565:1.0 
0.07234408218182464 0.0 3:1.0 4:1.0 33:1.0 89:1.0 
0.07295738601250623 0.0 3:1.0 4:1.0 33:1.0 1588:1.0 
1000.0 0.0 3:1.0 4:1.0 33:1.0 1088:1.0 
0.07214140892028853 0.0 3:1.0 4:1.0 33:1.0 1597:1.0 
0.07214140892028853 0.0 3:1.0 4:1.0 33:1.0 1600:1.0 
0.07264301473558454 0.0 3:1.0 4:1.0 33:1.0 3922:1.0 
0.03009366723006046 0.0 3:1.0 4:1.0 105:1.0 3923:1.0 
0.072688093350735 0.0 3:1.0 4:1.0 33:1.0 3859:1.0 
0.072688093350735 0.0 3:1.0 4:1.0 33:1.0 2972:1.0 
0.07226562500000044 0.0 3:1.0 4:1.0 33:1.0 2971:1.0 
0.0 0.39583333333333315 3:1.0 33:1.0 636:1.0 1225:1.0 
1000.0 0.0 3:1.0 4:1.0 33:1.0 1083:1.0 
999.9375 0.0 3:1.0 4:1.0 33:1.0 1716:1.0 
0.07226562500000044 0.0 3:1.0 4:1.0 33:1.0 3000:1.0 
0.07226562500000044 0.0 3:1.0 4:1.0 33:1.0 972:1.0 
0.029805613556932453 0.0 3:1.0 4:1.0 105:1.0 3925:1.0 
0.07226562500000044 0.0 3:1.0 4:1.0 33:1.0 943:1.0 
0.07264471054077193 0.0 3:1.0 4:1.0 33:1.0 946:1.0 
0.0010561943054199219 0.0 3:1.0 4:1.0 33:1.0 3929:1.0 
0.07275772094726607 0.0 3:1.0 4:1.0 33:1.0 1011:1.0 
0.07275772094726607 0.0 3:1.0 4:1.0 33:1.0 2240:1.0 
0.07264487800421238 0.0 3:1.0 4:1.0 33:1.0 3930:1.0 
1000.0 0.0 3:1.0 4:1.0 33:1.0 2405:1.0 
0.008029843421684595 0.44943540410820854 3:1.0 33:1.0 636:1.0 3931:1.0 
0.07128319253907489 0.0 3:1.0 4:1.0 33:1.0 3292:1.0 
0.0 0.44945839563963746 3:1.0 33:1.0 636:1.0 1011:1.0 
0.07096785848792364 0.0 3:1.0 4:1.0 33:1.0 1710:1.0 
0.02998724875963177 0.0 3:1.0 4:1.0 105:1.0 1051:1.0 
0.07134342193603538 0.0 3:1.0 4:1.0 33:1.0 1636:1.0 
0.0723996162414553 0.0 3:1.0 4:1.0 33:1.0 2007:1.0 
0.0726582603417617 0.0 3:1.0 4:1.0 33:1.0 3936:1.0 
0.0 1000.0 2:1.0 3:1.0 636:1.0 1213:1.0 
0.07226423697102291 0.0 3:1.0 4:1.0 33:1.0 3334:1.0 
0.072265625 0.0 3:1.0 4:1.0 33:1.0 1009:1.0 
0.029763751113723647 0.0 3:1.0 4:1.0 105:1.0 3938:1.0 
0.0267791126146516 0.0 3:1.0 4:1.0 105:1.0 864:1.0 
0.07264434959736343 0.0 3:1.0 4:1.0 33:1.0 2932:1.0 
0.0 0.6028483769512138 105:1.0 638:1.0 639:1.0 3380:1.0 
0.07268948679245579 0.0 3:1.0 4:1.0 33:1.0 1017:1.0 
0.02846232780489011 0.0 3:1.0 4:1.0 105:1.0 3380:1.0 
0.07263507546252723 0.0 3:1.0 4:1.0 33:1.0 3381:1.0 
0.07265274971723568 0.0 3:1.0 4:1.0 33:1.0 3939:1.0 
0.07242205721816752 0.0 3:1.0 4:1.0 33:1.0 1084:1.0 
0.07259368896484375 0.0 3:1.0 4:1.0 33:1.0 842:1.0 
0.07234046037774533 0.0 3:1.0 4:1.0 33:1.0 58:1.0 
0.0625 0.0 3:1.0 4:1.0 33:1.0 59:1.0 
1000.0 0.0 3:1.0 4:1.0 33:1.0 635:1.0 
1000.0 0.0 3:1.0 4:1.0 33:1.0 635:1.0 
0.072265625 0.0 3:1.0 4:1.0 33:1.0 3950:1.0 
0.0625 0.0 3:1.0 4:1.0 33:1.0 1282:1.0 
0.0625 0.0 3:1.0 4:1.0 33:1.0 559:1.0 
0.0625 0.0 3:1.0 4:1.0 33:1.0 1286:1.0 
0.0625 0.0 3:1.0 4:1.0 33:1.0 190:1.0 
0.0625 0.0 3:1.0 4:1.0 33:1.0 201:1.0 
0.0625 0.0 3:1.0 4:1.0 33:1.0 1302:1.0 
0.0625 0.0 3:1.0 4:1.0 33:1.0 1303:1.0 
0.0625 0.0 3:1.0 4:1.0 33:1.0 1304:1.0 
0.024671624246777935 0.0 3:1.0 4:1.0 105:1.0 2667:1.0 
0.02959363667718823 0.0 3:1.0 4:1.0 105:1.0 3958:1.0 
0.029654280788654175 0.0 3:1.0 4:1.0 105:1.0 3959:1.0 
0.0625 0.0 3:1.0 4:1.0 33:1.0 1310:1.0 
0.0625 0.0 3:1.0 4:1.0 33:1.0 1315:1.0 
0.072265625 0.0 3:1.0 4:1.0 33:1.0 3964:1.0 
0.029856163902445942 0.0 3:1.0 4:1.0 105:1.0 3965:1.0 
0.0 0.8826880306544267 3:1.0 50:1.0 608:1.0 636:1.0 
0.02792003328795567 0.0 3:1.0 4:1.0 105:1.0 2548:1.0 
0.072265625 0.0 3:1.0 4:1.0 33:1.0 589:1.0 
0.0625 0.0 3:1.0 4:1.0 33:1.0 289:1.0 
0.0625 0.0 3:1.0 4:1.0 33:1.0 297:1.0 
0.0625 0.0 3:1.0 4:1.0 33:1.0 1340:1.0 
0.072265625 0.0 3:1.0 4:1.0 33:1.0 3970:1.0 
0.0625 0.0 3:1.0 4:1.0 33:1.0 311:1.0 
0.0625 0.0 3:1.0 4:1.0 33:1.0 125:1.0 
0.02898825105512537 0.0 3:1.0 4:1.0 105:1.0 1249:1.0 
1000.0 0.0 3:1.0 4:1.0 33:1.0 1400:1.0 
0.0625 0.0 3:1.0 4:1.0 33:1.0 2591:1.0 
0.0625 0.0 3:1.0 4:1.0 33:1.0 2547:1.0 
0.072265625 0.0 3:1.0 4:1.0 33:1.0 3977:1.0 
0.02898825105512537 0.0 3:1.0 4:1.0 105:1.0 3100:1.0 
0.029654026031494363 0.0 3:1.0 4:1.0 105:1.0 340:1.0 
0.0722615234050692 0.0 3:1.0 4:1.0 33:1.0 3982:1.0 
0.029911083582385145 0.0 3:1.0 4:1.0 105:1.0 866:1.0 
0.0722615234050692 0.0 3:1.0 4:1.0 33:1.0 3987:1.0 
0.0625 0.0 3:1.0 4:1.0 33:1.0 777:1.0 
0.0625 0.0 3:1.0 4:1.0 33:1.0 336:1.0 
0.0722585261974018 0.0 3:1.0 4:1.0 33:1.0 3998:1.0 
0.030093667230059795 0.0 3:1.0 4:1.0 105:1.0 1385:1.0 
0.030093667230059795 0.0 3:1.0 4:1.0 105:1.0 364:1.0 
0.0625 0.0 3:1.0 4:1.0 33:1.0 151:1.0 
0.0625 0.0 3:1.0 4:1.0 33:1.0 2294:1.0 
0.0722585261974018 0.0 3:1.0 4:1.0 33:1.0 4011:1.0 
0.030093667230059795 0.0 3:1.0 4:1.0 105:1.0 3862:1.0 
0.0625 0.0 3:1.0 4:1.0 33:1.0 3752:1.0 
0.0625 0.0 3:1.0 4:1.0 33:1.0 2521:1.0 
1000.0 0.0 3:1.0 4:1.0 33:1.0 1083:1.0 
0.0625 0.0 3:1.0 4:1.0 33:1.0 1010:1.0 
0.0625 0.0 3:1.0 4:1.0 33:1.0 492:1.0 
0.2597585261974018 0.0 3:1.0 4:1.0 33:1.0 3037:1.0 
0.0 1000.0 2:1.0 3:1.0 636:1.0 1213:1.0 
0.0 1000.0 2:1.0 3:1.0 636:1.0 1213:1.0 
0.009758526197401807 0.0 3:1.0 4:1.0 33:1.0 4021:1.0 
1000.0 0.0 3:1.0 4:1.0 33:1.0 1088:1.0 
0.0625 0.0 3:1.0 4:1.0 33:1.0 1042:1.0 
0.0625 0.0 3:1.0 4:1.0 33:1.0 1225:1.0 
999.8125 0.0 3:1.0 4:1.0 33:1.0 3037:1.0 
0.0722585261974018 0.0 3:1.0 4:1.0 33:1.0 4023:1.0 
0.0625 0.0 3:1.0 4:1.0 33:1.0 3420:1.0 
0.0 0.4494055471139525 3:1.0 33:1.0 636:1.0 3003:1.0 
0.0 0.1677549560504589 4:1.0 50:1.0 79:1.0 637:1.0 
0.0722585261974018 0.0 3:1.0 4:1.0 33:1.0 4024:1.0 
0.0625 0.0 3:1.0 4:1.0 33:1.0 1718:1.0 
0.030098033002957214 0.0 3:1.0 4:1.0 105:1.0 134:1.0 
0.030101661507524247 0.0 3:1.0 4:1.0 105:1.0 2471:1.0 
0.0625 0.0 3:1.0 4:1.0 33:1.0 3327:1.0 
0.0 0.6451903292181068 50:1.0 76:1.0 637:1.0 638:1.0 
0.0625 0.0 3:1.0 4:1.0 33:1.0 4021:1.0 
0.0625 0.0 3:1.0 4:1.0 33:1.0 3003:1.0 
0.0 0.13747724427082592 3:1.0 39:1.0 636:1.0 1232:1.0 
0.0625 0.0 3:1.0 4:1.0 33:1.0 3014:1.0 
0.007890338626016699 0.4493302846262159 3:1.0 33:1.0 636:1.0 4025:1.0 
0.030101661507524247 0.0 3:1.0 4:1.0 105:1.0 304:1.0 
0.0625 0.0 3:1.0 4:1.0 33:1.0 670:1.0 
0.0625 0.0 3:1.0 4:1.0 33:1.0 3018:1.0 
0.0625 0.0 3:1.0 4:1.0 33:1.0 1476:1.0 
0.0625 0.0 3:1.0 4:1.0 33:1.0 2407:1.0 
0.0625 0.0 3:1.0 4:1.0 33:1.0 1969:1.0 
0.0722585261974018 0.0 3:1.0 4:1.0 33:1.0 4031:1.0 
0.0625 0.0 3:1.0 4:1.0 33:1.0 1428:1.0 
0.0625 0.0 3:1.0 4:1.0 33:1.0 1431:1.0 
0.0 0.2061111419127668 3:1.0 10:1.0 11:1.0 636:1.0 
0.0625 0.0 3:1.0 4:1.0 33:1.0 3279:1.0 
0.0625 0.0 3:1.0 4:1.0 33:1.0 1430:1.0 
0.0625 0.0 3:1.0 4:1.0 33:1.0 423:1.0 
0.0625 0.0 3:1.0 4:1.0 33:1.0 3640:1.0 
0.03011912552756235 0.0 3:1.0 4:1.0 105:1.0 4036:1.0 
0.0625 0.0 3:1.0 4:1.0 33:1.0 3593:1.0 
0.03011912552756235 0.0 3:1.0 4:1.0 105:1.0 4039:1.0 
0.0625 0.0 3:1.0 4:1.0 33:1.0 1438:1.0 
0.0625 0.0 3:1.0 4:1.0 33:1.0 1442:1.0 
0.0722585261974018 0.0 3:1.0 4:1.0 33:1.0 4040:1.0 
0.0625 0.0 3:1.0 4:1.0 33:1.0 1738:1.0 
0.0722585261974018 0.0 3:1.0 4:1.0 33:1.0 4047:1.0 
0.0722585261974018 0.0 3:1.0 4:1.0 33:1.0 4050:1.0 
0.0625 0.0 3:1.0 4:1.0 33:1.0 1511:1.0 
0.03011912552756235 0.0 3:1.0 4:1.0 105:1.0 1241:1.0 
0.02979867667592262 0.0 3:1.0 4:1.0 105:1.0 4057:1.0 
0.0722585261974018 0.0 3:1.0 4:1.0 33:1.0 4058:1.0 
0.028937334460120034 0.0 3:1.0 4:1.0 105:1.0 430:1.0 
0.060546875 0.0 3:1.0 4:1.0 33:1.0 441:1.0 
0.060546875 0.0 3:1.0 4:1.0 33:1.0 442:1.0 
0.0625 0.0 3:1.0 4:1.0 33:1.0 443:1.0 
0.0722585261974018 0.0 3:1.0 4:1.0 33:1.0 4067:1.0 
0.0625 0.0 3:1.0 4:1.0 33:1.0 2230:1.0 
1000.0 0.0 3:1.0 4:1.0 105:1.0 1706:1.0 
0.0625 0.0 3:1.0 4:1.0 33:1.0 1360:1.0 
0.0625 0.0 3:1.0 4:1.0 33:1.0 1237:1.0 
0.0722585261974018 0.0 3:1.0 4:1.0 33:1.0 4074:1.0 
0.029977192866263158 0.0 3:1.0 4:1.0 105:1.0 4075:1.0 
0.0722585261974018 0.0 3:1.0 4:1.0 33:1.0 4077:1.0 
0.0722585261974018 0.0 3:1.0 4:1.0 33:1.0 4078:1.0 
0.0625 0.0 3:1.0 4:1.0 33:1.0 461:1.0 
0.0625 0.0 3:1.0 4:1.0 33:1.0 2229:1.0 
0.027850145218603906 0.0 3:1.0 4:1.0 105:1.0 1012:1.0 
0.0625 0.0 3:1.0 4:1.0 33:1.0 3157:1.0 
0.0722585261974018 0.0 3:1.0 4:1.0 33:1.0 4082:1.0 
0.0625 0.0 3:1.0 4:1.0 33:1.0 1502:1.0 
1000.0 0.0 3:1.0 4:1.0 105:1.0 1706:1.0 
0.07224364928808391 0.0 3:1.0 4:1.0 33:1.0 4085:1.0 
1000.0 0.0 3:1.0 4:1.0 105:1.0 2374:1.0 
0.0722609258433663 0.0 3:1.0 4:1.0 33:1.0 4086:1.0 
0.029798676675921842 0.0 3:1.0 4:1.0 105:1.0 2560:1.0 
0.07138830388946027 0.0 3:1.0 4:1.0 33:1.0 53:1.0 
0.07200802696146064 0.0 3:1.0 4:1.0 33:1.0 489:1.0 
0.07268809335073467 0.0 3:1.0 4:1.0 33:1.0 3913:1.0 
0.07262408733367887 0.0 3:1.0 4:1.0 33:1.0 4088:1.0 
0.028988251055124703 0.0 3:1.0 4:1.0 105:1.0 922:1.0 
0.0722585261974018 0.0 3:1.0 4:1.0 33:1.0 459:1.0 
0.07264487800421204 0.0 3:1.0 4:1.0 33:1.0 83:1.0 
0.07268998352143807 0.0 3:1.0 4:1.0 33:1.0 4073:1.0 
0.07226562499999956 0.0 3:1.0 4:1.0 33:1.0 2263:1.0 
0.07226562499999956 0.0 3:1.0 4:1.0 33:1.0 1080:1.0 
0.07275772094726518 0.0 3:1.0 4:1.0 33:1.0 455:1.0 
0.06894652102848142 0.0 3:1.0 4:1.0 33:1.0 593:1.0 
0.07293864255265137 0.0 3:1.0 4:1.0 33:1.0 4072:1.0 
0.07088388338865403 0.0 3:1.0 4:1.0 33:1.0 94:1.0 
0.07134342193603493 0.0 3:1.0 4:1.0 33:1.0 510:1.0 
0.07265274971723568 0.0 3:1.0 4:1.0 33:1.0 512:1.0 
0.029654026031493697 0.0 3:1.0 4:1.0 105:1.0 4096:1.0 
0.030119125527561685 0.0 3:1.0 4:1.0 105:1.0 468:1.0 
0.07269513837643526 0.0 3:1.0 4:1.0 33:1.0 3907:1.0 
0.072265625 0.0 3:1.0 4:1.0 33:1.0 3266:1.0 
0.06332584470510494 0.0 3:1.0 4:1.0 33:1.0 505:1.0 
0.07219873368740037 0.0 3:1.0 4:1.0 33:1.0 1534:1.0 
0.07264471054077104 0.0 3:1.0 4:1.0 33:1.0 848:1.0 
0.0625 0.0 3:1.0 4:1.0 33:1.0 1466:1.0 
0.07263507546252734 0.0 3:1.0 4:1.0 33:1.0 4100:1.0 
0.07263507546252734 0.0 3:1.0 4:1.0 33:1.0 4102:1.0 
0.0625 0.0 3:1.0 4:1.0 33:1.0 96:1.0 
0.0625 0.0 3:1.0 4:1.0 33:1.0 3602:1.0 
0.07264487800421193 0.0 3:1.0 4:1.0 33:1.0 4110:1.0 
0.07264487800421193 0.0 3:1.0 4:1.0 33:1.0 4113:1.0 
0.0625 0.0 3:1.0 4:1.0 33:1.0 1161:1.0 
0.07264487800421193 0.0 3:1.0 4:1.0 33:1.0 4117:1.0 
0.0625 0.0 3:1.0 4:1.0 33:1.0 1014:1.0 
0.0625 0.0 3:1.0 4:1.0 33:1.0 1028:1.0 
0.0625 0.0 3:1.0 4:1.0 33:1.0 969:1.0 
0.030119125527561685 0.0 3:1.0 4:1.0 105:1.0 1049:1.0 
1000.0 0.0 3:1.0 4:1.0 105:1.0 1091:1.0 
0.0625 0.0 3:1.0 4:1.0 33:1.0 1078:1.0 
0.0625 0.0 3:1.0 4:1.0 33:1.0 783:1.0 
0.0625 0.0 3:1.0 4:1.0 33:1.0 391:1.0 
0.030119125527561685 0.0 3:1.0 4:1.0 105:1.0 1325:1.0 
0.0625 0.0 3:1.0 4:1.0 33:1.0 2394:1.0 
0.07264487800421193 0.0 3:1.0 4:1.0 33:1.0 4123:1.0 
0.0625 0.0 3:1.0 4:1.0 33:1.0 533:1.0 
0.07264454573786416 0.0 3:1.0 4:1.0 33:1.0 4125:1.0 
0.07264454573786416 0.0 3:1.0 4:1.0 33:1.0 4127:1.0 
0.0625 0.0 3:1.0 4:1.0 33:1.0 1715:1.0 
0.0625 0.0 3:1.0 4:1.0 33:1.0 1780:1.0 
0.07264454573786416 0.0 3:1.0 4:1.0 33:1.0 4129:1.0 
0.0625 0.0 3:1.0 4:1.0 33:1.0 2807:1.0 
0.0625 0.0 3:1.0 4:1.0 33:1.0 3856:1.0 
0.0625 0.0 3:1.0 4:1.0 33:1.0 1223:1.0 
0.07264454573786416 0.0 3:1.0 4:1.0 33:1.0 4134:1.0 
0.07264454573786416 0.0 3:1.0 4:1.0 33:1.0 4136:1.0 
0.07264454573786416 0.0 3:1.0 4:1.0 33:1.0 4140:1.0 
0.0625 0.0 3:1.0 4:1.0 33:1.0 2406:1.0 
0.0625 0.0 3:1.0 4:1.0 33:1.0 1059:1.0 
0.07264454573786416 0.0 3:1.0 4:1.0 33:1.0 4143:1.0 
0.07264454573786416 0.0 3:1.0 4:1.0 33:1.0 4144:1.0 
0.030119125527561685 0.0 3:1.0 4:1.0 105:1.0 1398:1.0 
0.030119125527561685 0.0 3:1.0 4:1.0 105:1.0 1096:1.0 
0.0625 0.0 3:1.0 4:1.0 33:1.0 1025:1.0 
0.0 0.2822145061728395 2:1.0 3:1.0 636:1.0 1027:1.0 
0.029654280788653675 0.0 3:1.0 4:1.0 105:1.0 4149:1.0 
1000.0 0.0 3:1.0 4:1.0 33:1.0 1083:1.0 
0.027920033287955226 0.0 3:1.0 4:1.0 105:1.0 1906:1.0 
0.0625 0.0 3:1.0 4:1.0 33:1.0 1697:1.0 
0.0726430147355841 0.0 3:1.0 4:1.0 33:1.0 1130:1.0 
0.0625 0.0 3:1.0 4:1.0 33:1.0 958:1.0 
0.0625 0.0 3:1.0 4:1.0 33:1.0 1148:1.0 
0.0625 0.0 3:1.0 4:1.0 33:1.0 1606:1.0 
0.0625 0.0 3:1.0 4:1.0 33:1.0 1117:1.0 
0.0625 0.0 3:1.0 4:1.0 33:1.0 1047:1.0 
0.07214140892028753 0.0 3:1.0 4:1.0 33:1.0 290:1.0 
0.07134342193603493 0.0 3:1.0 4:1.0 33:1.0 3929:1.0 
0.07275772094726518 0.0 3:1.0 4:1.0 33:1.0 1052:1.0 
0.07268998352143807 0.0 3:1.0 4:1.0 33:1.0 993:1.0 
0.028937334460120034 0.0 3:1.0 4:1.0 105:1.0 1566:1.0 
0.03011912552756213 0.0 3:1.0 4:1.0 105:1.0 1060:1.0 
0.0 0.442751588778737 3:1.0 33:1.0 310:1.0 636:1.0 
0.07242205721816752 0.0 3:1.0 4:1.0 33:1.0 4161:1.0 
0.07226562499999956 0.0 3:1.0 4:1.0 33:1.0 4162:1.0 
0.0 0.13794680492801292 3:1.0 116:1.0 636:1.0 2848:1.0 
0.0625 0.0 3:1.0 4:1.0 33:1.0 1004:1.0 
0.0726899835214384 0.0 3:1.0 4:1.0 33:1.0 409:1.0 
0.0625 0.0 3:1.0 4:1.0 33:1.0 1094:1.0 
0.0625 0.0 3:1.0 4:1.0 33:1.0 1023:1.0 
0.0625 0.0 3:1.0 4:1.0 33:1.0 1022:1.0 
0.0625 0.0 3:1.0 4:1.0 33:1.0 1043:1.0 
0.0625 0.0 3:1.0 4:1.0 33:1.0 85:1.0 
0.0625 0.0 3:1.0 4:1.0 33:1.0 1041:1.0 
0.0625 0.0 3:1.0 4:1.0 33:1.0 1040:1.0 
0.0625 0.0 3:1.0 4:1.0 33:1.0 1045:1.0 
0.0625 0.0 3:1.0 4:1.0 33:1.0 1097:1.0 
0.0625 0.0 3:1.0 4:1.0 33:1.0 967:1.0 
1000.0 0.0 3:1.0 4:1.0 105:1.0 811:1.0 
1.0 0.0 3:1.0 4:1.0 33:1.0 806:1.0 
0.03011912552756213 0.0 3:1.0 4:1.0 105:1.0 1776:1.0 
1000.0 0.0 3:1.0 4:1.0 33:1.0 806:1.0 
999.0625 0.0 3:1.0 4:1.0 33:1.0 806:1.0 
0.0625 0.0 3:1.0 4:1.0 33:1.0 1053:1.0 
0.07267047445334462 0.0 3:1.0 4:1.0 33:1.0 4169:1.0 
0.07267047445334462 0.0 3:1.0 4:1.0 33:1.0 4170:1.0 
0.0625 0.0 3:1.0 4:1.0 33:1.0 2777:1.0 
0.0625 0.0 3:1.0 4:1.0 33:1.0 3039:1.0 
0.0625 0.0 3:1.0 4:1.0 32:1.0 33:1.0 
0.0625 0.0 3:1.0 4:1.0 33:1.0 775:1.0 
0.027453204266310205 0.0 3:1.0 4:1.0 104:1.0 105:1.0 
0.0625 0.0 3:1.0 4:1.0 33:1.0 1107:1.0 
0.0625 0.0 3:1.0 4:1.0 33:1.0 554:1.0 
0.03011912552756213 0.0 3:1.0 4:1.0 105:1.0 4172:1.0 
0.0625 0.0 3:1.0 4:1.0 33:1.0 113:1.0 
0.03011912552756213 0.0 3:1.0 4:1.0 105:1.0 4174:1.0 
0.0625 0.0 3:1.0 4:1.0 33:1.0 451:1.0 
0.029672289926827133 0.0 3:1.0 4:1.0 105:1.0 4175:1.0 
999.4882562362342 0.0 3:1.0 4:1.0 87:1.0 122:1.0 
-1000.0 0.0 3:1.0 4:1.0 33:1.0 635:1.0 
-1000.0 0.0 3:1.0 4:1.0 33:1.0 635:1.0 
-1000.0 0.0 3:1.0 4:1.0 33:1.0 635:1.0 
-0.22653320275008149 0.0 3:1.0 4:1.0 33:1.0 1030:1.0 
-1.9273593744186939 0.0 3:1.0 4:1.0 33:1.0 1083:1.0 
-1000.0 0.0 3:1.0 4:1.0 105:1.0 1091:1.0 
-1000.0 0.0 3:1.0 4:1.0 33:1.0 1083:1.0 
-1000.0 0.0 3:1.0 4:1.0 33:1.0 1083:1.0 
-1000.0 0.0 3:1.0 4:1.0 33:1.0 1083:1.0 
-0.3056358062484677 0.6659823676342773 4:1.0 33:1.0 637:1.0 1088:1.0 
-1000.0 0.0 3:1.0 4:1.0 33:1.0 1083:1.0 
-1000.0 0.0 3:1.0 4:1.0 33:1.0 1083:1.0 
-6.829613085816069 0.0 2:1.0 3:1.0 4:1.0 339:1.0 
-1000.0 0.0 3:1.0 4:1.0 105:1.0 811:1.0 
-1000.0 0.0 3:1.0 4:1.0 105:1.0 1160:1.0 
-1000.0 0.0 3:1.0 4:1.0 33:1.0 1400:1.0 
-1000.0 0.0 3:1.0 4:1.0 33:1.0 1400:1.0 
-1000.0 0.0 3:1.0 4:1.0 33:1.0 1716:1.0 
-1.927377238089441 0.0 3:1.0 4:1.0 33:1.0 1722:1.0 
-1000.0 0.0 3:1.0 4:1.0 33:1.0 1083:1.0 
-1.927372596500591 0.0 3:1.0 4:1.0 33:1.0 1885:1.0 
-1000.0 0.0 3:1.0 4:1.0 105:1.0 811:1.0 
-1000.0 0.0 3:1.0 4:1.0 105:1.0 811:1.0 
-1000.0 0.0 3:1.0 4:1.0 33:1.0 629:1.0 
-1000.0 0.0 3:1.0 4:1.0 33:1.0 2405:1.0 
-1000.0 0.0 3:1.0 4:1.0 33:1.0 1083:1.0 
-1000.0 0.0 3:1.0 4:1.0 33:1.0 629:1.0 
-9.433580849773122 0.0 3:1.0 4:1.0 33:1.0 1030:1.0 
-1000.0 0.0 3:1.0 4:1.0 161:1.0 624:1.0 
-1.621763368018337 0.0 3:1.0 4:1.0 33:1.0 1088:1.0 
-1000.0 0.0 3:1.0 4:1.0 33:1.0 1088:1.0 
-1000.0 0.0 3:1.0 4:1.0 105:1.0 1706:1.0 
-0.042697973235465536 0.0 3:1.0 4:1.0 105:1.0 2824:1.0 
-1.9273777273550263 0.0 3:1.0 4:1.0 33:1.0 2841:1.0 
-1000.0 0.0 3:1.0 4:1.0 105:1.0 2410:1.0 
-1000.0 0.0 3:1.0 4:1.0 33:1.0 2985:1.0 
-1.9273777273550263 0.0 3:1.0 4:1.0 33:1.0 2999:1.0 
-1000.0 0.0 3:1.0 4:1.0 33:1.0 1088:1.0 
-1000.0 0.0 3:1.0 4:1.0 33:1.0 1030:1.0 
-1000.0 0.0 3:1.0 4:1.0 33:1.0 1088:1.0 
-1000.0 0.0 3:1.0 4:1.0 33:1.0 1083:1.0 
-1000.0 0.0 3:1.0 4:1.0 33:1.0 1030:1.0 
-1000.0 0.0 3:1.0 4:1.0 33:1.0 1088:1.0 
-1000.0 0.0 3:1.0 4:1.0 33:1.0 1088:1.0 
-1000.0 0.0 3:1.0 4:1.0 33:1.0 3037:1.0 
-1000.0 0.0 3:1.0 4:1.0 33:1.0 1083:1.0 
-1.9273777273550263 0.0 3:1.0 4:1.0 33:1.0 3006:1.0 
-1000.0 0.0 3:1.0 4:1.0 33:1.0 1083:1.0 
-1000.0 0.0 3:1.0 4:1.0 33:1.0 1088:1.0 
-1000.0 0.0 3:1.0 4:1.0 625:1.0 3061:1.0 
-1000.0 0.0 3:1.0 4:1.0 105:1.0 1706:1.0 
-1000.0 0.0 3:1.0 4:1.0 33:1.0 1030:1.0 
-1000.0 0.0 3:1.0 4:1.0 33:1.0 1088:1.0 
-1000.0 0.0 3:1.0 4:1.0 33:1.0 1088:1.0 
-1000.0 0.0 3:1.0 4:1.0 33:1.0 1088:1.0 
-1000.0 0.0 3:1.0 4:1.0 33:1.0 1088:1.0 
-1000.0 0.0 3:1.0 4:1.0 116:1.0 2459:1.0 
-1000.0 0.0 3:1.0 4:1.0 33:1.0 1083:1.0 
-1000.0 0.0 3:1.0 4:1.0 33:1.0 1083:1.0 
-1000.0 0.0 3:1.0 4:1.0 33:1.0 1083:1.0 
-1000.0 0.0 3:1.0 4:1.0 33:1.0 1083:1.0 
-1000.0 0.0 3:1.0 4:1.0 33:1.0 1088:1.0 
-1000.0 0.0 3:1.0 4:1.0 33:1.0 511:1.0 
-1.9273119066492654 0.0 3:1.0 4:1.0 33:1.0 3441:1.0 
-1.9273119066492654 0.0 3:1.0 4:1.0 33:1.0 3500:1.0 
-1000.0 5.976179418555563E-4 3:1.0 4:1.0 105:1.0 1141:1.0 
-1.9273119066492654 0.0 3:1.0 4:1.0 33:1.0 955:1.0 
-1000.0 0.0 3:1.0 4:1.0 33:1.0 1088:1.0 
-1000.0 0.0 3:1.0 4:1.0 33:1.0 955:1.0 
-6.683101495228918 0.0 3:1.0 4:1.0 33:1.0 2648:1.0 
-1000.0 0.0 3:1.0 4:1.0 116:1.0 1915:1.0 
-1000.0 0.0 3:1.0 4:1.0 33:1.0 1212:1.0 
-1.9273119066492654 0.0 3:1.0 4:1.0 33:1.0 3645:1.0 
-1000.0 0.0 3:1.0 4:1.0 33:1.0 2648:1.0 
-1000.0 0.0 3:1.0 4:1.0 33:1.0 2648:1.0 
-1000.0 0.0 3:1.0 4:1.0 33:1.0 1716:1.0 
-1000.0 0.0 3:1.0 4:1.0 33:1.0 1088:1.0 
-1.9273119066492654 0.0 3:1.0 4:1.0 33:1.0 3309:1.0 
-1000.0 0.0 3:1.0 4:1.0 858:1.0 1417:1.0 
-1000.0 0.0 3:1.0 4:1.0 33:1.0 422:1.0 
-1.9273119066492654 0.0 3:1.0 4:1.0 33:1.0 3540:1.0 
-1000.0 0.0 3:1.0 4:1.0 33:1.0 1083:1.0 
-1000.0 0.0 3:1.0 4:1.0 33:1.0 1083:1.0 
-1.9273119066492654 0.0 3:1.0 4:1.0 33:1.0 1021:1.0 
-1.9273119066492654 0.0 3:1.0 4:1.0 33:1.0 1002:1.0 
-1.9273119066492654 0.0 3:1.0 4:1.0 33:1.0 1037:1.0 
-1.9273119066492654 0.0 3:1.0 4:1.0 33:1.0 2980:1.0 
-1000.0 0.0 3:1.0 4:1.0 33:1.0 1083:1.0 
-1000.0 0.0 3:1.0 4:1.0 33:1.0 1088:1.0 
-1000.0 0.0 3:1.0 4:1.0 78:1.0 3407:1.0 
-1000.0 0.0 3:1.0 4:1.0 33:1.0 806:1.0 
-0.08903601244084891 0.0 3:1.0 4:1.0 105:1.0 4018:1.0 
-1.9273119066492654 0.0 3:1.0 4:1.0 33:1.0 1031:1.0 
-1.9273119066492654 0.0 3:1.0 4:1.0 33:1.0 1044:1.0 
-1.927414254542383 0.0 3:1.0 4:1.0 105:1.0 2824:1.0 
-1000.0 0.0 3:1.0 4:1.0 33:1.0 1044:1.0 
-1000.0 0.0 3:1.0 4:1.0 33:1.0 1031:1.0 
-1000.0 0.0 3:1.0 4:1.0 87:1.0 122:1.0 
-1000.0 0.0 3:1.0 4:1.0 33:1.0 806:1.0 
-1000.0 0.0 3:1.0 4:1.0 33:1.0 1083:1.0 
-1.8812853167455352 0.0 3:1.0 4:1.0 105:1.0 4018:1.0 
-1000.0 0.0 3:1.0 4:1.0 105:1.0 2374:1.0 
-1000.0 0.0 3:1.0 4:1.0 33:1.0 1433:1.0 
-1000.0 0.6666666666666667 3:1.0 4:1.0 33:1.0 1031:1.0 
-1.9277343750000004 0.0 3:1.0 4:1.0 33:1.0 4159:1.0 
-1.9702106202074543 0.0 3:1.0 4:1.0 105:1.0 4164:1.0 
-0.08835547247602726 -0.0 2:1.0 71:1.0 637:1.0 638:1.0 
-1000.0 -0.0 3:1.0 50:1.0 132:1.0 636:1.0 
-0.6779315978816515 -0.0 18:1.0 19:1.0 638:1.0 639:1.0 
-0.4632289673324887 -0.0 2:1.0 71:1.0 638:1.0 639:1.0 
-0.5506986455690055 -0.0 3:1.0 33:1.0 636:1.0 2405:1.0 
-1.0 -0.0 3:1.0 33:1.0 636:1.0 2405:1.0 
-1.5509462084939527 -0.0 3:1.0 33:1.0 636:1.0 2599:1.0 
-1.551397265935269 -0.6655969201256403 33:1.0 637:1.0 638:1.0 1088:1.0 
-530.0256841572038 -0.0 50:1.0 79:1.0 637:1.0 638:1.0 
-0.0017090081933139878 -0.0 33:1.0 638:1.0 639:1.0 1044:1.0 
-0.8189667156464937 -0.0 33:1.0 637:1.0 638:1.0 2648:1.0 
-0.29549298188481 -0.0 2:1.0 3:1.0 71:1.0 636:1.0 
-459.34797324477273 -0.0 50:1.0 79:1.0 637:1.0 638:1.0 
-0.0 -7.561783015354491E-5 33:1.0 638:1.0 639:1.0 1044:1.0 
-0.5406256575255273 -0.0 33:1.0 637:1.0 638:1.0 2648:1.0 
-1.6468998429138226 -0.0 2:1.0 3:1.0 636:1.0 3626:1.0 
-1000.0 -0.0 3:1.0 50:1.0 132:1.0 636:1.0 
-1.6477003317709362 -0.0 2:1.0 637:1.0 638:1.0 1086:1.0 
-1000.0 -0.0 2:1.0 3:1.0 636:1.0 1213:1.0 
-0.19135972714821742 -0.0 3:1.0 33:1.0 636:1.0 2648:1.0 
-1.1173328241474072 -0.0 3:1.0 50:1.0 636:1.0 1541:1.0 
-1.88901701979871 -0.0 33:1.0 637:1.0 638:1.0 3278:1.0 
-1.7066774385675971 -0.0 2:1.0 424:1.0 638:1.0 639:1.0 
-1.8095294773252772 -0.0 33:1.0 637:1.0 638:1.0 955:1.0 
-1.4116866479366261 -7.121291298094121E-4 105:1.0 637:1.0 638:1.0 1141:1.0 
-1000.0 -0.0 2:1.0 3:1.0 636:1.0 1213:1.0 
-11.911707313128543 -0.0 3:1.0 50:1.0 79:1.0 636:1.0 
-1.5499240615676682 -0.0 33:1.0 637:1.0 638:1.0 1044:1.0 
-0.2466105919934806 -0.0 3:1.0 18:1.0 19:1.0 636:1.0 
-1.1671350951499464 -0.0 2:1.0 71:1.0 637:1.0 638:1.0 
-1.550654761268635 -0.0 3:1.0 33:1.0 636:1.0 3265:1.0 
-1000.0 -0.0 2:1.0 637:1.0 638:1.0 1213:1.0 
-1000.0 -0.0 2:1.0 3:1.0 636:1.0 1213:1.0 
-1.5509085973183752 -0.6668619851571966 3:1.0 33:1.0 636:1.0 1031:1.0 
