svm_type c_svc
kernel_type linear
nr_class 3
total_sv 1296
rho 1.09156 0.150371 -0.856922
label 1 2 3
nr_sv 283 654 359
SV
0.0007686210888990162 0 1:1 2:1 3:1 4:1 5:1 6:1 7:1 8:1 9:1 10:1 11:1 12:1 13:1 14:1 15:1 16:1 17:1 18:1 19:1 20:1 21:1 22:1 23:1 24:1 25:1 26:1 27:1 28:1 29:1 30:1 31:4 32:1 33:1 34:1 35:1 36:1 37:1 38:1 39:1 40:1 41:1 42:1 43:1 44:1 
0.002315025578979868 0.006491755255493416 30:1 31:1 33:1 34:1 35:1 36:1 50:1 51:1 58:2 59:2 60:2 87:2 101:1 121:1 122:2 185:1 186:1 187:1 188:1 189:1 190:1 191:1 192:1 193:1 194:1 195:1 196:1 197:1 198:1 199:1 200:1 201:1 202:1 203:1 204:1 205:1 206:1 207:1 208:1 209:1 210:1 211:1 212:1 213:1 214:1 215:1 216:1 217:1 218:1 219:1 220:1 221:1 222:1 223:1 224:1 225:1 226:1 
0.003894733059062212 0 27:1 28:1 29:1 31:1 36:1 50:1 51:1 58:1.5 59:2 60:1 67:1 123:1 127:1 159:1 262:1 437:1 438:1 439:1 440:1 441:1 442:1 443:1 444:1 445:1 446:1 447:1 448:1 449:1 450:1 451:1 452:1 453:1 454:1 455:1 456:1 457:1 458:1 459:1 460:1 461:1 462:1 463:1 464:1 465:1 466:1 
0.03987557797791506 0.01000407384828915 27:1 28:1 29:1 30:2 31:2 36:1 40:1 43:1 50:1 51:1 58:1 59:1 60:1 178:1 180:1 596:1 892:1 978:1 979:1 980:1 981:1 982:1 983:2 984:1 985:1 986:1 987:1 988:1 989:1 990:1 991:1 992:1 993:1 994:1 995:1 996:1 997:1 998:1 999:1 1000:1 1001:1 1002:1 1003:1 1004:1 1005:1 1006:1 1007:1 1008:1 1009:1 1010:1 1011:1 1012:1 1013:1 1014:1 1015:1 
0.05 0.05 27:1 28:1 30:2 31:1 53:1 58:1.5 59:2 60:1 124:1 135:1 142:1 147:1 149:1 171:1 176:1 177:1 178:1 416:1 782:1 832:1 833:1 854:1 855:1 859:1 939:1 1248:1 1859:1 1860:1 1861:1 1862:1 1863:1 1864:1 1865:1 1866:1 1867:1 1868:1 1869:1 1870:1 1871:1 1872:1 1873:1 1874:1 1875:1 1876:1 1877:1 
0.04679982458688487 0.01268169543301444 27:1 28:1 30:1 33:1 36:1 53:1 58:1.5 59:2 60:1 371:1 417:1 517:1 599:1 615:1 618:1 619:1 666:1 873:1 1917:1 1944:1 2169:1 2170:1 2171:1 2172:1 2173:1 2174:1 2175:1 2176:1 2177:1 2178:1 2179:1 2180:1 2181:1 2182:1 2183:1 2184:1 2185:1 2186:1 2187:1 2188:1 2189:1 2190:1 2191:1 2192:1 
0.0381214911260015 0 30:1 32:1 36:1 58:3 59:4 60:2 87:7 127:1 159:1 160:1 285:1 289:1 338:1 371:1 376:1 490:1 497:1 778:1 1115:1 1118:1 1150:1 1931:1 1932:1 1935:1 1943:1 1944:1 1980:1 1981:1 1982:1 1983:1 1984:1 1985:1 1986:1 1990:1 1991:1 1992:1 1993:1 1994:1 1995:1 2381:1 2382:1 2383:1 2384:1 2385:1 2386:1 2387:1 2388:1 2389:1 2390:1 2391:1 2392:1 
0.05 0 30:1 32:1 36:1 58:4 59:4 60:4 87:9 89:1 91:1 95:1 127:1 159:1 160:1 338:1 371:1 490:1 497:1 544:1 778:1 998:1 1115:1 1118:1 1943:1 1944:1 1955:1 1958:1 1961:1 1962:1 1963:1 1990:1 1991:1 1992:1 1997:1 1998:1 1999:1 2000:1 2001:1 2002:1 2003:1 2004:1 2005:1 2006:1 2381:1 2382:1 2383:1 2384:1 2385:1 2386:1 2387:1 2388:1 2389:1 2390:1 2391:1 2393:1 
0.05 0 29:1 31:1 36:1 37:1 38:1 58:8 59:11 60:5 87:3 127:1 159:1 282:1 284:1 285:1 301:1 377:1 460:1 497:1 783:1 1115:1 1118:1 1224:1 1942:1 2209:1 2210:1 2211:1 2212:1 2213:1 2214:1 2215:1 2216:1 2217:1 2218:1 2219:1 2220:1 2257:1 2366:1 2444:1 2445:1 2446:1 2447:1 2448:1 2449:1 2450:1 2451:1 2452:1 2453:1 
0.0244408801680315 0 29:1 32:1 36:1 58:4.5 59:8 60:1 87:7 89:1 127:1 159:1 282:1 285:1 289:1 301:1 371:1 376:1 460:1 490:1 497:1 1115:1 1118:1 1150:1 1931:1 1932:1 1935:1 1942:1 1943:1 1944:1 1993:1 1994:1 2008:1 2009:1 2010:1 2011:1 2012:1 2013:1 2014:1 2017:1 2018:1 2019:1 2257:1 2366:1 2444:1 2445:1 2446:1 2447:1 2448:1 2449:1 2450:1 2451:1 2452:1 2454:1 
0.02910311881997132 0 29:1 32:1 36:1 58:5.5 59:8 60:3 87:9 89:2 91:1 95:1 127:1 159:1 282:1 301:1 371:1 460:1 490:1 497:1 544:1 998:1 1115:1 1118:1 1942:1 1943:1 1944:1 1955:1 1958:1 1961:1 1962:1 1963:1 2001:1 2017:1 2018:1 2030:1 2257:1 2277:1 2278:1 2279:1 2280:1 2281:1 2282:1 2283:1 2284:1 2366:1 2444:1 2445:1 2446:1 2447:1 2448:1 2449:1 2450:1 2451:1 2452:1 2455:1 
0.05 0.005816472914112132 30:1 31:1 36:1 40:1 43:1 53:1 58:4.5 59:5 60:4 87:12 89:1 135:1 371:1 490:4 497:1 998:1 1009:1 1115:1 1118:1 1150:1 1931:1 1935:1 1943:1 1944:1 2046:1 2060:1 2061:1 2062:1 2063:1 2064:1 2094:1 2191:1 2216:1 2348:1 2349:1 2350:1 2351:1 2352:1 2353:1 2354:1 2355:1 2366:1 2516:1 2518:1 2525:1 2526:1 2545:1 2546:1 2547:1 2548:1 2549:1 2550:1 2551:1 2553:1 
0.05 0 27:1 28:1 29:4 30:1 31:1 33:1 36:1 50:1 51:1 53:1 56:1 58:2.5 59:3 60:2 121:1 127:1 159:1 160:1 417:1 605:1 686:1 894:2 901:1 905:2 983:1 998:1 1000:1 1354:1 2100:1 2101:1 2102:1 2104:1 2105:1 2120:1 2121:1 2122:1 2124:1 2125:1 2126:1 2579:1 2593:1 2599:1 2615:1 2616:1 2617:1 2618:1 2619:1 2620:1 2621:1 2622:1 2623:1 2624:1 2625:1 2626:1 2627:1 2628:1 2629:1 2631:1 
0.05 0 27:1 28:1 29:3 30:1 31:1 33:2 36:1 50:1 51:1 53:1 56:1 58:2 59:2 60:2 121:1 127:1 159:1 160:1 417:1 474:1 686:1 894:1 905:1 983:1 998:1 1000:1 1030:1 1043:1 1354:1 2085:1 2094:1 2100:1 2101:1 2102:1 2104:1 2105:1 2110:1 2113:1 2114:1 2115:1 2116:1 2118:1 2579:1 2593:1 2599:1 2616:1 2618:1 2619:1 2620:1 2621:1 2622:1 2624:1 2625:1 2628:1 2629:1 2630:1 2634:1 2635:1 2636:1 2637:1 
0.05 0 27:1 28:1 29:2 30:1 31:1 33:3 36:1 50:1 51:1 53:1 56:1 58:2 59:2 60:2 121:1 127:1 159:1 160:1 417:1 474:1 783:1 983:1 998:1 1000:1 1030:2 1043:2 1248:1 1354:1 2055:1 2084:1 2085:1 2094:1 2098:1 2099:1 2100:1 2101:1 2102:1 2103:1 2104:1 2105:1 2110:1 2111:1 2579:1 2593:1 2599:1 2616:1 2618:1 2619:1 2620:1 2621:1 2624:1 2625:1 2628:1 2629:1 2640:1 2641:1 2642:1 2643:1 
0.05 0.009963788333446751 30:1 31:1 33:1 36:1 37:1 38:1 53:1 58:2 59:2 60:2 87:3 127:1 159:1 160:1 417:1 479:1 481:1 497:1 508:1 783:1 837:1 839:1 896:1 1115:1 1118:1 2094:1 2141:1 2142:1 2143:1 2144:1 2145:1 2146:1 2147:1 2149:1 2150:1 2151:1 2152:1 2579:1 2628:1 2675:1 2676:1 2677:1 2678:1 2679:1 2680:1 2681:1 2682:1 2683:1 2684:1 
0.01918582330679791 0.002399865653523364 27:1 28:1 29:1 30:1 31:3 32:2 36:1 40:1 43:1 44:1 140:1 142:1 147:1 149:1 154:1 296:1 342:1 371:1 473:1 757:1 944:1 945:1 1030:2 1043:2 1115:1 1702:1 1708:1 1944:1 2053:2 2066:2 2527:1 2696:1 2697:1 2698:1 2699:1 2700:1 2701:1 2702:1 2703:1 2704:1 2705:1 2706:1 2707:1 2708:1 2709:1 2710:1 2711:1 2712:1 
0.05 0 29:1 30:1 31:1 32:1 36:1 40:1 43:1 44:1 58:1.5 59:2 60:1 87:4 89:1 140:1 142:1 180:1 296:1 342:1 371:1 473:1 490:1 497:1 666:1 686:1 689:1 1115:1 1118:1 1142:1 1748:1 1943:1 1944:1 2001:1 2075:1 2527:1 2696:1 2697:1 2698:1 2699:1 2700:1 2703:1 2704:1 2709:1 2710:1 2711:1 2712:1 2713:1 2714:1 2715:1 2716:1 2717:1 2718:1 2719:1 2720:1 2721:1 2722:1 
0.05 0.01218282824589163 27:1 28:1 29:1 30:2 31:1 36:1 37:1 38:1 53:1 58:1.5 59:2 60:1 127:1 135:1 159:1 160:1 178:1 508:1 511:1 513:1 776:1 1453:1 1486:1 2838:1 2850:1 2857:1 2858:1 2859:1 2860:1 2861:1 2862:1 2863:1 2864:1 2865:1 2869:1 2870:1 2871:1 2872:1 2873:1 2875:1 2876:1 2877:1 2878:1 2879:1 2880:1 2881:1 2882:1 2883:1 2884:1 2885:1 2886:1 
0.05 0.04504997899778142 29:2 30:5 31:1 33:1 36:1 53:1 58:4.5 59:6 60:3 87:2 123:1 176:1 256:1 280:1 299:1 302:1 303:1 326:1 340:1 395:1 408:1 411:1 416:1 417:1 574:1 622:1 623:1 764:2 889:1 892:1 2227:1 2563:1 2599:2 3122:1 3177:2 3243:1 3369:1 3370:1 3371:1 3372:1 3373:1 3374:1 3375:1 3376:1 3377:1 3378:1 3379:1 3380:1 3384:1 3385:1 3386:1 3388:1 3389:1 3390:1 3391:1 3392:1 3393:1 3394:1 3395:1 3396:1 3397:1 3398:1 
0.05 0.009970653945450429 27:1 28:1 29:1 30:1 31:1 36:1 50:1 51:1 58:1.5 59:2 60:1 67:1 123:1 127:1 159:1 285:1 325:1 349:1 350:1 352:1 377:1 445:1 460:1 702:1 2051:1 2054:1 2522:1 3356:1 3357:1 3358:1 3359:1 3360:1 3367:1 3400:1 3401:1 3402:1 3403:1 3404:1 3405:1 3406:1 3407:1 3408:1 3409:1 3410:1 3411:1 3412:1 
0.05 0.01381929123268297 29:1 30:1 32:1 33:1 36:1 87:1 280:1 285:1 289:1 299:1 302:1 328:1 349:1 371:1 376:1 693:1 762:1 1944:1 2160:1 2162:1 2166:1 2811:1 3371:1 3377:1 3460:1 3461:1 3462:1 3463:1 3464:1 3465:1 3466:1 3467:1 3468:1 3469:1 3470:1 3471:1 3472:1 3473:1 3474:1 3475:1 3476:1 3477:1 3478:1 3479:1 3480:1 3481:1 
0.02575327822430014 0.003891262886195456 27:1 28:1 29:1 31:1 36:1 50:1 51:1 58:1.5 59:2 60:1 67:1 123:1 127:1 159:1 285:1 349:1 350:1 352:1 377:1 445:1 460:1 3483:1 3484:1 3485:1 3486:1 3487:1 3488:1 3489:1 3490:1 3491:1 3496:1 3497:1 3498:1 3499:1 3500:1 3501:1 3502:1 3503:1 3504:1 3505:1 3506:1 3507:1 3508:1 3509:1 3510:1 3511:1 
0.05 0.008082450539066666 29:1 30:1 31:1 33:2 36:1 58:4.5 59:6 60:3 77:1 87:1 115:1 120:1 176:1 180:1 183:1 303:1 328:1 407:1 408:1 409:1 411:1 574:1 693:1 892:1 913:1 1014:1 1783:1 1784:1 2844:1 2845:1 2989:1 3121:1 3122:1 3202:1 3203:1 3240:1 3242:1 3243:1 3245:1 3519:1 3525:1 3526:1 3527:1 3528:1 3529:1 3530:1 3531:1 3532:1 3534:1 3535:1 3536:1 3537:1 3539:1 3540:1 3541:1 3542:1 
0.05 0 29:1 30:1 31:1 32:1 33:1 36:1 58:4 59:5 60:3 77:1 87:5 89:1 91:1 176:1 250:1 303:1 338:1 407:1 408:1 409:1 411:1 523:1 527:1 541:1 560:1 574:1 704:1 706:1 708:1 892:1 913:1 1783:1 1784:1 1917:1 2844:1 2989:1 3121:1 3122:1 3240:1 3242:1 3243:1 3245:1 3341:1 3519:1 3539:1 3540:1 3541:1 3543:1 3544:1 3545:1 3546:1 3547:1 3548:1 3549:1 3550:1 3551:1 3552:1 3553:1 3554:1 3555:1 3556:1 3557:1 3558:1 
0.05 0.003703597841128451 24:1 30:1 31:1 36:1 37:1 38:1 53:1 58:2 59:3 60:1 87:1 89:1 127:1 135:1 159:1 160:1 456:1 473:1 508:1 798:1 2516:1 2518:1 2545:1 2546:1 2815:1 2913:1 2914:1 2915:1 2916:1 2917:1 3579:1 3580:1 3581:1 3590:1 3591:1 3592:1 3597:1 3598:1 3599:1 3600:1 3601:1 3602:1 3603:1 3604:1 3605:1 3606:1 3607:1 
0.009272038480587696 0.001902077008568073 24:1 27:1 28:1 30:1 31:1 36:1 37:1 38:1 53:1 58:1.5 59:2 60:1 127:1 135:1 159:1 160:1 316:1 456:1 508:1 2815:1 2914:1 2915:1 2916:1 2917:1 3159:1 3597:1 3598:1 3599:1 3600:1 3604:1 3605:1 3606:1 3640:1 3641:1 3642:1 3643:1 3644:1 3645:1 3646:1 3647:1 3648:1 3649:1 3650:1 3651:1 
0.04941758804251306 0.0004930374638568386 29:2 30:1 31:1 33:2 36:1 67:1 77:1 87:2 123:1 127:1 159:1 160:1 176:1 303:1 342:1 473:1 1783:1 1784:1 2861:1 3287:1 3527:1 3530:1 3773:1 3845:1 3846:1 3847:1 3848:1 3849:1 3850:1 3851:1 3852:1 3853:1 3854:1 3855:1 3856:1 3857:1 3858:1 3859:1 3860:1 3861:1 3862:1 3863:1 3864:1 3865:1 
0.04594429836191007 0 29:2 30:1 31:1 36:1 50:1 51:1 58:4 59:5 60:3 87:6 89:1 123:1 280:1 282:1 283:1 285:1 326:1 349:1 350:1 352:1 377:1 395:1 408:1 411:1 574:1 800:1 2302:1 2304:1 2772:1 2778:1 3081:1 3082:1 3243:1 3764:1 3767:1 3812:1 3814:1 3815:1 3886:1 3933:1 3934:1 3935:1 3936:1 3937:1 3938:1 3939:1 3940:1 3941:1 3942:1 3943:1 3944:1 3945:1 3946:1 3947:1 3948:1 
0.05 0 29:1 30:1 31:1 36:1 50:1 51:1 58:3 59:3 60:3 87:1 280:1 285:1 299:1 302:1 349:1 350:1 352:1 377:1 407:1 408:1 409:1 411:1 574:1 2160:1 2162:1 3238:1 3242:1 3243:1 3382:1 3549:1 3764:1 3767:1 3816:1 3886:1 3954:1 3955:1 3956:1 3957:1 3958:1 3959:1 3961:1 3962:1 3963:1 3964:1 3965:1 3966:1 3967:1 
0.04275471987247262 0 8:1 29:2 30:1 31:1 33:2 36:1 67:1 77:1 87:2 123:1 127:1 159:1 160:1 176:1 303:1 316:1 1783:1 1784:1 2697:1 2698:1 2861:1 3287:1 3527:1 3530:1 3773:1 3847:1 3849:1 3852:1 3853:1 3854:1 3855:1 3856:1 3857:1 3858:1 3859:1 3860:1 3861:1 3862:1 3863:1 3864:1 3865:1 3978:1 3979:1 
0.02122777157006028 0 29:2 30:1 31:1 36:1 50:1 51:1 58:4 59:5 60:3 67:1 87:7 123:1 273:1 280:1 282:1 284:1 285:1 299:1 302:1 352:1 377:1 408:1 411:1 574:1 722:1 723:1 813:1 3062:1 3065:1 3068:1 3243:1 3764:1 3767:1 3877:1 3878:1 3879:1 3886:1 3887:1 3891:1 3980:1 3981:1 3982:1 3983:1 3984:1 3985:1 3986:1 3987:1 3988:1 3989:1 3990:1 3991:1 3992:1 3993:1 3994:1 3995:1 
0.022695119735442 0 29:1 30:1 31:1 36:1 50:1 51:1 67:1 87:3 123:1 275:1 280:1 285:1 299:1 302:1 316:1 349:1 350:1 352:1 377:1 521:1 3764:1 3767:1 3805:1 3983:1 3984:1 3985:1 3986:1 3992:1 3996:1 3997:1 3998:1 3999:1 4000:1 4001:1 4002:1 4003:1 4004:1 4005:1 4006:1 4007:1 
0.0150090807533239 0 29:1 30:1 33:1 36:1 50:1 51:1 58:2 59:2 60:2 87:1 316:1 317:1 339:1 344:1 348:1 3351:1 3805:1 4008:1 4009:1 4010:1 4011:1 4012:1 4013:1 4014:1 4015:1 4016:1 4017:1 4018:1 4019:1 4020:1 4021:1 4022:1 4023:1 4024:1 4025:1 4026:1 4027:1 4028:1 4029:1 4030:1 4031:1 4032:1 4033:1 4034:1 4035:1 4036:1 4037:1 
0.01494393887155701 0 29:2 30:1 31:1 33:1 36:1 50:1 51:1 58:5 59:7 60:3 69:1 87:2 123:1 280:1 285:1 299:1 302:1 326:1 349:1 350:1 352:1 377:1 395:1 407:1 408:1 409:1 411:1 574:1 2302:1 2304:1 3081:1 3082:1 3242:1 3243:1 3764:1 3767:1 3796:1 3811:1 3812:1 3814:1 3815:1 3816:1 3933:1 3934:1 3940:1 3947:1 4048:1 4049:1 4050:1 4051:1 4052:1 4053:1 
0.02447607660038899 0.002628772134848346 3:1 5:1 6:1 7:1 8:1 13:1 14:1 15:1 18:1 19:1 20:1 21:1 22:1 27:1 28:1 29:1 30:1 31:4 34:1 35:1 36:1 37:1 38:1 127:1 159:1 460:1 809:1 4054:1 4055:1 4056:1 4057:1 4058:1 4059:1 4060:1 4061:1 4062:1 4063:1 4064:1 4065:1 4066:1 
0 0.0002014194392031167 8:1 22:1 27:1 28:1 29:1 30:1 31:3 32:1 36:1 37:1 38:1 40:1 43:1 140:1 142:1 147:1 149:1 316:1 555:1 666:1 1009:1 1030:1 1043:1 1248:1 1482:1 2815:1 4119:1 4120:1 4121:1 4122:1 4123:1 4124:1 4125:1 4126:1 4127:1 4128:1 4129:1 4130:1 4131:1 4132:1 4133:1 4134:1 4135:1 4136:1 4137:1 4138:1 4139:1 
0.000657812899861895 0.006623146741754906 30:2 31:1 33:1 34:1 35:1 36:1 50:1 51:1 58:1.5 59:2 60:1 67:1 87:2 101:1 121:1 122:2 123:1 180:1 187:1 188:1 189:1 192:1 198:1 199:1 200:1 201:1 202:1 203:1 208:1 210:1 212:1 213:1 214:1 215:1 216:1 217:1 218:1 219:1 275:1 319:1 334:1 1013:1 3225:1 3233:1 4079:1 4140:1 4141:1 4142:1 4143:1 4144:1 4145:1 4146:1 4147:1 4148:1 4149:1 4150:1 4151:1 4152:1 4153:1 4154:1 4155:1 4156:1 4157:1 
0.01917422461051824 0.008772857054619632 30:2 31:1 33:1 34:1 35:1 36:1 50:1 51:1 58:2.5 59:4 60:1 67:1 87:4 91:1 94:1 101:1 121:1 122:2 123:1 187:1 188:1 189:1 192:1 198:1 199:1 200:1 201:1 208:1 210:1 212:1 213:1 214:1 215:1 216:1 217:1 218:1 219:1 275:1 319:1 334:1 338:1 523:1 527:1 541:1 558:1 4091:1 4140:1 4141:1 4142:1 4143:1 4144:1 4145:1 4148:1 4151:1 4158:1 4159:1 4160:1 4161:1 4162:1 4163:1 4164:1 
0.05 0.0009049701457172196 29:1 30:1 31:1 36:1 40:1 43:1 50:1 51:1 58:2.5 59:3 60:2 87:9 89:2 285:1 352:1 377:1 497:1 529:1 873:1 1009:1 1726:1 2832:1 2847:1 2905:1 3049:1 3067:1 3078:1 3095:1 3096:1 3109:1 3110:1 3287:1 4262:1 4263:1 4264:1 4265:1 4266:1 4277:1 4292:1 4293:1 4294:1 4295:1 4296:1 4297:1 4298:1 4299:1 4300:1 4301:1 4302:1 4303:1 4304:1 4305:1 4306:1 4307:1 4308:1 4309:1 4310:1 4311:1 4312:1 4313:1 4314:1 4315:1 4316:1 
0.05 0.004765389333962406 29:1 30:1 31:1 36:1 40:1 43:1 50:1 51:1 58:2.5 59:3 60:2 87:7 89:1 285:1 352:1 377:1 497:1 529:1 873:1 1009:1 1726:1 2905:1 3049:1 3067:1 3078:1 3097:1 3098:1 3108:1 3109:1 3110:1 3766:1 4294:1 4295:1 4296:1 4297:1 4298:1 4299:1 4300:1 4301:1 4303:1 4306:1 4307:1 4309:1 4312:1 4313:1 4314:1 4315:1 4317:1 4318:1 4319:1 4320:1 4321:1 4322:1 4323:1 4324:1 4332:1 4333:1 4334:1 4336:1 4341:1 4342:1 
0.02805052628170454 0 29:1 31:1 36:1 50:1 51:1 58:3.5 59:4 60:3 87:3 121:1 205:1 280:1 285:1 326:1 349:1 350:1 352:1 377:1 407:1 408:1 409:1 411:1 412:1 2012:1 2018:1 2468:1 2470:1 2690:1 3081:1 3082:1 3238:1 3242:1 3243:1 3699:1 3701:1 3937:1 3938:1 3947:1 4479:1 4480:1 4481:1 4482:1 4483:1 4484:1 4485:1 4486:1 4487:1 4488:1 4489:1 
0.03977652748562992 0.006129253316288173 8:1 27:1 28:1 29:4 30:2 31:2 32:1 33:2 36:1 50:1 51:1 121:1 178:1 248:1 299:1 316:1 342:1 746:1 764:1 920:1 1000:1 1687:1 2066:1 2599:1 3082:1 3177:1 3222:1 3226:1 3232:1 3287:1 3430:1 3702:1 3849:1 3981:1 4031:1 4032:1 4033:1 4035:1 4055:1 4056:1 4170:1 4179:1 4374:1 4380:1 4381:1 4484:1 4506:1 4507:1 4508:1 4509:1 4510:1 4511:1 4512:1 4513:1 4514:1 4515:1 4516:1 4517:1 4518:1 4519:1 4520:1 4521:1 4522:1 4523:1 4524:1 
0.02638492412106607 0.02447282957292911 1:1 2:1 3:1 4:1 5:1 6:1 7:1 8:1 13:1 15:1 19:1 21:1 22:1 23:1 24:1 27:1 28:1 29:1 30:1 31:2 32:1 34:1 35:1 36:1 37:1 38:1 40:1 43:1 474:1 1009:1 1030:1 1043:1 4058:1 4660:1 4661:1 4662:1 4663:1 4664:1 4665:1 4666:1 4667:1 4668:1 
0.05 0.0102405730704866 30:2 31:1 33:1 36:1 50:1 51:1 58:2 59:3 60:1 87:2 101:1 121:1 123:1 142:1 189:1 199:1 215:1 218:1 219:1 280:1 285:1 299:1 302:1 319:1 326:1 334:1 349:1 350:1 352:1 377:1 395:1 396:1 764:1 889:1 1434:1 3402:1 3403:1 4079:1 4145:1 4147:1 4148:1 4149:1 4150:1 4152:1 4729:1 4730:1 4731:1 4732:1 4733:1 4734:1 4735:1 4736:1 4737:1 4738:1 4739:1 4740:1 4741:1 4742:1 
0.0137646426674197 0.0001515223088008015 27:1 28:1 29:1 30:1 31:1 36:1 37:1 38:1 53:1 58:1.5 59:2 60:1 127:1 135:1 159:1 460:1 508:1 596:1 1003:1 1726:1 3078:1 3170:1 3171:1 3766:1 4300:1 4301:1 4312:1 5001:1 5002:1 5003:1 5004:1 5005:1 5006:1 5007:1 5012:1 5013:1 5014:1 5062:1 5063:1 5064:1 5065:1 5066:1 5067:1 5068:1 5069:1 5070:1 5071:1 5072:1 5073:1 
0.05 0.01078431983533064 29:1 30:1 31:1 36:1 58:2.5 59:3 60:2 87:2 176:1 248:1 250:1 262:1 265:1 303:1 344:1 348:1 465:1 3334:1 3335:1 3351:1 3698:1 3700:1 3764:1 3767:1 3801:1 3808:1 3810:1 3811:1 4028:1 4030:1 4415:1 5106:1 5107:1 5108:1 5109:1 5110:1 5111:1 5112:1 5113:1 5114:1 5115:1 5116:1 5117:1 5118:1 5119:1 5120:1 5121:1 5122:1 
0.05 0.03091809109723587 29:1 30:1 31:1 32:1 36:1 58:3 59:4 60:2 67:1 87:12 89:2 123:1 176:1 274:1 275:1 277:1 280:1 282:1 283:1 285:1 288:1 303:1 337:1 344:1 348:1 377:1 497:1 811:1 2066:1 3221:1 3232:1 3334:1 3335:1 3351:1 3610:1 3615:1 3698:1 3700:1 3764:1 3767:1 3815:1 3927:1 3930:1 3931:1 3992:1 4028:1 4030:1 4415:1 4542:1 5106:1 5107:1 5108:1 5109:1 5110:1 5115:1 5117:1 5118:1 5126:1 5129:1 5130:1 5131:1 5132:1 5133:1 5134:1 5135:1 5136:1 
0.05 0.01871958550040868 8:1 29:2 30:1 31:1 33:2 36:1 67:1 77:1 87:3 127:1 159:1 160:1 176:1 250:1 303:1 316:1 1774:1 1783:1 1784:1 3527:1 3530:1 3829:1 3832:1 3852:1 3856:1 3862:1 3863:1 3864:1 3920:1 4055:1 4056:1 5174:1 5188:1 5189:1 5190:1 5191:1 5192:1 5193:1 5194:1 5195:1 5196:1 5197:1 5198:1 5199:1 5200:1 
0.02342657754703855 0 29:3 33:1 36:1 50:1 51:1 58:2 59:2 60:2 87:1 121:1 215:1 218:1 219:1 221:1 224:1 316:1 317:1 400:1 405:1 406:1 426:1 429:1 895:1 906:1 2302:1 2304:1 3574:1 3575:1 3699:1 3701:1 3934:1 3958:1 3964:1 4014:1 4015:1 4016:1 4017:1 4018:1 4019:1 4023:1 4024:1 4548:1 4594:1 5241:1 5242:1 5252:1 5254:1 5255:1 5256:1 5257:1 5258:1 5259:1 5260:1 
0.02979888313074545 0.002365383523114554 29:1 33:1 36:1 50:1 51:1 58:3.5 59:5 60:2 87:1 121:1 221:1 224:1 400:1 405:1 406:1 425:1 426:1 429:1 430:1 431:1 432:1 434:1 2332:1 3699:1 3701:1 3958:1 3963:1 3964:1 4014:1 4015:1 4016:1 4017:1 4018:1 4019:1 4023:1 4024:1 4548:1 4601:1 4612:1 5252:1 5254:1 5255:1 5256:1 5257:1 5258:1 5259:1 5279:1 5280:1 5281:1 
0.05 0 2:1 4:1 8:1 29:2 30:1 31:1 33:2 36:1 58:2 59:2 60:2 77:1 87:3 123:1 176:1 303:1 316:1 344:1 348:1 877:1 1016:1 1117:1 1119:1 1774:1 1783:1 1784:1 3351:1 3527:1 3530:1 3831:1 3856:1 3871:1 3872:1 3873:1 4028:1 4030:1 4031:1 4032:1 4524:1 5189:1 5190:1 5191:1 5230:1 5232:1 5244:1 5245:1 5303:1 5304:1 5305:1 5306:1 5307:1 5308:1 5309:1 5310:1 
0.02761225170742932 0 29:2 30:1 32:1 36:1 50:1 51:1 58:3 59:4 60:2 87:6 256:1 282:1 284:1 285:1 289:1 301:1 316:1 317:1 318:1 331:1 333:1 337:1 343:1 344:1 348:1 352:1 497:1 688:1 873:1 874:1 876:1 892:1 913:1 3764:1 3767:1 3992:1 3993:1 3998:1 4000:1 4030:1 4217:1 4526:1 4527:1 5123:1 5124:1 5127:1 5314:1 5315:1 5316:1 5317:1 5318:1 5319:1 5320:1 5321:1 5322:1 5323:1 
0.05 0.05 29:1 31:1 36:1 58:2.5 59:3 60:2 67:1 87:3 123:1 127:1 159:1 176:1 274:1 275:1 277:1 283:1 285:1 288:1 303:1 377:1 460:1 657:1 672:1 678:1 679:1 968:1 4004:1 4198:1 4399:1 5350:1 5351:1 5352:1 5353:1 5354:1 5355:1 5356:1 5357:1 5358:1 5359:1 5360:1 5361:1 5362:1 5363:1 5364:1 5365:1 5366:1 5367:1 5368:1 5369:1 
0.01356918554389241 0.01048128998023215 27:1 28:1 29:1 32:1 36:1 40:1 43:1 44:1 50:1 51:1 67:1 123:1 445:1 473:1 688:1 945:1 5389:1 5390:1 5391:1 5392:1 5393:1 5394:1 5395:1 5396:1 5397:1 5398:1 5399:1 5400:1 5401:1 5402:1 5403:1 5404:1 5405:1 5406:1 
0.05 0.00746962486049528 30:1 31:2 36:1 53:1 58:2 59:3 60:1 87:1 101:1 127:1 135:1 159:1 160:1 176:1 303:1 416:1 484:1 489:1 497:1 1115:1 1118:1 1120:1 1134:1 1453:1 1486:1 1774:1 2876:1 2877:1 3016:1 4343:1 4344:1 5470:1 5471:1 5472:1 5473:1 5474:1 5475:1 5476:1 5477:1 5478:1 5479:1 5480:1 5481:1 5482:1 5483:1 5484:1 5485:1 5486:1 5487:1 5488:1 5489:1 
0.05 0.004207499917400462 30:1 31:1 36:1 58:3 59:3 60:3 66:1 71:1 86:1 87:4 89:1 90:1 91:1 101:1 127:1 159:1 160:1 176:1 303:1 487:1 497:1 560:1 666:1 708:1 1115:1 1118:1 1120:1 1453:1 1486:1 2876:1 2877:1 3016:1 4289:1 4343:1 4344:1 5470:1 5471:1 5483:1 5484:1 5485:1 5490:1 5491:1 5492:1 5493:1 5494:1 5495:1 5496:1 5497:1 5498:1 5499:1 5500:1 5501:1 5502:1 5503:1 5504:1 
0.05 0.005734569243488359 30:1 32:1 33:1 36:1 37:1 38:1 58:6 59:11 60:1 67:1 87:13 89:3 256:1 262:1 266:1 275:1 282:1 283:2 338:1 407:1 408:1 409:1 411:1 474:1 488:1 490:1 574:1 717:1 813:1 1917:1 3242:1 3243:1 3285:1 3317:1 3318:1 3319:1 3320:1 3975:1 4558:1 4559:1 4638:1 5096:1 5254:1 5583:1 5596:1 5601:1 5602:1 5603:1 5604:1 5605:1 5606:1 5607:1 5608:1 5609:1 5610:1 5611:1 5612:1 5613:1 5614:1 5615:1 5617:1 
0.04191755708411631 0 30:1 32:1 33:1 36:1 37:1 38:1 58:5.5 59:10 60:1 67:1 87:11 89:2 127:1 159:1 160:1 256:1 262:1 266:1 275:1 282:1 283:2 338:1 384:1 397:1 731:1 813:1 1917:1 3286:1 3850:1 3975:1 4558:1 4559:1 4638:1 5254:1 5596:1 5601:1 5602:1 5603:1 5604:1 5605:1 5606:1 5607:1 5608:1 5609:1 5610:1 5611:1 5612:1 5613:1 5614:1 5618:1 5619:1 5620:1 5621:1 5622:1 5623:1 5624:1 5625:1 5626:1 5627:1 
0 0.000731047494523658 29:1 32:1 33:1 36:1 37:1 38:1 58:4.5 59:8 60:1 67:1 87:8 89:1 121:1 256:1 262:1 266:1 275:1 282:1 283:2 425:1 430:1 431:1 432:1 434:1 435:1 800:1 813:1 896:1 1917:1 2772:1 2778:1 3284:1 3287:1 3288:1 3975:1 4293:1 4558:1 4559:1 5254:1 5601:1 5602:1 5603:1 5604:1 5605:1 5606:1 5607:1 5608:1 5609:1 5610:1 5611:1 5612:1 5613:1 5614:1 5628:1 5629:1 5630:1 5631:1 5632:1 
0 0.009733034654210092 29:1 32:1 33:1 36:1 37:1 38:1 58:2 59:3 60:1 67:1 87:1 121:1 256:1 262:1 266:1 275:1 407:1 408:1 409:1 411:1 412:1 1917:1 3242:1 3243:1 3699:1 3701:1 3997:1 3998:1 4488:1 4596:1 5254:1 5601:1 5602:1 5603:1 5604:1 5605:1 5606:1 5607:1 5608:1 5609:1 5610:1 5611:1 5612:1 5613:1 5614:1 5633:1 5634:1 5635:1 5636:1 5637:1 5638:1 
0.001344558739170835 0.01449965950881887 7:1 27:1 28:1 29:5 31:1 33:3 36:1 37:1 38:1 58:2.5 59:4 60:1 123:1 127:1 159:1 256:1 395:1 460:1 648:1 733:1 764:1 2811:1 3059:1 3150:1 3151:1 3232:1 3766:1 3774:1 3793:1 3804:1 3884:1 3895:1 3998:1 3999:1 4456:1 5643:1 5654:1 5661:1 5662:1 5663:1 5664:1 5665:1 5666:1 5667:1 5673:1 5674:1 5675:1 5676:1 5677:1 5689:1 5690:1 5691:1 5692:1 5693:1 5694:1 5695:1 5696:1 
0.05 0.01106912245099682 7:1 29:5 31:1 36:1 58:1.5 59:2 60:1 67:1 87:1 123:1 127:1 159:1 176:1 284:1 285:1 286:1 288:1 303:1 377:1 460:1 733:1 764:1 2811:1 3150:1 3151:1 3766:1 3793:1 3804:1 3813:1 3884:1 3988:1 3998:1 3999:1 5606:1 5678:1 5679:1 5680:1 5681:1 5682:1 5683:1 5684:1 5685:1 5686:1 5688:1 5689:1 5690:1 5691:1 5692:1 5693:1 5694:1 5695:1 5697:1 5698:1 5699:1 
0.01752453782188143 0.004904997843181286 27:1 28:1 29:1 30:1 31:1 33:1 36:1 50:1 51:1 58:1.5 59:2 60:1 123:1 127:1 159:1 160:1 395:1 5960:1 5961:1 5962:1 5963:1 5964:1 5965:1 5966:1 5967:1 5968:1 5969:1 5970:1 5971:1 5972:1 5973:1 5974:1 5975:1 5976:1 5977:1 5978:1 5979:1 5980:1 5981:1 5982:1 5983:1 5984:1 5985:1 5986:1 5987:1 5988:1 5989:1 5990:1 
0.01048234826606605 0 8:1 30:1 31:1 32:1 36:1 58:2.5 59:3 60:2 67:1 68:1 77:1 87:5 89:1 91:1 95:1 101:1 123:1 371:1 544:1 1783:1 1784:1 1944:1 1955:1 1958:1 1961:1 1962:1 1963:1 3188:1 3189:1 3193:1 5947:1 6198:1 6208:1 6479:1 6480:1 6481:1 6482:1 6483:1 6484:1 6493:1 6494:1 6495:1 6496:1 6497:1 6498:1 6499:1 6500:1 6501:1 6502:1 6503:1 6504:1 6505:1 6506:1 
0.05 0 8:1 29:1 30:1 31:2 36:1 53:1 77:1 87:2 123:1 135:1 316:1 371:1 666:1 1783:1 1784:1 1944:1 2075:1 2191:1 2861:1 3221:1 3232:1 6198:1 6208:1 6489:1 6492:1 6513:1 6514:1 6515:1 6516:1 6517:1 6518:1 6519:1 6520:1 6521:1 6522:1 6523:1 6524:1 6525:1 6526:1 6527:1 6528:1 6529:1 
0.05 0 8:1 29:1 30:1 31:1 36:1 53:1 67:1 68:1 77:1 87:7 89:1 123:1 135:1 316:1 371:1 490:1 813:1 1150:1 1783:1 1784:1 1931:1 1935:1 1943:1 1944:1 2191:1 6198:1 6208:1 6513:1 6514:1 6515:1 6516:1 6517:1 6518:1 6519:1 6530:1 6531:1 6532:1 6533:1 6534:1 6535:1 6536:1 6537:1 6538:1 6539:1 6540:1 
0.05 0 8:1 29:1 30:1 32:1 36:1 67:1 68:1 77:1 87:6 89:2 123:1 316:1 371:1 490:1 967:1 1150:1 1783:1 1784:1 1931:1 1935:1 1943:1 1944:1 6198:1 6208:1 6515:1 6517:1 6552:1 6553:1 6554:1 6555:1 6556:1 6572:1 6573:1 6574:1 6575:1 6576:1 6577:1 6578:1 
0.02089130919449684 0 8:1 29:1 30:1 31:1 36:1 53:1 77:1 87:4 89:1 123:1 135:1 316:1 371:1 490:1 686:1 688:1 689:1 1783:1 1784:1 1932:1 1944:1 2191:1 6198:1 6208:1 6515:1 6517:1 6595:1 6596:1 6597:1 6598:1 6599:1 6606:1 6607:1 6608:1 6609:1 6610:1 6611:1 6612:1 6613:1 6614:1 6615:1 6616:1 
0.03315013308328884 0 8:1 29:1 30:1 31:1 36:1 67:1 77:1 87:6 89:2 91:1 123:1 316:1 371:1 490:1 544:1 560:1 605:1 1783:1 1784:1 1944:1 1955:1 1958:1 1961:1 1962:1 1963:1 6198:1 6208:1 6515:1 6517:1 6595:1 6596:1 6597:1 6598:1 6599:1 6613:1 6617:1 6618:1 6619:1 6620:1 6621:1 6622:1 6623:1 6624:1 6625:1 
0.05 0 8:1 29:1 30:1 31:1 36:1 53:1 77:1 87:2 123:1 135:1 316:1 371:1 666:1 1783:1 1784:1 1944:1 2075:1 2191:1 2861:1 6198:1 6208:1 6489:1 6492:1 6515:1 6517:1 6525:1 6527:1 6528:1 6643:1 6644:1 6645:1 6646:1 6647:1 6648:1 6649:1 6650:1 6651:1 6652:1 6653:1 
0.05 0 8:1 29:1 30:1 31:1 36:1 53:1 67:1 68:1 77:1 87:5 89:1 123:1 135:1 316:1 371:1 490:1 1150:1 1783:1 1784:1 1931:1 1935:1 1943:1 1944:1 2191:1 6198:1 6208:1 6515:1 6517:1 6643:1 6644:1 6645:1 6646:1 6647:1 6654:1 6655:1 6656:1 6657:1 6658:1 6659:1 6660:1 6661:1 6662:1 6663:1 
0.01486864443450662 0 8:1 30:1 32:1 36:1 50:1 51:1 77:1 87:2 316:1 666:1 1783:1 1784:1 2075:1 2861:1 3188:1 3189:1 3193:1 6198:1 6208:1 6489:1 6492:1 6493:1 6495:1 6739:1 6740:1 6741:1 6742:1 6743:1 6744:1 6745:1 6746:1 6747:1 6748:1 6749:1 6750:1 6751:1 
0.005348916136394703 0 8:1 29:1 30:1 31:1 32:1 36:1 53:1 57:1 77:1 87:2 316:1 371:1 666:1 1783:1 1784:1 1944:1 2191:1 2704:1 2715:1 2861:1 6198:1 6208:1 6489:1 6492:1 6515:1 6517:1 6525:1 6527:1 6528:1 6773:1 6774:1 6775:1 6776:1 6777:1 6778:1 6779:1 6780:1 6781:1 6782:1 6783:1 
0.05 0 8:1 29:1 30:1 31:2 36:1 67:1 68:1 77:1 87:8 89:3 91:1 123:1 316:1 371:1 490:1 544:1 560:1 1783:1 1784:1 1944:1 1955:1 1958:1 1961:1 1962:1 1963:1 3221:1 3232:1 5947:1 6198:1 6208:1 6515:1 6517:1 6773:1 6774:1 6775:1 6776:1 6777:1 6784:1 6785:1 6786:1 6787:1 6788:1 6789:1 6790:1 6791:1 6792:1 6793:1 6794:1 6795:1 
0.05 0 30:1 31:1 36:1 50:1 51:1 58:2.5 59:3 60:2 87:3 101:1 123:1 180:1 490:1 599:1 615:1 618:1 619:1 666:1 1013:1 1014:1 1150:1 1453:1 1931:1 1935:1 1943:1 1988:1 2075:1 2361:1 2362:1 2363:1 2364:1 2469:1 6881:1 6882:1 6883:1 6884:1 6885:1 6886:1 6887:1 6888:1 6889:1 6890:1 6891:1 6892:1 6893:1 6894:1 6895:1 6896:1 
0.05 0.02612469817978898 30:1 31:1 32:1 36:1 67:1 68:1 87:7 89:1 101:1 123:1 176:1 303:1 490:2 599:1 605:1 615:1 618:1 619:1 1453:1 1943:2 1988:1 2055:1 2082:1 2103:1 2106:1 2109:1 2361:1 2362:1 2363:1 2364:1 2469:1 5808:1 5809:1 6881:1 6882:1 6889:1 6890:1 6891:1 6892:1 6897:1 6898:1 6899:1 6900:1 
0.01452474622166931 0 27:1 28:1 29:2 30:1 31:2 36:1 50:1 51:1 101:1 127:1 140:1 142:1 147:1 149:1 159:1 460:1 599:1 666:1 1453:1 1774:1 2896:1 5536:1 7104:1 7105:1 7106:1 7107:1 7108:1 7109:1 7110:1 7111:1 7112:1 7113:1 7114:1 7115:1 7116:1 7117:1 7118:1 7119:1 7120:1 7121:1 
0 0.001388041602468468 27:1 28:1 29:1 30:1 31:4 36:1 37:1 38:1 127:1 140:1 142:1 147:1 149:1 159:1 460:1 520:1 666:1 668:1 892:1 913:1 1016:1 1774:1 2753:1 2832:1 3232:1 6333:1 7109:1 7113:1 7212:1 7213:1 7214:1 7215:1 7216:1 7217:1 7218:1 7219:1 7220:1 7221:1 7222:1 7223:1 7224:1 7225:1 7226:1 7227:1 
0.01652163837039226 0 29:1 30:1 31:1 36:1 37:1 38:1 53:1 58:3 59:4 60:2 69:1 87:6 127:1 135:1 140:1 142:1 159:1 328:1 460:1 490:1 508:1 520:1 529:1 686:1 689:1 849:1 892:1 913:1 2753:1 2761:1 2784:1 2832:1 5005:1 7109:1 7212:1 7213:1 7214:1 7223:1 7224:1 7225:1 7226:1 7227:1 7234:1 7235:1 7236:1 7237:1 7238:1 7239:1 7240:1 7241:1 7242:1 7243:1 7244:1 7245:1 
0.03788078540222792 0.0008495603174724471 29:1 30:1 31:1 36:1 37:1 38:1 58:4 59:6 60:2 87:8 89:1 91:1 127:1 140:1 142:1 154:1 159:1 338:1 460:1 487:1 490:1 520:1 523:1 527:1 529:1 541:1 560:1 605:1 822:1 824:1 849:1 892:1 913:1 2753:1 2761:1 2784:1 2817:1 2832:1 7109:1 7212:1 7213:1 7214:1 7223:1 7224:1 7225:1 7226:1 7227:1 7240:1 7241:1 7246:1 7247:1 7248:1 7249:1 7250:1 7251:1 7252:1 7253:1 
0.05 0.00390950490620304 30:1 31:1 36:1 37:1 38:1 58:9 59:9 60:9 77:1 87:10 280:1 285:1 328:1 349:1 377:1 520:1 529:2 596:1 693:1 979:1 981:1 1003:1 1713:1 1774:1 2160:1 2162:1 2220:1 2995:1 2996:1 2998:1 2999:1 3478:1 6055:1 7049:2 7216:1 7220:1 7239:1 7289:1 7290:1 7632:1 7681:1 7682:1 7684:1 7685:1 7687:1 7688:1 7689:1 7817:1 7823:1 7919:1 7926:1 7930:1 7936:1 7937:1 7938:1 7939:1 7940:1 7941:1 7942:1 
0.05 0 30:1 31:1 36:1 37:1 38:1 58:10 59:11 60:9 77:1 87:12 89:1 91:1 280:1 338:1 520:1 521:1 523:1 527:1 529:2 541:1 560:1 596:1 704:1 822:1 824:1 979:1 981:1 999:1 1003:1 1224:1 1231:1 1713:1 2995:1 2996:1 2998:1 2999:1 6055:1 7049:2 7238:1 7241:1 7246:1 7247:1 7248:1 7249:1 7252:1 7632:1 7684:1 7685:1 7747:1 7749:1 7817:1 7823:1 7919:1 7926:1 7932:1 7936:1 7937:1 7938:1 7939:1 7940:1 7941:1 7943:1 
0.05 0 31:1 36:1 37:1 38:1 53:1 58:4.5 59:5 60:4 77:1 87:5 121:1 135:1 282:1 338:1 408:1 411:1 412:1 508:1 551:1 717:1 1783:1 1784:1 1942:1 2209:1 2210:1 2211:1 2212:1 2213:1 2214:1 2217:1 3131:1 3266:1 8585:1 8586:1 8592:1 8593:1 8594:1 8595:1 8813:1 8814:1 8815:1 8816:1 8817:1 8818:1 8819:1 8820:1 8821:1 8822:1 8823:1 
0.02279792585037207 0 30:1 31:1 36:1 58:4 59:4 60:4 77:1 87:6 285:1 338:1 360:1 363:1 370:1 371:1 373:1 374:1 376:1 377:1 408:1 411:1 551:1 574:1 1134:1 1783:1 1784:1 1932:1 1944:1 1990:1 1991:1 1992:1 2306:1 2387:1 2388:1 2471:1 4040:1 8733:1 8734:1 8735:1 8736:1 8737:1 8738:1 8739:1 8857:1 8858:1 8859:1 8860:1 8861:1 8862:1 8863:1 8864:1 
0.01779051589702785 0 30:1 31:1 36:1 58:5 59:6 60:4 77:1 87:8 89:1 91:1 338:1 370:1 371:1 408:1 411:1 544:1 560:1 574:1 666:1 1134:1 1783:1 1784:1 1944:1 1955:1 1958:1 1961:1 1962:1 1963:1 1990:1 1991:1 1992:1 2306:1 2387:1 2388:1 2471:1 3211:1 4040:1 8601:1 8604:1 8804:1 8805:1 8806:1 8807:1 8808:1 8809:1 8857:1 8858:1 8859:1 8860:1 8861:1 8862:1 8863:1 8865:1 
0.05 0 30:1 31:1 36:1 58:4 59:4 60:4 77:1 87:16 89:2 91:1 338:1 370:1 371:1 408:1 411:1 490:3 541:1 542:1 544:1 560:1 574:1 666:1 1134:1 1150:1 1783:1 1784:1 1931:1 1935:1 1943:1 1944:1 1961:1 1990:1 1991:1 1992:1 2306:1 2387:1 2388:1 2471:1 4040:1 6910:1 6913:1 8592:1 8604:1 8605:1 8733:1 8734:1 8735:1 8736:1 8741:1 8742:1 8743:1 8857:1 8858:1 8859:1 8860:1 8861:1 8862:1 8863:1 8866:1 
0.05 0 30:1 31:1 36:1 53:1 58:4.5 59:5 60:4 77:1 87:18 89:3 135:1 338:1 370:1 371:1 408:1 411:1 490:4 574:1 666:1 686:1 689:1 1783:1 1784:1 1943:1 1944:1 1961:1 1990:1 1991:1 1992:1 2001:1 2191:1 2306:1 2387:1 2388:1 2471:1 4040:1 4947:1 6910:1 6913:1 8592:1 8597:1 8598:1 8599:1 8600:1 8601:1 8602:1 8604:2 8605:1 8606:1 8607:1 8608:1 8857:1 8858:1 8859:1 8860:1 8861:1 8862:1 8863:1 8867:1 
0.05 0 30:1 31:1 36:1 53:1 58:5 59:6 60:4 77:1 87:20 89:4 135:1 338:1 370:1 371:1 408:1 411:1 490:5 574:1 605:1 686:1 689:1 1783:1 1784:1 1932:1 1943:1 1944:1 1961:1 1990:1 1991:1 1992:1 2191:1 2306:1 2387:1 2388:1 2471:1 4040:1 6910:1 6913:1 7031:1 8592:1 8604:2 8605:1 8610:1 8611:1 8612:1 8613:1 8614:1 8615:1 8616:1 8617:1 8618:1 8619:1 8857:1 8858:1 8859:1 8860:1 8861:1 8862:1 8863:1 8868:1 
0.05 0 30:1 31:1 36:1 58:6 59:8 60:4 77:1 87:22 89:5 91:1 338:1 370:1 371:1 408:1 411:1 490:5 544:1 560:1 574:1 605:1 1224:1 1783:1 1784:1 1943:1 1944:1 1955:1 1958:1 1961:2 1962:1 1963:1 1990:1 1991:1 1992:1 2306:1 2387:1 2388:1 2471:1 4040:1 6910:1 6913:1 8592:1 8604:2 8605:1 8616:1 8621:1 8622:1 8623:1 8624:1 8625:1 8626:1 8627:1 8628:1 8629:1 8857:1 8858:1 8859:1 8860:1 8861:1 8862:1 8863:1 8869:1 
0.03113516548963019 0 30:1 31:1 36:1 58:4 59:6 60:2 87:5 89:1 91:1 339:1 344:1 348:1 370:1 371:1 544:1 560:1 666:1 731:1 1942:1 1944:1 1955:1 1958:1 1961:1 1962:1 1963:1 2031:1 2075:1 2450:1 3211:1 3351:1 4013:1 4026:1 4028:1 4030:1 6580:1 6582:1 6588:1 6589:1 8749:1 8750:1 8751:1 8752:1 8753:1 8754:1 8755:1 8803:1 8968:1 8969:1 8970:1 8972:1 
0.05 0 27:1 28:1 29:2 30:1 31:3 36:1 50:1 51:1 58:1 59:1 60:1 140:1 142:1 147:1 149:1 285:1 299:1 328:1 352:1 377:1 408:1 411:1 574:1 770:1 777:1 887:1 892:1 903:1 913:1 995:1 1015:1 1030:1 1043:1 1248:1 1952:1 2309:1 3202:1 3232:1 3384:1 3385:1 3793:1 4231:1 5174:1 8660:1 8665:1 8666:1 8676:1 8763:1 8764:1 8765:1 9020:1 9021:1 9022:1 9023:1 
0.0405039789894481 0 29:2 30:1 31:1 36:1 58:2 59:3 60:1 87:1 140:1 142:1 280:1 285:1 299:1 302:1 349:1 371:1 376:1 377:1 408:1 411:1 574:1 666:1 668:1 777:1 887:1 892:1 903:1 913:1 1248:1 1944:1 1949:1 1950:1 1951:1 1952:1 2160:1 2162:1 2166:1 2309:1 3384:1 3385:1 3793:1 8677:1 8678:1 8679:1 8680:1 9020:1 9021:1 9022:1 9023:1 9024:1 
0.04952040120557238 0 29:2 30:1 31:1 36:1 50:1 51:1 58:3.5 59:6 60:1 87:6 89:1 91:1 94:1 140:1 142:1 280:1 299:1 302:1 338:1 354:1 355:1 356:1 357:1 362:1 408:1 411:1 490:1 541:1 558:1 560:1 574:1 777:1 887:1 892:1 903:1 913:1 1248:1 1976:1 2309:1 2919:1 3384:1 3385:1 3570:1 3793:1 4218:1 8682:1 8683:1 8684:1 8685:1 8686:1 8687:1 9020:1 9021:1 9022:1 9023:1 9025:1 
0.05 0 27:1 28:1 29:1 30:1 31:3 36:1 50:1 51:1 58:1 59:1 60:1 140:1 142:1 147:1 149:1 285:1 299:1 328:1 352:1 377:1 408:1 411:1 574:1 770:1 995:1 1015:1 1030:1 1043:1 1244:1 1248:1 1952:1 2309:1 3202:1 3232:1 3384:1 3385:1 3793:1 3804:1 4231:1 4347:1 5174:1 7336:1 8660:1 8665:1 8666:1 8676:1 8763:1 8764:1 8765:1 9023:1 9028:1 
0.0222740816704194 0 29:1 30:1 31:1 36:1 58:2 59:3 60:1 87:1 140:1 142:1 280:1 285:1 299:1 302:1 349:1 371:1 376:1 377:1 408:1 411:1 574:1 666:1 668:1 1244:1 1248:1 1944:1 1949:1 1950:1 1951:1 1952:1 2160:1 2162:1 2166:1 2309:1 3384:1 3385:1 3793:1 3804:1 4347:1 7336:1 8677:1 8678:1 8679:1 8680:1 9023:1 9024:1 9028:1 
0.006358201014966928 0 29:1 30:1 31:1 36:1 50:1 51:1 58:3.5 59:6 60:1 87:6 89:1 91:1 94:1 140:1 142:1 280:1 299:1 302:1 338:1 354:1 355:1 356:1 357:1 362:1 408:1 411:1 490:1 541:1 558:1 560:1 574:1 1244:1 1248:1 1976:1 2309:1 2919:1 3384:1 3385:1 3570:1 3793:1 3804:1 4218:1 4347:1 7336:1 8682:1 8683:1 8684:1 8685:1 8686:1 8687:1 9023:1 9025:1 9028:1 
0.05 0.02561677997245264 29:1 30:1 31:1 36:1 58:4.5 59:8 60:1 87:10 89:3 140:1 142:1 176:1 280:1 285:1 288:1 299:1 302:1 303:1 338:1 377:1 408:1 411:1 490:1 529:1 534:1 574:1 620:1 621:1 622:1 623:1 635:1 813:1 1224:1 1244:1 1248:1 1976:1 2309:1 2802:1 3194:1 3195:1 3384:1 3385:1 3793:1 3804:1 4347:1 4826:1 7336:1 8686:1 8687:1 8694:1 8834:1 8835:1 8836:1 8837:1 9023:1 9026:1 9028:1 
0.01501606515120932 0 27:1 28:1 29:1 30:1 31:2 36:1 50:1 51:1 58:1.5 59:2 60:1 127:1 140:1 142:1 147:1 149:1 159:1 285:1 352:1 377:1 381:1 460:1 892:1 913:1 1016:1 3194:1 3382:1 4160:1 7109:1 7111:1 7112:1 7113:1 7119:1 7120:1 7171:1 7212:1 9142:1 9143:1 9144:1 9145:1 9146:1 9147:1 9148:1 9149:1 9150:1 9151:1 
0.03259183997794871 0 29:1 30:1 31:1 33:1 36:1 50:1 51:1 58:3 59:3 60:3 87:2 91:1 94:1 123:1 407:1 408:1 409:1 411:1 560:1 574:1 642:1 1931:1 1932:1 1935:1 1943:1 2527:1 3242:1 3243:1 3600:1 4377:1 4387:1 5097:1 9379:1 9380:1 9381:1 9382:1 9383:1 9384:1 9385:1 9386:1 9387:1 9388:1 9389:1 9401:1 9402:1 9403:1 9404:1 9405:1 9406:1 9407:1 9408:1 
0.02149151524031353 0.004029104730599567 29:1 30:1 31:1 33:1 36:1 58:4 59:5 60:3 67:1 87:5 89:1 91:1 123:1 275:1 371:1 407:1 408:1 409:1 411:1 544:1 560:1 574:1 642:1 1943:1 1944:1 1955:1 1958:1 1961:1 1962:1 1963:1 2527:1 3242:1 3243:1 3611:1 3622:1 4377:1 4387:1 5097:1 9391:1 9392:1 9393:1 9394:1 9395:1 9396:1 9397:1 9398:1 9399:1 9401:1 9402:1 9403:1 9404:1 9405:1 9406:1 9407:1 9409:1 
0.007301896629781417 0.007610508184602747 29:2 30:1 31:1 36:1 50:1 51:1 58:3.5 59:5 60:2 67:1 87:6 123:1 285:1 339:1 344:1 348:1 352:1 370:1 377:1 456:1 813:1 2802:1 3194:1 3243:1 3351:1 3449:1 3644:1 3764:1 3765:1 3767:1 3879:1 4006:1 4013:1 4026:1 4028:1 4030:1 4294:1 4295:1 4296:1 4297:1 4415:1 4625:1 4626:1 4826:1 4933:1 5167:1 7171:1 8803:1 9440:1 9441:1 9443:1 9444:1 9446:1 9447:1 9448:1 
0.003293627817625313 0 29:2 30:1 31:1 33:1 36:1 58:2 59:2 60:2 87:2 316:1 317:1 342:1 344:1 348:1 371:1 675:1 1224:1 1231:1 1944:1 3764:1 3767:1 3811:1 3877:1 3878:1 3879:1 3940:1 3980:1 4030:1 4032:1 4524:1 8683:1 8685:1 8687:1 9046:1 9485:1 9486:1 9487:1 9488:1 9489:1 9490:1 9491:1 9492:1 9493:1 9494:1 9495:1 9496:1 9497:1 9498:1 9499:1 9500:1 9501:1 9502:1 9503:1 9504:1 9505:1 9506:1 9507:1 
0 0.00250772020043234 30:1 33:1 36:1 58:3 59:4 60:2 87:2 121:1 221:1 371:1 400:1 405:1 406:1 407:1 408:1 409:1 411:1 412:1 1944:1 2018:1 2468:1 2470:1 3242:1 3243:1 3382:1 3672:1 3677:1 3709:1 4548:1 4652:1 4653:1 4654:1 5255:1 5256:1 5259:1 5332:1 5819:1 5820:1 5821:1 5822:1 5824:1 9510:1 9511:1 9512:1 9513:1 9514:1 9515:1 9516:1 9517:1 9518:1 
0.03534039323808511 0.00699877932746976 30:1 31:1 33:1 36:1 37:1 38:1 58:7.5 59:12 60:3 87:1 407:1 408:1 409:1 411:1 574:1 2989:1 3119:1 3120:1 3121:1 3122:1 3203:1 3242:1 3243:1 3245:1 3519:1 3541:1 3633:1 9615:1 9616:1 9617:1 9618:1 9619:1 9620:1 9621:1 9622:1 9623:1 9624:1 9625:1 9626:1 9628:1 9629:1 9630:1 9631:1 9632:1 9633:1 9634:1 9635:1 9662:1 9663:1 9664:1 9665:1 9666:1 9667:1 
0.007116368408022836 0.01010824011509737 27:1 28:1 29:1 30:1 31:1 32:1 33:1 36:1 40:1 43:1 50:1 51:1 58:1.5 59:2 60:1 140:1 142:1 147:1 149:1 323:1 324:1 471:1 569:1 1009:1 1453:1 2861:1 3026:1 5985:1 5988:1 7728:1 9741:1 9784:1 9785:1 9786:1 9787:1 9788:1 9789:1 9790:1 9791:1 9839:1 9840:1 9841:1 9842:1 9843:1 9844:1 9845:1 9846:1 9847:1 9848:1 
0.05 0 30:1 31:1 36:1 50:1 51:1 53:1 56:1 58:2 59:2 60:2 77:1 87:4 127:1 135:1 140:1 142:1 156:1 157:1 158:1 159:1 160:1 320:1 335:1 337:1 868:1 869:1 870:1 871:1 874:1 876:1 879:1 939:1 1774:1 1891:1 2832:1 3026:1 3159:1 7728:1 9701:1 9702:1 9707:1 9708:1 9709:1 9873:1 9874:1 9884:1 9885:1 9886:1 
0.01380326335641811 0 27:1 28:1 29:1 30:1 31:4 33:1 36:1 50:1 51:1 53:1 56:1 58:1 59:1 60:1 127:1 135:1 140:1 142:1 147:1 149:1 159:1 160:1 666:1 1015:1 1030:1 1043:1 1701:1 1708:1 1774:1 1783:1 2270:1 2832:1 7387:1 9734:1 9735:1 9736:1 9737:1 9738:1 9739:1 9740:1 9741:1 9742:1 9745:1 9746:1 9747:1 9839:1 9840:1 9841:1 9917:1 9918:1 9919:1 9920:1 9921:1 9922:1 
0.05 0 29:1 30:1 31:2 36:1 50:1 51:1 53:1 56:1 58:1.5 59:2 60:1 77:1 87:1 115:1 120:1 127:1 135:1 140:1 142:1 159:1 160:1 666:1 1783:1 1784:1 2832:1 7387:1 8678:1 9736:1 9737:1 9745:1 9746:1 9809:1 9810:1 9811:1 9812:1 9813:1 9814:1 9815:1 9839:1 9840:1 9841:1 9917:1 9918:1 9919:1 9920:1 9921:1 9922:1 9923:1 
0.02999526690980939 0 8:1 30:1 31:2 36:1 58:2 59:2 60:2 67:1 68:1 77:1 87:8 89:2 123:1 180:1 200:1 316:1 371:1 490:2 1014:1 1142:1 1150:1 1783:1 1784:1 1931:1 1935:1 1943:2 1944:1 3188:1 3189:1 3193:1 3232:1 6198:1 6208:1 6493:1 6495:1 6739:1 6740:1 6741:1 6742:1 6743:1 6744:1 6751:1 6758:1 6759:1 6760:1 6763:1 6764:1 6765:1 6766:1 6767:1 6768:1 6769:1 6770:1 6771:1 6772:1 
0.00663536123326887 0.00113056022172696 8:1 32:1 36:1 77:1 87:6 121:1 123:1 180:1 316:1 371:1 490:1 666:1 1142:1 1150:1 1748:1 1783:1 1784:1 1931:1 1935:1 1943:1 1944:1 2012:1 2018:1 2075:1 2277:1 2278:1 2279:1 2280:1 10522:1 10523:1 10524:1 10525:1 10526:1 10527:1 10528:1 10529:1 10530:1 10531:1 10532:1 10533:1 10534:1 
0.05 0.0007900375227523595 8:1 32:1 36:1 67:1 68:1 77:1 87:9 89:1 121:1 123:1 316:1 371:1 490:2 1150:1 1783:1 1784:1 1931:1 1935:1 1943:2 1944:1 2018:1 2031:1 10522:1 10523:1 10524:1 10525:1 10526:1 10527:1 10528:1 10530:1 10531:1 10535:1 10536:1 10537:1 10538:1 10539:1 10540:1 
0.03787379041577526 0 8:1 30:1 32:1 36:1 50:1 51:1 67:1 77:1 87:5 123:1 316:1 490:1 605:1 1248:1 1783:1 1784:1 1943:1 2055:1 2103:1 2106:1 2109:1 2702:1 2705:1 3188:1 3189:1 3193:1 3360:1 6493:1 6495:1 6915:1 6916:1 6917:1 6918:1 6919:1 6920:1 6921:1 6922:1 6923:1 6924:1 6925:1 
0.04322661377567016 0.005470979026456916 8:1 31:1 33:1 36:1 77:1 87:2 121:1 123:1 180:1 316:1 371:1 666:1 1014:1 1142:1 1783:1 1784:1 1944:1 2051:1 2054:1 2861:1 6198:1 6208:1 6489:1 6492:1 6962:1 6963:1 6964:1 6965:1 6966:1 6967:1 6968:1 6969:1 6970:1 6971:1 6972:1 6973:1 6974:1 6975:1 6976:1 6977:1 
0.02166090557465808 0 8:1 30:1 31:1 36:1 50:1 51:1 53:1 56:1 58:2 59:3 60:1 67:1 68:1 77:1 87:5 89:1 123:1 135:1 316:1 490:1 1150:1 1783:1 1784:1 1931:1 1935:1 1943:1 2660:1 3188:1 3189:1 3193:1 6198:1 6208:1 6493:1 6495:1 6739:1 6740:1 6741:1 6742:1 6751:1 6769:1 6978:1 6979:1 6980:1 6981:1 6982:1 6983:1 6984:1 6985:1 6986:1 6987:1 6988:1 
0.01178931320435722 0 29:2 31:1 36:1 50:1 51:1 58:4.5 59:6 60:3 67:1 87:5 121:1 123:1 280:1 285:1 299:1 302:1 352:1 377:1 408:1 411:1 412:1 816:1 1943:1 2527:1 3477:1 3699:1 3701:1 3765:1 3766:1 3886:1 3983:1 3984:1 3985:1 3986:1 4184:1 4410:1 4411:1 4414:1 5167:1 9959:1 9965:1 9966:1 10973:1 10974:1 10975:1 10976:1 10978:1 10980:1 10981:1 10982:1 10983:1 10984:1 10985:1 10986:1 10987:1 10988:1 10989:1 10990:1 
0.03086865621818349 0 29:1 32:1 36:1 50:1 51:1 58:6 59:8 60:4 67:1 87:9 121:1 123:1 282:1 284:1 285:1 289:1 337:1 352:1 400:1 405:1 406:1 425:1 430:1 431:1 432:1 434:1 454:1 490:1 497:1 599:1 873:1 874:1 876:1 2018:1 2468:1 2470:1 3699:1 3701:1 3992:1 3993:1 4184:1 4217:1 4526:1 4527:1 4601:1 5123:1 5124:1 5127:1 5316:1 10992:1 10994:1 10995:1 10997:1 10998:1 10999:1 11000:1 11001:1 11002:1 
0.05 0.03074016240397559 29:2 30:1 31:1 33:2 36:1 58:4.5 59:6 60:3 67:1 87:14 89:1 123:1 176:1 211:1 282:1 283:1 285:1 288:1 303:1 337:1 339:1 342:1 377:1 408:1 411:1 474:1 488:1 490:1 497:1 574:1 672:1 678:1 679:1 2811:1 3243:1 3287:1 3527:1 3530:1 3633:1 3756:1 3793:1 3804:1 3847:1 3849:1 3856:1 3871:1 3872:1 3873:1 3875:1 3889:1 3992:1 4217:1 5174:1 5196:1 5197:1 9813:1 10995:1 11003:1 11004:1 11005:1 11006:1 11007:1 11008:1 11010:1 11011:1 11012:1 11013:1 
0.04610747930047317 0.01265694669149875 29:3 30:1 33:1 36:1 50:1 51:1 58:3.5 59:5 60:2 87:13 89:1 123:1 248:1 283:2 316:1 317:1 338:1 339:1 344:1 348:1 551:1 811:1 813:1 2149:1 2650:1 3351:1 3764:1 3767:1 3790:1 3793:1 3804:1 3934:1 3975:1 4011:1 4013:1 4016:1 4017:1 4018:1 4019:1 4026:1 4028:1 4030:1 4415:1 4499:1 4561:1 4912:1 4920:1 5219:1 5520:1 5562:1 11027:1 11028:1 11029:1 11030:1 11031:1 11032:1 11033:1 11034:1 11035:1 11036:1 11037:1 11038:1 
0.00314125728091854 0 29:3 30:1 33:1 36:1 50:1 51:1 58:4 59:6 60:2 67:1 87:7 123:1 316:1 317:1 338:1 339:1 342:1 344:1 348:1 551:1 2149:1 2304:1 2650:1 3152:1 3351:1 3764:1 3767:1 3793:1 3804:1 3934:1 4013:1 4016:1 4017:1 4018:1 4019:1 4026:1 4028:1 4030:1 4415:1 4499:1 4561:1 4912:1 4920:1 5520:1 5562:1 10924:1 11028:1 11029:1 11031:1 11033:1 11034:1 11035:1 11036:1 11037:1 11042:1 11043:1 11044:1 
0.02749526829005284 0.003613911286378308 29:2 30:1 31:1 33:6 36:1 58:5.5 59:6 60:5 67:1 87:13 123:1 176:1 253:1 261:1 262:1 263:1 265:1 275:1 282:1 283:1 303:1 337:1 386:1 400:1 405:1 406:1 407:1 408:1 409:1 411:1 465:1 474:1 488:1 490:1 497:1 574:1 877:1 892:1 913:1 999:1 1016:1 1119:1 3225:2 3233:2 3242:1 3243:1 3287:1 3298:1 3527:1 3530:1 3612:1 3773:1 3847:1 3849:1 3855:1 3856:2 3873:1 3992:1 4217:1 4542:1 9373:1 10932:1 10939:1 10995:1 11005:1 11050:1 11055:1 11130:1 11131:1 11132:1 11133:1 
0.05 0 29:2 30:1 31:1 33:2 36:1 58:5.5 59:6 60:5 67:1 87:19 123:1 176:1 253:1 261:1 262:1 263:1 265:1 275:1 282:1 283:1 303:1 337:1 338:2 386:1 400:1 405:1 406:1 407:1 408:1 409:1 411:1 465:1 474:1 488:1 490:1 497:1 574:1 877:1 892:1 913:1 999:1 3242:1 3243:1 3287:1 3527:1 3530:1 3570:1 3636:1 3752:1 3755:1 3756:1 3847:1 3849:1 3856:1 3871:1 3872:1 3873:1 3992:1 4217:1 4542:1 4544:1 9442:1 10932:1 10939:1 10995:1 11005:1 11050:1 11130:1 11132:1 11133:1 11134:1 
0.04644187141946456 0.0006003493688654858 29:1 30:1 36:1 37:1 38:1 58:2.5 59:3 60:2 87:1 127:1 159:1 180:1 460:1 596:1 1003:1 3033:1 3382:1 3549:1 3764:1 3767:1 3966:1 3996:1 3997:1 3998:1 4134:1 5606:1 7716:1 8006:1 10779:1 11173:1 11174:1 11187:1 11188:1 11189:1 11190:1 11191:1 11192:1 11193:1 11194:1 11195:1 11196:1 11197:1 11199:1 11200:1 11201:1 11202:1 11203:1 11204:1 11205:1 11206:1 11207:1 11208:1 11209:1 
0 0.009713450670935377 29:2 33:1 36:1 50:1 51:1 58:3.5 59:5 60:2 67:1 87:2 121:1 123:1 221:1 224:1 400:1 405:1 406:1 425:1 426:1 429:1 430:1 431:1 432:1 434:1 435:1 1354:1 3699:1 3701:1 3877:1 3878:1 3879:1 4548:1 5257:1 5259:1 5344:1 5819:1 5820:1 5821:1 5822:1 5824:1 9514:1 11211:1 11212:1 11213:1 11214:1 11215:1 11216:1 11217:1 11242:1 11243:1 11244:1 11245:1 
0.03005712664781674 0.007654777527577425 29:2 30:1 33:1 36:1 50:1 51:1 58:2 59:2 60:2 87:1 316:1 317:1 339:1 344:1 348:1 3238:1 3351:1 3382:1 3548:1 3549:1 3764:1 3767:1 3934:1 3966:1 4009:1 4011:1 4013:1 4014:1 4016:1 4017:1 4018:1 4019:1 4022:1 4026:1 4027:1 4028:1 4030:1 4031:1 4032:1 4033:1 4034:1 4035:1 4036:1 4415:1 11313:1 11314:1 11315:1 11316:1 
0 0.00272233429482788 29:1 33:1 36:1 50:1 51:1 58:3.5 59:5 60:2 87:2 121:1 221:1 224:1 400:1 405:1 406:1 425:1 426:1 429:1 430:1 431:1 432:1 434:1 2332:1 3238:1 3699:1 3701:1 3928:1 3963:1 3964:1 4548:1 4601:1 4612:1 5257:1 5259:1 5279:1 5280:1 5344:1 5819:1 5820:1 5821:1 5822:1 5824:1 9514:1 9640:1 11211:1 11212:1 11213:1 11216:1 11217:1 11334:1 
0 0.005650124004030437 30:1 33:1 36:1 50:1 51:1 58:2 59:2 60:2 67:1 87:1 121:1 215:1 218:1 219:1 221:1 224:1 342:1 400:1 405:1 406:1 426:1 429:1 473:1 733:1 3574:1 3575:1 3904:1 4408:1 4548:1 5255:1 5256:1 5257:1 5259:1 5288:1 5819:1 5820:1 5821:1 5822:1 5824:1 11355:1 11356:1 11357:1 11358:1 11359:1 11360:1 11361:1 11362:1 11363:1 11364:1 11365:1 11366:1 11367:1 
0.03079481457871208 0.0002240979089992349 30:1 36:1 37:1 38:1 58:3 59:4 60:2 87:1 123:1 382:1 408:1 411:1 574:1 717:1 919:1 932:1 1198:1 3202:1 3225:1 3233:1 4134:2 5923:1 5930:1 5940:1 5941:1 5956:1 5957:1 7380:1 11456:1 11458:1 11459:1 11460:1 11461:1 11462:1 11463:1 11464:1 11465:1 11466:1 11467:1 11468:1 11469:1 11470:1 11471:1 11472:1 11473:1 11474:1 11475:1 11476:1 11477:1 
0.04534975097359903 0.007476346505977829 30:1 36:1 37:1 38:1 58:2 59:2 60:2 87:4 89:1 123:1 248:1 316:1 317:1 338:1 384:1 397:1 855:1 859:1 932:1 1534:1 2732:1 2743:1 4134:1 5923:1 5949:1 9226:1 9227:1 9998:1 9999:1 10001:1 10002:1 10068:1 11447:1 11451:1 11454:1 11456:1 11478:1 11479:1 11480:1 11489:1 11492:1 11493:1 11494:1 11495:1 11496:1 11497:1 11498:1 11499:1 11500:1 11501:1 
0.001838854354379272 0.008029598331625042 29:1 36:1 37:1 38:1 58:3 59:4 60:2 87:1 121:1 123:1 248:1 425:1 430:1 431:1 432:1 434:1 435:1 932:1 1534:1 4134:1 4400:1 5923:1 5949:1 9434:1 10002:1 10068:1 11438:1 11447:1 11450:1 11451:1 11454:1 11456:1 11492:1 11493:1 11494:1 11495:1 11496:1 11497:1 11500:1 11502:1 11503:1 11504:1 11505:1 11506:1 11507:1 11508:1 11509:1 11510:1 
0.001544287704164449 0.01013492180389941 29:2 30:1 36:1 37:1 38:1 58:2 59:2 60:2 67:1 87:1 123:1 733:1 855:1 859:1 932:1 1198:1 2811:1 3549:1 3764:1 3765:1 3767:1 3879:1 4134:1 5167:1 5312:1 5813:1 5923:1 5930:1 5940:1 5941:1 5953:1 5956:1 5957:1 9446:1 10001:1 11456:1 11470:1 11472:1 11521:1 11522:1 11523:1 11524:1 11525:1 11526:1 11527:1 11528:1 11529:1 11530:1 11531:1 
0.05 0.01296670178153411 30:1 31:2 36:1 53:1 58:2 59:3 60:1 87:2 101:1 127:1 135:1 159:1 160:1 176:1 303:1 416:1 497:1 675:1 873:1 997:1 1004:1 1115:1 1118:1 1120:1 1453:1 1486:1 2876:1 2877:1 3016:1 4343:1 4344:1 5470:1 5483:1 5484:1 5485:1 5497:1 5594:1 11717:1 11718:1 11719:1 11720:1 11721:1 11722:1 11723:1 11724:1 11725:1 11726:1 11727:1 11728:1 11729:1 11730:1 11731:1 11732:1 
0.05 0.007994866275743884 30:2 31:2 36:1 37:1 38:1 58:2 59:3 60:1 87:1 127:1 159:1 160:1 180:1 484:1 489:1 497:1 666:1 778:1 789:1 1014:1 1115:1 1118:1 1120:1 3033:1 5480:1 5602:1 5604:1 5635:1 7716:1 10779:1 11733:1 11734:1 11735:1 11736:1 11737:1 11738:1 11739:1 11743:1 11744:1 11745:1 11747:1 11748:1 11749:1 11750:1 11751:1 11752:1 11753:1 11754:1 11755:1 11756:1 11757:1 11758:1 11759:1 
0.007894288614771941 0 29:2 30:1 32:1 33:2 36:1 37:1 38:1 58:4 59:4 60:4 87:3 280:1 285:1 289:1 349:1 407:1 408:1 409:1 411:1 574:1 2134:1 2160:1 2162:1 2220:1 3225:1 3233:1 3242:1 3243:1 3478:1 3519:1 3541:1 3674:1 3793:1 4010:1 4012:1 4400:1 4435:1 4649:1 5603:1 5605:1 5930:1 5940:1 5941:1 7688:1 10890:1 11802:1 11803:1 11804:1 11805:1 11806:1 11807:1 11808:1 11810:1 11811:1 11812:1 11821:1 11822:1 11823:1 11824:1 11825:1 11826:1 11827:1 
0.04363983851795639 0.001536252614721696 29:2 30:1 31:3 36:1 37:1 38:1 58:4 59:4 60:4 67:1 87:10 89:2 123:1 280:1 285:1 338:1 349:1 377:1 407:1 408:1 409:1 411:1 574:1 1482:1 1702:1 2142:1 2149:1 2220:1 3242:1 3243:1 3519:1 3541:1 3674:1 3793:1 4010:1 4012:1 4400:1 4625:1 4626:1 4629:2 4649:1 5930:1 5940:1 5941:1 6225:1 6333:1 7688:1 10890:1 11817:1 11821:1 11822:1 11823:1 11824:1 11826:1 11830:1 11831:1 11832:1 11833:1 11834:1 11835:1 11836:1 11837:1 11838:1 11839:1 11840:1 11841:1 11842:1 11843:1 11844:1 
0.05 0.005227326455273097 27:1 28:1 30:1 31:1 33:1 36:1 50:1 51:1 58:1.5 59:2 60:1 127:1 159:1 160:1 285:1 352:1 377:1 789:1 1197:1 3061:1 3078:1 3081:1 3082:1 3083:1 3084:1 4312:1 4313:1 4314:1 5852:1 5854:1 10850:1 11978:1 11979:1 11980:1 11981:1 11985:1 11987:1 11988:1 11989:1 11990:1 12009:1 12010:1 12011:1 12012:1 12013:1 12014:1 12015:1 12016:1 12017:1 
0 0.002837783265834308 30:1 36:1 58:2 59:2 60:2 87:2 339:1 342:1 344:1 348:1 371:1 1944:1 2811:1 3351:1 3675:1 3689:1 3690:1 3691:1 4013:1 4026:1 4028:1 4030:1 4031:1 4032:1 4134:1 4421:1 4519:1 4912:1 4920:1 5312:1 9506:1 12056:1 12057:1 12058:1 12059:1 12060:1 12061:1 12062:1 12063:1 12064:1 12065:1 12066:1 12067:1 12068:1 12069:1 12070:1 12071:1 
0.01275429626800743 0 29:2 30:1 31:1 36:1 50:1 51:1 58:4 59:6 60:2 87:9 89:1 123:1 211:1 256:1 280:1 283:1 285:1 316:1 317:1 344:1 348:1 349:1 350:1 352:1 377:1 456:1 521:1 606:1 892:1 913:1 2488:1 3062:1 3065:1 3068:1 3382:1 3700:1 3764:1 3767:1 3983:1 3984:1 3985:1 3986:1 4007:1 4030:1 4307:1 4406:1 5093:1 5125:1 9336:1 12078:1 12079:1 12080:1 12081:1 12082:1 12083:1 12084:1 12085:1 12086:1 12087:1 12088:1 
0.04750657245831496 0 8:1 29:2 30:1 31:1 36:1 50:1 51:1 53:1 56:1 77:1 87:2 135:1 316:1 1783:1 1784:1 2861:1 3081:1 3082:1 3185:1 3262:1 3937:1 3938:1 4055:1 4056:1 4365:1 4384:1 5188:1 5189:1 5190:1 5191:1 12036:1 12037:1 12145:1 12146:1 12147:1 12148:1 12149:1 12150:1 12151:1 
0.006476496535461992 0 30:1 32:1 36:1 50:1 51:1 58:3 59:3 60:3 67:1 87:5 123:1 285:1 289:1 352:1 370:1 373:1 408:1 411:1 574:1 3180:1 3205:1 3243:1 3860:1 3920:1 4003:1 4005:1 4006:1 4414:1 4437:1 4526:1 4527:1 5123:1 5124:1 12226:1 12227:1 12228:1 12229:1 12230:1 12231:1 12232:1 12233:1 12234:1 12235:1 12236:1 12237:1 12238:1 12239:1 12240:1 12241:1 12242:1 
0.01902691266231971 0 29:2 30:1 36:1 58:2 59:3 60:1 87:2 123:1 256:1 304:1 305:1 306:1 308:1 339:1 371:1 846:1 1944:1 3243:1 3764:1 3767:1 3793:1 3804:1 3811:1 3886:1 3998:1 4022:1 4027:1 4031:1 4032:1 4134:1 4221:1 4222:1 4232:1 5144:1 8675:1 9203:1 9506:1 11139:1 12053:1 12068:1 12070:1 12256:1 12257:1 12258:1 12259:1 12260:1 12261:1 12262:1 12263:1 12264:1 12265:1 12266:1 12267:1 
0.05 0.00730453225862345 2:1 4:1 29:2 30:1 32:1 33:3 36:1 77:1 87:3 176:1 220:1 221:1 303:1 342:1 473:1 877:1 1016:1 1117:1 1119:1 1774:1 1783:1 1784:1 3225:1 3233:1 3545:1 3547:1 3573:1 3773:1 3831:1 3850:1 3855:1 3856:1 3921:1 4551:1 4552:1 5189:1 5190:1 5191:1 5194:1 5303:1 5305:1 5307:1 12370:1 12371:1 12372:1 12373:1 12374:1 12375:1 12376:1 
0.0249746762611711 0 29:3 31:1 36:1 50:1 51:1 58:2 59:2 60:2 87:2 121:1 123:1 192:1 203:1 208:1 210:1 212:1 213:1 214:1 215:1 216:1 218:1 219:1 220:1 221:1 222:1 224:1 225:1 256:1 471:1 895:1 906:1 1198:1 3081:1 3082:1 3185:1 3699:1 3701:1 3765:1 3879:1 3937:1 3938:1 4484:1 4486:1 4487:1 5167:1 5312:1 5344:1 5758:1 5828:1 12145:1 12214:1 12380:1 12381:1 12382:1 12383:1 12385:1 
0.03884007104220728 0 29:3 32:1 36:1 50:1 51:1 58:3 59:3 60:3 67:1 87:7 89:1 121:1 123:1 192:1 208:1 210:1 212:1 213:1 214:1 215:1 216:1 218:1 219:1 285:1 289:1 352:1 370:1 373:1 471:1 895:1 906:1 1198:1 3699:1 3701:1 3765:1 3879:1 4006:1 4410:1 4411:1 4414:1 4437:1 4487:1 4496:1 4526:1 4527:1 4625:1 4626:1 5123:1 5124:1 5167:1 5312:1 5828:1 12145:1 12236:1 12241:1 12381:1 12382:1 12383:1 12386:1 12387:1 12388:1 
0.006733017617134302 0 29:2 31:1 36:1 50:1 51:1 58:3.5 59:5 60:2 87:2 121:1 123:1 192:1 203:1 208:1 210:1 212:1 213:1 220:1 221:1 222:1 224:1 225:1 256:1 425:1 430:1 431:1 432:1 434:1 3081:1 3082:1 3185:1 3262:1 3699:1 3701:1 3879:1 3937:1 3938:1 4484:1 4486:1 4487:1 4601:1 5344:1 5758:1 5827:1 5828:1 12145:1 12214:1 12380:1 12382:1 12389:1 12390:1 12391:1 12392:1 
0.02128210041890512 0 29:2 32:1 36:1 50:1 51:1 58:4.5 59:6 60:3 67:1 87:7 89:1 121:1 123:1 192:1 208:1 210:1 212:1 213:1 285:1 289:1 352:1 370:1 373:1 425:1 430:1 431:1 432:1 434:1 3262:1 3699:1 3701:1 3879:1 4006:1 4410:1 4411:1 4414:1 4437:1 4487:1 4496:1 4526:1 4527:1 4601:1 4625:1 4626:1 5123:1 5124:1 5827:1 5828:1 12145:1 12236:1 12241:1 12382:1 12386:1 12387:1 12389:1 12390:1 12391:1 12393:1 
0.01845256135284018 0 30:1 31:1 36:1 50:1 51:1 58:3.5 59:5 60:2 87:8 127:1 159:1 160:1 280:1 285:1 328:1 352:1 377:1 813:1 2690:1 2802:1 3194:1 3243:1 3952:1 3953:1 3983:1 3984:1 3985:1 3986:1 3991:1 4040:1 4532:1 4533:1 4826:1 4864:1 5104:1 7171:1 12226:1 12227:1 12228:1 12229:1 12237:1 12406:1 12408:1 12409:1 12418:1 12419:1 12420:1 12421:1 12422:1 12423:1 12424:1 12425:1 
0.05 0 30:1 31:1 36:1 50:1 51:1 58:4.5 59:7 60:2 87:10 89:1 91:1 94:1 127:1 159:1 160:1 280:1 338:1 523:1 527:1 541:1 558:1 560:1 813:1 2690:1 3238:1 3243:1 3297:1 3382:1 3954:1 3955:1 3956:1 3957:1 3959:1 3991:1 4040:1 4532:1 4533:1 5104:1 11012:1 12226:1 12227:1 12228:1 12229:1 12237:1 12408:1 12410:1 12411:1 12418:1 12419:1 12420:1 12421:1 12422:1 12423:1 12424:1 12426:1 
0.0333247546281283 0 29:1 30:1 36:1 58:4 59:4 60:4 87:3 123:1 339:1 371:1 407:1 408:1 409:1 411:1 574:1 999:1 1944:1 3238:1 3242:1 3243:1 3764:1 3767:1 3816:1 3889:1 3914:1 3996:1 3997:1 3998:1 4022:1 4027:1 4031:1 4032:1 4134:1 4620:1 4627:1 8675:1 9233:1 9506:1 12068:1 12258:1 12259:1 12260:1 12261:1 12262:1 12434:1 12435:1 12436:1 12437:1 12438:1 12439:1 12440:1 12441:1 
0.003949951048360231 0 29:1 31:1 36:1 50:1 51:1 58:3.5 59:5 60:2 87:2 121:1 221:1 224:1 225:1 248:1 425:1 430:1 431:1 432:1 434:1 2332:1 3062:1 3065:1 3068:1 3081:1 3082:1 3127:1 3699:1 3701:1 3937:1 3938:1 3963:1 3964:1 4601:1 4612:1 4870:1 5279:1 5280:1 5344:1 11336:1 12145:1 12475:1 12477:1 12478:1 12479:1 12480:1 12481:1 12482:1 12483:1 12484:1 12488:1 
0.01513475522083458 0 27:1 28:1 29:1 30:1 31:3 36:1 50:1 51:1 67:1 101:1 123:1 127:1 140:1 142:1 147:1 149:1 159:1 460:1 599:1 1030:1 1043:1 1453:1 2053:1 2066:1 2469:1 2861:1 3846:1 3848:1 6483:1 6561:1 6590:1 6592:1 6593:1 7517:1 7518:1 8088:1 12892:1 12893:1 12894:1 12895:1 12896:1 12897:1 12898:1 
0.05 0.004584113343297034 30:2 31:1 36:1 50:1 51:1 58:3.5 59:5 60:2 87:1 101:1 121:1 127:1 131:1 159:1 180:1 360:1 363:1 370:1 551:1 895:1 906:1 1000:1 1013:1 1014:1 1453:1 1687:1 3131:1 3180:1 3205:1 8711:1 8713:1 8714:1 8715:1 8718:1 8721:1 8723:1 8783:1 8784:1 8785:1 8786:1 8795:1 12907:1 12908:1 12909:1 12910:1 12911:1 12912:1 12913:1 12914:1 12915:1 12916:1 12977:1 
0.05 0 30:1 31:1 36:1 50:1 51:1 58:3.5 59:5 60:2 87:3 101:1 121:1 127:1 131:1 159:1 180:1 338:1 360:1 363:1 370:1 384:1 397:1 551:1 1000:1 1013:1 1014:1 1453:1 1687:1 3131:1 8589:1 8711:1 8713:1 8714:1 8718:1 8721:1 8723:1 8795:1 8800:1 8801:1 8802:1 8803:1 12907:1 12908:1 12909:1 12910:1 12911:1 12912:1 12913:1 12914:1 12915:1 12916:1 12977:1 
0.05 0.006995626675966115 31:1 33:1 36:1 37:1 38:1 58:3.5 59:4 60:3 77:1 87:2 121:1 408:1 411:1 412:1 648:1 717:1 1783:1 1784:1 2211:1 2212:1 2861:1 3131:1 3232:1 3266:1 5654:1 5676:1 8585:1 8586:1 8592:1 8813:1 8814:1 8815:1 8816:1 8817:1 8818:1 8819:1 8820:1 8821:1 8822:1 12918:1 12919:1 12920:1 12921:1 12922:1 12923:1 12924:1 12925:1 12926:1 12927:1 13046:1 
0.01857915421971596 0.003319725455347354 30:1 32:1 36:1 58:3 59:4 60:2 87:3 285:1 289:1 339:1 344:1 348:1 360:1 363:1 370:1 371:1 373:1 374:1 376:1 731:1 1134:1 1932:1 1942:1 1944:1 2213:1 2277:1 2278:1 2279:1 2280:1 2450:1 3351:1 4013:1 4026:1 4028:1 4030:1 6580:1 6582:1 6588:1 6589:1 8636:1 8637:1 8638:1 8803:1 8968:1 8969:1 8970:1 8971:1 
0.05 0.005955848543165212 30:1 31:1 36:1 58:4 59:6 60:2 87:5 89:1 91:1 339:1 344:1 348:1 370:1 371:1 544:1 560:1 666:1 731:1 1942:1 1944:1 1955:1 1958:1 1961:1 1962:1 1963:1 2031:1 2075:1 2450:1 3211:1 3351:1 4013:1 4026:1 4028:1 4030:1 6580:1 6582:1 6588:1 6589:1 8749:1 8750:1 8751:1 8752:1 8753:1 8754:1 8755:1 8803:1 8968:1 8969:1 8970:1 8972:1 
0.04777784513396119 0 27:1 28:1 29:1 30:1 31:6 33:3 36:1 50:1 51:1 58:1 59:1 60:1 123:1 140:1 142:1 147:1 149:1 299:1 892:1 913:1 995:1 1015:1 1016:1 1030:4 1043:4 1713:1 1719:1 1722:1 1952:1 2014:1 2053:1 2066:1 2157:1 2282:1 2691:1 2943:1 2947:1 2995:1 2996:1 2998:1 2999:1 3131:1 3232:1 3233:1 3796:1 4347:1 5704:1 7212:1 7649:1 8665:1 8673:1 8675:1 8677:1 9491:2 12945:1 12946:1 12947:1 12948:1 12950:1 12981:1 12982:1 12983:1 13191:1 13192:1 
0.003722903909427731 0 27:1 28:1 29:1 30:1 31:5 33:3 36:1 50:1 51:1 58:1 59:1 60:1 140:1 142:1 147:1 149:1 299:1 892:1 913:1 995:1 1015:1 1016:1 1030:4 1043:4 1713:1 1719:1 1722:1 1932:1 1952:1 2014:1 2053:1 2066:1 2157:1 2691:1 2943:1 2947:1 2995:1 2996:1 2998:1 2999:1 3232:1 3796:1 4347:1 5704:1 7212:1 7649:1 8665:1 8675:1 8677:1 9491:2 12943:1 12944:1 12945:1 12946:1 12947:1 12948:1 12949:1 12950:1 13191:1 13192:1 
0.01669387342435965 0.001549761154819322 27:1 28:1 29:1 30:1 31:4 33:3 36:1 58:1 59:1 60:1 140:1 142:1 147:1 149:1 299:1 371:1 666:1 892:1 913:1 995:1 1015:1 1016:1 1030:3 1043:3 1713:1 1719:1 1944:1 1952:1 2075:1 2157:1 2691:1 2943:1 2947:1 2995:1 2996:1 2998:1 2999:1 3232:1 3796:1 4347:1 5704:1 7212:1 8464:1 8665:1 8675:1 8677:1 9491:2 12945:1 12946:1 12947:1 12950:1 12952:1 12953:1 12954:1 12955:1 13191:1 13192:1 
0.007566350698857323 0 27:1 28:1 29:1 30:1 31:4 33:2 36:1 50:1 51:1 58:1 59:1 60:1 140:1 142:1 147:1 149:1 299:1 666:1 892:1 913:1 995:1 1015:1 1016:1 1030:2 1043:2 1713:1 1719:1 1722:1 1951:1 1952:1 2157:1 2691:1 2943:1 2947:1 2995:1 2996:1 2998:1 2999:1 3232:1 3796:1 4347:1 5704:1 7212:1 7649:1 8665:1 8677:1 9491:2 12945:1 12950:1 12985:1 12986:1 12987:1 13191:1 13192:1 
0.05 0 29:1 30:1 31:1 36:1 53:1 58:2.5 59:4 60:1 87:4 135:1 140:1 142:1 280:1 299:1 302:1 371:1 490:1 666:1 686:1 689:1 892:1 913:1 1713:1 1944:1 2191:1 2295:1 2298:1 2691:1 2995:1 2996:1 2998:1 2999:1 3796:1 3801:1 3815:1 4347:1 5704:1 6692:1 7212:1 12945:1 12958:1 12959:1 12960:1 12961:1 12962:1 12963:1 12964:1 13191:1 13192:1 13193:1 
0.005163897896794238 0 31:1 36:1 40:1 43:1 50:1 51:1 58:2.5 59:3 60:2 69:1 77:1 87:2 121:1 123:1 285:1 352:1 360:1 363:1 370:1 373:1 377:1 1354:1 1783:1 1784:1 1850:1 1932:1 2051:1 2054:1 2611:1 2747:1 2861:1 3356:1 3357:1 4437:1 6931:1 8759:1 9093:1 9110:1 9111:1 9125:1 9127:1 9129:1 9135:1 9137:1 9138:1 9139:1 9140:1 9141:1 
0.04763886994215422 0 31:1 36:1 40:1 43:1 50:1 51:1 58:3.5 59:5 60:2 77:1 87:4 89:1 91:1 94:1 121:1 123:1 154:1 370:1 560:1 809:1 1354:1 1783:1 1784:1 1850:1 1955:1 1958:1 1961:1 1962:1 2092:1 2231:1 2611:1 2747:1 3211:1 6931:1 9093:1 9100:1 9103:1 9105:1 9125:1 9127:1 9129:1 9135:1 9137:1 9138:1 9139:1 9140:1 10601:1 13240:1 13241:1 13242:1 13244:1 
0.04169491502407387 0.0009700501398015661 27:1 28:1 29:2 31:1 36:1 50:1 51:1 58:1.5 59:2 60:1 67:1 123:1 127:1 159:1 275:1 285:1 349:1 350:1 352:1 377:1 445:1 460:1 521:1 568:1 2302:1 2304:1 3829:1 3934:1 3954:1 3955:1 3956:1 3957:1 3961:1 4004:1 5805:1 7198:1 11421:1 13790:1 13791:1 13794:1 13795:1 13796:1 13797:1 13798:1 13799:1 
0.00312222742503653 0 29:1 30:1 33:1 36:1 50:1 51:1 58:2 59:2 60:2 87:1 316:1 317:1 339:1 344:1 348:1 3238:1 3351:1 3934:1 4009:1 4011:1 4013:1 4020:1 4022:1 4026:1 4027:1 4028:1 4030:1 4031:1 4032:1 4033:1 4035:1 4036:1 4408:1 4606:1 4650:1 5819:1 5820:1 5821:1 5822:1 11421:1 13800:1 13801:1 13802:1 13803:1 13804:1 13805:1 13806:1 
0.02884829677915932 0 27:1 28:1 29:2 30:1 31:2 33:1 36:1 50:1 51:1 67:1 68:1 127:1 159:1 342:1 445:1 460:1 473:1 945:1 1231:1 2697:1 2698:1 2706:1 2882:1 3530:1 3764:1 3767:1 3985:1 3986:1 4475:1 4476:1 4481:1 12123:1 12124:1 13876:1 13877:1 13878:1 13879:1 13880:1 13881:1 13882:1 13883:1 13884:1 
0.04826061468664117 0 4:1 5:1 6:1 7:1 8:1 18:1 24:1 26:1 29:1 30:1 31:1 32:1 34:1 35:1 36:1 37:1 38:1 53:1 57:1 58:2 59:2 60:2 77:1 87:5 98:1 127:1 159:1 160:1 474:1 488:1 490:2 508:1 686:1 689:1 894:1 905:1 1481:1 1774:1 3581:1 4077:1 4662:1 4663:1 4664:1 13885:1 13886:1 13887:1 13888:1 13889:1 13890:1 13891:1 13892:1 13893:1 13894:1 13895:1 13896:1 13897:1 
0.02958800772622235 0.0002622320558813709 24:1 27:1 28:1 29:2 30:1 31:2 33:1 36:1 50:1 51:1 101:1 127:1 159:1 460:1 473:1 945:1 3159:1 13904:1 13905:1 13906:1 13907:1 13908:1 13909:1 13910:1 13911:1 13912:1 13913:1 13914:1 13915:1 13916:1 13917:1 13918:1 13919:1 13920:1 13921:1 13922:1 13923:1 13924:1 13925:1 13926:1 
0.001767376021255172 0.003973478023851931 30:1 31:1 33:1 34:1 36:1 50:1 51:1 58:3 59:4 60:2 87:2 121:1 193:1 204:1 209:1 211:1 221:1 224:1 225:1 381:1 382:1 407:1 408:1 409:1 411:1 412:1 919:1 1917:1 4870:1 9537:1 12190:1 12475:1 12477:1 12479:1 12480:1 12481:1 12482:1 12483:1 13929:1 13949:1 13950:1 13951:1 13952:1 13953:1 13954:1 13955:1 13956:1 13957:1 13958:1 13959:1 13960:1 13961:1 13962:1 13963:1 
0.03378540476925536 0.007671892803946649 30:1 31:2 34:1 36:1 50:1 51:1 58:4.5 59:5 60:4 67:1 87:15 89:1 121:1 193:1 211:1 256:1 285:1 338:1 352:1 360:1 363:1 370:1 373:1 377:1 381:1 382:1 400:1 406:1 407:1 408:1 409:1 411:1 412:1 672:1 675:1 813:1 846:1 1917:1 4437:1 4775:1 4788:1 5791:1 5793:1 7478:1 12190:1 12475:1 12479:1 12480:1 12481:1 13929:1 13949:1 13950:1 13951:1 13952:1 13953:1 13954:1 13961:1 13964:1 13965:1 13966:1 13967:1 13968:1 13969:1 13970:1 13971:1 13972:1 13973:1 13974:1 13975:1 
0.01638838314916901 0 27:1 28:1 29:2 31:1 36:1 50:1 51:1 53:1 56:1 58:1.5 59:2 60:1 123:1 127:1 135:1 159:1 316:1 460:1 4376:1 4393:1 14110:1 14111:1 14112:1 14113:1 14114:1 14115:1 14116:1 14117:1 14118:1 14119:1 14120:1 14121:1 14122:1 14123:1 14124:1 14125:1 14126:1 14127:1 14128:1 14129:1 14130:1 14131:1 14132:1 14133:1 14134:1 
0.03736994343968445 0 29:1 31:1 33:1 36:1 50:1 51:1 58:1.5 59:2 60:1 87:2 89:1 123:1 127:1 159:1 316:1 338:1 384:1 395:1 397:1 460:1 2215:1 3081:1 3082:1 3570:1 3724:1 3805:1 3879:1 3973:1 4558:1 4586:1 5813:1 9465:1 10337:1 12014:1 12015:1 14150:1 14151:1 14152:1 14153:1 14154:1 14155:1 14156:1 14157:1 14158:1 14159:1 14160:1 14161:1 14162:1 14163:1 14164:1 
0.05 0.0009646211751904838 29:1 32:1 36:1 40:1 43:1 44:1 50:1 51:1 58:1.5 59:2 60:1 67:1 87:1 91:1 94:1 95:1 425:1 541:1 551:1 558:1 733:1 3302:1 3813:1 3992:1 3997:1 3998:1 4526:1 4527:1 5123:1 5124:1 5644:1 12418:1 14165:1 14166:1 14184:1 14185:1 14186:1 14187:1 14188:1 14189:1 14190:1 14191:1 14192:1 14193:1 14194:1 14195:1 14196:1 
0 0.02241261454504283 27:1 28:1 29:1 30:1 31:1 36:1 50:1 51:1 121:1 178:1 248:1 316:1 342:1 746:1 764:1 2599:1 2815:1 3081:1 3082:1 3573:1 3656:1 3672:1 3677:1 3837:1 3880:1 3903:1 3934:1 3937:1 3938:1 4198:1 11420:1 13791:1 14242:1 14243:1 14244:1 14245:1 14246:1 14247:1 
0.04100675256902975 0.003509278559719092 27:1 28:1 29:1 30:1 36:1 50:1 51:1 121:1 180:1 316:1 342:1 521:1 746:1 764:1 1013:1 2599:1 3238:1 3573:1 3672:1 3677:1 3837:1 3880:1 3903:1 3934:1 4079:1 4156:1 4198:1 10227:1 11315:1 11420:1 14242:1 14243:1 14244:1 14245:1 14248:1 14249:1 14250:1 14251:1 14252:1 14253:1 14254:1 14255:1 14256:1 
0.05 0.03367740923468814 8:1 30:1 31:1 33:2 36:1 58:2.5 59:3 60:2 77:1 87:7 89:1 127:1 159:1 160:1 176:1 248:1 274:1 277:1 283:1 285:1 288:1 303:1 316:1 342:1 377:1 813:1 1783:1 1784:1 3152:1 3184:1 3194:1 3195:1 3729:1 3731:1 3732:1 3761:1 4483:1 4487:1 9374:1 10904:1 14303:1 14304:1 14305:1 14306:1 14307:1 14311:1 14312:1 14313:1 14314:1 14315:1 14316:1 14317:1 14318:1 14319:1 14320:1 14321:1 
0.0139135257603256 0 29:1 30:1 33:1 36:1 50:1 51:1 58:2 59:2 60:2 87:1 248:1 339:1 342:1 344:1 348:1 668:1 2811:1 3351:1 4013:1 4022:1 4026:1 4027:1 4028:1 4030:1 4031:1 4032:1 4033:1 4035:1 4036:1 4376:1 4377:1 4387:1 4390:1 4391:1 4392:1 4393:1 4400:1 5312:1 9554:1 14343:1 14344:1 14345:1 14346:1 14347:1 14348:1 14349:1 14350:1 14351:1 
0.05 0 30:1 31:1 36:1 50:1 51:1 58:3 59:4 60:2 87:14 89:2 123:1 204:1 209:1 211:1 256:1 283:1 316:1 317:1 333:1 334:1 338:1 344:1 348:1 551:1 672:1 813:1 3382:1 3983:1 3984:1 3985:1 3986:1 4030:1 4032:1 4035:1 4524:1 5093:1 5125:1 9336:1 11023:1 12081:1 13276:1 13277:1 13840:1 14329:1 14353:1 14354:1 14355:1 14356:1 14357:1 14358:1 14359:1 14364:1 14366:1 14367:1 14368:1 14369:1 14370:1 14373:1 14375:1 14376:1 14377:1 
0 0.0006876505061274785 27:1 28:1 29:3 30:1 31:3 33:6 36:1 50:1 51:1 316:1 317:1 318:1 342:1 343:1 344:1 348:1 666:1 2815:1 3232:1 3530:1 3764:1 3765:1 3766:1 3767:1 3773:1 3774:1 3793:1 3804:1 3855:1 3985:1 3986:1 4030:1 5174:1 5305:1 5321:1 5322:1 8665:1 8675:1 9491:1 12128:1 12160:1 12309:1 14325:1 14326:1 14388:1 14389:1 14390:1 14391:1 14392:1 14393:1 14394:1 14395:1 14396:1 
0.009675800494582493 0 29:3 30:1 31:1 33:1 36:1 50:1 51:1 58:2 59:2 60:2 87:2 316:1 317:1 318:1 331:1 333:1 342:1 343:1 344:1 348:1 2145:1 3764:1 3765:1 3766:1 3767:1 3793:1 3804:1 3811:1 4003:1 4005:1 4006:1 4023:1 4030:1 4032:1 4035:1 4524:1 5321:1 5322:1 12128:1 12160:1 13276:1 13277:1 14322:1 14323:1 14324:1 14325:1 14326:1 14375:1 14388:1 14389:1 14397:1 14398:1 14399:1 
0.03567354812961309 0.001284321556712464 29:3 30:1 31:1 36:1 50:1 51:1 58:4 59:6 60:2 87:15 89:1 123:1 211:1 248:1 256:1 280:1 285:1 316:1 317:1 318:1 331:1 333:1 340:1 342:1 343:1 344:1 348:1 352:1 377:1 402:1 490:1 813:1 2802:1 3194:1 3764:1 3765:1 3766:1 3767:1 3793:1 3804:1 3815:1 4006:1 4030:1 4533:1 4810:1 4826:1 5271:1 5321:1 5322:1 7171:1 11012:1 12128:1 12160:1 14118:1 14119:1 14120:1 14121:1 14373:1 14388:1 14389:1 14400:1 14401:1 14402:1 14403:1 14404:1 14405:1 14406:1 
0 0.005576266102287885 27:1 28:1 29:3 30:1 31:2 33:2 36:1 50:1 51:1 123:1 316:1 317:1 318:1 343:1 344:1 348:1 3382:1 3530:1 3764:1 3766:1 3767:1 3774:1 3783:1 3793:1 3804:1 3985:1 3986:1 4000:1 4030:1 4456:1 5125:1 5321:1 5322:1 5665:1 9428:1 12081:1 12309:1 13840:1 14391:1 14415:1 14416:1 14417:1 14418:1 14419:1 
0.009141192334283586 0 29:4 31:1 36:1 50:1 51:1 58:3 59:4 60:2 67:1 87:5 121:1 215:1 218:1 219:1 275:1 285:1 316:1 317:1 352:1 370:1 373:1 377:1 400:1 405:1 406:1 426:1 429:1 892:1 895:1 906:1 913:1 999:1 3574:1 3575:1 3699:1 3701:1 3765:1 3766:1 3983:1 3984:1 3985:1 3986:1 4410:1 4411:1 4412:1 4414:1 4434:1 4437:1 4438:1 4557:1 4594:1 5690:1 9514:1 11211:1 11217:1 12128:1 14420:1 14421:1 14422:1 14423:1 
0.05 0.001448837689357582 8:1 29:2 30:1 31:1 33:2 36:1 77:1 87:2 123:1 127:1 159:1 160:1 176:1 303:1 316:1 342:1 1783:1 1784:1 2861:1 3185:1 3527:1 3530:1 3773:1 3852:1 3853:1 3854:1 3855:1 3856:1 3858:1 3861:1 3862:1 3863:1 3864:1 4055:1 4056:1 5188:1 5189:1 5190:1 5191:1 5200:1 9386:1 12128:1 12146:1 14431:1 14432:1 
0.05 0.004956813752970874 29:2 30:1 31:1 36:1 50:1 51:1 67:1 87:2 123:1 275:1 285:1 352:1 370:1 373:1 377:1 2832:1 3180:1 3205:1 3764:1 3765:1 3767:1 3811:1 3879:1 3983:1 3984:1 3985:1 3986:1 3999:1 4410:1 4411:1 4414:1 4434:1 4437:1 4438:1 5125:1 5167:1 9417:1 9446:1 12159:1 14416:1 
0.05 0.03275691256773508 29:1 30:1 31:2 36:1 58:2 59:3 60:1 67:1 87:2 123:1 176:1 274:1 275:1 277:1 283:1 285:1 288:1 303:1 377:1 408:1 411:1 574:1 722:1 723:1 800:1 3243:1 3287:1 3805:1 3887:1 3989:1 4293:1 12412:1 12413:1 12414:1 12415:1 12416:1 14448:1 14463:1 14464:1 14465:1 14466:1 14467:1 14468:1 14469:1 14470:1 14471:1 14472:1 14473:1 14474:1 14475:1 
0.01688615809667404 0 30:1 31:1 36:1 50:1 51:1 58:2 59:2 60:2 87:8 193:1 211:1 282:1 316:1 317:1 318:1 331:1 333:1 342:1 343:1 344:1 348:1 497:2 873:1 3238:1 3815:1 3959:1 3983:1 3984:1 3985:1 3986:1 3992:1 3997:1 3998:1 4001:1 4006:1 4030:1 4032:1 4035:1 4524:1 4795:1 5321:1 10227:1 13276:1 13277:1 14165:1 14166:1 14185:1 14187:1 14376:1 14476:1 14477:1 14478:1 
0 0.0004945173701710538 29:1 30:1 31:1 33:1 36:1 58:2 59:2 60:2 87:1 123:1 248:1 316:1 317:1 318:1 331:1 333:1 343:1 344:1 348:1 362:1 371:1 1944:1 3549:1 3764:1 3767:1 3958:1 3962:1 3963:1 3964:1 4030:1 4032:1 4524:1 5321:1 5322:1 9490:1 9492:1 9506:1 9507:1 12128:1 12382:1 13276:1 14494:1 14495:1 14496:1 14497:1 14498:1 14499:1 14500:1 14501:1 14502:1 
0 0.005262319721039065 29:1 30:1 31:1 36:1 50:1 51:1 58:4 59:6 60:2 67:1 87:7 89:1 123:1 275:1 280:1 285:1 316:1 317:1 318:1 331:1 333:1 343:1 344:1 348:1 352:1 377:1 813:1 3184:1 3194:1 3764:1 3767:1 3962:1 3963:1 3964:1 3983:1 3984:1 3985:1 3986:1 3991:1 4004:1 4030:1 4410:1 4411:1 4414:1 4487:1 5321:1 5322:1 7171:1 12128:1 12382:1 12409:1 14320:1 14454:1 14494:1 14503:1 
0.03444672147197746 0 29:2 30:1 31:1 36:1 50:1 51:1 58:3.5 59:5 60:2 87:16 89:1 123:1 256:1 282:1 283:2 285:1 301:1 316:1 317:1 328:1 333:1 337:1 339:1 344:1 348:1 352:1 377:1 490:1 497:1 688:1 813:2 873:1 874:1 876:1 3194:1 3351:1 3764:1 3767:1 3805:1 3934:1 3952:1 3975:1 3983:1 3984:1 3985:1 3986:1 3991:1 4009:1 4011:1 4013:1 4026:1 4028:1 4030:1 4217:1 4408:1 4412:1 4415:1 5316:1 7171:1 11032:1 11313:1 11586:1 12409:1 14504:1 
0 0.01048843005427743 29:2 30:1 31:1 36:1 50:1 51:1 58:4.5 59:7 60:2 67:1 87:18 89:2 91:1 94:1 123:1 282:1 283:2 301:1 316:1 317:1 333:1 337:1 338:1 339:1 344:1 348:1 490:1 497:1 523:1 527:1 541:1 558:1 560:1 813:2 3351:1 3764:1 3767:1 3805:1 3934:1 3954:1 3955:1 3956:1 3957:1 3975:1 3991:1 4009:1 4011:1 4013:1 4026:1 4028:1 4030:1 4217:1 4408:1 4412:1 4415:1 4625:1 4626:1 11012:1 11032:1 11313:1 11586:1 12410:1 12411:1 14505:1 14506:1 
0.02255175285114399 0.01367349844507429 30:1 31:1 36:1 50:1 51:1 58:4 59:6 60:2 87:7 123:1 285:1 316:1 317:1 333:1 339:1 344:1 348:1 352:1 377:1 642:1 813:1 919:1 3184:1 3194:1 3238:1 3351:1 3623:1 3829:1 3983:1 3984:1 3985:1 3986:1 3991:1 3992:1 4013:1 4026:1 4028:1 4030:1 4408:1 4412:1 7171:1 9450:1 9451:1 12409:1 14185:1 14187:1 14441:1 14442:1 14454:1 14526:1 14527:1 14528:1 
0 0.009903653456944526 30:1 31:1 33:1 36:1 50:1 51:1 58:2 59:2 60:2 87:3 248:1 316:1 317:1 318:1 331:1 333:1 343:1 344:1 348:1 3992:1 4000:1 4002:1 4030:1 4032:1 4035:1 4380:1 4381:1 4483:1 4484:1 4486:1 4487:1 4524:1 5321:1 7380:1 9490:1 9492:1 12226:1 12227:1 12228:1 12229:1 13276:1 13277:1 14308:1 14447:1 14459:1 14502:1 14532:1 14533:1 14534:1 
0.01227237302596368 0.01799020008765358 30:1 31:1 36:1 50:1 51:1 58:3.5 59:5 60:2 87:10 89:1 211:1 280:1 285:1 316:1 317:1 318:1 331:1 333:1 343:1 344:1 348:1 352:1 377:1 813:1 919:1 3184:1 3194:1 3238:1 3623:1 3812:1 3814:1 3815:1 3983:1 3984:1 3985:1 3986:1 3992:1 4000:1 4030:1 4483:1 4487:1 4533:1 5321:1 7171:1 10904:1 12226:1 12227:1 12228:1 12229:1 12406:1 12409:1 14320:1 14447:1 14459:1 14535:1 
0.05 0 30:1 31:1 36:1 50:1 51:1 58:5.5 59:9 60:2 87:24 89:3 211:1 280:1 282:1 283:1 285:1 316:1 317:1 318:1 331:1 333:1 338:1 343:1 344:1 348:1 352:1 377:1 497:2 672:1 813:2 873:1 3194:1 3238:1 3382:1 3636:1 3815:2 3959:1 3983:1 3984:1 3985:1 3986:1 3992:2 4000:1 4030:1 4483:1 4487:1 4533:2 4795:1 5321:1 7171:1 10904:1 11012:1 12226:1 12227:1 12228:1 12229:1 12409:1 14185:1 14187:1 14320:1 14447:1 14459:1 14538:1 14539:1 14540:1 
0 0.01913432740365384 30:1 31:1 33:1 36:1 58:2 59:2 60:2 87:2 316:1 317:1 318:1 328:1 331:1 333:1 343:1 344:1 348:1 371:1 1944:1 3958:1 3963:1 3964:1 3992:1 4000:1 4030:1 4032:1 4483:1 4524:1 4778:1 5321:1 9490:1 9492:1 9506:1 11045:1 13276:1 14185:1 14187:1 14375:1 14495:1 14496:1 14497:1 14501:1 14502:1 14587:1 14588:1 14589:1 14590:1 14591:1 
0.0279856753137465 0 30:1 36:1 50:1 51:1 58:2.5 59:3 60:2 87:5 89:1 91:1 94:1 316:1 317:1 318:1 331:1 333:1 338:1 343:1 344:1 348:1 523:1 527:1 541:1 558:1 919:1 3238:1 3963:1 3964:1 3992:1 4000:1 4030:1 4445:1 4483:1 4487:1 5321:1 11045:1 12309:1 14320:1 14486:1 14487:1 14488:1 14489:1 14587:1 14588:1 14590:1 14592:1 14593:1 14594:1 14595:1 14596:1 
0.05 0.03277105278393987 29:2 30:1 36:1 50:1 51:1 87:2 123:1 256:1 381:1 382:1 407:1 408:1 409:1 411:1 574:1 642:1 2302:1 2304:1 3238:1 3382:1 3764:1 3767:1 3811:1 3816:1 3933:1 3934:1 9385:1 9405:1 9407:1 9554:1 11315:1 12309:1 14486:1 14487:1 14488:1 14489:1 14612:1 14613:1 14614:1 14615:1 14616:1 14617:1 14618:1 
0.01882885713582693 0.004279067172530487 27:1 28:1 29:2 30:1 36:1 50:1 51:1 316:1 317:1 342:1 344:1 348:1 3238:1 3382:1 3404:1 3764:1 3767:1 3934:1 3959:1 4009:1 4011:1 4020:1 4030:1 4198:1 4606:1 9144:1 11313:1 12309:1 14484:1 14486:1 14487:1 14488:1 14489:1 14490:1 14491:1 14492:1 14493:1 
0.00845366127071949 0 30:2 33:1 36:1 50:1 51:1 58:2 59:2 60:2 67:1 87:1 123:1 275:1 339:1 344:1 348:1 733:1 3243:1 3351:1 3559:1 3560:1 3561:1 3562:1 3563:1 3979:1 4013:1 4014:1 4016:1 4017:1 4018:1 4019:1 4022:1 4026:1 4027:1 4028:1 4030:1 4031:1 4032:1 4033:1 4034:1 4035:1 4036:1 4933:1 9640:1 14627:1 14628:1 14633:1 14634:1 
0.003992836654465605 0.001943946424334566 27:1 28:1 29:2 30:1 31:3 33:1 36:1 50:1 51:1 256:1 299:1 316:1 342:1 395:1 1482:2 1617:1 1702:1 1709:1 1917:1 2815:1 3232:1 3530:1 3700:1 3703:1 3706:1 3708:1 3764:1 3767:1 3793:1 3803:1 3804:1 3985:1 3986:1 4023:1 4399:1 5174:1 5176:1 8665:1 8675:1 9465:1 10337:1 14163:1 14875:1 14876:1 14877:1 14878:1 14879:1 14880:1 14881:1 14882:1 14883:1 14884:1 
0.01661617632372476 0 27:1 28:1 29:2 30:1 31:3 33:1 36:1 50:1 51:1 123:1 193:1 318:1 343:1 344:1 348:1 892:1 913:1 919:1 1016:1 1482:1 1617:1 2066:1 2811:1 3232:1 3238:1 3530:1 3623:1 3700:1 3706:1 3708:1 3764:1 3767:1 3985:1 3986:1 4030:1 4406:1 5312:1 5321:1 5322:1 9428:1 12135:1 12136:1 12137:1 12309:1 14391:1 14880:1 14885:1 14886:1 14887:1 14888:1 14889:1 
0.04951098479493331 0 27:1 28:1 29:1 30:2 31:4 33:6 36:1 50:1 51:1 123:1 342:1 344:1 348:1 800:1 839:1 2066:3 2811:1 3221:1 3222:2 3225:1 3226:1 3232:3 3233:1 3323:1 3530:1 3700:1 3706:1 3708:1 3764:1 3767:1 3810:1 3985:1 3986:1 4030:1 5125:1 5312:1 5654:1 8665:1 8675:1 9428:1 12081:1 12309:2 12994:1 14418:1 14888:1 14904:1 14905:1 14906:1 14907:1 14908:1 14909:1 14910:1 14911:1 14912:1 14913:1 14914:1 14915:1 14916:1 14917:1 14918:1 14919:1 14920:1 
0 0.004026767390485205 29:2 31:1 33:1 36:1 58:2 59:2 60:2 67:1 87:1 121:1 123:1 200:1 215:1 218:1 219:1 221:1 371:1 400:1 405:1 406:1 426:1 429:1 473:1 892:1 895:1 906:1 1944:1 2697:1 2698:1 3202:1 3232:1 3574:1 3575:1 4548:1 4625:1 4626:1 5255:1 5256:1 5259:1 9510:1 9511:1 14600:1 14921:1 14922:1 14923:1 14924:1 14925:1 14926:1 14931:1 14933:1 14934:1 14935:1 14936:1 14937:1 14938:1 14939:1 14940:1 
0 0.0031094063913202 29:1 31:1 33:1 36:1 58:3.5 59:5 60:2 67:1 87:1 121:1 123:1 200:1 221:1 371:1 400:1 405:1 406:1 425:1 426:1 429:1 430:1 431:1 432:1 434:1 892:1 913:1 1944:1 2811:1 3202:1 3232:1 4548:1 4601:1 4625:1 4626:1 5255:1 5256:1 5259:1 9510:1 9511:1 10940:1 14171:1 14600:1 14922:1 14923:1 14926:1 14933:1 14934:1 14935:1 14936:1 14937:1 14938:1 14939:1 14941:1 14942:1 
0.05 0.01965591326599356 8:1 30:1 32:1 33:2 36:1 58:2.5 59:3 60:2 67:1 77:1 87:6 89:1 176:1 256:1 285:1 288:1 289:1 303:1 316:1 1783:1 1784:1 1917:1 3188:1 3189:1 3193:1 3545:1 3547:1 3640:1 3641:1 3642:1 3643:1 3773:1 3774:1 3855:1 3992:1 4365:1 4367:1 4389:1 4625:1 6493:1 6495:1 9728:1 9963:1 10809:1 10816:1 10903:1 10905:1 10909:1 10910:1 10911:1 12037:1 12190:1 14176:1 14961:1 14963:1 14964:1 
0.03876231821473831 0.01294920623006384 8:1 29:2 30:1 32:1 33:4 36:1 58:2 59:2 60:2 67:1 77:1 87:6 89:1 123:1 127:1 159:1 160:1 176:1 274:1 277:1 283:1 285:1 288:1 289:1 303:1 316:1 1783:1 1784:1 3225:1 3233:1 3287:1 3545:1 3547:1 3620:1 3662:1 3773:1 3774:1 3845:1 3846:1 3847:1 3848:1 3849:1 3856:1 4353:1 4354:1 4483:1 4487:1 4625:1 4626:1 5653:1 9427:1 10809:1 10816:1 10903:1 10905:1 10909:1 10910:1 10911:1 13868:1 15054:1 15055:1 15056:1 
0.04827832720832149 0 8:1 29:2 30:1 32:1 33:2 36:1 58:3.5 59:5 60:2 67:1 77:1 87:9 89:1 91:1 123:1 127:1 159:1 160:1 176:1 283:1 303:1 316:1 338:1 523:1 527:1 541:1 706:1 708:1 1783:1 1784:1 3287:1 3545:1 3547:1 3620:1 3662:1 3773:1 3845:1 3846:1 3847:1 3848:1 3849:1 3855:1 3856:1 4305:1 4353:1 4354:1 4483:1 4487:1 4575:1 4625:1 4626:1 5006:1 5670:1 10809:1 10905:1 13868:1 15054:1 15057:1 15058:1 15059:1 15060:1 
0.0470111501382404 0.005720403074895131 27:1 28:1 30:1 31:1 36:1 50:1 51:1 58:1.5 59:2 60:1 127:1 159:1 160:1 284:1 285:1 352:1 377:1 599:1 666:1 778:1 783:1 789:1 3993:1 6821:1 6823:1 6832:1 6833:1 15209:1 15210:1 15211:1 15212:1 15213:1 15214:1 15215:1 15216:1 15220:1 15221:1 15222:1 15236:1 15249:1 15250:1 15251:1 15252:1 15253:1 15254:1 15255:1 15256:1 
0.00199494811750062 0.002387191160261102 27:1 28:1 29:2 30:1 31:1 33:1 36:1 37:1 38:1 58:2 59:2 60:2 236:1 248:1 342:1 344:1 348:1 892:1 913:1 3202:1 3287:1 3351:1 3706:1 3708:1 4028:1 4030:1 4031:1 4032:1 4285:1 4400:1 4524:1 4567:1 5326:1 5834:1 7380:1 8558:1 8560:1 11224:1 15382:1 15383:1 15384:1 15385:1 15386:1 15387:1 15388:1 15389:1 15390:1 15391:1 15392:1 
0.03859472603616352 0.01333332422766267 8:1 29:1 30:1 31:1 33:2 36:1 58:2 59:2 60:2 77:1 87:1 115:1 120:1 176:1 303:1 316:1 342:1 344:1 348:1 1783:1 1784:1 3527:1 3530:1 3829:1 3856:1 4030:1 4032:1 4055:1 4056:1 4524:1 5232:1 5719:1 10899:1 10969:1 12373:1 14175:1 15410:1 15411:1 15412:1 15413:1 15414:1 15415:1 15416:1 15417:1 15418:1 15419:1 15420:1 15421:1 15422:1 15423:1 15424:1 
0.04965606320467185 0 30:1 31:1 33:1 36:1 58:2.5 59:3 60:2 87:3 305:1 308:1 339:1 342:1 371:1 1944:1 2811:1 3243:1 4031:1 4032:1 4203:1 4222:1 4518:1 4519:1 4524:1 5144:1 8683:1 8685:1 8687:1 9489:1 9491:1 9506:1 10995:1 11248:1 11250:1 12068:1 15292:1 15293:1 15451:1 15452:1 15453:1 15454:1 15455:1 15456:1 15457:1 15458:1 15459:1 15460:1 15461:1 15462:1 15463:1 15464:1 
0.05 0.05 29:1 30:1 31:1 33:3 36:1 58:4 59:5 60:3 87:5 176:1 274:1 277:1 283:2 285:1 288:1 303:1 377:1 408:1 411:1 574:1 722:1 723:1 799:1 800:1 810:1 811:1 813:1 3184:1 3194:1 3195:1 3243:1 3799:1 3800:1 3856:1 3887:1 3972:1 3975:1 4203:1 5630:1 9373:1 14464:1 14465:1 14471:1 15457:1 15556:1 15557:1 15558:1 15559:1 15561:1 15591:1 15592:1 15593:1 15594:1 15595:1 
0.05 0 30:1 36:1 50:1 51:1 53:1 56:1 58:1.5 59:2 60:1 87:2 250:1 408:1 411:1 574:1 626:1 2471:1 3243:1 4040:1 4378:1 8862:1 12309:1 14281:1 14282:1 14283:1 14284:1 14291:1 14486:1 14487:1 14488:1 14489:1 14612:1 14613:1 14614:1 14615:1 14616:1 14617:1 14618:1 15636:1 15637:1 15639:1 15643:1 15644:1 15645:1 15646:1 15685:1 15686:1 15687:1 15688:1 
0.0458785259603179 0.01164108139995673 2:1 4:1 8:1 29:1 30:1 31:1 33:2 36:1 58:2 59:2 60:2 77:1 87:1 115:1 120:1 123:1 176:1 303:1 316:1 344:1 348:1 688:1 1783:1 1784:1 3351:1 3527:1 3530:1 3856:1 3979:1 4028:1 4030:1 4031:1 4032:1 4524:1 5230:1 5232:1 5306:1 5309:1 5719:1 15366:1 15411:1 15412:1 15418:1 15424:1 15707:1 15708:1 15709:1 15710:1 15711:1 15712:1 15713:1 
0.007164276813474351 0 30:2 36:1 50:1 51:1 53:1 56:1 58:1.5 59:2 60:1 67:1 87:2 123:1 407:1 408:1 409:1 411:1 574:1 3242:1 3243:1 3371:1 3377:1 3390:1 4625:1 4626:1 5633:1 12309:1 14486:1 14487:1 14488:1 14489:1 14576:1 14578:1 14612:1 14613:1 14614:1 14615:1 14616:1 14617:1 14618:1 15631:1 15636:1 15639:1 15646:1 15685:1 15686:1 15718:1 15719:1 15720:1 15721:1 15722:1 
0.05 0.02047851376907056 29:1 30:1 31:1 36:1 58:3.5 59:4 60:3 87:2 123:1 176:1 256:1 274:1 277:1 283:1 285:1 288:1 303:1 377:1 408:1 411:1 574:1 722:1 723:1 800:1 892:1 913:1 3243:1 3887:1 3928:1 4184:1 9336:1 9353:1 9354:1 9571:1 9572:1 10838:1 10839:1 11256:1 12208:1 12209:1 12210:1 12211:1 15436:1 15437:1 15438:1 15446:1 15735:1 15742:1 15743:1 15744:1 
0.05 0.03012619446459675 29:1 30:1 31:1 36:1 58:4 59:4 60:4 67:1 68:1 87:6 89:1 123:1 176:1 274:1 277:1 282:1 283:2 285:1 288:1 303:1 377:1 408:1 411:1 574:1 722:1 723:1 800:1 892:1 913:1 3243:1 3887:1 3968:1 3969:1 3970:1 3971:1 4795:1 9336:1 9353:1 9354:1 10838:1 10839:1 11261:1 11262:1 11263:1 11264:1 12407:1 15436:1 15440:1 15446:1 15628:1 15742:1 15743:1 15745:1 
0.05 0.008249767418032827 1:1 2:1 3:1 4:1 5:1 6:1 7:1 8:1 29:1 30:1 31:1 33:1 34:1 35:1 36:1 50:1 51:1 67:1 68:1 69:1 75:1 76:1 77:1 87:3 89:1 110:1 113:1 114:1 115:1 120:1 127:1 159:1 460:1 3581:1 4064:1 4065:1 4069:1 15798:1 15799:1 15805:1 15806:1 15810:1 15811:1 15812:1 15813:1 
0.0183882669686324 0.008344918556139034 6:1 7:1 8:1 21:1 27:1 28:1 29:1 30:1 31:2 33:1 34:1 35:1 36:1 37:1 38:1 68:1 127:1 138:1 139:1 140:1 141:1 142:1 143:1 144:1 145:1 148:1 150:1 151:1 152:1 154:1 155:1 156:1 157:1 158:1 159:1 160:1 7343:1 15822:1 15823:1 15824:1 
0.02103232364356593 0.004670219858974947 30:1 32:1 36:1 50:1 51:1 58:3.5 59:4 60:3 67:1 87:6 127:1 159:1 160:1 285:1 289:1 316:1 321:1 322:1 323:1 324:1 342:1 352:1 813:1 2802:1 2896:1 3194:1 3991:1 4407:1 4826:1 4864:1 7171:1 10894:1 10949:1 15844:1 15846:1 15848:1 15865:1 15866:1 15867:1 15868:1 15869:1 15870:1 15871:1 15872:1 15873:1 15874:1 15875:1 15876:1 15877:1 15878:1 15879:1 15880:1 15881:1 
0.00894662609995008 0.01617850710466752 27:1 28:1 29:1 30:1 32:1 34:1 35:1 36:1 40:1 43:1 44:1 50:1 51:1 68:1 101:1 138:1 139:1 140:1 141:1 142:1 154:1 155:1 164:1 165:1 167:1 1069:1 2882:1 7343:1 15824:1 15882:1 15883:1 15884:1 15885:1 15886:1 15887:1 15888:1 15889:1 
0.01213886018928743 0 30:1 31:1 36:1 50:1 51:1 53:1 56:1 58:2.5 59:3 60:2 87:3 89:1 135:1 344:1 348:1 490:1 666:1 686:1 689:1 843:1 1248:1 2811:1 3402:1 3403:1 4030:1 5312:1 9067:1 9068:1 9486:1 9495:1 9496:1 9500:1 9501:1 15890:1 15891:1 15901:1 15905:1 15906:1 15907:1 15908:1 15909:1 15910:1 15911:1 15912:1 15913:1 15914:1 15915:1 15916:1 
0.01563575370709836 0 30:1 31:2 36:1 50:1 51:1 58:3.5 59:5 60:2 67:1 68:1 69:1 87:6 89:2 91:1 94:1 338:1 344:1 348:1 490:2 523:1 527:1 541:1 558:1 560:1 1150:1 1248:1 2811:1 3402:1 3403:1 4030:1 5312:1 9067:1 9068:1 9486:1 9495:1 9496:1 9500:1 9501:1 14120:1 14121:1 15890:1 15891:1 15901:1 15912:1 15917:1 15918:1 15919:1 15920:1 15921:1 15922:1 15923:1 
0.05 0.03203855654294799 30:1 31:1 36:1 53:1 58:4 59:6 60:2 69:1 87:6 89:2 135:1 176:1 303:1 338:1 344:1 348:1 395:1 416:1 490:2 523:1 527:1 1150:1 1248:1 2811:1 3402:1 3403:1 4030:1 5312:1 9067:1 9068:1 9486:1 9495:1 9496:1 9500:1 9501:1 15890:1 15891:1 15901:1 15912:1 15918:1 15919:1 15920:1 15921:1 15924:1 15925:1 15926:1 15927:1 15928:1 15929:1 15930:1 
0.05 0.01159545086665613 30:1 32:1 36:1 40:1 43:1 50:1 51:1 58:3 59:4 60:2 87:3 280:1 285:1 289:1 342:1 349:1 350:1 352:1 473:1 1009:1 2160:1 2162:1 4400:1 5727:1 5757:1 5761:1 9203:1 14753:1 14754:1 16130:1 16132:1 16134:1 16148:1 16149:1 16150:1 16151:1 16152:1 16153:1 16196:1 16197:1 16198:1 16199:1 16200:1 16201:1 16202:1 16203:1 16204:1 16205:1 
0.01552051645222654 0.001043001597327215 29:1 31:2 33:1 36:1 50:1 51:1 53:1 56:1 58:8 59:11 60:5 87:4 121:1 123:1 370:1 408:1 411:1 412:1 417:1 813:1 3180:1 3184:1 3205:1 3276:1 3879:1 4586:1 9203:1 10973:1 10975:1 10982:1 15458:1 16181:1 16182:1 16183:1 16184:1 16185:1 16186:1 16187:1 16188:1 16189:1 16191:1 16192:1 16193:1 16194:1 16252:1 16253:1 16254:1 16255:1 16256:1 16257:1 16258:1 16259:1 16260:1 16261:1 
0.05 0.005592869284261479 29:1 31:1 36:1 50:1 51:1 58:3 59:3 60:3 67:1 87:10 89:1 121:1 123:1 273:1 282:1 284:1 285:1 352:1 370:1 377:1 408:1 411:1 412:1 813:1 3180:1 3205:1 3276:1 3451:1 3879:1 3993:1 4586:1 10975:1 10982:1 12516:1 15470:1 15471:1 15473:1 16191:1 16207:1 16208:1 16209:1 16210:1 16211:1 16212:1 16213:1 16214:1 16215:1 16216:1 16252:1 16253:1 16254:1 16255:1 16256:1 16257:1 16258:1 16259:1 16260:1 16262:1 
0.02077056217570286 0 29:3 30:2 31:1 36:1 50:1 51:1 58:4 59:4 60:4 67:1 87:4 204:1 209:1 211:1 280:1 285:1 326:1 349:1 350:1 352:1 377:1 408:1 411:1 474:1 488:1 490:1 574:1 722:1 723:1 764:1 889:1 892:1 2599:1 3177:1 3243:1 3887:1 4400:1 4625:1 4626:1 5761:1 5773:1 5778:1 9559:1 11503:1 11505:1 12556:1 12982:1 12983:1 14464:1 14465:1 16199:1 16275:1 16276:1 16277:1 16279:1 16281:1 16282:1 16283:1 16284:1 
0.02285413109360819 0.008421636112066066 29:1 30:1 31:1 33:1 36:1 50:1 51:1 58:2.5 59:3 60:2 87:2 193:1 204:1 209:1 211:1 256:1 262:1 305:1 308:1 382:1 464:1 465:1 675:1 688:1 1198:1 1207:1 3573:1 5144:1 9606:1 9612:1 12944:1 12948:1 16230:1 16232:1 16300:1 16307:1 16308:1 16309:1 16310:1 16311:1 16312:1 16313:1 16314:1 16315:1 16316:1 16317:1 16318:1 16319:1 16320:1 16321:1 16322:1 16323:1 16324:1 16325:1 16326:1 16327:1 16328:1 
0.02854158193774037 0.00022202571186529 29:1 30:1 31:1 36:1 50:1 51:1 58:3.5 59:5 60:2 67:1 87:5 89:1 91:1 94:1 123:1 193:1 211:1 305:1 308:1 382:1 560:1 1198:1 1207:1 3573:1 5144:1 9620:1 9624:1 9625:1 9626:1 11904:1 12972:1 16230:1 16232:1 16300:1 16307:1 16308:1 16309:1 16310:1 16311:1 16312:1 16319:1 16320:1 16321:1 16323:1 16324:1 16329:1 16330:1 16331:1 16332:1 16333:1 16334:1 16335:1 16336:1 16337:1 16338:1 16339:1 16340:1 16341:1 
0.05 0.01665597905699509 29:1 33:1 36:1 53:1 58:2 59:2 60:2 87:1 123:1 127:1 159:1 176:1 303:1 342:1 395:1 416:1 417:1 460:1 529:1 2976:1 2979:1 3443:1 4160:1 4329:1 4331:1 4759:1 5658:1 5659:1 5667:1 5693:1 5694:1 14111:1 14112:1 14542:1 15533:1 16516:1 16518:1 16529:1 16530:1 16531:1 16532:1 16533:1 16534:1 16536:1 16537:1 16538:1 16539:1 
0.05 0 29:2 30:1 32:1 36:1 50:1 51:1 58:2.5 59:3 60:2 87:6 89:1 256:1 280:1 285:1 289:1 339:1 344:1 348:1 349:1 350:1 352:1 521:1 626:1 1917:1 2811:1 3062:1 3065:1 3068:1 3351:1 3764:1 3767:1 3877:1 3878:1 3879:1 3980:1 3990:1 4013:1 4026:1 4028:1 4030:1 4204:1 4366:1 4415:1 4526:1 4527:1 4537:1 5123:1 5124:1 5172:1 5312:1 10904:1 11224:1 14636:1 14969:1 14976:1 16557:1 
0.04563900855395374 0.02987853856889862 27:1 28:1 30:1 32:1 36:1 40:1 43:1 58:1.5 59:2 60:1 176:1 221:1 303:1 316:1 317:1 342:1 627:1 1009:1 1917:1 2488:1 2815:1 3550:1 3610:1 3615:1 4490:1 4491:1 4548:1 4549:1 4551:1 4552:1 5085:1 5305:1 9513:1 14519:1 14520:1 14521:1 14522:1 16574:1 16575:1 16576:1 16577:1 16578:1 16579:1 16580:1 16581:1 16582:1 
0.02164117062483673 0.005493512762056833 33:1 36:1 50:1 51:1 58:2 59:2 60:2 87:3 121:1 215:1 218:1 219:1 221:1 224:1 400:1 405:1 426:1 429:1 643:1 2811:1 3574:1 3575:1 3672:1 3677:1 4184:1 4204:1 4380:1 4381:1 4435:1 4548:1 4658:1 5257:1 5259:1 5312:1 9094:1 11365:1 11810:1 13293:1 14974:1 14975:1 14976:1 16553:1 16554:1 16593:1 16594:1 16595:1 16596:1 16597:1 16598:1 16599:1 16600:1 16601:1 16602:1 16603:1 
0.05 0.05 5:1 6:1 7:1 8:1 15:1 22:1 27:1 28:1 29:2 30:2 31:1 33:1 34:1 35:1 121:1 176:1 178:1 180:1 183:1 535:1 666:1 792:1 894:2 905:2 1014:1 1134:1 1706:1 1783:1 4055:1 4056:1 4096:1 4678:1 4695:1 4696:1 15818:1 16624:1 16625:1 16626:1 16627:1 16628:1 16629:1 16630:1 16631:1 16632:1 16633:1 16634:1 
0.05 0.05 6:1 7:1 8:1 21:1 22:1 27:1 28:1 29:2 30:2 31:1 33:2 34:1 35:1 124:1 140:1 142:1 149:1 171:1 176:1 177:1 178:1 2919:1 2976:1 3793:1 3799:1 3800:1 12495:1 12496:1 16655:1 16656:1 16657:1 16658:1 16659:1 16660:1 16661:1 16662:1 16663:1 
0.007131917215242763 0 27:1 28:1 29:4 30:1 31:2 32:1 33:1 36:1 50:1 51:1 67:1 121:1 123:1 200:1 215:1 218:1 275:1 316:1 317:1 342:1 605:1 894:3 895:1 905:3 906:1 1030:2 1043:2 2082:1 2619:1 2623:1 2666:1 3232:1 3570:1 3766:1 4134:1 5253:2 5301:1 5772:1 5800:1 5802:1 5809:1 6898:1 8675:2 9543:1 10072:1 10592:1 14937:1 16948:1 16949:1 16950:1 16951:1 16952:1 16953:1 16960:1 16962:1 16971:1 16972:1 16973:1 16974:1 16975:1 16976:1 16977:1 16978:1 16979:1 
0.01571449790050629 0 27:1 28:1 29:3 30:1 31:2 32:1 33:1 36:1 50:1 51:1 67:1 121:1 123:1 200:1 275:1 605:1 615:1 618:1 731:1 735:1 894:2 895:1 905:2 906:1 1030:2 1043:2 2082:1 2619:1 2679:1 3232:1 3570:1 3766:1 4134:1 5253:2 5714:1 5772:1 5800:1 5802:1 5809:1 6898:1 8675:2 9434:1 10592:1 14937:1 16949:1 16951:1 16952:1 16953:1 16971:1 16972:1 16973:1 16974:1 16975:1 16976:1 16977:1 16978:1 16979:1 16980:1 16981:1 16982:1 16983:1 16984:1 16985:1 
0.02782787865027055 0 27:1 28:1 29:2 30:1 31:2 32:1 33:1 36:1 50:1 51:1 67:1 121:1 123:1 200:1 275:1 605:1 615:1 618:1 731:1 735:1 894:1 895:1 896:1 905:1 906:1 1030:2 1043:2 2082:1 2619:1 3232:1 3570:1 3766:1 4134:1 5063:1 5253:2 5714:1 5772:1 5800:1 5802:1 5809:1 6898:1 8675:2 10592:1 14937:1 16951:1 16952:1 16953:1 16971:1 16972:1 16973:1 16974:1 16975:1 16976:1 16977:1 16978:1 16979:1 16986:1 16987:1 16988:1 16989:1 16990:1 16991:1 
0.05 0.001650556294576058 29:1 31:1 36:1 58:1.5 59:2 60:1 67:1 87:2 89:1 123:1 127:1 159:1 176:1 285:1 288:1 303:1 338:1 377:1 384:1 397:1 460:1 678:1 679:1 3243:1 3570:1 3886:1 3887:1 4376:1 4390:1 4393:1 11215:1 16583:1 16584:1 16585:1 16586:1 17057:1 17064:1 17065:1 17066:1 17075:1 17076:1 17077:1 17079:1 17080:1 17081:1 17082:1 17083:1 17084:1 
0.05 0.04797160443139721 27:1 28:1 29:1 31:1 36:1 58:2.5 59:4 60:1 67:1 123:1 176:1 285:1 288:1 303:1 377:1 425:1 430:1 431:1 432:1 434:1 445:1 678:1 679:1 3570:1 3850:1 4390:1 4601:1 11215:1 16583:1 16584:1 16585:1 16586:1 17046:1 17047:1 17049:1 17050:1 17079:1 17080:1 17083:1 17085:1 17086:1 17087:1 17088:1 17089:1 
0.02532394732247576 0 30:1 36:1 50:1 51:1 58:2 59:3 60:1 87:2 248:1 339:1 408:1 411:1 574:1 846:1 3238:1 3243:1 4022:1 4027:1 4031:1 4032:1 4033:1 4035:1 4134:1 4221:1 4222:1 4232:1 9601:1 9602:1 12070:1 12263:1 15447:1 17279:1 17280:1 17281:1 17282:1 17283:1 17284:1 17285:1 17286:1 17287:1 17288:1 17289:1 17290:1 17291:1 17292:1 17293:1 
0.03073740330965451 0 29:2 33:1 36:1 58:3 59:4 60:2 87:5 121:1 211:1 215:1 218:1 219:1 248:1 282:1 301:1 316:1 317:1 342:1 371:1 606:1 643:1 1944:1 3699:1 3701:1 3765:1 3766:1 4561:1 4795:1 5167:1 5520:1 8765:1 10980:1 11029:1 11031:1 11034:1 11037:1 12931:1 12932:1 14562:1 15582:1 17302:1 17303:1 17304:1 17305:1 17306:1 17307:1 17308:1 17309:1 17310:1 17311:1 17312:1 17313:1 17314:1 17315:1 17316:1 
0.03829970906480517 0.001371259202305887 30:3 31:1 36:1 50:1 51:1 58:2 59:2 60:2 87:3 316:1 317:1 318:1 331:1 333:1 342:1 343:1 344:1 348:1 3382:1 3573:1 3609:1 3611:1 3621:1 3622:1 3764:1 3767:1 3812:1 3814:1 3815:1 4030:1 4032:1 4035:1 4524:1 5125:1 5321:1 5322:1 5425:1 8687:1 9046:1 9449:1 9450:1 9451:1 9452:1 9487:1 12081:1 13276:1 13277:1 14532:1 17319:1 17389:1 17390:1 
0.03911757386941603 0.003060570609629128 29:2 30:1 31:2 33:1 36:1 50:1 51:1 58:3.5 59:4 60:3 87:5 91:1 94:1 283:1 304:1 305:1 306:1 308:1 560:1 642:1 800:1 877:1 916:1 922:1 924:1 1117:1 1931:1 1935:1 1943:1 3202:1 3243:1 3541:1 3572:1 3764:1 3767:1 3877:1 3878:1 3879:1 3980:1 3985:1 3986:1 5144:1 9385:1 9387:1 9388:1 9424:1 11139:1 12053:1 12656:1 15188:1 17401:1 17402:1 17403:1 17404:1 17405:1 17406:1 17408:1 17409:1 17410:1 17412:1 17413:1 17414:1 
0.04418081912652366 0 29:1 30:2 31:1 36:1 50:1 51:1 58:3.5 59:5 60:2 87:5 193:1 211:1 280:1 285:1 299:1 302:1 304:1 305:1 306:1 308:1 352:1 377:1 813:1 2802:1 3194:1 3238:1 3243:1 3764:1 3767:1 3928:1 3983:1 3984:1 3985:1 3986:1 4011:1 4512:1 4529:1 4532:1 4533:1 4826:1 5125:1 5144:1 7171:1 9404:1 12053:1 12409:1 14400:1 17430:1 17431:1 17432:1 17433:1 17434:1 
0.003211296697212962 0.005946168270599773 30:2 33:1 36:1 58:3 59:4 60:2 67:1 87:4 123:1 282:1 344:1 348:1 371:1 1354:1 1360:1 1726:1 1944:1 3243:1 3541:1 4011:1 4030:1 4561:1 4795:1 5425:1 5520:1 7466:1 11034:1 11037:1 11117:1 11118:1 11125:1 12931:1 12932:1 15582:1 15788:1 15789:1 15792:1 17305:1 17306:1 17314:1 17315:1 17431:1 17432:1 17435:1 17436:1 17437:1 17438:1 17439:1 17440:1 17441:1 17442:1 17443:1 17444:1 17445:1 17446:1 
0 0.004396446394866483 30:1 31:1 36:1 50:1 51:1 58:2 59:2 60:2 87:2 316:1 318:1 331:1 333:1 343:1 344:1 348:1 395:1 3443:1 3979:1 4030:1 4032:1 4035:1 4484:1 4486:1 4487:1 4524:1 5236:1 5321:1 9490:1 9492:1 12382:1 12468:1 12469:1 12470:1 12471:1 13276:1 13277:1 14375:1 14494:1 14502:1 17364:1 17365:1 17610:1 17611:1 17612:1 17613:1 17614:1 17615:1 
0.02377075963854698 0.0004041685344451597 30:1 31:1 36:1 50:1 51:1 58:2 59:2 60:2 87:2 318:1 328:1 331:1 333:1 343:1 344:1 348:1 471:1 1198:1 4030:1 4032:1 4035:1 4484:1 4486:1 4487:1 4524:1 4778:1 5312:1 5321:1 9490:1 9492:1 12226:1 12227:1 12228:1 12229:1 12382:1 13276:1 13277:1 14375:1 14459:1 14494:1 14502:1 14534:1 14589:1 17364:1 17365:1 17633:1 
0.01635793357959398 0 1:1 2:1 3:1 4:1 5:1 6:1 7:1 8:1 11:1 13:1 15:1 18:1 19:1 20:1 21:1 22:1 23:1 27:1 28:1 29:1 30:1 31:6 33:1 34:1 35:1 36:1 50:1 51:1 67:1 68:1 69:1 109:1 110:1 127:1 159:1 460:1 599:1 1030:1 1043:1 1701:1 1708:1 4069:1 4070:1 4079:1 4134:1 8675:1 18051:1 18052:1 18053:1 18054:1 18055:1 18056:1 18057:1 18058:1 18059:1 
0.01268398871494308 0 8:1 22:1 27:1 28:1 29:1 30:1 31:6 32:1 33:1 34:1 35:1 36:1 50:1 51:1 67:1 68:1 69:1 127:1 140:1 142:1 147:1 149:1 159:1 460:1 511:1 513:1 520:1 839:1 1030:1 1043:1 1482:1 1702:1 1709:1 2753:1 2862:1 3232:2 4128:1 4129:1 4131:1 6333:2 7217:1 7218:2 7219:1 7225:1 7226:1 8672:1 11833:1 18078:1 18079:1 18080:1 18081:1 18082:1 18083:1 18084:1 18085:1 18086:1 18087:1 18088:1 18089:1 18090:1 18091:1 
0.006952956316490848 0 27:1 28:1 29:1 30:1 31:6 34:1 35:1 36:1 37:1 38:1 58:1.5 59:2 60:1 101:1 127:1 138:1 139:1 140:1 141:1 142:1 147:1 148:1 149:1 151:1 152:1 153:1 159:1 164:1 165:1 460:1 483:1 520:1 648:1 1709:1 2753:1 3232:1 5676:1 7217:1 7218:1 7219:1 7225:1 7226:1 12927:1 18081:1 18084:1 18113:1 18114:1 18115:1 18116:1 18117:1 18118:1 18119:1 18120:1 18121:1 18122:1 18123:1 18124:1 
0.03447832956538714 0 29:2 33:1 36:1 50:1 51:1 58:2.5 59:3 60:2 87:13 89:3 121:1 123:1 215:1 218:1 219:1 256:1 316:1 317:1 395:1 400:1 405:1 406:1 474:1 488:1 490:3 2215:1 3574:1 3575:1 3699:1 3701:1 3765:1 3879:1 4399:1 4544:2 4558:1 4559:3 4594:1 5167:1 5216:1 5344:1 5718:1 5719:1 5817:1 5819:1 5820:1 5821:1 5822:1 9465:1 11212:1 11213:1 11216:1 11217:1 14160:1 14161:1 14163:1 18156:1 18157:1 18158:1 18159:1 18160:1 
0 0.003676414947458131 29:2 33:1 36:1 50:1 51:1 58:2.5 59:3 60:2 87:5 89:1 121:1 123:1 215:1 218:1 219:1 256:1 395:1 400:1 405:1 406:1 474:1 488:1 490:1 731:1 2215:1 3574:1 3575:1 3699:1 3701:1 3877:1 3878:1 3879:1 4558:1 4559:1 4594:1 5296:1 5344:1 5641:1 5727:1 5819:1 5820:1 5821:1 5822:1 9465:1 11212:1 11213:1 11216:1 11217:1 11242:1 14152:1 14160:1 14161:1 14163:1 18157:1 18158:1 18159:1 18160:1 
0.002474468833311416 0 29:2 30:1 33:1 36:1 50:1 51:1 58:2 59:2 60:2 87:1 328:1 339:1 344:1 348:1 717:1 1354:1 2302:1 2304:1 3243:1 3351:1 3548:1 3549:1 3764:1 3767:1 3933:1 3934:1 4013:1 4022:1 4026:1 4027:1 4028:1 4030:1 4031:1 4032:1 4033:1 4035:1 4036:1 4038:1 4415:1 14589:1 14913:1 14971:1 14972:1 14973:1 14977:1 14978:1 18176:1 18177:1 18178:1 
0.001470143812626457 0 29:2 30:1 36:1 50:1 51:1 58:2.5 59:3 60:2 87:3 89:1 91:1 94:1 338:1 339:1 344:1 348:1 395:1 523:1 527:1 541:1 558:1 717:1 1354:1 2302:1 2304:1 3243:1 3351:1 3521:1 3764:1 3767:1 3933:1 3934:1 3940:1 4013:1 4026:1 4028:1 4030:1 4038:1 4415:1 5811:1 8636:1 12309:1 14486:1 14487:1 14488:1 14489:1 14594:1 14595:1 15033:1 18176:1 18178:1 18179:1 18180:1 
0.02087175729545575 0.01409079312870683 29:3 30:1 33:1 36:1 50:1 51:1 53:1 56:1 58:2.5 59:3 60:2 87:4 215:1 218:1 283:1 316:1 317:1 400:1 406:1 417:1 800:1 877:1 895:1 906:1 916:1 922:1 924:1 1117:1 1130:1 2599:1 3177:1 3238:1 3574:1 3575:1 3633:1 3739:1 3764:1 3767:1 3934:1 3964:1 4009:1 4011:1 5255:1 5256:1 5301:1 5819:1 5820:1 5821:1 5822:1 9996:1 12230:1 12656:1 18184:1 18185:1 18186:1 18187:1 18188:1 18189:1 18190:1 18191:1 18192:1 
0.0192113248872399 0 29:1 30:1 33:1 36:1 50:1 51:1 53:1 56:1 58:3 59:4 60:2 87:4 283:1 400:1 406:1 417:1 430:1 431:1 432:1 434:1 765:1 800:1 877:1 916:1 922:1 924:1 1117:1 1130:1 2340:1 3238:1 3243:1 3541:1 3633:1 3739:1 3764:1 3767:1 3962:1 3963:1 3964:1 4933:1 5255:1 5256:1 5288:1 5819:1 5820:1 5821:1 5822:1 9996:1 12656:1 13857:1 18185:1 18186:1 18187:1 18189:1 18190:1 18191:1 18193:1 
0.05 0 30:2 33:1 36:1 50:1 51:1 58:2 59:2 60:2 87:5 89:1 215:1 218:1 221:1 224:1 260:1 316:1 317:1 338:1 384:1 397:1 400:1 406:1 734:1 919:1 3238:1 3337:1 3362:1 3549:1 3554:1 3559:1 3560:1 3561:1 3562:1 3563:1 3574:1 3575:1 3576:1 3739:1 3829:1 4388:1 4548:1 5255:1 5256:1 5257:1 5259:1 5819:1 5820:1 5821:1 5822:1 5824:1 6169:1 9442:1 18207:1 18208:1 18209:1 18210:1 
0.01493801132830164 0.009804066930154464 29:2 31:2 33:1 36:1 37:1 38:1 58:3.5 59:4 60:3 87:3 101:1 121:1 256:1 328:1 407:1 408:1 409:1 411:1 412:1 688:1 693:1 751:1 1482:1 1702:1 3221:1 3232:1 3284:1 3287:1 3288:1 4359:1 5862:1 5930:1 5940:1 5941:1 6225:1 6333:1 10559:1 10563:1 10890:1 11414:1 11806:1 11807:1 11823:1 11824:1 11825:1 17450:1 17451:1 18391:1 18392:1 18393:1 18394:1 18395:1 18396:1 18397:1 18398:1 18399:1 18400:1 18401:1 18402:1 18403:1 18404:1 18405:1 18406:1 18407:1 18408:1 18409:1 
0.02753603566591046 0.009424473956214024 29:1 33:1 36:1 50:1 51:1 58:2 59:3 60:1 67:1 87:3 121:1 123:1 215:1 218:1 219:1 221:1 224:1 275:1 456:1 474:1 488:1 490:1 605:1 846:1 999:1 3574:1 3575:1 3697:1 3698:1 3699:1 3700:1 3701:1 4594:1 5259:1 8675:1 9973:1 11373:1 12263:1 12931:1 12932:1 14952:1 17308:1 17309:1 17310:1 18422:1 18423:1 18424:1 18425:1 18426:1 18427:1 18428:1 18429:1 18430:1 18431:1 18432:1 
0.01589126461214463 0.002504683395382262 29:2 30:1 33:1 36:1 58:2 59:2 60:2 87:1 328:1 339:1 344:1 348:1 371:1 471:1 717:1 1944:1 3351:1 3549:1 3764:1 3767:1 3877:1 3878:1 3879:1 3980:1 4013:1 4022:1 4026:1 4027:1 4028:1 4030:1 4031:1 4032:1 4036:1 4408:1 4415:1 4421:1 5312:1 5813:1 5819:1 5820:1 5821:1 5822:1 9506:1 12068:1 13805:1 15661:1 18457:1 18459:1 
0.04684265310587782 0 29:1 30:1 31:1 36:1 50:1 51:1 58:2 59:2 60:2 87:1 248:1 316:1 317:1 855:1 859:1 932:1 935:1 936:1 3081:1 3082:1 3549:1 3764:1 3767:1 3829:1 3996:1 3997:1 3998:1 4520:1 5606:1 5930:1 5940:1 5941:1 5953:1 5956:1 7380:1 8675:1 10001:1 11470:1 11472:1 11528:1 11529:1 12145:1 14912:1 14969:1 18483:1 18484:1 18485:1 18486:1 18487:1 
0 0.01027591039610637 29:3 33:1 36:1 50:1 51:1 58:2 59:2 60:2 87:1 121:1 123:1 215:1 218:1 219:1 221:1 224:1 316:1 317:1 400:1 405:1 406:1 426:1 429:1 895:1 906:1 2304:1 3382:1 3548:1 3574:1 3575:1 3699:1 3701:1 3829:1 3934:1 3966:1 4009:1 4011:1 4014:1 4016:1 4017:1 4018:1 4019:1 4548:1 4594:1 5254:1 5255:1 5256:1 5257:1 5258:1 5259:1 5260:1 9516:1 9517:1 18509:1 
0.006317774632054652 0.0001839123829315432 29:2 33:1 36:1 50:1 51:1 58:3.5 59:5 60:2 87:1 121:1 123:1 221:1 224:1 400:1 405:1 406:1 425:1 426:1 429:1 430:1 431:1 432:1 434:1 2302:1 2304:1 3382:1 3548:1 3699:1 3701:1 3934:1 3966:1 4014:1 4016:1 4017:1 4018:1 4019:1 4548:1 4601:1 4610:1 4614:1 5254:1 5255:1 5256:1 5257:1 5258:1 5259:1 9434:1 9516:1 9517:1 18510:1 18511:1 
0.01287338988268628 0 29:1 30:1 33:1 36:1 50:1 51:1 58:2 59:2 60:2 87:1 248:1 316:1 317:1 339:1 342:1 344:1 348:1 3351:1 3430:1 3549:1 3764:1 3767:1 3996:1 3997:1 3998:1 4013:1 4022:1 4026:1 4027:1 4028:1 4030:1 4031:1 4032:1 4033:1 4035:1 4036:1 4415:1 5606:1 8675:1 9592:1 14912:1 14913:1 14969:1 14970:1 14973:1 14977:1 14978:1 18475:1 18484:1 18581:1 18582:1 18583:1 18584:1 18585:1 
0.03527106626096039 0 29:1 30:1 32:1 36:1 50:1 51:1 58:2.5 59:3 60:2 67:1 87:7 89:1 123:1 275:1 280:1 285:1 289:1 316:1 317:1 339:1 342:1 344:1 348:1 349:1 350:1 352:1 3351:1 3764:1 3767:1 3992:1 3996:1 3997:1 3998:1 4004:1 4013:1 4026:1 4028:1 4030:1 4415:1 4526:1 4527:1 4537:1 5123:1 5124:1 9592:1 12408:1 14185:1 14187:1 14220:1 14969:1 14970:1 14976:1 16557:1 16715:1 18179:1 18475:1 18586:1 18587:1 18588:1 
0 0.002291975025690425 29:4 33:1 36:1 50:1 51:1 58:2 59:2 60:2 87:1 121:1 215:1 218:1 219:1 221:1 224:1 248:1 316:1 317:1 342:1 400:1 405:1 406:1 426:1 429:1 895:1 906:1 2304:1 3548:1 3574:1 3575:1 3699:1 3701:1 3934:2 4009:1 4011:1 4014:1 4016:1 4017:1 4018:1 4019:1 4400:1 4548:1 4594:1 4603:1 5254:1 5255:1 5256:1 5257:1 5258:1 5259:1 5260:1 11025:1 11156:1 18598:1 18599:1 
0.001991044512746011 0.00839344734064121 27:1 28:1 29:2 32:1 33:1 36:1 40:1 43:1 44:1 50:1 51:1 101:1 1453:1 1486:1 2861:1 3894:1 3895:1 3998:1 8097:1 10067:1 14166:1 15601:1 15604:1 18681:1 18682:1 18683:1 18684:1 18685:1 18686:1 18687:1 18688:1 18689:1 18690:1 18691:1 18692:1 18693:1 18694:1 18695:1 18696:1 18697:1 
0.02742311176466126 0.003948085934257096 29:2 31:1 33:1 36:1 40:1 43:1 44:1 50:1 51:1 58:5.5 59:9 60:2 67:1 87:27 89:1 101:1 123:1 211:1 283:2 285:1 338:2 352:1 377:1 490:1 813:2 877:1 924:2 1453:1 1486:1 1726:1 2802:1 3194:1 3998:1 4785:1 4826:1 5159:1 5197:1 6995:1 7014:1 7171:1 12558:1 12559:2 13386:1 14166:1 15610:1 18681:1 18682:1 18683:1 18684:1 18685:1 18686:1 18687:1 18693:1 18695:1 18696:1 18697:1 18704:1 18707:1 18708:1 18709:1 18710:1 18711:1 18712:1 18713:2 18714:1 18719:1 18720:1 18721:1 18722:1 18723:1 18724:1 18725:1 18726:1 18727:1 18728:1 
0.03687712159728781 0 29:2 31:1 32:1 33:1 36:1 50:1 51:1 58:3 59:3 60:3 67:1 68:1 87:1 121:2 285:1 289:1 352:1 360:1 363:1 370:1 373:1 408:1 411:1 412:1 722:1 723:1 895:1 906:1 2896:1 3180:1 3205:1 3243:1 3765:1 3887:1 3973:1 4437:1 5690:1 5749:1 9392:1 9393:1 9417:1 9433:1 11222:1 12112:1 14758:1 14760:1 18269:1 18794:1 18795:1 18796:1 18797:1 18798:1 18799:1 18801:1 18802:1 18803:1 18804:1 
0.02085453655649556 0 29:1 33:1 36:1 50:1 51:1 58:2 59:2 60:2 87:1 301:1 316:1 317:1 344:1 3238:1 3739:1 3928:1 3997:1 3998:1 4030:1 4032:1 4035:1 4036:1 5198:1 9428:1 11158:1 14165:1 14166:1 14184:1 14343:1 14344:1 14345:1 14346:1 14347:1 18861:1 18862:1 18863:1 18864:1 18865:1 18866:1 18867:1 18868:1 18869:1 18870:1 18871:1 18872:1 18873:1 18874:1 18875:1 18876:1 
