svm_type c_svc
kernel_type linear
nr_class 3
total_sv 2326
rho 1.0351456488888 -0.09730838648576719 -0.8694547885945151
label 1 2 3
probA -2.4906921555501826 -3.6896873015846254 -2.4823991776488024
probB 0.15865949946866198 -0.027060640808812472 -0.1740423467587948
nr_sv 674 1127 525
SV
0.006793403214107769 2.6071855705790263E-4 2:1.0 4:1.0 8:1.0 12:1.0 13:1.0 14:1.0 15:1.0 18:1.0 22:1.0 23:1.0 24:2.0 25:1.0 26:1.0 29:1.0 30:1.0 31:1.0 32:1.0 34:1.0 37:1.0 38:1.0 40:1.0 43:1.0 44:1.0 45:1.5 46:2.0 47:1.0 894:1.0 895:1.0 896:1.0 897:1.0 898:1.0 899:1.0 900:1.0 901:1.0 902:1.0 903:1.0 904:1.0 905:1.0 906:1.0 907:1.0 908:1.0 909:1.0 910:1.0 911:1.0 912:1.0 913:1.0 
0.003750468849187039 0.0 22:1.0 23:1.0 24:1.0 29:1.0 30:1.0 31:1.0 32:1.0 34:1.0 37:1.0 38:1.0 40:1.0 43:1.0 45:1.5 46:2.0 47:1.0 115:1.0 123:1.0 198:1.0 962:1.0 966:1.0 967:1.0 968:1.0 969:1.0 970:1.0 971:1.0 972:1.0 973:1.0 974:1.0 975:1.0 980:1.0 981:1.0 1061:1.0 1062:1.0 1063:1.0 1064:1.0 1065:1.0 1066:1.0 1067:1.0 1068:1.0 1069:1.0 1070:1.0 1071:1.0 1072:1.0 1073:1.0 1074:1.0 1075:1.0 
0.014922594058458992 0.0 22:1.0 23:1.0 24:1.0 29:1.0 30:1.0 31:1.0 32:1.0 40:1.0 43:1.0 45:1.5 46:2.0 47:1.0 115:1.0 123:1.0 198:1.0 213:1.0 223:1.0 243:1.0 244:1.0 496:1.0 497:1.0 615:1.0 851:1.0 884:1.0 888:1.0 919:1.0 1101:1.0 1102:1.0 1103:1.0 1104:1.0 1105:1.0 1106:1.0 1107:1.0 1108:1.0 1109:1.0 1110:1.0 1111:1.0 1112:1.0 1113:1.0 1114:1.0 1115:1.0 1116:1.0 1117:1.0 1118:1.0 1119:1.0 1120:1.0 
0.01962672681619372 0.0 9:1.0 22:1.0 23:1.0 29:1.0 30:1.0 31:1.0 32:1.0 45:2.0 46:3.0 47:1.0 115:1.0 181:1.0 198:2.0 1096:1.0 1167:1.0 1203:1.0 1225:1.0 1229:1.0 1238:1.0 1469:1.0 1471:1.0 1475:1.0 1476:1.0 1484:1.0 1485:1.0 1486:1.0 1487:1.0 1488:1.0 1489:1.0 1490:1.0 1491:1.0 1588:1.0 1589:1.0 1590:1.0 1591:1.0 1592:1.0 1593:1.0 1594:1.0 1595:1.0 1596:1.0 1597:1.0 1598:1.0 1599:1.0 1600:1.0 1601:1.0 1602:1.0 1603:1.0 1604:1.0 1605:1.0 1606:1.0 
0.03347183659642613 0.0 22:1.0 23:1.0 24:1.0 29:1.0 30:1.0 31:1.0 32:1.0 40:1.0 43:1.0 45:3.0 46:4.0 47:2.0 198:1.0 281:1.0 970:1.0 1066:1.0 1096:1.0 1098:1.0 1239:1.0 1357:1.0 1361:1.0 1419:1.0 1421:1.0 1425:1.0 1426:1.0 1581:1.0 1582:1.0 1583:1.0 1584:1.0 1585:1.0 1600:1.0 1601:1.0 1602:1.0 1604:1.0 1696:1.0 1725:1.0 1732:1.0 1897:1.0 1904:1.0 1956:1.0 1957:1.0 1958:1.0 1959:1.0 1960:1.0 1961:1.0 1962:1.0 1963:1.0 1964:1.0 1965:1.0 1966:1.0 1967:1.0 1968:1.0 1969:1.0 1970:1.0 
0.015064189160901152 0.003914882530590805 24:1.0 29:1.0 30:1.0 31:1.0 45:2.0 46:3.0 47:1.0 67:1.0 115:1.0 176:1.0 198:1.0 346:1.0 577:1.0 613:1.0 1098:1.0 1510:1.0 1667:1.0 2319:2.0 2386:1.0 2397:1.0 2398:1.0 2399:1.0 2400:1.0 2401:1.0 2402:1.0 2403:1.0 2404:1.0 2405:1.0 2406:1.0 2410:1.0 2411:1.0 2412:1.0 2413:1.0 2414:1.0 2415:1.0 2416:1.0 2435:1.0 2436:1.0 2437:1.0 2438:1.0 2439:1.0 2440:1.0 2441:1.0 2442:1.0 2443:1.0 2444:1.0 2445:1.0 2446:1.0 2447:1.0 2448:1.0 2449:1.0 2450:1.0 2451:1.0 2452:1.0 2453:1.0 
0.05 0.002700450233131216 24:1.0 30:1.0 45:2.0 46:3.0 47:1.0 67:1.0 138:1.0 139:1.0 234:1.0 268:1.0 310:1.0 403:1.0 407:1.0 413:1.0 418:1.0 444:1.0 446:1.0 758:1.0 761:1.0 1071:1.0 1098:1.0 1113:1.0 1203:1.0 2433:1.0 2464:1.0 2690:1.0 2691:1.0 2692:1.0 2693:1.0 2701:1.0 2846:1.0 2847:1.0 2848:1.0 2849:1.0 2850:1.0 2851:1.0 2852:1.0 2853:1.0 2859:1.0 2860:1.0 2863:1.0 2864:1.0 2865:1.0 2866:1.0 2867:1.0 2868:1.0 2869:1.0 2870:1.0 
0.018658982195325368 0.010464596070210153 24:1.0 25:1.0 30:1.0 40:1.0 43:1.0 44:1.0 45:3.0 46:5.0 47:1.0 67:2.0 213:1.0 434:1.0 735:1.0 998:1.0 1601:1.0 1664:1.0 1675:1.0 2501:1.0 2888:1.0 2889:1.0 2890:1.0 2891:1.0 2892:1.0 2893:1.0 2894:1.0 2895:1.0 2896:1.0 2897:1.0 2898:1.0 2899:1.0 2900:1.0 2901:1.0 2902:1.0 2903:1.0 2904:1.0 2905:1.0 2906:1.0 2907:1.0 2908:1.0 2909:1.0 2910:1.0 2911:1.0 2912:1.0 2913:1.0 2914:1.0 2915:1.0 
0.05 0.0 24:1.0 25:1.0 30:1.0 45:2.5 46:4.0 47:1.0 67:4.0 110:1.0 119:1.0 213:1.0 268:1.0 272:1.0 310:1.0 434:1.0 446:1.0 735:1.0 1601:1.0 1664:1.0 1675:1.0 2123:1.0 2169:1.0 2430:1.0 2431:1.0 2501:1.0 2888:1.0 2889:1.0 2890:1.0 2891:1.0 2892:1.0 2893:1.0 2894:1.0 2895:1.0 2905:1.0 2907:1.0 2908:1.0 2909:1.0 2910:1.0 2911:1.0 2916:1.0 2917:1.0 2918:1.0 2919:1.0 2920:1.0 2921:1.0 2922:1.0 2923:1.0 2924:1.0 2925:1.0 2926:1.0 
0.03625781139612714 0.0 9:1.0 22:1.0 23:1.0 24:3.0 25:1.0 30:1.0 32:1.0 34:1.0 38:1.0 45:5.5 46:6.0 47:5.0 268:1.0 272:1.0 310:1.0 403:1.0 418:1.0 444:1.0 446:1.0 784:1.0 785:1.0 792:1.0 794:1.0 838:1.0 856:2.0 1066:1.0 1107:1.0 1167:1.0 1664:1.0 1675:1.0 1868:1.0 2350:1.0 2402:1.0 2439:1.0 2799:1.0 2980:1.0 2981:1.0 2982:1.0 2991:1.0 3048:1.0 3049:1.0 3050:1.0 3051:1.0 3052:1.0 3053:1.0 3054:1.0 3055:1.0 3056:1.0 3057:1.0 
0.0025321739654431638 0.0 8:1.0 24:1.0 25:1.0 26:1.0 29:1.0 30:1.0 31:1.0 67:2.0 268:1.0 272:1.0 310:1.0 446:1.0 547:1.0 635:1.0 636:1.0 637:1.0 638:1.0 2408:1.0 3107:1.0 3185:1.0 3186:1.0 3187:1.0 3188:1.0 3189:1.0 3190:1.0 3191:1.0 3192:1.0 3193:1.0 3194:1.0 3195:1.0 3196:1.0 3197:1.0 3198:1.0 3199:1.0 3200:1.0 3201:1.0 3202:1.0 3203:1.0 3204:1.0 3205:1.0 3206:1.0 3207:1.0 
0.04268436829754562 0.004179558784633457 8:1.0 24:1.0 25:1.0 26:1.0 29:1.0 30:1.0 31:1.0 40:1.0 43:1.0 44:1.0 61:1.0 67:4.0 119:1.0 390:1.0 393:1.0 569:1.0 577:1.0 635:1.0 636:1.0 637:1.0 638:1.0 1238:1.0 1241:1.0 2402:1.0 2408:1.0 3185:1.0 3186:1.0 3187:1.0 3188:1.0 3189:1.0 3198:1.0 3200:1.0 3201:1.0 3208:1.0 3209:1.0 3210:1.0 3211:1.0 3212:1.0 3213:1.0 3214:1.0 3215:1.0 3216:1.0 3217:1.0 3218:1.0 3219:1.0 
0.027651655325045297 0.0015816448610458137 8:1.0 24:1.0 25:1.0 26:1.0 29:1.0 30:1.0 31:1.0 61:1.0 67:6.0 119:2.0 176:1.0 280:1.0 284:1.0 292:1.0 293:1.0 327:1.0 331:1.0 530:1.0 635:1.0 636:1.0 637:1.0 638:1.0 798:1.0 970:1.0 2408:1.0 2516:1.0 2518:1.0 3185:1.0 3186:1.0 3187:1.0 3188:1.0 3189:1.0 3198:1.0 3200:1.0 3201:1.0 3214:1.0 3220:1.0 3221:1.0 3222:1.0 3223:1.0 3224:1.0 3225:1.0 3226:1.0 3227:1.0 3228:1.0 3229:1.0 
5.462546252436548E-4 0.0 22:1.0 23:1.0 24:2.0 25:1.0 26:1.0 29:1.0 30:1.0 31:1.0 32:1.0 45:2.0 46:3.0 47:1.0 58:1.0 135:1.0 268:1.0 272:1.0 446:1.0 594:1.0 598:1.0 680:1.0 733:1.0 742:1.0 743:1.0 745:1.0 798:1.0 856:1.0 2896:1.0 2897:1.0 2898:1.0 2899:1.0 2929:1.0 2930:1.0 3256:1.0 3257:1.0 3258:1.0 3259:1.0 3260:1.0 3261:1.0 3262:1.0 3263:1.0 3264:1.0 3265:1.0 3266:1.0 3267:1.0 3268:1.0 3269:1.0 3270:1.0 3271:1.0 3272:1.0 3273:1.0 3274:1.0 3275:1.0 3276:1.0 3277:1.0 3278:1.0 
0.03616280943681065 0.0 22:1.0 23:1.0 24:3.0 25:1.0 30:1.0 32:1.0 45:4.0 46:6.0 47:2.0 115:1.0 138:1.0 139:1.0 198:1.0 268:1.0 310:1.0 446:1.0 617:1.0 838:1.0 856:2.0 884:1.0 887:1.0 1066:1.0 1096:2.0 1098:1.0 1113:1.0 1698:1.0 1767:1.0 1897:1.0 1904:1.0 2136:1.0 2137:1.0 2160:1.0 2361:1.0 2433:1.0 2439:1.0 3196:1.0 3205:1.0 3206:1.0 3211:1.0 3247:1.0 3343:1.0 3344:1.0 3358:1.0 3359:1.0 3360:1.0 3361:1.0 3362:1.0 3363:1.0 3364:1.0 3365:1.0 3366:1.0 3367:1.0 3368:1.0 3369:1.0 3370:1.0 3371:1.0 3372:1.0 3373:1.0 3374:1.0 3375:1.0 3376:1.0 3377:1.0 3378:1.0 3379:1.0 3380:1.0 3381:1.0 3382:1.0 3383:1.0 
0.04988906877110995 0.0025336870675059966 22:1.0 23:1.0 24:2.0 25:1.0 30:1.0 32:1.0 40:1.0 43:1.0 44:1.0 45:1.5 46:2.0 47:1.0 130:1.0 679:1.0 1071:1.0 1205:1.0 1209:1.0 1664:1.0 1675:1.0 1701:1.0 3103:1.0 3484:1.0 3573:1.0 3575:1.0 3577:1.0 3578:1.0 3589:1.0 3590:1.0 3591:1.0 3592:1.0 3593:1.0 3594:1.0 3595:1.0 3596:1.0 3597:1.0 3598:1.0 3666:1.0 3667:1.0 3668:1.0 3669:1.0 3670:1.0 3671:1.0 3672:1.0 3673:1.0 3674:1.0 3675:1.0 3676:1.0 3677:1.0 3678:1.0 
0.03773590221513172 0.0 22:1.0 23:1.0 29:1.0 30:1.0 31:1.0 32:1.0 34:1.0 37:1.0 40:1.0 43:1.0 45:3.0 46:5.0 47:1.0 115:1.0 123:1.0 198:1.0 1096:1.0 1238:1.0 1869:1.0 1897:1.0 1904:1.0 3602:1.0 3604:1.0 3608:1.0 3609:1.0 3610:1.0 3614:1.0 3615:1.0 3679:1.0 3680:1.0 3681:1.0 3682:1.0 3686:1.0 3687:1.0 3688:1.0 3752:1.0 3753:1.0 3754:1.0 3755:1.0 3756:1.0 3757:1.0 3758:1.0 3759:1.0 3760:1.0 3761:1.0 3762:1.0 3763:1.0 3764:1.0 3765:1.0 3766:1.0 3767:1.0 3768:1.0 
0.019552579757597038 0.0 22:1.0 23:1.0 24:2.0 29:1.0 30:1.0 31:1.0 32:1.0 34:1.0 37:1.0 38:1.0 40:1.0 43:1.0 45:1.5 46:2.0 47:1.0 115:1.0 123:1.0 198:1.0 202:1.0 2035:1.0 2080:1.0 2723:1.0 3090:1.0 3622:1.0 3624:1.0 3627:1.0 3656:1.0 3657:1.0 3658:1.0 3659:1.0 3660:1.0 3661:1.0 3662:1.0 3663:1.0 3664:1.0 3765:1.0 3766:1.0 3828:1.0 3829:1.0 3853:1.0 3854:1.0 3855:1.0 3856:1.0 3857:1.0 3858:1.0 3859:1.0 3860:1.0 3861:1.0 3862:1.0 3863:1.0 3864:1.0 
0.03985326875517213 0.0 9:1.0 22:1.0 23:1.0 24:2.0 25:1.0 29:1.0 30:1.0 31:1.0 32:1.0 45:1.5 46:2.0 47:1.0 181:1.0 185:1.0 198:4.0 281:1.0 682:1.0 724:1.0 1096:1.0 1283:1.0 1381:1.0 1383:1.0 1389:1.0 1390:1.0 1491:1.0 1528:1.0 1529:1.0 1616:1.0 1617:1.0 1618:1.0 1619:1.0 1620:1.0 1661:1.0 1725:1.0 1728:1.0 1732:1.0 1814:1.0 1815:1.0 1817:1.0 1890:1.0 1891:1.0 1892:1.0 1893:1.0 1894:1.0 1895:1.0 1896:1.0 1897:3.0 1898:1.0 1899:1.0 1900:1.0 1901:1.0 1902:1.0 1903:1.0 1904:3.0 1905:1.0 1906:1.0 
0.03229537003890734 0.0 9:1.0 22:1.0 23:1.0 24:2.0 25:1.0 29:1.0 30:1.0 31:1.0 32:1.0 45:1.5 46:2.0 47:1.0 181:1.0 185:1.0 198:3.0 281:1.0 682:1.0 724:1.0 1071:1.0 1096:1.0 1283:1.0 1381:1.0 1383:1.0 1389:1.0 1390:1.0 1491:1.0 1528:1.0 1529:1.0 1616:1.0 1617:1.0 1618:1.0 1619:1.0 1620:1.0 1725:1.0 1728:1.0 1732:1.0 1814:1.0 1815:1.0 1817:1.0 1891:1.0 1893:1.0 1894:1.0 1895:1.0 1896:1.0 1897:2.0 1898:1.0 1899:1.0 1901:1.0 1902:1.0 1904:2.0 1905:1.0 1906:1.0 1909:1.0 1910:1.0 1911:1.0 
0.025815868045255187 0.0 9:1.0 22:1.0 23:1.0 24:1.0 30:1.0 32:1.0 45:1.0 46:1.0 47:1.0 146:1.0 281:1.0 376:1.0 551:1.0 970:1.0 1066:1.0 1096:1.0 1098:1.0 1213:1.0 1239:1.0 1419:1.0 1421:1.0 1425:1.0 1426:1.0 1581:1.0 1582:1.0 1583:1.0 1664:1.0 1675:1.0 1725:1.0 1732:1.0 1954:1.0 1957:1.0 1959:1.0 1960:1.0 1961:1.0 1963:1.0 1964:1.0 1967:1.0 1971:1.0 1972:1.0 1973:1.0 4381:1.0 4382:1.0 4383:1.0 4384:1.0 4567:1.0 4568:1.0 4569:1.0 4570:1.0 4571:1.0 
0.029939519758078147 0.004666320144958217 22:1.0 23:1.0 24:3.0 25:1.0 30:1.0 32:1.0 40:1.0 43:1.0 44:1.0 45:1.5 46:2.0 47:1.0 71:1.0 97:1.0 99:1.0 115:1.0 138:1.0 139:1.0 190:1.0 198:2.0 495:1.0 497:1.0 784:1.0 785:1.0 794:1.0 883:1.0 884:1.0 885:1.0 887:1.0 888:1.0 1083:1.0 1238:1.0 1725:1.0 1897:1.0 1904:1.0 2030:1.0 2234:1.0 2350:1.0 2361:1.0 3376:1.0 3508:1.0 4873:1.0 4878:1.0 4884:1.0 4888:1.0 4889:1.0 4890:1.0 4893:1.0 4894:1.0 5075:1.0 5076:1.0 5077:1.0 5078:1.0 5079:1.0 5080:1.0 5081:1.0 5082:1.0 5083:1.0 5085:1.0 
0.0020056638706170476 0.024075759349373723 22:1.0 23:1.0 24:2.0 25:1.0 29:1.0 30:1.0 31:1.0 32:1.0 40:1.0 43:1.0 44:1.0 45:1.5 46:2.0 47:1.0 167:1.0 176:1.0 213:1.0 611:1.0 614:1.0 785:1.0 792:1.0 794:1.0 851:1.0 884:1.0 888:1.0 919:1.0 1105:1.0 1118:1.0 2350:1.0 2980:1.0 3061:1.0 3264:1.0 3326:1.0 4236:1.0 4242:1.0 4245:1.0 4246:1.0 4247:1.0 4248:1.0 4249:1.0 4250:1.0 5286:1.0 5287:1.0 5288:1.0 5289:1.0 5290:1.0 
0.014644547381271042 0.00516066795475883 20:1.0 22:1.0 23:1.0 24:2.0 25:1.0 30:1.0 32:1.0 45:1.5 46:2.0 47:1.0 198:2.0 376:1.0 380:1.0 1167:1.0 1213:1.0 1232:1.0 1234:1.0 1236:1.0 1237:1.0 1238:1.0 1406:1.0 1655:1.0 1657:1.0 1658:1.0 1659:1.0 1660:1.0 1663:1.0 1664:1.0 1666:1.0 1667:1.0 1668:1.0 1669:1.0 1670:1.0 1671:1.0 1675:1.0 1689:1.0 1690:1.0 1713:1.0 1714:1.0 1715:1.0 1716:1.0 1897:1.0 1904:1.0 1960:1.0 1967:1.0 5327:1.0 5328:1.0 5329:1.0 5330:1.0 5331:1.0 5332:1.0 5333:1.0 5334:1.0 
0.05 0.0 9:1.0 22:1.0 23:1.0 24:3.0 25:1.0 30:1.0 32:1.0 40:1.0 43:1.0 44:1.0 45:1.5 46:2.0 47:1.0 54:1.0 150:1.0 198:1.0 281:1.0 1204:1.0 1205:1.0 1209:1.0 1298:1.0 1299:1.0 1300:1.0 1301:1.0 1302:1.0 1303:1.0 1304:1.0 1305:1.0 1309:1.0 1310:1.0 1311:1.0 1661:1.0 1664:1.0 1675:1.0 1698:1.0 1699:1.0 1701:1.0 1725:1.0 1732:1.0 1745:1.0 1747:1.0 1748:1.0 1749:1.0 1764:1.0 1765:1.0 1766:1.0 1767:1.0 1768:1.0 1771:1.0 1772:1.0 5370:1.0 5371:1.0 
0.05 0.0 9:1.0 20:1.0 22:1.0 23:1.0 24:1.0 25:1.0 30:1.0 32:1.0 45:1.5 46:2.0 47:1.0 54:1.0 132:1.0 181:1.0 185:1.0 198:1.0 682:1.0 1071:1.0 1096:1.0 1385:1.0 1491:1.0 1517:1.0 1519:1.0 1520:1.0 1524:1.0 1525:1.0 1526:1.0 1527:1.0 1528:1.0 1529:1.0 1530:1.0 1664:1.0 1675:1.0 1814:1.0 1817:1.0 1880:1.0 1882:1.0 1894:1.0 1895:1.0 1896:1.0 1905:1.0 1912:1.0 1931:1.0 1934:1.0 5398:1.0 5399:1.0 5400:1.0 5401:1.0 
0.0 0.0012836421364903101 9:1.0 22:1.0 23:1.0 24:1.0 29:1.0 30:1.0 31:1.0 32:1.0 281:1.0 970:1.0 1066:1.0 1096:1.0 1098:1.0 1239:1.0 1419:1.0 1421:1.0 1425:1.0 1426:1.0 1581:1.0 1582:1.0 1583:1.0 1666:1.0 1667:1.0 1725:1.0 1732:1.0 1957:1.0 1959:1.0 1960:1.0 1961:1.0 1963:1.0 1964:1.0 1967:1.0 1971:1.0 1972:1.0 1973:1.0 2451:1.0 3300:1.0 5298:1.0 5299:1.0 5403:1.0 5404:1.0 5405:1.0 
0.004957552071201147 0.001397345719470208 3:1.0 5:1.0 9:1.0 19:1.0 20:1.0 22:1.0 23:1.0 24:3.0 25:1.0 29:1.0 30:1.0 31:1.0 32:1.0 39:1.0 40:1.0 41:1.0 43:1.0 44:1.0 45:2.5 46:3.0 47:2.0 176:1.0 539:1.0 593:1.0 594:1.0 598:1.0 745:1.0 785:1.0 792:1.0 794:1.0 2350:1.0 2980:1.0 3377:1.0 4779:1.0 5152:1.0 5153:1.0 5154:1.0 5155:1.0 5158:1.0 5159:1.0 5162:1.0 5163:1.0 5164:1.0 5419:1.0 5420:1.0 5421:1.0 5422:1.0 5423:1.0 5424:1.0 
0.0 5.424024792963484E-4 22:1.0 23:1.0 24:2.0 25:1.0 30:1.0 32:1.0 40:1.0 43:1.0 44:1.0 45:1.5 46:2.0 47:1.0 138:1.0 139:1.0 577:1.0 785:1.0 792:1.0 794:1.0 1203:1.0 1205:1.0 1209:1.0 1631:1.0 2350:1.0 2629:1.0 2980:1.0 3061:1.0 3281:1.0 3297:1.0 3410:1.0 3411:1.0 3417:1.0 3425:1.0 3426:1.0 3427:1.0 4794:1.0 5169:1.0 5170:1.0 5175:1.0 5600:1.0 5606:1.0 5607:1.0 5608:1.0 5609:1.0 5610:1.0 5611:1.0 5612:1.0 5613:1.0 
0.043025081528803695 0.01182520680135643 22:1.0 23:1.0 29:1.0 30:1.0 31:1.0 32:1.0 115:1.0 181:1.0 198:1.0 1083:1.0 1229:1.0 1491:1.0 5835:1.0 5836:1.0 5837:1.0 5838:1.0 5839:1.0 5840:1.0 5841:1.0 5842:1.0 5843:1.0 5844:1.0 5854:1.0 5855:1.0 5856:1.0 5930:1.0 5931:1.0 5932:1.0 5933:1.0 5934:1.0 5935:1.0 5936:1.0 5937:1.0 5938:1.0 
0.04510016286637539 0.0 22:1.0 23:1.0 24:1.0 25:1.0 30:1.0 34:1.0 38:1.0 45:1.5 46:2.0 47:1.0 135:1.0 138:1.0 139:1.0 194:1.0 268:1.0 272:1.0 446:1.0 706:1.0 5702:1.0 5810:1.0 5811:1.0 5812:1.0 5813:1.0 5815:1.0 5816:1.0 5817:1.0 5818:1.0 5819:1.0 5820:1.0 5822:1.0 5823:1.0 5824:1.0 5825:1.0 5828:1.0 5829:1.0 5830:1.0 5858:1.0 5863:1.0 5864:1.0 5865:1.0 5959:1.0 5960:1.0 5961:1.0 
0.008822534905333938 0.0 22:1.0 23:1.0 24:1.0 29:1.0 30:1.0 31:1.0 32:1.0 40:1.0 43:1.0 45:1.5 46:2.0 47:1.0 115:1.0 123:1.0 198:1.0 820:1.0 2345:1.0 3260:1.0 4120:1.0 4123:1.0 5788:1.0 5797:1.0 5835:1.0 5836:1.0 5837:1.0 5838:1.0 5839:1.0 5840:1.0 5841:1.0 5867:1.0 5868:1.0 5869:1.0 5870:1.0 5871:1.0 5872:1.0 5930:1.0 5931:1.0 5933:1.0 5934:1.0 5935:1.0 5936:1.0 5970:1.0 5971:1.0 5972:1.0 5973:1.0 5974:1.0 5975:1.0 5976:1.0 
0.011490141605605991 0.0 22:1.0 23:1.0 24:2.0 25:1.0 30:1.0 32:1.0 45:2.0 46:3.0 47:1.0 115:1.0 138:1.0 139:1.0 198:1.0 268:1.0 272:1.0 418:1.0 444:1.0 446:1.0 838:1.0 856:1.0 1082:1.0 1967:1.0 2423:1.0 2966:1.0 2967:1.0 2968:1.0 2970:1.0 2971:1.0 3107:1.0 3119:1.0 3280:1.0 3281:1.0 3343:1.0 3364:1.0 3371:1.0 5574:1.0 5686:1.0 5885:1.0 5886:1.0 5905:1.0 5906:1.0 5977:1.0 5978:1.0 5979:1.0 5980:1.0 5981:1.0 5982:1.0 5983:1.0 5984:1.0 5985:1.0 5986:1.0 5987:1.0 5988:1.0 5989:1.0 5990:1.0 
0.030103961611077614 0.0 24:1.0 25:1.0 30:1.0 40:1.0 43:1.0 44:1.0 45:2.5 46:4.0 47:1.0 67:2.0 138:1.0 139:1.0 176:1.0 413:1.0 466:1.0 671:1.0 681:1.0 682:1.0 683:1.0 685:1.0 686:1.0 758:1.0 759:1.0 761:1.0 1113:1.0 2423:1.0 2426:1.0 5750:1.0 5751:1.0 5752:1.0 5753:1.0 5761:1.0 5984:1.0 6009:1.0 6056:1.0 6057:1.0 6058:1.0 6059:1.0 6060:1.0 6062:1.0 6063:1.0 6064:1.0 6074:1.0 6087:1.0 6089:1.0 6090:1.0 6092:1.0 
0.05 0.0 24:1.0 25:1.0 30:1.0 45:2.0 46:3.0 47:1.0 67:3.0 119:1.0 138:1.0 139:1.0 176:1.0 268:1.0 272:1.0 390:1.0 413:1.0 418:1.0 427:1.0 444:1.0 446:1.0 460:1.0 466:1.0 671:1.0 681:1.0 682:1.0 683:1.0 685:1.0 686:1.0 758:1.0 759:1.0 761:1.0 5750:1.0 5751:1.0 5752:1.0 5753:1.0 6010:1.0 6022:1.0 6023:1.0 6024:1.0 6025:1.0 6026:1.0 6027:1.0 6028:1.0 6029:1.0 6030:1.0 6031:1.0 6074:1.0 6087:1.0 6089:1.0 6091:1.0 6092:1.0 
0.05 0.05 22:1.0 23:1.0 24:5.0 25:1.0 30:1.0 32:1.0 45:2.0 46:3.0 47:1.0 89:1.0 90:1.0 115:1.0 198:2.0 268:1.0 272:1.0 418:1.0 444:1.0 446:1.0 451:1.0 501:1.0 594:1.0 598:1.0 768:1.0 838:1.0 856:2.0 1938:1.0 1967:2.0 2423:1.0 3343:1.0 3364:1.0 3371:1.0 5455:1.0 5574:2.0 5885:1.0 5886:1.0 5906:1.0 5982:1.0 5984:1.0 5989:1.0 6035:1.0 6125:1.0 6126:1.0 6127:1.0 6128:1.0 6129:1.0 6130:1.0 6131:1.0 6132:1.0 6133:1.0 6134:1.0 6135:1.0 6136:1.0 6137:1.0 6138:1.0 6139:1.0 6140:1.0 6141:1.0 6142:1.0 
0.008087802268867671 0.002911247421752014 8:1.0 22:1.0 23:1.0 25:1.0 26:1.0 29:1.0 30:1.0 31:1.0 34:1.0 37:1.0 115:1.0 198:1.0 234:1.0 346:1.0 351:1.0 770:1.0 919:1.0 1096:1.0 1869:1.0 2671:1.0 6111:1.0 6117:1.0 6168:1.0 6169:1.0 6170:1.0 6171:1.0 6172:1.0 6173:1.0 6174:1.0 6175:1.0 6176:1.0 6177:1.0 6178:1.0 6179:1.0 6180:1.0 6181:1.0 6182:1.0 6183:1.0 6184:1.0 6185:1.0 6186:1.0 6187:1.0 6188:1.0 
0.05 0.001304247484144304 24:1.0 25:1.0 30:1.0 45:3.5 46:4.0 47:3.0 67:5.0 103:1.0 106:1.0 114:1.0 115:2.0 116:1.0 119:1.0 138:1.0 139:1.0 181:1.0 185:1.0 390:1.0 393:1.0 413:1.0 466:1.0 594:1.0 597:1.0 598:1.0 742:1.0 758:1.0 759:1.0 761:1.0 762:1.0 1491:1.0 2017:1.0 2027:1.0 2046:1.0 3320:1.0 3567:1.0 5750:1.0 5751:1.0 5752:1.0 5753:1.0 5851:1.0 5995:1.0 5996:1.0 6274:1.0 6275:1.0 6279:1.0 6282:1.0 6284:1.0 6285:1.0 6286:1.0 6287:1.0 6288:1.0 6289:1.0 6290:1.0 6291:1.0 6292:1.0 6293:1.0 6294:1.0 6295:1.0 6296:1.0 6297:1.0 
0.05 0.0 24:1.0 25:1.0 29:1.0 30:1.0 31:1.0 45:3.0 46:5.0 47:1.0 67:6.0 176:1.0 268:1.0 272:1.0 390:1.0 413:1.0 418:1.0 444:1.0 446:1.0 466:2.0 759:1.0 2408:1.0 2423:1.0 2426:1.0 2966:1.0 2967:1.0 2971:1.0 3306:1.0 3313:1.0 5670:1.0 5781:1.0 5984:1.0 6136:1.0 6376:1.0 6384:1.0 6385:1.0 6386:1.0 6387:1.0 6388:1.0 6390:1.0 6391:1.0 6392:1.0 6432:1.0 6434:1.0 6439:1.0 6442:1.0 6443:1.0 6444:1.0 6445:1.0 6446:1.0 6447:1.0 6448:1.0 
0.0029327078609721054 0.0 22:1.0 23:1.0 24:1.0 29:1.0 30:1.0 31:1.0 32:1.0 115:2.0 176:1.0 198:2.0 268:1.0 446:1.0 856:1.0 1096:1.0 1098:1.0 1510:1.0 1663:1.0 1831:1.0 1862:1.0 1967:1.0 2423:1.0 2433:1.0 2439:1.0 2475:1.0 3205:1.0 3206:1.0 3458:1.0 4277:1.0 4513:1.0 5574:1.0 6300:1.0 6302:1.0 6346:1.0 6348:1.0 6491:1.0 6497:1.0 6503:1.0 6504:1.0 6505:1.0 6506:1.0 6507:1.0 6508:1.0 6509:1.0 6510:1.0 6511:1.0 6512:1.0 6513:1.0 6514:1.0 
4.20689568105775E-4 0.0 22:1.0 23:1.0 24:2.0 25:1.0 29:1.0 30:1.0 31:1.0 32:1.0 45:1.0 46:1.0 47:1.0 115:2.0 146:1.0 198:5.0 268:1.0 272:1.0 346:1.0 446:1.0 594:1.0 598:1.0 745:1.0 828:1.0 838:1.0 856:3.0 857:1.0 1096:1.0 1844:1.0 2423:1.0 3205:1.0 3206:1.0 3264:1.0 3398:1.0 3458:1.0 6035:1.0 6286:1.0 6289:1.0 6324:1.0 6462:1.0 6505:1.0 6543:1.0 6562:1.0 6578:1.0 6580:1.0 6589:1.0 6590:1.0 6591:1.0 6592:1.0 6593:1.0 6594:1.0 6595:1.0 6596:1.0 6597:1.0 6598:1.0 6599:1.0 6600:1.0 6601:1.0 6602:1.0 6603:1.0 6604:1.0 6605:1.0 
0.03786554582114445 0.0 24:1.0 25:1.0 29:1.0 30:1.0 31:1.0 45:3.0 46:5.0 47:1.0 64:1.0 67:8.0 115:2.0 176:1.0 268:1.0 272:1.0 346:1.0 413:1.0 418:1.0 444:1.0 446:1.0 466:2.0 594:1.0 598:1.0 745:1.0 759:1.0 1259:1.0 1261:1.0 2408:1.0 2423:1.0 2426:1.0 2988:1.0 2989:1.0 3260:1.0 3306:1.0 3313:1.0 5029:1.0 5936:1.0 5970:1.0 5984:1.0 6286:1.0 6288:1.0 6289:1.0 6390:1.0 6444:1.0 6502:1.0 6523:1.0 6572:1.0 6573:1.0 6638:1.0 6759:1.0 6760:1.0 6761:1.0 6762:1.0 6763:1.0 6764:1.0 6765:1.0 
0.0 0.0036033974970104696 16:1.0 24:1.0 25:1.0 30:1.0 34:1.0 38:1.0 45:1.5 46:2.0 47:1.0 67:1.0 138:1.0 139:1.0 181:1.0 185:1.0 194:1.0 310:1.0 706:1.0 998:1.0 1071:1.0 1491:1.0 2302:1.0 5810:1.0 5811:1.0 5812:1.0 5813:1.0 5814:1.0 5827:1.0 5831:1.0 5832:1.0 6790:1.0 6791:1.0 6792:1.0 6793:1.0 6794:1.0 6795:1.0 6796:1.0 6797:1.0 6798:1.0 6799:1.0 6800:1.0 6801:1.0 6802:1.0 6803:1.0 6804:1.0 6805:1.0 6806:1.0 6807:1.0 
0.021095870516692646 0.0016026976407332476 24:1.0 25:1.0 30:1.0 34:1.0 38:1.0 40:1.0 43:1.0 44:1.0 45:2.0 46:2.0 47:2.0 61:1.0 67:3.0 119:1.0 138:1.0 139:1.0 194:1.0 310:1.0 706:1.0 998:1.0 1071:1.0 1238:1.0 1241:1.0 2302:1.0 5810:1.0 5811:1.0 5812:1.0 5813:1.0 5814:1.0 5827:1.0 6647:1.0 6649:1.0 6790:1.0 6791:1.0 6799:1.0 6801:1.0 6802:1.0 6803:1.0 6804:1.0 6805:1.0 6808:1.0 6809:1.0 6810:1.0 6811:1.0 6812:1.0 6813:1.0 6814:1.0 6815:1.0 6816:1.0 6817:1.0 
0.02497663186775395 0.0 24:1.0 25:1.0 30:1.0 34:1.0 38:1.0 40:1.0 43:1.0 44:1.0 45:2.5 46:3.0 47:2.0 58:1.0 61:2.0 67:5.0 119:2.0 138:1.0 139:1.0 194:1.0 310:1.0 706:1.0 970:1.0 1071:1.0 1238:1.0 1241:1.0 2302:1.0 5810:1.0 5811:1.0 5812:1.0 5813:1.0 5814:1.0 5827:1.0 5883:1.0 5884:1.0 5885:1.0 5886:1.0 6662:1.0 6790:1.0 6791:1.0 6799:1.0 6801:1.0 6802:1.0 6803:1.0 6804:1.0 6805:1.0 6813:1.0 6818:1.0 6819:1.0 6820:1.0 6821:1.0 6822:1.0 6823:1.0 
0.03994412614614847 0.0 22:1.0 23:1.0 24:4.0 30:1.0 32:1.0 115:1.0 138:1.0 139:1.0 198:2.0 327:1.0 346:1.0 351:1.0 530:1.0 838:1.0 850:1.0 856:2.0 1082:1.0 1096:1.0 1098:1.0 1378:1.0 1698:2.0 1767:2.0 1967:2.0 2516:1.0 2518:1.0 3264:1.0 5574:1.0 5751:1.0 5753:1.0 6007:1.0 6011:1.0 6012:1.0 6066:1.0 6067:1.0 6071:1.0 6083:1.0 6084:1.0 6085:1.0 6086:1.0 6532:1.0 6596:1.0 6889:1.0 6890:1.0 6891:1.0 6892:1.0 6893:1.0 6894:1.0 6895:1.0 6896:1.0 6901:1.0 6906:1.0 6907:1.0 6908:1.0 6909:1.0 6910:1.0 
0.03521700332678677 0.0 22:1.0 23:1.0 24:3.0 25:1.0 30:1.0 32:1.0 45:2.0 46:3.0 47:1.0 138:1.0 139:1.0 268:1.0 272:1.0 390:1.0 393:1.0 418:1.0 444:1.0 446:1.0 615:1.0 838:1.0 856:1.0 1082:1.0 1698:1.0 1767:1.0 1967:1.0 2423:1.0 2966:1.0 2967:1.0 2968:1.0 2970:1.0 2971:1.0 3107:1.0 5574:1.0 5751:1.0 5753:1.0 5761:1.0 5984:1.0 6009:1.0 6056:1.0 6057:1.0 6058:1.0 6083:1.0 6084:1.0 6098:1.0 6894:1.0 6895:1.0 6901:1.0 6911:1.0 6912:1.0 6913:1.0 6914:1.0 6915:1.0 6916:1.0 6917:1.0 6918:1.0 
0.0034072245246311245 0.0 22:1.0 23:1.0 24:3.0 25:1.0 30:1.0 32:1.0 45:3.0 46:5.0 47:1.0 138:1.0 139:1.0 280:1.0 327:1.0 331:1.0 390:1.0 393:1.0 530:1.0 615:1.0 838:1.0 856:1.0 1082:1.0 1698:1.0 1767:1.0 1967:1.0 2516:1.0 2518:1.0 2966:1.0 2967:1.0 2968:1.0 2970:1.0 2971:1.0 5574:1.0 5751:1.0 5753:1.0 6010:1.0 6022:1.0 6023:1.0 6024:1.0 6060:1.0 6083:1.0 6084:1.0 6098:1.0 6410:1.0 6894:1.0 6895:1.0 6900:1.0 6901:1.0 6902:1.0 6911:1.0 6912:1.0 6913:1.0 6916:1.0 6919:1.0 6920:1.0 6921:1.0 
0.0305696547964256 0.0 9:1.0 22:1.0 23:1.0 24:2.0 25:1.0 29:1.0 30:1.0 31:1.0 32:1.0 115:2.0 198:2.0 213:1.0 268:1.0 272:1.0 310:1.0 446:1.0 856:1.0 1967:1.0 2439:1.0 3205:1.0 3206:1.0 3458:1.0 6286:1.0 6289:1.0 6321:1.0 6324:1.0 6490:1.0 6491:1.0 6496:1.0 6497:1.0 6504:1.0 6505:1.0 6512:1.0 6561:1.0 6589:1.0 7059:1.0 7075:1.0 7076:1.0 7077:1.0 7078:1.0 7079:1.0 7080:1.0 7081:1.0 7082:1.0 7083:1.0 
0.0 0.013532724349327186 22:1.0 23:1.0 24:1.0 29:1.0 30:1.0 31:1.0 32:1.0 115:6.0 198:8.0 201:1.0 856:1.0 949:2.0 961:2.0 1096:1.0 1098:1.0 1179:1.0 1203:1.0 1251:1.0 1252:1.0 1555:1.0 1561:1.0 1593:1.0 1599:1.0 1698:1.0 1767:1.0 1897:2.0 1904:2.0 1967:1.0 2476:1.0 2511:1.0 3264:1.0 5501:1.0 5670:1.0 5702:1.0 6300:1.0 6302:1.0 6348:1.0 6490:1.0 6496:1.0 6505:1.0 6543:1.0 6561:1.0 6562:3.0 6563:1.0 6580:1.0 6594:1.0 6595:3.0 6603:1.0 6604:1.0 6973:1.0 6974:1.0 7007:1.0 7008:1.0 7016:1.0 7017:1.0 7018:1.0 7087:1.0 7289:1.0 7290:1.0 7291:1.0 7292:1.0 7293:1.0 7294:1.0 7295:1.0 7296:1.0 7297:1.0 
0.05 0.0 22:1.0 23:1.0 24:1.0 29:1.0 30:1.0 31:1.0 32:1.0 115:4.0 198:8.0 201:1.0 376:1.0 856:1.0 949:1.0 961:1.0 1096:1.0 1098:1.0 1179:1.0 1203:1.0 1213:1.0 1238:1.0 1555:1.0 1561:1.0 1593:1.0 1599:1.0 1698:1.0 1767:1.0 1897:2.0 1904:2.0 1967:1.0 2476:1.0 2511:1.0 3264:1.0 5670:1.0 6300:1.0 6302:1.0 6348:1.0 6490:1.0 6505:1.0 6543:1.0 6562:2.0 6580:1.0 6594:1.0 6595:3.0 6603:1.0 6604:1.0 6973:1.0 6974:1.0 6980:1.0 7007:1.0 7008:1.0 7087:1.0 7289:1.0 7290:1.0 7291:1.0 7292:1.0 7293:1.0 7294:1.0 7296:1.0 7299:1.0 7301:1.0 7302:1.0 7303:1.0 7305:1.0 7306:1.0 7307:1.0 
0.05 0.0 22:1.0 23:1.0 24:1.0 29:1.0 30:1.0 31:1.0 32:1.0 115:2.0 164:1.0 198:8.0 201:1.0 280:1.0 856:1.0 1096:1.0 1098:1.0 1179:1.0 1203:1.0 1251:1.0 1252:1.0 1593:1.0 1599:1.0 1698:1.0 1767:1.0 1897:2.0 1904:2.0 1967:1.0 2476:1.0 2511:1.0 3264:1.0 5501:1.0 5670:1.0 6300:1.0 6302:1.0 6348:1.0 6490:1.0 6505:1.0 6543:1.0 6562:1.0 6578:1.0 6580:1.0 6594:1.0 6595:3.0 6603:1.0 6604:1.0 6973:1.0 6974:1.0 7007:1.0 7008:1.0 7016:1.0 7017:1.0 7018:1.0 7087:1.0 7289:1.0 7290:1.0 7291:1.0 7292:1.0 7293:1.0 7294:1.0 7309:1.0 7310:1.0 
0.0022127268799587933 0.0 22:1.0 23:1.0 24:2.0 25:1.0 29:1.0 30:1.0 31:1.0 32:1.0 45:1.0 46:1.0 47:1.0 115:2.0 146:1.0 198:3.0 268:1.0 272:1.0 446:1.0 594:1.0 598:1.0 745:1.0 812:1.0 1510:1.0 1844:1.0 1967:1.0 2158:1.0 2423:1.0 5467:1.0 6035:1.0 6286:1.0 6288:1.0 6289:1.0 6323:1.0 6324:1.0 6505:1.0 6543:1.0 6563:1.0 6629:1.0 6630:1.0 6631:1.0 6736:1.0 6738:1.0 7009:1.0 7294:1.0 7358:1.0 7359:1.0 7360:1.0 7361:1.0 7362:1.0 7363:1.0 7364:1.0 7365:1.0 7366:1.0 7367:1.0 7368:1.0 7369:1.0 7370:1.0 7371:1.0 7372:1.0 7373:1.0 7374:1.0 7375:1.0 7376:1.0 
0.04185540722100982 0.0 22:1.0 23:1.0 24:1.0 29:1.0 30:1.0 31:1.0 32:1.0 115:6.0 198:8.0 201:1.0 856:1.0 949:2.0 961:2.0 1096:1.0 1098:1.0 1179:1.0 1203:1.0 1251:1.0 1252:1.0 1555:1.0 1561:1.0 1593:1.0 1599:1.0 1698:1.0 1767:1.0 1897:2.0 1904:2.0 1960:1.0 1967:1.0 2476:1.0 2511:1.0 3264:1.0 5501:1.0 5670:1.0 5702:1.0 6300:1.0 6302:1.0 6348:1.0 6490:1.0 6496:1.0 6505:1.0 6532:1.0 6543:1.0 6561:1.0 6562:3.0 6563:1.0 6580:1.0 6594:1.0 6595:3.0 6596:1.0 6974:1.0 7008:1.0 7009:1.0 7016:1.0 7017:1.0 7018:1.0 7087:1.0 7290:1.0 7294:1.0 7295:1.0 7296:1.0 7297:1.0 7377:1.0 7378:1.0 7379:1.0 7380:1.0 
0.05 0.007676177307954554 22:1.0 23:1.0 24:1.0 29:1.0 30:1.0 31:1.0 32:1.0 45:1.0 46:1.0 47:1.0 115:4.0 146:1.0 198:6.0 376:1.0 551:1.0 554:1.0 856:1.0 949:1.0 961:1.0 1096:1.0 1098:1.0 1167:1.0 1179:1.0 1203:1.0 1213:1.0 1238:1.0 1555:1.0 1561:1.0 1593:1.0 1599:1.0 1698:1.0 1767:1.0 1897:1.0 1904:1.0 1960:1.0 1967:1.0 2511:1.0 3264:1.0 6300:1.0 6302:1.0 6348:1.0 6505:1.0 6532:1.0 6543:1.0 6562:2.0 6580:1.0 6594:1.0 6595:2.0 6596:1.0 6974:1.0 6980:1.0 7003:1.0 7008:1.0 7009:1.0 7290:1.0 7296:1.0 7299:1.0 7301:1.0 7302:1.0 7303:1.0 7305:1.0 7306:1.0 7307:1.0 7314:1.0 7315:1.0 7316:1.0 7317:1.0 7319:1.0 7378:1.0 7379:1.0 7380:1.0 7384:1.0 7385:1.0 
0.007278744645876467 0.0 22:1.0 23:1.0 24:1.0 29:1.0 30:1.0 31:1.0 32:1.0 45:1.5 46:2.0 47:1.0 115:2.0 164:1.0 198:4.0 280:1.0 641:1.0 681:1.0 682:1.0 724:1.0 756:1.0 856:1.0 1096:1.0 1098:1.0 1179:1.0 1203:1.0 1251:1.0 1252:1.0 1593:1.0 1599:1.0 1960:1.0 1967:1.0 2511:1.0 3264:1.0 5501:1.0 6300:1.0 6302:1.0 6348:1.0 6505:1.0 6532:1.0 6543:1.0 6562:1.0 6578:1.0 6580:1.0 6593:1.0 6594:1.0 6595:1.0 6596:1.0 6974:1.0 7008:1.0 7009:1.0 7016:1.0 7017:1.0 7018:1.0 7029:1.0 7030:1.0 7031:1.0 7309:1.0 7310:1.0 7378:1.0 7379:1.0 7380:1.0 7387:1.0 7388:1.0 7389:1.0 
0.001097090186397977 0.0 22:1.0 23:1.0 24:1.0 29:1.0 30:1.0 31:1.0 32:1.0 40:1.0 43:1.0 45:1.5 46:2.0 47:1.0 115:1.0 123:1.0 176:1.0 198:1.0 594:1.0 598:1.0 745:1.0 758:1.0 759:1.0 2551:1.0 2552:1.0 2553:1.0 2554:1.0 2555:1.0 2558:1.0 2565:1.0 2566:1.0 2567:1.0 2570:1.0 2572:1.0 2573:1.0 2595:1.0 3181:1.0 4478:1.0 4736:1.0 7051:1.0 7531:1.0 7534:1.0 7535:1.0 7536:1.0 7537:1.0 7538:1.0 7539:1.0 7540:1.0 7541:1.0 
0.0015695250139304566 0.006180891309674189 22:1.0 23:1.0 24:2.0 25:2.0 30:1.0 32:1.0 103:1.0 115:2.0 138:1.0 139:1.0 194:1.0 198:3.0 201:1.0 820:1.0 1016:1.0 2345:1.0 3099:1.0 3100:1.0 5696:1.0 5707:1.0 5733:1.0 5753:1.0 6357:1.0 6781:1.0 6789:1.0 6915:1.0 7560:1.0 7561:1.0 7562:1.0 7563:1.0 7564:1.0 7565:1.0 7566:1.0 7567:1.0 7568:1.0 7569:1.0 7570:1.0 7571:1.0 7572:1.0 7573:1.0 7574:1.0 
0.007249309205669062 0.0 22:1.0 23:1.0 24:4.0 25:1.0 29:1.0 30:1.0 31:1.0 32:1.0 45:2.0 46:3.0 47:1.0 103:1.0 194:1.0 198:1.0 201:1.0 521:1.0 527:1.0 1092:1.0 1205:1.0 1209:1.0 1546:1.0 1698:1.0 1898:1.0 2302:1.0 3065:1.0 3376:1.0 4126:1.0 5774:1.0 5775:1.0 5814:1.0 5894:1.0 5925:1.0 6010:1.0 6022:1.0 6023:1.0 6024:1.0 6084:1.0 6154:1.0 6155:1.0 6930:1.0 7575:1.0 7576:1.0 7577:1.0 7578:1.0 7579:1.0 7580:1.0 7581:1.0 7582:1.0 7583:1.0 7584:1.0 7585:1.0 7586:1.0 7587:1.0 7588:1.0 7589:1.0 7590:1.0 7591:1.0 
0.033777159209077326 0.0 16:1.0 22:1.0 23:1.0 24:4.0 25:1.0 29:1.0 30:1.0 31:1.0 32:1.0 45:3.0 46:5.0 47:1.0 194:1.0 198:1.0 201:1.0 326:1.0 327:1.0 331:1.0 1205:1.0 1209:1.0 1527:1.0 1546:1.0 1698:1.0 1898:1.0 2302:1.0 2518:1.0 3065:1.0 3376:1.0 5736:1.0 5798:1.0 5814:1.0 5889:1.0 5894:1.0 6069:1.0 6084:1.0 6154:1.0 6155:1.0 6930:1.0 7575:1.0 7576:1.0 7577:1.0 7578:1.0 7579:1.0 7580:1.0 7581:1.0 7585:1.0 7587:1.0 7588:1.0 7592:1.0 7593:1.0 7594:1.0 7595:1.0 7596:1.0 7597:1.0 7598:1.0 7599:1.0 7600:1.0 
0.031076711636609154 0.0 8:1.0 24:3.0 25:1.0 30:1.0 45:4.0 46:6.0 47:2.0 67:7.0 115:1.0 138:1.0 139:1.0 176:1.0 198:1.0 268:1.0 272:1.0 413:1.0 418:1.0 444:1.0 446:1.0 451:1.0 466:2.0 770:1.0 856:1.0 884:1.0 887:1.0 1096:1.0 1109:1.0 1111:1.0 2423:1.0 2426:1.0 2656:1.0 4797:1.0 5520:1.0 5984:1.0 6596:1.0 6640:1.0 6678:1.0 6682:1.0 6694:1.0 7699:1.0 7700:1.0 7701:1.0 7702:1.0 7703:1.0 7704:1.0 7705:1.0 7706:1.0 7707:1.0 7708:1.0 7709:1.0 7719:1.0 7720:1.0 7721:1.0 7726:1.0 7727:1.0 7728:1.0 7729:1.0 7730:1.0 7731:1.0 7732:1.0 7733:1.0 
0.036976606905503126 0.0 8:1.0 24:3.0 25:1.0 30:1.0 45:6.0 46:10.0 47:2.0 67:14.0 119:1.0 138:1.0 139:1.0 198:1.0 268:1.0 272:1.0 413:2.0 418:1.0 434:1.0 444:1.0 446:1.0 466:4.0 770:1.0 798:1.0 856:1.0 884:1.0 887:1.0 1096:1.0 2423:1.0 2426:1.0 2656:1.0 2951:1.0 4797:1.0 5520:1.0 5984:1.0 6596:1.0 6678:1.0 6682:2.0 7699:1.0 7700:1.0 7701:1.0 7702:1.0 7703:1.0 7704:1.0 7705:1.0 7706:1.0 7707:1.0 7708:1.0 7709:1.0 7719:1.0 7720:1.0 7721:1.0 7729:1.0 7730:1.0 7731:1.0 7734:1.0 7735:1.0 7736:1.0 7737:1.0 7738:1.0 7739:1.0 7740:1.0 7741:1.0 7742:1.0 7743:1.0 7744:1.0 
0.026788623357009475 0.022911237733830567 24:1.0 30:1.0 45:2.0 46:3.0 47:1.0 67:1.0 89:1.0 90:1.0 115:1.0 268:1.0 446:1.0 1066:1.0 1098:1.0 1600:1.0 1601:1.0 2433:1.0 2501:1.0 6753:1.0 6755:1.0 7051:1.0 7090:1.0 7325:1.0 7785:1.0 7786:1.0 7787:1.0 7788:1.0 7789:1.0 7790:1.0 7791:1.0 7792:1.0 7793:1.0 7794:1.0 7795:1.0 7796:1.0 7797:1.0 7798:1.0 7799:1.0 7800:1.0 7801:1.0 7802:1.0 7803:1.0 7804:1.0 7805:1.0 7806:1.0 7807:1.0 7808:1.0 7809:1.0 
0.00980106583197215 0.00883039925692487 24:1.0 25:3.0 30:1.0 45:3.0 46:5.0 47:1.0 67:6.0 89:1.0 90:1.0 119:1.0 466:1.0 1066:1.0 1098:1.0 1555:1.0 1561:1.0 1600:1.0 1601:1.0 2412:1.0 2415:1.0 2423:1.0 2426:1.0 2501:1.0 2540:1.0 4334:1.0 4720:1.0 4721:1.0 6753:1.0 6755:1.0 7325:1.0 7785:1.0 7786:1.0 7787:1.0 7788:1.0 7789:1.0 7790:1.0 7791:1.0 7792:1.0 7802:1.0 7804:1.0 7805:1.0 7810:1.0 7811:1.0 7812:1.0 7813:1.0 7814:1.0 7815:1.0 7816:1.0 7817:1.0 7818:1.0 7819:1.0 7820:1.0 7821:1.0 7822:1.0 7823:1.0 7824:1.0 7825:1.0 7826:1.0 
0.024499089677616867 0.007350291189282246 24:1.0 25:1.0 30:1.0 45:4.0 46:7.0 47:1.0 67:9.0 89:1.0 90:1.0 119:1.0 280:1.0 284:1.0 292:1.0 327:1.0 331:1.0 466:1.0 530:1.0 1066:1.0 1098:1.0 1600:1.0 1601:1.0 2501:1.0 2516:1.0 2518:1.0 4334:1.0 4720:1.0 4721:1.0 6753:1.0 6755:1.0 7325:1.0 7785:1.0 7786:1.0 7787:1.0 7788:1.0 7789:1.0 7790:1.0 7791:1.0 7792:1.0 7802:1.0 7804:1.0 7805:1.0 7812:1.0 7815:1.0 7816:1.0 7819:1.0 7820:1.0 7821:1.0 7822:1.0 7827:1.0 7828:1.0 7829:1.0 7830:1.0 7831:1.0 7832:1.0 7833:1.0 7834:1.0 
0.022273479072260866 0.02019043326130849 25:3.0 30:1.0 45:2.0 46:3.0 47:1.0 67:3.0 89:1.0 90:1.0 198:1.0 466:1.0 594:1.0 768:1.0 1096:1.0 1098:1.0 1555:1.0 1561:1.0 2412:1.0 2415:1.0 2423:1.0 2426:1.0 2515:1.0 2540:1.0 4334:1.0 4720:1.0 4721:1.0 6107:1.0 7280:1.0 7810:1.0 7811:1.0 7812:1.0 7813:1.0 7814:1.0 7815:1.0 7816:1.0 7817:1.0 7818:1.0 7821:1.0 7822:1.0 7823:1.0 7824:1.0 7825:1.0 7851:1.0 7852:1.0 7853:1.0 7854:1.0 7855:1.0 7856:1.0 7857:1.0 7858:1.0 7859:1.0 7860:1.0 7861:1.0 7862:1.0 7863:1.0 7864:1.0 
0.03612040015246792 0.017809195082637633 25:1.0 30:1.0 45:3.0 46:5.0 47:1.0 67:6.0 89:1.0 90:1.0 198:1.0 280:1.0 284:1.0 292:1.0 327:1.0 331:1.0 466:1.0 530:1.0 594:1.0 768:1.0 1096:1.0 1098:1.0 2515:1.0 2516:1.0 2518:1.0 4334:1.0 4720:1.0 4721:1.0 6107:1.0 7280:1.0 7812:1.0 7815:1.0 7816:1.0 7821:1.0 7822:1.0 7827:1.0 7828:1.0 7829:1.0 7830:1.0 7831:1.0 7832:1.0 7833:1.0 7851:1.0 7852:1.0 7853:1.0 7854:1.0 7855:1.0 7856:1.0 7857:1.0 7858:1.0 7859:1.0 7860:1.0 7861:1.0 7862:1.0 7863:1.0 7865:1.0 
0.0281431544612436 0.01091316655115851 24:1.0 30:1.0 45:2.0 46:3.0 47:1.0 67:3.0 89:1.0 90:1.0 115:1.0 176:1.0 268:1.0 446:1.0 460:1.0 466:1.0 759:1.0 798:1.0 1098:1.0 2433:1.0 2464:1.0 2467:1.0 2868:1.0 5189:1.0 7785:1.0 7786:1.0 7787:1.0 7788:1.0 7790:1.0 7793:1.0 7794:1.0 7795:1.0 7796:1.0 7797:1.0 7802:1.0 7804:1.0 7806:1.0 7807:1.0 7808:1.0 7877:1.0 7878:1.0 7881:1.0 7882:1.0 7883:1.0 7884:1.0 7886:1.0 7888:1.0 7889:1.0 7890:1.0 7891:1.0 7892:1.0 7893:1.0 
0.0 0.0036669204294777756 24:2.0 25:4.0 29:1.0 30:1.0 31:1.0 45:3.0 46:5.0 47:1.0 67:6.0 119:1.0 176:1.0 198:2.0 213:1.0 435:1.0 466:2.0 759:1.0 798:1.0 949:1.0 961:1.0 998:1.0 1555:1.0 1561:1.0 1600:1.0 1601:1.0 1602:1.0 1604:1.0 2412:1.0 2415:1.0 2423:1.0 2426:1.0 2501:1.0 2540:1.0 3304:1.0 3305:1.0 4797:1.0 7324:1.0 7325:1.0 7770:1.0 7777:1.0 7894:1.0 7895:1.0 7896:1.0 7897:1.0 7898:1.0 7900:1.0 7902:1.0 7906:1.0 7909:1.0 7910:1.0 7911:1.0 7912:1.0 7913:1.0 7914:1.0 7915:1.0 7916:1.0 7917:1.0 7918:1.0 7919:1.0 7920:1.0 7921:1.0 7922:1.0 7923:1.0 
0.02157702145751309 0.0 24:2.0 25:3.0 29:1.0 30:1.0 31:1.0 45:3.0 46:5.0 47:1.0 67:6.0 119:1.0 176:1.0 198:2.0 213:1.0 390:1.0 435:1.0 466:2.0 569:1.0 577:1.0 759:1.0 949:1.0 961:1.0 1600:1.0 1601:1.0 1602:1.0 1604:1.0 2412:1.0 2415:1.0 2423:1.0 2426:1.0 2501:1.0 2540:1.0 3304:1.0 3305:1.0 4797:1.0 7324:1.0 7325:1.0 7770:1.0 7777:1.0 7894:1.0 7895:1.0 7896:1.0 7897:1.0 7898:1.0 7900:1.0 7902:1.0 7906:1.0 7911:1.0 7912:1.0 7914:1.0 7915:1.0 7917:1.0 7918:1.0 7919:1.0 7920:1.0 7921:1.0 7922:1.0 7923:1.0 7924:1.0 7925:1.0 7926:1.0 
0.012711231227522362 0.0 24:2.0 25:2.0 29:1.0 30:1.0 31:1.0 45:3.0 46:5.0 47:1.0 67:6.0 119:1.0 176:1.0 198:2.0 213:1.0 310:1.0 435:1.0 466:2.0 577:1.0 759:1.0 1600:1.0 1601:1.0 1602:1.0 1604:1.0 2412:1.0 2415:1.0 2423:1.0 2426:1.0 2501:1.0 2540:1.0 3107:1.0 3304:1.0 3305:1.0 4797:1.0 7324:1.0 7325:1.0 7770:1.0 7777:1.0 7894:1.0 7895:1.0 7896:1.0 7897:1.0 7898:1.0 7900:1.0 7902:1.0 7906:1.0 7911:1.0 7914:1.0 7915:1.0 7917:1.0 7918:1.0 7919:1.0 7920:1.0 7921:1.0 7922:1.0 7923:1.0 7927:1.0 7928:1.0 7929:1.0 
0.005698050443828784 0.0 24:1.0 25:1.0 29:1.0 30:1.0 31:1.0 45:4.0 46:4.0 47:4.0 67:4.0 198:1.0 268:1.0 272:1.0 446:1.0 466:1.0 594:1.0 598:1.0 733:1.0 742:1.0 743:1.0 745:1.0 798:1.0 2408:1.0 2423:1.0 2426:1.0 2495:1.0 3041:1.0 3205:1.0 3206:1.0 3458:1.0 4823:1.0 5561:1.0 5565:1.0 6010:1.0 6022:1.0 6023:1.0 6024:1.0 7787:1.0 7788:1.0 8001:1.0 8002:1.0 8003:1.0 8004:1.0 8005:1.0 8006:1.0 8007:1.0 8008:1.0 8009:1.0 8010:1.0 8011:1.0 8012:1.0 
0.026493326685130655 0.009563541807359351 22:1.0 23:1.0 24:2.0 25:1.0 30:1.0 45:2.0 46:2.0 47:2.0 115:1.0 138:1.0 139:1.0 181:1.0 185:1.0 194:1.0 198:1.0 201:1.0 1205:1.0 1209:1.0 1491:1.0 2302:1.0 2629:1.0 4852:1.0 5811:1.0 5813:1.0 5814:1.0 5823:1.0 5824:1.0 5831:1.0 5832:1.0 5894:1.0 6085:1.0 6497:1.0 8025:1.0 8026:1.0 8027:1.0 8028:1.0 8029:1.0 8030:1.0 8037:1.0 8040:1.0 8041:1.0 8043:1.0 8044:1.0 8045:1.0 8046:1.0 8047:1.0 8048:1.0 8049:1.0 8050:1.0 8051:1.0 8052:1.0 8053:1.0 
0.026065184883554762 0.0 22:1.0 23:1.0 24:2.0 25:1.0 29:1.0 30:1.0 31:1.0 32:1.0 115:1.0 176:1.0 198:2.0 268:1.0 272:1.0 390:1.0 446:1.0 615:1.0 856:1.0 1967:1.0 2423:1.0 2475:1.0 3260:1.0 5574:1.0 6453:1.0 6458:1.0 6460:1.0 6461:1.0 6462:1.0 6463:1.0 6467:1.0 6468:1.0 6469:1.0 6477:1.0 6478:1.0 6494:1.0 6500:1.0 7421:1.0 8102:1.0 8103:1.0 8104:1.0 8105:1.0 8106:1.0 8107:1.0 8112:1.0 8113:1.0 8114:1.0 
0.05 0.0035925844178120985 24:2.0 29:1.0 30:1.0 31:1.0 67:1.0 115:2.0 176:1.0 198:2.0 280:1.0 284:1.0 292:1.0 327:1.0 530:1.0 615:1.0 618:1.0 798:1.0 856:1.0 1098:1.0 1378:1.0 1967:1.0 2475:1.0 2516:1.0 2518:1.0 3260:1.0 5574:1.0 6300:1.0 6302:1.0 6380:1.0 6381:1.0 6453:1.0 6494:1.0 6496:1.0 6497:1.0 6561:1.0 7421:1.0 8102:1.0 8103:1.0 8104:1.0 8105:1.0 8106:1.0 8108:1.0 8109:1.0 8110:1.0 8111:1.0 8112:1.0 8113:1.0 8114:1.0 
0.03554813600735791 0.0 22:1.0 23:1.0 24:1.0 29:1.0 30:1.0 31:1.0 32:1.0 45:2.0 46:3.0 47:1.0 115:2.0 137:1.0 150:1.0 198:3.0 268:1.0 418:1.0 427:1.0 444:1.0 446:1.0 460:1.0 551:1.0 554:1.0 555:1.0 838:1.0 856:1.0 1096:1.0 1098:1.0 1967:1.0 2433:1.0 4277:1.0 4513:1.0 5574:1.0 6300:1.0 6302:1.0 6346:1.0 6348:1.0 6435:1.0 6476:1.0 6491:1.0 6497:1.0 6504:1.0 6505:1.0 6506:1.0 6509:1.0 6510:1.0 6511:1.0 6632:1.0 8148:1.0 8149:1.0 8150:1.0 8151:1.0 8152:1.0 8153:1.0 8154:1.0 8155:1.0 8156:1.0 8157:1.0 8158:1.0 8159:1.0 8160:1.0 8161:1.0 
0.005350448637882969 0.0 26:1.0 29:1.0 30:1.0 31:1.0 67:5.0 115:1.0 150:1.0 224:1.0 268:1.0 413:1.0 418:1.0 444:1.0 446:1.0 466:2.0 759:1.0 780:1.0 812:1.0 822:1.0 823:1.0 1096:1.0 1098:1.0 2423:1.0 2426:1.0 2433:1.0 4277:1.0 5984:1.0 6300:1.0 6302:1.0 6518:1.0 6566:1.0 7352:1.0 8160:1.0 8177:1.0 8178:1.0 8179:1.0 8180:1.0 8181:1.0 8182:1.0 8183:1.0 8184:1.0 8185:1.0 8186:1.0 
0.0358888603024552 0.00854045016159218 24:1.0 29:1.0 30:1.0 31:1.0 45:3.5 46:5.0 47:2.0 67:6.0 268:1.0 413:1.0 418:1.0 427:1.0 444:1.0 446:1.0 466:1.0 593:1.0 594:1.0 598:1.0 745:1.0 759:1.0 798:1.0 820:1.0 1016:1.0 1098:1.0 1862:1.0 2410:1.0 2433:1.0 2444:1.0 2447:1.0 2874:1.0 3260:1.0 5162:1.0 5970:1.0 6157:1.0 6340:1.0 6373:1.0 6378:1.0 6572:1.0 6573:1.0 6575:1.0 8187:1.0 8188:1.0 8189:1.0 8190:1.0 8191:1.0 8192:1.0 8194:1.0 8195:1.0 8196:1.0 8204:1.0 8205:1.0 8206:1.0 
0.04010296246128562 0.0 9:1.0 22:1.0 23:1.0 24:2.0 25:1.0 28:1.0 29:1.0 30:1.0 31:1.0 32:1.0 45:4.5 46:5.0 47:4.0 115:1.0 137:1.0 150:1.0 198:1.0 268:1.0 272:1.0 310:1.0 418:1.0 444:1.0 446:1.0 593:1.0 594:1.0 745:1.0 838:1.0 856:2.0 998:1.0 1071:1.0 1096:1.0 1967:2.0 2423:1.0 2515:1.0 5162:1.0 5574:2.0 5984:1.0 6286:1.0 6289:1.0 6321:1.0 6324:1.0 6502:1.0 6562:1.0 6595:1.0 6623:1.0 8104:1.0 8150:1.0 8154:1.0 8178:1.0 8180:1.0 8227:1.0 8228:1.0 8229:1.0 8235:1.0 8269:1.0 8270:1.0 8271:1.0 8272:1.0 8273:1.0 8274:1.0 
0.04047141438893149 0.0 24:1.0 25:1.0 29:1.0 30:1.0 31:1.0 45:3.5 46:6.0 47:1.0 67:9.0 115:2.0 194:1.0 198:2.0 213:1.0 259:1.0 268:1.0 272:1.0 413:1.0 418:1.0 444:1.0 446:1.0 466:1.0 798:1.0 1600:1.0 1601:1.0 1602:1.0 1604:1.0 2123:1.0 2423:1.0 2426:1.0 2501:1.0 3260:1.0 3394:1.0 3400:1.0 3402:1.0 4357:1.0 5970:1.0 5984:1.0 6286:1.0 6289:1.0 6375:1.0 6502:1.0 6562:1.0 6587:1.0 6681:1.0 7122:1.0 7322:1.0 7323:1.0 7326:1.0 7847:1.0 8103:1.0 8301:1.0 8302:1.0 8303:1.0 8304:1.0 8305:1.0 8306:1.0 8307:1.0 8308:1.0 8309:1.0 
0.05 0.0 24:1.0 25:1.0 30:1.0 40:1.0 43:1.0 44:1.0 45:4.5 46:8.0 47:1.0 67:11.0 115:1.0 119:1.0 138:1.0 139:1.0 210:1.0 212:1.0 258:1.0 292:1.0 413:1.0 615:1.0 618:1.0 794:1.0 855:1.0 1142:1.0 1478:1.0 2350:1.0 2408:1.0 2903:1.0 3134:1.0 3196:1.0 3199:1.0 3332:1.0 3333:1.0 3343:1.0 3371:1.0 8365:1.0 8366:1.0 8367:1.0 8368:1.0 8369:1.0 8370:1.0 8371:1.0 8372:1.0 8373:1.0 8374:1.0 8375:1.0 8376:1.0 8487:1.0 8488:1.0 8489:1.0 8490:1.0 8494:1.0 8495:1.0 8496:1.0 8497:1.0 8498:1.0 8499:1.0 8509:1.0 
0.04071987072556007 0.0 24:1.0 25:1.0 30:1.0 40:1.0 43:1.0 44:1.0 45:5.5 46:8.0 47:3.0 67:9.0 115:1.0 138:1.0 139:1.0 258:1.0 413:1.0 641:1.0 681:1.0 682:1.0 683:1.0 685:1.0 686:1.0 794:1.0 855:1.0 1142:1.0 1478:1.0 2142:1.0 2350:1.0 2408:1.0 2903:1.0 3196:1.0 3199:1.0 3343:1.0 3371:1.0 5061:1.0 8365:1.0 8366:1.0 8367:1.0 8369:1.0 8370:1.0 8371:1.0 8372:1.0 8373:1.0 8374:1.0 8375:1.0 8376:1.0 8519:1.0 8520:1.0 8521:1.0 8522:1.0 8523:1.0 8524:1.0 8525:1.0 8526:1.0 8527:1.0 8529:1.0 
0.0 0.001282379679785763 22:1.0 23:1.0 24:2.0 25:1.0 29:1.0 30:1.0 31:1.0 32:1.0 40:1.0 43:1.0 44:1.0 45:3.5 46:5.0 47:2.0 115:1.0 198:1.0 495:1.0 497:1.0 784:1.0 785:1.0 794:1.0 856:1.0 884:1.0 888:1.0 1118:1.0 1142:1.0 1478:1.0 1598:1.0 2350:1.0 2439:1.0 2903:1.0 2934:1.0 3196:1.0 3326:1.0 3334:1.0 3343:1.0 3364:1.0 3371:1.0 4245:1.0 8365:1.0 8366:1.0 8367:1.0 8374:1.0 8375:1.0 8376:1.0 8549:1.0 8550:1.0 8551:1.0 8552:1.0 8553:1.0 8554:1.0 
0.006221074209246896 0.0 22:1.0 23:1.0 24:2.0 25:1.0 30:1.0 32:1.0 34:1.0 38:1.0 40:1.0 43:1.0 45:2.0 46:2.0 47:2.0 97:1.0 99:1.0 115:1.0 123:1.0 138:1.0 139:1.0 190:1.0 198:1.0 212:1.0 706:1.0 784:1.0 785:1.0 794:1.0 1263:1.0 2350:1.0 3333:1.0 4512:1.0 4888:1.0 7915:1.0 8384:1.0 8391:1.0 8392:1.0 8393:1.0 8398:1.0 8400:1.0 8401:1.0 8579:1.0 8580:1.0 8588:1.0 8589:1.0 8590:1.0 8591:1.0 8592:1.0 8593:1.0 8594:1.0 8595:1.0 
0.03772881591269565 0.0 2:1.0 4:1.0 12:1.0 13:1.0 14:1.0 15:1.0 22:1.0 23:1.0 24:2.0 25:1.0 29:1.0 30:1.0 31:1.0 32:1.0 40:1.0 43:1.0 44:1.0 45:1.5 46:2.0 47:1.0 133:1.0 611:1.0 614:1.0 1071:1.0 1601:1.0 1604:1.0 2501:1.0 3508:1.0 3520:1.0 4242:1.0 4247:1.0 4248:1.0 8689:1.0 8690:1.0 8691:1.0 8692:1.0 8700:1.0 8704:1.0 8740:1.0 8741:1.0 8742:1.0 8743:1.0 8744:1.0 8745:1.0 8746:1.0 8747:1.0 8748:1.0 8749:1.0 8750:1.0 
0.0243345505846175 0.0 22:1.0 23:1.0 24:1.0 25:1.0 29:1.0 30:1.0 31:1.0 32:1.0 34:1.0 37:1.0 38:1.0 40:1.0 43:1.0 44:1.0 45:1.0 46:1.0 47:1.0 146:1.0 673:1.0 675:1.0 1096:1.0 2035:1.0 2080:1.0 7077:1.0 8673:1.0 8707:1.0 8709:1.0 8711:1.0 8722:1.0 8724:1.0 8726:1.0 8727:1.0 8729:1.0 8730:1.0 8737:1.0 8751:1.0 8753:1.0 8754:1.0 8769:1.0 8770:1.0 8771:1.0 8772:1.0 8773:1.0 8774:1.0 8775:1.0 8776:1.0 8777:1.0 8778:1.0 8779:1.0 8780:1.0 
0.016230810191587567 0.0 22:1.0 23:1.0 24:2.0 25:1.0 29:1.0 30:1.0 31:1.0 32:1.0 34:1.0 37:1.0 38:1.0 40:1.0 43:1.0 44:1.0 45:1.5 46:2.0 47:1.0 673:1.0 675:1.0 895:1.0 896:1.0 904:1.0 910:1.0 911:1.0 7077:1.0 8673:1.0 8707:1.0 8709:1.0 8711:1.0 8726:1.0 8727:1.0 8728:1.0 8729:1.0 8730:1.0 8736:1.0 8737:1.0 8738:1.0 8770:1.0 8772:1.0 8774:1.0 8775:1.0 8776:1.0 8777:1.0 8778:1.0 8779:1.0 8791:1.0 8792:1.0 8793:1.0 8794:1.0 
0.04948578314589927 0.0 22:1.0 23:1.0 24:3.0 25:1.0 29:1.0 30:1.0 31:1.0 32:1.0 34:1.0 37:1.0 40:1.0 43:1.0 45:1.0 46:1.0 47:1.0 103:1.0 146:1.0 194:1.0 390:1.0 856:1.0 1092:1.0 1096:1.0 1098:1.0 1293:1.0 1361:1.0 1698:1.0 1732:1.0 1767:1.0 1869:1.0 2302:1.0 4097:1.0 4111:1.0 5537:1.0 5941:1.0 7291:1.0 8913:1.0 8914:1.0 8915:1.0 8916:1.0 8917:1.0 8918:1.0 8919:1.0 8920:1.0 8921:1.0 8922:1.0 8924:1.0 8925:1.0 8926:1.0 8927:1.0 8930:1.0 8931:1.0 8932:1.0 8933:1.0 8934:1.0 8935:1.0 8936:1.0 8937:1.0 8938:1.0 
0.04530498727116744 0.007741646827501223 30:1.0 45:2.5 46:4.0 47:1.0 67:7.0 138:1.0 139:1.0 176:1.0 292:1.0 569:1.0 577:1.0 823:1.0 860:1.0 1097:1.0 1098:1.0 2007:1.0 2838:1.0 3074:1.0 3420:1.0 3423:1.0 8806:1.0 9453:1.0 9464:1.0 9466:1.0 9476:1.0 9477:1.0 9478:1.0 9479:1.0 9480:1.0 9481:1.0 9482:1.0 9483:1.0 9484:1.0 9485:1.0 9487:1.0 9488:1.0 9489:1.0 9490:1.0 9491:1.0 9492:1.0 9493:1.0 9495:1.0 9496:1.0 9497:1.0 9498:1.0 9499:1.0 9500:1.0 9501:1.0 9502:1.0 9503:1.0 9504:1.0 9505:1.0 9506:1.0 9507:1.0 9508:1.0 9509:1.0 
0.03131382287108142 0.0 22:1.0 23:1.0 24:4.0 25:1.0 29:1.0 30:1.0 31:1.0 32:1.0 40:1.0 43:1.0 44:1.0 45:1.5 46:2.0 47:1.0 427:1.0 617:1.0 770:1.0 785:1.0 792:1.0 794:1.0 838:1.0 856:2.0 868:1.0 1967:2.0 2350:1.0 2376:1.0 2443:1.0 2464:1.0 2862:1.0 2868:1.0 2980:1.0 3061:1.0 3281:1.0 3417:1.0 3425:1.0 3426:1.0 3427:1.0 5453:1.0 5560:1.0 5574:1.0 8493:1.0 9510:1.0 9511:1.0 9512:1.0 9513:1.0 9514:1.0 9515:1.0 9517:1.0 9519:1.0 9520:1.0 9521:1.0 9522:1.0 9523:1.0 9528:1.0 
0.05 0.0050948378831835485 3:1.0 5:1.0 9:1.0 24:1.0 25:1.0 29:1.0 30:1.0 31:1.0 40:1.0 43:1.0 44:1.0 45:2.0 46:3.0 47:1.0 59:1.0 61:1.0 67:3.0 130:1.0 176:1.0 198:1.0 577:1.0 594:1.0 598:1.0 745:1.0 792:1.0 794:1.0 970:1.0 1113:1.0 2350:1.0 2533:1.0 2980:1.0 7520:1.0 7684:1.0 8662:1.0 8974:1.0 8975:1.0 9540:1.0 9541:1.0 9542:1.0 9543:1.0 9544:1.0 9545:1.0 9546:1.0 9568:1.0 9569:1.0 9570:1.0 9571:1.0 9572:1.0 9573:1.0 9574:1.0 9576:1.0 
0.004712950628976039 3.239909635341488E-4 2:1.0 4:1.0 7:1.0 8:1.0 12:1.0 13:1.0 14:1.0 15:1.0 17:1.0 18:1.0 22:1.0 23:1.0 24:2.0 25:1.0 26:1.0 30:1.0 32:1.0 40:1.0 43:1.0 44:1.0 45:1.5 46:2.0 47:1.0 138:1.0 139:1.0 234:1.0 774:1.0 1092:1.0 2302:1.0 2799:1.0 3281:1.0 3411:1.0 3417:1.0 3425:1.0 3426:1.0 4789:1.0 4792:1.0 4793:1.0 9655:1.0 9656:1.0 9657:1.0 9658:1.0 9659:1.0 9660:1.0 9661:1.0 9662:1.0 9663:1.0 
0.019948258023350048 0.0 20:1.0 22:1.0 23:1.0 24:2.0 29:1.0 30:1.0 31:1.0 32:1.0 40:1.0 43:1.0 45:2.5 46:3.0 47:2.0 115:1.0 123:1.0 194:1.0 198:3.0 1205:1.0 1546:1.0 1897:1.0 1904:1.0 2310:1.0 2313:1.0 2346:1.0 3264:1.0 5119:1.0 5702:1.0 7523:1.0 9670:1.0 9680:1.0 9689:1.0 9690:1.0 9691:1.0 9692:1.0 9693:1.0 9694:1.0 9695:1.0 9697:1.0 9698:1.0 9699:1.0 9700:1.0 9701:1.0 9702:1.0 9703:1.0 9704:1.0 9705:1.0 9706:1.0 9707:1.0 9708:1.0 9709:1.0 9710:1.0 9711:1.0 9712:1.0 
9.89324494906344E-4 0.0 22:1.0 23:1.0 24:1.0 29:1.0 30:1.0 31:1.0 32:1.0 40:1.0 43:1.0 45:1.5 46:2.0 47:1.0 115:1.0 123:1.0 176:1.0 198:1.0 364:1.0 568:1.0 569:1.0 593:1.0 594:1.0 598:1.0 745:1.0 789:1.0 2438:1.0 2577:1.0 2584:1.0 5116:1.0 5119:1.0 5124:1.0 5162:1.0 6157:1.0 7519:1.0 7520:1.0 9718:1.0 9720:1.0 9726:1.0 9727:1.0 9728:1.0 9729:1.0 9730:1.0 9731:1.0 9732:1.0 9733:1.0 9734:1.0 9735:1.0 9736:1.0 9737:1.0 9738:1.0 9739:1.0 
0.009867524670086244 0.019068077667130715 22:1.0 23:1.0 24:1.0 25:2.0 29:1.0 30:1.0 31:1.0 34:1.0 37:1.0 45:1.5 46:2.0 47:1.0 176:1.0 198:1.0 206:1.0 268:1.0 272:1.0 446:1.0 784:1.0 785:1.0 789:1.0 792:1.0 794:1.0 798:1.0 2430:1.0 2431:1.0 2527:1.0 2577:1.0 2997:1.0 3181:1.0 3443:1.0 8337:1.0 9320:1.0 9321:1.0 9541:1.0 9778:1.0 9779:1.0 9780:1.0 9781:1.0 9782:1.0 9801:1.0 9802:1.0 9803:1.0 9804:1.0 9805:1.0 9806:1.0 9807:1.0 
0.003517048076613569 0.0052193750967057095 22:1.0 23:1.0 24:1.0 26:1.0 30:1.0 32:1.0 198:1.0 577:1.0 1096:1.0 1098:1.0 1252:1.0 1599:1.0 1664:1.0 1675:1.0 2423:1.0 3264:1.0 3453:1.0 5501:1.0 6035:1.0 6599:1.0 7018:1.0 9741:1.0 9808:1.0 9809:1.0 9810:1.0 9811:1.0 9812:1.0 9813:1.0 9814:1.0 9815:1.0 9816:1.0 9817:1.0 9818:1.0 9819:1.0 9820:1.0 9821:1.0 9822:1.0 9823:1.0 9824:1.0 9825:1.0 9826:1.0 9827:1.0 9828:1.0 
0.026577759487737208 0.0 22:1.0 23:1.0 24:1.0 29:1.0 30:1.0 31:1.0 32:1.0 40:1.0 43:1.0 45:1.5 46:2.0 47:1.0 115:1.0 123:1.0 176:1.0 198:1.0 567:1.0 578:1.0 579:1.0 800:1.0 850:1.0 1264:1.0 1600:1.0 1601:1.0 1602:1.0 1604:1.0 1694:1.0 2081:1.0 2198:1.0 2501:1.0 5561:1.0 7958:1.0 8007:1.0 9898:1.0 9899:1.0 9900:1.0 9901:1.0 9902:1.0 9904:1.0 9906:1.0 9907:1.0 9908:1.0 9909:1.0 9910:1.0 9911:1.0 9912:1.0 9913:1.0 
0.021765261186392833 0.0 22:1.0 23:1.0 24:5.0 30:1.0 32:1.0 34:1.0 38:1.0 40:1.0 43:1.0 45:2.0 46:3.0 47:1.0 115:1.0 123:1.0 138:1.0 139:1.0 198:1.0 706:1.0 1083:1.0 1092:1.0 1904:1.0 2217:1.0 2219:1.0 2237:1.0 2238:1.0 2295:1.0 2296:1.0 2299:1.0 2300:1.0 2301:1.0 2302:1.0 7465:1.0 9676:1.0 9918:1.0 9929:1.0 9930:1.0 9931:1.0 9932:1.0 9933:1.0 9934:1.0 9935:1.0 9936:1.0 9937:1.0 9938:1.0 9939:1.0 9940:1.0 9941:1.0 9942:1.0 9943:1.0 9944:1.0 9945:1.0 9946:1.0 9947:1.0 9948:1.0 
0.011172762629675748 0.0 24:1.0 25:2.0 29:1.0 30:1.0 31:1.0 45:2.5 46:4.0 47:1.0 67:5.0 176:1.0 198:1.0 251:1.0 268:1.0 446:1.0 613:1.0 798:1.0 1098:1.0 1600:1.0 1601:1.0 1602:1.0 1604:1.0 2237:1.0 2238:1.0 2333:1.0 2402:1.0 2408:1.0 2433:1.0 2438:1.0 2501:1.0 2584:1.0 3041:1.0 3205:1.0 3206:1.0 4357:1.0 5116:1.0 5119:1.0 7411:1.0 7412:1.0 7489:1.0 7519:1.0 7520:1.0 9903:1.0 10019:1.0 10020:1.0 10021:1.0 10022:1.0 10023:1.0 10024:1.0 10025:1.0 10026:1.0 10027:1.0 10028:1.0 10029:1.0 10030:1.0 10031:1.0 10032:1.0 10033:1.0 10034:1.0 10035:1.0 
0.005541238430381843 0.0038282761025152387 22:1.0 23:1.0 24:2.0 25:1.0 29:1.0 30:1.0 31:1.0 32:1.0 34:1.0 37:1.0 38:1.0 40:1.0 43:1.0 44:1.0 45:1.5 46:2.0 47:1.0 54:1.0 150:1.0 176:1.0 3291:1.0 5941:1.0 6196:1.0 6209:1.0 6210:1.0 8777:1.0 10170:1.0 10171:1.0 10172:1.0 10173:1.0 10174:1.0 10175:1.0 10176:1.0 10177:1.0 10178:1.0 10179:1.0 10180:1.0 10181:1.0 10182:1.0 10183:1.0 10184:1.0 10185:1.0 10186:1.0 10187:1.0 10188:1.0 10189:1.0 10190:1.0 10191:1.0 
0.0 0.00569054671261006 22:1.0 23:1.0 24:1.0 25:1.0 30:1.0 34:1.0 38:1.0 40:1.0 43:1.0 44:1.0 45:1.5 46:2.0 47:1.0 138:1.0 139:1.0 194:1.0 201:1.0 706:1.0 2038:1.0 5696:1.0 5701:1.0 5702:1.0 5707:1.0 5950:1.0 8030:1.0 10223:1.0 10224:1.0 10225:1.0 10226:1.0 10227:1.0 10228:1.0 10232:1.0 10233:1.0 10234:1.0 10235:1.0 10236:1.0 10284:1.0 10285:1.0 10286:1.0 10287:1.0 10288:1.0 10289:1.0 10290:1.0 10291:1.0 10292:1.0 10293:1.0 10294:1.0 
0.0 0.01177373376416722 22:1.0 23:1.0 25:1.0 30:1.0 34:1.0 115:1.0 138:1.0 139:1.0 194:1.0 198:1.0 201:1.0 206:1.0 346:1.0 351:1.0 706:1.0 5702:1.0 5814:1.0 5821:1.0 6497:1.0 7332:1.0 8029:1.0 8045:1.0 10238:1.0 10239:1.0 10240:1.0 10241:1.0 10242:1.0 10243:1.0 10252:1.0 10308:1.0 10309:1.0 10310:1.0 10311:1.0 10312:1.0 10313:1.0 10314:1.0 10315:1.0 10316:1.0 10317:1.0 
0.024849872193898784 0.0 22:1.0 23:1.0 24:2.0 25:1.0 30:1.0 32:1.0 40:1.0 43:1.0 45:1.5 46:2.0 47:1.0 115:2.0 123:1.0 138:1.0 139:1.0 167:1.0 176:1.0 198:2.0 222:1.0 339:1.0 593:1.0 594:1.0 595:1.0 597:1.0 598:1.0 3264:1.0 3266:1.0 5655:1.0 6286:1.0 6289:1.0 6324:1.0 6490:1.0 6496:1.0 6560:1.0 6561:1.0 6562:1.0 6595:1.0 6603:1.0 6604:1.0 7087:1.0 10421:1.0 10422:1.0 10423:1.0 10431:1.0 10432:1.0 10433:1.0 10435:1.0 10436:1.0 10437:1.0 10438:1.0 10439:1.0 10440:1.0 
0.05 0.0 22:1.0 23:1.0 29:1.0 30:1.0 31:1.0 32:1.0 45:3.5 46:4.0 47:3.0 99:1.0 115:4.0 137:1.0 150:1.0 176:1.0 190:2.0 198:6.0 222:1.0 268:1.0 446:1.0 460:1.0 594:1.0 745:1.0 798:1.0 856:1.0 1096:2.0 1098:1.0 1555:1.0 1561:1.0 1698:1.0 1767:1.0 1967:1.0 2424:1.0 2433:1.0 2515:1.0 2988:1.0 2989:1.0 3264:1.0 5574:1.0 6300:1.0 6302:1.0 6346:1.0 6348:1.0 6467:1.0 6468:1.0 6518:1.0 6532:1.0 6533:1.0 6538:1.0 6562:1.0 6578:1.0 6580:1.0 6594:1.0 6595:1.0 6609:1.0 6727:1.0 8104:1.0 8178:1.0 8180:1.0 10360:1.0 10393:1.0 10454:1.0 10455:1.0 10456:1.0 10457:1.0 10458:1.0 10459:1.0 10460:1.0 
0.0456774224179813 0.0 29:1.0 30:1.0 31:1.0 45:5.0 46:6.0 47:4.0 67:7.0 97:1.0 99:1.0 115:2.0 137:1.0 150:1.0 170:1.0 176:1.0 280:1.0 284:1.0 292:1.0 293:1.0 327:1.0 466:1.0 530:1.0 594:1.0 745:1.0 798:1.0 1096:1.0 1098:1.0 2424:1.0 2515:1.0 2516:1.0 2518:1.0 2988:1.0 2989:1.0 6300:1.0 6302:1.0 6466:1.0 6518:1.0 6538:1.0 6609:1.0 6714:1.0 6715:1.0 7280:1.0 7302:1.0 7342:1.0 8177:1.0 8178:1.0 8179:1.0 8180:1.0 10360:1.0 10393:1.0 10458:1.0 10461:1.0 10462:1.0 10463:1.0 10464:1.0 10465:1.0 10466:1.0 10467:1.0 10468:1.0 10469:1.0 10471:1.0 
0.05 0.0320366548536461 24:1.0 25:1.0 26:1.0 30:1.0 45:3.0 46:4.0 47:2.0 67:7.0 89:1.0 90:1.0 97:1.0 99:1.0 115:2.0 119:1.0 188:1.0 190:1.0 198:3.0 268:1.0 272:1.0 413:1.0 418:1.0 444:1.0 446:1.0 466:2.0 759:1.0 798:1.0 1240:1.0 1600:1.0 1601:1.0 2423:1.0 2424:1.0 2426:1.0 2475:1.0 2476:1.0 2495:1.0 2501:1.0 5561:1.0 5565:1.0 5849:1.0 5984:1.0 6011:1.0 6321:1.0 6323:1.0 6324:1.0 6738:1.0 6753:1.0 6755:1.0 7042:1.0 7402:1.0 8116:1.0 8219:1.0 10472:1.0 10473:1.0 10481:1.0 10484:1.0 10485:1.0 10486:1.0 10487:1.0 10488:1.0 10489:1.0 
0.024428138733866383 0.007538242069139719 6:1.0 16:1.0 22:1.0 23:1.0 24:1.0 25:1.0 29:1.0 30:1.0 31:1.0 32:1.0 115:2.0 176:1.0 198:3.0 789:1.0 1341:1.0 1342:1.0 2597:1.0 2606:1.0 3490:1.0 3636:1.0 5233:1.0 5454:1.0 5467:1.0 6286:1.0 6289:1.0 6324:1.0 6562:1.0 6578:1.0 6580:1.0 6590:1.0 6593:1.0 6594:1.0 6595:1.0 7058:1.0 7348:1.0 7349:1.0 7354:1.0 8943:1.0 10527:1.0 10528:1.0 10531:1.0 10533:1.0 10534:1.0 10535:1.0 
0.012563528597566119 0.0 24:1.0 25:1.0 29:1.0 30:1.0 31:1.0 45:2.0 46:3.0 47:1.0 67:3.0 176:1.0 268:1.0 413:1.0 418:1.0 427:1.0 444:1.0 446:1.0 450:1.0 451:1.0 460:1.0 466:1.0 758:1.0 759:1.0 761:1.0 1098:1.0 1600:1.0 1601:1.0 1602:1.0 1604:1.0 2433:1.0 2501:1.0 3480:1.0 6373:1.0 6378:1.0 6390:1.0 6444:1.0 6632:1.0 6635:1.0 6699:1.0 6700:1.0 6701:1.0 6702:1.0 7411:1.0 7412:1.0 8196:1.0 8259:1.0 8261:1.0 9504:1.0 10543:1.0 10544:1.0 10545:1.0 10546:1.0 
0.05 0.0 24:1.0 25:1.0 30:1.0 45:2.0 46:3.0 47:1.0 67:2.0 89:1.0 90:1.0 115:2.0 176:1.0 268:1.0 272:1.0 413:1.0 418:1.0 444:1.0 446:1.0 466:1.0 594:1.0 742:1.0 758:1.0 759:1.0 761:1.0 766:1.0 768:1.0 770:1.0 771:1.0 798:1.0 1096:1.0 1240:1.0 2423:1.0 2424:1.0 2426:1.0 2515:1.0 3343:1.0 3371:1.0 3567:1.0 5984:1.0 6011:1.0 6433:1.0 6438:1.0 8134:1.0 8219:1.0 8326:1.0 8327:1.0 8328:1.0 10485:1.0 10488:1.0 10547:1.0 10548:1.0 10549:1.0 10550:1.0 
9.22892749871723E-4 0.0 22:1.0 23:1.0 24:2.0 25:1.0 29:1.0 30:1.0 31:1.0 45:2.0 46:3.0 47:1.0 268:1.0 446:1.0 594:1.0 598:1.0 742:1.0 743:1.0 745:1.0 789:1.0 798:1.0 856:1.0 1098:1.0 1967:1.0 2027:1.0 2433:1.0 2439:1.0 3205:1.0 3206:1.0 3458:1.0 6891:1.0 6907:1.0 10615:1.0 10616:1.0 10617:1.0 10618:1.0 10619:1.0 10620:1.0 10621:1.0 10622:1.0 10623:1.0 10624:1.0 10625:1.0 10626:1.0 10627:1.0 10628:1.0 10629:1.0 10630:1.0 10631:1.0 10632:1.0 10633:1.0 10634:1.0 10635:1.0 
0.038916965596868615 0.0 8:1.0 22:1.0 23:1.0 24:2.0 25:1.0 29:1.0 30:1.0 31:1.0 32:1.0 97:1.0 99:1.0 115:1.0 176:1.0 190:1.0 198:2.0 213:1.0 798:1.0 919:1.0 3264:1.0 6184:1.0 6220:1.0 6527:1.0 6529:1.0 6534:1.0 6535:1.0 6536:1.0 10654:1.0 10655:1.0 10656:1.0 10657:1.0 10658:1.0 10659:1.0 10660:1.0 10661:1.0 10662:1.0 10663:1.0 
0.025643034273755177 0.014709761916510387 8:1.0 22:1.0 23:1.0 25:1.0 26:1.0 30:1.0 34:1.0 115:1.0 176:1.0 198:1.0 798:1.0 919:1.0 1096:1.0 1664:1.0 1675:1.0 1868:1.0 1869:1.0 2198:1.0 6170:1.0 6172:1.0 6182:1.0 10415:1.0 10416:1.0 10417:1.0 10669:1.0 10670:1.0 10671:1.0 10672:1.0 10673:1.0 10674:1.0 10675:1.0 10676:1.0 10677:1.0 10678:1.0 10679:1.0 10680:1.0 10681:1.0 10682:1.0 10683:1.0 
6.045966819350412E-4 0.0 9:1.0 20:1.0 22:1.0 23:1.0 24:2.0 25:1.0 30:1.0 32:1.0 40:1.0 43:1.0 44:1.0 45:1.5 46:2.0 47:1.0 54:1.0 135:1.0 150:1.0 1205:1.0 1209:1.0 1664:1.0 1675:1.0 1701:1.0 3451:1.0 5703:1.0 5718:1.0 5894:1.0 6792:1.0 6793:1.0 6794:1.0 6795:1.0 6854:1.0 6856:1.0 10014:1.0 10710:1.0 10712:1.0 10719:1.0 10720:1.0 10721:1.0 10722:1.0 10723:1.0 10733:1.0 10734:1.0 10735:1.0 10736:1.0 10737:1.0 10738:1.0 
0.05 0.010389867148649755 24:1.0 25:1.0 29:1.0 45:4.5 46:7.0 47:2.0 67:7.0 224:1.0 236:1.0 268:1.0 272:1.0 297:1.0 413:1.0 418:1.0 419:1.0 421:1.0 466:1.0 509:1.0 823:1.0 1245:1.0 1247:1.0 1600:1.0 1601:1.0 1602:1.0 1604:1.0 2155:1.0 2423:1.0 2426:1.0 2501:1.0 2548:1.0 2560:1.0 3259:2.0 3270:1.0 3271:2.0 5984:1.0 6278:1.0 6688:1.0 7412:1.0 7958:1.0 7968:1.0 8255:1.0 10837:1.0 10838:1.0 10839:1.0 10840:1.0 10841:1.0 10842:1.0 10843:1.0 10846:1.0 10848:1.0 10849:1.0 10881:1.0 10882:1.0 10883:1.0 10884:1.0 10885:1.0 10886:1.0 10887:1.0 10888:1.0 10889:1.0 10890:1.0 10891:1.0 
0.03471306645670372 0.0 22:1.0 23:1.0 24:1.0 29:1.0 30:1.0 31:1.0 32:1.0 40:1.0 43:1.0 45:1.5 46:2.0 47:1.0 115:1.0 123:1.0 167:1.0 198:1.0 577:1.0 593:1.0 594:1.0 598:1.0 745:1.0 2485:1.0 3264:1.0 5162:1.0 6157:1.0 6532:1.0 10851:1.0 10852:1.0 10853:1.0 10854:1.0 10855:1.0 10856:1.0 10857:1.0 10858:1.0 10863:1.0 10864:1.0 10865:1.0 10866:1.0 10902:1.0 10903:1.0 10904:1.0 10905:1.0 10906:1.0 10907:1.0 10908:1.0 10909:1.0 10910:1.0 10911:1.0 10912:1.0 10913:1.0 
0.05 0.010297454306124167 24:2.0 25:1.0 29:1.0 45:2.5 46:4.0 47:1.0 67:2.0 115:2.0 198:1.0 268:1.0 272:1.0 297:1.0 421:1.0 435:1.0 466:1.0 509:1.0 759:1.0 1600:1.0 1601:1.0 1602:1.0 1604:1.0 1999:1.0 2423:1.0 2426:1.0 2501:1.0 6107:1.0 7770:1.0 7775:1.0 7777:1.0 7781:1.0 10925:1.0 10926:1.0 10927:1.0 10928:1.0 10929:1.0 10930:1.0 10931:1.0 10932:1.0 10933:1.0 10934:1.0 10935:1.0 10936:1.0 10937:1.0 10938:1.0 10939:1.0 10940:1.0 10941:1.0 10942:1.0 10943:1.0 10944:1.0 10945:1.0 10946:1.0 
0.003111043511455997 6.196921980540873E-4 22:1.0 23:1.0 24:2.0 25:1.0 29:1.0 30:1.0 31:1.0 32:1.0 40:1.0 43:1.0 45:1.5 46:2.0 47:1.0 115:1.0 123:1.0 198:1.0 213:1.0 223:1.0 243:1.0 244:1.0 496:1.0 497:1.0 919:1.0 1205:1.0 1209:1.0 1387:1.0 1546:1.0 1714:1.0 1898:1.0 3154:1.0 3155:1.0 4777:1.0 6143:1.0 6144:1.0 6146:1.0 6153:1.0 6155:1.0 6158:1.0 7077:1.0 8673:1.0 10989:1.0 10990:1.0 10991:1.0 10992:1.0 10993:1.0 10994:1.0 10995:1.0 10996:1.0 10997:1.0 
0.05 0.0024913689237054883 24:1.0 25:2.0 30:1.0 40:1.0 43:1.0 45:5.0 46:8.0 47:2.0 67:5.0 115:2.0 119:2.0 123:1.0 138:1.0 139:1.0 141:1.0 144:1.0 145:1.0 167:1.0 176:1.0 213:1.0 259:1.0 434:1.0 480:1.0 483:1.0 485:1.0 486:1.0 501:1.0 504:1.0 505:1.0 577:1.0 1831:1.0 2169:1.0 3293:1.0 3294:1.0 3295:1.0 3296:1.0 3343:1.0 3371:1.0 4945:1.0 6562:1.0 11009:1.0 11010:1.0 11011:1.0 11012:1.0 11013:1.0 11014:1.0 11015:1.0 11016:1.0 11017:1.0 11018:1.0 11019:1.0 11020:1.0 11021:1.0 11022:1.0 11023:1.0 11024:1.0 11025:1.0 11026:1.0 11027:1.0 11028:1.0 
0.0028538410329432932 0.011847013053022997 24:1.0 25:2.0 30:1.0 40:1.0 43:1.0 45:3.5 46:6.0 47:1.0 67:3.0 115:2.0 119:1.0 123:1.0 138:1.0 139:1.0 167:1.0 176:1.0 434:1.0 480:1.0 483:1.0 485:1.0 486:1.0 577:1.0 593:1.0 594:1.0 595:1.0 597:1.0 598:1.0 1107:1.0 2099:1.0 2103:1.0 2169:1.0 2184:1.0 2187:1.0 3280:1.0 3281:1.0 3343:1.0 3371:1.0 3411:1.0 5716:1.0 6562:1.0 11012:1.0 11013:1.0 11014:1.0 11015:1.0 11016:1.0 11017:1.0 11018:1.0 11019:1.0 11025:1.0 11026:1.0 11027:1.0 11029:1.0 11030:1.0 11031:1.0 11038:1.0 11039:1.0 11041:1.0 11047:1.0 11048:1.0 
0.008418347783341688 0.0 25:2.0 30:1.0 40:1.0 43:1.0 45:2.5 46:4.0 47:1.0 67:1.0 115:2.0 123:1.0 138:1.0 139:1.0 167:1.0 176:1.0 480:1.0 483:1.0 485:1.0 486:1.0 539:1.0 577:1.0 1155:1.0 1158:1.0 2158:1.0 2169:1.0 2933:1.0 2988:1.0 3343:1.0 3371:1.0 4516:1.0 6562:1.0 7265:1.0 9338:1.0 11012:1.0 11013:1.0 11014:1.0 11015:1.0 11016:1.0 11017:1.0 11018:1.0 11025:1.0 11026:1.0 11027:1.0 11060:1.0 11061:1.0 11062:1.0 11063:1.0 11064:1.0 11065:1.0 11066:1.0 11067:1.0 11068:1.0 11069:1.0 11070:1.0 11071:1.0 11072:1.0 
0.009368992837597342 0.0 16:1.0 22:1.0 23:1.0 24:2.0 25:1.0 30:1.0 34:1.0 38:1.0 40:1.0 43:1.0 44:1.0 45:1.5 46:2.0 47:1.0 115:1.0 126:1.0 128:1.0 138:1.0 139:1.0 194:1.0 706:1.0 1016:1.0 2335:1.0 3291:1.0 3300:1.0 5696:1.0 5768:1.0 5769:1.0 5793:1.0 5795:1.0 10757:1.0 11097:1.0 11099:1.0 11100:1.0 11101:1.0 11102:1.0 11103:1.0 11104:1.0 11105:1.0 11106:1.0 11107:1.0 11108:1.0 11109:1.0 11110:1.0 11111:1.0 11112:1.0 11113:1.0 11114:1.0 
0.004383299628711975 0.0 22:1.0 23:1.0 24:2.0 25:1.0 29:1.0 30:1.0 31:1.0 32:1.0 45:1.0 46:1.0 47:1.0 74:1.0 77:1.0 78:1.0 141:1.0 145:1.0 146:1.0 375:1.0 550:1.0 552:1.0 617:1.0 3134:1.0 3478:1.0 3482:1.0 5922:1.0 5923:1.0 7999:1.0 10264:1.0 11159:1.0 11161:1.0 11163:1.0 11164:1.0 11176:1.0 11178:1.0 11179:1.0 11180:1.0 11181:1.0 11182:1.0 11183:1.0 11184:1.0 11185:1.0 11186:1.0 11187:1.0 11188:1.0 11189:1.0 11190:1.0 11191:1.0 11192:1.0 11193:1.0 
0.0031970725762919924 0.0 9:1.0 22:1.0 23:1.0 24:3.0 25:1.0 30:1.0 32:1.0 126:1.0 128:1.0 138:1.0 139:1.0 268:1.0 272:1.0 310:1.0 418:1.0 444:1.0 446:1.0 838:1.0 856:1.0 1967:1.0 2219:1.0 2423:1.0 3107:1.0 3119:1.0 5574:1.0 5984:1.0 6009:1.0 6056:1.0 6057:1.0 6058:1.0 6083:1.0 6096:1.0 6775:1.0 6781:1.0 6914:1.0 6917:1.0 6922:1.0 10338:1.0 10341:1.0 11194:1.0 11195:1.0 11196:1.0 
0.05 0.0 24:2.0 30:1.0 61:1.0 67:13.0 115:1.0 119:3.0 126:1.0 128:1.0 138:1.0 139:1.0 176:1.0 268:1.0 292:1.0 413:2.0 418:1.0 434:1.0 444:1.0 446:1.0 466:3.0 577:1.0 758:1.0 759:1.0 761:1.0 1098:1.0 2219:1.0 2423:1.0 2426:1.0 2433:1.0 5984:1.0 6029:1.0 6070:1.0 6092:1.0 6300:1.0 6302:1.0 6608:1.0 6609:1.0 6678:1.0 6682:1.0 6775:1.0 6781:1.0 6940:1.0 6941:1.0 7904:1.0 8160:1.0 8236:1.0 10336:1.0 10337:1.0 10338:1.0 11195:1.0 11196:1.0 11200:1.0 11201:1.0 
0.05 0.05 25:1.0 29:1.0 67:2.0 115:3.0 167:1.0 170:1.0 176:1.0 178:1.0 198:1.0 344:1.0 376:1.0 529:1.0 547:1.0 577:1.0 1082:1.0 1327:1.0 1339:1.0 2475:1.0 5838:1.0 6494:1.0 6497:1.0 6609:1.0 6980:1.0 7124:1.0 7131:1.0 8116:1.0 11226:1.0 11227:1.0 11228:1.0 11229:1.0 11230:1.0 11231:1.0 11240:1.0 11241:1.0 11242:1.0 11243:1.0 11244:1.0 11245:1.0 11246:1.0 11247:1.0 11248:1.0 11249:1.0 11250:1.0 11251:1.0 11252:1.0 11253:1.0 11254:1.0 
0.0 0.05 8:1.0 25:1.0 26:1.0 29:1.0 30:1.0 31:1.0 34:1.0 37:1.0 67:1.0 115:2.0 170:1.0 176:1.0 198:1.0 206:1.0 222:1.0 226:1.0 798:1.0 919:1.0 6184:1.0 6286:1.0 6289:1.0 6562:1.0 6569:1.0 7296:1.0 7299:1.0 10449:1.0 10450:1.0 11065:1.0 11226:1.0 11227:1.0 11228:1.0 11229:1.0 11230:1.0 11246:1.0 11289:1.0 11290:1.0 11291:1.0 11292:1.0 11293:1.0 11294:1.0 11295:1.0 
0.010719846063151161 0.02179980531144654 22:1.0 23:1.0 24:2.0 25:1.0 29:1.0 30:1.0 31:1.0 32:1.0 40:1.0 43:1.0 45:1.5 46:2.0 47:1.0 104:1.0 115:1.0 120:1.0 121:1.0 123:1.0 198:1.0 593:1.0 594:1.0 598:1.0 745:1.0 759:1.0 1387:1.0 1898:1.0 2485:1.0 3154:1.0 3155:1.0 3306:1.0 4243:1.0 5162:1.0 6143:1.0 6144:1.0 6153:1.0 6155:1.0 6157:1.0 6531:1.0 6533:1.0 6657:1.0 7051:1.0 11297:1.0 11298:1.0 11307:1.0 11308:1.0 11309:1.0 11310:1.0 11311:1.0 11312:1.0 
0.01577012784244131 0.002782896148363685 8:1.0 22:1.0 23:1.0 24:1.0 25:1.0 29:1.0 30:1.0 31:1.0 32:1.0 115:1.0 176:1.0 190:1.0 198:3.0 222:1.0 798:1.0 820:1.0 919:1.0 1096:1.0 1098:1.0 2346:1.0 2619:1.0 2621:1.0 2740:1.0 2741:1.0 3264:1.0 7176:1.0 10858:1.0 11302:1.0 11333:1.0 11334:1.0 11335:1.0 11336:1.0 11337:1.0 11338:1.0 11339:1.0 11340:1.0 11341:1.0 11342:1.0 11343:1.0 
0.0072107645944077875 0.05 8:1.0 22:1.0 23:1.0 29:1.0 30:1.0 31:1.0 115:1.0 176:1.0 198:1.0 213:1.0 577:1.0 798:1.0 1098:1.0 1205:1.0 1546:1.0 1547:1.0 1663:1.0 2198:1.0 3415:1.0 6300:1.0 6302:1.0 6327:1.0 6522:1.0 6564:1.0 7061:1.0 11226:1.0 11227:1.0 11228:1.0 11229:1.0 11359:1.0 11360:1.0 11361:1.0 11362:1.0 11363:1.0 11364:1.0 11365:1.0 11366:1.0 11367:1.0 
0.0117811052964197 0.0 22:1.0 23:1.0 24:1.0 26:1.0 29:1.0 30:1.0 31:1.0 32:1.0 40:1.0 43:1.0 115:1.0 123:1.0 167:1.0 176:1.0 198:1.0 2475:1.0 3264:1.0 3415:1.0 7107:1.0 7196:1.0 7260:1.0 8116:1.0 11368:1.0 11369:1.0 11370:1.0 11371:1.0 11372:1.0 11373:1.0 11374:1.0 11375:1.0 11376:1.0 11377:1.0 11378:1.0 11379:1.0 11380:1.0 11381:1.0 11382:1.0 11383:1.0 
9.444242228642803E-4 0.0 22:1.0 23:1.0 26:1.0 29:1.0 30:1.0 31:1.0 32:1.0 115:1.0 167:1.0 176:1.0 181:1.0 198:2.0 919:1.0 1096:1.0 1229:1.0 1491:1.0 2475:1.0 3264:1.0 8091:1.0 8097:1.0 11343:1.0 11384:1.0 11385:1.0 11386:1.0 11387:1.0 11388:1.0 11389:1.0 11390:1.0 11391:1.0 11392:1.0 11393:1.0 11394:1.0 11395:1.0 11396:1.0 11397:1.0 11398:1.0 11399:1.0 11400:1.0 11401:1.0 
0.007553995523612398 0.002614899151383111 22:1.0 23:1.0 24:2.0 25:2.0 29:1.0 30:1.0 31:1.0 34:1.0 37:1.0 38:1.0 97:1.0 99:1.0 115:1.0 176:1.0 190:1.0 198:1.0 577:1.0 789:1.0 798:1.0 820:1.0 919:1.0 2475:1.0 3300:1.0 10616:1.0 10617:1.0 10618:1.0 10619:1.0 10627:1.0 11402:1.0 11403:1.0 11404:1.0 11405:1.0 11406:1.0 11407:1.0 11408:1.0 11409:1.0 11410:1.0 11411:1.0 11412:1.0 11413:1.0 11414:1.0 
0.01401225063095318 0.004813571046140115 22:1.0 23:1.0 24:4.0 25:1.0 29:1.0 30:1.0 31:1.0 32:1.0 40:1.0 43:1.0 45:1.5 46:2.0 47:1.0 115:1.0 123:1.0 198:5.0 212:1.0 785:1.0 794:1.0 838:1.0 856:1.0 1689:1.0 1732:1.0 2350:1.0 2599:1.0 2966:1.0 2967:1.0 2971:1.0 3100:1.0 3134:1.0 3333:1.0 3377:1.0 3394:1.0 4097:1.0 4370:1.0 4736:1.0 6445:1.0 6447:1.0 7561:1.0 7563:1.0 11467:1.0 11468:1.0 11469:1.0 11470:1.0 11471:1.0 11472:1.0 11473:1.0 11474:1.0 11475:1.0 11476:1.0 11477:1.0 11478:1.0 11482:1.0 11483:1.0 11487:1.0 11488:1.0 11489:1.0 11490:1.0 11491:1.0 11492:1.0 11493:1.0 
0.00103096899698908 0.0 3:1.0 5:1.0 9:1.0 19:1.0 20:1.0 22:1.0 23:1.0 24:1.0 29:1.0 30:1.0 31:1.0 32:1.0 39:1.0 40:1.0 41:1.0 43:1.0 45:1.5 46:2.0 47:1.0 115:1.0 123:1.0 198:2.0 388:1.0 594:1.0 598:1.0 610:1.0 612:1.0 613:1.0 733:1.0 742:1.0 743:1.0 745:1.0 2369:1.0 2853:1.0 4778:1.0 5984:1.0 10914:1.0 10917:1.0 11575:1.0 11576:1.0 11577:1.0 11578:1.0 11582:1.0 11593:1.0 11594:1.0 11595:1.0 11596:1.0 
0.05 0.009199234263219756 9:1.0 24:1.0 25:1.0 26:1.0 29:1.0 30:1.0 31:1.0 40:1.0 43:1.0 44:1.0 45:1.5 46:2.0 47:1.0 59:1.0 61:1.0 67:2.0 164:1.0 423:1.0 424:1.0 425:1.0 426:1.0 521:1.0 523:1.0 635:1.0 636:1.0 637:1.0 638:1.0 1666:1.0 1667:1.0 2451:1.0 2452:1.0 2475:1.0 3112:1.0 3194:1.0 5403:1.0 6988:1.0 8712:1.0 11570:1.0 11612:1.0 11613:1.0 11614:1.0 11615:1.0 11616:1.0 11617:1.0 11618:1.0 11619:1.0 11620:1.0 
0.016733982737637106 0.0 22:1.0 23:1.0 24:1.0 25:1.0 26:1.0 30:1.0 32:1.0 138:1.0 139:1.0 167:1.0 181:1.0 185:1.0 213:1.0 785:1.0 792:1.0 794:1.0 919:1.0 1096:1.0 1443:1.0 1491:1.0 2346:1.0 2350:1.0 2980:1.0 3061:1.0 3264:1.0 7077:1.0 8673:1.0 11709:1.0 11710:1.0 11711:1.0 11712:1.0 11713:1.0 11714:1.0 11715:1.0 11716:1.0 11717:1.0 11718:1.0 11719:1.0 11720:1.0 11721:1.0 
0.009502362062858387 0.0016238245544947494 22:1.0 23:1.0 24:1.0 25:1.0 29:1.0 30:1.0 31:1.0 32:1.0 45:1.0 46:1.0 47:1.0 115:1.0 146:1.0 198:1.0 1096:1.0 2237:1.0 3520:1.0 11722:1.0 11723:1.0 11724:1.0 11725:1.0 11726:1.0 11727:1.0 11728:1.0 11729:1.0 11730:1.0 11731:1.0 11732:1.0 11733:1.0 11734:1.0 11735:1.0 11736:1.0 11737:1.0 11738:1.0 11739:1.0 11740:1.0 11741:1.0 11742:1.0 11743:1.0 11744:1.0 11745:1.0 11746:1.0 11747:1.0 11748:1.0 11749:1.0 11750:1.0 11751:1.0 11752:1.0 11753:1.0 11754:1.0 11755:1.0 11756:1.0 11757:1.0 11758:1.0 
0.007629970820238409 0.0 22:1.0 23:1.0 24:1.0 29:1.0 30:1.0 31:1.0 32:1.0 40:1.0 43:1.0 45:1.5 46:2.0 47:1.0 115:1.0 123:1.0 198:1.0 2343:1.0 2352:1.0 3520:1.0 3658:1.0 3660:1.0 3662:1.0 3663:1.0 3857:1.0 11730:1.0 11731:1.0 11733:1.0 11741:1.0 11743:1.0 11747:1.0 11748:1.0 11749:1.0 11751:1.0 11752:1.0 11781:1.0 11782:1.0 11783:1.0 11784:1.0 11785:1.0 11786:1.0 11787:1.0 11788:1.0 11789:1.0 11790:1.0 11791:1.0 11792:1.0 11793:1.0 11794:1.0 11795:1.0 
0.011862154382673547 0.0 22:1.0 23:1.0 29:1.0 30:1.0 31:1.0 32:1.0 45:1.5 46:2.0 47:1.0 115:1.0 181:1.0 198:1.0 403:1.0 594:1.0 733:1.0 740:1.0 742:1.0 743:1.0 745:1.0 1096:1.0 1229:1.0 1491:1.0 2515:1.0 3520:1.0 8751:1.0 8753:1.0 8771:1.0 8773:1.0 11731:1.0 11743:1.0 11796:1.0 11797:1.0 11798:1.0 11799:1.0 11800:1.0 11801:1.0 11802:1.0 11803:1.0 11804:1.0 11805:1.0 11806:1.0 11807:1.0 11808:1.0 11809:1.0 11810:1.0 11811:1.0 11812:1.0 11813:1.0 11814:1.0 11815:1.0 
0.0021579868956351183 0.0 9:1.0 20:1.0 22:1.0 23:1.0 24:2.0 25:1.0 26:1.0 30:1.0 32:1.0 40:1.0 43:1.0 44:1.0 45:1.5 46:2.0 47:1.0 49:1.0 50:1.0 51:1.0 52:1.0 129:1.0 148:1.0 176:1.0 1205:1.0 1209:1.0 1264:1.0 1664:1.0 1675:1.0 1694:1.0 1701:1.0 2198:1.0 3451:1.0 5670:1.0 5702:1.0 10719:1.0 10721:1.0 10722:1.0 10734:1.0 12104:1.0 12111:1.0 12112:1.0 12121:1.0 12122:1.0 12123:1.0 12124:1.0 12125:1.0 12126:1.0 12127:1.0 
0.021029189969202156 0.0034613783418157166 8:1.0 9:1.0 18:1.0 22:1.0 23:1.0 24:2.0 25:1.0 30:1.0 32:1.0 45:1.0 46:1.0 47:1.0 146:1.0 970:1.0 1066:1.0 1071:1.0 1239:1.0 1664:1.0 1675:1.0 1732:1.0 1960:1.0 1967:1.0 2234:1.0 2966:1.0 2967:1.0 2971:1.0 2998:1.0 4097:1.0 6424:1.0 6425:1.0 6429:1.0 10427:1.0 10429:1.0 12298:1.0 12299:1.0 12300:1.0 12301:1.0 12302:1.0 12303:1.0 12304:1.0 12305:1.0 12306:1.0 12307:1.0 12308:1.0 12309:1.0 12310:1.0 12311:1.0 12312:1.0 12313:1.0 
0.03868721016054438 0.0 6:1.0 16:1.0 20:1.0 22:1.0 23:1.0 24:3.0 30:1.0 32:1.0 34:1.0 38:1.0 40:1.0 43:1.0 45:1.5 46:2.0 47:1.0 115:1.0 123:1.0 176:1.0 198:1.0 1425:1.0 1664:1.0 1675:1.0 1868:1.0 1897:2.0 1904:2.0 1963:1.0 2976:1.0 3264:1.0 3451:1.0 6357:1.0 10734:1.0 11662:1.0 11663:1.0 11668:1.0 11669:1.0 11670:1.0 11671:1.0 11674:1.0 11683:1.0 11684:1.0 11685:1.0 12361:1.0 12362:1.0 12363:1.0 12364:1.0 12368:1.0 12370:1.0 12371:1.0 12372:1.0 12378:1.0 12379:1.0 
0.006471382488760826 0.0 6:1.0 9:1.0 16:1.0 20:1.0 22:1.0 23:1.0 24:2.0 30:1.0 32:1.0 34:1.0 38:1.0 40:1.0 43:1.0 45:1.5 46:2.0 47:1.0 115:1.0 123:1.0 176:1.0 198:1.0 1425:1.0 1664:1.0 1675:1.0 1868:1.0 1897:1.0 1904:1.0 1963:1.0 2198:1.0 2976:1.0 11662:1.0 11663:1.0 11668:1.0 11669:1.0 11670:1.0 11671:1.0 11674:1.0 11683:1.0 11684:1.0 11685:1.0 12362:1.0 12363:1.0 12368:1.0 12370:1.0 12371:1.0 12372:1.0 12378:1.0 12379:1.0 12380:1.0 12381:1.0 12382:1.0 
0.0016740553103289486 0.0 8:1.0 18:1.0 22:1.0 23:1.0 24:2.0 25:1.0 30:1.0 32:1.0 40:1.0 43:1.0 44:1.0 176:1.0 198:1.0 970:1.0 1066:1.0 1239:1.0 1664:1.0 1675:1.0 1732:1.0 1960:1.0 1967:1.0 2234:1.0 3264:1.0 3451:1.0 4097:1.0 6357:1.0 7009:1.0 7066:1.0 10721:1.0 10722:1.0 10734:1.0 12119:1.0 12384:1.0 12385:1.0 12386:1.0 12387:1.0 12388:1.0 12389:1.0 12390:1.0 12391:1.0 12392:1.0 12393:1.0 
0.05 0.0 22:1.0 23:1.0 24:1.0 25:1.0 30:1.0 32:1.0 45:1.0 46:1.0 47:1.0 146:1.0 327:1.0 331:1.0 682:1.0 686:1.0 970:1.0 1066:1.0 1096:1.0 1369:1.0 1374:1.0 1664:1.0 1675:1.0 1714:1.0 1811:1.0 1814:1.0 1880:1.0 1882:1.0 2518:1.0 2616:1.0 2896:1.0 2897:1.0 2898:1.0 2899:1.0 2928:1.0 2930:1.0 4599:1.0 4777:1.0 6170:1.0 6172:1.0 10077:1.0 10165:1.0 12485:1.0 12564:1.0 12566:1.0 12608:1.0 12624:1.0 12626:1.0 12812:1.0 12813:1.0 12814:1.0 12815:1.0 
0.014141719840762087 0.024193407436844887 24:1.0 25:1.0 30:1.0 45:7.0 46:10.0 47:4.0 67:4.0 168:1.0 198:1.0 268:1.0 272:1.0 346:1.0 351:1.0 403:1.0 407:1.0 413:1.0 414:1.0 418:1.0 444:1.0 446:1.0 671:1.0 681:1.0 682:1.0 686:1.0 1167:1.0 1179:1.0 1664:1.0 1675:1.0 1725:1.0 1882:1.0 2159:1.0 2916:1.0 2917:1.0 2918:1.0 2919:1.0 3250:1.0 5429:1.0 6325:1.0 6337:1.0 6391:1.0 7790:1.0 7802:1.0 7804:1.0 9503:1.0 12522:1.0 12523:1.0 12524:1.0 12529:1.0 12530:1.0 12858:1.0 12859:1.0 12860:1.0 12861:1.0 12862:1.0 12863:1.0 12864:1.0 12865:1.0 12866:1.0 12867:1.0 12868:1.0 12869:1.0 12870:1.0 12871:1.0 
0.05 0.0 8:1.0 18:1.0 22:1.0 23:1.0 24:2.0 25:1.0 26:1.0 30:1.0 32:1.0 181:1.0 185:1.0 198:4.0 856:1.0 1096:2.0 1381:1.0 1383:1.0 1491:1.0 1616:1.0 1617:1.0 1664:1.0 1675:1.0 1691:1.0 1698:2.0 1732:1.0 1767:1.0 1891:1.0 1893:1.0 1897:2.0 1898:1.0 1904:2.0 1947:1.0 2754:1.0 3169:1.0 3264:1.0 3291:1.0 4097:1.0 4696:1.0 4699:1.0 6357:1.0 7291:1.0 12876:1.0 12877:1.0 12878:1.0 12879:2.0 12880:1.0 12881:1.0 12882:1.0 12883:1.0 12890:1.0 12891:1.0 12893:2.0 12894:1.0 12900:1.0 12901:1.0 12902:1.0 12903:1.0 
0.0 0.0012425090408289552 8:1.0 9:1.0 18:1.0 22:1.0 23:1.0 24:1.0 25:1.0 26:1.0 29:1.0 30:1.0 31:1.0 32:1.0 45:2.5 46:3.0 47:2.0 181:1.0 185:1.0 198:4.0 594:1.0 745:1.0 1096:1.0 1381:1.0 1383:1.0 1491:1.0 1616:1.0 1617:1.0 1698:1.0 1732:1.0 1767:1.0 1891:1.0 1893:1.0 1897:1.0 1898:1.0 1903:1.0 1904:1.0 2754:1.0 3169:1.0 3291:1.0 4097:1.0 6052:1.0 9128:1.0 9404:1.0 12877:1.0 12878:1.0 12879:2.0 12880:1.0 12881:1.0 12882:1.0 12890:1.0 12891:1.0 12893:2.0 12894:1.0 12900:1.0 12901:1.0 12902:1.0 12903:1.0 12907:1.0 12908:1.0 12909:1.0 12910:1.0 12911:1.0 
0.0 9.922854486883515E-4 8:1.0 18:1.0 22:1.0 23:1.0 24:1.0 25:1.0 26:1.0 29:1.0 30:1.0 31:1.0 32:1.0 45:2.5 46:3.0 47:2.0 181:1.0 185:1.0 198:3.0 594:1.0 615:1.0 745:1.0 1096:1.0 1381:1.0 1383:1.0 1491:1.0 1616:1.0 1617:1.0 1732:1.0 1891:1.0 1893:1.0 1897:1.0 1898:1.0 1904:1.0 2754:1.0 3169:1.0 3291:1.0 4097:1.0 6052:1.0 6884:1.0 9128:1.0 12877:1.0 12878:1.0 12879:1.0 12880:1.0 12882:1.0 12890:1.0 12891:1.0 12893:1.0 12894:1.0 12900:1.0 12901:1.0 12902:1.0 12903:1.0 12909:1.0 12910:1.0 12911:1.0 12912:1.0 12913:1.0 12914:1.0 
0.019598706854737868 0.0 8:1.0 18:1.0 22:1.0 23:1.0 24:1.0 29:1.0 30:1.0 31:1.0 32:1.0 1096:1.0 1098:1.0 1239:1.0 1419:1.0 1421:1.0 1581:1.0 1582:1.0 1583:1.0 1732:1.0 1957:1.0 1959:1.0 1960:1.0 1961:1.0 1967:1.0 1972:1.0 2234:1.0 2346:1.0 3264:1.0 4097:1.0 8879:1.0 9341:1.0 11629:1.0 11651:1.0 12923:1.0 12924:1.0 
0.006431869945223233 0.0 8:1.0 18:1.0 22:1.0 23:1.0 24:1.0 30:1.0 32:1.0 40:1.0 43:1.0 115:2.0 123:1.0 198:2.0 1664:1.0 1675:1.0 2198:1.0 3306:1.0 4243:1.0 13132:1.0 13133:1.0 13134:1.0 13135:1.0 13136:1.0 13137:1.0 13138:1.0 13139:1.0 13140:1.0 13141:1.0 13142:1.0 13143:1.0 13144:1.0 13145:1.0 13146:1.0 13147:1.0 13148:1.0 13149:1.0 13150:1.0 13151:1.0 13152:1.0 
0.002472058268048179 0.004166579136073186 1:1.0 2:1.0 3:1.0 4:1.0 5:1.0 12:1.0 13:1.0 14:1.0 15:1.0 19:1.0 22:1.0 23:1.0 24:2.0 25:1.0 29:1.0 30:1.0 31:1.0 32:1.0 39:1.0 40:1.0 41:1.0 42:1.0 43:1.0 44:1.0 45:1.5 46:2.0 47:1.0 176:1.0 1082:1.0 3306:1.0 4115:1.0 4120:1.0 4123:1.0 4243:1.0 5670:1.0 5702:1.0 5788:1.0 13500:1.0 13501:1.0 13502:1.0 13503:1.0 13504:1.0 13505:1.0 13506:1.0 13507:1.0 13508:1.0 13509:1.0 
0.031350672977950994 0.0 22:1.0 23:1.0 24:1.0 25:1.0 29:1.0 30:1.0 31:1.0 32:1.0 167:1.0 176:1.0 181:1.0 185:1.0 1096:1.0 1443:1.0 1491:1.0 2346:1.0 2921:1.0 3264:1.0 8576:1.0 13537:1.0 13539:1.0 13541:1.0 13542:1.0 13547:1.0 13548:1.0 13549:1.0 13550:1.0 13551:1.0 13552:1.0 13581:1.0 13582:1.0 13583:1.0 13584:1.0 13585:1.0 13586:1.0 13587:1.0 13588:1.0 
0.011931241083085816 0.0 22:1.0 23:1.0 24:1.0 25:1.0 30:1.0 32:1.0 198:1.0 577:1.0 756:1.0 798:1.0 970:1.0 1084:1.0 1425:1.0 1664:1.0 1675:1.0 1694:1.0 2951:1.0 3264:1.0 13893:1.0 13895:1.0 13902:1.0 13912:1.0 13913:1.0 13914:1.0 13915:1.0 13916:1.0 13919:1.0 13921:1.0 13922:1.0 13923:1.0 13924:1.0 13925:1.0 
0.0031254835667941334 0.0 22:1.0 23:1.0 24:3.0 25:2.0 30:1.0 32:1.0 40:1.0 43:1.0 44:1.0 45:1.5 46:2.0 47:1.0 138:1.0 139:1.0 759:1.0 1601:1.0 2066:1.0 2099:1.0 2501:1.0 2618:1.0 2620:1.0 5229:1.0 7051:1.0 12973:1.0 12974:1.0 12992:1.0 13998:1.0 13999:1.0 14000:1.0 14001:1.0 14002:1.0 14003:1.0 14004:1.0 14005:1.0 14006:1.0 14007:1.0 14008:1.0 14009:1.0 14010:1.0 14011:1.0 14012:1.0 14013:1.0 14014:1.0 14015:1.0 14016:1.0 14017:1.0 14018:1.0 
0.03624108821260719 0.032259148357702314 22:1.0 23:1.0 24:4.0 25:1.0 30:1.0 32:1.0 34:1.0 38:1.0 40:1.0 43:1.0 44:1.0 45:1.0 46:1.0 47:1.0 115:1.0 138:1.0 139:1.0 146:1.0 198:1.0 310:1.0 706:1.0 949:1.0 961:1.0 998:1.0 1082:1.0 1083:1.0 1096:1.0 1732:1.0 1897:4.0 1904:4.0 2216:1.0 2217:1.0 2219:1.0 2224:1.0 2226:1.0 2232:1.0 2237:1.0 2238:1.0 2295:1.0 2299:1.0 2300:1.0 3377:2.0 4097:1.0 4115:1.0 9674:1.0 9675:1.0 9676:1.0 9697:1.0 9698:1.0 9914:1.0 9931:1.0 9933:1.0 9942:1.0 9943:1.0 14102:1.0 14103:1.0 14104:1.0 14105:1.0 14106:1.0 14107:1.0 14108:1.0 14109:1.0 14110:1.0 14111:1.0 
0.007747567685491306 9.231432548152993E-4 22:1.0 23:1.0 24:2.0 26:1.0 29:1.0 30:1.0 31:1.0 32:1.0 40:1.0 43:1.0 45:1.5 46:2.0 47:1.0 115:1.0 123:1.0 176:1.0 198:1.0 213:1.0 234:1.0 789:1.0 919:1.0 2966:1.0 2967:1.0 2971:1.0 3300:1.0 6445:1.0 6447:1.0 14118:1.0 14119:1.0 14120:1.0 14121:1.0 14122:1.0 14123:1.0 14124:1.0 14125:1.0 14126:1.0 14127:1.0 14128:1.0 14129:1.0 14130:1.0 14131:1.0 14132:1.0 14133:1.0 14134:1.0 14135:1.0 14136:1.0 14137:1.0 14138:1.0 14139:1.0 14140:1.0 
0.0334227332442783 0.0 22:1.0 23:1.0 24:1.0 29:1.0 30:1.0 31:1.0 32:1.0 40:1.0 43:1.0 45:1.5 46:2.0 47:1.0 115:1.0 123:1.0 198:1.0 561:1.0 562:1.0 563:1.0 564:1.0 567:1.0 578:1.0 579:1.0 580:1.0 682:1.0 686:1.0 724:1.0 1283:1.0 1728:1.0 1814:1.0 1815:1.0 2198:1.0 2596:1.0 5561:1.0 9902:1.0 9908:1.0 9910:1.0 14215:1.0 14217:1.0 14221:1.0 14223:1.0 14224:1.0 14225:1.0 14226:1.0 14227:1.0 14228:1.0 14229:1.0 14230:1.0 
0.023077296908857594 0.0 24:1.0 25:1.0 30:1.0 45:2.5 46:3.0 47:2.0 67:4.0 97:1.0 99:1.0 115:1.0 138:1.0 139:1.0 210:1.0 212:1.0 258:1.0 268:1.0 272:1.0 446:1.0 794:1.0 884:1.0 887:1.0 888:1.0 897:1.0 1142:1.0 2350:1.0 2408:1.0 3196:1.0 3199:1.0 3205:1.0 3206:1.0 3332:1.0 3333:1.0 3465:1.0 4888:1.0 5063:1.0 5843:1.0 8422:1.0 8423:1.0 8426:1.0 9515:1.0 14341:1.0 14342:1.0 14351:1.0 14364:1.0 14365:1.0 14366:1.0 14367:1.0 14368:1.0 14369:1.0 14370:1.0 14371:1.0 14372:1.0 
0.001052559582475663 0.0 3:1.0 5:1.0 9:1.0 19:1.0 20:1.0 22:1.0 23:1.0 24:1.0 29:1.0 30:1.0 31:1.0 32:1.0 39:1.0 40:1.0 41:1.0 43:1.0 45:1.5 46:2.0 47:1.0 115:1.0 123:1.0 198:2.0 388:1.0 610:1.0 612:1.0 613:1.0 883:1.0 884:1.0 888:1.0 902:1.0 1118:1.0 2369:1.0 2615:1.0 3134:1.0 10684:1.0 11575:1.0 11576:1.0 11577:1.0 11582:1.0 11593:1.0 14432:1.0 14433:1.0 14451:1.0 14452:1.0 14453:1.0 14454:1.0 14455:1.0 
0.0011133596757735777 0.0 22:1.0 23:1.0 24:3.0 25:1.0 29:1.0 30:1.0 31:1.0 32:1.0 40:1.0 43:1.0 44:1.0 45:1.5 46:2.0 47:1.0 1080:1.0 3134:1.0 3478:1.0 3482:1.0 4120:1.0 4123:1.0 5784:1.0 5788:1.0 5881:1.0 9976:1.0 14533:1.0 14543:1.0 14573:1.0 14574:1.0 14593:1.0 14595:1.0 14604:1.0 14605:1.0 14606:1.0 14607:1.0 14608:1.0 14609:1.0 14610:1.0 14611:1.0 14612:1.0 14613:1.0 14795:1.0 14796:1.0 14811:1.0 14812:1.0 14813:1.0 14814:1.0 14815:1.0 14816:1.0 14817:1.0 14818:1.0 
0.0030654443347582225 0.0 2:1.0 4:1.0 12:1.0 13:1.0 14:1.0 15:1.0 22:1.0 23:1.0 24:2.0 25:1.0 29:1.0 30:1.0 31:1.0 32:1.0 45:1.0 46:1.0 47:1.0 58:1.0 146:1.0 894:1.0 895:1.0 896:1.0 904:1.0 3134:1.0 3478:1.0 3482:1.0 4120:1.0 4123:1.0 4126:1.0 5771:1.0 5772:1.0 5774:1.0 5775:1.0 5784:1.0 5788:1.0 5881:1.0 8347:1.0 8487:1.0 8736:1.0 14543:1.0 14636:1.0 14659:1.0 14697:1.0 14698:1.0 14773:1.0 14779:1.0 14883:1.0 14884:1.0 14885:1.0 
0.027768682182707838 0.0 22:1.0 23:1.0 24:5.0 25:2.0 30:1.0 32:1.0 34:1.0 45:3.0 46:4.0 47:2.0 138:1.0 139:1.0 194:1.0 327:1.0 331:1.0 706:1.0 902:1.0 1698:2.0 1732:1.0 2136:1.0 2518:1.0 3376:1.0 7449:1.0 7466:1.0 7576:1.0 8859:1.0 9188:1.0 9932:1.0 11763:1.0 11770:1.0 11772:1.0 11800:1.0 13163:1.0 13176:1.0 13177:1.0 14932:1.0 14934:1.0 14986:1.0 14987:1.0 14988:1.0 14989:1.0 14990:1.0 14991:1.0 14992:1.0 14993:1.0 14994:1.0 14999:1.0 15000:1.0 15001:1.0 15003:1.0 15004:1.0 15005:1.0 15006:1.0 15007:1.0 15008:1.0 15009:1.0 
0.015623866657236135 7.95772593845522E-4 3:1.0 5:1.0 19:1.0 22:1.0 23:1.0 24:2.0 25:1.0 29:1.0 30:1.0 31:1.0 32:1.0 39:1.0 40:1.0 41:1.0 43:1.0 44:1.0 45:1.5 46:2.0 47:1.0 213:1.0 593:1.0 594:1.0 598:1.0 745:1.0 919:1.0 2066:1.0 2099:1.0 2934:1.0 5162:1.0 5824:1.0 8340:1.0 15411:1.0 15412:1.0 15413:1.0 15414:1.0 15415:1.0 15416:1.0 15417:1.0 15418:1.0 15419:1.0 15420:1.0 15421:1.0 15422:1.0 15423:1.0 15424:1.0 15425:1.0 
0.019977232964098337 0.0 3:1.0 5:1.0 19:1.0 22:1.0 23:1.0 24:2.0 25:1.0 29:1.0 30:1.0 31:1.0 32:1.0 39:1.0 40:1.0 41:1.0 43:1.0 44:1.0 820:1.0 1443:1.0 2345:1.0 2346:1.0 2921:1.0 4758:1.0 8576:1.0 9581:1.0 15423:1.0 15427:1.0 15428:1.0 15429:1.0 15431:1.0 15432:1.0 15433:1.0 15440:1.0 15441:1.0 15442:1.0 15443:1.0 15444:1.0 
0.0301014456846861 0.0 22:1.0 23:1.0 24:3.0 25:2.0 30:1.0 32:1.0 34:1.0 40:1.0 43:1.0 45:1.0 46:1.0 47:1.0 103:1.0 146:1.0 194:1.0 856:1.0 1092:1.0 1096:1.0 1098:1.0 1293:1.0 1361:1.0 1555:1.0 1561:1.0 1664:1.0 1675:1.0 1698:1.0 1732:1.0 1767:1.0 1868:1.0 1869:1.0 2302:1.0 4097:1.0 4111:1.0 5512:1.0 5513:1.0 5941:1.0 5985:1.0 7291:1.0 8913:1.0 8914:1.0 8915:1.0 8916:1.0 8917:1.0 8918:1.0 8919:1.0 8920:1.0 8921:1.0 8922:1.0 8923:1.0 8924:1.0 8925:1.0 8926:1.0 8927:1.0 8928:1.0 8929:1.0 8930:1.0 8932:1.0 8933:1.0 8934:1.0 8935:1.0 15512:1.0 
0.05 0.0 22:1.0 23:1.0 24:3.0 25:1.0 30:1.0 32:1.0 34:1.0 40:1.0 43:1.0 45:1.0 46:1.0 47:1.0 103:1.0 146:1.0 194:1.0 390:1.0 856:1.0 1092:1.0 1096:1.0 1098:1.0 1293:1.0 1361:1.0 1664:1.0 1675:1.0 1698:1.0 1732:1.0 1767:1.0 1868:1.0 1869:1.0 2302:1.0 4097:1.0 4111:1.0 5537:1.0 5941:1.0 7291:1.0 8913:1.0 8914:1.0 8915:1.0 8916:1.0 8917:1.0 8918:1.0 8919:1.0 8920:1.0 8921:1.0 8922:1.0 8924:1.0 8925:1.0 8926:1.0 8927:1.0 8930:1.0 8932:1.0 8933:1.0 8934:1.0 8935:1.0 8936:1.0 8937:1.0 8938:1.0 15512:1.0 
0.022405959210024865 0.009143578847712969 20:1.0 24:1.0 25:1.0 30:1.0 45:2.0 46:3.0 47:1.0 67:1.0 268:1.0 272:1.0 403:1.0 407:1.0 413:1.0 418:1.0 444:1.0 446:1.0 681:1.0 682:1.0 686:1.0 758:1.0 761:1.0 902:1.0 1664:1.0 1675:1.0 1882:1.0 3152:1.0 3153:1.0 3154:1.0 3155:1.0 3453:1.0 8576:1.0 12869:1.0 14160:1.0 15532:1.0 15533:1.0 15534:1.0 15642:1.0 15668:1.0 15669:1.0 15670:1.0 15671:1.0 15672:1.0 15673:1.0 15674:1.0 15675:1.0 
0.01672645872623989 0.003328169696519149 22:1.0 23:1.0 24:3.0 25:1.0 29:1.0 30:1.0 31:1.0 32:1.0 40:1.0 43:1.0 44:1.0 45:1.5 46:2.0 47:1.0 198:1.0 405:1.0 460:1.0 771:1.0 856:1.0 1844:1.0 2087:1.0 2091:1.0 4670:1.0 4681:1.0 4688:1.0 4689:1.0 4697:1.0 7078:1.0 8127:1.0 10857:1.0 10864:1.0 10865:1.0 10906:1.0 12801:1.0 14487:1.0 15754:1.0 15755:1.0 15756:1.0 15757:1.0 15758:1.0 15759:1.0 15760:1.0 15761:1.0 15762:1.0 15763:1.0 15764:1.0 15765:1.0 15766:1.0 15767:1.0 15768:1.0 15769:1.0 
0.01850923621059599 0.002806723035464773 22:1.0 23:1.0 24:2.0 30:1.0 45:2.0 46:2.0 47:2.0 115:1.0 138:1.0 139:1.0 181:1.0 194:1.0 201:1.0 521:1.0 527:1.0 1205:1.0 1209:1.0 1229:1.0 1491:1.0 1698:1.0 2629:1.0 5696:1.0 5707:1.0 5831:1.0 5832:1.0 5894:1.0 7569:1.0 7576:1.0 8040:1.0 8784:1.0 15812:1.0 15813:1.0 15814:1.0 15815:1.0 15816:1.0 15817:1.0 15818:1.0 15819:1.0 15820:1.0 15821:1.0 15822:1.0 15823:1.0 15824:1.0 15825:1.0 15826:1.0 15827:1.0 15828:1.0 15829:1.0 15830:1.0 15831:1.0 
0.0 2.6525163727150015E-4 22:1.0 23:1.0 24:3.0 25:1.0 30:1.0 32:1.0 45:2.0 46:2.0 47:2.0 97:1.0 99:1.0 115:3.0 138:1.0 139:1.0 181:1.0 190:1.0 198:4.0 856:1.0 1205:1.0 1229:1.0 1491:1.0 1967:1.0 2423:1.0 2439:1.0 2475:1.0 2629:1.0 3188:1.0 3458:1.0 4243:1.0 5574:1.0 5607:1.0 5611:1.0 5612:1.0 6286:1.0 6289:1.0 6321:1.0 6324:1.0 6491:1.0 6497:1.0 6728:1.0 7118:1.0 11233:1.0 13228:1.0 15904:1.0 15905:1.0 15906:1.0 15907:1.0 15908:1.0 15909:1.0 15910:1.0 15911:1.0 15912:1.0 15913:1.0 15914:1.0 15915:1.0 15916:1.0 15917:1.0 15918:1.0 15919:1.0 15920:1.0 15921:1.0 
0.05 0.0 22:1.0 23:1.0 24:2.0 29:1.0 30:1.0 31:1.0 32:1.0 45:3.0 46:5.0 47:1.0 115:3.0 176:1.0 198:7.0 268:1.0 446:1.0 798:1.0 856:1.0 1096:1.0 1098:1.0 1179:1.0 1555:1.0 1561:1.0 1600:1.0 1601:1.0 1602:1.0 1604:1.0 1698:1.0 1767:1.0 1967:2.0 2423:1.0 2433:1.0 2501:1.0 3181:1.0 3264:1.0 3364:1.0 5119:2.0 5574:2.0 6107:1.0 6300:1.0 6302:1.0 6324:1.0 6346:1.0 6348:1.0 6490:1.0 6491:2.0 6497:1.0 6504:1.0 6505:1.0 6506:1.0 6510:1.0 6511:1.0 6611:1.0 7118:1.0 10607:1.0 10611:1.0 10612:1.0 11233:1.0 15886:1.0 15951:1.0 15952:1.0 15953:1.0 15954:1.0 15955:1.0 15956:1.0 15957:1.0 15958:1.0 15959:1.0 15960:1.0 15961:1.0 15962:1.0 15963:1.0 15964:1.0 
0.0035895558816474364 0.007265456083578852 22:1.0 23:1.0 24:1.0 29:1.0 30:1.0 31:1.0 32:1.0 115:2.0 176:1.0 198:4.0 789:1.0 860:1.0 889:1.0 1096:1.0 1098:1.0 1180:1.0 2475:1.0 2476:1.0 3415:1.0 4857:1.0 6300:1.0 6302:1.0 6348:1.0 6452:1.0 6490:1.0 6496:1.0 6561:1.0 6562:1.0 6595:1.0 6761:1.0 7087:1.0 7297:1.0 7604:1.0 7672:1.0 9492:1.0 9493:1.0 14382:1.0 15980:1.0 15981:1.0 15982:1.0 15983:1.0 15984:1.0 15985:1.0 15986:1.0 15987:1.0 15988:1.0 15989:1.0 
0.05 0.0 22:1.0 23:1.0 24:1.0 30:1.0 32:1.0 40:1.0 43:1.0 45:1.5 46:2.0 47:1.0 115:3.0 123:1.0 138:1.0 139:1.0 198:3.0 594:1.0 597:1.0 598:1.0 615:1.0 742:1.0 1113:1.0 2017:1.0 2599:1.0 6460:1.0 6559:1.0 7676:1.0 8105:1.0 15952:1.0 15975:1.0 16027:1.0 16028:1.0 16029:1.0 16030:1.0 16031:1.0 16032:1.0 16033:1.0 16034:1.0 16038:1.0 16039:1.0 16040:1.0 16079:1.0 16080:1.0 16081:1.0 16082:1.0 16083:1.0 16084:1.0 16085:1.0 16086:1.0 16087:1.0 16088:1.0 
0.030578300121399848 0.0 22:1.0 23:1.0 24:2.0 25:1.0 30:1.0 32:1.0 40:1.0 43:1.0 45:1.5 46:2.0 47:1.0 115:2.0 123:1.0 138:1.0 139:1.0 198:2.0 615:1.0 681:1.0 682:1.0 683:1.0 685:1.0 686:1.0 850:1.0 1113:1.0 2081:1.0 6286:1.0 6289:1.0 6324:1.0 6490:1.0 6491:1.0 6496:1.0 6497:1.0 6561:1.0 7080:1.0 7087:1.0 7642:1.0 16042:1.0 16043:1.0 16044:1.0 16047:1.0 16048:1.0 16049:1.0 16107:1.0 16108:1.0 16109:1.0 16110:1.0 16111:1.0 16112:1.0 16113:1.0 16114:1.0 16115:1.0 
0.004938557586683973 0.0 8:1.0 24:1.0 25:1.0 30:1.0 45:2.0 46:3.0 47:1.0 67:2.0 115:2.0 138:1.0 139:1.0 268:1.0 272:1.0 413:1.0 418:1.0 444:1.0 446:1.0 466:1.0 758:1.0 759:1.0 761:1.0 1113:1.0 2423:1.0 2426:1.0 2488:1.0 2966:1.0 2967:1.0 2968:1.0 2970:1.0 2971:1.0 5984:1.0 6286:1.0 6289:1.0 6496:1.0 6502:1.0 6559:1.0 6560:1.0 6561:1.0 6562:1.0 16140:1.0 16141:1.0 16142:1.0 16143:1.0 16144:1.0 16145:1.0 16146:1.0 16147:1.0 16148:1.0 16149:1.0 
0.043392635196902084 0.0 8:1.0 24:1.0 25:1.0 30:1.0 45:3.0 46:4.0 47:2.0 67:9.0 115:1.0 138:1.0 139:1.0 176:1.0 413:1.0 466:2.0 577:1.0 868:1.0 880:1.0 881:1.0 883:1.0 884:1.0 885:1.0 887:1.0 888:1.0 1342:1.0 1725:1.0 2158:1.0 2159:1.0 2160:1.0 2423:1.0 2426:1.0 2606:1.0 3173:1.0 5178:1.0 5233:1.0 6286:1.0 6289:1.0 8425:1.0 8573:1.0 8574:1.0 10917:1.0 13054:1.0 13056:1.0 13057:1.0 16261:1.0 16262:1.0 16263:1.0 16264:1.0 16265:1.0 16266:1.0 16267:1.0 16268:1.0 16269:1.0 16270:1.0 16271:1.0 16272:1.0 16273:1.0 16274:1.0 16275:1.0 16276:1.0 16277:1.0 16278:1.0 16279:1.0 
0.018247320424780986 0.0 24:1.0 25:1.0 26:1.0 30:1.0 67:7.0 138:1.0 139:1.0 176:1.0 268:1.0 272:1.0 292:1.0 434:1.0 446:1.0 451:1.0 466:1.0 615:1.0 618:1.0 1180:1.0 1831:1.0 2408:1.0 2423:1.0 2426:1.0 2475:1.0 2476:1.0 3205:1.0 3206:1.0 3270:2.0 3458:1.0 3480:1.0 6458:1.0 6461:1.0 9503:1.0 16169:1.0 16171:1.0 16172:1.0 16173:1.0 16174:1.0 16182:1.0 16280:1.0 16281:1.0 16282:1.0 16283:1.0 16284:1.0 16292:1.0 16295:1.0 16296:1.0 16297:1.0 16298:1.0 16299:1.0 16300:1.0 
0.03317613834935625 0.0 24:1.0 25:1.0 26:1.0 30:1.0 67:10.0 115:3.0 119:2.0 138:1.0 139:1.0 176:1.0 292:1.0 327:1.0 331:1.0 434:1.0 466:2.0 615:1.0 618:1.0 798:1.0 1180:1.0 1831:1.0 2408:1.0 2423:1.0 2426:1.0 2475:1.0 2476:1.0 2488:1.0 2518:1.0 3270:2.0 3343:1.0 3371:1.0 6286:1.0 6289:1.0 6497:1.0 9503:1.0 10351:1.0 11233:1.0 16169:1.0 16171:1.0 16172:1.0 16173:1.0 16174:1.0 16190:1.0 16280:1.0 16281:1.0 16282:1.0 16283:1.0 16284:1.0 16291:1.0 16292:1.0 16299:1.0 16300:1.0 16301:1.0 16302:1.0 16303:1.0 16304:1.0 16305:1.0 16306:1.0 
0.05 0.0 22:1.0 23:1.0 24:3.0 25:1.0 30:1.0 32:1.0 45:2.5 46:4.0 47:1.0 115:3.0 138:1.0 139:1.0 176:1.0 198:3.0 327:1.0 331:1.0 671:1.0 798:1.0 856:1.0 1698:1.0 1967:2.0 2158:1.0 2423:1.0 2439:1.0 2488:1.0 2518:1.0 2933:1.0 2988:1.0 3137:1.0 3264:1.0 3343:1.0 3364:1.0 3371:1.0 4516:1.0 5574:2.0 6286:1.0 6289:1.0 6321:1.0 6324:1.0 6491:1.0 6497:1.0 7118:1.0 8106:1.0 9814:1.0 11068:1.0 11070:1.0 11071:1.0 11233:1.0 16190:1.0 16291:1.0 16301:1.0 16302:1.0 16304:1.0 16305:1.0 16306:1.0 16307:1.0 16308:1.0 16309:1.0 16310:1.0 16311:1.0 16312:1.0 16313:1.0 16314:1.0 
0.006534258673192881 0.0 22:1.0 23:1.0 24:2.0 25:1.0 30:1.0 32:1.0 45:2.0 46:3.0 47:1.0 138:1.0 139:1.0 176:1.0 268:1.0 272:1.0 446:1.0 451:1.0 671:1.0 759:1.0 856:1.0 1967:1.0 2158:1.0 2423:1.0 2439:1.0 2933:1.0 2988:1.0 3205:1.0 3206:1.0 3458:1.0 3480:1.0 3567:1.0 4516:1.0 5574:1.0 6458:1.0 6461:1.0 8106:1.0 8113:1.0 11068:1.0 11070:1.0 11071:1.0 16182:1.0 16295:1.0 16296:1.0 16297:1.0 16298:1.0 16308:1.0 16309:1.0 16310:1.0 16312:1.0 16313:1.0 16315:1.0 16316:1.0 16317:1.0 
0.012637966507342575 0.0 22:1.0 23:1.0 24:2.0 25:1.0 30:1.0 32:1.0 40:1.0 43:1.0 45:2.0 46:3.0 47:1.0 115:3.0 123:1.0 138:1.0 139:1.0 167:1.0 176:1.0 198:3.0 1443:1.0 1967:1.0 2158:1.0 2169:1.0 2346:1.0 2423:1.0 2838:1.0 2933:1.0 2988:1.0 3264:1.0 3343:1.0 3364:1.0 3371:1.0 4516:1.0 5574:1.0 6286:1.0 6289:1.0 6324:1.0 6491:1.0 6497:1.0 6505:1.0 6543:1.0 7118:1.0 11068:1.0 11070:1.0 11071:1.0 11233:1.0 11339:1.0 16301:1.0 16349:1.0 16355:1.0 16356:1.0 16357:1.0 16358:1.0 16359:1.0 16361:1.0 16362:1.0 16363:1.0 16364:1.0 16365:1.0 16366:1.0 16368:1.0 
0.0027065514293050396 0.0 22:1.0 23:1.0 24:2.0 25:1.0 29:1.0 30:1.0 31:1.0 32:1.0 40:1.0 43:1.0 45:1.5 46:2.0 47:1.0 115:3.0 123:1.0 141:1.0 145:1.0 167:1.0 176:1.0 198:3.0 1443:1.0 2169:1.0 2346:1.0 2423:1.0 2997:1.0 3264:1.0 3343:1.0 3364:1.0 3371:1.0 3385:1.0 6035:1.0 6286:1.0 6289:1.0 6324:1.0 6491:1.0 6497:1.0 6505:1.0 6543:1.0 7118:1.0 7999:1.0 11233:1.0 11339:1.0 16301:1.0 16349:1.0 16355:1.0 16356:1.0 16357:1.0 16358:1.0 16359:1.0 16365:1.0 16369:1.0 16370:1.0 16371:1.0 16372:1.0 16373:1.0 16374:1.0 
0.04031358830945337 0.0 24:1.0 25:1.0 30:1.0 40:1.0 43:1.0 67:2.0 110:1.0 115:1.0 123:1.0 138:1.0 139:1.0 1016:1.0 2335:1.0 2934:1.0 2936:1.0 3291:1.0 3478:1.0 5670:1.0 5717:1.0 5741:1.0 5750:1.0 5751:1.0 5752:1.0 5753:1.0 5755:1.0 5761:1.0 5762:1.0 5764:1.0 5790:1.0 5791:1.0 5792:1.0 5793:1.0 5794:1.0 5795:1.0 5804:1.0 6858:1.0 16410:1.0 16411:1.0 16412:1.0 16413:1.0 
0.018415080777835505 0.0 24:1.0 25:1.0 30:1.0 45:2.0 46:3.0 47:1.0 67:2.0 138:1.0 139:1.0 268:1.0 272:1.0 390:1.0 413:1.0 418:1.0 444:1.0 446:1.0 466:1.0 758:1.0 759:1.0 761:1.0 1082:1.0 2423:1.0 2426:1.0 2966:1.0 2967:1.0 2968:1.0 2970:1.0 2971:1.0 5686:1.0 5750:1.0 5751:1.0 5752:1.0 5753:1.0 5761:1.0 5979:1.0 5984:1.0 6010:1.0 6022:1.0 6023:1.0 6024:1.0 6026:1.0 6027:1.0 6031:1.0 6916:1.0 16486:1.0 16487:1.0 16488:1.0 16489:1.0 
0.018805003921690547 0.0 24:1.0 30:1.0 45:2.0 46:3.0 47:1.0 67:4.0 115:1.0 119:1.0 138:1.0 139:1.0 280:1.0 284:1.0 292:1.0 327:1.0 413:1.0 451:1.0 466:1.0 530:1.0 758:1.0 759:1.0 761:1.0 1082:1.0 1098:1.0 1378:1.0 2516:1.0 2518:1.0 2966:1.0 2967:1.0 2968:1.0 2970:1.0 2971:1.0 5485:1.0 5686:1.0 5750:1.0 5751:1.0 5752:1.0 5753:1.0 5979:1.0 6007:1.0 6011:1.0 6012:1.0 6066:1.0 6067:1.0 6069:1.0 6070:1.0 6071:1.0 6410:1.0 6694:1.0 6916:1.0 16486:1.0 16487:1.0 16488:1.0 16490:1.0 
0.0066284034225415666 0.0 22:1.0 23:1.0 24:1.0 29:1.0 30:1.0 31:1.0 32:1.0 40:1.0 43:1.0 45:1.5 46:2.0 47:1.0 115:1.0 123:1.0 198:1.0 1667:1.0 2451:1.0 2452:1.0 2922:1.0 5540:1.0 5542:1.0 7034:1.0 7251:1.0 9445:1.0 16614:1.0 16615:1.0 16616:1.0 16617:1.0 16618:1.0 16619:1.0 16620:1.0 16621:1.0 16622:1.0 16623:1.0 16624:1.0 16625:1.0 16626:1.0 16627:1.0 16628:1.0 16629:1.0 16630:1.0 16631:1.0 16632:1.0 16633:1.0 16634:1.0 16635:1.0 16636:1.0 16637:1.0 16638:1.0 16639:1.0 
0.010718691497186223 0.004162358297439587 22:1.0 23:1.0 24:4.0 25:1.0 30:1.0 32:1.0 40:1.0 43:1.0 44:1.0 115:1.0 138:1.0 139:1.0 198:1.0 1238:1.0 1897:1.0 1904:1.0 2215:1.0 2217:1.0 2226:1.0 2258:1.0 2259:1.0 2270:1.0 2299:1.0 2300:1.0 2301:1.0 2302:1.0 2344:1.0 5843:1.0 5941:1.0 7443:1.0 9978:1.0 11545:1.0 16734:1.0 16735:1.0 16736:1.0 16737:1.0 16738:1.0 16739:1.0 16740:1.0 16741:1.0 16749:1.0 16750:1.0 16751:1.0 
0.01512373039506796 0.0 22:1.0 23:1.0 24:4.0 25:1.0 30:1.0 32:1.0 40:1.0 43:1.0 44:1.0 45:1.5 46:2.0 47:1.0 138:1.0 139:1.0 585:1.0 586:1.0 785:1.0 792:1.0 794:1.0 856:1.0 1096:1.0 1600:1.0 1601:1.0 1967:1.0 2350:1.0 2438:1.0 2439:1.0 2501:1.0 2586:1.0 2980:1.0 3061:1.0 3264:1.0 4243:1.0 5229:1.0 5574:1.0 6604:1.0 7007:1.0 7689:1.0 8337:1.0 9733:1.0 9734:1.0 9736:1.0 9737:1.0 9903:1.0 11710:1.0 11711:1.0 16798:1.0 16799:1.0 16800:1.0 16801:1.0 16802:1.0 16803:1.0 16804:1.0 16805:1.0 16806:1.0 
0.0 0.005500628818102176 8:1.0 18:1.0 22:1.0 23:1.0 24:2.0 26:1.0 29:1.0 30:1.0 31:1.0 32:1.0 40:1.0 43:1.0 45:1.5 46:2.0 47:1.0 115:1.0 123:1.0 198:1.0 578:1.0 579:1.0 1666:1.0 1667:1.0 1714:1.0 2038:1.0 2451:1.0 2452:1.0 2478:1.0 3041:1.0 5403:1.0 9908:1.0 9910:1.0 10036:1.0 10037:1.0 10038:1.0 10039:1.0 10042:1.0 10043:1.0 10044:1.0 10045:1.0 10047:1.0 10048:1.0 10049:1.0 10050:1.0 16826:1.0 16827:1.0 16828:1.0 16829:1.0 16830:1.0 
0.05 0.017365048850713275 16:1.0 24:1.0 25:1.0 30:1.0 45:3.0 46:4.0 47:2.0 67:1.0 103:1.0 106:1.0 114:1.0 115:1.0 138:1.0 139:1.0 181:1.0 185:1.0 194:1.0 794:1.0 897:1.0 1083:1.0 1095:1.0 1491:1.0 1601:1.0 2350:1.0 2501:1.0 3071:1.0 4757:1.0 4987:1.0 4988:1.0 4989:1.0 4990:1.0 5229:1.0 16868:1.0 16869:1.0 16870:1.0 16871:1.0 16872:1.0 16873:1.0 16874:1.0 16875:1.0 16876:1.0 16972:1.0 16973:1.0 16974:1.0 16975:1.0 16976:1.0 16977:1.0 
0.0029640924902177975 0.009091255609852179 22:1.0 23:1.0 24:2.0 25:1.0 30:1.0 32:1.0 40:1.0 43:1.0 44:1.0 45:1.5 46:2.0 47:1.0 138:1.0 139:1.0 785:1.0 792:1.0 794:1.0 1083:1.0 2350:1.0 2361:1.0 2980:1.0 3061:1.0 3360:1.0 4789:1.0 4792:1.0 4793:1.0 4884:1.0 4893:1.0 4894:1.0 5670:1.0 5702:1.0 5843:1.0 16890:1.0 16891:1.0 16978:1.0 16979:1.0 17005:1.0 17016:1.0 17017:1.0 17018:1.0 17019:1.0 17020:1.0 17021:1.0 17022:1.0 17023:1.0 
0.03204465492358324 0.0088151133415657 24:1.0 25:1.0 30:1.0 34:1.0 38:1.0 40:1.0 43:1.0 44:1.0 45:1.5 46:2.0 47:1.0 67:1.0 103:1.0 106:1.0 114:1.0 115:1.0 138:1.0 139:1.0 194:1.0 198:1.0 706:1.0 794:1.0 897:1.0 1083:1.0 1095:1.0 2234:1.0 2350:1.0 3109:1.0 3110:1.0 4757:1.0 8091:1.0 8968:1.0 8969:1.0 9300:1.0 11385:1.0 16912:1.0 16913:1.0 16914:1.0 16915:1.0 16916:1.0 16919:1.0 16920:1.0 16921:1.0 17037:1.0 17038:1.0 17039:1.0 17040:1.0 17041:1.0 17042:1.0 
0.05 0.011155744680713588 24:1.0 25:1.0 30:1.0 34:1.0 38:1.0 40:1.0 43:1.0 44:1.0 45:2.0 46:3.0 47:1.0 67:5.0 114:2.0 115:1.0 119:1.0 138:1.0 139:1.0 194:1.0 198:1.0 706:1.0 794:1.0 897:1.0 1083:1.0 1095:1.0 2234:1.0 2350:1.0 3031:1.0 3109:1.0 3110:1.0 4703:1.0 4757:1.0 5702:1.0 8091:1.0 8882:1.0 9300:1.0 11385:1.0 16868:1.0 16869:1.0 16870:1.0 16930:1.0 16931:1.0 16933:1.0 16952:1.0 16953:1.0 16954:1.0 16955:1.0 16956:1.0 17037:1.0 17038:1.0 17039:1.0 17040:1.0 17041:1.0 17043:1.0 
0.01150947551523091 0.0026558531478448368 22:1.0 23:1.0 24:1.0 25:1.0 29:1.0 30:1.0 31:1.0 34:1.0 37:1.0 38:1.0 45:1.5 46:2.0 47:1.0 150:1.0 181:1.0 185:1.0 1491:1.0 3103:1.0 5273:1.0 5816:1.0 5823:1.0 5831:1.0 5832:1.0 5840:1.0 5922:1.0 5923:1.0 8051:1.0 8080:1.0 8219:1.0 10264:1.0 10485:1.0 17164:1.0 17165:1.0 17166:1.0 17171:1.0 17185:1.0 17198:1.0 17199:1.0 17200:1.0 17201:1.0 17202:1.0 17203:1.0 17204:1.0 17205:1.0 17206:1.0 17207:1.0 17208:1.0 
0.012337945004930163 0.0 22:1.0 23:1.0 24:1.0 26:1.0 29:1.0 30:1.0 31:1.0 32:1.0 40:1.0 43:1.0 45:1.5 46:2.0 47:1.0 115:1.0 123:1.0 176:1.0 198:2.0 569:1.0 1601:1.0 1604:1.0 2501:1.0 3260:1.0 3264:1.0 5870:1.0 5871:1.0 5970:1.0 6452:1.0 6575:1.0 7092:1.0 7211:1.0 7778:1.0 7779:1.0 15867:1.0 15887:1.0 17020:1.0 17240:1.0 17241:1.0 17242:1.0 17243:1.0 17244:1.0 17245:1.0 17248:1.0 17250:1.0 17251:1.0 17252:1.0 17253:1.0 17254:1.0 17255:1.0 17256:1.0 
0.0 0.001696057340861497 24:1.0 26:1.0 29:1.0 30:1.0 31:1.0 45:2.0 46:2.0 47:2.0 67:2.0 115:4.0 1098:1.0 1555:1.0 1561:1.0 2410:1.0 2411:1.0 2412:1.0 2413:1.0 2415:1.0 2416:1.0 2444:1.0 2447:1.0 2463:1.0 2464:1.0 2868:1.0 6300:1.0 6302:1.0 6432:1.0 6434:1.0 6442:1.0 6443:1.0 6496:1.0 6497:2.0 6498:1.0 6518:1.0 6559:1.0 6561:1.0 6907:1.0 6913:1.0 6923:1.0 6924:1.0 7367:1.0 9523:1.0 9902:1.0 11233:1.0 11636:1.0 15880:1.0 17295:1.0 17296:1.0 17297:1.0 17298:1.0 17299:1.0 17300:1.0 17301:1.0 
0.01963258063881955 0.007758335282183724 24:1.0 26:1.0 29:1.0 30:1.0 31:1.0 45:3.5 46:5.0 47:2.0 67:5.0 115:2.0 280:1.0 284:1.0 292:1.0 327:1.0 530:1.0 1098:1.0 2410:1.0 2444:1.0 2447:1.0 2463:1.0 2464:1.0 2516:1.0 2518:1.0 2868:1.0 6300:1.0 6302:1.0 6432:1.0 6434:1.0 6442:1.0 6443:1.0 6497:1.0 6518:1.0 6559:1.0 6913:1.0 6924:1.0 7301:1.0 7342:1.0 7367:1.0 8065:1.0 9523:1.0 9902:1.0 10274:1.0 11233:1.0 11636:1.0 15965:1.0 15966:1.0 15968:1.0 16059:1.0 17295:1.0 17296:1.0 17298:1.0 17299:1.0 17302:1.0 
0.03486806733043733 0.0 24:1.0 26:1.0 29:1.0 30:1.0 31:1.0 45:3.5 46:5.0 47:2.0 67:14.0 115:2.0 119:2.0 176:1.0 268:1.0 292:1.0 446:1.0 466:1.0 798:1.0 1098:1.0 2408:1.0 2410:1.0 2423:1.0 2424:1.0 2426:1.0 2433:1.0 2444:1.0 2447:1.0 2463:1.0 2464:1.0 2495:1.0 2868:1.0 3032:1.0 3205:1.0 3206:1.0 3315:1.0 3458:1.0 6300:1.0 6302:1.0 6339:1.0 6432:1.0 6434:1.0 6442:1.0 6443:1.0 6497:1.0 6514:1.0 6518:1.0 6559:1.0 6913:1.0 6924:1.0 7111:1.0 8065:2.0 9523:1.0 11233:1.0 11248:1.0 15965:1.0 15966:1.0 16059:1.0 17295:1.0 17296:1.0 17298:1.0 17299:1.0 17303:1.0 17304:1.0 17305:1.0 
0.038643454942992074 0.01604669406996222 25:1.0 30:1.0 45:3.0 46:3.0 47:3.0 67:2.0 89:1.0 90:1.0 115:2.0 176:1.0 268:1.0 272:1.0 446:1.0 466:1.0 594:1.0 759:1.0 768:1.0 798:1.0 1096:1.0 2423:1.0 2426:1.0 2515:1.0 5520:1.0 5533:1.0 5538:1.0 5546:1.0 5547:1.0 6286:1.0 6289:1.0 6562:1.0 7296:1.0 7299:1.0 7371:1.0 8903:1.0 10449:1.0 10583:1.0 17363:1.0 17364:1.0 17365:1.0 17366:1.0 17367:1.0 17368:1.0 17369:1.0 17370:1.0 17371:1.0 17372:1.0 17373:1.0 17374:1.0 17375:1.0 17376:1.0 
5.728219639558763E-4 0.0 24:1.0 25:1.0 26:1.0 29:1.0 30:1.0 31:1.0 67:9.0 115:1.0 119:1.0 176:1.0 259:1.0 267:1.0 268:1.0 272:1.0 413:1.0 446:1.0 466:3.0 759:1.0 798:1.0 812:1.0 822:1.0 823:1.0 2423:1.0 2424:1.0 2426:1.0 2485:1.0 3164:1.0 6286:1.0 6289:1.0 6432:1.0 6434:1.0 6442:1.0 6443:1.0 6483:1.0 6518:1.0 6607:1.0 6608:1.0 6609:1.0 6713:1.0 17296:1.0 17377:1.0 17378:1.0 17379:1.0 17380:1.0 17381:1.0 17382:1.0 
0.04587860807636149 0.015999959976352715 25:1.0 30:1.0 45:3.0 46:3.0 47:3.0 67:2.0 89:1.0 90:1.0 115:2.0 176:1.0 268:1.0 272:1.0 446:1.0 466:1.0 594:1.0 759:1.0 768:1.0 798:1.0 1096:1.0 2423:1.0 2426:1.0 2515:1.0 5520:1.0 5533:1.0 5538:1.0 5546:1.0 5547:1.0 6286:1.0 6289:1.0 6562:1.0 7296:1.0 7299:1.0 7371:1.0 8903:1.0 10449:1.0 10583:1.0 11589:1.0 17363:1.0 17364:1.0 17365:1.0 17366:1.0 17367:1.0 17368:1.0 17369:1.0 17370:1.0 17373:1.0 17374:1.0 17375:1.0 17376:1.0 17414:1.0 
5.076723749022812E-4 0.0 24:1.0 29:1.0 30:1.0 31:1.0 45:2.0 46:3.0 47:1.0 67:1.0 176:1.0 198:1.0 268:1.0 403:1.0 407:1.0 413:1.0 418:1.0 444:1.0 446:1.0 594:1.0 598:1.0 745:1.0 758:1.0 761:1.0 798:1.0 1097:1.0 1098:1.0 2433:1.0 2438:1.0 2584:1.0 2832:1.0 2862:1.0 4658:1.0 6913:1.0 9476:1.0 9477:1.0 9478:1.0 9479:1.0 9480:1.0 9785:1.0 16808:1.0 17430:1.0 17431:1.0 17432:1.0 17433:1.0 17434:1.0 17435:1.0 17436:1.0 17437:1.0 17438:1.0 17439:1.0 17440:1.0 
0.05 0.012084636656713652 24:1.0 25:1.0 30:1.0 45:2.0 46:2.0 47:2.0 67:3.0 89:1.0 90:1.0 99:1.0 115:2.0 176:1.0 198:1.0 466:1.0 860:1.0 864:1.0 884:1.0 1096:1.0 1555:1.0 1561:1.0 2082:1.0 2423:1.0 2426:1.0 2655:1.0 2656:1.0 2740:1.0 2741:1.0 3160:1.0 3343:1.0 3371:1.0 5512:1.0 5513:1.0 5514:1.0 5520:1.0 5533:1.0 5538:1.0 6597:1.0 6913:1.0 6924:1.0 7280:1.0 7717:1.0 7719:1.0 9492:1.0 14001:1.0 17441:1.0 17442:1.0 17443:1.0 17444:1.0 17445:1.0 17446:1.0 17447:1.0 17448:1.0 17449:1.0 17450:1.0 17451:1.0 17452:1.0 17453:1.0 
0.01995528410629198 0.01704521079592172 24:1.0 25:1.0 30:1.0 45:3.5 46:5.0 47:2.0 67:5.0 89:1.0 90:1.0 97:1.0 99:1.0 115:1.0 176:1.0 198:1.0 280:1.0 284:1.0 292:1.0 327:1.0 466:1.0 530:1.0 884:1.0 1096:1.0 2082:1.0 2516:1.0 2518:1.0 2655:1.0 2656:1.0 2740:1.0 2741:1.0 3160:1.0 3320:1.0 3577:1.0 5512:1.0 5513:1.0 5520:1.0 5533:1.0 5538:1.0 6410:1.0 6597:1.0 6913:1.0 6924:1.0 7280:1.0 7342:1.0 7717:1.0 7719:1.0 10463:1.0 14001:1.0 17441:1.0 17442:1.0 17443:1.0 17444:1.0 17447:1.0 17448:1.0 17449:1.0 17454:1.0 17455:1.0 
0.02242962401712209 0.0 5:1.0 22:1.0 23:1.0 24:2.0 25:2.0 26:1.0 29:1.0 30:1.0 31:1.0 45:2.0 46:3.0 47:1.0 115:1.0 198:1.0 268:1.0 272:1.0 446:1.0 460:1.0 569:1.0 577:1.0 784:1.0 785:1.0 792:1.0 794:1.0 856:1.0 870:1.0 884:1.0 888:1.0 1098:1.0 1118:1.0 1339:2.0 1555:1.0 1561:1.0 1967:1.0 2372:1.0 2402:1.0 2439:1.0 2475:1.0 2476:1.0 3205:1.0 3206:1.0 3351:1.0 3364:1.0 3465:1.0 3490:1.0 4902:1.0 5574:1.0 7125:1.0 16396:1.0 17471:1.0 17472:1.0 17473:1.0 17474:1.0 17475:1.0 17480:1.0 17481:1.0 17482:1.0 17483:1.0 17484:1.0 17485:1.0 17486:1.0 17487:1.0 17488:1.0 17489:1.0 17490:1.0 17491:1.0 17492:1.0 
0.01610842591184673 0.0 22:1.0 23:1.0 24:2.0 25:1.0 29:1.0 30:1.0 31:1.0 32:1.0 34:1.0 37:1.0 38:1.0 45:2.0 46:3.0 47:1.0 115:1.0 198:1.0 268:1.0 272:1.0 403:1.0 418:1.0 444:1.0 446:1.0 700:1.0 798:1.0 838:1.0 856:1.0 3264:1.0 4298:1.0 4589:1.0 14997:1.0 17561:1.0 17563:1.0 17564:1.0 17566:1.0 17569:1.0 17570:1.0 17575:1.0 17576:1.0 17577:1.0 17579:1.0 17591:1.0 17592:1.0 17593:1.0 17594:1.0 17595:1.0 17596:1.0 17597:1.0 17598:1.0 17599:1.0 17600:1.0 17601:1.0 17602:1.0 17603:1.0 
0.004054788133364075 0.004305504290648152 8:1.0 18:1.0 22:1.0 23:1.0 24:2.0 25:1.0 26:1.0 30:1.0 32:1.0 40:1.0 43:1.0 44:1.0 45:1.5 46:2.0 47:1.0 1664:1.0 1675:1.0 2336:1.0 4328:1.0 4329:1.0 4330:1.0 4331:1.0 4637:1.0 4639:1.0 11747:1.0 11748:1.0 11752:1.0 11843:1.0 14021:1.0 14022:1.0 17569:1.0 17570:1.0 17604:1.0 17605:1.0 17606:1.0 17607:1.0 17608:1.0 17609:1.0 17610:1.0 17611:1.0 17612:1.0 17613:1.0 17614:1.0 17615:1.0 17616:1.0 17617:1.0 17618:1.0 17619:1.0 
0.04172277935616189 0.008482427156954209 22:1.0 23:1.0 24:1.0 25:1.0 29:1.0 30:1.0 31:1.0 45:2.0 46:2.0 47:2.0 54:1.0 132:1.0 150:1.0 181:1.0 1205:1.0 1209:1.0 1339:1.0 1491:1.0 1546:1.0 2335:1.0 3103:1.0 3300:1.0 5262:1.0 5276:1.0 15041:1.0 17670:1.0 17671:1.0 17672:1.0 17673:1.0 17674:1.0 17675:1.0 17676:1.0 17679:1.0 17680:1.0 17681:1.0 17683:1.0 17684:1.0 17685:1.0 17686:1.0 17690:1.0 17691:1.0 17692:1.0 17693:1.0 17694:1.0 17695:1.0 
0.002124964471760826 0.0 9:1.0 20:1.0 22:1.0 23:1.0 24:2.0 25:1.0 30:1.0 32:1.0 40:1.0 43:1.0 44:1.0 45:1.5 46:2.0 47:1.0 49:1.0 50:1.0 51:1.0 52:1.0 129:1.0 148:1.0 176:1.0 1205:1.0 1209:1.0 1406:1.0 1661:1.0 1664:1.0 1675:1.0 1701:1.0 2944:1.0 3451:1.0 5670:1.0 5702:1.0 10719:1.0 10721:1.0 10722:1.0 10734:1.0 12112:1.0 12121:1.0 12124:1.0 12125:1.0 12126:1.0 12127:1.0 13599:1.0 13628:1.0 13638:1.0 13648:1.0 
0.010903373111190247 0.0 9:1.0 20:1.0 22:1.0 23:1.0 24:2.0 25:1.0 30:1.0 32:1.0 40:1.0 43:1.0 44:1.0 45:1.5 46:2.0 47:1.0 176:1.0 1205:1.0 1209:1.0 1406:1.0 1661:1.0 1664:1.0 1675:1.0 1701:1.0 2944:1.0 4656:1.0 4657:1.0 5670:1.0 5702:1.0 6111:1.0 6117:1.0 6132:1.0 12478:1.0 13599:1.0 13628:1.0 13638:1.0 13673:1.0 13690:1.0 13691:1.0 13692:1.0 13693:1.0 13694:1.0 13695:1.0 13696:1.0 13697:1.0 13698:1.0 13699:1.0 13700:1.0 
0.020038665537535496 0.0 22:1.0 23:1.0 24:1.0 25:1.0 30:1.0 32:1.0 164:1.0 167:1.0 176:1.0 181:1.0 185:1.0 756:1.0 1096:1.0 1264:1.0 1443:1.0 1491:1.0 1664:1.0 1675:1.0 1694:1.0 2346:1.0 3264:1.0 13675:1.0 13679:1.0 13681:1.0 13683:1.0 13685:1.0 13686:1.0 13687:1.0 13688:1.0 13689:1.0 13705:1.0 13706:1.0 13707:1.0 13708:1.0 13709:1.0 13710:1.0 13711:1.0 
0.010108518344941036 0.0 22:1.0 23:1.0 24:2.0 25:1.0 30:1.0 32:1.0 40:1.0 43:1.0 44:1.0 45:1.5 46:2.0 47:1.0 176:1.0 1167:1.0 1205:1.0 1209:1.0 1238:1.0 1664:1.0 1675:1.0 1701:1.0 1714:1.0 2142:1.0 4677:1.0 4777:1.0 13610:1.0 13778:1.0 13780:1.0 13782:1.0 13787:1.0 13788:1.0 13789:1.0 13790:1.0 13791:1.0 13792:1.0 13793:1.0 13810:1.0 13811:1.0 13812:1.0 13813:1.0 13814:1.0 13815:1.0 13816:1.0 13817:1.0 13818:1.0 13819:1.0 13820:1.0 
