svm_type c_svc
kernel_type linear
nr_class 2
total_sv 127
rho -0.423211
label 1 2
nr_sv 53 74
SV
0.07084737451571044 10:1 11:1 12:1 13:1 14:1 15:1 16:1 17:1 18:1 19:1 20:1 21:1 22:1 40:3 41:1 42:1 43:1 44:1 46:1 47:1 48:1 49:1 56:1 57:1 58:1 59:1 60:1 61:1 62:2.5 63:3 64:2 94:1 95:1 100:1 101:1 102:1 103:1 104:1 105:1 106:1 107:1 108:1 109:1 110:1 111:1 112:1 113:1 114:1 115:1 
0.0298798513556165 42:1 47:1 62:2 63:2 64:2 78:1 94:1 95:1 242:1 243:1 291:1 292:1 293:1 294:1 295:1 296:1 297:1 298:1 299:1 300:1 314:1 315:1 316:1 317:1 318:1 319:1 346:1 349:1 364:1 365:1 370:1 371:1 372:1 373:1 374:1 375:1 380:1 381:1 382:1 383:1 384:1 385:1 386:1 
0.005049454690086811 42:1 47:1 57:1 60:1 62:2 63:2 64:2 78:1 82:1 94:1 95:1 242:1 243:1 291:1 292:1 293:1 294:1 295:1 296:1 297:1 298:1 321:1 322:1 327:1 328:1 329:1 330:1 331:1 332:1 370:1 371:1 372:1 373:1 374:1 375:1 380:1 414:1 415:1 416:1 417:1 418:1 419:1 420:1 421:1 423:1 
0.01729089080193877 40:1 41:2 42:1 46:1 47:1 49:1 57:1 60:1 78:2 91:1 205:1 224:1 252:1 332:1 441:1 471:1 484:1 495:1 528:1 531:1 543:1 550:1 551:1 552:1 553:1 554:1 555:1 556:1 557:1 567:1 568:1 569:1 570:1 571:1 572:1 573:1 574:1 575:1 576:1 577:1 578:1 579:1 580:1 
0.004013703001295092 40:3 41:1 42:1 46:1 47:1 48:1 49:1 57:1 60:1 62:3.5 63:4 64:3 78:1 89:1 94:1 95:1 102:1 103:1 122:1 128:1 129:1 146:1 148:1 149:1 332:1 415:1 492:1 614:1 809:1 849:1 850:1 851:1 852:1 853:1 854:1 855:1 856:1 857:1 858:1 861:1 862:1 863:1 890:1 891:1 892:1 893:1 894:1 896:1 
0.01926998277699098 7:1 40:1 42:1 45:1 46:1 47:1 49:1 57:1 60:1 62:2.5 63:4 64:1 78:1 91:1 125:1 332:1 500:1 501:1 502:1 504:1 556:1 567:1 568:1 569:1 570:1 573:1 575:1 576:1 577:1 742:1 1225:1 1226:1 1227:1 1228:1 1229:1 1230:1 1231:1 1232:1 1233:1 1234:1 1235:1 1236:1 1237:1 1238:1 1239:1 1240:1 1241:1 1242:1 
0.0150250171787511 41:1 42:1 47:1 57:1 60:1 62:2 63:2 64:2 78:1 82:1 94:1 95:1 242:1 243:1 332:1 420:1 421:1 567:1 568:1 569:1 570:1 573:1 592:1 593:1 821:1 1232:1 1233:1 1234:1 1235:1 1236:1 1239:1 1240:1 1241:1 1244:1 1246:1 1247:1 1249:1 1252:1 1253:1 1254:1 1255:1 1256:1 1257:1 1258:1 1259:1 
0.02006229522877589 40:1 42:1 47:1 62:2 63:2 64:2 78:1 94:1 95:1 144:1 242:1 243:1 315:1 318:1 319:1 346:1 349:1 385:1 471:1 542:1 614:1 1281:1 1287:1 1288:1 1289:1 1290:1 1291:1 1292:1 1293:1 1294:1 1295:1 1296:1 1297:1 1298:1 1299:1 1300:1 1301:1 1302:1 1303:1 1304:1 1305:1 1306:1 1307:1 1308:1 1309:1 
0.04021824232295331 40:1 41:2 42:1 47:1 57:1 60:1 78:1 94:1 95:1 242:1 243:1 332:1 415:1 471:1 492:1 542:1 553:1 582:1 614:1 1314:1 1318:1 1319:1 1320:1 1321:1 1322:1 1323:1 1324:1 1325:1 1326:1 1330:1 1331:1 1332:1 1334:1 1335:1 1336:1 1337:1 1338:1 1339:1 
0.01952819886626628 40:1 41:1 42:1 46:1 47:1 49:1 57:1 60:1 62:2.5 63:4 64:1 78:2 291:1 292:1 293:1 294:1 332:1 361:1 687:1 1199:1 1346:1 1347:1 1348:1 1349:1 1350:1 1352:1 1360:1 1362:1 1366:1 1368:1 1373:1 1374:1 1375:1 1377:1 1378:1 1379:1 1380:1 1381:1 1382:1 1383:1 1384:1 1385:1 1386:1 1387:1 1388:1 1389:1 1390:1 1391:1 1392:1 1393:1 1394:1 1395:1 1396:1 1397:1 
0.02394466419631006 40:1 41:1 42:1 46:1 47:1 49:1 57:1 60:1 62:2.5 63:4 64:1 78:1 129:1 148:1 149:1 332:1 439:1 449:1 450:1 475:1 614:1 640:1 924:1 925:1 926:1 927:1 1440:1 1441:1 1442:1 1443:1 1445:1 1449:1 1450:1 1465:1 1466:1 1467:1 1468:1 1469:1 1470:1 1471:1 1472:1 1473:1 1474:1 1475:1 1476:1 1477:1 1479:1 1480:1 
0.203341596241554 13:1 15:1 16:1 41:2 42:2 43:1 44:1 46:1 47:1 49:1 62:2 63:3 64:1 78:4 94:1 95:1 110:1 113:1 114:1 208:1 224:1 251:1 252:1 440:1 441:1 484:1 492:1 495:1 528:1 531:1 551:1 552:1 553:1 563:1 634:1 635:1 636:1 649:1 658:1 659:1 716:1 758:1 759:1 852:1 1077:1 1081:1 1082:1 1132:1 1133:1 1134:1 1136:1 1137:1 1215:1 1455:1 1557:1 1562:1 1564:1 1565:1 1566:1 1567:1 
0.001126078183567806 13:1 15:1 16:1 40:4 41:1 42:2 43:1 44:1 47:1 62:3 63:5 64:1 78:6 94:1 95:1 213:2 227:2 242:1 243:1 441:1 485:1 492:1 528:1 529:1 531:1 594:1 634:1 635:1 636:1 649:1 658:1 659:2 852:1 913:1 917:1 1055:1 1111:1 1114:1 1115:1 1140:1 1142:1 1215:1 1455:1 1537:1 1538:1 1539:1 1540:1 1541:1 1542:1 1557:1 1585:1 1586:1 1587:1 1595:1 1596:1 1597:1 1598:1 1599:1 1600:1 
0.0173166852646331 41:1 42:1 45:1 47:1 57:1 60:1 62:2 63:2 64:2 78:1 82:1 94:1 95:1 161:1 242:1 243:1 332:1 420:1 421:1 458:1 542:1 904:1 1234:1 1235:1 1244:1 1246:1 1247:1 1252:1 1253:1 1723:1 1724:1 1727:1 1728:1 1729:1 1730:1 1731:1 1732:1 1733:1 1734:1 1735:1 1736:1 1737:1 1738:1 1739:1 1740:1 1741:1 1742:1 
0.02303553458369706 40:1 42:1 47:1 57:1 60:1 62:2 63:2 64:2 78:1 82:1 94:1 95:1 242:1 243:1 332:1 420:1 421:1 471:1 542:1 787:1 1922:1 1924:1 1926:1 1927:1 1929:1 1930:1 1931:1 1932:1 1933:1 1934:1 1935:1 1936:1 1937:1 1942:1 1943:1 1944:1 1946:1 1947:1 1948:1 1949:1 1950:1 1951:1 1952:1 1953:1 
0.0007057316020976199 40:6 41:1 42:1 46:1 47:1 48:2 49:1 57:1 60:1 62:3 63:4 64:2 94:1 95:1 110:1 113:1 114:1 332:1 362:1 542:1 714:1 716:1 758:1 1603:1 1929:1 1930:1 1931:1 1932:1 1933:1 1934:1 1935:1 1936:1 1937:1 1942:1 1943:1 1944:1 1954:1 1955:1 1956:1 1957:1 1958:1 1959:1 1960:1 1961:1 1962:1 
0.01295568183912469 40:3 41:1 42:1 46:1 47:1 49:1 62:3.5 63:4 64:3 315:1 318:1 319:1 402:1 403:1 614:1 624:1 625:1 627:1 640:1 641:1 767:1 901:1 924:1 925:1 926:1 927:1 969:1 1055:1 1056:1 1057:1 1199:1 1615:1 1618:1 1856:1 1857:1 1866:1 1868:1 1876:1 1877:1 1883:1 2009:1 2010:1 2017:1 2026:1 2037:1 2038:1 2039:1 2040:1 2041:1 2042:1 
0.065647210376474 41:6 46:1 47:1 49:1 62:4 63:7 64:1 78:3 94:1 95:1 212:4 224:1 226:4 227:1 274:1 382:1 407:1 410:1 411:1 495:1 660:1 673:1 987:1 1142:1 1427:2 1687:1 1690:1 1693:1 1694:1 1906:1 2128:1 2178:1 2179:1 2180:1 2181:1 2182:1 2183:1 2184:1 2185:1 2187:1 2188:1 2189:1 2450:1 2463:1 2465:1 2469:1 2470:1 2471:1 2472:1 2473:1 2474:1 2475:1 2476:1 2477:1 2478:1 2479:1 2480:1 2481:1 2482:1 2483:1 2484:1 2485:1 
0.1073598108738824 41:5 46:1 47:1 49:1 62:4 63:7 64:1 78:3 94:1 95:1 212:4 224:1 226:4 274:1 407:1 410:1 411:1 495:1 660:1 673:1 987:1 1142:1 1427:2 1473:1 1687:1 1690:1 1693:1 1694:1 1906:1 2128:1 2178:1 2179:1 2180:1 2181:1 2182:1 2183:1 2184:1 2185:1 2187:1 2188:1 2189:1 2450:1 2463:1 2465:1 2469:1 2471:1 2473:1 2474:1 2475:1 2476:1 2477:1 2478:1 2479:1 2482:1 2484:1 2485:1 2486:1 2487:1 2488:1 
0.97990161372396 8:1 41:4 42:1 47:1 57:1 60:1 62:3.5 63:6 64:1 78:3 94:1 95:1 126:1 127:1 212:3 224:1 226:3 274:1 332:1 407:1 411:1 567:1 568:1 569:1 570:1 660:1 673:1 987:1 1142:1 1427:2 1459:1 1528:1 1906:1 2128:1 2168:1 2169:1 2170:1 2174:1 2175:1 2176:1 2450:1 2463:1 2465:1 2468:1 2471:1 2473:1 2474:1 2475:1 2476:1 2477:1 2482:1 2489:1 2490:1 2491:1 2492:1 2493:1 
0.2625786127345062 8:1 41:4 42:1 46:1 47:1 49:1 57:1 60:1 62:2.5 63:4 64:1 78:2 94:1 95:1 212:2 224:1 226:2 274:1 332:1 407:1 410:1 411:1 567:1 568:1 569:1 570:1 573:1 660:1 673:1 1142:1 1427:2 2082:1 2126:1 2127:1 2128:1 2129:1 2164:1 2165:1 2166:1 2450:1 2463:1 2465:1 2467:1 2471:1 2473:1 2474:1 2475:1 2482:1 2485:1 2494:1 2495:1 2496:1 2497:1 
0.648889958635837 8:1 23:1 25:1 40:1 41:4 46:1 47:1 49:1 62:4 63:7 64:1 78:2 212:2 224:1 226:2 274:1 407:1 410:1 411:1 660:1 987:1 991:1 1142:1 1427:2 1687:1 1690:1 1693:1 1694:1 2128:1 2178:1 2179:1 2180:1 2181:1 2182:1 2183:1 2184:1 2185:1 2187:1 2188:1 2189:1 2450:1 2463:1 2465:1 2469:1 2471:1 2473:1 2474:1 2475:1 2482:1 2485:1 2494:1 2495:1 2496:1 2497:1 
0.07256514762852387 8:1 40:8 41:1 46:1 47:1 48:1 49:1 62:3 63:4 64:2 78:1 82:1 94:1 95:1 98:1 288:1 421:1 425:1 427:1 472:1 975:1 987:1 1246:1 1687:1 1690:1 1693:1 1694:1 2128:1 2178:1 2179:1 2180:1 2181:1 2182:1 2183:1 2184:1 2185:1 2187:1 2188:1 2189:1 2525:1 2527:1 2528:1 2529:1 2532:1 2533:1 2534:1 2535:1 
0.02231301566628432 42:1 47:1 57:1 60:1 62:2 63:2 64:2 78:3 82:1 94:1 95:1 144:1 227:1 242:1 243:1 332:1 420:1 421:1 471:1 529:1 530:1 564:1 565:1 614:1 924:1 925:1 926:1 927:1 940:1 944:1 1140:1 1524:1 1570:1 1817:1 1819:1 1820:1 2480:1 2761:1 2764:1 2765:1 2766:1 2767:1 2768:1 2769:1 2770:1 2771:1 2772:1 2773:1 
0.05934046758281896 40:2 42:1 47:1 57:1 60:1 62:3 63:4 64:2 78:2 94:1 95:1 129:1 144:1 242:1 243:1 332:1 525:1 530:1 564:1 565:1 614:1 924:1 925:1 926:1 927:1 940:1 1176:1 1486:1 1488:1 1523:1 1524:1 1570:1 1817:1 2034:1 2517:1 2764:1 2765:1 2766:1 2767:1 2768:1 2770:1 2771:1 2775:1 2776:1 2777:1 2778:1 
0.01380822153864184 42:1 47:1 62:2 63:2 64:2 78:1 94:1 95:1 122:1 242:1 243:1 315:1 318:1 319:1 346:1 349:1 385:1 634:1 635:1 640:1 763:1 764:1 768:1 769:1 964:1 975:1 1038:1 1055:1 1056:1 1057:1 1620:1 2782:1 2783:1 2784:1 2785:1 2786:1 2791:1 2792:1 2793:1 2794:1 2795:1 2796:1 2797:1 2798:1 2799:1 
0.2937716638767157 15:1 41:1 42:2 43:1 46:1 47:1 49:1 57:1 60:1 62:1.5 63:2 64:1 93:1 94:1 95:1 110:1 113:1 114:1 251:1 266:1 332:1 515:1 551:1 552:1 563:1 564:1 565:1 568:1 570:1 604:1 605:1 635:1 639:1 769:1 773:1 778:1 1610:1 2067:1 2068:1 2504:1 2810:1 2811:1 2812:1 2813:1 2814:1 2818:1 2819:1 2823:1 2824:1 2825:1 
0.07588184343308725 22:1 41:1 42:1 45:1 47:1 57:1 60:1 78:1 94:1 95:1 125:1 224:1 242:1 243:1 321:1 329:1 330:1 332:1 403:1 458:1 482:1 489:1 495:1 542:1 561:1 606:1 609:1 610:1 611:1 612:1 632:1 660:1 699:1 821:1 1030:1 2835:1 2836:1 2837:1 2838:1 2839:1 2840:1 2841:1 2842:1 
0.5489046538937753 41:1 42:1 46:1 47:1 49:1 57:1 60:1 62:1.5 63:2 64:1 94:1 95:1 110:1 113:1 114:1 158:1 332:1 440:1 441:1 498:1 511:1 515:1 551:1 552:1 563:1 564:1 565:1 604:1 605:1 621:1 634:1 635:1 638:1 639:1 768:1 769:1 773:1 778:1 1610:1 1890:1 2067:1 2068:1 3011:1 
0.01148604951562651 40:3 41:1 42:1 47:1 57:1 60:1 62:3.5 63:6 64:1 78:1 91:1 126:1 127:1 174:1 332:1 563:1 564:1 565:1 575:1 577:1 614:1 638:1 639:1 640:1 642:1 648:1 741:1 742:1 840:1 844:1 924:1 925:1 926:1 927:1 928:1 940:1 1206:1 1425:1 1428:1 1435:1 1443:1 1702:1 2594:1 3039:1 3040:1 3041:1 3042:1 3043:1 3044:1 3045:1 
0.03868828222155933 13:1 15:1 16:1 40:2 41:1 42:1 43:1 44:1 46:1 47:1 48:1 49:1 57:1 60:1 61:1 62:2.5 63:3 64:2 94:1 95:1 122:1 128:1 129:1 146:1 148:1 149:1 492:1 563:1 564:1 565:1 614:1 638:1 639:1 668:1 669:1 737:1 738:1 739:1 740:1 850:1 852:1 1079:1 1084:1 1199:1 2070:1 2071:1 2811:1 3048:1 3049:1 3057:1 3058:1 
0.00650042104664396 40:1 41:1 42:1 47:1 57:1 60:1 62:2.5 63:3 64:2 242:1 243:1 332:1 458:1 630:1 634:1 635:1 766:1 768:1 769:1 840:1 844:1 939:1 1064:1 1190:1 1194:1 1197:1 1206:1 1213:1 1214:1 1216:1 1218:1 1436:1 1437:1 1870:1 1871:1 1872:1 1873:1 2881:1 2882:1 3006:1 3009:1 3064:1 3065:1 3066:1 3067:1 
0.02971652278889218 40:3 42:1 46:1 47:1 48:1 49:1 57:1 60:1 62:3 63:3 64:3 94:1 95:1 122:1 128:1 129:1 146:1 148:1 158:1 332:1 498:1 630:1 634:1 635:1 768:1 769:1 858:1 984:1 1190:1 1436:1 1437:1 1971:1 3064:1 3066:1 3136:1 3137:1 3142:1 3143:1 3144:1 3145:1 3146:1 3147:1 3148:1 3149:1 3150:1 
0.09686639042253067 41:3 42:2 46:1 47:1 49:1 62:2 63:3 64:1 78:3 94:1 95:1 107:1 110:1 113:1 114:1 125:1 205:1 224:2 441:1 484:3 495:3 528:1 531:1 551:1 552:1 563:1 568:1 570:1 635:1 636:1 649:1 658:1 659:2 682:1 714:1 716:1 758:1 759:1 769:1 1129:1 1130:1 1131:1 1132:1 1133:1 1134:1 1135:1 1136:1 1137:1 1594:1 1605:1 1606:1 1610:1 2504:1 3128:1 3259:1 3263:1 3264:1 3265:1 3266:1 3267:1 
0.01902846142214419 40:2 41:2 42:1 47:1 48:1 62:2 63:3 64:1 94:1 95:1 110:1 114:1 242:1 243:1 247:1 492:1 568:1 570:1 614:1 636:1 649:1 716:1 717:1 1021:1 1024:1 1025:1 1129:1 1164:1 1325:1 1687:1 2831:1 3297:1 3298:1 3299:1 3300:1 3301:1 3302:1 3303:1 3307:1 3308:1 3309:1 3311:1 3312:1 3313:1 3314:1 3315:1 3316:1 3317:1 3318:1 3319:1 3320:1 
0.01990686300888397 40:4 41:1 42:1 46:1 47:1 49:1 57:1 60:1 62:3 63:4 64:2 94:1 95:1 332:1 567:1 568:1 569:1 570:1 669:1 1081:1 1368:1 1395:1 1396:1 1431:1 1458:1 1556:1 1557:1 3400:1 3401:1 3402:1 3407:1 3408:1 3409:1 3419:1 3420:1 3421:1 3422:1 3423:1 3424:1 3425:1 3426:1 3427:1 3428:1 3429:1 
0.0328409104931305 40:4 41:1 42:2 47:1 48:1 62:5 63:7 64:3 94:1 95:1 110:1 114:1 242:1 243:1 247:1 439:1 441:1 487:1 492:1 507:1 508:1 509:1 515:1 516:1 517:1 543:1 561:1 614:1 634:1 635:1 636:1 649:1 668:1 916:1 917:1 918:1 1013:1 1020:1 1021:1 1022:1 1023:1 1024:1 1025:1 1187:1 1199:1 2749:1 2750:1 2751:1 3515:1 3540:1 
0.03432861949650639 40:2 42:1 46:1 47:1 49:1 62:3 63:4 64:2 78:1 91:1 260:1 291:1 292:1 293:1 294:1 315:1 318:1 319:1 575:1 577:1 591:1 614:1 647:1 676:1 839:1 840:1 841:1 843:1 1055:1 1056:1 1057:1 1402:1 1744:1 2889:1 2890:1 3543:1 3544:1 3545:1 3546:1 3547:1 3548:1 3550:1 3551:1 3552:1 3553:1 3554:1 3555:1 
0.1461669772828867 46:1 47:1 49:1 62:1.5 63:2 64:1 78:1 94:1 95:1 445:1 492:1 614:1 640:1 1274:1 1530:1 1609:1 1614:1 1615:1 1616:1 1618:1 1687:1 1690:1 1693:1 1694:1 3293:1 3298:1 3299:1 3568:1 3569:1 3570:1 3571:1 3572:1 3573:1 3575:1 3576:1 3577:1 3579:1 3580:1 3581:1 3582:1 3583:1 3584:1 3585:1 3586:1 3587:1 
0.04311961424151513 40:2 41:1 44:1 62:3 63:4 64:2 78:2 110:1 114:1 209:1 234:1 242:1 244:1 245:1 247:1 512:1 614:1 649:1 667:1 1538:1 1646:1 1840:1 3639:1 3693:1 3694:1 3695:1 3696:1 3697:1 3698:1 3699:1 3700:1 3701:1 3702:1 3703:1 3704:1 3705:1 3708:1 3709:1 3710:1 3711:1 3712:1 3717:1 3718:1 3719:1 3720:1 3721:1 3723:1 3724:1 3725:1 3726:1 3727:1 3728:1 3729:1 3730:1 3731:1 3732:1 
0.005853228736252088 40:3 41:1 42:1 46:1 47:1 48:1 49:1 57:1 60:1 62:2.5 63:3 64:2 94:1 95:1 122:1 128:1 129:1 146:1 148:1 149:1 260:1 332:1 481:1 483:1 496:1 497:1 498:1 567:1 568:1 569:1 570:1 678:1 858:1 1078:1 1431:1 3783:1 3784:1 3785:1 3794:1 3795:1 3796:1 3813:1 3814:1 3815:1 3816:1 
0.05145468723175481 40:2 41:1 42:1 46:1 47:1 48:1 49:1 57:1 60:1 62:2.5 63:3 64:2 94:1 95:1 122:1 128:1 129:1 146:1 148:1 149:1 158:1 332:1 481:1 483:1 496:1 497:1 498:1 628:1 639:1 1173:1 1432:1 1436:1 1437:1 1506:1 2750:1 2751:1 3048:1 3068:1 3147:1 3602:1 3815:1 3823:1 3824:1 3825:1 3828:1 3830:1 3837:1 3838:1 3839:1 
0.02576201515763259 40:2 41:1 42:1 47:1 48:1 57:1 60:1 62:2.5 63:3 64:2 94:1 95:1 122:1 126:1 127:1 128:1 129:1 130:1 132:1 149:1 332:1 439:1 449:1 450:1 498:1 1067:1 1131:1 1425:1 1428:1 1528:1 1529:1 2750:1 2751:1 2882:1 3048:1 3602:1 3823:1 3832:1 3833:1 3837:1 3868:1 3870:1 3871:1 3872:1 3873:1 
0.01284845164896365 40:1 41:1 42:2 47:1 62:2 63:2 64:2 91:1 126:1 127:1 441:1 471:1 543:1 556:1 563:1 568:1 570:1 573:1 575:1 576:1 577:1 635:1 636:1 649:1 769:1 787:1 839:1 840:1 844:1 1132:1 1133:1 1134:1 1135:1 1136:1 1137:1 1425:1 1428:1 1429:1 1430:1 1433:1 1434:1 1435:1 3223:1 3259:1 3832:1 3833:1 3974:1 3975:1 
0.006565029641906999 40:2 41:1 42:1 47:1 48:1 62:3.5 63:4 64:3 78:1 94:1 95:1 242:1 243:1 321:1 417:1 418:1 492:1 528:1 531:1 568:1 570:1 614:1 636:1 649:1 651:1 654:1 655:1 668:1 669:1 731:1 732:1 733:1 1082:1 1199:1 1368:1 1371:1 1396:1 1687:1 1986:1 3297:1 3298:1 3299:1 3316:1 3985:1 3986:1 3987:1 3994:1 3995:1 3996:1 4008:1 4009:1 4010:1 4011:1 
0.07932840314355012 40:1 41:1 42:1 44:1 46:1 47:1 49:1 62:2 63:3 64:1 107:1 110:1 113:1 114:1 180:1 515:1 1013:1 1015:1 1018:1 1020:1 1021:1 1022:1 1024:1 1686:1 2066:1 2067:1 2213:1 2606:1 3636:1 3946:1 4053:1 4054:1 4055:1 4056:1 4057:1 4058:1 4059:1 4060:1 4061:1 4062:1 4079:1 4080:1 4084:1 4085:1 4099:1 4100:1 4101:1 4102:1 4103:1 4104:1 4105:1 4106:1 4107:1 4108:1 4109:1 
0.0423545386845904 40:3 42:2 46:1 47:1 48:1 49:1 62:3 63:3 64:3 78:1 94:1 95:1 110:1 113:1 125:1 248:1 492:1 563:1 568:1 570:1 583:1 635:1 636:1 638:1 639:1 649:1 650:1 651:1 652:1 654:1 655:1 716:1 758:1 769:1 1471:1 1472:1 1594:1 2185:1 3097:1 3100:1 3259:1 3545:1 3736:1 4159:1 4160:1 4162:1 4163:1 4164:1 4165:1 4166:1 4167:1 4168:1 4169:1 4170:1 
0.09169964233054384 40:2 41:1 42:1 46:1 47:1 49:1 57:1 60:1 62:3.5 63:4 64:3 78:1 107:1 110:1 113:1 114:1 180:1 332:1 515:1 543:1 614:1 634:1 635:1 768:1 769:1 835:1 964:1 1082:1 1378:1 1380:1 1558:1 1775:1 2066:1 2067:1 2213:1 2504:1 2788:1 3946:1 3947:1 3950:1 3951:1 3952:1 4110:1 4111:1 4112:1 4115:1 4176:1 4177:1 4178:1 
0.003018663735739453 7:1 40:1 41:1 45:1 47:1 62:2.5 63:3 64:2 78:1 242:1 243:1 659:1 816:1 832:1 839:1 840:1 844:1 922:1 932:1 937:1 939:1 1131:1 1687:1 1690:1 1693:1 1694:1 2757:1 3905:1 4123:1 4129:1 4135:1 4136:1 4182:1 4183:1 4184:1 4185:1 4186:1 4187:1 4188:1 4189:1 4190:1 4191:1 4192:1 4193:1 4194:1 4195:1 4196:1 4197:1 
0.0313495119354915 40:8 41:1 42:1 44:1 46:1 47:1 48:1 49:1 62:4 63:7 64:1 78:1 94:1 95:1 110:1 113:1 114:1 492:1 515:1 1129:1 1133:1 1136:1 1378:1 1380:1 2066:1 2067:1 2606:1 3625:1 3946:1 4055:1 4057:1 4060:1 4079:1 4107:1 4110:1 4111:1 4112:1 4113:1 4115:1 4179:1 4233:1 4234:1 4235:1 4236:1 4237:1 4238:1 4239:1 4240:1 4241:1 4242:1 4243:1 4244:1 4245:1 4249:1 4250:1 
0.07407760694290801 5:1 19:1 40:1 46:1 47:1 49:1 62:2 63:3 64:1 78:1 94:1 95:1 125:2 346:1 492:1 661:1 1594:1 1687:1 1690:1 1693:1 1694:1 1906:1 2229:1 3771:1 3773:1 4124:1 4125:1 4126:1 4127:1 4149:1 4303:1 4307:1 4308:1 4309:1 4310:1 4311:1 4312:1 4313:1 4314:1 4315:1 4316:1 4317:1 4318:1 4319:1 4320:1 4321:1 4322:1 4323:1 4324:1 4325:1 4326:1 
0.01227905778954265 5:1 19:1 40:1 47:1 62:2 63:3 64:1 94:1 95:1 125:1 242:1 243:1 346:1 349:1 903:1 1687:1 1690:1 1693:1 1694:1 4124:1 4125:1 4126:1 4127:1 4149:1 4301:1 4303:1 4305:1 4306:1 4307:1 4308:1 4309:1 4310:1 4311:1 4312:1 4314:1 4315:1 4316:1 4317:1 4318:1 4319:1 4321:1 4324:1 4327:1 4328:1 
0.07455043953107258 7:1 41:3 42:1 47:1 57:1 60:1 78:4 79:1 80:1 94:1 95:1 125:1 208:1 209:1 224:2 332:1 440:1 441:1 484:2 492:1 495:2 528:1 529:1 530:1 531:1 552:1 563:1 564:1 565:1 567:1 568:1 569:1 570:1 668:1 673:1 1427:1 1686:1 2928:1 4362:1 4363:1 4364:1 4365:1 4366:1 4367:1 4368:1 4369:1 4370:1 4371:1 4372:1 4373:1 4374:1 4375:1 
-0.04898878741281015 1:1 2:1 3:1 4:1 11:1 12:1 13:1 14:1 15:1 16:1 17:1 18:1 19:1 20:1 21:1 22:1 40:1 41:1 42:1 43:1 44:1 46:1 47:1 49:1 56:1 57:1 58:1 59:1 60:1 61:1 62:1.5 63:2 64:1 81:1 82:1 86:1 88:1 89:1 90:1 91:1 92:1 93:1 94:1 95:1 96:1 97:1 98:1 99:1 
-0.01904291334904077 1:1 2:1 3:1 4:1 8:1 11:1 12:1 13:1 14:1 15:1 16:1 40:3 41:1 42:1 43:1 44:1 46:1 47:1 49:1 56:1 57:1 58:1 59:1 60:1 61:1 62:1.5 63:2 64:1 76:1 94:1 95:1 109:1 110:1 111:1 113:1 114:1 251:1 256:1 257:1 258:1 259:1 260:1 261:1 262:1 263:1 264:1 265:1 266:1 267:1 268:1 269:1 270:1 
-0.01249159173777845 42:1 46:1 47:1 49:1 78:1 94:1 95:1 291:1 292:1 293:1 294:1 295:1 296:1 297:1 298:1 299:1 300:1 314:1 315:1 316:1 317:1 318:1 319:1 369:1 370:1 371:1 372:1 373:1 374:1 375:1 376:1 377:1 378:1 
-0.005930828740813703 41:1 42:1 46:1 47:1 49:1 57:1 60:1 62:1.5 63:2 64:1 78:1 94:1 95:1 276:1 291:1 292:1 293:1 294:1 295:1 296:1 297:1 298:1 321:1 322:1 327:1 328:1 329:1 330:1 331:1 332:1 369:1 370:1 372:1 373:1 374:1 375:1 402:1 403:1 404:1 405:1 406:1 407:1 408:1 409:1 410:1 411:1 413:1 
-0.03018206965821561 19:1 41:3 42:1 46:1 47:1 49:1 57:1 60:1 78:2 94:1 95:1 125:1 205:1 208:1 213:1 224:2 227:1 332:1 339:1 433:1 434:1 435:1 436:1 437:1 438:1 439:1 440:1 441:1 449:1 450:1 451:1 480:1 481:1 482:1 483:1 484:2 485:1 486:1 487:1 488:1 489:1 490:1 491:1 492:1 493:1 494:1 495:2 
-0.02131361858610443 13:1 16:1 41:2 42:1 44:1 46:1 47:1 49:1 57:1 60:1 78:2 91:1 94:1 95:1 205:1 224:1 252:1 332:1 441:1 471:1 484:1 495:1 528:1 531:1 542:1 543:1 550:1 551:1 552:1 553:1 554:1 555:1 556:1 557:1 558:1 559:1 560:1 561:1 562:1 563:1 564:1 565:1 566:1 
-0.01189686658714624 41:2 42:1 46:1 47:1 49:1 57:1 60:1 62:1.5 63:2 64:1 78:1 94:1 95:1 109:1 110:1 111:1 113:1 114:1 205:1 224:1 332:1 441:1 484:1 492:1 495:1 543:1 553:1 567:1 568:1 569:1 570:1 571:1 572:1 573:1 574:1 578:1 579:1 580:1 586:1 587:1 588:1 589:1 590:1 591:1 592:1 593:1 594:1 595:1 596:1 598:1 
-0.003010725762230834 40:1 41:1 42:1 46:1 47:1 49:1 57:1 60:1 94:1 95:1 321:1 329:1 330:1 332:1 402:1 403:1 471:1 498:1 542:1 607:1 609:1 610:1 611:1 612:1 624:1 625:1 626:1 627:1 630:1 632:1 727:1 728:1 729:1 730:1 
-0.0005266482580373411 40:1 41:1 42:1 46:1 47:1 49:1 57:1 60:1 94:1 95:1 158:1 321:1 329:1 330:1 332:1 402:1 403:1 471:1 498:1 542:1 572:1 609:1 610:1 611:1 612:1 624:1 625:1 626:1 627:1 628:1 629:1 630:1 631:1 632:1 
-0.006465041123212279 40:1 41:1 42:1 46:1 47:1 49:1 57:1 60:1 62:1.5 63:2 64:1 94:1 95:1 109:1 110:1 111:1 113:1 114:1 120:1 332:1 492:1 551:1 552:1 564:1 565:1 572:1 573:1 594:1 604:1 605:1 614:1 634:1 635:1 687:1 768:1 769:1 770:1 771:1 772:1 773:1 774:1 775:1 776:1 777:1 778:1 
-0.01674206008879153 40:2 41:1 42:1 46:1 47:1 49:1 57:1 60:1 62:2 63:3 64:1 78:1 94:1 95:1 107:1 110:1 113:1 114:1 332:1 634:1 635:1 714:1 716:1 755:1 758:1 768:1 769:1 822:1 823:1 824:1 825:1 826:1 827:1 845:1 846:1 847:1 879:1 880:1 881:1 882:1 883:1 884:1 885:1 886:1 887:1 888:1 
-0.01176072377858007 41:2 42:1 46:1 47:1 49:1 57:1 60:1 62:1.5 63:2 64:1 78:3 94:1 95:1 109:1 110:1 111:1 113:1 114:1 205:1 215:1 224:1 332:1 439:1 441:1 449:1 450:1 481:1 483:1 484:1 485:1 492:1 495:1 528:1 531:1 543:1 553:1 554:1 567:1 568:1 569:1 570:1 573:1 592:1 593:1 906:1 907:1 910:1 911:1 912:1 913:1 914:1 915:1 
-0.0242259635615514 40:1 41:2 42:1 46:1 47:1 49:1 57:1 60:1 78:2 94:1 95:1 205:1 224:1 332:1 433:1 434:1 435:1 436:1 449:1 450:1 451:1 471:1 481:1 483:1 484:1 492:1 495:1 528:1 531:1 542:1 730:1 918:1 946:1 947:1 948:1 949:1 950:1 951:1 952:1 953:1 954:1 955:1 
-0.03713068815205259 25:1 40:8 41:1 42:1 46:1 47:1 48:1 49:1 62:3 63:4 64:2 78:3 125:1 205:1 224:1 251:1 266:1 291:1 292:1 293:1 294:1 315:1 318:1 319:1 484:1 485:1 495:1 530:1 551:1 552:1 643:1 692:1 899:1 900:1 903:1 908:1 909:1 979:1 980:1 981:1 982:1 983:1 984:1 985:1 986:1 987:1 988:1 989:1 990:1 991:1 992:1 993:1 994:1 995:1 996:1 997:1 998:1 999:1 1000:1 1001:1 1002:1 1003:1 1004:1 1005:1 1006:1 1007:1 1008:1 1009:1 1010:1 1011:1 
-0.07826876318697266 25:1 40:13 41:1 42:1 46:1 47:1 48:1 49:1 62:5 63:8 64:2 78:3 125:1 180:1 205:1 224:1 251:1 266:1 323:1 484:1 485:1 495:1 530:1 551:1 552:1 561:1 634:1 635:1 643:2 692:1 768:1 769:1 899:1 900:1 903:1 908:1 909:1 979:1 980:1 981:1 982:1 983:1 984:1 988:1 989:1 992:1 993:1 994:1 995:1 996:1 999:1 1000:1 1001:1 1002:1 1003:1 1004:1 1005:1 1006:1 1007:1 1012:1 1013:1 1014:1 1015:1 1016:1 1017:1 1018:1 1019:1 1020:1 1021:1 1022:1 1023:1 1024:1 1025:1 1026:1 
-0.03640779821087113 13:1 15:1 16:1 41:1 42:2 43:1 44:1 46:1 47:1 49:1 62:2 63:3 64:1 78:4 94:1 95:1 110:1 113:1 125:1 208:1 209:1 224:1 248:1 251:1 252:1 415:1 440:1 441:1 484:1 492:1 495:1 528:1 529:1 531:1 568:1 570:1 635:1 636:1 649:1 659:1 716:1 755:1 758:1 1048:1 1050:1 1055:1 1074:1 1095:1 1117:1 1127:1 1128:1 1129:1 1130:1 1131:1 1132:1 1133:1 1134:1 1135:1 1136:1 1137:1 1138:1 
-0.01935757907466785 41:2 42:1 46:1 47:1 49:1 57:1 60:1 62:1.5 63:2 64:1 78:1 94:1 95:1 109:1 110:1 111:1 113:1 114:1 158:1 332:1 498:1 567:1 568:1 569:1 570:1 573:1 592:1 593:1 595:1 1232:1 1233:1 1234:1 1235:1 1236:1 1239:1 1240:1 1241:1 1243:1 1244:1 1245:1 1246:1 1247:1 1248:1 1249:1 1250:1 1251:1 
-0.01488701439421962 41:2 42:1 46:1 47:1 49:1 57:1 60:1 62:1.5 63:2 64:1 78:1 82:1 86:1 94:1 95:1 98:1 144:1 332:1 458:1 542:1 553:1 614:1 809:1 1310:1 1311:1 1312:1 1313:1 1314:1 1315:1 1316:1 1317:1 1318:1 1319:1 1320:1 1321:1 1322:1 1323:1 1324:1 1325:1 1326:1 1327:1 1328:1 1329:1 1330:1 1331:1 1332:1 1333:1 
-0.01975575450586848 41:2 42:1 46:1 47:1 49:1 57:1 60:1 62:1.5 63:2 64:1 94:1 95:1 129:1 148:1 149:1 291:1 292:1 293:1 294:1 332:1 375:1 415:1 416:1 492:1 687:1 1199:1 1346:1 1347:1 1348:1 1349:1 1350:1 1366:1 1373:1 1374:1 1375:1 1410:1 1411:1 1412:1 1413:1 1414:1 1415:1 1416:1 1417:1 1418:1 1419:1 1420:1 1421:1 1422:1 
-0.0634934857322671 13:1 15:1 16:1 41:1 42:2 43:1 44:1 46:1 47:1 49:1 62:2 63:3 64:1 94:1 95:1 110:1 113:1 114:1 158:1 251:1 252:1 440:1 441:1 498:1 551:1 552:1 563:1 604:1 605:1 634:1 635:1 636:1 649:1 716:1 758:1 759:1 852:1 984:1 1077:1 1081:1 1082:1 1132:1 1133:1 1134:1 1136:1 1137:1 1215:1 1557:1 1562:1 1567:1 
-0.02065310189587384 13:1 15:1 16:1 41:1 42:2 43:1 44:1 46:1 47:1 49:1 62:2 63:3 64:1 78:7 94:1 95:1 110:1 113:1 125:1 209:1 213:2 227:2 248:1 251:1 252:1 441:1 445:1 484:1 485:1 492:1 495:1 528:1 529:1 531:1 594:1 634:1 635:1 636:1 649:1 658:1 659:2 716:1 758:1 852:1 913:1 1048:1 1050:1 1055:1 1077:1 1117:1 1215:1 1224:1 1455:1 1537:1 1538:1 1539:1 1540:1 1541:1 1542:1 1557:1 1585:1 1586:1 1587:1 1592:1 1593:1 1594:1 
-0.01488196863234503 42:1 46:1 47:1 49:1 62:1.5 63:2 64:1 78:1 94:1 95:1 125:3 205:1 224:2 315:1 318:1 319:1 415:1 441:1 445:1 484:1 492:1 495:2 554:1 634:1 635:1 682:1 768:1 769:1 899:1 900:1 1048:1 1050:1 1055:1 1056:1 1057:1 1530:1 1604:1 1605:1 1606:1 1607:1 1608:1 1609:1 1610:1 1611:1 1612:1 1613:1 1614:1 1615:1 1616:1 1617:1 1618:1 1619:1 1620:1 1621:1 
-0.006647399159924602 41:1 42:1 46:1 47:1 49:1 57:1 60:1 62:1.5 63:2 64:1 94:1 95:1 332:1 441:1 498:1 551:1 552:1 563:1 564:1 565:1 604:1 605:1 634:1 635:1 678:1 682:1 768:1 769:1 773:1 839:1 840:1 841:1 843:1 844:1 1078:1 1083:1 1129:1 1130:1 1131:1 1610:1 1743:1 1744:1 1745:1 
-0.007191709013789485 41:1 42:1 46:1 47:1 49:1 57:1 60:1 62:1.5 63:2 64:1 94:1 95:1 128:1 129:1 146:1 148:1 149:1 332:1 441:1 498:1 543:1 551:1 552:1 562:1 563:1 564:1 565:1 604:1 605:1 607:1 913:1 1013:1 1087:1 1602:1 1788:1 1789:1 1790:1 1791:1 1792:1 1802:1 1824:1 1825:1 1827:1 
-0.06908329041487896 13:1 15:1 16:1 41:2 42:2 43:1 44:1 46:1 47:1 49:1 62:3 63:3 64:3 78:2 94:1 95:1 110:1 113:1 114:1 158:1 251:1 252:1 441:1 484:1 495:1 498:1 528:1 531:1 551:1 552:1 563:1 595:1 634:1 635:1 636:1 638:1 639:1 649:1 650:1 651:1 652:1 653:1 654:1 655:1 658:1 659:1 716:1 758:1 759:1 852:1 1077:1 1215:1 1587:1 1593:1 1594:1 1833:1 1834:1 1835:1 
-0.02002448852350803 40:1 41:1 42:1 46:1 47:1 49:1 57:1 60:1 62:1.5 63:2 64:1 94:1 95:1 321:1 329:1 330:1 332:1 402:1 403:1 471:1 498:1 536:1 537:1 538:1 539:1 542:1 595:1 624:1 625:1 627:1 630:1 683:1 1067:1 1111:1 1115:1 1597:1 1784:1 1845:1 1855:1 1890:1 1891:1 1892:1 1893:1 1894:1 
-0.03596741878871655 40:1 41:1 42:1 47:1 57:1 60:1 62:1.5 63:2 64:1 78:1 79:1 80:1 94:1 95:1 332:1 471:1 542:1 840:1 844:1 984:1 1904:1 1921:1 1922:1 1923:1 1924:1 1925:1 1926:1 1927:1 1928:1 1929:1 1930:1 1931:1 1932:1 1933:1 1934:1 1935:1 1936:1 1937:1 1938:1 1939:1 1940:1 1941:1 1942:1 1943:1 1944:1 1945:1 
-0.01956641898714661 13:1 16:1 41:1 42:1 44:1 46:1 47:1 49:1 57:1 60:1 61:1 94:1 95:1 252:1 551:1 552:1 563:1 564:1 565:1 604:1 605:1 787:1 850:1 852:1 1084:1 1497:1 1570:1 2050:1 2051:1 2052:1 2053:1 2054:1 2055:1 2056:1 2057:1 
-0.006326966649278897 41:1 42:1 46:1 47:1 49:1 57:1 60:1 91:1 94:1 95:1 329:1 330:1 332:1 402:1 403:1 458:1 542:1 606:1 609:1 610:1 611:1 612:1 624:1 625:1 632:1 681:1 1918:1 2080:1 2081:1 2082:1 2083:1 2084:1 2085:1 
-1.006310702810213 8:1 41:4 47:1 62:4 63:7 64:1 78:3 94:1 95:1 126:1 127:1 212:3 224:1 226:3 274:1 407:1 411:1 660:1 673:1 987:1 1142:1 1427:2 1459:1 1687:1 1690:1 1693:1 1694:1 1906:1 2128:1 2178:1 2179:1 2180:1 2181:1 2182:1 2183:1 2184:1 2185:1 2187:1 2188:1 2189:1 2450:1 2463:1 2465:1 2469:1 2471:1 2473:1 2474:1 2475:1 2476:1 2477:1 2482:1 2489:1 2490:1 2491:1 2492:1 2493:1 
-0.9976939773749318 8:1 41:4 42:1 46:1 47:1 49:1 57:1 60:1 62:3.5 63:6 64:1 78:2 94:1 95:1 212:2 224:1 226:2 274:1 332:1 407:1 410:1 411:1 567:1 568:1 569:1 570:1 660:1 673:1 987:1 1142:1 1427:2 1528:1 2128:1 2168:1 2169:1 2170:1 2174:1 2175:1 2176:1 2450:1 2463:1 2465:1 2468:1 2471:1 2473:1 2474:1 2475:1 2482:1 2485:1 2494:1 2495:1 2496:1 2497:1 
-0.09604583567346797 8:1 41:2 42:1 46:1 47:1 49:1 57:1 60:1 62:2.5 63:4 64:1 78:1 94:1 95:1 224:1 274:1 332:1 407:1 410:1 411:1 567:1 568:1 569:1 570:1 573:1 660:1 673:1 1142:1 1427:1 2082:1 2126:1 2127:1 2128:1 2129:1 2164:1 2165:1 2166:1 2285:1 2450:1 2463:1 2465:1 2467:1 2471:1 2473:1 2482:1 2485:1 2498:1 2499:1 2500:1 
-0.007173419698437388 41:1 42:1 47:1 57:1 60:1 62:1.5 63:2 64:1 94:1 95:1 126:1 127:1 291:1 292:1 293:1 294:1 332:1 346:1 350:1 375:1 492:1 614:1 640:1 987:1 1199:1 1233:1 1249:1 1417:1 2319:1 2552:1 2553:1 2554:1 2576:1 2577:1 2578:1 2658:1 2729:1 2733:1 2734:1 2735:1 2736:1 2737:1 2738:1 2739:1 2740:1 2741:1 2742:1 
-0.05950849014184616 7:1 40:1 41:1 42:2 45:1 46:1 47:1 49:1 62:2 63:2 64:2 78:1 634:1 635:1 636:1 649:1 766:1 787:1 816:1 832:1 839:1 840:1 841:1 843:1 844:1 922:1 932:1 1131:1 1132:1 1133:1 1134:1 1136:1 1137:1 1562:1 2743:1 2744:1 2745:1 2746:1 2747:1 2748:1 2749:1 2750:1 2751:1 2752:1 2753:1 2754:1 2755:1 2756:1 2757:1 2758:1 2759:1 
-0.07086715224472646 40:2 41:1 42:1 46:1 47:1 49:1 57:1 60:1 62:3 63:4 64:2 78:2 94:1 95:1 129:1 148:1 332:1 492:1 530:1 552:1 564:1 565:1 605:1 614:1 924:1 925:1 926:1 927:1 940:1 1176:1 1486:1 1488:1 1523:1 1524:1 1570:1 2034:1 2297:1 2762:1 2763:1 2764:1 2765:1 2766:1 2767:1 2768:1 2774:1 2775:1 2776:1 2777:1 
-0.0006179732997031994 42:1 46:1 47:1 49:1 62:1.5 63:2 64:1 94:1 95:1 125:1 128:1 129:1 133:1 140:1 146:1 148:1 315:1 318:1 319:1 492:1 595:1 634:1 635:1 640:1 768:1 769:1 964:1 1047:1 1048:1 1049:1 1050:1 1055:1 1056:1 1057:1 1610:1 1620:1 2781:1 2782:1 2783:1 2784:1 2785:1 2786:1 2800:1 2801:1 2802:1 
-0.2041588192870802 15:1 41:2 42:2 43:1 46:1 47:1 49:1 57:1 60:1 62:1.5 63:2 64:1 78:1 94:1 95:1 107:1 110:1 113:1 114:1 251:1 266:1 332:1 515:1 551:1 552:1 563:1 564:1 565:1 568:1 570:1 635:1 639:1 769:1 773:1 778:1 821:1 1255:1 1455:1 1610:1 1872:1 1873:1 2067:1 2068:1 2504:1 2810:1 2811:1 2812:1 2813:1 2814:1 2818:1 2819:1 2822:1 2823:1 
-0.04066888525114108 22:1 40:1 41:1 42:1 45:1 46:1 47:1 49:1 57:1 60:1 91:1 94:1 95:1 321:1 329:1 330:1 332:1 402:1 403:1 471:1 514:1 542:1 561:1 609:1 610:1 611:1 612:1 624:1 625:1 626:1 632:1 1030:1 2841:1 2842:1 2843:1 2844:1 
-0.02810684745801529 41:2 42:1 46:1 47:1 49:1 57:1 60:1 78:2 94:1 95:1 125:1 158:1 205:1 224:1 225:1 332:1 440:1 441:1 458:1 498:1 552:1 563:1 564:1 565:1 605:1 621:1 634:1 635:1 638:1 639:1 662:1 663:1 673:1 768:1 769:1 773:1 1213:1 1871:1 1873:1 1890:1 1971:1 2931:1 2932:1 3004:1 3005:1 3006:1 
-0.0518764775189943 41:1 42:1 46:1 47:1 49:1 57:1 60:1 62:1.5 63:2 64:1 94:1 95:1 110:1 113:1 114:1 332:1 492:1 511:1 515:1 551:1 552:1 563:1 564:1 565:1 594:1 604:1 605:1 614:1 638:1 639:1 640:1 776:1 924:1 925:1 926:1 927:1 928:1 940:1 944:1 945:1 1443:1 2067:1 2068:1 3011:1 
-0.411816856225931 41:1 42:1 46:1 47:1 49:1 57:1 60:1 62:1.5 63:2 64:1 94:1 95:1 110:1 113:1 114:1 158:1 332:1 440:1 441:1 498:1 499:1 511:1 515:1 551:1 552:1 563:1 564:1 565:1 604:1 605:1 614:1 634:1 635:1 638:1 639:1 768:1 769:1 773:1 778:1 1610:1 2067:1 2068:1 2811:1 3011:1 
-0.004491562799232026 40:1 41:1 42:1 46:1 47:1 49:1 57:1 60:1 62:1.5 63:2 64:1 78:1 91:1 94:1 95:1 332:1 627:1 630:1 634:1 635:1 768:1 769:1 774:1 840:1 843:1 844:1 1190:1 1206:1 1207:1 1425:1 1428:1 1436:1 1437:1 1775:1 2881:1 2882:1 2888:1 2889:1 2890:1 3044:1 3064:1 3065:1 3066:1 3077:1 3078:1 3079:1 
-0.07422704107287359 15:2 41:1 42:2 43:2 46:1 47:1 49:1 57:1 60:1 62:1.5 63:2 64:1 94:1 95:1 110:1 113:1 114:1 251:1 332:1 441:1 498:1 515:1 551:1 552:1 563:1 564:1 565:1 568:1 570:1 604:1 605:1 635:1 636:1 639:1 649:1 678:1 682:1 743:1 769:1 773:1 778:1 1610:1 1966:1 2067:1 2068:1 3023:1 3068:1 3072:1 
-0.02822109268131792 41:1 42:1 46:1 47:1 49:1 57:1 60:1 62:1.5 63:2 64:1 94:1 95:1 128:1 129:1 140:1 146:1 148:1 149:1 332:1 551:1 552:1 563:1 564:1 565:1 567:1 568:1 569:1 570:1 593:1 604:1 605:1 614:1 817:1 964:1 1082:1 1199:1 1760:1 1780:1 1825:1 2851:1 2928:1 3025:1 3101:1 3122:1 3124:1 
-0.02821646298912419 41:1 42:1 47:1 57:1 60:1 62:1.5 63:2 64:1 78:1 94:1 95:1 107:1 126:1 127:1 332:1 630:1 634:1 635:1 741:1 768:1 769:1 840:1 844:1 858:1 1190:1 1206:1 1425:1 1428:1 1435:1 1436:1 1437:1 1610:1 2586:1 2594:1 3039:1 3040:1 3041:1 3044:1 3064:1 3066:1 3079:1 3136:1 3137:1 3140:1 3141:1 
-0.005330354492593031 40:1 41:2 42:2 46:1 47:1 49:1 62:2 63:3 64:1 78:1 94:1 95:1 107:1 110:1 113:1 114:1 224:1 293:1 294:1 484:1 495:1 627:1 630:1 633:1 634:1 635:1 636:1 649:1 716:1 758:1 1130:1 1131:1 1132:1 1133:1 1134:1 1136:1 1137:1 1454:1 1456:1 1562:1 1966:1 2895:1 3155:1 3156:1 3157:1 3158:1 3159:1 3160:1 3161:1 3162:1 3163:1 3164:1 3165:1 3166:1 
-0.009847049432716505 5:1 41:1 42:1 46:1 47:1 49:1 57:1 60:1 94:1 95:1 332:1 437:1 634:1 635:1 768:1 769:1 1191:1 1204:1 1610:1 1783:1 1984:1 1987:1 3156:1 3157:1 3230:1 3231:1 3232:1 3238:1 3239:1 3240:1 3242:1 3243:1 3244:1 
-0.05029440013785454 40:1 41:2 42:2 46:1 47:1 49:1 62:2.5 63:3 64:2 78:3 94:1 95:1 110:1 113:1 114:1 208:1 224:1 484:1 492:1 495:1 528:1 530:1 531:1 551:1 552:1 553:1 568:1 570:1 631:1 635:1 636:1 649:1 668:1 669:1 716:1 758:1 759:1 769:1 771:1 772:1 774:1 775:1 1080:1 1081:1 1082:1 1132:1 1133:1 1134:1 1135:1 1136:1 1137:1 1524:1 1966:1 3258:1 3259:1 3260:1 
-0.0003963994046981815 42:1 46:1 47:1 49:1 62:2.5 63:4 64:1 78:1 82:1 94:1 95:1 98:1 421:1 568:1 570:1 614:1 636:1 649:1 714:1 1021:1 1024:1 1025:1 1129:1 1325:1 1687:1 2504:1 3211:1 3290:1 3291:1 3292:1 3293:1 3294:1 3295:1 3296:1 3297:1 3298:1 3299:1 3300:1 3301:1 3302:1 3303:1 3304:1 3305:1 3306:1 3307:1 3308:1 3309:1 3310:1 
-0.01089848979556123 41:1 42:1 47:1 57:1 60:1 62:1.5 63:2 64:1 78:1 94:1 95:1 126:1 127:1 332:1 567:1 568:1 569:1 570:1 673:1 839:1 840:1 844:1 870:1 1081:1 1427:1 1431:1 1433:1 1435:1 1513:1 1515:1 1557:1 1744:1 3400:1 3401:1 3402:1 3407:1 3408:1 3409:1 3411:1 3412:1 3413:1 3414:1 3415:1 3416:1 3417:1 3418:1 
-0.107885550170193 40:1 45:1 47:1 62:2.5 63:3 64:2 78:1 125:1 242:1 243:1 458:1 614:1 640:1 1530:1 1532:1 1534:1 1535:1 1536:1 1614:1 1615:1 1619:1 1687:1 1690:1 1693:1 1694:1 2029:1 2959:1 2963:1 2967:1 3298:1 3299:1 3559:1 3560:1 3561:1 3562:1 3563:1 3564:1 3565:1 3566:1 3567:1 3568:1 3569:1 3570:1 3571:1 3572:1 3573:1 3574:1 3575:1 3576:1 3577:1 3578:1 
-0.01787357844565969 40:4 41:1 42:1 44:1 46:1 62:2 63:3 64:1 94:1 95:1 110:1 113:1 114:1 244:1 492:1 521:1 594:1 670:1 964:1 989:1 1001:1 1133:1 1646:1 1663:1 2751:1 3601:1 3602:1 3603:1 3604:1 3605:1 3606:1 3607:1 3608:1 3619:1 3621:1 3622:1 3623:1 3624:1 3625:1 3676:1 3677:1 3678:1 3679:1 3680:1 3681:1 3682:1 3683:1 3684:1 3685:1 3686:1 
-0.07292453400937796 40:7 44:1 45:1 46:1 48:1 62:2 63:2 64:2 78:1 125:1 158:1 167:1 169:1 177:1 458:1 498:1 614:1 643:1 649:1 913:1 1213:1 1538:1 1615:1 1618:1 1619:1 1646:1 1663:1 3687:1 3688:1 3689:1 3690:1 3691:1 3692:1 3693:1 3694:1 3695:1 3696:1 3697:1 3698:1 3699:1 3700:1 3701:1 3702:1 3703:1 3704:1 3705:1 3706:1 3707:1 3708:1 3709:1 3710:1 3711:1 3712:1 3713:1 3714:1 3715:1 3716:1 3717:1 3718:1 3719:1 3720:1 3721:1 3722:1 
-0.01859803757337892 40:2 41:1 42:1 46:1 47:1 49:1 62:1.5 63:2 64:1 94:1 95:1 125:2 205:1 208:1 224:2 315:1 318:1 319:1 484:1 495:2 542:1 1607:1 3733:1 3734:1 3735:1 3736:1 3737:1 3738:1 3739:1 3740:1 3741:1 3742:1 3743:1 3744:1 3745:1 3746:1 3747:1 3748:1 3749:1 3750:1 3751:1 3752:1 3753:1 3754:1 3755:1 3756:1 3757:1 3758:1 3759:1 3760:1 3761:1 3762:1 3763:1 
-0.04580095792153958 41:1 42:1 47:1 57:1 60:1 62:1.5 63:2 64:1 94:1 95:1 107:1 110:1 114:1 126:1 127:1 332:1 511:1 515:1 639:1 876:1 1425:1 1428:1 1432:1 1436:1 1437:1 1506:1 2064:1 2721:1 2750:1 2751:1 3048:1 3068:1 3141:1 3535:1 3602:1 3638:1 3810:1 3823:1 3824:1 3825:1 3828:1 3830:1 3832:1 3833:1 3834:1 3835:1 3836:1 
-0.003147192362413072 41:1 42:1 46:1 47:1 49:1 57:1 60:1 62:1.5 63:2 64:1 78:1 94:1 95:1 332:1 449:1 450:1 483:1 497:1 498:1 628:1 634:1 635:1 768:1 769:1 839:1 840:1 841:1 843:1 844:1 955:1 1067:1 1129:1 1130:1 1131:1 1610:1 1743:1 1744:1 1750:1 1784:1 2823:1 2889:1 2890:1 3513:1 3514:1 3784:1 3850:1 3851:1 3852:1 3853:1 
-0.005262404457450808 41:2 42:1 46:1 47:1 49:1 57:1 60:1 78:2 94:1 95:1 205:1 209:1 224:1 332:1 439:1 441:1 449:1 450:1 471:1 481:1 483:1 484:1 492:1 495:1 528:1 531:1 543:1 554:1 594:1 595:1 634:1 635:1 768:1 769:1 1570:1 1610:1 3513:1 3887:1 3888:1 3889:1 3890:1 
-0.002568108708135252 41:1 42:2 46:1 47:1 49:1 62:2 63:3 64:1 94:1 95:1 110:1 113:1 114:1 441:1 498:1 551:1 552:1 563:1 568:1 570:1 604:1 605:1 635:1 636:1 649:1 678:1 682:1 714:1 716:1 758:1 759:1 769:1 1042:1 1078:1 1129:1 1130:1 1131:1 1132:1 1133:1 1134:1 1135:1 1136:1 1137:1 1610:1 2504:1 2818:1 2823:1 2975:1 3259:1 3267:1 
-0.005691536139287266 41:1 42:1 46:1 47:1 49:1 62:1.5 63:2 64:1 78:3 94:1 95:1 107:1 125:1 208:1 224:1 315:1 318:1 319:1 458:1 484:1 495:1 500:1 501:1 502:1 504:1 535:1 542:1 631:1 1229:1 1237:1 1238:1 1454:1 1455:1 1456:1 1686:1 2889:1 2890:1 2895:1 3784:1 3923:1 3924:1 3925:1 3926:1 3927:1 3928:1 3929:1 3930:1 3931:1 3932:1 3933:1 3934:1 3935:1 3936:1 3937:1 3938:1 
-0.01199474260828894 40:2 41:1 42:1 46:1 47:1 49:1 57:1 60:1 62:2.5 63:3 64:2 94:1 95:1 110:1 113:1 114:1 332:1 498:1 515:1 543:1 634:1 635:1 755:1 768:1 769:1 1080:1 1081:1 1082:1 1204:1 2066:1 2067:1 2891:1 3156:1 3157:1 3242:1 3243:1 3946:1 3947:1 3948:1 3949:1 3950:1 3951:1 3952:1 3953:1 
-0.06600065602332555 41:2 42:2 46:1 47:1 49:1 62:2 63:3 64:1 78:3 94:1 95:1 110:1 113:1 114:1 205:1 224:1 441:1 484:1 492:1 495:1 528:1 529:1 531:1 543:1 551:1 552:1 553:1 563:1 568:1 570:1 573:1 635:1 636:1 649:1 659:1 714:1 716:1 758:1 759:1 769:1 1132:1 1133:1 1134:1 1135:1 1136:1 1137:1 1610:1 2504:1 3223:1 3259:1 3267:1 3974:1 3976:1 3977:1 3978:1 
-0.004671684839962369 42:1 46:1 47:1 49:1 62:3 63:3 64:3 94:1 95:1 110:1 113:1 321:1 402:1 403:1 568:1 570:1 614:1 636:1 649:1 651:1 654:1 655:1 714:1 716:1 758:1 792:1 975:1 1082:1 1199:1 1687:1 1906:1 1986:1 2504:1 3210:1 3293:1 3297:1 3298:1 3299:1 3985:1 3986:1 3987:1 3994:1 3995:1 3996:1 4001:1 4002:1 4003:1 4004:1 4005:1 4006:1 4007:1 
-0.04748671467736185 40:1 41:1 42:1 44:1 46:1 47:1 49:1 62:2 63:3 64:1 78:1 94:1 95:1 110:1 113:1 114:1 220:1 492:1 515:1 1013:1 1020:1 1021:1 1022:1 1024:1 1378:1 1380:1 2066:1 2067:1 2606:1 3946:1 4053:1 4054:1 4055:1 4056:1 4057:1 4058:1 4059:1 4060:1 4061:1 4062:1 4079:1 4080:1 4084:1 4085:1 4107:1 4110:1 4111:1 4112:1 4113:1 4114:1 4115:1 4116:1 
-0.0252150038426213 41:1 42:2 46:1 47:1 49:1 62:3 63:3 64:3 94:1 95:1 110:1 113:1 114:1 551:1 552:1 563:1 568:1 570:1 604:1 605:1 635:1 636:1 638:1 639:1 649:1 650:1 651:1 652:1 654:1 655:1 714:1 716:1 758:1 759:1 769:1 1458:1 1459:1 1610:1 2185:1 2504:1 3259:1 3545:1 4158:1 4159:1 4160:1 4161:1 
-0.08904509619583696 40:2 41:1 42:1 46:1 47:1 49:1 57:1 60:1 62:2.5 63:3 64:2 78:1 94:1 95:1 107:1 110:1 113:1 114:1 332:1 515:1 543:1 567:1 568:1 569:1 570:1 1082:1 1378:1 1380:1 1775:1 2066:1 2067:1 2504:1 2788:1 3946:1 3947:1 3950:1 3951:1 4110:1 4111:1 4112:1 4115:1 4171:1 4172:1 4173:1 4174:1 4175:1 
-0.05786959673827578 40:2 41:1 42:1 46:1 47:1 49:1 57:1 60:1 62:2.5 63:3 64:2 94:1 95:1 110:1 113:1 114:1 332:1 492:1 515:1 543:1 614:1 634:1 635:1 735:1 755:1 768:1 769:1 964:1 1082:1 1686:1 2066:1 2067:1 3946:1 3947:1 3950:1 3951:1 3952:1 4099:1 4100:1 4101:1 4102:1 4103:1 4108:1 4176:1 4177:1 4179:1 4181:1 
-4.313784286549498e-05 13:1 15:1 16:1 41:3 42:1 43:1 44:1 45:1 46:1 47:1 49:1 57:1 60:1 61:1 62:3 63:3 64:3 78:1 94:1 95:1 110:1 113:1 114:1 212:1 226:1 492:1 552:1 563:1 564:1 565:1 605:1 614:1 634:1 635:1 640:1 663:1 673:1 883:1 917:1 918:1 1084:1 1131:1 1528:1 1529:1 1559:1 1871:1 1873:1 1971:1 2366:1 3097:1 3100:1 4202:1 4203:1 4204:1 4205:1 4206:1 4207:1 4208:1 4209:1 4210:1 4211:1 4212:1 4213:1 
-0.008044497187995795 42:1 46:1 47:1 49:1 62:5.5 63:8 64:3 78:2 94:1 95:1 125:1 128:1 129:1 146:1 148:1 212:1 226:1 315:1 318:1 319:1 492:1 567:1 568:1 569:1 570:1 594:1 614:1 640:1 673:1 763:1 764:1 918:1 1049:1 1050:1 1055:1 1056:1 1057:1 1176:1 1199:1 1427:1 1443:1 1602:1 1605:1 1906:1 2913:1 3248:1 4203:1 4209:1 4215:1 4216:1 4218:1 4219:1 4220:1 4221:1 4222:1 4227:1 4228:1 4229:1 4230:1 
-0.02683388948392549 40:1 41:1 42:1 44:1 46:1 47:1 49:1 62:2 63:3 64:1 94:1 95:1 107:1 110:1 113:1 114:1 515:1 1129:1 1133:1 1136:1 1686:1 1775:1 2066:1 2067:1 2606:1 3625:1 3946:1 4055:1 4057:1 4060:1 4079:1 4099:1 4100:1 4101:1 4102:1 4103:1 4107:1 4108:1 4231:1 4232:1 4233:1 4234:1 4235:1 4236:1 4237:1 4238:1 4239:1 4240:1 4241:1 4242:1 4243:1 4244:1 4245:1 4246:1 
-0.0107406877550206 40:1 41:1 42:1 44:1 46:1 47:1 49:1 62:2 63:3 64:1 78:1 94:1 95:1 110:1 113:1 114:1 492:1 515:1 964:1 1020:1 1021:1 1022:1 1024:1 1082:1 1378:1 1380:1 2066:1 2067:1 2606:1 3946:1 4053:1 4054:1 4055:1 4056:1 4057:1 4060:1 4061:1 4062:1 4079:1 4080:1 4084:1 4085:1 4107:1 4110:1 4111:1 4112:1 4113:1 4115:1 4116:1 4179:1 4247:1 4249:1 
-0.005314105481962766 42:1 46:1 47:1 49:1 62:4 63:4 64:4 78:1 94:1 95:1 110:1 113:1 125:2 212:1 226:1 248:1 315:1 318:1 319:1 441:1 498:1 673:1 678:1 682:1 924:1 925:1 926:1 927:1 1049:1 1050:1 1052:1 1055:1 1056:1 1057:1 1483:1 1528:1 1529:1 1530:1 1602:1 1868:1 1906:1 2201:1 4203:1 4209:1 4215:1 4221:1 4275:1 4279:1 4281:1 4282:1 4287:1 4288:1 4289:1 4290:1 4291:1 4292:1 4293:1 
-0.03701000817073057 19:1 46:1 47:1 49:1 62:2 63:3 64:1 78:1 94:1 95:1 125:1 339:1 346:1 903:1 1687:1 1690:1 1693:1 1694:1 2229:1 4124:1 4125:1 4126:1 4127:1 4142:1 4299:1 4300:1 4301:1 4302:1 4303:1 4304:1 4305:1 4306:1 4307:1 4308:1 4309:1 4310:1 4311:1 4312:1 4313:1 4314:1 4315:1 4316:1 4317:1 4318:1 4319:1 
-0.04702231236442421 7:1 19:1 24:1 39:1 40:1 41:1 42:1 45:1 46:1 47:1 49:1 57:1 60:1 78:1 286:1 332:1 376:1 379:1 614:1 975:1 3702:1 4344:1 4345:1 4346:1 4347:1 4348:1 4349:1 4350:1 4351:1 4352:1 4353:1 4354:1 4355:1 4356:1 4357:1 4358:1 4359:1 4360:1 4361:1 
-0.07832958430695836 41:2 42:1 46:1 47:1 49:1 57:1 60:1 62:1.5 63:2 64:1 78:3 94:1 95:1 110:1 113:1 114:1 208:1 209:1 224:1 332:1 440:1 441:1 484:1 492:1 495:1 528:1 529:1 530:1 531:1 551:1 552:1 563:1 564:1 565:1 567:1 568:1 569:1 570:1 593:1 668:1 917:1 2928:1 3083:1 4371:1 4372:1 4373:1 4374:1 4376:1 4377:1 4378:1 4379:1 4380:1 
