svm_type c_svc
kernel_type linear
nr_class 3
total_sv 1299
rho 1.092182015454807 0.14971201537152515 -0.8560463832723528
label 1 2 3
probA -2.532757628833987 -4.068229686562213 -2.2623864921489374
probB 0.1965194264088604 -0.025161973042344 -0.13047518658784352
nr_sv 283 658 358
SV
7.247275411731491E-4 0.0 1:1.0 2:1.0 3:1.0 4:1.0 5:1.0 6:1.0 7:1.0 8:1.0 9:1.0 10:1.0 11:1.0 12:1.0 13:1.0 14:1.0 15:1.0 16:1.0 17:1.0 18:1.0 19:1.0 20:1.0 21:1.0 22:1.0 23:1.0 24:1.0 25:1.0 26:1.0 27:1.0 28:1.0 29:1.0 30:1.0 31:4.0 32:1.0 33:1.0 34:1.0 35:1.0 36:1.0 37:1.0 38:1.0 39:1.0 40:1.0 41:1.0 42:1.0 43:1.0 44:1.0 
0.0022884439171303715 0.006415098556872693 30:1.0 31:1.0 33:1.0 34:1.0 35:1.0 36:1.0 50:1.0 51:1.0 58:2.0 59:2.0 60:2.0 87:2.0 101:1.0 121:1.0 122:2.0 185:1.0 186:1.0 187:1.0 188:1.0 189:1.0 190:1.0 191:1.0 192:1.0 193:1.0 194:1.0 195:1.0 196:1.0 197:1.0 198:1.0 199:1.0 200:1.0 201:1.0 202:1.0 203:1.0 204:1.0 205:1.0 206:1.0 207:1.0 208:1.0 209:1.0 210:1.0 211:1.0 212:1.0 213:1.0 214:1.0 215:1.0 216:1.0 217:1.0 218:1.0 219:1.0 220:1.0 221:1.0 222:1.0 223:1.0 224:1.0 225:1.0 226:1.0 
0.003929894146611302 0.0 27:1.0 28:1.0 29:1.0 31:1.0 36:1.0 50:1.0 51:1.0 58:1.5 59:2.0 60:1.0 67:1.0 123:1.0 127:1.0 159:1.0 262:1.0 437:1.0 438:1.0 439:1.0 440:1.0 441:1.0 442:1.0 443:1.0 444:1.0 445:1.0 446:1.0 447:1.0 448:1.0 449:1.0 450:1.0 451:1.0 452:1.0 453:1.0 454:1.0 455:1.0 456:1.0 457:1.0 458:1.0 459:1.0 460:1.0 461:1.0 462:1.0 463:1.0 464:1.0 465:1.0 466:1.0 
0.03987409113710406 0.00999801525754226 27:1.0 28:1.0 29:1.0 30:2.0 31:2.0 36:1.0 40:1.0 43:1.0 50:1.0 51:1.0 58:1.0 59:1.0 60:1.0 178:1.0 180:1.0 596:1.0 892:1.0 978:1.0 979:1.0 980:1.0 981:1.0 982:1.0 983:2.0 984:1.0 985:1.0 986:1.0 987:1.0 988:1.0 989:1.0 990:1.0 991:1.0 992:1.0 993:1.0 994:1.0 995:1.0 996:1.0 997:1.0 998:1.0 999:1.0 1000:1.0 1001:1.0 1002:1.0 1003:1.0 1004:1.0 1005:1.0 1006:1.0 1007:1.0 1008:1.0 1009:1.0 1010:1.0 1011:1.0 1012:1.0 1013:1.0 1014:1.0 1015:1.0 
0.05 0.05 27:1.0 28:1.0 30:2.0 31:1.0 53:1.0 58:1.5 59:2.0 60:1.0 124:1.0 135:1.0 142:1.0 147:1.0 149:1.0 171:1.0 176:1.0 177:1.0 178:1.0 416:1.0 782:1.0 832:1.0 833:1.0 854:1.0 855:1.0 859:1.0 939:1.0 1248:1.0 1859:1.0 1860:1.0 1861:1.0 1862:1.0 1863:1.0 1864:1.0 1865:1.0 1866:1.0 1867:1.0 1868:1.0 1869:1.0 1870:1.0 1871:1.0 1872:1.0 1873:1.0 1874:1.0 1875:1.0 1876:1.0 1877:1.0 
0.04680558624186063 0.012679518236818515 27:1.0 28:1.0 30:1.0 33:1.0 36:1.0 53:1.0 58:1.5 59:2.0 60:1.0 371:1.0 417:1.0 517:1.0 599:1.0 615:1.0 618:1.0 619:1.0 666:1.0 873:1.0 1917:1.0 1944:1.0 2169:1.0 2170:1.0 2171:1.0 2172:1.0 2173:1.0 2174:1.0 2175:1.0 2176:1.0 2177:1.0 2178:1.0 2179:1.0 2180:1.0 2181:1.0 2182:1.0 2183:1.0 2184:1.0 2185:1.0 2186:1.0 2187:1.0 2188:1.0 2189:1.0 2190:1.0 2191:1.0 2192:1.0 
0.038128151890564274 0.0 30:1.0 32:1.0 36:1.0 58:3.0 59:4.0 60:2.0 87:7.0 127:1.0 159:1.0 160:1.0 285:1.0 289:1.0 338:1.0 371:1.0 376:1.0 490:1.0 497:1.0 778:1.0 1115:1.0 1118:1.0 1150:1.0 1931:1.0 1932:1.0 1935:1.0 1943:1.0 1944:1.0 1980:1.0 1981:1.0 1982:1.0 1983:1.0 1984:1.0 1985:1.0 1986:1.0 1990:1.0 1991:1.0 1992:1.0 1993:1.0 1994:1.0 1995:1.0 2381:1.0 2382:1.0 2383:1.0 2384:1.0 2385:1.0 2386:1.0 2387:1.0 2388:1.0 2389:1.0 2390:1.0 2391:1.0 2392:1.0 
0.05 0.0 30:1.0 32:1.0 36:1.0 58:4.0 59:4.0 60:4.0 87:9.0 89:1.0 91:1.0 95:1.0 127:1.0 159:1.0 160:1.0 338:1.0 371:1.0 490:1.0 497:1.0 544:1.0 778:1.0 998:1.0 1115:1.0 1118:1.0 1943:1.0 1944:1.0 1955:1.0 1958:1.0 1961:1.0 1962:1.0 1963:1.0 1990:1.0 1991:1.0 1992:1.0 1997:1.0 1998:1.0 1999:1.0 2000:1.0 2001:1.0 2002:1.0 2003:1.0 2004:1.0 2005:1.0 2006:1.0 2381:1.0 2382:1.0 2383:1.0 2384:1.0 2385:1.0 2386:1.0 2387:1.0 2388:1.0 2389:1.0 2390:1.0 2391:1.0 2393:1.0 
0.05 0.0 29:1.0 31:1.0 36:1.0 37:1.0 38:1.0 58:8.0 59:11.0 60:5.0 87:3.0 127:1.0 159:1.0 282:1.0 284:1.0 285:1.0 301:1.0 377:1.0 460:1.0 497:1.0 783:1.0 1115:1.0 1118:1.0 1224:1.0 1942:1.0 2209:1.0 2210:1.0 2211:1.0 2212:1.0 2213:1.0 2214:1.0 2215:1.0 2216:1.0 2217:1.0 2218:1.0 2219:1.0 2220:1.0 2257:1.0 2366:1.0 2444:1.0 2445:1.0 2446:1.0 2447:1.0 2448:1.0 2449:1.0 2450:1.0 2451:1.0 2452:1.0 2453:1.0 
0.02450681191978975 0.0 29:1.0 32:1.0 36:1.0 58:4.5 59:8.0 60:1.0 87:7.0 89:1.0 127:1.0 159:1.0 282:1.0 285:1.0 289:1.0 301:1.0 371:1.0 376:1.0 460:1.0 490:1.0 497:1.0 1115:1.0 1118:1.0 1150:1.0 1931:1.0 1932:1.0 1935:1.0 1942:1.0 1943:1.0 1944:1.0 1993:1.0 1994:1.0 2008:1.0 2009:1.0 2010:1.0 2011:1.0 2012:1.0 2013:1.0 2014:1.0 2017:1.0 2018:1.0 2019:1.0 2257:1.0 2366:1.0 2444:1.0 2445:1.0 2446:1.0 2447:1.0 2448:1.0 2449:1.0 2450:1.0 2451:1.0 2452:1.0 2454:1.0 
0.02909056670629789 0.0 29:1.0 32:1.0 36:1.0 58:5.5 59:8.0 60:3.0 87:9.0 89:2.0 91:1.0 95:1.0 127:1.0 159:1.0 282:1.0 301:1.0 371:1.0 460:1.0 490:1.0 497:1.0 544:1.0 998:1.0 1115:1.0 1118:1.0 1942:1.0 1943:1.0 1944:1.0 1955:1.0 1958:1.0 1961:1.0 1962:1.0 1963:1.0 2001:1.0 2017:1.0 2018:1.0 2030:1.0 2257:1.0 2277:1.0 2278:1.0 2279:1.0 2280:1.0 2281:1.0 2282:1.0 2283:1.0 2284:1.0 2366:1.0 2444:1.0 2445:1.0 2446:1.0 2447:1.0 2448:1.0 2449:1.0 2450:1.0 2451:1.0 2452:1.0 2455:1.0 
0.05 0.005802152079755168 30:1.0 31:1.0 36:1.0 40:1.0 43:1.0 53:1.0 58:4.5 59:5.0 60:4.0 87:12.0 89:1.0 135:1.0 371:1.0 490:4.0 497:1.0 998:1.0 1009:1.0 1115:1.0 1118:1.0 1150:1.0 1931:1.0 1935:1.0 1943:1.0 1944:1.0 2046:1.0 2060:1.0 2061:1.0 2062:1.0 2063:1.0 2064:1.0 2094:1.0 2191:1.0 2216:1.0 2348:1.0 2349:1.0 2350:1.0 2351:1.0 2352:1.0 2353:1.0 2354:1.0 2355:1.0 2366:1.0 2516:1.0 2518:1.0 2525:1.0 2526:1.0 2545:1.0 2546:1.0 2547:1.0 2548:1.0 2549:1.0 2550:1.0 2551:1.0 2553:1.0 
0.05 0.0 27:1.0 28:1.0 29:4.0 30:1.0 31:1.0 33:1.0 36:1.0 50:1.0 51:1.0 53:1.0 56:1.0 58:2.5 59:3.0 60:2.0 121:1.0 127:1.0 159:1.0 160:1.0 417:1.0 605:1.0 686:1.0 894:2.0 901:1.0 905:2.0 983:1.0 998:1.0 1000:1.0 1354:1.0 2100:1.0 2101:1.0 2102:1.0 2104:1.0 2105:1.0 2120:1.0 2121:1.0 2122:1.0 2124:1.0 2125:1.0 2126:1.0 2579:1.0 2593:1.0 2599:1.0 2615:1.0 2616:1.0 2617:1.0 2618:1.0 2619:1.0 2620:1.0 2621:1.0 2622:1.0 2623:1.0 2624:1.0 2625:1.0 2626:1.0 2627:1.0 2628:1.0 2629:1.0 2631:1.0 
0.05 0.0 27:1.0 28:1.0 29:3.0 30:1.0 31:1.0 33:2.0 36:1.0 50:1.0 51:1.0 53:1.0 56:1.0 58:2.0 59:2.0 60:2.0 121:1.0 127:1.0 159:1.0 160:1.0 417:1.0 474:1.0 686:1.0 894:1.0 905:1.0 983:1.0 998:1.0 1000:1.0 1030:1.0 1043:1.0 1354:1.0 2085:1.0 2094:1.0 2100:1.0 2101:1.0 2102:1.0 2104:1.0 2105:1.0 2110:1.0 2113:1.0 2114:1.0 2115:1.0 2116:1.0 2118:1.0 2579:1.0 2593:1.0 2599:1.0 2616:1.0 2618:1.0 2619:1.0 2620:1.0 2621:1.0 2622:1.0 2624:1.0 2625:1.0 2628:1.0 2629:1.0 2630:1.0 2634:1.0 2635:1.0 2636:1.0 2637:1.0 
0.05 0.0 27:1.0 28:1.0 29:2.0 30:1.0 31:1.0 33:3.0 36:1.0 50:1.0 51:1.0 53:1.0 56:1.0 58:2.0 59:2.0 60:2.0 121:1.0 127:1.0 159:1.0 160:1.0 417:1.0 474:1.0 783:1.0 983:1.0 998:1.0 1000:1.0 1030:2.0 1043:2.0 1248:1.0 1354:1.0 2055:1.0 2084:1.0 2085:1.0 2094:1.0 2098:1.0 2099:1.0 2100:1.0 2101:1.0 2102:1.0 2103:1.0 2104:1.0 2105:1.0 2110:1.0 2111:1.0 2579:1.0 2593:1.0 2599:1.0 2616:1.0 2618:1.0 2619:1.0 2620:1.0 2621:1.0 2624:1.0 2625:1.0 2628:1.0 2629:1.0 2640:1.0 2641:1.0 2642:1.0 2643:1.0 
0.05 0.009975367000652643 30:1.0 31:1.0 33:1.0 36:1.0 37:1.0 38:1.0 53:1.0 58:2.0 59:2.0 60:2.0 87:3.0 127:1.0 159:1.0 160:1.0 417:1.0 479:1.0 481:1.0 497:1.0 508:1.0 783:1.0 837:1.0 839:1.0 896:1.0 1115:1.0 1118:1.0 2094:1.0 2141:1.0 2142:1.0 2143:1.0 2144:1.0 2145:1.0 2146:1.0 2147:1.0 2149:1.0 2150:1.0 2151:1.0 2152:1.0 2579:1.0 2628:1.0 2675:1.0 2676:1.0 2677:1.0 2678:1.0 2679:1.0 2680:1.0 2681:1.0 2682:1.0 2683:1.0 2684:1.0 
0.019134121925337796 0.00245805293916003 27:1.0 28:1.0 29:1.0 30:1.0 31:3.0 32:2.0 36:1.0 40:1.0 43:1.0 44:1.0 140:1.0 142:1.0 147:1.0 149:1.0 154:1.0 296:1.0 342:1.0 371:1.0 473:1.0 757:1.0 944:1.0 945:1.0 1030:2.0 1043:2.0 1115:1.0 1702:1.0 1708:1.0 1944:1.0 2053:2.0 2066:2.0 2527:1.0 2696:1.0 2697:1.0 2698:1.0 2699:1.0 2700:1.0 2701:1.0 2702:1.0 2703:1.0 2704:1.0 2705:1.0 2706:1.0 2707:1.0 2708:1.0 2709:1.0 2710:1.0 2711:1.0 2712:1.0 
0.05 0.0 29:1.0 30:1.0 31:1.0 32:1.0 36:1.0 40:1.0 43:1.0 44:1.0 58:1.5 59:2.0 60:1.0 87:4.0 89:1.0 140:1.0 142:1.0 180:1.0 296:1.0 342:1.0 371:1.0 473:1.0 490:1.0 497:1.0 666:1.0 686:1.0 689:1.0 1115:1.0 1118:1.0 1142:1.0 1748:1.0 1943:1.0 1944:1.0 2001:1.0 2075:1.0 2527:1.0 2696:1.0 2697:1.0 2698:1.0 2699:1.0 2700:1.0 2703:1.0 2704:1.0 2709:1.0 2710:1.0 2711:1.0 2712:1.0 2713:1.0 2714:1.0 2715:1.0 2716:1.0 2717:1.0 2718:1.0 2719:1.0 2720:1.0 2721:1.0 2722:1.0 
0.05 0.012189872315622668 27:1.0 28:1.0 29:1.0 30:2.0 31:1.0 36:1.0 37:1.0 38:1.0 53:1.0 58:1.5 59:2.0 60:1.0 127:1.0 135:1.0 159:1.0 160:1.0 178:1.0 508:1.0 511:1.0 513:1.0 776:1.0 1453:1.0 1486:1.0 2838:1.0 2850:1.0 2857:1.0 2858:1.0 2859:1.0 2860:1.0 2861:1.0 2862:1.0 2863:1.0 2864:1.0 2865:1.0 2869:1.0 2870:1.0 2871:1.0 2872:1.0 2873:1.0 2875:1.0 2876:1.0 2877:1.0 2878:1.0 2879:1.0 2880:1.0 2881:1.0 2882:1.0 2883:1.0 2884:1.0 2885:1.0 2886:1.0 
0.05 0.04506253450344087 29:2.0 30:5.0 31:1.0 33:1.0 36:1.0 53:1.0 58:4.5 59:6.0 60:3.0 87:2.0 123:1.0 176:1.0 256:1.0 280:1.0 299:1.0 302:1.0 303:1.0 326:1.0 340:1.0 395:1.0 408:1.0 411:1.0 416:1.0 417:1.0 574:1.0 622:1.0 623:1.0 764:2.0 889:1.0 892:1.0 2227:1.0 2563:1.0 2599:2.0 3121:1.0 3177:2.0 3243:1.0 3369:1.0 3370:1.0 3371:1.0 3372:1.0 3373:1.0 3374:1.0 3375:1.0 3376:1.0 3377:1.0 3378:1.0 3379:1.0 3380:1.0 3384:1.0 3385:1.0 3386:1.0 3388:1.0 3389:1.0 3390:1.0 3391:1.0 3392:1.0 3393:1.0 3394:1.0 3395:1.0 3396:1.0 3397:1.0 3398:1.0 
0.05 0.009965775128633135 27:1.0 28:1.0 29:1.0 30:1.0 31:1.0 36:1.0 50:1.0 51:1.0 58:1.5 59:2.0 60:1.0 67:1.0 123:1.0 127:1.0 159:1.0 285:1.0 325:1.0 349:1.0 350:1.0 352:1.0 377:1.0 445:1.0 460:1.0 702:1.0 2051:1.0 2054:1.0 2522:1.0 3356:1.0 3357:1.0 3358:1.0 3359:1.0 3360:1.0 3367:1.0 3400:1.0 3401:1.0 3402:1.0 3403:1.0 3404:1.0 3405:1.0 3406:1.0 3407:1.0 3408:1.0 3409:1.0 3410:1.0 3411:1.0 3412:1.0 
0.05 0.013807111871542994 29:1.0 30:1.0 32:1.0 33:1.0 36:1.0 87:1.0 280:1.0 285:1.0 289:1.0 299:1.0 302:1.0 328:1.0 349:1.0 371:1.0 376:1.0 693:1.0 762:1.0 1944:1.0 2160:1.0 2162:1.0 2166:1.0 2811:1.0 3371:1.0 3377:1.0 3461:1.0 3462:1.0 3463:1.0 3464:1.0 3465:1.0 3466:1.0 3467:1.0 3468:1.0 3469:1.0 3470:1.0 3471:1.0 3472:1.0 3473:1.0 3474:1.0 3475:1.0 3476:1.0 3477:1.0 3478:1.0 3479:1.0 3480:1.0 3481:1.0 3482:1.0 
0.025788876633158882 0.003892393117179941 27:1.0 28:1.0 29:1.0 31:1.0 36:1.0 50:1.0 51:1.0 58:1.5 59:2.0 60:1.0 67:1.0 123:1.0 127:1.0 159:1.0 285:1.0 349:1.0 350:1.0 352:1.0 377:1.0 445:1.0 460:1.0 3484:1.0 3485:1.0 3486:1.0 3487:1.0 3488:1.0 3489:1.0 3490:1.0 3491:1.0 3492:1.0 3497:1.0 3498:1.0 3499:1.0 3500:1.0 3501:1.0 3502:1.0 3503:1.0 3504:1.0 3505:1.0 3506:1.0 3507:1.0 3508:1.0 3509:1.0 3510:1.0 3511:1.0 3512:1.0 
0.05 0.008053821421731689 29:1.0 30:1.0 31:1.0 33:2.0 36:1.0 58:4.5 59:6.0 60:3.0 77:1.0 87:1.0 115:1.0 120:1.0 176:1.0 180:1.0 183:1.0 303:1.0 328:1.0 407:1.0 408:1.0 409:1.0 411:1.0 574:1.0 693:1.0 892:1.0 913:1.0 1014:1.0 1783:1.0 1784:1.0 2844:1.0 2845:1.0 2989:1.0 3120:1.0 3121:1.0 3202:1.0 3203:1.0 3240:1.0 3242:1.0 3243:1.0 3245:1.0 3520:1.0 3526:1.0 3527:1.0 3528:1.0 3529:1.0 3530:1.0 3531:1.0 3532:1.0 3533:1.0 3535:1.0 3536:1.0 3537:1.0 3538:1.0 3540:1.0 3541:1.0 3542:1.0 3543:1.0 
0.05 0.0 29:1.0 30:1.0 31:1.0 32:1.0 33:1.0 36:1.0 58:4.0 59:5.0 60:3.0 77:1.0 87:5.0 89:1.0 91:1.0 176:1.0 250:1.0 303:1.0 338:1.0 407:1.0 408:1.0 409:1.0 411:1.0 523:1.0 527:1.0 541:1.0 560:1.0 574:1.0 704:1.0 706:1.0 708:1.0 892:1.0 913:1.0 1783:1.0 1784:1.0 1917:1.0 2844:1.0 2989:1.0 3120:1.0 3121:1.0 3240:1.0 3242:1.0 3243:1.0 3245:1.0 3341:1.0 3520:1.0 3540:1.0 3541:1.0 3542:1.0 3544:1.0 3545:1.0 3546:1.0 3547:1.0 3548:1.0 3549:1.0 3550:1.0 3551:1.0 3552:1.0 3553:1.0 3554:1.0 3555:1.0 3556:1.0 3557:1.0 3558:1.0 3559:1.0 
0.05 0.0036878961394497998 24:1.0 30:1.0 31:1.0 36:1.0 37:1.0 38:1.0 53:1.0 58:2.0 59:3.0 60:1.0 87:1.0 89:1.0 127:1.0 135:1.0 159:1.0 160:1.0 456:1.0 473:1.0 508:1.0 798:1.0 2516:1.0 2518:1.0 2545:1.0 2546:1.0 2815:1.0 2913:1.0 2914:1.0 2915:1.0 2916:1.0 2917:1.0 3580:1.0 3581:1.0 3582:1.0 3591:1.0 3592:1.0 3593:1.0 3598:1.0 3599:1.0 3600:1.0 3601:1.0 3602:1.0 3603:1.0 3604:1.0 3605:1.0 3606:1.0 3607:1.0 3608:1.0 
0.009295193013492081 0.001879044422438933 24:1.0 27:1.0 28:1.0 30:1.0 31:1.0 36:1.0 37:1.0 38:1.0 53:1.0 58:1.5 59:2.0 60:1.0 127:1.0 135:1.0 159:1.0 160:1.0 316:1.0 456:1.0 508:1.0 2815:1.0 2914:1.0 2915:1.0 2916:1.0 2917:1.0 3159:1.0 3598:1.0 3599:1.0 3600:1.0 3601:1.0 3605:1.0 3606:1.0 3607:1.0 3641:1.0 3642:1.0 3643:1.0 3644:1.0 3645:1.0 3646:1.0 3647:1.0 3648:1.0 3649:1.0 3650:1.0 3651:1.0 3652:1.0 
0.049283745503730984 5.886447655751005E-4 29:2.0 30:1.0 31:1.0 33:2.0 36:1.0 67:1.0 77:1.0 87:2.0 123:1.0 127:1.0 159:1.0 160:1.0 176:1.0 303:1.0 342:1.0 473:1.0 1783:1.0 1784:1.0 2861:1.0 3287:1.0 3528:1.0 3531:1.0 3774:1.0 3846:1.0 3847:1.0 3848:1.0 3849:1.0 3850:1.0 3851:1.0 3852:1.0 3853:1.0 3854:1.0 3855:1.0 3856:1.0 3857:1.0 3858:1.0 3859:1.0 3860:1.0 3861:1.0 3862:1.0 3863:1.0 3864:1.0 3865:1.0 3866:1.0 
0.0459069535136374 0.0 29:2.0 30:1.0 31:1.0 36:1.0 50:1.0 51:1.0 58:4.0 59:5.0 60:3.0 87:6.0 89:1.0 123:1.0 280:1.0 282:1.0 283:1.0 285:1.0 326:1.0 349:1.0 350:1.0 352:1.0 377:1.0 395:1.0 408:1.0 411:1.0 574:1.0 800:1.0 2302:1.0 2304:1.0 2772:1.0 2778:1.0 3080:1.0 3081:1.0 3243:1.0 3765:1.0 3768:1.0 3813:1.0 3815:1.0 3816:1.0 3887:1.0 3934:1.0 3935:1.0 3936:1.0 3937:1.0 3938:1.0 3939:1.0 3940:1.0 3941:1.0 3942:1.0 3943:1.0 3944:1.0 3945:1.0 3946:1.0 3947:1.0 3948:1.0 3949:1.0 
0.05 0.0 29:1.0 30:1.0 31:1.0 36:1.0 50:1.0 51:1.0 58:3.0 59:3.0 60:3.0 87:1.0 280:1.0 285:1.0 299:1.0 302:1.0 349:1.0 350:1.0 352:1.0 377:1.0 407:1.0 408:1.0 409:1.0 411:1.0 574:1.0 2160:1.0 2162:1.0 3238:1.0 3242:1.0 3243:1.0 3382:1.0 3550:1.0 3765:1.0 3768:1.0 3817:1.0 3887:1.0 3955:1.0 3956:1.0 3957:1.0 3958:1.0 3959:1.0 3960:1.0 3962:1.0 3963:1.0 3964:1.0 3965:1.0 3966:1.0 3967:1.0 3968:1.0 
0.042851980631534885 0.0 8:1.0 29:2.0 30:1.0 31:1.0 33:2.0 36:1.0 67:1.0 77:1.0 87:2.0 123:1.0 127:1.0 159:1.0 160:1.0 176:1.0 303:1.0 316:1.0 1783:1.0 1784:1.0 2697:1.0 2698:1.0 2861:1.0 3287:1.0 3528:1.0 3531:1.0 3774:1.0 3848:1.0 3850:1.0 3853:1.0 3854:1.0 3855:1.0 3856:1.0 3857:1.0 3858:1.0 3859:1.0 3860:1.0 3861:1.0 3862:1.0 3863:1.0 3864:1.0 3865:1.0 3866:1.0 3979:1.0 3980:1.0 
0.02122445451806644 0.0 29:2.0 30:1.0 31:1.0 36:1.0 50:1.0 51:1.0 58:4.0 59:5.0 60:3.0 67:1.0 87:7.0 123:1.0 273:1.0 280:1.0 282:1.0 284:1.0 285:1.0 299:1.0 302:1.0 352:1.0 377:1.0 408:1.0 411:1.0 574:1.0 722:1.0 723:1.0 813:1.0 3062:1.0 3065:1.0 3068:1.0 3243:1.0 3765:1.0 3768:1.0 3878:1.0 3879:1.0 3880:1.0 3887:1.0 3888:1.0 3892:1.0 3981:1.0 3982:1.0 3983:1.0 3984:1.0 3985:1.0 3986:1.0 3987:1.0 3988:1.0 3989:1.0 3990:1.0 3991:1.0 3992:1.0 3993:1.0 3994:1.0 3995:1.0 3996:1.0 
0.022842074386699347 0.0 29:1.0 30:1.0 31:1.0 36:1.0 50:1.0 51:1.0 67:1.0 87:3.0 123:1.0 275:1.0 280:1.0 285:1.0 299:1.0 302:1.0 316:1.0 349:1.0 350:1.0 352:1.0 377:1.0 521:1.0 3765:1.0 3768:1.0 3806:1.0 3984:1.0 3985:1.0 3986:1.0 3987:1.0 3993:1.0 3997:1.0 3998:1.0 3999:1.0 4000:1.0 4001:1.0 4002:1.0 4003:1.0 4004:1.0 4005:1.0 4006:1.0 4007:1.0 4008:1.0 
0.01505848180675118 0.0 29:1.0 30:1.0 33:1.0 36:1.0 50:1.0 51:1.0 58:2.0 59:2.0 60:2.0 87:1.0 316:1.0 317:1.0 339:1.0 344:1.0 348:1.0 3351:1.0 3806:1.0 4009:1.0 4010:1.0 4011:1.0 4012:1.0 4013:1.0 4014:1.0 4015:1.0 4016:1.0 4017:1.0 4018:1.0 4019:1.0 4020:1.0 4021:1.0 4022:1.0 4023:1.0 4024:1.0 4025:1.0 4026:1.0 4027:1.0 4028:1.0 4029:1.0 4030:1.0 4031:1.0 4032:1.0 4033:1.0 4034:1.0 4035:1.0 4036:1.0 4037:1.0 4038:1.0 
0.015159818429857145 0.0 29:2.0 30:1.0 31:1.0 33:1.0 36:1.0 50:1.0 51:1.0 58:5.0 59:7.0 60:3.0 69:1.0 87:2.0 123:1.0 280:1.0 285:1.0 299:1.0 302:1.0 326:1.0 349:1.0 350:1.0 352:1.0 377:1.0 395:1.0 407:1.0 408:1.0 409:1.0 411:1.0 574:1.0 2302:1.0 2304:1.0 3080:1.0 3081:1.0 3242:1.0 3243:1.0 3765:1.0 3768:1.0 3797:1.0 3812:1.0 3813:1.0 3815:1.0 3816:1.0 3817:1.0 3934:1.0 3935:1.0 3941:1.0 3948:1.0 4049:1.0 4050:1.0 4051:1.0 4052:1.0 4053:1.0 4054:1.0 
0.024549847975165046 0.002634705186075154 3:1.0 5:1.0 6:1.0 7:1.0 8:1.0 13:1.0 14:1.0 15:1.0 18:1.0 19:1.0 20:1.0 21:1.0 22:1.0 27:1.0 28:1.0 29:1.0 30:1.0 31:4.0 34:1.0 35:1.0 36:1.0 37:1.0 38:1.0 127:1.0 159:1.0 460:1.0 809:1.0 4055:1.0 4056:1.0 4057:1.0 4058:1.0 4059:1.0 4060:1.0 4061:1.0 4062:1.0 4063:1.0 4064:1.0 4065:1.0 4066:1.0 4067:1.0 
0.0 1.769156777112342E-4 8:1.0 22:1.0 27:1.0 28:1.0 29:1.0 30:1.0 31:3.0 32:1.0 36:1.0 37:1.0 38:1.0 40:1.0 43:1.0 140:1.0 142:1.0 147:1.0 149:1.0 316:1.0 555:1.0 666:1.0 1009:1.0 1030:1.0 1043:1.0 1248:1.0 1482:1.0 2815:1.0 4120:1.0 4121:1.0 4122:1.0 4123:1.0 4124:1.0 4125:1.0 4126:1.0 4127:1.0 4128:1.0 4129:1.0 4130:1.0 4131:1.0 4132:1.0 4133:1.0 4134:1.0 4135:1.0 4136:1.0 4137:1.0 4138:1.0 4139:1.0 4140:1.0 
7.655576470617486E-4 0.0067110301850083365 30:2.0 31:1.0 33:1.0 34:1.0 35:1.0 36:1.0 50:1.0 51:1.0 58:1.5 59:2.0 60:1.0 67:1.0 87:2.0 101:1.0 121:1.0 122:2.0 123:1.0 180:1.0 187:1.0 188:1.0 189:1.0 192:1.0 198:1.0 199:1.0 200:1.0 201:1.0 202:1.0 203:1.0 208:1.0 210:1.0 212:1.0 213:1.0 214:1.0 215:1.0 216:1.0 217:1.0 218:1.0 219:1.0 275:1.0 319:1.0 334:1.0 1013:1.0 3225:1.0 3233:1.0 4080:1.0 4141:1.0 4142:1.0 4143:1.0 4144:1.0 4145:1.0 4146:1.0 4147:1.0 4148:1.0 4149:1.0 4150:1.0 4151:1.0 4152:1.0 4153:1.0 4154:1.0 4155:1.0 4156:1.0 4157:1.0 4158:1.0 
0.019072215724363788 0.008781945675267822 30:2.0 31:1.0 33:1.0 34:1.0 35:1.0 36:1.0 50:1.0 51:1.0 58:2.5 59:4.0 60:1.0 67:1.0 87:4.0 91:1.0 94:1.0 101:1.0 121:1.0 122:2.0 123:1.0 187:1.0 188:1.0 189:1.0 192:1.0 198:1.0 199:1.0 200:1.0 201:1.0 208:1.0 210:1.0 212:1.0 213:1.0 214:1.0 215:1.0 216:1.0 217:1.0 218:1.0 219:1.0 275:1.0 319:1.0 334:1.0 338:1.0 523:1.0 527:1.0 541:1.0 558:1.0 4092:1.0 4141:1.0 4142:1.0 4143:1.0 4144:1.0 4145:1.0 4146:1.0 4149:1.0 4152:1.0 4159:1.0 4160:1.0 4161:1.0 4162:1.0 4163:1.0 4164:1.0 4165:1.0 
0.05 8.681446855874235E-4 29:1.0 30:1.0 31:1.0 36:1.0 40:1.0 43:1.0 50:1.0 51:1.0 58:2.5 59:3.0 60:2.0 87:9.0 89:2.0 285:1.0 352:1.0 377:1.0 497:1.0 529:1.0 873:1.0 1009:1.0 1726:1.0 2832:1.0 2847:1.0 2905:1.0 3049:1.0 3067:1.0 3094:1.0 3095:1.0 3108:1.0 3109:1.0 3143:1.0 3287:1.0 4263:1.0 4264:1.0 4265:1.0 4266:1.0 4267:1.0 4278:1.0 4293:1.0 4294:1.0 4295:1.0 4296:1.0 4297:1.0 4298:1.0 4299:1.0 4300:1.0 4301:1.0 4302:1.0 4303:1.0 4304:1.0 4305:1.0 4306:1.0 4307:1.0 4308:1.0 4309:1.0 4310:1.0 4311:1.0 4312:1.0 4313:1.0 4314:1.0 4315:1.0 4316:1.0 4317:1.0 
0.05 0.004774719605998789 29:1.0 30:1.0 31:1.0 36:1.0 40:1.0 43:1.0 50:1.0 51:1.0 58:2.5 59:3.0 60:2.0 87:7.0 89:1.0 285:1.0 352:1.0 377:1.0 497:1.0 529:1.0 873:1.0 1009:1.0 1726:1.0 2905:1.0 3049:1.0 3067:1.0 3096:1.0 3097:1.0 3107:1.0 3108:1.0 3109:1.0 3143:1.0 3767:1.0 4295:1.0 4296:1.0 4297:1.0 4298:1.0 4299:1.0 4300:1.0 4301:1.0 4302:1.0 4304:1.0 4307:1.0 4308:1.0 4310:1.0 4313:1.0 4314:1.0 4315:1.0 4316:1.0 4318:1.0 4319:1.0 4320:1.0 4321:1.0 4322:1.0 4323:1.0 4324:1.0 4325:1.0 4333:1.0 4334:1.0 4335:1.0 4337:1.0 4342:1.0 4343:1.0 
0.028107059539325067 0.0 29:1.0 31:1.0 36:1.0 50:1.0 51:1.0 58:3.5 59:4.0 60:3.0 87:3.0 121:1.0 205:1.0 280:1.0 285:1.0 326:1.0 349:1.0 350:1.0 352:1.0 377:1.0 407:1.0 408:1.0 409:1.0 411:1.0 412:1.0 2012:1.0 2018:1.0 2468:1.0 2470:1.0 2690:1.0 3080:1.0 3081:1.0 3238:1.0 3242:1.0 3243:1.0 3700:1.0 3702:1.0 3938:1.0 3939:1.0 3948:1.0 4480:1.0 4481:1.0 4482:1.0 4483:1.0 4484:1.0 4485:1.0 4486:1.0 4487:1.0 4488:1.0 4489:1.0 4490:1.0 
0.039740525832893156 0.00614655346981097 8:1.0 27:1.0 28:1.0 29:4.0 30:2.0 31:2.0 32:1.0 33:2.0 36:1.0 50:1.0 51:1.0 121:1.0 178:1.0 248:1.0 299:1.0 316:1.0 342:1.0 746:1.0 764:1.0 920:1.0 1000:1.0 1687:1.0 2066:1.0 2599:1.0 3081:1.0 3177:1.0 3222:1.0 3226:1.0 3232:1.0 3287:1.0 3431:1.0 3703:1.0 3850:1.0 3982:1.0 4032:1.0 4033:1.0 4034:1.0 4036:1.0 4056:1.0 4057:1.0 4171:1.0 4180:1.0 4375:1.0 4381:1.0 4382:1.0 4485:1.0 4507:1.0 4508:1.0 4509:1.0 4510:1.0 4511:1.0 4512:1.0 4513:1.0 4514:1.0 4515:1.0 4516:1.0 4517:1.0 4518:1.0 4519:1.0 4520:1.0 4521:1.0 4522:1.0 4523:1.0 4524:1.0 4525:1.0 
0.026360220005234372 0.024453312799268535 1:1.0 2:1.0 3:1.0 4:1.0 5:1.0 6:1.0 7:1.0 8:1.0 13:1.0 15:1.0 19:1.0 21:1.0 22:1.0 23:1.0 24:1.0 27:1.0 28:1.0 29:1.0 30:1.0 31:2.0 32:1.0 34:1.0 35:1.0 36:1.0 37:1.0 38:1.0 40:1.0 43:1.0 474:1.0 1009:1.0 1030:1.0 1043:1.0 4059:1.0 4661:1.0 4662:1.0 4663:1.0 4664:1.0 4665:1.0 4666:1.0 4667:1.0 4668:1.0 4669:1.0 
0.05 0.010280075724991953 30:2.0 31:1.0 33:1.0 36:1.0 50:1.0 51:1.0 58:2.0 59:3.0 60:1.0 87:2.0 101:1.0 121:1.0 123:1.0 142:1.0 189:1.0 199:1.0 215:1.0 218:1.0 219:1.0 280:1.0 285:1.0 299:1.0 302:1.0 319:1.0 326:1.0 334:1.0 349:1.0 350:1.0 352:1.0 377:1.0 395:1.0 396:1.0 764:1.0 889:1.0 1434:1.0 3402:1.0 3403:1.0 4080:1.0 4146:1.0 4148:1.0 4149:1.0 4150:1.0 4151:1.0 4153:1.0 4730:1.0 4731:1.0 4732:1.0 4733:1.0 4734:1.0 4735:1.0 4736:1.0 4737:1.0 4738:1.0 4739:1.0 4740:1.0 4741:1.0 4742:1.0 4743:1.0 
0.013813215885416726 1.2901673942938843E-4 27:1.0 28:1.0 29:1.0 30:1.0 31:1.0 36:1.0 37:1.0 38:1.0 53:1.0 58:1.5 59:2.0 60:1.0 127:1.0 135:1.0 159:1.0 460:1.0 508:1.0 596:1.0 1003:1.0 1726:1.0 3143:1.0 3170:1.0 3171:1.0 3767:1.0 4301:1.0 4302:1.0 4313:1.0 5002:1.0 5003:1.0 5004:1.0 5005:1.0 5006:1.0 5007:1.0 5008:1.0 5013:1.0 5014:1.0 5015:1.0 5063:1.0 5064:1.0 5065:1.0 5066:1.0 5067:1.0 5068:1.0 5069:1.0 5070:1.0 5071:1.0 5072:1.0 5073:1.0 5074:1.0 
0.05 0.010758309764935196 29:1.0 30:1.0 31:1.0 36:1.0 58:2.5 59:3.0 60:2.0 87:2.0 176:1.0 248:1.0 250:1.0 262:1.0 265:1.0 303:1.0 344:1.0 348:1.0 465:1.0 3334:1.0 3335:1.0 3351:1.0 3699:1.0 3701:1.0 3765:1.0 3768:1.0 3802:1.0 3809:1.0 3811:1.0 3812:1.0 4029:1.0 4031:1.0 4416:1.0 5107:1.0 5108:1.0 5109:1.0 5110:1.0 5111:1.0 5112:1.0 5113:1.0 5114:1.0 5115:1.0 5116:1.0 5117:1.0 5118:1.0 5119:1.0 5120:1.0 5121:1.0 5122:1.0 5123:1.0 
0.05 0.030855626810418865 29:1.0 30:1.0 31:1.0 32:1.0 36:1.0 58:3.0 59:4.0 60:2.0 67:1.0 87:12.0 89:2.0 123:1.0 176:1.0 274:1.0 275:1.0 277:1.0 280:1.0 282:1.0 283:1.0 285:1.0 288:1.0 303:1.0 337:1.0 344:1.0 348:1.0 377:1.0 497:1.0 811:1.0 2066:1.0 3221:1.0 3232:1.0 3334:1.0 3335:1.0 3351:1.0 3611:1.0 3616:1.0 3699:1.0 3701:1.0 3765:1.0 3768:1.0 3816:1.0 3928:1.0 3931:1.0 3932:1.0 3993:1.0 4029:1.0 4031:1.0 4416:1.0 4543:1.0 5107:1.0 5108:1.0 5109:1.0 5110:1.0 5111:1.0 5116:1.0 5118:1.0 5119:1.0 5127:1.0 5130:1.0 5131:1.0 5132:1.0 5133:1.0 5134:1.0 5135:1.0 5136:1.0 5137:1.0 
0.05 0.018515568358011374 8:1.0 29:2.0 30:1.0 31:1.0 33:2.0 36:1.0 67:1.0 77:1.0 87:3.0 127:1.0 159:1.0 160:1.0 176:1.0 250:1.0 303:1.0 316:1.0 1774:1.0 1783:1.0 1784:1.0 3528:1.0 3531:1.0 3830:1.0 3833:1.0 3853:1.0 3857:1.0 3863:1.0 3864:1.0 3865:1.0 3921:1.0 4056:1.0 4057:1.0 5175:1.0 5189:1.0 5190:1.0 5191:1.0 5192:1.0 5193:1.0 5194:1.0 5195:1.0 5196:1.0 5197:1.0 5198:1.0 5199:1.0 5200:1.0 5201:1.0 
0.02345191564876567 0.0 29:3.0 33:1.0 36:1.0 50:1.0 51:1.0 58:2.0 59:2.0 60:2.0 87:1.0 121:1.0 215:1.0 218:1.0 219:1.0 221:1.0 224:1.0 316:1.0 317:1.0 400:1.0 405:1.0 406:1.0 426:1.0 429:1.0 895:1.0 906:1.0 2302:1.0 2304:1.0 3575:1.0 3576:1.0 3700:1.0 3702:1.0 3935:1.0 3959:1.0 3965:1.0 4015:1.0 4016:1.0 4017:1.0 4018:1.0 4019:1.0 4020:1.0 4024:1.0 4025:1.0 4549:1.0 4595:1.0 5242:1.0 5243:1.0 5253:1.0 5255:1.0 5256:1.0 5257:1.0 5258:1.0 5259:1.0 5260:1.0 5261:1.0 
0.029804905006693513 0.002371612143861405 29:1.0 33:1.0 36:1.0 50:1.0 51:1.0 58:3.5 59:5.0 60:2.0 87:1.0 121:1.0 221:1.0 224:1.0 400:1.0 405:1.0 406:1.0 425:1.0 426:1.0 429:1.0 430:1.0 431:1.0 432:1.0 434:1.0 2332:1.0 3700:1.0 3702:1.0 3959:1.0 3964:1.0 3965:1.0 4015:1.0 4016:1.0 4017:1.0 4018:1.0 4019:1.0 4020:1.0 4024:1.0 4025:1.0 4549:1.0 4602:1.0 4613:1.0 5253:1.0 5255:1.0 5256:1.0 5257:1.0 5258:1.0 5259:1.0 5260:1.0 5280:1.0 5281:1.0 5282:1.0 
0.05 0.0 2:1.0 4:1.0 8:1.0 29:2.0 30:1.0 31:1.0 33:2.0 36:1.0 58:2.0 59:2.0 60:2.0 77:1.0 87:3.0 123:1.0 176:1.0 303:1.0 316:1.0 344:1.0 348:1.0 877:1.0 1016:1.0 1117:1.0 1119:1.0 1774:1.0 1783:1.0 1784:1.0 3351:1.0 3528:1.0 3531:1.0 3832:1.0 3857:1.0 3872:1.0 3873:1.0 3874:1.0 4029:1.0 4031:1.0 4032:1.0 4033:1.0 4525:1.0 5190:1.0 5191:1.0 5192:1.0 5231:1.0 5233:1.0 5245:1.0 5246:1.0 5304:1.0 5305:1.0 5306:1.0 5307:1.0 5308:1.0 5309:1.0 5310:1.0 5311:1.0 
0.02762211248690817 0.0 29:2.0 30:1.0 32:1.0 36:1.0 50:1.0 51:1.0 58:3.0 59:4.0 60:2.0 87:6.0 256:1.0 282:1.0 284:1.0 285:1.0 289:1.0 301:1.0 316:1.0 317:1.0 318:1.0 331:1.0 333:1.0 337:1.0 343:1.0 344:1.0 348:1.0 352:1.0 497:1.0 688:1.0 873:1.0 874:1.0 876:1.0 892:1.0 913:1.0 3765:1.0 3768:1.0 3993:1.0 3994:1.0 3999:1.0 4001:1.0 4031:1.0 4218:1.0 4527:1.0 4528:1.0 5124:1.0 5125:1.0 5128:1.0 5315:1.0 5316:1.0 5317:1.0 5318:1.0 5319:1.0 5320:1.0 5321:1.0 5322:1.0 5323:1.0 5324:1.0 
0.05 0.05 29:1.0 31:1.0 36:1.0 58:2.5 59:3.0 60:2.0 67:1.0 87:3.0 123:1.0 127:1.0 159:1.0 176:1.0 274:1.0 275:1.0 277:1.0 283:1.0 285:1.0 288:1.0 303:1.0 377:1.0 460:1.0 657:1.0 672:1.0 678:1.0 679:1.0 968:1.0 4005:1.0 4199:1.0 4400:1.0 5351:1.0 5352:1.0 5353:1.0 5354:1.0 5355:1.0 5356:1.0 5357:1.0 5358:1.0 5359:1.0 5360:1.0 5361:1.0 5362:1.0 5363:1.0 5364:1.0 5365:1.0 5366:1.0 5367:1.0 5368:1.0 5369:1.0 5370:1.0 
0.013592697053432742 0.010421253827777142 27:1.0 28:1.0 29:1.0 32:1.0 36:1.0 40:1.0 43:1.0 44:1.0 50:1.0 51:1.0 67:1.0 123:1.0 445:1.0 473:1.0 688:1.0 945:1.0 5390:1.0 5391:1.0 5392:1.0 5393:1.0 5394:1.0 5395:1.0 5396:1.0 5397:1.0 5398:1.0 5399:1.0 5400:1.0 5401:1.0 5402:1.0 5403:1.0 5404:1.0 5405:1.0 5406:1.0 5407:1.0 
0.05 0.007457788888206725 30:1.0 31:2.0 36:1.0 53:1.0 58:2.0 59:3.0 60:1.0 87:1.0 101:1.0 127:1.0 135:1.0 159:1.0 160:1.0 176:1.0 303:1.0 416:1.0 484:1.0 489:1.0 497:1.0 1115:1.0 1118:1.0 1120:1.0 1134:1.0 1453:1.0 1486:1.0 1774:1.0 2876:1.0 2877:1.0 3016:1.0 4344:1.0 4345:1.0 5471:1.0 5472:1.0 5473:1.0 5474:1.0 5475:1.0 5476:1.0 5477:1.0 5478:1.0 5479:1.0 5480:1.0 5481:1.0 5482:1.0 5483:1.0 5484:1.0 5485:1.0 5486:1.0 5487:1.0 5488:1.0 5489:1.0 5490:1.0 
0.05 0.004183290661106237 30:1.0 31:1.0 36:1.0 58:3.0 59:3.0 60:3.0 66:1.0 71:1.0 86:1.0 87:4.0 89:1.0 90:1.0 91:1.0 101:1.0 127:1.0 159:1.0 160:1.0 176:1.0 303:1.0 487:1.0 497:1.0 560:1.0 666:1.0 708:1.0 1115:1.0 1118:1.0 1120:1.0 1453:1.0 1486:1.0 2876:1.0 2877:1.0 3016:1.0 4290:1.0 4344:1.0 4345:1.0 5471:1.0 5472:1.0 5484:1.0 5485:1.0 5486:1.0 5491:1.0 5492:1.0 5493:1.0 5494:1.0 5495:1.0 5496:1.0 5497:1.0 5498:1.0 5499:1.0 5500:1.0 5501:1.0 5502:1.0 5503:1.0 5504:1.0 5505:1.0 
0.05 0.005799501424076231 30:1.0 32:1.0 33:1.0 36:1.0 37:1.0 38:1.0 58:6.0 59:11.0 60:1.0 67:1.0 87:13.0 89:3.0 256:1.0 262:1.0 266:1.0 275:1.0 282:1.0 283:2.0 338:1.0 407:1.0 408:1.0 409:1.0 411:1.0 474:1.0 488:1.0 490:1.0 574:1.0 717:1.0 813:1.0 1917:1.0 3242:1.0 3243:1.0 3285:1.0 3317:1.0 3318:1.0 3319:1.0 3320:1.0 3976:1.0 4559:1.0 4560:1.0 4639:1.0 5097:1.0 5255:1.0 5584:1.0 5597:1.0 5602:1.0 5603:1.0 5604:1.0 5605:1.0 5606:1.0 5607:1.0 5608:1.0 5609:1.0 5610:1.0 5611:1.0 5612:1.0 5613:1.0 5614:1.0 5615:1.0 5616:1.0 5618:1.0 
0.04197967647378321 0.0 30:1.0 32:1.0 33:1.0 36:1.0 37:1.0 38:1.0 58:5.5 59:10.0 60:1.0 67:1.0 87:11.0 89:2.0 127:1.0 159:1.0 160:1.0 256:1.0 262:1.0 266:1.0 275:1.0 282:1.0 283:2.0 338:1.0 384:1.0 397:1.0 731:1.0 813:1.0 1917:1.0 3286:1.0 3851:1.0 3976:1.0 4559:1.0 4560:1.0 4639:1.0 5255:1.0 5597:1.0 5602:1.0 5603:1.0 5604:1.0 5605:1.0 5606:1.0 5607:1.0 5608:1.0 5609:1.0 5610:1.0 5611:1.0 5612:1.0 5613:1.0 5614:1.0 5615:1.0 5619:1.0 5620:1.0 5621:1.0 5622:1.0 5623:1.0 5624:1.0 5625:1.0 5626:1.0 5627:1.0 5628:1.0 
0.0 7.035659502686667E-4 29:1.0 32:1.0 33:1.0 36:1.0 37:1.0 38:1.0 58:4.5 59:8.0 60:1.0 67:1.0 87:8.0 89:1.0 121:1.0 256:1.0 262:1.0 266:1.0 275:1.0 282:1.0 283:2.0 425:1.0 430:1.0 431:1.0 432:1.0 434:1.0 435:1.0 800:1.0 813:1.0 896:1.0 1917:1.0 2772:1.0 2778:1.0 3284:1.0 3287:1.0 3288:1.0 3976:1.0 4294:1.0 4559:1.0 4560:1.0 5255:1.0 5602:1.0 5603:1.0 5604:1.0 5605:1.0 5606:1.0 5607:1.0 5608:1.0 5609:1.0 5610:1.0 5611:1.0 5612:1.0 5613:1.0 5614:1.0 5615:1.0 5629:1.0 5630:1.0 5631:1.0 5632:1.0 5633:1.0 
0.0 0.009696234133952247 29:1.0 32:1.0 33:1.0 36:1.0 37:1.0 38:1.0 58:2.0 59:3.0 60:1.0 67:1.0 87:1.0 121:1.0 256:1.0 262:1.0 266:1.0 275:1.0 407:1.0 408:1.0 409:1.0 411:1.0 412:1.0 1917:1.0 3242:1.0 3243:1.0 3700:1.0 3702:1.0 3998:1.0 3999:1.0 4489:1.0 4597:1.0 5255:1.0 5602:1.0 5603:1.0 5604:1.0 5605:1.0 5606:1.0 5607:1.0 5608:1.0 5609:1.0 5610:1.0 5611:1.0 5612:1.0 5613:1.0 5614:1.0 5615:1.0 5634:1.0 5635:1.0 5636:1.0 5637:1.0 5638:1.0 5639:1.0 
0.001367651851618524 0.01453006333716721 7:1.0 27:1.0 28:1.0 29:5.0 31:1.0 33:3.0 36:1.0 37:1.0 38:1.0 58:2.5 59:4.0 60:1.0 123:1.0 127:1.0 159:1.0 256:1.0 395:1.0 460:1.0 648:1.0 733:1.0 764:1.0 2811:1.0 3059:1.0 3150:1.0 3151:1.0 3232:1.0 3767:1.0 3775:1.0 3794:1.0 3805:1.0 3885:1.0 3896:1.0 3999:1.0 4000:1.0 4457:1.0 5644:1.0 5655:1.0 5662:1.0 5663:1.0 5664:1.0 5665:1.0 5666:1.0 5667:1.0 5668:1.0 5674:1.0 5675:1.0 5676:1.0 5677:1.0 5678:1.0 5690:1.0 5691:1.0 5692:1.0 5693:1.0 5694:1.0 5695:1.0 5696:1.0 5697:1.0 
0.05 0.011000549923552856 7:1.0 29:5.0 31:1.0 36:1.0 58:1.5 59:2.0 60:1.0 67:1.0 87:1.0 123:1.0 127:1.0 159:1.0 176:1.0 284:1.0 285:1.0 286:1.0 288:1.0 303:1.0 377:1.0 460:1.0 733:1.0 764:1.0 2811:1.0 3150:1.0 3151:1.0 3767:1.0 3794:1.0 3805:1.0 3814:1.0 3885:1.0 3989:1.0 3999:1.0 4000:1.0 5607:1.0 5679:1.0 5680:1.0 5681:1.0 5682:1.0 5683:1.0 5684:1.0 5685:1.0 5686:1.0 5687:1.0 5689:1.0 5690:1.0 5691:1.0 5692:1.0 5693:1.0 5694:1.0 5695:1.0 5696:1.0 5698:1.0 5699:1.0 5700:1.0 
0.01752815170037897 0.004885727177779536 27:1.0 28:1.0 29:1.0 30:1.0 31:1.0 33:1.0 36:1.0 50:1.0 51:1.0 58:1.5 59:2.0 60:1.0 123:1.0 127:1.0 159:1.0 160:1.0 395:1.0 5961:1.0 5962:1.0 5963:1.0 5964:1.0 5965:1.0 5966:1.0 5967:1.0 5968:1.0 5969:1.0 5970:1.0 5971:1.0 5972:1.0 5973:1.0 5974:1.0 5975:1.0 5976:1.0 5977:1.0 5978:1.0 5979:1.0 5980:1.0 5981:1.0 5982:1.0 5983:1.0 5984:1.0 5985:1.0 5986:1.0 5987:1.0 5988:1.0 5989:1.0 5990:1.0 5991:1.0 
0.010488849463604436 0.0 8:1.0 30:1.0 31:1.0 32:1.0 36:1.0 58:2.5 59:3.0 60:2.0 67:1.0 68:1.0 77:1.0 87:5.0 89:1.0 91:1.0 95:1.0 101:1.0 123:1.0 371:1.0 544:1.0 1783:1.0 1784:1.0 1944:1.0 1955:1.0 1958:1.0 1961:1.0 1962:1.0 1963:1.0 3188:1.0 3189:1.0 3193:1.0 5948:1.0 6199:1.0 6209:1.0 6480:1.0 6481:1.0 6482:1.0 6483:1.0 6484:1.0 6485:1.0 6494:1.0 6495:1.0 6496:1.0 6497:1.0 6498:1.0 6499:1.0 6500:1.0 6501:1.0 6502:1.0 6503:1.0 6504:1.0 6505:1.0 6506:1.0 6507:1.0 
0.05 0.0 8:1.0 29:1.0 30:1.0 31:2.0 36:1.0 53:1.0 77:1.0 87:2.0 123:1.0 135:1.0 316:1.0 371:1.0 666:1.0 1783:1.0 1784:1.0 1944:1.0 2075:1.0 2191:1.0 2861:1.0 3221:1.0 3232:1.0 6199:1.0 6209:1.0 6490:1.0 6493:1.0 6514:1.0 6515:1.0 6516:1.0 6517:1.0 6518:1.0 6519:1.0 6520:1.0 6521:1.0 6522:1.0 6523:1.0 6524:1.0 6525:1.0 6526:1.0 6527:1.0 6528:1.0 6529:1.0 6530:1.0 
0.05 0.0 8:1.0 29:1.0 30:1.0 31:1.0 36:1.0 53:1.0 67:1.0 68:1.0 77:1.0 87:7.0 89:1.0 123:1.0 135:1.0 316:1.0 371:1.0 490:1.0 813:1.0 1150:1.0 1783:1.0 1784:1.0 1931:1.0 1935:1.0 1943:1.0 1944:1.0 2191:1.0 6199:1.0 6209:1.0 6514:1.0 6515:1.0 6516:1.0 6517:1.0 6518:1.0 6519:1.0 6520:1.0 6531:1.0 6532:1.0 6533:1.0 6534:1.0 6535:1.0 6536:1.0 6537:1.0 6538:1.0 6539:1.0 6540:1.0 6541:1.0 
0.05 0.0 8:1.0 29:1.0 30:1.0 32:1.0 36:1.0 67:1.0 68:1.0 77:1.0 87:6.0 89:2.0 123:1.0 316:1.0 371:1.0 490:1.0 967:1.0 1150:1.0 1783:1.0 1784:1.0 1931:1.0 1935:1.0 1943:1.0 1944:1.0 6199:1.0 6209:1.0 6516:1.0 6518:1.0 6553:1.0 6554:1.0 6555:1.0 6556:1.0 6557:1.0 6573:1.0 6574:1.0 6575:1.0 6576:1.0 6577:1.0 6578:1.0 6579:1.0 
0.02087563020208077 0.0 8:1.0 29:1.0 30:1.0 31:1.0 36:1.0 53:1.0 77:1.0 87:4.0 89:1.0 123:1.0 135:1.0 316:1.0 371:1.0 490:1.0 686:1.0 688:1.0 689:1.0 1783:1.0 1784:1.0 1932:1.0 1944:1.0 2191:1.0 6199:1.0 6209:1.0 6516:1.0 6518:1.0 6596:1.0 6597:1.0 6598:1.0 6599:1.0 6600:1.0 6607:1.0 6608:1.0 6609:1.0 6610:1.0 6611:1.0 6612:1.0 6613:1.0 6614:1.0 6615:1.0 6616:1.0 6617:1.0 
0.03318163888485897 0.0 8:1.0 29:1.0 30:1.0 31:1.0 36:1.0 67:1.0 77:1.0 87:6.0 89:2.0 91:1.0 123:1.0 316:1.0 371:1.0 490:1.0 544:1.0 560:1.0 605:1.0 1783:1.0 1784:1.0 1944:1.0 1955:1.0 1958:1.0 1961:1.0 1962:1.0 1963:1.0 6199:1.0 6209:1.0 6516:1.0 6518:1.0 6596:1.0 6597:1.0 6598:1.0 6599:1.0 6600:1.0 6614:1.0 6618:1.0 6619:1.0 6620:1.0 6621:1.0 6622:1.0 6623:1.0 6624:1.0 6625:1.0 6626:1.0 
0.05 0.0 8:1.0 29:1.0 30:1.0 31:1.0 36:1.0 53:1.0 77:1.0 87:2.0 123:1.0 135:1.0 316:1.0 371:1.0 666:1.0 1783:1.0 1784:1.0 1944:1.0 2075:1.0 2191:1.0 2861:1.0 6199:1.0 6209:1.0 6490:1.0 6493:1.0 6516:1.0 6518:1.0 6526:1.0 6528:1.0 6529:1.0 6644:1.0 6645:1.0 6646:1.0 6647:1.0 6648:1.0 6649:1.0 6650:1.0 6651:1.0 6652:1.0 6653:1.0 6654:1.0 
0.05 0.0 8:1.0 29:1.0 30:1.0 31:1.0 36:1.0 53:1.0 67:1.0 68:1.0 77:1.0 87:5.0 89:1.0 123:1.0 135:1.0 316:1.0 371:1.0 490:1.0 1150:1.0 1783:1.0 1784:1.0 1931:1.0 1935:1.0 1943:1.0 1944:1.0 2191:1.0 6199:1.0 6209:1.0 6516:1.0 6518:1.0 6644:1.0 6645:1.0 6646:1.0 6647:1.0 6648:1.0 6655:1.0 6656:1.0 6657:1.0 6658:1.0 6659:1.0 6660:1.0 6661:1.0 6662:1.0 6663:1.0 6664:1.0 
0.014850875072275413 0.0 8:1.0 30:1.0 32:1.0 36:1.0 50:1.0 51:1.0 77:1.0 87:2.0 316:1.0 666:1.0 1783:1.0 1784:1.0 2075:1.0 2861:1.0 3188:1.0 3189:1.0 3193:1.0 6199:1.0 6209:1.0 6490:1.0 6493:1.0 6494:1.0 6496:1.0 6740:1.0 6741:1.0 6742:1.0 6743:1.0 6744:1.0 6745:1.0 6746:1.0 6747:1.0 6748:1.0 6749:1.0 6750:1.0 6751:1.0 6752:1.0 
0.0053393559497819714 0.0 8:1.0 29:1.0 30:1.0 31:1.0 32:1.0 36:1.0 53:1.0 57:1.0 77:1.0 87:2.0 316:1.0 371:1.0 666:1.0 1783:1.0 1784:1.0 1944:1.0 2191:1.0 2704:1.0 2715:1.0 2861:1.0 6199:1.0 6209:1.0 6490:1.0 6493:1.0 6516:1.0 6518:1.0 6526:1.0 6528:1.0 6529:1.0 6774:1.0 6775:1.0 6776:1.0 6777:1.0 6778:1.0 6779:1.0 6780:1.0 6781:1.0 6782:1.0 6783:1.0 6784:1.0 
0.05 0.0 8:1.0 29:1.0 30:1.0 31:2.0 36:1.0 67:1.0 68:1.0 77:1.0 87:8.0 89:3.0 91:1.0 123:1.0 316:1.0 371:1.0 490:1.0 544:1.0 560:1.0 1783:1.0 1784:1.0 1944:1.0 1955:1.0 1958:1.0 1961:1.0 1962:1.0 1963:1.0 3221:1.0 3232:1.0 5948:1.0 6199:1.0 6209:1.0 6516:1.0 6518:1.0 6774:1.0 6775:1.0 6776:1.0 6777:1.0 6778:1.0 6785:1.0 6786:1.0 6787:1.0 6788:1.0 6789:1.0 6790:1.0 6791:1.0 6792:1.0 6793:1.0 6794:1.0 6795:1.0 6796:1.0 
0.05 0.0 30:1.0 31:1.0 36:1.0 50:1.0 51:1.0 58:2.5 59:3.0 60:2.0 87:3.0 101:1.0 123:1.0 180:1.0 490:1.0 599:1.0 615:1.0 618:1.0 619:1.0 666:1.0 1013:1.0 1014:1.0 1150:1.0 1453:1.0 1931:1.0 1935:1.0 1943:1.0 1988:1.0 2075:1.0 2361:1.0 2362:1.0 2363:1.0 2364:1.0 2469:1.0 6882:1.0 6883:1.0 6884:1.0 6885:1.0 6886:1.0 6887:1.0 6888:1.0 6889:1.0 6890:1.0 6891:1.0 6892:1.0 6893:1.0 6894:1.0 6895:1.0 6896:1.0 6897:1.0 
0.05 0.02613122699193595 30:1.0 31:1.0 32:1.0 36:1.0 67:1.0 68:1.0 87:7.0 89:1.0 101:1.0 123:1.0 176:1.0 303:1.0 490:2.0 599:1.0 605:1.0 615:1.0 618:1.0 619:1.0 1453:1.0 1943:2.0 1988:1.0 2055:1.0 2082:1.0 2103:1.0 2106:1.0 2109:1.0 2361:1.0 2362:1.0 2363:1.0 2364:1.0 2469:1.0 5809:1.0 5810:1.0 6882:1.0 6883:1.0 6890:1.0 6891:1.0 6892:1.0 6893:1.0 6898:1.0 6899:1.0 6900:1.0 6901:1.0 
0.014519196779744998 0.0 27:1.0 28:1.0 29:2.0 30:1.0 31:2.0 36:1.0 50:1.0 51:1.0 101:1.0 127:1.0 140:1.0 142:1.0 147:1.0 149:1.0 159:1.0 460:1.0 599:1.0 666:1.0 1453:1.0 1774:1.0 2896:1.0 5537:1.0 7105:1.0 7106:1.0 7107:1.0 7108:1.0 7109:1.0 7110:1.0 7111:1.0 7112:1.0 7113:1.0 7114:1.0 7115:1.0 7116:1.0 7117:1.0 7118:1.0 7119:1.0 7120:1.0 7121:1.0 7122:1.0 
0.0 0.0013432891457332342 27:1.0 28:1.0 29:1.0 30:1.0 31:4.0 36:1.0 37:1.0 38:1.0 127:1.0 140:1.0 142:1.0 147:1.0 149:1.0 159:1.0 460:1.0 520:1.0 666:1.0 668:1.0 892:1.0 913:1.0 1016:1.0 1774:1.0 2753:1.0 2832:1.0 3232:1.0 6334:1.0 7110:1.0 7114:1.0 7213:1.0 7214:1.0 7215:1.0 7216:1.0 7217:1.0 7218:1.0 7219:1.0 7220:1.0 7221:1.0 7222:1.0 7223:1.0 7224:1.0 7225:1.0 7226:1.0 7227:1.0 7228:1.0 
0.01655243449980125 0.0 29:1.0 30:1.0 31:1.0 36:1.0 37:1.0 38:1.0 53:1.0 58:3.0 59:4.0 60:2.0 69:1.0 87:6.0 127:1.0 135:1.0 140:1.0 142:1.0 159:1.0 328:1.0 460:1.0 490:1.0 508:1.0 520:1.0 529:1.0 686:1.0 689:1.0 849:1.0 892:1.0 913:1.0 2753:1.0 2761:1.0 2784:1.0 2832:1.0 5006:1.0 7110:1.0 7213:1.0 7214:1.0 7215:1.0 7224:1.0 7225:1.0 7226:1.0 7227:1.0 7228:1.0 7235:1.0 7236:1.0 7237:1.0 7238:1.0 7239:1.0 7240:1.0 7241:1.0 7242:1.0 7243:1.0 7244:1.0 7245:1.0 7246:1.0 
0.037847493626709944 8.372457650796429E-4 29:1.0 30:1.0 31:1.0 36:1.0 37:1.0 38:1.0 58:4.0 59:6.0 60:2.0 87:8.0 89:1.0 91:1.0 127:1.0 140:1.0 142:1.0 154:1.0 159:1.0 338:1.0 460:1.0 487:1.0 490:1.0 520:1.0 523:1.0 527:1.0 529:1.0 541:1.0 560:1.0 605:1.0 822:1.0 824:1.0 849:1.0 892:1.0 913:1.0 2753:1.0 2761:1.0 2784:1.0 2817:1.0 2832:1.0 7110:1.0 7213:1.0 7214:1.0 7215:1.0 7224:1.0 7225:1.0 7226:1.0 7227:1.0 7228:1.0 7241:1.0 7242:1.0 7247:1.0 7248:1.0 7249:1.0 7250:1.0 7251:1.0 7252:1.0 7253:1.0 7254:1.0 
0.05 0.0038998172766387365 30:1.0 31:1.0 36:1.0 37:1.0 38:1.0 58:9.0 59:9.0 60:9.0 77:1.0 87:10.0 280:1.0 285:1.0 328:1.0 349:1.0 377:1.0 520:1.0 529:2.0 596:1.0 693:1.0 979:1.0 981:1.0 1003:1.0 1713:1.0 1774:1.0 2160:1.0 2162:1.0 2220:1.0 2995:1.0 2996:1.0 2998:1.0 2999:1.0 3479:1.0 6056:1.0 7050:2.0 7217:1.0 7221:1.0 7240:1.0 7290:1.0 7291:1.0 7633:1.0 7682:1.0 7683:1.0 7685:1.0 7686:1.0 7688:1.0 7689:1.0 7690:1.0 7818:1.0 7824:1.0 7920:1.0 7927:1.0 7931:1.0 7937:1.0 7938:1.0 7939:1.0 7940:1.0 7941:1.0 7942:1.0 7943:1.0 
0.05 0.0 30:1.0 31:1.0 36:1.0 37:1.0 38:1.0 58:10.0 59:11.0 60:9.0 77:1.0 87:12.0 89:1.0 91:1.0 280:1.0 338:1.0 520:1.0 521:1.0 523:1.0 527:1.0 529:2.0 541:1.0 560:1.0 596:1.0 704:1.0 822:1.0 824:1.0 979:1.0 981:1.0 999:1.0 1003:1.0 1224:1.0 1231:1.0 1713:1.0 2995:1.0 2996:1.0 2998:1.0 2999:1.0 6056:1.0 7050:2.0 7239:1.0 7242:1.0 7247:1.0 7248:1.0 7249:1.0 7250:1.0 7253:1.0 7633:1.0 7685:1.0 7686:1.0 7748:1.0 7750:1.0 7818:1.0 7824:1.0 7920:1.0 7927:1.0 7933:1.0 7937:1.0 7938:1.0 7939:1.0 7940:1.0 7941:1.0 7942:1.0 7944:1.0 
0.05 0.0 31:1.0 36:1.0 37:1.0 38:1.0 53:1.0 58:4.5 59:5.0 60:4.0 77:1.0 87:5.0 121:1.0 135:1.0 282:1.0 338:1.0 408:1.0 411:1.0 412:1.0 508:1.0 551:1.0 717:1.0 1783:1.0 1784:1.0 1942:1.0 2209:1.0 2210:1.0 2211:1.0 2212:1.0 2213:1.0 2214:1.0 2217:1.0 3130:1.0 3266:1.0 8586:1.0 8587:1.0 8593:1.0 8594:1.0 8595:1.0 8596:1.0 8814:1.0 8815:1.0 8816:1.0 8817:1.0 8818:1.0 8819:1.0 8820:1.0 8821:1.0 8822:1.0 8823:1.0 8824:1.0 
0.02279954207486242 0.0 30:1.0 31:1.0 36:1.0 58:4.0 59:4.0 60:4.0 77:1.0 87:6.0 285:1.0 338:1.0 360:1.0 363:1.0 370:1.0 371:1.0 373:1.0 374:1.0 376:1.0 377:1.0 408:1.0 411:1.0 551:1.0 574:1.0 1134:1.0 1783:1.0 1784:1.0 1932:1.0 1944:1.0 1990:1.0 1991:1.0 1992:1.0 2306:1.0 2387:1.0 2388:1.0 2471:1.0 4041:1.0 8734:1.0 8735:1.0 8736:1.0 8737:1.0 8738:1.0 8739:1.0 8740:1.0 8858:1.0 8859:1.0 8860:1.0 8861:1.0 8862:1.0 8863:1.0 8864:1.0 8865:1.0 
0.01779843421034318 0.0 30:1.0 31:1.0 36:1.0 58:5.0 59:6.0 60:4.0 77:1.0 87:8.0 89:1.0 91:1.0 338:1.0 370:1.0 371:1.0 408:1.0 411:1.0 544:1.0 560:1.0 574:1.0 666:1.0 1134:1.0 1783:1.0 1784:1.0 1944:1.0 1955:1.0 1958:1.0 1961:1.0 1962:1.0 1963:1.0 1990:1.0 1991:1.0 1992:1.0 2306:1.0 2387:1.0 2388:1.0 2471:1.0 3211:1.0 4041:1.0 8602:1.0 8605:1.0 8805:1.0 8806:1.0 8807:1.0 8808:1.0 8809:1.0 8810:1.0 8858:1.0 8859:1.0 8860:1.0 8861:1.0 8862:1.0 8863:1.0 8864:1.0 8866:1.0 
0.05 0.0 30:1.0 31:1.0 36:1.0 58:4.0 59:4.0 60:4.0 77:1.0 87:16.0 89:2.0 91:1.0 338:1.0 370:1.0 371:1.0 408:1.0 411:1.0 490:3.0 541:1.0 542:1.0 544:1.0 560:1.0 574:1.0 666:1.0 1134:1.0 1150:1.0 1783:1.0 1784:1.0 1931:1.0 1935:1.0 1943:1.0 1944:1.0 1961:1.0 1990:1.0 1991:1.0 1992:1.0 2306:1.0 2387:1.0 2388:1.0 2471:1.0 4041:1.0 6911:1.0 6914:1.0 8593:1.0 8605:1.0 8606:1.0 8734:1.0 8735:1.0 8736:1.0 8737:1.0 8742:1.0 8743:1.0 8744:1.0 8858:1.0 8859:1.0 8860:1.0 8861:1.0 8862:1.0 8863:1.0 8864:1.0 8867:1.0 
0.05 0.0 30:1.0 31:1.0 36:1.0 53:1.0 58:4.5 59:5.0 60:4.0 77:1.0 87:18.0 89:3.0 135:1.0 338:1.0 370:1.0 371:1.0 408:1.0 411:1.0 490:4.0 574:1.0 666:1.0 686:1.0 689:1.0 1783:1.0 1784:1.0 1943:1.0 1944:1.0 1961:1.0 1990:1.0 1991:1.0 1992:1.0 2001:1.0 2191:1.0 2306:1.0 2387:1.0 2388:1.0 2471:1.0 4041:1.0 4948:1.0 6911:1.0 6914:1.0 8593:1.0 8598:1.0 8599:1.0 8600:1.0 8601:1.0 8602:1.0 8603:1.0 8605:2.0 8606:1.0 8607:1.0 8608:1.0 8609:1.0 8858:1.0 8859:1.0 8860:1.0 8861:1.0 8862:1.0 8863:1.0 8864:1.0 8868:1.0 
0.05 0.0 30:1.0 31:1.0 36:1.0 53:1.0 58:5.0 59:6.0 60:4.0 77:1.0 87:20.0 89:4.0 135:1.0 338:1.0 370:1.0 371:1.0 408:1.0 411:1.0 490:5.0 574:1.0 605:1.0 686:1.0 689:1.0 1783:1.0 1784:1.0 1932:1.0 1943:1.0 1944:1.0 1961:1.0 1990:1.0 1991:1.0 1992:1.0 2191:1.0 2306:1.0 2387:1.0 2388:1.0 2471:1.0 4041:1.0 6911:1.0 6914:1.0 7032:1.0 8593:1.0 8605:2.0 8606:1.0 8611:1.0 8612:1.0 8613:1.0 8614:1.0 8615:1.0 8616:1.0 8617:1.0 8618:1.0 8619:1.0 8620:1.0 8858:1.0 8859:1.0 8860:1.0 8861:1.0 8862:1.0 8863:1.0 8864:1.0 8869:1.0 
0.05 0.0 30:1.0 31:1.0 36:1.0 58:6.0 59:8.0 60:4.0 77:1.0 87:22.0 89:5.0 91:1.0 338:1.0 370:1.0 371:1.0 408:1.0 411:1.0 490:5.0 544:1.0 560:1.0 574:1.0 605:1.0 1224:1.0 1783:1.0 1784:1.0 1943:1.0 1944:1.0 1955:1.0 1958:1.0 1961:2.0 1962:1.0 1963:1.0 1990:1.0 1991:1.0 1992:1.0 2306:1.0 2387:1.0 2388:1.0 2471:1.0 4041:1.0 6911:1.0 6914:1.0 8593:1.0 8605:2.0 8606:1.0 8617:1.0 8622:1.0 8623:1.0 8624:1.0 8625:1.0 8626:1.0 8627:1.0 8628:1.0 8629:1.0 8630:1.0 8858:1.0 8859:1.0 8860:1.0 8861:1.0 8862:1.0 8863:1.0 8864:1.0 8870:1.0 
0.03113531465179923 0.0 30:1.0 31:1.0 36:1.0 58:4.0 59:6.0 60:2.0 87:5.0 89:1.0 91:1.0 339:1.0 344:1.0 348:1.0 370:1.0 371:1.0 544:1.0 560:1.0 666:1.0 731:1.0 1942:1.0 1944:1.0 1955:1.0 1958:1.0 1961:1.0 1962:1.0 1963:1.0 2031:1.0 2075:1.0 2450:1.0 3211:1.0 3351:1.0 4014:1.0 4027:1.0 4029:1.0 4031:1.0 6581:1.0 6583:1.0 6589:1.0 6590:1.0 8750:1.0 8751:1.0 8752:1.0 8753:1.0 8754:1.0 8755:1.0 8756:1.0 8804:1.0 8969:1.0 8970:1.0 8971:1.0 8973:1.0 
0.05 0.0 27:1.0 28:1.0 29:2.0 30:1.0 31:3.0 36:1.0 50:1.0 51:1.0 58:1.0 59:1.0 60:1.0 140:1.0 142:1.0 147:1.0 149:1.0 285:1.0 299:1.0 328:1.0 352:1.0 377:1.0 408:1.0 411:1.0 574:1.0 770:1.0 777:1.0 887:1.0 892:1.0 903:1.0 913:1.0 995:1.0 1015:1.0 1030:1.0 1043:1.0 1248:1.0 1952:1.0 2309:1.0 3202:1.0 3232:1.0 3384:1.0 3385:1.0 3794:1.0 4232:1.0 5175:1.0 8661:1.0 8666:1.0 8667:1.0 8677:1.0 8764:1.0 8765:1.0 8766:1.0 9021:1.0 9022:1.0 9023:1.0 9024:1.0 
0.02883951878538168 0.0 29:2.0 30:1.0 31:1.0 36:1.0 58:2.0 59:3.0 60:1.0 87:1.0 140:1.0 142:1.0 280:1.0 285:1.0 299:1.0 302:1.0 349:1.0 371:1.0 376:1.0 377:1.0 408:1.0 411:1.0 574:1.0 666:1.0 668:1.0 777:1.0 887:1.0 892:1.0 903:1.0 913:1.0 1248:1.0 1944:1.0 1949:1.0 1950:1.0 1951:1.0 1952:1.0 2160:1.0 2162:1.0 2166:1.0 2309:1.0 3384:1.0 3385:1.0 3794:1.0 8678:1.0 8679:1.0 8680:1.0 8681:1.0 9021:1.0 9022:1.0 9023:1.0 9024:1.0 9025:1.0 
0.04407353579807099 0.0 29:2.0 30:1.0 31:1.0 36:1.0 50:1.0 51:1.0 58:3.5 59:6.0 60:1.0 87:6.0 89:1.0 91:1.0 94:1.0 140:1.0 142:1.0 280:1.0 299:1.0 302:1.0 338:1.0 354:1.0 355:1.0 356:1.0 357:1.0 362:1.0 408:1.0 411:1.0 490:1.0 541:1.0 558:1.0 560:1.0 574:1.0 777:1.0 887:1.0 892:1.0 903:1.0 913:1.0 1248:1.0 1976:1.0 2309:1.0 2919:1.0 3384:1.0 3385:1.0 3571:1.0 3794:1.0 4219:1.0 8683:1.0 8684:1.0 8685:1.0 8686:1.0 8687:1.0 8688:1.0 9021:1.0 9022:1.0 9023:1.0 9024:1.0 9026:1.0 
0.05 0.0 27:1.0 28:1.0 29:1.0 30:1.0 31:3.0 36:1.0 50:1.0 51:1.0 58:1.0 59:1.0 60:1.0 140:1.0 142:1.0 147:1.0 149:1.0 285:1.0 299:1.0 328:1.0 352:1.0 377:1.0 408:1.0 411:1.0 574:1.0 770:1.0 995:1.0 1015:1.0 1030:1.0 1043:1.0 1244:1.0 1248:1.0 1952:1.0 2309:1.0 3202:1.0 3232:1.0 3384:1.0 3385:1.0 3794:1.0 3805:1.0 4232:1.0 4348:1.0 5175:1.0 7337:1.0 8661:1.0 8666:1.0 8667:1.0 8677:1.0 8764:1.0 8765:1.0 8766:1.0 9024:1.0 9029:1.0 
0.03388128263461122 0.0 29:1.0 30:1.0 31:1.0 36:1.0 58:2.0 59:3.0 60:1.0 87:1.0 140:1.0 142:1.0 280:1.0 285:1.0 299:1.0 302:1.0 349:1.0 371:1.0 376:1.0 377:1.0 408:1.0 411:1.0 574:1.0 666:1.0 668:1.0 1244:1.0 1248:1.0 1944:1.0 1949:1.0 1950:1.0 1951:1.0 1952:1.0 2160:1.0 2162:1.0 2166:1.0 2309:1.0 3384:1.0 3385:1.0 3794:1.0 3805:1.0 4348:1.0 7337:1.0 8678:1.0 8679:1.0 8680:1.0 8681:1.0 9024:1.0 9025:1.0 9029:1.0 
0.01185358274074534 0.0 29:1.0 30:1.0 31:1.0 36:1.0 50:1.0 51:1.0 58:3.5 59:6.0 60:1.0 87:6.0 89:1.0 91:1.0 94:1.0 140:1.0 142:1.0 280:1.0 299:1.0 302:1.0 338:1.0 354:1.0 355:1.0 356:1.0 357:1.0 362:1.0 408:1.0 411:1.0 490:1.0 541:1.0 558:1.0 560:1.0 574:1.0 1244:1.0 1248:1.0 1976:1.0 2309:1.0 2919:1.0 3384:1.0 3385:1.0 3571:1.0 3794:1.0 3805:1.0 4219:1.0 4348:1.0 7337:1.0 8683:1.0 8684:1.0 8685:1.0 8686:1.0 8687:1.0 8688:1.0 9024:1.0 9026:1.0 9029:1.0 
0.05 0.02554613456527192 29:1.0 30:1.0 31:1.0 36:1.0 58:4.5 59:8.0 60:1.0 87:10.0 89:3.0 140:1.0 142:1.0 176:1.0 280:1.0 285:1.0 288:1.0 299:1.0 302:1.0 303:1.0 338:1.0 377:1.0 408:1.0 411:1.0 490:1.0 529:1.0 534:1.0 574:1.0 620:1.0 621:1.0 622:1.0 623:1.0 635:1.0 813:1.0 1224:1.0 1244:1.0 1248:1.0 1976:1.0 2309:1.0 2802:1.0 3194:1.0 3195:1.0 3384:1.0 3385:1.0 3794:1.0 3805:1.0 4348:1.0 4827:1.0 7337:1.0 8687:1.0 8688:1.0 8695:1.0 8835:1.0 8836:1.0 8837:1.0 8838:1.0 9024:1.0 9027:1.0 9029:1.0 
0.015032562542462899 0.0 27:1.0 28:1.0 29:1.0 30:1.0 31:2.0 36:1.0 50:1.0 51:1.0 58:1.5 59:2.0 60:1.0 127:1.0 140:1.0 142:1.0 147:1.0 149:1.0 159:1.0 285:1.0 352:1.0 377:1.0 381:1.0 460:1.0 892:1.0 913:1.0 1016:1.0 3194:1.0 3382:1.0 4161:1.0 7110:1.0 7112:1.0 7113:1.0 7114:1.0 7120:1.0 7121:1.0 7172:1.0 7213:1.0 9142:1.0 9143:1.0 9144:1.0 9145:1.0 9146:1.0 9147:1.0 9148:1.0 9149:1.0 9150:1.0 9151:1.0 
0.03275023027253316 0.0 29:1.0 30:1.0 31:1.0 33:1.0 36:1.0 50:1.0 51:1.0 58:3.0 59:3.0 60:3.0 87:2.0 91:1.0 94:1.0 123:1.0 407:1.0 408:1.0 409:1.0 411:1.0 560:1.0 574:1.0 642:1.0 1931:1.0 1932:1.0 1935:1.0 1943:1.0 2527:1.0 3242:1.0 3243:1.0 3601:1.0 4378:1.0 4388:1.0 5098:1.0 9378:1.0 9379:1.0 9380:1.0 9381:1.0 9382:1.0 9383:1.0 9384:1.0 9385:1.0 9386:1.0 9387:1.0 9388:1.0 9400:1.0 9401:1.0 9402:1.0 9403:1.0 9404:1.0 9405:1.0 9406:1.0 9407:1.0 
0.021482256893058965 0.004058576297349153 29:1.0 30:1.0 31:1.0 33:1.0 36:1.0 58:4.0 59:5.0 60:3.0 67:1.0 87:5.0 89:1.0 91:1.0 123:1.0 275:1.0 371:1.0 407:1.0 408:1.0 409:1.0 411:1.0 544:1.0 560:1.0 574:1.0 642:1.0 1943:1.0 1944:1.0 1955:1.0 1958:1.0 1961:1.0 1962:1.0 1963:1.0 2527:1.0 3242:1.0 3243:1.0 3612:1.0 3623:1.0 4378:1.0 4388:1.0 5098:1.0 9390:1.0 9391:1.0 9392:1.0 9393:1.0 9394:1.0 9395:1.0 9396:1.0 9397:1.0 9398:1.0 9400:1.0 9401:1.0 9402:1.0 9403:1.0 9404:1.0 9405:1.0 9406:1.0 9408:1.0 
0.007235966911069409 0.007672749138042168 29:2.0 30:1.0 31:1.0 36:1.0 50:1.0 51:1.0 58:3.5 59:5.0 60:2.0 67:1.0 87:6.0 123:1.0 285:1.0 339:1.0 344:1.0 348:1.0 352:1.0 370:1.0 377:1.0 456:1.0 813:1.0 2802:1.0 3194:1.0 3243:1.0 3351:1.0 3450:1.0 3645:1.0 3765:1.0 3766:1.0 3768:1.0 3880:1.0 4007:1.0 4014:1.0 4027:1.0 4029:1.0 4031:1.0 4295:1.0 4296:1.0 4297:1.0 4298:1.0 4416:1.0 4626:1.0 4627:1.0 4827:1.0 4934:1.0 5168:1.0 7172:1.0 8804:1.0 9439:1.0 9440:1.0 9442:1.0 9443:1.0 9445:1.0 9446:1.0 9447:1.0 
0.0032682029410620057 0.0 29:2.0 30:1.0 31:1.0 33:1.0 36:1.0 58:2.0 59:2.0 60:2.0 87:2.0 316:1.0 317:1.0 342:1.0 344:1.0 348:1.0 371:1.0 675:1.0 1224:1.0 1231:1.0 1944:1.0 3765:1.0 3768:1.0 3812:1.0 3878:1.0 3879:1.0 3880:1.0 3941:1.0 3981:1.0 4031:1.0 4033:1.0 4525:1.0 8684:1.0 8686:1.0 8688:1.0 9047:1.0 9484:1.0 9485:1.0 9486:1.0 9487:1.0 9488:1.0 9489:1.0 9490:1.0 9491:1.0 9492:1.0 9493:1.0 9494:1.0 9495:1.0 9496:1.0 9497:1.0 9498:1.0 9499:1.0 9500:1.0 9501:1.0 9502:1.0 9503:1.0 9504:1.0 9505:1.0 9506:1.0 
0.0 0.0024894207788017987 30:1.0 33:1.0 36:1.0 58:3.0 59:4.0 60:2.0 87:2.0 121:1.0 221:1.0 371:1.0 400:1.0 405:1.0 406:1.0 407:1.0 408:1.0 409:1.0 411:1.0 412:1.0 1944:1.0 2018:1.0 2468:1.0 2470:1.0 3242:1.0 3243:1.0 3382:1.0 3673:1.0 3678:1.0 3710:1.0 4549:1.0 4653:1.0 4654:1.0 4655:1.0 5256:1.0 5257:1.0 5260:1.0 5333:1.0 5820:1.0 5821:1.0 5822:1.0 5823:1.0 5825:1.0 9509:1.0 9510:1.0 9511:1.0 9512:1.0 9513:1.0 9514:1.0 9515:1.0 9516:1.0 9517:1.0 
0.03550549956333848 0.007079986342549466 30:1.0 31:1.0 33:1.0 36:1.0 37:1.0 38:1.0 58:7.5 59:12.0 60:3.0 87:1.0 407:1.0 408:1.0 409:1.0 411:1.0 574:1.0 2989:1.0 3118:1.0 3119:1.0 3120:1.0 3121:1.0 3203:1.0 3242:1.0 3243:1.0 3245:1.0 3520:1.0 3542:1.0 3634:1.0 9614:1.0 9615:1.0 9616:1.0 9617:1.0 9618:1.0 9619:1.0 9620:1.0 9621:1.0 9622:1.0 9623:1.0 9624:1.0 9625:1.0 9627:1.0 9628:1.0 9629:1.0 9630:1.0 9631:1.0 9632:1.0 9633:1.0 9634:1.0 9661:1.0 9662:1.0 9663:1.0 9664:1.0 9665:1.0 9666:1.0 
0.0071204448208591255 0.010110310247966086 27:1.0 28:1.0 29:1.0 30:1.0 31:1.0 32:1.0 33:1.0 36:1.0 40:1.0 43:1.0 50:1.0 51:1.0 58:1.5 59:2.0 60:1.0 140:1.0 142:1.0 147:1.0 149:1.0 323:1.0 324:1.0 471:1.0 569:1.0 1009:1.0 1453:1.0 2861:1.0 3026:1.0 5986:1.0 5989:1.0 7729:1.0 9740:1.0 9783:1.0 9784:1.0 9785:1.0 9786:1.0 9787:1.0 9788:1.0 9789:1.0 9790:1.0 9838:1.0 9839:1.0 9840:1.0 9841:1.0 9842:1.0 9843:1.0 9844:1.0 9845:1.0 9846:1.0 9847:1.0 
0.05 0.0 30:1.0 31:1.0 36:1.0 50:1.0 51:1.0 53:1.0 56:1.0 58:2.0 59:2.0 60:2.0 77:1.0 87:4.0 127:1.0 135:1.0 140:1.0 142:1.0 156:1.0 157:1.0 158:1.0 159:1.0 160:1.0 320:1.0 335:1.0 337:1.0 868:1.0 869:1.0 870:1.0 871:1.0 874:1.0 876:1.0 879:1.0 939:1.0 1774:1.0 1891:1.0 2832:1.0 3026:1.0 3159:1.0 7729:1.0 9700:1.0 9701:1.0 9706:1.0 9707:1.0 9708:1.0 9872:1.0 9873:1.0 9883:1.0 9884:1.0 9885:1.0 
0.013800534795570482 0.0 27:1.0 28:1.0 29:1.0 30:1.0 31:4.0 33:1.0 36:1.0 50:1.0 51:1.0 53:1.0 56:1.0 58:1.0 59:1.0 60:1.0 127:1.0 135:1.0 140:1.0 142:1.0 147:1.0 149:1.0 159:1.0 160:1.0 666:1.0 1015:1.0 1030:1.0 1043:1.0 1701:1.0 1708:1.0 1774:1.0 1783:1.0 2270:1.0 2832:1.0 7388:1.0 9733:1.0 9734:1.0 9735:1.0 9736:1.0 9737:1.0 9738:1.0 9739:1.0 9740:1.0 9741:1.0 9744:1.0 9745:1.0 9746:1.0 9838:1.0 9839:1.0 9840:1.0 9916:1.0 9917:1.0 9918:1.0 9919:1.0 9920:1.0 9921:1.0 
0.05 0.0 29:1.0 30:1.0 31:2.0 36:1.0 50:1.0 51:1.0 53:1.0 56:1.0 58:1.5 59:2.0 60:1.0 77:1.0 87:1.0 115:1.0 120:1.0 127:1.0 135:1.0 140:1.0 142:1.0 159:1.0 160:1.0 666:1.0 1783:1.0 1784:1.0 2832:1.0 7388:1.0 8679:1.0 9735:1.0 9736:1.0 9744:1.0 9745:1.0 9808:1.0 9809:1.0 9810:1.0 9811:1.0 9812:1.0 9813:1.0 9814:1.0 9838:1.0 9839:1.0 9840:1.0 9916:1.0 9917:1.0 9918:1.0 9919:1.0 9920:1.0 9921:1.0 9922:1.0 
0.03004118445450121 0.0 8:1.0 30:1.0 31:2.0 36:1.0 58:2.0 59:2.0 60:2.0 67:1.0 68:1.0 77:1.0 87:8.0 89:2.0 123:1.0 180:1.0 200:1.0 316:1.0 371:1.0 490:2.0 1014:1.0 1142:1.0 1150:1.0 1783:1.0 1784:1.0 1931:1.0 1935:1.0 1943:2.0 1944:1.0 3188:1.0 3189:1.0 3193:1.0 3232:1.0 6199:1.0 6209:1.0 6494:1.0 6496:1.0 6740:1.0 6741:1.0 6742:1.0 6743:1.0 6744:1.0 6745:1.0 6752:1.0 6759:1.0 6760:1.0 6761:1.0 6764:1.0 6765:1.0 6766:1.0 6767:1.0 6768:1.0 6769:1.0 6770:1.0 6771:1.0 6772:1.0 6773:1.0 
0.006645353372588634 0.0010873244594073479 8:1.0 32:1.0 36:1.0 77:1.0 87:6.0 121:1.0 123:1.0 180:1.0 316:1.0 371:1.0 490:1.0 666:1.0 1142:1.0 1150:1.0 1748:1.0 1783:1.0 1784:1.0 1931:1.0 1935:1.0 1943:1.0 1944:1.0 2012:1.0 2018:1.0 2075:1.0 2277:1.0 2278:1.0 2279:1.0 2280:1.0 10521:1.0 10522:1.0 10523:1.0 10524:1.0 10525:1.0 10526:1.0 10527:1.0 10528:1.0 10529:1.0 10530:1.0 10531:1.0 10532:1.0 10533:1.0 
0.05 7.59086409457676E-4 8:1.0 32:1.0 36:1.0 67:1.0 68:1.0 77:1.0 87:9.0 89:1.0 121:1.0 123:1.0 316:1.0 371:1.0 490:2.0 1150:1.0 1783:1.0 1784:1.0 1931:1.0 1935:1.0 1943:2.0 1944:1.0 2018:1.0 2031:1.0 10521:1.0 10522:1.0 10523:1.0 10524:1.0 10525:1.0 10526:1.0 10527:1.0 10529:1.0 10530:1.0 10534:1.0 10535:1.0 10536:1.0 10537:1.0 10538:1.0 10539:1.0 
0.03789879351545985 0.0 8:1.0 30:1.0 32:1.0 36:1.0 50:1.0 51:1.0 67:1.0 77:1.0 87:5.0 123:1.0 316:1.0 490:1.0 605:1.0 1248:1.0 1783:1.0 1784:1.0 1943:1.0 2055:1.0 2103:1.0 2106:1.0 2109:1.0 2702:1.0 2705:1.0 3188:1.0 3189:1.0 3193:1.0 3360:1.0 6494:1.0 6496:1.0 6916:1.0 6917:1.0 6918:1.0 6919:1.0 6920:1.0 6921:1.0 6922:1.0 6923:1.0 6924:1.0 6925:1.0 6926:1.0 
0.043215405093159596 0.0054314754135349735 8:1.0 31:1.0 33:1.0 36:1.0 77:1.0 87:2.0 121:1.0 123:1.0 180:1.0 316:1.0 371:1.0 666:1.0 1014:1.0 1142:1.0 1783:1.0 1784:1.0 1944:1.0 2051:1.0 2054:1.0 2861:1.0 6199:1.0 6209:1.0 6490:1.0 6493:1.0 6963:1.0 6964:1.0 6965:1.0 6966:1.0 6967:1.0 6968:1.0 6969:1.0 6970:1.0 6971:1.0 6972:1.0 6973:1.0 6974:1.0 6975:1.0 6976:1.0 6977:1.0 6978:1.0 
0.021654028875196133 0.0 8:1.0 30:1.0 31:1.0 36:1.0 50:1.0 51:1.0 53:1.0 56:1.0 58:2.0 59:3.0 60:1.0 67:1.0 68:1.0 77:1.0 87:5.0 89:1.0 123:1.0 135:1.0 316:1.0 490:1.0 1150:1.0 1783:1.0 1784:1.0 1931:1.0 1935:1.0 1943:1.0 2660:1.0 3188:1.0 3189:1.0 3193:1.0 6199:1.0 6209:1.0 6494:1.0 6496:1.0 6740:1.0 6741:1.0 6742:1.0 6743:1.0 6752:1.0 6770:1.0 6979:1.0 6980:1.0 6981:1.0 6982:1.0 6983:1.0 6984:1.0 6985:1.0 6986:1.0 6987:1.0 6988:1.0 6989:1.0 
0.011806605238391985 0.0 29:2.0 31:1.0 36:1.0 50:1.0 51:1.0 58:4.5 59:6.0 60:3.0 67:1.0 87:5.0 121:1.0 123:1.0 280:1.0 285:1.0 299:1.0 302:1.0 352:1.0 377:1.0 408:1.0 411:1.0 412:1.0 816:1.0 1943:1.0 2527:1.0 3478:1.0 3700:1.0 3702:1.0 3766:1.0 3767:1.0 3887:1.0 3984:1.0 3985:1.0 3986:1.0 3987:1.0 4185:1.0 4411:1.0 4412:1.0 4415:1.0 5168:1.0 9958:1.0 9964:1.0 9965:1.0 10972:1.0 10973:1.0 10974:1.0 10975:1.0 10977:1.0 10979:1.0 10980:1.0 10981:1.0 10982:1.0 10983:1.0 10984:1.0 10985:1.0 10986:1.0 10987:1.0 10988:1.0 10989:1.0 
0.030773505335707777 0.0 29:1.0 32:1.0 36:1.0 50:1.0 51:1.0 58:6.0 59:8.0 60:4.0 67:1.0 87:9.0 121:1.0 123:1.0 282:1.0 284:1.0 285:1.0 289:1.0 337:1.0 352:1.0 400:1.0 405:1.0 406:1.0 425:1.0 430:1.0 431:1.0 432:1.0 434:1.0 454:1.0 490:1.0 497:1.0 599:1.0 873:1.0 874:1.0 876:1.0 2018:1.0 2468:1.0 2470:1.0 3700:1.0 3702:1.0 3993:1.0 3994:1.0 4185:1.0 4218:1.0 4527:1.0 4528:1.0 4602:1.0 5124:1.0 5125:1.0 5128:1.0 5317:1.0 10991:1.0 10993:1.0 10994:1.0 10996:1.0 10997:1.0 10998:1.0 10999:1.0 11000:1.0 11001:1.0 
0.05 0.030859493254828296 29:2.0 30:1.0 31:1.0 33:2.0 36:1.0 58:4.5 59:6.0 60:3.0 67:1.0 87:14.0 89:1.0 123:1.0 176:1.0 211:1.0 282:1.0 283:1.0 285:1.0 288:1.0 303:1.0 337:1.0 339:1.0 342:1.0 377:1.0 408:1.0 411:1.0 474:1.0 488:1.0 490:1.0 497:1.0 574:1.0 672:1.0 678:1.0 679:1.0 2811:1.0 3243:1.0 3287:1.0 3528:1.0 3531:1.0 3634:1.0 3757:1.0 3794:1.0 3805:1.0 3848:1.0 3850:1.0 3857:1.0 3872:1.0 3873:1.0 3874:1.0 3876:1.0 3890:1.0 3993:1.0 4218:1.0 5175:1.0 5197:1.0 5198:1.0 9812:1.0 10994:1.0 11002:1.0 11003:1.0 11004:1.0 11005:1.0 11006:1.0 11007:1.0 11009:1.0 11010:1.0 11011:1.0 11012:1.0 
0.04620999293471075 0.012597968792630893 29:3.0 30:1.0 33:1.0 36:1.0 50:1.0 51:1.0 58:3.5 59:5.0 60:2.0 87:13.0 89:1.0 123:1.0 248:1.0 283:2.0 316:1.0 317:1.0 338:1.0 339:1.0 344:1.0 348:1.0 551:1.0 811:1.0 813:1.0 2149:1.0 2650:1.0 3351:1.0 3765:1.0 3768:1.0 3791:1.0 3794:1.0 3805:1.0 3935:1.0 3976:1.0 4012:1.0 4014:1.0 4017:1.0 4018:1.0 4019:1.0 4020:1.0 4027:1.0 4029:1.0 4031:1.0 4416:1.0 4500:1.0 4562:1.0 4913:1.0 4921:1.0 5220:1.0 5521:1.0 5563:1.0 11026:1.0 11027:1.0 11028:1.0 11029:1.0 11030:1.0 11031:1.0 11032:1.0 11033:1.0 11034:1.0 11035:1.0 11036:1.0 11037:1.0 
0.003010352790901042 0.0 29:3.0 30:1.0 33:1.0 36:1.0 50:1.0 51:1.0 58:4.0 59:6.0 60:2.0 67:1.0 87:7.0 123:1.0 316:1.0 317:1.0 338:1.0 339:1.0 342:1.0 344:1.0 348:1.0 551:1.0 2149:1.0 2304:1.0 2650:1.0 3152:1.0 3351:1.0 3765:1.0 3768:1.0 3794:1.0 3805:1.0 3935:1.0 4014:1.0 4017:1.0 4018:1.0 4019:1.0 4020:1.0 4027:1.0 4029:1.0 4031:1.0 4416:1.0 4500:1.0 4562:1.0 4913:1.0 4921:1.0 5521:1.0 5563:1.0 10923:1.0 11027:1.0 11028:1.0 11030:1.0 11032:1.0 11033:1.0 11034:1.0 11035:1.0 11036:1.0 11041:1.0 11042:1.0 11043:1.0 
0.02766975006461587 0.0035954773613075058 29:2.0 30:1.0 31:1.0 33:6.0 36:1.0 58:5.5 59:6.0 60:5.0 67:1.0 87:13.0 123:1.0 176:1.0 253:1.0 261:1.0 262:1.0 263:1.0 265:1.0 275:1.0 282:1.0 283:1.0 303:1.0 337:1.0 386:1.0 400:1.0 405:1.0 406:1.0 407:1.0 408:1.0 409:1.0 411:1.0 465:1.0 474:1.0 488:1.0 490:1.0 497:1.0 574:1.0 877:1.0 892:1.0 913:1.0 999:1.0 1016:1.0 1119:1.0 3225:2.0 3233:2.0 3242:1.0 3243:1.0 3287:1.0 3298:1.0 3528:1.0 3531:1.0 3613:1.0 3774:1.0 3848:1.0 3850:1.0 3856:1.0 3857:2.0 3874:1.0 3993:1.0 4218:1.0 4543:1.0 9372:1.0 10931:1.0 10938:1.0 10994:1.0 11004:1.0 11049:1.0 11054:1.0 11129:1.0 11130:1.0 11131:1.0 11132:1.0 
0.05 0.0 29:2.0 30:1.0 31:1.0 33:2.0 36:1.0 58:5.5 59:6.0 60:5.0 67:1.0 87:19.0 123:1.0 176:1.0 253:1.0 261:1.0 262:1.0 263:1.0 265:1.0 275:1.0 282:1.0 283:1.0 303:1.0 337:1.0 338:2.0 386:1.0 400:1.0 405:1.0 406:1.0 407:1.0 408:1.0 409:1.0 411:1.0 465:1.0 474:1.0 488:1.0 490:1.0 497:1.0 574:1.0 877:1.0 892:1.0 913:1.0 999:1.0 3242:1.0 3243:1.0 3287:1.0 3528:1.0 3531:1.0 3571:1.0 3637:1.0 3753:1.0 3756:1.0 3757:1.0 3848:1.0 3850:1.0 3857:1.0 3872:1.0 3873:1.0 3874:1.0 3993:1.0 4218:1.0 4543:1.0 4545:1.0 9441:1.0 10931:1.0 10938:1.0 10994:1.0 11004:1.0 11049:1.0 11129:1.0 11131:1.0 11132:1.0 11133:1.0 
0.046624797682840106 6.115640315601101E-4 29:1.0 30:1.0 36:1.0 37:1.0 38:1.0 58:2.5 59:3.0 60:2.0 87:1.0 127:1.0 159:1.0 180:1.0 460:1.0 596:1.0 1003:1.0 3033:1.0 3382:1.0 3550:1.0 3765:1.0 3768:1.0 3967:1.0 3997:1.0 3998:1.0 3999:1.0 4135:1.0 5607:1.0 7717:1.0 8007:1.0 10778:1.0 11172:1.0 11173:1.0 11186:1.0 11187:1.0 11188:1.0 11189:1.0 11190:1.0 11191:1.0 11192:1.0 11193:1.0 11194:1.0 11195:1.0 11196:1.0 11198:1.0 11199:1.0 11200:1.0 11201:1.0 11202:1.0 11203:1.0 11204:1.0 11205:1.0 11206:1.0 11207:1.0 11208:1.0 
0.0 0.009755415463040635 29:2.0 33:1.0 36:1.0 50:1.0 51:1.0 58:3.5 59:5.0 60:2.0 67:1.0 87:2.0 121:1.0 123:1.0 221:1.0 224:1.0 400:1.0 405:1.0 406:1.0 425:1.0 426:1.0 429:1.0 430:1.0 431:1.0 432:1.0 434:1.0 435:1.0 1354:1.0 3700:1.0 3702:1.0 3878:1.0 3879:1.0 3880:1.0 4549:1.0 5258:1.0 5260:1.0 5345:1.0 5820:1.0 5821:1.0 5822:1.0 5823:1.0 5825:1.0 9513:1.0 11210:1.0 11211:1.0 11212:1.0 11213:1.0 11214:1.0 11215:1.0 11216:1.0 11241:1.0 11242:1.0 11243:1.0 11244:1.0 
0.0300577762939397 0.007673739929510487 29:2.0 30:1.0 33:1.0 36:1.0 50:1.0 51:1.0 58:2.0 59:2.0 60:2.0 87:1.0 316:1.0 317:1.0 339:1.0 344:1.0 348:1.0 3238:1.0 3351:1.0 3382:1.0 3549:1.0 3550:1.0 3765:1.0 3768:1.0 3935:1.0 3967:1.0 4010:1.0 4012:1.0 4014:1.0 4015:1.0 4017:1.0 4018:1.0 4019:1.0 4020:1.0 4023:1.0 4027:1.0 4028:1.0 4029:1.0 4031:1.0 4032:1.0 4033:1.0 4034:1.0 4035:1.0 4036:1.0 4037:1.0 4416:1.0 11312:1.0 11313:1.0 11314:1.0 11315:1.0 
0.0 0.002687117976961098 29:1.0 33:1.0 36:1.0 50:1.0 51:1.0 58:3.5 59:5.0 60:2.0 87:2.0 121:1.0 221:1.0 224:1.0 400:1.0 405:1.0 406:1.0 425:1.0 426:1.0 429:1.0 430:1.0 431:1.0 432:1.0 434:1.0 2332:1.0 3238:1.0 3700:1.0 3702:1.0 3929:1.0 3964:1.0 3965:1.0 4549:1.0 4602:1.0 4613:1.0 5258:1.0 5260:1.0 5280:1.0 5281:1.0 5345:1.0 5820:1.0 5821:1.0 5822:1.0 5823:1.0 5825:1.0 9513:1.0 9639:1.0 11210:1.0 11211:1.0 11212:1.0 11215:1.0 11216:1.0 11333:1.0 
0.0 0.005721827489121124 30:1.0 33:1.0 36:1.0 50:1.0 51:1.0 58:2.0 59:2.0 60:2.0 67:1.0 87:1.0 121:1.0 215:1.0 218:1.0 219:1.0 221:1.0 224:1.0 342:1.0 400:1.0 405:1.0 406:1.0 426:1.0 429:1.0 473:1.0 733:1.0 3575:1.0 3576:1.0 3905:1.0 4409:1.0 4549:1.0 5256:1.0 5257:1.0 5258:1.0 5260:1.0 5289:1.0 5820:1.0 5821:1.0 5822:1.0 5823:1.0 5825:1.0 11354:1.0 11355:1.0 11356:1.0 11357:1.0 11358:1.0 11359:1.0 11360:1.0 11361:1.0 11362:1.0 11363:1.0 11364:1.0 11365:1.0 11366:1.0 
0.029571996611156674 0.0 30:1.0 36:1.0 37:1.0 38:1.0 58:3.0 59:4.0 60:2.0 87:1.0 123:1.0 342:1.0 382:1.0 408:1.0 411:1.0 574:1.0 717:1.0 919:1.0 932:1.0 1198:1.0 3202:1.0 3225:1.0 3233:1.0 4135:2.0 5924:1.0 5931:1.0 5941:1.0 5942:1.0 5957:1.0 5958:1.0 7381:1.0 11455:1.0 11457:1.0 11458:1.0 11459:1.0 11460:1.0 11461:1.0 11462:1.0 11463:1.0 11464:1.0 11465:1.0 11466:1.0 11467:1.0 11468:1.0 11469:1.0 11470:1.0 11471:1.0 11472:1.0 11473:1.0 11474:1.0 11475:1.0 11476:1.0 
0.04540713499294745 0.0074057572886975205 30:1.0 36:1.0 37:1.0 38:1.0 58:2.0 59:2.0 60:2.0 87:4.0 89:1.0 123:1.0 248:1.0 316:1.0 317:1.0 338:1.0 384:1.0 397:1.0 855:1.0 859:1.0 932:1.0 1534:1.0 2732:1.0 2743:1.0 4135:1.0 5924:1.0 5950:1.0 9225:1.0 9226:1.0 9997:1.0 9998:1.0 10000:1.0 10001:1.0 10067:1.0 11446:1.0 11450:1.0 11453:1.0 11455:1.0 11477:1.0 11478:1.0 11479:1.0 11488:1.0 11491:1.0 11492:1.0 11493:1.0 11494:1.0 11495:1.0 11496:1.0 11497:1.0 11498:1.0 11499:1.0 11500:1.0 
0.0019547444045579405 0.008092853983861704 29:1.0 36:1.0 37:1.0 38:1.0 58:3.0 59:4.0 60:2.0 87:1.0 121:1.0 123:1.0 248:1.0 425:1.0 430:1.0 431:1.0 432:1.0 434:1.0 435:1.0 932:1.0 1534:1.0 4135:1.0 4401:1.0 5924:1.0 5950:1.0 9433:1.0 10001:1.0 10067:1.0 11437:1.0 11446:1.0 11449:1.0 11450:1.0 11453:1.0 11455:1.0 11491:1.0 11492:1.0 11493:1.0 11494:1.0 11495:1.0 11496:1.0 11499:1.0 11501:1.0 11502:1.0 11503:1.0 11504:1.0 11505:1.0 11506:1.0 11507:1.0 11508:1.0 11509:1.0 
0.001902020851395757 0.010189710265981455 29:2.0 30:1.0 36:1.0 37:1.0 38:1.0 58:2.0 59:2.0 60:2.0 67:1.0 87:1.0 123:1.0 733:1.0 855:1.0 859:1.0 932:1.0 1198:1.0 2811:1.0 3550:1.0 3765:1.0 3766:1.0 3768:1.0 3880:1.0 4135:1.0 5168:1.0 5313:1.0 5814:1.0 5924:1.0 5931:1.0 5941:1.0 5942:1.0 5954:1.0 5957:1.0 5958:1.0 9445:1.0 10000:1.0 11455:1.0 11469:1.0 11471:1.0 11520:1.0 11521:1.0 11522:1.0 11523:1.0 11524:1.0 11525:1.0 11526:1.0 11527:1.0 11528:1.0 11529:1.0 11530:1.0 
0.05 0.012954253098746546 30:1.0 31:2.0 36:1.0 53:1.0 58:2.0 59:3.0 60:1.0 87:2.0 101:1.0 127:1.0 135:1.0 159:1.0 160:1.0 176:1.0 303:1.0 416:1.0 497:1.0 675:1.0 873:1.0 997:1.0 1004:1.0 1115:1.0 1118:1.0 1120:1.0 1453:1.0 1486:1.0 2876:1.0 2877:1.0 3016:1.0 4344:1.0 4345:1.0 5471:1.0 5484:1.0 5485:1.0 5486:1.0 5498:1.0 5595:1.0 11716:1.0 11717:1.0 11718:1.0 11719:1.0 11720:1.0 11721:1.0 11722:1.0 11723:1.0 11724:1.0 11725:1.0 11726:1.0 11727:1.0 11728:1.0 11729:1.0 11730:1.0 11731:1.0 
0.05 0.008004247745012034 30:2.0 31:2.0 36:1.0 37:1.0 38:1.0 58:2.0 59:3.0 60:1.0 87:1.0 127:1.0 159:1.0 160:1.0 180:1.0 484:1.0 489:1.0 497:1.0 666:1.0 778:1.0 789:1.0 1014:1.0 1115:1.0 1118:1.0 1120:1.0 3033:1.0 5481:1.0 5603:1.0 5605:1.0 5636:1.0 7717:1.0 10778:1.0 11732:1.0 11733:1.0 11734:1.0 11735:1.0 11736:1.0 11737:1.0 11738:1.0 11742:1.0 11743:1.0 11744:1.0 11746:1.0 11747:1.0 11748:1.0 11749:1.0 11750:1.0 11751:1.0 11752:1.0 11753:1.0 11754:1.0 11755:1.0 11756:1.0 11757:1.0 11758:1.0 
0.008007671789469716 0.0 29:2.0 30:1.0 32:1.0 33:2.0 36:1.0 37:1.0 38:1.0 58:4.0 59:4.0 60:4.0 87:3.0 280:1.0 285:1.0 289:1.0 349:1.0 407:1.0 408:1.0 409:1.0 411:1.0 574:1.0 2134:1.0 2160:1.0 2162:1.0 2220:1.0 3225:1.0 3233:1.0 3242:1.0 3243:1.0 3479:1.0 3520:1.0 3542:1.0 3675:1.0 3794:1.0 4011:1.0 4013:1.0 4401:1.0 4436:1.0 4650:1.0 5604:1.0 5606:1.0 5931:1.0 5941:1.0 5942:1.0 7689:1.0 10889:1.0 11801:1.0 11802:1.0 11803:1.0 11804:1.0 11805:1.0 11806:1.0 11807:1.0 11809:1.0 11810:1.0 11811:1.0 11820:1.0 11821:1.0 11822:1.0 11823:1.0 11824:1.0 11825:1.0 11826:1.0 
0.04364177578562202 0.0015507461735410086 29:2.0 30:1.0 31:3.0 36:1.0 37:1.0 38:1.0 58:4.0 59:4.0 60:4.0 67:1.0 87:10.0 89:2.0 123:1.0 280:1.0 285:1.0 338:1.0 349:1.0 377:1.0 407:1.0 408:1.0 409:1.0 411:1.0 574:1.0 1482:1.0 1702:1.0 2142:1.0 2149:1.0 2220:1.0 3242:1.0 3243:1.0 3520:1.0 3542:1.0 3675:1.0 3794:1.0 4011:1.0 4013:1.0 4401:1.0 4626:1.0 4627:1.0 4630:2.0 4650:1.0 5931:1.0 5941:1.0 5942:1.0 6226:1.0 6334:1.0 7689:1.0 10889:1.0 11816:1.0 11820:1.0 11821:1.0 11822:1.0 11823:1.0 11825:1.0 11829:1.0 11830:1.0 11831:1.0 11832:1.0 11833:1.0 11834:1.0 11835:1.0 11836:1.0 11837:1.0 11838:1.0 11839:1.0 11840:1.0 11841:1.0 11842:1.0 11843:1.0 
0.05 0.005227179210854498 27:1.0 28:1.0 30:1.0 31:1.0 33:1.0 36:1.0 50:1.0 51:1.0 58:1.5 59:2.0 60:1.0 127:1.0 159:1.0 160:1.0 285:1.0 352:1.0 377:1.0 789:1.0 1197:1.0 3061:1.0 3080:1.0 3081:1.0 3082:1.0 3083:1.0 3143:1.0 4313:1.0 4314:1.0 4315:1.0 5853:1.0 5855:1.0 10849:1.0 11977:1.0 11978:1.0 11979:1.0 11980:1.0 11984:1.0 11986:1.0 11987:1.0 11988:1.0 11989:1.0 12008:1.0 12009:1.0 12010:1.0 12011:1.0 12012:1.0 12013:1.0 12014:1.0 12015:1.0 12016:1.0 
0.0 0.002929663591235559 30:1.0 36:1.0 58:2.0 59:2.0 60:2.0 87:2.0 339:1.0 342:1.0 344:1.0 348:1.0 371:1.0 1944:1.0 2811:1.0 3351:1.0 3676:1.0 3690:1.0 3691:1.0 3692:1.0 4014:1.0 4027:1.0 4029:1.0 4031:1.0 4032:1.0 4033:1.0 4135:1.0 4422:1.0 4520:1.0 4913:1.0 4921:1.0 5313:1.0 9505:1.0 12055:1.0 12056:1.0 12057:1.0 12058:1.0 12059:1.0 12060:1.0 12061:1.0 12062:1.0 12063:1.0 12064:1.0 12065:1.0 12066:1.0 12067:1.0 12068:1.0 12069:1.0 12070:1.0 
0.012731067158916786 0.0 29:2.0 30:1.0 31:1.0 36:1.0 50:1.0 51:1.0 58:4.0 59:6.0 60:2.0 87:9.0 89:1.0 123:1.0 211:1.0 256:1.0 280:1.0 283:1.0 285:1.0 316:1.0 317:1.0 344:1.0 348:1.0 349:1.0 350:1.0 352:1.0 377:1.0 456:1.0 521:1.0 606:1.0 892:1.0 913:1.0 2488:1.0 3062:1.0 3065:1.0 3068:1.0 3382:1.0 3701:1.0 3765:1.0 3768:1.0 3984:1.0 3985:1.0 3986:1.0 3987:1.0 4008:1.0 4031:1.0 4308:1.0 4407:1.0 5094:1.0 5126:1.0 9335:1.0 12077:1.0 12078:1.0 12079:1.0 12080:1.0 12081:1.0 12082:1.0 12083:1.0 12084:1.0 12085:1.0 12086:1.0 12087:1.0 
0.04745331485029614 0.0 8:1.0 29:2.0 30:1.0 31:1.0 36:1.0 50:1.0 51:1.0 53:1.0 56:1.0 77:1.0 87:2.0 135:1.0 316:1.0 1783:1.0 1784:1.0 2861:1.0 3080:1.0 3081:1.0 3185:1.0 3262:1.0 3938:1.0 3939:1.0 4056:1.0 4057:1.0 4366:1.0 4385:1.0 5189:1.0 5190:1.0 5191:1.0 5192:1.0 12035:1.0 12036:1.0 12144:1.0 12145:1.0 12146:1.0 12147:1.0 12148:1.0 12149:1.0 12150:1.0 
0.006512519193373708 0.0 30:1.0 32:1.0 36:1.0 50:1.0 51:1.0 58:3.0 59:3.0 60:3.0 67:1.0 87:5.0 123:1.0 285:1.0 289:1.0 352:1.0 370:1.0 373:1.0 408:1.0 411:1.0 574:1.0 3180:1.0 3205:1.0 3243:1.0 3861:1.0 3921:1.0 4004:1.0 4006:1.0 4007:1.0 4415:1.0 4438:1.0 4527:1.0 4528:1.0 5124:1.0 5125:1.0 12225:1.0 12226:1.0 12227:1.0 12228:1.0 12229:1.0 12230:1.0 12231:1.0 12232:1.0 12233:1.0 12234:1.0 12235:1.0 12236:1.0 12237:1.0 12238:1.0 12239:1.0 12240:1.0 12241:1.0 
0.01954240383680738 0.0 29:2.0 30:1.0 36:1.0 58:2.0 59:3.0 60:1.0 87:2.0 123:1.0 256:1.0 304:1.0 305:1.0 306:1.0 308:1.0 339:1.0 371:1.0 846:1.0 1944:1.0 3243:1.0 3765:1.0 3768:1.0 3794:1.0 3805:1.0 3812:1.0 3887:1.0 3999:1.0 4023:1.0 4028:1.0 4032:1.0 4033:1.0 4135:1.0 4222:1.0 4223:1.0 4233:1.0 5145:1.0 8676:1.0 9202:1.0 9505:1.0 11138:1.0 12052:1.0 12067:1.0 12069:1.0 12255:1.0 12256:1.0 12257:1.0 12258:1.0 12259:1.0 12260:1.0 12261:1.0 12262:1.0 12263:1.0 12264:1.0 12265:1.0 12266:1.0 
0.05 0.007423947523972323 2:1.0 4:1.0 29:2.0 30:1.0 32:1.0 33:3.0 36:1.0 77:1.0 87:3.0 176:1.0 220:1.0 221:1.0 303:1.0 342:1.0 473:1.0 877:1.0 1016:1.0 1117:1.0 1119:1.0 1774:1.0 1783:1.0 1784:1.0 3225:1.0 3233:1.0 3546:1.0 3548:1.0 3574:1.0 3774:1.0 3832:1.0 3851:1.0 3856:1.0 3857:1.0 3922:1.0 4552:1.0 4553:1.0 5190:1.0 5191:1.0 5192:1.0 5195:1.0 5304:1.0 5306:1.0 5308:1.0 12369:1.0 12370:1.0 12371:1.0 12372:1.0 12373:1.0 12374:1.0 12375:1.0 
0.02490413519354153 0.0 29:3.0 31:1.0 36:1.0 50:1.0 51:1.0 58:2.0 59:2.0 60:2.0 87:2.0 121:1.0 123:1.0 192:1.0 203:1.0 208:1.0 210:1.0 212:1.0 213:1.0 214:1.0 215:1.0 216:1.0 218:1.0 219:1.0 220:1.0 221:1.0 222:1.0 224:1.0 225:1.0 256:1.0 471:1.0 895:1.0 906:1.0 1198:1.0 3080:1.0 3081:1.0 3185:1.0 3700:1.0 3702:1.0 3766:1.0 3880:1.0 3938:1.0 3939:1.0 4485:1.0 4487:1.0 4488:1.0 5168:1.0 5313:1.0 5345:1.0 5759:1.0 5829:1.0 12144:1.0 12213:1.0 12379:1.0 12380:1.0 12381:1.0 12382:1.0 12384:1.0 
0.03883251149401102 0.0 29:3.0 32:1.0 36:1.0 50:1.0 51:1.0 58:3.0 59:3.0 60:3.0 67:1.0 87:7.0 89:1.0 121:1.0 123:1.0 192:1.0 208:1.0 210:1.0 212:1.0 213:1.0 214:1.0 215:1.0 216:1.0 218:1.0 219:1.0 285:1.0 289:1.0 352:1.0 370:1.0 373:1.0 471:1.0 895:1.0 906:1.0 1198:1.0 3700:1.0 3702:1.0 3766:1.0 3880:1.0 4007:1.0 4411:1.0 4412:1.0 4415:1.0 4438:1.0 4488:1.0 4497:1.0 4527:1.0 4528:1.0 4626:1.0 4627:1.0 5124:1.0 5125:1.0 5168:1.0 5313:1.0 5829:1.0 12144:1.0 12235:1.0 12240:1.0 12380:1.0 12381:1.0 12382:1.0 12385:1.0 12386:1.0 12387:1.0 
0.006777035230257052 0.0 29:2.0 31:1.0 36:1.0 50:1.0 51:1.0 58:3.5 59:5.0 60:2.0 87:2.0 121:1.0 123:1.0 192:1.0 203:1.0 208:1.0 210:1.0 212:1.0 213:1.0 220:1.0 221:1.0 222:1.0 224:1.0 225:1.0 256:1.0 425:1.0 430:1.0 431:1.0 432:1.0 434:1.0 3080:1.0 3081:1.0 3185:1.0 3262:1.0 3700:1.0 3702:1.0 3880:1.0 3938:1.0 3939:1.0 4485:1.0 4487:1.0 4488:1.0 4602:1.0 5345:1.0 5759:1.0 5828:1.0 5829:1.0 12144:1.0 12213:1.0 12379:1.0 12381:1.0 12388:1.0 12389:1.0 12390:1.0 12391:1.0 
0.02124368273533765 0.0 29:2.0 32:1.0 36:1.0 50:1.0 51:1.0 58:4.5 59:6.0 60:3.0 67:1.0 87:7.0 89:1.0 121:1.0 123:1.0 192:1.0 208:1.0 210:1.0 212:1.0 213:1.0 285:1.0 289:1.0 352:1.0 370:1.0 373:1.0 425:1.0 430:1.0 431:1.0 432:1.0 434:1.0 3262:1.0 3700:1.0 3702:1.0 3880:1.0 4007:1.0 4411:1.0 4412:1.0 4415:1.0 4438:1.0 4488:1.0 4497:1.0 4527:1.0 4528:1.0 4602:1.0 4626:1.0 4627:1.0 5124:1.0 5125:1.0 5828:1.0 5829:1.0 12144:1.0 12235:1.0 12240:1.0 12381:1.0 12385:1.0 12386:1.0 12388:1.0 12389:1.0 12390:1.0 12392:1.0 
0.018421106054282287 0.0 30:1.0 31:1.0 36:1.0 50:1.0 51:1.0 58:3.5 59:5.0 60:2.0 87:8.0 127:1.0 159:1.0 160:1.0 280:1.0 285:1.0 328:1.0 352:1.0 377:1.0 813:1.0 2690:1.0 2802:1.0 3194:1.0 3243:1.0 3953:1.0 3954:1.0 3984:1.0 3985:1.0 3986:1.0 3987:1.0 3992:1.0 4041:1.0 4533:1.0 4534:1.0 4827:1.0 4865:1.0 5105:1.0 7172:1.0 12225:1.0 12226:1.0 12227:1.0 12228:1.0 12236:1.0 12405:1.0 12407:1.0 12408:1.0 12417:1.0 12418:1.0 12419:1.0 12420:1.0 12421:1.0 12422:1.0 12423:1.0 12424:1.0 
0.05 0.0 30:1.0 31:1.0 36:1.0 50:1.0 51:1.0 58:4.5 59:7.0 60:2.0 87:10.0 89:1.0 91:1.0 94:1.0 127:1.0 159:1.0 160:1.0 280:1.0 338:1.0 523:1.0 527:1.0 541:1.0 558:1.0 560:1.0 813:1.0 2690:1.0 3238:1.0 3243:1.0 3297:1.0 3382:1.0 3955:1.0 3956:1.0 3957:1.0 3958:1.0 3960:1.0 3992:1.0 4041:1.0 4533:1.0 4534:1.0 5105:1.0 11011:1.0 12225:1.0 12226:1.0 12227:1.0 12228:1.0 12236:1.0 12407:1.0 12409:1.0 12410:1.0 12417:1.0 12418:1.0 12419:1.0 12420:1.0 12421:1.0 12422:1.0 12423:1.0 12425:1.0 
0.032175655049668433 0.0 29:1.0 30:1.0 36:1.0 58:4.0 59:4.0 60:4.0 87:3.0 123:1.0 339:1.0 342:1.0 371:1.0 407:1.0 408:1.0 409:1.0 411:1.0 574:1.0 999:1.0 1944:1.0 3238:1.0 3242:1.0 3243:1.0 3765:1.0 3768:1.0 3817:1.0 3890:1.0 3915:1.0 3997:1.0 3998:1.0 3999:1.0 4023:1.0 4028:1.0 4032:1.0 4033:1.0 4135:1.0 4621:1.0 4628:1.0 8676:1.0 9232:1.0 9505:1.0 12067:1.0 12257:1.0 12258:1.0 12259:1.0 12260:1.0 12261:1.0 12433:1.0 12434:1.0 12435:1.0 12436:1.0 12437:1.0 12438:1.0 12439:1.0 12440:1.0 
0.003917351128057973 0.0 29:1.0 31:1.0 36:1.0 50:1.0 51:1.0 58:3.5 59:5.0 60:2.0 87:2.0 121:1.0 221:1.0 224:1.0 225:1.0 248:1.0 425:1.0 430:1.0 431:1.0 432:1.0 434:1.0 2332:1.0 3062:1.0 3065:1.0 3068:1.0 3080:1.0 3081:1.0 3126:1.0 3700:1.0 3702:1.0 3938:1.0 3939:1.0 3964:1.0 3965:1.0 4602:1.0 4613:1.0 4871:1.0 5280:1.0 5281:1.0 5345:1.0 11335:1.0 12144:1.0 12474:1.0 12476:1.0 12477:1.0 12478:1.0 12479:1.0 12480:1.0 12481:1.0 12482:1.0 12483:1.0 12487:1.0 
0.015144457793202394 0.0 27:1.0 28:1.0 29:1.0 30:1.0 31:3.0 36:1.0 50:1.0 51:1.0 67:1.0 101:1.0 123:1.0 127:1.0 140:1.0 142:1.0 147:1.0 149:1.0 159:1.0 460:1.0 599:1.0 1030:1.0 1043:1.0 1453:1.0 2053:1.0 2066:1.0 2469:1.0 2861:1.0 3847:1.0 3849:1.0 6484:1.0 6562:1.0 6591:1.0 6593:1.0 6594:1.0 7518:1.0 7519:1.0 8089:1.0 12892:1.0 12893:1.0 12894:1.0 12895:1.0 12896:1.0 12897:1.0 12898:1.0 
0.05 0.004601053344412194 30:2.0 31:1.0 36:1.0 50:1.0 51:1.0 58:3.5 59:5.0 60:2.0 87:1.0 101:1.0 121:1.0 127:1.0 131:1.0 159:1.0 180:1.0 360:1.0 363:1.0 370:1.0 551:1.0 895:1.0 906:1.0 1000:1.0 1013:1.0 1014:1.0 1453:1.0 1687:1.0 3130:1.0 3180:1.0 3205:1.0 8712:1.0 8714:1.0 8715:1.0 8716:1.0 8719:1.0 8722:1.0 8724:1.0 8784:1.0 8785:1.0 8786:1.0 8787:1.0 8796:1.0 12907:1.0 12908:1.0 12909:1.0 12910:1.0 12911:1.0 12912:1.0 12913:1.0 12914:1.0 12915:1.0 12916:1.0 12977:1.0 
0.05 0.0 30:1.0 31:1.0 36:1.0 50:1.0 51:1.0 58:3.5 59:5.0 60:2.0 87:3.0 101:1.0 121:1.0 127:1.0 131:1.0 159:1.0 180:1.0 338:1.0 360:1.0 363:1.0 370:1.0 384:1.0 397:1.0 551:1.0 1000:1.0 1013:1.0 1014:1.0 1453:1.0 1687:1.0 3130:1.0 8590:1.0 8712:1.0 8714:1.0 8715:1.0 8719:1.0 8722:1.0 8724:1.0 8796:1.0 8801:1.0 8802:1.0 8803:1.0 8804:1.0 12907:1.0 12908:1.0 12909:1.0 12910:1.0 12911:1.0 12912:1.0 12913:1.0 12914:1.0 12915:1.0 12916:1.0 12977:1.0 
0.05 0.0069875818030870306 31:1.0 33:1.0 36:1.0 37:1.0 38:1.0 58:3.5 59:4.0 60:3.0 77:1.0 87:2.0 121:1.0 408:1.0 411:1.0 412:1.0 648:1.0 717:1.0 1783:1.0 1784:1.0 2211:1.0 2212:1.0 2861:1.0 3130:1.0 3232:1.0 3266:1.0 5655:1.0 5677:1.0 8586:1.0 8587:1.0 8593:1.0 8814:1.0 8815:1.0 8816:1.0 8817:1.0 8818:1.0 8819:1.0 8820:1.0 8821:1.0 8822:1.0 8823:1.0 12918:1.0 12919:1.0 12920:1.0 12921:1.0 12922:1.0 12923:1.0 12924:1.0 12925:1.0 12926:1.0 12927:1.0 13046:1.0 
0.018567822756353342 0.003313504810941724 30:1.0 32:1.0 36:1.0 58:3.0 59:4.0 60:2.0 87:3.0 285:1.0 289:1.0 339:1.0 344:1.0 348:1.0 360:1.0 363:1.0 370:1.0 371:1.0 373:1.0 374:1.0 376:1.0 731:1.0 1134:1.0 1932:1.0 1942:1.0 1944:1.0 2213:1.0 2277:1.0 2278:1.0 2279:1.0 2280:1.0 2450:1.0 3351:1.0 4014:1.0 4027:1.0 4029:1.0 4031:1.0 6581:1.0 6583:1.0 6589:1.0 6590:1.0 8637:1.0 8638:1.0 8639:1.0 8804:1.0 8969:1.0 8970:1.0 8971:1.0 8972:1.0 
0.05 0.005935935735637526 30:1.0 31:1.0 36:1.0 58:4.0 59:6.0 60:2.0 87:5.0 89:1.0 91:1.0 339:1.0 344:1.0 348:1.0 370:1.0 371:1.0 544:1.0 560:1.0 666:1.0 731:1.0 1942:1.0 1944:1.0 1955:1.0 1958:1.0 1961:1.0 1962:1.0 1963:1.0 2031:1.0 2075:1.0 2450:1.0 3211:1.0 3351:1.0 4014:1.0 4027:1.0 4029:1.0 4031:1.0 6581:1.0 6583:1.0 6589:1.0 6590:1.0 8750:1.0 8751:1.0 8752:1.0 8753:1.0 8754:1.0 8755:1.0 8756:1.0 8804:1.0 8969:1.0 8970:1.0 8971:1.0 8973:1.0 
0.03231408676194153 0.0 27:1.0 28:1.0 29:1.0 30:1.0 31:6.0 33:3.0 36:1.0 50:1.0 51:1.0 58:1.0 59:1.0 60:1.0 123:1.0 140:1.0 142:1.0 147:1.0 149:1.0 299:1.0 892:1.0 913:1.0 995:1.0 1015:1.0 1016:1.0 1030:4.0 1043:4.0 1713:1.0 1719:1.0 1722:1.0 1952:1.0 2014:1.0 2053:1.0 2066:1.0 2157:1.0 2282:1.0 2691:1.0 2943:1.0 2947:1.0 2995:1.0 2996:1.0 2998:1.0 2999:1.0 3130:1.0 3232:1.0 3233:1.0 3797:1.0 4348:1.0 5705:1.0 7213:1.0 7650:1.0 8666:1.0 8674:1.0 8676:1.0 8678:1.0 9490:2.0 12945:1.0 12946:1.0 12947:1.0 12948:1.0 12950:1.0 12981:1.0 12982:1.0 12983:1.0 13191:1.0 13192:1.0 
0.03595153279767692 0.0 27:1.0 28:1.0 29:1.0 30:1.0 31:5.0 33:3.0 36:1.0 50:1.0 51:1.0 58:1.0 59:1.0 60:1.0 140:1.0 142:1.0 147:1.0 149:1.0 299:1.0 892:1.0 913:1.0 995:1.0 1015:1.0 1016:1.0 1030:4.0 1043:4.0 1713:1.0 1719:1.0 1722:1.0 1932:1.0 1952:1.0 2014:1.0 2053:1.0 2066:1.0 2157:1.0 2691:1.0 2943:1.0 2947:1.0 2995:1.0 2996:1.0 2998:1.0 2999:1.0 3232:1.0 3797:1.0 4348:1.0 5705:1.0 7213:1.0 7650:1.0 8666:1.0 8676:1.0 8678:1.0 9490:2.0 12943:1.0 12944:1.0 12945:1.0 12946:1.0 12947:1.0 12948:1.0 12949:1.0 12950:1.0 13191:1.0 13192:1.0 
0.0 0.001542617100701326 27:1.0 28:1.0 29:1.0 30:1.0 31:4.0 33:3.0 36:1.0 58:1.0 59:1.0 60:1.0 140:1.0 142:1.0 147:1.0 149:1.0 299:1.0 371:1.0 666:1.0 892:1.0 913:1.0 995:1.0 1015:1.0 1016:1.0 1030:3.0 1043:3.0 1713:1.0 1719:1.0 1944:1.0 1952:1.0 2075:1.0 2157:1.0 2691:1.0 2943:1.0 2947:1.0 2995:1.0 2996:1.0 2998:1.0 2999:1.0 3232:1.0 3797:1.0 4348:1.0 5705:1.0 7213:1.0 8465:1.0 8666:1.0 8676:1.0 8678:1.0 9490:2.0 12945:1.0 12946:1.0 12947:1.0 12950:1.0 12952:1.0 12953:1.0 12954:1.0 12955:1.0 13191:1.0 13192:1.0 
0.007504164554681233 0.0 27:1.0 28:1.0 29:1.0 30:1.0 31:4.0 33:2.0 36:1.0 50:1.0 51:1.0 58:1.0 59:1.0 60:1.0 140:1.0 142:1.0 147:1.0 149:1.0 299:1.0 666:1.0 892:1.0 913:1.0 995:1.0 1015:1.0 1016:1.0 1030:2.0 1043:2.0 1713:1.0 1719:1.0 1722:1.0 1951:1.0 1952:1.0 2157:1.0 2691:1.0 2943:1.0 2947:1.0 2995:1.0 2996:1.0 2998:1.0 2999:1.0 3232:1.0 3797:1.0 4348:1.0 5705:1.0 7213:1.0 7650:1.0 8666:1.0 8678:1.0 9490:2.0 12945:1.0 12950:1.0 12985:1.0 12986:1.0 12987:1.0 13191:1.0 13192:1.0 
0.05 0.0 29:1.0 30:1.0 31:1.0 36:1.0 53:1.0 58:2.5 59:4.0 60:1.0 87:4.0 135:1.0 140:1.0 142:1.0 280:1.0 299:1.0 302:1.0 371:1.0 490:1.0 666:1.0 686:1.0 689:1.0 892:1.0 913:1.0 1713:1.0 1944:1.0 2191:1.0 2295:1.0 2298:1.0 2691:1.0 2995:1.0 2996:1.0 2998:1.0 2999:1.0 3797:1.0 3802:1.0 3816:1.0 4348:1.0 5705:1.0 6693:1.0 7213:1.0 12945:1.0 12958:1.0 12959:1.0 12960:1.0 12961:1.0 12962:1.0 12963:1.0 12964:1.0 13191:1.0 13192:1.0 13193:1.0 
0.005201920496176822 0.0 31:1.0 36:1.0 40:1.0 43:1.0 50:1.0 51:1.0 58:2.5 59:3.0 60:2.0 69:1.0 77:1.0 87:2.0 121:1.0 123:1.0 285:1.0 352:1.0 360:1.0 363:1.0 370:1.0 373:1.0 377:1.0 1354:1.0 1783:1.0 1784:1.0 1850:1.0 1932:1.0 2051:1.0 2054:1.0 2611:1.0 2747:1.0 2861:1.0 3356:1.0 3357:1.0 4438:1.0 6932:1.0 8760:1.0 9094:1.0 9110:1.0 9111:1.0 9125:1.0 9127:1.0 9129:1.0 9135:1.0 9137:1.0 9138:1.0 9139:1.0 9140:1.0 9141:1.0 
0.047629661988797214 0.0 31:1.0 36:1.0 40:1.0 43:1.0 50:1.0 51:1.0 58:3.5 59:5.0 60:2.0 77:1.0 87:4.0 89:1.0 91:1.0 94:1.0 121:1.0 123:1.0 154:1.0 370:1.0 560:1.0 809:1.0 1354:1.0 1783:1.0 1784:1.0 1850:1.0 1955:1.0 1958:1.0 1961:1.0 1962:1.0 2092:1.0 2231:1.0 2611:1.0 2747:1.0 3211:1.0 6932:1.0 9094:1.0 9100:1.0 9103:1.0 9105:1.0 9125:1.0 9127:1.0 9129:1.0 9135:1.0 9137:1.0 9138:1.0 9139:1.0 9140:1.0 10600:1.0 13240:1.0 13241:1.0 13242:1.0 13244:1.0 
0.04169161466735111 9.492656279737075E-4 27:1.0 28:1.0 29:2.0 31:1.0 36:1.0 50:1.0 51:1.0 58:1.5 59:2.0 60:1.0 67:1.0 123:1.0 127:1.0 159:1.0 275:1.0 285:1.0 349:1.0 350:1.0 352:1.0 377:1.0 445:1.0 460:1.0 521:1.0 568:1.0 2302:1.0 2304:1.0 3830:1.0 3935:1.0 3955:1.0 3956:1.0 3957:1.0 3958:1.0 3962:1.0 4005:1.0 5806:1.0 7199:1.0 11420:1.0 13790:1.0 13791:1.0 13794:1.0 13795:1.0 13796:1.0 13797:1.0 13798:1.0 13799:1.0 
0.003224463413347308 0.0 29:1.0 30:1.0 33:1.0 36:1.0 50:1.0 51:1.0 58:2.0 59:2.0 60:2.0 87:1.0 316:1.0 317:1.0 339:1.0 344:1.0 348:1.0 3238:1.0 3351:1.0 3935:1.0 4010:1.0 4012:1.0 4014:1.0 4021:1.0 4023:1.0 4027:1.0 4028:1.0 4029:1.0 4031:1.0 4032:1.0 4033:1.0 4034:1.0 4036:1.0 4037:1.0 4409:1.0 4607:1.0 4651:1.0 5820:1.0 5821:1.0 5822:1.0 5823:1.0 11420:1.0 13800:1.0 13801:1.0 13802:1.0 13803:1.0 13804:1.0 13805:1.0 13806:1.0 
0.028850343244026213 0.0 27:1.0 28:1.0 29:2.0 30:1.0 31:2.0 33:1.0 36:1.0 50:1.0 51:1.0 67:1.0 68:1.0 127:1.0 159:1.0 342:1.0 445:1.0 460:1.0 473:1.0 945:1.0 1231:1.0 2697:1.0 2698:1.0 2706:1.0 2882:1.0 3531:1.0 3765:1.0 3768:1.0 3986:1.0 3987:1.0 4476:1.0 4477:1.0 4482:1.0 12122:1.0 12123:1.0 13876:1.0 13877:1.0 13878:1.0 13879:1.0 13880:1.0 13881:1.0 13882:1.0 13883:1.0 13884:1.0 
0.04828307248152265 0.0 4:1.0 5:1.0 6:1.0 7:1.0 8:1.0 18:1.0 24:1.0 26:1.0 29:1.0 30:1.0 31:1.0 32:1.0 34:1.0 35:1.0 36:1.0 37:1.0 38:1.0 53:1.0 57:1.0 58:2.0 59:2.0 60:2.0 77:1.0 87:5.0 98:1.0 127:1.0 159:1.0 160:1.0 474:1.0 488:1.0 490:2.0 508:1.0 686:1.0 689:1.0 894:1.0 905:1.0 1481:1.0 1774:1.0 3582:1.0 4078:1.0 4663:1.0 4664:1.0 4665:1.0 13885:1.0 13886:1.0 13887:1.0 13888:1.0 13889:1.0 13890:1.0 13891:1.0 13892:1.0 13893:1.0 13894:1.0 13895:1.0 13896:1.0 13897:1.0 
0.029600584112525995 2.507368368958935E-4 24:1.0 27:1.0 28:1.0 29:2.0 30:1.0 31:2.0 33:1.0 36:1.0 50:1.0 51:1.0 101:1.0 127:1.0 159:1.0 460:1.0 473:1.0 945:1.0 3159:1.0 13904:1.0 13905:1.0 13906:1.0 13907:1.0 13908:1.0 13909:1.0 13910:1.0 13911:1.0 13912:1.0 13913:1.0 13914:1.0 13915:1.0 13916:1.0 13917:1.0 13918:1.0 13919:1.0 13920:1.0 13921:1.0 13922:1.0 13923:1.0 13924:1.0 13925:1.0 13926:1.0 
0.0018618798655672451 0.004013403404619428 30:1.0 31:1.0 33:1.0 34:1.0 36:1.0 50:1.0 51:1.0 58:3.0 59:4.0 60:2.0 87:2.0 121:1.0 193:1.0 204:1.0 209:1.0 211:1.0 221:1.0 224:1.0 225:1.0 381:1.0 382:1.0 407:1.0 408:1.0 409:1.0 411:1.0 412:1.0 919:1.0 1917:1.0 4871:1.0 9536:1.0 12189:1.0 12474:1.0 12476:1.0 12478:1.0 12479:1.0 12480:1.0 12481:1.0 12482:1.0 13929:1.0 13949:1.0 13950:1.0 13951:1.0 13952:1.0 13953:1.0 13954:1.0 13955:1.0 13956:1.0 13957:1.0 13958:1.0 13959:1.0 13960:1.0 13961:1.0 13962:1.0 13963:1.0 
0.03374279764017994 0.007642340377897192 30:1.0 31:2.0 34:1.0 36:1.0 50:1.0 51:1.0 58:4.5 59:5.0 60:4.0 67:1.0 87:15.0 89:1.0 121:1.0 193:1.0 211:1.0 256:1.0 285:1.0 338:1.0 352:1.0 360:1.0 363:1.0 370:1.0 373:1.0 377:1.0 381:1.0 382:1.0 400:1.0 406:1.0 407:1.0 408:1.0 409:1.0 411:1.0 412:1.0 672:1.0 675:1.0 813:1.0 846:1.0 1917:1.0 4438:1.0 4776:1.0 4789:1.0 5792:1.0 5794:1.0 7479:1.0 12189:1.0 12474:1.0 12478:1.0 12479:1.0 12480:1.0 13929:1.0 13949:1.0 13950:1.0 13951:1.0 13952:1.0 13953:1.0 13954:1.0 13961:1.0 13964:1.0 13965:1.0 13966:1.0 13967:1.0 13968:1.0 13969:1.0 13970:1.0 13971:1.0 13972:1.0 13973:1.0 13974:1.0 13975:1.0 
0.016410694044968182 0.0 27:1.0 28:1.0 29:2.0 31:1.0 36:1.0 50:1.0 51:1.0 53:1.0 56:1.0 58:1.5 59:2.0 60:1.0 123:1.0 127:1.0 135:1.0 159:1.0 316:1.0 460:1.0 4377:1.0 4394:1.0 14110:1.0 14111:1.0 14112:1.0 14113:1.0 14114:1.0 14115:1.0 14116:1.0 14117:1.0 14118:1.0 14119:1.0 14120:1.0 14121:1.0 14122:1.0 14123:1.0 14124:1.0 14125:1.0 14126:1.0 14127:1.0 14128:1.0 14129:1.0 14130:1.0 14131:1.0 14132:1.0 14133:1.0 14134:1.0 
0.03736336234310529 0.0 29:1.0 31:1.0 33:1.0 36:1.0 50:1.0 51:1.0 58:1.5 59:2.0 60:1.0 87:2.0 89:1.0 123:1.0 127:1.0 159:1.0 316:1.0 338:1.0 384:1.0 395:1.0 397:1.0 460:1.0 2215:1.0 3080:1.0 3081:1.0 3571:1.0 3725:1.0 3806:1.0 3880:1.0 3974:1.0 4559:1.0 4587:1.0 5814:1.0 9464:1.0 10336:1.0 12013:1.0 12014:1.0 14150:1.0 14151:1.0 14152:1.0 14153:1.0 14154:1.0 14155:1.0 14156:1.0 14157:1.0 14158:1.0 14159:1.0 14160:1.0 14161:1.0 14162:1.0 14163:1.0 14164:1.0 
0.05 9.84614275208034E-4 29:1.0 32:1.0 36:1.0 40:1.0 43:1.0 44:1.0 50:1.0 51:1.0 58:1.5 59:2.0 60:1.0 67:1.0 87:1.0 91:1.0 94:1.0 95:1.0 425:1.0 541:1.0 551:1.0 558:1.0 733:1.0 3302:1.0 3814:1.0 3993:1.0 3998:1.0 3999:1.0 4527:1.0 4528:1.0 5124:1.0 5125:1.0 5645:1.0 12417:1.0 14165:1.0 14166:1.0 14184:1.0 14185:1.0 14186:1.0 14187:1.0 14188:1.0 14189:1.0 14190:1.0 14191:1.0 14192:1.0 14193:1.0 14194:1.0 14195:1.0 14196:1.0 
0.0 0.022436138025058568 27:1.0 28:1.0 29:1.0 30:1.0 31:1.0 36:1.0 50:1.0 51:1.0 121:1.0 178:1.0 248:1.0 316:1.0 342:1.0 746:1.0 764:1.0 2599:1.0 2815:1.0 3080:1.0 3081:1.0 3574:1.0 3657:1.0 3673:1.0 3678:1.0 3838:1.0 3881:1.0 3904:1.0 3935:1.0 3938:1.0 3939:1.0 4199:1.0 11419:1.0 13791:1.0 14242:1.0 14243:1.0 14244:1.0 14245:1.0 14246:1.0 14247:1.0 
0.040967886478171595 0.0035309042102833646 27:1.0 28:1.0 29:1.0 30:1.0 36:1.0 50:1.0 51:1.0 121:1.0 180:1.0 316:1.0 342:1.0 521:1.0 746:1.0 764:1.0 1013:1.0 2599:1.0 3238:1.0 3574:1.0 3673:1.0 3678:1.0 3838:1.0 3881:1.0 3904:1.0 3935:1.0 4080:1.0 4157:1.0 4199:1.0 10226:1.0 11314:1.0 11419:1.0 14242:1.0 14243:1.0 14244:1.0 14245:1.0 14248:1.0 14249:1.0 14250:1.0 14251:1.0 14252:1.0 14253:1.0 14254:1.0 14255:1.0 14256:1.0 
0.05 0.0337507044617898 8:1.0 30:1.0 31:1.0 33:2.0 36:1.0 58:2.5 59:3.0 60:2.0 77:1.0 87:7.0 89:1.0 127:1.0 159:1.0 160:1.0 176:1.0 248:1.0 274:1.0 277:1.0 283:1.0 285:1.0 288:1.0 303:1.0 316:1.0 342:1.0 377:1.0 813:1.0 1783:1.0 1784:1.0 3152:1.0 3184:1.0 3194:1.0 3195:1.0 3730:1.0 3732:1.0 3733:1.0 3762:1.0 4484:1.0 4488:1.0 9373:1.0 10903:1.0 14303:1.0 14304:1.0 14305:1.0 14306:1.0 14307:1.0 14311:1.0 14312:1.0 14313:1.0 14314:1.0 14315:1.0 14316:1.0 14317:1.0 14318:1.0 14319:1.0 14320:1.0 14321:1.0 
0.013755825276562009 0.0 29:1.0 30:1.0 33:1.0 36:1.0 50:1.0 51:1.0 58:2.0 59:2.0 60:2.0 87:1.0 248:1.0 339:1.0 342:1.0 344:1.0 348:1.0 668:1.0 2811:1.0 3351:1.0 4014:1.0 4023:1.0 4027:1.0 4028:1.0 4029:1.0 4031:1.0 4032:1.0 4033:1.0 4034:1.0 4036:1.0 4037:1.0 4377:1.0 4378:1.0 4388:1.0 4391:1.0 4392:1.0 4393:1.0 4394:1.0 4401:1.0 5313:1.0 9553:1.0 14343:1.0 14344:1.0 14345:1.0 14346:1.0 14347:1.0 14348:1.0 14349:1.0 14350:1.0 14351:1.0 
0.05 0.0 30:1.0 31:1.0 36:1.0 50:1.0 51:1.0 58:3.0 59:4.0 60:2.0 87:14.0 89:2.0 123:1.0 204:1.0 209:1.0 211:1.0 256:1.0 283:1.0 316:1.0 317:1.0 333:1.0 334:1.0 338:1.0 344:1.0 348:1.0 551:1.0 672:1.0 813:1.0 3382:1.0 3984:1.0 3985:1.0 3986:1.0 3987:1.0 4031:1.0 4033:1.0 4036:1.0 4525:1.0 5094:1.0 5126:1.0 9335:1.0 11022:1.0 12080:1.0 13276:1.0 13277:1.0 13840:1.0 14329:1.0 14353:1.0 14354:1.0 14355:1.0 14356:1.0 14357:1.0 14358:1.0 14359:1.0 14364:1.0 14366:1.0 14367:1.0 14368:1.0 14369:1.0 14370:1.0 14373:1.0 14375:1.0 14376:1.0 14377:1.0 
0.0 7.838912892060937E-4 27:1.0 28:1.0 29:3.0 30:1.0 31:3.0 33:6.0 36:1.0 50:1.0 51:1.0 316:1.0 317:1.0 318:1.0 342:1.0 343:1.0 344:1.0 348:1.0 666:1.0 2815:1.0 3232:1.0 3531:1.0 3765:1.0 3766:1.0 3767:1.0 3768:1.0 3774:1.0 3775:1.0 3794:1.0 3805:1.0 3856:1.0 3986:1.0 3987:1.0 4031:1.0 5175:1.0 5306:1.0 5322:1.0 5323:1.0 8666:1.0 8676:1.0 9490:1.0 12127:1.0 12159:1.0 12308:1.0 14325:1.0 14326:1.0 14388:1.0 14389:1.0 14390:1.0 14391:1.0 14392:1.0 14393:1.0 14394:1.0 14395:1.0 14396:1.0 
0.009618488013140419 0.0 29:3.0 30:1.0 31:1.0 33:1.0 36:1.0 50:1.0 51:1.0 58:2.0 59:2.0 60:2.0 87:2.0 316:1.0 317:1.0 318:1.0 331:1.0 333:1.0 342:1.0 343:1.0 344:1.0 348:1.0 2145:1.0 3765:1.0 3766:1.0 3767:1.0 3768:1.0 3794:1.0 3805:1.0 3812:1.0 4004:1.0 4006:1.0 4007:1.0 4024:1.0 4031:1.0 4033:1.0 4036:1.0 4525:1.0 5322:1.0 5323:1.0 12127:1.0 12159:1.0 13276:1.0 13277:1.0 14322:1.0 14323:1.0 14324:1.0 14325:1.0 14326:1.0 14375:1.0 14388:1.0 14389:1.0 14397:1.0 14398:1.0 14399:1.0 
0.03567865225611299 0.0013412327453741421 29:3.0 30:1.0 31:1.0 36:1.0 50:1.0 51:1.0 58:4.0 59:6.0 60:2.0 87:15.0 89:1.0 123:1.0 211:1.0 248:1.0 256:1.0 280:1.0 285:1.0 316:1.0 317:1.0 318:1.0 331:1.0 333:1.0 340:1.0 342:1.0 343:1.0 344:1.0 348:1.0 352:1.0 377:1.0 402:1.0 490:1.0 813:1.0 2802:1.0 3194:1.0 3765:1.0 3766:1.0 3767:1.0 3768:1.0 3794:1.0 3805:1.0 3816:1.0 4007:1.0 4031:1.0 4534:1.0 4811:1.0 4827:1.0 5272:1.0 5322:1.0 5323:1.0 7172:1.0 11011:1.0 12127:1.0 12159:1.0 14118:1.0 14119:1.0 14120:1.0 14121:1.0 14373:1.0 14388:1.0 14389:1.0 14400:1.0 14401:1.0 14402:1.0 14403:1.0 14404:1.0 14405:1.0 14406:1.0 
0.0 0.005466831580064255 27:1.0 28:1.0 29:3.0 30:1.0 31:2.0 33:2.0 36:1.0 50:1.0 51:1.0 123:1.0 316:1.0 317:1.0 318:1.0 343:1.0 344:1.0 348:1.0 3382:1.0 3531:1.0 3765:1.0 3767:1.0 3768:1.0 3775:1.0 3784:1.0 3794:1.0 3805:1.0 3986:1.0 3987:1.0 4001:1.0 4031:1.0 4457:1.0 5126:1.0 5322:1.0 5323:1.0 5666:1.0 9427:1.0 12080:1.0 12308:1.0 13840:1.0 14391:1.0 14415:1.0 14416:1.0 14417:1.0 14418:1.0 14419:1.0 
0.009137156188800045 0.0 29:4.0 31:1.0 36:1.0 50:1.0 51:1.0 58:3.0 59:4.0 60:2.0 67:1.0 87:5.0 121:1.0 215:1.0 218:1.0 219:1.0 275:1.0 285:1.0 316:1.0 317:1.0 352:1.0 370:1.0 373:1.0 377:1.0 400:1.0 405:1.0 406:1.0 426:1.0 429:1.0 892:1.0 895:1.0 906:1.0 913:1.0 999:1.0 3575:1.0 3576:1.0 3700:1.0 3702:1.0 3766:1.0 3767:1.0 3984:1.0 3985:1.0 3986:1.0 3987:1.0 4411:1.0 4412:1.0 4413:1.0 4415:1.0 4435:1.0 4438:1.0 4439:1.0 4558:1.0 4595:1.0 5691:1.0 9513:1.0 11210:1.0 11216:1.0 12127:1.0 14420:1.0 14421:1.0 14422:1.0 14423:1.0 
0.05 0.0015861046361679454 8:1.0 29:2.0 30:1.0 31:1.0 33:2.0 36:1.0 77:1.0 87:2.0 123:1.0 127:1.0 159:1.0 160:1.0 176:1.0 303:1.0 316:1.0 342:1.0 1783:1.0 1784:1.0 2861:1.0 3185:1.0 3528:1.0 3531:1.0 3774:1.0 3853:1.0 3854:1.0 3855:1.0 3856:1.0 3857:1.0 3859:1.0 3862:1.0 3863:1.0 3864:1.0 3865:1.0 4056:1.0 4057:1.0 5189:1.0 5190:1.0 5191:1.0 5192:1.0 5201:1.0 9385:1.0 12127:1.0 12145:1.0 14431:1.0 14432:1.0 
0.05 0.004947254141256054 29:2.0 30:1.0 31:1.0 36:1.0 50:1.0 51:1.0 67:1.0 87:2.0 123:1.0 275:1.0 285:1.0 352:1.0 370:1.0 373:1.0 377:1.0 2832:1.0 3180:1.0 3205:1.0 3765:1.0 3766:1.0 3768:1.0 3812:1.0 3880:1.0 3984:1.0 3985:1.0 3986:1.0 3987:1.0 4000:1.0 4411:1.0 4412:1.0 4415:1.0 4435:1.0 4438:1.0 4439:1.0 5126:1.0 5168:1.0 9416:1.0 9445:1.0 12158:1.0 14416:1.0 
0.05 0.032730522588073366 29:1.0 30:1.0 31:2.0 36:1.0 58:2.0 59:3.0 60:1.0 67:1.0 87:2.0 123:1.0 176:1.0 274:1.0 275:1.0 277:1.0 283:1.0 285:1.0 288:1.0 303:1.0 377:1.0 408:1.0 411:1.0 574:1.0 722:1.0 723:1.0 800:1.0 3243:1.0 3287:1.0 3806:1.0 3888:1.0 3990:1.0 4294:1.0 12411:1.0 12412:1.0 12413:1.0 12414:1.0 12415:1.0 14448:1.0 14463:1.0 14464:1.0 14465:1.0 14466:1.0 14467:1.0 14468:1.0 14469:1.0 14470:1.0 14471:1.0 14472:1.0 14473:1.0 14474:1.0 14475:1.0 
0.016861944309423088 0.0 30:1.0 31:1.0 36:1.0 50:1.0 51:1.0 58:2.0 59:2.0 60:2.0 87:8.0 193:1.0 211:1.0 282:1.0 316:1.0 317:1.0 318:1.0 331:1.0 333:1.0 342:1.0 343:1.0 344:1.0 348:1.0 497:2.0 873:1.0 3238:1.0 3816:1.0 3960:1.0 3984:1.0 3985:1.0 3986:1.0 3987:1.0 3993:1.0 3998:1.0 3999:1.0 4002:1.0 4007:1.0 4031:1.0 4033:1.0 4036:1.0 4525:1.0 4796:1.0 5322:1.0 10226:1.0 13276:1.0 13277:1.0 14165:1.0 14166:1.0 14185:1.0 14187:1.0 14376:1.0 14476:1.0 14477:1.0 14478:1.0 
0.0 4.523474521732294E-4 29:1.0 30:1.0 31:1.0 33:1.0 36:1.0 58:2.0 59:2.0 60:2.0 87:1.0 123:1.0 248:1.0 316:1.0 317:1.0 318:1.0 331:1.0 333:1.0 343:1.0 344:1.0 348:1.0 362:1.0 371:1.0 1944:1.0 3550:1.0 3765:1.0 3768:1.0 3959:1.0 3963:1.0 3964:1.0 3965:1.0 4031:1.0 4033:1.0 4525:1.0 5322:1.0 5323:1.0 9489:1.0 9491:1.0 9505:1.0 9506:1.0 12127:1.0 12381:1.0 13276:1.0 14494:1.0 14495:1.0 14496:1.0 14497:1.0 14498:1.0 14499:1.0 14500:1.0 14501:1.0 14502:1.0 
0.0 0.0052512912983612315 29:1.0 30:1.0 31:1.0 36:1.0 50:1.0 51:1.0 58:4.0 59:6.0 60:2.0 67:1.0 87:7.0 89:1.0 123:1.0 275:1.0 280:1.0 285:1.0 316:1.0 317:1.0 318:1.0 331:1.0 333:1.0 343:1.0 344:1.0 348:1.0 352:1.0 377:1.0 813:1.0 3184:1.0 3194:1.0 3765:1.0 3768:1.0 3963:1.0 3964:1.0 3965:1.0 3984:1.0 3985:1.0 3986:1.0 3987:1.0 3992:1.0 4005:1.0 4031:1.0 4411:1.0 4412:1.0 4415:1.0 4488:1.0 5322:1.0 5323:1.0 7172:1.0 12127:1.0 12381:1.0 12408:1.0 14320:1.0 14454:1.0 14494:1.0 14503:1.0 
0.0344558723805349 0.0 29:2.0 30:1.0 31:1.0 36:1.0 50:1.0 51:1.0 58:3.5 59:5.0 60:2.0 87:16.0 89:1.0 123:1.0 256:1.0 282:1.0 283:2.0 285:1.0 301:1.0 316:1.0 317:1.0 328:1.0 333:1.0 337:1.0 339:1.0 344:1.0 348:1.0 352:1.0 377:1.0 490:1.0 497:1.0 688:1.0 813:2.0 873:1.0 874:1.0 876:1.0 3194:1.0 3351:1.0 3765:1.0 3768:1.0 3806:1.0 3935:1.0 3953:1.0 3976:1.0 3984:1.0 3985:1.0 3986:1.0 3987:1.0 3992:1.0 4010:1.0 4012:1.0 4014:1.0 4027:1.0 4029:1.0 4031:1.0 4218:1.0 4409:1.0 4413:1.0 4416:1.0 5317:1.0 7172:1.0 11031:1.0 11312:1.0 11585:1.0 12408:1.0 14504:1.0 
0.0 0.010455096316258855 29:2.0 30:1.0 31:1.0 36:1.0 50:1.0 51:1.0 58:4.5 59:7.0 60:2.0 67:1.0 87:18.0 89:2.0 91:1.0 94:1.0 123:1.0 282:1.0 283:2.0 301:1.0 316:1.0 317:1.0 333:1.0 337:1.0 338:1.0 339:1.0 344:1.0 348:1.0 490:1.0 497:1.0 523:1.0 527:1.0 541:1.0 558:1.0 560:1.0 813:2.0 3351:1.0 3765:1.0 3768:1.0 3806:1.0 3935:1.0 3955:1.0 3956:1.0 3957:1.0 3958:1.0 3976:1.0 3992:1.0 4010:1.0 4012:1.0 4014:1.0 4027:1.0 4029:1.0 4031:1.0 4218:1.0 4409:1.0 4413:1.0 4416:1.0 4626:1.0 4627:1.0 11011:1.0 11031:1.0 11312:1.0 11585:1.0 12409:1.0 12410:1.0 14505:1.0 14506:1.0 
0.02257449350487183 0.01369758563845767 30:1.0 31:1.0 36:1.0 50:1.0 51:1.0 58:4.0 59:6.0 60:2.0 87:7.0 123:1.0 285:1.0 316:1.0 317:1.0 333:1.0 339:1.0 344:1.0 348:1.0 352:1.0 377:1.0 642:1.0 813:1.0 919:1.0 3184:1.0 3194:1.0 3238:1.0 3351:1.0 3624:1.0 3830:1.0 3984:1.0 3985:1.0 3986:1.0 3987:1.0 3992:1.0 3993:1.0 4014:1.0 4027:1.0 4029:1.0 4031:1.0 4409:1.0 4413:1.0 7172:1.0 9449:1.0 9450:1.0 12408:1.0 14185:1.0 14187:1.0 14441:1.0 14442:1.0 14454:1.0 14526:1.0 14527:1.0 14528:1.0 
0.0 0.009894406425992451 30:1.0 31:1.0 33:1.0 36:1.0 50:1.0 51:1.0 58:2.0 59:2.0 60:2.0 87:3.0 248:1.0 316:1.0 317:1.0 318:1.0 331:1.0 333:1.0 343:1.0 344:1.0 348:1.0 3993:1.0 4001:1.0 4003:1.0 4031:1.0 4033:1.0 4036:1.0 4381:1.0 4382:1.0 4484:1.0 4485:1.0 4487:1.0 4488:1.0 4525:1.0 5322:1.0 7381:1.0 9489:1.0 9491:1.0 12225:1.0 12226:1.0 12227:1.0 12228:1.0 13276:1.0 13277:1.0 14308:1.0 14447:1.0 14459:1.0 14502:1.0 14532:1.0 14533:1.0 14534:1.0 
0.012216951417913666 0.01799763416195941 30:1.0 31:1.0 36:1.0 50:1.0 51:1.0 58:3.5 59:5.0 60:2.0 87:10.0 89:1.0 211:1.0 280:1.0 285:1.0 316:1.0 317:1.0 318:1.0 331:1.0 333:1.0 343:1.0 344:1.0 348:1.0 352:1.0 377:1.0 813:1.0 919:1.0 3184:1.0 3194:1.0 3238:1.0 3624:1.0 3813:1.0 3815:1.0 3816:1.0 3984:1.0 3985:1.0 3986:1.0 3987:1.0 3993:1.0 4001:1.0 4031:1.0 4484:1.0 4488:1.0 4534:1.0 5322:1.0 7172:1.0 10903:1.0 12225:1.0 12226:1.0 12227:1.0 12228:1.0 12405:1.0 12408:1.0 14320:1.0 14447:1.0 14459:1.0 14535:1.0 
0.05 0.0 30:1.0 31:1.0 36:1.0 50:1.0 51:1.0 58:5.5 59:9.0 60:2.0 87:24.0 89:3.0 211:1.0 280:1.0 282:1.0 283:1.0 285:1.0 316:1.0 317:1.0 318:1.0 331:1.0 333:1.0 338:1.0 343:1.0 344:1.0 348:1.0 352:1.0 377:1.0 497:2.0 672:1.0 813:2.0 873:1.0 3194:1.0 3238:1.0 3382:1.0 3637:1.0 3816:2.0 3960:1.0 3984:1.0 3985:1.0 3986:1.0 3987:1.0 3993:2.0 4001:1.0 4031:1.0 4484:1.0 4488:1.0 4534:2.0 4796:1.0 5322:1.0 7172:1.0 10903:1.0 11011:1.0 12225:1.0 12226:1.0 12227:1.0 12228:1.0 12408:1.0 14185:1.0 14187:1.0 14320:1.0 14447:1.0 14459:1.0 14538:1.0 14539:1.0 14540:1.0 
0.0 0.019141595647404582 30:1.0 31:1.0 33:1.0 36:1.0 58:2.0 59:2.0 60:2.0 87:2.0 316:1.0 317:1.0 318:1.0 328:1.0 331:1.0 333:1.0 343:1.0 344:1.0 348:1.0 371:1.0 1944:1.0 3959:1.0 3964:1.0 3965:1.0 3993:1.0 4001:1.0 4031:1.0 4033:1.0 4484:1.0 4525:1.0 4779:1.0 5322:1.0 9489:1.0 9491:1.0 9505:1.0 11044:1.0 13276:1.0 14185:1.0 14187:1.0 14375:1.0 14495:1.0 14496:1.0 14497:1.0 14501:1.0 14502:1.0 14587:1.0 14588:1.0 14589:1.0 14590:1.0 14591:1.0 
0.028027926204497716 0.0 30:1.0 36:1.0 50:1.0 51:1.0 58:2.5 59:3.0 60:2.0 87:5.0 89:1.0 91:1.0 94:1.0 316:1.0 317:1.0 318:1.0 331:1.0 333:1.0 338:1.0 343:1.0 344:1.0 348:1.0 523:1.0 527:1.0 541:1.0 558:1.0 919:1.0 3238:1.0 3964:1.0 3965:1.0 3993:1.0 4001:1.0 4031:1.0 4446:1.0 4484:1.0 4488:1.0 5322:1.0 11044:1.0 12308:1.0 14320:1.0 14486:1.0 14487:1.0 14488:1.0 14489:1.0 14587:1.0 14588:1.0 14590:1.0 14592:1.0 14593:1.0 14594:1.0 14595:1.0 14596:1.0 
0.05 0.03270510824067763 29:2.0 30:1.0 36:1.0 50:1.0 51:1.0 87:2.0 123:1.0 256:1.0 381:1.0 382:1.0 407:1.0 408:1.0 409:1.0 411:1.0 574:1.0 642:1.0 2302:1.0 2304:1.0 3238:1.0 3382:1.0 3765:1.0 3768:1.0 3812:1.0 3817:1.0 3934:1.0 3935:1.0 9384:1.0 9404:1.0 9406:1.0 9553:1.0 11314:1.0 12308:1.0 14486:1.0 14487:1.0 14488:1.0 14489:1.0 14612:1.0 14613:1.0 14614:1.0 14615:1.0 14616:1.0 14617:1.0 14618:1.0 
0.01871029032613608 0.004394408276665583 27:1.0 28:1.0 29:2.0 30:1.0 36:1.0 50:1.0 51:1.0 316:1.0 317:1.0 342:1.0 344:1.0 348:1.0 3238:1.0 3382:1.0 3404:1.0 3765:1.0 3768:1.0 3935:1.0 3960:1.0 4010:1.0 4012:1.0 4021:1.0 4031:1.0 4199:1.0 4607:1.0 9144:1.0 11312:1.0 12308:1.0 14484:1.0 14486:1.0 14487:1.0 14488:1.0 14489:1.0 14490:1.0 14491:1.0 14492:1.0 14493:1.0 
0.008519588306577033 0.0 30:2.0 33:1.0 36:1.0 50:1.0 51:1.0 58:2.0 59:2.0 60:2.0 67:1.0 87:1.0 123:1.0 275:1.0 339:1.0 344:1.0 348:1.0 733:1.0 3243:1.0 3351:1.0 3560:1.0 3561:1.0 3562:1.0 3563:1.0 3564:1.0 3980:1.0 4014:1.0 4015:1.0 4017:1.0 4018:1.0 4019:1.0 4020:1.0 4023:1.0 4027:1.0 4028:1.0 4029:1.0 4031:1.0 4032:1.0 4033:1.0 4034:1.0 4035:1.0 4036:1.0 4037:1.0 4934:1.0 9639:1.0 14627:1.0 14628:1.0 14633:1.0 14634:1.0 
0.0038954661893653092 0.0019773411197511297 27:1.0 28:1.0 29:2.0 30:1.0 31:3.0 33:1.0 36:1.0 50:1.0 51:1.0 256:1.0 299:1.0 316:1.0 342:1.0 395:1.0 1482:2.0 1617:1.0 1702:1.0 1709:1.0 1917:1.0 2815:1.0 3232:1.0 3531:1.0 3701:1.0 3704:1.0 3707:1.0 3709:1.0 3765:1.0 3768:1.0 3794:1.0 3804:1.0 3805:1.0 3986:1.0 3987:1.0 4024:1.0 4400:1.0 5175:1.0 5177:1.0 8666:1.0 8676:1.0 9464:1.0 10336:1.0 14163:1.0 14875:1.0 14876:1.0 14877:1.0 14878:1.0 14879:1.0 14880:1.0 14881:1.0 14882:1.0 14883:1.0 14884:1.0 
0.016694715163396857 0.0 27:1.0 28:1.0 29:2.0 30:1.0 31:3.0 33:1.0 36:1.0 50:1.0 51:1.0 123:1.0 193:1.0 318:1.0 343:1.0 344:1.0 348:1.0 892:1.0 913:1.0 919:1.0 1016:1.0 1482:1.0 1617:1.0 2066:1.0 2811:1.0 3232:1.0 3238:1.0 3531:1.0 3624:1.0 3701:1.0 3707:1.0 3709:1.0 3765:1.0 3768:1.0 3986:1.0 3987:1.0 4031:1.0 4407:1.0 5313:1.0 5322:1.0 5323:1.0 9427:1.0 12134:1.0 12135:1.0 12136:1.0 12308:1.0 14391:1.0 14880:1.0 14885:1.0 14886:1.0 14887:1.0 14888:1.0 14889:1.0 
0.04947227378468626 0.0 27:1.0 28:1.0 29:1.0 30:2.0 31:4.0 33:6.0 36:1.0 50:1.0 51:1.0 123:1.0 342:1.0 344:1.0 348:1.0 800:1.0 839:1.0 2066:3.0 2811:1.0 3221:1.0 3222:2.0 3225:1.0 3226:1.0 3232:3.0 3233:1.0 3323:1.0 3531:1.0 3701:1.0 3707:1.0 3709:1.0 3765:1.0 3768:1.0 3811:1.0 3986:1.0 3987:1.0 4031:1.0 5126:1.0 5313:1.0 5655:1.0 8666:1.0 8676:1.0 9427:1.0 12080:1.0 12308:2.0 12994:1.0 14418:1.0 14888:1.0 14904:1.0 14905:1.0 14906:1.0 14907:1.0 14908:1.0 14909:1.0 14910:1.0 14911:1.0 14912:1.0 14913:1.0 14914:1.0 14915:1.0 14916:1.0 14917:1.0 14918:1.0 14919:1.0 14920:1.0 
0.0 0.00393471825116395 29:2.0 31:1.0 33:1.0 36:1.0 58:2.0 59:2.0 60:2.0 67:1.0 87:1.0 121:1.0 123:1.0 200:1.0 215:1.0 218:1.0 219:1.0 221:1.0 371:1.0 400:1.0 405:1.0 406:1.0 426:1.0 429:1.0 473:1.0 892:1.0 895:1.0 906:1.0 1944:1.0 2697:1.0 2698:1.0 3202:1.0 3232:1.0 3575:1.0 3576:1.0 4549:1.0 4626:1.0 4627:1.0 5256:1.0 5257:1.0 5260:1.0 9509:1.0 9510:1.0 14600:1.0 14921:1.0 14922:1.0 14923:1.0 14924:1.0 14925:1.0 14926:1.0 14931:1.0 14933:1.0 14934:1.0 14935:1.0 14936:1.0 14937:1.0 14938:1.0 14939:1.0 14940:1.0 
0.0 0.003224294479854319 29:1.0 31:1.0 33:1.0 36:1.0 58:3.5 59:5.0 60:2.0 67:1.0 87:1.0 121:1.0 123:1.0 200:1.0 221:1.0 371:1.0 400:1.0 405:1.0 406:1.0 425:1.0 426:1.0 429:1.0 430:1.0 431:1.0 432:1.0 434:1.0 892:1.0 913:1.0 1944:1.0 2811:1.0 3202:1.0 3232:1.0 4549:1.0 4602:1.0 4626:1.0 4627:1.0 5256:1.0 5257:1.0 5260:1.0 9509:1.0 9510:1.0 10939:1.0 14171:1.0 14600:1.0 14922:1.0 14923:1.0 14926:1.0 14933:1.0 14934:1.0 14935:1.0 14936:1.0 14937:1.0 14938:1.0 14939:1.0 14941:1.0 14942:1.0 
0.05 0.019648080056127667 8:1.0 30:1.0 32:1.0 33:2.0 36:1.0 58:2.5 59:3.0 60:2.0 67:1.0 77:1.0 87:6.0 89:1.0 176:1.0 256:1.0 285:1.0 288:1.0 289:1.0 303:1.0 316:1.0 1783:1.0 1784:1.0 1917:1.0 3188:1.0 3189:1.0 3193:1.0 3546:1.0 3548:1.0 3641:1.0 3642:1.0 3643:1.0 3644:1.0 3774:1.0 3775:1.0 3856:1.0 3993:1.0 4366:1.0 4368:1.0 4390:1.0 4626:1.0 6494:1.0 6496:1.0 9727:1.0 9962:1.0 10808:1.0 10815:1.0 10902:1.0 10904:1.0 10908:1.0 10909:1.0 10910:1.0 12036:1.0 12189:1.0 14176:1.0 14961:1.0 14963:1.0 14964:1.0 
0.03877167746605221 0.012926266594124113 8:1.0 29:2.0 30:1.0 32:1.0 33:4.0 36:1.0 58:2.0 59:2.0 60:2.0 67:1.0 77:1.0 87:6.0 89:1.0 123:1.0 127:1.0 159:1.0 160:1.0 176:1.0 274:1.0 277:1.0 283:1.0 285:1.0 288:1.0 289:1.0 303:1.0 316:1.0 1783:1.0 1784:1.0 3225:1.0 3233:1.0 3287:1.0 3546:1.0 3548:1.0 3621:1.0 3663:1.0 3774:1.0 3775:1.0 3846:1.0 3847:1.0 3848:1.0 3849:1.0 3850:1.0 3857:1.0 4354:1.0 4355:1.0 4484:1.0 4488:1.0 4626:1.0 4627:1.0 5654:1.0 9426:1.0 10808:1.0 10815:1.0 10902:1.0 10904:1.0 10908:1.0 10909:1.0 10910:1.0 13868:1.0 15054:1.0 15055:1.0 15056:1.0 
0.04826581921970491 0.0 8:1.0 29:2.0 30:1.0 32:1.0 33:2.0 36:1.0 58:3.5 59:5.0 60:2.0 67:1.0 77:1.0 87:9.0 89:1.0 91:1.0 123:1.0 127:1.0 159:1.0 160:1.0 176:1.0 283:1.0 303:1.0 316:1.0 338:1.0 523:1.0 527:1.0 541:1.0 706:1.0 708:1.0 1783:1.0 1784:1.0 3287:1.0 3546:1.0 3548:1.0 3621:1.0 3663:1.0 3774:1.0 3846:1.0 3847:1.0 3848:1.0 3849:1.0 3850:1.0 3856:1.0 3857:1.0 4306:1.0 4354:1.0 4355:1.0 4484:1.0 4488:1.0 4576:1.0 4626:1.0 4627:1.0 5007:1.0 5671:1.0 10808:1.0 10904:1.0 13868:1.0 15054:1.0 15057:1.0 15058:1.0 15059:1.0 15060:1.0 
0.04701046418780812 0.005697570067643386 27:1.0 28:1.0 30:1.0 31:1.0 36:1.0 50:1.0 51:1.0 58:1.5 59:2.0 60:1.0 127:1.0 159:1.0 160:1.0 284:1.0 285:1.0 352:1.0 377:1.0 599:1.0 666:1.0 778:1.0 783:1.0 789:1.0 3994:1.0 6822:1.0 6824:1.0 6833:1.0 6834:1.0 15209:1.0 15210:1.0 15211:1.0 15212:1.0 15213:1.0 15214:1.0 15215:1.0 15216:1.0 15220:1.0 15221:1.0 15222:1.0 15236:1.0 15249:1.0 15250:1.0 15251:1.0 15252:1.0 15253:1.0 15254:1.0 15255:1.0 15256:1.0 
0.00200501595562447 0.0024869107296037127 27:1.0 28:1.0 29:2.0 30:1.0 31:1.0 33:1.0 36:1.0 37:1.0 38:1.0 58:2.0 59:2.0 60:2.0 236:1.0 248:1.0 342:1.0 344:1.0 348:1.0 892:1.0 913:1.0 3202:1.0 3287:1.0 3351:1.0 3707:1.0 3709:1.0 4029:1.0 4031:1.0 4032:1.0 4033:1.0 4286:1.0 4401:1.0 4525:1.0 4568:1.0 5327:1.0 5835:1.0 7381:1.0 8559:1.0 8561:1.0 11223:1.0 15382:1.0 15383:1.0 15384:1.0 15385:1.0 15386:1.0 15387:1.0 15388:1.0 15389:1.0 15390:1.0 15391:1.0 15392:1.0 
0.038511927066712894 0.013471575787106707 8:1.0 29:1.0 30:1.0 31:1.0 33:2.0 36:1.0 58:2.0 59:2.0 60:2.0 77:1.0 87:1.0 115:1.0 120:1.0 176:1.0 303:1.0 316:1.0 342:1.0 344:1.0 348:1.0 1783:1.0 1784:1.0 3528:1.0 3531:1.0 3830:1.0 3857:1.0 4031:1.0 4033:1.0 4056:1.0 4057:1.0 4525:1.0 5233:1.0 5720:1.0 10898:1.0 10968:1.0 12372:1.0 14175:1.0 15410:1.0 15411:1.0 15412:1.0 15413:1.0 15414:1.0 15415:1.0 15416:1.0 15417:1.0 15418:1.0 15419:1.0 15420:1.0 15421:1.0 15422:1.0 15423:1.0 15424:1.0 
0.04970736659387636 0.0 30:1.0 31:1.0 33:1.0 36:1.0 58:2.5 59:3.0 60:2.0 87:3.0 305:1.0 308:1.0 339:1.0 342:1.0 371:1.0 1944:1.0 2811:1.0 3243:1.0 4032:1.0 4033:1.0 4204:1.0 4223:1.0 4519:1.0 4520:1.0 4525:1.0 5145:1.0 8684:1.0 8686:1.0 8688:1.0 9488:1.0 9490:1.0 9505:1.0 10994:1.0 11247:1.0 11249:1.0 12067:1.0 15292:1.0 15293:1.0 15451:1.0 15452:1.0 15453:1.0 15454:1.0 15455:1.0 15456:1.0 15457:1.0 15458:1.0 15459:1.0 15460:1.0 15461:1.0 15462:1.0 15463:1.0 15464:1.0 
0.05 0.05 29:1.0 30:1.0 31:1.0 33:3.0 36:1.0 58:4.0 59:5.0 60:3.0 87:5.0 176:1.0 274:1.0 277:1.0 283:2.0 285:1.0 288:1.0 303:1.0 377:1.0 408:1.0 411:1.0 574:1.0 722:1.0 723:1.0 799:1.0 800:1.0 810:1.0 811:1.0 813:1.0 3184:1.0 3194:1.0 3195:1.0 3243:1.0 3800:1.0 3801:1.0 3857:1.0 3888:1.0 3973:1.0 3976:1.0 4204:1.0 5631:1.0 9372:1.0 14464:1.0 14465:1.0 14471:1.0 15457:1.0 15556:1.0 15557:1.0 15558:1.0 15559:1.0 15561:1.0 15591:1.0 15592:1.0 15593:1.0 15594:1.0 15595:1.0 
0.05 0.0 30:1.0 36:1.0 50:1.0 51:1.0 53:1.0 56:1.0 58:1.5 59:2.0 60:1.0 87:2.0 250:1.0 408:1.0 411:1.0 574:1.0 626:1.0 2471:1.0 3243:1.0 4041:1.0 4379:1.0 8863:1.0 12308:1.0 14281:1.0 14282:1.0 14283:1.0 14284:1.0 14291:1.0 14486:1.0 14487:1.0 14488:1.0 14489:1.0 14612:1.0 14613:1.0 14614:1.0 14615:1.0 14616:1.0 14617:1.0 14618:1.0 15636:1.0 15637:1.0 15639:1.0 15643:1.0 15644:1.0 15645:1.0 15646:1.0 15685:1.0 15686:1.0 15687:1.0 15688:1.0 
