solver_type L2R_L1LOSS_SVC_DUAL
nr_class 22
label 19 18 20 4 10 7 11 6 13 12 16 8 14 15 9 5 21 3 0 2 17 1
nr_feature 9427
bias -1.000000000000000
w
0 0 0 0 0 0 0 0 0 0 0 0 0 0 0 0 0 0 0 0 0 0 
0.02047832229130455 -0.01487562571977497 -0.1196459588119909 -0.04896183519801244 -0.02999500031593556 -0.03207876626534218 -0.02855633236654990 0.01064992802182446 -0.02919423576121030 -0.03987826288651593 -0.02862775943451620 -0.02981808165915558 0.03507847669988929 -0.03445114336870665 -0.03208248431122173 -0.03242068665713957 -0.02919129016823807 -0.02922157687729707 -0.02889667222903516 -0.02594642719506550 -0.02771216525722207 -0.02970986489883229 
-0.03906176422670152 -0.02605567589106686 0.03916819305070143 -0.03311770575145324 -0.03541418608802628 -0.03344200892551366 -0.03631563538872840 -0.03249468654563812 -0.03520282895568686 -0.03219954554599867 -0.03277658903319920 -0.03558335000006897 -0.03281601691881110 -0.03278910311252936 -0.03296686444660563 -0.03263973803638443 -0.03439549054234715 -0.04769277731726070 0.002109522445775389 -0.04729177352084317 -0.03456640385038575 -0.03624621585064274 
-0.007904060780751555 -0.04993051303001735 0.04602473311105113 0 -0.003285541563962806 -0.0008551913702420739 -0.04148919526923548 -0.0008177213123603333 -0.001207677690833657 -0.0001155801257413230 -0.001248452566238306 -0.006144778689563448 -0.002308710713514504 -0.007310959784653147 -0.002567016699346353 -0.002610821490001661 -0.002710724229330132 -0.004025898018859118 -0.001222705876237080 -0.002056130766953128 1.734723475976807e-18 -0.002239172747163346 
-0.02007103283404830 -0.03320482709654091 0.04088996228066538 -0.03762394590762754 -0.02707186716742089 -0.03732430180973558 -0.01980532750778469 -0.02542230342630705 -0.02403671468964844 -0.02192391813634343 -0.02665064042473205 -0.02503048117617964 -0.02607361940350404 -0.02467083231912647 -0.02218898599838910 -0.03994156633458684 -0.03630120539488869 -0.02431075528751755 -0.02698351800812573 -0.02464689610418134 -0.02306091693579995 -0.02910316003696114 
-0.01478925063241868 -0.04439060717327125 -0.08230098404970236 -0.008667962350612051 -0.01002412820771579 -0.01062790861224499 0.08804384490460695 -0.006882088195714377 -0.01082383667959699 -0.01573304627551365 -0.006839046027535867 -0.01286290496098477 -0.007576597787238265 -0.01624743182199423 -0.008418745359435638 -0.008311168344530733 -0.008009982809879662 -0.009135998792713847 -0.007647382346291962 -0.009096401494513205 0.1033020369532787 -0.007679311780437782 
-0.01296790014469912 -0.005752780867520925 0.01321525101977829 -0.007396627128112468 -0.005299269001900111 -0.006071349547397911 -0.07440730842275017 -0.004679624533085135 -0.005266790936139502 -0.01452395561653587 -0.005953155969837380 -0.007335145336869585 -0.005082780946563232 -0.005800885944428472 -0.006574270953119922 -0.006574432198714155 -0.006163226633394311 -0.005725056409860476 -0.006344031459490723 -0.006125828970864053 0 -0.004912967153340109 
0.01373161288260217 -0.004584900582719383 -0.02954819303179602 -0.03782344553605002 -0.03865425091390070 -0.03689776672598954 -0.03677206229847339 -0.03743211959444948 -0.03928166385787785 -0.03940811765952833 -0.05344963882618099 -0.04116771172356612 -0.04449706816919970 -0.04791249527007896 -0.04173871074402553 -0.03943133058653414 -0.03944675635197169 -0.03785349417239371 -0.03952017835347076 -0.03962762849209510 -0.03572991598117483 -0.03871407272118725 
0.01018302891173058 -0.03768252473162467 0.1097297099514877 -0.002059709249169003 -0.005144088685528632 -0.003058488119571656 -0.06109729716080102 -0.004160355051306330 -0.005263010687198826 -0.001858776039662822 -0.003015635026830247 -0.01005328367030851 -0.003939826850816178 -0.009281344638062130 -0.004443013368434852 -0.004359796563023993 -0.004238181588799202 -0.003005786375209238 -0.003694854583400746 -0.003745440024289244 -0.04892460830755400 -0.005621434491826480 
-0.05972532524782737 -0.05233874396923798 0.05172903099763628 0.05533111987034407 -0.004885035498191815 -0.008062169435546353 -0.0003589184095136819 -0.01737593895974864 -0.006739202645507173 -0.002685022506915115 -0.006871037270794599 -0.009759992733782738 -0.004014594541661708 -0.004094753833427646 -0.01931135072994487 -0.007065617848638487 -0.007400166481468757 -0.006111574478529953 -0.008058068807871629 -0.007846029047989390 -0.006192795674635721 -0.007535281316371315 
0.01699332822311347 -0.003631764353078065 0.1033057134388695 -0.03959549362971648 -0.02128337885056967 -0.08683001774219132 -0.02090370820114503 -0.02372237546703494 0.02880331195386543 -0.03660672164151790 -0.01623220648578554 -0.07463934360791550 -0.01594201515881350 -0.02168683463760644 -0.02051851633047894 -0.01706769909425849 -0.01707695070880748 -0.01996136516431588 -0.01910321813838590 -0.01704804244147788 -0.01946671446852197 -0.02151116336596497 
-0.02723310035214850 -0.02407290608092719 0.03242031969201373 -0.01522660963364549 -0.01719831140986239 -0.01624581817522598 -0.01842853570174279 -0.01438193242121216 -0.01821476914388511 -0.01115100930335695 -0.01660024493007348 -0.01983548032962550 -0.01541278427127435 -0.002106740876183138 -0.01482965480897388 -0.01593561721766825 -0.01636501977779665 -0.01549982980983119 -0.01399025304299281 -0.01328674271098000 -0.01218206944658446 -0.01770446512046968 
0.02603539392005391 -0.03384824508767638 -0.04294887894554476 0.009850654229798526 -0.02990232791064498 -0.02622466240208254 -0.02820804208497126 -0.03933662727651729 -0.03789998692366560 -0.02612922919749483 -0.03010031652063147 -0.03207401023809999 -0.03247636168826251 -0.03043407871618835 -0.04004502196124581 -0.02804030218175663 -0.02833665597789984 -0.02909436334389695 -0.02857742292305768 -0.02858847569695096 -0.02907197431177917 -0.02899200553550414 
0.01272140778264209 -0.05781083625418864 -0.03256471312128711 -0.03382740246524953 -0.03611050431068390 -0.03385931620189339 -0.03662308905622358 -0.03456320259473303 -0.03654147836602825 -0.03626339779219467 0.01273662747640626 -0.04977791714809687 -0.04068516190376407 -0.04268225396396315 -0.03889822352693147 -0.03609461438012993 -0.03637391222629201 -0.03583221881450044 -0.03615830545709679 -0.03630578419009083 -0.03580490158576934 -0.03598649471359341 
0.1020720430400800 -0.05270771181003264 -0.1240842542733332 -0.04274113297251342 -0.04939006108469941 -0.03520558553980811 -0.03567954127446264 -0.03785232431469350 -0.03813971130009762 -0.03302775543668705 -0.03985011379097789 -0.04281931518116162 -0.03838432944470369 -0.03600638698820130 0.01299911084503688 -0.05009534224027686 -0.04774363570139803 -0.03785834792650168 -0.03879096967374952 -0.03759430544056509 -0.03599890275273437 -0.03606561438414172 
-0.02836176629557886 -0.02805948911561310 -0.04305214282097968 -0.02369236461795756 -0.02626585193402333 0.009908238867534334 -0.01939542768371090 -0.02465064753049217 -0.02654906165212369 -0.02174863175759675 -0.02473934734789740 -0.02695225223921464 -0.02471508551201427 -0.02481266324041462 -0.02220402507602003 -0.02385362933502795 -0.03226683842931661 -0.02355539618157052 -0.02327554110464457 -0.02746643784654177 -0.02254497185611714 0.03602839356929649 
-0.0001243999485698120 -0.01089209549672875 0.003587969200311416 -0.01919762411834515 -0.01868000190747870 0.03570690707984962 -0.01811083820788885 -0.01698076568209923 -0.01878216308642037 -0.01729925099054813 -0.01473552832066151 -0.03794526449391349 -0.01982349578835515 -0.02323410850578698 -0.01768536403538608 -0.01623258278884153 -0.01622435444406954 -0.01627843527412823 -0.01807725334122446 -0.01676345760194833 -0.01849878928378503 -0.01641497956820331 
0.01833818928724588 -0.03206295387340803 0.04550733446222557 -0.06696206940124748 -0.008670857298934643 -0.008520793300139662 -0.005399866449615712 -0.01019557832755554 -0.009740238926151328 -0.01753652644467427 -0.01642942598057402 -0.01253769827117725 -0.01678397941871403 -0.01072465192907149 -0.01381927574331541 -0.01118436883620268 -0.01124298660663579 -0.01236009116671112 -0.009625388072082146 -0.01114653187772584 -0.01621853901029915 -0.01114605776723529 
-0.01732652906926974 -0.03558955303629399 0.03888224663540106 -0.02415430708064446 -0.02986605949505554 -0.02777410558976411 -0.02369611195797221 -0.02970203597142327 -0.03232927148977911 -0.04515574873105316 -0.02917090201645685 -0.02985900240887081 -0.02911411369304636 -0.02958130509276552 -0.02784251034895446 -0.02825065636808778 -0.02811400631358966 -0.02732767181328448 -0.02690175832552490 -0.02570511378057328 -0.02942158422640443 -0.02885881904092106 
-0.05695474756113451 0.1073509109078630 -0.03135447370041693 0 0 0 -0.02696520082179444 0 0 -0.01004623252244066 0 -0.0007488263699265732 0 0 0 0 0 -0.0003984188529745107 0 0 0 0 
0.1182013824290126 -0.1223012277281699 -0.1091959721466452 0.07377522166955505 -0.01473015522132176 -0.01820204974711691 -0.02772314511931544 -0.001263853262610558 -0.006207697553395673 -0.001500367471190276 -0.005749091581192105 -0.01435200067366149 -0.0009560290625947929 0 -0.01009648064362636 -0.004549368492000728 -0.004558207535648799 -0.007481545257651299 -0.002923166590592269 -0.004929778032619540 -0.006302943060735874 -0.005121260019866319 
-0.03692642209757811 -0.03065008428769104 0.03684335793578202 -0.006091346328452315 -0.01711695271726877 -0.01588566269753604 -0.002833974696754686 -0.01745782288308518 -0.01384976902307571 0.04774758494107606 -0.01441061134327823 -0.01478041287402275 -0.01740913384273622 -0.01691057303704614 -0.01431755921702089 -0.01560285135234833 -0.01628153853532099 -0.01490234421326420 -0.01733313609679883 -0.01303045614764695 -0.04982868557563844 -0.01443512712543423 
0.01755012624179166 0.1167950984470761 -0.06211657697780405 -0.1041539254082306 -0.01021337001940751 -0.001917852606963510 0 -0.004504431525795001 -0.006114669474787247 -0.001560912343538835 -0.006079218260614717 -0.005251159424752207 -0.004088003555670251 -0.003956182667214374 -0.006190965313246971 -0.004587849853945938 -0.004758856728204396 -0.003745220309177548 -0.004879295471687416 -0.004887924461208753 -0.002281296052770122 -0.004176561268037009 
-0.005529273143955242 -0.01156496772345322 -0.006390910286463988 -0.01685221614381116 -0.01803288717549536 -0.01754705471495646 -0.02092492891624970 -0.01539872422061357 -0.01643017900162406 -0.02897870629242776 -0.01763334363096058 -0.01729115995838137 -0.01751034624400967 0.01630231047051739 -0.01625902316704186 -0.01621936793587514 -0.01592931185469053 -0.01625198989032572 -0.01642866355535057 -0.01574798957671823 -0.03345695660923034 -0.01432773184269516 
0.03009036761392079 -0.05078829364758815 -0.03776898297291483 -0.05764734103366089 -0.03870716551868846 -0.04678032623182035 -0.03856189745207899 -0.04472071754198871 -0.03856198177334571 -0.04188906851082527 -0.04135824277547966 -0.04426893470735568 -0.03650975843270964 -0.04055021665573614 0.002671978546294996 -0.03925529045954374 -0.03981607485649613 -0.03983322636328146 -0.04000591089172179 -0.03994278790616881 -0.04018772698739821 -0.03959865265123687 
-0.01270040553317273 -0.02429621023425751 0.03264728953357066 -0.004408810229631899 -0.007360026177913237 -0.01112550944863562 -0.003075221755441041 -0.007886773660338235 -0.008294952500543894 -0.02054380267108570 -0.006892620264794971 -0.01150960994572424 -0.008038556296855624 -0.009756461745127275 -0.007328484272539806 -0.008239305847400267 -0.007668719691941394 -0.009842708022353788 -0.006745545625576816 -0.008934081964361730 -0.008249372327823440 -0.008948978549952890 
-0.03176327442776069 -0.02615299232850116 0.09320258986222527 -0.02520552814938754 -0.02849542010578243 -0.03538794743363509 -0.03068450349125670 -0.02502192932395728 -0.02700991801515272 -0.03416279063355224 -0.02541279507026536 -0.02834845763975263 -0.02535300040119421 -0.02692450310772988 -0.02553922304719643 -0.02584213821732718 -0.02539073029927294 -0.02526670054847813 -0.04333842557151447 0.005497948229693562 -0.02930587851355599 -0.07866809163910297 
-0.08064594605888126 -0.01779796993540003 0.01205907456807451 0.06247271408492949 -0.01563390581330012 -0.01207470894927895 -0.006312502062769267 -0.01270451345077849 -0.01489353393056901 -0.01383363953608918 -0.03255284142769275 0.03991362040386178 -0.01812648046715176 -0.01956163520779238 -0.01471343074991902 -0.01503214048244563 -0.01485317515499372 -0.01793251347670016 -0.01505652276184719 -0.01549387745533496 -0.01705158279872367 -0.01503922609491567 
0.009391743416075217 -0.008796379114600383 -0.02936106328818078 -0.02511239417709314 -0.02074893359908127 -0.01890978112511615 -0.02192989258712770 -0.02929957702299716 -0.01952194512069563 -0.02028493222681122 -0.01863513493592102 -0.01922253345755041 -0.02334487347485182 0.006162869446594524 -0.02096328337212892 -0.01983631451629360 -0.01968589148032502 -0.01977835859176887 -0.02062009383370905 -0.02214425585118514 -0.01587685278456646 -0.01986443485146384 
-0.006413825870277038 -0.003526522242622933 0.007509163015380386 -0.01480622323397830 -0.01373471936840686 -0.01080948367448792 -0.005718589935564940 -0.01248524704367946 -0.01291945815393655 -0.006312824068951269 -0.01327640315934941 -0.01573530981664494 -0.01377805339898165 -0.009844939419294840 -0.01167686612297730 -0.01126184556782723 -0.01084702332659653 -0.01147537075891097 -0.01068363648020077 -0.01123784316384353 -0.006113381277111077 -0.008631132687150750 
0.07592349137563700 -0.07100186823321666 -0.09913010808606657 -0.04718522263103141 0.04908256321925408 -0.05385361152291225 -0.04930324816516070 -0.04842171535913091 -0.04983485144052591 -0.05771249240309646 -0.04966110638545752 -0.04790997948947513 -0.04751573674825459 -0.05577084286773219 -0.06065613458547565 -0.04886003794272579 -0.04878428226578369 -0.05073352646420602 -0.05211133982295617 -0.04998134455092629 -0.05185283808121119 -0.04912609531674501 
-0.06198910449889161 -0.01196324282950317 0.07629250126869844 -0.01789733020472087 -0.01793091389387333 -0.01754602245063051 -0.02220374190797506 -0.02221457696974464 -0.01737318801564398 0.006684536221170283 -0.01749139792263139 -0.01974467782851518 -0.01573175740950318 -0.01581797505708226 -0.01674210061678754 -0.01696455665096019 -0.01718395921493308 -0.01758660990651513 -0.01594062216743996 -0.04615711746341682 -0.01318179289474034 -0.01928058236464064 
0.01031952012896561 0.01095636908809283 -0.03253628006607845 -0.02426146184530238 -0.02307744991359877 -0.02343065635741539 -0.02047064100505565 -0.02215922595600726 -0.02298486959457676 -0.02835681678227672 -0.02531628319232634 -0.02516656757674492 -0.02311900907016667 -0.02166689782296117 -0.02473603334431686 -0.02335963507246351 -0.02265179468574835 -0.02246594589500629 -0.02292848295597717 -0.02276320245269555 -0.01909528151589455 -0.02113902687773255 
0.08202396392579110 -0.08393669787180498 -0.01343861503278710 -0.01082904520970138 -0.02855255988408520 -0.01033751878911192 -0.01160933199708485 -0.01203826953141311 -0.01546547857007750 -0.01351368119026261 -0.01745005071092454 -0.01098106884819896 -0.01396164301646218 -0.01391711752007363 -0.01424612952457627 -0.01436095512247423 -0.01423442714196417 -0.01323161388015094 -0.01494479919568023 -0.01507773830838618 -0.01310065703789619 -0.01326551634221225 
-0.008075640206318836 -0.01238765776877569 0.02206057968338687 0 -0.002537606086570005 -0.0001577495649527306 0 -0.002997317876170651 -0.002986203703218282 -0.006724147038148626 -0.001920417039223817 -0.001230253224214175 -0.003120020272249874 -0.0006629689460363350 -0.003246663374646903 -0.003007919425661715 -0.002952759836792541 -0.002406399105935350 -0.002447725796924186 -0.002728387936592128 -0.004519937394020035 -0.001949404764538523 
-0.01476601882190727 -0.02973876221045018 0.07918269546368108 -0.04190394859610234 -0.008532588790535759 -0.008170195727187990 -0.04824385711214130 -0.009366705123066053 -0.008562825022081104 -0.008573962190700014 -0.007824749377357410 4.878909776184770e-19 -0.008526777139838673 -0.01292514032500908 -0.007466402534167058 -0.009111941300536157 -0.008886997131611295 -0.01082478709367432 -0.006819833675502873 -0.008828119854683758 -0.006251429919815343 -0.009564432544687449 
-0.03721263447077184 0.02850453481847044 -0.02225839414653533 -0.02771627651824370 -0.02583106066848523 -0.03134629654849429 -0.03078059276813395 -0.02616220412420901 -0.02725715510676813 -0.03283733508529904 -0.02964203433666719 -0.02501647708492011 -0.02572322640341877 -0.02276885193862747 -0.03221615295678711 -0.02667309715655518 -0.02661186050508098 -0.02457525438248180 -0.02707897236924136 -0.02721128528469649 -0.02489693851269125 -0.02772854603765387 
-0.03037125405573724 -0.02208587774659954 0.05305523050866789 -0.03277128876105845 -0.02885060211916511 -0.03701132191177561 -0.02881863988257348 -0.03181246719489270 -0.02775898640255423 -0.02726009212768976 -0.02624205806022838 -0.04386313411019065 -0.03297739999674293 -0.03456286788812871 -0.03126696540617932 -0.02853967044756220 -0.02872294969336633 -0.02768772125452449 -0.02798082565729828 -0.02812674864831982 -0.02747211515963630 -0.02841449110974099 
-0.08257818171409398 0.05178665818672430 0.04588497002906115 -0.03174445735688481 -0.008350950911577499 -0.02307872051694816 -0.01591281893326913 -0.02127235292434154 -0.01585639031706855 -0.01775632826523961 -0.01440477602360462 -0.01983436547604790 -0.01434321887585122 -0.01511665682981152 -0.02372256237764998 -0.01576659143427957 -0.01586759599000626 -0.01539212696599721 -0.01478915232795561 -0.01521269749688119 -0.01482283655864999 -0.01730482779414776 
0.003311917375989083 0.004698042358325546 -0.01191715015400249 -0.02696991559714261 -0.02677589030175133 -0.02591983717379493 -0.02785840983342315 -0.02806684304103333 -0.03032385849188468 -0.02474536423295638 -0.03029663192870143 -0.02743545218761638 -0.02832358925430343 -0.03142849298108442 -0.03122842645162857 -0.02833894665880645 -0.02826187515032991 -0.02612338572911442 -0.02611028883242248 -0.02723192473290955 -0.04554968847486143 -0.02990467687120207 
0.005309597663691686 -0.03396862467148604 -0.03006541948746306 -0.01142874409540728 -0.01267890868710552 -0.01477377498559238 0.06835468212816823 -0.01031680212494910 -0.01130229774388137 -0.01024278620977434 -0.01007928026930506 -0.01440189308637175 -0.01212684903189162 -0.01188845240967238 -0.01023610573950201 -0.01180337199384892 -0.01296803311542635 0.02521493760560339 -0.02959478310922054 -0.01093777564982260 -0.04270193934311684 -0.01307219454342702 
-0.03427203839686337 -0.02210289941930775 -0.07160077999902392 -0.01548434862068648 -0.03032096940412151 0.01769008287808247 0.01501913439465382 -0.01739446513261407 -0.02597738524286805 -0.02484262689259636 -0.02030141917107828 0.05381552512095512 -0.01672747173136831 -0.02313119262048029 -0.01477139318967090 -0.02393248307642130 -0.02372952544428066 -0.01986791015088865 -0.02186792972172903 -0.02084765085644408 -0.02126117900085377 -0.02016334193686546 
0.06021635317487336 0.006046075511939525 -0.07178361864070883 -0.02496226966180128 -0.02478155471661557 -0.03307283961954013 -0.02748508063500018 -0.02518916791664914 -0.02604516529565958 -0.01994668731887736 -0.02513113661221930 -0.02678121472710867 -0.02560017669487772 -0.02996678362119888 -0.02695926185338337 -0.02541303980437550 -0.02550620595039919 -0.03804897389835939 -0.02325699694245495 -0.02280595970788202 -0.02311335442380241 -0.02768442181288516 
-0.01248419808644822 -0.008405633290341434 0.007231012013485579 -0.006527510279136606 -0.01421491097403802 -0.01026706603757045 -0.01392859986644318 -0.01454692582051310 -0.01311496930379518 -0.01506126131810800 -0.01306472687429030 -0.01714976057154722 -0.008775898071799303 -0.01205483286280312 -0.01144471807490279 -0.01480469755493043 -0.01490252733039427 -0.01444987616681122 -0.01446909327639572 -0.01481996339443125 -0.01642944811383471 -0.01538268691566989 
-0.03165277146107925 -0.05088303948775040 0.05448394115703578 -0.01900935819630895 -0.02418928469642986 -0.02157933203182601 -0.03476017870261444 -0.02750781858617969 -0.03093596286408221 -0.008826740806212399 -0.02458189416046904 -0.02665582865088056 -0.08836814847873131 -0.03210582851237832 -0.02358200905496445 -0.02286836062896658 -0.02284660040787969 -0.02263833133491754 -0.02235197061707073 -0.01800390038555860 -0.01660175854807179 -0.02419547478722935 
-0.02524099716961501 -0.01988346351507922 -0.03340152170969607 -0.02149169241097910 -0.03960393462764435 -0.02982324184455968 -0.02826504693167020 -0.02374708889590871 -0.02448505894160344 -0.02971432815898113 -0.02445052435043048 0.01792365013082985 -0.02420164861554195 -0.03040382733171663 -0.04212694730133249 0.01620800934789195 0.01384493219434198 -0.02647523083085682 -0.02890742041416360 -0.02580248615768974 -0.02717627735942055 -0.02398164110795295 
0 0 0 0 0 0 0 0 0 0 0 0 0 0 0 0 0 0 0 0 0 0 
0.09674663528704079 -0.01317606415860609 -0.06577839101690854 -0.01291059412138582 -0.01662668304731078 -0.01644205787309774 -0.01702538753664085 -0.02529344388179253 -0.02157374191469945 -0.01655210859347522 -0.01932302642011605 -0.01791786479103763 -0.02598633786519360 -0.02340741689612609 -0.01749113011021166 -0.01634740493070577 -0.01781923455201881 -0.01752053240083537 -0.01683014998058429 -0.02042609361052331 -0.01565638368912130 -0.01669380932921549 
-0.01517489017259555 -0.03931568004095513 -0.002753911542559676 -0.02234344024162849 -0.02717330078612776 -0.02191908768843413 -0.03462960505983310 -0.02421818345548871 -0.02294034338454431 -0.02539689855754941 -0.02421263699371326 -0.02605509877106513 -0.02476358108169285 -0.02705118310425849 -0.02337371201177563 -0.02670569705085619 -0.02497745366483451 0.03689142852077511 -0.03881761770447226 -0.02243537413527943 -0.02340629226224176 -0.02295457489687617 
-0.08545314703505560 0.01028704831748271 0.03624447610255186 0 -0.0005509800083645125 -0.002556906804061742 -0.01648180279395110 -0.0008985114219778016 -0.0003979899689756279 0.06996705074892513 -0.001024420160631335 -0.0007488263699265734 -0.001077501856769405 0 -0.002679505551252649 -0.001579151869739995 -0.001512761372923352 -0.001904120550859705 -0.001028147055244663 -0.0008127379926144069 -0.02097606854162175 -0.0005589696384639931 
-0.04631669877611809 -0.01975104431490693 0.03691263084951996 -0.02157564166339262 -0.02163515373138646 -0.02214228690742989 -0.02446838039008607 -0.02142830271903146 -0.02093572927497085 -0.02428535703097415 -0.02215504977794711 -0.03792390572742253 -0.02167200371642292 -0.02570398519390915 -0.03169484431482722 0.03858822881809905 -0.03268515323581669 -0.02472550065412004 -0.02314138532535370 -0.02378948787542438 -0.02476032475918571 -0.02289848848809081 
-0.05052958353110137 -0.02428874676596439 0.03787268866519716 -0.01022876553650496 -0.01094689665545970 -0.01540810161472088 -0.02339689438007252 -0.009369242613336295 -0.006071135235752105 0.04215652663126322 -0.01251312927934071 -0.008376191183777231 -0.009015295476379970 0.02312732784023894 -0.01098127027408984 -0.01051731030509750 -0.01010480825725424 -0.01039167524147434 -0.01171419001947407 -0.009823823857367667 -0.03867607774814427 -0.008861230795626387 
0.2093584346615665 -0.06436686683801764 -0.1018655940171409 -0.007396627128112468 -0.004185360448913555 -0.004249264211289977 0 -0.004598834423467668 -0.003665950148711968 -0.09471716131103850 -0.005574619068234070 -0.003485796942780254 -0.004667094397808923 -0.003468720989398787 -0.006461782101213625 -0.004988040871225449 -0.004945674261187124 -0.005117259115297287 -0.003988375695047844 -0.004395869941579682 0 -0.004054573198719558 
0.07336368848441695 -0.02840435050822998 -0.07526178622529246 -0.02221986382273615 -0.02690292103959393 -0.02776875583749818 -0.02611263837653008 -0.02801979464180814 -0.02896789313287852 -0.02519660986991407 -0.02429323008421219 -0.02929511892462826 -0.02462600950048089 -0.02397141561933984 -0.02559887773255934 -0.02734005345715537 -0.02736436796530386 -0.02982311132018552 -0.02674766331220393 -0.02756891954709996 -0.03259437314165448 -0.02750546068641900 
-0.008796364797291773 0.03316335299641085 -0.02861836745877157 -0.006553484527047754 -0.007417858735785350 -0.02498990048067289 -0.001783382943995896 -0.005680384594229915 -0.003461244389944724 0.02090111217665422 -0.009349125696071443 -0.005568616487653355 -0.006511830794790617 -0.008590532636120573 -0.008947511639388391 -0.007593372044966039 -0.007373772459429252 -0.008237158060206948 -0.007923176934512438 -0.01027006111572443 -0.003722131929047830 -0.004009712426642374 
-0.006224189670781870 0.01283389069133207 0.01042679265806641 -0.02190057587641076 -0.008478418117605694 -0.01414900680516025 -0.008275079072248594 -0.008933458138545300 -0.01390299793894107 -0.01363331026473994 -0.01642201363836938 -0.01114541226361202 -0.01300404799173589 -0.01462100499206728 -0.02387043802657792 -0.01249185422704884 -0.01295527143814941 -0.01023990153394649 -0.01223144259074911 -0.01225895937401759 -0.009244393906802359 -0.01118857099979091 
-0.007571546073734136 -0.04252774325476607 -0.09448141969775702 0.06961728895719077 -0.03404850739082985 0.002782863902421038 -0.02804476220736650 0.03200450325449916 -0.04009334615780251 -0.02989929043228626 -0.03081192244355007 -0.02089619112845766 -0.1088494149241237 -0.09464000811338875 -0.002117053876041351 -0.02842920345637781 -0.02843423591855909 -0.02992595518665187 -0.02965730401454343 -0.02953548035373757 -0.02879946878357304 -0.02761630166138056 
-0.04336291204363395 -0.04440681754143026 0.03407379685623684 -0.02644649798870985 -0.02726007699691180 -0.02595586390067358 -0.006935411273788831 -0.02794333803006940 -0.02319918956322100 -0.03319124891557569 -0.02600914274590722 -0.02238819941282038 -0.02831456872907887 -0.02793276740344780 -0.02763928943195979 -0.02817008072900755 -0.02724230137393874 -0.03102935174231850 -0.03304484791376749 -0.03041949000493763 -0.01945085297554803 -0.02277497754334324 
0.07891192290514891 -0.01949347122173519 -0.05584184371878807 -0.03231968169633258 -0.02534414491931844 -0.02442412823743730 -0.02574085678859076 -0.02950958983794328 -0.02609230533807113 -0.03330073121825484 -0.02625737698867713 -0.02381099810139507 -0.02933881428146610 -0.02295053206790504 -0.02140533815540028 -0.03144231564724524 -0.02597594060183394 -0.02559135529370876 -0.02560767532725804 -0.02564141878913519 -0.02559176510838693 -0.02546316827314804 
0.07501825648280658 -0.02726502630482447 -0.05844065332558825 -0.03162935380554449 -0.03090512965936455 -0.03117649134961850 -0.03121035880387955 -0.03142354458208160 -0.03212010107688452 -0.03263169517027384 -0.04302708560319217 -0.02800253527721432 -0.02774902958298004 -0.02733313485386110 -0.02983181635230624 -0.03050625630536906 -0.03042341454170606 -0.03104341608682085 -0.03063201665389664 -0.03072523751955701 -0.03156428038336381 -0.03063862143822143 
0.07299694993574710 -0.02833965093907231 -0.04711284880821270 -0.03411372641398027 -0.05037496566009484 -0.03409407390233152 -0.03330977943160261 -0.03441485788107478 -0.03256740515086266 -0.03153685484443432 -0.03334466636706503 -0.03285400076241207 -0.03447394602883355 -0.03349999108774374 -0.04771215069120133 -0.03265819796880157 -0.03284395935882187 -0.03462543371972031 -0.03356638476248656 -0.03381776481990120 -0.03357755456699006 -0.03398221462064524 
-0.04797373984814576 -0.02541905836751472 0.07152229537104676 -0.03012861385155495 -0.02707190910385983 -0.03542173360680854 -0.02896942151175430 -0.02749578681308427 -0.02603898567009339 -0.03001508432571282 -0.02792145525369733 -0.04080711582367520 -0.02769829775518761 -0.02942150447162550 -0.03483561557851763 -0.03797769371691877 0.01638874919664995 -0.02872430101800363 -0.03878798790835009 -0.02796023660527491 -0.02994754206708176 -0.03989854664745621 
-0.1096119043443747 -0.03106717284983106 0.1178227477888355 -0.07456455294512432 -0.03415682602273223 -0.07456893450883563 -0.02622225925628726 -0.09841007691568010 -0.03167446333335260 -0.03740979698613461 -0.03364648202141905 -0.02837330544998629 0.02528206156542679 0.02547616056323669 -0.02800042897067313 -0.02700888119198119 -0.02740138630606118 -0.02820713052474742 -0.02851626045854866 -0.02787539342695627 -0.02852550836590062 -0.02733650419698325 
-0.05587396373749111 -0.01063052833673484 0.03679909418573776 -0.002256474904753778 -0.009220608987228358 -0.01947195539563596 -0.004839407543571714 -0.007823918216517498 -0.02207387316732856 0.04719578107501736 -0.01103794473225260 -0.006455748490232746 -0.003718150403871404 -0.007725282134656046 -0.007598381477896470 -0.008041434697525433 -0.008242727144243985 -0.008390621077305345 -0.01038629679535523 -0.009958351224644574 -0.008014552370903604 -0.007859023921709509 
-0.02594585000533806 0.02667318400024616 -0.03606867473951529 -0.02855294104252441 -0.02790377179325333 -0.02495711272258113 -0.02431024763493760 -0.02509996265648971 -0.02366156507793778 0.01965868566546808 -0.02643094289461797 -0.02721139444121397 -0.02609697040779172 -0.02491602228224989 -0.02977493563455844 -0.02781318960995699 -0.02729870461328041 -0.02832834998535940 -0.02814762646241832 -0.02739267870894240 -0.02485209566942013 -0.02593323303779482 
0.003680924190112679 0.1076234627107329 -0.04417787407428373 0 4.878909776184770e-19 0 0 0 0 -0.1048201454729229 0 0 -2.168404344971009e-19 0 0 0 0 -0.0002746876634320144 0 0 0 0 
-0.08015223080933170 0.07420430465172825 0.002176936364815848 -0.02213524576370148 -0.04656253692657127 -0.01846480526895848 -0.009475203002186563 -0.01349933524402286 -0.01300010098126581 -0.01362684646664796 -0.01516827661484687 -0.01114119742232755 -0.01255936231284004 -0.01364290441685459 -0.007814861498586120 -0.01176624848209549 -0.01170553062511846 -0.01244296610091099 -0.01103470365848671 -0.01165713203602162 -0.009567644880619619 -0.01064506357675254 
0.01604076090131326 -0.02898323165392168 -0.06112839763702446 -0.01349688305159335 -0.01952998114055728 -0.01996753462574938 -0.01417020462246655 -0.01635487683032276 -0.01404903179036987 -0.02615367731884998 -0.01647388163660761 -0.02000760610179090 -0.01659807474025524 -0.02161863340484482 -0.01668770569707021 -0.01919745647162160 -0.01871460080332685 -0.01987522062284737 -0.01843761407036657 -0.02441707086847156 0.08906370769653695 -0.01655424494603690 
0.1920804172239842 -0.1710817388186102 -0.02666533894706050 -0.001473541618242935 -0.001240335254521385 -0.001917852606963510 -0.002294487349975719 -0.005158747728829160 -0.006169811319017188 -0.002781113251953126 -0.009013535817397831 -0.006740328642030568 -0.005691898325694448 -0.005802393383594093 -0.007677101976701052 -0.005650688547243717 -0.005837028295497744 -0.002545865883869958 -0.005734758642843624 -0.005838488410024775 -0.003302638913886056 -0.005229130086192020 
-0.04680853991721720 -0.03211351035411094 0.06092941730486493 -0.01605792099028421 -0.01956025901953633 -0.01701414838574497 0.008674033298048493 -0.01868454505223635 -0.01555241802678292 -0.02112894540243569 -0.01646768752035158 -0.01959611698070160 -0.01429720919686487 -0.03063085737390387 -0.01742011157113158 -0.01935790736687001 -0.01884151246976663 -0.01907969850626393 -0.01904380709938999 -0.01944365811553191 -0.04576654844810071 -0.01797349949604904 
0.07005705323308090 -0.02432875350982591 -0.06641091621254046 -0.02401022560571872 -0.02874603757839461 -0.03500931531793101 -0.03102449421332065 -0.02783135438387997 -0.03485693157687379 -0.02764546693270370 -0.02989003999595084 -0.02252387482602872 -0.02814200604224726 -0.02584490415277127 -0.03721103667973693 -0.02886719883038211 -0.02893817676289323 -0.02882357948202674 -0.02867090166513927 -0.02910083251693629 -0.02864031749504145 -0.02902088545494807 
-0.01803190156277716 0.02624735773910816 -0.04175961804744460 -0.006952369971434272 -0.006739904266772039 -0.01282320873679123 -0.003736973484999638 -0.005215108429686244 -0.003534312339126818 -0.005416463983740901 -0.009954429054339117 -0.004659455075832245 -0.006311754045379672 0.01996527583942308 -0.009414702047633054 -0.007563341129145852 -0.007298521019453750 -0.006959731048595782 -0.008499632992946524 -0.007673254638579251 -0.003168818082747489 -0.003754988585206621 
0.002614460269755020 -0.01927554060589231 -0.04373133434521119 -0.02171517901673126 -0.02476643825881920 -0.01948110261577413 -0.02969787881542707 -0.02184148925940189 -0.02036354651512475 -0.02206285540931849 -0.02181914260110740 -0.02221761394704067 -0.02203026312188836 -0.02470602695149687 -0.02101082966560936 -0.02210947508575407 -0.02785563599503882 -0.03042118064993754 0.04846112268005196 -0.03192279547007520 -0.02051080588643573 -0.01273341006193810 
-0.01749007696573294 -0.0003555904270298742 -0.03945565639327828 -0.03110190111910045 -0.009267004177321618 -0.01464234156694485 -0.008558592938429827 -0.01318115518239340 -0.01587354047632098 -0.01212004771970348 0.05384199476525253 -0.02291351774213883 -0.009857118632063757 -0.01098144318083898 -0.02169692678282202 -0.01351594687005415 -0.01379677729049375 -0.01199076760528143 -0.01348842780883340 -0.01350916307679093 -0.007344365806809530 -0.01244744013314986 
-0.06847188097868243 -0.03322000966014767 0.09821618571547658 -0.02238612759476879 -0.02104380717975728 -0.03368408930850297 -0.003040403069135827 -0.01822263983181759 -0.02604628912556353 -0.02517337776224988 -0.02267418010441415 -0.04092940224010482 -0.01972620407169404 -0.02893708502750016 -0.01941619574826561 -0.02197871022386657 -0.02159106496564694 -0.02273013996251161 -0.02273428468782412 -0.02271892456025565 -0.02082154757652969 -0.02165455498426151 
-0.1181199964335447 -0.08663226572700836 0.1455021353907119 -0.04303691821658466 -0.04704621712452783 -0.05211788955908753 -0.06165126313084712 -0.04671201619870049 -0.04059248517475885 -0.05658090769141069 -0.04509453322540820 -0.02748200316133644 -0.04387744766831467 -0.05163741197180463 -0.05090980343493445 -0.05358454969368601 -0.05255301414997773 -0.05126901933653436 -0.05271184440263681 -0.05004635591257757 -0.06381310195886424 -0.05892493902983820 
0 0 0 0 0 0 0 0 0 0 0 0 0 0 0 0 0 0 0 0 0 0 
0.02656234946598996 -0.01531194101246529 -0.08200603741512716 -0.01646576949767657 -0.01939520740633390 -0.01430706264303525 -0.01324126024883139 -0.01567425235159929 -0.01401518513628473 -0.02086116152742593 -0.01580878396268422 -0.01717026391750012 -0.01467943383021394 -0.01887325865182473 -0.01715741261585683 -0.01800954737996819 -0.01720003792067209 -0.01736263806148731 -0.02204381985542824 0.09179455522053560 -0.02599253788420870 -0.01438258544056656 
0.07842647450829640 -0.02953221008802191 -0.06044446728991693 -0.01853248994468852 -0.02095188761553220 -0.02021332394998204 -0.01879592582624858 -0.02293171989409339 -0.02019519771606345 -0.03027236858695417 -0.02015343958122197 -0.01925101509556135 -0.02058152167394946 -0.02030318079874407 -0.02108736672929909 -0.02119395422151444 -0.02127307339754117 -0.02155789751168120 -0.02086194573688195 -0.02067809956360808 -0.01822690392979235 -0.02114553961182583 
4.336808689942018e-19 -0.004304703117188165 -0.01257591950123433 -0.02069040748447436 -0.04768834702231620 -0.01863719097365486 -0.01920655822793836 -0.01894068090102509 -0.01918448149188979 -0.01648254529894132 -0.01841985112479577 -0.02002279846511935 -0.01697248750477397 -0.01502420071679250 -0.01282008945965632 -0.01796562027532108 -0.01834933312535291 -0.01819723415757389 -0.01720616205731452 -0.01781192640675927 -0.01862355399059217 -0.01778861439286626 
-0.02880531177942394 0.02166256342277978 -0.01015217900227652 -0.007834277618598694 -0.006994081102667260 -0.009275458164683208 -0.005037413363297615 -0.007539943516393708 -0.006579827767826004 0.03781553547744257 -0.01039452287052537 -0.005405993207328736 -0.007688827038161537 -0.007815033064488504 -0.01233989089057835 -0.009040063272499182 -0.008322228858883679 -0.007977651595398975 -0.008818932675444216 -0.008519316763601535 -0.008781117378527086 -0.007495329936873983 
-0.05138365025451744 0.01182604566308622 0.005917998903695204 -0.01271636078721935 -0.005328958869817494 0.04574134233760350 -0.02578709696444705 -0.007560074210965879 -0.009300258364679223 -0.009161579416260774 -0.01189322007146659 -0.03453249224088684 -0.007656064823216627 -0.01170326102272387 -0.009778687635738787 -0.008245018503205054 -0.008410322227408265 -0.006738627380247630 -0.007931302072269027 -0.008140530408861318 -0.005954178449947978 -0.007222657669348414 
0.08034439065637934 -0.03624760162992036 -0.04510825135630758 -0.02008119210482364 -0.01627262402652763 -0.02666697578803384 -0.02655638360858579 -0.02109555456793938 -0.02322058798860712 -0.02593089050259750 -0.02026479381261419 -0.03336480009072226 -0.02189764204978857 -0.01932380904303959 -0.01930694477691783 -0.02113239449706594 -0.02161670587714258 -0.02094964131762702 -0.02012807728565400 -0.02034852565352537 -0.02056874536696755 -0.01928497169505068 
-0.02295754641990562 -0.02141419022607190 -0.002180315925016746 -0.03918646094880223 -0.03002993969423533 -0.02782312381677560 -0.02806277095477443 -0.02699763184277257 -0.03071250995045043 -0.03415972579188062 -0.03617515933747208 0.03207830907236457 -0.02381544876469814 -0.02603736010003093 -0.02578188597687609 -0.02861208390586427 -0.02828865060673238 -0.03161893217216228 -0.02988117950117565 -0.02981001866280510 -0.03418089654147800 -0.02874015322619193 
0.07136755004335141 -0.01752989215765181 -0.06361598187129613 -0.005065516583564605 -0.003175883356574069 -0.007224218751622646 -0.01061438834786973 -0.01123821014025518 -0.01199003002740197 -0.01601398863254398 -0.01134062233358822 -0.008294872016626046 -0.01219224789593039 -0.01176724481074813 -0.01884491873902001 -0.01177498072068234 -0.01179396948495566 -0.01204713866219553 -0.01257065835267369 -0.01113075944430266 -0.01202217624236958 -0.01029503912863278 
0.07371764543317638 -0.04181557977431698 -0.06041427891252051 -0.02147273198476061 -0.02410436299721972 -0.02218890952562871 -0.02149068810568740 -0.02234049396656786 -0.02095314803777533 -0.02104334414522601 -0.02132945599575027 -0.02261330189734161 -0.02299951716412566 -0.02174561138841882 -0.02112437608344799 -0.02334883300367278 -0.02282840345823307 -0.02164954448699501 -0.02356111076230556 -0.02308117919529877 -0.01990717820435533 -0.02166057881179152 
-0.03754752370080895 0.007735723701966918 0.02318769570156505 -0.009535587504261148 -0.009037509097529702 0.04532712362434137 -0.02029540619425425 -0.007775236592613101 -0.006406165942503545 -0.01390790245651436 -0.01157748174332901 -0.007370728329719833 -0.008690670176642830 -0.01693153833660525 -0.01090755204454294 -0.008692874633327317 -0.007105245306571992 -0.02311556587925847 -0.009985906224476003 -0.01038347520431831 -0.009553039514263720 -0.03274008700370393 
-0.09195954743771347 -0.04714124792786413 0.09915497542458047 -0.002228312038677328 0.02643981142004052 -0.02273927617928915 -0.02789598825426099 -0.01072157570198651 -0.01972145957743378 -0.02420115487052935 -0.02045313477667500 -0.04047752277683299 -0.01211923573113437 -0.01897140389803339 -0.02114764488480709 -0.02187486671698439 -0.02166719060484730 -0.02240686164798324 -0.02252434318991583 -0.02194186919501247 -0.02390572538800054 -0.02108602263694375 
0.07530906889137200 -0.03181760273538769 -0.05220687842949792 -0.02200065790853692 -0.01920371785629018 -0.02426181795385119 -0.01836076337299323 -0.02084284307508499 -0.01799436807403219 -0.01768717451575695 -0.02075792383017466 -0.01705740182885070 -0.02139697573644273 -0.02900174826047905 -0.02230859268287597 -0.02239542538858382 -0.02003770921872015 -0.01964981497825657 -0.02240392113571646 -0.02466508353158009 -0.02026398507279086 -0.02836661550380617 
-0.1478377595713052 -0.06094015481638541 0.1776950103676562 -0.07440114317340105 -0.04817526352637938 -0.06002159513239001 -0.05325966673790698 -0.05000619075049526 -0.05978622401286730 -0.05732916579275851 -0.05724870102100587 -0.03789074935333400 -0.06279065390365891 -0.05394270206220773 -0.05686127999792454 -0.04873323280458262 -0.04938413015319409 -0.04977616275656106 -0.05012472575338854 -0.05092037634249479 -0.04700421946575169 -0.04881936759426910 
-0.1473533294859182 -0.05416733091571254 0.1613311425901882 -0.03311119239672476 -0.02960207916622629 -0.03610692961519163 -0.04288145629189841 -0.02698743772259040 -0.002559052535558023 -0.04162701586227571 -0.02807509645587314 -0.02535510387853826 -0.02505349825620566 -0.03220974639109515 -0.02785600683301392 -0.02924403755465644 -0.02854394252299780 -0.03213870016024400 -0.03341657978394171 -0.09082814349614907 -0.06122272499531267 -0.01496249933999559 
-0.08109297064297626 -0.04117809643258031 0.03091879279959496 -0.03286722034155976 0.01916520453098485 -0.02834908018057382 -0.02998271176016669 -0.02804809475142010 -0.02838285756785047 -0.02778098066556895 -0.03045203246961912 -0.04396612542787148 -0.02891847556275835 -0.02893953948877320 0.03439973904133034 -0.04325737330896052 -0.03849215251008902 -0.03051877634243463 -0.03025056740907196 -0.02977499325861466 -0.02933663427571552 -0.03022504463391973 
0 0 0 0 0 0 0 0 0 0 0 0 0 0 0 0 0 0 0 0 0 0 
0.02047832229130455 -0.01487562571977497 -0.1196459588119909 -0.04896183519801244 -0.02999500031593556 -0.03207876626534218 -0.02855633236654990 0.01064992802182446 -0.02919423576121030 -0.03987826288651593 -0.02862775943451620 -0.02981808165915558 0.03507847669988929 -0.03445114336870665 -0.03208248431122173 -0.03242068665713957 -0.02919129016823807 -0.02922157687729707 -0.02889667222903516 -0.02594642719506550 -0.02771216525722207 -0.02970986489883229 
-0.03906176422670152 -0.02605567589106686 0.03916819305070143 -0.03311770575145324 -0.03541418608802628 -0.03344200892551366 -0.03631563538872840 -0.03249468654563812 -0.03520282895568686 -0.03219954554599867 -0.03277658903319920 -0.03558335000006897 -0.03281601691881110 -0.03278910311252936 -0.03296686444660563 -0.03263973803638443 -0.03439549054234715 -0.04769277731726070 0.002109522445775389 -0.04729177352084317 -0.03456640385038575 -0.03624621585064274 
-0.0001243999485698120 -0.01089209549672875 0.003587969200311416 -0.01919762411834515 -0.01868000190747870 0.03570690707984962 -0.01811083820788885 -0.01698076568209923 -0.01878216308642037 -0.01729925099054813 -0.01473552832066151 -0.03794526449391349 -0.01982349578835515 -0.02323410850578698 -0.01768536403538608 -0.01623258278884153 -0.01622435444406954 -0.01627843527412823 -0.01807725334122446 -0.01676345760194833 -0.01849878928378503 -0.01641497956820331 
-0.007904060780751555 -0.04993051303001735 0.04602473311105113 0 -0.003285541563962806 -0.0008551913702420739 -0.04148919526923548 -0.0008177213123603333 -0.001207677690833657 -0.0001155801257413230 -0.001248452566238306 -0.006144778689563448 -0.002308710713514504 -0.007310959784653147 -0.002567016699346353 -0.002610821490001661 -0.002710724229330132 -0.004025898018859118 -0.001222705876237080 -0.002056130766953128 1.734723475976807e-18 -0.002239172747163346 
-0.02007103283404830 -0.03320482709654091 0.04088996228066538 -0.03762394590762754 -0.02707186716742089 -0.03732430180973558 -0.01980532750778469 -0.02542230342630705 -0.02403671468964844 -0.02192391813634343 -0.02665064042473205 -0.02503048117617964 -0.02607361940350404 -0.02467083231912647 -0.02218898599838910 -0.03994156633458684 -0.03630120539488869 -0.02431075528751755 -0.02698351800812573 -0.02464689610418134 -0.02306091693579995 -0.02910316003696114 
-0.01478925063241868 -0.04439060717327125 -0.08230098404970236 -0.008667962350612051 -0.01002412820771579 -0.01062790861224499 0.08804384490460695 -0.006882088195714377 -0.01082383667959699 -0.01573304627551365 -0.006839046027535867 -0.01286290496098477 -0.007576597787238265 -0.01624743182199423 -0.008418745359435638 -0.008311168344530733 -0.008009982809879662 -0.009135998792713847 -0.007647382346291962 -0.009096401494513205 0.1033020369532787 -0.007679311780437782 
-0.01296790014469912 -0.005752780867520925 0.01321525101977829 -0.007396627128112468 -0.005299269001900111 -0.006071349547397911 -0.07440730842275017 -0.004679624533085135 -0.005266790936139502 -0.01452395561653587 -0.005953155969837380 -0.007335145336869585 -0.005082780946563232 -0.005800885944428472 -0.006574270953119922 -0.006574432198714155 -0.006163226633394311 -0.005725056409860476 -0.006344031459490723 -0.006125828970864053 0 -0.004912967153340109 
0.01031952012896561 0.01095636908809283 -0.03253628006607845 -0.02426146184530238 -0.02307744991359877 -0.02343065635741539 -0.02047064100505565 -0.02215922595600726 -0.02298486959457676 -0.02835681678227672 -0.02531628319232634 -0.02516656757674492 -0.02311900907016667 -0.02166689782296117 -0.02473603334431686 -0.02335963507246351 -0.02265179468574835 -0.02246594589500629 -0.02292848295597717 -0.02276320245269555 -0.01909528151589455 -0.02113902687773255 
0.01018302891173058 -0.03768252473162467 0.1097297099514877 -0.002059709249169003 -0.005144088685528632 -0.003058488119571656 -0.06109729716080102 -0.004160355051306330 -0.005263010687198826 -0.001858776039662822 -0.003015635026830247 -0.01005328367030851 -0.003939826850816178 -0.009281344638062130 -0.004443013368434852 -0.004359796563023993 -0.004238181588799202 -0.003005786375209238 -0.003694854583400746 -0.003745440024289244 -0.04892460830755400 -0.005621434491826480 
-0.05972532524782737 -0.05233874396923798 0.05172903099763628 0.05533111987034407 -0.004885035498191815 -0.008062169435546353 -0.0003589184095136819 -0.01737593895974864 -0.006739202645507173 -0.002685022506915115 -0.006871037270794599 -0.009759992733782738 -0.004014594541661708 -0.004094753833427646 -0.01931135072994487 -0.007065617848638487 -0.007400166481468757 -0.006111574478529953 -0.008058068807871629 -0.007846029047989390 -0.006192795674635721 -0.007535281316371315 
0.01699332822311347 -0.003631764353078065 0.1033057134388695 -0.03959549362971648 -0.02128337885056967 -0.08683001774219132 -0.02090370820114503 -0.02372237546703494 0.02880331195386543 -0.03660672164151790 -0.01623220648578554 -0.07463934360791550 -0.01594201515881350 -0.02168683463760644 -0.02051851633047894 -0.01706769909425849 -0.01707695070880748 -0.01996136516431588 -0.01910321813838590 -0.01704804244147788 -0.01946671446852197 -0.02151116336596497 
0.01373161288260217 -0.004584900582719383 -0.02954819303179602 -0.03782344553605002 -0.03865425091390070 -0.03689776672598954 -0.03677206229847339 -0.03743211959444948 -0.03928166385787785 -0.03940811765952833 -0.05344963882618099 -0.04116771172356612 -0.04449706816919970 -0.04791249527007896 -0.04173871074402553 -0.03943133058653414 -0.03944675635197169 -0.03785349417239371 -0.03952017835347076 -0.03962762849209510 -0.03572991598117483 -0.03871407272118725 
0.02603539392005391 -0.03384824508767638 -0.04294887894554476 0.009850654229798526 -0.02990232791064498 -0.02622466240208254 -0.02820804208497126 -0.03933662727651729 -0.03789998692366560 -0.02612922919749483 -0.03010031652063147 -0.03207401023809999 -0.03247636168826251 -0.03043407871618835 -0.04004502196124581 -0.02804030218175663 -0.02833665597789984 -0.02909436334389695 -0.02857742292305768 -0.02858847569695096 -0.02907197431177917 -0.02899200553550414 
0.01272140778264209 -0.05781083625418864 -0.03256471312128711 -0.03382740246524953 -0.03611050431068390 -0.03385931620189339 -0.03662308905622358 -0.03456320259473303 -0.03654147836602825 -0.03626339779219467 0.01273662747640626 -0.04977791714809687 -0.04068516190376407 -0.04268225396396315 -0.03889822352693147 -0.03609461438012993 -0.03637391222629201 -0.03583221881450044 -0.03615830545709679 -0.03630578419009083 -0.03580490158576934 -0.03598649471359341 
-0.03427203839686337 -0.02210289941930775 -0.07160077999902392 -0.01548434862068648 -0.03032096940412151 0.01769008287808247 0.01501913439465382 -0.01739446513261407 -0.02597738524286805 -0.02484262689259636 -0.02030141917107828 0.05381552512095512 -0.01672747173136831 -0.02313119262048029 -0.01477139318967090 -0.02393248307642130 -0.02372952544428066 -0.01986791015088865 -0.02186792972172903 -0.02084765085644408 -0.02126117900085377 -0.02016334193686546 
-0.02836176629557886 -0.02805948911561310 -0.04305214282097968 -0.02369236461795756 -0.02626585193402333 0.009908238867534334 -0.01939542768371090 -0.02465064753049217 -0.02654906165212369 -0.02174863175759675 -0.02473934734789740 -0.02695225223921464 -0.02471508551201427 -0.02481266324041462 -0.02220402507602003 -0.02385362933502795 -0.03226683842931661 -0.02355539618157052 -0.02327554110464457 -0.02746643784654177 -0.02254497185611714 0.03602839356929649 
0.01833818928724588 -0.03206295387340803 0.04550733446222557 -0.06696206940124748 -0.008670857298934643 -0.008520793300139662 -0.005399866449615712 -0.01019557832755554 -0.009740238926151328 -0.01753652644467427 -0.01642942598057402 -0.01253769827117725 -0.01678397941871403 -0.01072465192907149 -0.01381927574331541 -0.01118436883620268 -0.01124298660663579 -0.01236009116671112 -0.009625388072082146 -0.01114653187772584 -0.01621853901029915 -0.01114605776723529 
-0.05695474756113451 0.1073509109078630 -0.03135447370041693 0 0 0 -0.02696520082179444 0 0 -0.01004623252244066 0 -0.0007488263699265732 0 0 0 0 0 -0.0003984188529745107 0 0 0 0 
0.1182013824290126 -0.1223012277281699 -0.1091959721466452 0.07377522166955505 -0.01473015522132176 -0.01820204974711691 -0.02772314511931544 -0.001263853262610558 -0.006207697553395673 -0.001500367471190276 -0.005749091581192105 -0.01435200067366149 -0.0009560290625947929 0 -0.01009648064362636 -0.004549368492000728 -0.004558207535648799 -0.007481545257651299 -0.002923166590592269 -0.004929778032619540 -0.006302943060735874 -0.005121260019866319 
-0.03692642209757811 -0.03065008428769104 0.03684335793578202 -0.006091346328452315 -0.01711695271726877 -0.01588566269753604 -0.002833974696754686 -0.01745782288308518 -0.01384976902307571 0.04774758494107606 -0.01441061134327823 -0.01478041287402275 -0.01740913384273622 -0.01691057303704614 -0.01431755921702089 -0.01560285135234833 -0.01628153853532099 -0.01490234421326420 -0.01733313609679883 -0.01303045614764695 -0.04982868557563844 -0.01443512712543423 
0.01755012624179166 0.1167950984470761 -0.06211657697780405 -0.1041539254082306 -0.01021337001940751 -0.001917852606963510 0 -0.004504431525795001 -0.006114669474787247 -0.001560912343538835 -0.006079218260614717 -0.005251159424752207 -0.004088003555670251 -0.003956182667214374 -0.006190965313246971 -0.004587849853945938 -0.004758856728204396 -0.003745220309177548 -0.004879295471687416 -0.004887924461208753 -0.002281296052770122 -0.004176561268037009 
-0.005529273143955242 -0.01156496772345322 -0.006390910286463988 -0.01685221614381116 -0.01803288717549536 -0.01754705471495646 -0.02092492891624970 -0.01539872422061357 -0.01643017900162406 -0.02897870629242776 -0.01763334363096058 -0.01729115995838137 -0.01751034624400967 0.01630231047051739 -0.01625902316704186 -0.01621936793587514 -0.01592931185469053 -0.01625198989032572 -0.01642866355535057 -0.01574798957671823 -0.03345695660923034 -0.01432773184269516 
0.03009036761392079 -0.05078829364758815 -0.03776898297291483 -0.05764734103366089 -0.03870716551868846 -0.04678032623182035 -0.03856189745207899 -0.04472071754198871 -0.03856198177334571 -0.04188906851082527 -0.04135824277547966 -0.04426893470735568 -0.03650975843270964 -0.04055021665573614 0.002671978546294996 -0.03925529045954374 -0.03981607485649613 -0.03983322636328146 -0.04000591089172179 -0.03994278790616881 -0.04018772698739821 -0.03959865265123687 
-0.01270040553317273 -0.02429621023425751 0.03264728953357066 -0.004408810229631899 -0.007360026177913237 -0.01112550944863562 -0.003075221755441041 -0.007886773660338235 -0.008294952500543894 -0.02054380267108570 -0.006892620264794971 -0.01150960994572424 -0.008038556296855624 -0.009756461745127275 -0.007328484272539806 -0.008239305847400267 -0.007668719691941394 -0.009842708022353788 -0.006745545625576816 -0.008934081964361730 -0.008249372327823440 -0.008948978549952890 
-0.03176327442776069 -0.02615299232850116 0.09320258986222527 -0.02520552814938754 -0.02849542010578243 -0.03538794743363509 -0.03068450349125670 -0.02502192932395728 -0.02700991801515272 -0.03416279063355224 -0.02541279507026536 -0.02834845763975263 -0.02535300040119421 -0.02692450310772988 -0.02553922304719643 -0.02584213821732718 -0.02539073029927294 -0.02526670054847813 -0.04333842557151447 0.005497948229693562 -0.02930587851355599 -0.07866809163910297 
-0.08064594605888126 -0.01779796993540003 0.01205907456807451 0.06247271408492949 -0.01563390581330012 -0.01207470894927895 -0.006312502062769267 -0.01270451345077849 -0.01489353393056901 -0.01383363953608918 -0.03255284142769275 0.03991362040386178 -0.01812648046715176 -0.01956163520779238 -0.01471343074991902 -0.01503214048244563 -0.01485317515499372 -0.01793251347670016 -0.01505652276184719 -0.01549387745533496 -0.01705158279872367 -0.01503922609491567 
0.009391743416075217 -0.008796379114600383 -0.02936106328818078 -0.02511239417709314 -0.02074893359908127 -0.01890978112511615 -0.02192989258712770 -0.02929957702299716 -0.01952194512069563 -0.02028493222681122 -0.01863513493592102 -0.01922253345755041 -0.02334487347485182 0.006162869446594524 -0.02096328337212892 -0.01983631451629360 -0.01968589148032502 -0.01977835859176887 -0.02062009383370905 -0.02214425585118514 -0.01587685278456646 -0.01986443485146384 
-0.006413825870277038 -0.003526522242622933 0.007509163015380386 -0.01480622323397830 -0.01373471936840686 -0.01080948367448792 -0.005718589935564940 -0.01248524704367946 -0.01291945815393655 -0.006312824068951269 -0.01327640315934941 -0.01573530981664494 -0.01377805339898165 -0.009844939419294840 -0.01167686612297730 -0.01126184556782723 -0.01084702332659653 -0.01147537075891097 -0.01068363648020077 -0.01123784316384353 -0.006113381277111077 -0.008631132687150750 
-0.02723310035214850 -0.02407290608092719 0.03242031969201373 -0.01522660963364549 -0.01719831140986239 -0.01624581817522598 -0.01842853570174279 -0.01438193242121216 -0.01821476914388511 -0.01115100930335695 -0.01660024493007348 -0.01983548032962550 -0.01541278427127435 -0.002106740876183138 -0.01482965480897388 -0.01593561721766825 -0.01636501977779665 -0.01549982980983119 -0.01399025304299281 -0.01328674271098000 -0.01218206944658446 -0.01770446512046968 
0.07592349137563700 -0.07100186823321666 -0.09913010808606657 -0.04718522263103141 0.04908256321925408 -0.05385361152291225 -0.04930324816516070 -0.04842171535913091 -0.04983485144052591 -0.05771249240309646 -0.04966110638545752 -0.04790997948947513 -0.04751573674825459 -0.05577084286773219 -0.06065613458547565 -0.04886003794272579 -0.04878428226578369 -0.05073352646420602 -0.05211133982295617 -0.04998134455092629 -0.05185283808121119 -0.04912609531674501 
-0.06198910449889161 -0.01196324282950317 0.07629250126869844 -0.01789733020472087 -0.01793091389387333 -0.01754602245063051 -0.02220374190797506 -0.02221457696974464 -0.01737318801564398 0.006684536221170283 -0.01749139792263139 -0.01974467782851518 -0.01573175740950318 -0.01581797505708226 -0.01674210061678754 -0.01696455665096019 -0.01718395921493308 -0.01758660990651513 -0.01594062216743996 -0.04615711746341682 -0.01318179289474034 -0.01928058236464064 
-0.008075640206318836 -0.01238765776877569 0.02206057968338687 0 -0.002537606086570005 -0.0001577495649527306 0 -0.002997317876170651 -0.002986203703218282 -0.006724147038148626 -0.001920417039223817 -0.001230253224214175 -0.003120020272249874 -0.0006629689460363350 -0.003246663374646903 -0.003007919425661715 -0.002952759836792541 -0.002406399105935350 -0.002447725796924186 -0.002728387936592128 -0.004519937394020035 -0.001949404764538523 
-0.01476601882190727 -0.02973876221045018 0.07918269546368108 -0.04190394859610234 -0.008532588790535759 -0.008170195727187990 -0.04824385711214130 -0.009366705123066053 -0.008562825022081104 -0.008573962190700014 -0.007824749377357410 4.878909776184770e-19 -0.008526777139838673 -0.01292514032500908 -0.007466402534167058 -0.009111941300536157 -0.008886997131611295 -0.01082478709367432 -0.006819833675502873 -0.008828119854683758 -0.006251429919815343 -0.009564432544687449 
0.1020720430400800 -0.05270771181003264 -0.1240842542733332 -0.04274113297251342 -0.04939006108469941 -0.03520558553980811 -0.03567954127446264 -0.03785232431469350 -0.03813971130009762 -0.03302775543668705 -0.03985011379097789 -0.04281931518116162 -0.03838432944470369 -0.03600638698820130 0.01299911084503688 -0.05009534224027686 -0.04774363570139803 -0.03785834792650168 -0.03879096967374952 -0.03759430544056509 -0.03599890275273437 -0.03606561438414172 
-0.0005542177883028041 -0.03215003968508064 0.03244635499627404 -0.04257350256658619 -0.03690351079566268 -0.03341623930606009 -0.02752215093035398 -0.03331062245575463 -0.03132186888714605 -0.03127000945550221 -0.03185482673452914 -0.03081543432424690 -0.02830486189231340 -0.02903377434988518 -0.03796869190222625 -0.03012754655675380 -0.03010202313197045 -0.02862374084614812 -0.02973395152363587 -0.03029043580526739 -0.02792349359654622 -0.03057034413636002 
0.003311917375989083 0.004698042358325546 -0.01191715015400249 -0.02696991559714261 -0.02677589030175133 -0.02591983717379493 -0.02785840983342315 -0.02806684304103333 -0.03032385849188468 -0.02474536423295638 -0.03029663192870143 -0.02743545218761638 -0.02832358925430343 -0.03142849298108442 -0.03122842645162857 -0.02833894665880645 -0.02826187515032991 -0.02612338572911442 -0.02611028883242248 -0.02723192473290955 -0.04554968847486143 -0.02990467687120207 
-0.03721263447077184 0.02850453481847044 -0.02225839414653533 -0.02771627651824370 -0.02583106066848523 -0.03134629654849429 -0.03078059276813395 -0.02616220412420901 -0.02725715510676813 -0.03283733508529904 -0.02964203433666719 -0.02501647708492011 -0.02572322640341877 -0.02276885193862747 -0.03221615295678711 -0.02667309715655518 -0.02661186050508098 -0.02457525438248180 -0.02707897236924136 -0.02721128528469649 -0.02489693851269125 -0.02772854603765387 
-0.03037125405573724 -0.02208587774659954 0.05305523050866789 -0.03277128876105845 -0.02885060211916511 -0.03701132191177561 -0.02881863988257348 -0.03181246719489270 -0.02775898640255423 -0.02726009212768976 -0.02624205806022838 -0.04386313411019065 -0.03297739999674293 -0.03456286788812871 -0.03126696540617932 -0.02853967044756220 -0.02872294969336633 -0.02768772125452449 -0.02798082565729828 -0.02812674864831982 -0.02747211515963630 -0.02841449110974099 
0.005309597663691686 -0.03396862467148604 -0.03006541948746306 -0.01142874409540728 -0.01267890868710552 -0.01477377498559238 0.06835468212816823 -0.01031680212494910 -0.01130229774388137 -0.01024278620977434 -0.01007928026930506 -0.01440189308637175 -0.01212684903189162 -0.01188845240967238 -0.01023610573950201 -0.01180337199384892 -0.01296803311542635 0.02521493760560339 -0.02959478310922054 -0.01093777564982260 -0.04270193934311684 -0.01307219454342702 
0.06021635317487336 0.006046075511939525 -0.07178361864070883 -0.02496226966180128 -0.02478155471661557 -0.03307283961954013 -0.02748508063500018 -0.02518916791664914 -0.02604516529565958 -0.01994668731887736 -0.02513113661221930 -0.02678121472710867 -0.02560017669487772 -0.02996678362119888 -0.02695926185338337 -0.02541303980437550 -0.02550620595039919 -0.03804897389835939 -0.02325699694245495 -0.02280595970788202 -0.02311335442380241 -0.02768442181288516 
-0.01732652906926974 -0.03558955303629399 0.03888224663540106 -0.02415430708064446 -0.02986605949505554 -0.02777410558976411 -0.02369611195797221 -0.02970203597142327 -0.03232927148977911 -0.04515574873105316 -0.02917090201645685 -0.02985900240887081 -0.02911411369304636 -0.02958130509276552 -0.02784251034895446 -0.02825065636808778 -0.02811400631358966 -0.02732767181328448 -0.02690175832552490 -0.02570511378057328 -0.02942158422640443 -0.02885881904092106 
-0.01248419808644822 -0.008405633290341434 0.007231012013485579 -0.006527510279136606 -0.01421491097403802 -0.01026706603757045 -0.01392859986644318 -0.01454692582051310 -0.01311496930379518 -0.01506126131810800 -0.01306472687429030 -0.01714976057154722 -0.008775898071799303 -0.01205483286280312 -0.01144471807490279 -0.01480469755493043 -0.01490252733039427 -0.01444987616681122 -0.01446909327639572 -0.01481996339443125 -0.01642944811383471 -0.01538268691566989 
-0.03165277146107925 -0.05088303948775040 0.05448394115703578 -0.01900935819630895 -0.02418928469642986 -0.02157933203182601 -0.03476017870261444 -0.02750781858617969 -0.03093596286408221 -0.008826740806212399 -0.02458189416046904 -0.02665582865088056 -0.08836814847873131 -0.03210582851237832 -0.02358200905496445 -0.02286836062896658 -0.02284660040787969 -0.02263833133491754 -0.02235197061707073 -0.01800390038555860 -0.01660175854807179 -0.02419547478722935 
-0.02524099716961501 -0.01988346351507922 -0.03340152170969607 -0.02149169241097910 -0.03960393462764435 -0.02982324184455968 -0.02826504693167020 -0.02374708889590871 -0.02448505894160344 -0.02971432815898113 -0.02445052435043048 0.01792365013082985 -0.02420164861554195 -0.03040382733171663 -0.04212694730133249 0.01620800934789195 0.01384493219434198 -0.02647523083085682 -0.02890742041416360 -0.02580248615768974 -0.02717627735942055 -0.02398164110795295 
0 0 0 0 0 0 0 0 0 0 0 0 0 0 0 0 0 0 0 0 0 0 
0.09674663528704079 -0.01317606415860609 -0.06577839101690854 -0.01291059412138582 -0.01662668304731078 -0.01644205787309774 -0.01702538753664085 -0.02529344388179253 -0.02157374191469945 -0.01655210859347522 -0.01932302642011605 -0.01791786479103763 -0.02598633786519360 -0.02340741689612609 -0.01749113011021166 -0.01634740493070577 -0.01781923455201881 -0.01752053240083537 -0.01683014998058429 -0.02042609361052331 -0.01565638368912130 -0.01669380932921549 
-0.01517489017259555 -0.03931568004095513 -0.002753911542559676 -0.02234344024162849 -0.02717330078612776 -0.02191908768843413 -0.03462960505983310 -0.02421818345548871 -0.02294034338454431 -0.02539689855754941 -0.02421263699371326 -0.02605509877106513 -0.02476358108169285 -0.02705118310425849 -0.02337371201177563 -0.02670569705085619 -0.02497745366483451 0.03689142852077511 -0.03881761770447226 -0.02243537413527943 -0.02340629226224176 -0.02295457489687617 
-0.1096119043443747 -0.03106717284983106 0.1178227477888355 -0.07456455294512432 -0.03415682602273223 -0.07456893450883563 -0.02622225925628726 -0.09841007691568010 -0.03167446333335260 -0.03740979698613461 -0.03364648202141905 -0.02837330544998629 0.02528206156542679 0.02547616056323669 -0.02800042897067313 -0.02700888119198119 -0.02740138630606118 -0.02820713052474742 -0.02851626045854866 -0.02787539342695627 -0.02852550836590062 -0.02733650419698325 
-0.08545314703505560 0.01028704831748271 0.03624447610255186 0 -0.0005509800083645125 -0.002556906804061742 -0.01648180279395110 -0.0008985114219778016 -0.0003979899689756279 0.06996705074892513 -0.001024420160631335 -0.0007488263699265734 -0.001077501856769405 0 -0.002679505551252649 -0.001579151869739995 -0.001512761372923352 -0.001904120550859705 -0.001028147055244663 -0.0008127379926144069 -0.02097606854162175 -0.0005589696384639931 
-0.04631669877611809 -0.01975104431490693 0.03691263084951996 -0.02157564166339262 -0.02163515373138646 -0.02214228690742989 -0.02446838039008607 -0.02142830271903146 -0.02093572927497085 -0.02428535703097415 -0.02215504977794711 -0.03792390572742253 -0.02167200371642292 -0.02570398519390915 -0.03169484431482722 0.03858822881809905 -0.03268515323581669 -0.02472550065412004 -0.02314138532535370 -0.02378948787542438 -0.02476032475918571 -0.02289848848809081 
-0.05052958353110137 -0.02428874676596439 0.03787268866519716 -0.01022876553650496 -0.01094689665545970 -0.01540810161472088 -0.02339689438007252 -0.009369242613336295 -0.006071135235752105 0.04215652663126322 -0.01251312927934071 -0.008376191183777231 -0.009015295476379970 0.02312732784023894 -0.01098127027408984 -0.01051731030509750 -0.01010480825725424 -0.01039167524147434 -0.01171419001947407 -0.009823823857367667 -0.03867607774814427 -0.008861230795626387 
0.2093584346615665 -0.06436686683801764 -0.1018655940171409 -0.007396627128112468 -0.004185360448913555 -0.004249264211289977 0 -0.004598834423467668 -0.003665950148711968 -0.09471716131103850 -0.005574619068234070 -0.003485796942780254 -0.004667094397808923 -0.003468720989398787 -0.006461782101213625 -0.004988040871225449 -0.004945674261187124 -0.005117259115297287 -0.003988375695047844 -0.004395869941579682 0 -0.004054573198719558 
0.07842647450829640 -0.02953221008802191 -0.06044446728991693 -0.01853248994468852 -0.02095188761553220 -0.02021332394998204 -0.01879592582624858 -0.02293171989409339 -0.02019519771606345 -0.03027236858695417 -0.02015343958122197 -0.01925101509556135 -0.02058152167394946 -0.02030318079874407 -0.02108736672929909 -0.02119395422151444 -0.02127307339754117 -0.02155789751168120 -0.02086194573688195 -0.02067809956360808 -0.01822690392979235 -0.02114553961182583 
-0.008796364797291773 0.03316335299641085 -0.02861836745877157 -0.006553484527047754 -0.007417858735785350 -0.02498990048067289 -0.001783382943995896 -0.005680384594229915 -0.003461244389944724 0.02090111217665422 -0.009349125696071443 -0.005568616487653355 -0.006511830794790617 -0.008590532636120573 -0.008947511639388391 -0.007593372044966039 -0.007373772459429252 -0.008237158060206948 -0.007923176934512438 -0.01027006111572443 -0.003722131929047830 -0.004009712426642374 
-0.006224189670781870 0.01283389069133207 0.01042679265806641 -0.02190057587641076 -0.008478418117605694 -0.01414900680516025 -0.008275079072248594 -0.008933458138545300 -0.01390299793894107 -0.01363331026473994 -0.01642201363836938 -0.01114541226361202 -0.01300404799173589 -0.01462100499206728 -0.02387043802657792 -0.01249185422704884 -0.01295527143814941 -0.01023990153394649 -0.01223144259074911 -0.01225895937401759 -0.009244393906802359 -0.01118857099979091 
-0.007571546073734136 -0.04252774325476607 -0.09448141969775702 0.06961728895719077 -0.03404850739082985 0.002782863902421038 -0.02804476220736650 0.03200450325449916 -0.04009334615780251 -0.02989929043228626 -0.03081192244355007 -0.02089619112845766 -0.1088494149241237 -0.09464000811338875 -0.002117053876041351 -0.02842920345637781 -0.02843423591855909 -0.02992595518665187 -0.02965730401454343 -0.02953548035373757 -0.02879946878357304 -0.02761630166138056 
0.07336368848441695 -0.02840435050822998 -0.07526178622529246 -0.02221986382273615 -0.02690292103959393 -0.02776875583749818 -0.02611263837653008 -0.02801979464180814 -0.02896789313287852 -0.02519660986991407 -0.02429323008421219 -0.02929511892462826 -0.02462600950048089 -0.02397141561933984 -0.02559887773255934 -0.02734005345715537 -0.02736436796530386 -0.02982311132018552 -0.02674766331220393 -0.02756891954709996 -0.03259437314165448 -0.02750546068641900 
0.07891192290514891 -0.01949347122173519 -0.05584184371878807 -0.03231968169633258 -0.02534414491931844 -0.02442412823743730 -0.02574085678859076 -0.02950958983794328 -0.02609230533807113 -0.03330073121825484 -0.02625737698867713 -0.02381099810139507 -0.02933881428146610 -0.02295053206790504 -0.02140533815540028 -0.03144231564724524 -0.02597594060183394 -0.02559135529370876 -0.02560767532725804 -0.02564141878913519 -0.02559176510838693 -0.02546316827314804 
0.07501825648280658 -0.02726502630482447 -0.05844065332558825 -0.03162935380554449 -0.03090512965936455 -0.03117649134961850 -0.03121035880387955 -0.03142354458208160 -0.03212010107688452 -0.03263169517027384 -0.04302708560319217 -0.02800253527721432 -0.02774902958298004 -0.02733313485386110 -0.02983181635230624 -0.03050625630536906 -0.03042341454170606 -0.03104341608682085 -0.03063201665389664 -0.03072523751955701 -0.03156428038336381 -0.03063862143822143 
-0.09195954743771347 -0.04714124792786413 0.09915497542458047 -0.002228312038677328 0.02643981142004052 -0.02273927617928915 -0.02789598825426099 -0.01072157570198651 -0.01972145957743378 -0.02420115487052935 -0.02045313477667500 -0.04047752277683299 -0.01211923573113437 -0.01897140389803339 -0.02114764488480709 -0.02187486671698439 -0.02166719060484730 -0.02240686164798324 -0.02252434318991583 -0.02194186919501247 -0.02390572538800054 -0.02108602263694375 
-0.04797373984814576 -0.02541905836751472 0.07152229537104676 -0.03012861385155495 -0.02707190910385983 -0.03542173360680854 -0.02896942151175430 -0.02749578681308427 -0.02603898567009339 -0.03001508432571282 -0.02792145525369733 -0.04080711582367520 -0.02769829775518761 -0.02942150447162550 -0.03483561557851763 -0.03797769371691877 0.01638874919664995 -0.02872430101800363 -0.03878798790835009 -0.02796023660527491 -0.02994754206708176 -0.03989854664745621 
-0.05587396373749111 -0.01063052833673484 0.03679909418573776 -0.002256474904753778 -0.009220608987228358 -0.01947195539563596 -0.004839407543571714 -0.007823918216517498 -0.02207387316732856 0.04719578107501736 -0.01103794473225260 -0.006455748490232746 -0.003718150403871404 -0.007725282134656046 -0.007598381477896470 -0.008041434697525433 -0.008242727144243985 -0.008390621077305345 -0.01038629679535523 -0.009958351224644574 -0.008014552370903604 -0.007859023921709509 
0.003680924190112679 0.1076234627107329 -0.04417787407428373 0 4.878909776184770e-19 0 0 0 0 -0.1048201454729229 0 0 -2.168404344971009e-19 0 0 0 0 -0.0002746876634320144 0 0 0 0 
-0.08015223080933170 0.07420430465172825 0.002176936364815848 -0.02213524576370148 -0.04656253692657127 -0.01846480526895848 -0.009475203002186563 -0.01349933524402286 -0.01300010098126581 -0.01362684646664796 -0.01516827661484687 -0.01114119742232755 -0.01255936231284004 -0.01364290441685459 -0.007814861498586120 -0.01176624848209549 -0.01170553062511846 -0.01244296610091099 -0.01103470365848671 -0.01165713203602162 -0.009567644880619619 -0.01064506357675254 
0.01604076090131326 -0.02898323165392168 -0.06112839763702446 -0.01349688305159335 -0.01952998114055728 -0.01996753462574938 -0.01417020462246655 -0.01635487683032276 -0.01404903179036987 -0.02615367731884998 -0.01647388163660761 -0.02000760610179090 -0.01659807474025524 -0.02161863340484482 -0.01668770569707021 -0.01919745647162160 -0.01871460080332685 -0.01987522062284737 -0.01843761407036657 -0.02441707086847156 0.08906370769653695 -0.01655424494603690 
0.1920804172239842 -0.1710817388186102 -0.02666533894706050 -0.001473541618242935 -0.001240335254521385 -0.001917852606963510 -0.002294487349975719 -0.005158747728829160 -0.006169811319017188 -0.002781113251953126 -0.009013535817397831 -0.006740328642030568 -0.005691898325694448 -0.005802393383594093 -0.007677101976701052 -0.005650688547243717 -0.005837028295497744 -0.002545865883869958 -0.005734758642843624 -0.005838488410024775 -0.003302638913886056 -0.005229130086192020 
-0.04680853991721720 -0.03211351035411094 0.06092941730486493 -0.01605792099028421 -0.01956025901953633 -0.01701414838574497 0.008674033298048493 -0.01868454505223635 -0.01555241802678292 -0.02112894540243569 -0.01646768752035158 -0.01959611698070160 -0.01429720919686487 -0.03063085737390387 -0.01742011157113158 -0.01935790736687001 -0.01884151246976663 -0.01907969850626393 -0.01904380709938999 -0.01944365811553191 -0.04576654844810071 -0.01797349949604904 
0.07005705323308090 -0.02432875350982591 -0.06641091621254046 -0.02401022560571872 -0.02874603757839461 -0.03500931531793101 -0.03102449421332065 -0.02783135438387997 -0.03485693157687379 -0.02764546693270370 -0.02989003999595084 -0.02252387482602872 -0.02814200604224726 -0.02584490415277127 -0.03721103667973693 -0.02886719883038211 -0.02893817676289323 -0.02882357948202674 -0.02867090166513927 -0.02910083251693629 -0.02864031749504145 -0.02902088545494807 
-0.01803190156277716 0.02624735773910816 -0.04175961804744460 -0.006952369971434272 -0.006739904266772039 -0.01282320873679123 -0.003736973484999638 -0.005215108429686244 -0.003534312339126818 -0.005416463983740901 -0.009954429054339117 -0.004659455075832245 -0.006311754045379672 0.01996527583942308 -0.009414702047633054 -0.007563341129145852 -0.007298521019453750 -0.006959731048595782 -0.008499632992946524 -0.007673254638579251 -0.003168818082747489 -0.003754988585206621 
0.002614460269755020 -0.01927554060589231 -0.04373133434521119 -0.02171517901673126 -0.02476643825881920 -0.01948110261577413 -0.02969787881542707 -0.02184148925940189 -0.02036354651512475 -0.02206285540931849 -0.02181914260110740 -0.02221761394704067 -0.02203026312188836 -0.02470602695149687 -0.02101082966560936 -0.02210947508575407 -0.02785563599503882 -0.03042118064993754 0.04846112268005196 -0.03192279547007520 -0.02051080588643573 -0.01273341006193810 
-0.01749007696573294 -0.0003555904270298742 -0.03945565639327828 -0.03110190111910045 -0.009267004177321618 -0.01464234156694485 -0.008558592938429827 -0.01318115518239340 -0.01587354047632098 -0.01212004771970348 0.05384199476525253 -0.02291351774213883 -0.009857118632063757 -0.01098144318083898 -0.02169692678282202 -0.01351594687005415 -0.01379677729049375 -0.01199076760528143 -0.01348842780883340 -0.01350916307679093 -0.007344365806809530 -0.01244744013314986 
-0.06847188097868243 -0.03322000966014767 0.09821618571547658 -0.02238612759476879 -0.02104380717975728 -0.03368408930850297 -0.003040403069135827 -0.01822263983181759 -0.02604628912556353 -0.02517337776224988 -0.02267418010441415 -0.04092940224010482 -0.01972620407169404 -0.02893708502750016 -0.01941619574826561 -0.02197871022386657 -0.02159106496564694 -0.02273013996251161 -0.02273428468782412 -0.02271892456025565 -0.02082154757652969 -0.02165455498426151 
-0.1181199964335447 -0.08663226572700836 0.1455021353907119 -0.04303691821658466 -0.04704621712452783 -0.05211788955908753 -0.06165126313084712 -0.04671201619870049 -0.04059248517475885 -0.05658090769141069 -0.04509453322540820 -0.02748200316133644 -0.04387744766831467 -0.05163741197180463 -0.05090980343493445 -0.05358454969368601 -0.05255301414997773 -0.05126901933653436 -0.05271184440263681 -0.05004635591257757 -0.06381310195886424 -0.05892493902983820 
-0.04336291204363395 -0.04440681754143026 0.03407379685623684 -0.02644649798870985 -0.02726007699691180 -0.02595586390067358 -0.006935411273788831 -0.02794333803006940 -0.02319918956322100 -0.03319124891557569 -0.02600914274590722 -0.02238819941282038 -0.02831456872907887 -0.02793276740344780 -0.02763928943195979 -0.02817008072900755 -0.02724230137393874 -0.03102935174231850 -0.03304484791376749 -0.03041949000493763 -0.01945085297554803 -0.02277497754334324 
0 0 0 0 0 0 0 0 0 0 0 0 0 0 0 0 0 0 0 0 0 0 
0.02656234946598996 -0.01531194101246529 -0.08200603741512716 -0.01646576949767657 -0.01939520740633390 -0.01430706264303525 -0.01324126024883139 -0.01567425235159929 -0.01401518513628473 -0.02086116152742593 -0.01580878396268422 -0.01717026391750012 -0.01467943383021394 -0.01887325865182473 -0.01715741261585683 -0.01800954737996819 -0.01720003792067209 -0.01736263806148731 -0.02204381985542824 0.09179455522053560 -0.02599253788420870 -0.01438258544056656 
-0.02880531177942394 0.02166256342277978 -0.01015217900227652 -0.007834277618598694 -0.006994081102667260 -0.009275458164683208 -0.005037413363297615 -0.007539943516393708 -0.006579827767826004 0.03781553547744257 -0.01039452287052537 -0.005405993207328736 -0.007688827038161537 -0.007815033064488504 -0.01233989089057835 -0.009040063272499182 -0.008322228858883679 -0.007977651595398975 -0.008818932675444216 -0.008519316763601535 -0.008781117378527086 -0.007495329936873983 
-0.05138365025451744 0.01182604566308622 0.005917998903695204 -0.01271636078721935 -0.005328958869817494 0.04574134233760350 -0.02578709696444705 -0.007560074210965879 -0.009300258364679223 -0.009161579416260774 -0.01189322007146659 -0.03453249224088684 -0.007656064823216627 -0.01170326102272387 -0.009778687635738787 -0.008245018503205054 -0.008410322227408265 -0.006738627380247630 -0.007931302072269027 -0.008140530408861318 -0.005954178449947978 -0.007222657669348414 
0.07299694993574710 -0.02833965093907231 -0.04711284880821270 -0.03411372641398027 -0.05037496566009484 -0.03409407390233152 -0.03330977943160261 -0.03441485788107478 -0.03256740515086266 -0.03153685484443432 -0.03334466636706503 -0.03285400076241207 -0.03447394602883355 -0.03349999108774374 -0.04771215069120133 -0.03265819796880157 -0.03284395935882187 -0.03462543371972031 -0.03356638476248656 -0.03381776481990120 -0.03357755456699006 -0.03398221462064524 
0.07136755004335144 -0.02183459527483998 -0.07619190137253043 -0.02575592406803896 -0.05086423037889027 -0.02586140972527750 -0.02982094657580808 -0.03017889104128027 -0.03117451151929174 -0.03249653393148529 -0.02976047345838397 -0.02831767048174540 -0.02916473540070436 -0.02679144552754064 -0.03166500819867630 -0.02974060099600341 -0.03014330261030856 -0.03024437281976942 -0.02977682040998822 -0.02894268585106193 -0.03064573023296178 -0.02808365352149904 
0.07371764543317638 -0.04181557977431698 -0.06041427891252051 -0.02147273198476061 -0.02410436299721972 -0.02218890952562871 -0.02149068810568740 -0.02234049396656786 -0.02095314803777533 -0.02104334414522601 -0.02132945599575027 -0.02261330189734161 -0.02299951716412566 -0.02174561138841882 -0.02112437608344799 -0.02334883300367278 -0.02282840345823307 -0.02164954448699501 -0.02356111076230556 -0.02308117919529877 -0.01990717820435533 -0.02166057881179152 
0.08034439065637934 -0.03624760162992036 -0.04510825135630758 -0.02008119210482364 -0.01627262402652763 -0.02666697578803384 -0.02655638360858579 -0.02109555456793938 -0.02322058798860712 -0.02593089050259750 -0.02026479381261419 -0.03336480009072226 -0.02189764204978857 -0.01932380904303959 -0.01930694477691783 -0.02113239449706594 -0.02161670587714258 -0.02094964131762702 -0.02012807728565400 -0.02034852565352537 -0.02056874536696755 -0.01928497169505068 
-0.02295754641990562 -0.02141419022607190 -0.002180315925016746 -0.03918646094880223 -0.03002993969423533 -0.02782312381677560 -0.02806277095477443 -0.02699763184277257 -0.03071250995045043 -0.03415972579188062 -0.03617515933747208 0.03207830907236457 -0.02381544876469814 -0.02603736010003093 -0.02578188597687609 -0.02861208390586427 -0.02828865060673238 -0.03161893217216228 -0.02988117950117565 -0.02981001866280510 -0.03418089654147800 -0.02874015322619193 
-0.03754752370080895 0.007735723701966918 0.02318769570156505 -0.009535587504261148 -0.009037509097529702 0.04532712362434137 -0.02029540619425425 -0.007775236592613101 -0.006406165942503545 -0.01390790245651436 -0.01157748174332901 -0.007370728329719833 -0.008690670176642830 -0.01693153833660525 -0.01090755204454294 -0.008692874633327317 -0.007105245306571992 -0.02311556587925847 -0.009985906224476003 -0.01038347520431831 -0.009553039514263720 -0.03274008700370393 
0.07530906889137200 -0.03181760273538769 -0.05220687842949792 -0.02200065790853692 -0.01920371785629018 -0.02426181795385119 -0.01836076337299323 -0.02084284307508499 -0.01799436807403219 -0.01768717451575695 -0.02075792383017466 -0.01705740182885070 -0.02139697573644273 -0.02900174826047905 -0.02230859268287597 -0.02239542538858382 -0.02003770921872015 -0.01964981497825657 -0.02240392113571646 -0.02466508353158009 -0.02026398507279086 -0.02836661550380617 
-0.02594585000533806 0.02667318400024616 -0.03606867473951529 -0.02855294104252441 -0.02790377179325333 -0.02495711272258113 -0.02431024763493760 -0.02509996265648971 -0.02366156507793778 0.01965868566546808 -0.02643094289461797 -0.02721139444121397 -0.02609697040779172 -0.02491602228224989 -0.02977493563455844 -0.02781318960995699 -0.02729870461328041 -0.02832834998535940 -0.02814762646241832 -0.02739267870894240 -0.02485209566942013 -0.02593323303779482 
-0.1478377595713052 -0.06094015481638541 0.1776950103676562 -0.07440114317340105 -0.04817526352637938 -0.06002159513239001 -0.05325966673790698 -0.05000619075049526 -0.05978622401286730 -0.05732916579275851 -0.05724870102100587 -0.03789074935333400 -0.06279065390365891 -0.05394270206220773 -0.05686127999792454 -0.04873323280458262 -0.04938413015319409 -0.04977616275656106 -0.05012472575338854 -0.05092037634249479 -0.04700421946575169 -0.04881936759426910 
-0.1473533294859182 -0.05416733091571254 0.1613311425901882 -0.03311119239672476 -0.02960207916622629 -0.03610692961519163 -0.04288145629189841 -0.02698743772259040 -0.002559052535558023 -0.04162701586227571 -0.02807509645587314 -0.02535510387853826 -0.02505349825620566 -0.03220974639109515 -0.02785600683301392 -0.02924403755465644 -0.02854394252299780 -0.03213870016024400 -0.03341657978394171 -0.09082814349614907 -0.06122272499531267 -0.01496249933999559 
-0.08109297064297626 -0.04117809643258031 0.03091879279959496 -0.03286722034155976 0.01916520453098485 -0.02834908018057382 -0.02998271176016669 -0.02804809475142010 -0.02838285756785047 -0.02778098066556895 -0.03045203246961912 -0.04396612542787148 -0.02891847556275835 -0.02893953948877320 0.03439973904133034 -0.04325737330896052 -0.03849215251008902 -0.03051877634243463 -0.03025056740907196 -0.02977499325861466 -0.02933663427571552 -0.03022504463391973 
0 0 0 0 0 0 0 0 0 0 0 0 0 0 0 0 0 0 0 0 0 0 
0.07592349137563700 -0.07100186823321666 -0.09913010808606657 -0.04718522263103141 0.04908256321925408 -0.05385361152291225 -0.04930324816516070 -0.04842171535913091 -0.04983485144052591 -0.05771249240309646 -0.04966110638545752 -0.04790997948947513 -0.04751573674825459 -0.05577084286773219 -0.06065613458547565 -0.04886003794272579 -0.04878428226578369 -0.05073352646420602 -0.05211133982295617 -0.04998134455092629 -0.05185283808121119 -0.04912609531674501 
-0.02337063008002849 -0.04443425291898080 -0.003331653882631037 -0.05719121995454977 -0.05598013218443901 -0.05270265401529854 -0.06128335720512022 -0.05908023366482292 -0.05416689326620480 -0.06041464782259586 -0.05286872349695505 -0.05634917374555729 -0.05626800399013582 0.02035843904092879 -0.05205196134814472 -0.05199129966983701 -0.05198022311281214 -0.05153017829192579 -0.05103901043205241 -0.05117898813888332 -0.06151587884038128 -0.05189663181462863 
0.005964361086005592 -0.06705307218421748 -0.002058916664879386 -0.02777329167782896 -0.05697419507806584 -0.06354896421181816 -0.04801336959275597 -0.06475893070282429 -0.06193670161331403 -0.04805314733383825 -0.05675095694536353 -0.05710449141427957 -0.05854998109176646 -0.05510491103531479 -0.06223400795963485 -0.06798186851634348 -0.06463786137278855 -0.05340511863141455 -0.05556094093118343 -0.05323537180113235 -0.05213289124757908 -0.05809516557246532 
-0.03906176422670152 -0.02605567589106686 0.03916819305070143 -0.03311770575145324 -0.03541418608802628 -0.03344200892551366 -0.03631563538872840 -0.03249468654563812 -0.03520282895568686 -0.03219954554599867 -0.03277658903319920 -0.03558335000006897 -0.03281601691881110 -0.03278910311252936 -0.03296686444660563 -0.03263973803638443 -0.03439549054234715 -0.04769277731726070 0.002109522445775389 -0.04729177352084317 -0.03456640385038575 -0.03624621585064274 
-0.01740311012231969 -0.03662675926911455 0.03529290264015722 -0.07427746636874812 -0.07028435016216981 -0.03343302778425916 -0.02399541201438006 -0.05809760628174825 -0.01595623637542301 -0.07874859952466243 -0.05126915397752539 -0.05876908298087391 -0.05249298267853693 -0.06805213576387358 -0.05297527355553598 -0.05723276495952130 -0.05703083059715768 -0.05610771058933283 -0.05904840120133938 -0.05465915089987029 -0.05922668275316065 -0.05808948487103379 
0.01272140778264209 -0.05781083625418864 -0.03256471312128711 -0.03382740246524953 -0.03611050431068390 -0.03385931620189339 -0.03662308905622358 -0.03456320259473303 -0.03654147836602825 -0.03626339779219467 0.01273662747640626 -0.04977791714809687 -0.04068516190376407 -0.04268225396396315 -0.03889822352693147 -0.03609461438012993 -0.03637391222629201 -0.03583221881450044 -0.03615830545709679 -0.03630578419009083 -0.03580490158576934 -0.03598649471359341 
-0.06012504072333952 -0.05421248144411425 0.05015044704124559 -0.04889789276734509 -0.05476127203980578 -0.02547970856610082 -0.05007993117496758 -0.04967257685444944 -0.05355897966727640 -0.05591142239114894 -0.05015214241816279 -0.05530070987896719 -0.05006808591320842 -0.05173716634814451 -0.04774324812321651 -0.04969576755235509 -0.05765756872858957 -0.04882209673004870 -0.06661396667615890 -0.02196848961684822 -0.05185085036967317 -0.04263969806980653 
-0.03037125405573724 -0.02208587774659954 0.05305523050866789 -0.03277128876105845 -0.02885060211916511 -0.03701132191177561 -0.02881863988257348 -0.03181246719489270 -0.02775898640255423 -0.02726009212768976 -0.02624205806022838 -0.04386313411019065 -0.03297739999674293 -0.03456286788812871 -0.03126696540617932 -0.02853967044756220 -0.02872294969336633 -0.02768772125452449 -0.02798082565729828 -0.02812674864831982 -0.02747211515963630 -0.02841449110974099 
-0.02524099716961501 -0.01988346351507922 -0.03340152170969607 -0.02149169241097910 -0.03960393462764435 -0.02982324184455968 -0.02826504693167020 -0.02374708889590871 -0.02448505894160344 -0.02971432815898113 -0.02445052435043048 0.01792365013082985 -0.02420164861554195 -0.03040382733171663 -0.04212694730133249 0.01620800934789195 0.01384493219434198 -0.02647523083085682 -0.02890742041416360 -0.02580248615768974 -0.02717627735942055 -0.02398164110795295 
0.1020720430400800 -0.05270771181003264 -0.1240842542733332 -0.04274113297251342 -0.04939006108469941 -0.03520558553980811 -0.03567954127446264 -0.03785232431469350 -0.03813971130009762 -0.03302775543668705 -0.03985011379097789 -0.04281931518116162 -0.03838432944470369 -0.03600638698820130 0.01299911084503688 -0.05009534224027686 -0.04774363570139803 -0.03785834792650168 -0.03879096967374952 -0.03759430544056509 -0.03599890275273437 -0.03606561438414172 
0.01363143750495468 0.01565441144641838 -0.04445343022008073 -0.05123137744244499 -0.04985334021535010 -0.04935049353121031 -0.04832905083847881 -0.05022606899704057 -0.05330872808646144 -0.05310218101523309 -0.05561291512102780 -0.05260201976436130 -0.05144259832447000 -0.05309539080404557 -0.05596445979594545 -0.05169858173126995 -0.05091366983607821 -0.04858933162412072 -0.04903877178839965 -0.04999512718560513 -0.06464496999075607 -0.05104370374893463 
-0.01732652906926974 -0.03558955303629399 0.03888224663540106 -0.02415430708064446 -0.02986605949505554 -0.02777410558976411 -0.02369611195797221 -0.02970203597142327 -0.03232927148977911 -0.04515574873105316 -0.02917090201645685 -0.02985900240887081 -0.02911411369304636 -0.02958130509276552 -0.02784251034895446 -0.02825065636808778 -0.02811400631358966 -0.02732767181328448 -0.02690175832552490 -0.02570511378057328 -0.02942158422640443 -0.02885881904092106 
-0.09894697045363889 -0.2385025668386805 0.09712227242886073 -0.05540274083368452 -0.1089954810523878 -0.1036177414148707 -0.1386739855506025 -0.09315170340347840 -0.09740293749390405 -0.1254787569920108 -0.1114549710619912 -0.06627392598347500 -0.09468920608476054 -0.1122108692524889 -0.1144122054812452 -0.09643810267695105 -0.09641201754412651 -0.06778105975474726 -0.1050593041767256 -0.09675630753695834 -0.05539240693621541 -0.09700628304179908 
-0.1100899757662447 -0.1083719923247196 0.04797384154952539 -0.09195986992749472 -0.08923215162350735 -0.08708978344533455 -0.08835422767389414 -0.05653029041718508 -0.09135315566401214 0.005727117469517908 -0.08511166286089498 -0.09099900101257404 -0.08643056303108122 -0.09928551997521340 -0.08672415319999482 -0.08785645528941463 -0.08550338832637197 -0.08434886233199403 -0.08452240111034460 -0.1031379011916879 -0.1073244022756727 -0.08762104917613645 
-0.01889802395672523 -0.01193215553296437 0.01474017502886597 -0.02133373351311489 -0.02794963034244487 -0.02107654971205838 -0.01964718980200813 -0.02703217286419259 -0.02603442745773173 -0.02137408538705925 -0.02634113003363971 -0.03288507038819218 -0.02255395147078098 -0.02189977228209796 -0.02312158419788007 -0.02606654312275765 -0.02574955065699080 -0.02592524692572219 -0.02515272975659650 -0.02605780655827477 -0.02254282939094576 -0.02401381960282064 
0.03009036761392079 -0.05078829364758815 -0.03776898297291483 -0.05764734103366089 -0.03870716551868846 -0.04678032623182035 -0.03856189745207899 -0.04472071754198871 -0.03856198177334571 -0.04188906851082527 -0.04135824277547966 -0.04426893470735568 -0.03650975843270964 -0.04055021665573614 0.002671978546294996 -0.03925529045954374 -0.03981607485649613 -0.03983322636328146 -0.04000591089172179 -0.03994278790616881 -0.04018772698739821 -0.03959865265123687 
0.01373161288260217 -0.004584900582719383 -0.02954819303179602 -0.03782344553605002 -0.03865425091390070 -0.03689776672598954 -0.03677206229847339 -0.03743211959444948 -0.03928166385787785 -0.03940811765952833 -0.05344963882618099 -0.04116771172356612 -0.04449706816919970 -0.04791249527007896 -0.04173871074402553 -0.03943133058653414 -0.03944675635197169 -0.03785349417239371 -0.03952017835347076 -0.03962762849209510 -0.03572991598117483 -0.03871407272118725 
0.02244950091579883 0.002400570645329346 -0.06159565779097043 -0.09525204874663111 -0.08751612618076339 -0.09783537547409460 -0.08578782433348815 -0.08466199449661277 -0.08462418928957371 -0.08405403185967866 -0.08662799768341574 -0.08261312613627551 -0.07962826499060985 -0.08176940990971150 -0.09714410671239672 -0.08221368351768457 -0.08222008958745046 -0.09124796912698936 -0.08006992083533215 -0.08030768079784600 -0.07593378653303998 -0.08598331198689897 
0 0 0 0 0 0 0 0 0 0 0 0 0 0 0 0 0 0 0 0 0 0 
0 0 0 0 0 0 0 0 0 0 0 0 0 0 0 0 0 0 0 0 0 0 
-0.1586433329395336 -0.1097403375556888 0.1932193998765792 -0.06489054657376293 -0.06786414319620533 -0.07665410159492139 -0.001301781044876185 -0.06485052291412331 -0.06479789671556738 -0.07949357208026123 -0.06515101037067290 -0.08291371863362682 -0.06233798199763784 -0.08750070980485185 -0.06447559675135710 -0.06950669831974418 -0.06767487880935237 -0.07283919021109395 -0.07482293970098151 -0.07258207268072517 -0.08603894900017850 -0.06240303202365381 
0.03259522412903090 -0.03924451553664207 -0.01892921286926806 -0.05389532335972520 -0.04697929865070489 -0.04656641514486722 -0.05020923717867681 -0.05093789255697475 -0.04702803461304197 -0.05758608824922894 -0.04841242676662426 -0.06173490382881767 -0.05101081799788906 -0.04865451726181418 -0.05310018247022751 0.007145913170853803 -0.05866109383765063 -0.05031685594782881 -0.04874906065261176 -0.04943090666455954 -0.05035208986757258 -0.04836165676123885 
-0.01517489017259555 -0.03931568004095513 -0.002753911542559676 -0.02234344024162849 -0.02717330078612776 -0.02191908768843413 -0.03462960505983310 -0.02421818345548871 -0.02294034338454431 -0.02539689855754941 -0.02421263699371326 -0.02605509877106513 -0.02476358108169285 -0.02705118310425849 -0.02337371201177563 -0.02670569705085619 -0.02497745366483451 0.03689142852077511 -0.03881761770447226 -0.02243537413527943 -0.02340629226224176 -0.02295457489687617 
-0.2091429978558228 -0.1207361640324615 0.1224963035156589 -0.007175576026611109 -0.04176552199352156 -0.09452534678570376 -0.08216300971791492 -0.07712714936316728 -0.09148926906858880 -0.09151024228895023 -0.08491153924164410 -0.08974701935527675 -0.09568658908983123 -0.08813525144818550 -0.05126512773152149 -0.07731295136534332 -0.07750281282946760 -0.08053994735938255 -0.08069790766300797 -0.07935274297570637 -0.08123070253747440 -0.07603882849530749 
0.07501825648280658 -0.02726502630482447 -0.05844065332558825 -0.03162935380554449 -0.03090512965936455 -0.03117649134961850 -0.03121035880387955 -0.03142354458208160 -0.03212010107688452 -0.03263169517027384 -0.04302708560319217 -0.02800253527721432 -0.02774902958298004 -0.02733313485386110 -0.02983181635230624 -0.03050625630536906 -0.03042341454170606 -0.03104341608682085 -0.03063201665389664 -0.03072523751955701 -0.03156428038336381 -0.03063862143822143 
-0.04535927957839075 -0.04469459897340702 0.02779096102583571 -0.05184379286828622 -0.05183834736267903 -0.05490283622258264 -0.05866730032718134 -0.04933727607248618 -0.04640253218521807 -0.05207793973503126 -0.04974059785480477 -0.06302472977071591 -0.04972856087707593 -0.05412753142312241 -0.05584644524412700 -0.06008716880267291 -0.01146688679838885 -0.05914548166794124 0.009673134771701869 -0.05988303207535013 -0.05045834795351746 -0.05263195670939434 
-0.02295754641990562 -0.02141419022607190 -0.002180315925016746 -0.03918646094880223 -0.03002993969423533 -0.02782312381677560 -0.02806277095477443 -0.02699763184277257 -0.03071250995045043 -0.03415972579188062 -0.03617515933747208 0.03207830907236457 -0.02381544876469814 -0.02603736010003093 -0.02578188597687609 -0.02861208390586427 -0.02828865060673238 -0.03161893217216228 -0.02988117950117565 -0.02981001866280510 -0.03418089654147800 -0.02874015322619193 
-0.08109297064297626 -0.04117809643258031 0.03091879279959496 -0.03286722034155976 0.01916520453098485 -0.02834908018057382 -0.02998271176016669 -0.02804809475142010 -0.02838285756785047 -0.02778098066556895 -0.03045203246961912 -0.04396612542787148 -0.02891847556275835 -0.02893953948877320 0.03439973904133034 -0.04325737330896052 -0.03849215251008902 -0.03051877634243463 -0.03025056740907196 -0.02977499325861466 -0.02933663427571552 -0.03022504463391973 
0.07299694993574710 -0.02833965093907231 -0.04711284880821270 -0.03411372641398027 -0.05037496566009484 -0.03409407390233152 -0.03330977943160261 -0.03441485788107478 -0.03256740515086266 -0.03153685484443432 -0.03334466636706503 -0.03285400076241207 -0.03447394602883355 -0.03349999108774374 -0.04771215069120133 -0.03265819796880157 -0.03284395935882187 -0.03462543371972031 -0.03356638476248656 -0.03381776481990120 -0.03357755456699006 -0.03398221462064524 
0.1521441199414729 -0.07134778986233885 -0.1208587462024375 -0.04000522192944914 -0.04505625061275194 -0.04240223347561076 -0.04028661393193599 -0.04527221386066122 -0.04114834575383875 -0.05131571273218018 -0.04148289557697227 -0.04186431699290300 -0.04358103883807513 -0.04204879218716290 -0.04221174281274707 -0.04454278722518722 -0.04410147685577426 -0.04320744199867618 -0.04442305649918748 -0.04375927875890685 -0.03813408213414773 -0.04280611842361735 
-0.02594585000533806 0.02667318400024616 -0.03606867473951529 -0.02855294104252441 -0.02790377179325333 -0.02495711272258113 -0.02431024763493760 -0.02509996265648971 -0.02366156507793778 0.01965868566546808 -0.02643094289461797 -0.02721139444121397 -0.02609697040779172 -0.02491602228224989 -0.02977493563455844 -0.02781318960995699 -0.02729870461328041 -0.02832834998535940 -0.02814762646241832 -0.02739267870894240 -0.02485209566942013 -0.02593323303779482 
-0.03516816776865071 0.03486027870827081 -0.1400689453586270 -0.1400852123553879 -0.1259704526485579 -0.04688033569393812 -0.1299617400314304 -0.09723395031297874 -0.1104372080403936 -0.05214856423421942 -0.07008072398155190 -0.1285443043982468 -0.09644961627535534 -0.05818951047768593 -0.1401686119470212 -0.1096853454531742 -0.1076106685566150 -0.1163265987360854 -0.1127652931656828 -0.1132411640441461 -0.1283050275233212 -0.1160667779721800 
-0.008003583831573879 -0.1116385677407052 -0.04758168347887257 -0.07598443906738042 -0.08515395076042810 -0.08682358475707384 -0.08731830869983723 -0.08431001078630490 -0.05219701137691204 -0.1051939633020269 -0.07968078847528096 -0.08045083868886693 -0.08231734469186823 -0.09610905534389070 -0.07919225525615281 -0.08279844633695196 -0.08227781579901555 -0.08689709124541410 -0.09072816369032079 -0.04387675275460829 -0.01380793887210587 -0.06259313905581454 
-0.2659577560048497 -0.1475724205433941 0.3231971457583686 -0.1174380613899859 -0.09522148065090719 -0.1121394846914774 -0.1149109298687540 -0.09671820694919586 -0.1003787091876262 -0.1139100734841694 -0.1023432342464142 -0.06537275251467066 -0.1066681015719736 -0.1055801140340122 -0.1077710834328589 -0.1023177824982686 -0.1019371443031720 -0.1010451820930953 -0.1028365701560253 -0.1009667322550723 -0.1108173214246157 -0.1077443066241076 
0.07005705323308090 -0.02432875350982591 -0.06641091621254046 -0.02401022560571872 -0.02874603757839461 -0.03500931531793101 -0.03102449421332065 -0.02783135438387997 -0.03485693157687379 -0.02764546693270370 -0.02989003999595084 -0.02252387482602872 -0.02814200604224726 -0.02584490415277127 -0.03721103667973693 -0.02886719883038211 -0.02893817676289323 -0.02882357948202674 -0.02867090166513927 -0.02910083251693629 -0.02864031749504145 -0.02902088545494807 
0.07336368848441695 -0.02840435050822998 -0.07526178622529246 -0.02221986382273615 -0.02690292103959393 -0.02776875583749818 -0.02611263837653008 -0.02801979464180814 -0.02896789313287852 -0.02519660986991407 -0.02429323008421219 -0.02929511892462826 -0.02462600950048089 -0.02397141561933984 -0.02559887773255934 -0.02734005345715537 -0.02736436796530386 -0.02982311132018552 -0.02674766331220393 -0.02756891954709996 -0.03259437314165448 -0.02750546068641900 
0.2270210095911026 -0.08989979964014800 -0.1735070311583361 -0.06783777408139960 -0.08634057226170808 -0.07679020346716262 -0.07473809355738713 -0.07211728868430461 -0.07238946758193109 -0.07611459894983968 -0.07078319110117280 -0.07873987240131833 -0.07245935318693561 -0.07511700283105928 -0.07328054565847014 -0.07326842088165327 -0.07179771770617127 -0.07084382911565310 -0.07230881883135856 -0.07395629503616748 -0.07147846067272016 -0.07573524072035587 
0 0 0 0 0 0 0 0 0 0 0 0 0 0 0 0 0 0 0 0 0 0 
0.02050266686293691 -0.003631764353078066 0.004132253511281734 -0.03027636368347013 -0.02006553910462324 -0.02720154195153247 -0.01777435119078057 -0.02372237546703492 0.03939998265439572 -0.03447400419436850 -0.01483204946525180 -0.001217901490595919 -0.01594201515881350 -0.02143761282616130 -0.01095112008062566 -0.01553837249694841 -0.01549243415523335 -0.01329748410494871 -0.01782941809405493 -0.01448834786809377 -0.01919503466128270 -0.01968274226624231 
0 0 0 0 0 0 0 0 0 0 0 0 0 0 0 0 0 0 0 0 0 0 
-0.07606383558420364 3.469446951953614e-18 0.08429197372139044 -0.008893302276823873 -0.01276173888024111 -0.008979432139226591 -0.005644721801364756 -0.01359218531011356 -0.02523132189540441 0.03441003171443075 -0.01454735011398984 -0.01841409691752819 -0.08836814847873131 -0.01248840770688122 -0.01270074928374005 -0.01256581460049493 -0.01291689034509965 -0.01308191092631022 -0.01306163852489885 -0.01016776900057348 -0.01527398090548590 -0.01542555977112214 
-0.02337063008002849 -0.04443425291898080 -0.003331653882631037 -0.05719121995454977 -0.05598013218443901 -0.05270265401529854 -0.06128335720512022 -0.05908023366482292 -0.05416689326620480 -0.06041464782259586 -0.05286872349695505 -0.05634917374555729 -0.05626800399013582 0.02035843904092879 -0.05205196134814472 -0.05199129966983701 -0.05198022311281214 -0.05153017829192579 -0.05103901043205241 -0.05117898813888332 -0.06151587884038128 -0.05189663181462863 
-0.03906176422670152 -0.02605567589106686 0.03916819305070143 -0.03311770575145324 -0.03541418608802628 -0.03344200892551366 -0.03631563538872840 -0.03249468654563812 -0.03520282895568686 -0.03219954554599867 -0.03277658903319920 -0.03558335000006897 -0.03281601691881110 -0.03278910311252936 -0.03296686444660563 -0.03263973803638443 -0.03439549054234715 -0.04769277731726070 0.002109522445775389 -0.04729177352084317 -0.03456640385038575 -0.03624621585064274 
0.02761969611278648 -0.02566926445683004 -0.06370533830227434 -0.02791791777056122 -0.02888143432771891 -0.01860483685541777 -0.01798186881142981 -0.02071394504823247 -0.01973387470289452 -0.01451598438446288 -0.01989010282614194 -0.03984816395384384 -0.01698401462230983 -0.01644982146179135 0.01798474703575092 -0.03746880692097778 -0.03442066315357405 -0.01954303588168395 -0.02100290162359853 -0.01964015383910295 -0.01916746388520738 -0.01876806365976499 
-0.05951303556647837 -0.04198636293438695 -0.1050023017087200 -0.03697604103166559 -0.06992490403176580 -0.01213315896647717 -0.01324591253701638 -0.04114155402852276 -0.05046244418447145 -0.05455695505157750 -0.04475194352150878 0.07173917525178500 -0.04092912034691026 -0.05353501995219689 -0.05689834049100339 -0.007724473728529347 -0.009884593249938678 -0.04634314098174552 -0.05077535013589268 -0.04665013701413381 -0.04843745636027422 -0.04414498304481841 
