svm_type c_svc
kernel_type linear
nr_class 3
total_sv 1306
rho 0.8116442741499644 0.004295561973619382 -0.6750800639400358
label 1 2 3
probA -2.5452163603128084 -3.64005103730399 -2.578088813942032
probB 0.12123096078719131 0.08439476580741796 -0.21947196938375008
nr_sv 376 645 285
SV
0.0 0.002047787426103967 2:1.0 4:1.0 8:1.0 12:1.0 13:1.0 14:1.0 15:1.0 18:1.0 22:1.0 23:1.0 24:2.0 25:1.0 26:1.0 29:1.0 30:1.0 31:1.0 32:1.0 34:1.0 37:1.0 38:1.0 40:1.0 43:1.0 44:1.0 45:1.5 46:2.0 47:1.0 894:1.0 895:1.0 896:1.0 897:1.0 898:1.0 899:1.0 900:1.0 901:1.0 902:1.0 903:1.0 904:1.0 905:1.0 906:1.0 907:1.0 908:1.0 909:1.0 910:1.0 911:1.0 912:1.0 913:1.0 
0.0 2.7823095239953627E-5 22:1.0 23:1.0 24:1.0 29:1.0 30:1.0 31:1.0 32:1.0 34:1.0 37:1.0 40:1.0 43:1.0 45:1.0 46:1.0 47:1.0 115:1.0 123:1.0 146:1.0 198:1.0 206:1.0 213:1.0 907:1.0 908:1.0 915:1.0 917:1.0 919:1.0 920:1.0 921:1.0 925:1.0 927:1.0 1018:1.0 1019:1.0 1020:1.0 1021:1.0 1022:1.0 1023:1.0 1024:1.0 1025:1.0 1026:1.0 1027:1.0 1028:1.0 1029:1.0 1030:1.0 1031:1.0 1032:1.0 1033:1.0 1034:1.0 
0.0015089799768682574 0.0 22:1.0 23:1.0 24:1.0 29:1.0 30:1.0 31:1.0 32:1.0 34:1.0 37:1.0 38:1.0 40:1.0 43:1.0 45:1.5 46:2.0 47:1.0 115:1.0 123:1.0 198:1.0 962:1.0 966:1.0 967:1.0 968:1.0 969:1.0 970:1.0 971:1.0 972:1.0 973:1.0 974:1.0 975:1.0 980:1.0 981:1.0 1061:1.0 1062:1.0 1063:1.0 1064:1.0 1065:1.0 1066:1.0 1067:1.0 1068:1.0 1069:1.0 1070:1.0 1071:1.0 1072:1.0 1073:1.0 1074:1.0 1075:1.0 
0.025962263460420104 0.0012786696159992447 9:1.0 22:1.0 23:1.0 29:1.0 30:1.0 31:1.0 32:1.0 45:2.0 46:3.0 47:1.0 115:1.0 181:1.0 198:2.0 1096:1.0 1167:1.0 1203:1.0 1225:1.0 1229:1.0 1238:1.0 1469:1.0 1471:1.0 1475:1.0 1476:1.0 1484:1.0 1485:1.0 1486:1.0 1487:1.0 1488:1.0 1489:1.0 1490:1.0 1491:1.0 1588:1.0 1589:1.0 1590:1.0 1591:1.0 1592:1.0 1593:1.0 1594:1.0 1595:1.0 1596:1.0 1597:1.0 1598:1.0 1599:1.0 1600:1.0 1601:1.0 1602:1.0 1603:1.0 1604:1.0 1605:1.0 1606:1.0 
0.05 0.0 9:1.0 22:1.0 23:1.0 24:2.0 25:1.0 29:1.0 30:1.0 31:1.0 32:1.0 45:1.5 46:2.0 47:1.0 181:1.0 185:1.0 198:3.0 281:1.0 682:1.0 724:1.0 1071:1.0 1096:1.0 1283:1.0 1381:1.0 1383:1.0 1389:1.0 1390:1.0 1491:1.0 1528:1.0 1529:1.0 1616:1.0 1617:1.0 1618:1.0 1619:1.0 1620:1.0 1725:1.0 1728:1.0 1732:1.0 1814:1.0 1815:1.0 1817:1.0 1891:1.0 1893:1.0 1894:1.0 1895:1.0 1896:1.0 1897:2.0 1898:1.0 1899:1.0 1901:1.0 1902:1.0 1904:2.0 1905:1.0 1906:1.0 1909:1.0 1910:1.0 1911:1.0 
0.006802539259177913 0.0 22:1.0 23:1.0 24:1.0 29:1.0 30:1.0 31:1.0 32:1.0 40:1.0 43:1.0 45:3.0 46:4.0 47:2.0 198:1.0 281:1.0 970:1.0 1066:1.0 1096:1.0 1098:1.0 1239:1.0 1357:1.0 1361:1.0 1419:1.0 1421:1.0 1425:1.0 1426:1.0 1581:1.0 1582:1.0 1583:1.0 1584:1.0 1585:1.0 1600:1.0 1601:1.0 1602:1.0 1604:1.0 1696:1.0 1725:1.0 1732:1.0 1897:1.0 1904:1.0 1956:1.0 1957:1.0 1958:1.0 1959:1.0 1960:1.0 1961:1.0 1962:1.0 1963:1.0 1964:1.0 1965:1.0 1966:1.0 1967:1.0 1968:1.0 1969:1.0 1970:1.0 
0.05 0.00998231748783173 24:1.0 30:1.0 45:2.0 46:3.0 47:1.0 67:1.0 138:1.0 139:1.0 234:1.0 268:1.0 310:1.0 403:1.0 407:1.0 413:1.0 418:1.0 444:1.0 446:1.0 758:1.0 761:1.0 1071:1.0 1098:1.0 1113:1.0 1203:1.0 2388:1.0 2389:1.0 2390:1.0 2391:1.0 2399:1.0 2400:1.0 2455:1.0 2456:1.0 2457:1.0 2458:1.0 2459:1.0 2460:1.0 2461:1.0 2462:1.0 2468:1.0 2469:1.0 2472:1.0 2473:1.0 2474:1.0 2475:1.0 2476:1.0 2477:1.0 2478:1.0 2479:1.0 2480:1.0 
0.01998103241044934 0.009410442059676994 24:1.0 25:1.0 30:1.0 40:1.0 43:1.0 44:1.0 45:3.0 46:5.0 47:1.0 67:2.0 213:1.0 434:1.0 735:1.0 998:1.0 1601:1.0 1664:1.0 1675:1.0 2499:1.0 2500:1.0 2501:1.0 2502:1.0 2503:1.0 2504:1.0 2505:1.0 2506:1.0 2507:1.0 2508:1.0 2509:1.0 2510:1.0 2511:1.0 2512:1.0 2513:1.0 2514:1.0 2515:1.0 2516:1.0 2517:1.0 2518:1.0 2519:1.0 2520:1.0 2521:1.0 2522:1.0 2523:1.0 2524:1.0 2525:1.0 2526:1.0 2527:1.0 
0.04165867217904185 0.001761393546111028 24:1.0 25:1.0 30:1.0 45:2.5 46:4.0 47:1.0 67:4.0 110:1.0 119:1.0 213:1.0 268:1.0 272:1.0 310:1.0 434:1.0 446:1.0 735:1.0 1601:1.0 1664:1.0 1675:1.0 2123:1.0 2169:1.0 2499:1.0 2500:1.0 2501:1.0 2502:1.0 2503:1.0 2504:1.0 2505:1.0 2506:1.0 2516:1.0 2518:1.0 2519:1.0 2520:1.0 2521:1.0 2522:1.0 2523:1.0 2528:1.0 2529:1.0 2530:1.0 2531:1.0 2532:1.0 2533:1.0 2534:1.0 2535:1.0 2536:1.0 2537:1.0 2538:1.0 2539:1.0 2540:1.0 
0.027144399934737388 0.0 9:1.0 22:1.0 23:1.0 24:3.0 25:1.0 30:1.0 32:1.0 34:1.0 38:1.0 45:5.5 46:6.0 47:5.0 268:1.0 272:1.0 310:1.0 403:1.0 418:1.0 444:1.0 446:1.0 784:1.0 785:1.0 792:1.0 794:1.0 838:1.0 856:2.0 1066:1.0 1107:1.0 1167:1.0 1664:1.0 1675:1.0 1868:1.0 2321:1.0 2663:1.0 2669:1.0 2675:1.0 2676:1.0 2677:1.0 2681:1.0 2718:1.0 2719:1.0 2720:1.0 2721:1.0 2722:1.0 2723:1.0 2724:1.0 2725:1.0 2726:1.0 2727:1.0 2728:1.0 
6.669568552119141E-4 0.0 22:1.0 23:1.0 24:3.0 25:1.0 30:1.0 32:1.0 40:1.0 43:1.0 44:1.0 45:1.5 46:2.0 47:1.0 71:1.0 97:1.0 99:1.0 115:1.0 138:1.0 139:1.0 190:1.0 198:2.0 495:1.0 497:1.0 784:1.0 785:1.0 794:1.0 883:1.0 884:1.0 885:1.0 887:1.0 888:1.0 1083:1.0 1238:1.0 1725:1.0 1897:1.0 1904:1.0 2030:1.0 2663:1.0 2799:1.0 2897:1.0 2898:1.0 2899:1.0 2901:1.0 2906:1.0 2907:1.0 2908:1.0 2910:1.0 2911:1.0 2951:1.0 3043:1.0 3044:1.0 3045:1.0 3046:1.0 3047:1.0 3048:1.0 3049:1.0 3050:1.0 3051:1.0 3052:1.0 3053:1.0 
0.018338455566010364 0.0 22:1.0 23:1.0 24:2.0 25:1.0 30:1.0 32:1.0 34:1.0 38:1.0 45:2.5 46:3.0 47:2.0 54:1.0 132:1.0 138:1.0 139:1.0 168:1.0 281:1.0 295:1.0 376:1.0 380:1.0 542:1.0 617:1.0 706:1.0 784:1.0 785:1.0 792:1.0 794:1.0 1213:1.0 2663:1.0 2675:1.0 2807:1.0 2828:1.0 2934:1.0 2935:1.0 2939:1.0 2940:1.0 2941:1.0 3115:1.0 3116:1.0 3117:1.0 3118:1.0 3119:1.0 3120:1.0 3121:1.0 3122:1.0 3123:1.0 3124:1.0 3125:1.0 3126:1.0 
0.0 2.8092595384257395E-4 3:1.0 5:1.0 19:1.0 22:1.0 23:1.0 24:3.0 25:1.0 29:1.0 30:1.0 31:1.0 32:1.0 39:1.0 40:1.0 41:1.0 43:1.0 44:1.0 45:2.5 46:3.0 47:2.0 167:1.0 176:1.0 539:1.0 577:1.0 593:1.0 594:1.0 598:1.0 745:1.0 785:1.0 792:1.0 794:1.0 2663:1.0 2675:1.0 3095:1.0 3127:1.0 3128:1.0 3129:1.0 3130:1.0 3131:1.0 3132:1.0 3133:1.0 3134:1.0 3135:1.0 3136:1.0 3137:1.0 3138:1.0 3139:1.0 3140:1.0 3141:1.0 3142:1.0 3143:1.0 
0.0024649153138882043 0.0 22:1.0 23:1.0 24:2.0 25:1.0 29:1.0 30:1.0 31:1.0 32:1.0 40:1.0 43:1.0 44:1.0 45:1.5 46:2.0 47:1.0 167:1.0 176:1.0 213:1.0 611:1.0 614:1.0 785:1.0 792:1.0 794:1.0 851:1.0 884:1.0 888:1.0 919:1.0 1105:1.0 1118:1.0 2663:1.0 2675:1.0 3082:1.0 3133:1.0 3267:1.0 3268:1.0 3269:1.0 3270:1.0 3271:1.0 3272:1.0 3273:1.0 3274:1.0 3275:1.0 3276:1.0 3277:1.0 3278:1.0 3279:1.0 3280:1.0 
0.021307389524686814 0.005658541569280394 20:1.0 22:1.0 23:1.0 24:2.0 25:1.0 30:1.0 32:1.0 45:1.5 46:2.0 47:1.0 198:2.0 376:1.0 380:1.0 1167:1.0 1213:1.0 1232:1.0 1234:1.0 1236:1.0 1237:1.0 1238:1.0 1406:1.0 1655:1.0 1657:1.0 1658:1.0 1659:1.0 1660:1.0 1663:1.0 1664:1.0 1666:1.0 1667:1.0 1668:1.0 1669:1.0 1670:1.0 1671:1.0 1675:1.0 1689:1.0 1690:1.0 1713:1.0 1714:1.0 1715:1.0 1716:1.0 1897:1.0 1904:1.0 1960:1.0 1967:1.0 3324:1.0 3325:1.0 3326:1.0 3327:1.0 3328:1.0 3329:1.0 3330:1.0 3331:1.0 
0.05 0.0 9:1.0 22:1.0 23:1.0 24:3.0 25:1.0 30:1.0 32:1.0 40:1.0 43:1.0 44:1.0 45:1.5 46:2.0 47:1.0 54:1.0 150:1.0 198:1.0 281:1.0 1204:1.0 1205:1.0 1209:1.0 1298:1.0 1299:1.0 1300:1.0 1301:1.0 1302:1.0 1303:1.0 1304:1.0 1305:1.0 1309:1.0 1310:1.0 1311:1.0 1661:1.0 1664:1.0 1675:1.0 1698:1.0 1699:1.0 1701:1.0 1725:1.0 1732:1.0 1745:1.0 1747:1.0 1748:1.0 1749:1.0 1764:1.0 1765:1.0 1766:1.0 1767:1.0 1768:1.0 1771:1.0 1772:1.0 3386:1.0 3387:1.0 
0.05 0.0031971941126694536 9:1.0 20:1.0 22:1.0 23:1.0 24:1.0 25:1.0 30:1.0 32:1.0 45:1.5 46:2.0 47:1.0 54:1.0 132:1.0 181:1.0 185:1.0 198:1.0 682:1.0 1071:1.0 1096:1.0 1385:1.0 1491:1.0 1517:1.0 1519:1.0 1520:1.0 1524:1.0 1525:1.0 1526:1.0 1527:1.0 1528:1.0 1529:1.0 1530:1.0 1664:1.0 1675:1.0 1814:1.0 1817:1.0 1880:1.0 1882:1.0 1894:1.0 1895:1.0 1896:1.0 1905:1.0 1912:1.0 1931:1.0 1934:1.0 3418:1.0 3419:1.0 3420:1.0 3421:1.0 
0.001311211318236678 0.0013176834803390652 9:1.0 22:1.0 23:1.0 24:1.0 29:1.0 30:1.0 31:1.0 32:1.0 281:1.0 970:1.0 1066:1.0 1096:1.0 1098:1.0 1239:1.0 1419:1.0 1421:1.0 1425:1.0 1426:1.0 1581:1.0 1582:1.0 1583:1.0 1666:1.0 1667:1.0 1725:1.0 1732:1.0 1957:1.0 1959:1.0 1960:1.0 1961:1.0 1963:1.0 1964:1.0 1967:1.0 1971:1.0 1972:1.0 1973:1.0 3303:1.0 3304:1.0 3426:1.0 3427:1.0 3428:1.0 3429:1.0 3430:1.0 
0.0 5.162593849726023E-4 3:1.0 5:1.0 9:1.0 19:1.0 20:1.0 22:1.0 23:1.0 24:3.0 25:1.0 29:1.0 30:1.0 31:1.0 32:1.0 39:1.0 40:1.0 41:1.0 43:1.0 44:1.0 45:2.5 46:3.0 47:2.0 176:1.0 539:1.0 593:1.0 594:1.0 598:1.0 745:1.0 785:1.0 792:1.0 794:1.0 2663:1.0 2675:1.0 3095:1.0 3128:1.0 3129:1.0 3131:1.0 3132:1.0 3136:1.0 3137:1.0 3140:1.0 3141:1.0 3142:1.0 3143:1.0 3449:1.0 3450:1.0 3451:1.0 3452:1.0 3453:1.0 3454:1.0 
0.0 9.751451578460406E-4 22:1.0 23:1.0 24:2.0 25:1.0 30:1.0 32:1.0 40:1.0 43:1.0 44:1.0 45:1.5 46:2.0 47:1.0 138:1.0 139:1.0 577:1.0 785:1.0 792:1.0 794:1.0 1203:1.0 1205:1.0 1209:1.0 1631:1.0 2234:1.0 2663:1.0 2675:1.0 3082:1.0 3117:1.0 3148:1.0 3149:1.0 3440:1.0 3443:1.0 3444:1.0 3635:1.0 3683:1.0 3684:1.0 3685:1.0 3686:1.0 3687:1.0 3688:1.0 3689:1.0 3690:1.0 3691:1.0 3692:1.0 3693:1.0 3694:1.0 3695:1.0 3696:1.0 
0.0 1.2276322020001056E-4 22:1.0 23:1.0 24:2.0 25:1.0 30:1.0 32:1.0 45:1.0 46:1.0 47:1.0 74:1.0 77:1.0 78:1.0 138:1.0 139:1.0 141:1.0 144:1.0 145:1.0 146:1.0 167:1.0 784:1.0 785:1.0 789:1.0 792:1.0 794:1.0 2663:1.0 2675:1.0 2935:1.0 3115:1.0 3116:1.0 3117:1.0 3706:1.0 3707:1.0 3716:1.0 3717:1.0 3718:1.0 3719:1.0 3721:1.0 3723:1.0 3725:1.0 3726:1.0 3727:1.0 3728:1.0 3729:1.0 3730:1.0 3731:1.0 3732:1.0 3733:1.0 3734:1.0 3735:1.0 
0.0 0.0011518448522061912 24:1.0 25:1.0 30:1.0 34:1.0 38:1.0 40:1.0 43:1.0 44:1.0 45:2.0 46:2.0 47:2.0 61:1.0 67:3.0 119:1.0 138:1.0 139:1.0 194:1.0 310:1.0 706:1.0 998:1.0 1071:1.0 1238:1.0 1241:1.0 3435:1.0 3829:1.0 3830:1.0 3831:1.0 3832:1.0 3833:1.0 3834:1.0 3835:1.0 3843:1.0 3845:1.0 3846:1.0 3847:1.0 3848:1.0 3849:1.0 3850:1.0 3855:1.0 3856:1.0 3857:1.0 3858:1.0 3859:1.0 3860:1.0 3861:1.0 3862:1.0 3863:1.0 3864:1.0 3865:1.0 3866:1.0 
0.043210272584035016 0.009649009365020764 24:1.0 25:1.0 30:1.0 34:1.0 38:1.0 40:1.0 43:1.0 44:1.0 45:2.5 46:3.0 47:2.0 58:1.0 61:2.0 67:5.0 119:2.0 138:1.0 139:1.0 194:1.0 310:1.0 706:1.0 970:1.0 1071:1.0 1238:1.0 1241:1.0 3435:1.0 3829:1.0 3830:1.0 3831:1.0 3832:1.0 3833:1.0 3834:1.0 3835:1.0 3843:1.0 3845:1.0 3846:1.0 3847:1.0 3848:1.0 3849:1.0 3850:1.0 3862:1.0 3867:1.0 3868:1.0 3869:1.0 3870:1.0 3871:1.0 3872:1.0 3873:1.0 3874:1.0 3875:1.0 3876:1.0 3877:1.0 
4.681629123743507E-4 0.0 24:1.0 25:2.0 30:1.0 34:1.0 38:1.0 40:1.0 43:1.0 44:1.0 45:3.5 46:5.0 47:2.0 61:3.0 67:7.0 119:3.0 138:1.0 139:1.0 194:1.0 706:1.0 882:1.0 970:1.0 1071:1.0 1238:1.0 1241:1.0 2771:1.0 3435:1.0 3829:1.0 3830:1.0 3831:1.0 3832:1.0 3833:1.0 3834:1.0 3835:1.0 3843:1.0 3845:1.0 3846:1.0 3847:1.0 3848:1.0 3849:1.0 3850:1.0 3862:1.0 3873:1.0 3878:1.0 3879:1.0 3880:1.0 3881:1.0 3882:1.0 3883:1.0 3884:1.0 3885:1.0 3886:1.0 3887:1.0 3888:1.0 3889:1.0 3890:1.0 3891:1.0 
0.00985813077110557 0.0 22:1.0 23:1.0 24:4.0 30:1.0 32:1.0 115:1.0 138:1.0 139:1.0 198:2.0 327:1.0 346:1.0 351:1.0 530:1.0 838:1.0 850:1.0 856:2.0 1082:1.0 1096:1.0 1098:1.0 1378:1.0 1698:2.0 1767:2.0 1967:2.0 2235:1.0 2237:1.0 3133:1.0 3628:1.0 3764:1.0 3766:1.0 3961:1.0 3962:1.0 3963:1.0 3964:1.0 3965:1.0 3966:1.0 3967:1.0 3968:1.0 3969:1.0 3970:1.0 3971:1.0 3972:1.0 3973:1.0 3974:1.0 3975:1.0 3976:1.0 3977:1.0 3978:1.0 3979:1.0 3980:1.0 3981:1.0 3982:1.0 3983:1.0 3984:1.0 3985:1.0 3986:1.0 
0.013096645062083963 0.0 22:1.0 23:1.0 24:3.0 25:1.0 30:1.0 32:1.0 45:2.0 46:3.0 47:1.0 138:1.0 139:1.0 268:1.0 272:1.0 390:1.0 393:1.0 418:1.0 444:1.0 446:1.0 615:1.0 838:1.0 856:1.0 1082:1.0 1698:1.0 1767:1.0 1967:1.0 2620:1.0 2621:1.0 2622:1.0 2624:1.0 2625:1.0 3501:1.0 3628:1.0 3764:1.0 3766:1.0 3773:1.0 3963:1.0 3964:1.0 3971:1.0 3972:1.0 3984:1.0 3987:1.0 3988:1.0 3989:1.0 3990:1.0 3991:1.0 3992:1.0 3993:1.0 3994:1.0 3995:1.0 3996:1.0 3997:1.0 3998:1.0 3999:1.0 4000:1.0 4001:1.0 
0.03163973753299432 0.0 22:1.0 23:1.0 24:3.0 25:1.0 30:1.0 32:1.0 45:3.0 46:5.0 47:1.0 138:1.0 139:1.0 280:1.0 327:1.0 331:1.0 390:1.0 393:1.0 530:1.0 615:1.0 838:1.0 856:1.0 1082:1.0 1698:1.0 1767:1.0 1967:1.0 2235:1.0 2237:1.0 2620:1.0 2621:1.0 2622:1.0 2624:1.0 2625:1.0 3628:1.0 3764:1.0 3766:1.0 3963:1.0 3964:1.0 3971:1.0 3972:1.0 3984:1.0 3987:1.0 3988:1.0 3989:1.0 3990:1.0 3999:1.0 4002:1.0 4003:1.0 4004:1.0 4005:1.0 4006:1.0 4007:1.0 4008:1.0 4009:1.0 4010:1.0 4011:1.0 4012:1.0 
0.0011225006776923701 0.0 9:1.0 22:1.0 23:1.0 24:2.0 25:1.0 29:1.0 30:1.0 31:1.0 32:1.0 115:2.0 198:2.0 213:1.0 268:1.0 272:1.0 310:1.0 446:1.0 856:1.0 1967:1.0 2721:1.0 4116:1.0 4141:1.0 4144:1.0 4185:1.0 4189:1.0 4204:1.0 4205:1.0 4206:1.0 4207:1.0 4208:1.0 4209:1.0 4210:1.0 4211:1.0 4212:1.0 4213:1.0 4214:1.0 4215:1.0 4216:1.0 4217:1.0 4218:1.0 4219:1.0 4220:1.0 4221:1.0 4222:1.0 4223:1.0 4224:1.0 
0.006671141507089258 0.0 22:1.0 23:1.0 24:1.0 29:1.0 30:1.0 31:1.0 32:1.0 40:1.0 43:1.0 45:1.5 46:2.0 47:1.0 115:1.0 123:1.0 198:2.0 594:1.0 598:1.0 745:1.0 1714:1.0 2038:1.0 2513:1.0 2633:1.0 2642:1.0 2643:1.0 3587:1.0 3618:1.0 4143:1.0 4187:1.0 4188:1.0 4428:1.0 4441:1.0 4442:1.0 4443:1.0 4444:1.0 4445:1.0 4446:1.0 4447:1.0 4448:1.0 4449:1.0 4455:1.0 4456:1.0 4457:1.0 4458:1.0 4459:1.0 4460:1.0 4461:1.0 4462:1.0 4463:1.0 4464:1.0 4465:1.0 4466:1.0 
0.004526168179988065 0.006650187081791004 22:1.0 23:1.0 24:1.0 29:1.0 30:1.0 31:1.0 32:1.0 115:6.0 198:8.0 201:1.0 856:1.0 949:2.0 961:2.0 1096:1.0 1098:1.0 1179:1.0 1203:1.0 1251:1.0 1252:1.0 1555:1.0 1561:1.0 1593:1.0 1599:1.0 1698:1.0 1767:1.0 1897:2.0 1904:2.0 1967:1.0 3133:1.0 3517:1.0 3643:1.0 3741:1.0 4061:1.0 4063:1.0 4068:1.0 4072:1.0 4075:1.0 4076:1.0 4112:1.0 4113:1.0 4114:1.0 4116:1.0 4119:1.0 4120:1.0 4125:1.0 4126:1.0 4127:1.0 4207:1.0 4213:1.0 4215:1.0 4246:1.0 4484:1.0 4485:3.0 4486:1.0 4487:1.0 4488:1.0 4489:1.0 4490:1.0 4491:1.0 4492:1.0 4493:3.0 4494:1.0 4495:1.0 4496:1.0 4497:1.0 4498:1.0 
0.05 0.0 22:1.0 23:1.0 24:1.0 29:1.0 30:1.0 31:1.0 32:1.0 115:4.0 198:8.0 201:1.0 376:1.0 856:1.0 949:1.0 961:1.0 1096:1.0 1098:1.0 1179:1.0 1203:1.0 1213:1.0 1238:1.0 1555:1.0 1561:1.0 1593:1.0 1599:1.0 1698:1.0 1767:1.0 1897:2.0 1904:2.0 1967:1.0 3133:1.0 3643:1.0 3741:1.0 4061:1.0 4063:1.0 4068:1.0 4072:1.0 4075:1.0 4076:1.0 4082:1.0 4112:1.0 4113:1.0 4114:1.0 4116:1.0 4119:1.0 4120:1.0 4207:1.0 4246:1.0 4484:1.0 4485:3.0 4486:1.0 4487:1.0 4488:1.0 4489:1.0 4490:1.0 4491:1.0 4493:2.0 4494:1.0 4495:1.0 4500:1.0 4502:1.0 4503:1.0 4504:1.0 4506:1.0 4507:1.0 4508:1.0 
0.05 0.0 22:1.0 23:1.0 24:1.0 29:1.0 30:1.0 31:1.0 32:1.0 115:2.0 164:1.0 198:8.0 201:1.0 280:1.0 856:1.0 1096:1.0 1098:1.0 1179:1.0 1203:1.0 1251:1.0 1252:1.0 1593:1.0 1599:1.0 1698:1.0 1767:1.0 1897:2.0 1904:2.0 1967:1.0 3133:1.0 3517:1.0 3643:1.0 3741:1.0 4061:1.0 4063:1.0 4068:1.0 4072:1.0 4075:1.0 4076:1.0 4112:1.0 4113:1.0 4114:1.0 4116:1.0 4119:1.0 4120:1.0 4125:1.0 4126:1.0 4127:1.0 4207:1.0 4246:1.0 4484:1.0 4485:3.0 4486:1.0 4487:1.0 4488:1.0 4489:1.0 4490:1.0 4491:1.0 4493:1.0 4495:1.0 4510:1.0 4511:1.0 4512:1.0 
0.04679352792794563 0.0 24:3.0 25:1.0 29:1.0 30:1.0 31:1.0 67:3.0 115:1.0 176:1.0 198:3.0 268:1.0 272:1.0 446:1.0 460:1.0 466:1.0 759:1.0 798:1.0 856:1.0 2544:1.0 2676:1.0 2679:1.0 3968:1.0 4023:1.0 4063:1.0 4114:1.0 4144:1.0 4189:1.0 4214:1.0 4222:1.0 4223:1.0 4224:1.0 4255:1.0 4263:1.0 4528:1.0 4531:1.0 4536:1.0 4539:1.0 4540:1.0 4541:1.0 4542:1.0 4543:1.0 4544:1.0 4545:1.0 4546:1.0 4547:1.0 4548:1.0 4553:1.0 4556:1.0 4557:1.0 4558:1.0 4559:1.0 
5.278764424609809E-4 0.0 22:1.0 23:1.0 24:2.0 25:1.0 29:1.0 30:1.0 31:1.0 32:1.0 45:1.0 46:1.0 47:1.0 115:2.0 146:1.0 198:3.0 268:1.0 272:1.0 446:1.0 594:1.0 598:1.0 745:1.0 812:1.0 1510:1.0 1844:1.0 1967:1.0 2158:1.0 3996:1.0 4036:1.0 4112:1.0 4115:1.0 4116:1.0 4144:1.0 4189:1.0 4214:1.0 4491:1.0 4496:1.0 4553:1.0 4569:1.0 4574:1.0 4593:1.0 4594:1.0 4595:1.0 4596:1.0 4597:1.0 4598:1.0 4599:1.0 4600:1.0 4601:1.0 4602:1.0 4603:1.0 4604:1.0 4605:1.0 4606:1.0 4607:1.0 4608:1.0 4609:1.0 4610:1.0 4611:1.0 4612:1.0 4613:1.0 4614:1.0 4615:1.0 4616:1.0 
0.05 0.0 22:1.0 23:1.0 24:1.0 29:1.0 30:1.0 31:1.0 32:1.0 115:6.0 198:8.0 201:1.0 856:1.0 949:2.0 961:2.0 1096:1.0 1098:1.0 1179:1.0 1203:1.0 1251:1.0 1252:1.0 1555:1.0 1561:1.0 1593:1.0 1599:1.0 1698:1.0 1767:1.0 1897:2.0 1904:2.0 1960:1.0 1967:1.0 3133:1.0 3517:1.0 3643:1.0 3741:1.0 3968:1.0 3973:1.0 4061:1.0 4063:1.0 4068:1.0 4072:1.0 4076:1.0 4112:1.0 4114:1.0 4115:1.0 4116:1.0 4125:1.0 4126:1.0 4127:1.0 4207:1.0 4213:1.0 4215:1.0 4246:1.0 4485:3.0 4486:1.0 4487:1.0 4491:1.0 4492:1.0 4493:3.0 4494:1.0 4495:1.0 4496:1.0 4497:1.0 4498:1.0 4617:1.0 4618:1.0 4619:1.0 4620:1.0 
0.05 0.006121724822246142 22:1.0 23:1.0 24:1.0 29:1.0 30:1.0 31:1.0 32:1.0 45:1.0 46:1.0 47:1.0 115:4.0 146:1.0 198:6.0 376:1.0 551:1.0 554:1.0 856:1.0 949:1.0 961:1.0 1096:1.0 1098:1.0 1167:1.0 1179:1.0 1203:1.0 1213:1.0 1238:1.0 1555:1.0 1561:1.0 1593:1.0 1599:1.0 1698:1.0 1767:1.0 1897:1.0 1904:1.0 1960:1.0 1967:1.0 3133:1.0 3643:1.0 3968:1.0 3973:1.0 4061:1.0 4068:1.0 4072:1.0 4076:1.0 4082:1.0 4108:1.0 4112:1.0 4114:1.0 4115:1.0 4116:1.0 4485:2.0 4486:1.0 4487:1.0 4493:2.0 4494:1.0 4495:1.0 4500:1.0 4502:1.0 4503:1.0 4504:1.0 4506:1.0 4507:1.0 4508:1.0 4516:1.0 4517:1.0 4518:1.0 4519:1.0 4520:1.0 4521:1.0 4618:1.0 4619:1.0 4620:1.0 4624:1.0 
6.03927043496576E-4 0.0 22:1.0 23:1.0 24:1.0 29:1.0 30:1.0 31:1.0 32:1.0 45:1.5 46:2.0 47:1.0 115:2.0 164:1.0 198:4.0 280:1.0 641:1.0 681:1.0 682:1.0 724:1.0 756:1.0 856:1.0 1096:1.0 1098:1.0 1179:1.0 1203:1.0 1251:1.0 1252:1.0 1593:1.0 1599:1.0 1960:1.0 1967:1.0 3133:1.0 3517:1.0 3643:1.0 3968:1.0 3973:1.0 4061:1.0 4068:1.0 4072:1.0 4076:1.0 4112:1.0 4114:1.0 4115:1.0 4116:1.0 4125:1.0 4126:1.0 4127:1.0 4136:1.0 4137:1.0 4138:1.0 4485:1.0 4487:1.0 4493:1.0 4495:1.0 4510:1.0 4511:1.0 4512:1.0 4618:1.0 4619:1.0 4620:1.0 4625:1.0 4626:1.0 4627:1.0 4628:1.0 
0.015514300325612691 0.008123400610629787 22:1.0 23:1.0 24:2.0 25:2.0 30:1.0 32:1.0 103:1.0 115:2.0 138:1.0 139:1.0 194:1.0 198:3.0 201:1.0 820:1.0 1016:1.0 3225:1.0 3747:1.0 3750:1.0 3751:1.0 3766:1.0 3769:1.0 3770:1.0 3776:1.0 3822:1.0 3823:1.0 3998:1.0 4706:1.0 4707:1.0 4708:1.0 4709:1.0 4710:1.0 4711:1.0 4712:1.0 4713:1.0 4714:1.0 4715:1.0 4716:1.0 4717:1.0 4718:1.0 4719:1.0 4720:1.0 
0.0 0.0010469822545473475 22:1.0 23:1.0 24:4.0 25:1.0 29:1.0 30:1.0 31:1.0 32:1.0 45:2.0 46:3.0 47:1.0 103:1.0 194:1.0 198:1.0 201:1.0 521:1.0 527:1.0 1092:1.0 1205:1.0 1209:1.0 1546:1.0 1698:1.0 1898:1.0 2605:1.0 2609:1.0 2951:1.0 3435:1.0 3782:1.0 3833:1.0 3919:1.0 3964:1.0 4002:1.0 4003:1.0 4004:1.0 4005:1.0 4721:1.0 4722:1.0 4723:1.0 4724:1.0 4725:1.0 4726:1.0 4727:1.0 4728:1.0 4729:1.0 4730:1.0 4731:1.0 4732:1.0 4733:1.0 4734:1.0 4735:1.0 4736:1.0 4737:1.0 4738:1.0 4739:1.0 4740:1.0 4741:1.0 4742:1.0 
0.017618876243658696 0.0 16:1.0 22:1.0 23:1.0 24:4.0 25:1.0 29:1.0 30:1.0 31:1.0 32:1.0 45:3.0 46:5.0 47:1.0 194:1.0 198:1.0 201:1.0 326:1.0 327:1.0 331:1.0 1205:1.0 1209:1.0 1527:1.0 1546:1.0 1698:1.0 1898:1.0 2237:1.0 2951:1.0 3435:1.0 3789:1.0 3806:1.0 3833:1.0 3884:1.0 3919:1.0 3964:1.0 4721:1.0 4722:1.0 4723:1.0 4724:1.0 4725:1.0 4726:1.0 4727:1.0 4728:1.0 4729:1.0 4730:1.0 4731:1.0 4735:1.0 4737:1.0 4738:1.0 4743:1.0 4744:1.0 4745:1.0 4746:1.0 4747:1.0 4748:1.0 4749:1.0 4750:1.0 4751:1.0 4752:1.0 
0.042746537037073956 0.0 22:1.0 23:1.0 24:3.0 25:1.0 30:1.0 32:1.0 45:3.0 46:5.0 47:1.0 138:1.0 139:1.0 176:1.0 198:1.0 280:1.0 327:1.0 331:1.0 530:1.0 838:1.0 856:1.0 1082:1.0 1600:1.0 1601:1.0 1698:1.0 1767:1.0 1967:1.0 2235:1.0 2237:1.0 2523:1.0 3116:1.0 3117:1.0 3212:1.0 3585:1.0 3628:1.0 3964:1.0 3972:1.0 3988:1.0 4002:1.0 4003:1.0 4004:1.0 4005:1.0 4011:1.0 4142:1.0 4153:1.0 4837:1.0 4838:1.0 4839:1.0 4840:1.0 4841:1.0 4848:1.0 4849:1.0 4853:1.0 4854:1.0 4855:1.0 4856:1.0 4857:1.0 
0.015379782653866064 0.0 22:1.0 23:1.0 24:2.0 25:1.0 30:1.0 32:1.0 45:2.0 46:3.0 47:1.0 115:1.0 138:1.0 139:1.0 176:1.0 198:1.0 268:1.0 272:1.0 390:1.0 418:1.0 444:1.0 446:1.0 615:1.0 838:1.0 856:1.0 1082:1.0 1600:1.0 1601:1.0 1967:1.0 2123:1.0 2523:1.0 3116:1.0 3117:1.0 3212:1.0 3628:1.0 3972:1.0 3995:1.0 3996:1.0 3997:1.0 4037:1.0 4120:1.0 4142:1.0 4229:1.0 4240:1.0 4838:1.0 4839:1.0 4843:1.0 4844:1.0 4848:1.0 4849:1.0 4858:1.0 4859:1.0 4860:1.0 4861:1.0 4862:1.0 4863:1.0 
0.03597310121471431 0.0 8:1.0 24:3.0 25:1.0 30:1.0 45:6.0 46:10.0 47:2.0 67:14.0 119:1.0 138:1.0 139:1.0 198:1.0 268:1.0 272:1.0 413:2.0 418:1.0 434:1.0 444:1.0 446:1.0 466:4.0 770:1.0 798:1.0 856:1.0 884:1.0 887:1.0 1096:1.0 2263:1.0 2552:1.0 2732:1.0 3526:1.0 3968:1.0 3995:1.0 3996:1.0 4242:1.0 4683:1.0 4684:2.0 4864:1.0 4865:1.0 4866:1.0 4867:1.0 4868:1.0 4869:1.0 4870:1.0 4871:1.0 4872:1.0 4873:1.0 4874:1.0 4880:1.0 4881:1.0 4882:1.0 4883:1.0 4884:1.0 4885:1.0 4888:1.0 4889:1.0 4890:1.0 4891:1.0 4892:1.0 4893:1.0 4894:1.0 4895:1.0 4896:1.0 4897:1.0 4898:1.0 
0.031086822741950276 0.019854621740415218 24:1.0 30:1.0 45:2.0 46:3.0 47:1.0 67:1.0 89:1.0 90:1.0 115:1.0 268:1.0 446:1.0 1066:1.0 1098:1.0 1600:1.0 1601:1.0 2400:1.0 2523:1.0 3609:1.0 4161:1.0 4163:1.0 4174:1.0 4230:1.0 4928:1.0 4929:1.0 4930:1.0 4931:1.0 4932:1.0 4933:1.0 4934:1.0 4935:1.0 4936:1.0 4937:1.0 4938:1.0 4939:1.0 4940:1.0 4941:1.0 4942:1.0 4943:1.0 4944:1.0 4945:1.0 4946:1.0 4947:1.0 4948:1.0 4949:1.0 4950:1.0 4951:1.0 4952:1.0 
0.0 0.006858442119884495 24:1.0 25:3.0 30:1.0 45:3.0 46:5.0 47:1.0 67:6.0 89:1.0 90:1.0 119:1.0 466:1.0 1066:1.0 1098:1.0 1555:1.0 1561:1.0 1600:1.0 1601:1.0 2523:1.0 3197:1.0 3201:1.0 3589:1.0 3590:1.0 3609:1.0 3996:1.0 4161:1.0 4163:1.0 4242:1.0 4928:1.0 4929:1.0 4930:1.0 4931:1.0 4932:1.0 4933:1.0 4934:1.0 4935:1.0 4945:1.0 4947:1.0 4948:1.0 4953:1.0 4954:1.0 4955:1.0 4956:1.0 4957:1.0 4958:1.0 4959:1.0 4960:1.0 4961:1.0 4962:1.0 4963:1.0 4964:1.0 4965:1.0 4966:1.0 4967:1.0 4968:1.0 4969:1.0 4970:1.0 4971:1.0 
0.01990875543809828 0.007395478158239372 24:1.0 25:1.0 30:1.0 45:4.0 46:7.0 47:1.0 67:9.0 89:1.0 90:1.0 119:1.0 280:1.0 284:1.0 292:1.0 327:1.0 331:1.0 466:1.0 530:1.0 1066:1.0 1098:1.0 1600:1.0 1601:1.0 2235:1.0 2237:1.0 2523:1.0 3589:1.0 3590:1.0 3609:1.0 4161:1.0 4163:1.0 4928:1.0 4929:1.0 4930:1.0 4931:1.0 4932:1.0 4933:1.0 4934:1.0 4935:1.0 4945:1.0 4947:1.0 4948:1.0 4955:1.0 4958:1.0 4959:1.0 4962:1.0 4963:1.0 4964:1.0 4965:1.0 4966:1.0 4972:1.0 4973:1.0 4974:1.0 4975:1.0 4976:1.0 4977:1.0 4978:1.0 4979:1.0 
0.04078798638168137 0.016449668887386127 25:3.0 30:1.0 45:2.0 46:3.0 47:1.0 67:3.0 89:1.0 90:1.0 198:1.0 466:1.0 594:1.0 768:1.0 1096:1.0 1098:1.0 1555:1.0 1561:1.0 2410:1.0 3197:1.0 3201:1.0 3589:1.0 3590:1.0 3996:1.0 4145:1.0 4242:1.0 4656:1.0 4953:1.0 4954:1.0 4955:1.0 4956:1.0 4957:1.0 4958:1.0 4959:1.0 4960:1.0 4961:1.0 4962:1.0 4965:1.0 4966:1.0 4967:1.0 4968:1.0 4969:1.0 4970:1.0 4980:1.0 4981:1.0 4982:1.0 4983:1.0 4984:1.0 4985:1.0 4986:1.0 4987:1.0 4988:1.0 4989:1.0 4990:1.0 4991:1.0 4992:1.0 4993:1.0 
0.05 0.016258525442649236 25:1.0 30:1.0 45:3.0 46:5.0 47:1.0 67:6.0 89:1.0 90:1.0 198:1.0 280:1.0 284:1.0 292:1.0 327:1.0 331:1.0 466:1.0 530:1.0 594:1.0 768:1.0 1096:1.0 1098:1.0 2235:1.0 2237:1.0 2410:1.0 3589:1.0 3590:1.0 4145:1.0 4656:1.0 4955:1.0 4958:1.0 4959:1.0 4962:1.0 4965:1.0 4966:1.0 4972:1.0 4973:1.0 4974:1.0 4975:1.0 4976:1.0 4977:1.0 4978:1.0 4980:1.0 4981:1.0 4982:1.0 4983:1.0 4984:1.0 4985:1.0 4986:1.0 4987:1.0 4988:1.0 4989:1.0 4990:1.0 4991:1.0 4992:1.0 4994:1.0 
0.046771881908466824 0.014318196860778936 24:1.0 30:1.0 45:2.0 46:3.0 47:1.0 67:3.0 89:1.0 90:1.0 115:1.0 176:1.0 268:1.0 446:1.0 460:1.0 466:1.0 759:1.0 798:1.0 1098:1.0 2400:1.0 2474:1.0 2478:1.0 3160:1.0 4928:1.0 4929:1.0 4930:1.0 4931:1.0 4933:1.0 4936:1.0 4937:1.0 4938:1.0 4939:1.0 4940:1.0 4945:1.0 4947:1.0 4949:1.0 4950:1.0 4951:1.0 4995:1.0 4996:1.0 4997:1.0 4998:1.0 5005:1.0 5018:1.0 5019:1.0 5021:1.0 5023:1.0 5024:1.0 5025:1.0 5026:1.0 5027:1.0 5028:1.0 
0.020502109341700093 0.0 24:2.0 25:3.0 29:1.0 30:1.0 31:1.0 45:3.0 46:5.0 47:1.0 67:6.0 119:1.0 176:1.0 198:2.0 213:1.0 390:1.0 435:1.0 466:2.0 569:1.0 577:1.0 759:1.0 949:1.0 961:1.0 1600:1.0 1601:1.0 1602:1.0 1604:1.0 2523:1.0 2732:1.0 3197:1.0 3201:1.0 3609:1.0 3996:1.0 4242:1.0 4530:1.0 4911:1.0 4920:1.0 4970:1.0 5029:1.0 5030:1.0 5031:1.0 5032:1.0 5033:1.0 5034:1.0 5035:1.0 5037:1.0 5039:1.0 5044:1.0 5049:1.0 5050:1.0 5052:1.0 5053:1.0 5055:1.0 5056:1.0 5057:1.0 5058:1.0 5059:1.0 5060:1.0 5061:1.0 5062:1.0 5063:1.0 5064:1.0 
0.024386602988266972 0.0 24:2.0 25:2.0 29:1.0 30:1.0 31:1.0 45:3.0 46:5.0 47:1.0 67:6.0 119:1.0 176:1.0 198:2.0 213:1.0 310:1.0 435:1.0 466:2.0 577:1.0 759:1.0 1600:1.0 1601:1.0 1602:1.0 1604:1.0 2523:1.0 2732:1.0 3197:1.0 3201:1.0 3501:1.0 3609:1.0 3996:1.0 4242:1.0 4530:1.0 4911:1.0 4920:1.0 4970:1.0 5029:1.0 5030:1.0 5031:1.0 5032:1.0 5033:1.0 5034:1.0 5035:1.0 5037:1.0 5039:1.0 5044:1.0 5049:1.0 5052:1.0 5053:1.0 5055:1.0 5056:1.0 5057:1.0 5058:1.0 5059:1.0 5060:1.0 5061:1.0 5065:1.0 5066:1.0 5067:1.0 
0.05 0.0 24:1.0 25:1.0 30:1.0 40:1.0 43:1.0 44:1.0 45:4.5 46:8.0 47:1.0 67:11.0 115:1.0 119:1.0 138:1.0 139:1.0 210:1.0 212:1.0 258:1.0 292:1.0 413:1.0 615:1.0 618:1.0 794:1.0 855:1.0 1142:1.0 1478:1.0 2514:1.0 2586:1.0 2663:1.0 2679:1.0 3008:1.0 3009:1.0 4229:1.0 4240:1.0 5123:1.0 5126:1.0 5172:1.0 5173:1.0 5174:1.0 5175:1.0 5176:1.0 5177:1.0 5245:1.0 5246:1.0 5247:1.0 5248:1.0 5249:1.0 5250:1.0 5251:1.0 5252:1.0 5253:1.0 5254:1.0 5255:1.0 5256:1.0 5257:1.0 5258:1.0 5259:1.0 5260:1.0 5261:1.0 
0.01234060374144267 0.005165631571390966 24:1.0 25:1.0 30:1.0 40:1.0 43:1.0 44:1.0 45:5.5 46:8.0 47:3.0 67:9.0 115:1.0 138:1.0 139:1.0 258:1.0 413:1.0 641:1.0 681:1.0 682:1.0 683:1.0 685:1.0 686:1.0 794:1.0 855:1.0 1142:1.0 1478:1.0 2142:1.0 2514:1.0 2663:1.0 2679:1.0 3026:1.0 4229:1.0 4240:1.0 5123:1.0 5126:1.0 5173:1.0 5174:1.0 5175:1.0 5176:1.0 5177:1.0 5249:1.0 5250:1.0 5251:1.0 5258:1.0 5259:1.0 5260:1.0 5304:1.0 5305:1.0 5306:1.0 5307:1.0 5308:1.0 5309:1.0 5310:1.0 5311:1.0 5312:1.0 5313:1.0 
0.018811315376533827 0.0 22:1.0 23:1.0 24:2.0 25:1.0 30:1.0 32:1.0 34:1.0 38:1.0 40:1.0 43:1.0 45:2.0 46:2.0 47:2.0 97:1.0 99:1.0 115:1.0 123:1.0 138:1.0 139:1.0 190:1.0 198:1.0 212:1.0 706:1.0 784:1.0 785:1.0 794:1.0 1263:1.0 2663:1.0 2906:1.0 3009:1.0 3407:1.0 5053:1.0 5167:1.0 5168:1.0 5169:1.0 5170:1.0 5180:1.0 5181:1.0 5182:1.0 5364:1.0 5365:1.0 5374:1.0 5375:1.0 5376:1.0 5377:1.0 5378:1.0 5379:1.0 5380:1.0 5381:1.0 
0.031157411114007737 0.0 2:1.0 4:1.0 12:1.0 13:1.0 14:1.0 15:1.0 22:1.0 23:1.0 24:2.0 25:1.0 29:1.0 30:1.0 31:1.0 32:1.0 40:1.0 43:1.0 44:1.0 45:1.5 46:2.0 47:1.0 133:1.0 611:1.0 614:1.0 1071:1.0 1601:1.0 1604:1.0 2523:1.0 2898:1.0 3272:1.0 3277:1.0 3278:1.0 5493:1.0 5494:1.0 5495:1.0 5512:1.0 5513:1.0 5514:1.0 5515:1.0 5550:1.0 5551:1.0 5552:1.0 5553:1.0 5554:1.0 5555:1.0 5556:1.0 5557:1.0 5558:1.0 5559:1.0 5560:1.0 
0.007873834835744782 0.0 22:1.0 23:1.0 24:1.0 25:1.0 29:1.0 30:1.0 31:1.0 32:1.0 34:1.0 37:1.0 38:1.0 40:1.0 43:1.0 44:1.0 45:1.0 46:1.0 47:1.0 146:1.0 673:1.0 675:1.0 1096:1.0 2035:1.0 2080:1.0 4209:1.0 5475:1.0 5518:1.0 5520:1.0 5523:1.0 5538:1.0 5542:1.0 5543:1.0 5544:1.0 5545:1.0 5547:1.0 5561:1.0 5563:1.0 5564:1.0 5565:1.0 5578:1.0 5579:1.0 5580:1.0 5581:1.0 5582:1.0 5583:1.0 5584:1.0 5585:1.0 5586:1.0 5587:1.0 5588:1.0 5589:1.0 
0.004733390098521926 0.0 22:1.0 23:1.0 24:2.0 25:1.0 29:1.0 30:1.0 31:1.0 32:1.0 34:1.0 37:1.0 38:1.0 40:1.0 43:1.0 44:1.0 45:1.5 46:2.0 47:1.0 673:1.0 675:1.0 895:1.0 896:1.0 904:1.0 910:1.0 911:1.0 4209:1.0 5475:1.0 5518:1.0 5520:1.0 5522:1.0 5523:1.0 5542:1.0 5543:1.0 5544:1.0 5545:1.0 5546:1.0 5547:1.0 5548:1.0 5579:1.0 5581:1.0 5583:1.0 5584:1.0 5585:1.0 5586:1.0 5587:1.0 5588:1.0 5602:1.0 5603:1.0 5604:1.0 5605:1.0 
0.025453033739829357 3.692745933993653E-4 22:1.0 23:1.0 24:3.0 25:2.0 29:1.0 30:1.0 31:1.0 32:1.0 34:1.0 37:1.0 40:1.0 43:1.0 45:1.0 46:1.0 47:1.0 103:1.0 146:1.0 194:1.0 856:1.0 1092:1.0 1096:1.0 1098:1.0 1293:1.0 1361:1.0 1555:1.0 1561:1.0 1698:1.0 1732:1.0 1767:1.0 1869:1.0 2964:1.0 3084:1.0 3435:1.0 3533:1.0 3534:1.0 4488:1.0 5418:1.0 5613:1.0 5615:1.0 5616:1.0 5617:1.0 5620:1.0 5621:1.0 5622:1.0 5776:1.0 5777:1.0 5778:1.0 5779:1.0 5780:1.0 5781:1.0 5782:1.0 5783:1.0 5784:1.0 5785:1.0 5786:1.0 5787:1.0 5788:1.0 5789:1.0 5790:1.0 5791:1.0 5792:1.0 
0.05 0.0012730134276600375 22:1.0 23:1.0 24:3.0 25:1.0 29:1.0 30:1.0 31:1.0 32:1.0 34:1.0 37:1.0 40:1.0 43:1.0 45:1.0 46:1.0 47:1.0 103:1.0 146:1.0 194:1.0 390:1.0 856:1.0 1092:1.0 1096:1.0 1098:1.0 1293:1.0 1361:1.0 1698:1.0 1732:1.0 1767:1.0 1869:1.0 2964:1.0 3084:1.0 3435:1.0 3522:1.0 4488:1.0 5418:1.0 5612:1.0 5613:1.0 5614:1.0 5615:1.0 5616:1.0 5617:1.0 5618:1.0 5620:1.0 5621:1.0 5622:1.0 5776:1.0 5777:1.0 5778:1.0 5779:1.0 5780:1.0 5781:1.0 5782:1.0 5783:1.0 5784:1.0 5785:1.0 5790:1.0 5791:1.0 5792:1.0 
0.037930556446538116 0.011285561485811384 30:1.0 45:2.5 46:4.0 47:1.0 67:7.0 138:1.0 139:1.0 176:1.0 292:1.0 569:1.0 577:1.0 823:1.0 860:1.0 1097:1.0 1098:1.0 2007:1.0 2447:1.0 5862:1.0 6316:1.0 6327:1.0 6329:1.0 6342:1.0 6343:1.0 6344:1.0 6345:1.0 6346:1.0 6347:1.0 6348:1.0 6349:1.0 6350:1.0 6351:1.0 6353:1.0 6354:1.0 6355:1.0 6356:1.0 6357:1.0 6358:1.0 6359:1.0 6360:1.0 6362:1.0 6363:1.0 6364:1.0 6365:1.0 6366:1.0 6367:1.0 6368:1.0 6369:1.0 6370:1.0 6371:1.0 6372:1.0 6373:1.0 6374:1.0 6375:1.0 6376:1.0 6377:1.0 6378:1.0 
0.0076749242375949165 0.0 22:1.0 23:1.0 24:4.0 25:1.0 29:1.0 30:1.0 31:1.0 32:1.0 40:1.0 43:1.0 44:1.0 45:1.5 46:2.0 47:1.0 427:1.0 617:1.0 770:1.0 785:1.0 792:1.0 794:1.0 838:1.0 856:2.0 868:1.0 1967:2.0 2471:1.0 2474:1.0 2478:1.0 2663:1.0 2675:1.0 3082:1.0 3117:1.0 3440:1.0 3582:1.0 3583:1.0 3628:1.0 3693:1.0 3694:1.0 3695:1.0 4370:1.0 4421:1.0 5164:1.0 6379:1.0 6380:1.0 6381:1.0 6382:1.0 6383:1.0 6384:1.0 6385:1.0 6386:1.0 6387:1.0 6388:1.0 6389:1.0 6390:1.0 6391:1.0 
0.05 0.004051115431013043 3:1.0 5:1.0 9:1.0 24:1.0 25:1.0 29:1.0 30:1.0 31:1.0 40:1.0 43:1.0 44:1.0 45:2.0 46:3.0 47:1.0 59:1.0 61:1.0 67:3.0 130:1.0 176:1.0 198:1.0 577:1.0 594:1.0 598:1.0 745:1.0 792:1.0 794:1.0 970:1.0 1113:1.0 2663:1.0 2675:1.0 4840:1.0 5454:1.0 5723:1.0 5724:1.0 5751:1.0 6403:1.0 6404:1.0 6405:1.0 6406:1.0 6407:1.0 6409:1.0 6410:1.0 6425:1.0 6426:1.0 6427:1.0 6428:1.0 6429:1.0 6430:1.0 6431:1.0 6432:1.0 6433:1.0 
1.1826853908779877E-4 9.684142953225937E-4 2:1.0 4:1.0 7:1.0 8:1.0 12:1.0 13:1.0 14:1.0 15:1.0 17:1.0 18:1.0 22:1.0 23:1.0 24:2.0 25:1.0 26:1.0 30:1.0 32:1.0 40:1.0 43:1.0 44:1.0 45:1.5 46:2.0 47:1.0 138:1.0 139:1.0 234:1.0 774:1.0 1092:1.0 2321:1.0 3117:1.0 3435:1.0 3440:1.0 3444:1.0 3693:1.0 3694:1.0 6525:1.0 6526:1.0 6527:1.0 6528:1.0 6529:1.0 6530:1.0 6531:1.0 6532:1.0 6533:1.0 6534:1.0 6535:1.0 6536:1.0 
2.7338891999788152E-5 0.0 22:1.0 23:1.0 24:5.0 30:1.0 32:1.0 34:1.0 38:1.0 40:1.0 43:1.0 45:2.0 46:3.0 47:1.0 115:1.0 123:1.0 138:1.0 139:1.0 198:1.0 706:1.0 1083:1.0 1092:1.0 1904:1.0 3435:1.0 5472:1.0 6541:1.0 6549:1.0 6555:1.0 6556:1.0 6582:1.0 6583:1.0 6584:1.0 6585:1.0 6586:1.0 6587:1.0 6588:1.0 6589:1.0 6590:1.0 6591:1.0 6592:1.0 6593:1.0 6594:1.0 6595:1.0 6596:1.0 6598:1.0 6599:1.0 6600:1.0 6601:1.0 6602:1.0 6603:1.0 6604:1.0 6605:1.0 6606:1.0 6607:1.0 6608:1.0 6609:1.0 
0.002766076176586147 0.0012476762664429756 22:1.0 23:1.0 24:2.0 25:1.0 29:1.0 30:1.0 31:1.0 32:1.0 40:1.0 43:1.0 44:1.0 45:1.5 46:2.0 47:1.0 103:1.0 194:1.0 1205:1.0 1209:1.0 1546:1.0 6541:1.0 6546:1.0 6548:1.0 6556:1.0 6583:1.0 6611:1.0 6612:1.0 6613:1.0 6614:1.0 6615:1.0 6616:1.0 6617:1.0 6618:1.0 6619:1.0 6620:1.0 6621:1.0 6622:1.0 6623:1.0 6624:1.0 6625:1.0 6626:1.0 6627:1.0 6628:1.0 6629:1.0 6630:1.0 6631:1.0 6632:1.0 6633:1.0 
0.010871469225476575 0.0019027116080481499 24:1.0 25:2.0 29:1.0 30:1.0 31:1.0 45:2.5 46:4.0 47:1.0 67:5.0 176:1.0 198:1.0 251:1.0 268:1.0 446:1.0 613:1.0 798:1.0 1098:1.0 1600:1.0 1601:1.0 1602:1.0 1604:1.0 2400:1.0 2523:1.0 2676:1.0 2679:1.0 2711:1.0 2896:1.0 3083:1.0 3090:1.0 3091:1.0 3096:1.0 4222:1.0 4223:1.0 4652:1.0 4653:1.0 5002:1.0 6429:1.0 6555:1.0 6556:1.0 6665:1.0 6666:1.0 6667:1.0 6668:1.0 6669:1.0 6670:1.0 6671:1.0 6672:1.0 6673:1.0 6674:1.0 6675:1.0 6676:1.0 6677:1.0 6678:1.0 6679:1.0 6680:1.0 6681:1.0 6682:1.0 6683:1.0 6684:1.0 
0.00853639573313177 0.007410019766724515 22:1.0 23:1.0 24:2.0 25:1.0 29:1.0 30:1.0 31:1.0 32:1.0 34:1.0 37:1.0 38:1.0 40:1.0 43:1.0 44:1.0 45:1.5 46:2.0 47:1.0 54:1.0 150:1.0 176:1.0 3792:1.0 5418:1.0 5586:1.0 6820:1.0 6821:1.0 6822:1.0 6823:1.0 6824:1.0 6825:1.0 6826:1.0 6827:1.0 6828:1.0 6829:1.0 6830:1.0 6831:1.0 6832:1.0 6833:1.0 6834:1.0 6835:1.0 6836:1.0 6837:1.0 6838:1.0 6839:1.0 6840:1.0 6841:1.0 6842:1.0 6843:1.0 6844:1.0 
0.01494498356380926 0.0071453264187353255 9:1.0 20:1.0 22:1.0 23:1.0 24:2.0 25:1.0 30:1.0 32:1.0 40:1.0 43:1.0 44:1.0 45:1.5 46:2.0 47:1.0 54:1.0 135:1.0 150:1.0 1205:1.0 1209:1.0 1664:1.0 1675:1.0 1701:1.0 3836:1.0 3837:1.0 3838:1.0 3839:1.0 3913:1.0 3915:1.0 3919:1.0 6659:1.0 6913:1.0 6923:1.0 6941:1.0 6942:1.0 6943:1.0 6944:1.0 6948:1.0 6949:1.0 6950:1.0 6962:1.0 6963:1.0 6964:1.0 6965:1.0 6966:1.0 6967:1.0 6968:1.0 
0.04382815048998137 0.019610679336381456 24:1.0 25:1.0 29:1.0 45:4.5 46:7.0 47:2.0 67:7.0 224:1.0 236:1.0 268:1.0 272:1.0 297:1.0 413:1.0 418:1.0 419:1.0 421:1.0 466:1.0 509:1.0 823:1.0 1245:1.0 1247:1.0 1600:1.0 1601:1.0 1602:1.0 1604:1.0 2155:1.0 2523:1.0 3232:1.0 3662:1.0 3666:1.0 3995:1.0 3996:1.0 4242:1.0 4411:1.0 4571:1.0 4653:1.0 5116:1.0 5127:1.0 7080:1.0 7081:1.0 7082:1.0 7083:1.0 7084:1.0 7085:1.0 7086:1.0 7089:1.0 7091:1.0 7092:1.0 7125:1.0 7126:1.0 7127:1.0 7128:1.0 7129:2.0 7130:1.0 7131:1.0 7132:1.0 7133:2.0 7134:1.0 7135:1.0 7136:1.0 7137:1.0 7138:1.0 
0.013919818152063213 0.001926123571550064 22:1.0 23:1.0 24:1.0 29:1.0 30:1.0 31:1.0 32:1.0 40:1.0 43:1.0 45:1.5 46:2.0 47:1.0 115:1.0 123:1.0 167:1.0 198:1.0 577:1.0 593:1.0 594:1.0 598:1.0 745:1.0 3133:1.0 3140:1.0 3600:1.0 3973:1.0 6202:1.0 7094:1.0 7095:1.0 7096:1.0 7097:1.0 7098:1.0 7099:1.0 7100:1.0 7101:1.0 7107:1.0 7108:1.0 7109:1.0 7110:1.0 7139:1.0 7140:1.0 7141:1.0 7142:1.0 7143:1.0 7144:1.0 7145:1.0 7146:1.0 7147:1.0 7148:1.0 7149:1.0 7150:1.0 
0.05 0.016326420910282434 24:2.0 25:1.0 29:1.0 45:2.5 46:4.0 47:1.0 67:2.0 115:2.0 198:1.0 268:1.0 272:1.0 297:1.0 421:1.0 435:1.0 466:1.0 509:1.0 759:1.0 1600:1.0 1601:1.0 1602:1.0 1604:1.0 1999:1.0 2523:1.0 3996:1.0 4145:1.0 4242:1.0 4911:1.0 4918:1.0 4920:1.0 4924:1.0 7162:1.0 7163:1.0 7164:1.0 7165:1.0 7166:1.0 7167:1.0 7168:1.0 7169:1.0 7170:1.0 7171:1.0 7172:1.0 7173:1.0 7174:1.0 7175:1.0 7176:1.0 7177:1.0 7178:1.0 7179:1.0 7180:1.0 7181:1.0 7182:1.0 7183:1.0 
0.019269660198938575 0.0 22:1.0 23:1.0 24:2.0 25:1.0 29:1.0 30:1.0 31:1.0 32:1.0 40:1.0 43:1.0 45:1.5 46:2.0 47:1.0 115:1.0 123:1.0 198:1.0 213:1.0 223:1.0 243:1.0 244:1.0 496:1.0 497:1.0 919:1.0 1205:1.0 1209:1.0 1387:1.0 1546:1.0 1714:1.0 1898:1.0 4209:1.0 4728:1.0 4803:1.0 4804:1.0 4805:1.0 4806:1.0 5475:1.0 6737:1.0 7220:1.0 7221:1.0 7222:1.0 7223:1.0 7224:1.0 7225:1.0 7226:1.0 7227:1.0 7228:1.0 7229:1.0 7230:1.0 7231:1.0 
0.02727701776704309 0.0 24:1.0 25:2.0 30:1.0 40:1.0 43:1.0 45:5.0 46:8.0 47:2.0 67:5.0 115:2.0 119:2.0 123:1.0 138:1.0 139:1.0 141:1.0 144:1.0 145:1.0 167:1.0 176:1.0 213:1.0 259:1.0 434:1.0 480:1.0 483:1.0 485:1.0 486:1.0 501:1.0 504:1.0 505:1.0 577:1.0 1831:1.0 2169:1.0 2839:1.0 4229:1.0 4240:1.0 4493:1.0 7248:1.0 7249:1.0 7250:1.0 7251:1.0 7252:1.0 7253:1.0 7254:1.0 7255:1.0 7256:1.0 7257:1.0 7258:1.0 7259:1.0 7260:1.0 7261:1.0 7262:1.0 7263:1.0 7264:1.0 7265:1.0 7266:1.0 7267:1.0 7268:1.0 7269:1.0 7270:1.0 7271:1.0 
0.027748187908289382 0.019697253996202015 24:1.0 25:2.0 30:1.0 40:1.0 43:1.0 45:3.5 46:6.0 47:1.0 67:3.0 115:2.0 119:1.0 123:1.0 138:1.0 139:1.0 167:1.0 176:1.0 434:1.0 480:1.0 483:1.0 485:1.0 486:1.0 577:1.0 593:1.0 594:1.0 595:1.0 597:1.0 598:1.0 1107:1.0 2099:1.0 2103:1.0 2169:1.0 2184:1.0 2187:1.0 3116:1.0 3117:1.0 3444:1.0 4229:1.0 4240:1.0 4493:1.0 7255:1.0 7256:1.0 7257:1.0 7258:1.0 7259:1.0 7260:1.0 7261:1.0 7262:1.0 7268:1.0 7269:1.0 7270:1.0 7272:1.0 7273:1.0 7274:1.0 7275:1.0 7276:1.0 7277:1.0 7278:1.0 7279:1.0 7280:1.0 
0.010814107899890034 0.0 25:2.0 30:1.0 40:1.0 43:1.0 45:2.5 46:4.0 47:1.0 67:1.0 115:2.0 123:1.0 138:1.0 139:1.0 167:1.0 176:1.0 480:1.0 483:1.0 485:1.0 486:1.0 539:1.0 577:1.0 1155:1.0 1158:1.0 2158:1.0 2169:1.0 2633:1.0 2642:1.0 3410:1.0 4229:1.0 4240:1.0 4463:1.0 4493:1.0 6188:1.0 7255:1.0 7256:1.0 7257:1.0 7258:1.0 7259:1.0 7260:1.0 7261:1.0 7268:1.0 7269:1.0 7270:1.0 7294:1.0 7295:1.0 7296:1.0 7297:1.0 7298:1.0 7299:1.0 7300:1.0 7301:1.0 7302:1.0 7303:1.0 7304:1.0 7305:1.0 7306:1.0 
0.005923234350075917 0.0014818681013026075 22:1.0 23:1.0 24:4.0 25:1.0 29:1.0 30:1.0 31:1.0 32:1.0 40:1.0 43:1.0 45:1.5 46:2.0 47:1.0 115:1.0 123:1.0 198:5.0 212:1.0 785:1.0 794:1.0 838:1.0 856:1.0 1689:1.0 1732:1.0 2586:1.0 2620:1.0 2621:1.0 2625:1.0 2663:1.0 3009:1.0 3084:1.0 3095:1.0 3334:1.0 4285:1.0 4707:1.0 4709:1.0 4717:1.0 7370:1.0 7371:1.0 7372:1.0 7373:1.0 7374:1.0 7375:1.0 7376:1.0 7377:1.0 7378:1.0 7379:1.0 7380:1.0 7381:1.0 7382:1.0 7383:1.0 7384:1.0 7385:1.0 7386:1.0 7387:1.0 7388:1.0 7389:1.0 7390:1.0 7391:1.0 7392:1.0 7393:1.0 7394:1.0 
0.004031057898833117 0.0 3:1.0 5:1.0 9:1.0 19:1.0 20:1.0 22:1.0 23:1.0 24:1.0 29:1.0 30:1.0 31:1.0 32:1.0 39:1.0 40:1.0 41:1.0 43:1.0 45:1.5 46:2.0 47:1.0 115:1.0 123:1.0 198:2.0 388:1.0 594:1.0 598:1.0 610:1.0 612:1.0 613:1.0 733:1.0 742:1.0 743:1.0 745:1.0 2462:1.0 3995:1.0 5437:1.0 7151:1.0 7154:1.0 7454:1.0 7455:1.0 7456:1.0 7457:1.0 7458:1.0 7459:1.0 7460:1.0 7461:1.0 7462:1.0 7463:1.0 
0.05 0.012976736839225777 9:1.0 24:1.0 25:1.0 26:1.0 29:1.0 30:1.0 31:1.0 40:1.0 43:1.0 44:1.0 45:1.5 46:2.0 47:1.0 59:1.0 61:1.0 67:2.0 164:1.0 423:1.0 424:1.0 425:1.0 426:1.0 521:1.0 523:1.0 635:1.0 636:1.0 637:1.0 638:1.0 1666:1.0 1667:1.0 2544:1.0 3285:1.0 3427:1.0 3429:1.0 5524:1.0 7438:1.0 7439:1.0 7489:1.0 7490:1.0 7491:1.0 7492:1.0 7493:1.0 7494:1.0 7495:1.0 7496:1.0 7497:1.0 7498:1.0 7499:1.0 
0.01051591868686543 0.0 22:1.0 23:1.0 24:1.0 25:1.0 26:1.0 30:1.0 32:1.0 138:1.0 139:1.0 167:1.0 181:1.0 185:1.0 213:1.0 785:1.0 792:1.0 794:1.0 919:1.0 1096:1.0 1443:1.0 1491:1.0 2663:1.0 2675:1.0 3082:1.0 3133:1.0 3446:1.0 4209:1.0 5475:1.0 7594:1.0 7595:1.0 7596:1.0 7597:1.0 7598:1.0 7599:1.0 7600:1.0 7601:1.0 7602:1.0 7603:1.0 7604:1.0 7605:1.0 7606:1.0 
0.01290964058922267 0.0031605250833438695 22:1.0 23:1.0 24:1.0 25:1.0 29:1.0 30:1.0 31:1.0 32:1.0 45:1.0 46:1.0 47:1.0 115:1.0 146:1.0 198:1.0 1096:1.0 5514:1.0 6555:1.0 7618:1.0 7620:1.0 7621:1.0 7623:1.0 7624:1.0 7625:1.0 7641:1.0 7642:1.0 7643:1.0 7645:1.0 7646:1.0 7647:1.0 7648:1.0 7650:1.0 7652:1.0 7654:1.0 7655:1.0 7656:1.0 7657:1.0 7658:1.0 7659:1.0 7660:1.0 7661:1.0 7662:1.0 7663:1.0 7664:1.0 7665:1.0 7666:1.0 7667:1.0 7668:1.0 7669:1.0 7670:1.0 7671:1.0 7672:1.0 7673:1.0 7674:1.0 7675:1.0 
8.112049409178662E-4 0.0 22:1.0 23:1.0 24:1.0 29:1.0 30:1.0 31:1.0 32:1.0 40:1.0 43:1.0 45:1.5 46:2.0 47:1.0 115:1.0 123:1.0 198:1.0 5514:1.0 7625:1.0 7641:1.0 7642:1.0 7643:1.0 7645:1.0 7646:1.0 7657:1.0 7670:1.0 7671:1.0 7673:1.0 7698:1.0 7699:1.0 7700:1.0 7701:1.0 7702:1.0 7703:1.0 7704:1.0 7705:1.0 7706:1.0 7707:1.0 7708:1.0 7709:1.0 7710:1.0 7711:1.0 7712:1.0 7713:1.0 7714:1.0 7715:1.0 7716:1.0 7717:1.0 7718:1.0 7719:1.0 
0.01164538612036795 0.0 22:1.0 23:1.0 29:1.0 30:1.0 31:1.0 32:1.0 45:1.5 46:2.0 47:1.0 115:1.0 181:1.0 198:1.0 403:1.0 594:1.0 733:1.0 740:1.0 742:1.0 743:1.0 745:1.0 1096:1.0 1229:1.0 1491:1.0 2410:1.0 5514:1.0 5561:1.0 5563:1.0 5580:1.0 5582:1.0 7657:1.0 7671:1.0 7727:1.0 7729:1.0 7731:1.0 7732:1.0 7742:1.0 7743:1.0 7744:1.0 7745:1.0 7746:1.0 7747:1.0 7748:1.0 7749:1.0 7750:1.0 7751:1.0 7752:1.0 7753:1.0 7754:1.0 7755:1.0 7756:1.0 7757:1.0 
0.0226958296397594 0.005634532597007854 9:1.0 20:1.0 22:1.0 23:1.0 24:2.0 25:1.0 26:1.0 30:1.0 32:1.0 40:1.0 43:1.0 44:1.0 45:1.5 46:2.0 47:1.0 49:1.0 50:1.0 51:1.0 52:1.0 129:1.0 148:1.0 176:1.0 1205:1.0 1209:1.0 1264:1.0 1664:1.0 1675:1.0 1694:1.0 1701:1.0 2198:1.0 3741:1.0 4497:1.0 6942:1.0 6948:1.0 6949:1.0 6963:1.0 6964:1.0 8110:1.0 8124:1.0 8125:1.0 8126:1.0 8127:1.0 8128:1.0 8129:1.0 8130:1.0 8131:1.0 8132:1.0 
0.0076944115940866045 0.003908295225356039 8:1.0 9:1.0 18:1.0 22:1.0 23:1.0 24:2.0 25:1.0 30:1.0 32:1.0 45:1.0 46:1.0 47:1.0 146:1.0 970:1.0 1066:1.0 1071:1.0 1239:1.0 1664:1.0 1675:1.0 1732:1.0 1960:1.0 1967:1.0 2620:1.0 2621:1.0 2625:1.0 2639:1.0 2699:1.0 2897:1.0 3084:1.0 8293:1.0 8294:1.0 8295:1.0 8296:1.0 8297:1.0 8298:1.0 8299:1.0 8300:1.0 8301:1.0 8302:1.0 8303:1.0 8304:1.0 8305:1.0 8306:1.0 8307:1.0 8308:1.0 8309:1.0 8310:1.0 8311:1.0 8312:1.0 
0.010741472512078219 0.0 6:1.0 9:1.0 16:1.0 20:1.0 22:1.0 23:1.0 24:2.0 30:1.0 32:1.0 34:1.0 38:1.0 40:1.0 43:1.0 45:1.5 46:2.0 47:1.0 115:1.0 123:1.0 176:1.0 198:1.0 1425:1.0 1664:1.0 1675:1.0 1868:1.0 1897:1.0 1904:1.0 1963:1.0 2198:1.0 2630:1.0 2645:1.0 7534:1.0 7535:1.0 7540:1.0 7541:1.0 7542:1.0 7543:1.0 7546:1.0 7555:1.0 7556:1.0 8361:1.0 8362:1.0 8364:1.0 8365:1.0 8366:1.0 8367:1.0 8368:1.0 8369:1.0 8370:1.0 8371:1.0 8372:1.0 
0.031211490506759587 0.0017364589655329756 22:1.0 23:1.0 24:1.0 25:1.0 30:1.0 32:1.0 45:1.0 46:1.0 47:1.0 146:1.0 327:1.0 331:1.0 682:1.0 686:1.0 970:1.0 1066:1.0 1096:1.0 1369:1.0 1374:1.0 1664:1.0 1675:1.0 1714:1.0 1811:1.0 1814:1.0 1880:1.0 1882:1.0 2221:1.0 2237:1.0 2507:1.0 2508:1.0 2509:1.0 2510:1.0 3577:1.0 4340:1.0 6737:1.0 6747:1.0 6816:1.0 8076:1.0 8505:1.0 8512:1.0 8514:1.0 8515:1.0 8516:1.0 8824:1.0 8877:1.0 8890:1.0 8891:1.0 8892:1.0 8893:1.0 8894:1.0 
0.015394349978663608 0.027746815095290544 24:1.0 25:1.0 30:1.0 45:7.0 46:10.0 47:4.0 67:4.0 168:1.0 198:1.0 268:1.0 272:1.0 346:1.0 351:1.0 403:1.0 407:1.0 413:1.0 414:1.0 418:1.0 444:1.0 446:1.0 671:1.0 681:1.0 682:1.0 686:1.0 1167:1.0 1179:1.0 1664:1.0 1675:1.0 1725:1.0 1882:1.0 2159:1.0 2528:1.0 2529:1.0 2530:1.0 2531:1.0 3030:1.0 3459:1.0 4933:1.0 4945:1.0 4947:1.0 6370:1.0 8556:1.0 8557:1.0 8670:1.0 8671:1.0 8672:1.0 8674:1.0 8675:1.0 8936:1.0 8937:1.0 8938:1.0 8939:1.0 8940:1.0 8941:1.0 8942:1.0 8943:1.0 8944:1.0 8945:1.0 8946:1.0 8947:1.0 8948:1.0 8949:1.0 8950:1.0 
0.02679673067142034 0.0 8:1.0 18:1.0 22:1.0 23:1.0 24:2.0 25:1.0 26:1.0 30:1.0 32:1.0 181:1.0 185:1.0 198:4.0 856:1.0 1096:2.0 1381:1.0 1383:1.0 1491:1.0 1616:1.0 1617:1.0 1664:1.0 1675:1.0 1691:1.0 1698:2.0 1732:1.0 1767:1.0 1891:1.0 1893:1.0 1897:2.0 1898:1.0 1904:2.0 1947:1.0 2385:1.0 3084:1.0 3133:1.0 3792:1.0 3823:1.0 4488:1.0 6184:1.0 6185:1.0 7481:1.0 8982:1.0 8983:1.0 8984:1.0 8985:2.0 8986:1.0 8987:1.0 8988:1.0 8989:1.0 8996:1.0 8997:1.0 8999:2.0 9000:1.0 9003:1.0 9004:1.0 9005:1.0 9006:1.0 
0.0025802268314514413 0.0 8:1.0 9:1.0 18:1.0 22:1.0 23:1.0 24:1.0 25:1.0 26:1.0 29:1.0 30:1.0 31:1.0 32:1.0 45:2.5 46:3.0 47:2.0 181:1.0 185:1.0 198:4.0 594:1.0 745:1.0 1096:1.0 1381:1.0 1383:1.0 1491:1.0 1616:1.0 1617:1.0 1698:1.0 1732:1.0 1767:1.0 1891:1.0 1893:1.0 1897:1.0 1898:1.0 1903:1.0 1904:1.0 2385:1.0 3084:1.0 3792:1.0 5910:1.0 5974:1.0 6283:1.0 7481:1.0 8983:1.0 8984:1.0 8985:2.0 8986:1.0 8987:1.0 8988:1.0 8996:1.0 8997:1.0 8999:2.0 9000:1.0 9003:1.0 9004:1.0 9005:1.0 9006:1.0 9007:1.0 9008:1.0 9009:1.0 9010:1.0 9011:1.0 
0.0 0.0029118160759466992 8:1.0 18:1.0 22:1.0 23:1.0 24:1.0 25:1.0 26:1.0 29:1.0 30:1.0 31:1.0 32:1.0 45:2.5 46:3.0 47:2.0 181:1.0 185:1.0 198:3.0 594:1.0 615:1.0 745:1.0 1096:1.0 1381:1.0 1383:1.0 1491:1.0 1616:1.0 1617:1.0 1732:1.0 1891:1.0 1893:1.0 1897:1.0 1898:1.0 1904:1.0 2385:1.0 3084:1.0 3792:1.0 3954:1.0 5910:1.0 5974:1.0 7481:1.0 8983:1.0 8984:1.0 8985:1.0 8986:1.0 8988:1.0 8996:1.0 8997:1.0 8999:1.0 9000:1.0 9003:1.0 9004:1.0 9005:1.0 9006:1.0 9009:1.0 9010:1.0 9011:1.0 9012:1.0 9013:1.0 9014:1.0 
0.011117267298845391 0.0 8:1.0 18:1.0 22:1.0 23:1.0 24:1.0 29:1.0 30:1.0 31:1.0 32:1.0 1096:1.0 1098:1.0 1239:1.0 1419:1.0 1421:1.0 1581:1.0 1582:1.0 1583:1.0 1732:1.0 1957:1.0 1959:1.0 1960:1.0 1961:1.0 1967:1.0 1972:1.0 2897:1.0 3084:1.0 3133:1.0 3446:1.0 5835:1.0 6191:1.0 7521:1.0 9029:1.0 9030:1.0 9031:1.0 
0.002504699880339606 0.013640564021591417 22:1.0 23:1.0 24:4.0 25:1.0 30:1.0 32:1.0 34:1.0 38:1.0 40:1.0 43:1.0 44:1.0 45:1.0 46:1.0 47:1.0 115:1.0 138:1.0 139:1.0 146:1.0 198:1.0 310:1.0 706:1.0 949:1.0 961:1.0 998:1.0 1082:1.0 1083:1.0 1096:1.0 1732:1.0 1897:4.0 1904:4.0 3084:1.0 3095:2.0 4847:1.0 5472:1.0 6541:1.0 6542:1.0 6546:1.0 6548:1.0 6551:1.0 6555:1.0 6556:1.0 6583:1.0 6586:1.0 6588:1.0 6589:1.0 6592:1.0 6593:1.0 6594:1.0 6595:1.0 9119:1.0 9120:1.0 9121:1.0 9122:1.0 9123:1.0 9124:1.0 9125:1.0 9126:1.0 9127:1.0 9128:1.0 9129:1.0 9130:1.0 9131:1.0 9132:1.0 9133:1.0 
0.028165881234392582 0.0 22:1.0 23:1.0 24:1.0 29:1.0 30:1.0 31:1.0 32:1.0 40:1.0 43:1.0 45:1.5 46:2.0 47:1.0 115:1.0 123:1.0 198:1.0 561:1.0 562:1.0 563:1.0 564:1.0 567:1.0 578:1.0 579:1.0 580:1.0 682:1.0 686:1.0 724:1.0 1283:1.0 1728:1.0 1814:1.0 1815:1.0 2198:1.0 3585:1.0 6687:1.0 6690:1.0 9240:1.0 9241:1.0 9246:1.0 9251:1.0 9252:1.0 9254:1.0 9255:1.0 9256:1.0 9257:1.0 9258:1.0 9259:1.0 9260:1.0 9261:1.0 
0.014804120651266389 0.005623612111004387 22:1.0 23:1.0 24:2.0 30:1.0 45:2.0 46:2.0 47:2.0 115:1.0 138:1.0 139:1.0 181:1.0 194:1.0 201:1.0 521:1.0 527:1.0 1205:1.0 1209:1.0 1229:1.0 1491:1.0 1698:1.0 2234:1.0 3770:1.0 3776:1.0 3851:1.0 3852:1.0 3919:1.0 4713:1.0 4724:1.0 5595:1.0 9337:1.0 9338:1.0 9339:1.0 9340:1.0 9341:1.0 9342:1.0 9343:1.0 9344:1.0 9345:1.0 9346:1.0 9347:1.0 9348:1.0 9349:1.0 9350:1.0 9351:1.0 9352:1.0 9353:1.0 9354:1.0 9355:1.0 9356:1.0 9357:1.0 
0.008651643266382689 6.107348750061905E-5 22:1.0 23:1.0 24:3.0 25:1.0 30:1.0 32:1.0 45:2.0 46:2.0 47:2.0 97:1.0 99:1.0 115:3.0 138:1.0 139:1.0 181:1.0 190:1.0 198:4.0 856:1.0 1205:1.0 1229:1.0 1491:1.0 1967:1.0 2234:1.0 2544:1.0 2721:1.0 3628:1.0 3686:1.0 3690:1.0 3691:1.0 3996:1.0 4141:1.0 4144:1.0 4189:1.0 4208:1.0 4214:1.0 4216:1.0 4218:1.0 4247:1.0 4282:1.0 5109:1.0 7333:1.0 9388:1.0 9436:1.0 9437:1.0 9438:1.0 9439:1.0 9440:1.0 9441:1.0 9442:1.0 9443:1.0 9444:1.0 9445:1.0 9446:1.0 9447:1.0 9448:1.0 9449:1.0 9450:1.0 9451:1.0 9452:1.0 9453:1.0 9454:1.0 
0.0 0.0014323705635982881 22:1.0 23:1.0 24:1.0 25:1.0 26:1.0 29:1.0 30:1.0 31:1.0 32:1.0 97:1.0 99:1.0 115:2.0 188:1.0 190:1.0 198:3.0 759:1.0 1341:1.0 1342:1.0 2438:1.0 2544:1.0 3216:1.0 3217:1.0 4062:1.0 4063:1.0 4144:1.0 4153:1.0 4189:1.0 4214:1.0 4498:1.0 4543:1.0 4550:1.0 4553:1.0 4554:1.0 4555:1.0 9418:1.0 9424:1.0 9473:1.0 9474:1.0 9475:1.0 9476:1.0 9477:1.0 9478:1.0 9479:1.0 9480:1.0 9481:1.0 
0.03574305407812019 0.0 22:1.0 23:1.0 24:2.0 29:1.0 30:1.0 31:1.0 32:1.0 45:3.0 46:5.0 47:1.0 115:3.0 176:1.0 198:7.0 268:1.0 446:1.0 798:1.0 856:1.0 1096:1.0 1098:1.0 1179:1.0 1555:1.0 1561:1.0 1600:1.0 1601:1.0 1602:1.0 1604:1.0 1698:1.0 1767:1.0 1967:2.0 2400:1.0 2523:1.0 3096:2.0 3133:1.0 3628:2.0 3996:1.0 4056:1.0 4061:1.0 4068:1.0 4072:1.0 4116:1.0 4142:1.0 4144:1.0 4145:1.0 4146:1.0 4205:1.0 4207:1.0 4208:2.0 4216:1.0 4281:1.0 4282:1.0 9388:1.0 9410:1.0 9482:1.0 9483:1.0 9484:1.0 9485:1.0 9486:1.0 9487:1.0 9488:1.0 9489:1.0 9495:1.0 9497:1.0 9498:1.0 9499:1.0 9500:1.0 9501:1.0 9502:1.0 9503:1.0 9504:1.0 9505:1.0 9506:1.0 9507:1.0 
0.05 0.0 22:1.0 23:1.0 24:2.0 29:1.0 30:1.0 31:1.0 32:1.0 45:4.5 46:8.0 47:1.0 115:2.0 176:1.0 198:7.0 280:1.0 327:1.0 530:1.0 798:1.0 856:1.0 1096:1.0 1098:1.0 1179:1.0 1600:1.0 1601:1.0 1602:1.0 1604:1.0 1698:1.0 1767:1.0 1967:2.0 2235:1.0 2237:1.0 2523:1.0 3096:2.0 3133:1.0 3628:2.0 4006:1.0 4056:1.0 4061:1.0 4068:1.0 4072:1.0 4116:1.0 4142:1.0 4144:1.0 4145:1.0 4146:1.0 4205:1.0 4207:1.0 4208:2.0 4216:1.0 4281:1.0 4282:1.0 4581:1.0 9388:1.0 9410:1.0 9482:1.0 9483:1.0 9484:1.0 9485:1.0 9486:1.0 9487:1.0 9488:1.0 9489:1.0 9495:1.0 9502:1.0 9503:1.0 9508:1.0 9509:1.0 9510:1.0 9511:1.0 9512:1.0 
0.02363069273771619 0.0 22:1.0 23:1.0 24:2.0 25:1.0 29:1.0 30:1.0 31:1.0 32:1.0 45:2.0 46:3.0 47:1.0 115:4.0 198:4.0 404:1.0 734:1.0 1600:1.0 1601:1.0 1602:1.0 1604:1.0 1967:1.0 2523:1.0 3096:1.0 3197:1.0 3201:1.0 3628:1.0 3996:1.0 4116:1.0 4141:1.0 4142:1.0 4144:1.0 4145:1.0 4146:1.0 4189:1.0 4205:1.0 4207:1.0 4208:1.0 4214:1.0 4215:1.0 4216:1.0 4217:1.0 4229:1.0 4970:1.0 7033:1.0 7034:1.0 9403:1.0 9406:1.0 9410:1.0 9483:1.0 9487:1.0 9490:1.0 9491:1.0 9492:1.0 9493:1.0 9494:1.0 9495:1.0 9496:1.0 9513:1.0 9514:1.0 9515:1.0 
0.013834387547673474 0.0080316739311012 22:1.0 23:1.0 24:1.0 29:1.0 30:1.0 31:1.0 32:1.0 115:2.0 176:1.0 198:4.0 789:1.0 860:1.0 889:1.0 1096:1.0 1098:1.0 1180:1.0 2544:1.0 2884:1.0 4061:1.0 4063:1.0 4068:1.0 4072:1.0 4207:1.0 4213:1.0 4215:1.0 4246:1.0 4485:1.0 4493:1.0 4498:1.0 4529:1.0 4550:1.0 4811:1.0 4828:1.0 6359:1.0 6360:1.0 9540:1.0 9541:1.0 9542:1.0 9543:1.0 9544:1.0 9545:1.0 9546:1.0 9547:1.0 9548:1.0 9549:1.0 9550:1.0 9551:1.0 
0.009601246544899172 0.0 22:1.0 23:1.0 24:1.0 30:1.0 32:1.0 40:1.0 43:1.0 45:1.5 46:2.0 47:1.0 115:3.0 123:1.0 138:1.0 139:1.0 198:3.0 594:1.0 597:1.0 598:1.0 615:1.0 742:1.0 1113:1.0 2017:1.0 4832:1.0 7387:1.0 9483:1.0 9492:1.0 9581:1.0 9583:1.0 9584:1.0 9586:1.0 9587:1.0 9588:1.0 9604:1.0 9605:1.0 9606:1.0 9607:1.0 9608:1.0 9609:1.0 9610:1.0 9611:1.0 9612:1.0 9613:1.0 9614:1.0 9615:1.0 9616:1.0 9617:1.0 9618:1.0 9619:1.0 9620:1.0 9621:1.0 
0.03450255422626098 0.0 22:1.0 23:1.0 24:1.0 30:1.0 32:1.0 45:1.5 46:2.0 47:1.0 115:1.0 138:1.0 139:1.0 176:1.0 181:1.0 198:3.0 569:1.0 577:1.0 594:1.0 597:1.0 1096:1.0 1103:1.0 1108:1.0 1109:1.0 1110:1.0 1111:1.0 1229:1.0 1491:1.0 2410:1.0 2642:1.0 2990:1.0 3133:1.0 3410:1.0 3973:1.0 4868:1.0 9727:1.0 9728:1.0 9729:1.0 9730:1.0 9731:1.0 9737:1.0 9738:1.0 9739:1.0 9740:1.0 9741:1.0 9742:1.0 9743:1.0 9744:1.0 9745:1.0 9746:1.0 9747:1.0 9748:1.0 9749:1.0 9750:1.0 
0.0416890295563276 0.0010565981479838736 8:1.0 24:1.0 25:1.0 30:1.0 45:3.0 46:4.0 47:2.0 67:9.0 115:1.0 138:1.0 139:1.0 176:1.0 413:1.0 466:2.0 577:1.0 868:1.0 880:1.0 881:1.0 883:1.0 884:1.0 885:1.0 887:1.0 888:1.0 1342:1.0 1725:1.0 2158:1.0 2159:1.0 2160:1.0 3216:1.0 3217:1.0 3996:1.0 4159:1.0 4189:1.0 4214:1.0 4242:1.0 5202:1.0 5357:1.0 5358:1.0 7154:1.0 7980:1.0 9795:1.0 9796:1.0 9797:1.0 9798:1.0 9799:1.0 9800:1.0 9801:1.0 9802:1.0 9803:1.0 9804:1.0 9805:1.0 9806:1.0 9807:1.0 9808:1.0 9809:1.0 9810:1.0 9811:1.0 9812:1.0 9813:1.0 9814:1.0 9815:1.0 9816:1.0 
0.02693903903499743 0.0 24:1.0 25:1.0 26:1.0 30:1.0 67:7.0 138:1.0 139:1.0 176:1.0 268:1.0 272:1.0 292:1.0 434:1.0 446:1.0 451:1.0 466:1.0 615:1.0 618:1.0 1180:1.0 1831:1.0 2544:1.0 2679:1.0 3232:2.0 3996:1.0 4063:1.0 4218:1.0 4222:1.0 4223:1.0 4242:1.0 6370:1.0 9711:1.0 9713:1.0 9714:1.0 9715:1.0 9716:1.0 9721:1.0 9722:1.0 9726:1.0 9839:1.0 9840:1.0 9841:1.0 9842:1.0 9843:1.0 9849:1.0 9850:1.0 9851:1.0 9857:1.0 9858:1.0 9859:1.0 9860:1.0 9861:1.0 
0.038138844161123814 0.0 24:1.0 25:1.0 26:1.0 30:1.0 67:10.0 115:3.0 119:2.0 138:1.0 139:1.0 176:1.0 292:1.0 327:1.0 331:1.0 434:1.0 466:2.0 615:1.0 618:1.0 798:1.0 1180:1.0 1831:1.0 2237:1.0 2544:1.0 2679:1.0 3232:2.0 3996:1.0 4063:1.0 4189:1.0 4214:1.0 4216:1.0 4229:1.0 4240:1.0 4242:1.0 6370:1.0 9388:1.0 9687:1.0 9711:1.0 9713:1.0 9714:1.0 9715:1.0 9716:1.0 9733:1.0 9839:1.0 9840:1.0 9841:1.0 9842:1.0 9843:1.0 9851:1.0 9860:1.0 9861:1.0 9862:1.0 9863:1.0 9864:1.0 9865:1.0 9866:1.0 9867:1.0 9868:1.0 9869:1.0 
0.05 6.453783638037873E-4 22:1.0 23:1.0 24:3.0 25:1.0 30:1.0 32:1.0 45:2.5 46:4.0 47:1.0 115:3.0 138:1.0 139:1.0 176:1.0 198:3.0 327:1.0 331:1.0 671:1.0 798:1.0 856:1.0 1698:1.0 1967:2.0 2158:1.0 2237:1.0 2633:1.0 2642:1.0 2721:1.0 3133:1.0 3410:1.0 3628:2.0 3996:1.0 4141:1.0 4142:1.0 4144:1.0 4189:1.0 4208:1.0 4214:1.0 4216:1.0 4229:1.0 4240:1.0 4282:1.0 7302:1.0 7304:1.0 7305:1.0 9388:1.0 9421:1.0 9687:1.0 9862:1.0 9863:1.0 9864:1.0 9865:1.0 9867:1.0 9868:1.0 9869:1.0 9870:1.0 9871:1.0 9872:1.0 9873:1.0 9874:1.0 9875:1.0 9876:1.0 9877:1.0 9878:1.0 9880:1.0 
0.018485452916206374 0.0 22:1.0 23:1.0 24:2.0 25:1.0 30:1.0 32:1.0 45:2.0 46:3.0 47:1.0 138:1.0 139:1.0 176:1.0 268:1.0 272:1.0 446:1.0 451:1.0 671:1.0 759:1.0 856:1.0 1967:1.0 2158:1.0 2633:1.0 2642:1.0 2721:1.0 3410:1.0 3628:1.0 3996:1.0 4218:1.0 4222:1.0 4223:1.0 7302:1.0 7304:1.0 7305:1.0 9721:1.0 9722:1.0 9726:1.0 9849:1.0 9850:1.0 9857:1.0 9858:1.0 9859:1.0 9871:1.0 9872:1.0 9873:1.0 9874:1.0 9876:1.0 9878:1.0 9879:1.0 9881:1.0 9882:1.0 9883:1.0 9884:1.0 
0.031609451222053976 0.0 22:1.0 23:1.0 24:2.0 25:1.0 30:1.0 32:1.0 40:1.0 43:1.0 45:2.0 46:3.0 47:1.0 115:3.0 123:1.0 138:1.0 139:1.0 167:1.0 176:1.0 198:3.0 1443:1.0 1967:1.0 2158:1.0 2169:1.0 2447:1.0 2633:1.0 2642:1.0 3133:1.0 3410:1.0 3446:1.0 3628:1.0 3996:1.0 4112:1.0 4116:1.0 4142:1.0 4144:1.0 4189:1.0 4208:1.0 4214:1.0 4216:1.0 4229:1.0 4240:1.0 4282:1.0 7302:1.0 7304:1.0 7305:1.0 9388:1.0 9862:1.0 9893:1.0 9894:1.0 9901:1.0 9908:1.0 9909:1.0 9910:1.0 9912:1.0 9913:1.0 9914:1.0 9915:1.0 9916:1.0 9918:1.0 9921:1.0 9926:1.0 
1.845565768620378E-4 0.0 22:1.0 23:1.0 24:2.0 25:1.0 29:1.0 30:1.0 31:1.0 32:1.0 40:1.0 43:1.0 45:1.5 46:2.0 47:1.0 115:3.0 123:1.0 141:1.0 145:1.0 167:1.0 176:1.0 198:3.0 1443:1.0 2169:1.0 2698:1.0 3133:1.0 3446:1.0 3996:1.0 4036:1.0 4112:1.0 4116:1.0 4140:1.0 4142:1.0 4144:1.0 4189:1.0 4208:1.0 4214:1.0 4216:1.0 4229:1.0 4240:1.0 4282:1.0 6663:1.0 9388:1.0 9862:1.0 9893:1.0 9894:1.0 9901:1.0 9908:1.0 9909:1.0 9910:1.0 9916:1.0 9918:1.0 9927:1.0 9928:1.0 9929:1.0 9930:1.0 9931:1.0 9932:1.0 
0.013870914800660434 0.00467008111868646 22:1.0 23:1.0 24:4.0 25:1.0 30:1.0 32:1.0 40:1.0 43:1.0 44:1.0 115:1.0 138:1.0 139:1.0 198:1.0 1238:1.0 1897:1.0 1904:1.0 3435:1.0 5199:1.0 5418:1.0 6539:1.0 6540:1.0 6541:1.0 6548:1.0 6560:1.0 6570:1.0 6571:1.0 6588:1.0 6589:1.0 6590:1.0 6620:1.0 7415:1.0 8457:1.0 9958:1.0 9959:1.0 9961:1.0 9962:1.0 9963:1.0 9964:1.0 9965:1.0 9966:1.0 9978:1.0 9979:1.0 9980:1.0 
0.006741856517269519 0.0 22:1.0 23:1.0 24:4.0 25:1.0 30:1.0 32:1.0 40:1.0 43:1.0 44:1.0 45:1.5 46:2.0 47:1.0 138:1.0 139:1.0 585:1.0 586:1.0 785:1.0 792:1.0 794:1.0 856:1.0 1096:1.0 1600:1.0 1601:1.0 1967:1.0 2523:1.0 2663:1.0 2675:1.0 2721:1.0 3082:1.0 3091:1.0 3133:1.0 3212:1.0 3628:1.0 4113:1.0 4120:1.0 4848:1.0 5105:1.0 5111:1.0 6682:1.0 7333:1.0 7595:1.0 7596:1.0 10049:1.0 10050:1.0 10051:1.0 10052:1.0 10053:1.0 10054:1.0 10055:1.0 10056:1.0 10057:1.0 10058:1.0 10059:1.0 10060:1.0 10061:1.0 
0.0 0.004869810469791104 8:1.0 18:1.0 22:1.0 23:1.0 24:2.0 26:1.0 29:1.0 30:1.0 31:1.0 32:1.0 40:1.0 43:1.0 45:1.5 46:2.0 47:1.0 115:1.0 123:1.0 198:1.0 578:1.0 579:1.0 1666:1.0 1667:1.0 1714:1.0 2038:1.0 2711:1.0 3285:1.0 3427:1.0 3429:1.0 6685:1.0 6686:1.0 6687:1.0 6688:1.0 6689:1.0 6690:1.0 6693:1.0 6694:1.0 6695:1.0 6696:1.0 6698:1.0 6699:1.0 6701:1.0 6702:1.0 9198:1.0 10115:1.0 10116:1.0 10117:1.0 10118:1.0 10119:1.0 
0.011322275334697854 0.0 24:1.0 25:1.0 30:1.0 45:2.0 46:2.0 47:2.0 67:2.0 110:1.0 115:1.0 138:1.0 139:1.0 326:1.0 327:1.0 331:1.0 547:1.0 682:1.0 685:1.0 686:1.0 721:1.0 1016:1.0 2237:1.0 3764:1.0 3766:1.0 3773:1.0 3774:1.0 3775:1.0 3784:1.0 3785:1.0 3786:1.0 3790:1.0 3791:1.0 3792:1.0 3799:1.0 3800:1.0 3801:1.0 3803:1.0 3804:1.0 3806:1.0 3807:1.0 3819:1.0 3820:1.0 3821:1.0 3824:1.0 3825:1.0 3826:1.0 3827:1.0 3828:1.0 3998:1.0 5332:1.0 5336:1.0 10134:1.0 10135:1.0 10137:1.0 10139:1.0 10151:1.0 
0.033676702870202566 0.009244528370671464 22:1.0 23:1.0 24:1.0 25:1.0 29:1.0 30:1.0 31:1.0 34:1.0 37:1.0 38:1.0 45:1.5 46:2.0 47:1.0 150:1.0 181:1.0 185:1.0 1491:1.0 2837:1.0 3234:1.0 3851:1.0 3852:1.0 4641:1.0 4642:1.0 4808:1.0 6914:1.0 10170:1.0 10171:1.0 10172:1.0 10173:1.0 10174:1.0 10183:1.0 10184:1.0 10185:1.0 10214:1.0 10222:1.0 10223:1.0 10224:1.0 10225:1.0 10226:1.0 10227:1.0 10228:1.0 10229:1.0 10230:1.0 10231:1.0 10232:1.0 10233:1.0 10234:1.0 
0.0 0.0015903950532084696 24:1.0 25:1.0 30:1.0 40:1.0 43:1.0 44:1.0 45:2.5 46:4.0 47:1.0 61:1.0 67:5.0 119:1.0 138:1.0 139:1.0 310:1.0 393:1.0 413:1.0 466:1.0 758:1.0 759:1.0 761:1.0 762:1.0 1082:1.0 1113:1.0 1205:1.0 1209:1.0 1238:1.0 1241:1.0 2234:1.0 2574:1.0 3754:1.0 3764:1.0 3766:1.0 3972:1.0 3974:1.0 4002:1.0 4003:1.0 4004:1.0 4005:1.0 4010:1.0 9598:1.0 9733:1.0 10134:1.0 10135:1.0 10235:1.0 10238:1.0 10240:1.0 10241:1.0 10242:1.0 10245:1.0 10246:1.0 10247:1.0 10248:1.0 10249:1.0 10250:1.0 10251:1.0 10252:1.0 
0.028884804932904053 0.0 24:1.0 30:1.0 61:2.0 67:8.0 115:1.0 119:2.0 138:1.0 139:1.0 164:1.0 280:1.0 284:1.0 292:1.0 293:1.0 346:1.0 351:1.0 413:1.0 466:1.0 758:1.0 759:1.0 761:1.0 762:1.0 1082:1.0 1097:1.0 1098:1.0 1205:1.0 1209:1.0 2234:1.0 3754:1.0 3764:1.0 3766:1.0 3972:1.0 3974:1.0 3977:1.0 3978:1.0 3979:1.0 3980:1.0 3982:1.0 3983:1.0 3985:1.0 6343:1.0 6345:1.0 9598:1.0 9733:1.0 10134:1.0 10135:1.0 10235:1.0 10238:1.0 10240:1.0 10241:1.0 10242:1.0 10253:1.0 10254:1.0 10255:1.0 
0.014462894699199678 0.0 22:1.0 23:1.0 24:1.0 26:1.0 29:1.0 30:1.0 31:1.0 32:1.0 40:1.0 43:1.0 45:1.5 46:2.0 47:1.0 115:1.0 123:1.0 176:1.0 198:2.0 569:1.0 1601:1.0 1604:1.0 2523:1.0 3133:1.0 4232:1.0 4257:1.0 4444:1.0 4447:1.0 4448:1.0 4457:1.0 4459:1.0 4529:1.0 4921:1.0 4922:1.0 9389:1.0 9412:1.0 10267:1.0 10268:1.0 10269:1.0 10278:1.0 10279:1.0 10280:1.0 10281:1.0 10283:1.0 10284:1.0 10285:1.0 10286:1.0 10287:1.0 10288:1.0 10289:1.0 10290:1.0 
0.0 0.002746088984071997 24:1.0 26:1.0 29:1.0 30:1.0 31:1.0 45:2.0 46:2.0 47:2.0 67:2.0 115:4.0 1098:1.0 1555:1.0 1561:1.0 2474:1.0 2478:1.0 3197:1.0 3981:1.0 3989:1.0 4013:1.0 4014:1.0 4068:1.0 4072:1.0 4213:1.0 4215:1.0 4216:2.0 4241:1.0 4254:1.0 4255:1.0 4541:1.0 4607:1.0 4970:1.0 6390:1.0 7020:1.0 7029:1.0 7030:1.0 7033:1.0 7034:1.0 7513:1.0 9251:1.0 9388:1.0 9403:1.0 9613:1.0 10293:1.0 10378:1.0 10379:1.0 10380:1.0 10381:1.0 10382:1.0 10383:1.0 10384:1.0 10385:1.0 10386:1.0 10387:1.0 
0.037896106922642975 0.0071869457205745646 24:1.0 26:1.0 29:1.0 30:1.0 31:1.0 45:3.5 46:5.0 47:2.0 67:5.0 115:2.0 280:1.0 284:1.0 292:1.0 327:1.0 530:1.0 1098:1.0 2235:1.0 2237:1.0 2474:1.0 2478:1.0 3989:1.0 4014:1.0 4068:1.0 4072:1.0 4216:1.0 4254:1.0 4255:1.0 4502:1.0 4541:1.0 4581:1.0 4607:1.0 6390:1.0 7020:1.0 7029:1.0 7030:1.0 7513:1.0 9251:1.0 9388:1.0 9508:1.0 9509:1.0 9511:1.0 9613:1.0 9700:1.0 10293:1.0 10378:1.0 10379:1.0 10380:1.0 10382:1.0 10383:1.0 10384:1.0 10388:1.0 10389:1.0 10390:1.0 
0.009108797772575119 0.0 24:1.0 26:1.0 29:1.0 30:1.0 31:1.0 45:3.5 46:5.0 47:2.0 67:14.0 115:2.0 119:2.0 176:1.0 268:1.0 292:1.0 446:1.0 466:1.0 798:1.0 1098:1.0 2400:1.0 2474:1.0 2478:1.0 2679:1.0 2691:1.0 3592:1.0 3989:1.0 3996:1.0 4014:1.0 4023:1.0 4068:1.0 4072:1.0 4156:1.0 4216:1.0 4218:1.0 4222:1.0 4223:1.0 4242:1.0 4254:1.0 4255:1.0 4274:1.0 4541:1.0 6390:1.0 7020:1.0 7029:1.0 7030:1.0 9388:1.0 9508:1.0 9509:1.0 9613:1.0 9700:1.0 10293:1.0 10378:1.0 10379:1.0 10380:1.0 10382:1.0 10383:1.0 10384:1.0 10389:2.0 10391:1.0 10392:1.0 10393:1.0 10394:1.0 10395:1.0 10396:1.0 
0.025171472232337008 0.011839661164106619 25:1.0 30:1.0 45:3.0 46:3.0 47:3.0 67:2.0 89:1.0 90:1.0 115:2.0 176:1.0 268:1.0 272:1.0 446:1.0 466:1.0 594:1.0 759:1.0 768:1.0 798:1.0 1096:1.0 2410:1.0 3526:1.0 3527:1.0 3528:1.0 3549:1.0 3550:1.0 3996:1.0 4189:1.0 4214:1.0 4242:1.0 4493:1.0 4494:1.0 4500:1.0 4611:1.0 5770:1.0 10455:1.0 10456:1.0 10457:1.0 10458:1.0 10459:1.0 10460:1.0 10461:1.0 10462:1.0 10463:1.0 10464:1.0 10465:1.0 10466:1.0 10467:1.0 10468:1.0 10469:1.0 10470:1.0 
0.01930368563997092 0.0 24:1.0 25:1.0 26:1.0 29:1.0 30:1.0 31:1.0 67:9.0 115:1.0 119:1.0 176:1.0 259:1.0 267:1.0 268:1.0 272:1.0 413:1.0 446:1.0 466:3.0 759:1.0 798:1.0 812:1.0 822:1.0 823:1.0 3600:1.0 3996:1.0 4023:1.0 4189:1.0 4214:1.0 4242:1.0 4254:1.0 4255:1.0 4535:1.0 4541:1.0 4546:1.0 4547:1.0 4548:1.0 4559:1.0 8575:1.0 10293:1.0 10378:1.0 10380:1.0 10471:1.0 10472:1.0 10473:1.0 10474:1.0 10475:1.0 10476:1.0 
0.00687101735445876 0.0 8:1.0 24:1.0 25:1.0 29:1.0 30:1.0 31:1.0 45:2.0 46:3.0 47:1.0 67:2.0 268:1.0 272:1.0 413:1.0 418:1.0 444:1.0 446:1.0 466:1.0 577:1.0 758:1.0 759:1.0 761:1.0 2258:1.0 2620:1.0 2621:1.0 2625:1.0 3995:1.0 3996:1.0 4145:1.0 4242:1.0 4698:1.0 4699:1.0 7388:1.0 7390:1.0 10424:1.0 10426:1.0 10428:1.0 10429:1.0 10430:1.0 10431:1.0 10432:1.0 10433:1.0 10434:1.0 10435:1.0 10436:1.0 10508:1.0 10509:1.0 10510:1.0 10511:1.0 
0.033880653024883044 0.011817467431650913 25:1.0 30:1.0 45:3.0 46:3.0 47:3.0 67:2.0 89:1.0 90:1.0 115:2.0 176:1.0 268:1.0 272:1.0 446:1.0 466:1.0 594:1.0 759:1.0 768:1.0 798:1.0 1096:1.0 2410:1.0 3526:1.0 3527:1.0 3528:1.0 3549:1.0 3550:1.0 3996:1.0 4189:1.0 4214:1.0 4242:1.0 4493:1.0 4494:1.0 4500:1.0 4611:1.0 5770:1.0 7469:1.0 10348:1.0 10455:1.0 10456:1.0 10457:1.0 10458:1.0 10459:1.0 10460:1.0 10461:1.0 10462:1.0 10463:1.0 10464:1.0 10467:1.0 10468:1.0 10469:1.0 10470:1.0 
0.009347859621084182 0.0 25:1.0 26:1.0 29:1.0 30:1.0 31:1.0 45:3.0 46:5.0 47:1.0 67:5.0 176:1.0 213:1.0 268:1.0 272:1.0 413:1.0 418:1.0 444:1.0 446:1.0 466:2.0 759:1.0 798:1.0 1096:1.0 2620:1.0 2621:1.0 2679:1.0 3995:1.0 3996:1.0 4023:1.0 4242:1.0 4531:1.0 4535:1.0 4536:1.0 7388:1.0 7390:1.0 9487:1.0 10429:1.0 10430:1.0 10431:1.0 10432:1.0 10435:1.0 10537:1.0 10538:1.0 10539:1.0 10540:1.0 10541:1.0 10542:1.0 10543:1.0 10544:1.0 10545:1.0 10546:1.0 10547:1.0 
0.05 0.0021238090013644636 24:1.0 25:1.0 30:1.0 34:1.0 38:1.0 39:1.0 40:1.0 41:1.0 43:1.0 44:1.0 45:1.5 46:2.0 47:1.0 67:8.0 97:1.0 99:1.0 102:1.0 103:1.0 106:1.0 108:1.0 110:2.0 113:1.0 114:1.0 115:1.0 116:1.0 132:1.0 133:1.0 135:1.0 138:1.0 139:1.0 152:1.0 153:1.0 706:1.0 765:1.0 794:1.0 1066:1.0 2471:1.0 2663:1.0 2846:1.0 2847:1.0 2848:1.0 2849:1.0 2906:1.0 3142:1.0 5139:1.0 5145:1.0 7404:1.0 10585:1.0 10586:1.0 10587:1.0 10588:1.0 10590:1.0 10591:1.0 10615:1.0 10616:1.0 10617:1.0 10618:1.0 10619:1.0 10620:1.0 10621:1.0 
0.02885531554333271 0.010681609661426821 24:1.0 25:2.0 29:1.0 30:1.0 31:1.0 34:1.0 37:1.0 38:1.0 45:1.5 46:2.0 47:1.0 67:1.0 115:1.0 170:1.0 222:1.0 226:1.0 231:1.0 310:1.0 343:1.0 357:1.0 358:1.0 362:1.0 494:1.0 495:1.0 496:1.0 497:1.0 715:1.0 719:1.0 792:1.0 794:1.0 1142:1.0 3437:1.0 4760:1.0 6452:1.0 7777:1.0 8876:1.0 8901:1.0 10618:1.0 10741:1.0 10742:1.0 10743:1.0 10744:1.0 10745:1.0 10746:1.0 10747:1.0 10748:1.0 10749:1.0 10750:1.0 10751:1.0 10752:1.0 10753:1.0 10754:1.0 10755:1.0 10756:1.0 
0.019250182486480423 2.567873805060122E-4 9:1.0 20:1.0 22:1.0 23:1.0 24:2.0 25:1.0 28:1.0 30:1.0 32:1.0 40:1.0 43:1.0 44:1.0 45:1.5 46:2.0 47:1.0 213:1.0 234:1.0 566:1.0 919:1.0 1601:1.0 1664:1.0 1675:1.0 2522:1.0 2523:1.0 6942:1.0 6948:1.0 6949:1.0 6963:1.0 6964:1.0 7257:1.0 7282:1.0 7311:1.0 10978:1.0 10979:1.0 10980:1.0 10981:1.0 10982:1.0 10983:1.0 10984:1.0 10985:1.0 10986:1.0 10987:1.0 10988:1.0 10989:1.0 10990:1.0 10991:1.0 10992:1.0 10993:1.0 10994:1.0 
0.026648946699335607 0.002060801875768163 9:1.0 20:1.0 22:1.0 23:1.0 24:2.0 25:1.0 28:1.0 30:1.0 32:1.0 34:1.0 38:1.0 40:1.0 43:1.0 44:1.0 45:1.5 46:2.0 47:1.0 1167:1.0 1238:1.0 1664:1.0 1675:1.0 1868:1.0 3030:1.0 6942:1.0 6948:1.0 6949:1.0 6963:1.0 6964:1.0 6972:1.0 8122:1.0 8377:1.0 10989:1.0 10995:1.0 10996:1.0 10997:1.0 10998:1.0 10999:1.0 11000:1.0 11001:1.0 11043:1.0 11044:1.0 11045:1.0 11046:1.0 11047:1.0 11048:1.0 11049:1.0 11050:1.0 11051:1.0 11052:1.0 
0.005284695236322855 0.0 7:1.0 8:1.0 9:1.0 17:1.0 18:1.0 20:1.0 22:1.0 23:1.0 24:1.0 26:1.0 28:1.0 30:1.0 32:1.0 40:1.0 43:1.0 115:1.0 123:1.0 138:1.0 139:1.0 198:1.0 10556:1.0 11061:1.0 11062:1.0 11063:1.0 11064:1.0 11065:1.0 11066:1.0 11067:1.0 11068:1.0 11069:1.0 11070:1.0 11071:1.0 11072:1.0 11073:1.0 11074:1.0 11075:1.0 11076:1.0 11077:1.0 11078:1.0 11079:1.0 
0.016325557094790066 0.0 9:1.0 22:1.0 23:1.0 24:2.0 25:1.0 29:1.0 30:1.0 31:1.0 32:1.0 45:1.5 46:2.0 47:1.0 181:1.0 185:1.0 198:4.0 281:1.0 682:1.0 724:1.0 1096:1.0 1283:1.0 1381:1.0 1383:1.0 1389:1.0 1390:1.0 1491:1.0 1528:1.0 1529:1.0 1616:1.0 1617:1.0 1618:1.0 1619:1.0 1620:1.0 1661:1.0 1725:1.0 1728:1.0 1732:1.0 1814:1.0 1815:1.0 1817:1.0 1890:1.0 1891:1.0 1892:1.0 1893:1.0 1894:1.0 1895:1.0 1896:1.0 1897:3.0 1898:1.0 1899:1.0 1900:1.0 1901:1.0 1902:1.0 1903:1.0 1904:3.0 1905:1.0 1906:1.0 
0.05 0.0 9:1.0 22:1.0 23:1.0 24:2.0 25:1.0 29:1.0 30:1.0 31:1.0 32:1.0 45:1.5 46:2.0 47:1.0 181:1.0 185:1.0 198:3.0 281:1.0 682:1.0 724:1.0 1071:1.0 1096:1.0 1283:1.0 1381:1.0 1383:1.0 1389:1.0 1390:1.0 1491:1.0 1528:1.0 1529:1.0 1616:1.0 1617:1.0 1618:1.0 1619:1.0 1620:1.0 1725:1.0 1728:1.0 1732:1.0 1814:1.0 1815:1.0 1817:1.0 1891:1.0 1893:1.0 1894:1.0 1895:1.0 1896:1.0 1897:2.0 1898:1.0 1899:1.0 1901:1.0 1902:1.0 1904:2.0 1905:1.0 1906:1.0 1909:1.0 1910:1.0 1911:1.0 
0.031851488225486266 0.0 9:1.0 22:1.0 23:1.0 24:2.0 25:1.0 29:1.0 30:1.0 31:1.0 32:1.0 45:1.5 46:2.0 47:1.0 181:1.0 185:1.0 198:2.0 281:1.0 682:1.0 724:1.0 1071:1.0 1096:1.0 1283:1.0 1381:1.0 1383:1.0 1389:1.0 1390:1.0 1491:1.0 1528:1.0 1529:1.0 1616:1.0 1617:1.0 1618:1.0 1619:1.0 1620:1.0 1725:1.0 1728:1.0 1732:1.0 1814:1.0 1815:1.0 1817:1.0 1891:1.0 1893:1.0 1894:1.0 1895:1.0 1896:1.0 1897:1.0 1898:1.0 1901:1.0 1902:1.0 1904:1.0 1905:1.0 1906:1.0 1915:1.0 1916:1.0 1917:1.0 
0.013827673156397375 6.636207625989556E-5 2:1.0 4:1.0 12:1.0 13:1.0 14:1.0 15:1.0 22:1.0 23:1.0 24:2.0 25:1.0 30:1.0 32:1.0 45:1.0 46:1.0 47:1.0 138:1.0 139:1.0 146:1.0 327:1.0 331:1.0 542:1.0 682:1.0 685:1.0 686:1.0 1283:1.0 1286:1.0 1374:1.0 1428:1.0 1431:1.0 1728:1.0 1814:1.0 2237:1.0 3426:1.0 3577:1.0 6818:1.0 8988:1.0 8996:1.0 11183:1.0 11203:1.0 11206:1.0 11208:1.0 11464:1.0 11465:1.0 11466:1.0 11467:1.0 11468:1.0 11469:1.0 
0.007508477892907401 0.0 22:1.0 23:1.0 24:3.0 25:2.0 30:1.0 32:1.0 34:1.0 38:1.0 40:1.0 43:1.0 44:1.0 45:1.5 46:2.0 47:1.0 138:1.0 139:1.0 577:1.0 648:1.0 649:1.0 650:1.0 698:1.0 699:1.0 700:1.0 706:1.0 2223:1.0 2225:1.0 3426:1.0 7250:1.0 7251:1.0 11494:1.0 11497:1.0 11502:1.0 11503:1.0 11504:1.0 11505:1.0 11506:1.0 11507:1.0 11508:1.0 11509:1.0 11522:1.0 11523:1.0 11524:1.0 11525:1.0 11526:1.0 11527:1.0 11528:1.0 11529:1.0 11530:1.0 11531:1.0 
0.023551921053378302 0.007182540088035257 24:1.0 25:2.0 30:1.0 45:2.5 46:4.0 47:1.0 67:3.0 138:1.0 139:1.0 141:1.0 144:1.0 145:1.0 176:1.0 268:1.0 272:1.0 446:1.0 798:1.0 2229:1.0 2317:1.0 2319:1.0 2698:1.0 3183:1.0 3547:1.0 3553:1.0 3554:1.0 4805:1.0 4806:1.0 5173:1.0 5187:1.0 5281:1.0 5309:1.0 5311:1.0 5399:1.0 6462:1.0 6482:1.0 11562:1.0 11563:1.0 11564:1.0 11565:1.0 11566:1.0 11567:1.0 11568:1.0 11569:1.0 11570:1.0 11571:1.0 11572:1.0 11573:1.0 11574:1.0 11575:1.0 
0.05 0.01918184510540493 24:1.0 25:1.0 30:1.0 40:1.0 43:1.0 44:1.0 45:2.5 46:4.0 47:1.0 67:4.0 97:1.0 99:1.0 114:1.0 115:1.0 119:1.0 138:1.0 139:1.0 194:1.0 484:1.0 794:1.0 883:1.0 884:1.0 885:1.0 887:1.0 888:1.0 1083:1.0 1095:1.0 1520:1.0 1522:1.0 2514:1.0 2663:1.0 2794:1.0 2883:1.0 2906:1.0 3435:1.0 5134:1.0 5135:1.0 5136:1.0 5137:1.0 5138:1.0 5142:1.0 5363:1.0 11999:1.0 12000:1.0 12001:1.0 12002:1.0 12003:1.0 12004:1.0 12005:1.0 12006:1.0 12007:1.0 12008:1.0 
0.006347330659760086 0.0 6:1.0 24:2.0 25:1.0 30:1.0 34:1.0 38:1.0 40:1.0 43:1.0 44:1.0 45:2.0 46:3.0 47:1.0 67:1.0 97:1.0 99:1.0 115:1.0 138:1.0 139:1.0 194:1.0 208:1.0 209:1.0 210:1.0 211:1.0 212:1.0 484:1.0 706:1.0 773:1.0 776:1.0 794:1.0 1520:1.0 1522:1.0 2514:1.0 2663:1.0 2883:1.0 2906:1.0 5142:1.0 6143:1.0 12000:1.0 12001:1.0 12003:1.0 12005:1.0 12006:1.0 12007:1.0 12029:1.0 12030:1.0 12031:1.0 12032:1.0 12033:1.0 12034:1.0 
0.03130063853718649 0.0024089171396453222 6:1.0 16:1.0 22:1.0 23:1.0 24:3.0 25:2.0 30:1.0 32:1.0 45:1.0 46:1.0 47:1.0 138:1.0 139:1.0 146:1.0 774:1.0 2223:1.0 2225:1.0 2321:1.0 2533:1.0 2598:1.0 2599:1.0 2604:1.0 2605:1.0 2609:1.0 3045:1.0 3777:1.0 3779:1.0 3780:1.0 3781:1.0 3782:1.0 5361:1.0 6223:1.0 6526:1.0 6528:1.0 11523:1.0 11524:1.0 11867:1.0 12022:1.0 12025:1.0 12026:1.0 12027:1.0 12045:1.0 12046:1.0 12047:1.0 12081:1.0 12082:1.0 12083:1.0 12084:1.0 12085:1.0 
0.026771371719880477 0.00297289566988419 2:1.0 4:1.0 12:1.0 13:1.0 14:1.0 15:1.0 22:1.0 23:1.0 24:2.0 25:1.0 29:1.0 30:1.0 31:1.0 32:1.0 40:1.0 43:1.0 44:1.0 45:1.5 46:2.0 47:1.0 133:1.0 594:1.0 598:1.0 611:1.0 614:1.0 745:1.0 1071:1.0 2898:1.0 3272:1.0 3277:1.0 3278:1.0 5512:1.0 5513:1.0 5514:1.0 5515:1.0 5550:1.0 5554:1.0 12224:1.0 12239:1.0 12240:1.0 12265:1.0 12268:1.0 12301:1.0 12302:1.0 12303:1.0 12304:1.0 12305:1.0 12306:1.0 12307:1.0 
0.001118964498382728 0.008399696340808787 22:1.0 23:1.0 24:2.0 25:1.0 29:1.0 30:1.0 31:1.0 32:1.0 34:1.0 37:1.0 40:1.0 43:1.0 44:1.0 45:2.0 46:2.0 47:2.0 194:1.0 198:1.0 201:1.0 206:1.0 542:1.0 1286:1.0 4497:1.0 8547:1.0 12191:1.0 12209:1.0 12277:1.0 12278:1.0 12279:1.0 12280:1.0 12281:1.0 12282:1.0 12283:1.0 12288:1.0 12289:1.0 12290:1.0 12330:1.0 12331:1.0 12332:1.0 12333:1.0 12334:1.0 12335:1.0 12336:1.0 12337:1.0 12338:1.0 12339:1.0 12340:1.0 12341:1.0 12342:1.0 12343:1.0 12344:1.0 
0.01570383304864224 0.003251658731112385 24:1.0 25:1.0 29:1.0 30:1.0 31:1.0 45:2.5 46:3.0 47:2.0 67:1.0 268:1.0 272:1.0 405:1.0 446:1.0 902:1.0 2528:1.0 2529:1.0 2530:1.0 2531:1.0 2598:1.0 2599:1.0 2785:1.0 3780:1.0 5361:1.0 5407:1.0 12462:1.0 12476:1.0 12477:1.0 12478:1.0 12479:1.0 12480:1.0 12481:1.0 12482:1.0 12622:1.0 12623:1.0 12624:1.0 12625:1.0 12626:1.0 12627:1.0 12628:1.0 12629:1.0 12630:1.0 12631:1.0 12632:1.0 12633:1.0 12634:1.0 
0.0040553398287209025 0.0043591444087705995 22:1.0 23:1.0 29:1.0 30:1.0 31:1.0 32:1.0 45:1.5 46:2.0 47:1.0 594:1.0 615:1.0 745:1.0 1096:1.0 1098:1.0 2036:1.0 2055:1.0 2082:1.0 2158:1.0 2240:1.0 2242:1.0 2294:1.0 2295:1.0 2388:1.0 2389:1.0 2390:1.0 2391:1.0 5105:1.0 5111:1.0 6370:1.0 12803:1.0 12812:1.0 12813:1.0 12814:1.0 12815:1.0 12816:1.0 12817:1.0 12818:1.0 12819:1.0 12820:1.0 12821:1.0 12822:1.0 12823:1.0 12824:1.0 12825:1.0 12826:1.0 12827:1.0 12828:1.0 12829:1.0 12830:1.0 12831:1.0 
3.5696507862834645E-4 0.006902808701267244 22:1.0 23:1.0 24:1.0 25:2.0 30:1.0 34:1.0 38:1.0 45:1.5 46:2.0 47:1.0 138:1.0 139:1.0 194:1.0 201:1.0 706:1.0 2604:1.0 2877:1.0 3781:1.0 3833:1.0 4216:1.0 4497:1.0 6914:1.0 9722:1.0 9858:1.0 10157:1.0 10183:1.0 12941:1.0 12958:1.0 12987:1.0 12988:1.0 13024:1.0 13025:1.0 13026:1.0 13027:1.0 13028:1.0 13029:1.0 13030:1.0 13031:1.0 13032:1.0 13033:1.0 13034:1.0 13035:1.0 13036:1.0 13037:1.0 13038:1.0 13039:1.0 13040:1.0 13041:1.0 
0.0 5.482266687853449E-4 22:1.0 23:1.0 24:1.0 29:1.0 30:1.0 31:1.0 32:1.0 40:1.0 43:1.0 45:1.5 46:2.0 47:1.0 58:1.0 115:1.0 123:1.0 150:1.0 198:2.0 254:1.0 594:1.0 598:1.0 745:1.0 2837:1.0 3234:1.0 4208:1.0 4216:1.0 4289:1.0 4808:1.0 6924:1.0 9063:1.0 10227:1.0 12925:1.0 12930:1.0 12957:1.0 12958:1.0 12959:1.0 12961:1.0 12962:1.0 12963:1.0 12964:1.0 13064:1.0 13065:1.0 13066:1.0 13067:1.0 13068:1.0 13069:1.0 13070:1.0 13071:1.0 13072:1.0 13073:1.0 13074:1.0 13075:1.0 
0.0191270939041206 0.0 9:1.0 20:1.0 22:1.0 23:1.0 24:6.0 25:1.0 28:1.0 30:1.0 32:1.0 40:1.0 43:1.0 115:1.0 123:1.0 126:1.0 128:1.0 138:1.0 139:1.0 198:2.0 838:1.0 856:2.0 1082:1.0 1698:1.0 1767:1.0 1967:1.0 3600:1.0 3628:1.0 3754:1.0 3963:1.0 3964:1.0 3968:1.0 3980:1.0 4635:1.0 4638:1.0 4641:1.0 4642:1.0 4665:1.0 5362:1.0 9743:1.0 12924:1.0 12929:1.0 12931:1.0 12932:1.0 13087:1.0 13088:1.0 13089:1.0 13090:1.0 13091:1.0 13092:1.0 13094:1.0 13098:1.0 13099:1.0 13100:1.0 13101:1.0 13102:1.0 13103:1.0 
0.02406207739497641 0.0 22:1.0 23:1.0 24:2.0 26:1.0 29:1.0 30:1.0 31:1.0 32:1.0 115:2.0 176:1.0 198:4.0 280:1.0 327:1.0 530:1.0 798:1.0 1096:1.0 1098:1.0 1378:1.0 1698:1.0 1767:1.0 1967:1.0 2235:1.0 2237:1.0 3096:1.0 3133:1.0 3435:1.0 3628:1.0 3973:1.0 3974:1.0 4023:1.0 4024:1.0 4056:1.0 4061:1.0 4068:1.0 4072:1.0 4207:1.0 4208:1.0 4213:1.0 4215:1.0 4216:1.0 4459:1.0 9410:1.0 9608:1.0 9874:1.0 10245:1.0 10246:1.0 13112:1.0 13113:1.0 13114:1.0 13115:1.0 13116:1.0 13123:1.0 13124:1.0 13125:1.0 
0.0 0.00377004394546086 22:1.0 23:1.0 24:2.0 25:1.0 26:1.0 29:1.0 30:1.0 31:1.0 32:1.0 115:1.0 176:1.0 198:2.0 390:1.0 615:1.0 1967:1.0 3096:1.0 3197:1.0 3201:1.0 3435:1.0 3628:1.0 3996:1.0 4233:1.0 4258:1.0 4459:1.0 4534:1.0 4970:1.0 7033:1.0 7034:1.0 9403:1.0 9410:1.0 9584:1.0 9608:1.0 9721:1.0 9722:1.0 9874:1.0 9882:1.0 10236:1.0 10237:1.0 13113:1.0 13114:1.0 13115:1.0 13116:1.0 13122:1.0 13123:1.0 13126:1.0 13127:1.0 13128:1.0 
0.0 0.00484314574325079 22:1.0 23:1.0 24:2.0 25:1.0 29:1.0 30:1.0 31:1.0 32:1.0 115:2.0 198:3.0 346:1.0 759:1.0 812:1.0 856:1.0 2544:1.0 3968:1.0 4140:1.0 4142:1.0 4143:1.0 4144:1.0 4188:1.0 4189:1.0 4214:1.0 4229:1.0 4240:1.0 4255:1.0 4541:1.0 4550:1.0 4602:1.0 10329:1.0 13144:1.0 13145:1.0 13146:1.0 13147:1.0 13148:1.0 13149:1.0 13150:1.0 13151:1.0 
0.0025479262165001323 0.0 22:1.0 23:1.0 24:2.0 29:1.0 30:1.0 31:1.0 32:1.0 45:1.0 46:1.0 47:1.0 97:1.0 99:1.0 115:2.0 146:1.0 168:1.0 188:1.0 190:1.0 198:3.0 346:1.0 759:1.0 812:1.0 856:1.0 1096:1.0 1098:1.0 1725:1.0 2159:1.0 2544:1.0 2620:1.0 2621:1.0 3968:1.0 4061:1.0 4068:1.0 4072:1.0 4112:1.0 4116:1.0 4143:1.0 4188:1.0 4550:1.0 4602:1.0 7388:1.0 7390:1.0 8307:1.0 8308:1.0 8309:1.0 8311:1.0 10297:1.0 10302:1.0 10546:1.0 13152:1.0 13153:1.0 13154:1.0 13155:1.0 13156:1.0 13157:1.0 13158:1.0 13159:1.0 13160:1.0 13161:1.0 
0.03424322782678064 0.0 22:1.0 23:1.0 24:1.0 25:1.0 29:1.0 30:1.0 31:1.0 32:1.0 115:1.0 198:2.0 856:1.0 1096:1.0 1179:1.0 1341:1.0 1342:1.0 1967:1.0 2035:1.0 2080:1.0 2544:1.0 3133:1.0 3216:1.0 3217:1.0 3628:1.0 4063:1.0 4153:1.0 4207:1.0 4208:1.0 4213:1.0 4215:1.0 4216:1.0 4246:1.0 4429:1.0 4498:1.0 4543:1.0 4550:1.0 4553:1.0 4554:1.0 10412:1.0 10539:1.0 10540:1.0 12958:1.0 13178:1.0 13179:1.0 13180:1.0 13181:1.0 13182:1.0 13183:1.0 13184:1.0 13185:1.0 
0.0034755603762010243 6.756185836863811E-4 22:1.0 23:1.0 24:3.0 25:1.0 29:1.0 30:1.0 31:1.0 32:1.0 115:1.0 176:1.0 190:1.0 198:2.0 222:1.0 268:1.0 272:1.0 418:1.0 427:1.0 444:1.0 446:1.0 460:1.0 798:1.0 838:1.0 856:2.0 1967:2.0 2544:1.0 3133:1.0 3628:2.0 4116:1.0 4141:1.0 4144:1.0 4189:1.0 4205:1.0 4214:1.0 4244:1.0 9418:1.0 9423:1.0 9424:1.0 9549:1.0 10412:1.0 13133:1.0 13134:1.0 13201:1.0 13226:1.0 13227:1.0 13228:1.0 13229:1.0 13230:1.0 
0.048615305642936646 0.0030461896978626643 22:1.0 23:1.0 24:3.0 25:1.0 29:1.0 30:1.0 31:1.0 32:1.0 45:1.0 46:1.0 47:1.0 115:2.0 146:1.0 176:1.0 198:2.0 268:1.0 272:1.0 346:1.0 418:1.0 444:1.0 446:1.0 594:1.0 598:1.0 742:1.0 743:1.0 745:1.0 856:1.0 2027:1.0 3095:1.0 3133:1.0 3968:1.0 3995:1.0 3996:1.0 4036:1.0 4144:1.0 4179:1.0 4189:1.0 4207:1.0 4213:1.0 4214:1.0 4215:1.0 4244:1.0 4246:1.0 4255:1.0 4485:1.0 4493:1.0 4541:1.0 9123:1.0 9555:1.0 9684:1.0 10462:1.0 13242:1.0 13251:1.0 13252:1.0 13253:1.0 13254:1.0 13255:1.0 
0.026417586882315863 0.003952054277601912 24:1.0 25:1.0 29:1.0 30:1.0 31:1.0 45:2.0 46:2.0 47:2.0 67:5.0 115:2.0 168:1.0 176:1.0 213:1.0 292:1.0 346:1.0 466:1.0 759:1.0 850:1.0 2474:1.0 2478:1.0 3197:1.0 3201:1.0 4189:1.0 4214:1.0 4457:1.0 4459:1.0 4493:1.0 4495:1.0 4510:1.0 4533:1.0 4970:1.0 6390:1.0 7020:1.0 7029:1.0 7030:1.0 7033:1.0 7034:1.0 9406:1.0 9487:1.0 10382:1.0 10383:1.0 13158:1.0 13177:1.0 13256:1.0 13257:1.0 13258:1.0 13259:1.0 13260:1.0 13261:1.0 13262:1.0 13263:1.0 13264:1.0 13265:1.0 
0.0 0.005727337177849907 24:1.0 25:1.0 26:1.0 29:1.0 30:1.0 31:1.0 45:2.0 46:2.0 47:2.0 67:2.0 115:1.0 168:1.0 346:1.0 466:1.0 756:1.0 759:1.0 2474:1.0 2478:1.0 3197:1.0 3201:1.0 3996:1.0 4189:1.0 4214:1.0 4242:1.0 4257:1.0 4457:1.0 4459:1.0 4534:1.0 4546:1.0 4547:1.0 4548:1.0 4619:1.0 4970:1.0 6390:1.0 7020:1.0 7029:1.0 7030:1.0 7033:1.0 7034:1.0 9403:1.0 9406:1.0 10382:1.0 10383:1.0 13158:1.0 13256:1.0 13257:1.0 13264:1.0 13265:1.0 13277:1.0 
0.03385832502054693 0.0 22:1.0 23:1.0 24:1.0 26:1.0 29:1.0 30:1.0 31:1.0 32:1.0 115:2.0 198:3.0 759:1.0 1179:1.0 1342:1.0 1346:1.0 1698:1.0 1767:1.0 1967:1.0 2158:1.0 2544:1.0 3213:1.0 3214:1.0 3216:1.0 4063:1.0 4263:1.0 4498:1.0 4549:1.0 4550:1.0 4553:1.0 4569:1.0 4574:1.0 4594:1.0 4595:1.0 4599:1.0 4604:1.0 4605:1.0 9687:1.0 11559:1.0 12823:1.0 13273:1.0 13291:1.0 13292:1.0 13293:1.0 13294:1.0 13295:1.0 13296:1.0 13297:1.0 13298:1.0 13299:1.0 13300:1.0 13301:1.0 13302:1.0 13303:1.0 
0.002873331993661308 0.0 24:1.0 25:1.0 26:1.0 29:1.0 30:1.0 31:1.0 45:2.0 46:3.0 47:1.0 67:2.0 115:2.0 268:1.0 272:1.0 346:1.0 413:1.0 418:1.0 444:1.0 446:1.0 466:1.0 594:1.0 598:1.0 745:1.0 758:1.0 759:1.0 761:1.0 2642:1.0 2643:1.0 2698:1.0 3995:1.0 3996:1.0 4189:1.0 4214:1.0 4242:1.0 4244:1.0 4257:1.0 4457:1.0 4459:1.0 4465:1.0 4493:1.0 4495:1.0 4510:1.0 4532:1.0 4533:1.0 4534:1.0 12015:1.0 13256:1.0 13257:1.0 13329:1.0 13335:1.0 13336:1.0 
0.006416157169165456 0.0 22:1.0 23:1.0 24:3.0 25:1.0 29:1.0 30:1.0 31:1.0 32:1.0 45:1.0 46:1.0 47:1.0 115:2.0 146:1.0 198:2.0 268:1.0 272:1.0 346:1.0 418:1.0 444:1.0 446:1.0 594:1.0 598:1.0 742:1.0 743:1.0 745:1.0 838:1.0 856:2.0 1096:1.0 1967:1.0 2027:1.0 3095:1.0 3133:1.0 3968:1.0 3995:1.0 3996:1.0 4036:1.0 4144:1.0 4179:1.0 4189:1.0 4214:1.0 4244:1.0 4255:1.0 4485:1.0 4487:1.0 4493:1.0 4495:1.0 4510:1.0 4533:1.0 4534:1.0 4541:1.0 4626:1.0 10412:1.0 12015:1.0 13254:1.0 13284:1.0 13336:1.0 13337:1.0 13338:1.0 13339:1.0 13340:1.0 13341:1.0 
0.006687699237677604 0.0 24:1.0 29:1.0 30:1.0 31:1.0 67:2.0 115:3.0 176:1.0 268:1.0 446:1.0 466:1.0 759:1.0 798:1.0 812:1.0 822:1.0 823:1.0 1097:1.0 1098:1.0 1259:1.0 1261:1.0 1555:1.0 1561:1.0 1662:1.0 2400:1.0 2544:1.0 3996:1.0 4023:1.0 4068:1.0 4072:1.0 4228:1.0 4242:1.0 4263:1.0 4457:1.0 4459:1.0 4534:1.0 4574:1.0 10555:1.0 10556:1.0 12242:1.0 13200:1.0 13256:1.0 13257:1.0 13342:1.0 13343:1.0 13344:1.0 13345:1.0 
0.010945295081307496 0.0 22:1.0 23:1.0 24:1.0 29:1.0 30:1.0 31:1.0 32:1.0 40:1.0 43:1.0 115:1.0 123:1.0 194:1.0 198:3.0 390:1.0 1698:1.0 1767:1.0 3133:1.0 4497:1.0 13384:1.0 13385:1.0 13386:1.0 13387:1.0 13388:1.0 13389:1.0 13390:1.0 13391:1.0 13392:1.0 13393:1.0 13394:1.0 13395:1.0 13396:1.0 13397:1.0 13398:1.0 13399:1.0 13400:1.0 13401:1.0 13402:1.0 13403:1.0 13404:1.0 13405:1.0 13406:1.0 
0.012852438936487088 0.0 22:1.0 23:1.0 24:1.0 29:1.0 30:1.0 31:1.0 32:1.0 115:1.0 167:1.0 194:1.0 198:3.0 280:1.0 327:1.0 530:1.0 577:1.0 1698:1.0 1767:1.0 2235:1.0 2237:1.0 3133:1.0 4581:1.0 13384:1.0 13385:1.0 13386:1.0 13387:1.0 13388:1.0 13389:1.0 13390:1.0 13391:1.0 13392:1.0 13393:1.0 13394:1.0 13403:1.0 13407:1.0 13408:1.0 13409:1.0 13410:1.0 13411:1.0 13412:1.0 13413:1.0 13414:1.0 13415:1.0 
0.00301318113154864 0.0012721270995556336 8:1.0 18:1.0 22:1.0 23:1.0 29:1.0 30:1.0 31:1.0 32:1.0 115:1.0 167:1.0 181:1.0 198:1.0 577:1.0 1096:1.0 1229:1.0 1491:1.0 3133:1.0 13403:1.0 13427:1.0 13428:1.0 13429:1.0 13430:1.0 13431:1.0 13432:1.0 13433:1.0 13434:1.0 13435:1.0 13436:1.0 13437:1.0 13438:1.0 13439:1.0 13440:1.0 13441:1.0 13442:1.0 13443:1.0 13444:1.0 13445:1.0 13446:1.0 
0.05 0.024914145002796876 8:1.0 24:1.0 26:1.0 29:1.0 30:1.0 31:1.0 67:1.0 115:1.0 176:1.0 198:1.0 798:1.0 1098:1.0 1205:1.0 1209:1.0 1546:1.0 1987:1.0 2123:1.0 3976:1.0 3978:1.0 3981:1.0 4013:1.0 4014:1.0 7287:1.0 10189:1.0 13385:1.0 13387:1.0 13411:1.0 13463:1.0 13464:1.0 13465:1.0 13466:1.0 13467:1.0 13468:1.0 13469:1.0 13470:1.0 13471:1.0 13472:1.0 13473:1.0 13474:1.0 13475:1.0 13476:1.0 
0.0 0.00506241599101211 24:1.0 25:1.0 30:1.0 45:2.0 46:3.0 47:1.0 67:3.0 138:1.0 139:1.0 176:1.0 268:1.0 272:1.0 413:1.0 418:1.0 427:1.0 444:1.0 446:1.0 460:1.0 466:1.0 758:1.0 759:1.0 761:1.0 798:1.0 1082:1.0 2620:1.0 2621:1.0 2622:1.0 2624:1.0 2625:1.0 4023:1.0 5178:1.0 6987:1.0 6990:1.0 9589:1.0 9884:1.0 10506:1.0 10631:1.0 10632:1.0 10633:1.0 10634:1.0 13567:1.0 13568:1.0 13569:1.0 13570:1.0 13571:1.0 13572:1.0 13573:1.0 13574:1.0 
0.034181725176593104 0.010186693867648573 24:1.0 25:1.0 30:1.0 40:1.0 43:1.0 44:1.0 45:3.0 46:4.0 47:2.0 67:2.0 110:1.0 138:1.0 139:1.0 176:1.0 194:1.0 198:1.0 1205:1.0 1209:1.0 2234:1.0 2533:1.0 2535:1.0 3833:1.0 3919:1.0 6924:1.0 9063:1.0 9354:1.0 12924:1.0 12931:1.0 12932:1.0 12941:1.0 12944:1.0 12971:1.0 13051:1.0 13605:1.0 13606:1.0 13607:1.0 13608:1.0 13609:1.0 13610:1.0 13613:1.0 13636:1.0 13637:1.0 13638:1.0 13639:1.0 13640:1.0 13641:1.0 13642:1.0 13643:1.0 13644:1.0 
0.022256168820713258 0.0 22:1.0 23:1.0 24:2.0 30:1.0 32:1.0 34:1.0 38:1.0 45:3.0 46:5.0 47:1.0 115:2.0 138:1.0 139:1.0 198:2.0 268:1.0 346:1.0 418:1.0 444:1.0 446:1.0 501:1.0 706:1.0 838:1.0 856:1.0 1096:1.0 1098:1.0 1698:1.0 1767:1.0 1967:1.0 2400:1.0 3741:1.0 3965:1.0 3981:1.0 3995:1.0 4056:1.0 4061:1.0 4068:1.0 4072:1.0 4207:1.0 4208:1.0 4213:1.0 4215:1.0 4216:1.0 13124:1.0 13163:1.0 13661:1.0 13662:1.0 13663:1.0 13664:1.0 13665:1.0 13666:1.0 13667:1.0 13668:1.0 13669:1.0 13670:1.0 13671:1.0 13672:1.0 13673:1.0 13674:1.0 13675:1.0 
0.015362621453690892 0.0 22:1.0 23:1.0 24:1.0 25:1.0 29:1.0 30:1.0 31:1.0 32:1.0 40:1.0 43:1.0 45:3.5 46:4.0 47:3.0 115:2.0 123:1.0 150:1.0 167:1.0 176:1.0 198:3.0 577:1.0 593:1.0 594:1.0 745:1.0 789:1.0 856:1.0 1096:1.0 1844:1.0 2410:1.0 2513:1.0 3140:1.0 4141:1.0 4144:1.0 4189:1.0 4207:1.0 4208:1.0 4212:1.0 4213:1.0 4214:1.0 4215:1.0 4216:1.0 7101:1.0 9483:1.0 9916:1.0 10293:1.0 10538:1.0 10540:1.0 13176:1.0 13716:1.0 13717:1.0 13718:1.0 13720:1.0 13721:1.0 13722:1.0 13724:1.0 13725:1.0 13726:1.0 13727:1.0 
0.02419331545887818 0.0 8:1.0 24:1.0 25:1.0 30:1.0 45:4.0 46:6.0 47:2.0 67:11.0 119:1.0 138:1.0 139:1.0 170:1.0 198:1.0 268:1.0 272:1.0 409:1.0 446:1.0 466:2.0 577:1.0 798:1.0 823:1.0 884:1.0 887:1.0 888:1.0 998:1.0 1115:1.0 2002:1.0 3183:1.0 3996:1.0 4242:1.0 4411:1.0 4873:1.0 4882:1.0 6449:1.0 8492:1.0 8615:1.0 9536:1.0 9659:1.0 9668:1.0 9670:1.0 9683:1.0 9763:1.0 11829:1.0 12242:1.0 13343:1.0 13344:1.0 13782:1.0 13783:1.0 13784:1.0 13785:1.0 13786:1.0 13787:1.0 13788:1.0 13789:1.0 13790:1.0 13791:1.0 13792:1.0 13793:1.0 13794:1.0 13795:1.0 13796:1.0 13797:1.0 
0.01671409676079716 0.007271381694216907 24:1.0 25:1.0 30:1.0 45:2.0 46:3.0 47:1.0 67:2.0 268:1.0 272:1.0 446:1.0 466:1.0 547:1.0 577:1.0 594:1.0 598:1.0 759:1.0 798:1.0 812:1.0 822:1.0 823:1.0 998:1.0 2048:1.0 2107:1.0 2139:1.0 2578:1.0 3996:1.0 4242:1.0 4411:1.0 6721:1.0 8492:1.0 8615:1.0 11829:1.0 12242:1.0 13343:1.0 13344:1.0 13788:1.0 13789:1.0 13790:1.0 13791:1.0 13796:1.0 13798:1.0 13799:1.0 13800:1.0 13801:1.0 13802:1.0 13803:1.0 13804:1.0 13805:1.0 13806:1.0 13807:1.0 13808:1.0 13809:1.0 13810:1.0 
0.01442464310259771 0.0 20:1.0 22:1.0 23:1.0 24:2.0 25:1.0 30:1.0 32:1.0 34:1.0 45:2.0 46:3.0 47:1.0 83:1.0 115:2.0 138:1.0 139:1.0 190:1.0 198:3.0 222:1.0 268:1.0 272:1.0 390:1.0 446:1.0 460:1.0 615:1.0 706:1.0 856:1.0 1844:1.0 1967:1.0 2169:1.0 2537:1.0 2538:1.0 3096:1.0 3628:1.0 4141:1.0 4144:1.0 4189:1.0 4207:1.0 4213:1.0 4214:1.0 4215:1.0 4485:1.0 4493:1.0 7168:1.0 9684:1.0 9918:1.0 9999:1.0 13811:1.0 13812:1.0 13813:1.0 13814:1.0 13815:1.0 13816:1.0 13817:1.0 13818:1.0 13819:1.0 13820:1.0 13821:1.0 13822:1.0 13823:1.0 
0.0017300046402810704 0.0 9:1.0 22:1.0 23:1.0 24:2.0 25:1.0 29:1.0 30:1.0 31:1.0 32:1.0 45:2.0 46:3.0 47:1.0 115:3.0 150:1.0 198:3.0 268:1.0 272:1.0 310:1.0 446:1.0 451:1.0 594:1.0 598:1.0 745:1.0 759:1.0 856:1.0 1967:1.0 2721:1.0 3628:1.0 3996:1.0 4116:1.0 4141:1.0 4142:1.0 4144:1.0 4189:1.0 4205:1.0 4207:1.0 4208:1.0 4214:1.0 4215:1.0 4216:1.0 4217:1.0 4218:1.0 4222:1.0 4223:1.0 4224:1.0 4229:1.0 4239:1.0 4240:1.0 9850:1.0 9884:1.0 10293:1.0 13176:1.0 13883:1.0 13884:1.0 13885:1.0 13886:1.0 13887:1.0 
0.007680183412030235 0.0 30:1.0 67:2.0 115:2.0 138:1.0 139:1.0 176:1.0 268:1.0 446:1.0 547:1.0 798:1.0 1096:1.0 1098:1.0 1179:1.0 1180:1.0 2400:1.0 2679:1.0 3981:1.0 3989:1.0 4013:1.0 4014:1.0 4015:1.0 4068:1.0 4072:1.0 4213:1.0 4215:1.0 4216:1.0 4218:1.0 4222:1.0 4223:1.0 4531:1.0 4536:1.0 6370:1.0 9613:1.0 9712:1.0 9717:1.0 9723:1.0 10395:1.0 13124:1.0 13947:1.0 13948:1.0 13949:1.0 13950:1.0 13951:1.0 13952:1.0 13953:1.0 13954:1.0 13955:1.0 13956:1.0 13957:1.0 13958:1.0 13959:1.0 
0.006530816648948205 0.0 22:1.0 23:1.0 24:1.0 30:1.0 32:1.0 40:1.0 43:1.0 45:1.5 46:2.0 47:1.0 54:1.0 83:1.0 115:1.0 123:1.0 138:1.0 139:1.0 150:1.0 198:1.0 998:1.0 1102:1.0 1103:1.0 1108:1.0 1109:1.0 1110:1.0 1111:1.0 6373:1.0 6376:1.0 6726:1.0 7396:1.0 9534:1.0 9707:1.0 13088:1.0 13854:1.0 13861:1.0 13863:1.0 13864:1.0 13875:1.0 13877:1.0 13960:1.0 13961:1.0 13962:1.0 13963:1.0 13964:1.0 13965:1.0 13966:1.0 13967:1.0 13968:1.0 
0.01747693426294364 0.0 16:1.0 22:1.0 23:1.0 24:1.0 25:2.0 30:1.0 34:1.0 38:1.0 45:2.0 46:3.0 47:1.0 115:1.0 138:1.0 139:1.0 706:1.0 820:1.0 3741:1.0 4710:1.0 4712:1.0 4713:1.0 5151:1.0 5152:1.0 5156:1.0 6922:1.0 6923:1.0 6928:1.0 13509:1.0 13536:1.0 13537:1.0 13538:1.0 13976:1.0 13980:1.0 13981:1.0 13982:1.0 13983:1.0 13984:1.0 13985:1.0 13987:1.0 13988:1.0 13989:1.0 13991:1.0 13992:1.0 13993:1.0 13994:1.0 13995:1.0 13996:1.0 13997:1.0 
0.04550024048431043 0.027943239702969556 16:1.0 22:1.0 23:1.0 24:2.0 25:2.0 29:1.0 32:1.0 45:1.0 46:1.0 47:1.0 58:1.0 135:1.0 146:1.0 178:1.0 181:1.0 184:1.0 185:1.0 198:1.0 529:1.0 1205:1.0 1209:1.0 1546:1.0 3741:1.0 3795:1.0 3851:1.0 3919:1.0 4737:1.0 10167:1.0 10187:1.0 14007:1.0 14009:1.0 14010:1.0 14012:1.0 14013:1.0 14015:1.0 14017:1.0 14018:1.0 14019:1.0 14020:1.0 14024:1.0 14025:1.0 14026:1.0 14027:1.0 14028:1.0 14029:1.0 14030:1.0 14031:1.0 14032:1.0 14033:1.0 
0.0 0.05 22:1.0 23:1.0 24:4.0 25:1.0 30:1.0 32:1.0 40:1.0 43:1.0 44:1.0 45:2.5 46:4.0 47:1.0 138:1.0 139:1.0 198:1.0 460:1.0 856:2.0 1601:1.0 1844:1.0 1967:1.0 3212:1.0 3435:1.0 3628:1.0 4065:1.0 4148:1.0 4149:1.0 4421:1.0 4433:1.0 4485:1.0 4542:1.0 4547:1.0 4548:1.0 4909:1.0 4921:1.0 6993:1.0 10274:1.0 14026:1.0 14028:1.0 14029:1.0 14056:1.0 14057:1.0 14058:1.0 14065:1.0 14066:1.0 14071:1.0 14072:1.0 14073:1.0 14074:1.0 14075:1.0 14076:1.0 14077:1.0 14078:1.0 14079:1.0 14080:1.0 14081:1.0 14082:1.0 14083:1.0 
0.0 0.00417731631171924 22:1.0 23:1.0 24:2.0 25:1.0 29:1.0 30:1.0 31:1.0 32:1.0 45:2.5 46:3.0 47:2.0 115:1.0 181:1.0 185:1.0 198:1.0 1491:1.0 2598:1.0 2599:1.0 3225:1.0 3780:1.0 3790:1.0 3851:1.0 3852:1.0 4808:1.0 7172:1.0 7174:1.0 8547:1.0 8922:1.0 10173:1.0 10174:1.0 10227:1.0 12631:1.0 12633:1.0 12974:1.0 14275:1.0 14277:1.0 14284:1.0 14285:1.0 14286:1.0 14291:1.0 14302:1.0 14303:1.0 14304:1.0 14305:1.0 14306:1.0 14307:1.0 14308:1.0 14309:1.0 14310:1.0 14311:1.0 14312:1.0 14313:1.0 14314:1.0 
0.04951878232561968 0.0 22:1.0 23:1.0 24:3.0 30:1.0 32:1.0 45:4.0 46:7.0 47:1.0 115:1.0 126:1.0 128:1.0 138:1.0 139:1.0 198:1.0 280:1.0 327:1.0 346:1.0 351:1.0 501:1.0 518:1.0 530:1.0 838:1.0 856:1.0 1082:1.0 1096:1.0 1098:1.0 1378:1.0 1698:2.0 1767:2.0 1967:1.0 2235:1.0 2237:1.0 2620:1.0 2621:1.0 2622:1.0 2624:1.0 2625:1.0 3628:1.0 3754:1.0 3963:1.0 3964:1.0 3966:1.0 3967:1.0 3975:1.0 3976:1.0 3977:1.0 3978:1.0 3979:1.0 3986:1.0 4043:1.0 4747:1.0 13091:1.0 13094:1.0 14315:1.0 14316:1.0 14317:1.0 14318:1.0 14321:1.0 14323:1.0 14324:1.0 14325:1.0 14326:1.0 
0.030870852948275813 0.0 22:1.0 23:1.0 24:3.0 25:1.0 30:1.0 32:1.0 45:3.0 46:5.0 47:1.0 126:1.0 128:1.0 138:1.0 139:1.0 280:1.0 327:1.0 331:1.0 390:1.0 393:1.0 530:1.0 615:1.0 838:1.0 856:1.0 1082:1.0 1698:1.0 1767:1.0 1967:1.0 2235:1.0 2237:1.0 2620:1.0 2621:1.0 2622:1.0 2624:1.0 2625:1.0 3628:1.0 3754:1.0 3963:1.0 3964:1.0 3988:1.0 4002:1.0 4003:1.0 4004:1.0 4005:1.0 4006:1.0 4007:1.0 4011:1.0 10159:1.0 10189:1.0 13091:1.0 13094:1.0 14316:1.0 14319:1.0 14320:1.0 14321:1.0 14322:1.0 14327:1.0 14328:1.0 
0.030033546015098195 0.0 6:1.0 24:1.0 25:1.0 29:1.0 30:1.0 31:1.0 45:2.0 46:3.0 47:1.0 67:2.0 176:1.0 198:2.0 268:1.0 390:1.0 413:1.0 418:1.0 444:1.0 446:1.0 466:1.0 569:1.0 758:1.0 759:1.0 761:1.0 1097:1.0 1098:1.0 1339:1.0 1600:1.0 1601:1.0 1602:1.0 1604:1.0 2400:1.0 2523:1.0 2665:1.0 3609:1.0 3993:1.0 3994:1.0 3995:1.0 3996:1.0 3997:1.0 4072:1.0 4099:1.0 4228:1.0 4242:1.0 4527:1.0 4528:1.0 4529:1.0 4530:1.0 13163:1.0 14344:1.0 14345:1.0 14346:1.0 14347:1.0 14349:1.0 14350:1.0 14351:1.0 14352:1.0 
0.02120638325283845 0.0028165574995369803 8:1.0 24:1.0 25:1.0 29:1.0 30:1.0 31:1.0 34:1.0 37:1.0 38:1.0 45:2.5 46:3.0 47:2.0 67:5.0 115:1.0 176:1.0 198:1.0 268:1.0 272:1.0 413:1.0 418:1.0 444:1.0 446:1.0 466:1.0 798:1.0 1289:1.0 1663:1.0 2707:1.0 2708:1.0 3995:1.0 3996:1.0 4229:1.0 4240:1.0 4242:1.0 8557:1.0 8944:1.0 10342:1.0 10344:1.0 10428:1.0 13136:1.0 14371:1.0 14372:1.0 14373:1.0 14374:1.0 14375:1.0 14376:1.0 14377:1.0 14378:1.0 14379:1.0 14380:1.0 14381:1.0 14382:1.0 14383:1.0 14384:1.0 14385:1.0 14386:1.0 
0.0038469204127798504 0.00388676860203262 8:1.0 22:1.0 23:1.0 29:1.0 30:1.0 31:1.0 32:1.0 176:1.0 198:1.0 577:1.0 798:1.0 1096:2.0 1098:1.0 1967:1.0 3133:1.0 3965:1.0 3981:1.0 4356:1.0 4358:1.0 5359:1.0 13431:1.0 13459:1.0 14372:1.0 14373:1.0 14387:1.0 14388:1.0 14389:1.0 14390:1.0 14391:1.0 14392:1.0 14393:1.0 14394:1.0 14395:1.0 14396:1.0 14397:1.0 
3.126677093508052E-4 0.01137249119870758 22:1.0 23:1.0 24:3.0 25:1.0 26:1.0 29:1.0 30:1.0 31:1.0 32:1.0 115:3.0 176:1.0 198:3.0 213:1.0 919:1.0 1342:1.0 3095:1.0 3133:1.0 3213:1.0 3214:1.0 3216:1.0 3217:1.0 3973:1.0 4063:1.0 4112:1.0 4116:1.0 4140:1.0 4142:1.0 4144:1.0 4189:1.0 4207:1.0 4208:1.0 4214:1.0 4215:1.0 4216:1.0 4229:1.0 4239:1.0 4240:1.0 4498:1.0 4553:1.0 5472:1.0 6551:1.0 10346:1.0 13252:1.0 13254:1.0 13294:1.0 14407:1.0 14408:1.0 14409:1.0 14410:1.0 14411:1.0 
0.004475187298242256 0.0 9:1.0 22:1.0 23:1.0 29:1.0 30:1.0 31:1.0 32:1.0 115:1.0 198:2.0 998:1.0 1341:1.0 1342:1.0 1346:1.0 2544:1.0 3216:1.0 4063:1.0 4153:1.0 4241:1.0 4280:1.0 4281:1.0 4498:1.0 4543:1.0 4550:1.0 4553:1.0 4554:1.0 7052:1.0 9474:1.0 9475:1.0 9479:1.0 9498:1.0 9499:1.0 10420:1.0 14429:1.0 14430:1.0 14431:1.0 14432:1.0 14433:1.0 14434:1.0 14435:1.0 
0.009451988578872998 0.0015266950949700399 22:1.0 23:1.0 24:3.0 26:1.0 29:1.0 30:1.0 31:1.0 32:1.0 115:1.0 198:4.0 481:1.0 1135:1.0 1342:1.0 1346:1.0 1698:1.0 1767:1.0 2544:1.0 3213:1.0 3214:1.0 3216:1.0 4063:1.0 4255:1.0 4282:1.0 4300:1.0 4490:1.0 4498:1.0 4541:1.0 4545:1.0 4550:1.0 4553:1.0 9388:1.0 9509:1.0 10346:1.0 13145:1.0 13175:1.0 13214:1.0 13294:1.0 14419:1.0 14420:1.0 14423:1.0 14436:1.0 14437:1.0 14438:1.0 14439:1.0 14440:1.0 14441:1.0 14442:1.0 
0.02166116697099659 0.0 22:1.0 23:1.0 24:3.0 29:1.0 30:1.0 31:1.0 32:1.0 115:2.0 198:4.0 758:1.0 759:1.0 1179:2.0 1342:1.0 1346:1.0 1698:1.0 1767:1.0 3095:1.0 3213:1.0 3214:1.0 3216:1.0 3741:1.0 4063:1.0 4207:1.0 4213:1.0 4215:1.0 4246:1.0 4255:1.0 4485:1.0 4493:1.0 4497:1.0 4498:1.0 4541:1.0 4553:1.0 5721:1.0 6169:1.0 9543:1.0 10346:1.0 13254:1.0 13294:1.0 13322:1.0 13328:1.0 14061:1.0 14425:1.0 14460:1.0 14465:1.0 14466:1.0 14467:1.0 14468:1.0 14469:1.0 14470:1.0 14471:1.0 
0.0 0.004820032367859217 22:1.0 23:1.0 24:1.0 29:1.0 30:1.0 31:1.0 32:1.0 115:2.0 198:4.0 1135:1.0 1342:1.0 1346:1.0 3213:1.0 3214:1.0 3216:1.0 3741:1.0 4063:1.0 4207:1.0 4213:1.0 4215:1.0 4246:1.0 4485:1.0 4493:1.0 4497:1.0 4498:1.0 4553:1.0 5721:1.0 6169:1.0 9541:1.0 9543:1.0 9545:1.0 10346:1.0 13294:1.0 13322:1.0 14061:1.0 14460:1.0 14466:1.0 14469:1.0 14470:1.0 14471:1.0 14472:1.0 14473:1.0 
0.04888699055047439 0.0 20:1.0 22:1.0 23:1.0 24:7.0 25:2.0 26:1.0 29:1.0 30:1.0 31:1.0 32:1.0 40:1.0 43:1.0 44:1.0 198:3.0 518:1.0 856:1.0 1698:1.0 1767:1.0 1897:1.0 1904:1.0 1967:1.0 2544:1.0 3133:1.0 3628:1.0 3973:1.0 3996:1.0 4063:1.0 4112:1.0 4116:1.0 4221:1.0 4459:1.0 4490:1.0 4528:1.0 4540:1.0 4542:1.0 4543:1.0 4553:2.0 4889:1.0 4891:1.0 13153:1.0 13154:1.0 13294:1.0 14057:1.0 14058:1.0 14493:1.0 14494:1.0 14495:1.0 14496:1.0 14497:1.0 14498:1.0 14500:1.0 14503:1.0 14504:1.0 14505:1.0 14506:1.0 14507:1.0 14508:1.0 14509:1.0 14510:1.0 
0.005866786950233778 0.0 22:1.0 23:1.0 24:4.0 25:1.0 29:1.0 30:1.0 31:1.0 32:1.0 115:1.0 198:1.0 856:1.0 1342:1.0 1698:1.0 1767:1.0 3095:1.0 3133:1.0 3213:1.0 3214:1.0 3216:1.0 3217:1.0 3741:1.0 3754:1.0 3973:1.0 4063:1.0 4112:1.0 4116:1.0 4207:1.0 4213:1.0 4215:1.0 4246:1.0 4459:1.0 4485:1.0 4493:1.0 4497:1.0 4498:1.0 4553:1.0 6370:1.0 10130:1.0 10346:1.0 13254:1.0 13294:1.0 13322:1.0 13334:1.0 13340:1.0 14061:1.0 14416:1.0 14422:1.0 14460:1.0 14469:1.0 14475:1.0 14545:1.0 14546:1.0 14547:1.0 14548:1.0 14549:1.0 14550:1.0 14551:1.0 
0.03831048270894167 0.0 22:1.0 23:1.0 24:7.0 25:2.0 29:1.0 30:1.0 31:1.0 32:1.0 198:3.0 268:1.0 272:1.0 310:1.0 446:1.0 856:3.0 1179:1.0 1698:1.0 1897:2.0 1904:2.0 1967:2.0 2123:1.0 2544:1.0 2721:1.0 3095:2.0 3133:1.0 3158:1.0 3628:2.0 3973:1.0 3996:1.0 4063:1.0 4112:1.0 4116:2.0 4459:1.0 4488:1.0 4528:1.0 4543:1.0 4553:2.0 4619:1.0 4636:1.0 5037:1.0 5039:1.0 5071:1.0 7373:1.0 9411:1.0 10427:1.0 10438:1.0 12242:1.0 13133:2.0 13146:1.0 13254:1.0 13294:1.0 13340:1.0 13343:1.0 13344:1.0 14486:1.0 14487:1.0 14488:1.0 14496:1.0 14500:1.0 14557:1.0 14558:1.0 14559:1.0 14560:1.0 14562:1.0 14563:1.0 14564:1.0 
0.0026029244900460935 0.0 22:1.0 23:1.0 24:4.0 25:1.0 26:1.0 29:1.0 30:1.0 31:1.0 32:1.0 198:1.0 759:1.0 1179:1.0 1342:1.0 1698:1.0 1767:1.0 2544:1.0 3095:1.0 3213:1.0 3214:1.0 3216:1.0 3217:1.0 4063:1.0 4112:1.0 4116:1.0 4217:1.0 4247:1.0 4459:1.0 4498:1.0 4528:1.0 4540:1.0 4542:1.0 4547:1.0 4548:1.0 4550:1.0 4553:1.0 10346:1.0 13254:1.0 13294:1.0 13299:1.0 13334:1.0 13340:1.0 14071:1.0 14072:1.0 14421:1.0 14425:1.0 14501:1.0 14570:1.0 14571:1.0 
0.02975500442415372 0.0 24:1.0 25:1.0 29:1.0 30:1.0 31:1.0 45:5.0 46:6.0 47:4.0 67:12.0 119:1.0 176:1.0 198:2.0 248:1.0 250:1.0 268:1.0 290:1.0 292:1.0 413:2.0 418:1.0 444:1.0 446:1.0 466:1.0 594:1.0 598:1.0 610:1.0 612:1.0 613:1.0 615:1.0 618:1.0 742:1.0 743:1.0 745:1.0 798:1.0 1098:1.0 1245:1.0 1247:1.0 1248:1.0 2027:1.0 2400:1.0 2679:1.0 2815:1.0 3083:1.0 3091:1.0 3183:1.0 3995:1.0 3996:1.0 4023:1.0 4242:1.0 5200:1.0 5433:1.0 6413:1.0 6429:1.0 12070:1.0 14651:1.0 14652:1.0 14653:1.0 14654:1.0 14655:1.0 14656:1.0 14657:1.0 14658:1.0 14659:1.0 14660:1.0 14661:1.0 
0.00743361836237374 0.00730514857025395 24:1.0 25:1.0 29:1.0 30:1.0 31:1.0 45:5.5 46:6.0 47:5.0 67:6.0 176:1.0 198:1.0 248:1.0 250:1.0 268:1.0 413:1.0 418:1.0 444:1.0 446:1.0 466:1.0 594:1.0 598:1.0 613:1.0 733:1.0 742:1.0 743:1.0 745:1.0 798:1.0 1098:1.0 1245:1.0 1247:1.0 1248:1.0 2081:1.0 2400:1.0 2721:1.0 3091:1.0 3183:1.0 3662:1.0 3666:1.0 3995:1.0 3996:1.0 4023:1.0 4242:1.0 5200:1.0 6449:1.0 7475:1.0 9232:1.0 9245:2.0 10087:1.0 14652:1.0 14653:1.0 14654:1.0 14655:1.0 14657:1.0 14658:1.0 14659:1.0 14660:1.0 14662:1.0 14663:1.0 14664:1.0 14665:1.0 
0.006685494805846375 0.01118112897341972 22:1.0 23:1.0 24:3.0 25:1.0 26:1.0 29:1.0 30:1.0 31:1.0 32:1.0 45:1.5 46:2.0 47:1.0 198:2.0 594:1.0 745:1.0 856:1.0 1096:1.0 1252:1.0 1599:1.0 1967:2.0 2721:1.0 3628:1.0 3639:1.0 3996:1.0 4036:1.0 4127:1.0 4198:1.0 4599:1.0 6473:1.0 6847:1.0 10347:1.0 12067:1.0 13755:1.0 14666:1.0 14667:1.0 14668:1.0 14669:1.0 14670:1.0 14671:1.0 14672:1.0 14673:1.0 14674:1.0 14675:1.0 14676:1.0 14677:1.0 14678:1.0 14679:1.0 14680:1.0 14681:1.0 14682:1.0 14683:1.0 14684:1.0 14685:1.0 14686:1.0 14687:1.0 14688:1.0 14689:1.0 14690:1.0 14691:1.0 
0.05 0.0 8:1.0 24:2.0 25:1.0 30:1.0 67:22.0 119:5.0 138:1.0 139:1.0 198:1.0 259:1.0 268:1.0 272:1.0 292:1.0 341:1.0 413:2.0 446:1.0 466:1.0 798:1.0 820:1.0 838:1.0 856:1.0 1443:1.0 1967:1.0 2571:1.0 2691:1.0 3183:1.0 3504:1.0 3593:1.0 3628:1.0 4158:1.0 4177:2.0 4933:1.0 4945:1.0 4947:1.0 5173:1.0 5187:1.0 6417:1.0 7213:1.0 11573:1.0 14692:1.0 14693:1.0 14694:1.0 14695:1.0 14696:1.0 14697:1.0 14698:1.0 14699:1.0 14700:1.0 14714:1.0 14715:1.0 14735:1.0 14740:1.0 14741:1.0 14742:1.0 14743:1.0 14744:1.0 14745:1.0 14746:1.0 14747:1.0 14748:1.0 14749:1.0 14750:1.0 
0.05 0.0 24:3.0 25:1.0 30:1.0 45:5.5 46:10.0 47:1.0 67:14.0 119:3.0 138:1.0 139:1.0 198:1.0 268:1.0 272:1.0 292:1.0 413:1.0 446:1.0 466:1.0 593:1.0 594:1.0 595:1.0 597:1.0 598:1.0 615:1.0 618:1.0 759:1.0 798:1.0 820:1.0 838:1.0 856:1.0 1443:1.0 1967:1.0 2099:1.0 2571:1.0 2691:1.0 3183:1.0 3504:1.0 3583:1.0 3593:1.0 4177:1.0 4599:1.0 5173:1.0 5187:1.0 7213:1.0 11573:1.0 14735:1.0 14740:1.0 14741:1.0 14742:1.0 14743:1.0 14744:1.0 14745:1.0 14746:1.0 14747:1.0 14748:1.0 14749:1.0 14750:1.0 14759:1.0 14760:1.0 14761:1.0 14762:1.0 14763:1.0 14764:1.0 14765:1.0 14766:1.0 14767:1.0 14768:1.0 14770:1.0 
0.05 0.004292995914660923 24:2.0 25:1.0 30:1.0 45:4.5 46:7.0 47:2.0 67:8.0 119:1.0 138:1.0 139:1.0 268:1.0 272:1.0 446:1.0 681:1.0 682:1.0 683:1.0 685:1.0 686:1.0 798:1.0 820:1.0 838:1.0 856:1.0 1096:1.0 1443:1.0 2081:1.0 2571:1.0 2691:1.0 3183:1.0 3504:1.0 3593:1.0 4036:1.0 4177:1.0 5173:1.0 5187:1.0 7213:1.0 11573:1.0 14740:1.0 14741:1.0 14742:1.0 14743:1.0 14744:1.0 14745:1.0 14748:1.0 14749:1.0 14750:1.0 14783:1.0 14784:1.0 14785:1.0 14786:1.0 14787:1.0 14788:1.0 14789:1.0 14790:1.0 14791:1.0 14792:1.0 14793:1.0 14794:1.0 14796:1.0 
0.016706320265588052 0.0 22:1.0 23:1.0 24:3.0 25:1.0 30:1.0 32:1.0 40:1.0 43:1.0 44:1.0 135:1.0 1664:1.0 1675:1.0 2136:1.0 2877:1.0 2951:1.0 3133:1.0 3741:1.0 3754:1.0 4497:1.0 10157:1.0 10187:1.0 12941:1.0 14819:1.0 14821:1.0 14823:1.0 14833:1.0 14834:1.0 14835:1.0 14836:1.0 14837:1.0 14838:1.0 14839:1.0 14840:1.0 14857:1.0 14858:1.0 14859:1.0 14860:1.0 14861:1.0 14862:1.0 14863:1.0 14864:1.0 14865:1.0 
0.0 0.00182493729085241 22:1.0 23:1.0 24:2.0 25:1.0 29:1.0 30:1.0 31:1.0 32:1.0 34:1.0 37:1.0 38:1.0 40:1.0 43:1.0 44:1.0 45:1.5 46:2.0 47:1.0 2198:1.0 2877:1.0 3741:1.0 3754:1.0 4497:1.0 5332:1.0 10157:1.0 10187:1.0 12941:1.0 14819:1.0 14821:1.0 14823:1.0 14833:1.0 14834:1.0 14835:1.0 14836:1.0 14837:1.0 14838:1.0 14839:1.0 14840:1.0 14858:1.0 14860:1.0 14861:1.0 14863:1.0 14865:1.0 14866:1.0 14867:1.0 14868:1.0 14869:1.0 14870:1.0 14871:1.0 14872:1.0 
0.023430085405957136 0.0 24:2.0 25:1.0 30:1.0 45:2.0 46:3.0 47:1.0 67:3.0 138:1.0 139:1.0 268:1.0 272:1.0 413:1.0 418:1.0 427:1.0 444:1.0 446:1.0 460:1.0 466:1.0 758:1.0 759:1.0 761:1.0 762:1.0 763:1.0 1082:1.0 2642:1.0 3410:1.0 4878:1.0 5178:1.0 6987:1.0 6990:1.0 7302:1.0 7304:1.0 9884:1.0 10506:1.0 10632:1.0 10634:1.0 11869:1.0 13568:1.0 13569:1.0 13570:1.0 13571:1.0 13573:1.0 14047:1.0 14048:1.0 14049:1.0 14873:1.0 14874:1.0 14875:1.0 14876:1.0 14877:1.0 14878:1.0 14879:1.0 14880:1.0 
0.023599987079386982 0.0 24:2.0 30:1.0 45:2.0 46:3.0 47:1.0 67:3.0 115:1.0 119:1.0 268:1.0 346:1.0 351:1.0 435:1.0 446:1.0 460:1.0 466:1.0 759:1.0 763:1.0 1098:1.0 1387:1.0 1601:1.0 1664:1.0 1675:1.0 2400:1.0 2522:1.0 2523:1.0 3209:1.0 4532:1.0 4804:1.0 4911:1.0 4920:1.0 4924:1.0 4925:1.0 4929:1.0 4931:1.0 7553:1.0 10131:1.0 10347:1.0 14221:1.0 14222:1.0 14223:1.0 14917:1.0 14918:1.0 14919:1.0 14920:1.0 14921:1.0 14922:1.0 14923:1.0 14924:1.0 14925:1.0 14926:1.0 14927:1.0 14928:1.0 14929:1.0 14930:1.0 14931:1.0 14932:1.0 14933:1.0 14934:1.0 
0.018893205952584962 0.025682403366713978 24:1.0 25:1.0 26:1.0 30:1.0 45:2.0 46:3.0 47:1.0 67:2.0 89:1.0 90:1.0 115:2.0 268:1.0 272:1.0 446:1.0 466:1.0 759:1.0 1600:1.0 1601:1.0 2523:1.0 2544:1.0 3526:1.0 3527:1.0 3528:1.0 3549:1.0 3550:1.0 3996:1.0 4063:1.0 4153:1.0 4161:1.0 4163:1.0 4189:1.0 4213:1.0 4214:1.0 4215:1.0 4242:1.0 4493:1.0 4551:1.0 5770:1.0 7068:1.0 9613:1.0 9684:1.0 10469:1.0 14026:1.0 14029:1.0 14084:1.0 14185:1.0 14186:1.0 15026:1.0 15027:1.0 15028:1.0 15029:1.0 
0.014005488774945318 0.0 16:1.0 22:1.0 23:1.0 24:1.0 25:1.0 30:1.0 40:1.0 43:1.0 45:2.5 46:3.0 47:2.0 115:1.0 123:1.0 138:1.0 139:1.0 589:1.0 1205:1.0 1209:1.0 1286:1.0 2234:1.0 3741:1.0 3919:1.0 6922:1.0 9354:1.0 13480:1.0 13482:1.0 13483:1.0 13485:1.0 13486:1.0 13509:1.0 13515:1.0 13536:1.0 13537:1.0 13538:1.0 13539:1.0 13540:1.0 13541:1.0 13985:1.0 14264:1.0 15089:1.0 15090:1.0 15091:1.0 15092:1.0 15093:1.0 15096:1.0 
0.05 0.03235442746954045 24:1.0 25:2.0 30:1.0 45:2.0 46:2.0 47:2.0 67:2.0 119:1.0 138:1.0 139:1.0 181:1.0 185:1.0 589:1.0 1205:1.0 1209:1.0 1280:1.0 1491:1.0 2234:1.0 3741:1.0 3791:1.0 3792:1.0 3851:1.0 3852:1.0 3919:1.0 6783:1.0 6922:1.0 9354:1.0 13493:1.0 13494:1.0 13495:1.0 13496:1.0 13497:1.0 13498:1.0 13499:1.0 13500:1.0 13501:1.0 13503:1.0 13504:1.0 13505:1.0 13509:1.0 13515:1.0 13516:1.0 13536:1.0 13537:1.0 13538:1.0 13539:1.0 13540:1.0 13541:1.0 13542:1.0 15095:1.0 
0.05 0.05 22:1.0 23:1.0 25:1.0 30:1.0 34:1.0 40:1.0 43:1.0 44:1.0 45:2.0 46:2.0 47:2.0 89:1.0 90:1.0 94:1.0 198:1.0 206:1.0 902:1.0 2586:1.0 3814:1.0 4547:1.0 4548:1.0 6956:1.0 12104:1.0 12105:1.0 13562:1.0 14003:1.0 14004:1.0 14071:1.0 14072:1.0 14075:1.0 14076:1.0 14078:1.0 14079:1.0 14080:1.0 14081:1.0 14082:1.0 14115:1.0 14137:1.0 14138:1.0 15160:1.0 15161:1.0 15162:1.0 15163:1.0 15164:1.0 15165:1.0 15166:1.0 15167:1.0 
0.013538373508821436 0.023887703414163734 22:1.0 23:1.0 25:1.0 29:1.0 30:1.0 31:1.0 34:1.0 37:1.0 58:1.0 198:1.0 206:1.0 3446:1.0 3790:1.0 4114:1.0 14007:1.0 14010:1.0 14036:1.0 14108:1.0 14141:1.0 14142:1.0 14143:1.0 14158:1.0 14159:1.0 15156:1.0 15179:1.0 15180:1.0 15181:1.0 15219:1.0 15220:1.0 15221:1.0 15222:1.0 15223:1.0 15224:1.0 15225:1.0 15226:1.0 15227:1.0 
0.019431056527942234 0.008008879218062303 24:1.0 25:1.0 30:1.0 34:1.0 38:1.0 45:2.5 46:3.0 47:2.0 67:4.0 115:1.0 138:1.0 139:1.0 170:1.0 222:1.0 226:1.0 268:1.0 272:1.0 413:1.0 418:1.0 427:1.0 444:1.0 446:1.0 460:1.0 466:1.0 706:1.0 1082:1.0 4174:1.0 4547:1.0 4548:1.0 4656:1.0 6413:1.0 6987:1.0 7179:1.0 9372:1.0 10631:1.0 10632:1.0 10633:1.0 10634:1.0 15228:1.0 15229:1.0 15230:1.0 15231:1.0 15232:1.0 15233:1.0 15234:1.0 15235:1.0 15236:1.0 15237:1.0 15238:1.0 15239:1.0 
0.05 0.01014623984448309 24:1.0 25:1.0 30:1.0 67:3.0 213:1.0 260:1.0 268:1.0 272:1.0 434:1.0 446:1.0 466:1.0 735:1.0 798:1.0 820:1.0 1663:1.0 1664:1.0 1675:1.0 1961:1.0 1972:1.0 2148:1.0 2537:1.0 2538:1.0 3996:1.0 4242:1.0 4656:1.0 4906:1.0 4907:1.0 14007:1.0 14010:1.0 14158:1.0 14159:1.0 15304:1.0 15305:1.0 15307:1.0 15308:1.0 15309:1.0 15311:1.0 15312:1.0 15313:1.0 15314:1.0 
