svm_type c_svc
kernel_type linear
nr_class 5
total_sv 3194
rho -1.410650730391773 -1.447318278848579 -1.7653479554935916 -2.2006951343329058 -0.3183690284139661 0.33354456690972356 0.013582920688576658 0.5057190582386514 0.17533185803816198 -0.25814920710483763
label 1 2 3 4 5
probA -3.435990803057714 -1.33741480310531 -3.408543945624013 -2.8729609699599252 -1.6493770129121363 -5.336722870161116 -3.8852903376911194 -3.8786286359766597 -2.2608699517918227 -3.736240972413919
probB -1.795234634744848 -6.747306361184127 -0.5719237346307589 -2.989354511855115 -2.107286891549902 -0.23636329410842377 -1.59552529714523 1.052114122894884 -0.25248565775188536 -1.2460315440385807
nr_sv 3057 101 7 26 3
SV
0.05126953125 0.004767517550051004 0.0 0.0 3:1.0 4:1.0 33:1.0 34:1.0 
0.051276129127488135 0.004767517550051004 0.0 0.0 3:1.0 4:1.0 33:1.0 40:1.0 
0.0 0.0019472837448120117 0.0 0.0 2:1.0 3:1.0 4:1.0 47:1.0 
0.0 0.0019472837448120117 0.0 0.0 2:1.0 3:1.0 4:1.0 52:1.0 
0.051276129127488135 0.004769033752381802 0.0 0.0 3:1.0 4:1.0 33:1.0 66:1.0 
0.0 0.0019472837448120117 0.0 0.0 2:1.0 3:1.0 4:1.0 88:1.0 
0.0 0.0019472837448120117 0.0 0.0 2:1.0 3:1.0 4:1.0 114:1.0 
0.0 0.0019472837448120117 0.0 0.0 2:1.0 3:1.0 4:1.0 144:1.0 
0.0 0.0019472837448120117 0.0 0.0 2:1.0 3:1.0 4:1.0 64:1.0 
0.0 0.0019472837448120117 0.0 0.0 2:1.0 3:1.0 4:1.0 170:1.0 
0.05128987630208348 0.004769033752381802 0.0 0.0 3:1.0 4:1.0 33:1.0 174:1.0 
0.0 0.0019472837448120117 0.0 0.0 2:1.0 3:1.0 4:1.0 175:1.0 
0.0 0.0019472837448120117 0.0 0.0 2:1.0 3:1.0 4:1.0 176:1.0 
0.0 0.0019472837448120117 0.0 0.0 2:1.0 3:1.0 4:1.0 177:1.0 
0.0 0.0019472837448120117 0.0 0.0 2:1.0 3:1.0 4:1.0 178:1.0 
0.05128987630208348 0.004769033752381802 0.0 0.0 3:1.0 4:1.0 33:1.0 181:1.0 
0.0 0.0019472837448120117 0.0 0.0 2:1.0 3:1.0 4:1.0 182:1.0 
0.0 0.0019472837448120117 0.0 0.0 2:1.0 3:1.0 4:1.0 185:1.0 
0.05128987630208348 0.004769033752381802 0.0 0.0 3:1.0 4:1.0 33:1.0 180:1.0 
0.0 0.0019472837448120117 0.0 0.0 2:1.0 3:1.0 4:1.0 187:1.0 
0.0 0.0019472837448120117 0.0 0.0 2:1.0 3:1.0 4:1.0 194:1.0 
0.05128987630208348 0.004769033752381802 0.0 0.0 3:1.0 4:1.0 33:1.0 195:1.0 
0.0 0.0019472837448120117 0.0 0.0 2:1.0 3:1.0 4:1.0 196:1.0 
0.0 0.0019472837448120117 0.0 0.0 2:1.0 3:1.0 4:1.0 208:1.0 
0.0 0.0019472837448120117 0.0 0.0 2:1.0 3:1.0 4:1.0 218:1.0 
0.0 0.0019472837448120117 0.0 0.0 2:1.0 3:1.0 4:1.0 219:1.0 
0.0 0.0019472837448120117 0.0 0.0 2:1.0 3:1.0 4:1.0 220:1.0 
0.0 0.0019472837448120117 0.0 0.0 2:1.0 3:1.0 4:1.0 221:1.0 
0.0 0.0019472837448120117 0.0 0.0 2:1.0 3:1.0 4:1.0 276:1.0 
0.0 0.0019472837448120117 0.0 0.0 2:1.0 3:1.0 4:1.0 277:1.0 
0.0 0.0019472837448120117 0.0 0.0 2:1.0 3:1.0 4:1.0 278:1.0 
0.0 0.0019472837448120117 0.0 0.0 2:1.0 3:1.0 4:1.0 279:1.0 
0.0 1.5555668148776398 0.0 0.0 3:1.0 4:1.0 37:1.0 339:1.0 
0.0 0.0019472837448120117 0.0 0.0 2:1.0 3:1.0 4:1.0 331:1.0 
0.0 0.0019472837448120117 0.0 0.0 2:1.0 3:1.0 4:1.0 330:1.0 
0.0 0.0019472837448120117 0.0 0.0 2:1.0 3:1.0 4:1.0 350:1.0 
0.0 0.0019472837448120117 0.0 0.0 2:1.0 3:1.0 4:1.0 351:1.0 
0.0 0.0019472837448120117 0.0 0.0 2:1.0 3:1.0 4:1.0 356:1.0 
0.0 0.0019472837448120117 0.0 0.0 2:1.0 3:1.0 4:1.0 358:1.0 
0.0 0.0019472837448120117 0.0 0.0 2:1.0 3:1.0 4:1.0 369:1.0 
0.0 0.0019472837448120117 0.0 0.0 2:1.0 3:1.0 4:1.0 370:1.0 
0.0 0.0019472837448120117 0.0 0.0 2:1.0 3:1.0 4:1.0 380:1.0 
0.0 0.0019472837448120117 0.0 0.0 2:1.0 3:1.0 4:1.0 382:1.0 
0.0 0.0019472837448120117 0.0 0.0 2:1.0 3:1.0 4:1.0 383:1.0 
0.0 0.0019472837448120117 0.0 0.0 2:1.0 3:1.0 4:1.0 386:1.0 
0.05128987630208348 0.004769033752381802 0.0 0.0 3:1.0 4:1.0 33:1.0 436:1.0 
0.0 0.0019472837448120117 0.0 0.0 2:1.0 3:1.0 4:1.0 457:1.0 
0.05128987630208348 0.004769033752381802 0.0 0.0 3:1.0 4:1.0 33:1.0 458:1.0 
0.0 0.0019472837448120117 0.0 0.0 2:1.0 3:1.0 4:1.0 461:1.0 
0.0 0.0019472837448120117 0.0 0.0 2:1.0 3:1.0 4:1.0 462:1.0 
0.0 0.0019472837448120117 0.0 0.0 2:1.0 3:1.0 4:1.0 465:1.0 
0.0 0.0019472837448120117 0.0 0.0 2:1.0 3:1.0 4:1.0 477:1.0 
0.05129378813284413 0.004769033752381802 0.0 0.0 3:1.0 4:1.0 33:1.0 478:1.0 
0.034019929391366555 0.0 0.0 0.0 3:1.0 4:1.0 105:1.0 482:1.0 
0.0 0.0019472837448120117 0.0 0.0 2:1.0 3:1.0 4:1.0 487:1.0 
0.0 0.0019472837448120117 0.0 0.0 2:1.0 3:1.0 4:1.0 489:1.0 
0.0 0.0019472837448120117 0.0 0.0 2:1.0 3:1.0 4:1.0 499:1.0 
0.0 0.0019472837448120117 0.0 0.0 2:1.0 3:1.0 4:1.0 505:1.0 
0.0 0.0019472837448120117 0.0 0.0 2:1.0 3:1.0 4:1.0 506:1.0 
0.0 0.0019472837448120117 0.0 0.0 2:1.0 3:1.0 4:1.0 512:1.0 
0.0 0.0019472837448120117 0.0 0.0 2:1.0 3:1.0 4:1.0 513:1.0 
0.0 0.0019472837448120117 0.0 0.0 2:1.0 3:1.0 4:1.0 514:1.0 
0.0 0.0019472837448120117 0.0 0.0 2:1.0 3:1.0 4:1.0 517:1.0 
0.05129378813284413 0.004769033752381802 0.0 0.0 3:1.0 4:1.0 33:1.0 528:1.0 
0.0 0.0019472837448120117 0.0 0.0 2:1.0 3:1.0 4:1.0 529:1.0 
0.0 0.0019472837448120117 0.0 0.0 2:1.0 3:1.0 4:1.0 537:1.0 
0.0 0.0019472837448120117 0.0 0.0 2:1.0 3:1.0 4:1.0 539:1.0 
0.0 0.0019472837448120117 0.0 0.0 2:1.0 3:1.0 4:1.0 544:1.0 
0.0 0.0019472837448120117 0.0 0.0 2:1.0 3:1.0 4:1.0 545:1.0 
0.0 0.0019472837448120117 0.0 0.0 2:1.0 3:1.0 4:1.0 547:1.0 
0.0 0.0019472837448120117 0.0 0.0 2:1.0 3:1.0 4:1.0 532:1.0 
0.0 0.0019472837448120117 0.0 0.0 2:1.0 3:1.0 4:1.0 573:1.0 
0.051340540264607215 0.004769033752381802 0.0 0.0 3:1.0 4:1.0 33:1.0 652:1.0 
0.0 0.0019472837448120117 0.0 0.0 2:1.0 3:1.0 4:1.0 697:1.0 
0.0 0.0019472837448120117 0.0 0.0 2:1.0 3:1.0 4:1.0 450:1.0 
0.0 0.0019472837448120117 0.0 0.0 2:1.0 3:1.0 4:1.0 451:1.0 
0.0 0.0019472837448120117 0.0 0.0 2:1.0 3:1.0 4:1.0 452:1.0 
0.0 0.0019472837448120117 0.0 0.0 2:1.0 3:1.0 4:1.0 453:1.0 
0.0 0.0019472837448120117 0.0 0.0 2:1.0 3:1.0 4:1.0 455:1.0 
0.0 0.0019472837448120117 0.0 0.0 2:1.0 3:1.0 4:1.0 739:1.0 
0.0 0.0019472837448120117 0.0 0.0 2:1.0 3:1.0 4:1.0 574:1.0 
1000.0 0.0 0.0 0.0 3:1.0 4:1.0 33:1.0 700:1.0 
0.0 0.0019472837448120117 0.0 0.0 2:1.0 3:1.0 4:1.0 742:1.0 
0.0 0.0019472837448120117 0.0 0.0 2:1.0 3:1.0 4:1.0 743:1.0 
0.05134902765721461 0.004769033752381802 0.0 0.0 3:1.0 4:1.0 33:1.0 747:1.0 
0.05134902765721461 0.004769033752381802 0.0 0.0 3:1.0 4:1.0 33:1.0 748:1.0 
0.0 0.0019472837448120117 0.0 0.0 2:1.0 3:1.0 4:1.0 753:1.0 
0.033491139826990736 0.0 0.0 0.0 3:1.0 4:1.0 105:1.0 755:1.0 
0.0 0.0019472837448120117 0.0 0.0 2:1.0 3:1.0 4:1.0 770:1.0 
0.0 0.0019472837448120117 0.0 0.0 2:1.0 3:1.0 4:1.0 773:1.0 
0.05135239870863795 0.004769033752381802 0.0 0.0 3:1.0 4:1.0 33:1.0 811:1.0 
1000.0 0.0 0.0 0.0 3:1.0 4:1.0 33:1.0 819:1.0 
0.05135239870863795 0.004769033752381802 0.0 0.0 3:1.0 4:1.0 33:1.0 822:1.0 
0.0 0.0019472837448120117 0.0 0.0 2:1.0 3:1.0 4:1.0 832:1.0 
0.0 0.0019472837448120117 0.0 0.0 2:1.0 3:1.0 4:1.0 837:1.0 
0.0 0.0019472837448120117 0.0 0.0 2:1.0 3:1.0 4:1.0 841:1.0 
0.0 0.0019472837448120117 0.0 0.0 2:1.0 3:1.0 4:1.0 849:1.0 
0.0 0.0019472837448120117 0.0 0.0 2:1.0 3:1.0 4:1.0 857:1.0 
0.0 0.0019472837448120117 0.0 0.0 2:1.0 3:1.0 4:1.0 859:1.0 
0.0 0.0019472837448120117 0.0 0.0 2:1.0 3:1.0 4:1.0 860:1.0 
0.0 0.0019472837448120117 0.0 0.0 2:1.0 3:1.0 4:1.0 861:1.0 
0.0 0.0 0.0 0.012589532883363324 2:1.0 3:1.0 615:1.0 888:1.0 
0.0 0.0019472837448120117 0.0 0.0 2:1.0 3:1.0 4:1.0 890:1.0 
0.0 0.0 0.0 0.01320166194571648 2:1.0 3:1.0 293:1.0 888:1.0 
0.0 0.0 0.0826588058882668 0.0 3:1.0 33:1.0 888:1.0 892:1.0 
0.0 0.0019472837448120117 0.0 0.0 2:1.0 3:1.0 4:1.0 903:1.0 
0.0 0.0019472837448120117 0.0 0.0 2:1.0 3:1.0 4:1.0 904:1.0 
0.05135543707346368 0.004769033752381802 0.0 0.0 3:1.0 4:1.0 33:1.0 908:1.0 
0.0 0.0019472837448120117 0.0 0.0 2:1.0 3:1.0 4:1.0 924:1.0 
0.0 0.0019472837448120117 0.0 0.0 2:1.0 3:1.0 4:1.0 925:1.0 
0.0 0.0019472837448120117 0.0 0.0 2:1.0 3:1.0 4:1.0 933:1.0 
0.0 0.0019472837448120117 0.0 0.0 2:1.0 3:1.0 4:1.0 934:1.0 
0.0 0.0019472837448120117 0.0 0.0 2:1.0 3:1.0 4:1.0 939:1.0 
0.0 0.0 0.0 0.01320166194571648 2:1.0 3:1.0 888:1.0 942:1.0 
0.0 0.0019472837448120117 0.0 0.0 2:1.0 3:1.0 4:1.0 944:1.0 
0.0 0.0019472837448120117 0.0 0.0 2:1.0 3:1.0 4:1.0 945:1.0 
0.051369326353427835 0.004779306531418115 0.0 0.0 3:1.0 4:1.0 33:1.0 948:1.0 
0.0 0.0019472837448120117 0.0 0.0 2:1.0 3:1.0 4:1.0 950:1.0 
0.0 0.0019472837448120117 0.0 0.0 2:1.0 3:1.0 4:1.0 951:1.0 
0.0 0.0019472837448120117 0.0 0.0 2:1.0 3:1.0 4:1.0 957:1.0 
0.0 0.0019472837448120117 0.0 0.0 2:1.0 3:1.0 4:1.0 961:1.0 
0.0 0.0019635877706605243 0.0 0.0 2:1.0 3:1.0 4:1.0 968:1.0 
0.0 0.0019635877706605243 0.0 0.0 2:1.0 3:1.0 4:1.0 969:1.0 
0.0 0.0019635877706605243 0.0 0.0 2:1.0 3:1.0 4:1.0 973:1.0 
0.0 0.0019635877706605243 0.0 0.0 2:1.0 3:1.0 4:1.0 975:1.0 
0.0 0.0019635877706605243 0.0 0.0 2:1.0 3:1.0 4:1.0 927:1.0 
0.0 0.0019635877706605243 0.0 0.0 2:1.0 3:1.0 4:1.0 966:1.0 
0.0 0.0019635877706605243 0.0 0.0 2:1.0 3:1.0 4:1.0 983:1.0 
0.0 0.0019635877706605243 0.0 0.0 2:1.0 3:1.0 4:1.0 985:1.0 
0.0 0.0019635877706605243 0.0 0.0 2:1.0 3:1.0 4:1.0 988:1.0 
0.0 0.0019635877706605243 0.0 0.0 2:1.0 3:1.0 4:1.0 991:1.0 
0.0 0.0019635877706605243 0.0 0.0 2:1.0 3:1.0 4:1.0 1006:1.0 
0.0 0.0019635877706605243 0.0 0.0 2:1.0 3:1.0 4:1.0 1007:1.0 
0.0513726090360358 0.004779306531418115 0.0 0.0 3:1.0 4:1.0 33:1.0 1018:1.0 
0.0 0.0019635877706605243 0.0 0.0 2:1.0 3:1.0 4:1.0 143:1.0 
0.05138635161027438 0.004779306531418115 0.0 0.0 3:1.0 4:1.0 33:1.0 1036:1.0 
0.0 0.0019635877706605243 0.0 0.0 2:1.0 3:1.0 4:1.0 1039:1.0 
0.0 0.0019635877706605243 0.0 0.0 2:1.0 3:1.0 4:1.0 1042:1.0 
0.0 0.0019635877706605243 0.0 0.0 2:1.0 3:1.0 4:1.0 1044:1.0 
0.0 0.0019787304449099263 0.0 0.0 2:1.0 3:1.0 4:1.0 1047:1.0 
0.0 0.0019787304449099263 0.0 0.0 2:1.0 3:1.0 4:1.0 1050:1.0 
0.0 0.0019787304449099263 0.0 0.0 2:1.0 3:1.0 4:1.0 1051:1.0 
0.0 0.0019787304449099263 0.0 0.0 2:1.0 3:1.0 4:1.0 1054:1.0 
0.0 0.0019889916605132507 0.0 0.0 2:1.0 3:1.0 4:1.0 1060:1.0 
0.05138635161027438 0.004798586763052448 0.0 0.0 3:1.0 4:1.0 33:1.0 1075:1.0 
0.051397164662679184 0.004798586763052448 0.0 0.0 3:1.0 4:1.0 33:1.0 1090:1.0 
0.0 0.0019892806479064884 0.0 0.0 2:1.0 3:1.0 4:1.0 326:1.0 
0.051397164662679184 0.004798586763052448 0.0 0.0 3:1.0 4:1.0 33:1.0 1101:1.0 
0.051397164662679184 0.004798586763052448 0.0 0.0 3:1.0 4:1.0 33:1.0 1104:1.0 
0.051397164662679184 0.004813809604149455 0.0 0.0 3:1.0 4:1.0 33:1.0 1105:1.0 
0.00342559814453125 0.0 0.0 0.0 3:1.0 4:1.0 33:1.0 1015:1.0 
0.03346520036310169 0.0 0.0 0.0 3:1.0 4:1.0 105:1.0 1109:1.0 
6.273523217907861E-4 9.251193805539515E-4 0.0 0.0 3:1.0 4:1.0 33:1.0 1110:1.0 
0.0 0.0019892806479064884 0.0 0.0 2:1.0 3:1.0 4:1.0 410:1.0 
0.0 0.0019892806479064884 0.0 0.0 2:1.0 3:1.0 4:1.0 411:1.0 
0.0 0.0019892806479064884 0.0 0.0 2:1.0 3:1.0 4:1.0 1123:1.0 
0.0 0.0019892806479064884 0.0 0.0 2:1.0 3:1.0 4:1.0 1124:1.0 
0.0 0.0019892806479064884 0.0 0.0 2:1.0 3:1.0 4:1.0 1129:1.0 
0.05143063269347459 0.0048313693805539515 0.0 0.0 3:1.0 4:1.0 33:1.0 1133:1.0 
0.05144783615017956 0.0048313693805539515 0.0 0.0 3:1.0 4:1.0 33:1.0 1138:1.0 
0.051462953113256216 0.0048313693805539515 0.0 0.0 3:1.0 4:1.0 33:1.0 1139:1.0 
0.051462953113256216 0.0048313693805539515 0.0 0.0 3:1.0 4:1.0 33:1.0 1148:1.0 
0.0 0.0019892806479064884 0.0 0.0 2:1.0 3:1.0 4:1.0 1149:1.0 
0.05148562678584345 0.0048313693805539515 0.0 0.0 3:1.0 4:1.0 33:1.0 1151:1.0 
0.0 9.251193805539515E-4 0.0 0.0 3:1.0 4:1.0 33:1.0 1152:1.0 
0.0 0.0019892806479064884 0.0 0.0 2:1.0 3:1.0 4:1.0 1155:1.0 
0.05148562678584345 0.0048313693805539515 0.0 0.0 3:1.0 4:1.0 33:1.0 1159:1.0 
0.0 0.00198292049455695 0.0 0.0 2:1.0 3:1.0 4:1.0 1160:1.0 
0.0 0.00198292049455695 0.0 0.0 2:1.0 3:1.0 4:1.0 1161:1.0 
0.0 0.00198292049455695 0.0 0.0 2:1.0 3:1.0 4:1.0 1164:1.0 
0.0 0.00198292049455695 0.0 0.0 2:1.0 3:1.0 4:1.0 1165:1.0 
0.0 0.00198292049455695 0.0 0.0 2:1.0 3:1.0 4:1.0 1168:1.0 
0.0 0.00198292049455695 0.0 0.0 2:1.0 3:1.0 4:1.0 1170:1.0 
0.0 0.00198292049455695 0.0 0.0 2:1.0 3:1.0 4:1.0 1171:1.0 
0.0 0.0019893838732247815 0.0 0.0 2:1.0 3:1.0 4:1.0 1172:1.0 
0.0 0.0019893838732247815 0.0 0.0 2:1.0 3:1.0 4:1.0 1173:1.0 
0.0 0.0019893838732247815 0.0 0.0 2:1.0 3:1.0 4:1.0 1175:1.0 
0.0 0.0019893838732247815 0.0 0.0 2:1.0 3:1.0 4:1.0 1169:1.0 
0.0 0.0019893838732247815 0.0 0.0 2:1.0 3:1.0 4:1.0 1178:1.0 
0.05148562678584345 0.0048313693805539515 0.0 0.0 3:1.0 4:1.0 33:1.0 1179:1.0 
0.0 0.001984601501850758 0.0 0.0 2:1.0 3:1.0 4:1.0 1186:1.0 
0.0 0.001984601501850758 0.0 0.0 2:1.0 3:1.0 4:1.0 1189:1.0 
0.033729974769237225 0.0 0.0 0.0 3:1.0 4:1.0 105:1.0 1190:1.0 
0.0 0.001984601501850758 0.0 0.0 2:1.0 3:1.0 4:1.0 1194:1.0 
0.0 0.001984601501850758 0.0 0.0 2:1.0 3:1.0 4:1.0 1196:1.0 
0.0 0.001984601501850758 0.0 0.0 2:1.0 3:1.0 4:1.0 523:1.0 
0.033891127296391765 0.0 0.0 0.0 3:1.0 4:1.0 105:1.0 524:1.0 
0.0 0.0019932783219784866 0.0 0.0 2:1.0 3:1.0 4:1.0 1199:1.0 
0.0 0.002016038534534914 0.0 0.0 2:1.0 3:1.0 4:1.0 1200:1.0 
0.0 0.002016038534534914 0.0 0.0 2:1.0 3:1.0 4:1.0 1201:1.0 
0.05148562678584345 0.0048313693805539515 0.0 0.0 3:1.0 4:1.0 33:1.0 1210:1.0 
0.0 0.002016038534534914 0.0 0.0 2:1.0 3:1.0 4:1.0 1213:1.0 
0.0 0.002016038534534914 0.0 0.0 2:1.0 3:1.0 4:1.0 556:1.0 
0.0 0.0019877176449774048 0.0 0.0 2:1.0 3:1.0 4:1.0 473:1.0 
0.0 0.0019877176449774048 0.0 0.0 2:1.0 3:1.0 4:1.0 1216:1.0 
0.05148562678584345 0.0048313693805539515 0.0 0.0 3:1.0 4:1.0 33:1.0 557:1.0 
0.05148562678584345 0.0048313693805539515 0.0 0.0 3:1.0 4:1.0 33:1.0 570:1.0 
0.0 0.00196116956158221 0.0 0.0 2:1.0 3:1.0 4:1.0 578:1.0 
0.0 0.00196116956158221 0.0 0.0 2:1.0 3:1.0 4:1.0 580:1.0 
0.0 0.0018517185701176775 0.0 0.0 2:1.0 3:1.0 4:1.0 582:1.0 
0.0 0.0019972349400632083 0.0 0.0 2:1.0 3:1.0 4:1.0 583:1.0 
0.0 0.0019972349400632083 0.0 0.0 2:1.0 3:1.0 4:1.0 584:1.0 
0.0 0.0019972349400632083 0.0 0.0 2:1.0 3:1.0 4:1.0 585:1.0 
0.0 0.0019972349400632083 0.0 0.0 2:1.0 3:1.0 4:1.0 586:1.0 
0.0 0.0019972349400632083 0.0 0.0 2:1.0 3:1.0 4:1.0 587:1.0 
0.0 0.0019972349400632083 0.0 0.0 2:1.0 3:1.0 4:1.0 588:1.0 
0.05148562678584345 0.0048313693805539515 0.0 0.0 3:1.0 4:1.0 33:1.0 592:1.0 
0.0 0.0019972349400632083 0.0 0.0 2:1.0 3:1.0 4:1.0 594:1.0 
0.05148562678584345 0.0048313693805539515 0.0 0.0 3:1.0 4:1.0 33:1.0 596:1.0 
0.05148562678584345 0.004838440165481517 0.0 0.0 3:1.0 4:1.0 33:1.0 601:1.0 
0.05148562678584345 0.004838440165481517 0.0 0.0 3:1.0 4:1.0 33:1.0 604:1.0 
0.0 0.0019972349400632083 0.0 0.0 2:1.0 3:1.0 4:1.0 608:1.0 
0.05148562678584345 0.004842023332230383 0.0 0.0 3:1.0 4:1.0 33:1.0 609:1.0 
0.05148562678584345 0.004842023332230383 0.0 0.0 3:1.0 4:1.0 33:1.0 610:1.0 
0.05148562678584345 0.004842023332230383 0.0 0.0 3:1.0 4:1.0 33:1.0 613:1.0 
0.0 0.0019675602072948273 0.0 0.0 2:1.0 3:1.0 4:1.0 618:1.0 
0.0 0.0019675602072948273 0.0 0.0 2:1.0 3:1.0 4:1.0 619:1.0 
0.0 0.0019675602072948273 0.0 0.0 2:1.0 3:1.0 4:1.0 620:1.0 
0.0 0.0019901298236397746 0.0 0.0 2:1.0 3:1.0 4:1.0 621:1.0 
0.0 0.0019154548645019531 0.0 0.0 2:1.0 3:1.0 4:1.0 622:1.0 
0.0 0.0019154548645019531 0.0 0.0 2:1.0 3:1.0 4:1.0 625:1.0 
0.0 0.0019154548645019531 0.0 0.0 2:1.0 3:1.0 4:1.0 627:1.0 
0.0 0.0019154548645019531 0.0 0.0 2:1.0 3:1.0 4:1.0 629:1.0 
0.0 0.0019154548645019531 0.0 0.0 2:1.0 3:1.0 4:1.0 631:1.0 
0.0 0.0019154548645019531 0.0 0.0 2:1.0 3:1.0 4:1.0 633:1.0 
0.05148562678584345 0.004842023332230383 0.0 0.0 3:1.0 4:1.0 33:1.0 634:1.0 
0.05148562678584345 0.004842023332230383 0.0 0.0 3:1.0 4:1.0 33:1.0 636:1.0 
0.0 0.0019154548645019531 0.0 0.0 2:1.0 3:1.0 4:1.0 639:1.0 
0.05148562678584345 0.004842023332230383 0.0 0.0 3:1.0 4:1.0 33:1.0 641:1.0 
0.0 0.0019154548645019531 0.0 0.0 2:1.0 3:1.0 4:1.0 651:1.0 
0.0 0.0019154548645019531 0.0 0.0 2:1.0 3:1.0 4:1.0 1176:1.0 
0.05148562678584345 0.004842023332230383 0.0 0.0 3:1.0 4:1.0 33:1.0 654:1.0 
0.05148562678584345 0.004842023332230383 0.0 0.0 3:1.0 4:1.0 33:1.0 658:1.0 
7.043767858434524E-4 0.0 0.0 0.0 3:1.0 4:1.0 33:1.0 659:1.0 
0.0 0.0019154548645019531 0.0 0.0 2:1.0 3:1.0 4:1.0 660:1.0 
0.0 0.0019154548645019531 0.0 0.0 2:1.0 3:1.0 4:1.0 661:1.0 
0.0 0.0019154548645019531 0.0 0.0 2:1.0 3:1.0 4:1.0 662:1.0 
0.05148562678584345 0.004878128572475715 0.0 0.0 3:1.0 4:1.0 33:1.0 666:1.0 
0.0 0.0019154548645019531 0.0 0.0 2:1.0 3:1.0 4:1.0 669:1.0 
0.0 0.0019154548645019531 0.0 0.0 2:1.0 3:1.0 4:1.0 672:1.0 
7.043767858434524E-4 0.0 0.0 0.0 3:1.0 4:1.0 33:1.0 677:1.0 
0.0 6.161928176879883E-4 0.0 0.0 2:1.0 3:1.0 4:1.0 679:1.0 
0.0 0.0019318771653520361 0.0 0.0 2:1.0 3:1.0 4:1.0 623:1.0 
0.0 0.0019318771653520361 0.0 0.0 2:1.0 3:1.0 4:1.0 685:1.0 
0.05148719582004557 0.004878128572475715 0.0 0.0 3:1.0 4:1.0 33:1.0 628:1.0 
0.0 6.161928176879883E-4 0.0 0.0 2:1.0 3:1.0 4:1.0 597:1.0 
0.05149015975933868 0.0048828125 0.0 0.0 3:1.0 4:1.0 33:1.0 687:1.0 
0.0 0.0019318771653520361 0.0 0.0 2:1.0 3:1.0 4:1.0 689:1.0 
0.05149098384527506 0.0048828125 0.0 0.0 3:1.0 4:1.0 33:1.0 1223:1.0 
0.0 0.0019318771653520361 0.0 0.0 2:1.0 3:1.0 4:1.0 690:1.0 
0.0 0.0019318771653520361 0.0 0.0 2:1.0 3:1.0 4:1.0 691:1.0 
0.0 0.0019318771653520361 0.0 0.0 2:1.0 3:1.0 4:1.0 694:1.0 
0.0 0.0019318771653520361 0.0 0.0 2:1.0 3:1.0 4:1.0 1224:1.0 
0.0 0.001944132319379177 0.0 0.0 2:1.0 3:1.0 4:1.0 714:1.0 
0.0 0.0016644250481476774 0.0 0.0 2:1.0 3:1.0 4:1.0 720:1.0 
0.0 0.0016644250481476774 0.0 0.0 2:1.0 3:1.0 4:1.0 724:1.0 
0.0 0.0016644250481476774 0.0 0.0 2:1.0 3:1.0 4:1.0 726:1.0 
0.0 0.0016644250481476774 0.0 0.0 2:1.0 3:1.0 4:1.0 731:1.0 
0.0 0.0016644250481476774 0.0 0.0 2:1.0 3:1.0 4:1.0 695:1.0 
0.0 0.0016740703253217415 0.0 0.0 2:1.0 3:1.0 4:1.0 469:1.0 
0.0 0.0016740703253217415 0.0 0.0 2:1.0 3:1.0 4:1.0 698:1.0 
1.5760676735100234 0.0 0.0 0.0 2:1.0 3:1.0 4:1.0 700:1.0 
0.0 6.351470947265625E-4 0.0 0.0 3:1.0 4:1.0 33:1.0 1245:1.0 
0.00342559814453125 0.0 0.0 0.0 3:1.0 4:1.0 33:1.0 1247:1.0 
0.05151131712360146 0.0048828125 0.0 0.0 3:1.0 4:1.0 33:1.0 1248:1.0 
0.05151693897215259 0.0048828125 0.0 0.0 3:1.0 4:1.0 33:1.0 1249:1.0 
0.0 0.0016814472076147613 0.0 0.0 2:1.0 3:1.0 4:1.0 1251:1.0 
0.051521777306467786 0.0048828125 0.0 0.0 3:1.0 4:1.0 33:1.0 1253:1.0 
0.0 0.0016814472076147613 0.0 0.0 2:1.0 3:1.0 4:1.0 1254:1.0 
0.0 0.0016814472076147613 0.0 0.0 2:1.0 3:1.0 4:1.0 1256:1.0 
0.03373751951396353 0.0 0.0 0.0 3:1.0 4:1.0 105:1.0 1258:1.0 
0.0 0.0016814472076147613 0.0 0.0 2:1.0 3:1.0 4:1.0 481:1.0 
0.0 0.0017053820192813873 0.0 0.0 2:1.0 3:1.0 4:1.0 756:1.0 
0.0 0.0017053820192813873 0.0 0.0 2:1.0 3:1.0 4:1.0 759:1.0 
0.0 0.0017053820192813873 0.0 0.0 2:1.0 3:1.0 4:1.0 761:1.0 
0.05153288687544477 0.0048828125 0.0 0.0 3:1.0 4:1.0 33:1.0 763:1.0 
0.0 0.0017053820192813873 0.0 0.0 2:1.0 3:1.0 4:1.0 767:1.0 
0.0 0.0017053820192813873 0.0 0.0 2:1.0 3:1.0 4:1.0 774:1.0 
0.0 0.0017053820192813873 0.0 0.0 2:1.0 3:1.0 4:1.0 775:1.0 
0.0 0.0017053820192813873 0.0 0.0 2:1.0 3:1.0 4:1.0 776:1.0 
0.03354108421930724 0.0 0.0 0.0 3:1.0 4:1.0 105:1.0 778:1.0 
0.0 0.0017053820192813873 0.0 0.0 2:1.0 3:1.0 4:1.0 780:1.0 
0.0 0.0017053820192813873 0.0 0.0 2:1.0 3:1.0 4:1.0 782:1.0 
0.0024799747692376695 0.0 0.0 0.0 3:1.0 4:1.0 105:1.0 134:1.0 
0.0 0.0017053820192813873 0.0 0.0 2:1.0 3:1.0 4:1.0 405:1.0 
0.0 0.0017053820192813873 0.0 0.0 2:1.0 3:1.0 4:1.0 1266:1.0 
0.0 0.0017053820192813873 0.0 0.0 2:1.0 3:1.0 4:1.0 1011:1.0 
0.05155016612986718 0.0048828125 0.0 0.0 3:1.0 4:1.0 33:1.0 1271:1.0 
0.05155791473558047 0.0048828125 0.0 0.0 3:1.0 4:1.0 33:1.0 1273:1.0 
0.0 0.0017053820192813873 0.0 0.0 2:1.0 3:1.0 4:1.0 1276:1.0 
0.00342559814453125 0.0 0.0 0.0 3:1.0 4:1.0 33:1.0 1278:1.0 
0.05158259358336892 0.0048828125 0.0 0.0 3:1.0 4:1.0 33:1.0 1270:1.0 
0.0 0.0017053820192813873 0.0 0.0 2:1.0 3:1.0 4:1.0 1279:1.0 
0.0 0.0017053820192813873 0.0 0.0 2:1.0 3:1.0 4:1.0 1280:1.0 
0.0 0.0017053820192818314 0.0 0.0 2:1.0 3:1.0 4:1.0 1285:1.0 
0.0 0.0017053820192818314 0.0 0.0 2:1.0 3:1.0 4:1.0 1286:1.0 
0.05158992329829537 0.0048828125 0.0 0.0 3:1.0 4:1.0 33:1.0 1287:1.0 
0.03357408995905642 0.0 0.0 0.0 3:1.0 4:1.0 105:1.0 1288:1.0 
0.0 0.0017053820192818314 0.0 0.0 2:1.0 3:1.0 4:1.0 1290:1.0 
0.0 0.0017053820192818314 0.0 0.0 2:1.0 3:1.0 4:1.0 41:1.0 
0.051349027657214386 0.0048828125 0.0 0.0 3:1.0 4:1.0 33:1.0 1297:1.0 
0.0 0.00174091378391239 0.0 0.0 2:1.0 3:1.0 4:1.0 1300:1.0 
0.0 0.0017614545355089106 0.0 0.0 2:1.0 3:1.0 4:1.0 1303:1.0 
0.0 0.0019530298487945297 0.0 0.0 2:1.0 3:1.0 4:1.0 1306:1.0 
0.051276129127488135 0.0048828125 0.0 0.0 3:1.0 4:1.0 33:1.0 1308:1.0 
0.0 0.0017755297012627125 0.0 0.0 2:1.0 3:1.0 4:1.0 1309:1.0 
0.0 0.0017755297012627125 0.0 0.0 2:1.0 3:1.0 4:1.0 1313:1.0 
0.0 0.0017755297012627125 0.0 0.0 2:1.0 3:1.0 4:1.0 1314:1.0 
0.0 0.0017755297012627125 0.0 0.0 2:1.0 3:1.0 4:1.0 1315:1.0 
0.0 0.0017755297012627125 0.0 0.0 2:1.0 3:1.0 4:1.0 1316:1.0 
0.03369586317392015 0.0 0.0 0.0 3:1.0 4:1.0 105:1.0 1310:1.0 
0.0 0.0017755297012627125 0.0 0.0 2:1.0 3:1.0 4:1.0 1318:1.0 
0.0 0.0017755297012627125 0.0 0.0 2:1.0 3:1.0 4:1.0 1319:1.0 
0.0 0.0017755297012627125 0.0 0.0 2:1.0 3:1.0 4:1.0 1320:1.0 
0.05161874088240226 0.0048828125 0.0 0.0 3:1.0 4:1.0 33:1.0 1321:1.0 
0.0 0.0017755297012627125 0.0 0.0 2:1.0 3:1.0 4:1.0 205:1.0 
0.05168162451850011 0.0048828125 0.0 0.0 3:1.0 4:1.0 33:1.0 1329:1.0 
1000.0 0.0 0.0 0.0 3:1.0 4:1.0 33:1.0 700:1.0 
0.0 0.0017755297012627125 0.0 0.0 2:1.0 3:1.0 4:1.0 1330:1.0 
0.0 0.0017755297012627125 0.0 0.0 2:1.0 3:1.0 4:1.0 1325:1.0 
0.0 0.0017755297012627125 0.0 0.0 2:1.0 3:1.0 4:1.0 555:1.0 
0.03359605602568383 0.0 0.0 0.0 3:1.0 4:1.0 105:1.0 1336:1.0 
0.051714023856579416 0.0048828125 0.0 0.0 3:1.0 4:1.0 33:1.0 1337:1.0 
0.0 0.0017755297012627125 0.0 0.0 2:1.0 3:1.0 4:1.0 1339:1.0 
0.0 0.0017755297012627125 0.0 0.0 2:1.0 3:1.0 4:1.0 866:1.0 
0.051717669466727845 0.0048828125 0.0 0.0 3:1.0 4:1.0 33:1.0 1343:1.0 
0.0 0.0017755297012627125 0.0 0.0 2:1.0 3:1.0 4:1.0 1344:1.0 
0.0 0.0017755297012627125 0.0 0.0 2:1.0 3:1.0 4:1.0 1345:1.0 
0.0 0.0017755297012627125 0.0 0.0 2:1.0 3:1.0 4:1.0 1346:1.0 
0.0517578125 0.0048828125 0.0 0.0 3:1.0 4:1.0 33:1.0 1350:1.0 
0.0 0.0017755297012627125 0.0 0.0 2:1.0 3:1.0 4:1.0 1355:1.0 
0.0 0.0017755297012627125 0.0 0.0 2:1.0 3:1.0 4:1.0 1356:1.0 
0.0 0.0017755297012627125 0.0 0.0 2:1.0 3:1.0 4:1.0 1357:1.0 
0.0 0.001785351385630074 0.0 0.0 2:1.0 3:1.0 4:1.0 862:1.0 
0.0 0.00179154032423412 0.0 0.0 2:1.0 3:1.0 4:1.0 569:1.0 
0.051276129127488135 0.0048828125 0.0 0.0 3:1.0 4:1.0 33:1.0 1359:1.0 
0.0 0.00179154032423412 0.0 0.0 2:1.0 3:1.0 4:1.0 1360:1.0 
0.0336542129290307 0.0 0.0 0.0 3:1.0 4:1.0 105:1.0 1363:1.0 
0.051276129127488135 0.0048828125 0.0 0.0 3:1.0 4:1.0 33:1.0 1364:1.0 
0.0 0.00179154032423412 0.0 0.0 2:1.0 3:1.0 4:1.0 1365:1.0 
0.0 0.00179154032423412 0.0 0.0 2:1.0 3:1.0 4:1.0 1370:1.0 
0.0 0.00179154032423412 0.0 0.0 2:1.0 3:1.0 4:1.0 1371:1.0 
5.72989567780624E-4 0.0 0.0 0.0 3:1.0 4:1.0 33:1.0 1372:1.0 
0.05138635161027416 0.0048828125 0.0 0.0 3:1.0 4:1.0 33:1.0 1376:1.0 
0.033788697137426604 0.0 0.0 0.0 3:1.0 4:1.0 105:1.0 1378:1.0 
0.05139716466267896 0.0048828125 0.0 0.0 3:1.0 4:1.0 33:1.0 343:1.0 
0.0 0.00179154032423412 0.0 0.0 2:1.0 3:1.0 4:1.0 1379:1.0 
0.0 0.00179154032423412 0.0 0.0 2:1.0 3:1.0 4:1.0 1383:1.0 
0.0062723129888673235 0.0 0.0 0.0 3:1.0 4:1.0 33:1.0 1388:1.0 
0.0023848906507308865 0.0 0.0 0.0 3:1.0 4:1.0 105:1.0 1246:1.0 
0.004857192916484954 0.0 0.0 0.0 3:1.0 4:1.0 33:1.0 1394:1.0 
0.0 0.0017955922085093334 0.0 0.0 2:1.0 3:1.0 4:1.0 1398:1.0 
0.004615983845275062 0.0 0.0 0.0 3:1.0 4:1.0 33:1.0 1399:1.0 
0.0 0.0017955922085093334 0.0 0.0 2:1.0 3:1.0 4:1.0 1348:1.0 
0.05149098384527506 0.0048828125 0.0 0.0 3:1.0 4:1.0 33:1.0 638:1.0 
0.03338178269278177 0.0 0.0 0.0 3:1.0 4:1.0 105:1.0 913:1.0 
0.0 0.0017955922085093334 0.0 0.0 2:1.0 3:1.0 4:1.0 1400:1.0 
0.0 0.0017955922085093334 0.0 0.0 2:1.0 3:1.0 4:1.0 1153:1.0 
0.0 0.0017955922085093334 0.0 0.0 2:1.0 3:1.0 4:1.0 1405:1.0 
0.020240983845275062 5.313162009722427E-4 0.0 0.0 3:1.0 4:1.0 33:1.0 1406:1.0 
0.002382488663175586 0.0 0.0 0.0 3:1.0 4:1.0 105:1.0 1408:1.0 
0.0023816915458367838 0.0 0.0 0.0 3:1.0 4:1.0 105:1.0 1147:1.0 
0.05155016612986696 0.0048828125 0.0 0.0 3:1.0 4:1.0 33:1.0 1413:1.0 
0.0 0.0017955922085093334 0.0 0.0 2:1.0 3:1.0 4:1.0 558:1.0 
0.001381619063585915 0.0 0.0 0.0 3:1.0 4:1.0 105:1.0 635:1.0 
0.0023816915458367838 0.0 0.0 0.0 3:1.0 4:1.0 105:1.0 1422:1.0 
9.239122206721184E-4 0.0 0.0 0.0 3:1.0 4:1.0 33:1.0 1426:1.0 
0.0 0.0017955922085093334 0.0 0.0 2:1.0 3:1.0 4:1.0 984:1.0 
4.8828125E-4 0.0 0.0 0.0 3:1.0 4:1.0 33:1.0 59:1.0 
0.05149098384527506 0.0048828125 0.0 0.0 3:1.0 4:1.0 33:1.0 1428:1.0 
0.0022783046095113946 0.0 0.0 0.0 3:1.0 4:1.0 87:1.0 122:1.0 
0.00390625 0.0 0.0 0.0 3:1.0 4:1.0 33:1.0 127:1.0 
0.0 0.0018436047990948445 0.0 0.0 2:1.0 3:1.0 4:1.0 1418:1.0 
0.002076878159475548 0.0 0.0 0.0 3:1.0 4:1.0 105:1.0 1436:1.0 
0.0023569056925631937 0.0 0.0 0.0 3:1.0 4:1.0 104:1.0 105:1.0 
0.01953125 0.0 0.0 0.0 3:1.0 4:1.0 33:1.0 1420:1.0 
0.0 0.0018436047990948445 0.0 0.0 2:1.0 3:1.0 4:1.0 1421:1.0 
0.0 7.928907871246338E-4 0.0 0.0 3:1.0 4:1.0 33:1.0 1438:1.0 
0.00390625 0.0 0.0 0.0 3:1.0 4:1.0 33:1.0 59:1.0 
0.05134464818919238 0.0048828125 0.0 0.0 3:1.0 4:1.0 33:1.0 1439:1.0 
0.00390625 0.0 0.0 0.0 3:1.0 4:1.0 33:1.0 1017:1.0 
0.01953125 0.0 0.0 0.0 3:1.0 4:1.0 33:1.0 1426:1.0 
0.012855423460329307 0.0 0.0 0.0 3:1.0 4:1.0 33:1.0 1414:1.0 
0.00390625 0.0 0.0 0.0 3:1.0 4:1.0 33:1.0 990:1.0 
0.009954520939716271 0.0 0.0 0.0 3:1.0 4:1.0 33:1.0 418:1.0 
0.01953125 0.0 0.0 0.0 3:1.0 4:1.0 33:1.0 1443:1.0 
0.0023555955609824153 0.0 0.0 0.0 3:1.0 4:1.0 105:1.0 870:1.0 
0.0 0.001845568027644573 0.0 0.0 2:1.0 3:1.0 4:1.0 1448:1.0 
0.05134902765721461 0.0048828125 0.0 0.0 3:1.0 4:1.0 33:1.0 1449:1.0 
0.0 0.001845568027644573 0.0 0.0 2:1.0 3:1.0 4:1.0 1038:1.0 
0.05134902765721461 0.0048828125 0.0 0.0 3:1.0 4:1.0 33:1.0 1450:1.0 
0.0 0.0018596124035702433 0.0 0.0 2:1.0 3:1.0 4:1.0 1451:1.0 
0.0 0.0018654757606044736 0.0 0.0 2:1.0 3:1.0 4:1.0 1453:1.0 
0.05134988851396671 0.0048828125 0.0 0.0 3:1.0 4:1.0 33:1.0 1454:1.0 
0.0 0.0019865181840432733 0.0 0.0 2:1.0 3:1.0 4:1.0 1455:1.0 
0.03354547756784815 0.0 0.0 0.0 3:1.0 4:1.0 105:1.0 1458:1.0 
0.0 0.0019865181840432733 0.0 0.0 2:1.0 3:1.0 4:1.0 1460:1.0 
0.01953125 0.0 0.0 0.0 3:1.0 4:1.0 33:1.0 201:1.0 
0.0041845816153065485 0.0 0.0 0.0 3:1.0 4:1.0 105:1.0 568:1.0 
0.016377319708283933 0.0 0.0 0.0 3:1.0 4:1.0 33:1.0 225:1.0 
0.0 0.0020358295446385455 0.0 0.0 2:1.0 3:1.0 4:1.0 1461:1.0 
0.0 0.0020358295446385455 0.0 0.0 2:1.0 3:1.0 4:1.0 1462:1.0 
0.0 0.0020358295446385455 0.0 0.0 2:1.0 3:1.0 4:1.0 1463:1.0 
0.0 0.0020358295446385455 0.0 0.0 2:1.0 3:1.0 4:1.0 1464:1.0 
0.051369326353427835 0.0048828125 0.0 0.0 3:1.0 4:1.0 33:1.0 1469:1.0 
0.0 0.0020358295446385455 0.0 0.0 2:1.0 3:1.0 4:1.0 1470:1.0 
0.015304989284939285 0.0 0.0 0.0 3:1.0 4:1.0 33:1.0 227:1.0 
0.01953125 0.0 0.0 0.0 3:1.0 4:1.0 33:1.0 113:1.0 
0.0 0.0020673007970799517 0.0 0.0 2:1.0 3:1.0 4:1.0 251:1.0 
0.015304989284939285 0.0 0.0 0.0 3:1.0 4:1.0 33:1.0 257:1.0 
0.015304989284939285 0.0 0.0 0.0 3:1.0 4:1.0 33:1.0 259:1.0 
0.015304989284939285 0.0 0.0 0.0 3:1.0 4:1.0 33:1.0 260:1.0 
0.00390625 0.0 0.0 0.0 3:1.0 4:1.0 33:1.0 261:1.0 
0.015304989284939285 0.0 0.0 0.0 3:1.0 4:1.0 33:1.0 267:1.0 
0.015304989284939285 0.0 0.0 0.0 3:1.0 4:1.0 33:1.0 268:1.0 
0.015304989284939285 0.0 0.0 0.0 3:1.0 4:1.0 33:1.0 282:1.0 
0.02446592262165892 0.0 0.0 0.0 3:1.0 4:1.0 33:1.0 283:1.0 
0.00390625 0.0 0.0 0.0 3:1.0 4:1.0 33:1.0 287:1.0 
0.00390625 0.0 0.0 0.0 3:1.0 4:1.0 33:1.0 289:1.0 
0.01953125 0.0 0.0 0.0 3:1.0 4:1.0 33:1.0 295:1.0 
0.01953125 0.0 0.0 0.0 3:1.0 4:1.0 33:1.0 297:1.0 
0.013393577614350338 0.0 0.0 0.0 3:1.0 4:1.0 33:1.0 302:1.0 
0.00390625 0.0 0.0 0.0 3:1.0 4:1.0 33:1.0 89:1.0 
0.01953125 0.0 0.0 0.0 3:1.0 4:1.0 33:1.0 311:1.0 
0.02428690592447902 0.0 0.0 0.0 3:1.0 4:1.0 33:1.0 312:1.0 
0.02554012699957453 0.0 0.0 0.0 3:1.0 4:1.0 33:1.0 316:1.0 
0.011739480550724934 0.0 0.0 0.0 3:1.0 4:1.0 33:1.0 663:1.0 
0.00390625 0.0 0.0 0.0 3:1.0 4:1.0 33:1.0 1477:1.0 
0.010900655555668937 0.0 0.0 0.0 3:1.0 4:1.0 33:1.0 1478:1.0 
0.010693673734311737 0.0 0.0 0.0 3:1.0 4:1.0 33:1.0 1063:1.0 
0.051397164662679184 0.0048828125 0.0 0.0 3:1.0 4:1.0 33:1.0 1485:1.0 
0.0 0.0020673007970799517 0.0 0.0 2:1.0 3:1.0 4:1.0 1487:1.0 
0.015304989284939285 0.0 0.0 0.0 3:1.0 4:1.0 33:1.0 1489:1.0 
0.0041425285357867825 0.0 0.0 0.0 3:1.0 4:1.0 33:1.0 826:1.0 
0.0 0.0021381378173828125 0.0 0.0 2:1.0 3:1.0 4:1.0 1079:1.0 
0.0 0.0020673007970799517 0.0 0.0 2:1.0 3:1.0 4:1.0 103:1.0 
0.0 0.0020673007970799517 0.0 0.0 2:1.0 3:1.0 4:1.0 1495:1.0 
0.05137260903603563 0.0048828125 0.0 0.0 3:1.0 4:1.0 33:1.0 1498:1.0 
0.0 0.0020673007970799517 0.0 0.0 2:1.0 3:1.0 4:1.0 207:1.0 
0.033748185599446756 0.0 0.0 0.0 3:1.0 4:1.0 105:1.0 1500:1.0 
0.004422186190469968 0.0 0.0 0.0 3:1.0 4:1.0 33:1.0 1504:1.0 
0.008879814618899529 0.0 0.0 0.0 3:1.0 4:1.0 33:1.0 1505:1.0 
0.01953125 0.0 0.0 0.0 3:1.0 4:1.0 33:1.0 336:1.0 
0.0 0.0020673007970799517 0.0 0.0 2:1.0 3:1.0 4:1.0 337:1.0 
0.0 0.0021381378173828125 0.0 0.0 2:1.0 3:1.0 4:1.0 929:1.0 
0.0 0.0021381378173828125 0.0 0.0 2:1.0 3:1.0 4:1.0 1507:1.0 
0.05149098384527506 0.0048828125 0.0 0.0 3:1.0 4:1.0 33:1.0 1508:1.0 
0.002341592753374977 0.0 0.0 0.0 3:1.0 4:1.0 105:1.0 790:1.0 
0.05164337158203125 0.0048828125 0.0 0.0 3:1.0 4:1.0 33:1.0 1087:1.0 
0.01808929443359375 7.928907871246338E-4 0.0 0.0 3:1.0 4:1.0 33:1.0 1516:1.0 
0.016472680321220068 0.0 0.0 0.0 3:1.0 4:1.0 33:1.0 1517:1.0 
0.0025799140307942725 0.0 0.0 0.0 3:1.0 4:1.0 33:1.0 1520:1.0 
0.05149098384527506 0.0048828125 0.0 0.0 3:1.0 4:1.0 33:1.0 1523:1.0 
0.05149098384527506 0.0048828125 0.0 0.0 3:1.0 4:1.0 33:1.0 1524:1.0 
0.003848648399658594 0.0 0.0 0.0 3:1.0 4:1.0 33:1.0 1525:1.0 
0.0 0.0021381378173828125 0.0 0.0 2:1.0 3:1.0 4:1.0 1528:1.0 
0.05126953125 0.0048828125 0.0 0.0 3:1.0 4:1.0 33:1.0 160:1.0 
0.03173828125 0.0048828125 0.0 0.0 3:1.0 4:1.0 33:1.0 1420:1.0 
0.0 0.0021381378173828125 0.0 0.0 2:1.0 3:1.0 4:1.0 427:1.0 
0.0 0.0021381378173828125 0.0 0.0 2:1.0 3:1.0 4:1.0 1529:1.0 
4.8828125E-4 0.0 0.0 0.0 3:1.0 4:1.0 33:1.0 1443:1.0 
0.03362536451036269 0.0 0.0 0.0 3:1.0 4:1.0 105:1.0 1532:1.0 
0.0 0.0021381378173828125 0.0 0.0 2:1.0 3:1.0 4:1.0 68:1.0 
0.0 0.0021381378173828125 0.0 0.0 2:1.0 3:1.0 4:1.0 1535:1.0 
4.8828125E-4 0.0 0.0 0.0 3:1.0 4:1.0 33:1.0 990:1.0 
0.0 0.0021381378173828125 0.0 0.0 2:1.0 3:1.0 4:1.0 1025:1.0 
0.0 0.0021381378173828125 0.0 0.0 2:1.0 3:1.0 4:1.0 1026:1.0 
0.002341592753374977 0.0 0.0 0.0 3:1.0 4:1.0 105:1.0 800:1.0 
4.8828125E-4 0.0 0.0 0.0 3:1.0 4:1.0 33:1.0 1017:1.0 
0.02001953125 0.0 0.0 0.0 3:1.0 4:1.0 33:1.0 433:1.0 
4.412215276250464E-4 0.0 0.0 0.0 3:1.0 4:1.0 105:1.0 364:1.0 
9.581480090319339E-4 0.0 0.0 0.0 3:1.0 4:1.0 33:1.0 1424:1.0 
0.0 0.0021381378173828125 0.0 0.0 2:1.0 3:1.0 4:1.0 1549:1.0 
9.581480090319339E-4 0.0 0.0 0.0 3:1.0 4:1.0 33:1.0 113:1.0 
0.004839023856579194 0.0 0.0 0.0 3:1.0 4:1.0 33:1.0 58:1.0 
1000.0 0.0 0.0 0.0 3:1.0 4:1.0 33:1.0 819:1.0 
1000.0 0.0048828125 0.0 0.0 3:1.0 4:1.0 33:1.0 819:1.0 
0.0 0.0021381378173828125 0.0 0.0 2:1.0 3:1.0 4:1.0 1553:1.0 
0.0 0.0021381378173828125 0.0 0.0 2:1.0 3:1.0 4:1.0 1554:1.0 
0.0 0.0021381378173828125 0.0 0.0 2:1.0 3:1.0 4:1.0 1555:1.0 
0.05169476687529173 0.0048828125 0.0 0.0 3:1.0 4:1.0 33:1.0 1558:1.0 
0.0 0.0021381378173828125 0.0 0.0 2:1.0 3:1.0 4:1.0 1561:1.0 
0.004812452295132608 0.0 0.0 0.0 3:1.0 4:1.0 33:1.0 825:1.0 
0.020437028672960045 0.0 0.0 0.0 3:1.0 4:1.0 33:1.0 460:1.0 
0.020437028672960045 0.0 0.0 0.0 3:1.0 4:1.0 33:1.0 190:1.0 
0.0 5.998887918394757E-4 0.0 0.0 2:1.0 3:1.0 4:1.0 1559:1.0 
0.0 0.0021381378173828125 0.0 0.0 2:1.0 3:1.0 4:1.0 1565:1.0 
9.057786729600448E-4 0.0 0.0 0.0 3:1.0 4:1.0 33:1.0 201:1.0 
0.0 0.0021381378173828125 0.0 0.0 2:1.0 3:1.0 4:1.0 1566:1.0 
0.004812028672960045 0.0 0.0 0.0 3:1.0 4:1.0 33:1.0 854:1.0 
0.02042957851516336 0.0 0.0 0.0 3:1.0 4:1.0 33:1.0 562:1.0 
0.02041332257157591 0.0 0.0 0.0 3:1.0 4:1.0 33:1.0 564:1.0 
0.0 0.0021381378173828125 0.0 0.0 2:1.0 3:1.0 4:1.0 1568:1.0 
0.033469897112074376 0.0 0.0 0.0 3:1.0 4:1.0 105:1.0 542:1.0 
0.03404292353877314 0.0 0.0 0.0 3:1.0 4:1.0 105:1.0 1570:1.0 
0.03359159275337498 0.0 0.0 0.0 3:1.0 4:1.0 105:1.0 1571:1.0 
0.0 0.0021381378173828125 0.0 0.0 2:1.0 3:1.0 4:1.0 1572:1.0 
0.004782056278806346 0.0 0.0 0.0 3:1.0 4:1.0 33:1.0 1573:1.0 
0.004771162471258306 0.0 0.0 0.0 3:1.0 4:1.0 33:1.0 1576:1.0 
0.0 0.0021381378173828125 0.0 0.0 2:1.0 3:1.0 4:1.0 1577:1.0 
0.0 0.0021381378173828125 0.0 0.0 2:1.0 3:1.0 4:1.0 1578:1.0 
0.0516357421875 0.0048828125 0.0 0.0 3:1.0 4:1.0 33:1.0 1581:1.0 
0.0337425749110189 0.0 0.0 0.0 3:1.0 4:1.0 105:1.0 1583:1.0 
0.0 0.0 0.0 0.981140161480583 3:1.0 50:1.0 441:1.0 1585:1.0 
0.0034943521453960624 0.0 0.0 0.0 3:1.0 4:1.0 105:1.0 1588:1.0 
0.05151693897215315 0.0048828125 0.0 0.0 3:1.0 4:1.0 33:1.0 1098:1.0 
8.374908824022587E-4 0.0 0.0 0.0 3:1.0 4:1.0 33:1.0 289:1.0 
8.374908824022587E-4 0.0 0.0 0.0 3:1.0 4:1.0 33:1.0 297:1.0 
0.020332593583368697 0.0 0.0 0.0 3:1.0 4:1.0 33:1.0 682:1.0 
0.0515825935833687 0.0048828125 0.0 0.0 3:1.0 4:1.0 33:1.0 1592:1.0 
8.013435833686966E-4 0.0 0.0 0.0 3:1.0 4:1.0 33:1.0 311:1.0 
1000.0 0.0 0.0 0.0 3:1.0 4:1.0 33:1.0 1598:1.0 
0.0 0.0021381378173828125 0.0 0.0 2:1.0 3:1.0 4:1.0 1600:1.0 
0.0 0.0021381378173828125 0.0 0.0 2:1.0 3:1.0 4:1.0 1601:1.0 
4.1009303607220104E-4 0.0 0.0 0.0 3:1.0 4:1.0 105:1.0 1436:1.0 
0.003798660739747328 0.0 0.0 0.0 3:1.0 4:1.0 105:1.0 340:1.0 
0.0515825935833687 0.0048828125 0.0 0.0 3:1.0 4:1.0 33:1.0 1293:1.0 
0.004824863459134428 0.0 0.0 0.0 3:1.0 4:1.0 33:1.0 1603:1.0 
0.051595596599813165 0.0048828125 0.0 0.0 3:1.0 4:1.0 33:1.0 1605:1.0 
0.0 0.0021381378173828125 0.0 0.0 2:1.0 3:1.0 4:1.0 1606:1.0 
0.0023816915458367838 0.0 0.0 0.0 3:1.0 4:1.0 105:1.0 923:1.0 
0.0 0.0021381378173828125 0.0 0.0 2:1.0 3:1.0 4:1.0 1608:1.0 
0.05155703551289692 0.004607735214802289 0.0 0.0 3:1.0 4:1.0 33:1.0 1612:1.0 
0.0 0.0021381378173828125 0.0 0.0 2:1.0 3:1.0 4:1.0 1613:1.0 
0.03346508131227022 0.0 0.0 0.0 3:1.0 4:1.0 105:1.0 917:1.0 
0.0 0.0021381378173828125 0.0 0.0 2:1.0 3:1.0 4:1.0 1617:1.0 
0.05155016612986696 0.004620563636251518 0.0 0.0 3:1.0 4:1.0 33:1.0 1618:1.0 
0.0 0.0021381378173828125 0.0 0.0 2:1.0 3:1.0 4:1.0 1619:1.0 
0.0 5.741959145932896E-4 0.0 0.0 2:1.0 3:1.0 4:1.0 1621:1.0 
0.0 0.0021381378173828125 0.0 0.0 2:1.0 3:1.0 4:1.0 1625:1.0 
0.0 0.0021381378173828125 0.0 0.0 2:1.0 3:1.0 4:1.0 1626:1.0 
0.0 0.0021381378173828125 0.0 0.0 2:1.0 3:1.0 4:1.0 1629:1.0 
0.0 0.0021381378173828125 0.0 0.0 2:1.0 3:1.0 4:1.0 1630:1.0 
0.032005127629451846 0.004620563636251518 0.0 0.0 3:1.0 4:1.0 33:1.0 336:1.0 
0.0 0.0021381378173828125 0.0 0.0 2:1.0 3:1.0 4:1.0 930:1.0 
0.0 0.0021381378173828125 0.0 0.0 2:1.0 3:1.0 4:1.0 1607:1.0 
0.05151131712360146 0.004620563636251518 0.0 0.0 3:1.0 4:1.0 33:1.0 1636:1.0 
0.0 0.0021381378173828125 0.0 0.0 2:1.0 3:1.0 4:1.0 986:1.0 
0.0 0.0021381378173828125 0.0 0.0 2:1.0 3:1.0 4:1.0 976:1.0 
0.0 0.0021381378173828125 0.0 0.0 2:1.0 3:1.0 4:1.0 1642:1.0 
0.0023816915458367838 0.0 0.0 0.0 3:1.0 4:1.0 105:1.0 1646:1.0 
0.0 0.0021381378173828125 0.0 0.0 2:1.0 3:1.0 4:1.0 962:1.0 
0.0 0.0021381378173828125 0.0 0.0 1:1.0 2:1.0 3:1.0 4:1.0 
0.0 0.0021381378173828125 0.0 0.0 2:1.0 3:1.0 4:1.0 5:1.0 
0.020249915893489123 0.0 0.0 0.0 3:1.0 4:1.0 33:1.0 1654:1.0 
0.0 0.0 0.7390174264763565 0.0 33:1.0 1525:1.0 1655:1.0 1656:1.0 
0.0 0.0021381378173828125 0.0 0.0 2:1.0 3:1.0 4:1.0 1658:1.0 
0.0 0.0021381378173828125 0.0 0.0 2:1.0 3:1.0 4:1.0 1659:1.0 
0.05154972410370773 0.004627837180805727 0.0 0.0 3:1.0 4:1.0 33:1.0 1660:1.0 
0.0 5.847461175900737E-4 0.0 0.0 2:1.0 3:1.0 4:1.0 1661:1.0 
0.0 0.0021381378173828125 0.0 0.0 2:1.0 3:1.0 4:1.0 112:1.0 
0.0 0.0021381378173828125 0.0 0.0 2:1.0 3:1.0 4:1.0 1666:1.0 
0.018548368117015435 0.0 0.0 0.0 3:1.0 4:1.0 33:1.0 1670:1.0 
4.6566648942958366E-4 0.0 0.0 0.0 3:1.0 4:1.0 33:1.0 148:1.0 
0.0 0.0 0.32993219470887425 0.018109581701815907 2:1.0 63:1.0 1655:1.0 1656:1.0 
0.0035211665143399795 0.0 0.0 0.0 3:1.0 4:1.0 105:1.0 1268:1.0 
0.03346011785816183 0.0 0.0 0.0 3:1.0 4:1.0 105:1.0 1677:1.0 
7.17145322095103E-4 0.0 0.0 0.0 3:1.0 4:1.0 33:1.0 430:1.0 
0.01808929443359375 7.928907871246338E-4 0.0 0.0 3:1.0 4:1.0 33:1.0 1679:1.0 
0.032938827703029805 0.00457763671875 0.0 0.0 3:1.0 4:1.0 33:1.0 1670:1.0 
0.007814120604673458 0.0 0.0 0.0 3:1.0 4:1.0 33:1.0 1684:1.0 
0.0037678800678498194 0.0 0.0 0.0 3:1.0 4:1.0 105:1.0 165:1.0 
0.05126190185546875 0.00457763671875 0.0 0.0 3:1.0 4:1.0 33:1.0 1689:1.0 
0.0 0.0021381378173828125 0.0 0.0 2:1.0 3:1.0 4:1.0 942:1.0 
0.0 0.0021381378173828125 0.0 0.0 2:1.0 3:1.0 4:1.0 1690:1.0 
0.05126190185546875 0.00457763671875 0.0 0.0 3:1.0 4:1.0 33:1.0 1691:1.0 
0.0 0.0021381378173828125 0.0 0.0 2:1.0 3:1.0 4:1.0 1692:1.0 
0.0 0.0021381378173828125 0.0 0.0 2:1.0 3:1.0 4:1.0 1693:1.0 
0.0 6.161928176879883E-4 0.0 0.0 2:1.0 3:1.0 4:1.0 1209:1.0 
0.0 0.0021381378173828125 0.0 0.0 2:1.0 3:1.0 4:1.0 1694:1.0 
0.05126190185546875 0.00457763671875 0.0 0.0 3:1.0 4:1.0 33:1.0 1696:1.0 
0.05126190185546875 0.00457763671875 0.0 0.0 3:1.0 4:1.0 33:1.0 1697:1.0 
0.0 0.0021381378173828125 0.0 0.0 2:1.0 3:1.0 4:1.0 1698:1.0 
0.0 0.0021381378173828125 0.0 0.0 2:1.0 3:1.0 4:1.0 1699:1.0 
0.05126190185546875 0.00457763671875 0.0 0.0 3:1.0 4:1.0 33:1.0 183:1.0 
0.0 0.0021381378173828125 0.0 0.0 2:1.0 3:1.0 4:1.0 184:1.0 
0.020240983845275062 0.0 0.0 0.0 3:1.0 4:1.0 33:1.0 493:1.0 
0.05126190185546875 0.00457763671875 0.0 0.0 3:1.0 4:1.0 33:1.0 1700:1.0 
0.0 0.0021381378173828125 0.0 0.0 2:1.0 3:1.0 4:1.0 1701:1.0 
0.05126190185546875 0.00457763671875 0.0 0.0 3:1.0 4:1.0 33:1.0 1702:1.0 
0.05126190185546875 0.00457763671875 0.0 0.0 3:1.0 4:1.0 33:1.0 1703:1.0 
0.0 0.0021381378173828125 0.0 0.0 2:1.0 3:1.0 4:1.0 1704:1.0 
0.0 0.0021381378173828125 0.0 0.0 2:1.0 3:1.0 4:1.0 1195:1.0 
0.0 0.0021381378173828125 0.0 0.0 2:1.0 3:1.0 4:1.0 1707:1.0 
0.0 0.0021381378173828125 0.0 0.0 2:1.0 3:1.0 4:1.0 1708:1.0 
0.0 0.0021381378173828125 0.0 0.0 2:1.0 3:1.0 4:1.0 1709:1.0 
0.0 0.0021381378173828125 0.0 0.0 2:1.0 3:1.0 4:1.0 833:1.0 
0.0 0.0021381378173828125 0.0 0.0 2:1.0 3:1.0 4:1.0 1191:1.0 
0.0 0.0021381378173828125 0.0 0.0 2:1.0 3:1.0 4:1.0 1711:1.0 
0.05126190185546875 0.004514371586758381 0.0 0.0 3:1.0 4:1.0 33:1.0 1043:1.0 
0.0 0.0021381378173828125 0.0 0.0 2:1.0 3:1.0 4:1.0 1713:1.0 
0.05126190185546875 0.0048142885324602425 0.0 0.0 3:1.0 4:1.0 33:1.0 844:1.0 
0.0 0.0021381378173828125 0.0 0.0 2:1.0 3:1.0 4:1.0 203:1.0 
0.0 0.0021381378173828125 0.0 0.0 2:1.0 3:1.0 4:1.0 204:1.0 
0.05140780284972618 0.004575447845324598 0.0 0.0 3:1.0 4:1.0 33:1.0 1718:1.0 
0.0 0.0021381378173828125 0.0 0.0 2:1.0 3:1.0 4:1.0 725:1.0 
0.0 0.0021381378173828125 0.0 0.0 2:1.0 3:1.0 4:1.0 1720:1.0 
0.0 0.0021381378173828125 0.0 0.0 2:1.0 3:1.0 4:1.0 1721:1.0 
0.027064524461094974 0.0 0.0 0.0 3:1.0 4:1.0 33:1.0 1724:1.0 
0.024512176346068726 0.004575447845324598 0.0 0.0 3:1.0 4:1.0 33:1.0 1724:1.0 
0.0 0.0021381378173828125 0.0 0.0 2:1.0 3:1.0 4:1.0 1726:1.0 
0.0 0.0021381378173828125 0.0 0.0 2:1.0 3:1.0 4:1.0 479:1.0 
0.051702838069954904 0.004572879920431205 0.0 0.0 3:1.0 4:1.0 33:1.0 1727:1.0 
0.0 0.0021381378173828125 0.0 0.0 2:1.0 3:1.0 4:1.0 1728:1.0 
0.0 0.0021381378173828125 0.0 0.0 2:1.0 3:1.0 4:1.0 1729:1.0 
0.03367812005580717 0.0 0.0 0.0 3:1.0 4:1.0 105:1.0 577:1.0 
0.004615983845275062 0.0 0.0 0.0 3:1.0 4:1.0 33:1.0 1048:1.0 
0.0349295853403353 0.004572879920431205 0.0 0.0 3:1.0 4:1.0 33:1.0 225:1.0 
0.0 0.0021381378173828125 0.0 0.0 2:1.0 3:1.0 4:1.0 226:1.0 
0.0 0.0021381378173828125 0.0 0.0 2:1.0 3:1.0 4:1.0 1731:1.0 
0.03618063750090417 0.004572879920431205 0.0 0.0 3:1.0 4:1.0 33:1.0 1489:1.0 
0.03618063750090417 0.004572879920431205 0.0 0.0 3:1.0 4:1.0 33:1.0 227:1.0 
0.03618063750090417 0.004572879920431205 0.0 0.0 3:1.0 4:1.0 33:1.0 257:1.0 
0.03618063750090417 0.004572879920431205 0.0 0.0 3:1.0 4:1.0 33:1.0 259:1.0 
0.03618063750090417 0.004614492797442971 0.0 0.0 3:1.0 4:1.0 33:1.0 260:1.0 
7.097338452750623E-4 0.0 0.0 0.0 3:1.0 4:1.0 33:1.0 261:1.0 
0.0 0.0021381378173828125 0.0 0.0 2:1.0 3:1.0 4:1.0 262:1.0 
0.03618063750090417 0.004954865927909224 0.0 0.0 3:1.0 4:1.0 33:1.0 267:1.0 
0.03618063750090417 0.004741102457046509 0.0 0.0 3:1.0 4:1.0 33:1.0 268:1.0 
0.0 0.0021381378173828125 0.0 0.0 2:1.0 3:1.0 4:1.0 280:1.0 
0.0 0.0021381378173828125 0.0 0.0 2:1.0 3:1.0 4:1.0 281:1.0 
0.03618063750090417 0.004741102457046509 0.0 0.0 3:1.0 4:1.0 33:1.0 282:1.0 
0.026788623244667353 0.004741102457046509 0.0 0.0 3:1.0 4:1.0 33:1.0 283:1.0 
7.097338452750623E-4 0.0 0.0 0.0 3:1.0 4:1.0 33:1.0 287:1.0 
0.0 0.0021381378173828125 0.0 0.0 2:1.0 3:1.0 4:1.0 288:1.0 
0.0 0.0021381378173828125 0.0 0.0 2:1.0 3:1.0 4:1.0 291:1.0 
7.097338452750623E-4 0.0 0.0 0.0 3:1.0 4:1.0 33:1.0 295:1.0 
0.0 0.0021381378173828125 0.0 0.0 2:1.0 3:1.0 4:1.0 296:1.0 
0.03801502470743978 0.004741102457046509 0.0 0.0 3:1.0 4:1.0 33:1.0 302:1.0 
7.097338452750623E-4 0.0 0.0 0.0 3:1.0 4:1.0 33:1.0 89:1.0 
0.027400122748480804 0.004741102457046509 0.0 0.0 3:1.0 4:1.0 33:1.0 312:1.0 
0.02604246658379361 0.004741102457046509 0.0 0.0 3:1.0 4:1.0 33:1.0 316:1.0 
0.0 0.0021381378173828125 0.0 0.0 2:1.0 3:1.0 4:1.0 1476:1.0 
0.039538569234770726 0.004741102457046509 0.0 0.0 3:1.0 4:1.0 33:1.0 663:1.0 
7.097338452750623E-4 0.0 0.0 0.0 3:1.0 4:1.0 33:1.0 1477:1.0 
0.04045478151779469 0.004741102457046509 0.0 0.0 3:1.0 4:1.0 33:1.0 1478:1.0 
0.0 0.0021381378173828125 0.0 0.0 2:1.0 3:1.0 4:1.0 692:1.0 
0.0 0.0021381378173828125 0.0 0.0 2:1.0 3:1.0 4:1.0 480:1.0 
0.0 0.0021381378173828125 0.0 0.0 2:1.0 3:1.0 4:1.0 1681:1.0 
0.040600114398532394 0.004741102457046509 0.0 0.0 3:1.0 4:1.0 33:1.0 1063:1.0 
0.0 0.0021381378173828125 0.0 0.0 2:1.0 3:1.0 4:1.0 1066:1.0 
0.0 0.0021381378173828125 0.0 0.0 2:1.0 3:1.0 4:1.0 1069:1.0 
0.0 0.0021381378173828125 0.0 0.0 2:1.0 3:1.0 4:1.0 1071:1.0 
0.0 0.0021381378173828125 0.0 0.0 2:1.0 3:1.0 4:1.0 1073:1.0 
0.0 0.0021381378173828125 0.0 0.0 2:1.0 3:1.0 4:1.0 1742:1.0 
0.0 0.0021412819623947144 0.0 0.0 2:1.0 3:1.0 4:1.0 1483:1.0 
0.0 0.0021412819623947144 0.0 0.0 2:1.0 3:1.0 4:1.0 321:1.0 
0.0 0.0021412819623947144 0.0 0.0 2:1.0 3:1.0 4:1.0 322:1.0 
0.0 0.0 0.3298462628450529 0.018761717103857527 2:1.0 100:1.0 1655:1.0 1656:1.0 
0.05129378813284413 0.004741102457046509 0.0 0.0 3:1.0 4:1.0 33:1.0 454:1.0 
0.0 0.0021412819623947144 0.0 0.0 2:1.0 3:1.0 4:1.0 368:1.0 
0.0 0.0021412819623947144 0.0 0.0 2:1.0 3:1.0 4:1.0 1746:1.0 
0.051369326353427835 0.004741102457046509 0.0 0.0 3:1.0 4:1.0 33:1.0 346:1.0 
0.0 0.0021412819623947144 0.0 0.0 2:1.0 3:1.0 4:1.0 640:1.0 
0.05146295311325644 0.004741102457046509 0.0 0.0 3:1.0 4:1.0 33:1.0 1748:1.0 
0.0 0.0021412819623947144 0.0 0.0 2:1.0 3:1.0 4:1.0 1687:1.0 
0.002382488663175586 0.0 0.0 0.0 3:1.0 4:1.0 105:1.0 1750:1.0 
0.0 0.0021412819623947144 0.0 0.0 2:1.0 3:1.0 4:1.0 1754:1.0 
0.0 0.0021412819623947144 0.0 0.0 2:1.0 3:1.0 4:1.0 372:1.0 
0.0 0.0021412819623947144 0.0 0.0 2:1.0 3:1.0 4:1.0 1686:1.0 
0.04390331288219462 0.004741102457046509 0.0 0.0 3:1.0 4:1.0 33:1.0 1684:1.0 
0.0 0.0021412819623947144 0.0 0.0 2:1.0 3:1.0 4:1.0 1685:1.0 
0.0 0.0021412819623947144 0.0 0.0 2:1.0 3:1.0 4:1.0 1755:1.0 
0.01808929443359375 0.0 0.0 0.0 3:1.0 4:1.0 33:1.0 1009:1.0 
0.0 0.0021412819623947144 0.0 0.0 2:1.0 3:1.0 4:1.0 1033:1.0 
0.0 0.0021412819623947144 0.0 0.0 2:1.0 3:1.0 4:1.0 376:1.0 
0.03363248866317581 0.0 0.0 0.0 3:1.0 4:1.0 105:1.0 223:1.0 
0.0 0.0021412819623947144 0.0 0.0 2:1.0 3:1.0 4:1.0 1763:1.0 
0.004615983845275062 0.0 0.0 0.0 3:1.0 4:1.0 33:1.0 972:1.0 
0.0 0.0021412819623947144 0.0 0.0 2:1.0 3:1.0 4:1.0 1403:1.0 
0.0 0.0021412819623947144 0.0 0.0 2:1.0 3:1.0 4:1.0 1647:1.0 
0.00342559814453125 0.0 0.0 0.0 3:1.0 4:1.0 33:1.0 1361:1.0 
0.02972638165509256 0.0 0.0 0.0 3:1.0 4:1.0 105:1.0 165:1.0 
0.0 5.740926892752185E-4 0.0 0.0 2:1.0 3:1.0 4:1.0 1767:1.0 
0.0 0.0021412819623947144 0.0 0.0 2:1.0 3:1.0 4:1.0 1768:1.0 
0.0 0.0021412819623947144 0.0 0.0 2:1.0 3:1.0 4:1.0 1771:1.0 
0.0 0.0021412819623947144 0.0 0.0 2:1.0 3:1.0 4:1.0 1084:1.0 
0.0 0.0021412819623947144 0.0 0.0 2:1.0 3:1.0 4:1.0 1775:1.0 
0.0 0.0021412819623947144 0.0 0.0 2:1.0 3:1.0 4:1.0 1776:1.0 
0.0 0.0021412819623947144 0.0 0.0 2:1.0 3:1.0 4:1.0 1777:1.0 
0.0035211665143399795 0.0 0.0 0.0 3:1.0 4:1.0 105:1.0 852:1.0 
0.0017931196424696427 0.0 0.0 0.0 3:1.0 4:1.0 33:1.0 1784:1.0 
0.0 8.348524570465088E-4 0.0 0.0 3:1.0 4:1.0 33:1.0 1786:1.0 
0.05139716466267896 0.004741102457046509 0.0 0.0 3:1.0 4:1.0 33:1.0 1788:1.0 
0.0 0.0021412819623947144 0.0 0.0 2:1.0 3:1.0 4:1.0 1789:1.0 
0.0 0.0021412819623947144 0.0 0.0 2:1.0 3:1.0 4:1.0 1790:1.0 
0.03363169154583667 0.0 0.0 0.0 3:1.0 4:1.0 105:1.0 1791:1.0 
0.0 0.0021412819623947144 0.0 0.0 2:1.0 3:1.0 4:1.0 1792:1.0 
0.0 0.0021412819623947144 0.0 0.0 2:1.0 3:1.0 4:1.0 787:1.0 
0.0 0.0021412819623947144 0.0 0.0 2:1.0 3:1.0 4:1.0 397:1.0 
0.0 0.0021412819623947144 0.0 0.0 2:1.0 3:1.0 4:1.0 1794:1.0 
0.004615159759338683 0.0 0.0 0.0 3:1.0 4:1.0 33:1.0 1795:1.0 
0.051490983845275284 0.004741102457046509 0.0 0.0 3:1.0 4:1.0 33:1.0 444:1.0 
0.0 0.0021412819623947144 0.0 0.0 2:1.0 3:1.0 4:1.0 1796:1.0 
0.0 0.0021588413498234704 0.0 0.0 2:1.0 3:1.0 4:1.0 1797:1.0 
0.0 0.0021588413498234704 0.0 0.0 2:1.0 3:1.0 4:1.0 938:1.0 
0.0 0.0021588413498234704 0.0 0.0 2:1.0 3:1.0 4:1.0 943:1.0 
0.0 6.161928176879883E-4 0.0 0.0 2:1.0 3:1.0 4:1.0 737:1.0 
0.0023848906507308865 0.0 0.0 0.0 3:1.0 4:1.0 105:1.0 1121:1.0 
0.0 0.002180682495236397 0.0 0.0 2:1.0 3:1.0 4:1.0 1806:1.0 
0.0 0.002180682495236397 0.0 0.0 2:1.0 3:1.0 4:1.0 1809:1.0 
0.0 0.002180682495236397 0.0 0.0 2:1.0 3:1.0 4:1.0 1812:1.0 
0.051490983845275284 0.004741102457046509 0.0 0.0 3:1.0 4:1.0 33:1.0 1816:1.0 
0.051490983845275284 0.0047427855063770785 0.0 0.0 3:1.0 4:1.0 33:1.0 1817:1.0 
0.042611169226375756 0.0047427855063770785 0.0 0.0 3:1.0 4:1.0 33:1.0 1505:1.0 
0.0 8.348524570465088E-4 0.0 0.0 3:1.0 4:1.0 33:1.0 1814:1.0 
0.046875 0.004754437133669853 0.0 0.0 3:1.0 4:1.0 33:1.0 1477:1.0 
0.00342559814453125 8.348524570465088E-4 0.0 0.0 3:1.0 4:1.0 33:1.0 1819:1.0 
0.03360690569256308 0.0 0.0 0.0 3:1.0 4:1.0 105:1.0 1821:1.0 
0.0 0.0022069215774536133 0.0 0.0 2:1.0 3:1.0 4:1.0 1822:1.0 
0.03357408995905664 0.0 0.0 0.0 3:1.0 4:1.0 105:1.0 1823:1.0 
0.03404292353877314 0.0 0.0 0.0 3:1.0 4:1.0 105:1.0 1824:1.0 
0.0 0.0022069215774536133 0.0 0.0 2:1.0 3:1.0 4:1.0 591:1.0 
0.0 0.0022069215774536133 0.0 0.0 2:1.0 3:1.0 4:1.0 806:1.0 
0.0 0.0022069215774536133 0.0 0.0 2:1.0 3:1.0 4:1.0 1610:1.0 
0.0 0.0022069215774536133 0.0 0.0 2:1.0 3:1.0 4:1.0 808:1.0 
0.0 0.0022069215774536133 0.0 0.0 2:1.0 3:1.0 4:1.0 1832:1.0 
0.0 0.0022069215774536133 0.0 0.0 2:1.0 3:1.0 4:1.0 1835:1.0 
0.03364702267430064 0.0 0.0 0.0 3:1.0 4:1.0 105:1.0 1836:1.0 
0.0 0.0022069215774536133 0.0 0.0 2:1.0 3:1.0 4:1.0 1410:1.0 
0.0 0.0022069215774536133 0.0 0.0 2:1.0 3:1.0 4:1.0 1838:1.0 
0.020180632693474587 0.0 0.0 0.0 3:1.0 4:1.0 33:1.0 1157:1.0 
0.020147164662678962 0.0 0.0 0.0 3:1.0 4:1.0 33:1.0 1302:1.0 
0.0 0.0022069215774536133 0.0 0.0 2:1.0 3:1.0 4:1.0 1839:1.0 
0.0 0.0022069215774536133 0.0 0.0 2:1.0 3:1.0 4:1.0 1840:1.0 
0.046875 0.004754437133669853 0.0 0.0 3:1.0 4:1.0 33:1.0 825:1.0 
0.0 0.0022069215774536133 0.0 0.0 2:1.0 3:1.0 4:1.0 424:1.0 
0.0 0.0022069215774536133 0.0 0.0 2:1.0 3:1.0 4:1.0 1324:1.0 
0.020147164662678962 0.0 0.0 0.0 3:1.0 4:1.0 33:1.0 1845:1.0 
0.0 0.0022069215774536133 0.0 0.0 2:1.0 3:1.0 4:1.0 1846:1.0 
0.0 0.0022069215774536133 0.0 0.0 2:1.0 3:1.0 4:1.0 1326:1.0 
0.0 0.0022069215774536133 0.0 0.0 2:1.0 3:1.0 4:1.0 1217:1.0 
0.0 0.0022069215774536133 0.0 0.0 2:1.0 3:1.0 4:1.0 463:1.0 
0.0 0.0022069215774536133 0.0 0.0 2:1.0 3:1.0 4:1.0 1327:1.0 
0.004466462565035689 0.0 0.0 0.0 3:1.0 4:1.0 105:1.0 435:1.0 
0.046875 0.004754437133669853 0.0 0.0 3:1.0 4:1.0 33:1.0 854:1.0 
0.029356502604001022 0.0 0.0 0.0 3:1.0 4:1.0 105:1.0 568:1.0 
0.046875 0.004754437133669853 0.0 0.0 3:1.0 4:1.0 33:1.0 1573:1.0 
0.0 0.0022069215774536133 0.0 0.0 2:1.0 3:1.0 4:1.0 1574:1.0 
0.03379878291377314 0.0 0.0 0.0 3:1.0 4:1.0 105:1.0 1850:1.0 
0.046875 0.004754437133669853 0.0 0.0 3:1.0 4:1.0 33:1.0 1576:1.0 
0.0 0.0022069215774536133 0.0 0.0 2:1.0 3:1.0 4:1.0 1852:1.0 
0.0 0.0022430419921875 0.0 0.0 2:1.0 3:1.0 4:1.0 1855:1.0 
0.05186932655665244 3.9623864434840117E-4 0.0 0.0 4:1.0 33:1.0 889:1.0 1859:1.0 
6.159146626789624E-4 0.0 0.0 0.0 3:1.0 4:1.0 33:1.0 1860:1.0 
0.05139647111219503 0.004754437133669853 0.0 0.0 3:1.0 4:1.0 33:1.0 1861:1.0 
0.0 8.062254637479782E-4 0.0 0.0 3:1.0 4:1.0 33:1.0 1862:1.0 
0.0 0.0022430419921875 0.0 0.0 2:1.0 3:1.0 4:1.0 1665:1.0 
0.05138635161027416 0.004754437133669853 0.0 0.0 3:1.0 4:1.0 33:1.0 1863:1.0 
0.0 0.0022430419921875 0.0 0.0 2:1.0 3:1.0 4:1.0 1865:1.0 
0.0 0.0022430419921875 0.0 0.0 2:1.0 3:1.0 4:1.0 1870:1.0 
0.02999990957754628 0.0 0.0 0.0 3:1.0 4:1.0 105:1.0 852:1.0 
0.0 0.0022430419921875 0.0 0.0 2:1.0 3:1.0 4:1.0 1257:1.0 
0.03125 0.0 0.0 0.0 3:1.0 4:1.0 105:1.0 1750:1.0 
0.0012051264444996601 0.0 0.0 0.0 3:1.0 4:1.0 33:1.0 1872:1.0 
0.03364702267430042 0.0 0.0 0.0 3:1.0 4:1.0 105:1.0 1873:1.0 
0.046875 0.004754437133669853 0.0 0.0 3:1.0 4:1.0 33:1.0 972:1.0 
0.0 0.0022430419921875 0.0 0.0 2:1.0 3:1.0 4:1.0 1877:1.0 
0.0 5.740926892752185E-4 0.0 0.0 2:1.0 3:1.0 4:1.0 1879:1.0 
0.05135239870863795 0.004754437133669853 0.0 0.0 3:1.0 4:1.0 18:1.0 33:1.0 
0.03367179323566227 0.0 0.0 0.0 3:1.0 4:1.0 105:1.0 1880:1.0 
0.05158419992117047 0.004754437133669853 0.0 0.0 3:1.0 4:1.0 33:1.0 1881:1.0 
0.0 0.0 0.08272952437595237 0.0 3:1.0 33:1.0 888:1.0 928:1.0 
0.05138645350228155 0.004754437133669853 0.0 0.0 3:1.0 4:1.0 33:1.0 1883:1.0 
0.046875 0.004754437133669853 0.0 0.0 3:1.0 4:1.0 33:1.0 990:1.0 
0.03125 0.0 0.0 0.0 3:1.0 4:1.0 105:1.0 1646:1.0 
0.046875 0.004754437133669853 0.0 0.0 3:1.0 4:1.0 33:1.0 1399:1.0 
0.0 0.0022430419921875 0.0 0.0 2:1.0 3:1.0 4:1.0 335:1.0 
0.0 5.741959145932896E-4 0.0 0.0 2:1.0 3:1.0 4:1.0 1494:1.0 
0.03367812005580717 0.0 0.0 0.0 3:1.0 4:1.0 105:1.0 1895:1.0 
0.05134988851396671 0.004754437133669853 0.0 0.0 3:1.0 4:1.0 33:1.0 1896:1.0 
0.0021912113633240082 0.0 0.0 0.0 3:1.0 4:1.0 105:1.0 1897:1.0 
0.0 0.0022430419921875 0.0 0.0 2:1.0 3:1.0 4:1.0 1898:1.0 
0.03367812005580717 0.0 0.0 0.0 3:1.0 4:1.0 105:1.0 1899:1.0 
0.05047649807400045 0.004754437133669853 0.0 0.0 3:1.0 4:1.0 33:1.0 1872:1.0 
0.0024281200558071703 0.0 0.0 0.0 3:1.0 4:1.0 105:1.0 1900:1.0 
1000.0 0.004754437133669853 0.0 0.0 3:1.0 4:1.0 33:1.0 1598:1.0 
0.03367812005580717 0.0 0.0 0.0 3:1.0 4:1.0 105:1.0 791:1.0 
0.03125 0.0 0.0 0.0 3:1.0 4:1.0 105:1.0 1147:1.0 
0.0 0.0019154548645019531 0.0 0.0 2:1.0 3:1.0 4:1.0 1521:1.0 
0.0 8.062254637479782E-4 0.0 0.0 3:1.0 4:1.0 33:1.0 1520:1.0 
0.0 0.0019154548645019531 0.0 0.0 2:1.0 3:1.0 4:1.0 1886:1.0 
0.006109344916418236 0.0 0.0 0.0 3:1.0 4:1.0 33:1.0 931:1.0 
0.0 0.0019154548645019531 0.0 0.0 2:1.0 3:1.0 4:1.0 1907:1.0 
0.0 0.0019154548645019531 0.0 0.0 2:1.0 3:1.0 4:1.0 135:1.0 
0.0 0.0019154548645019531 0.0 0.0 2:1.0 3:1.0 4:1.0 1918:1.0 
0.0 4.6946521615609527E-4 0.0 0.0 2:1.0 3:1.0 4:1.0 412:1.0 
0.004465540264606993 0.0 0.0 0.0 3:1.0 4:1.0 33:1.0 1919:1.0 
0.0 0.0019154548645019531 0.0 0.0 2:1.0 3:1.0 4:1.0 1920:1.0 
0.0 0.0019154548645019531 0.0 0.0 2:1.0 3:1.0 4:1.0 1921:1.0 
0.0 0.0019154548645019531 0.0 0.0 2:1.0 3:1.0 4:1.0 213:1.0 
0.004679101483153925 0.0 0.0 0.0 3:1.0 4:1.0 33:1.0 1924:1.0 
0.0 0.0019154548645019531 0.0 0.0 2:1.0 3:1.0 4:1.0 1925:1.0 
0.0 0.0019154548645019531 0.0 0.0 2:1.0 3:1.0 4:1.0 1926:1.0 
0.0 0.0019154548645019531 0.0 0.0 2:1.0 3:1.0 4:1.0 1927:1.0 
0.0 0.001931877165351814 0.0 0.0 2:1.0 3:1.0 4:1.0 1289:1.0 
0.0 0.001931877165351814 0.0 0.0 2:1.0 3:1.0 4:1.0 1929:1.0 
0.0513446481891921 0.004754437133669853 0.0 0.0 3:1.0 4:1.0 33:1.0 1930:1.0 
0.0 0.001931877165351814 0.0 0.0 2:1.0 3:1.0 4:1.0 1932:1.0 
0.0 0.001944132319378955 0.0 0.0 2:1.0 3:1.0 4:1.0 1935:1.0 
0.0 0.001958890576806205 0.0 0.0 2:1.0 3:1.0 4:1.0 1936:1.0 
0.00342559814453125 8.788169600093543E-4 0.0 0.0 3:1.0 4:1.0 33:1.0 1281:1.0 
0.01808929443359375 0.0 0.0 0.0 3:1.0 4:1.0 33:1.0 1937:1.0 
0.02012417371371833 0.0 0.0 0.0 3:1.0 4:1.0 33:1.0 85:1.0 
0.0 0.001958890576806205 0.0 0.0 2:1.0 3:1.0 4:1.0 1807:1.0 
0.0 0.0019806865871703216 0.0 0.0 2:1.0 3:1.0 4:1.0 1282:1.0 
0.004676812586263346 0.0 0.0 0.0 3:1.0 4:1.0 33:1.0 1274:1.0 
0.051349027657214386 0.004754437133669853 0.0 0.0 3:1.0 4:1.0 33:1.0 1024:1.0 
0.0 0.0019675602072950493 0.0 0.0 2:1.0 3:1.0 4:1.0 1945:1.0 
0.03372997476923745 0.0 0.0 0.0 3:1.0 4:1.0 105:1.0 1265:1.0 
0.0 0.0019675602072950493 0.0 0.0 2:1.0 3:1.0 4:1.0 1946:1.0 
0.0 0.0019675602072950493 0.0 0.0 2:1.0 3:1.0 4:1.0 993:1.0 
0.0 0.0019675602072950493 0.0 0.0 2:1.0 3:1.0 4:1.0 1267:1.0 
0.051349027657214386 0.004754437133669853 0.0 0.0 3:1.0 4:1.0 33:1.0 1842:1.0 
0.0 0.0019675602072950493 0.0 0.0 2:1.0 3:1.0 4:1.0 1556:1.0 
0.0 0.00196116956158221 0.0 0.0 2:1.0 3:1.0 4:1.0 1949:1.0 
0.05135340749481543 0.004754437133669853 0.0 0.0 3:1.0 4:1.0 33:1.0 1722:1.0 
0.0 0.00196116956158221 0.0 0.0 2:1.0 3:1.0 4:1.0 1950:1.0 
0.020381328993592907 0.0 0.0 0.0 3:1.0 4:1.0 33:1.0 1951:1.0 
0.03125 0.0 0.0 0.0 3:1.0 4:1.0 105:1.0 1121:1.0 
0.0 0.00196116956158221 0.0 0.0 2:1.0 3:1.0 4:1.0 128:1.0 
0.05127612912748791 0.004754437133669853 0.0 0.0 3:1.0 4:1.0 33:1.0 1956:1.0 
0.02008665422833622 0.0 0.0 0.0 3:1.0 4:1.0 33:1.0 1958:1.0 
0.051282628376660644 0.004761483520269394 0.0 0.0 3:1.0 4:1.0 33:1.0 1144:1.0 
0.051532886875444994 0.004761483520269394 0.0 0.0 3:1.0 4:1.0 33:1.0 1145:1.0 
0.0 0.00196116956158221 0.0 0.0 2:1.0 3:1.0 4:1.0 1960:1.0 
0.020074816703936738 0.0 0.0 0.0 3:1.0 4:1.0 33:1.0 1961:1.0 
0.05128987630208304 0.004761483520269394 0.0 0.0 3:1.0 4:1.0 33:1.0 1963:1.0 
0.0 0.00196116956158221 0.0 0.0 2:1.0 3:1.0 4:1.0 1964:1.0 
0.05151080136507985 0.004761483520269394 0.0 0.0 3:1.0 4:1.0 33:1.0 1967:1.0 
0.05161874088240248 0.004761483520269394 0.0 0.0 3:1.0 4:1.0 33:1.0 1971:1.0 
0.0 0.00196116956158221 0.0 0.0 2:1.0 3:1.0 4:1.0 1972:1.0 
0.03125 0.004761483520269394 0.0 0.0 3:1.0 4:1.0 33:1.0 1961:1.0 
0.05128987630208326 0.004761483520269394 0.0 0.0 3:1.0 4:1.0 33:1.0 1974:1.0 
0.05128987630208326 0.004761483520269394 0.0 0.0 3:1.0 4:1.0 33:1.0 1975:1.0 
0.0 0.0019972349400632083 0.0 0.0 2:1.0 3:1.0 4:1.0 1976:1.0 
0.0 0.0019972349400632083 0.0 0.0 2:1.0 3:1.0 4:1.0 1978:1.0 
0.0 0.0019972349400632083 0.0 0.0 2:1.0 3:1.0 4:1.0 1979:1.0 
0.0 0.0019972349400632083 0.0 0.0 2:1.0 3:1.0 4:1.0 901:1.0 
0.03125 0.004761483520269394 0.0 0.0 3:1.0 4:1.0 33:1.0 201:1.0 
0.0 0.0019972349400632083 0.0 0.0 2:1.0 3:1.0 4:1.0 1983:1.0 
0.0 0.0019972349400632083 0.0 0.0 2:1.0 3:1.0 4:1.0 1184:1.0 
0.0 0.0019972349400632083 0.0 0.0 2:1.0 3:1.0 4:1.0 551:1.0 
0.0 0.0019972349400632083 0.0 0.0 2:1.0 3:1.0 4:1.0 550:1.0 
0.0 0.001989110868451771 0.0 0.0 2:1.0 3:1.0 4:1.0 1986:1.0 
0.0 0.001989110868451771 0.0 0.0 2:1.0 3:1.0 4:1.0 561:1.0 
0.03125 0.004761483520269394 0.0 0.0 3:1.0 4:1.0 33:1.0 1845:1.0 
0.0 0.001987717644977627 0.0 0.0 2:1.0 3:1.0 4:1.0 1987:1.0 
0.05128987630208326 0.004761483520269394 0.0 0.0 3:1.0 4:1.0 33:1.0 1988:1.0 
0.0 0.001987717644977627 0.0 0.0 2:1.0 3:1.0 4:1.0 1990:1.0 
0.05128987630208326 0.004761483520269394 0.0 0.0 3:1.0 4:1.0 33:1.0 560:1.0 
0.05128987630208326 0.004761483520269394 0.0 0.0 3:1.0 4:1.0 33:1.0 1996:1.0 
0.05128987630208326 0.004761483520269394 0.0 0.0 3:1.0 4:1.0 33:1.0 2003:1.0 
0.0 6.161928176879883E-4 0.0 0.0 2:1.0 3:1.0 4:1.0 2005:1.0 
0.0 0.0019741137100623973 0.0 0.0 2:1.0 3:1.0 4:1.0 2007:1.0 
0.0 0.0019741137100623973 0.0 0.0 2:1.0 3:1.0 4:1.0 2009:1.0 
0.0 0.001984601501850536 0.0 0.0 2:1.0 3:1.0 4:1.0 2010:1.0 
0.0 0.001984601501850536 0.0 0.0 2:1.0 3:1.0 4:1.0 2011:1.0 
0.05128987630208326 0.004761483520269394 0.0 0.0 3:1.0 4:1.0 33:1.0 2013:1.0 
0.0 0.001984601501850536 0.0 0.0 2:1.0 3:1.0 4:1.0 2014:1.0 
0.0 0.001984601501850536 0.0 0.0 2:1.0 3:1.0 4:1.0 2016:1.0 
0.05128987630208326 0.004761483520269394 0.0 0.0 3:1.0 4:1.0 33:1.0 2017:1.0 
0.05128611924522741 0.004762315994518929 0.0 0.0 3:1.0 4:1.0 33:1.0 2018:1.0 
0.0 0.0019932783219784866 0.0 0.0 2:1.0 3:1.0 4:1.0 632:1.0 
0.0 0.002016038534534914 0.0 0.0 2:1.0 3:1.0 4:1.0 2020:1.0 
0.0 0.002016038534534914 0.0 0.0 2:1.0 3:1.0 4:1.0 600:1.0 
0.0 0.002016038534534914 0.0 0.0 2:1.0 3:1.0 4:1.0 2021:1.0 
0.0 0.002016038534534914 0.0 0.0 2:1.0 3:1.0 4:1.0 598:1.0 
0.0 0.002016038534534914 0.0 0.0 2:1.0 3:1.0 4:1.0 599:1.0 
0.0 0.0019968865992827656 0.0 0.0 2:1.0 3:1.0 4:1.0 2022:1.0 
0.0 0.0019830765947881357 0.0 0.0 2:1.0 3:1.0 4:1.0 2023:1.0 
0.0 0.0019830765947881357 0.0 0.0 2:1.0 3:1.0 4:1.0 605:1.0 
0.0 0.00198292049455695 0.0 0.0 2:1.0 3:1.0 4:1.0 606:1.0 
0.0 0.00198292049455695 0.0 0.0 2:1.0 3:1.0 4:1.0 607:1.0 
0.0 0.00198292049455695 0.0 0.0 2:1.0 3:1.0 4:1.0 2024:1.0 
0.0 0.00198292049455695 0.0 0.0 2:1.0 3:1.0 4:1.0 2025:1.0 
0.0 0.00198292049455695 0.0 0.0 2:1.0 3:1.0 4:1.0 612:1.0 
0.0 0.00198292049455695 0.0 0.0 2:1.0 3:1.0 4:1.0 611:1.0 
0.0 0.00198292049455695 0.0 0.0 2:1.0 3:1.0 4:1.0 2026:1.0 
0.0 0.00198292049455695 0.0 0.0 2:1.0 3:1.0 4:1.0 1947:1.0 
4.967997854958828E-4 0.0 0.0 0.0 3:1.0 4:1.0 33:1.0 413:1.0 
0.03125 0.004762315994518929 0.0 0.0 3:1.0 4:1.0 33:1.0 1951:1.0 
0.0 0.0019472837448120117 0.0 0.0 2:1.0 3:1.0 4:1.0 1593:1.0 
0.0 0.0019472837448120117 0.0 0.0 2:1.0 3:1.0 4:1.0 2027:1.0 
0.0 0.0 0.0 0.012955834809186644 2:1.0 3:1.0 602:1.0 888:1.0 
0.0 4.270091919622576E-4 0.0 0.0 2:1.0 3:1.0 4:1.0 1369:1.0 
0.0 0.0019472837448120117 0.0 0.0 2:1.0 3:1.0 4:1.0 686:1.0 
0.0 0.0019472837448120117 0.0 0.0 2:1.0 3:1.0 4:1.0 2029:1.0 
0.0 0.0019472837448120117 0.0 0.0 2:1.0 3:1.0 4:1.0 2030:1.0 
0.0 0.0019472837448120117 0.0 0.0 2:1.0 3:1.0 4:1.0 2031:1.0 
0.051276129127488135 0.004762315994518929 0.0 0.0 3:1.0 4:1.0 33:1.0 2032:1.0 
0.0 0.0019472837448120117 0.0 0.0 2:1.0 3:1.0 4:1.0 2033:1.0 
0.0 0.0019472837448120117 0.0 0.0 2:1.0 3:1.0 4:1.0 2034:1.0 
0.0 0.0019472837448120117 0.0 0.0 2:1.0 3:1.0 4:1.0 1914:1.0 
0.0 0.0019472837448120117 0.0 0.0 2:1.0 3:1.0 4:1.0 1115:1.0 
0.0 0.0 0.0 0.012866022657596288 2:1.0 3:1.0 262:1.0 888:1.0 
0.0 0.0019472837448120117 0.0 0.0 2:1.0 3:1.0 4:1.0 273:1.0 
0.0 0.0019472837448120117 0.0 0.0 2:1.0 3:1.0 4:1.0 232:1.0 
0.0 0.0019472837448120117 0.0 0.0 2:1.0 3:1.0 4:1.0 236:1.0 
0.0 0.0019472837448120117 0.0 0.0 2:1.0 3:1.0 4:1.0 238:1.0 
0.0 0.0019472837448120117 0.0 0.0 2:1.0 3:1.0 4:1.0 244:1.0 
0.0 0.0019472837448120117 0.0 0.0 2:1.0 3:1.0 4:1.0 294:1.0 
0.03125 0.004762315994518929 0.0 0.0 3:1.0 4:1.0 33:1.0 295:1.0 
0.0 0.0019472837448120117 0.0 0.0 2:1.0 3:1.0 4:1.0 2019:1.0 
0.020026129127488135 0.0 0.0 0.0 3:1.0 4:1.0 33:1.0 919:1.0 
0.051292146010570416 0.004762315994518929 0.0 0.0 3:1.0 4:1.0 33:1.0 2041:1.0 
0.0 0.0019472837448120117 0.0 0.0 2:1.0 3:1.0 4:1.0 2042:1.0 
0.0 0.0019472837448120117 0.0 0.0 2:1.0 3:1.0 4:1.0 615:1.0 
0.0 0.0019472837448120117 0.0 0.0 2:1.0 3:1.0 4:1.0 1783:1.0 
0.0 8.141043245970536E-4 0.0 0.0 3:1.0 4:1.0 33:1.0 826:1.0 
0.0 0.0019472837448120117 0.0 0.0 2:1.0 3:1.0 4:1.0 2043:1.0 
0.0 8.788169600093543E-4 0.0 0.0 3:1.0 4:1.0 33:1.0 2045:1.0 
0.0 0.0019472837448120117 0.0 0.0 2:1.0 3:1.0 4:1.0 1367:1.0 
0.0 0.0019472837448120117 0.0 0.0 2:1.0 3:1.0 4:1.0 2047:1.0 
0.0 0.0019472837448120117 0.0 0.0 2:1.0 3:1.0 4:1.0 1802:1.0 
0.0 0.0019472837448120117 0.0 0.0 2:1.0 3:1.0 4:1.0 1787:1.0 
0.051292146010570416 0.004762315994518929 0.0 0.0 3:1.0 4:1.0 33:1.0 892:1.0 
0.05129718619047008 0.004762315994518929 0.0 0.0 3:1.0 4:1.0 33:1.0 2049:1.0 
0.0 0.0019472837448120117 0.0 0.0 2:1.0 3:1.0 4:1.0 2050:1.0 
0.0 0.0019472837448120117 0.0 0.0 2:1.0 3:1.0 4:1.0 2051:1.0 
0.0 0.0019472837448120117 0.0 0.0 2:1.0 3:1.0 4:1.0 2052:1.0 
0.0517578125 0.0047666236721861655 0.0 0.0 3:1.0 4:1.0 33:1.0 2053:1.0 
0.0 0.0019472837448120117 0.0 0.0 2:1.0 3:1.0 4:1.0 159:1.0 
0.0010376687116195882 0.0 0.0 0.0 3:1.0 4:1.0 161:1.0 1089:1.0 
0.0517578125 0.004785066960009354 0.0 0.0 3:1.0 4:1.0 33:1.0 2054:1.0 
0.0048828125 0.0 0.0 0.0 3:1.0 4:1.0 33:1.0 2056:1.0 
0.0 0.0019472837448120117 0.0 0.0 2:1.0 3:1.0 4:1.0 374:1.0 
0.0 5.847461175900737E-4 0.0 0.0 2:1.0 3:1.0 4:1.0 664:1.0 
0.0 0.0019472837448120117 0.0 0.0 2:1.0 3:1.0 4:1.0 1250:1.0 
0.0 0.0019472837448120117 0.0 0.0 2:1.0 3:1.0 4:1.0 2061:1.0 
0.0 0.0019472837448120117 0.0 0.0 2:1.0 3:1.0 4:1.0 2063:1.0 
0.0 0.0019472837448120117 0.0 0.0 2:1.0 3:1.0 4:1.0 2062:1.0 
0.0 0.0019472837448120117 0.0 0.0 2:1.0 3:1.0 4:1.0 2065:1.0 
0.0 0.0019472837448120117 0.0 0.0 2:1.0 3:1.0 4:1.0 2067:1.0 
0.0 0.0019472837448120117 0.0 0.0 2:1.0 3:1.0 4:1.0 1137:1.0 
0.0 0.0019472837448120117 0.0 0.0 2:1.0 3:1.0 4:1.0 2068:1.0 
0.0 0.0019472837448120117 0.0 0.0 2:1.0 3:1.0 4:1.0 1534:1.0 
0.0 0.0019472837448120117 0.0 0.0 2:1.0 3:1.0 4:1.0 419:1.0 
0.0517578125 0.004785066960009354 0.0 0.0 3:1.0 4:1.0 33:1.0 2073:1.0 
0.0 0.0019472837448120117 0.0 0.0 2:1.0 3:1.0 4:1.0 327:1.0 
0.03125 0.004785066960009354 0.0 0.0 3:1.0 4:1.0 33:1.0 1443:1.0 
0.0 6.161928176879883E-4 0.0 0.0 2:1.0 3:1.0 4:1.0 1113:1.0 
0.0 0.0019472837448120117 0.0 0.0 2:1.0 3:1.0 4:1.0 2080:1.0 
0.0517578125 0.004557335011495356 0.0 0.0 3:1.0 4:1.0 33:1.0 2081:1.0 
0.0 0.0019472837448120117 0.0 0.0 2:1.0 3:1.0 4:1.0 997:1.0 
0.0048828125 0.0 0.0 0.0 3:1.0 4:1.0 33:1.0 1096:1.0 
0.0 0.0019472837448120117 0.0 0.0 2:1.0 3:1.0 4:1.0 414:1.0 
0.0 0.0019472837448120117 0.0 0.0 2:1.0 3:1.0 4:1.0 797:1.0 
0.03125 0.0 0.0 0.0 3:1.0 4:1.0 105:1.0 800:1.0 
0.0 0.0019472837448120117 0.0 0.0 2:1.0 3:1.0 4:1.0 140:1.0 
0.0 0.0019472837448120117 0.0 0.0 2:1.0 3:1.0 4:1.0 2096:1.0 
0.0 0.0019472837448120117 0.0 0.0 2:1.0 3:1.0 4:1.0 810:1.0 
0.0 0.0019472837448120117 0.0 0.0 2:1.0 3:1.0 4:1.0 812:1.0 
0.0 0.0019472837448120117 0.0 0.0 2:1.0 3:1.0 4:1.0 2099:1.0 
0.0 0.0019472837448120117 0.0 0.0 2:1.0 3:1.0 4:1.0 1417:1.0 
0.0 0.0019472837448120117 0.0 0.0 2:1.0 3:1.0 4:1.0 2100:1.0 
0.0 0.0019472837448120117 0.0 0.0 2:1.0 3:1.0 4:1.0 431:1.0 
0.0 0.0019472837448120117 0.0 0.0 2:1.0 3:1.0 4:1.0 816:1.0 
0.0 0.0019472837448120117 0.0 0.0 2:1.0 3:1.0 4:1.0 100:1.0 
0.0 0.0019472837448120117 0.0 0.0 2:1.0 3:1.0 4:1.0 102:1.0 
0.0517578125 0.00457117788027972 0.0 0.0 3:1.0 4:1.0 33:1.0 2101:1.0 
0.0517578125 0.00457117788027972 0.0 0.0 3:1.0 4:1.0 33:1.0 2102:1.0 
0.0 0.0019472837448120117 0.0 0.0 2:1.0 3:1.0 4:1.0 130:1.0 
0.0 0.0019472837448120117 0.0 0.0 2:1.0 3:1.0 4:1.0 1737:1.0 
0.0 0.0019472837448120117 0.0 0.0 2:1.0 3:1.0 4:1.0 2104:1.0 
0.0048828125 0.0 0.0 0.0 3:1.0 4:1.0 33:1.0 2105:1.0 
0.0 0.0019472837448120117 0.0 0.0 2:1.0 3:1.0 4:1.0 868:1.0 
0.0 0.0019472837448120117 0.0 0.0 2:1.0 3:1.0 4:1.0 171:1.0 
0.03125 0.004575447845324598 0.0 0.0 3:1.0 4:1.0 33:1.0 1302:1.0 
0.0 0.0019472837448120117 0.0 0.0 2:1.0 3:1.0 4:1.0 2108:1.0 
0.0 0.0019472837448120117 0.0 0.0 2:1.0 3:1.0 4:1.0 2109:1.0 
0.0 0.0019472837448120117 0.0 0.0 2:1.0 3:1.0 4:1.0 2111:1.0 
0.0 0.0019472837448120117 0.0 0.0 2:1.0 3:1.0 4:1.0 2112:1.0 
0.0 0.0019472837448120117 0.0 0.0 2:1.0 3:1.0 4:1.0 2113:1.0 
0.0517578125 0.004575447845324598 0.0 0.0 3:1.0 4:1.0 33:1.0 2114:1.0 
0.051739398009031934 0.004575447845324598 0.0 0.0 3:1.0 4:1.0 33:1.0 2116:1.0 
0.0 0.0019472837448120117 0.0 0.0 2:1.0 3:1.0 4:1.0 1323:1.0 
0.051739398009031934 0.004575447845324598 0.0 0.0 3:1.0 4:1.0 33:1.0 675:1.0 
0.0 0.0019472837448120117 0.0 0.0 2:1.0 3:1.0 4:1.0 2117:1.0 
0.0 0.0019472837448120117 0.0 0.0 2:1.0 3:1.0 4:1.0 2118:1.0 
0.0 0.0019472837448120117 0.0 0.0 2:1.0 3:1.0 4:1.0 2119:1.0 
0.0 0.0019472837448120117 0.0 0.0 2:1.0 3:1.0 4:1.0 1156:1.0 
0.0 0.0019472837448120117 0.0 0.0 2:1.0 3:1.0 4:1.0 2121:1.0 
0.0 0.0019472837448120117 0.0 0.0 2:1.0 3:1.0 4:1.0 173:1.0 
0.0 0.0019472837448120117 0.0 0.0 2:1.0 3:1.0 4:1.0 815:1.0 
0.0 0.0019472837448120117 0.0 0.0 2:1.0 3:1.0 4:1.0 492:1.0 
0.03125 0.004575957825124988 0.0 0.0 3:1.0 4:1.0 33:1.0 493:1.0 
0.0 0.0019472837448120117 0.0 0.0 2:1.0 3:1.0 4:1.0 494:1.0 
0.0 0.0019472837448120117 0.0 0.0 2:1.0 3:1.0 4:1.0 495:1.0 
0.0 0.0019472837448120117 0.0 0.0 2:1.0 3:1.0 4:1.0 401:1.0 
0.0 0.0019472837448120117 0.0 0.0 2:1.0 3:1.0 4:1.0 2123:1.0 
0.0 0.0019472837448120117 0.0 0.0 2:1.0 3:1.0 4:1.0 172:1.0 
0.03125 0.004566747231994128 0.0 0.0 3:1.0 4:1.0 33:1.0 1157:1.0 
0.051739398009031934 0.00457763671875 0.0 0.0 3:1.0 4:1.0 33:1.0 1158:1.0 
0.0 0.0019472837448120117 0.0 0.0 2:1.0 3:1.0 4:1.0 2124:1.0 
0.0 0.0019472837448120117 0.0 0.0 2:1.0 3:1.0 4:1.0 2126:1.0 
0.0 0.0019472837448120117 0.0 0.0 2:1.0 3:1.0 4:1.0 2127:1.0 
0.0 0.0019472837448120117 0.0 0.0 2:1.0 3:1.0 4:1.0 1968:1.0 
0.0 0.0019472837448120117 0.0 0.0 2:1.0 3:1.0 4:1.0 484:1.0 
0.051739398009031934 0.00457763671875 0.0 0.0 3:1.0 4:1.0 33:1.0 2128:1.0 
0.051720742362190375 0.00457763671875 0.0 0.0 3:1.0 4:1.0 33:1.0 2129:1.0 
0.0 0.0019472837448120117 0.0 0.0 2:1.0 3:1.0 4:1.0 2130:1.0 
0.0 0.0019472837448120117 0.0 0.0 2:1.0 3:1.0 4:1.0 2131:1.0 
0.0 0.0019472837448120117 0.0 0.0 2:1.0 3:1.0 4:1.0 1167:1.0 
0.0 0.0019472837448120117 0.0 0.0 2:1.0 3:1.0 4:1.0 2133:1.0 
0.0 0.0019513284448569035 0.0 0.0 2:1.0 3:1.0 4:1.0 2134:1.0 
0.0 0.0018705553828099464 0.0 0.0 2:1.0 3:1.0 4:1.0 2135:1.0 
0.0 0.0019472837448120117 0.0 0.0 2:1.0 3:1.0 4:1.0 2137:1.0 
0.0 0.0019472837448120117 0.0 0.0 2:1.0 3:1.0 4:1.0 2138:1.0 
0.0 0.0019472837448120117 0.0 0.0 2:1.0 3:1.0 4:1.0 2139:1.0 
0.0 0.0019472837448120117 0.0 0.0 2:1.0 3:1.0 4:1.0 2140:1.0 
0.0 0.0019472837448120117 0.0 0.0 2:1.0 3:1.0 4:1.0 2141:1.0 
0.03125 0.00457763671875 0.0 0.0 3:1.0 4:1.0 33:1.0 460:1.0 
0.0 0.0019472837448120117 0.0 0.0 2:1.0 3:1.0 4:1.0 2145:1.0 
0.0 0.0019472837448120117 0.0 0.0 2:1.0 3:1.0 4:1.0 2146:1.0 
0.0 0.0019472837448120117 0.0 0.0 2:1.0 3:1.0 4:1.0 834:1.0 
0.0 0.0019472837448120117 0.0 0.0 2:1.0 3:1.0 4:1.0 2149:1.0 
0.0 0.0019472837448120117 0.0 0.0 2:1.0 3:1.0 4:1.0 836:1.0 
0.0 0.0019472837448120117 0.0 0.0 2:1.0 3:1.0 4:1.0 2152:1.0 
0.0 0.0019472837448120117 0.0 0.0 2:1.0 3:1.0 4:1.0 540:1.0 
0.0 0.0019472837448120117 0.0 0.0 2:1.0 3:1.0 4:1.0 2154:1.0 
0.0 0.0019472837448120117 0.0 0.0 2:1.0 3:1.0 4:1.0 2157:1.0 
0.0 0.0019472837448120117 0.0 0.0 2:1.0 3:1.0 4:1.0 2158:1.0 
0.051720742362190375 0.00457763671875 0.0 0.0 3:1.0 4:1.0 33:1.0 2159:1.0 
0.0 0.0019472837448120117 0.0 0.0 2:1.0 3:1.0 4:1.0 520:1.0 
0.0 0.0019472837448120117 0.0 0.0 2:1.0 3:1.0 4:1.0 2161:1.0 
0.0 0.0019472837448120117 0.0 0.0 2:1.0 3:1.0 4:1.0 189:1.0 
0.03125 0.00457763671875 0.0 0.0 3:1.0 4:1.0 33:1.0 190:1.0 
0.0 0.0019472837448120117 0.0 0.0 2:1.0 3:1.0 4:1.0 191:1.0 
0.0 0.0019472837448120117 0.0 0.0 2:1.0 3:1.0 4:1.0 503:1.0 
0.0 0.0019472837448120117 0.0 0.0 2:1.0 3:1.0 4:1.0 2163:1.0 
0.0 0.0019472837448120117 0.0 0.0 2:1.0 3:1.0 4:1.0 847:1.0 
0.0 0.0019472837448120117 0.0 0.0 2:1.0 3:1.0 4:1.0 2165:1.0 
0.0 0.0019472837448120117 0.0 0.0 2:1.0 3:1.0 4:1.0 581:1.0 
0.0 0.0019472837448120117 0.0 0.0 2:1.0 3:1.0 4:1.0 850:1.0 
0.0 0.0019472837448120117 0.0 0.0 2:1.0 3:1.0 4:1.0 827:1.0 
0.0 0.0019472837448120117 0.0 0.0 2:1.0 3:1.0 4:1.0 2166:1.0 
0.0 0.0019635877706605243 0.0 0.0 2:1.0 3:1.0 4:1.0 2167:1.0 
0.0 0.0019635877706605243 0.0 0.0 2:1.0 3:1.0 4:1.0 2168:1.0 
0.051717669466727845 0.00457763671875 0.0 0.0 3:1.0 4:1.0 33:1.0 2169:1.0 
0.0 0.0019635877706605243 0.0 0.0 2:1.0 3:1.0 4:1.0 701:1.0 
0.05171743348686819 0.00457763671875 0.0 0.0 3:1.0 4:1.0 33:1.0 222:1.0 
0.03125 0.004627837180805727 0.0 0.0 3:1.0 4:1.0 33:1.0 564:1.0 
0.0 0.0019635877706605243 0.0 0.0 2:1.0 3:1.0 4:1.0 566:1.0 
0.0 0.0019635877706605243 0.0 0.0 2:1.0 3:1.0 4:1.0 1332:1.0 
0.0 0.0019635877706605243 0.0 0.0 2:1.0 3:1.0 4:1.0 1567:1.0 
0.0 0.0019635877706605243 0.0 0.0 2:1.0 3:1.0 4:1.0 1648:1.0 
0.0 0.0019787304449097043 0.0 0.0 2:1.0 3:1.0 4:1.0 1569:1.0 
0.0 0.0019892806479062664 0.0 0.0 2:1.0 3:1.0 4:1.0 2172:1.0 
0.0 0.0019892806479062664 0.0 0.0 2:1.0 3:1.0 4:1.0 163:1.0 
0.0 0.0019892806479062664 0.0 0.0 2:1.0 3:1.0 4:1.0 567:1.0 
0.03125 0.004627837180805727 0.0 0.0 3:1.0 4:1.0 33:1.0 562:1.0 
0.0 0.0019892806479062664 0.0 0.0 2:1.0 3:1.0 4:1.0 563:1.0 
0.0 0.0019893838732247815 0.0 0.0 2:1.0 3:1.0 4:1.0 1334:1.0 
0.05171743348686819 0.004627837180805727 0.0 0.0 3:1.0 4:1.0 33:1.0 217:1.0 
0.0 0.0019893838732247815 0.0 0.0 2:1.0 3:1.0 4:1.0 982:1.0 
0.0 0.0019893838732247815 0.0 0.0 2:1.0 3:1.0 4:1.0 2175:1.0 
0.0 0.0019893838732247815 0.0 0.0 2:1.0 3:1.0 4:1.0 2176:1.0 
0.002486971195547749 0.0 0.0 0.0 3:1.0 4:1.0 105:1.0 1035:1.0 
0.0 0.0019893838732247815 0.0 0.0 2:1.0 3:1.0 4:1.0 865:1.0 
0.0 5.740926892752185E-4 0.0 0.0 2:1.0 3:1.0 4:1.0 399:1.0 
0.05153288687544477 0.0 0.0 0.0 3:1.0 4:1.0 33:1.0 1871:1.0 
0.0 0.002016038534534914 0.0 0.0 2:1.0 3:1.0 4:1.0 2179:1.0 
0.0 0.002016038534534914 0.0 0.0 2:1.0 3:1.0 4:1.0 2180:1.0 
0.0 0.002016038534534914 0.0 0.0 2:1.0 3:1.0 4:1.0 590:1.0 
0.0 0.002016038534534914 0.0 0.0 2:1.0 3:1.0 4:1.0 869:1.0 
0.0 5.740926892752185E-4 0.0 0.0 2:1.0 3:1.0 4:1.0 228:1.0 
0.0 0.002016038534534914 0.0 0.0 2:1.0 3:1.0 4:1.0 871:1.0 
0.0 0.002016038534534914 0.0 0.0 2:1.0 3:1.0 4:1.0 434:1.0 
0.0 0.0019972349400632083 0.0 0.0 2:1.0 3:1.0 4:1.0 875:1.0 
0.0 0.0019972349400632083 0.0 0.0 2:1.0 3:1.0 4:1.0 303:1.0 
0.0 0.0019972349400632083 0.0 0.0 2:1.0 3:1.0 4:1.0 878:1.0 
0.03125 0.004627837180805727 0.0 0.0 3:1.0 4:1.0 33:1.0 297:1.0 
0.0 0.0019972349400632083 0.0 0.0 2:1.0 3:1.0 4:1.0 299:1.0 
0.0 0.0019972349400632083 0.0 0.0 2:1.0 3:1.0 4:1.0 880:1.0 
0.0 0.0019972349400632083 0.0 0.0 2:1.0 3:1.0 4:1.0 670:1.0 
0.0 0.0019972349400632083 0.0 0.0 2:1.0 3:1.0 4:1.0 671:1.0 
0.0 0.0019675602072946052 0.0 0.0 2:1.0 3:1.0 4:1.0 879:1.0 
0.0 0.0019675602072946052 0.0 0.0 2:1.0 3:1.0 4:1.0 881:1.0 
0.0 0.0019901298236395526 0.0 0.0 2:1.0 3:1.0 4:1.0 882:1.0 
0.0 0.0019806865871703216 0.0 0.0 2:1.0 3:1.0 4:1.0 883:1.0 
0.0 0.0019806865871703216 0.0 0.0 2:1.0 3:1.0 4:1.0 22:1.0 
0.0 0.0019806865871703216 0.0 0.0 2:1.0 3:1.0 4:1.0 884:1.0 
0.03125 0.004627837180805727 0.0 0.0 3:1.0 4:1.0 33:1.0 682:1.0 
0.0 0.0019912185680368566 0.0 0.0 2:1.0 3:1.0 4:1.0 885:1.0 
0.0 0.0019912185680368566 0.0 0.0 2:1.0 3:1.0 4:1.0 313:1.0 
0.0 0.0019912185680368566 0.0 0.0 2:1.0 3:1.0 4:1.0 293:1.0 
0.0 0.0019912185680368566 0.0 0.0 2:1.0 3:1.0 4:1.0 2181:1.0 
0.0 0.0019912185680368566 0.0 0.0 2:1.0 3:1.0 4:1.0 2182:1.0 
0.03373697119554775 0.0 0.0 0.0 3:1.0 4:1.0 105:1.0 2183:1.0 
0.0 0.0019912185680368566 0.0 0.0 2:1.0 3:1.0 4:1.0 1594:1.0 
0.0 0.0019203135744993993 0.0 0.0 2:1.0 3:1.0 4:1.0 307:1.0 
0.0 8.368552900874793E-4 0.0 0.0 3:1.0 4:1.0 33:1.0 310:1.0 
0.03125 0.004627837180805727 0.0 0.0 3:1.0 4:1.0 33:1.0 311:1.0 
0.0 0.0019203135744993993 0.0 0.0 2:1.0 3:1.0 4:1.0 895:1.0 
0.0 0.0016644250481476774 0.0 0.0 2:1.0 3:1.0 4:1.0 896:1.0 
0.0 0.0016644250481476774 0.0 0.0 2:1.0 3:1.0 4:1.0 899:1.0 
0.0 0.0016740703253217415 0.0 0.0 2:1.0 3:1.0 4:1.0 124:1.0 
0.0 9.765625E-4 0.0 0.0 3:1.0 4:1.0 33:1.0 125:1.0 
0.0 0.0016814472076147613 0.0 0.0 2:1.0 3:1.0 4:1.0 126:1.0 
0.0 0.0016814472076147613 0.0 0.0 2:1.0 3:1.0 4:1.0 1305:1.0 
0.05165756723577397 0.004627837180805727 0.0 0.0 3:1.0 4:1.0 33:1.0 1991:1.0 
0.051733173542378996 0.004627837180805727 0.0 0.0 3:1.0 4:1.0 33:1.0 1429:1.0 
0.0 0.0017053820192813873 0.0 0.0 2:1.0 3:1.0 4:1.0 13:1.0 
0.04521382903893634 0.00450452742330254 0.0 0.0 3:1.0 4:1.0 33:1.0 1388:1.0 
1000.0 4.8828125E-4 0.0 0.0 3:1.0 4:1.0 33:1.0 2028:1.0 
0.0 0.0017053820192813873 0.0 0.0 2:1.0 3:1.0 4:1.0 2188:1.0 
0.0 0.0017053820192813873 0.0 0.0 2:1.0 3:1.0 4:1.0 139:1.0 
0.0 0.0017053820192813873 0.0 0.0 2:1.0 3:1.0 4:1.0 2191:1.0 
0.03401992939136633 0.0 0.0 0.0 3:1.0 4:1.0 105:1.0 910:1.0 
0.0 0.0017053820192813873 0.0 0.0 2:1.0 3:1.0 4:1.0 2192:1.0 
0.0 0.0017053820192816094 0.0 0.0 2:1.0 3:1.0 4:1.0 167:1.0 
0.004368963640675655 0.0 0.0 0.0 3:1.0 4:1.0 33:1.0 2193:1.0 
0.0 0.0017053820192816094 0.0 0.0 2:1.0 3:1.0 4:1.0 921:1.0 
0.0 0.0017614545355086886 0.0 0.0 2:1.0 3:1.0 4:1.0 920:1.0 
0.0 0.0019834899545566054 0.0 0.0 2:1.0 3:1.0 4:1.0 348:1.0 
0.0 0.0017755297012627125 0.0 0.0 2:1.0 3:1.0 4:1.0 328:1.0 
0.04547324866695024 0.004617295719151926 0.0 0.0 3:1.0 4:1.0 33:1.0 931:1.0 
0.0 5.741959145932896E-4 0.0 0.0 2:1.0 3:1.0 4:1.0 446:1.0 
0.0 0.0017755297012627125 0.0 0.0 2:1.0 3:1.0 4:1.0 265:1.0 
0.03401992939136633 0.0 0.0 0.0 3:1.0 4:1.0 105:1.0 2197:1.0 
2.4219329792762867E-4 0.0 0.0 0.0 3:1.0 4:1.0 105:1.0 2199:1.0 
0.051687028672960045 0.004620563636251518 0.0 0.0 3:1.0 4:1.0 33:1.0 145:1.0 
0.0 0.0017755297012627125 0.0 0.0 2:1.0 3:1.0 4:1.0 146:1.0 
0.0 0.0017755297012627125 0.0 0.0 2:1.0 3:1.0 4:1.0 1395:1.0 
0.0 0.0017755297012627125 0.0 0.0 2:1.0 3:1.0 4:1.0 2201:1.0 
0.05170516222067234 0.004620563636251518 0.0 0.0 3:1.0 4:1.0 33:1.0 2202:1.0 
0.0 0.0017755297012627125 0.0 0.0 2:1.0 3:1.0 4:1.0 817:1.0 
0.0 0.0017755297012627125 0.0 0.0 2:1.0 3:1.0 4:1.0 425:1.0 
0.0 0.0017755297012627125 0.0 0.0 2:1.0 3:1.0 4:1.0 818:1.0 
0.05169476687529184 0.004620563636251518 0.0 0.0 3:1.0 4:1.0 33:1.0 2203:1.0 
0.0 0.0017755297012627125 0.0 0.0 2:1.0 3:1.0 4:1.0 1382:1.0 
0.0 0.0017755297012627125 0.0 0.0 2:1.0 3:1.0 4:1.0 1944:1.0 
0.0056348354345038265 0.0 0.0 0.0 3:1.0 4:1.0 785:1.0 1000:1.0 
0.0 3.786202768765179E-4 0.0 0.0 3:1.0 4:1.0 33:1.0 113:1.0 
0.03391671105971694 0.0 0.0 0.0 3:1.0 4:1.0 105:1.0 2208:1.0 
0.0 0.0017755297012627125 0.0 0.0 2:1.0 3:1.0 4:1.0 750:1.0 
0.0 0.0017755297012627125 0.0 0.0 2:1.0 3:1.0 4:1.0 992:1.0 
0.0 0.0017755297012627125 0.0 0.0 2:1.0 3:1.0 4:1.0 168:1.0 
0.0 0.00179154032423412 0.0 0.0 2:1.0 3:1.0 4:1.0 792:1.0 
0.033887352237383705 0.0 0.0 0.0 3:1.0 4:1.0 105:1.0 2211:1.0 
0.0 0.00179154032423412 0.0 0.0 2:1.0 3:1.0 4:1.0 999:1.0 
0.0 0.00179154032423412 0.0 0.0 2:1.0 3:1.0 4:1.0 133:1.0 
0.033819792212435806 0.0 0.0 0.0 3:1.0 4:1.0 105:1.0 2214:1.0 
0.0 0.00179154032423412 0.0 0.0 2:1.0 3:1.0 4:1.0 1001:1.0 
0.004812452295132719 0.0 0.0 0.0 3:1.0 4:1.0 33:1.0 2229:1.0 
0.0 0.0017955922085093334 0.0 0.0 2:1.0 3:1.0 4:1.0 2233:1.0 
0.0038652110982824173 0.0 0.0 0.0 3:1.0 4:1.0 105:1.0 2234:1.0 
0.0 0.0017955922085093334 0.0 0.0 2:1.0 3:1.0 4:1.0 1793:1.0 
0.0 0.0017955922085093334 0.0 0.0 2:1.0 3:1.0 4:1.0 2242:1.0 
0.004812028672960045 0.0 0.0 0.0 3:1.0 4:1.0 33:1.0 2246:1.0 
0.004812028672960045 0.0 0.0 0.0 3:1.0 4:1.0 33:1.0 2247:1.0 
0.004812028672960045 0.0 0.0 0.0 3:1.0 4:1.0 33:1.0 2248:1.0 
0.051687028672960045 0.004620563636251518 0.0 0.0 3:1.0 4:1.0 33:1.0 442:1.0 
0.0 0.0017955922085093334 0.0 0.0 2:1.0 3:1.0 4:1.0 2241:1.0 
0.004812028672960045 0.0 0.0 0.0 3:1.0 4:1.0 33:1.0 2253:1.0 
0.004812028672960045 0.0 0.0 0.0 3:1.0 4:1.0 33:1.0 2254:1.0 
0.004812028672960045 0.0 0.0 0.0 3:1.0 4:1.0 33:1.0 2255:1.0 
0.004812028672960045 0.0 0.0 0.0 3:1.0 4:1.0 33:1.0 2256:1.0 
0.0 3.786202768765179E-4 0.0 0.0 3:1.0 4:1.0 33:1.0 2261:1.0 
0.0 0.0017955922085093334 0.0 0.0 2:1.0 3:1.0 4:1.0 491:1.0 
0.004806624518500113 0.0 0.0 0.0 3:1.0 4:1.0 33:1.0 2262:1.0 
0.03374818559944659 0.0 0.0 0.0 3:1.0 4:1.0 105:1.0 2267:1.0 
0.05168162451850011 0.004620563636251518 0.0 0.0 3:1.0 4:1.0 33:1.0 1299:1.0 
0.05168162451850011 0.004620563636251518 0.0 0.0 3:1.0 4:1.0 33:1.0 2268:1.0 
0.004804578515163582 0.0 0.0 0.0 3:1.0 4:1.0 33:1.0 2269:1.0 
0.0 6.161928176879883E-4 0.0 0.0 2:1.0 3:1.0 4:1.0 2271:1.0 
0.004792581264743356 0.0 0.0 0.0 3:1.0 4:1.0 33:1.0 2274:1.0 
0.0 0.0 1000.0 0.0 3:1.0 50:1.0 79:1.0 888:1.0 
0.0 0.0 0.082708128807298 0.0 3:1.0 33:1.0 888:1.0 2278:1.0 
0.0 0.0 2.062357478139181 0.0 2:1.0 4:1.0 71:1.0 889:1.0 
0.05166332257157591 0.004629529781100539 0.0 0.0 3:1.0 4:1.0 33:1.0 2279:1.0 
0.0 0.0017955922085093334 0.0 0.0 2:1.0 3:1.0 4:1.0 2281:1.0 
0.05166332257157591 0.004629529781100539 0.0 0.0 3:1.0 4:1.0 33:1.0 2284:1.0 
0.004784196838507615 0.0 0.0 0.0 3:1.0 4:1.0 33:1.0 2286:1.0 
0.0 0.001845568027644573 0.0 0.0 2:1.0 3:1.0 4:1.0 2291:1.0 
0.004784196838507615 0.0 0.0 0.0 3:1.0 4:1.0 33:1.0 2293:1.0 
0.05165705627880657 0.004629529781100539 0.0 0.0 3:1.0 4:1.0 33:1.0 2294:1.0 
0.0 8.368552900874793E-4 0.0 0.0 3:1.0 4:1.0 33:1.0 867:1.0 
0.0 0.0020673007970799517 0.0 0.0 2:1.0 3:1.0 4:1.0 12:1.0 
0.0 0.0020673007970799517 0.0 0.0 2:1.0 3:1.0 4:1.0 2297:1.0 
0.004771162471258306 0.0 0.0 0.0 3:1.0 4:1.0 33:1.0 2278:1.0 
0.004769591767522341 0.0 0.0 0.0 3:1.0 4:1.0 33:1.0 2299:1.0 
0.004769591767522341 0.0 0.0 0.0 3:1.0 4:1.0 33:1.0 2300:1.0 
0.004769248338308385 0.0 0.0 0.0 3:1.0 4:1.0 33:1.0 2302:1.0 
0.014600612499095833 8.368552900874793E-4 0.0 0.0 3:1.0 4:1.0 33:1.0 2303:1.0 
0.00476837158203125 0.0 0.0 0.0 3:1.0 4:1.0 33:1.0 420:1.0 
0.03370174790585789 0.0 0.0 0.0 3:1.0 4:1.0 105:1.0 2304:1.0 
0.03370136229691745 0.0 0.0 0.0 3:1.0 4:1.0 105:1.0 2307:1.0 
0.0 0.0020673007970799517 0.0 0.0 2:1.0 3:1.0 4:1.0 2309:1.0 
0.03357362972037792 0.0 0.0 0.0 3:1.0 4:1.0 105:1.0 1103:1.0 
0.05164337158203125 0.004629529781100539 0.0 0.0 3:1.0 4:1.0 33:1.0 2310:1.0 
0.046875 0.004629529781100539 0.0 0.0 3:1.0 4:1.0 33:1.0 2193:1.0 
0.0037946944367936997 0.0 0.0 0.0 3:1.0 4:1.0 105:1.0 2311:1.0 
0.0 9.765625E-4 0.0 0.0 3:1.0 4:1.0 33:1.0 1048:1.0 
0.0 0.0021155920984072263 0.0 0.0 2:1.0 3:1.0 4:1.0 2313:1.0 
0.004765930966573073 9.765625E-4 0.0 0.0 3:1.0 4:1.0 33:1.0 94:1.0 
0.0 9.765625E-4 0.0 0.0 3:1.0 4:1.0 33:1.0 2315:1.0 
0.0 0.0021381378173828125 0.0 0.0 2:1.0 3:1.0 4:1.0 2287:1.0 
0.004765930966573073 0.0 0.0 0.0 3:1.0 4:1.0 33:1.0 2319:1.0 
0.004764725201515274 0.0 0.0 0.0 3:1.0 4:1.0 33:1.0 2320:1.0 
0.004764725201515274 0.0 0.0 0.0 3:1.0 4:1.0 33:1.0 2321:1.0 
0.0047607421875 0.0 0.0 0.0 3:1.0 4:1.0 33:1.0 2323:1.0 
0.0 0.0021381378173828125 0.0 0.0 2:1.0 3:1.0 4:1.0 2325:1.0 
0.0047607421875 0.0 0.0 0.0 3:1.0 4:1.0 33:1.0 2326:1.0 
0.0047607421875 0.0 0.0 0.0 3:1.0 4:1.0 33:1.0 2328:1.0 
0.0047607421875 0.0 0.0 0.0 3:1.0 4:1.0 33:1.0 2330:1.0 
0.004755757626685453 0.0 0.0 0.0 3:1.0 4:1.0 33:1.0 2331:1.0 
0.03357362972037792 0.0 0.0 0.0 3:1.0 4:1.0 105:1.0 2334:1.0 
0.03125 0.0 0.0 0.0 3:1.0 4:1.0 105:1.0 1246:1.0 
0.0 0.0021381378173828125 0.0 0.0 2:1.0 3:1.0 4:1.0 2338:1.0 
0.03354547756784809 0.0 0.0 0.0 3:1.0 4:1.0 105:1.0 2341:1.0 
0.0 6.202375177331021E-4 0.0 0.0 2:1.0 3:1.0 4:1.0 48:1.0 
0.0 0.0021381378173828125 0.0 0.0 2:1.0 3:1.0 4:1.0 2345:1.0 
0.004745228032908111 0.0 0.0 0.0 3:1.0 4:1.0 33:1.0 2348:1.0 
0.0 6.523990274327485E-4 0.0 0.0 2:1.0 3:1.0 4:1.0 2103:1.0 
0.004743740882402259 0.0 0.0 0.0 3:1.0 4:1.0 33:1.0 2352:1.0 
0.004743740882402259 0.0 0.0 0.0 3:1.0 4:1.0 33:1.0 2357:1.0 
0.0 0.0021381378173828125 0.0 0.0 2:1.0 3:1.0 4:1.0 2358:1.0 
0.004743740882402259 8.402867150900661E-4 0.0 0.0 3:1.0 4:1.0 33:1.0 2360:1.0 
0.05161282267546996 0.004629529781100539 0.0 0.0 3:1.0 4:1.0 33:1.0 2362:1.0 
0.0 0.0021381378173828125 0.0 0.0 2:1.0 3:1.0 4:1.0 2363:1.0 
0.046875 0.004629529781100539 0.0 0.0 3:1.0 4:1.0 33:1.0 261:1.0 
0.05161282267546996 0.004557335011495392 0.0 0.0 3:1.0 4:1.0 33:1.0 2364:1.0 
0.0 0.0 0.16952898005983064 0.0 61:1.0 62:1.0 1655:1.0 1656:1.0 
0.0 0.0021381378173828125 0.0 0.0 2:1.0 3:1.0 4:1.0 2366:1.0 
1000.0 0.0 0.0 0.0 3:1.0 4:1.0 33:1.0 2277:1.0 
1000.0 0.0 0.0 0.0 3:1.0 4:1.0 33:1.0 2277:1.0 
0.0 0.0021381378173828125 0.0 0.0 2:1.0 3:1.0 4:1.0 2367:1.0 
0.0 0.0021381378173828125 0.0 0.0 2:1.0 3:1.0 4:1.0 2368:1.0 
0.0 0.0021381378173828125 0.0 0.0 2:1.0 3:1.0 4:1.0 2369:1.0 
0.004733036318467221 0.0 0.0 0.0 3:1.0 4:1.0 33:1.0 2370:1.0 
0.0022150813122699953 0.0 0.0 0.0 3:1.0 4:1.0 105:1.0 2373:1.0 
0.0 0.0021381378173828125 0.0 0.0 2:1.0 3:1.0 4:1.0 2375:1.0 
0.0 0.0021381378173828125 0.0 0.0 2:1.0 3:1.0 4:1.0 2376:1.0 
0.0 0.0021381378173828125 0.0 0.0 2:1.0 3:1.0 4:1.0 2377:1.0 
0.05159559659981339 0.004365785854453463 0.0 0.0 3:1.0 4:1.0 33:1.0 2378:1.0 
0.004788322571576131 0.0 0.0 0.0 3:1.0 4:1.0 33:1.0 2379:1.0 
0.0 0.0021381378173828125 0.0 0.0 2:1.0 3:1.0 4:1.0 2322:1.0 
0.0 0.0021381378173828125 0.0 0.0 2:1.0 3:1.0 4:1.0 2324:1.0 
0.0 0.0011096795035554496 0.0 0.0 3:1.0 4:1.0 33:1.0 2326:1.0 
0.004743740882402481 0.0 0.0 0.0 3:1.0 4:1.0 33:1.0 2382:1.0 
0.0 0.0021381378173828125 0.0 0.0 2:1.0 3:1.0 4:1.0 2383:1.0 
0.0 0.0021381378173828125 0.0 0.0 2:1.0 3:1.0 4:1.0 63:1.0 
0.033465081312269995 0.0 0.0 0.0 3:1.0 4:1.0 105:1.0 2387:1.0 
0.0 0.0021381378173828125 0.0 0.0 2:1.0 3:1.0 4:1.0 2388:1.0 
0.004769591767522119 0.0 0.0 0.0 3:1.0 4:1.0 33:1.0 2389:1.0 
0.0 0.0021381378173828125 0.0 0.0 2:1.0 3:1.0 4:1.0 2327:1.0 
0.03346011785816161 0.0 0.0 0.0 3:1.0 4:1.0 105:1.0 2391:1.0 
0.0 0.0021381378173828125 0.0 0.0 2:1.0 3:1.0 4:1.0 2332:1.0 
0.0 0.0021381378173828125 0.0 0.0 2:1.0 3:1.0 4:1.0 2333:1.0 
0.051352398708637614 0.004365785854453463 0.0 0.0 3:1.0 4:1.0 33:1.0 2392:1.0 
0.0 0.0021381378173828125 0.0 0.0 2:1.0 3:1.0 4:1.0 2393:1.0 
0.0 0.0021381378173828125 0.0 0.0 2:1.0 3:1.0 4:1.0 2394:1.0 
0.0 0.0021381378173828125 0.0 0.0 2:1.0 3:1.0 4:1.0 2396:1.0 
0.0 0.0021381378173828125 0.0 0.0 2:1.0 3:1.0 4:1.0 2397:1.0 
0.0 0.0021381378173828125 0.0 0.0 2:1.0 3:1.0 4:1.0 2386:1.0 
0.05128987630208304 0.004433738706211443 0.0 0.0 3:1.0 4:1.0 33:1.0 2401:1.0 
0.0 0.0021381378173828125 0.0 0.0 2:1.0 3:1.0 4:1.0 2404:1.0 
0.05128987630208304 0.004713545568799549 0.0 0.0 3:1.0 4:1.0 33:1.0 2406:1.0 
0.004414876302083037 9.765625E-4 0.0 0.0 3:1.0 4:1.0 33:1.0 2410:1.0 
0.0 0.0019830765947877103 0.0 0.0 2:1.0 3:1.0 4:1.0 2411:1.0 
0.0 6.639516622066743E-4 0.0 0.0 2:1.0 3:1.0 4:1.0 1808:1.0 
0.0 9.765625E-4 0.0 0.0 3:1.0 4:1.0 33:1.0 96:1.0 
0.0 0.0021381378173828125 0.0 0.0 2:1.0 3:1.0 4:1.0 2416:1.0 
0.0 0.0021381378173828125 0.0 0.0 2:1.0 3:1.0 4:1.0 2417:1.0 
0.03342786664228092 0.0 0.0 0.0 3:1.0 4:1.0 105:1.0 2418:1.0 
0.05128987630208304 0.004646103304158933 0.0 0.0 3:1.0 4:1.0 33:1.0 2419:1.0 
0.0 0.0021381378173828125 0.0 0.0 2:1.0 3:1.0 4:1.0 16:1.0 
0.0 0.0021381378173828125 0.0 0.0 2:1.0 3:1.0 4:1.0 2420:1.0 
0.0 0.0021381378173828125 0.0 0.0 2:1.0 3:1.0 4:1.0 2421:1.0 
0.0 0.0021381378173828125 0.0 0.0 2:1.0 3:1.0 4:1.0 2422:1.0 
0.0 9.765625E-4 0.0 0.0 3:1.0 4:1.0 33:1.0 2248:1.0 
0.051276129127488135 0.004668129608035088 0.0 0.0 3:1.0 4:1.0 33:1.0 2430:1.0 
0.0 9.765625E-4 0.0 0.0 3:1.0 4:1.0 33:1.0 2343:1.0 
5.722640632443987E-4 0.0 0.0 0.0 3:1.0 4:1.0 105:1.0 891:1.0 
0.004842669466727623 0.0 0.0 0.0 3:1.0 4:1.0 33:1.0 2431:1.0 
0.0 9.765625E-4 0.0 0.0 3:1.0 4:1.0 33:1.0 1871:1.0 
0.004765930966573073 0.0 0.0 0.0 3:1.0 4:1.0 33:1.0 2441:1.0 
0.004464844228628417 0.0 0.0 0.0 3:1.0 4:1.0 33:1.0 2442:1.0 
0.004572836150179449 0.0 0.0 0.0 3:1.0 4:1.0 33:1.0 2443:1.0 
0.05167776731169338 0.004668129608035088 0.0 0.0 3:1.0 4:1.0 33:1.0 2444:1.0 
0.0333817826927818 0.0 0.0 0.0 3:1.0 4:1.0 105:1.0 2445:1.0 
0.05142822729129093 0.004668129608035088 0.0 0.0 3:1.0 4:1.0 33:1.0 2447:1.0 
0.0 0.0021412819623947144 0.0 0.0 2:1.0 3:1.0 4:1.0 2372:1.0 
0.0 0.0021412819623947144 0.0 0.0 2:1.0 3:1.0 4:1.0 2435:1.0 
0.05135340749481565 0.004668129608035088 0.0 0.0 3:1.0 4:1.0 33:1.0 2449:1.0 
0.0 0.0021412819623947144 0.0 0.0 2:1.0 3:1.0 4:1.0 2450:1.0 
0.0044784074948156505 9.765625E-4 0.0 0.0 3:1.0 4:1.0 33:1.0 2453:1.0 
0.002110887456823307 0.0 0.0 0.0 3:1.0 4:1.0 105:1.0 2454:1.0 
0.051349027657214386 0.004668129608035088 0.0 0.0 3:1.0 4:1.0 33:1.0 2456:1.0 
0.0 9.765625E-4 0.0 0.0 3:1.0 4:1.0 33:1.0 2431:1.0 
0.051349027657214386 0.004668129608035088 0.0 0.0 3:1.0 4:1.0 33:1.0 2459:1.0 
0.051349027657214386 0.004668129608035088 0.0 0.0 3:1.0 4:1.0 33:1.0 2461:1.0 
0.00450190791377314 0.0 0.0 0.0 3:1.0 4:1.0 105:1.0 2462:1.0 
0.0 6.215903458155481E-4 0.0 0.0 3:1.0 4:1.0 33:1.0 53:1.0 
0.0 0.0021412819623947144 0.0 0.0 2:1.0 3:1.0 4:1.0 805:1.0 
0.0 7.321587777823213E-4 0.0 0.0 3:1.0 4:1.0 33:1.0 2262:1.0 
0.0 0.0021412819623947144 0.0 0.0 2:1.0 3:1.0 4:1.0 395:1.0 
0.0047841968385074485 0.0 0.0 0.0 3:1.0 4:1.0 33:1.0 2465:1.0 
0.051639725201514663 0.004668129608035088 0.0 0.0 3:1.0 4:1.0 33:1.0 2467:1.0 
0.0 0.0021412819623947144 0.0 0.0 2:1.0 3:1.0 4:1.0 2468:1.0 
0.0 0.0021588413498232484 0.0 0.0 2:1.0 3:1.0 4:1.0 2469:1.0 
0.0 0.0021588413498232484 0.0 0.0 2:1.0 3:1.0 4:1.0 2473:1.0 
0.0 0.002180682495236397 0.0 0.0 2:1.0 3:1.0 4:1.0 84:1.0 
0.00461983605971672 0.0 0.0 0.0 3:1.0 4:1.0 105:1.0 1102:1.0 
0.046875 0.004865540829996462 0.0 0.0 3:1.0 4:1.0 33:1.0 2443:1.0 
0.046875 0.004865540829996462 0.0 0.0 3:1.0 4:1.0 33:1.0 2105:1.0 
0.046875 0.004865540829996462 0.0 0.0 3:1.0 4:1.0 33:1.0 2442:1.0 
0.0 0.0022069215774536133 0.0 0.0 2:1.0 3:1.0 4:1.0 2475:1.0 
0.0 0.0022069215774536133 0.0 0.0 2:1.0 3:1.0 4:1.0 2470:1.0 
0.004435648642379497 0.0 0.0 0.0 3:1.0 4:1.0 33:1.0 2477:1.0 
0.03336088745682331 0.0 0.0 0.0 3:1.0 4:1.0 105:1.0 2480:1.0 
0.0 0.0022069215774536133 0.0 0.0 2:1.0 3:1.0 4:1.0 2266:1.0 
0.0 0.0022430419921875 0.0 0.0 2:1.0 3:1.0 4:1.0 2354:1.0 
0.00433775190055341 0.0 0.0 0.0 3:1.0 4:1.0 33:1.0 2482:1.0 
0.0 6.564898113017303E-4 0.0 0.0 3:1.0 4:1.0 33:1.0 2484:1.0 
0.004661382935489511 0.0 0.0 0.0 3:1.0 4:1.0 33:1.0 2486:1.0 
0.0 0.0022430419921875 0.0 0.0 2:1.0 3:1.0 4:1.0 298:1.0 
0.0 0.0022430419921875 0.0 0.0 2:1.0 3:1.0 4:1.0 2487:1.0 
0.0 0.0022430419921875 0.0 0.0 2:1.0 3:1.0 4:1.0 2488:1.0 
0.05104422644028306 0.004865540829996462 0.0 0.0 3:1.0 4:1.0 33:1.0 2489:1.0 
0.05101752853578678 0.004865540829996462 0.0 0.0 3:1.0 4:1.0 33:1.0 2491:1.0 
0.004435040945558577 0.0 0.0 0.0 3:1.0 4:1.0 33:1.0 2492:1.0 
0.0 0.0022430419921875 0.0 0.0 2:1.0 3:1.0 4:1.0 2493:1.0 
0.0 0.0022430419921875 0.0 0.0 2:1.0 3:1.0 4:1.0 2494:1.0 
0.0 0.0022430419921875 0.0 0.0 2:1.0 3:1.0 4:1.0 2463:1.0 
0.0 0.0022430419921875 0.0 0.0 2:1.0 3:1.0 4:1.0 2496:1.0 
0.0 0.0022430419921875 0.0 0.0 2:1.0 3:1.0 4:1.0 2497:1.0 
0.0 0.0022430419921875 0.0 0.0 2:1.0 3:1.0 4:1.0 2498:1.0 
0.0 0.0022430419921875 0.0 0.0 2:1.0 3:1.0 4:1.0 1407:1.0 
0.0 0.0022430419921875 0.0 0.0 2:1.0 3:1.0 4:1.0 2499:1.0 
0.0 0.0022430419921875 0.0 0.0 2:1.0 3:1.0 4:1.0 2502:1.0 
0.0515952226952443 0.004865540829996462 0.0 0.0 3:1.0 4:1.0 33:1.0 2503:1.0 
0.0 0.0022430419921875 0.0 0.0 2:1.0 3:1.0 4:1.0 428:1.0 
0.0 0.001931877165351592 0.0 0.0 2:1.0 3:1.0 4:1.0 2218:1.0 
0.0 0.001944132319378844 0.0 0.0 2:1.0 3:1.0 4:1.0 2220:1.0 
0.0 0.0019806865871703216 0.0 0.0 2:1.0 3:1.0 4:1.0 1910:1.0 
0.0 0.0019972349400632083 0.0 0.0 2:1.0 3:1.0 4:1.0 2223:1.0 
0.0 0.0019972349400632083 0.0 0.0 2:1.0 3:1.0 4:1.0 2224:1.0 
0.0 0.0019972349400632083 0.0 0.0 2:1.0 3:1.0 4:1.0 2225:1.0 
0.0 0.001984601501850314 0.0 0.0 2:1.0 3:1.0 4:1.0 179:1.0 
0.0 0.001984601501850314 0.0 0.0 2:1.0 3:1.0 4:1.0 2222:1.0 
0.0 0.0019972349400632083 0.0 0.0 2:1.0 3:1.0 4:1.0 2230:1.0 
0.0 0.0019972349400632083 0.0 0.0 2:1.0 3:1.0 4:1.0 2231:1.0 
0.0 0.0019972349400632083 0.0 0.0 2:1.0 3:1.0 4:1.0 2507:1.0 
0.0 0.0019972349400632083 0.0 0.0 2:1.0 3:1.0 4:1.0 2215:1.0 
0.0 0.0019972349400632083 0.0 0.0 2:1.0 3:1.0 4:1.0 2217:1.0 
0.0 0.0019912185680368566 0.0 0.0 2:1.0 3:1.0 4:1.0 2237:1.0 
0.0 0.0019912185680368566 0.0 0.0 2:1.0 3:1.0 4:1.0 1496:1.0 
0.0 0.0019912185680368566 0.0 0.0 2:1.0 3:1.0 4:1.0 2238:1.0 
0.0 0.0019912185680368566 0.0 0.0 2:1.0 3:1.0 4:1.0 2219:1.0 
0.0 0.0019901298236397746 0.0 0.0 2:1.0 3:1.0 4:1.0 2239:1.0 
0.0 0.0019901298236397746 0.0 0.0 2:1.0 3:1.0 4:1.0 2240:1.0 
0.0337337564695781 0.0 0.0 0.0 3:1.0 4:1.0 105:1.0 2508:1.0 
0.03125 0.0 0.0 0.0 3:1.0 4:1.0 105:1.0 1422:1.0 
0.0 0.0019588905768059828 0.0 0.0 2:1.0 3:1.0 4:1.0 1820:1.0 
0.0 0.001931877165351592 0.0 0.0 2:1.0 3:1.0 4:1.0 2250:1.0 
0.0 0.0022430419921875 0.0 0.0 2:1.0 3:1.0 4:1.0 2252:1.0 
0.0 0.0022430419921875 0.0 0.0 2:1.0 3:1.0 4:1.0 390:1.0 
0.0 0.0022430419921875 0.0 0.0 2:1.0 3:1.0 4:1.0 129:1.0 
0.0 0.0022430419921875 0.0 0.0 2:1.0 3:1.0 4:1.0 1393:1.0 
0.0 0.0022430419921875 0.0 0.0 2:1.0 3:1.0 4:1.0 46:1.0 
0.0 0.0022430419921875 0.0 0.0 2:1.0 3:1.0 4:1.0 440:1.0 
0.004707593583368919 0.0 0.0 0.0 3:1.0 4:1.0 33:1.0 2513:1.0 
8.013435833689186E-4 0.00262451171875 0.0 0.0 3:1.0 4:1.0 33:1.0 391:1.0 
0.046875 0.004865540829996462 0.0 0.0 3:1.0 4:1.0 33:1.0 2513:1.0 
0.0 0.0019588470458984375 0.0 0.0 3:1.0 4:1.0 33:1.0 391:1.0 
0.0 0.0022430419921875 0.0 0.0 2:1.0 3:1.0 4:1.0 2258:1.0 
0.0 0.0022430419921875 0.0 0.0 2:1.0 3:1.0 4:1.0 2259:1.0 
0.0 0.0022430419921875 0.0 0.0 2:1.0 3:1.0 4:1.0 2260:1.0 
0.0 0.0022430419921875 0.0 0.0 2:1.0 3:1.0 4:1.0 2263:1.0 
0.0 0.0022069215774536133 0.0 0.0 2:1.0 3:1.0 4:1.0 2264:1.0 
0.0 0.0022069215774536133 0.0 0.0 2:1.0 3:1.0 4:1.0 421:1.0 
0.0 0.0022069215774536133 0.0 0.0 2:1.0 3:1.0 4:1.0 54:1.0 
0.004000323052906762 0.0 0.0 0.0 3:1.0 4:1.0 105:1.0 2518:1.0 
0.0 0.0022069215774536133 0.0 0.0 2:1.0 3:1.0 4:1.0 828:1.0 
0.0 0.0022069215774536133 0.0 0.0 2:1.0 3:1.0 4:1.0 2519:1.0 
0.0 0.0022069215774536133 0.0 0.0 2:1.0 3:1.0 4:1.0 2520:1.0 
0.0 0.0022069215774536133 0.0 0.0 2:1.0 3:1.0 4:1.0 2521:1.0 
0.05158259358336892 0.004865540829996462 0.0 0.0 3:1.0 4:1.0 33:1.0 2522:1.0 
0.004707593583368919 0.0 0.0 0.0 3:1.0 4:1.0 33:1.0 2523:1.0 
0.0 0.0022069215774536133 0.0 0.0 2:1.0 3:1.0 4:1.0 2478:1.0 
0.004707593583368919 0.0 0.0 0.0 3:1.0 4:1.0 33:1.0 82:1.0 
0.0 0.0022069215774536133 0.0 0.0 2:1.0 3:1.0 4:1.0 2524:1.0 
0.0 0.0022069215774536133 0.0 0.0 2:1.0 3:1.0 4:1.0 2526:1.0 
0.0 0.0022069215774536133 0.0 0.0 2:1.0 3:1.0 4:1.0 2437:1.0 
0.004707593583368919 0.0 0.0 0.0 3:1.0 4:1.0 33:1.0 2527:1.0 
0.0 0.0022069215774536133 0.0 0.0 2:1.0 3:1.0 4:1.0 2314:1.0 
0.0 0.0022069215774536133 0.0 0.0 2:1.0 3:1.0 4:1.0 95:1.0 
0.0 0.002180682495236397 0.0 0.0 2:1.0 3:1.0 4:1.0 2275:1.0 
0.03125 0.0 0.0 0.0 3:1.0 4:1.0 105:1.0 790:1.0 
0.004707593583368919 0.0 0.0 0.0 3:1.0 4:1.0 33:1.0 2528:1.0 
0.0047031479092143336 0.0 0.0 0.0 3:1.0 4:1.0 33:1.0 2530:1.0 
0.05157670080716348 0.0 0.0 0.0 3:1.0 4:1.0 33:1.0 2531:1.0 
0.0 0.002180682495236397 0.0 0.0 2:1.0 3:1.0 4:1.0 2318:1.0 
0.0 0.002180682495236397 0.0 0.0 2:1.0 3:1.0 4:1.0 2533:1.0 
0.004699751619426484 0.0 0.0 0.0 3:1.0 4:1.0 33:1.0 2535:1.0 
0.0 0.0021412819623947144 0.0 0.0 2:1.0 3:1.0 4:1.0 1019:1.0 
0.0 5.998887918394757E-4 0.0 0.0 2:1.0 3:1.0 4:1.0 266:1.0 
0.004693062251174052 0.0 0.0 0.0 3:1.0 4:1.0 33:1.0 2536:1.0 
0.0 0.0021412819623947144 0.0 0.0 2:1.0 3:1.0 4:1.0 2538:1.0 
0.0046820355128969204 0.0 0.0 0.0 3:1.0 4:1.0 33:1.0 2540:1.0 
0.0 9.765625E-4 0.0 0.0 3:1.0 4:1.0 33:1.0 2253:1.0 
0.0046820355128969204 0.0 0.0 0.0 3:1.0 4:1.0 33:1.0 2541:1.0 
0.046875 0.0048828125 0.0 0.0 3:1.0 4:1.0 33:1.0 2540:1.0 
0.03373697119554775 0.0 0.0 0.0 3:1.0 4:1.0 105:1.0 1294:1.0 
0.0 6.639516622066743E-4 0.0 0.0 2:1.0 3:1.0 4:1.0 1130:1.0 
0.0 0.0021412819623947144 0.0 0.0 2:1.0 3:1.0 4:1.0 2550:1.0 
0.0 9.765625E-4 0.0 0.0 3:1.0 4:1.0 33:1.0 59:1.0 
0.05155016612986718 0.0048828125 0.0 0.0 3:1.0 4:1.0 33:1.0 2553:1.0 
0.0 0.0021412819623947144 0.0 0.0 2:1.0 3:1.0 4:1.0 2555:1.0 
0.046875 0.0048828125 0.0 0.0 3:1.0 4:1.0 33:1.0 2357:1.0 
0.05155016612986718 0.0048828125 0.0 0.0 3:1.0 4:1.0 33:1.0 2557:1.0 
0.0 9.765625E-4 0.0 0.0 3:1.0 4:1.0 33:1.0 2056:1.0 
0.0 0.0021412819623947144 0.0 0.0 2:1.0 3:1.0 4:1.0 1657:1.0 
0.046875 0.0048828125 0.0 0.0 3:1.0 4:1.0 33:1.0 2269:1.0 
0.0 0.0021412819623947144 0.0 0.0 2:1.0 3:1.0 4:1.0 2270:1.0 
0.05155016612986718 0.0048828125 0.0 0.0 3:1.0 4:1.0 33:1.0 2559:1.0 
0.00467472410370795 9.765625E-4 0.0 0.0 3:1.0 4:1.0 33:1.0 2560:1.0 
0.0 0.0021412819623947144 0.0 0.0 2:1.0 3:1.0 4:1.0 1989:1.0 
0.0 0.0021412819623947144 0.0 0.0 2:1.0 3:1.0 4:1.0 2561:1.0 
0.03369586317391989 0.0 0.0 0.0 3:1.0 4:1.0 105:1.0 2563:1.0 
0.0337425749110184 0.0 0.0 0.0 3:1.0 4:1.0 105:1.0 2564:1.0 
1000.0 0.0 0.0 0.0 3:1.0 4:1.0 105:1.0 790:1.0 
0.0 0.0021412819623947144 0.0 0.0 2:1.0 3:1.0 4:1.0 2570:1.0 
0.0 0.0021412819623947144 0.0 0.0 2:1.0 3:1.0 4:1.0 2571:1.0 
0.046875 0.0048828125 0.0 0.0 3:1.0 4:1.0 33:1.0 1394:1.0 
0.0 9.765625E-4 0.0 0.0 3:1.0 4:1.0 33:1.0 2246:1.0 
0.0 9.765625E-4 0.0 0.0 3:1.0 4:1.0 33:1.0 2247:1.0 
0.0 0.0021381378173828125 0.0 0.0 2:1.0 3:1.0 4:1.0 667:1.0 
0.051543350807953026 0.0048828125 0.0 0.0 3:1.0 4:1.0 33:1.0 1664:1.0 
0.051536382935489344 0.0048828125 0.0 0.0 3:1.0 4:1.0 33:1.0 2575:1.0 
0.051536382935489344 0.0048828125 0.0 0.0 3:1.0 4:1.0 33:1.0 2576:1.0 
0.03359159275337498 0.0 0.0 0.0 3:1.0 4:1.0 105:1.0 2578:1.0 
0.0 9.765625E-4 0.0 0.0 3:1.0 4:1.0 33:1.0 2486:1.0 
0.0 0.0021381378173828125 0.0 0.0 2:1.0 3:1.0 4:1.0 2580:1.0 
0.03359159275337498 0.0 0.0 0.0 3:1.0 4:1.0 105:1.0 2582:1.0 
0.03367812005580717 0.0 0.0 0.0 3:1.0 4:1.0 105:1.0 2583:1.0 
1000.0 9.765625E-4 0.0 0.0 3:1.0 4:1.0 33:1.0 887:1.0 
0.0 0.0021381378173828125 0.0 0.0 2:1.0 3:1.0 4:1.0 2365:1.0 
0.033360887456823085 0.0 0.0 0.0 3:1.0 4:1.0 105:1.0 2199:1.0 
0.046875 0.0048828125 0.0 0.0 3:1.0 4:1.0 33:1.0 2370:1.0 
0.0 8.402867150900661E-4 0.0 0.0 3:1.0 4:1.0 33:1.0 2356:1.0 
0.05153637762945218 0.0048828125 0.0 0.0 3:1.0 4:1.0 33:1.0 2588:1.0 
0.046875 0.0048828125 0.0 0.0 3:1.0 4:1.0 33:1.0 2389:1.0 
0.0 0.0021381378173828125 0.0 0.0 2:1.0 3:1.0 4:1.0 2589:1.0 
0.05153288687544477 0.0048828125 0.0 0.0 3:1.0 4:1.0 33:1.0 2595:1.0 
0.0 9.765625E-4 0.0 0.0 3:1.0 4:1.0 33:1.0 148:1.0 
0.0 0.0021381378173828125 0.0 0.0 2:1.0 3:1.0 4:1.0 42:1.0 
0.0 0.0021381378173828125 0.0 0.0 2:1.0 3:1.0 4:1.0 56:1.0 
0.0 9.765625E-4 0.0 0.0 3:1.0 4:1.0 33:1.0 1361:1.0 
0.05153288687544477 0.0048828125 0.0 0.0 3:1.0 4:1.0 33:1.0 2599:1.0 
0.004657886875444772 0.0 0.0 0.0 3:1.0 4:1.0 33:1.0 2600:1.0 
0.0 9.765625E-4 0.0 0.0 3:1.0 4:1.0 33:1.0 2352:1.0 
0.046875 0.0048828125 0.0 0.0 3:1.0 4:1.0 33:1.0 2492:1.0 
0.005266742567533678 6.622677572277006E-4 0.08263044097517008 0.0 3:1.0 33:1.0 888:1.0 2602:1.0 
0.004651985028510719 0.0 0.0 0.0 3:1.0 4:1.0 33:1.0 2603:1.0 
0.0 0.0021381378173828125 0.0 0.0 2:1.0 3:1.0 4:1.0 2316:1.0 
0.0 6.202375177331021E-4 0.0 0.0 2:1.0 3:1.0 4:1.0 2609:1.0 
0.0 0.0021381378173828125 0.0 0.0 2:1.0 3:1.0 4:1.0 2610:1.0 
0.0 0.0021381378173828125 0.0 0.0 2:1.0 3:1.0 4:1.0 2612:1.0 
0.0 0.0021381378173828125 0.0 0.0 2:1.0 3:1.0 4:1.0 2614:1.0 
0.046875 0.0048828125 0.0 0.0 3:1.0 4:1.0 33:1.0 1924:1.0 
0.046875 0.0048828125 0.0 0.0 3:1.0 4:1.0 33:1.0 289:1.0 
0.0 0.0021381378173828125 0.0 0.0 2:1.0 3:1.0 4:1.0 2301:1.0 
0.0037887875598803245 0.0 0.0 0.0 3:1.0 4:1.0 105:1.0 2618:1.0 
0.046875 0.0048828125 0.0 0.0 3:1.0 4:1.0 33:1.0 2477:1.0 
0.0 0.0021381378173828125 0.0 0.0 2:1.0 3:1.0 4:1.0 2619:1.0 
0.004636317123601463 0.0 0.0 0.0 3:1.0 4:1.0 33:1.0 705:1.0 
0.0 0.0021381378173828125 0.0 0.0 2:1.0 3:1.0 4:1.0 2620:1.0 
0.0 0.0021381378173828125 0.0 0.0 2:1.0 3:1.0 4:1.0 2621:1.0 
0.0 0.0021381378173828125 0.0 0.0 2:1.0 3:1.0 4:1.0 2622:1.0 
0.0 8.368552900874793E-4 0.0 0.0 3:1.0 4:1.0 33:1.0 2623:1.0 
0.0 0.0021381378173828125 0.0 0.0 2:1.0 3:1.0 4:1.0 2624:1.0 
0.0 0.0021381378173828125 0.0 0.0 2:1.0 3:1.0 4:1.0 1493:1.0 
0.03373751951396359 0.0 0.0 0.0 3:1.0 4:1.0 105:1.0 2625:1.0 
0.051510801365079795 0.0048828125 0.0 0.0 3:1.0 4:1.0 33:1.0 2626:1.0 
0.051510801365079795 0.0048828125 0.0 0.0 3:1.0 4:1.0 33:1.0 2627:1.0 
0.0 0.0021381378173828125 0.0 0.0 2:1.0 3:1.0 4:1.0 1969:1.0 
0.0 0.0021381378173828125 0.0 0.0 2:1.0 3:1.0 4:1.0 2628:1.0 
0.0 0.0021381378173828125 0.0 0.0 2:1.0 3:1.0 4:1.0 2629:1.0 
0.0 0.0021381378173828125 0.0 0.0 2:1.0 3:1.0 4:1.0 2630:1.0 
0.0 0.0021381378173828125 0.0 0.0 2:1.0 3:1.0 4:1.0 2631:1.0 
0.051499915893489456 0.0048828125 0.0 0.0 3:1.0 4:1.0 33:1.0 2633:1.0 
0.0 0.0021381378173828125 0.0 0.0 2:1.0 3:1.0 4:1.0 2635:1.0 
0.0514983953220951 0.0048828125 0.0 0.0 3:1.0 4:1.0 33:1.0 2636:1.0 
0.0 0.0021381378173828125 0.0 0.0 2:1.0 3:1.0 4:1.0 2637:1.0 
0.0 0.0021381378173828125 0.0 0.0 2:1.0 3:1.0 4:1.0 2638:1.0 
0.0 0.0021381378173828125 0.0 0.0 2:1.0 3:1.0 4:1.0 2640:1.0 
0.0 0.0021381378173828125 0.0 0.0 2:1.0 3:1.0 4:1.0 2641:1.0 
0.0 0.0021381378173828125 0.0 0.0 2:1.0 3:1.0 4:1.0 2642:1.0 
0.0 0.0021381378173828125 0.0 0.0 2:1.0 3:1.0 4:1.0 2643:1.0 
0.0 0.0021381378173828125 0.0 0.0 2:1.0 3:1.0 4:1.0 2644:1.0 
0.004623395322095103 0.0 0.0 0.0 3:1.0 4:1.0 33:1.0 2645:1.0 
0.046875 0.0048828125 0.0 0.0 3:1.0 4:1.0 33:1.0 2382:1.0 
0.046875 0.004604701481223383 0.0 0.0 3:1.0 4:1.0 33:1.0 1919:1.0 
0.0 0.0021381378173828125 0.0 0.0 2:1.0 3:1.0 4:1.0 2646:1.0 
0.004615983845275062 0.0 0.0 0.0 3:1.0 4:1.0 33:1.0 2653:1.0 
0.0 0.0020673007970799517 0.0 0.0 2:1.0 3:1.0 4:1.0 2654:1.0 
0.0 9.765625E-4 0.0 0.0 3:1.0 4:1.0 33:1.0 2255:1.0 
0.0 9.765625E-4 0.0 0.0 3:1.0 4:1.0 33:1.0 2256:1.0 
0.0 0.0020673007970799517 0.0 0.0 2:1.0 3:1.0 4:1.0 2659:1.0 
0.0 0.0020673007970799517 0.0 0.0 2:1.0 3:1.0 4:1.0 2660:1.0 
0.0 0.0020673007970799517 0.0 0.0 2:1.0 3:1.0 4:1.0 2662:1.0 
0.00438124505580717 0.0 0.0 0.0 3:1.0 4:1.0 105:1.0 2663:1.0 
0.0 0.0019891108684513825 0.0 0.0 2:1.0 3:1.0 4:1.0 2664:1.0 
0.0 0.0020358295446385455 0.0 0.0 2:1.0 3:1.0 4:1.0 2666:1.0 
0.0 0.0020358295446385455 0.0 0.0 2:1.0 3:1.0 4:1.0 2667:1.0 
0.0 0.0020358295446385455 0.0 0.0 2:1.0 3:1.0 4:1.0 2668:1.0 
0.0 0.0019865181840430512 0.0 0.0 2:1.0 3:1.0 4:1.0 2669:1.0 
0.0 0.0018436047990948445 0.0 0.0 2:1.0 3:1.0 4:1.0 2670:1.0 
0.0 0.0018436047990948445 0.0 0.0 2:1.0 3:1.0 4:1.0 2671:1.0 
0.046875 0.0037287606619260116 0.0 0.0 3:1.0 4:1.0 33:1.0 2326:1.0 
0.0 3.6033542864588597E-4 0.0 0.0 3:1.0 4:1.0 33:1.0 430:1.0 
0.05149098384527506 0.004761483520269394 0.0 0.0 3:1.0 4:1.0 33:1.0 91:1.0 
0.046875 0.004761483520269394 0.0 0.0 3:1.0 4:1.0 33:1.0 1274:1.0 
1000.0 0.0 0.0 0.0 3:1.0 4:1.0 33:1.0 2277:1.0 
0.05149098384527506 0.004761483520269394 0.0 0.0 3:1.0 4:1.0 33:1.0 2680:1.0 
0.05149098384527506 0.004761483520269394 0.0 0.0 3:1.0 4:1.0 33:1.0 2681:1.0 
0.046875 0.004761483520269394 0.0 0.0 3:1.0 4:1.0 33:1.0 2286:1.0 
1000.0 0.004761483520269394 0.0 0.0 3:1.0 4:1.0 33:1.0 2531:1.0 
0.046875 0.004761483520269394 0.0 0.0 3:1.0 4:1.0 33:1.0 2379:1.0 
1000.0 0.004761483520269394 0.0 0.0 3:1.0 4:1.0 33:1.0 2380:1.0 
0.046875 0.004762315994518929 0.0 0.0 3:1.0 4:1.0 33:1.0 2328:1.0 
0.046875 0.004762315994518929 0.0 0.0 3:1.0 4:1.0 33:1.0 2330:1.0 
0.046875 0.004762315994518929 0.0 0.0 3:1.0 4:1.0 33:1.0 2331:1.0 
0.03367812005580717 0.0 0.0 0.0 3:1.0 4:1.0 105:1.0 2682:1.0 
0.05149098384527506 0.004762315994518929 0.0 0.0 3:1.0 4:1.0 33:1.0 2687:1.0 
0.03367812005580717 0.0 0.0 0.0 3:1.0 4:1.0 105:1.0 2688:1.0 
0.04758473384527506 0.004769033752381802 0.0 0.0 3:1.0 4:1.0 33:1.0 127:1.0 
0.03367812005580717 0.0 0.0 0.0 3:1.0 4:1.0 105:1.0 2479:1.0 
0.046875 0.004769033752381802 0.0 0.0 3:1.0 4:1.0 33:1.0 2541:1.0 
0.046875 0.004769033752381802 0.0 0.0 3:1.0 4:1.0 33:1.0 2293:1.0 
0.05149098384527506 0.004769033752381802 0.0 0.0 3:1.0 4:1.0 33:1.0 2689:1.0 
0.046875 0.004769033752381802 0.0 0.0 3:1.0 4:1.0 33:1.0 2523:1.0 
0.046875 0.004769033752381802 0.0 0.0 3:1.0 4:1.0 33:1.0 420:1.0 
1000.0 0.0 0.0 0.0 3:1.0 4:1.0 105:1.0 2267:1.0 
1000.0 0.004769033752381802 0.0 0.0 3:1.0 4:1.0 33:1.0 2276:1.0 
0.046875 0.004769033752381802 0.0 0.0 3:1.0 4:1.0 33:1.0 705:1.0 
0.0 0.00179154032423412 0.0 0.0 2:1.0 3:1.0 4:1.0 2693:1.0 
0.0 0.00179154032423412 0.0 0.0 2:1.0 3:1.0 4:1.0 2694:1.0 
0.0 0.00179154032423412 0.0 0.0 2:1.0 3:1.0 4:1.0 1503:1.0 
0.05149098384527506 0.004769033752381802 0.0 0.0 3:1.0 4:1.0 33:1.0 2695:1.0 
0.0 0.00179154032423412 0.0 0.0 2:1.0 3:1.0 4:1.0 2696:1.0 
0.0 0.0017755297012627125 0.0 0.0 2:1.0 3:1.0 4:1.0 2702:1.0 
0.0 0.0017755297012627125 0.0 0.0 2:1.0 3:1.0 4:1.0 2703:1.0 
0.0 0.0 0.0826994533615803 0.0 3:1.0 33:1.0 888:1.0 2575:1.0 
0.05178352201017583 0.0 0.0 0.0 4:1.0 33:1.0 889:1.0 2343:1.0 
0.0 0.0 0.1694945584400868 0.0 116:1.0 1299:1.0 1655:1.0 1656:1.0 
0.05149098384527506 0.004769033752381802 0.0 0.0 3:1.0 4:1.0 33:1.0 2706:1.0 
0.046875 0.004769033752381802 0.0 0.0 3:1.0 4:1.0 33:1.0 82:1.0 
0.0 0.0017755297012627125 0.0 0.0 2:1.0 3:1.0 4:1.0 2707:1.0 
0.004398988173920149 0.0 0.0 0.0 3:1.0 4:1.0 105:1.0 2710:1.0 
0.0 0.00174091378391239 0.0 0.0 2:1.0 3:1.0 4:1.0 1012:1.0 
0.0 0.0017053820192813873 0.0 0.0 2:1.0 3:1.0 4:1.0 2715:1.0 
0.03369586317392015 0.0 0.0 0.0 3:1.0 4:1.0 105:1.0 2716:1.0 
0.004615983845275062 0.0 0.0 0.0 3:1.0 4:1.0 33:1.0 2704:1.0 
0.0 0.0017053820192813873 0.0 0.0 2:1.0 3:1.0 4:1.0 2719:1.0 
0.0 0.0017053820192813873 0.0 0.0 2:1.0 3:1.0 4:1.0 60:1.0 
0.03363489065073105 0.0 0.0 0.0 3:1.0 4:1.0 105:1.0 2720:1.0 
0.0 0.0016644250481476774 0.0 0.0 2:1.0 3:1.0 4:1.0 97:1.0 
1000.0 0.0 0.0 0.0 3:1.0 4:1.0 33:1.0 2277:1.0 
0.05149098384527506 0.004769033752381802 0.0 0.0 3:1.0 4:1.0 33:1.0 2721:1.0 
1000.0 0.0 0.0 0.0 3:1.0 4:1.0 33:1.0 2277:1.0 
0.046875 0.004769033752381802 0.0 0.0 3:1.0 4:1.0 33:1.0 2300:1.0 
