svm_type c_svc
kernel_type linear
nr_class 2
total_sv 96
rho 0.341032
label 1 2
nr_sv 46 50
SV
0.02252463729444374 34:4 35:2 39:1 45:1 54:1 57:1 58:1 84:1 95:1 96:1 97:2 98:1 99:1 127:1 130:1 134:1 146:1 148:1 149:1 150:1 165:1 179:1 183:1 189:1 190:1 195:1 218:1 219:1 220:1 221:1 222:1 223:1 224:1 225:1 231:1 232:1 233:1 234:1 235:1 236:1 237:1 238:1 239:1 240:1 241:1 242:1 
0.001238204352292157 3:1 10:1 12:1 13:1 14:1 25:1 27:1 29:1 34:1 35:1 38:1 40:1 41:1 42:1 44:1 45:1 46:1 47:1 48:1 49:1 51:1 59:2.5 60:3 61:2 107:1 108:1 197:1 222:1 273:1 274:1 275:1 276:1 277:1 278:1 279:1 280:1 281:1 282:1 283:1 284:1 285:1 286:1 287:1 288:1 289:1 290:1 291:1 292:1 293:1 294:1 295:1 
0.009955280573882624 34:2 35:1 59:4 60:5 61:3 97:2 128:1 154:2 444:1 445:1 446:1 447:1 448:1 449:1 450:1 451:1 452:1 453:1 454:1 455:1 457:1 480:1 481:1 482:1 484:1 485:1 486:1 488:1 491:1 492:1 493:1 494:1 495:1 496:1 497:1 498:1 501:1 503:1 535:1 537:1 574:1 575:1 578:1 579:1 580:1 581:1 582:1 583:1 584:1 585:1 586:1 587:1 
0.00563126568052763 34:4 59:3 60:4 61:2 91:1 92:1 97:1 112:1 154:2 156:1 160:1 264:1 444:1 445:1 446:1 447:1 448:1 449:1 450:1 451:1 452:1 453:1 454:1 455:1 482:1 484:1 485:1 486:1 493:1 494:1 495:1 496:1 497:1 498:1 500:1 501:1 502:1 503:1 507:1 508:1 606:1 607:1 608:1 609:1 610:1 611:1 612:1 613:1 
0.02678291504664792 35:1 44:1 45:1 46:1 59:2.5 60:3 61:2 91:1 92:1 97:2 288:1 290:1 293:1 294:1 440:1 488:1 492:1 537:1 561:1 702:1 703:1 704:1 705:1 706:1 707:1 708:1 709:1 710:1 711:1 750:1 751:1 752:1 957:1 958:1 959:1 960:1 961:1 962:1 963:1 964:1 965:1 966:1 967:1 968:1 969:1 970:1 
0.03918578674216527 34:1 35:1 45:1 59:2.5 60:4 61:1 97:1 98:1 99:1 134:1 146:1 148:1 156:1 160:1 217:1 288:1 290:1 293:1 294:1 645:1 648:1 666:1 709:1 750:1 751:1 1081:1 1082:1 1083:1 1084:1 1085:1 1086:1 1087:1 1088:1 1089:1 1091:1 1106:1 1126:1 1127:1 1128:1 1129:1 1130:1 1131:1 1132:1 1133:1 1134:1 1135:1 1136:1 
0.03799306956159439 35:1 39:1 44:1 45:1 46:1 54:1 57:1 58:1 59:2 60:2 61:2 91:1 92:1 193:1 488:1 561:1 595:1 1006:1 1164:1 1165:1 1166:1 1167:1 1219:1 1220:1 1221:1 1222:1 1223:1 1240:1 1241:1 1245:1 1246:1 1247:1 1297:1 1299:1 1301:1 1302:1 1304:1 1305:1 1310:1 1311:1 1312:1 1313:1 1314:1 1315:1 1316:1 1317:1 1318:1 
0.007740772601443897 34:1 39:1 45:1 53:1 54:1 55:1 57:1 58:1 59:2.5 60:3 61:2 97:1 172:1 176:1 192:1 288:1 414:1 484:1 703:1 705:1 743:1 1401:1 1402:1 1403:1 1404:1 1405:1 1406:1 1407:1 1408:1 1410:1 1412:1 1413:1 1414:1 1418:1 1420:1 1421:1 1422:1 1423:1 1424:1 1425:1 1426:1 1427:1 1428:1 1429:1 1430:1 1431:1 1432:1 1433:1 1434:1 
0.02121079465123508 24:1 34:3 35:4 39:1 44:1 45:1 46:1 53:1 54:1 55:1 57:1 58:1 59:2.5 60:3 61:2 91:1 92:1 97:1 127:1 130:1 133:1 184:1 185:1 186:1 187:1 201:1 221:1 222:1 245:1 258:1 364:1 1101:1 1105:1 1168:1 1169:1 1206:1 1207:1 1209:1 1449:1 1450:1 1479:1 1487:1 1488:1 1491:1 1492:1 1493:1 1494:1 1495:1 1496:1 
0.0001666604419079266 24:1 34:3 39:1 45:1 53:1 54:1 55:1 57:1 58:1 97:1 170:1 229:1 370:1 387:1 397:1 484:1 743:1 1402:1 1403:1 1418:1 1488:1 1520:1 1534:1 1535:1 1536:1 1537:1 1538:1 1539:1 1540:1 1541:1 1542:1 1543:1 1544:1 1545:1 1546:1 1547:1 1548:1 1549:1 1550:1 1551:1 1552:1 1553:1 1554:1 1555:1 1556:1 1557:1 1558:1 1559:1 1560:1 1561:1 
0.03323571145547655 34:1 39:1 42:1 45:1 54:1 57:1 58:1 59:2.5 60:3 61:2 97:1 172:1 176:1 197:1 236:1 484:1 743:1 1325:1 1406:1 1410:1 1412:1 1426:1 1429:1 1430:1 1431:1 1433:1 1512:1 1513:1 1514:1 1515:1 1525:1 1573:1 1574:1 1575:1 1576:1 1577:1 1578:1 1579:1 1580:1 1581:1 1582:1 1583:1 1584:1 1585:1 1586:1 1587:1 1588:1 1589:1 
0.01230132991744019 34:1 35:1 39:1 42:1 44:1 45:1 46:1 54:1 57:1 58:1 59:2 60:2 61:2 91:1 92:1 197:1 236:1 261:1 488:1 561:1 595:1 1406:1 1440:1 1512:1 1513:1 1514:1 1515:1 1580:1 1581:1 1582:1 1583:1 1586:1 1587:1 1588:1 1591:1 1593:1 1595:1 1600:1 1601:1 1602:1 1603:1 1604:1 1605:1 1606:1 1607:1 1608:1 
0.007132996746671954 24:1 34:2 35:2 39:2 42:1 44:1 45:1 46:1 59:3 60:4 61:2 95:1 96:1 97:2 133:1 151:1 185:1 187:1 256:1 257:1 258:1 275:1 355:1 364:1 368:1 482:1 1101:1 1105:1 1180:1 1183:1 1184:1 1209:1 1458:1 1462:1 1639:1 1640:1 1641:1 1642:1 1643:1 1644:1 1645:1 1651:1 1652:1 1653:1 1655:1 1656:1 1657:1 1658:1 1659:1 1660:1 1661:1 1662:1 1663:1 1664:1 1665:1 1666:1 1667:1 1668:1 
0.005758150977437454 3:1 8:1 10:1 34:2 35:4 37:1 38:1 39:1 42:1 43:1 44:1 45:1 46:1 59:2.5 60:3 61:2 150:1 190:1 195:1 221:1 222:2 244:1 270:1 316:1 374:1 405:1 408:1 1101:1 1162:1 1179:1 1180:1 1181:1 1183:1 1184:1 1206:1 1207:1 1209:1 1449:1 1691:1 1692:1 1693:1 1694:1 1695:1 1696:1 1697:1 1698:1 1699:1 1700:1 1708:1 1709:1 1711:1 1712:1 1713:1 1714:1 1715:1 1717:1 
0.02514882876023077 3:1 10:1 34:2 35:2 38:1 39:1 42:1 43:1 44:1 45:1 46:1 59:4 60:5 61:3 106:1 114:1 115:1 150:1 190:1 195:1 222:1 316:1 334:1 335:1 338:1 339:1 340:1 341:1 374:1 405:1 408:1 422:1 1162:1 1179:1 1180:1 1181:1 1183:1 1184:1 1691:1 1692:1 1693:1 1694:1 1695:1 1696:1 1697:1 1698:1 1699:1 1700:1 1708:1 1709:1 1713:1 1718:1 1720:1 
0.03008165199881343 3:1 10:1 34:2 35:2 38:1 39:1 42:1 43:1 44:1 45:1 46:1 59:2 60:3 61:1 88:1 91:1 92:1 133:1 156:1 159:1 190:1 222:1 246:1 248:1 249:1 262:1 304:1 316:1 334:1 335:1 795:1 1179:1 1180:1 1181:1 1183:1 1184:1 1691:1 1692:1 1693:1 1694:1 1695:1 1696:1 1697:1 1698:1 1699:1 1700:1 1708:1 1709:1 1721:1 1722:1 1724:1 
0.116371043873417 3:1 8:1 10:1 34:1 35:4 37:1 38:1 39:1 54:1 58:1 88:1 91:1 92:1 96:1 97:2 98:1 197:1 221:1 222:1 227:1 257:1 262:1 438:1 485:1 545:1 1196:1 1438:1 1586:1 1594:1 1910:1 1911:1 1912:1 1913:1 1914:1 1915:1 1916:1 1917:1 1918:1 1919:1 1920:1 1921:1 1922:1 1923:1 1924:1 1925:1 1926:1 1927:1 1928:1 1929:1 1930:1 
0.0008803376116257168 34:5 35:2 39:1 45:1 54:1 57:1 58:1 59:2.5 60:3 61:2 81:1 88:1 91:1 92:1 95:1 97:3 98:1 99:1 130:1 132:1 133:1 155:1 156:1 158:1 160:1 217:1 221:1 244:1 255:1 264:1 411:1 603:1 1521:1 1522:1 1677:1 1757:1 1770:1 1884:1 1924:1 2038:1 2039:1 2040:1 2041:1 2042:1 2043:1 2044:1 2045:1 2049:1 2058:1 2059:1 2060:1 2061:1 2062:1 2063:1 
0.03203846898744647 34:6 35:3 39:1 45:1 54:1 57:1 58:1 59:2.5 60:3 61:2 77:1 81:1 84:1 91:1 92:1 95:1 97:3 98:1 99:1 112:1 130:1 184:1 185:1 186:1 187:1 227:1 264:1 411:1 413:1 431:1 1101:1 1104:1 1105:1 1206:1 1313:1 1450:1 1487:1 1488:1 1586:1 1587:1 1687:1 1775:1 1956:1 1957:1 1958:1 1960:1 1988:1 2070:1 2071:1 2073:1 2081:1 2082:1 2083:1 2084:1 2085:1 
0.2424708678523006 24:1 39:1 42:1 43:1 45:1 53:1 54:1 55:1 57:1 59:1.5 60:2 61:1 77:1 84:1 91:1 92:1 97:1 98:1 99:1 136:1 137:1 138:1 139:1 140:1 141:1 153:1 154:1 156:1 160:1 161:1 162:1 164:1 165:1 166:1 167:1 168:1 193:1 217:1 1221:1 1306:1 1307:1 1313:1 1516:1 1771:1 1950:1 2075:1 2083:1 2084:1 2089:1 
0.03866355770901967 34:5 35:2 39:1 45:1 54:1 57:1 58:1 59:2.5 60:3 61:2 77:1 81:1 84:1 91:1 92:1 95:1 97:3 98:1 99:1 130:1 133:1 181:1 226:1 264:1 1101:1 1104:1 1105:1 1171:1 1206:1 1449:1 1450:1 1586:1 1587:1 1615:1 1687:1 1785:1 1786:1 1926:1 1936:1 1956:1 1957:1 1958:1 1960:1 2038:1 2039:1 2040:1 2041:1 2091:1 2092:1 2093:1 2100:1 2101:1 2102:1 2103:1 
0.004180401881961691 12:1 34:1 35:1 39:1 44:1 45:1 46:1 54:1 57:1 58:1 59:2 60:2 61:2 97:1 441:1 456:1 458:1 488:1 492:1 561:1 699:1 1521:1 1522:1 1757:1 1758:1 1924:1 2033:1 2035:1 2036:1 2037:1 2038:1 2039:1 2040:1 2041:1 2043:1 2044:1 2045:1 2046:1 2047:1 2048:1 2049:1 2050:1 2105:1 2106:1 2107:1 2108:1 2109:1 
0.01870924808970936 34:4 35:2 38:1 39:2 45:1 59:3 60:5 61:1 81:1 88:1 91:1 92:1 95:2 96:1 97:3 98:1 99:1 130:1 132:1 133:1 155:1 156:1 158:1 160:1 186:1 187:1 217:1 236:1 238:1 255:1 256:1 264:1 322:1 323:1 411:1 413:1 431:1 482:1 603:1 1615:1 1641:1 1677:1 1750:1 1752:1 1754:1 1884:1 1936:1 2028:1 2060:1 2117:1 2119:1 2120:1 2121:1 2122:1 2123:1 2124:1 2126:1 2127:1 2128:1 2129:1 2130:1 2131:1 
0.005127844652324343 12:1 13:1 34:1 35:1 39:1 44:1 45:1 46:1 54:1 57:1 58:1 59:2.5 60:3 61:2 97:1 172:1 176:1 184:1 185:1 186:1 187:1 300:1 384:1 385:1 386:1 891:1 1462:1 1465:1 1466:1 1586:1 1587:1 1661:1 1664:1 2071:1 2073:1 2130:1 2150:1 2151:1 2152:1 2153:1 2154:1 2155:1 2156:1 2157:1 2158:1 2159:1 2160:1 
0.01562006008410378 24:1 34:4 35:2 39:1 44:1 45:1 46:1 53:1 54:1 55:1 57:1 58:1 59:2.5 60:3 61:2 91:1 92:1 97:1 127:1 130:1 142:1 143:1 144:1 156:1 159:1 160:1 229:1 248:1 249:1 250:1 360:1 411:1 413:1 431:1 599:1 1202:1 1488:1 1640:1 1642:1 1781:1 2087:1 2321:1 2322:1 2323:1 2324:1 2325:1 2327:1 
0.02524439448566234 34:3 35:1 39:1 45:1 54:1 57:1 58:1 59:3.5 60:5 61:2 65:1 97:1 98:1 99:1 172:1 175:1 176:1 197:1 209:1 231:1 232:1 233:1 234:1 240:1 241:1 242:1 455:1 463:1 791:1 1465:1 1685:1 2077:1 2163:1 2312:1 2313:1 2415:1 2416:1 2417:1 2418:1 2419:1 2424:1 2426:1 2430:1 2431:1 2432:1 2433:1 2434:1 2435:1 2436:1 2437:1 2438:1 
0.0598847440921778 8:1 13:1 35:1 37:1 45:1 77:1 84:1 88:1 91:1 92:1 95:1 97:4 98:1 99:1 100:1 215:1 221:1 244:1 262:1 411:1 414:1 1180:1 1183:1 1414:1 1472:1 1554:1 1594:1 1651:1 1652:1 1884:1 2054:1 2060:1 2071:1 2129:1 2155:1 2156:1 2491:1 2492:1 2493:1 2494:1 2495:1 2496:1 2497:1 2499:1 2503:1 2504:1 2506:1 2507:1 2509:1 2510:1 2511:1 2512:1 2513:1 2514:1 2515:1 
0.04183705138410394 22:1 34:2 35:1 39:1 45:1 54:1 57:1 58:1 59:3.5 60:5 61:2 80:1 91:1 92:1 98:1 99:1 264:1 488:1 595:1 655:1 2025:1 2541:1 2542:1 2543:1 2544:1 2545:1 2546:1 2547:1 2548:1 2549:1 2559:1 2560:1 2564:1 2565:1 2566:1 2624:1 2625:1 2626:1 2627:1 2628:1 2629:1 2630:1 2631:1 2632:1 2633:1 2634:1 2635:1 2636:1 2637:1 
0.00617338680247538 34:5 35:1 39:1 45:1 54:1 57:1 58:1 59:5 60:6 61:4 97:1 98:1 99:1 134:1 146:1 148:1 156:1 160:1 217:1 219:1 374:1 467:1 526:1 647:1 1697:1 1853:1 1891:1 2402:1 2642:1 2643:1 2644:1 2645:1 2646:1 2647:1 2648:1 2649:1 2650:1 2651:1 2652:1 2653:1 2654:1 2655:1 2656:1 2657:1 2658:1 2659:1 2660:2 2661:1 2662:1 2663:1 2664:1 2665:1 2666:1 2667:1 2668:1 2669:1 2670:1 2671:1 2672:1 2673:1 2674:1 
0.007426740764312428 34:6 35:3 38:1 39:1 45:1 54:1 57:1 58:1 59:2.5 60:4 61:1 78:1 91:1 92:1 93:1 94:1 97:1 98:1 99:1 156:1 217:1 264:1 647:1 824:1 1196:1 1554:1 1604:1 1697:1 1956:1 1958:1 2649:1 2650:1 2651:1 2652:1 2653:1 2654:1 2655:1 2656:1 2657:1 2666:1 2667:1 2671:1 2672:1 2673:1 2719:1 2721:1 2722:1 2723:1 2724:1 2725:1 2728:1 2729:1 2730:1 2733:1 2734:1 2735:1 2736:1 2737:1 2738:1 2739:1 2740:1 2741:1 2742:1 
0.02195543217050553 34:1 35:1 39:1 44:1 45:1 46:1 54:1 57:1 58:1 59:2 60:2 61:2 91:1 92:1 97:1 179:1 488:1 561:1 595:1 973:1 977:1 999:1 1000:1 1053:1 1089:1 1604:1 1615:1 2755:1 2756:1 2757:1 2760:1 2761:1 2762:1 2763:1 2764:1 2765:1 2766:1 2767:1 2768:1 2769:1 2770:1 2771:1 2772:1 2773:1 2774:1 2775:1 2776:1 2777:1 2778:1 
0.0583201780163532 32:1 34:5 35:1 38:1 39:1 45:1 53:1 54:1 55:1 57:1 58:1 98:1 99:1 184:1 185:1 186:1 187:1 201:1 263:1 264:1 282:1 283:1 1194:1 1221:1 1225:1 1238:1 1325:1 1680:1 1701:1 1702:1 1703:1 1705:1 1707:1 2179:1 2779:1 2780:1 2781:1 2782:1 2783:1 2784:1 2785:1 2786:1 2787:1 2788:1 2789:1 2790:1 2791:1 
0.05229166510942689 34:2 38:1 39:1 42:1 43:1 45:1 59:2.5 60:3 61:2 88:1 90:1 91:1 92:1 98:1 99:1 106:1 114:1 115:1 116:1 118:1 136:1 137:1 138:1 139:1 140:1 141:1 153:1 154:1 264:1 1684:1 1821:1 1826:1 1827:1 1828:1 1830:1 1943:1 2007:1 2008:1 2156:1 2827:1 2828:1 2829:1 2830:1 2907:1 2908:1 2909:1 2933:1 2934:1 2935:1 2936:1 2938:1 
0.04932931841374912 34:5 38:1 39:1 45:1 54:1 57:1 58:1 59:2.5 60:3 61:2 91:1 92:1 98:1 99:1 156:1 217:1 264:1 360:1 795:1 1194:1 1306:1 1307:1 1407:1 1586:1 1587:1 1615:1 1769:1 1812:1 1813:1 1814:1 1815:1 1816:1 2028:1 2301:1 2833:1 2941:1 2942:1 2943:1 2944:1 2945:1 2946:1 2947:1 2948:1 2949:1 2950:1 
0.3732522621410997 35:4 38:1 39:1 45:1 59:1.5 60:2 61:1 81:1 91:1 92:1 95:1 96:1 97:2 98:1 99:1 130:1 170:1 172:1 175:1 231:1 232:1 233:1 234:1 257:1 258:1 1196:1 1406:1 1407:1 1408:1 1430:1 1436:1 1437:1 1438:1 1444:1 1592:1 1594:1 1671:1 1729:1 1775:1 1827:1 1830:1 1831:1 2141:1 2783:1 2896:1 2903:1 2904:1 2961:1 2969:1 2970:1 2971:1 2972:1 2973:1 2974:1 2975:1 2976:1 2977:1 
0.1345607178964228 32:1 34:6 35:1 38:1 39:1 42:1 45:1 54:1 57:1 58:1 59:3 60:5 61:1 98:1 99:1 172:1 175:1 264:1 360:1 370:1 373:1 474:1 1194:1 1221:1 1225:1 1430:1 1436:1 1437:1 1444:1 1586:1 1587:1 1640:1 1642:1 1644:1 1701:1 1702:1 1812:1 1950:1 2071:1 2323:1 2324:1 2781:1 2783:1 2923:1 2963:1 2964:1 2966:1 2967:1 2971:1 2972:1 2973:1 2975:1 2976:1 2978:1 
0.01667063010057268 32:1 34:1 35:1 39:1 42:1 44:1 45:1 46:1 54:1 57:1 58:1 59:3 60:4 61:2 97:1 127:1 130:1 1101:1 1105:1 1160:1 1201:1 1202:1 1206:1 1207:1 1209:1 1221:1 1225:1 1450:1 1586:1 1587:1 1619:1 1640:1 1642:1 1644:1 1950:1 1954:1 2071:1 2130:1 2141:1 2148:1 2323:1 2324:1 2917:1 2957:1 2963:1 2964:1 2967:1 2980:1 
0.02215140073300737 34:1 38:1 39:1 44:1 45:1 46:1 59:1.5 60:2 61:1 134:1 146:1 148:1 156:1 159:1 795:1 1087:1 1091:1 1129:1 1827:1 1830:1 1831:1 2759:1 2992:1 2995:1 2997:1 2998:1 2999:1 3000:1 3001:1 3002:1 3003:1 3004:1 3005:1 3006:1 3008:1 3009:1 3010:1 3011:1 3012:1 3013:1 3014:1 3015:1 3016:1 3017:1 3018:1 3019:1 
0.01739881914218888 25:1 34:3 39:1 42:1 44:1 45:1 46:1 59:2.5 60:3 61:2 90:1 97:1 150:1 190:1 195:1 374:1 488:1 492:1 561:1 1179:1 1180:1 1181:1 1183:1 1184:1 1630:1 1697:1 2538:1 3140:1 3141:1 3142:1 3143:1 3144:1 3145:1 3146:1 3147:1 3151:1 3152:1 3153:1 3154:1 3165:1 3167:1 3169:1 3174:1 3175:1 3176:1 3177:1 3178:1 3179:1 3180:1 3181:1 3182:1 
0.01417322073580755 17:1 18:1 19:1 20:1 24:1 32:1 34:1 39:1 42:1 44:1 45:1 46:1 53:1 54:1 55:1 56:1 57:1 58:1 97:1 167:1 365:1 366:1 1221:1 1225:1 1619:1 1954:1 3217:1 3231:1 3232:1 3233:1 3234:1 3235:1 3236:1 3237:1 3238:1 3239:1 
0.05166312149495572 3:1 8:2 10:1 12:1 24:1 35:4 37:2 38:1 39:1 45:1 53:1 54:1 55:1 57:1 58:1 84:1 88:1 91:1 92:1 95:1 96:1 97:2 98:1 99:1 165:1 197:1 256:1 257:1 275:1 386:1 1080:1 1439:1 1488:1 1615:1 1950:1 1998:1 2062:1 2141:1 2939:1 2941:1 2942:1 2943:1 2944:1 2954:1 3313:1 3314:1 3315:1 3316:1 
0.01101802854214675 17:1 18:1 19:1 20:1 24:1 34:1 35:1 39:1 44:1 45:1 46:1 53:1 54:1 55:1 56:1 57:1 58:1 59:3.5 60:4 61:3 97:1 132:1 133:1 155:1 156:1 157:1 159:1 160:1 245:1 365:1 463:1 507:1 510:1 1488:1 2417:1 2424:1 2953:1 2954:1 3217:1 3237:1 3314:1 3318:1 3319:1 3322:1 3337:1 3338:1 3342:1 
0.09415412809208439 34:1 38:1 42:1 44:1 193:1 414:1 485:1 557:1 1571:1 1827:1 3359:1 3360:1 3361:1 3362:1 3363:1 3364:1 3365:1 3366:1 3367:1 3368:1 3371:1 3372:1 3373:1 3375:1 3376:1 3377:1 3378:1 3379:1 3383:1 3385:1 3387:1 3388:1 3389:1 3390:1 3392:1 3393:1 3394:1 3395:1 
0.05193497620733155 34:1 42:1 59:2 60:3 61:1 88:1 91:1 92:1 97:1 156:1 160:1 193:1 485:1 607:1 609:1 1827:1 3359:1 3360:1 3361:1 3362:1 3363:1 3364:1 3365:1 3366:1 3367:1 3372:1 3375:1 3376:1 3377:1 3378:1 3379:1 3396:1 3397:1 3398:1 3399:1 3400:1 3401:1 3402:1 3403:1 3404:1 3405:1 3406:1 3407:1 3408:1 3409:1 
0.03123731923281586 12:1 35:1 39:1 44:1 45:1 46:1 54:1 57:1 58:1 59:2 60:2 61:2 91:1 92:1 97:1 170:1 488:1 561:1 595:1 973:1 977:1 1053:1 1615:1 2755:1 2774:1 3413:1 3414:1 3417:1 3418:1 3419:1 3420:1 3421:1 3422:1 3423:1 3424:1 3425:1 3426:1 3427:1 3428:1 3429:1 3430:1 3431:1 3432:1 3433:1 3434:1 
0.001770385057848147 34:3 35:1 42:1 44:1 45:1 46:1 88:1 91:1 92:1 97:1 128:1 288:1 589:1 1087:1 1580:1 3215:1 3447:1 3448:1 3449:1 3450:1 3451:1 3452:1 3453:1 3454:1 3458:1 3459:1 3460:1 3461:1 3462:1 3463:1 3465:1 3466:1 3467:1 3468:1 3469:1 3470:1 3471:1 
-0.003438001860373162 5:1 7:2 8:1 9:1 10:1 17:1 18:1 19:1 20:1 21:1 22:1 23:1 24:1 25:1 26:1 35:5 36:1 37:1 38:1 39:1 42:1 43:1 45:1 53:1 54:1 55:1 56:1 57:1 58:1 59:4 60:7 61:1 68:1 69:1 71:1 73:1 74:1 75:1 76:1 77:1 78:1 79:1 80:1 81:1 82:1 83:1 84:1 85:1 86:1 87:1 88:1 89:1 90:1 91:1 92:1 93:1 94:1 95:1 96:1 97:1 98:1 99:1 100:1 101:1 102:1 
-0.04914893452722271 24:1 25:1 39:1 42:1 43:1 45:1 53:1 54:1 55:1 57:1 59:1.5 60:2 61:1 77:1 84:1 88:1 91:1 92:1 97:1 98:1 99:1 136:1 137:1 138:1 139:1 140:1 141:1 142:1 143:1 144:1 145:1 153:1 154:1 161:1 162:1 164:1 165:1 166:1 167:1 168:1 169:1 170:1 171:1 172:1 173:1 174:1 175:1 176:1 177:1 
-0.006722361482194941 25:1 35:1 42:1 45:1 47:1 48:1 59:1.5 60:2 61:1 88:1 91:1 92:1 278:1 279:1 280:1 281:1 282:1 283:1 284:1 285:1 286:1 288:1 289:1 290:1 291:1 292:1 293:1 294:1 296:1 297:1 298:1 299:1 300:1 301:1 302:1 303:1 304:1 305:1 306:1 307:1 308:1 309:1 310:1 311:1 312:1 
-0.01691588504567763 5:2 8:1 10:1 13:1 17:1 18:1 19:1 20:1 21:1 22:1 23:1 24:1 25:1 35:8 36:2 37:1 38:1 39:1 42:1 43:1 45:1 53:1 54:1 55:1 56:1 57:1 58:1 77:1 78:1 80:1 81:1 82:1 83:1 84:1 88:1 91:1 92:1 93:1 94:1 95:1 96:1 97:1 98:1 99:1 100:1 221:1 244:1 262:1 347:1 392:1 410:1 411:3 412:1 413:1 414:1 415:1 416:1 417:1 
-0.001368418649776384 5:1 8:1 10:1 17:1 18:1 19:1 20:1 21:1 22:1 23:1 24:1 25:1 35:6 36:1 37:1 38:1 39:1 42:1 43:1 45:1 53:1 54:1 55:1 56:1 57:1 58:1 59:4 60:7 61:1 67:1 69:1 73:1 77:1 78:1 80:1 81:1 82:1 83:1 84:1 88:1 91:1 92:1 93:1 94:1 95:1 96:1 97:1 98:1 99:1 100:1 102:1 262:1 347:1 411:2 412:1 413:1 415:1 416:1 420:1 421:1 422:1 423:1 424:1 425:1 426:1 427:1 
-0.01752824059211351 34:1 59:3.5 60:5 61:2 91:1 92:1 97:1 98:1 154:2 155:1 156:1 160:1 217:1 444:1 445:1 446:1 447:1 448:1 449:1 450:1 451:1 452:1 453:1 454:1 455:1 482:1 485:1 493:1 494:1 495:1 496:1 497:1 498:1 507:1 534:1 536:1 545:1 572:1 597:1 598:1 599:1 600:1 601:1 602:1 603:1 604:1 605:1 
-0.018898223784911 35:3 45:1 59:2 60:3 61:1 91:1 92:1 97:1 98:1 99:1 134:1 288:1 290:1 293:1 294:1 488:1 492:1 655:1 702:1 703:1 704:1 705:1 706:1 707:1 708:1 709:1 710:1 711:1 750:1 751:1 752:1 907:1 953:1 971:1 972:1 973:1 974:1 975:1 976:1 977:1 978:1 979:1 980:1 981:1 982:1 983:1 984:1 
-0.03884145225460719 35:1 39:1 45:1 54:1 57:1 58:1 59:1.5 60:2 61:1 88:1 91:1 92:1 97:1 98:1 99:1 156:1 160:1 193:1 217:1 262:1 1006:1 1164:1 1165:1 1166:1 1167:1 1219:1 1220:1 1221:1 1222:1 1223:1 1240:1 1241:1 1245:1 1246:1 1247:1 1296:1 1297:1 1298:1 1299:1 1300:1 1301:1 1302:1 1303:1 1304:1 1305:1 1306:1 1307:1 1308:1 1309:1 
-0.004593994427675951 23:1 39:1 45:1 54:1 57:1 58:1 59:1.5 60:2 61:1 91:1 92:1 97:1 134:1 156:1 160:1 188:1 248:1 306:1 307:1 599:1 900:1 949:1 1347:1 1348:1 1349:1 1350:1 1351:1 1352:1 1353:1 1354:1 1372:1 1373:1 1377:1 1378:1 1379:1 1381:1 1382:1 1383:1 1384:1 1385:1 1386:1 1387:1 1388:1 1389:1 1390:1 1391:1 1392:1 
-0.001799834957794746 35:5 39:1 45:1 53:1 54:1 55:1 57:1 58:1 59:1.5 60:2 61:1 84:1 88:1 91:1 92:1 96:1 97:2 98:1 99:1 127:1 128:1 130:1 172:1 175:1 176:1 192:1 222:1 257:1 262:1 288:1 316:1 703:1 705:1 1196:1 1401:1 1402:1 1403:1 1404:1 1405:1 1406:1 1407:1 1408:1 1418:1 1430:1 1435:1 1436:1 1437:1 1438:1 1439:1 1440:1 1441:1 1442:1 1443:1 1444:1 1445:1 1446:1 
-0.0382900745786281 3:1 8:1 10:1 24:1 35:7 37:1 38:1 39:1 45:1 53:1 54:1 55:1 57:1 58:1 59:1.5 60:2 61:1 84:1 88:1 91:1 92:1 94:1 95:1 96:2 97:2 98:1 99:1 130:1 165:1 171:1 172:1 173:1 174:1 175:1 176:1 184:1 185:1 186:1 187:1 201:1 221:1 222:2 257:2 258:1 259:1 315:1 316:1 364:1 1168:1 1169:1 1196:2 1438:1 1478:1 1479:1 1480:1 1481:1 1482:1 1483:1 1484:1 1485:1 1486:1 1487:1 1488:1 1489:1 
-0.002225711701451655 10:1 12:1 13:1 35:4 38:1 39:1 42:1 45:1 54:1 57:1 58:1 91:1 92:1 97:1 98:1 99:1 100:1 221:1 244:1 283:1 411:1 1313:1 1407:1 1437:1 1504:1 1505:1 1506:1 1507:1 1508:1 1509:1 1510:1 1511:1 1512:1 1513:1 1514:1 1515:1 1516:1 1517:1 1518:1 1519:1 1520:1 1521:1 1522:1 1523:1 
-0.001387141356446401 24:1 35:4 39:1 45:1 53:1 54:1 55:1 57:1 58:1 59:1.5 60:2 61:1 84:1 88:1 91:1 92:1 95:1 96:1 97:2 98:1 99:1 127:1 128:1 130:1 156:1 160:1 165:1 217:1 219:1 222:1 229:1 257:1 262:1 316:1 1202:1 1402:1 1403:1 1418:1 1439:1 1442:1 1488:1 1545:1 1546:1 1547:1 1548:1 1549:1 1560:1 1561:1 1562:1 1563:1 1564:1 1565:1 1566:1 1567:1 1568:1 1569:1 1570:1 
-0.03023754872422126 34:1 35:2 39:1 42:1 45:1 54:1 57:1 58:1 59:1.5 60:2 61:1 88:1 91:1 92:1 97:1 98:1 99:1 172:1 175:1 176:1 197:1 236:1 261:1 1406:1 1430:1 1437:1 1440:1 1444:1 1512:1 1513:1 1514:1 1515:1 1580:1 1581:1 1582:1 1583:1 1586:1 1587:1 1588:1 1590:1 1591:1 1592:1 1593:1 1594:1 1595:1 1596:1 1597:1 1598:1 1599:1 
-0.1113352311735466 34:10 39:1 42:1 43:1 45:1 59:2.5 60:3 61:2 97:1 98:1 99:1 150:1 168:1 190:1 195:1 197:1 254:1 255:1 264:2 374:1 463:1 1101:1 1104:1 1105:1 1179:1 1180:1 1181:1 1183:1 1184:1 1194:1 1206:1 1676:1 1677:1 1678:1 1679:1 1680:1 1681:1 1687:1 1688:1 1691:1 1692:1 1693:1 1694:1 1695:1 1696:1 1697:1 1698:1 1699:1 1700:1 1701:1 1702:1 1703:1 1704:1 1705:2 1706:1 1707:1 1708:1 1709:1 1710:1 
-0.0326382900069215 21:1 22:1 24:1 39:1 42:1 45:1 59:2 60:2 61:2 77:1 84:1 91:1 92:1 97:1 98:1 99:1 137:1 138:1 139:1 141:1 154:1 156:1 160:1 164:1 165:1 168:1 193:1 217:1 1306:1 1307:1 1313:1 1679:1 1682:1 1771:1 1792:1 1793:1 1797:1 1798:1 1799:1 1800:1 1801:1 1802:1 1804:1 1805:1 1806:1 1807:1 
-0.01253803916745855 8:1 35:2 37:1 45:1 59:4.5 60:5 61:4 78:1 91:1 92:1 93:1 94:1 97:2 98:1 99:1 100:1 114:1 115:1 116:1 118:1 123:1 288:1 290:1 293:1 294:1 531:1 537:1 826:1 1068:1 1160:1 1481:1 1554:1 1840:1 1841:1 1842:1 1843:1 1844:1 1845:1 1846:1 1847:1 1848:1 1849:1 1863:1 1864:1 1865:1 1866:1 1867:1 1868:1 1869:1 1870:1 1871:1 1872:1 1873:1 1874:1 1875:1 1876:1 1877:1 1878:1 1879:1 1880:1 1881:1 1882:1 1883:1 1884:3 1885:1 1886:1 
-0.102753614181613 34:1 35:2 39:1 54:1 58:1 91:1 92:1 96:1 97:2 98:1 197:1 227:1 257:1 263:1 438:1 485:1 507:1 545:1 1196:1 1438:1 1586:1 1594:1 1911:1 1912:1 1913:1 1914:1 1915:1 1916:1 1918:1 1919:1 1920:1 1921:1 1922:1 1923:1 1924:1 1925:1 1926:1 1927:1 1928:1 1929:1 1930:1 1931:1 1932:1 1933:1 
-0.01034401248868869 24:1 35:4 39:1 45:1 53:1 54:1 55:1 57:1 84:1 91:1 92:1 95:1 96:1 97:2 98:1 99:1 127:1 130:1 136:1 137:1 138:1 139:1 140:1 141:1 153:1 154:1 161:1 162:1 165:1 166:1 167:1 168:1 207:1 215:1 219:1 221:1 222:1 257:1 258:1 443:1 1554:1 1580:1 1979:1 1980:1 1981:1 1982:1 1983:1 1984:1 1985:1 1986:1 1987:1 
-0.005162167589131289 35:3 38:2 39:1 45:1 88:1 89:1 90:1 91:1 92:1 95:2 96:1 98:1 99:1 128:1 138:1 140:1 141:1 153:1 154:1 167:1 168:1 219:1 221:1 222:1 257:1 282:1 365:1 1611:1 1612:1 1615:1 1814:1 1816:1 1821:1 1826:1 1827:1 1828:1 1830:1 1873:1 1884:1 1950:1 1971:1 1973:1 1976:1 2003:1 2004:1 2005:1 2006:1 2007:1 2008:1 
-0.09701507006020864 24:1 35:3 39:1 42:1 43:1 45:1 53:1 54:1 55:1 57:1 59:3 60:4 61:2 77:1 81:1 84:1 91:1 92:1 95:1 97:3 98:1 99:1 100:1 112:1 130:1 136:1 137:1 138:1 139:1 140:1 141:1 153:1 154:1 161:1 162:1 193:1 411:1 413:1 431:1 1101:1 1104:1 1105:1 1206:1 1221:1 1313:1 1450:1 1516:1 1687:1 1950:1 1956:1 1957:1 1958:1 1960:1 1988:1 2075:1 2081:1 2082:1 2083:1 2084:1 2086:1 
-0.01035453023204715 34:1 39:2 45:1 59:2 60:3 61:1 91:1 92:1 97:1 98:1 99:1 156:1 160:1 186:1 187:1 197:1 217:1 236:1 238:1 261:1 322:1 323:1 360:1 379:1 482:1 675:1 1592:1 1594:1 1615:1 1641:1 1673:1 1752:1 1754:1 1766:1 2028:1 2066:1 2067:1 2115:1 2116:1 2117:1 2118:1 2119:1 2120:1 2121:1 2122:1 2123:1 2124:1 2125:1 
-0.03999113361202476 34:2 54:1 59:2.5 60:3 61:2 97:1 98:1 264:1 485:1 488:1 492:1 505:1 545:1 655:1 1094:1 1930:1 2170:1 2171:1 2172:1 2173:1 2174:1 2175:1 2176:1 2177:1 2178:1 2179:1 2180:1 2196:1 2197:1 2203:1 2204:1 2205:1 2206:1 2252:1 2253:1 2254:1 2255:1 2256:1 2257:1 2258:1 2259:1 2260:1 2261:1 2262:1 2263:1 2264:1 2265:1 2266:1 
-0.009044624197094862 24:1 35:1 38:1 39:1 45:1 53:1 54:1 55:1 57:1 84:1 91:1 92:1 95:1 96:1 97:1 98:1 99:1 138:1 140:1 141:1 153:1 154:1 161:1 162:1 165:1 167:1 168:1 197:1 221:1 256:1 394:1 1566:1 1611:1 1612:1 1615:1 1686:1 1739:1 1740:1 1973:1 1976:1 1993:1 1998:1 2281:1 2282:1 2283:1 2284:1 2285:1 
-0.02257047047088038 22:1 35:3 38:1 39:1 45:1 59:1.5 60:2 61:1 91:1 92:1 95:1 97:1 98:1 99:1 127:1 130:1 136:1 137:1 138:1 139:1 140:1 141:1 153:1 154:1 156:1 166:1 167:1 168:1 217:1 221:1 222:1 389:1 795:1 1306:1 1307:1 1313:1 1314:1 1479:1 1814:1 1816:1 1821:1 1826:1 1827:1 1828:1 1830:1 2007:1 2008:1 2286:1 2287:1 2288:1 2289:1 2299:1 2300:1 2301:1 2303:1 
-0.02303676508095933 24:1 35:3 39:1 45:1 53:1 54:1 55:1 57:1 59:1.5 60:2 61:1 84:1 91:1 92:1 95:1 96:1 97:2 98:1 99:1 127:1 130:1 134:1 136:1 137:1 138:1 139:1 140:1 141:1 153:1 154:1 156:1 160:1 161:1 162:1 165:1 166:1 167:1 168:1 217:1 219:1 221:1 222:1 229:1 257:1 258:1 360:1 1488:1 1549:1 1812:1 2089:1 2361:1 2362:1 2363:1 2364:1 2365:1 2366:1 
-0.01006889020036271 8:1 12:1 13:1 35:4 37:1 39:1 45:1 54:1 57:1 58:1 91:1 92:1 97:3 98:1 99:1 100:1 197:1 209:1 215:1 231:1 232:1 233:1 234:1 240:1 241:1 242:1 255:1 316:1 335:1 455:1 1151:1 1472:1 1677:1 1685:1 1946:1 1981:1 2313:1 2410:1 2411:1 2412:1 2413:1 2414:1 2415:1 2416:1 2417:1 2418:1 2419:1 
-0.008525147723270295 5:1 8:1 12:1 13:1 35:3 36:1 37:1 39:1 42:1 45:1 53:1 54:1 55:1 57:1 77:1 84:1 88:1 91:1 92:1 95:1 96:1 97:7 98:1 99:1 100:1 137:1 138:1 139:1 141:1 154:1 161:1 162:1 188:1 189:1 190:1 191:1 192:1 193:1 197:1 206:1 207:1 209:1 214:1 215:2 257:1 262:1 1472:1 1594:1 1682:1 1785:1 1786:1 1956:1 1958:1 2439:1 2440:1 2441:1 2442:1 2443:1 2444:1 2445:1 2446:1 2447:1 
-0.0001126662402529223 25:1 39:1 42:1 43:1 45:1 54:1 57:1 58:1 59:1.5 60:2 61:1 88:1 91:1 92:1 97:1 98:1 99:1 132:1 155:1 156:1 160:1 184:1 185:1 186:1 187:1 217:1 262:1 361:1 416:1 603:1 1293:1 1484:1 1586:1 1587:1 1592:1 1594:1 2066:1 2067:1 2071:1 2073:1 2478:1 2479:1 2480:1 2487:1 2488:1 2489:1 2490:1 
-0.0232977495666627 45:1 59:1.5 60:2 61:1 91:1 92:1 97:1 98:1 99:1 432:1 507:1 1180:1 1183:1 1592:1 1594:1 1651:1 1652:1 2066:1 2067:1 2071:1 2155:1 2156:1 2161:1 2491:1 2492:1 2493:1 2494:1 2495:1 2496:1 2497:1 2499:1 2503:1 2504:1 2506:1 2507:1 2522:1 2523:1 2524:1 2525:1 2526:1 2527:1 2528:1 2529:1 2530:1 2531:1 2532:1 2533:1 
-0.01513388207619518 22:1 39:1 45:1 54:1 57:1 58:1 59:1.5 60:2 61:1 91:1 92:1 97:1 98:1 99:1 156:1 160:1 217:1 1306:1 1307:1 1726:1 1769:1 2541:1 2542:1 2543:1 2544:1 2545:1 2546:1 2547:1 2548:1 2549:1 2559:1 2560:1 2564:1 2565:1 2566:1 2575:1 2613:1 2614:1 2615:1 2616:1 2617:1 2618:1 2619:1 2620:1 2621:1 2622:1 2623:1 
-0.02886612100053504 34:3 39:1 45:1 48:1 54:1 57:1 58:1 59:2.5 60:3 61:2 91:1 92:1 97:1 98:1 99:1 569:1 1697:1 1745:1 1746:1 2649:1 2650:1 2651:1 2652:1 2653:1 2654:1 2655:1 2656:1 2657:1 2666:1 2667:1 2671:1 2672:1 2673:1 2701:1 2702:1 2705:1 2706:1 2707:1 2708:1 2709:1 2710:1 2711:1 2712:1 2713:1 2714:1 2715:1 2716:1 2717:1 
-0.01980773563941657 34:1 35:1 39:1 45:1 54:1 57:1 58:1 91:1 92:1 97:2 98:1 99:1 179:1 536:1 598:1 977:1 1053:1 1089:1 1313:1 1615:1 2754:1 2755:1 2756:1 2757:1 2758:1 2759:1 2760:1 2761:1 2762:1 2763:1 2764:1 2765:1 2766:1 2767:1 2768:1 2769:1 2770:1 2771:1 2772:1 2773:1 
-0.1119751531443819 34:8 35:3 39:1 45:1 53:1 54:1 55:1 57:1 58:1 59:2.5 60:3 61:2 91:1 92:1 95:1 96:1 97:2 98:1 99:1 127:1 130:1 156:1 160:1 184:1 185:1 186:1 187:1 201:1 217:1 219:1 222:1 254:1 255:1 257:1 258:1 282:1 283:1 407:1 1221:1 1306:1 1307:1 1439:1 1671:1 1672:1 1904:1 2179:1 2786:1 2787:1 2790:1 2791:1 2806:1 2807:1 2808:1 2809:1 2810:1 2811:1 2812:1 
-0.003728678459684576 38:1 39:1 42:1 43:1 45:1 59:1.5 60:2 61:1 91:1 92:1 98:1 99:1 156:1 181:1 184:1 185:1 186:1 187:1 193:1 217:1 795:1 1306:1 1307:1 1313:1 1484:1 1684:1 1813:1 1814:1 1815:1 1816:1 1821:1 1826:1 1827:1 1828:1 1829:1 1830:1 1831:1 2096:1 2301:1 2841:1 2842:1 2857:1 2858:1 2859:1 2860:1 
-0.03751809645233971 38:1 39:1 42:1 43:1 45:1 59:1.5 60:2 61:1 91:1 92:1 98:1 99:1 136:1 137:1 138:1 139:1 140:1 141:1 153:1 154:1 156:1 166:1 167:1 168:1 217:1 507:1 795:1 1306:1 1307:1 1604:1 1684:1 1813:1 1814:1 1815:1 1816:1 1821:1 1826:1 1827:1 1828:1 1830:1 2007:1 2008:1 2156:1 2301:1 2303:1 2907:1 2908:1 2909:1 2931:1 
-0.02590271289167432 12:1 35:1 39:1 45:1 54:1 57:1 58:1 91:1 92:1 97:1 98:1 99:1 1407:1 1436:1 1437:1 1586:1 1587:1 1592:1 1594:1 1615:1 1619:1 2028:1 2108:1 2821:1 2928:1 2939:1 2940:1 2941:1 2942:1 2943:1 2944:1 2945:1 2946:1 2947:1 2948:1 
-0.222247362410039 35:4 38:1 39:1 42:1 45:1 54:1 57:1 58:1 59:3 60:5 61:1 81:1 91:1 92:1 95:1 96:1 97:2 98:1 99:1 100:1 130:1 170:1 172:1 175:1 257:1 258:1 1196:1 1221:1 1430:1 1436:1 1437:1 1438:1 1444:1 1586:1 1587:1 1592:1 1594:1 1640:1 1642:1 1644:1 1671:1 1950:1 2071:1 2141:1 2323:1 2324:1 2783:1 2963:1 2964:1 2967:1 2969:1 2970:1 2971:1 2972:1 2973:1 2974:1 2975:1 2976:1 2978:1 
-0.3014509501942439 35:1 38:1 39:1 45:1 59:1.5 60:2 61:1 91:1 92:1 98:1 99:1 172:1 175:1 231:1 232:1 233:1 234:1 360:1 1194:1 1406:1 1407:1 1408:1 1430:1 1436:1 1437:1 1444:1 1729:1 1775:1 1812:1 1827:1 1830:1 1831:1 2781:1 2783:1 2896:1 2903:1 2904:1 2923:1 2961:1 2971:1 2972:1 2973:1 2975:1 2976:1 2977:1 
-0.04374588977735438 34:1 38:1 39:1 45:1 95:1 97:1 98:1 99:1 134:1 146:1 148:1 1087:1 1091:1 1827:1 1830:1 1831:1 1893:1 2273:1 2759:1 2990:1 2991:1 2992:1 2993:1 2994:1 2995:1 2996:1 2997:1 2998:1 2999:1 3000:1 3001:1 3002:1 3003:1 3004:1 3005:1 3006:1 3007:1 3008:1 3009:1 3010:1 3011:1 
-0.07014540160790401 34:2 39:1 44:1 45:1 46:1 54:1 57:1 58:1 59:2.5 60:3 61:2 91:1 92:1 97:2 155:1 156:1 157:1 159:1 160:1 601:1 679:1 886:1 973:1 977:1 1615:1 1977:1 1998:1 2038:1 2039:1 2040:1 2041:1 2090:1 3020:1 3021:1 3022:1 3023:1 3024:1 3025:1 3026:1 3027:1 3028:1 3029:1 3030:1 3031:1 3032:1 
-0.0296633188906065 25:1 34:2 39:1 42:1 45:1 59:2 60:3 61:1 97:2 150:1 156:1 160:1 190:1 195:1 306:1 307:1 374:1 405:1 408:1 900:1 1162:1 1179:1 1180:1 1181:1 1183:1 1184:1 1306:1 1630:1 1697:1 2538:1 3140:1 3141:1 3142:1 3143:1 3144:1 3145:1 3146:1 3147:1 3152:1 3153:1 3154:1 3164:1 3165:1 3166:1 3167:1 3168:1 3169:1 3170:1 3171:1 3172:1 3173:1 
-0.02533988558848939 17:1 18:1 19:1 20:1 24:1 39:1 42:1 45:1 53:1 54:1 55:1 56:1 57:1 58:1 59:1.5 60:2 61:1 77:1 84:1 91:1 92:1 97:1 98:1 99:1 156:1 160:1 164:1 165:1 217:1 224:1 365:1 366:1 394:1 395:1 396:1 1006:1 1221:1 1306:1 1307:1 1771:1 3238:1 3239:1 3240:1 3241:1 
-0.01000600972904395 3:1 10:1 12:1 35:2 38:2 39:1 45:1 59:1.5 60:2 61:1 91:1 92:1 95:1 96:1 98:1 99:1 221:1 222:1 256:1 744:1 745:1 1615:1 1686:1 1739:1 1814:1 1816:1 1821:1 1822:1 1823:1 1824:1 1825:1 1826:1 1827:1 1828:1 1830:1 1831:1 1998:1 2038:1 2039:1 2040:1 2041:1 2055:1 2283:1 3242:1 3243:1 3244:1 3245:1 3246:1 3247:1 3248:1 3249:1 
-0.01077302381120273 10:1 17:1 18:1 19:1 20:1 25:1 35:4 38:2 39:1 42:1 45:1 59:4 60:4 61:4 78:1 80:1 83:1 88:1 91:1 92:1 93:1 94:1 95:1 96:1 98:1 99:1 100:1 106:1 114:1 115:1 116:1 118:1 179:1 222:1 316:1 335:1 339:1 341:1 348:1 1815:1 1816:1 1821:1 1826:1 1827:1 1828:1 1830:1 1831:1 2025:1 2026:1 3263:1 3264:1 3265:1 3266:1 3270:1 3272:1 3273:1 3274:1 3275:1 3276:1 
-0.001366555185986214 24:1 39:2 45:1 59:2 60:3 61:1 77:1 84:1 91:1 92:1 97:1 98:1 99:1 156:1 160:1 164:1 165:1 217:1 358:1 360:1 379:1 396:1 482:1 1488:1 1516:1 1615:1 1640:1 1641:1 1642:1 1670:1 1673:1 1674:1 1766:1 1950:1 1998:1 2039:1 2041:1 2090:1 2119:1 2120:1 2121:1 2123:1 2124:1 3210:1 3213:1 3214:1 
-0.01604032510257889 35:1 39:1 45:1 54:1 57:1 58:1 91:1 92:1 97:1 98:1 99:1 179:1 227:1 231:1 232:1 233:1 234:1 238:1 360:1 1407:1 1436:1 1437:1 1443:1 1586:1 1587:1 1592:1 1594:1 1766:1 1775:1 2028:1 2068:1 2070:1 2821:1 2973:1 3281:1 
-0.03193569972014328 12:1 24:1 39:1 45:1 53:1 54:1 55:1 57:1 58:1 77:1 84:1 91:1 92:1 97:1 98:1 99:1 164:1 165:1 197:1 275:1 360:1 1488:1 1615:1 1766:1 1950:1 1998:1 2939:1 2941:1 2942:1 2943:1 2944:1 3315:1 3316:1 3317:1 
-0.131433675536903 34:1 35:1 38:1 42:1 193:1 306:1 438:1 440:1 485:1 1571:1 1827:1 3359:1 3360:1 3361:1 3362:1 3363:1 3364:1 3365:1 3366:1 3367:1 3368:1 3371:1 3372:1 3373:1 3375:1 3376:1 3377:1 3378:1 3379:1 3381:1 3382:1 3383:1 3384:1 3385:1 3386:1 3387:1 3388:1 3389:1 3390:1 3391:1 
-0.01533310500622695 12:1 35:3 39:1 45:1 54:1 57:1 58:1 88:1 91:1 92:1 96:1 97:3 98:1 99:1 128:1 257:1 977:1 1053:1 1196:1 1438:1 1615:1 2755:1 3306:1 3307:1 3410:1 3411:1 3412:1 3413:1 3414:1 3415:1 3416:1 3417:1 3418:1 3419:1 3420:1 3421:1 3422:1 3423:1 3424:1 3425:1 3426:1 3427:1 3428:1 
