svm_type c_svc
kernel_type linear
nr_class 3
total_sv 2329
rho 1.0407 -0.0992732 -0.868178
label 1 2 3
nr_sv 677 1127 525
SV
0.006590941332982765 0.0003960221745615408 2:1 4:1 8:1 12:1 13:1 14:1 15:1 18:1 22:1 23:1 24:2 25:1 26:1 29:1 30:1 31:1 32:1 34:1 37:1 38:1 40:1 43:1 44:1 45:1.5 46:2 47:1 894:1 895:1 896:1 897:1 898:1 899:1 900:1 901:1 902:1 903:1 904:1 905:1 906:1 907:1 908:1 909:1 910:1 911:1 912:1 913:1 
0.003462441584323994 0 22:1 23:1 24:1 29:1 30:1 31:1 32:1 34:1 37:1 38:1 40:1 43:1 45:1.5 46:2 47:1 115:1 123:1 198:1 962:1 966:1 967:1 968:1 969:1 970:1 971:1 972:1 973:1 974:1 975:1 980:1 981:1 1061:1 1062:1 1063:1 1064:1 1065:1 1066:1 1067:1 1068:1 1069:1 1070:1 1071:1 1072:1 1073:1 1074:1 1075:1 
0.01434059971462186 0 22:1 23:1 24:1 29:1 30:1 31:1 32:1 40:1 43:1 45:1.5 46:2 47:1 115:1 123:1 198:1 213:1 223:1 243:1 244:1 496:1 497:1 615:1 851:1 884:1 888:1 919:1 1101:1 1102:1 1103:1 1104:1 1105:1 1106:1 1107:1 1108:1 1109:1 1110:1 1111:1 1112:1 1113:1 1114:1 1115:1 1116:1 1117:1 1118:1 1119:1 1120:1 1121:1 
0.01861120275131161 0 9:1 22:1 23:1 29:1 30:1 31:1 32:1 45:2 46:3 47:1 115:1 181:1 198:2 1096:1 1167:1 1203:1 1225:1 1229:1 1238:1 1469:1 1471:1 1475:1 1476:1 1484:1 1485:1 1486:1 1487:1 1488:1 1489:1 1490:1 1491:1 1588:1 1589:1 1590:1 1591:1 1592:1 1593:1 1594:1 1595:1 1596:1 1597:1 1598:1 1599:1 1600:1 1601:1 1602:1 1603:1 1604:1 1605:1 1606:1 
0.03314033592597231 0 22:1 23:1 24:1 29:1 30:1 31:1 32:1 40:1 43:1 45:3 46:4 47:2 198:1 281:1 970:1 1066:1 1096:1 1098:1 1239:1 1357:1 1361:1 1419:1 1421:1 1425:1 1426:1 1581:1 1582:1 1583:1 1584:1 1585:1 1600:1 1601:1 1602:1 1604:1 1696:1 1725:1 1732:1 1897:1 1904:1 1956:1 1957:1 1958:1 1959:1 1960:1 1961:1 1962:1 1963:1 1964:1 1965:1 1966:1 1967:1 1968:1 1969:1 1970:1 
0.01538170441233438 0.004007260216870967 24:1 29:1 30:1 31:1 45:2 46:3 47:1 67:1 115:1 176:1 198:1 346:1 577:1 613:1 1098:1 1510:1 1667:1 2319:2 2386:1 2397:1 2398:1 2399:1 2400:1 2401:1 2402:1 2403:1 2404:1 2405:1 2406:1 2410:1 2411:1 2412:1 2413:1 2414:1 2415:1 2416:1 2435:1 2436:1 2437:1 2438:1 2439:1 2440:1 2441:1 2442:1 2443:1 2444:1 2445:1 2446:1 2447:1 2448:1 2449:1 2450:1 2451:1 2452:1 2453:1 
0.05 0.002828311075738266 24:1 30:1 45:2 46:3 47:1 67:1 138:1 139:1 234:1 268:1 310:1 403:1 407:1 413:1 418:1 444:1 446:1 758:1 761:1 1071:1 1098:1 1113:1 1203:1 2433:1 2464:1 2690:1 2691:1 2692:1 2693:1 2701:1 2846:1 2847:1 2848:1 2849:1 2850:1 2851:1 2852:1 2853:1 2859:1 2860:1 2863:1 2864:1 2865:1 2866:1 2867:1 2868:1 2869:1 2870:1 
0.01895341525994463 0.01038603799371909 24:1 25:1 30:1 40:1 43:1 44:1 45:3 46:5 47:1 67:2 213:1 434:1 735:1 998:1 1601:1 1664:1 1675:1 2501:1 2888:1 2889:1 2890:1 2891:1 2892:1 2893:1 2894:1 2895:1 2896:1 2897:1 2898:1 2899:1 2900:1 2901:1 2902:1 2903:1 2904:1 2905:1 2906:1 2907:1 2908:1 2909:1 2910:1 2911:1 2912:1 2913:1 2914:1 2915:1 
0.05 0 24:1 25:1 30:1 45:2.5 46:4 47:1 67:4 110:1 119:1 213:1 268:1 272:1 310:1 434:1 446:1 735:1 1601:1 1664:1 1675:1 2123:1 2169:1 2430:1 2431:1 2501:1 2888:1 2889:1 2890:1 2891:1 2892:1 2893:1 2894:1 2895:1 2905:1 2907:1 2908:1 2909:1 2910:1 2911:1 2916:1 2917:1 2918:1 2919:1 2920:1 2921:1 2922:1 2923:1 2924:1 2925:1 2926:1 
0.03606237942598765 0 9:1 22:1 23:1 24:3 25:1 30:1 32:1 34:1 38:1 45:5.5 46:6 47:5 268:1 272:1 310:1 403:1 418:1 444:1 446:1 784:1 785:1 792:1 794:1 838:1 856:2 1066:1 1107:1 1167:1 1664:1 1675:1 1868:1 2350:1 2402:1 2439:1 2799:1 2980:1 2981:1 2982:1 2991:1 3048:1 3049:1 3050:1 3051:1 3052:1 3053:1 3054:1 3055:1 3056:1 3057:1 
0.003084661952920404 0 8:1 24:1 25:1 26:1 29:1 30:1 31:1 67:2 268:1 272:1 310:1 446:1 547:1 635:1 636:1 637:1 638:1 2408:1 3107:1 3185:1 3186:1 3187:1 3188:1 3189:1 3190:1 3191:1 3192:1 3193:1 3194:1 3195:1 3196:1 3197:1 3198:1 3199:1 3200:1 3201:1 3202:1 3203:1 3204:1 3205:1 3206:1 3207:1 
0.04202367563890904 0.004213370878568989 8:1 24:1 25:1 26:1 29:1 30:1 31:1 40:1 43:1 44:1 61:1 67:4 119:1 390:1 393:1 569:1 577:1 635:1 636:1 637:1 638:1 1238:1 1241:1 2402:1 2408:1 3185:1 3186:1 3187:1 3188:1 3189:1 3198:1 3200:1 3201:1 3208:1 3209:1 3210:1 3211:1 3212:1 3213:1 3214:1 3215:1 3216:1 3217:1 3218:1 3219:1 
0.02781783729454192 0.001635776536600816 8:1 24:1 25:1 26:1 29:1 30:1 31:1 61:1 67:6 119:2 176:1 280:1 284:1 292:1 293:1 327:1 331:1 530:1 635:1 636:1 637:1 638:1 798:1 970:1 2408:1 2516:1 2518:1 3185:1 3186:1 3187:1 3188:1 3189:1 3198:1 3200:1 3201:1 3214:1 3220:1 3221:1 3222:1 3223:1 3224:1 3225:1 3226:1 3227:1 3228:1 3229:1 
9.273414228925871e-05 0 22:1 23:1 24:2 25:1 26:1 29:1 30:1 31:1 32:1 45:2 46:3 47:1 58:1 135:1 268:1 272:1 446:1 594:1 598:1 680:1 733:1 742:1 743:1 745:1 798:1 856:1 2896:1 2897:1 2898:1 2899:1 2929:1 2930:1 3256:1 3257:1 3258:1 3259:1 3260:1 3261:1 3262:1 3263:1 3264:1 3265:1 3266:1 3267:1 3268:1 3269:1 3270:1 3271:1 3272:1 3273:1 3274:1 3275:1 3276:1 3277:1 3278:1 
0.03651348918059075 0 22:1 23:1 24:3 25:1 30:1 32:1 45:4 46:6 47:2 115:1 138:1 139:1 198:1 268:1 310:1 446:1 617:1 838:1 856:2 884:1 887:1 1066:1 1096:2 1098:1 1113:1 1698:1 1767:1 1897:1 1904:1 2136:1 2137:1 2160:1 2361:1 2433:1 2439:1 3196:1 3205:1 3206:1 3211:1 3247:1 3343:1 3344:1 3358:1 3359:1 3360:1 3361:1 3362:1 3363:1 3364:1 3365:1 3366:1 3367:1 3368:1 3369:1 3370:1 3371:1 3372:1 3373:1 3374:1 3375:1 3376:1 3377:1 3378:1 3379:1 3380:1 3381:1 3382:1 3383:1 
0.04987145764790866 0.002438692456119384 22:1 23:1 24:2 25:1 30:1 32:1 40:1 43:1 44:1 45:1.5 46:2 47:1 130:1 679:1 1071:1 1205:1 1209:1 1664:1 1675:1 1701:1 3103:1 3484:1 3573:1 3575:1 3577:1 3578:1 3589:1 3590:1 3591:1 3592:1 3593:1 3594:1 3595:1 3596:1 3597:1 3598:1 3666:1 3667:1 3668:1 3669:1 3670:1 3671:1 3672:1 3673:1 3674:1 3675:1 3676:1 3677:1 3678:1 
0.03778349395675604 0 22:1 23:1 29:1 30:1 31:1 32:1 34:1 37:1 40:1 43:1 45:3 46:5 47:1 115:1 123:1 198:1 1096:1 1238:1 1869:1 1897:1 1904:1 3602:1 3604:1 3608:1 3609:1 3610:1 3614:1 3615:1 3679:1 3680:1 3681:1 3682:1 3686:1 3687:1 3688:1 3752:1 3753:1 3754:1 3755:1 3756:1 3757:1 3758:1 3759:1 3760:1 3761:1 3762:1 3763:1 3764:1 3765:1 3766:1 3767:1 3768:1 
0.01934842296701718 0 22:1 23:1 24:2 29:1 30:1 31:1 32:1 34:1 37:1 38:1 40:1 43:1 45:1.5 46:2 47:1 115:1 123:1 198:1 202:1 2035:1 2080:1 2723:1 3090:1 3622:1 3624:1 3627:1 3656:1 3657:1 3658:1 3659:1 3660:1 3661:1 3662:1 3663:1 3664:1 3765:1 3766:1 3828:1 3829:1 3853:1 3854:1 3855:1 3856:1 3857:1 3858:1 3859:1 3860:1 3861:1 3862:1 3863:1 3864:1 
0.04068124042402198 0 9:1 22:1 23:1 24:2 25:1 29:1 30:1 31:1 32:1 45:1.5 46:2 47:1 181:1 185:1 198:4 281:1 682:1 724:1 1096:1 1283:1 1381:1 1383:1 1389:1 1390:1 1491:1 1528:1 1529:1 1616:1 1617:1 1618:1 1619:1 1620:1 1661:1 1725:1 1728:1 1732:1 1814:1 1815:1 1817:1 1890:1 1891:1 1892:1 1893:1 1894:1 1895:1 1896:1 1897:3 1898:1 1899:1 1900:1 1901:1 1902:1 1903:1 1904:3 1905:1 1906:1 
0.02306592220595476 0 9:1 22:1 23:1 24:2 25:1 29:1 30:1 31:1 32:1 45:1.5 46:2 47:1 181:1 185:1 198:3 281:1 682:1 724:1 1071:1 1096:1 1283:1 1381:1 1383:1 1389:1 1390:1 1491:1 1528:1 1529:1 1616:1 1617:1 1618:1 1619:1 1620:1 1725:1 1728:1 1732:1 1814:1 1815:1 1817:1 1891:1 1893:1 1894:1 1895:1 1896:1 1897:2 1898:1 1899:1 1901:1 1902:1 1904:2 1905:1 1906:1 1909:1 1910:1 1911:1 
0.02584155523417889 0 9:1 22:1 23:1 24:1 30:1 32:1 45:1 46:1 47:1 146:1 281:1 376:1 551:1 970:1 1066:1 1096:1 1098:1 1213:1 1239:1 1419:1 1421:1 1425:1 1426:1 1581:1 1582:1 1583:1 1664:1 1675:1 1725:1 1732:1 1954:1 1957:1 1959:1 1960:1 1961:1 1963:1 1964:1 1967:1 1971:1 1972:1 1973:1 4381:1 4382:1 4383:1 4384:1 4567:1 4568:1 4569:1 4570:1 4571:1 
0.02948375766148512 0.004552309907683997 22:1 23:1 24:3 25:1 30:1 32:1 40:1 43:1 44:1 45:1.5 46:2 47:1 71:1 97:1 99:1 115:1 138:1 139:1 190:1 198:2 495:1 497:1 784:1 785:1 794:1 883:1 884:1 885:1 887:1 888:1 1083:1 1238:1 1725:1 1897:1 1904:1 2030:1 2234:1 2350:1 2361:1 3376:1 3508:1 4873:1 4878:1 4884:1 4888:1 4889:1 4890:1 4893:1 4894:1 5075:1 5076:1 5077:1 5078:1 5079:1 5080:1 5081:1 5082:1 5083:1 5085:1 
0.002672635674570639 0.02401591063271234 22:1 23:1 24:2 25:1 29:1 30:1 31:1 32:1 40:1 43:1 44:1 45:1.5 46:2 47:1 167:1 176:1 213:1 611:1 614:1 785:1 792:1 794:1 851:1 884:1 888:1 919:1 1105:1 1119:1 2350:1 2980:1 3061:1 3264:1 3326:1 4236:1 4242:1 4245:1 4246:1 4247:1 4248:1 4249:1 4250:1 5286:1 5287:1 5288:1 5289:1 5290:1 
0.01481925348634244 0.005068658345611575 20:1 22:1 23:1 24:2 25:1 30:1 32:1 45:1.5 46:2 47:1 198:2 376:1 380:1 1167:1 1213:1 1232:1 1234:1 1236:1 1237:1 1238:1 1406:1 1655:1 1657:1 1658:1 1659:1 1660:1 1663:1 1664:1 1666:1 1667:1 1668:1 1669:1 1670:1 1671:1 1675:1 1689:1 1690:1 1713:1 1714:1 1715:1 1716:1 1897:1 1904:1 1960:1 1967:1 5327:1 5328:1 5329:1 5330:1 5331:1 5332:1 5333:1 5334:1 
0.05 0 9:1 22:1 23:1 24:3 25:1 30:1 32:1 40:1 43:1 44:1 45:1.5 46:2 47:1 54:1 150:1 198:1 281:1 1204:1 1205:1 1209:1 1298:1 1299:1 1300:1 1301:1 1302:1 1303:1 1304:1 1305:1 1309:1 1310:1 1311:1 1661:1 1664:1 1675:1 1698:1 1699:1 1701:1 1725:1 1732:1 1745:1 1747:1 1748:1 1749:1 1764:1 1765:1 1766:1 1767:1 1768:1 1771:1 1772:1 5370:1 5371:1 
0.05 0 9:1 20:1 22:1 23:1 24:1 25:1 30:1 32:1 45:1.5 46:2 47:1 54:1 132:1 181:1 185:1 198:1 682:1 1071:1 1096:1 1385:1 1491:1 1517:1 1519:1 1520:1 1524:1 1525:1 1526:1 1527:1 1528:1 1529:1 1530:1 1664:1 1675:1 1814:1 1817:1 1880:1 1882:1 1894:1 1895:1 1896:1 1905:1 1912:1 1931:1 1934:1 5398:1 5399:1 5400:1 5401:1 
0 0.001223668564089035 9:1 22:1 23:1 24:1 29:1 30:1 31:1 32:1 281:1 970:1 1066:1 1096:1 1098:1 1239:1 1419:1 1421:1 1425:1 1426:1 1581:1 1582:1 1583:1 1666:1 1667:1 1725:1 1732:1 1957:1 1959:1 1960:1 1961:1 1963:1 1964:1 1967:1 1971:1 1972:1 1973:1 2451:1 3300:1 5298:1 5299:1 5403:1 5404:1 5405:1 
0.005182699166122381 0.001302786766298526 3:1 5:1 9:1 19:1 20:1 22:1 23:1 24:3 25:1 29:1 30:1 31:1 32:1 39:1 40:1 41:1 43:1 44:1 45:2.5 46:3 47:2 176:1 539:1 593:1 594:1 598:1 745:1 785:1 792:1 794:1 2350:1 2980:1 3377:1 4779:1 5152:1 5153:1 5154:1 5155:1 5158:1 5159:1 5162:1 5163:1 5164:1 5419:1 5420:1 5421:1 5422:1 5423:1 5424:1 
0 0.0003522590767031561 22:1 23:1 24:2 25:1 30:1 32:1 40:1 43:1 44:1 45:1.5 46:2 47:1 138:1 139:1 577:1 785:1 792:1 794:1 1203:1 1205:1 1209:1 1631:1 2350:1 2629:1 2980:1 3061:1 3281:1 3297:1 3410:1 3411:1 3417:1 3425:1 3426:1 3427:1 4794:1 5169:1 5170:1 5175:1 5600:1 5606:1 5607:1 5608:1 5609:1 5610:1 5611:1 5612:1 5613:1 
0.04222538496811857 0.01178135504351947 22:1 23:1 29:1 30:1 31:1 32:1 115:1 181:1 198:1 1083:1 1229:1 1491:1 5835:1 5836:1 5837:1 5838:1 5839:1 5840:1 5841:1 5842:1 5843:1 5844:1 5854:1 5855:1 5856:1 5930:1 5931:1 5932:1 5933:1 5934:1 5935:1 5936:1 5937:1 5938:1 
0.04508949091980952 0 22:1 23:1 24:1 25:1 30:1 34:1 38:1 45:1.5 46:2 47:1 135:1 138:1 139:1 194:1 268:1 272:1 446:1 706:1 5702:1 5810:1 5811:1 5812:1 5813:1 5815:1 5816:1 5817:1 5818:1 5819:1 5820:1 5822:1 5823:1 5824:1 5825:1 5828:1 5829:1 5830:1 5858:1 5863:1 5864:1 5865:1 5959:1 5960:1 5961:1 
0.01088561030585603 0 22:1 23:1 24:1 29:1 30:1 31:1 32:1 40:1 43:1 45:1.5 46:2 47:1 115:1 123:1 198:1 820:1 2345:1 3260:1 4120:1 4123:1 5788:1 5797:1 5835:1 5836:1 5837:1 5838:1 5839:1 5840:1 5841:1 5867:1 5868:1 5869:1 5870:1 5871:1 5872:1 5930:1 5931:1 5933:1 5934:1 5935:1 5936:1 5970:1 5971:1 5972:1 5973:1 5974:1 5975:1 5976:1 
0.01163126819226275 0 22:1 23:1 24:2 25:1 30:1 32:1 45:2 46:3 47:1 115:1 138:1 139:1 198:1 268:1 272:1 418:1 444:1 446:1 838:1 856:1 1082:1 1967:1 2423:1 2966:1 2967:1 2968:1 2970:1 2971:1 3107:1 3119:1 3280:1 3281:1 3343:1 3364:1 3371:1 5574:1 5686:1 5885:1 5886:1 5905:1 5906:1 5977:1 5978:1 5979:1 5980:1 5981:1 5982:1 5983:1 5984:1 5985:1 5986:1 5987:1 5988:1 5989:1 5990:1 
0.03054514416396249 0 24:1 25:1 30:1 40:1 43:1 44:1 45:2.5 46:4 47:1 67:2 138:1 139:1 176:1 413:1 466:1 671:1 681:1 682:1 683:1 685:1 686:1 758:1 759:1 761:1 1113:1 2423:1 2426:1 5750:1 5751:1 5752:1 5753:1 5761:1 5984:1 6009:1 6056:1 6057:1 6058:1 6059:1 6060:1 6062:1 6063:1 6064:1 6074:1 6087:1 6089:1 6090:1 6092:1 
0.05 0 24:1 25:1 30:1 45:2 46:3 47:1 67:3 119:1 138:1 139:1 176:1 268:1 272:1 390:1 413:1 418:1 427:1 444:1 446:1 460:1 466:1 671:1 681:1 682:1 683:1 685:1 686:1 758:1 759:1 761:1 5750:1 5751:1 5752:1 5753:1 6010:1 6022:1 6023:1 6024:1 6025:1 6026:1 6027:1 6028:1 6029:1 6030:1 6031:1 6074:1 6087:1 6089:1 6091:1 6092:1 
0.05 0.05 22:1 23:1 24:5 25:1 30:1 32:1 45:2 46:3 47:1 89:1 90:1 115:1 198:2 268:1 272:1 418:1 444:1 446:1 451:1 501:1 594:1 598:1 768:1 838:1 856:2 1938:1 1967:2 2423:1 3343:1 3364:1 3371:1 5455:1 5574:2 5885:1 5886:1 5906:1 5982:1 5984:1 5989:1 6035:1 6125:1 6126:1 6127:1 6128:1 6129:1 6130:1 6131:1 6132:1 6133:1 6134:1 6135:1 6136:1 6137:1 6138:1 6139:1 6140:1 6141:1 6142:1 
0.00639147239654146 0.001970686769036106 8:1 22:1 23:1 25:1 26:1 29:1 30:1 31:1 34:1 37:1 115:1 198:1 346:1 351:1 770:1 919:1 1096:1 1869:1 2671:1 6111:1 6117:1 6168:1 6169:1 6170:1 6171:1 6172:1 6173:1 6174:1 6175:1 6176:1 6177:1 6178:1 6179:1 6180:1 6181:1 6182:1 6183:1 6184:1 6185:1 6186:1 6187:1 6188:1 
0.05 0.001478132757272005 24:1 25:1 30:1 45:3.5 46:4 47:3 67:5 103:1 106:1 114:1 115:2 116:1 119:1 138:1 139:1 181:1 185:1 390:1 393:1 413:1 466:1 594:1 597:1 598:1 742:1 758:1 759:1 761:1 762:1 1491:1 2017:1 2027:1 2046:1 3320:1 3567:1 5750:1 5751:1 5752:1 5753:1 5851:1 5995:1 5996:1 6274:1 6275:1 6279:1 6282:1 6284:1 6285:1 6286:1 6287:1 6288:1 6289:1 6290:1 6291:1 6292:1 6293:1 6294:1 6295:1 6296:1 6297:1 
0.05 0 24:1 25:1 29:1 30:1 31:1 45:3 46:5 47:1 67:6 176:1 268:1 272:1 390:1 413:1 418:1 444:1 446:1 466:2 759:1 2408:1 2423:1 2426:1 2966:1 2967:1 2971:1 3306:1 3313:1 5670:1 5781:1 5984:1 6136:1 6376:1 6384:1 6385:1 6386:1 6387:1 6388:1 6390:1 6391:1 6392:1 6432:1 6434:1 6439:1 6442:1 6443:1 6444:1 6445:1 6446:1 6447:1 6448:1 
0.003171809701439824 0 22:1 23:1 24:1 29:1 30:1 31:1 32:1 115:2 176:1 198:2 268:1 446:1 856:1 1096:1 1098:1 1510:1 1663:1 1831:1 1862:1 1967:1 2423:1 2433:1 2439:1 2475:1 3205:1 3206:1 3458:1 4277:1 4513:1 5574:1 6300:1 6302:1 6346:1 6348:1 6491:1 6497:1 6503:1 6504:1 6505:1 6506:1 6507:1 6508:1 6509:1 6510:1 6511:1 6512:1 6513:1 6514:1 
0.0003746657337862961 0 22:1 23:1 24:2 25:1 29:1 30:1 31:1 32:1 45:1 46:1 47:1 115:2 146:1 198:5 268:1 272:1 346:1 446:1 594:1 598:1 745:1 828:1 838:1 856:3 857:1 1096:1 1844:1 2423:1 3205:1 3206:1 3264:1 3398:1 3458:1 6035:1 6286:1 6289:1 6324:1 6462:1 6505:1 6543:1 6562:1 6578:1 6580:1 6589:1 6590:1 6591:1 6592:1 6593:1 6594:1 6595:1 6596:1 6597:1 6598:1 6599:1 6600:1 6601:1 6602:1 6603:1 6604:1 6605:1 
0.03878689828340038 0 24:1 25:1 29:1 30:1 31:1 45:3 46:5 47:1 64:1 67:8 115:2 176:1 268:1 272:1 346:1 413:1 418:1 444:1 446:1 466:2 594:1 598:1 745:1 759:1 1259:1 1261:1 2408:1 2423:1 2426:1 2988:1 2989:1 3260:1 3306:1 3313:1 5029:1 5936:1 5970:1 5984:1 6286:1 6288:1 6289:1 6390:1 6444:1 6502:1 6523:1 6572:1 6573:1 6638:1 6759:1 6760:1 6761:1 6762:1 6763:1 6764:1 6765:1 
0 0.003537969114302016 16:1 24:1 25:1 30:1 34:1 38:1 45:1.5 46:2 47:1 67:1 138:1 139:1 181:1 185:1 194:1 310:1 706:1 998:1 1071:1 1491:1 2302:1 5810:1 5811:1 5812:1 5813:1 5814:1 5827:1 5831:1 5832:1 6790:1 6791:1 6792:1 6793:1 6794:1 6795:1 6796:1 6797:1 6798:1 6799:1 6800:1 6801:1 6802:1 6803:1 6804:1 6805:1 6806:1 6807:1 
0.02116867526528059 0.001493403218729564 24:1 25:1 30:1 34:1 38:1 40:1 43:1 44:1 45:2 46:2 47:2 61:1 67:3 119:1 138:1 139:1 194:1 310:1 706:1 998:1 1071:1 1238:1 1241:1 2302:1 5810:1 5811:1 5812:1 5813:1 5814:1 5827:1 6647:1 6649:1 6790:1 6791:1 6799:1 6801:1 6802:1 6803:1 6804:1 6805:1 6808:1 6809:1 6810:1 6811:1 6812:1 6813:1 6814:1 6815:1 6816:1 6817:1 
0.02499965574238904 0 24:1 25:1 30:1 34:1 38:1 40:1 43:1 44:1 45:2.5 46:3 47:2 58:1 61:2 67:5 119:2 138:1 139:1 194:1 310:1 706:1 970:1 1071:1 1238:1 1241:1 2302:1 5810:1 5811:1 5812:1 5813:1 5814:1 5827:1 5883:1 5884:1 5885:1 5886:1 6662:1 6790:1 6791:1 6799:1 6801:1 6802:1 6803:1 6804:1 6805:1 6813:1 6818:1 6819:1 6820:1 6821:1 6822:1 6823:1 
0.04064147063521722 0 22:1 23:1 24:4 30:1 32:1 115:1 138:1 139:1 198:2 327:1 346:1 351:1 530:1 838:1 850:1 856:2 1082:1 1096:1 1098:1 1378:1 1698:2 1767:2 1967:2 2516:1 2518:1 3264:1 5574:1 5751:1 5753:1 6007:1 6011:1 6012:1 6066:1 6067:1 6071:1 6083:1 6084:1 6085:1 6086:1 6532:1 6596:1 6889:1 6890:1 6891:1 6892:1 6893:1 6894:1 6895:1 6896:1 6901:1 6906:1 6907:1 6908:1 6909:1 6910:1 
0.03496423861275701 0 22:1 23:1 24:3 25:1 30:1 32:1 45:2 46:3 47:1 138:1 139:1 268:1 272:1 390:1 393:1 418:1 444:1 446:1 615:1 838:1 856:1 1082:1 1698:1 1767:1 1967:1 2423:1 2966:1 2967:1 2968:1 2970:1 2971:1 3107:1 5574:1 5751:1 5753:1 5761:1 5984:1 6009:1 6056:1 6057:1 6058:1 6083:1 6084:1 6098:1 6894:1 6895:1 6901:1 6911:1 6912:1 6913:1 6914:1 6915:1 6916:1 6917:1 6918:1 
0.003610643280523903 0 22:1 23:1 24:3 25:1 30:1 32:1 45:3 46:5 47:1 138:1 139:1 280:1 327:1 331:1 390:1 393:1 530:1 615:1 838:1 856:1 1082:1 1698:1 1767:1 1967:1 2516:1 2518:1 2966:1 2967:1 2968:1 2970:1 2971:1 5574:1 5751:1 5753:1 6010:1 6022:1 6023:1 6024:1 6060:1 6083:1 6084:1 6098:1 6410:1 6894:1 6895:1 6900:1 6901:1 6902:1 6911:1 6912:1 6913:1 6916:1 6919:1 6920:1 6921:1 
0.03162197399224338 0 9:1 22:1 23:1 24:2 25:1 29:1 30:1 31:1 32:1 115:2 198:2 213:1 268:1 272:1 310:1 446:1 856:1 1967:1 2439:1 3205:1 3206:1 3458:1 6286:1 6289:1 6321:1 6324:1 6490:1 6491:1 6496:1 6497:1 6504:1 6505:1 6512:1 6561:1 6589:1 7059:1 7075:1 7076:1 7077:1 7078:1 7079:1 7080:1 7081:1 7082:1 7083:1 
0 0.01337734086432764 22:1 23:1 24:1 29:1 30:1 31:1 32:1 115:6 198:8 201:1 856:1 949:2 961:2 1096:1 1098:1 1179:1 1203:1 1251:1 1252:1 1555:1 1561:1 1593:1 1599:1 1698:1 1767:1 1897:2 1904:2 1967:1 2476:1 2511:1 3264:1 5501:1 5670:1 5702:1 6300:1 6302:1 6348:1 6490:1 6496:1 6505:1 6543:1 6561:1 6562:3 6563:1 6580:1 6594:1 6595:3 6603:1 6604:1 6973:1 6974:1 7007:1 7008:1 7016:1 7017:1 7018:1 7087:1 7289:1 7290:1 7291:1 7292:1 7293:1 7294:1 7295:1 7296:1 7297:1 
0.05 0 22:1 23:1 24:1 29:1 30:1 31:1 32:1 115:4 198:8 201:1 376:1 856:1 949:1 961:1 1096:1 1098:1 1179:1 1203:1 1213:1 1238:1 1555:1 1561:1 1593:1 1599:1 1698:1 1767:1 1897:2 1904:2 1967:1 2476:1 2511:1 3264:1 5670:1 6300:1 6302:1 6348:1 6490:1 6505:1 6543:1 6562:2 6580:1 6594:1 6595:3 6603:1 6604:1 6973:1 6974:1 6980:1 7007:1 7008:1 7087:1 7289:1 7290:1 7291:1 7292:1 7293:1 7294:1 7296:1 7299:1 7301:1 7302:1 7303:1 7305:1 7306:1 7307:1 
0.05 0 22:1 23:1 24:1 29:1 30:1 31:1 32:1 115:2 164:1 198:8 201:1 280:1 856:1 1096:1 1098:1 1179:1 1203:1 1251:1 1252:1 1593:1 1599:1 1698:1 1767:1 1897:2 1904:2 1967:1 2476:1 2511:1 3264:1 5501:1 5670:1 6300:1 6302:1 6348:1 6490:1 6505:1 6543:1 6562:1 6578:1 6580:1 6594:1 6595:3 6603:1 6604:1 6973:1 6974:1 7007:1 7008:1 7016:1 7017:1 7018:1 7087:1 7289:1 7290:1 7291:1 7292:1 7293:1 7294:1 7309:1 7310:1 
0.002351807914451425 0 22:1 23:1 24:2 25:1 29:1 30:1 31:1 32:1 45:1 46:1 47:1 115:2 146:1 198:3 268:1 272:1 446:1 594:1 598:1 745:1 812:1 1510:1 1844:1 1967:1 2158:1 2423:1 5467:1 6035:1 6286:1 6288:1 6289:1 6323:1 6324:1 6505:1 6543:1 6563:1 6629:1 6630:1 6631:1 6736:1 6738:1 7009:1 7294:1 7358:1 7359:1 7360:1 7361:1 7362:1 7363:1 7364:1 7365:1 7366:1 7367:1 7368:1 7369:1 7370:1 7371:1 7372:1 7373:1 7374:1 7375:1 7376:1 
0.0411763562478576 0 22:1 23:1 24:1 29:1 30:1 31:1 32:1 115:6 198:8 201:1 856:1 949:2 961:2 1096:1 1098:1 1179:1 1203:1 1251:1 1252:1 1555:1 1561:1 1593:1 1599:1 1698:1 1767:1 1897:2 1904:2 1960:1 1967:1 2476:1 2511:1 3264:1 5501:1 5670:1 5702:1 6300:1 6302:1 6348:1 6490:1 6496:1 6505:1 6532:1 6543:1 6561:1 6562:3 6563:1 6580:1 6594:1 6595:3 6596:1 6974:1 7008:1 7009:1 7016:1 7017:1 7018:1 7087:1 7290:1 7294:1 7295:1 7296:1 7297:1 7377:1 7378:1 7379:1 7380:1 
0.05 0.007614993788338001 22:1 23:1 24:1 29:1 30:1 31:1 32:1 45:1 46:1 47:1 115:4 146:1 198:6 376:1 551:1 554:1 856:1 949:1 961:1 1096:1 1098:1 1167:1 1179:1 1203:1 1213:1 1238:1 1555:1 1561:1 1593:1 1599:1 1698:1 1767:1 1897:1 1904:1 1960:1 1967:1 2511:1 3264:1 6300:1 6302:1 6348:1 6505:1 6532:1 6543:1 6562:2 6580:1 6594:1 6595:2 6596:1 6974:1 6980:1 7003:1 7008:1 7009:1 7290:1 7296:1 7299:1 7301:1 7302:1 7303:1 7305:1 7306:1 7307:1 7314:1 7315:1 7316:1 7317:1 7319:1 7378:1 7379:1 7380:1 7384:1 7385:1 
0.008002840670396838 0 22:1 23:1 24:1 29:1 30:1 31:1 32:1 45:1.5 46:2 47:1 115:2 164:1 198:4 280:1 641:1 681:1 682:1 724:1 756:1 856:1 1096:1 1098:1 1179:1 1203:1 1251:1 1252:1 1593:1 1599:1 1960:1 1967:1 2511:1 3264:1 5501:1 6300:1 6302:1 6348:1 6505:1 6532:1 6543:1 6562:1 6578:1 6580:1 6593:1 6594:1 6595:1 6596:1 6974:1 7008:1 7009:1 7016:1 7017:1 7018:1 7029:1 7030:1 7031:1 7309:1 7310:1 7378:1 7379:1 7380:1 7387:1 7388:1 7389:1 
0.001186030943051665 0 22:1 23:1 24:1 29:1 30:1 31:1 32:1 40:1 43:1 45:1.5 46:2 47:1 115:1 123:1 176:1 198:1 594:1 598:1 745:1 758:1 759:1 2551:1 2552:1 2553:1 2554:1 2555:1 2558:1 2565:1 2566:1 2567:1 2570:1 2572:1 2573:1 2595:1 3181:1 4478:1 4736:1 7051:1 7531:1 7534:1 7535:1 7536:1 7537:1 7538:1 7539:1 7540:1 7541:1 
0.001592390726944031 0.006141726494463782 22:1 23:1 24:2 25:2 30:1 32:1 103:1 115:2 138:1 139:1 194:1 198:3 201:1 820:1 1016:1 2345:1 3099:1 3100:1 5696:1 5707:1 5733:1 5753:1 6357:1 6781:1 6789:1 6915:1 7560:1 7561:1 7562:1 7563:1 7564:1 7565:1 7566:1 7567:1 7568:1 7569:1 7570:1 7571:1 7572:1 7573:1 7574:1 
0.007113219854508398 2.636799447697828e-05 22:1 23:1 24:4 25:1 29:1 30:1 31:1 32:1 45:2 46:3 47:1 103:1 194:1 198:1 201:1 521:1 527:1 1092:1 1205:1 1209:1 1546:1 1698:1 1898:1 2302:1 3065:1 3376:1 4126:1 5774:1 5775:1 5814:1 5894:1 5925:1 6010:1 6022:1 6023:1 6024:1 6084:1 6154:1 6155:1 6930:1 7575:1 7576:1 7577:1 7578:1 7579:1 7580:1 7581:1 7582:1 7583:1 7584:1 7585:1 7586:1 7587:1 7588:1 7589:1 7590:1 7591:1 
0.03362311071611596 0 16:1 22:1 23:1 24:4 25:1 29:1 30:1 31:1 32:1 45:3 46:5 47:1 194:1 198:1 201:1 326:1 327:1 331:1 1205:1 1209:1 1527:1 1546:1 1698:1 1898:1 2302:1 2518:1 3065:1 3376:1 5736:1 5798:1 5814:1 5889:1 5894:1 6069:1 6084:1 6154:1 6155:1 6930:1 7575:1 7576:1 7577:1 7578:1 7579:1 7580:1 7581:1 7585:1 7587:1 7588:1 7592:1 7593:1 7594:1 7595:1 7596:1 7597:1 7598:1 7599:1 7600:1 
0.03142636559787902 0 8:1 24:3 25:1 30:1 45:4 46:6 47:2 67:7 115:1 138:1 139:1 176:1 198:1 268:1 272:1 413:1 418:1 444:1 446:1 451:1 466:2 770:1 856:1 884:1 887:1 1096:1 1109:1 1111:1 2423:1 2426:1 2656:1 4797:1 5520:1 5984:1 6596:1 6640:1 6678:1 6682:1 6694:1 7699:1 7700:1 7701:1 7702:1 7703:1 7704:1 7705:1 7706:1 7707:1 7708:1 7709:1 7719:1 7720:1 7721:1 7726:1 7727:1 7728:1 7729:1 7730:1 7731:1 7732:1 7733:1 
0.03677870905837088 0 8:1 24:3 25:1 30:1 45:6 46:10 47:2 67:14 119:1 138:1 139:1 198:1 268:1 272:1 413:2 418:1 434:1 444:1 446:1 466:4 770:1 798:1 856:1 884:1 887:1 1096:1 2423:1 2426:1 2656:1 2951:1 4797:1 5520:1 5984:1 6596:1 6678:1 6682:2 7699:1 7700:1 7701:1 7702:1 7703:1 7704:1 7705:1 7706:1 7707:1 7708:1 7709:1 7719:1 7720:1 7721:1 7729:1 7730:1 7731:1 7734:1 7735:1 7736:1 7737:1 7738:1 7739:1 7740:1 7741:1 7742:1 7743:1 7744:1 
0.02699628329946318 0.02274992307889867 24:1 30:1 45:2 46:3 47:1 67:1 89:1 90:1 115:1 268:1 446:1 1066:1 1098:1 1600:1 1601:1 2433:1 2501:1 6753:1 6755:1 7051:1 7090:1 7325:1 7785:1 7786:1 7787:1 7788:1 7789:1 7790:1 7791:1 7792:1 7793:1 7794:1 7795:1 7796:1 7797:1 7798:1 7799:1 7800:1 7801:1 7802:1 7803:1 7804:1 7805:1 7806:1 7807:1 7808:1 7809:1 
0.00985286238341037 0.008794587598804143 24:1 25:3 30:1 45:3 46:5 47:1 67:6 89:1 90:1 119:1 466:1 1066:1 1098:1 1555:1 1561:1 1600:1 1601:1 2412:1 2415:1 2423:1 2426:1 2501:1 2540:1 4334:1 4720:1 4721:1 6753:1 6755:1 7325:1 7785:1 7786:1 7787:1 7788:1 7789:1 7790:1 7791:1 7792:1 7802:1 7804:1 7805:1 7810:1 7811:1 7812:1 7813:1 7814:1 7815:1 7816:1 7817:1 7818:1 7819:1 7820:1 7821:1 7822:1 7823:1 7824:1 7825:1 7826:1 
0.02473259727596848 0.007465468212814293 24:1 25:1 30:1 45:4 46:7 47:1 67:9 89:1 90:1 119:1 280:1 284:1 292:1 327:1 331:1 466:1 530:1 1066:1 1098:1 1600:1 1601:1 2501:1 2516:1 2518:1 4334:1 4720:1 4721:1 6753:1 6755:1 7325:1 7785:1 7786:1 7787:1 7788:1 7789:1 7790:1 7791:1 7792:1 7802:1 7804:1 7805:1 7812:1 7815:1 7816:1 7819:1 7820:1 7821:1 7822:1 7827:1 7828:1 7829:1 7830:1 7831:1 7832:1 7833:1 7834:1 
0.02231342691978521 0.02004154098777295 25:3 30:1 45:2 46:3 47:1 67:3 89:1 90:1 198:1 466:1 594:1 768:1 1096:1 1098:1 1555:1 1561:1 2412:1 2415:1 2423:1 2426:1 2515:1 2540:1 4334:1 4720:1 4721:1 6107:1 7280:1 7810:1 7811:1 7812:1 7813:1 7814:1 7815:1 7816:1 7817:1 7818:1 7821:1 7822:1 7823:1 7824:1 7825:1 7851:1 7852:1 7853:1 7854:1 7855:1 7856:1 7857:1 7858:1 7859:1 7860:1 7861:1 7862:1 7863:1 7864:1 
0.03627624709411695 0.01779992347031603 25:1 30:1 45:3 46:5 47:1 67:6 89:1 90:1 198:1 280:1 284:1 292:1 327:1 331:1 466:1 530:1 594:1 768:1 1096:1 1098:1 2515:1 2516:1 2518:1 4334:1 4720:1 4721:1 6107:1 7280:1 7812:1 7815:1 7816:1 7821:1 7822:1 7827:1 7828:1 7829:1 7830:1 7831:1 7832:1 7833:1 7851:1 7852:1 7853:1 7854:1 7855:1 7856:1 7857:1 7858:1 7859:1 7860:1 7861:1 7862:1 7863:1 7865:1 
0.02793911221126044 0.0109973616740633 24:1 30:1 45:2 46:3 47:1 67:3 89:1 90:1 115:1 176:1 268:1 446:1 460:1 466:1 759:1 798:1 1098:1 2433:1 2464:1 2467:1 2868:1 5189:1 7785:1 7786:1 7787:1 7788:1 7790:1 7793:1 7794:1 7795:1 7796:1 7797:1 7802:1 7804:1 7806:1 7807:1 7808:1 7877:1 7878:1 7881:1 7882:1 7883:1 7884:1 7886:1 7888:1 7889:1 7890:1 7891:1 7892:1 7893:1 
0 0.003567373845188324 24:2 25:4 29:1 30:1 31:1 45:3 46:5 47:1 67:6 119:1 176:1 198:2 213:1 435:1 466:2 759:1 798:1 949:1 961:1 998:1 1555:1 1561:1 1600:1 1601:1 1602:1 1604:1 2412:1 2415:1 2423:1 2426:1 2501:1 2540:1 3304:1 3305:1 4797:1 7324:1 7325:1 7770:1 7777:1 7894:1 7895:1 7896:1 7897:1 7898:1 7900:1 7902:1 7906:1 7909:1 7910:1 7911:1 7912:1 7913:1 7914:1 7915:1 7916:1 7917:1 7918:1 7919:1 7920:1 7921:1 7922:1 7923:1 
0.002161226882251535 0 24:2 25:3 29:1 30:1 31:1 45:3 46:5 47:1 67:6 119:1 176:1 198:2 213:1 390:1 435:1 466:2 569:1 577:1 759:1 949:1 961:1 1600:1 1601:1 1602:1 1604:1 2412:1 2415:1 2423:1 2426:1 2501:1 2540:1 3304:1 3305:1 4797:1 7324:1 7325:1 7770:1 7777:1 7894:1 7895:1 7896:1 7897:1 7898:1 7900:1 7902:1 7906:1 7911:1 7912:1 7914:1 7915:1 7917:1 7918:1 7919:1 7920:1 7921:1 7922:1 7923:1 7924:1 7925:1 7926:1 
0.03178390084270748 0 24:2 25:2 29:1 30:1 31:1 45:3 46:5 47:1 67:6 119:1 176:1 198:2 213:1 310:1 435:1 466:2 577:1 759:1 1600:1 1601:1 1602:1 1604:1 2412:1 2415:1 2423:1 2426:1 2501:1 2540:1 3107:1 3304:1 3305:1 4797:1 7324:1 7325:1 7770:1 7777:1 7894:1 7895:1 7896:1 7897:1 7898:1 7900:1 7902:1 7906:1 7911:1 7914:1 7915:1 7917:1 7918:1 7919:1 7920:1 7921:1 7922:1 7923:1 7927:1 7928:1 7929:1 
0.006074203661127675 0 24:1 25:1 29:1 30:1 31:1 45:4 46:4 47:4 67:4 198:1 268:1 272:1 446:1 466:1 594:1 598:1 733:1 742:1 743:1 745:1 798:1 2408:1 2423:1 2426:1 2495:1 3041:1 3205:1 3206:1 3458:1 4823:1 5561:1 5565:1 6010:1 6022:1 6023:1 6024:1 7787:1 7788:1 8001:1 8002:1 8003:1 8004:1 8005:1 8006:1 8007:1 8008:1 8009:1 8010:1 8011:1 8012:1 
0.02655731214850761 0.009557111020787955 22:1 23:1 24:2 25:1 30:1 45:2 46:2 47:2 115:1 138:1 139:1 181:1 185:1 194:1 198:1 201:1 1205:1 1209:1 1491:1 2302:1 2629:1 4852:1 5811:1 5813:1 5814:1 5823:1 5824:1 5831:1 5832:1 5894:1 6085:1 6497:1 8025:1 8026:1 8027:1 8028:1 8029:1 8030:1 8037:1 8040:1 8041:1 8043:1 8044:1 8045:1 8046:1 8047:1 8048:1 8049:1 8050:1 8051:1 8052:1 8053:1 
0.02730971116359845 0 22:1 23:1 24:2 25:1 29:1 30:1 31:1 32:1 115:1 176:1 198:2 268:1 272:1 390:1 446:1 615:1 856:1 1967:1 2423:1 2475:1 3260:1 5574:1 6453:1 6458:1 6460:1 6461:1 6462:1 6463:1 6467:1 6468:1 6469:1 6477:1 6478:1 6494:1 6500:1 7421:1 8102:1 8103:1 8104:1 8105:1 8106:1 8107:1 8112:1 8113:1 8114:1 
0.05 0.003765092194325375 24:2 29:1 30:1 31:1 67:1 115:2 176:1 198:2 280:1 284:1 292:1 327:1 530:1 615:1 618:1 798:1 856:1 1098:1 1378:1 1967:1 2475:1 2516:1 2518:1 3260:1 5574:1 6300:1 6302:1 6380:1 6381:1 6453:1 6494:1 6496:1 6497:1 6561:1 7421:1 8102:1 8103:1 8104:1 8105:1 8106:1 8108:1 8109:1 8110:1 8111:1 8112:1 8113:1 8114:1 
0.03569334474255603 0 22:1 23:1 24:1 29:1 30:1 31:1 32:1 45:2 46:3 47:1 115:2 137:1 150:1 198:3 268:1 418:1 427:1 444:1 446:1 460:1 551:1 554:1 555:1 838:1 856:1 1096:1 1098:1 1967:1 2433:1 4277:1 4513:1 5574:1 6300:1 6302:1 6346:1 6348:1 6435:1 6476:1 6491:1 6497:1 6504:1 6505:1 6506:1 6509:1 6510:1 6511:1 6632:1 8148:1 8149:1 8150:1 8151:1 8152:1 8153:1 8154:1 8155:1 8156:1 8157:1 8158:1 8159:1 8160:1 8161:1 
0.004957684668695898 0 26:1 29:1 30:1 31:1 67:5 115:1 150:1 224:1 268:1 413:1 418:1 444:1 446:1 466:2 759:1 780:1 812:1 822:1 823:1 1096:1 1098:1 2423:1 2426:1 2433:1 4277:1 5984:1 6300:1 6302:1 6518:1 6566:1 7352:1 8160:1 8177:1 8178:1 8179:1 8180:1 8181:1 8182:1 8183:1 8184:1 8185:1 8186:1 
0.03572656282556953 0.008411191214689051 24:1 29:1 30:1 31:1 45:3.5 46:5 47:2 67:6 268:1 413:1 418:1 427:1 444:1 446:1 466:1 593:1 594:1 598:1 745:1 759:1 798:1 820:1 1016:1 1098:1 1862:1 2410:1 2433:1 2444:1 2447:1 2874:1 3260:1 5162:1 5970:1 6157:1 6340:1 6373:1 6378:1 6572:1 6573:1 6575:1 8187:1 8188:1 8189:1 8190:1 8191:1 8192:1 8194:1 8195:1 8196:1 8204:1 8205:1 8206:1 
0.0399144883448256 0 9:1 22:1 23:1 24:2 25:1 28:1 29:1 30:1 31:1 32:1 45:4.5 46:5 47:4 115:1 137:1 150:1 198:1 268:1 272:1 310:1 418:1 444:1 446:1 593:1 594:1 745:1 838:1 856:2 998:1 1071:1 1096:1 1967:2 2423:1 2515:1 5162:1 5574:2 5984:1 6286:1 6289:1 6321:1 6324:1 6502:1 6562:1 6595:1 6623:1 8104:1 8150:1 8154:1 8178:1 8180:1 8227:1 8228:1 8229:1 8235:1 8269:1 8270:1 8271:1 8272:1 8273:1 8274:1 
0.04013277007866064 0 24:1 25:1 29:1 30:1 31:1 45:3.5 46:6 47:1 67:9 115:2 194:1 198:2 213:1 259:1 268:1 272:1 413:1 418:1 444:1 446:1 466:1 798:1 1600:1 1601:1 1602:1 1604:1 2123:1 2423:1 2426:1 2501:1 3260:1 3394:1 3400:1 3402:1 4357:1 5970:1 5984:1 6286:1 6289:1 6375:1 6502:1 6562:1 6587:1 6681:1 7122:1 7322:1 7323:1 7326:1 7847:1 8103:1 8301:1 8302:1 8303:1 8304:1 8305:1 8306:1 8307:1 8308:1 8309:1 
0.05 0 24:1 25:1 30:1 40:1 43:1 44:1 45:4.5 46:8 47:1 67:11 115:1 119:1 138:1 139:1 210:1 212:1 258:1 292:1 413:1 615:1 618:1 794:1 855:1 1142:1 1478:1 2350:1 2408:1 2903:1 3134:1 3196:1 3199:1 3332:1 3333:1 3343:1 3371:1 8365:1 8366:1 8367:1 8368:1 8369:1 8370:1 8371:1 8372:1 8373:1 8374:1 8375:1 8376:1 8487:1 8488:1 8489:1 8490:1 8494:1 8495:1 8496:1 8497:1 8498:1 8499:1 8509:1 
0.04075925498991827 0 24:1 25:1 30:1 40:1 43:1 44:1 45:5.5 46:8 47:3 67:9 115:1 138:1 139:1 258:1 413:1 641:1 681:1 682:1 683:1 685:1 686:1 794:1 855:1 1142:1 1478:1 2142:1 2350:1 2408:1 2903:1 3196:1 3199:1 3343:1 3371:1 5061:1 8365:1 8366:1 8367:1 8369:1 8370:1 8371:1 8372:1 8373:1 8374:1 8375:1 8376:1 8519:1 8520:1 8521:1 8522:1 8523:1 8524:1 8525:1 8526:1 8527:1 8529:1 
0 0.00132532243916141 22:1 23:1 24:2 25:1 29:1 30:1 31:1 32:1 40:1 43:1 44:1 45:3.5 46:5 47:2 115:1 198:1 495:1 497:1 784:1 785:1 794:1 856:1 884:1 888:1 1119:1 1142:1 1478:1 1598:1 2350:1 2439:1 2903:1 2934:1 3196:1 3326:1 3334:1 3343:1 3364:1 3371:1 4245:1 8365:1 8366:1 8367:1 8374:1 8375:1 8376:1 8549:1 8550:1 8551:1 8552:1 8553:1 8554:1 
0.006045842186333862 0 22:1 23:1 24:2 25:1 30:1 32:1 34:1 38:1 40:1 43:1 45:2 46:2 47:2 97:1 99:1 115:1 123:1 138:1 139:1 190:1 198:1 212:1 706:1 784:1 785:1 794:1 1263:1 2350:1 3333:1 4512:1 4888:1 7915:1 8384:1 8391:1 8392:1 8393:1 8398:1 8400:1 8401:1 8579:1 8580:1 8588:1 8589:1 8590:1 8591:1 8592:1 8593:1 8594:1 8595:1 
0.03773622557516801 0 2:1 4:1 12:1 13:1 14:1 15:1 22:1 23:1 24:2 25:1 29:1 30:1 31:1 32:1 40:1 43:1 44:1 45:1.5 46:2 47:1 133:1 611:1 614:1 1071:1 1601:1 1604:1 2501:1 3508:1 3520:1 4242:1 4247:1 4248:1 8689:1 8690:1 8691:1 8692:1 8700:1 8704:1 8740:1 8741:1 8742:1 8743:1 8744:1 8745:1 8746:1 8747:1 8748:1 8749:1 8750:1 
0.0244020135456956 0 22:1 23:1 24:1 25:1 29:1 30:1 31:1 32:1 34:1 37:1 38:1 40:1 43:1 44:1 45:1 46:1 47:1 146:1 673:1 675:1 1096:1 2035:1 2080:1 7077:1 8673:1 8707:1 8709:1 8711:1 8722:1 8724:1 8726:1 8727:1 8729:1 8730:1 8737:1 8751:1 8753:1 8754:1 8769:1 8770:1 8771:1 8772:1 8773:1 8774:1 8775:1 8776:1 8777:1 8778:1 8779:1 8780:1 
0.01618438814955794 0 22:1 23:1 24:2 25:1 29:1 30:1 31:1 32:1 34:1 37:1 38:1 40:1 43:1 44:1 45:1.5 46:2 47:1 673:1 675:1 895:1 896:1 904:1 910:1 911:1 7077:1 8673:1 8707:1 8709:1 8711:1 8726:1 8727:1 8728:1 8729:1 8730:1 8736:1 8737:1 8738:1 8770:1 8772:1 8774:1 8775:1 8776:1 8777:1 8778:1 8779:1 8791:1 8792:1 8793:1 8794:1 
0.05 0 22:1 23:1 24:3 25:1 29:1 30:1 31:1 32:1 34:1 37:1 40:1 43:1 45:1 46:1 47:1 103:1 146:1 194:1 390:1 856:1 1092:1 1096:1 1098:1 1293:1 1361:1 1698:1 1732:1 1767:1 1869:1 2302:1 4097:1 4111:1 5537:1 5941:1 7291:1 8913:1 8914:1 8915:1 8916:1 8917:1 8918:1 8919:1 8920:1 8921:1 8922:1 8924:1 8925:1 8926:1 8927:1 8930:1 8931:1 8932:1 8933:1 8934:1 8935:1 8936:1 8937:1 8938:1 
0.04533504804993122 0.007686702666294005 30:1 45:2.5 46:4 47:1 67:7 138:1 139:1 176:1 292:1 569:1 577:1 823:1 860:1 1097:1 1098:1 2007:1 2838:1 3074:1 3420:1 3423:1 8806:1 9453:1 9464:1 9466:1 9476:1 9477:1 9478:1 9479:1 9480:1 9481:1 9482:1 9483:1 9484:1 9485:1 9487:1 9488:1 9489:1 9490:1 9491:1 9492:1 9493:1 9495:1 9496:1 9497:1 9498:1 9499:1 9500:1 9501:1 9502:1 9503:1 9504:1 9505:1 9506:1 9507:1 9508:1 9509:1 
0.03163220889988801 0 22:1 23:1 24:4 25:1 29:1 30:1 31:1 32:1 40:1 43:1 44:1 45:1.5 46:2 47:1 427:1 617:1 770:1 785:1 792:1 794:1 838:1 856:2 868:1 1967:2 2350:1 2376:1 2443:1 2464:1 2862:1 2868:1 2980:1 3061:1 3281:1 3417:1 3425:1 3426:1 3427:1 5453:1 5560:1 5574:1 8493:1 9510:1 9511:1 9512:1 9513:1 9514:1 9515:1 9517:1 9519:1 9520:1 9521:1 9522:1 9523:1 9528:1 
0.05 0.005037365984139926 3:1 5:1 9:1 24:1 25:1 29:1 30:1 31:1 40:1 43:1 44:1 45:2 46:3 47:1 59:1 61:1 67:3 130:1 176:1 198:1 577:1 594:1 598:1 745:1 792:1 794:1 970:1 1113:1 2350:1 2533:1 2980:1 7520:1 7684:1 8662:1 8974:1 8975:1 9540:1 9541:1 9542:1 9543:1 9544:1 9545:1 9546:1 9568:1 9569:1 9570:1 9571:1 9572:1 9573:1 9574:1 9576:1 
0.003118079493160467 0.0007336097555979436 2:1 4:1 7:1 8:1 12:1 13:1 14:1 15:1 17:1 18:1 22:1 23:1 24:2 25:1 26:1 30:1 32:1 40:1 43:1 44:1 45:1.5 46:2 47:1 138:1 139:1 234:1 774:1 1092:1 2302:1 2799:1 3281:1 3411:1 3417:1 3425:1 3426:1 4789:1 4792:1 4793:1 9655:1 9656:1 9657:1 9658:1 9659:1 9660:1 9661:1 9662:1 9663:1 
0.02031641155266553 0 20:1 22:1 23:1 24:2 29:1 30:1 31:1 32:1 40:1 43:1 45:2.5 46:3 47:2 115:1 123:1 194:1 198:3 1205:1 1546:1 1897:1 1904:1 2310:1 2313:1 2346:1 3264:1 5119:1 5702:1 7523:1 9670:1 9680:1 9689:1 9690:1 9691:1 9692:1 9693:1 9694:1 9695:1 9697:1 9698:1 9699:1 9700:1 9701:1 9702:1 9703:1 9704:1 9705:1 9706:1 9707:1 9708:1 9709:1 9710:1 9711:1 9712:1 
0.001366398728359127 0 22:1 23:1 24:1 29:1 30:1 31:1 32:1 40:1 43:1 45:1.5 46:2 47:1 115:1 123:1 176:1 198:1 364:1 568:1 569:1 593:1 594:1 598:1 745:1 789:1 2438:1 2577:1 2584:1 5116:1 5119:1 5124:1 5162:1 6157:1 7519:1 7520:1 9718:1 9720:1 9726:1 9727:1 9728:1 9729:1 9730:1 9731:1 9732:1 9733:1 9734:1 9735:1 9736:1 9737:1 9738:1 9739:1 
0.010196214171412 0.01899121226308815 22:1 23:1 24:1 25:2 29:1 30:1 31:1 34:1 37:1 45:1.5 46:2 47:1 176:1 198:1 206:1 268:1 272:1 446:1 784:1 785:1 789:1 792:1 794:1 798:1 2430:1 2431:1 2527:1 2577:1 2997:1 3181:1 3443:1 8337:1 9320:1 9321:1 9541:1 9778:1 9779:1 9780:1 9781:1 9782:1 9801:1 9802:1 9803:1 9804:1 9805:1 9806:1 9807:1 
0.003097664044732811 0.005406329154367408 22:1 23:1 24:1 26:1 30:1 32:1 198:1 577:1 1096:1 1098:1 1252:1 1599:1 1664:1 1675:1 2423:1 3264:1 3453:1 5501:1 6035:1 6599:1 7018:1 9741:1 9808:1 9809:1 9810:1 9811:1 9812:1 9813:1 9814:1 9815:1 9816:1 9817:1 9818:1 9819:1 9820:1 9821:1 9822:1 9823:1 9824:1 9825:1 9826:1 9827:1 9828:1 
0.0267804175367136 0 22:1 23:1 24:1 29:1 30:1 31:1 32:1 40:1 43:1 45:1.5 46:2 47:1 115:1 123:1 176:1 198:1 567:1 578:1 579:1 800:1 850:1 1264:1 1600:1 1601:1 1602:1 1604:1 1694:1 2081:1 2198:1 2501:1 5561:1 7958:1 8007:1 9898:1 9899:1 9900:1 9901:1 9902:1 9904:1 9906:1 9907:1 9908:1 9909:1 9910:1 9911:1 9912:1 9913:1 
0.02697777788632392 0 22:1 23:1 24:5 30:1 32:1 34:1 38:1 40:1 43:1 45:2 46:3 47:1 115:1 123:1 138:1 139:1 198:1 706:1 1083:1 1092:1 1904:1 2217:1 2219:1 2237:1 2295:1 2296:1 2299:1 2300:1 2301:1 2302:1 7465:1 9676:1 9918:1 9929:1 9930:1 9931:1 9932:1 9933:1 9934:1 9935:1 9936:1 9937:1 9938:1 9939:1 9940:1 9941:1 9942:1 9943:1 9944:1 9945:1 9946:1 9947:1 9948:1 
0.0111215231311257 0 24:1 25:2 29:1 30:1 31:1 45:2.5 46:4 47:1 67:5 176:1 198:1 251:1 268:1 446:1 613:1 798:1 1098:1 1600:1 1601:1 1602:1 1604:1 2237:1 2238:1 2333:1 2402:1 2408:1 2433:1 2438:1 2501:1 2584:1 3041:1 3205:1 3206:1 4357:1 5116:1 5119:1 7411:1 7412:1 7489:1 7519:1 7520:1 9903:1 10019:1 10020:1 10021:1 10022:1 10023:1 10024:1 10025:1 10026:1 10027:1 10028:1 10029:1 10030:1 10031:1 10032:1 10033:1 10034:1 10035:1 
0.005797811191098847 0.003792377598389619 22:1 23:1 24:2 25:1 29:1 30:1 31:1 32:1 34:1 37:1 38:1 40:1 43:1 44:1 45:1.5 46:2 47:1 54:1 150:1 176:1 3291:1 5941:1 6196:1 6209:1 6210:1 8777:1 10170:1 10171:1 10172:1 10173:1 10174:1 10175:1 10176:1 10177:1 10178:1 10179:1 10180:1 10181:1 10182:1 10183:1 10184:1 10185:1 10186:1 10187:1 10188:1 10189:1 10190:1 10191:1 
0 0.005551146028154596 22:1 23:1 24:1 25:1 30:1 34:1 38:1 40:1 43:1 44:1 45:1.5 46:2 47:1 138:1 139:1 194:1 201:1 706:1 2038:1 5696:1 5701:1 5702:1 5707:1 5950:1 8030:1 10223:1 10224:1 10225:1 10226:1 10227:1 10228:1 10232:1 10233:1 10234:1 10235:1 10236:1 10284:1 10285:1 10286:1 10287:1 10288:1 10289:1 10290:1 10291:1 10292:1 10293:1 10294:1 
0 0.01156487848752086 22:1 23:1 25:1 30:1 34:1 115:1 138:1 139:1 194:1 198:1 201:1 206:1 346:1 351:1 706:1 5702:1 5814:1 5821:1 6497:1 7332:1 8029:1 8045:1 10238:1 10239:1 10240:1 10241:1 10242:1 10243:1 10252:1 10308:1 10309:1 10310:1 10311:1 10312:1 10313:1 10314:1 10315:1 10316:1 10317:1 
0.02484294392675228 0 22:1 23:1 24:2 25:1 30:1 32:1 40:1 43:1 45:1.5 46:2 47:1 115:2 123:1 138:1 139:1 167:1 176:1 198:2 222:1 339:1 593:1 594:1 595:1 597:1 598:1 3264:1 3266:1 5655:1 6286:1 6289:1 6324:1 6490:1 6496:1 6560:1 6561:1 6562:1 6595:1 6603:1 6604:1 7087:1 10421:1 10422:1 10423:1 10431:1 10432:1 10433:1 10435:1 10436:1 10437:1 10438:1 10439:1 10440:1 
0.05 0 22:1 23:1 29:1 30:1 31:1 32:1 45:3.5 46:4 47:3 99:1 115:4 137:1 150:1 176:1 190:2 198:6 222:1 268:1 446:1 460:1 594:1 745:1 798:1 856:1 1096:2 1098:1 1555:1 1561:1 1698:1 1767:1 1967:1 2424:1 2433:1 2515:1 2988:1 2989:1 3264:1 5574:1 6300:1 6302:1 6346:1 6348:1 6467:1 6468:1 6518:1 6532:1 6533:1 6538:1 6562:1 6578:1 6580:1 6594:1 6595:1 6609:1 6727:1 8104:1 8178:1 8180:1 10360:1 10393:1 10454:1 10455:1 10456:1 10457:1 10458:1 10459:1 10460:1 
0.04611805743596221 0 29:1 30:1 31:1 45:5 46:6 47:4 67:7 97:1 99:1 115:2 137:1 150:1 170:1 176:1 280:1 284:1 292:1 293:1 327:1 466:1 530:1 594:1 745:1 798:1 1096:1 1098:1 2424:1 2515:1 2516:1 2518:1 2988:1 2989:1 6300:1 6302:1 6466:1 6518:1 6538:1 6609:1 6714:1 6715:1 7280:1 7302:1 7342:1 8177:1 8178:1 8179:1 8180:1 10360:1 10393:1 10458:1 10461:1 10462:1 10463:1 10464:1 10465:1 10466:1 10467:1 10468:1 10469:1 10471:1 
0.05 0.03236727658832562 24:1 25:1 26:1 30:1 45:3 46:4 47:2 67:7 89:1 90:1 97:1 99:1 115:2 119:1 188:1 190:1 198:3 268:1 272:1 413:1 418:1 444:1 446:1 466:2 759:1 798:1 1240:1 1600:1 1601:1 2423:1 2424:1 2426:1 2475:1 2476:1 2495:1 2501:1 5561:1 5565:1 5849:1 5984:1 6011:1 6321:1 6323:1 6324:1 6738:1 6753:1 6755:1 7042:1 7402:1 8116:1 8219:1 10472:1 10473:1 10481:1 10484:1 10485:1 10486:1 10487:1 10488:1 10489:1 
0.02466834938548999 0.007062085034932066 6:1 16:1 22:1 23:1 24:1 25:1 29:1 30:1 31:1 32:1 115:2 176:1 198:3 789:1 1341:1 1342:1 2597:1 2606:1 3490:1 3636:1 5233:1 5454:1 5467:1 6286:1 6289:1 6324:1 6562:1 6578:1 6580:1 6590:1 6593:1 6594:1 6595:1 7058:1 7348:1 7349:1 7354:1 8943:1 10527:1 10528:1 10531:1 10533:1 10534:1 10535:1 
0.01300833483068429 0 24:1 25:1 29:1 30:1 31:1 45:2 46:3 47:1 67:3 176:1 268:1 413:1 418:1 427:1 444:1 446:1 450:1 451:1 460:1 466:1 758:1 759:1 761:1 1098:1 1600:1 1601:1 1602:1 1604:1 2433:1 2501:1 3480:1 6373:1 6378:1 6390:1 6444:1 6632:1 6635:1 6699:1 6700:1 6701:1 6702:1 7411:1 7412:1 8196:1 8259:1 8261:1 9504:1 10543:1 10544:1 10545:1 10546:1 
0.05 0 24:1 25:1 30:1 45:2 46:3 47:1 67:2 89:1 90:1 115:2 176:1 268:1 272:1 413:1 418:1 444:1 446:1 466:1 594:1 742:1 758:1 759:1 761:1 766:1 768:1 770:1 771:1 798:1 1096:1 1240:1 2423:1 2424:1 2426:1 2515:1 3343:1 3371:1 3567:1 5984:1 6011:1 6433:1 6438:1 8134:1 8219:1 8326:1 8327:1 8328:1 10485:1 10488:1 10547:1 10548:1 10549:1 10550:1 
0.001386037231429981 0 22:1 23:1 24:2 25:1 29:1 30:1 31:1 45:2 46:3 47:1 268:1 446:1 594:1 598:1 742:1 743:1 745:1 789:1 798:1 856:1 1098:1 1967:1 2027:1 2433:1 2439:1 3205:1 3206:1 3458:1 6891:1 6907:1 10615:1 10616:1 10617:1 10618:1 10619:1 10620:1 10621:1 10622:1 10623:1 10624:1 10625:1 10626:1 10627:1 10628:1 10629:1 10630:1 10631:1 10632:1 10633:1 10634:1 10635:1 
0.03960792786891584 0 8:1 22:1 23:1 24:2 25:1 29:1 30:1 31:1 32:1 97:1 99:1 115:1 176:1 190:1 198:2 213:1 798:1 919:1 3264:1 6184:1 6220:1 6527:1 6529:1 6534:1 6535:1 6536:1 10654:1 10655:1 10656:1 10657:1 10658:1 10659:1 10660:1 10661:1 10662:1 10663:1 
0.02573640299427722 0.01511369115348035 8:1 22:1 23:1 25:1 26:1 30:1 34:1 115:1 176:1 198:1 798:1 919:1 1096:1 1664:1 1675:1 1868:1 1869:1 2198:1 6170:1 6172:1 6182:1 10415:1 10416:1 10417:1 10669:1 10670:1 10671:1 10672:1 10673:1 10674:1 10675:1 10676:1 10677:1 10678:1 10679:1 10680:1 10681:1 10682:1 10683:1 
0.000450730197977202 0 9:1 20:1 22:1 23:1 24:2 25:1 30:1 32:1 40:1 43:1 44:1 45:1.5 46:2 47:1 54:1 135:1 150:1 1205:1 1209:1 1664:1 1675:1 1701:1 3451:1 5703:1 5718:1 5894:1 6792:1 6793:1 6794:1 6795:1 6854:1 6856:1 10014:1 10710:1 10712:1 10719:1 10720:1 10721:1 10722:1 10723:1 10733:1 10734:1 10735:1 10736:1 10737:1 10738:1 
0.05 0.01043944784701947 24:1 25:1 29:1 45:4.5 46:7 47:2 67:7 224:1 236:1 268:1 272:1 297:1 413:1 418:1 419:1 421:1 466:1 509:1 823:1 1245:1 1247:1 1600:1 1601:1 1602:1 1604:1 2155:1 2423:1 2426:1 2501:1 2548:1 2560:1 3259:2 3270:1 3271:2 5984:1 6278:1 6688:1 7412:1 7958:1 7968:1 8255:1 10837:1 10838:1 10839:1 10840:1 10841:1 10842:1 10843:1 10846:1 10848:1 10849:1 10881:1 10882:1 10883:1 10884:1 10885:1 10886:1 10887:1 10888:1 10889:1 10890:1 10891:1 
0.03459616150956001 0 22:1 23:1 24:1 29:1 30:1 31:1 32:1 40:1 43:1 45:1.5 46:2 47:1 115:1 123:1 167:1 198:1 577:1 593:1 594:1 598:1 745:1 2485:1 3264:1 5162:1 6157:1 6532:1 10851:1 10852:1 10853:1 10854:1 10855:1 10856:1 10857:1 10858:1 10863:1 10864:1 10865:1 10866:1 10902:1 10903:1 10904:1 10905:1 10906:1 10907:1 10908:1 10909:1 10910:1 10911:1 10912:1 10913:1 
0.05 0.01029839406469528 24:2 25:1 29:1 45:2.5 46:4 47:1 67:2 115:2 198:1 268:1 272:1 297:1 421:1 435:1 466:1 509:1 759:1 1600:1 1601:1 1602:1 1604:1 1999:1 2423:1 2426:1 2501:1 6107:1 7770:1 7775:1 7777:1 7781:1 10925:1 10926:1 10927:1 10928:1 10929:1 10930:1 10931:1 10932:1 10933:1 10934:1 10935:1 10936:1 10937:1 10938:1 10939:1 10940:1 10941:1 10942:1 10943:1 10944:1 10945:1 10946:1 
0.002958324548071077 0.0005333873039419617 22:1 23:1 24:2 25:1 29:1 30:1 31:1 32:1 40:1 43:1 45:1.5 46:2 47:1 115:1 123:1 198:1 213:1 223:1 243:1 244:1 496:1 497:1 919:1 1205:1 1209:1 1387:1 1546:1 1714:1 1898:1 3154:1 3155:1 4777:1 6143:1 6144:1 6146:1 6153:1 6155:1 6158:1 7077:1 8673:1 10989:1 10990:1 10991:1 10992:1 10993:1 10994:1 10995:1 10996:1 10997:1 
0.05 0.002568535229618232 24:1 25:2 30:1 40:1 43:1 45:5 46:8 47:2 67:5 115:2 119:2 123:1 138:1 139:1 141:1 144:1 145:1 167:1 176:1 213:1 259:1 434:1 480:1 483:1 485:1 486:1 501:1 504:1 505:1 577:1 1831:1 2169:1 3293:1 3294:1 3295:1 3296:1 3343:1 3371:1 4945:1 6562:1 11009:1 11010:1 11011:1 11012:1 11013:1 11014:1 11015:1 11016:1 11017:1 11018:1 11019:1 11020:1 11021:1 11022:1 11023:1 11024:1 11025:1 11026:1 11027:1 11028:1 
0.002724977681648805 0.01165684120910718 24:1 25:2 30:1 40:1 43:1 45:3.5 46:6 47:1 67:3 115:2 119:1 123:1 138:1 139:1 167:1 176:1 434:1 480:1 483:1 485:1 486:1 577:1 593:1 594:1 595:1 597:1 598:1 1107:1 2099:1 2103:1 2169:1 2184:1 2187:1 3280:1 3281:1 3343:1 3371:1 3411:1 5716:1 6562:1 11012:1 11013:1 11014:1 11015:1 11016:1 11017:1 11018:1 11019:1 11025:1 11026:1 11027:1 11029:1 11030:1 11031:1 11038:1 11039:1 11041:1 11047:1 11048:1 
0.008301499969631636 0 25:2 30:1 40:1 43:1 45:2.5 46:4 47:1 67:1 115:2 123:1 138:1 139:1 167:1 176:1 480:1 483:1 485:1 486:1 539:1 577:1 1155:1 1158:1 2158:1 2169:1 2933:1 2988:1 3343:1 3371:1 4516:1 6562:1 7265:1 9338:1 11012:1 11013:1 11014:1 11015:1 11016:1 11017:1 11018:1 11025:1 11026:1 11027:1 11060:1 11061:1 11062:1 11063:1 11064:1 11065:1 11066:1 11067:1 11068:1 11069:1 11070:1 11071:1 11072:1 
0.009393742307755465 0 16:1 22:1 23:1 24:2 25:1 30:1 34:1 38:1 40:1 43:1 44:1 45:1.5 46:2 47:1 115:1 126:1 128:1 138:1 139:1 194:1 706:1 1016:1 2335:1 3291:1 3300:1 5696:1 5768:1 5769:1 5793:1 5795:1 10757:1 11097:1 11099:1 11100:1 11101:1 11102:1 11103:1 11104:1 11105:1 11106:1 11107:1 11108:1 11109:1 11110:1 11111:1 11112:1 11113:1 11114:1 
0.004467938080893115 0 22:1 23:1 24:2 25:1 29:1 30:1 31:1 32:1 45:1 46:1 47:1 74:1 77:1 78:1 141:1 145:1 146:1 375:1 550:1 552:1 617:1 3134:1 3478:1 3482:1 5922:1 5923:1 7999:1 10264:1 11159:1 11161:1 11163:1 11164:1 11176:1 11178:1 11179:1 11180:1 11181:1 11182:1 11183:1 11184:1 11185:1 11186:1 11187:1 11188:1 11189:1 11190:1 11191:1 11192:1 11193:1 
0.003229522618899206 0 9:1 22:1 23:1 24:3 25:1 30:1 32:1 126:1 128:1 138:1 139:1 268:1 272:1 310:1 418:1 444:1 446:1 838:1 856:1 1967:1 2219:1 2423:1 3107:1 3119:1 5574:1 5984:1 6009:1 6056:1 6057:1 6058:1 6083:1 6096:1 6775:1 6781:1 6914:1 6917:1 6922:1 10338:1 10341:1 11194:1 11195:1 11196:1 
0.05 0 24:2 30:1 61:1 67:13 115:1 119:3 126:1 128:1 138:1 139:1 176:1 268:1 292:1 413:2 418:1 434:1 444:1 446:1 466:3 577:1 758:1 759:1 761:1 1098:1 2219:1 2423:1 2426:1 2433:1 5984:1 6029:1 6070:1 6092:1 6300:1 6302:1 6608:1 6609:1 6678:1 6682:1 6775:1 6781:1 6940:1 6941:1 7904:1 8160:1 8236:1 10336:1 10337:1 10338:1 11195:1 11196:1 11200:1 11201:1 
0.05 0.04995131498421391 25:1 29:1 67:2 115:3 167:1 170:1 176:1 178:1 198:1 344:1 376:1 529:1 547:1 577:1 1082:1 1327:1 1339:1 2475:1 5838:1 6494:1 6497:1 6609:1 6980:1 7124:1 7131:1 8116:1 11226:1 11227:1 11228:1 11229:1 11230:1 11231:1 11240:1 11241:1 11242:1 11243:1 11244:1 11245:1 11246:1 11247:1 11248:1 11249:1 11250:1 11251:1 11252:1 11253:1 11254:1 
0 0.05 8:1 25:1 26:1 29:1 30:1 31:1 34:1 37:1 67:1 115:2 170:1 176:1 198:1 206:1 222:1 226:1 798:1 919:1 6184:1 6286:1 6289:1 6562:1 6569:1 7296:1 7299:1 10449:1 10450:1 11065:1 11226:1 11227:1 11228:1 11229:1 11230:1 11246:1 11289:1 11290:1 11291:1 11292:1 11293:1 11294:1 11295:1 
0.01011836198351428 0.02171379294656159 22:1 23:1 24:2 25:1 29:1 30:1 31:1 32:1 40:1 43:1 45:1.5 46:2 47:1 104:1 115:1 120:1 121:1 123:1 198:1 593:1 594:1 598:1 745:1 759:1 1387:1 1898:1 2485:1 3154:1 3155:1 3306:1 4243:1 5162:1 6143:1 6144:1 6153:1 6155:1 6157:1 6531:1 6533:1 6657:1 7051:1 11297:1 11298:1 11307:1 11308:1 11309:1 11310:1 11311:1 11312:1 
0.01656375155097718 0.002573452053736124 8:1 22:1 23:1 24:1 25:1 29:1 30:1 31:1 32:1 115:1 176:1 190:1 198:3 222:1 798:1 820:1 919:1 1096:1 1098:1 2346:1 2619:1 2621:1 2740:1 2741:1 3264:1 7176:1 10858:1 11302:1 11333:1 11334:1 11335:1 11336:1 11337:1 11338:1 11339:1 11340:1 11341:1 11342:1 11343:1 
0.007223479259919005 0.05 8:1 22:1 23:1 29:1 30:1 31:1 115:1 176:1 198:1 213:1 577:1 798:1 1098:1 1205:1 1546:1 1547:1 1663:1 2198:1 3415:1 6300:1 6302:1 6327:1 6522:1 6564:1 7061:1 11226:1 11227:1 11228:1 11229:1 11359:1 11360:1 11361:1 11362:1 11363:1 11364:1 11365:1 11366:1 11367:1 
0.01148623156713113 0 22:1 23:1 24:1 26:1 29:1 30:1 31:1 32:1 40:1 43:1 115:1 123:1 167:1 176:1 198:1 2475:1 3264:1 3415:1 7107:1 7196:1 7260:1 8116:1 11368:1 11369:1 11370:1 11371:1 11372:1 11373:1 11374:1 11375:1 11376:1 11377:1 11378:1 11379:1 11380:1 11381:1 11382:1 11383:1 
0.001053647264413134 0 22:1 23:1 26:1 29:1 30:1 31:1 32:1 115:1 167:1 176:1 181:1 198:2 919:1 1096:1 1229:1 1491:1 2475:1 3264:1 8091:1 8097:1 11343:1 11384:1 11385:1 11386:1 11387:1 11388:1 11389:1 11390:1 11391:1 11392:1 11393:1 11394:1 11395:1 11396:1 11397:1 11398:1 11399:1 11400:1 11401:1 
0.007251621422899624 0.002504241604445769 22:1 23:1 24:2 25:2 29:1 30:1 31:1 34:1 37:1 38:1 97:1 99:1 115:1 176:1 190:1 198:1 577:1 789:1 798:1 820:1 919:1 2475:1 3300:1 10616:1 10617:1 10618:1 10619:1 10627:1 11402:1 11403:1 11404:1 11405:1 11406:1 11407:1 11408:1 11409:1 11410:1 11411:1 11412:1 11413:1 11414:1 
0.01380050495912451 0.004744053774186421 22:1 23:1 24:4 25:1 29:1 30:1 31:1 32:1 40:1 43:1 45:1.5 46:2 47:1 115:1 123:1 198:5 212:1 785:1 794:1 838:1 856:1 1689:1 1732:1 2350:1 2599:1 2966:1 2967:1 2971:1 3100:1 3134:1 3333:1 3377:1 3394:1 4097:1 4370:1 4736:1 6445:1 6447:1 7561:1 7563:1 11467:1 11468:1 11469:1 11470:1 11471:1 11472:1 11473:1 11474:1 11475:1 11476:1 11477:1 11478:1 11482:1 11483:1 11487:1 11488:1 11489:1 11490:1 11491:1 11492:1 11493:1 
0.001118875892094218 0 3:1 5:1 9:1 19:1 20:1 22:1 23:1 24:1 29:1 30:1 31:1 32:1 39:1 40:1 41:1 43:1 45:1.5 46:2 47:1 115:1 123:1 198:2 388:1 594:1 598:1 610:1 612:1 613:1 733:1 742:1 743:1 745:1 2369:1 2853:1 4778:1 5984:1 10914:1 10917:1 11575:1 11576:1 11577:1 11578:1 11582:1 11593:1 11594:1 11595:1 11596:1 
0.05 0.00943942692438274 9:1 24:1 25:1 26:1 29:1 30:1 31:1 40:1 43:1 44:1 45:1.5 46:2 47:1 59:1 61:1 67:2 164:1 423:1 424:1 425:1 426:1 521:1 523:1 635:1 636:1 637:1 638:1 1666:1 1667:1 2451:1 2452:1 2475:1 3112:1 3194:1 5403:1 6988:1 8712:1 11570:1 11612:1 11613:1 11614:1 11615:1 11616:1 11617:1 11618:1 11619:1 11620:1 
0.01592714806090528 0 22:1 23:1 24:1 25:1 26:1 30:1 32:1 138:1 139:1 167:1 181:1 185:1 213:1 785:1 792:1 794:1 919:1 1096:1 1443:1 1491:1 2346:1 2350:1 2980:1 3061:1 3264:1 7077:1 8673:1 11709:1 11710:1 11711:1 11712:1 11713:1 11714:1 11715:1 11716:1 11717:1 11718:1 11719:1 11720:1 11721:1 
0.009649042413832729 0.001588306927586308 22:1 23:1 24:1 25:1 29:1 30:1 31:1 32:1 45:1 46:1 47:1 115:1 146:1 198:1 1096:1 2237:1 3520:1 11722:1 11723:1 11724:1 11725:1 11726:1 11727:1 11728:1 11729:1 11730:1 11731:1 11732:1 11733:1 11734:1 11735:1 11736:1 11737:1 11738:1 11739:1 11740:1 11741:1 11742:1 11743:1 11744:1 11745:1 11746:1 11747:1 11748:1 11749:1 11750:1 11751:1 11752:1 11753:1 11754:1 11755:1 11756:1 11757:1 11758:1 
0.007691751215374168 0 22:1 23:1 24:1 29:1 30:1 31:1 32:1 40:1 43:1 45:1.5 46:2 47:1 115:1 123:1 198:1 2343:1 2352:1 3520:1 3658:1 3660:1 3662:1 3663:1 3857:1 11730:1 11731:1 11733:1 11741:1 11743:1 11747:1 11748:1 11749:1 11751:1 11752:1 11781:1 11782:1 11783:1 11784:1 11785:1 11786:1 11787:1 11788:1 11789:1 11790:1 11791:1 11792:1 11793:1 11794:1 11795:1 
0.01197313866700004 0 22:1 23:1 29:1 30:1 31:1 32:1 45:1.5 46:2 47:1 115:1 181:1 198:1 403:1 594:1 733:1 740:1 742:1 743:1 745:1 1096:1 1229:1 1491:1 2515:1 3520:1 8751:1 8753:1 8771:1 8773:1 11731:1 11743:1 11796:1 11797:1 11798:1 11799:1 11800:1 11801:1 11802:1 11803:1 11804:1 11805:1 11806:1 11807:1 11808:1 11809:1 11810:1 11811:1 11812:1 11813:1 11814:1 11815:1 
0.00146506275318307 0 9:1 20:1 22:1 23:1 24:2 25:1 26:1 30:1 32:1 40:1 43:1 44:1 45:1.5 46:2 47:1 49:1 50:1 51:1 52:1 129:1 148:1 176:1 1205:1 1209:1 1264:1 1664:1 1675:1 1694:1 1701:1 2198:1 3451:1 5670:1 5702:1 10719:1 10721:1 10722:1 10734:1 12104:1 12111:1 12112:1 12121:1 12122:1 12123:1 12124:1 12125:1 12126:1 12127:1 
0.02118725032407883 0.003221427494558963 8:1 9:1 18:1 22:1 23:1 24:2 25:1 30:1 32:1 45:1 46:1 47:1 146:1 970:1 1066:1 1071:1 1239:1 1664:1 1675:1 1732:1 1960:1 1967:1 2234:1 2966:1 2967:1 2971:1 2998:1 4097:1 6424:1 6425:1 6429:1 10427:1 10429:1 12298:1 12299:1 12300:1 12301:1 12302:1 12303:1 12304:1 12305:1 12306:1 12307:1 12308:1 12309:1 12310:1 12311:1 12312:1 12313:1 
0.04502741268765523 0 6:1 16:1 20:1 22:1 23:1 24:3 30:1 32:1 34:1 38:1 40:1 43:1 45:1.5 46:2 47:1 115:1 123:1 176:1 198:1 1425:1 1664:1 1675:1 1868:1 1897:2 1904:2 1963:1 2976:1 3264:1 3451:1 6357:1 10734:1 11662:1 11663:1 11668:1 11669:1 11670:1 11671:1 11674:1 11683:1 11684:1 11685:1 12361:1 12362:1 12363:1 12364:1 12368:1 12370:1 12371:1 12372:1 12378:1 12379:1 
0.002356000370895858 0 8:1 18:1 22:1 23:1 24:2 25:1 30:1 32:1 40:1 43:1 44:1 176:1 198:1 970:1 1066:1 1239:1 1664:1 1675:1 1732:1 1960:1 1967:1 2234:1 3264:1 3451:1 4097:1 6357:1 7009:1 7066:1 10721:1 10722:1 10734:1 12119:1 12384:1 12385:1 12386:1 12387:1 12388:1 12389:1 12390:1 12391:1 12392:1 12393:1 
0.05 0 22:1 23:1 24:1 25:1 30:1 32:1 45:1 46:1 47:1 146:1 327:1 331:1 682:1 686:1 970:1 1066:1 1096:1 1369:1 1374:1 1664:1 1675:1 1714:1 1811:1 1814:1 1880:1 1882:1 2518:1 2616:1 2896:1 2897:1 2898:1 2899:1 2928:1 2930:1 4599:1 4777:1 6170:1 6172:1 10077:1 10165:1 12485:1 12564:1 12566:1 12608:1 12624:1 12626:1 12812:1 12813:1 12814:1 12815:1 
0.01412718139021525 0.02418778390039993 24:1 25:1 30:1 45:7 46:10 47:4 67:4 168:1 198:1 268:1 272:1 346:1 351:1 403:1 407:1 413:1 414:1 418:1 444:1 446:1 671:1 681:1 682:1 686:1 1167:1 1179:1 1664:1 1675:1 1725:1 1882:1 2159:1 2916:1 2917:1 2918:1 2919:1 3250:1 5429:1 6325:1 6337:1 6391:1 7790:1 7802:1 7804:1 9503:1 12522:1 12523:1 12524:1 12529:1 12530:1 12858:1 12859:1 12860:1 12861:1 12862:1 12863:1 12864:1 12865:1 12866:1 12867:1 12868:1 12869:1 12870:1 12871:1 
0.05 0 8:1 18:1 22:1 23:1 24:2 25:1 26:1 30:1 32:1 181:1 185:1 198:4 856:1 1096:2 1381:1 1383:1 1491:1 1616:1 1617:1 1664:1 1675:1 1691:1 1698:2 1732:1 1767:1 1891:1 1893:1 1897:2 1898:1 1904:2 1947:1 2754:1 3169:1 3264:1 3291:1 4097:1 4696:1 4699:1 6357:1 7291:1 12876:1 12877:1 12878:1 12879:2 12880:1 12881:1 12882:1 12883:1 12890:1 12891:1 12893:2 12894:1 12900:1 12901:1 12902:1 12903:1 
0 0.001220496373939877 8:1 9:1 18:1 22:1 23:1 24:1 25:1 26:1 29:1 30:1 31:1 32:1 45:2.5 46:3 47:2 181:1 185:1 198:4 594:1 745:1 1096:1 1381:1 1383:1 1491:1 1616:1 1617:1 1698:1 1732:1 1767:1 1891:1 1893:1 1897:1 1898:1 1903:1 1904:1 2754:1 3169:1 3291:1 4097:1 6052:1 9128:1 9404:1 12877:1 12878:1 12879:2 12880:1 12881:1 12882:1 12890:1 12891:1 12893:2 12894:1 12900:1 12901:1 12902:1 12903:1 12907:1 12908:1 12909:1 12910:1 12911:1 
0 0.001208797375503018 8:1 18:1 22:1 23:1 24:1 25:1 26:1 29:1 30:1 31:1 32:1 45:2.5 46:3 47:2 181:1 185:1 198:3 594:1 615:1 745:1 1096:1 1381:1 1383:1 1491:1 1616:1 1617:1 1732:1 1891:1 1893:1 1897:1 1898:1 1904:1 2754:1 3169:1 3291:1 4097:1 6052:1 6884:1 9128:1 12877:1 12878:1 12879:1 12880:1 12882:1 12890:1 12891:1 12893:1 12894:1 12900:1 12901:1 12902:1 12903:1 12909:1 12910:1 12911:1 12912:1 12913:1 12914:1 
0.02002920824655172 0 8:1 18:1 22:1 23:1 24:1 29:1 30:1 31:1 32:1 1096:1 1098:1 1239:1 1419:1 1421:1 1581:1 1582:1 1583:1 1732:1 1957:1 1959:1 1960:1 1961:1 1967:1 1972:1 2234:1 2346:1 3264:1 4097:1 8879:1 9341:1 11629:1 11651:1 12923:1 12924:1 
0.006557564857629613 0 8:1 18:1 22:1 23:1 24:1 30:1 32:1 40:1 43:1 115:2 123:1 198:2 1664:1 1675:1 2198:1 3306:1 4243:1 13132:1 13133:1 13134:1 13135:1 13136:1 13137:1 13138:1 13139:1 13140:1 13141:1 13142:1 13143:1 13144:1 13145:1 13146:1 13147:1 13148:1 13149:1 13150:1 13151:1 13152:1 
0.003233318377319243 0.004347140099979735 1:1 2:1 3:1 4:1 5:1 12:1 13:1 14:1 15:1 19:1 22:1 23:1 24:2 25:1 29:1 30:1 31:1 32:1 39:1 40:1 41:1 42:1 43:1 44:1 45:1.5 46:2 47:1 176:1 1082:1 3306:1 4115:1 4120:1 4123:1 4243:1 5670:1 5702:1 5788:1 13500:1 13501:1 13502:1 13503:1 13504:1 13505:1 13506:1 13507:1 13508:1 13509:1 
0.03181747847026307 0 22:1 23:1 24:1 25:1 29:1 30:1 31:1 32:1 167:1 176:1 181:1 185:1 1096:1 1443:1 1491:1 2346:1 2921:1 3264:1 8576:1 13537:1 13539:1 13541:1 13542:1 13547:1 13548:1 13549:1 13550:1 13551:1 13552:1 13581:1 13582:1 13583:1 13584:1 13585:1 13586:1 13587:1 13588:1 
0.01076044040515737 0 22:1 23:1 24:1 25:1 30:1 32:1 198:1 577:1 756:1 798:1 970:1 1084:1 1425:1 1664:1 1675:1 1694:1 2951:1 3264:1 13893:1 13895:1 13902:1 13912:1 13913:1 13914:1 13915:1 13916:1 13919:1 13921:1 13922:1 13923:1 13924:1 13925:1 
0.003263277358012038 0 22:1 23:1 24:3 25:2 30:1 32:1 40:1 43:1 44:1 45:1.5 46:2 47:1 138:1 139:1 759:1 1601:1 2066:1 2099:1 2501:1 2618:1 2620:1 5229:1 7051:1 12973:1 12974:1 12992:1 13998:1 13999:1 14000:1 14001:1 14002:1 14003:1 14004:1 14005:1 14006:1 14007:1 14008:1 14009:1 14010:1 14011:1 14012:1 14013:1 14014:1 14015:1 14016:1 14017:1 14018:1 
0.03529238205425534 0.03220051499469781 22:1 23:1 24:4 25:1 30:1 32:1 34:1 38:1 40:1 43:1 44:1 45:1 46:1 47:1 115:1 138:1 139:1 146:1 198:1 310:1 706:1 949:1 961:1 998:1 1082:1 1083:1 1096:1 1732:1 1897:4 1904:4 2216:1 2217:1 2219:1 2224:1 2226:1 2232:1 2237:1 2238:1 2295:1 2299:1 2300:1 3377:2 4097:1 4115:1 9674:1 9675:1 9676:1 9697:1 9698:1 9914:1 9931:1 9933:1 9942:1 9943:1 14102:1 14103:1 14104:1 14105:1 14106:1 14107:1 14108:1 14109:1 14110:1 14111:1 
0.006229240386584204 0.001446038730289634 22:1 23:1 24:2 26:1 29:1 30:1 31:1 32:1 40:1 43:1 45:1.5 46:2 47:1 115:1 123:1 176:1 198:1 213:1 234:1 789:1 919:1 2966:1 2967:1 2971:1 3300:1 6445:1 6447:1 14118:1 14119:1 14120:1 14121:1 14122:1 14123:1 14124:1 14125:1 14126:1 14127:1 14128:1 14129:1 14130:1 14131:1 14132:1 14133:1 14134:1 14135:1 14136:1 14137:1 14138:1 14139:1 14140:1 
0.0004021609472287805 0 22:1 23:1 29:1 30:1 31:1 32:1 45:1 46:1 47:1 115:1 146:1 176:1 198:2 268:1 346:1 418:1 444:1 446:1 501:1 594:1 733:1 742:1 743:1 745:1 1096:1 1098:1 2433:1 2515:1 4712:1 5984:1 9815:1 10193:1 10194:1 10199:1 10778:1 10780:1 14185:1 14186:1 14187:1 14190:1 14191:1 14198:1 14200:1 14201:1 14202:1 14203:1 14205:1 14206:1 14207:1 14208:1 
0.03356539396073172 0 22:1 23:1 24:1 29:1 30:1 31:1 32:1 40:1 43:1 45:1.5 46:2 47:1 115:1 123:1 198:1 561:1 562:1 563:1 564:1 567:1 578:1 579:1 580:1 682:1 686:1 724:1 1283:1 1728:1 1814:1 1815:1 2198:1 2596:1 5561:1 9902:1 9908:1 9910:1 14215:1 14217:1 14221:1 14223:1 14224:1 14225:1 14226:1 14227:1 14228:1 14229:1 14230:1 
0.0233022215690696 0 24:1 25:1 30:1 45:2.5 46:3 47:2 67:4 97:1 99:1 115:1 138:1 139:1 210:1 212:1 258:1 268:1 272:1 446:1 794:1 884:1 887:1 888:1 897:1 1142:1 2350:1 2408:1 3196:1 3199:1 3205:1 3206:1 3332:1 3333:1 3465:1 4888:1 5063:1 5843:1 8422:1 8423:1 8426:1 9515:1 14341:1 14342:1 14351:1 14364:1 14365:1 14366:1 14367:1 14368:1 14369:1 14370:1 14371:1 14372:1 
0.00112276227493832 0 3:1 5:1 9:1 19:1 20:1 22:1 23:1 24:1 29:1 30:1 31:1 32:1 39:1 40:1 41:1 43:1 45:1.5 46:2 47:1 115:1 123:1 198:2 388:1 610:1 612:1 613:1 883:1 884:1 888:1 902:1 1119:1 2369:1 2615:1 3134:1 10684:1 11575:1 11576:1 11577:1 11582:1 11593:1 14432:1 14433:1 14451:1 14452:1 14453:1 14454:1 14455:1 
0.0009210376750077447 0 22:1 23:1 24:3 25:1 29:1 30:1 31:1 32:1 40:1 43:1 44:1 45:1.5 46:2 47:1 1080:1 3134:1 3478:1 3482:1 4120:1 4123:1 5784:1 5788:1 5881:1 9976:1 14533:1 14543:1 14573:1 14574:1 14593:1 14595:1 14604:1 14605:1 14606:1 14607:1 14608:1 14609:1 14610:1 14611:1 14612:1 14613:1 14795:1 14796:1 14811:1 14812:1 14813:1 14814:1 14815:1 14816:1 14817:1 14818:1 
0.003234711918221528 0 2:1 4:1 12:1 13:1 14:1 15:1 22:1 23:1 24:2 25:1 29:1 30:1 31:1 32:1 45:1 46:1 47:1 58:1 146:1 894:1 895:1 896:1 904:1 3134:1 3478:1 3482:1 4120:1 4123:1 4126:1 5771:1 5772:1 5774:1 5775:1 5784:1 5788:1 5881:1 8347:1 8487:1 8736:1 14543:1 14636:1 14659:1 14697:1 14698:1 14773:1 14779:1 14883:1 14884:1 14885:1 
0.02769836987023717 0 22:1 23:1 24:5 25:2 30:1 32:1 34:1 45:3 46:4 47:2 138:1 139:1 194:1 327:1 331:1 706:1 902:1 1698:2 1732:1 2136:1 2518:1 3376:1 7449:1 7466:1 7576:1 8859:1 9188:1 9932:1 11763:1 11770:1 11772:1 11800:1 13163:1 13176:1 13177:1 14932:1 14934:1 14986:1 14987:1 14988:1 14989:1 14990:1 14991:1 14992:1 14993:1 14994:1 14999:1 15000:1 15001:1 15003:1 15004:1 15005:1 15006:1 15007:1 15008:1 15009:1 
0.01583335841296255 0.0006117501694158945 3:1 5:1 19:1 22:1 23:1 24:2 25:1 29:1 30:1 31:1 32:1 39:1 40:1 41:1 43:1 44:1 45:1.5 46:2 47:1 213:1 593:1 594:1 598:1 745:1 919:1 2066:1 2099:1 2934:1 5162:1 5824:1 8340:1 15411:1 15412:1 15413:1 15414:1 15415:1 15416:1 15417:1 15418:1 15419:1 15420:1 15421:1 15422:1 15423:1 15424:1 15425:1 
0.01970357712306148 0 3:1 5:1 19:1 22:1 23:1 24:2 25:1 29:1 30:1 31:1 32:1 39:1 40:1 41:1 43:1 44:1 820:1 1443:1 2345:1 2346:1 2921:1 4758:1 8576:1 9581:1 15423:1 15427:1 15428:1 15429:1 15431:1 15432:1 15433:1 15440:1 15441:1 15442:1 15443:1 15444:1 
0.02977596715489589 0 22:1 23:1 24:3 25:2 30:1 32:1 34:1 40:1 43:1 45:1 46:1 47:1 103:1 146:1 194:1 856:1 1092:1 1096:1 1098:1 1293:1 1361:1 1555:1 1561:1 1664:1 1675:1 1698:1 1732:1 1767:1 1868:1 1869:1 2302:1 4097:1 4111:1 5512:1 5513:1 5941:1 5985:1 7291:1 8913:1 8914:1 8915:1 8916:1 8917:1 8918:1 8919:1 8920:1 8921:1 8922:1 8923:1 8924:1 8925:1 8926:1 8927:1 8928:1 8929:1 8930:1 8932:1 8933:1 8934:1 8935:1 15512:1 
0.05 0 22:1 23:1 24:3 25:1 30:1 32:1 34:1 40:1 43:1 45:1 46:1 47:1 103:1 146:1 194:1 390:1 856:1 1092:1 1096:1 1098:1 1293:1 1361:1 1664:1 1675:1 1698:1 1732:1 1767:1 1868:1 1869:1 2302:1 4097:1 4111:1 5537:1 5941:1 7291:1 8913:1 8914:1 8915:1 8916:1 8917:1 8918:1 8919:1 8920:1 8921:1 8922:1 8924:1 8925:1 8926:1 8927:1 8930:1 8932:1 8933:1 8934:1 8935:1 8936:1 8937:1 8938:1 15512:1 
0.02271642456362212 0.009211198861747649 20:1 24:1 25:1 30:1 45:2 46:3 47:1 67:1 268:1 272:1 403:1 407:1 413:1 418:1 444:1 446:1 681:1 682:1 686:1 758:1 761:1 902:1 1664:1 1675:1 1882:1 3152:1 3153:1 3154:1 3155:1 3453:1 8576:1 12869:1 14160:1 15532:1 15533:1 15534:1 15642:1 15668:1 15669:1 15670:1 15671:1 15672:1 15673:1 15674:1 15675:1 
0.01696901517959342 0.003374331396064453 22:1 23:1 24:3 25:1 29:1 30:1 31:1 32:1 40:1 43:1 44:1 45:1.5 46:2 47:1 198:1 405:1 460:1 771:1 856:1 1844:1 2087:1 2091:1 4670:1 4681:1 4688:1 4689:1 4697:1 7078:1 8127:1 10857:1 10864:1 10865:1 10906:1 12801:1 14487:1 15755:1 15756:1 15757:1 15758:1 15759:1 15760:1 15761:1 15762:1 15763:1 15764:1 15765:1 15766:1 15767:1 15768:1 15769:1 15770:1 
0.0186774180901198 0.002840319486637267 22:1 23:1 24:2 30:1 45:2 46:2 47:2 115:1 138:1 139:1 181:1 194:1 201:1 521:1 527:1 1205:1 1209:1 1229:1 1491:1 1698:1 2629:1 5696:1 5707:1 5831:1 5832:1 5894:1 7569:1 7576:1 8040:1 8784:1 15813:1 15814:1 15815:1 15816:1 15817:1 15818:1 15819:1 15820:1 15821:1 15822:1 15823:1 15824:1 15825:1 15826:1 15827:1 15828:1 15829:1 15830:1 15831:1 15832:1 
0 6.722966998429848e-06 22:1 23:1 24:3 25:1 30:1 32:1 45:2 46:2 47:2 97:1 99:1 115:3 138:1 139:1 181:1 190:1 198:4 856:1 1205:1 1229:1 1491:1 1967:1 2423:1 2439:1 2475:1 2629:1 3188:1 3458:1 4243:1 5574:1 5607:1 5611:1 5612:1 6286:1 6289:1 6321:1 6324:1 6491:1 6497:1 6728:1 7118:1 11233:1 13228:1 15905:1 15906:1 15907:1 15908:1 15909:1 15910:1 15911:1 15912:1 15913:1 15914:1 15915:1 15916:1 15917:1 15918:1 15919:1 15920:1 15921:1 15922:1 
0.05 0 22:1 23:1 24:2 29:1 30:1 31:1 32:1 45:3 46:5 47:1 115:3 176:1 198:7 268:1 446:1 798:1 856:1 1096:1 1098:1 1179:1 1555:1 1561:1 1600:1 1601:1 1602:1 1604:1 1698:1 1767:1 1967:2 2423:1 2433:1 2501:1 3181:1 3264:1 3364:1 5119:2 5574:2 6107:1 6300:1 6302:1 6324:1 6346:1 6348:1 6490:1 6491:2 6497:1 6504:1 6505:1 6506:1 6510:1 6511:1 6611:1 7118:1 10607:1 10611:1 10612:1 11233:1 15887:1 15952:1 15953:1 15954:1 15955:1 15956:1 15957:1 15958:1 15959:1 15960:1 15961:1 15962:1 15963:1 15964:1 15965:1 
0.004107172173387325 0.007319679033262702 22:1 23:1 24:1 29:1 30:1 31:1 32:1 115:2 176:1 198:4 789:1 860:1 889:1 1096:1 1098:1 1180:1 2475:1 2476:1 3415:1 4857:1 6300:1 6302:1 6348:1 6452:1 6490:1 6496:1 6561:1 6562:1 6595:1 6761:1 7087:1 7297:1 7604:1 7672:1 9492:1 9493:1 14382:1 15981:1 15982:1 15983:1 15984:1 15985:1 15986:1 15987:1 15988:1 15989:1 15990:1 
0.05 0 22:1 23:1 24:1 30:1 32:1 40:1 43:1 45:1.5 46:2 47:1 115:3 123:1 138:1 139:1 198:3 594:1 597:1 598:1 615:1 742:1 1113:1 2017:1 2599:1 6460:1 6559:1 7676:1 8105:1 15953:1 15976:1 16028:1 16029:1 16030:1 16031:1 16032:1 16033:1 16034:1 16035:1 16039:1 16040:1 16041:1 16080:1 16081:1 16082:1 16083:1 16084:1 16085:1 16086:1 16087:1 16088:1 16089:1 
0.03004603607348938 0 22:1 23:1 24:2 25:1 30:1 32:1 40:1 43:1 45:1.5 46:2 47:1 115:2 123:1 138:1 139:1 198:2 615:1 681:1 682:1 683:1 685:1 686:1 850:1 1113:1 2081:1 6286:1 6289:1 6324:1 6490:1 6491:1 6496:1 6497:1 6561:1 7080:1 7087:1 7642:1 16043:1 16044:1 16045:1 16048:1 16049:1 16050:1 16108:1 16109:1 16110:1 16111:1 16112:1 16113:1 16114:1 16115:1 16116:1 
0.00498821115107151 0 8:1 24:1 25:1 30:1 45:2 46:3 47:1 67:2 115:2 138:1 139:1 268:1 272:1 413:1 418:1 444:1 446:1 466:1 758:1 759:1 761:1 1113:1 2423:1 2426:1 2488:1 2966:1 2967:1 2968:1 2970:1 2971:1 5984:1 6286:1 6289:1 6496:1 6502:1 6559:1 6560:1 6561:1 6562:1 16141:1 16142:1 16143:1 16144:1 16145:1 16146:1 16147:1 16148:1 16149:1 16150:1 
0.04348850208038068 0 8:1 24:1 25:1 30:1 45:3 46:4 47:2 67:9 115:1 138:1 139:1 176:1 413:1 466:2 577:1 868:1 880:1 881:1 883:1 884:1 885:1 887:1 888:1 1342:1 1725:1 2158:1 2159:1 2160:1 2423:1 2426:1 2606:1 3173:1 5178:1 5233:1 6286:1 6289:1 8425:1 8573:1 8574:1 10917:1 13054:1 13056:1 13057:1 16262:1 16263:1 16264:1 16265:1 16266:1 16267:1 16268:1 16269:1 16270:1 16271:1 16272:1 16273:1 16274:1 16275:1 16276:1 16277:1 16278:1 16279:1 16280:1 
0.01856481425726838 0 24:1 25:1 26:1 30:1 67:7 138:1 139:1 176:1 268:1 272:1 292:1 434:1 446:1 451:1 466:1 615:1 618:1 1180:1 1831:1 2408:1 2423:1 2426:1 2475:1 2476:1 3205:1 3206:1 3270:2 3458:1 3480:1 6458:1 6461:1 9503:1 16170:1 16172:1 16173:1 16174:1 16175:1 16183:1 16281:1 16282:1 16283:1 16284:1 16285:1 16293:1 16296:1 16297:1 16298:1 16299:1 16300:1 16301:1 
0.0325997040944063 0 24:1 25:1 26:1 30:1 67:10 115:3 119:2 138:1 139:1 176:1 292:1 327:1 331:1 434:1 466:2 615:1 618:1 798:1 1180:1 1831:1 2408:1 2423:1 2426:1 2475:1 2476:1 2488:1 2518:1 3270:2 3343:1 3371:1 6286:1 6289:1 6497:1 9503:1 10351:1 11233:1 16170:1 16172:1 16173:1 16174:1 16175:1 16191:1 16281:1 16282:1 16283:1 16284:1 16285:1 16292:1 16293:1 16300:1 16301:1 16302:1 16303:1 16304:1 16305:1 16306:1 16307:1 
0.05 0 22:1 23:1 24:3 25:1 30:1 32:1 45:2.5 46:4 47:1 115:3 138:1 139:1 176:1 198:3 327:1 331:1 671:1 798:1 856:1 1698:1 1967:2 2158:1 2423:1 2439:1 2488:1 2518:1 2933:1 2988:1 3137:1 3264:1 3343:1 3364:1 3371:1 4516:1 5574:2 6286:1 6289:1 6321:1 6324:1 6491:1 6497:1 7118:1 8106:1 9814:1 11068:1 11070:1 11071:1 11233:1 16191:1 16292:1 16302:1 16303:1 16305:1 16306:1 16307:1 16308:1 16309:1 16310:1 16311:1 16312:1 16313:1 16314:1 16315:1 
0.006675052131478137 0 22:1 23:1 24:2 25:1 30:1 32:1 45:2 46:3 47:1 138:1 139:1 176:1 268:1 272:1 446:1 451:1 671:1 759:1 856:1 1967:1 2158:1 2423:1 2439:1 2933:1 2988:1 3205:1 3206:1 3458:1 3480:1 3567:1 4516:1 5574:1 6458:1 6461:1 8106:1 8113:1 11068:1 11070:1 11071:1 16183:1 16296:1 16297:1 16298:1 16299:1 16309:1 16310:1 16311:1 16313:1 16314:1 16316:1 16317:1 16318:1 
0.01267839808047982 0 22:1 23:1 24:2 25:1 30:1 32:1 40:1 43:1 45:2 46:3 47:1 115:3 123:1 138:1 139:1 167:1 176:1 198:3 1443:1 1967:1 2158:1 2169:1 2346:1 2423:1 2838:1 2933:1 2988:1 3264:1 3343:1 3364:1 3371:1 4516:1 5574:1 6286:1 6289:1 6324:1 6491:1 6497:1 6505:1 6543:1 7118:1 11068:1 11070:1 11071:1 11233:1 11339:1 16302:1 16350:1 16356:1 16357:1 16358:1 16359:1 16360:1 16362:1 16363:1 16364:1 16365:1 16366:1 16367:1 16369:1 
0.00277375296698646 0 22:1 23:1 24:2 25:1 29:1 30:1 31:1 32:1 40:1 43:1 45:1.5 46:2 47:1 115:3 123:1 141:1 145:1 167:1 176:1 198:3 1443:1 2169:1 2346:1 2423:1 2997:1 3264:1 3343:1 3364:1 3371:1 3385:1 6035:1 6286:1 6289:1 6324:1 6491:1 6497:1 6505:1 6543:1 7118:1 7999:1 11233:1 11339:1 16302:1 16350:1 16356:1 16357:1 16358:1 16359:1 16360:1 16366:1 16370:1 16371:1 16372:1 16373:1 16374:1 16375:1 
0.04044885763489193 0 24:1 25:1 30:1 40:1 43:1 67:2 110:1 115:1 123:1 138:1 139:1 1016:1 2335:1 2934:1 2936:1 3291:1 3478:1 5670:1 5717:1 5741:1 5750:1 5751:1 5752:1 5753:1 5755:1 5761:1 5762:1 5764:1 5790:1 5791:1 5792:1 5793:1 5794:1 5795:1 5804:1 6858:1 16411:1 16412:1 16413:1 16414:1 
0.01836621330107087 0 24:1 25:1 30:1 45:2 46:3 47:1 67:2 138:1 139:1 268:1 272:1 390:1 413:1 418:1 444:1 446:1 466:1 758:1 759:1 761:1 1082:1 2423:1 2426:1 2966:1 2967:1 2968:1 2970:1 2971:1 5686:1 5750:1 5751:1 5752:1 5753:1 5761:1 5979:1 5984:1 6010:1 6022:1 6023:1 6024:1 6026:1 6027:1 6031:1 6916:1 16487:1 16488:1 16489:1 16490:1 
0.01897309830531897 0 24:1 30:1 45:2 46:3 47:1 67:4 115:1 119:1 138:1 139:1 280:1 284:1 292:1 327:1 413:1 451:1 466:1 530:1 758:1 759:1 761:1 1082:1 1098:1 1378:1 2516:1 2518:1 2966:1 2967:1 2968:1 2970:1 2971:1 5485:1 5686:1 5750:1 5751:1 5752:1 5753:1 5979:1 6007:1 6011:1 6012:1 6066:1 6067:1 6069:1 6070:1 6071:1 6410:1 6694:1 6916:1 16487:1 16488:1 16489:1 16491:1 
0.006674312974066491 0 22:1 23:1 24:1 29:1 30:1 31:1 32:1 40:1 43:1 45:1.5 46:2 47:1 115:1 123:1 198:1 1667:1 2451:1 2452:1 2922:1 5540:1 5542:1 7034:1 7251:1 9445:1 16615:1 16616:1 16617:1 16618:1 16619:1 16620:1 16621:1 16622:1 16623:1 16624:1 16625:1 16626:1 16627:1 16628:1 16629:1 16630:1 16631:1 16632:1 16633:1 16634:1 16635:1 16636:1 16637:1 16638:1 16639:1 16640:1 
0.01097025199164388 0.004123495678005705 22:1 23:1 24:4 25:1 30:1 32:1 40:1 43:1 44:1 115:1 138:1 139:1 198:1 1238:1 1897:1 1904:1 2215:1 2217:1 2226:1 2258:1 2259:1 2270:1 2299:1 2300:1 2301:1 2302:1 2344:1 5843:1 5941:1 7443:1 9978:1 11545:1 16735:1 16736:1 16737:1 16738:1 16739:1 16740:1 16741:1 16742:1 16750:1 16751:1 16752:1 
0.01501233725242102 0 22:1 23:1 24:4 25:1 30:1 32:1 40:1 43:1 44:1 45:1.5 46:2 47:1 138:1 139:1 585:1 586:1 785:1 792:1 794:1 856:1 1096:1 1600:1 1601:1 1967:1 2350:1 2438:1 2439:1 2501:1 2586:1 2980:1 3061:1 3264:1 4243:1 5229:1 5574:1 6604:1 7007:1 7689:1 8337:1 9733:1 9734:1 9736:1 9737:1 9903:1 11710:1 11711:1 16799:1 16800:1 16801:1 16802:1 16803:1 16804:1 16805:1 16806:1 16807:1 
0 0.006326265784722858 8:1 18:1 22:1 23:1 24:2 26:1 29:1 30:1 31:1 32:1 40:1 43:1 45:1.5 46:2 47:1 115:1 123:1 198:1 578:1 579:1 1666:1 1667:1 1714:1 2038:1 2451:1 2452:1 2478:1 3041:1 5403:1 9908:1 9910:1 10036:1 10037:1 10038:1 10039:1 10042:1 10043:1 10044:1 10045:1 10047:1 10048:1 10049:1 10050:1 16827:1 16828:1 16829:1 16830:1 16831:1 
0.05 0.01740666609994023 16:1 24:1 25:1 30:1 45:3 46:4 47:2 67:1 103:1 106:1 114:1 115:1 138:1 139:1 181:1 185:1 194:1 794:1 897:1 1083:1 1095:1 1491:1 1601:1 2350:1 2501:1 3071:1 4757:1 4987:1 4988:1 4989:1 4990:1 5229:1 16869:1 16870:1 16871:1 16872:1 16873:1 16874:1 16875:1 16876:1 16877:1 16973:1 16974:1 16975:1 16976:1 16977:1 16978:1 
0.002805568760812706 0.008692757590860694 22:1 23:1 24:2 25:1 30:1 32:1 40:1 43:1 44:1 45:1.5 46:2 47:1 138:1 139:1 785:1 792:1 794:1 1083:1 2350:1 2361:1 2980:1 3061:1 3360:1 4789:1 4792:1 4793:1 4884:1 4893:1 4894:1 5670:1 5702:1 5843:1 16891:1 16892:1 16979:1 16980:1 17006:1 17017:1 17018:1 17019:1 17020:1 17021:1 17022:1 17023:1 17024:1 
0.03178213569098239 0.008747803895645315 24:1 25:1 30:1 34:1 38:1 40:1 43:1 44:1 45:1.5 46:2 47:1 67:1 103:1 106:1 114:1 115:1 138:1 139:1 194:1 198:1 706:1 794:1 897:1 1083:1 1095:1 2234:1 2350:1 3109:1 3110:1 4757:1 8091:1 8968:1 8969:1 9300:1 11385:1 16913:1 16914:1 16915:1 16916:1 16917:1 16920:1 16921:1 16922:1 17038:1 17039:1 17040:1 17041:1 17042:1 17043:1 
0.05 0.01102838883968284 24:1 25:1 30:1 34:1 38:1 40:1 43:1 44:1 45:2 46:3 47:1 67:5 114:2 115:1 119:1 138:1 139:1 194:1 198:1 706:1 794:1 897:1 1083:1 1095:1 2234:1 2350:1 3031:1 3109:1 3110:1 4703:1 4757:1 5702:1 8091:1 8882:1 9300:1 11385:1 16869:1 16870:1 16871:1 16931:1 16932:1 16934:1 16953:1 16954:1 16955:1 16956:1 16957:1 17038:1 17039:1 17040:1 17041:1 17042:1 17044:1 
0.01152173504272761 0.002697280656247138 22:1 23:1 24:1 25:1 29:1 30:1 31:1 34:1 37:1 38:1 45:1.5 46:2 47:1 150:1 181:1 185:1 1491:1 3103:1 5273:1 5816:1 5823:1 5831:1 5832:1 5840:1 5922:1 5923:1 8051:1 8080:1 8219:1 10264:1 10485:1 17165:1 17166:1 17167:1 17172:1 17186:1 17199:1 17200:1 17201:1 17202:1 17203:1 17204:1 17205:1 17206:1 17207:1 17208:1 17209:1 
0.01198840359620505 0 22:1 23:1 24:1 26:1 29:1 30:1 31:1 32:1 40:1 43:1 45:1.5 46:2 47:1 115:1 123:1 176:1 198:2 569:1 1601:1 1604:1 2501:1 3260:1 3264:1 5870:1 5871:1 5970:1 6452:1 6575:1 7092:1 7211:1 7778:1 7779:1 15868:1 15888:1 17021:1 17241:1 17242:1 17243:1 17244:1 17245:1 17246:1 17249:1 17251:1 17252:1 17253:1 17254:1 17255:1 17256:1 17257:1 
0 0.002694968786386896 24:1 26:1 29:1 30:1 31:1 45:2 46:2 47:2 67:2 115:4 1098:1 1555:1 1561:1 2410:1 2411:1 2412:1 2413:1 2415:1 2416:1 2444:1 2447:1 2463:1 2464:1 2868:1 6300:1 6302:1 6432:1 6434:1 6442:1 6443:1 6496:1 6497:2 6498:1 6518:1 6559:1 6561:1 6907:1 6913:1 6923:1 6924:1 7367:1 9523:1 9902:1 11233:1 11636:1 15881:1 17296:1 17297:1 17298:1 17299:1 17300:1 17301:1 17302:1 
0.01845944845920933 0.008244142193057512 24:1 26:1 29:1 30:1 31:1 45:3.5 46:5 47:2 67:5 115:2 280:1 284:1 292:1 327:1 530:1 1098:1 2410:1 2444:1 2447:1 2463:1 2464:1 2516:1 2518:1 2868:1 6300:1 6302:1 6432:1 6434:1 6442:1 6443:1 6497:1 6518:1 6559:1 6913:1 6924:1 7301:1 7342:1 7367:1 8065:1 9523:1 9902:1 10274:1 11233:1 11636:1 15966:1 15967:1 15969:1 16060:1 17296:1 17297:1 17299:1 17300:1 17303:1 
0.03673123678881363 0 24:1 26:1 29:1 30:1 31:1 45:3.5 46:5 47:2 67:14 115:2 119:2 268:1 292:1 446:1 466:1 577:1 798:1 1098:1 1203:1 2408:1 2410:1 2423:1 2424:1 2426:1 2433:1 2444:1 2447:1 2463:1 2464:1 2495:1 2868:1 3032:1 3205:1 3206:1 3315:1 3458:1 6300:1 6302:1 6339:1 6432:1 6434:1 6442:1 6443:1 6497:1 6514:1 6518:1 6559:1 6913:1 6924:1 7111:1 8065:2 9523:1 11233:1 11248:1 15966:1 15967:1 16060:1 17296:1 17297:1 17299:1 17300:1 17304:1 17305:1 17306:1 
0.03905625302700533 0.01582336081417748 25:1 30:1 45:3 46:3 47:3 67:2 89:1 90:1 115:2 176:1 268:1 272:1 446:1 466:1 594:1 759:1 768:1 798:1 1096:1 2423:1 2426:1 2515:1 5520:1 5533:1 5538:1 5546:1 5547:1 6286:1 6289:1 6562:1 7296:1 7299:1 7371:1 8903:1 10449:1 10583:1 17364:1 17365:1 17366:1 17367:1 17368:1 17369:1 17370:1 17371:1 17372:1 17373:1 17374:1 17375:1 17376:1 17377:1 
0.0453404325190277 0.01602108893390488 25:1 30:1 45:3 46:3 47:3 67:2 89:1 90:1 115:2 176:1 268:1 272:1 446:1 466:1 594:1 759:1 768:1 798:1 1096:1 2423:1 2426:1 2515:1 5520:1 5533:1 5538:1 5546:1 5547:1 6286:1 6289:1 6562:1 7296:1 7299:1 7371:1 8903:1 10449:1 10583:1 11589:1 17364:1 17365:1 17366:1 17367:1 17368:1 17369:1 17370:1 17371:1 17374:1 17375:1 17376:1 17377:1 17415:1 
0.000979518941920895 0 24:1 29:1 30:1 31:1 45:2 46:3 47:1 67:1 176:1 198:1 268:1 403:1 407:1 413:1 418:1 444:1 446:1 594:1 598:1 745:1 758:1 761:1 798:1 1097:1 1098:1 2433:1 2438:1 2584:1 2832:1 2862:1 4658:1 6913:1 9476:1 9477:1 9478:1 9479:1 9480:1 9785:1 16809:1 17431:1 17432:1 17433:1 17434:1 17435:1 17436:1 17437:1 17438:1 17439:1 17440:1 17441:1 
0.05 0.01196597039310598 24:1 25:1 30:1 45:2 46:2 47:2 67:3 89:1 90:1 99:1 115:2 176:1 198:1 466:1 860:1 864:1 884:1 1096:1 1555:1 1561:1 2082:1 2423:1 2426:1 2655:1 2656:1 2740:1 2741:1 3160:1 3343:1 3371:1 5512:1 5513:1 5514:1 5520:1 5533:1 5538:1 6597:1 6913:1 6924:1 7280:1 7717:1 7719:1 9492:1 14001:1 17442:1 17443:1 17444:1 17445:1 17446:1 17447:1 17448:1 17449:1 17450:1 17451:1 17452:1 17453:1 17454:1 
0.02048362352337649 0.01705178984555964 24:1 25:1 30:1 45:3.5 46:5 47:2 67:5 89:1 90:1 97:1 99:1 115:1 176:1 198:1 280:1 284:1 292:1 327:1 466:1 530:1 884:1 1096:1 2082:1 2516:1 2518:1 2655:1 2656:1 2740:1 2741:1 3160:1 3320:1 3577:1 5512:1 5513:1 5520:1 5533:1 5538:1 6410:1 6597:1 6913:1 6924:1 7280:1 7342:1 7717:1 7719:1 10463:1 14001:1 17442:1 17443:1 17444:1 17445:1 17448:1 17449:1 17450:1 17455:1 17456:1 
0.02159519320346653 0 5:1 22:1 23:1 24:2 25:2 26:1 29:1 30:1 31:1 45:2 46:3 47:1 115:1 198:1 268:1 272:1 446:1 460:1 569:1 577:1 784:1 785:1 792:1 794:1 856:1 870:1 884:1 888:1 1098:1 1119:1 1339:2 1555:1 1561:1 1967:1 2372:1 2402:1 2439:1 2475:1 2476:1 3205:1 3206:1 3351:1 3364:1 3465:1 3490:1 4902:1 5574:1 7125:1 16397:1 17472:1 17473:1 17474:1 17475:1 17476:1 17481:1 17482:1 17483:1 17484:1 17485:1 17486:1 17487:1 17488:1 17489:1 17490:1 17491:1 17492:1 17493:1 
0.01582614865732351 0 22:1 23:1 24:2 25:1 29:1 30:1 31:1 32:1 34:1 37:1 38:1 45:2 46:3 47:1 115:1 198:1 268:1 272:1 403:1 418:1 444:1 446:1 700:1 798:1 838:1 856:1 3264:1 4298:1 4589:1 14997:1 17562:1 17564:1 17565:1 17567:1 17570:1 17571:1 17576:1 17577:1 17578:1 17580:1 17592:1 17593:1 17594:1 17595:1 17596:1 17597:1 17598:1 17599:1 17600:1 17601:1 17602:1 17603:1 17604:1 
0.003854635564032348 0.00447171291891791 8:1 18:1 22:1 23:1 24:2 25:1 26:1 30:1 32:1 40:1 43:1 44:1 45:1.5 46:2 47:1 1664:1 1675:1 2336:1 4328:1 4329:1 4330:1 4331:1 4637:1 4639:1 11747:1 11748:1 11752:1 11843:1 14021:1 14022:1 17570:1 17571:1 17605:1 17606:1 17607:1 17608:1 17609:1 17610:1 17611:1 17612:1 17613:1 17614:1 17615:1 17616:1 17617:1 17618:1 17619:1 17620:1 
0.04190087701705144 0.008436957653142443 22:1 23:1 24:1 25:1 29:1 30:1 31:1 45:2 46:2 47:2 54:1 132:1 150:1 181:1 1205:1 1209:1 1339:1 1491:1 1546:1 2335:1 3103:1 3300:1 5262:1 5276:1 15041:1 17671:1 17672:1 17673:1 17674:1 17675:1 17676:1 17677:1 17680:1 17681:1 17682:1 17684:1 17685:1 17686:1 17687:1 17691:1 17692:1 17693:1 17694:1 17695:1 17696:1 
0.003054485380812488 0 9:1 20:1 22:1 23:1 24:2 25:1 30:1 32:1 40:1 43:1 44:1 45:1.5 46:2 47:1 49:1 50:1 51:1 52:1 129:1 148:1 176:1 1205:1 1209:1 1406:1 1661:1 1664:1 1675:1 1701:1 2944:1 3451:1 5670:1 5702:1 10719:1 10721:1 10722:1 10734:1 12112:1 12121:1 12124:1 12125:1 12126:1 12127:1 13599:1 13628:1 13638:1 13648:1 
0.01105815304212665 0 9:1 20:1 22:1 23:1 24:2 25:1 30:1 32:1 40:1 43:1 44:1 45:1.5 46:2 47:1 176:1 1205:1 1209:1 1406:1 1661:1 1664:1 1675:1 1701:1 2944:1 4656:1 4657:1 5670:1 5702:1 6111:1 6117:1 6132:1 12478:1 13599:1 13628:1 13638:1 13673:1 13690:1 13691:1 13692:1 13693:1 13694:1 13695:1 13696:1 13697:1 13698:1 13699:1 13700:1 
0.02063955304139714 0 22:1 23:1 24:1 25:1 30:1 32:1 164:1 167:1 176:1 181:1 185:1 756:1 1096:1 1264:1 1443:1 1491:1 1664:1 1675:1 1694:1 2346:1 3264:1 13675:1 13679:1 13681:1 13683:1 13685:1 13686:1 13687:1 13688:1 13689:1 13705:1 13706:1 13707:1 13708:1 13709:1 13710:1 13711:1 
0.01040223250468628 0 22:1 23:1 24:2 25:1 30:1 32:1 40:1 43:1 44:1 45:1.5 46:2 47:1 176:1 1167:1 1205:1 1209:1 1238:1 1664:1 1675:1 1701:1 1714:1 2142:1 4677:1 4777:1 13610:1 13778:1 13780:1 13782:1 13787:1 13788:1 13789:1 13790:1 13791:1 13792:1 13793:1 13810:1 13811:1 13812:1 13813:1 13814:1 13815:1 13816:1 13817:1 13818:1 13819:1 13820:1 
0.03139142372842395 0 22:1 23:1 24:1 29:1 30:1 31:1 32:1 40:1 43:1 115:1 123:1 164:1 167:1 176:1 198:1 756:1 1264:1 1443:1 1694:1 2346:1 3264:1 13834:1 13836:1 13838:1 13844:1 13845:1 13846:1 13847:1 13848:1 13849:1 13851:1 13852:1 13853:1 13854:1 13855:1 13856:1 13857:1 
0.0175194738695698 0.007057373215726719 9:1 20:1 22:1 23:1 24:1 25:1 29:1 30:1 31:1 32:1 45:1.5 46:2 47:1 103:1 194:1 198:1 376:1 380:1 1092:1 1205:1 1213:1 1277:1 1279:1 1406:1 1546:1 1547:1 1661:1 1722:1 1723:1 1724:1 1726:1 2302:1 2626:1 4259:1 4260:1 13858:1 17963:1 17968:1 17969:1 17970:1 17971:1 17972:1 17973:1 17974:1 17975:1 17976:1 
0.01220516686420989 0 9:1 22:1 23:1 24:1 25:1 30:1 32:1 34:1 38:1 40:1 43:1 44:1 45:1 46:1 47:1 146:1 198:1 310:1 919:1 1239:1 1661:1 1664:1 1675:1 1868:1 2475:1 2944:1 8673:1 9402:1 13889:1 13892:1 13893:1 13894:1 13895:1 13896:1 13897:1 13898:1 13899:1 13900:1 13901:1 13902:1 13903:1 13904:1 13905:1 13906:1 13907:1 13908:1 
0.04643445105040825 0 24:1 25:1 30:1 34:1 38:1 39:1 40:1 41:1 43:1 44:1 45:1.5 46:2 47:1 67:8 97:1 99:1 102:1 103:1 106:1 108:1 110:2 113:1 114:1 115:1 116:1 132:1 133:1 135:1 138:1 139:1 152:1 153:1 706:1 765:1 794:1 1066:1 2350:1 2862:1 4779:1 4888:1 4963:1 4964:1 4965:1 4966:1 7458:1 7471:1 8346:1 8352:1 14583:1 17060:1 18216:1 18217:1 18219:1 18220:1 18238:1 18239:1 18240:1 18241:1 18242:1 18243:1 
0.03009151251961699 0 24:1 25:2 29:1 30:1 31:1 34:1 37:1 38:1 45:1.5 46:2 47:1 67:1 115:1 170:1 222:1 226:1 231:1 310:1 343:1 357:1 358:1 362:1 494:1 495:1 496:1 497:1 715:1 719:1 792:1 794:1 1142:1 4296:1 5411:1 7616:1 11230:1 11246:1 11249:1 11838:1 12802:1 12825:1 17060:1 17071:1 18307:1 18308:1 18309:1 18310:1 18312:1 18313:1 18314:1 18315:1 18370:1 18371:1 18372:1 18373:1 
0.01830176560671166 0 9:1 20:1 22:1 23:1 24:2 25:1 28:1 30:1 32:1 40:1 43:1 44:1 45:1.5 46:2 47:1 213:1 234:1 566:1 919:1 1601:1 1664:1 1675:1 2501:1 2911:1 3451:1 5901:1 6606:1 10719:1 10721:1 10722:1 10734:1 11014:1 11050:1 11077:1 18551:1 18552:1 18553:1 18554:1 18555:1 18556:1 18557:1 18558:1 18559:1 18560:1 18561:1 18562:1 18563:1 18564:1 18565:1 
0.02440676067657979 0.000441313300003857 9:1 20:1 22:1 23:1 24:2 25:1 28:1 30:1 32:1 34:1 38:1 40:1 43:1 44:1 45:1.5 46:2 47:1 1167:1 1238:1 1664:1 1675:1 1868:1 3250:1 3451:1 5817:1 5818:1 5819:1 5820:1 5875:1 5877:1 10719:1 10721:1 10722:1 10734:1 10748:1 12119:1 12387:1 13825:1 18560:1 18567:1 18574:1 18575:1 18607:1 18608:1 18609:1 18610:1 18611:1 18612:1 18613:1 
0.04978893967067016 0 9:1 22:1 23:1 24:2 25:1 29:1 30:1 31:1 32:1 45:1.5 46:2 47:1 181:1 185:1 198:4 281:1 682:1 724:1 1096:1 1283:1 1381:1 1383:1 1389:1 1390:1 1491:1 1528:1 1529:1 1616:1 1617:1 1618:1 1619:1 1620:1 1661:1 1725:1 1728:1 1732:1 1814:1 1815:1 1817:1 1890:1 1891:1 1892:1 1893:1 1894:1 1895:1 1896:1 1897:3 1898:1 1899:1 1900:1 1901:1 1902:1 1903:1 1904:3 1905:1 1906:1 
0.05 0.00277157968013806 9:1 22:1 23:1 24:2 25:1 29:1 30:1 31:1 32:1 45:1.5 46:2 47:1 181:1 185:1 198:3 281:1 682:1 724:1 1071:1 1096:1 1283:1 1381:1 1383:1 1389:1 1390:1 1491:1 1528:1 1529:1 1616:1 1617:1 1618:1 1619:1 1620:1 1725:1 1728:1 1732:1 1814:1 1815:1 1817:1 1891:1 1893:1 1894:1 1895:1 1896:1 1897:2 1898:1 1899:1 1901:1 1902:1 1904:2 1905:1 1906:1 1909:1 1910:1 1911:1 
0.02990863366815566 0 2:1 4:1 12:1 13:1 14:1 15:1 22:1 23:1 24:2 25:1 30:1 32:1 45:1 46:1 47:1 138:1 139:1 146:1 327:1 331:1 542:1 682:1 685:1 686:1 1283:1 1286:1 1374:1 1428:1 1431:1 1728:1 1814:1 2518:1 3300:1 4333:1 4641:1 10167:1 12485:1 12882:1 12890:1 18716:1 18728:1 18794:1 18992:1 18993:1 18994:1 18995:1 18996:1 
0.004453086862238121 0 22:1 23:1 24:3 25:2 30:1 32:1 34:1 38:1 40:1 43:1 44:1 45:1.5 46:2 47:1 138:1 139:1 577:1 648:1 649:1 650:1 698:1 699:1 700:1 706:1 2618:1 2620:1 3295:1 3296:1 3300:1 12973:1 12974:1 12992:1 13999:1 14001:1 14007:1 19008:1 19009:1 19010:1 19011:1 19012:1 19013:1 19014:1 19024:1 19025:1 19026:1 19027:1 19028:1 19029:1 19030:1 
0.02282957878601202 0.002387667141166518 24:1 25:2 30:1 45:2.5 46:4 47:1 67:3 138:1 139:1 141:1 144:1 145:1 176:1 268:1 272:1 446:1 798:1 2624:1 2774:1 2776:1 2997:1 3154:1 3155:1 3275:1 3276:1 3402:1 4735:1 4738:1 4740:1 5531:1 5542:1 5543:1 6119:1 8369:1 8524:1 8526:1 8611:1 9615:1 9836:1 19100:1 19102:1 19104:1 19105:1 19106:1 19107:1 19108:1 19109:1 19110:1 19111:1 
0.01311582070268523 0.0002371906696174732 16:1 24:1 25:1 30:1 34:1 38:1 40:1 43:1 44:1 45:1.5 46:2 47:1 67:1 115:1 138:1 139:1 194:1 254:1 256:1 262:1 706:1 2302:1 2903:1 5814:1 5826:1 5827:1 5900:1 16648:1 16649:1 16696:1 19394:1 19395:1 19396:1 19397:1 19398:1 19399:1 19400:1 19401:1 19402:1 19403:1 19404:1 19405:1 19406:1 19407:1 19408:1 19409:1 19410:1 19411:1 19412:1 
0.04075210691496785 0.001561488576337177 24:1 25:1 30:1 45:2 46:2 47:2 67:1 138:1 139:1 181:1 185:1 254:1 256:1 262:1 902:1 1205:1 1209:1 1491:1 2629:1 3107:1 5810:1 5811:1 5812:1 5813:1 5831:1 5832:1 5889:1 5894:1 6784:1 6796:1 7625:1 8040:1 8576:1 17177:1 17387:1 17388:1 19398:1 19405:1 19425:1 19426:1 19427:1 19429:1 19436:1 19437:1 19438:1 19439:1 
0.05 0 24:1 25:1 29:1 30:1 31:1 45:2 46:3 47:1 67:2 119:1 292:1 310:1 327:1 331:1 530:1 615:1 618:1 820:1 850:1 1205:1 1209:1 1546:1 2516:1 2518:1 5868:1 5894:1 6784:1 7587:1 8219:1 10485:1 11188:1 17165:1 17166:1 17199:1 17200:1 17201:1 17202:1 17203:1 19413:1 19414:1 19415:1 19417:1 19418:1 19454:1 19455:1 19456:1 19457:1 19458:1 
0.02215585610311079 0.001943126212801447 22:1 23:1 24:1 25:1 29:1 30:1 31:1 34:1 37:1 38:1 45:1.5 46:2 47:1 83:1 310:1 327:1 331:1 530:1 641:1 820:1 850:1 2516:1 2518:1 3300:1 5868:1 6784:1 8219:1 10485:1 17165:1 17166:1 17186:1 17204:1 17207:1 19413:1 19414:1 19418:1 19459:1 19460:1 19461:1 19462:1 19463:1 19464:1 19465:1 19466:1 
0.01937321325368318 0 25:1 26:1 29:1 30:1 31:1 67:9 115:1 119:1 150:1 170:2 176:1 222:1 226:1 292:1 327:1 331:1 460:1 466:2 518:1 530:1 759:1 798:1 1096:1 2408:1 2424:1 2516:1 2518:1 3306:1 3313:1 6307:1 6308:1 6518:1 6533:1 6538:1 6619:1 6621:1 8177:1 8178:1 8179:1 8180:1 10360:1 18656:1 19569:1 19570:1 19571:1 19572:1 
0.04366702289282048 0 24:1 25:1 29:1 30:1 31:1 67:5 97:1 99:1 115:1 119:1 198:1 259:1 268:1 272:1 446:1 466:1 501:1 504:1 2377:1 2408:1 2423:1 2426:1 2475:1 3205:1 3206:1 3260:1 3458:1 5885:1 5886:1 5970:1 6453:1 6900:1 7051:1 8102:1 8103:1 8232:1 10389:1 17385:1 19526:1 19597:1 19602:1 19603:1 19604:1 19607:1 
0.03227271269843657 0 25:2 29:1 30:1 31:1 45:4.5 46:8 47:1 67:11 119:1 170:2 280:1 284:1 292:1 310:1 327:1 331:1 466:2 530:1 593:1 594:1 745:1 759:1 1096:1 1098:1 1289:1 2408:1 2410:1 2515:1 2516:1 2518:1 2862:1 3306:1 3313:1 4370:1 5162:1 5851:1 6157:1 6300:1 6302:1 6307:1 6533:1 6601:1 6900:1 6924:1 7434:1 8177:1 8178:1 8179:1 8180:1 8273:1 19622:1 19625:1 19626:1 19627:1 19629:1 19630:1 19631:1 19632:1 
0.05 0.008967542045333704 24:2 25:1 30:1 45:2.5 46:3 47:2 67:2 89:1 90:1 176:1 268:1 272:1 446:1 466:1 759:1 798:1 2408:1 2423:1 2424:1 2426:1 3205:1 3206:1 3306:1 3313:1 3420:1 3424:1 3458:1 5531:1 5540:1 5883:1 5884:1 5885:1 5886:1 7399:1 15902:1 16728:1 18833:1 19597:1 19652:1 19653:1 19654:1 19655:1 19656:1 19657:1 19658:1 19659:1 19660:1 19661:1 19662:1 
0 0.008729131793940187 22:1 23:1 24:1 25:1 29:1 30:1 31:1 32:1 45:2 46:3 47:1 115:6 150:1 176:1 198:7 460:1 594:1 745:1 798:1 1096:1 1555:2 1561:2 1663:1 1698:2 1767:2 1967:1 2411:1 2412:1 2413:1 2415:1 2424:1 2515:1 2540:1 2988:1 2989:1 3264:1 3364:1 3480:1 3490:1 3567:1 5119:1 5574:1 6286:1 6289:1 6321:1 6324:1 6375:1 6435:1 6490:1 6496:1 6518:1 6532:1 6561:1 6562:2 6580:1 6594:1 6595:2 8178:1 8180:1 10360:1 10393:1 10789:1 15884:1 15887:1 15953:1 15976:1 19689:1 19692:1 19693:1 
0.05 0 22:1 23:1 24:1 25:1 29:1 30:1 31:1 32:1 45:2 46:3 47:1 115:2 150:1 176:1 198:7 594:1 745:1 798:1 850:1 1096:1 1663:1 1698:2 1767:2 1967:1 2411:1 2412:1 2413:1 2415:1 2424:1 2515:1 2540:1 2988:1 2989:1 3264:1 3364:1 3480:1 3567:1 5119:1 5574:1 6286:1 6289:1 6321:1 6324:1 6435:1 6479:1 6490:1 6518:1 6532:1 6562:1 6578:1 6580:1 6590:1 6594:1 6595:2 8178:1 8180:1 10360:1 10393:1 15884:1 15887:1 15953:1 19691:1 19692:1 19693:1 
0.01036197893395584 0 22:1 23:1 29:1 30:1 31:1 32:1 45:3.5 46:5 47:2 115:1 198:1 268:1 418:1 444:1 446:1 798:1 820:1 838:1 856:2 1096:3 1098:1 1663:1 1666:1 1667:1 1967:2 2346:1 2390:1 2433:1 2451:1 3264:1 5403:1 5455:1 5574:1 5984:1 6300:1 6302:1 6346:1 6348:1 6516:1 6522:1 6891:1 6907:1 7061:1 7140:1 8160:1 8178:1 8180:1 8185:1 9605:1 11362:1 15957:1 19711:1 19712:1 19713:1 19714:1 19715:1 19716:1 
0.02999175299254835 0 8:1 24:2 25:2 30:1 67:7 119:1 138:1 139:1 176:1 268:1 272:1 446:1 466:2 759:1 798:1 1663:1 2123:1 2408:1 2423:1 2426:1 3306:1 3313:1 6111:1 6117:1 6308:1 6587:1 7379:1 7735:1 7737:1 8168:1 8263:1 10418:1 10419:1 16393:1 19884:1 19885:1 19886:1 19887:1 19888:1 19891:1 19892:1 19893:1 19894:1 19895:1 19896:1 
0.05 0.0020421629187964 24:1 25:1 29:1 45:2 46:3 47:1 67:3 178:1 213:1 268:1 271:1 272:1 413:1 418:1 427:1 451:1 460:1 466:1 529:1 758:1 759:1 761:1 1600:1 1601:1 1602:1 1604:1 2501:1 2877:1 6137:1 6432:1 6434:1 6442:1 6443:1 6476:1 6479:1 6482:1 6483:1 7097:1 7324:1 7325:1 19900:1 19901:1 19902:1 19903:1 19904:1 19905:1 19906:1 
0.05 0.05 24:1 25:1 30:1 45:2.5 46:3 47:2 67:4 89:1 90:1 119:1 198:2 268:1 272:1 346:1 446:1 466:1 823:1 1600:1 1601:1 2423:1 2426:1 2475:1 2476:1 2495:1 2501:1 5561:1 5565:1 6321:1 6323:1 6324:1 6639:1 6642:1 6643:1 6674:1 6675:1 6676:1 6677:1 6688:1 6736:1 6738:1 6740:1 6753:1 6755:1 7042:1 10505:1 10591:1 10600:1 10601:1 19578:1 19921:1 19923:1 19924:1 
0.05 0 25:1 29:1 30:1 31:1 45:2.5 46:3 47:2 67:2 198:1 268:1 272:1 346:1 446:1 466:1 759:1 812:1 822:1 823:1 1600:1 1601:1 1602:1 1604:1 1851:1 2423:1 2426:1 6349:1 6350:1 6639:1 6642:1 6643:1 6674:1 6675:1 6676:1 6677:1 7325:1 7348:1 7349:1 10600:1 19578:1 19587:1 19588:1 19709:1 19923:1 19924:1 19925:1 19926:1 
0.02998510532334598 0 24:1 25:1 29:1 30:1 31:1 45:2.5 46:4 47:1 67:3 115:2 268:1 272:1 446:1 466:1 577:1 593:1 594:1 598:1 745:1 798:1 1203:1 1259:1 1261:1 2423:1 2426:1 2532:1 4264:1 5162:1 5934:1 6157:1 6286:1 6288:1 6289:1 6638:1 7280:1 7400:1 7405:1 7406:1 19956:1 19957:1 19958:1 19959:1 19960:1 19961:1 19962:1 19963:1 19964:1 19965:1 19966:1 19967:1 19968:1 19969:1 
0.008140098257952007 0 22:1 23:1 29:1 30:1 31:1 32:1 45:1.5 46:2 47:1 115:1 181:1 198:4 390:1 393:1 427:1 594:1 733:1 740:1 742:1 743:1 745:1 1096:1 1229:1 1491:1 1698:1 1767:1 2515:1 3264:1 6107:1 6288:1 6323:1 6357:1 20002:1 20003:1 20004:1 20005:1 20006:1 20007:1 20008:1 20009:1 20010:1 20011:1 20012:1 20013:1 20014:1 20015:1 20016:1 20017:1 20018:1 20019:1 20020:1 20021:1 20022:1 20023:1 20024:1 
0.01052863966118958 0 22:1 23:1 29:1 30:1 31:1 32:1 45:2.5 46:4 47:1 115:1 167:1 176:1 198:4 280:1 327:1 530:1 577:1 594:1 733:1 740:1 742:1 743:1 745:1 1096:1 1698:1 1767:1 2515:1 2516:1 2518:1 3264:1 6107:1 6323:1 6357:1 7342:1 7434:1 16002:1 19993:1 20002:1 20003:1 20004:1 20005:1 20006:1 20007:1 20008:1 20009:1 20010:1 20018:1 20020:1 20025:1 20026:1 20027:1 20028:1 20029:1 20030:1 20031:1 
0.04378004844356227 0 24:1 25:1 30:1 45:4 46:5 47:3 67:4 97:1 99:1 115:3 138:1 139:1 268:1 272:1 292:1 435:1 446:1 466:1 594:1 597:1 598:1 615:1 618:1 736:1 798:1 2423:1 2426:1 6035:1 6286:1 6289:1 6497:1 6538:1 7775:1 7781:1 7782:1 8119:1 11233:1 15912:1 16180:1 20059:1 20122:1 20123:1 20124:1 20125:1 20126:1 20127:1 20128:1 20129:1 20130:1 20131:1 20132:1 20133:1 
0.05 0.0112026060649661 24:2 25:1 26:1 30:1 45:4 46:6 47:2 67:8 138:1 139:1 176:1 188:1 190:1 198:2 259:1 268:1 272:1 413:1 418:1 444:1 446:1 466:1 798:1 884:1 887:1 888:1 1116:1 2423:1 2424:1 2426:1 2475:1 5984:1 6085:1 6530:1 6556:1 7395:1 7398:1 7734:1 7735:1 7736:1 7737:1 7743:1 8125:1 13068:1 13075:1 13076:1 13085:1 16161:1 16193:1 16396:1 20134:1 20135:1 20136:1 20140:1 20143:1 20144:1 20145:1 20146:1 
0.05 0.02028451651872415 24:1 25:1 30:1 40:1 43:1 44:1 45:2.5 46:4 47:1 67:4 97:1 99:1 114:1 115:1 119:1 138:1 139:1 194:1 484:1 794:1 883:1 884:1 885:1 887:1 888:1 1083:1 1095:1 1520:1 1522:1 2302:1 2350:1 2903:1 4856:1 4860:1 4888:1 8341:1 8342:1 8343:1 8344:1 8345:1 8349:1 8578:1 14426:1 20177:1 20183:1 20184:1 20189:1 20190:1 20191:1 20192:1 20193:1 20194:1 
0.004548895710435166 0 6:1 24:2 25:1 30:1 34:1 38:1 40:1 43:1 44:1 45:2 46:3 47:1 67:1 97:1 99:1 115:1 138:1 139:1 194:1 208:1 209:1 210:1 211:1 212:1 484:1 706:1 773:1 776:1 794:1 1520:1 1522:1 2350:1 2903:1 4757:1 4856:1 4888:1 8349:1 14426:1 20183:1 20189:1 20191:1 20192:1 20193:1 20220:1 20221:1 20222:1 20223:1 20224:1 20225:1 
0.0002221214699549074 0 6:1 16:1 22:1 23:1 24:3 25:2 30:1 32:1 45:1 46:1 47:1 138:1 139:1 146:1 774:1 2361:1 2618:1 2620:1 2799:1 2921:1 3360:1 4120:1 4126:1 5771:1 5772:1 5774:1 5775:1 5784:1 5788:1 6782:1 6783:1 8576:1 9656:1 9658:1 13999:1 14001:1 14004:1 14009:1 16979:1 20213:1 20214:1 20215:1 20216:1 20217:1 20218:1 20265:1 20266:1 20267:1 20268:1 
0.01814707048293915 0.00910984171007731 2:1 4:1 12:1 13:1 14:1 15:1 22:1 23:1 24:2 25:1 29:1 30:1 31:1 32:1 40:1 43:1 44:1 45:1.5 46:2 47:1 133:1 594:1 598:1 611:1 614:1 745:1 1071:1 3508:1 3520:1 4242:1 4247:1 4248:1 6664:1 8692:1 8700:1 8704:1 8740:1 8744:1 20360:1 20361:1 20362:1 20449:1 20452:1 20473:1 20474:1 20475:1 20476:1 20477:1 20478:1 
0.007245561835562122 0.007932472890725819 22:1 23:1 24:2 25:1 29:1 30:1 31:1 32:1 34:1 37:1 40:1 43:1 44:1 45:2 46:2 47:2 194:1 198:1 201:1 206:1 542:1 1286:1 5249:1 5702:1 13253:1 13269:1 13335:1 14947:1 18084:1 18086:1 19609:1 19611:1 19655:1 20375:1 20376:1 20377:1 20378:1 20379:1 20385:1 20386:1 20387:1 20388:1 20495:1 20496:1 20497:1 20498:1 20499:1 20500:1 20501:1 20502:1 20503:1 
0.02363955999594475 0.00405919376199116 24:1 25:1 29:1 30:1 31:1 45:2.5 46:3 47:2 67:1 268:1 272:1 405:1 446:1 902:1 2916:1 2917:1 2918:1 2919:1 2935:1 3375:1 3671:1 4120:1 4123:1 5784:1 5788:1 8576:1 8624:1 14543:1 20567:1 20568:1 20569:1 20570:1 20572:1 20573:1 20574:1 20575:1 20723:1 20724:1 20725:1 20726:1 20727:1 20728:1 20729:1 20730:1 20731:1 
0.01938812955656568 0.00212147975276738 22:1 23:1 29:1 30:1 31:1 32:1 45:1.5 46:2 47:1 594:1 615:1 745:1 1096:1 1098:1 2036:1 2055:1 2082:1 2158:1 2586:1 2633:1 2635:1 2687:1 2688:1 2690:1 2691:1 2692:1 2693:1 8337:1 9503:1 16715:1 20892:1 20901:1 20902:1 20903:1 20904:1 20905:1 20907:1 20908:1 20909:1 20910:1 20911:1 20912:1 20913:1 20914:1 20915:1 20916:1 20917:1 20918:1 20919:1 20920:1 
0.05 0.05 6:1 24:1 25:1 45:2 46:2 47:2 64:1 67:2 89:1 178:1 179:1 198:1 520:1 524:1 1016:1 1696:1 2335:1 3291:1 5795:1 6787:1 8358:1 8359:1 8360:1 8362:1 8363:1 8494:1 8495:1 8499:1 10246:1 11097:1 11205:1 11207:1 13104:1 13106:1 20959:1 20960:1 20961:1 20962:1 20965:1 20968:1 20970:1 20971:1 20972:1 20973:1 20974:1 20975:1 20976:1 20977:1 20978:1 20979:1 
0.005796240342536378 0 22:1 23:1 24:3 25:2 29:1 30:1 31:1 32:1 40:1 43:1 44:1 45:1.5 46:2 47:1 58:1 164:1 756:1 1205:1 1209:1 1546:1 3250:1 5881:1 5894:1 6842:1 7587:1 11459:1 14533:1 14542:1 17203:1 20985:1 21000:1 21026:1 21027:1 21028:1 21029:1 21030:1 21031:1 21033:1 21035:1 21036:1 21037:1 21039:1 21040:1 21041:1 21042:1 21043:1 21044:1 21045:1 21046:1 21047:1 21048:1 
0.05 0.01252233857986148 25:1 30:1 45:4 46:6 47:2 67:6 89:1 90:1 115:1 268:1 272:1 413:1 418:1 434:1 444:1 446:1 466:2 594:1 735:1 742:1 766:1 768:1 770:1 771:1 798:1 1096:1 1240:1 2423:1 2426:1 2515:1 5984:1 6288:1 7280:1 8134:1 8194:1 17420:1 19255:1 20012:1 21149:1 21151:1 21154:1 21158:1 21159:1 21160:1 21161:1 21162:1 21163:1 21164:1 21165:1 21166:1 21167:1 21168:1 
0.01983121052131844 0 8:1 24:1 25:1 26:1 29:1 30:1 31:1 67:3 115:1 170:1 198:1 222:1 226:1 231:1 268:1 272:1 390:1 393:1 413:1 418:1 427:1 444:1 446:1 460:1 466:1 569:1 577:1 758:1 759:1 761:1 762:1 763:1 6533:1 19993:1 20026:1 21112:1 21114:1 21169:1 21170:1 21171:1 21172:1 21173:1 21175:1 21177:1 21178:1 21179:1 21180:1 21181:1 
0.02518521240723689 0.002418995669866815 9:1 20:1 22:1 23:1 24:2 25:1 26:1 29:1 30:1 31:1 32:1 40:1 43:1 115:1 123:1 176:1 198:1 680:1 1387:1 1898:1 2475:1 3154:1 3155:1 3415:1 6143:1 6144:1 6153:1 6155:1 19821:1 19822:1 19828:1 19833:1 19834:1 21187:1 21188:1 21189:1 21190:1 21191:1 21192:1 21193:1 21194:1 21195:1 
0.02942694649085972 0.00248016646122395 24:1 30:1 45:2.5 46:3 47:2 67:2 115:1 213:1 268:1 390:1 446:1 466:1 759:1 1098:1 1387:1 1600:1 1601:1 1938:1 2048:1 2423:1 2426:1 2433:1 2501:1 6061:1 6144:1 6454:1 6463:1 6465:1 6466:1 6467:1 6468:1 7051:1 7324:1 7325:1 20070:1 20071:1 21196:1 21197:1 21198:1 21199:1 21200:1 21201:1 21202:1 21203:1 21204:1 21205:1 21206:1 21207:1 
0.03246150250481054 0.0009615366741680477 24:1 25:1 30:1 45:3 46:4 47:2 67:7 119:1 213:1 268:1 292:1 446:1 466:2 518:1 759:1 798:1 1098:1 1410:1 1600:1 1601:1 1938:1 2048:1 2423:1 2426:1 2433:1 2501:1 3289:1 3508:1 6061:1 6454:1 6465:1 6466:1 7324:1 7325:1 20084:1 21128:1 21129:1 21130:1 21131:1 21132:1 21196:1 21197:1 21198:1 21199:1 21203:1 21204:1 21205:1 21208:1 21209:1 21210:1 21211:1 21212:1 21213:1 21214:1 21215:1 
0.03257761477680199 0 22:1 23:1 24:4 25:1 30:1 32:1 34:1 38:1 40:1 43:1 44:1 45:1.5 46:2 47:1 138:1 139:1 194:1 201:1 706:1 856:2 1691:1 1698:1 2038:1 5696:1 5701:1 5702:1 5707:1 5941:1 5950:1 7398:1 10223:1 10224:1 10225:1 10226:1 10227:1 10228:1 10232:1 10233:1 10234:1 10235:1 10236:1 10285:1 10287:1 10302:1 10315:1 10316:1 17134:1 21021:1 21260:1 21261:1 21262:1 21263:1 21264:1 21265:1 21266:1 21267:1 
0.008329617943551542 0 22:1 23:1 24:1 25:2 30:1 34:1 38:1 45:1.5 46:2 47:1 138:1 139:1 194:1 201:1 706:1 4852:1 5702:1 5771:1 5772:1 5814:1 5821:1 5823:1 5824:1 6461:1 6497:1 8029:1 8030:1 8045:1 8051:1 10312:1 10314:1 10315:1 10316:1 16298:1 21233:1 21234:1 21235:1 21239:1 21240:1 21241:1 21242:1 21296:1 21297:1 21298:1 21299:1 21300:1 21301:1 21302:1 
0.02519524729304782 0.004543426659947411 22:1 23:1 24:1 29:1 30:1 31:1 32:1 40:1 43:1 45:1.5 46:2 47:1 58:1 115:1 123:1 150:1 198:2 254:1 594:1 598:1 745:1 3103:1 5273:1 5840:1 5880:1 5881:1 5950:1 6491:1 6497:1 6701:1 6702:1 7124:1 7483:1 7484:1 8045:1 10233:1 17203:1 21274:1 21275:1 21277:1 21278:1 21279:1 21280:1 21317:1 21318:1 21319:1 21320:1 21321:1 21322:1 21323:1 21324:1 
0.03461315995975572 0 9:1 20:1 22:1 23:1 24:6 25:1 28:1 30:1 32:1 40:1 43:1 115:1 123:1 126:1 128:1 138:1 139:1 198:2 838:1 856:2 1082:1 1698:1 1767:1 1967:1 2485:1 5574:1 5686:1 6083:1 6084:1 6556:1 6596:1 6906:1 7395:1 7398:1 8091:1 8097:1 8219:1 8577:1 10228:1 10232:1 10234:1 10235:1 10338:1 10340:1 10342:1 10485:1 20971:1 21335:1 21336:1 21337:1 21341:1 21342:1 21343:1 21344:1 21345:1 
0.02949670738789845 0 22:1 23:1 24:2 26:1 29:1 30:1 31:1 32:1 115:2 176:1 198:4 280:1 327:1 530:1 798:1 1096:1 1098:1 1378:1 1698:1 1767:1 1967:1 2302:1 2424:1 2516:1 2518:1 3260:1 3264:1 5119:1 5574:1 6300:1 6302:1 6346:1 6348:1 6490:1 6491:1 6496:1 6497:1 6532:1 6561:1 6896:1 6938:1 8102:1 8103:1 8105:1 8106:1 8108:1 8109:1 8110:1 8111:1 15887:1 21347:1 21348:1 21349:1 21353:1 
0 0.0009820245430272932 22:1 23:1 24:2 25:1 26:1 29:1 30:1 31:1 32:1 115:1 176:1 198:2 390:1 615:1 1967:1 2302:1 2411:1 2412:1 2413:1 2415:1 2423:1 2540:1 3260:1 5119:1 5574:1 6458:1 6460:1 6461:1 6462:1 6477:1 6478:1 6494:1 6500:1 8102:1 8103:1 8105:1 8106:1 8107:1 8113:1 8114:1 15881:1 15887:1 21348:1 21349:1 21353:1 21354:1 21355:1 
0 0.008935179135962524 22:1 23:1 24:2 25:1 29:1 30:1 31:1 32:1 115:2 198:3 346:1 759:1 812:1 856:1 2475:1 3343:1 3364:1 3371:1 3385:1 3415:1 6286:1 6289:1 6324:1 6360:1 6434:1 6443:1 6516:1 6522:1 6523:1 6596:1 7365:1 8117:1 8262:1 10410:1 16517:1 21363:1 21364:1 21365:1 
0 6.729094945732681e-05 22:1 23:1 24:2 29:1 30:1 31:1 32:1 45:1 46:1 47:1 97:1 99:1 115:2 146:1 168:1 188:1 190:1 198:3 346:1 759:1 812:1 856:1 1096:1 1098:1 1725:1 2159:1 2475:1 2966:1 2967:1 3415:1 6300:1 6302:1 6348:1 6424:1 6425:1 6445:1 6447:1 6505:1 6516:1 6522:1 6543:1 6596:1 7365:1 10362:1 10430:1 12311:1 12313:1 17261:1 21366:1 21367:1 21368:1 21369:1 21370:1 21371:1 21372:1 21373:1 21374:1 21375:1 
0.0003793623759877345 0 22:1 23:1 24:1 25:1 29:1 30:1 31:1 32:1 115:1 198:2 856:1 1096:1 1179:1 1341:1 1342:1 1967:1 2035:1 2080:1 2475:1 2476:1 2597:1 2606:1 3159:1 3264:1 3415:1 5233:1 5454:1 5467:1 5574:1 6416:1 6417:1 6490:1 6491:1 6496:1 6497:1 6561:1 7087:1 7297:1 8045:1 8179:1 8180:1 8943:1 21387:1 21388:1 21389:1 21390:1 21391:1 21392:1 21393:1 
0.001773627242983292 0 22:1 23:1 24:3 25:1 29:1 30:1 31:1 32:1 115:1 176:1 190:1 198:2 222:1 268:1 272:1 418:1 427:1 444:1 446:1 460:1 798:1 838:1 856:2 1967:2 2475:1 3264:1 5455:1 5574:2 6133:1 6286:1 6289:1 6321:1 6324:1 6359:1 6416:1 6502:1 6504:1 6505:1 6761:1 6771:1 8183:1 8184:1 8199:1 16250:1 21409:1 21418:1 21419:1 
0.02212264980813236 0 22:1 23:1 24:3 25:1 29:1 30:1 31:1 32:1 45:1 46:1 47:1 115:2 146:1 176:1 198:2 268:1 272:1 346:1 418:1 444:1 446:1 594:1 598:1 742:1 743:1 745:1 856:1 2027:1 2423:1 3264:1 3377:1 3973:1 5984:1 6035:1 6286:1 6289:1 6324:1 6434:1 6443:1 6490:1 6496:1 6502:1 6560:1 6561:1 6562:1 6595:1 6596:1 6695:1 7087:1 14104:1 15994:1 17370:1 21442:1 21447:1 21448:1 21449:1 21450:1 
0.01805662449595923 0.005470322051053902 24:1 25:1 29:1 30:1 31:1 45:2 46:2 47:2 67:5 115:2 168:1 176:1 213:1 292:1 346:1 466:1 759:1 850:1 2410:1 2411:1 2412:1 2413:1 2415:1 2444:1 2447:1 2463:1 2464:1 2540:1 2868:1 3260:1 5970:1 6286:1 6289:1 6390:1 6444:1 6562:1 6572:1 6573:1 6578:1 6580:1 6590:1 6661:1 9523:1 15884:1 15957:1 17299:1 19691:1 21372:1 21386:1 21451:1 21457:1 21458:1 21460:1 
0 0.003579349086631856 22:1 23:1 24:3 25:1 29:1 30:1 31:1 32:1 45:1 46:1 47:1 115:1 146:1 168:1 198:2 346:1 856:1 1725:1 2030:1 2159:1 2411:1 2412:1 2413:1 2415:1 2423:1 2463:1 2464:1 2540:1 2868:1 6035:1 6286:1 6289:1 6324:1 6462:1 6505:1 6543:1 6596:1 6601:1 6607:1 6608:1 6609:1 6726:1 6727:1 7058:1 9523:1 9976:1 15881:1 15884:1 17299:1 19695:1 21367:1 21368:1 21372:1 21466:1 21467:1 
0.02540804757855917 0 22:1 23:1 24:3 25:1 29:1 30:1 31:1 32:1 45:1 46:1 47:1 115:2 146:1 198:2 268:1 272:1 346:1 418:1 444:1 446:1 594:1 598:1 742:1 743:1 745:1 838:1 856:2 1096:1 1967:1 2027:1 2423:1 3264:1 3377:1 5984:1 6035:1 6286:1 6289:1 6324:1 6416:1 6434:1 6443:1 6462:1 6502:1 6562:1 6578:1 6580:1 6590:1 6591:1 6593:1 6594:1 6595:1 6596:1 6598:1 6601:1 6695:1 15523:1 15640:1 21449:1 21507:1 21508:1 21509:1 
0.01409884297648334 0 22:1 23:1 24:1 29:1 30:1 31:1 32:1 40:1 43:1 115:1 123:1 194:1 198:3 390:1 1698:1 1767:1 3264:1 5702:1 16014:1 21540:1 21541:1 21542:1 21543:1 21544:1 21545:1 21546:1 21547:1 21548:1 21549:1 21550:1 21551:1 21552:1 21553:1 21554:1 21555:1 21556:1 21557:1 21558:1 21559:1 21560:1 21561:1 
0.007363583075376606 0 22:1 23:1 24:1 29:1 30:1 31:1 32:1 115:1 167:1 194:1 198:3 280:1 327:1 530:1 577:1 1698:1 1767:1 2516:1 2518:1 3264:1 7342:1 16014:1 21540:1 21541:1 21542:1 21543:1 21544:1 21545:1 21546:1 21547:1 21548:1 21549:1 21558:1 21562:1 21563:1 21564:1 21565:1 21566:1 21567:1 21568:1 21569:1 21570:1 
