svm_type c_svc
kernel_type linear
nr_class 3
total_sv 1299
rho 0.812322 0.00433829 -0.674697
label 1 2 3
nr_sv 372 642 285
SV
0 0.002010269836416303 2:1 4:1 8:1 12:1 13:1 14:1 15:1 18:1 22:1 23:1 24:2 25:1 26:1 29:1 30:1 31:1 32:1 34:1 37:1 38:1 40:1 43:1 44:1 45:1.5 46:2 47:1 894:1 895:1 896:1 897:1 898:1 899:1 900:1 901:1 902:1 903:1 904:1 905:1 906:1 907:1 908:1 909:1 910:1 911:1 912:1 913:1 
0.001353063112236808 0 22:1 23:1 24:1 29:1 30:1 31:1 32:1 34:1 37:1 38:1 40:1 43:1 45:1.5 46:2 47:1 115:1 123:1 198:1 962:1 966:1 967:1 968:1 969:1 970:1 971:1 972:1 973:1 974:1 975:1 980:1 981:1 1061:1 1062:1 1063:1 1064:1 1065:1 1066:1 1067:1 1068:1 1069:1 1070:1 1071:1 1072:1 1073:1 1074:1 1075:1 
0.02573459066022735 0.001177777944897404 9:1 22:1 23:1 29:1 30:1 31:1 32:1 45:2 46:3 47:1 115:1 181:1 198:2 1096:1 1167:1 1203:1 1225:1 1229:1 1238:1 1469:1 1471:1 1475:1 1476:1 1484:1 1485:1 1486:1 1487:1 1488:1 1489:1 1490:1 1491:1 1588:1 1589:1 1590:1 1591:1 1592:1 1593:1 1594:1 1595:1 1596:1 1597:1 1598:1 1599:1 1600:1 1601:1 1602:1 1603:1 1604:1 1605:1 1606:1 
0.05 0 9:1 22:1 23:1 24:2 25:1 29:1 30:1 31:1 32:1 45:1.5 46:2 47:1 181:1 185:1 198:3 281:1 682:1 724:1 1071:1 1096:1 1283:1 1381:1 1383:1 1389:1 1390:1 1491:1 1528:1 1529:1 1616:1 1617:1 1618:1 1619:1 1620:1 1725:1 1728:1 1732:1 1814:1 1815:1 1817:1 1891:1 1893:1 1894:1 1895:1 1896:1 1897:2 1898:1 1899:1 1901:1 1902:1 1904:2 1905:1 1906:1 1909:1 1910:1 1911:1 
0.006864792316252965 0 22:1 23:1 24:1 29:1 30:1 31:1 32:1 40:1 43:1 45:3 46:4 47:2 198:1 281:1 970:1 1066:1 1096:1 1098:1 1239:1 1357:1 1361:1 1419:1 1421:1 1425:1 1426:1 1581:1 1582:1 1583:1 1584:1 1585:1 1600:1 1601:1 1602:1 1604:1 1696:1 1725:1 1732:1 1897:1 1904:1 1956:1 1957:1 1958:1 1959:1 1960:1 1961:1 1962:1 1963:1 1964:1 1965:1 1966:1 1967:1 1968:1 1969:1 1970:1 
0.05 0.009915155535086647 24:1 30:1 45:2 46:3 47:1 67:1 138:1 139:1 234:1 268:1 310:1 403:1 407:1 413:1 418:1 444:1 446:1 758:1 761:1 1071:1 1098:1 1113:1 1203:1 2388:1 2389:1 2390:1 2391:1 2399:1 2400:1 2455:1 2456:1 2457:1 2458:1 2459:1 2460:1 2461:1 2462:1 2468:1 2469:1 2472:1 2473:1 2474:1 2475:1 2476:1 2477:1 2478:1 2479:1 2480:1 
0.02002399641566089 0.009391524207204438 24:1 25:1 30:1 40:1 43:1 44:1 45:3 46:5 47:1 67:2 213:1 434:1 735:1 998:1 1601:1 1664:1 1675:1 2499:1 2500:1 2501:1 2502:1 2503:1 2504:1 2505:1 2506:1 2507:1 2508:1 2509:1 2510:1 2511:1 2512:1 2513:1 2514:1 2515:1 2516:1 2517:1 2518:1 2519:1 2520:1 2521:1 2522:1 2523:1 2524:1 2525:1 2526:1 2527:1 
0.04160121036844205 0.00174431922979749 24:1 25:1 30:1 45:2.5 46:4 47:1 67:4 110:1 119:1 213:1 268:1 272:1 310:1 434:1 446:1 735:1 1601:1 1664:1 1675:1 2123:1 2169:1 2499:1 2500:1 2501:1 2502:1 2503:1 2504:1 2505:1 2506:1 2516:1 2518:1 2519:1 2520:1 2521:1 2522:1 2523:1 2528:1 2529:1 2530:1 2531:1 2532:1 2533:1 2534:1 2535:1 2536:1 2537:1 2538:1 2539:1 2540:1 
0.02708303500511711 0 9:1 22:1 23:1 24:3 25:1 30:1 32:1 34:1 38:1 45:5.5 46:6 47:5 268:1 272:1 310:1 403:1 418:1 444:1 446:1 784:1 785:1 792:1 794:1 838:1 856:2 1066:1 1107:1 1167:1 1664:1 1675:1 1868:1 2321:1 2663:1 2669:1 2675:1 2676:1 2677:1 2681:1 2718:1 2719:1 2720:1 2721:1 2722:1 2723:1 2724:1 2725:1 2726:1 2727:1 2728:1 
0.0008318655306584018 0 22:1 23:1 24:3 25:1 30:1 32:1 40:1 43:1 44:1 45:1.5 46:2 47:1 71:1 97:1 99:1 115:1 138:1 139:1 190:1 198:2 495:1 497:1 784:1 785:1 794:1 883:1 884:1 885:1 887:1 888:1 1083:1 1238:1 1725:1 1897:1 1904:1 2030:1 2663:1 2799:1 2897:1 2898:1 2899:1 2901:1 2906:1 2907:1 2908:1 2910:1 2911:1 2951:1 3043:1 3044:1 3045:1 3046:1 3047:1 3048:1 3049:1 3050:1 3051:1 3052:1 3053:1 
0.01827199559672655 0 22:1 23:1 24:2 25:1 30:1 32:1 34:1 38:1 45:2.5 46:3 47:2 54:1 132:1 138:1 139:1 168:1 281:1 295:1 376:1 380:1 542:1 617:1 706:1 784:1 785:1 792:1 794:1 1213:1 2663:1 2675:1 2807:1 2828:1 2934:1 2935:1 2939:1 2940:1 2941:1 3115:1 3116:1 3117:1 3118:1 3119:1 3120:1 3121:1 3122:1 3123:1 3124:1 3125:1 3126:1 
0 0.0003180640381908174 3:1 5:1 19:1 22:1 23:1 24:3 25:1 29:1 30:1 31:1 32:1 39:1 40:1 41:1 43:1 44:1 45:2.5 46:3 47:2 167:1 176:1 539:1 577:1 593:1 594:1 598:1 745:1 785:1 792:1 794:1 2663:1 2675:1 3095:1 3127:1 3128:1 3129:1 3130:1 3131:1 3132:1 3133:1 3134:1 3135:1 3136:1 3137:1 3138:1 3139:1 3140:1 3141:1 3142:1 3143:1 
0.002470781056981557 0 22:1 23:1 24:2 25:1 29:1 30:1 31:1 32:1 40:1 43:1 44:1 45:1.5 46:2 47:1 167:1 176:1 213:1 611:1 614:1 785:1 792:1 794:1 851:1 884:1 888:1 919:1 1105:1 1119:1 2663:1 2675:1 3082:1 3133:1 3267:1 3268:1 3269:1 3270:1 3271:1 3272:1 3273:1 3274:1 3275:1 3276:1 3277:1 3278:1 3279:1 3280:1 
0.02139743540062175 0.005680750597090491 20:1 22:1 23:1 24:2 25:1 30:1 32:1 45:1.5 46:2 47:1 198:2 376:1 380:1 1167:1 1213:1 1232:1 1234:1 1236:1 1237:1 1238:1 1406:1 1655:1 1657:1 1658:1 1659:1 1660:1 1663:1 1664:1 1666:1 1667:1 1668:1 1669:1 1670:1 1671:1 1675:1 1689:1 1690:1 1713:1 1714:1 1715:1 1716:1 1897:1 1904:1 1960:1 1967:1 3324:1 3325:1 3326:1 3327:1 3328:1 3329:1 3330:1 3331:1 
0.05 0 9:1 22:1 23:1 24:3 25:1 30:1 32:1 40:1 43:1 44:1 45:1.5 46:2 47:1 54:1 150:1 198:1 281:1 1204:1 1205:1 1209:1 1298:1 1299:1 1300:1 1301:1 1302:1 1303:1 1304:1 1305:1 1309:1 1310:1 1311:1 1661:1 1664:1 1675:1 1698:1 1699:1 1701:1 1725:1 1732:1 1745:1 1747:1 1748:1 1749:1 1764:1 1765:1 1766:1 1767:1 1768:1 1771:1 1772:1 3386:1 3387:1 
0.05 0.00318936580250634 9:1 20:1 22:1 23:1 24:1 25:1 30:1 32:1 45:1.5 46:2 47:1 54:1 132:1 181:1 185:1 198:1 682:1 1071:1 1096:1 1385:1 1491:1 1517:1 1519:1 1520:1 1524:1 1525:1 1526:1 1527:1 1528:1 1529:1 1530:1 1664:1 1675:1 1814:1 1817:1 1880:1 1882:1 1894:1 1895:1 1896:1 1905:1 1912:1 1931:1 1934:1 3418:1 3419:1 3420:1 3421:1 
0.001374512252818401 0.001334084556893047 9:1 22:1 23:1 24:1 29:1 30:1 31:1 32:1 281:1 970:1 1066:1 1096:1 1098:1 1239:1 1419:1 1421:1 1425:1 1426:1 1581:1 1582:1 1583:1 1666:1 1667:1 1725:1 1732:1 1957:1 1959:1 1960:1 1961:1 1963:1 1964:1 1967:1 1971:1 1972:1 1973:1 3303:1 3304:1 3426:1 3427:1 3428:1 3429:1 3430:1 
0 0.0005097940619696445 3:1 5:1 9:1 19:1 20:1 22:1 23:1 24:3 25:1 29:1 30:1 31:1 32:1 39:1 40:1 41:1 43:1 44:1 45:2.5 46:3 47:2 176:1 539:1 593:1 594:1 598:1 745:1 785:1 792:1 794:1 2663:1 2675:1 3095:1 3128:1 3129:1 3131:1 3132:1 3136:1 3137:1 3140:1 3141:1 3142:1 3143:1 3449:1 3450:1 3451:1 3452:1 3453:1 3454:1 
0 0.0008362499507197668 22:1 23:1 24:2 25:1 30:1 32:1 40:1 43:1 44:1 45:1.5 46:2 47:1 138:1 139:1 577:1 785:1 792:1 794:1 1203:1 1205:1 1209:1 1631:1 2234:1 2663:1 2675:1 3082:1 3117:1 3148:1 3149:1 3440:1 3443:1 3444:1 3635:1 3683:1 3684:1 3685:1 3686:1 3687:1 3688:1 3689:1 3690:1 3691:1 3692:1 3693:1 3694:1 3695:1 3696:1 
0 0.0001013081235574298 22:1 23:1 24:2 25:1 30:1 32:1 45:1 46:1 47:1 74:1 77:1 78:1 138:1 139:1 141:1 144:1 145:1 146:1 167:1 784:1 785:1 789:1 792:1 794:1 2663:1 2675:1 2935:1 3115:1 3116:1 3117:1 3706:1 3707:1 3716:1 3717:1 3718:1 3719:1 3721:1 3723:1 3725:1 3726:1 3727:1 3728:1 3729:1 3730:1 3731:1 3732:1 3733:1 3734:1 3735:1 
0 0.001074595477393813 24:1 25:1 30:1 34:1 38:1 40:1 43:1 44:1 45:2 46:2 47:2 61:1 67:3 119:1 138:1 139:1 194:1 310:1 706:1 998:1 1071:1 1238:1 1241:1 3435:1 3829:1 3830:1 3831:1 3832:1 3833:1 3834:1 3835:1 3843:1 3845:1 3846:1 3847:1 3848:1 3849:1 3850:1 3855:1 3856:1 3857:1 3858:1 3859:1 3860:1 3861:1 3862:1 3863:1 3864:1 3865:1 3866:1 
0.04312136269048862 0.009537440050018338 24:1 25:1 30:1 34:1 38:1 40:1 43:1 44:1 45:2.5 46:3 47:2 58:1 61:2 67:5 119:2 138:1 139:1 194:1 310:1 706:1 970:1 1071:1 1238:1 1241:1 3435:1 3829:1 3830:1 3831:1 3832:1 3833:1 3834:1 3835:1 3843:1 3845:1 3846:1 3847:1 3848:1 3849:1 3850:1 3862:1 3867:1 3868:1 3869:1 3870:1 3871:1 3872:1 3873:1 3874:1 3875:1 3876:1 3877:1 
0.0004727945032107762 0 24:1 25:2 30:1 34:1 38:1 40:1 43:1 44:1 45:3.5 46:5 47:2 61:3 67:7 119:3 138:1 139:1 194:1 706:1 882:1 970:1 1071:1 1238:1 1241:1 2771:1 3435:1 3829:1 3830:1 3831:1 3832:1 3833:1 3834:1 3835:1 3843:1 3845:1 3846:1 3847:1 3848:1 3849:1 3850:1 3862:1 3873:1 3878:1 3879:1 3880:1 3881:1 3882:1 3883:1 3884:1 3885:1 3886:1 3887:1 3888:1 3889:1 3890:1 3891:1 
0.009867822450364702 0 22:1 23:1 24:4 30:1 32:1 115:1 138:1 139:1 198:2 327:1 346:1 351:1 530:1 838:1 850:1 856:2 1082:1 1096:1 1098:1 1378:1 1698:2 1767:2 1967:2 2235:1 2237:1 3133:1 3628:1 3764:1 3766:1 3961:1 3962:1 3963:1 3964:1 3965:1 3966:1 3967:1 3968:1 3969:1 3970:1 3971:1 3972:1 3973:1 3974:1 3975:1 3976:1 3977:1 3978:1 3979:1 3980:1 3981:1 3982:1 3983:1 3984:1 3985:1 3986:1 
0.01307810773926091 0 22:1 23:1 24:3 25:1 30:1 32:1 45:2 46:3 47:1 138:1 139:1 268:1 272:1 390:1 393:1 418:1 444:1 446:1 615:1 838:1 856:1 1082:1 1698:1 1767:1 1967:1 2620:1 2621:1 2622:1 2624:1 2625:1 3501:1 3628:1 3764:1 3766:1 3773:1 3963:1 3964:1 3971:1 3972:1 3984:1 3987:1 3988:1 3989:1 3990:1 3991:1 3992:1 3993:1 3994:1 3995:1 3996:1 3997:1 3998:1 3999:1 4000:1 4001:1 
0.03163455660858247 0 22:1 23:1 24:3 25:1 30:1 32:1 45:3 46:5 47:1 138:1 139:1 280:1 327:1 331:1 390:1 393:1 530:1 615:1 838:1 856:1 1082:1 1698:1 1767:1 1967:1 2235:1 2237:1 2620:1 2621:1 2622:1 2624:1 2625:1 3628:1 3764:1 3766:1 3963:1 3964:1 3971:1 3972:1 3984:1 3987:1 3988:1 3989:1 3990:1 3999:1 4002:1 4003:1 4004:1 4005:1 4006:1 4007:1 4008:1 4009:1 4010:1 4011:1 4012:1 
0.001733360415078325 0 9:1 22:1 23:1 24:2 25:1 29:1 30:1 31:1 32:1 115:2 198:2 213:1 268:1 272:1 310:1 446:1 856:1 1967:1 2721:1 4116:1 4141:1 4144:1 4185:1 4189:1 4204:1 4205:1 4206:1 4207:1 4208:1 4209:1 4210:1 4211:1 4212:1 4213:1 4214:1 4215:1 4216:1 4217:1 4218:1 4219:1 4220:1 4221:1 4222:1 4223:1 4224:1 
0.006442387184459776 0 22:1 23:1 24:1 29:1 30:1 31:1 32:1 40:1 43:1 45:1.5 46:2 47:1 115:1 123:1 198:2 594:1 598:1 745:1 1714:1 2038:1 2513:1 2633:1 2642:1 2643:1 3587:1 3618:1 4143:1 4187:1 4188:1 4428:1 4441:1 4442:1 4443:1 4444:1 4445:1 4446:1 4447:1 4448:1 4449:1 4455:1 4456:1 4457:1 4458:1 4459:1 4460:1 4461:1 4462:1 4463:1 4464:1 4465:1 4466:1 
0.00449414069835391 0.006680983843138512 22:1 23:1 24:1 29:1 30:1 31:1 32:1 115:6 198:8 201:1 856:1 949:2 961:2 1096:1 1098:1 1179:1 1203:1 1251:1 1252:1 1555:1 1561:1 1593:1 1599:1 1698:1 1767:1 1897:2 1904:2 1967:1 3133:1 3517:1 3643:1 3741:1 4061:1 4063:1 4068:1 4072:1 4075:1 4076:1 4112:1 4113:1 4114:1 4116:1 4119:1 4120:1 4125:1 4126:1 4127:1 4207:1 4213:1 4215:1 4246:1 4484:1 4485:3 4486:1 4487:1 4488:1 4489:1 4490:1 4491:1 4492:1 4493:3 4494:1 4495:1 4496:1 4497:1 4498:1 
0.05 0 22:1 23:1 24:1 29:1 30:1 31:1 32:1 115:4 198:8 201:1 376:1 856:1 949:1 961:1 1096:1 1098:1 1179:1 1203:1 1213:1 1238:1 1555:1 1561:1 1593:1 1599:1 1698:1 1767:1 1897:2 1904:2 1967:1 3133:1 3643:1 3741:1 4061:1 4063:1 4068:1 4072:1 4075:1 4076:1 4082:1 4112:1 4113:1 4114:1 4116:1 4119:1 4120:1 4207:1 4246:1 4484:1 4485:3 4486:1 4487:1 4488:1 4489:1 4490:1 4491:1 4493:2 4494:1 4495:1 4500:1 4502:1 4503:1 4504:1 4506:1 4507:1 4508:1 
0.05 0 22:1 23:1 24:1 29:1 30:1 31:1 32:1 115:2 164:1 198:8 201:1 280:1 856:1 1096:1 1098:1 1179:1 1203:1 1251:1 1252:1 1593:1 1599:1 1698:1 1767:1 1897:2 1904:2 1967:1 3133:1 3517:1 3643:1 3741:1 4061:1 4063:1 4068:1 4072:1 4075:1 4076:1 4112:1 4113:1 4114:1 4116:1 4119:1 4120:1 4125:1 4126:1 4127:1 4207:1 4246:1 4484:1 4485:3 4486:1 4487:1 4488:1 4489:1 4490:1 4491:1 4493:1 4495:1 4510:1 4511:1 4512:1 
0.0463443817313043 0 24:3 25:1 29:1 30:1 31:1 67:3 115:1 176:1 198:3 268:1 272:1 446:1 460:1 466:1 759:1 798:1 856:1 2544:1 2676:1 2679:1 3968:1 4023:1 4063:1 4114:1 4144:1 4189:1 4214:1 4222:1 4223:1 4224:1 4255:1 4263:1 4528:1 4531:1 4536:1 4539:1 4540:1 4541:1 4542:1 4543:1 4544:1 4545:1 4546:1 4547:1 4548:1 4553:1 4556:1 4557:1 4558:1 4559:1 
0.0004122009417746797 0 22:1 23:1 24:2 25:1 29:1 30:1 31:1 32:1 45:1 46:1 47:1 115:2 146:1 198:3 268:1 272:1 446:1 594:1 598:1 745:1 812:1 1510:1 1844:1 1967:1 2158:1 3996:1 4036:1 4112:1 4115:1 4116:1 4144:1 4189:1 4214:1 4491:1 4496:1 4553:1 4569:1 4574:1 4593:1 4594:1 4595:1 4596:1 4597:1 4598:1 4599:1 4600:1 4601:1 4602:1 4603:1 4604:1 4605:1 4606:1 4607:1 4608:1 4609:1 4610:1 4611:1 4612:1 4613:1 4614:1 4615:1 4616:1 
0.05 0 22:1 23:1 24:1 29:1 30:1 31:1 32:1 115:6 198:8 201:1 856:1 949:2 961:2 1096:1 1098:1 1179:1 1203:1 1251:1 1252:1 1555:1 1561:1 1593:1 1599:1 1698:1 1767:1 1897:2 1904:2 1960:1 1967:1 3133:1 3517:1 3643:1 3741:1 3968:1 3973:1 4061:1 4063:1 4068:1 4072:1 4076:1 4112:1 4114:1 4115:1 4116:1 4125:1 4126:1 4127:1 4207:1 4213:1 4215:1 4246:1 4485:3 4486:1 4487:1 4491:1 4492:1 4493:3 4494:1 4495:1 4496:1 4497:1 4498:1 4617:1 4618:1 4619:1 4620:1 
0.05 0.006076879818806779 22:1 23:1 24:1 29:1 30:1 31:1 32:1 45:1 46:1 47:1 115:4 146:1 198:6 376:1 551:1 554:1 856:1 949:1 961:1 1096:1 1098:1 1167:1 1179:1 1203:1 1213:1 1238:1 1555:1 1561:1 1593:1 1599:1 1698:1 1767:1 1897:1 1904:1 1960:1 1967:1 3133:1 3643:1 3968:1 3973:1 4061:1 4068:1 4072:1 4076:1 4082:1 4108:1 4112:1 4114:1 4115:1 4116:1 4485:2 4486:1 4487:1 4493:2 4494:1 4495:1 4500:1 4502:1 4503:1 4504:1 4506:1 4507:1 4508:1 4516:1 4517:1 4518:1 4519:1 4520:1 4521:1 4618:1 4619:1 4620:1 4624:1 
0.0003750110608535437 0 22:1 23:1 24:1 29:1 30:1 31:1 32:1 45:1.5 46:2 47:1 115:2 164:1 198:4 280:1 641:1 681:1 682:1 724:1 756:1 856:1 1096:1 1098:1 1179:1 1203:1 1251:1 1252:1 1593:1 1599:1 1960:1 1967:1 3133:1 3517:1 3643:1 3968:1 3973:1 4061:1 4068:1 4072:1 4076:1 4112:1 4114:1 4115:1 4116:1 4125:1 4126:1 4127:1 4136:1 4137:1 4138:1 4485:1 4487:1 4493:1 4495:1 4510:1 4511:1 4512:1 4618:1 4619:1 4620:1 4625:1 4626:1 4627:1 4628:1 
0.0155465565382007 0.008187822359123784 22:1 23:1 24:2 25:2 30:1 32:1 103:1 115:2 138:1 139:1 194:1 198:3 201:1 820:1 1016:1 3225:1 3747:1 3750:1 3751:1 3766:1 3769:1 3770:1 3776:1 3822:1 3823:1 3998:1 4706:1 4707:1 4708:1 4709:1 4710:1 4711:1 4712:1 4713:1 4714:1 4715:1 4716:1 4717:1 4718:1 4719:1 4720:1 
0 0.001067887091584026 22:1 23:1 24:4 25:1 29:1 30:1 31:1 32:1 45:2 46:3 47:1 103:1 194:1 198:1 201:1 521:1 527:1 1092:1 1205:1 1209:1 1546:1 1698:1 1898:1 2605:1 2609:1 2951:1 3435:1 3782:1 3833:1 3919:1 3964:1 4002:1 4003:1 4004:1 4005:1 4721:1 4722:1 4723:1 4724:1 4725:1 4726:1 4727:1 4728:1 4729:1 4730:1 4731:1 4732:1 4733:1 4734:1 4735:1 4736:1 4737:1 4738:1 4739:1 4740:1 4741:1 4742:1 
0.01746386026885284 0 16:1 22:1 23:1 24:4 25:1 29:1 30:1 31:1 32:1 45:3 46:5 47:1 194:1 198:1 201:1 326:1 327:1 331:1 1205:1 1209:1 1527:1 1546:1 1698:1 1898:1 2237:1 2951:1 3435:1 3789:1 3806:1 3833:1 3884:1 3919:1 3964:1 4721:1 4722:1 4723:1 4724:1 4725:1 4726:1 4727:1 4728:1 4729:1 4730:1 4731:1 4735:1 4737:1 4738:1 4743:1 4744:1 4745:1 4746:1 4747:1 4748:1 4749:1 4750:1 4751:1 4752:1 
0.04275812940433001 0 22:1 23:1 24:3 25:1 30:1 32:1 45:3 46:5 47:1 138:1 139:1 176:1 198:1 280:1 327:1 331:1 530:1 838:1 856:1 1082:1 1600:1 1601:1 1698:1 1767:1 1967:1 2235:1 2237:1 2523:1 3116:1 3117:1 3212:1 3585:1 3628:1 3964:1 3972:1 3988:1 4002:1 4003:1 4004:1 4005:1 4011:1 4142:1 4153:1 4837:1 4838:1 4839:1 4840:1 4841:1 4848:1 4849:1 4853:1 4854:1 4855:1 4856:1 4857:1 
0.01543784287123558 0 22:1 23:1 24:2 25:1 30:1 32:1 45:2 46:3 47:1 115:1 138:1 139:1 176:1 198:1 268:1 272:1 390:1 418:1 444:1 446:1 615:1 838:1 856:1 1082:1 1600:1 1601:1 1967:1 2123:1 2523:1 3116:1 3117:1 3212:1 3628:1 3972:1 3995:1 3996:1 3997:1 4037:1 4120:1 4142:1 4229:1 4240:1 4838:1 4839:1 4843:1 4844:1 4848:1 4849:1 4858:1 4859:1 4860:1 4861:1 4862:1 4863:1 
0.03587476699007971 0 8:1 24:3 25:1 30:1 45:6 46:10 47:2 67:14 119:1 138:1 139:1 198:1 268:1 272:1 413:2 418:1 434:1 444:1 446:1 466:4 770:1 798:1 856:1 884:1 887:1 1096:1 2263:1 2552:1 2732:1 3526:1 3968:1 3995:1 3996:1 4242:1 4683:1 4684:2 4864:1 4865:1 4866:1 4867:1 4868:1 4869:1 4870:1 4871:1 4872:1 4873:1 4874:1 4880:1 4881:1 4882:1 4883:1 4884:1 4885:1 4888:1 4889:1 4890:1 4891:1 4892:1 4893:1 4894:1 4895:1 4896:1 4897:1 4898:1 
0.03104988082558601 0.01976138426602988 24:1 30:1 45:2 46:3 47:1 67:1 89:1 90:1 115:1 268:1 446:1 1066:1 1098:1 1600:1 1601:1 2400:1 2523:1 3609:1 4161:1 4163:1 4174:1 4230:1 4928:1 4929:1 4930:1 4931:1 4932:1 4933:1 4934:1 4935:1 4936:1 4937:1 4938:1 4939:1 4940:1 4941:1 4942:1 4943:1 4944:1 4945:1 4946:1 4947:1 4948:1 4949:1 4950:1 4951:1 4952:1 
0 0.006867107920487213 24:1 25:3 30:1 45:3 46:5 47:1 67:6 89:1 90:1 119:1 466:1 1066:1 1098:1 1555:1 1561:1 1600:1 1601:1 2523:1 3197:1 3201:1 3589:1 3590:1 3609:1 3996:1 4161:1 4163:1 4242:1 4928:1 4929:1 4930:1 4931:1 4932:1 4933:1 4934:1 4935:1 4945:1 4947:1 4948:1 4953:1 4954:1 4955:1 4956:1 4957:1 4958:1 4959:1 4960:1 4961:1 4962:1 4963:1 4964:1 4965:1 4966:1 4967:1 4968:1 4969:1 4970:1 4971:1 
0.01984621702256463 0.007432732816376351 24:1 25:1 30:1 45:4 46:7 47:1 67:9 89:1 90:1 119:1 280:1 284:1 292:1 327:1 331:1 466:1 530:1 1066:1 1098:1 1600:1 1601:1 2235:1 2237:1 2523:1 3589:1 3590:1 3609:1 4161:1 4163:1 4928:1 4929:1 4930:1 4931:1 4932:1 4933:1 4934:1 4935:1 4945:1 4947:1 4948:1 4955:1 4958:1 4959:1 4962:1 4963:1 4964:1 4965:1 4966:1 4972:1 4973:1 4974:1 4975:1 4976:1 4977:1 4978:1 4979:1 
0.04073772488643185 0.01639157005185964 25:3 30:1 45:2 46:3 47:1 67:3 89:1 90:1 198:1 466:1 594:1 768:1 1096:1 1098:1 1555:1 1561:1 2410:1 3197:1 3201:1 3589:1 3590:1 3996:1 4145:1 4242:1 4656:1 4953:1 4954:1 4955:1 4956:1 4957:1 4958:1 4959:1 4960:1 4961:1 4962:1 4965:1 4966:1 4967:1 4968:1 4969:1 4970:1 4980:1 4981:1 4982:1 4983:1 4984:1 4985:1 4986:1 4987:1 4988:1 4989:1 4990:1 4991:1 4992:1 4993:1 
0.05 0.01630213559068984 25:1 30:1 45:3 46:5 47:1 67:6 89:1 90:1 198:1 280:1 284:1 292:1 327:1 331:1 466:1 530:1 594:1 768:1 1096:1 1098:1 2235:1 2237:1 2410:1 3589:1 3590:1 4145:1 4656:1 4955:1 4958:1 4959:1 4962:1 4965:1 4966:1 4972:1 4973:1 4974:1 4975:1 4976:1 4977:1 4978:1 4980:1 4981:1 4982:1 4983:1 4984:1 4985:1 4986:1 4987:1 4988:1 4989:1 4990:1 4991:1 4992:1 4994:1 
0.04674496831300589 0.01443988302263354 24:1 30:1 45:2 46:3 47:1 67:3 89:1 90:1 115:1 176:1 268:1 446:1 460:1 466:1 759:1 798:1 1098:1 2400:1 2474:1 2478:1 3160:1 4928:1 4929:1 4930:1 4931:1 4933:1 4936:1 4937:1 4938:1 4939:1 4940:1 4945:1 4947:1 4949:1 4950:1 4951:1 4995:1 4996:1 4997:1 4998:1 5005:1 5018:1 5019:1 5021:1 5023:1 5024:1 5025:1 5026:1 5027:1 5028:1 
0.0207923881103968 0 24:2 25:3 29:1 30:1 31:1 45:3 46:5 47:1 67:6 119:1 176:1 198:2 213:1 390:1 435:1 466:2 569:1 577:1 759:1 949:1 961:1 1600:1 1601:1 1602:1 1604:1 2523:1 2732:1 3197:1 3201:1 3609:1 3996:1 4242:1 4530:1 4911:1 4920:1 4970:1 5029:1 5030:1 5031:1 5032:1 5033:1 5034:1 5035:1 5037:1 5039:1 5044:1 5049:1 5050:1 5052:1 5053:1 5055:1 5056:1 5057:1 5058:1 5059:1 5060:1 5061:1 5062:1 5063:1 5064:1 
0.02405181874717108 0 24:2 25:2 29:1 30:1 31:1 45:3 46:5 47:1 67:6 119:1 176:1 198:2 213:1 310:1 435:1 466:2 577:1 759:1 1600:1 1601:1 1602:1 1604:1 2523:1 2732:1 3197:1 3201:1 3501:1 3609:1 3996:1 4242:1 4530:1 4911:1 4920:1 4970:1 5029:1 5030:1 5031:1 5032:1 5033:1 5034:1 5035:1 5037:1 5039:1 5044:1 5049:1 5052:1 5053:1 5055:1 5056:1 5057:1 5058:1 5059:1 5060:1 5061:1 5065:1 5066:1 5067:1 
0.05 0 24:1 25:1 30:1 40:1 43:1 44:1 45:4.5 46:8 47:1 67:11 115:1 119:1 138:1 139:1 210:1 212:1 258:1 292:1 413:1 615:1 618:1 794:1 855:1 1142:1 1478:1 2514:1 2586:1 2663:1 2679:1 3008:1 3009:1 4229:1 4240:1 5123:1 5126:1 5172:1 5173:1 5174:1 5175:1 5176:1 5177:1 5245:1 5246:1 5247:1 5248:1 5249:1 5250:1 5251:1 5252:1 5253:1 5254:1 5255:1 5256:1 5257:1 5258:1 5259:1 5260:1 5261:1 
0.01248469577693158 0.00513638715363408 24:1 25:1 30:1 40:1 43:1 44:1 45:5.5 46:8 47:3 67:9 115:1 138:1 139:1 258:1 413:1 641:1 681:1 682:1 683:1 685:1 686:1 794:1 855:1 1142:1 1478:1 2142:1 2514:1 2663:1 2679:1 3026:1 4229:1 4240:1 5123:1 5126:1 5173:1 5174:1 5175:1 5176:1 5177:1 5249:1 5250:1 5251:1 5258:1 5259:1 5260:1 5304:1 5305:1 5306:1 5307:1 5308:1 5309:1 5310:1 5311:1 5312:1 5313:1 
0.01873463658249501 0 22:1 23:1 24:2 25:1 30:1 32:1 34:1 38:1 40:1 43:1 45:2 46:2 47:2 97:1 99:1 115:1 123:1 138:1 139:1 190:1 198:1 212:1 706:1 784:1 785:1 794:1 1263:1 2663:1 2906:1 3009:1 3407:1 5053:1 5167:1 5168:1 5169:1 5170:1 5180:1 5181:1 5182:1 5364:1 5365:1 5374:1 5375:1 5376:1 5377:1 5378:1 5379:1 5380:1 5381:1 
0.03106885670286147 0 2:1 4:1 12:1 13:1 14:1 15:1 22:1 23:1 24:2 25:1 29:1 30:1 31:1 32:1 40:1 43:1 44:1 45:1.5 46:2 47:1 133:1 611:1 614:1 1071:1 1601:1 1604:1 2523:1 2898:1 3272:1 3277:1 3278:1 5493:1 5494:1 5495:1 5512:1 5513:1 5514:1 5515:1 5550:1 5551:1 5552:1 5553:1 5554:1 5555:1 5556:1 5557:1 5558:1 5559:1 5560:1 
0.008008297919809566 0 22:1 23:1 24:1 25:1 29:1 30:1 31:1 32:1 34:1 37:1 38:1 40:1 43:1 44:1 45:1 46:1 47:1 146:1 673:1 675:1 1096:1 2035:1 2080:1 4209:1 5475:1 5518:1 5520:1 5523:1 5538:1 5542:1 5543:1 5544:1 5545:1 5547:1 5561:1 5563:1 5564:1 5565:1 5578:1 5579:1 5580:1 5581:1 5582:1 5583:1 5584:1 5585:1 5586:1 5587:1 5588:1 5589:1 
0.004669929799801107 0 22:1 23:1 24:2 25:1 29:1 30:1 31:1 32:1 34:1 37:1 38:1 40:1 43:1 44:1 45:1.5 46:2 47:1 673:1 675:1 895:1 896:1 904:1 910:1 911:1 4209:1 5475:1 5518:1 5520:1 5522:1 5523:1 5542:1 5543:1 5544:1 5545:1 5546:1 5547:1 5548:1 5579:1 5581:1 5583:1 5584:1 5585:1 5586:1 5587:1 5588:1 5602:1 5603:1 5604:1 5605:1 
0.02530454851965514 0.0004744814639145342 22:1 23:1 24:3 25:2 29:1 30:1 31:1 32:1 34:1 37:1 40:1 43:1 45:1 46:1 47:1 103:1 146:1 194:1 856:1 1092:1 1096:1 1098:1 1293:1 1361:1 1555:1 1561:1 1698:1 1732:1 1767:1 1869:1 2964:1 3084:1 3435:1 3533:1 3534:1 4488:1 5418:1 5613:1 5615:1 5616:1 5617:1 5620:1 5621:1 5622:1 5776:1 5777:1 5778:1 5779:1 5780:1 5781:1 5782:1 5783:1 5784:1 5785:1 5786:1 5787:1 5788:1 5789:1 5790:1 5791:1 5792:1 
0.05 0.001223145695852304 22:1 23:1 24:3 25:1 29:1 30:1 31:1 32:1 34:1 37:1 40:1 43:1 45:1 46:1 47:1 103:1 146:1 194:1 390:1 856:1 1092:1 1096:1 1098:1 1293:1 1361:1 1698:1 1732:1 1767:1 1869:1 2964:1 3084:1 3435:1 3522:1 4488:1 5418:1 5612:1 5613:1 5614:1 5615:1 5616:1 5617:1 5618:1 5620:1 5621:1 5622:1 5776:1 5777:1 5778:1 5779:1 5780:1 5781:1 5782:1 5783:1 5784:1 5785:1 5790:1 5791:1 5792:1 
0.03800553476745999 0.01131691976063884 30:1 45:2.5 46:4 47:1 67:7 138:1 139:1 176:1 292:1 569:1 577:1 823:1 860:1 1097:1 1098:1 2007:1 2447:1 5862:1 6316:1 6327:1 6329:1 6342:1 6343:1 6344:1 6345:1 6346:1 6347:1 6348:1 6349:1 6350:1 6351:1 6353:1 6354:1 6355:1 6356:1 6357:1 6358:1 6359:1 6360:1 6362:1 6363:1 6364:1 6365:1 6366:1 6367:1 6368:1 6369:1 6370:1 6371:1 6372:1 6373:1 6374:1 6375:1 6376:1 6377:1 6378:1 
0.00764288806813134 0 22:1 23:1 24:4 25:1 29:1 30:1 31:1 32:1 40:1 43:1 44:1 45:1.5 46:2 47:1 427:1 617:1 770:1 785:1 792:1 794:1 838:1 856:2 868:1 1967:2 2471:1 2474:1 2478:1 2663:1 2675:1 3082:1 3117:1 3440:1 3582:1 3583:1 3628:1 3693:1 3694:1 3695:1 4370:1 4421:1 5164:1 6379:1 6380:1 6381:1 6382:1 6383:1 6384:1 6385:1 6386:1 6387:1 6388:1 6389:1 6390:1 6391:1 
0.05 0.00405691331451867 3:1 5:1 9:1 24:1 25:1 29:1 30:1 31:1 40:1 43:1 44:1 45:2 46:3 47:1 59:1 61:1 67:3 130:1 176:1 198:1 577:1 594:1 598:1 745:1 792:1 794:1 970:1 1113:1 2663:1 2675:1 4840:1 5454:1 5723:1 5724:1 5751:1 6403:1 6404:1 6405:1 6406:1 6407:1 6409:1 6410:1 6425:1 6426:1 6427:1 6428:1 6429:1 6430:1 6431:1 6432:1 6433:1 
0.0001092873179154219 0.001097957857355222 2:1 4:1 7:1 8:1 12:1 13:1 14:1 15:1 17:1 18:1 22:1 23:1 24:2 25:1 26:1 30:1 32:1 40:1 43:1 44:1 45:1.5 46:2 47:1 138:1 139:1 234:1 774:1 1092:1 2321:1 3117:1 3435:1 3440:1 3444:1 3693:1 3694:1 6525:1 6526:1 6527:1 6528:1 6529:1 6530:1 6531:1 6532:1 6533:1 6534:1 6535:1 6536:1 
0.001761126878570001 0 22:1 23:1 24:5 30:1 32:1 34:1 38:1 40:1 43:1 45:2 46:3 47:1 115:1 123:1 138:1 139:1 198:1 706:1 1083:1 1092:1 1904:1 3435:1 5472:1 6541:1 6549:1 6555:1 6582:1 6583:1 6584:1 6585:1 6586:1 6587:1 6588:1 6589:1 6590:1 6591:1 6592:1 6593:1 6594:1 6595:1 6596:1 6598:1 6599:1 6600:1 6601:1 6602:1 6603:1 6604:1 6605:1 6606:1 6607:1 6608:1 6609:1 
0.00237581045807741 0.001245104906833957 22:1 23:1 24:2 25:1 29:1 30:1 31:1 32:1 40:1 43:1 44:1 45:1.5 46:2 47:1 103:1 194:1 1205:1 1209:1 1546:1 6541:1 6546:1 6548:1 6556:1 6583:1 6611:1 6612:1 6613:1 6614:1 6615:1 6616:1 6617:1 6618:1 6619:1 6620:1 6621:1 6622:1 6623:1 6624:1 6625:1 6626:1 6627:1 6628:1 6629:1 6630:1 6631:1 6632:1 6633:1 
0.01070147505218238 0.001979089873876529 24:1 25:2 29:1 30:1 31:1 45:2.5 46:4 47:1 67:5 176:1 198:1 251:1 268:1 446:1 613:1 798:1 1098:1 1600:1 1601:1 1602:1 1604:1 2400:1 2523:1 2676:1 2679:1 2711:1 2896:1 3083:1 3090:1 3091:1 3096:1 4222:1 4223:1 4652:1 4653:1 5002:1 6429:1 6555:1 6556:1 6665:1 6666:1 6667:1 6668:1 6669:1 6670:1 6671:1 6672:1 6673:1 6674:1 6675:1 6676:1 6677:1 6678:1 6679:1 6680:1 6681:1 6682:1 6683:1 6684:1 
0.008567919398588862 0.00740545014649781 22:1 23:1 24:2 25:1 29:1 30:1 31:1 32:1 34:1 37:1 38:1 40:1 43:1 44:1 45:1.5 46:2 47:1 54:1 150:1 176:1 3792:1 5418:1 5586:1 6820:1 6821:1 6822:1 6823:1 6824:1 6825:1 6826:1 6827:1 6828:1 6829:1 6830:1 6831:1 6832:1 6833:1 6834:1 6835:1 6836:1 6837:1 6838:1 6839:1 6840:1 6841:1 6842:1 6843:1 6844:1 
0.01484510320991471 0.007152319758351158 9:1 20:1 22:1 23:1 24:2 25:1 30:1 32:1 40:1 43:1 44:1 45:1.5 46:2 47:1 54:1 135:1 150:1 1205:1 1209:1 1664:1 1675:1 1701:1 3836:1 3837:1 3838:1 3839:1 3913:1 3915:1 3919:1 6659:1 6913:1 6923:1 6941:1 6942:1 6943:1 6944:1 6948:1 6949:1 6950:1 6962:1 6963:1 6964:1 6965:1 6966:1 6967:1 6968:1 
0.04374682585530656 0.01961448539554045 24:1 25:1 29:1 45:4.5 46:7 47:2 67:7 224:1 236:1 268:1 272:1 297:1 413:1 418:1 419:1 421:1 466:1 509:1 823:1 1245:1 1247:1 1600:1 1601:1 1602:1 1604:1 2155:1 2523:1 3232:1 3662:1 3666:1 3995:1 3996:1 4242:1 4411:1 4571:1 4653:1 5116:1 5127:1 7080:1 7081:1 7082:1 7083:1 7084:1 7085:1 7086:1 7089:1 7091:1 7092:1 7125:1 7126:1 7127:1 7128:1 7129:2 7130:1 7131:1 7132:1 7133:2 7134:1 7135:1 7136:1 7137:1 7138:1 
0.013837326226013 0.00195411303491081 22:1 23:1 24:1 29:1 30:1 31:1 32:1 40:1 43:1 45:1.5 46:2 47:1 115:1 123:1 167:1 198:1 577:1 593:1 594:1 598:1 745:1 3133:1 3140:1 3600:1 3973:1 6202:1 7094:1 7095:1 7096:1 7097:1 7098:1 7099:1 7100:1 7101:1 7107:1 7108:1 7109:1 7110:1 7139:1 7140:1 7141:1 7142:1 7143:1 7144:1 7145:1 7146:1 7147:1 7148:1 7149:1 7150:1 
0.05 0.016299212413545 24:2 25:1 29:1 45:2.5 46:4 47:1 67:2 115:2 198:1 268:1 272:1 297:1 421:1 435:1 466:1 509:1 759:1 1600:1 1601:1 1602:1 1604:1 1999:1 2523:1 3996:1 4145:1 4242:1 4911:1 4918:1 4920:1 4924:1 7162:1 7163:1 7164:1 7165:1 7166:1 7167:1 7168:1 7169:1 7170:1 7171:1 7172:1 7173:1 7174:1 7175:1 7176:1 7177:1 7178:1 7179:1 7180:1 7181:1 7182:1 7183:1 
0.01919037256358135 0 22:1 23:1 24:2 25:1 29:1 30:1 31:1 32:1 40:1 43:1 45:1.5 46:2 47:1 115:1 123:1 198:1 213:1 223:1 243:1 244:1 496:1 497:1 919:1 1205:1 1209:1 1387:1 1546:1 1714:1 1898:1 4209:1 4728:1 4803:1 4804:1 4805:1 4806:1 5475:1 6737:1 7220:1 7221:1 7222:1 7223:1 7224:1 7225:1 7226:1 7227:1 7228:1 7229:1 7230:1 7231:1 
0.02720313722390209 0 24:1 25:2 30:1 40:1 43:1 45:5 46:8 47:2 67:5 115:2 119:2 123:1 138:1 139:1 141:1 144:1 145:1 167:1 176:1 213:1 259:1 434:1 480:1 483:1 485:1 486:1 501:1 504:1 505:1 577:1 1831:1 2169:1 2839:1 4229:1 4240:1 4493:1 7248:1 7249:1 7250:1 7251:1 7252:1 7253:1 7254:1 7255:1 7256:1 7257:1 7258:1 7259:1 7260:1 7261:1 7262:1 7263:1 7264:1 7265:1 7266:1 7267:1 7268:1 7269:1 7270:1 7271:1 
0.02780097452190592 0.01966221602644362 24:1 25:2 30:1 40:1 43:1 45:3.5 46:6 47:1 67:3 115:2 119:1 123:1 138:1 139:1 167:1 176:1 434:1 480:1 483:1 485:1 486:1 577:1 593:1 594:1 595:1 597:1 598:1 1107:1 2099:1 2103:1 2169:1 2184:1 2187:1 3116:1 3117:1 3444:1 4229:1 4240:1 4493:1 7255:1 7256:1 7257:1 7258:1 7259:1 7260:1 7261:1 7262:1 7268:1 7269:1 7270:1 7272:1 7273:1 7274:1 7275:1 7276:1 7277:1 7278:1 7279:1 7280:1 
0.01097240775997273 0 25:2 30:1 40:1 43:1 45:2.5 46:4 47:1 67:1 115:2 123:1 138:1 139:1 167:1 176:1 480:1 483:1 485:1 486:1 539:1 577:1 1155:1 1158:1 2158:1 2169:1 2633:1 2642:1 3410:1 4229:1 4240:1 4463:1 4493:1 6188:1 7255:1 7256:1 7257:1 7258:1 7259:1 7260:1 7261:1 7268:1 7269:1 7270:1 7294:1 7295:1 7296:1 7297:1 7298:1 7299:1 7300:1 7301:1 7302:1 7303:1 7304:1 7305:1 7306:1 
0.005988232883246325 0.001413420807462413 22:1 23:1 24:4 25:1 29:1 30:1 31:1 32:1 40:1 43:1 45:1.5 46:2 47:1 115:1 123:1 198:5 212:1 785:1 794:1 838:1 856:1 1689:1 1732:1 2586:1 2620:1 2621:1 2625:1 2663:1 3009:1 3084:1 3095:1 3334:1 4285:1 4707:1 4709:1 4717:1 7370:1 7371:1 7372:1 7373:1 7374:1 7375:1 7376:1 7377:1 7378:1 7379:1 7380:1 7381:1 7382:1 7383:1 7384:1 7385:1 7386:1 7387:1 7388:1 7389:1 7390:1 7391:1 7392:1 7393:1 7394:1 
0.003962531678883966 0 3:1 5:1 9:1 19:1 20:1 22:1 23:1 24:1 29:1 30:1 31:1 32:1 39:1 40:1 41:1 43:1 45:1.5 46:2 47:1 115:1 123:1 198:2 388:1 594:1 598:1 610:1 612:1 613:1 733:1 742:1 743:1 745:1 2462:1 3995:1 5437:1 7151:1 7154:1 7454:1 7455:1 7456:1 7457:1 7458:1 7459:1 7460:1 7461:1 7462:1 7463:1 
0.05 0.01298462937867998 9:1 24:1 25:1 26:1 29:1 30:1 31:1 40:1 43:1 44:1 45:1.5 46:2 47:1 59:1 61:1 67:2 164:1 423:1 424:1 425:1 426:1 521:1 523:1 635:1 636:1 637:1 638:1 1666:1 1667:1 2544:1 3285:1 3427:1 3429:1 5524:1 7438:1 7439:1 7489:1 7490:1 7491:1 7492:1 7493:1 7494:1 7495:1 7496:1 7497:1 7498:1 7499:1 
0.01102210054710622 0 22:1 23:1 24:1 25:1 26:1 30:1 32:1 138:1 139:1 167:1 181:1 185:1 213:1 785:1 792:1 794:1 919:1 1096:1 1443:1 1491:1 2663:1 2675:1 3082:1 3133:1 3446:1 4209:1 5475:1 7594:1 7595:1 7596:1 7597:1 7598:1 7599:1 7600:1 7601:1 7602:1 7603:1 7604:1 7605:1 7606:1 
0.01292906438593321 0.0031410066273507 22:1 23:1 24:1 25:1 29:1 30:1 31:1 32:1 45:1 46:1 47:1 115:1 146:1 198:1 1096:1 5514:1 6555:1 7618:1 7620:1 7621:1 7623:1 7624:1 7625:1 7641:1 7642:1 7643:1 7645:1 7646:1 7647:1 7648:1 7650:1 7652:1 7654:1 7655:1 7656:1 7657:1 7658:1 7659:1 7660:1 7661:1 7662:1 7663:1 7664:1 7665:1 7666:1 7667:1 7668:1 7669:1 7670:1 7671:1 7672:1 7673:1 7674:1 7675:1 
0.0007615049618231204 0 22:1 23:1 24:1 29:1 30:1 31:1 32:1 40:1 43:1 45:1.5 46:2 47:1 115:1 123:1 198:1 5514:1 7625:1 7641:1 7642:1 7643:1 7645:1 7646:1 7657:1 7670:1 7671:1 7673:1 7698:1 7699:1 7700:1 7701:1 7702:1 7703:1 7704:1 7705:1 7706:1 7707:1 7708:1 7709:1 7710:1 7711:1 7712:1 7713:1 7714:1 7715:1 7716:1 7717:1 7718:1 7719:1 
0.01164767282064432 0 22:1 23:1 29:1 30:1 31:1 32:1 45:1.5 46:2 47:1 115:1 181:1 198:1 403:1 594:1 733:1 740:1 742:1 743:1 745:1 1096:1 1229:1 1491:1 2410:1 5514:1 5561:1 5563:1 5580:1 5582:1 7657:1 7671:1 7727:1 7729:1 7731:1 7732:1 7742:1 7743:1 7744:1 7745:1 7746:1 7747:1 7748:1 7749:1 7750:1 7751:1 7752:1 7753:1 7754:1 7755:1 7756:1 7757:1 
0.02317765992828582 0.005706979867688505 9:1 20:1 22:1 23:1 24:2 25:1 26:1 30:1 32:1 40:1 43:1 44:1 45:1.5 46:2 47:1 49:1 50:1 51:1 52:1 129:1 148:1 176:1 1205:1 1209:1 1264:1 1664:1 1675:1 1694:1 1701:1 2198:1 3741:1 4497:1 6942:1 6948:1 6949:1 6963:1 6964:1 8110:1 8124:1 8125:1 8126:1 8127:1 8128:1 8129:1 8130:1 8131:1 8132:1 
0.007678219690283609 0.003924228216956257 8:1 9:1 18:1 22:1 23:1 24:2 25:1 30:1 32:1 45:1 46:1 47:1 146:1 970:1 1066:1 1071:1 1239:1 1664:1 1675:1 1732:1 1960:1 1967:1 2620:1 2621:1 2625:1 2639:1 2699:1 2897:1 3084:1 8293:1 8294:1 8295:1 8296:1 8297:1 8298:1 8299:1 8300:1 8301:1 8302:1 8303:1 8304:1 8305:1 8306:1 8307:1 8308:1 8309:1 8310:1 8311:1 8312:1 
0.01071731234109833 0 6:1 9:1 16:1 20:1 22:1 23:1 24:2 30:1 32:1 34:1 38:1 40:1 43:1 45:1.5 46:2 47:1 115:1 123:1 176:1 198:1 1425:1 1664:1 1675:1 1868:1 1897:1 1904:1 1963:1 2198:1 2630:1 2645:1 7534:1 7535:1 7540:1 7541:1 7542:1 7543:1 7546:1 7555:1 7556:1 8361:1 8362:1 8364:1 8365:1 8366:1 8367:1 8368:1 8369:1 8370:1 8371:1 8372:1 
0.03126994571297174 0.001734258219392301 22:1 23:1 24:1 25:1 30:1 32:1 45:1 46:1 47:1 146:1 327:1 331:1 682:1 686:1 970:1 1066:1 1096:1 1369:1 1374:1 1664:1 1675:1 1714:1 1811:1 1814:1 1880:1 1882:1 2221:1 2237:1 2507:1 2508:1 2509:1 2510:1 3577:1 4340:1 6737:1 6747:1 6816:1 8076:1 8505:1 8512:1 8514:1 8515:1 8516:1 8824:1 8877:1 8890:1 8891:1 8892:1 8893:1 8894:1 
0.01547562542771347 0.02770948989038435 24:1 25:1 30:1 45:7 46:10 47:4 67:4 168:1 198:1 268:1 272:1 346:1 351:1 403:1 407:1 413:1 414:1 418:1 444:1 446:1 671:1 681:1 682:1 686:1 1167:1 1179:1 1664:1 1675:1 1725:1 1882:1 2159:1 2528:1 2529:1 2530:1 2531:1 3030:1 3459:1 4933:1 4945:1 4947:1 6370:1 8556:1 8557:1 8670:1 8671:1 8672:1 8674:1 8675:1 8936:1 8937:1 8938:1 8939:1 8940:1 8941:1 8942:1 8943:1 8944:1 8945:1 8946:1 8947:1 8948:1 8949:1 8950:1 
0.02695170163768592 0 8:1 18:1 22:1 23:1 24:2 25:1 26:1 30:1 32:1 181:1 185:1 198:4 856:1 1096:2 1381:1 1383:1 1491:1 1616:1 1617:1 1664:1 1675:1 1691:1 1698:2 1732:1 1767:1 1891:1 1893:1 1897:2 1898:1 1904:2 1947:1 2385:1 3084:1 3133:1 3792:1 3823:1 4488:1 6184:1 6185:1 7481:1 8982:1 8983:1 8984:1 8985:2 8986:1 8987:1 8988:1 8989:1 8996:1 8997:1 8999:2 9000:1 9003:1 9004:1 9005:1 9006:1 
0.002629552983675339 0 8:1 9:1 18:1 22:1 23:1 24:1 25:1 26:1 29:1 30:1 31:1 32:1 45:2.5 46:3 47:2 181:1 185:1 198:4 594:1 745:1 1096:1 1381:1 1383:1 1491:1 1616:1 1617:1 1698:1 1732:1 1767:1 1891:1 1893:1 1897:1 1898:1 1903:1 1904:1 2385:1 3084:1 3792:1 5910:1 5974:1 6283:1 7481:1 8983:1 8984:1 8985:2 8986:1 8987:1 8988:1 8996:1 8997:1 8999:2 9000:1 9003:1 9004:1 9005:1 9006:1 9007:1 9008:1 9009:1 9010:1 9011:1 
0 0.002912222359505522 8:1 18:1 22:1 23:1 24:1 25:1 26:1 29:1 30:1 31:1 32:1 45:2.5 46:3 47:2 181:1 185:1 198:3 594:1 615:1 745:1 1096:1 1381:1 1383:1 1491:1 1616:1 1617:1 1732:1 1891:1 1893:1 1897:1 1898:1 1904:1 2385:1 3084:1 3792:1 3954:1 5910:1 5974:1 7481:1 8983:1 8984:1 8985:1 8986:1 8988:1 8996:1 8997:1 8999:1 9000:1 9003:1 9004:1 9005:1 9006:1 9009:1 9010:1 9011:1 9012:1 9013:1 9014:1 
0.01110306249066343 0 8:1 18:1 22:1 23:1 24:1 29:1 30:1 31:1 32:1 1096:1 1098:1 1239:1 1419:1 1421:1 1581:1 1582:1 1583:1 1732:1 1957:1 1959:1 1960:1 1961:1 1967:1 1972:1 2897:1 3084:1 3133:1 3446:1 5835:1 6191:1 7521:1 9029:1 9030:1 9031:1 
0.001243543712368568 0.01355357559105427 22:1 23:1 24:4 25:1 30:1 32:1 34:1 38:1 40:1 43:1 44:1 45:1 46:1 47:1 115:1 138:1 139:1 146:1 198:1 310:1 706:1 949:1 961:1 998:1 1082:1 1083:1 1096:1 1732:1 1897:4 1904:4 3084:1 3095:2 4847:1 5472:1 6541:1 6542:1 6546:1 6548:1 6551:1 6555:1 6556:1 6583:1 6586:1 6588:1 6589:1 6592:1 6593:1 6594:1 6595:1 9119:1 9120:1 9121:1 9122:1 9123:1 9124:1 9125:1 9126:1 9127:1 9128:1 9129:1 9130:1 9131:1 9132:1 9133:1 
0.02807698417527131 0 22:1 23:1 24:1 29:1 30:1 31:1 32:1 40:1 43:1 45:1.5 46:2 47:1 115:1 123:1 198:1 561:1 562:1 563:1 564:1 567:1 578:1 579:1 580:1 682:1 686:1 724:1 1283:1 1728:1 1814:1 1815:1 2198:1 3585:1 6687:1 6690:1 9240:1 9241:1 9246:1 9251:1 9252:1 9254:1 9255:1 9256:1 9257:1 9258:1 9259:1 9260:1 9261:1 
0.01482066386091746 0.005608686955112858 22:1 23:1 24:2 30:1 45:2 46:2 47:2 115:1 138:1 139:1 181:1 194:1 201:1 521:1 527:1 1205:1 1209:1 1229:1 1491:1 1698:1 2234:1 3770:1 3776:1 3851:1 3852:1 3919:1 4713:1 4724:1 5595:1 9337:1 9338:1 9339:1 9340:1 9341:1 9342:1 9343:1 9344:1 9345:1 9346:1 9347:1 9348:1 9349:1 9350:1 9351:1 9352:1 9353:1 9354:1 9355:1 9356:1 9357:1 
0.008617027367664691 0 22:1 23:1 24:3 25:1 30:1 32:1 45:2 46:2 47:2 97:1 99:1 115:3 138:1 139:1 181:1 190:1 198:4 856:1 1205:1 1229:1 1491:1 1967:1 2234:1 2544:1 2721:1 3628:1 3686:1 3690:1 3691:1 3996:1 4141:1 4144:1 4189:1 4208:1 4214:1 4216:1 4218:1 4247:1 4282:1 5109:1 7333:1 9388:1 9436:1 9437:1 9438:1 9439:1 9440:1 9441:1 9442:1 9443:1 9444:1 9445:1 9446:1 9447:1 9448:1 9449:1 9450:1 9451:1 9452:1 9453:1 9454:1 
0 0.001435498664592422 22:1 23:1 24:1 25:1 26:1 29:1 30:1 31:1 32:1 97:1 99:1 115:2 188:1 190:1 198:3 759:1 1341:1 1342:1 2438:1 2544:1 3216:1 3217:1 4062:1 4063:1 4144:1 4153:1 4189:1 4214:1 4498:1 4543:1 4550:1 4553:1 4554:1 4555:1 9418:1 9424:1 9473:1 9474:1 9475:1 9476:1 9477:1 9478:1 9479:1 9480:1 9481:1 
0.03583163743340967 0 22:1 23:1 24:2 29:1 30:1 31:1 32:1 45:3 46:5 47:1 115:3 176:1 198:7 268:1 446:1 798:1 856:1 1096:1 1098:1 1179:1 1555:1 1561:1 1600:1 1601:1 1602:1 1604:1 1698:1 1767:1 1967:2 2400:1 2523:1 3096:2 3133:1 3628:2 3996:1 4056:1 4061:1 4068:1 4072:1 4116:1 4142:1 4144:1 4145:1 4146:1 4205:1 4207:1 4208:2 4216:1 4281:1 4282:1 9388:1 9410:1 9482:1 9483:1 9484:1 9485:1 9486:1 9487:1 9488:1 9489:1 9495:1 9497:1 9498:1 9499:1 9500:1 9501:1 9502:1 9503:1 9504:1 9505:1 9506:1 9507:1 
0.05 0 22:1 23:1 24:2 29:1 30:1 31:1 32:1 45:4.5 46:8 47:1 115:2 176:1 198:7 280:1 327:1 530:1 798:1 856:1 1096:1 1098:1 1179:1 1600:1 1601:1 1602:1 1604:1 1698:1 1767:1 1967:2 2235:1 2237:1 2523:1 3096:2 3133:1 3628:2 4006:1 4056:1 4061:1 4068:1 4072:1 4116:1 4142:1 4144:1 4145:1 4146:1 4205:1 4207:1 4208:2 4216:1 4281:1 4282:1 4581:1 9388:1 9410:1 9482:1 9483:1 9484:1 9485:1 9486:1 9487:1 9488:1 9489:1 9495:1 9502:1 9503:1 9508:1 9509:1 9510:1 9511:1 9512:1 
0.0235438959713506 0 22:1 23:1 24:2 25:1 29:1 30:1 31:1 32:1 45:2 46:3 47:1 115:4 198:4 404:1 734:1 1600:1 1601:1 1602:1 1604:1 1967:1 2523:1 3096:1 3197:1 3201:1 3628:1 3996:1 4116:1 4141:1 4142:1 4144:1 4145:1 4146:1 4189:1 4205:1 4207:1 4208:1 4214:1 4215:1 4216:1 4217:1 4229:1 4970:1 7033:1 7034:1 9403:1 9406:1 9410:1 9483:1 9487:1 9490:1 9491:1 9492:1 9493:1 9494:1 9495:1 9496:1 9513:1 9514:1 9515:1 
0.01369178835437902 0.00810047198827416 22:1 23:1 24:1 29:1 30:1 31:1 32:1 115:2 176:1 198:4 789:1 860:1 889:1 1096:1 1098:1 1180:1 2544:1 2884:1 4061:1 4063:1 4068:1 4072:1 4207:1 4213:1 4215:1 4246:1 4485:1 4493:1 4498:1 4529:1 4550:1 4811:1 4828:1 6359:1 6360:1 9540:1 9541:1 9542:1 9543:1 9544:1 9545:1 9546:1 9547:1 9548:1 9549:1 9550:1 9551:1 
0.009570292542184181 0 22:1 23:1 24:1 30:1 32:1 40:1 43:1 45:1.5 46:2 47:1 115:3 123:1 138:1 139:1 198:3 594:1 597:1 598:1 615:1 742:1 1113:1 2017:1 4832:1 7387:1 9483:1 9492:1 9581:1 9583:1 9584:1 9586:1 9587:1 9588:1 9604:1 9605:1 9606:1 9607:1 9608:1 9609:1 9610:1 9611:1 9612:1 9613:1 9614:1 9615:1 9616:1 9617:1 9618:1 9619:1 9620:1 9621:1 
0.03450909935822634 0 22:1 23:1 24:1 30:1 32:1 45:1.5 46:2 47:1 115:1 138:1 139:1 176:1 181:1 198:3 569:1 577:1 594:1 597:1 1096:1 1103:1 1108:1 1109:1 1110:1 1111:1 1229:1 1491:1 2410:1 2642:1 2990:1 3133:1 3410:1 3973:1 4868:1 9727:1 9728:1 9729:1 9730:1 9731:1 9737:1 9738:1 9739:1 9740:1 9741:1 9742:1 9743:1 9744:1 9745:1 9746:1 9747:1 9748:1 9749:1 9750:1 
0.041607796192361 0.00106062682625594 8:1 24:1 25:1 30:1 45:3 46:4 47:2 67:9 115:1 138:1 139:1 176:1 413:1 466:2 577:1 868:1 880:1 881:1 883:1 884:1 885:1 887:1 888:1 1342:1 1725:1 2158:1 2159:1 2160:1 3216:1 3217:1 3996:1 4159:1 4189:1 4214:1 4242:1 5202:1 5357:1 5358:1 7154:1 7980:1 9795:1 9796:1 9797:1 9798:1 9799:1 9800:1 9801:1 9802:1 9803:1 9804:1 9805:1 9806:1 9807:1 9808:1 9809:1 9810:1 9811:1 9812:1 9813:1 9814:1 9815:1 9816:1 
0.02728739183117859 0 24:1 25:1 26:1 30:1 67:7 138:1 139:1 176:1 268:1 272:1 292:1 434:1 446:1 451:1 466:1 615:1 618:1 1180:1 1831:1 2544:1 2679:1 3232:2 3996:1 4063:1 4218:1 4222:1 4223:1 4242:1 6370:1 9711:1 9713:1 9714:1 9715:1 9716:1 9721:1 9722:1 9726:1 9839:1 9840:1 9841:1 9842:1 9843:1 9849:1 9850:1 9851:1 9857:1 9858:1 9859:1 9860:1 9861:1 
0.03813741967960241 0 24:1 25:1 26:1 30:1 67:10 115:3 119:2 138:1 139:1 176:1 292:1 327:1 331:1 434:1 466:2 615:1 618:1 798:1 1180:1 1831:1 2237:1 2544:1 2679:1 3232:2 3996:1 4063:1 4189:1 4214:1 4216:1 4229:1 4240:1 4242:1 6370:1 9388:1 9687:1 9711:1 9713:1 9714:1 9715:1 9716:1 9733:1 9839:1 9840:1 9841:1 9842:1 9843:1 9851:1 9860:1 9861:1 9862:1 9863:1 9864:1 9865:1 9866:1 9867:1 9868:1 9869:1 
0.05 0.0006029154574269726 22:1 23:1 24:3 25:1 30:1 32:1 45:2.5 46:4 47:1 115:3 138:1 139:1 176:1 198:3 327:1 331:1 671:1 798:1 856:1 1698:1 1967:2 2158:1 2237:1 2633:1 2642:1 2721:1 3133:1 3410:1 3628:2 3996:1 4141:1 4142:1 4144:1 4189:1 4208:1 4214:1 4216:1 4229:1 4240:1 4282:1 7302:1 7304:1 7305:1 9388:1 9421:1 9687:1 9862:1 9863:1 9864:1 9865:1 9867:1 9868:1 9869:1 9870:1 9871:1 9872:1 9873:1 9874:1 9875:1 9876:1 9877:1 9878:1 9880:1 
0.01840049103658184 0 22:1 23:1 24:2 25:1 30:1 32:1 45:2 46:3 47:1 138:1 139:1 176:1 268:1 272:1 446:1 451:1 671:1 759:1 856:1 1967:1 2158:1 2633:1 2642:1 2721:1 3410:1 3628:1 3996:1 4218:1 4222:1 4223:1 7302:1 7304:1 7305:1 9721:1 9722:1 9726:1 9849:1 9850:1 9857:1 9858:1 9859:1 9871:1 9872:1 9873:1 9874:1 9876:1 9878:1 9879:1 9881:1 9882:1 9883:1 9884:1 
0.03165694033552138 0 22:1 23:1 24:2 25:1 30:1 32:1 40:1 43:1 45:2 46:3 47:1 115:3 123:1 138:1 139:1 167:1 176:1 198:3 1443:1 1967:1 2158:1 2169:1 2447:1 2633:1 2642:1 3133:1 3410:1 3446:1 3628:1 3996:1 4112:1 4116:1 4142:1 4144:1 4189:1 4208:1 4214:1 4216:1 4229:1 4240:1 4282:1 7302:1 7304:1 7305:1 9388:1 9862:1 9893:1 9894:1 9901:1 9908:1 9909:1 9910:1 9912:1 9913:1 9914:1 9915:1 9916:1 9918:1 9921:1 9926:1 
2.387754224848887e-05 0 22:1 23:1 24:2 25:1 29:1 30:1 31:1 32:1 40:1 43:1 45:1.5 46:2 47:1 115:3 123:1 141:1 145:1 167:1 176:1 198:3 1443:1 2169:1 2698:1 3133:1 3446:1 3996:1 4036:1 4112:1 4116:1 4140:1 4142:1 4144:1 4189:1 4208:1 4214:1 4216:1 4229:1 4240:1 4282:1 6663:1 9388:1 9862:1 9893:1 9894:1 9901:1 9908:1 9909:1 9910:1 9916:1 9918:1 9927:1 9928:1 9929:1 9930:1 9931:1 9932:1 
0.01334449167075154 0.004716215105266969 22:1 23:1 24:4 25:1 30:1 32:1 40:1 43:1 44:1 115:1 138:1 139:1 198:1 1238:1 1897:1 1904:1 3435:1 5199:1 5418:1 6539:1 6540:1 6541:1 6548:1 6560:1 6570:1 6571:1 6588:1 6589:1 6590:1 6620:1 7415:1 8457:1 9958:1 9959:1 9961:1 9962:1 9963:1 9964:1 9965:1 9966:1 9978:1 9979:1 9980:1 
0.006600288048601338 0 22:1 23:1 24:4 25:1 30:1 32:1 40:1 43:1 44:1 45:1.5 46:2 47:1 138:1 139:1 585:1 586:1 785:1 792:1 794:1 856:1 1096:1 1600:1 1601:1 1967:1 2523:1 2663:1 2675:1 2721:1 3082:1 3091:1 3133:1 3212:1 3628:1 4113:1 4120:1 4848:1 5105:1 5111:1 6682:1 7333:1 7595:1 7596:1 10049:1 10050:1 10051:1 10052:1 10053:1 10054:1 10055:1 10056:1 10057:1 10058:1 10059:1 10060:1 10061:1 
0 0.004869327161010243 8:1 18:1 22:1 23:1 24:2 26:1 29:1 30:1 31:1 32:1 40:1 43:1 45:1.5 46:2 47:1 115:1 123:1 198:1 578:1 579:1 1666:1 1667:1 1714:1 2038:1 2711:1 3285:1 3427:1 3429:1 6685:1 6686:1 6687:1 6688:1 6689:1 6690:1 6693:1 6694:1 6695:1 6696:1 6698:1 6699:1 6701:1 6702:1 9198:1 10115:1 10116:1 10117:1 10118:1 10119:1 
0.01138033912523714 0 24:1 25:1 30:1 45:2 46:2 47:2 67:2 110:1 115:1 138:1 139:1 326:1 327:1 331:1 547:1 682:1 685:1 686:1 721:1 1016:1 2237:1 3764:1 3766:1 3773:1 3774:1 3775:1 3784:1 3785:1 3786:1 3790:1 3791:1 3792:1 3799:1 3800:1 3801:1 3803:1 3804:1 3806:1 3807:1 3819:1 3820:1 3821:1 3824:1 3825:1 3826:1 3827:1 3828:1 3998:1 5332:1 5336:1 10134:1 10135:1 10137:1 10139:1 10151:1 
0.03370374644547993 0.009248600237023018 22:1 23:1 24:1 25:1 29:1 30:1 31:1 34:1 37:1 38:1 45:1.5 46:2 47:1 150:1 181:1 185:1 1491:1 2837:1 3234:1 3851:1 3852:1 4641:1 4642:1 4808:1 6914:1 10170:1 10171:1 10172:1 10173:1 10174:1 10183:1 10184:1 10185:1 10214:1 10222:1 10223:1 10224:1 10225:1 10226:1 10227:1 10228:1 10229:1 10230:1 10231:1 10232:1 10233:1 10234:1 
0 0.00157123825778262 24:1 25:1 30:1 40:1 43:1 44:1 45:2.5 46:4 47:1 61:1 67:5 119:1 138:1 139:1 310:1 393:1 413:1 466:1 758:1 759:1 761:1 762:1 1082:1 1113:1 1205:1 1209:1 1238:1 1241:1 2234:1 2574:1 3754:1 3764:1 3766:1 3972:1 3974:1 4002:1 4003:1 4004:1 4005:1 4010:1 9598:1 9733:1 10134:1 10135:1 10235:1 10238:1 10240:1 10241:1 10242:1 10245:1 10246:1 10247:1 10248:1 10249:1 10250:1 10251:1 10252:1 
0.02887155265853095 0 24:1 30:1 61:2 67:8 115:1 119:2 138:1 139:1 164:1 280:1 284:1 292:1 293:1 346:1 351:1 413:1 466:1 758:1 759:1 761:1 762:1 1082:1 1097:1 1098:1 1205:1 1209:1 2234:1 3754:1 3764:1 3766:1 3972:1 3974:1 3977:1 3978:1 3979:1 3980:1 3982:1 3983:1 3985:1 6343:1 6345:1 9598:1 9733:1 10134:1 10135:1 10235:1 10238:1 10240:1 10241:1 10242:1 10253:1 10254:1 10255:1 
0.01473710793319449 0 22:1 23:1 24:1 26:1 29:1 30:1 31:1 32:1 40:1 43:1 45:1.5 46:2 47:1 115:1 123:1 176:1 198:2 569:1 1601:1 1604:1 2523:1 3133:1 4232:1 4257:1 4444:1 4447:1 4448:1 4457:1 4459:1 4529:1 4921:1 4922:1 9389:1 9412:1 10267:1 10268:1 10269:1 10278:1 10279:1 10280:1 10281:1 10283:1 10284:1 10285:1 10286:1 10287:1 10288:1 10289:1 10290:1 
0 0.003256828070638651 24:1 26:1 29:1 30:1 31:1 45:2 46:2 47:2 67:2 115:4 1098:1 1555:1 1561:1 2474:1 2478:1 3197:1 3981:1 3989:1 4013:1 4014:1 4068:1 4072:1 4213:1 4215:1 4216:2 4241:1 4254:1 4255:1 4541:1 4607:1 4970:1 6390:1 7020:1 7029:1 7030:1 7033:1 7034:1 7513:1 9251:1 9388:1 9403:1 9613:1 10293:1 10378:1 10379:1 10380:1 10381:1 10382:1 10383:1 10384:1 10385:1 10386:1 10387:1 
0.03914867406272314 0.007152701091835189 24:1 26:1 29:1 30:1 31:1 45:3.5 46:5 47:2 67:5 115:2 280:1 284:1 292:1 327:1 530:1 1098:1 2235:1 2237:1 2474:1 2478:1 3989:1 4014:1 4068:1 4072:1 4216:1 4254:1 4255:1 4502:1 4541:1 4581:1 4607:1 6390:1 7020:1 7029:1 7030:1 7513:1 9251:1 9388:1 9508:1 9509:1 9511:1 9613:1 9700:1 10293:1 10378:1 10379:1 10380:1 10382:1 10383:1 10384:1 10388:1 10389:1 10390:1 
0.007834454507544405 0 24:1 26:1 29:1 30:1 31:1 45:3.5 46:5 47:2 67:14 115:2 119:2 268:1 292:1 446:1 466:1 577:1 798:1 1098:1 1203:1 2400:1 2474:1 2478:1 2679:1 2691:1 3592:1 3989:1 3996:1 4014:1 4023:1 4068:1 4072:1 4156:1 4216:1 4218:1 4222:1 4223:1 4242:1 4254:1 4255:1 4274:1 4541:1 6390:1 7020:1 7029:1 7030:1 9388:1 9508:1 9509:1 9613:1 9700:1 10293:1 10378:1 10379:1 10380:1 10382:1 10383:1 10384:1 10389:2 10391:1 10392:1 10393:1 10394:1 10395:1 10396:1 
0.02515439695537782 0.01181842290495778 25:1 30:1 45:3 46:3 47:3 67:2 89:1 90:1 115:2 176:1 268:1 272:1 446:1 466:1 594:1 759:1 768:1 798:1 1096:1 2410:1 3526:1 3527:1 3528:1 3549:1 3550:1 3996:1 4189:1 4214:1 4242:1 4493:1 4494:1 4500:1 4611:1 5770:1 10455:1 10456:1 10457:1 10458:1 10459:1 10460:1 10461:1 10462:1 10463:1 10464:1 10465:1 10466:1 10467:1 10468:1 10469:1 10470:1 
0.01997149002399588 0 24:1 25:1 26:1 29:1 30:1 31:1 67:9 115:1 119:1 176:1 259:1 267:1 268:1 272:1 413:1 446:1 466:3 759:1 798:1 812:1 822:1 823:1 3600:1 3996:1 4023:1 4189:1 4214:1 4242:1 4254:1 4255:1 4535:1 4541:1 4546:1 4547:1 4548:1 4559:1 8575:1 10293:1 10378:1 10380:1 10471:1 10472:1 10473:1 10474:1 10475:1 10476:1 
0.006574400581393367 0 8:1 24:1 25:1 29:1 30:1 31:1 45:2 46:3 47:1 67:2 268:1 272:1 413:1 418:1 444:1 446:1 466:1 577:1 758:1 759:1 761:1 2258:1 2620:1 2621:1 2625:1 3995:1 3996:1 4145:1 4242:1 4698:1 4699:1 7388:1 7390:1 10424:1 10426:1 10428:1 10429:1 10430:1 10431:1 10432:1 10433:1 10434:1 10435:1 10436:1 10508:1 10509:1 10510:1 10511:1 
0.03384574364453261 0.01181842290495769 25:1 30:1 45:3 46:3 47:3 67:2 89:1 90:1 115:2 176:1 268:1 272:1 446:1 466:1 594:1 759:1 768:1 798:1 1096:1 2410:1 3526:1 3527:1 3528:1 3549:1 3550:1 3996:1 4189:1 4214:1 4242:1 4493:1 4494:1 4500:1 4611:1 5770:1 7469:1 10348:1 10455:1 10456:1 10457:1 10458:1 10459:1 10460:1 10461:1 10462:1 10463:1 10464:1 10467:1 10468:1 10469:1 10470:1 
0.01000052749614514 0 25:1 26:1 29:1 30:1 31:1 45:3 46:5 47:1 67:5 176:1 213:1 268:1 272:1 413:1 418:1 444:1 446:1 466:2 759:1 798:1 1096:1 2620:1 2621:1 2679:1 3995:1 3996:1 4023:1 4242:1 4531:1 4535:1 4536:1 7388:1 7390:1 9487:1 10429:1 10430:1 10431:1 10432:1 10435:1 10537:1 10538:1 10539:1 10540:1 10541:1 10542:1 10543:1 10544:1 10545:1 10546:1 10547:1 
0.05 0.002022572112458135 24:1 25:1 30:1 34:1 38:1 39:1 40:1 41:1 43:1 44:1 45:1.5 46:2 47:1 67:8 97:1 99:1 102:1 103:1 106:1 108:1 110:2 113:1 114:1 115:1 116:1 132:1 133:1 135:1 138:1 139:1 152:1 153:1 706:1 765:1 794:1 1066:1 2471:1 2663:1 2846:1 2847:1 2848:1 2849:1 2906:1 3142:1 5139:1 5145:1 7404:1 10585:1 10586:1 10587:1 10588:1 10590:1 10591:1 10615:1 10616:1 10617:1 10618:1 10619:1 10620:1 10621:1 
0.02885737516394974 0.01065631294862327 24:1 25:2 29:1 30:1 31:1 34:1 37:1 38:1 45:1.5 46:2 47:1 67:1 115:1 170:1 222:1 226:1 231:1 310:1 343:1 357:1 358:1 362:1 494:1 495:1 496:1 497:1 715:1 719:1 792:1 794:1 1142:1 3437:1 4760:1 6452:1 7777:1 8876:1 8901:1 10618:1 10741:1 10742:1 10743:1 10744:1 10745:1 10746:1 10747:1 10748:1 10749:1 10750:1 10751:1 10752:1 10753:1 10754:1 10755:1 10756:1 
0.01911575098212714 0.0002172539038167126 9:1 20:1 22:1 23:1 24:2 25:1 28:1 30:1 32:1 40:1 43:1 44:1 45:1.5 46:2 47:1 213:1 234:1 566:1 919:1 1601:1 1664:1 1675:1 2522:1 2523:1 6942:1 6948:1 6949:1 6963:1 6964:1 7257:1 7282:1 7311:1 10978:1 10979:1 10980:1 10981:1 10982:1 10983:1 10984:1 10985:1 10986:1 10987:1 10988:1 10989:1 10990:1 10991:1 10992:1 10993:1 10994:1 
0.02660314748853781 0.001979805783917307 9:1 20:1 22:1 23:1 24:2 25:1 28:1 30:1 32:1 34:1 38:1 40:1 43:1 44:1 45:1.5 46:2 47:1 1167:1 1238:1 1664:1 1675:1 1868:1 3030:1 6942:1 6948:1 6949:1 6963:1 6964:1 6972:1 8122:1 8377:1 10989:1 10995:1 10996:1 10997:1 10998:1 10999:1 11000:1 11001:1 11043:1 11044:1 11045:1 11046:1 11047:1 11048:1 11049:1 11050:1 11051:1 11052:1 
0.005482227410845061 0 7:1 8:1 9:1 17:1 18:1 20:1 22:1 23:1 24:1 26:1 28:1 30:1 32:1 40:1 43:1 115:1 123:1 138:1 139:1 198:1 10556:1 11061:1 11062:1 11063:1 11064:1 11065:1 11066:1 11067:1 11068:1 11069:1 11070:1 11071:1 11072:1 11073:1 11074:1 11075:1 11076:1 11077:1 11078:1 11079:1 
0.01527492337451847 0 9:1 22:1 23:1 24:2 25:1 29:1 30:1 31:1 32:1 45:1.5 46:2 47:1 181:1 185:1 198:4 281:1 682:1 724:1 1096:1 1283:1 1381:1 1383:1 1389:1 1390:1 1491:1 1528:1 1529:1 1616:1 1617:1 1618:1 1619:1 1620:1 1661:1 1725:1 1728:1 1732:1 1814:1 1815:1 1817:1 1890:1 1891:1 1892:1 1893:1 1894:1 1895:1 1896:1 1897:3 1898:1 1899:1 1900:1 1901:1 1902:1 1903:1 1904:3 1905:1 1906:1 
0.05 0 9:1 22:1 23:1 24:2 25:1 29:1 30:1 31:1 32:1 45:1.5 46:2 47:1 181:1 185:1 198:3 281:1 682:1 724:1 1071:1 1096:1 1283:1 1381:1 1383:1 1389:1 1390:1 1491:1 1528:1 1529:1 1616:1 1617:1 1618:1 1619:1 1620:1 1725:1 1728:1 1732:1 1814:1 1815:1 1817:1 1891:1 1893:1 1894:1 1895:1 1896:1 1897:2 1898:1 1899:1 1901:1 1902:1 1904:2 1905:1 1906:1 1909:1 1910:1 1911:1 
0.03285973356992356 0 9:1 22:1 23:1 24:2 25:1 29:1 30:1 31:1 32:1 45:1.5 46:2 47:1 181:1 185:1 198:2 281:1 682:1 724:1 1071:1 1096:1 1283:1 1381:1 1383:1 1389:1 1390:1 1491:1 1528:1 1529:1 1616:1 1617:1 1618:1 1619:1 1620:1 1725:1 1728:1 1732:1 1814:1 1815:1 1817:1 1891:1 1893:1 1894:1 1895:1 1896:1 1897:1 1898:1 1901:1 1902:1 1904:1 1905:1 1906:1 1915:1 1916:1 1917:1 
0.01383799408294654 4.498548856229204e-05 2:1 4:1 12:1 13:1 14:1 15:1 22:1 23:1 24:2 25:1 30:1 32:1 45:1 46:1 47:1 138:1 139:1 146:1 327:1 331:1 542:1 682:1 685:1 686:1 1283:1 1286:1 1374:1 1428:1 1431:1 1728:1 1814:1 2237:1 3426:1 3577:1 6818:1 8988:1 8996:1 11183:1 11203:1 11206:1 11208:1 11464:1 11465:1 11466:1 11467:1 11468:1 11469:1 
0.007310636407371834 0 22:1 23:1 24:3 25:2 30:1 32:1 34:1 38:1 40:1 43:1 44:1 45:1.5 46:2 47:1 138:1 139:1 577:1 648:1 649:1 650:1 698:1 699:1 700:1 706:1 2223:1 2225:1 3426:1 7250:1 7251:1 11494:1 11497:1 11502:1 11503:1 11504:1 11505:1 11506:1 11507:1 11508:1 11509:1 11522:1 11523:1 11524:1 11525:1 11526:1 11527:1 11528:1 11529:1 11530:1 11531:1 
0.02354245136535335 0.007185793015901611 24:1 25:2 30:1 45:2.5 46:4 47:1 67:3 138:1 139:1 141:1 144:1 145:1 176:1 268:1 272:1 446:1 798:1 2229:1 2317:1 2319:1 2698:1 3183:1 3547:1 3553:1 3554:1 4805:1 4806:1 5173:1 5187:1 5281:1 5309:1 5311:1 5399:1 6462:1 6482:1 11562:1 11563:1 11564:1 11565:1 11566:1 11567:1 11568:1 11569:1 11570:1 11571:1 11572:1 11573:1 11574:1 11575:1 
0.05 0.0191305112456562 24:1 25:1 30:1 40:1 43:1 44:1 45:2.5 46:4 47:1 67:4 97:1 99:1 114:1 115:1 119:1 138:1 139:1 194:1 484:1 794:1 883:1 884:1 885:1 887:1 888:1 1083:1 1095:1 1520:1 1522:1 2514:1 2663:1 2794:1 2883:1 2906:1 3435:1 5134:1 5135:1 5136:1 5137:1 5138:1 5142:1 5363:1 11999:1 12000:1 12001:1 12002:1 12003:1 12004:1 12005:1 12006:1 12007:1 12008:1 
0.006340291706882191 0 6:1 24:2 25:1 30:1 34:1 38:1 40:1 43:1 44:1 45:2 46:3 47:1 67:1 97:1 99:1 115:1 138:1 139:1 194:1 208:1 209:1 210:1 211:1 212:1 484:1 706:1 773:1 776:1 794:1 1520:1 1522:1 2514:1 2663:1 2883:1 2906:1 5142:1 6143:1 12000:1 12001:1 12003:1 12005:1 12006:1 12007:1 12029:1 12030:1 12031:1 12032:1 12033:1 12034:1 
0.03137997537596904 0.002302155780292803 6:1 16:1 22:1 23:1 24:3 25:2 30:1 32:1 45:1 46:1 47:1 138:1 139:1 146:1 774:1 2223:1 2225:1 2321:1 2533:1 2598:1 2599:1 2604:1 2605:1 2609:1 3045:1 3777:1 3779:1 3780:1 3781:1 3782:1 5361:1 6223:1 6526:1 6528:1 11523:1 11524:1 11867:1 12022:1 12025:1 12026:1 12027:1 12045:1 12046:1 12047:1 12081:1 12082:1 12083:1 12084:1 12085:1 
0.02671085575834225 0.002965281055899793 2:1 4:1 12:1 13:1 14:1 15:1 22:1 23:1 24:2 25:1 29:1 30:1 31:1 32:1 40:1 43:1 44:1 45:1.5 46:2 47:1 133:1 594:1 598:1 611:1 614:1 745:1 1071:1 2898:1 3272:1 3277:1 3278:1 5512:1 5513:1 5514:1 5515:1 5550:1 5554:1 12224:1 12239:1 12240:1 12265:1 12268:1 12301:1 12302:1 12303:1 12304:1 12305:1 12306:1 12307:1 
0.001134796502343792 0.008420343076221337 22:1 23:1 24:2 25:1 29:1 30:1 31:1 32:1 34:1 37:1 40:1 43:1 44:1 45:2 46:2 47:2 194:1 198:1 201:1 206:1 542:1 1286:1 4497:1 8547:1 12191:1 12209:1 12277:1 12278:1 12279:1 12280:1 12281:1 12282:1 12283:1 12288:1 12289:1 12290:1 12330:1 12331:1 12332:1 12333:1 12334:1 12335:1 12336:1 12337:1 12338:1 12339:1 12340:1 12341:1 12342:1 12343:1 12344:1 
0.01563694003534576 0.003334478043714142 24:1 25:1 29:1 30:1 31:1 45:2.5 46:3 47:2 67:1 268:1 272:1 405:1 446:1 902:1 2528:1 2529:1 2530:1 2531:1 2598:1 2599:1 2785:1 3780:1 5361:1 5407:1 12462:1 12476:1 12477:1 12478:1 12479:1 12480:1 12481:1 12482:1 12622:1 12623:1 12624:1 12625:1 12626:1 12627:1 12628:1 12629:1 12630:1 12631:1 12632:1 12633:1 12634:1 
0.004043721393264542 0.004375916929250882 22:1 23:1 29:1 30:1 31:1 32:1 45:1.5 46:2 47:1 594:1 615:1 745:1 1096:1 1098:1 2036:1 2055:1 2082:1 2158:1 2240:1 2242:1 2294:1 2295:1 2388:1 2389:1 2390:1 2391:1 5105:1 5111:1 6370:1 12803:1 12812:1 12813:1 12814:1 12815:1 12816:1 12817:1 12818:1 12819:1 12820:1 12821:1 12822:1 12823:1 12824:1 12825:1 12826:1 12827:1 12828:1 12829:1 12830:1 12831:1 
0.0003946839114333307 0.006815236959974649 22:1 23:1 24:1 25:2 30:1 34:1 38:1 45:1.5 46:2 47:1 138:1 139:1 194:1 201:1 706:1 2604:1 2877:1 3781:1 3833:1 4216:1 4497:1 6914:1 9722:1 9858:1 10157:1 10183:1 12942:1 12959:1 12988:1 12989:1 13025:1 13026:1 13027:1 13028:1 13029:1 13030:1 13031:1 13032:1 13033:1 13034:1 13035:1 13036:1 13037:1 13038:1 13039:1 13040:1 13041:1 13042:1 
0 0.0003774549453915687 22:1 23:1 24:1 29:1 30:1 31:1 32:1 40:1 43:1 45:1.5 46:2 47:1 58:1 115:1 123:1 150:1 198:2 254:1 594:1 598:1 745:1 2837:1 3234:1 4208:1 4216:1 4289:1 4808:1 6924:1 9063:1 10227:1 12926:1 12931:1 12958:1 12959:1 12960:1 12962:1 12963:1 12964:1 12965:1 13065:1 13066:1 13067:1 13068:1 13069:1 13070:1 13071:1 13072:1 13073:1 13074:1 13075:1 13076:1 
0.01901156928464067 0 9:1 20:1 22:1 23:1 24:6 25:1 28:1 30:1 32:1 40:1 43:1 115:1 123:1 126:1 128:1 138:1 139:1 198:2 838:1 856:2 1082:1 1698:1 1767:1 1967:1 3600:1 3628:1 3754:1 3963:1 3964:1 3968:1 3980:1 4635:1 4638:1 4641:1 4642:1 4665:1 5362:1 9743:1 12925:1 12930:1 12932:1 12933:1 13088:1 13089:1 13090:1 13091:1 13092:1 13093:1 13095:1 13099:1 13100:1 13101:1 13102:1 13103:1 13104:1 
0.02440525613631957 0 22:1 23:1 24:2 26:1 29:1 30:1 31:1 32:1 115:2 176:1 198:4 280:1 327:1 530:1 798:1 1096:1 1098:1 1378:1 1698:1 1767:1 1967:1 2235:1 2237:1 3096:1 3133:1 3435:1 3628:1 3973:1 3974:1 4023:1 4024:1 4056:1 4061:1 4068:1 4072:1 4207:1 4208:1 4213:1 4215:1 4216:1 4459:1 9410:1 9608:1 9874:1 10245:1 10246:1 13113:1 13114:1 13115:1 13116:1 13117:1 13124:1 13125:1 13126:1 
0 0.003759151612947223 22:1 23:1 24:2 25:1 26:1 29:1 30:1 31:1 32:1 115:1 176:1 198:2 390:1 615:1 1967:1 3096:1 3197:1 3201:1 3435:1 3628:1 3996:1 4233:1 4258:1 4459:1 4534:1 4970:1 7033:1 7034:1 9403:1 9410:1 9584:1 9608:1 9721:1 9722:1 9874:1 9882:1 10236:1 10237:1 13114:1 13115:1 13116:1 13117:1 13123:1 13124:1 13127:1 13128:1 13129:1 
0 0.004796339720128134 22:1 23:1 24:2 25:1 29:1 30:1 31:1 32:1 115:2 198:3 346:1 759:1 812:1 856:1 2544:1 3968:1 4140:1 4142:1 4143:1 4144:1 4188:1 4189:1 4214:1 4229:1 4240:1 4255:1 4541:1 4550:1 4602:1 10329:1 13145:1 13146:1 13147:1 13148:1 13149:1 13150:1 13151:1 13152:1 
0.002369429190084082 0 22:1 23:1 24:2 29:1 30:1 31:1 32:1 45:1 46:1 47:1 97:1 99:1 115:2 146:1 168:1 188:1 190:1 198:3 346:1 759:1 812:1 856:1 1096:1 1098:1 1725:1 2159:1 2544:1 2620:1 2621:1 3968:1 4061:1 4068:1 4072:1 4112:1 4116:1 4143:1 4188:1 4550:1 4602:1 7388:1 7390:1 8307:1 8308:1 8309:1 8311:1 10297:1 10302:1 10546:1 13153:1 13154:1 13155:1 13156:1 13157:1 13158:1 13159:1 13160:1 13161:1 13162:1 
0.03414858395003263 0 22:1 23:1 24:1 25:1 29:1 30:1 31:1 32:1 115:1 198:2 856:1 1096:1 1179:1 1341:1 1342:1 1967:1 2035:1 2080:1 2544:1 3133:1 3216:1 3217:1 3628:1 4063:1 4153:1 4207:1 4208:1 4213:1 4215:1 4216:1 4246:1 4429:1 4498:1 4543:1 4550:1 4553:1 4554:1 10412:1 10539:1 10540:1 12959:1 13179:1 13180:1 13181:1 13182:1 13183:1 13184:1 13185:1 13186:1 
0.003523691099540349 0.0007024623017180848 22:1 23:1 24:3 25:1 29:1 30:1 31:1 32:1 115:1 176:1 190:1 198:2 222:1 268:1 272:1 418:1 427:1 444:1 446:1 460:1 798:1 838:1 856:2 1967:2 2544:1 3133:1 3628:2 4116:1 4141:1 4144:1 4189:1 4205:1 4214:1 4244:1 9418:1 9423:1 9424:1 9549:1 10412:1 13134:1 13135:1 13202:1 13227:1 13228:1 13229:1 13230:1 13231:1 
0.04879763130697154 0.003071229085051516 22:1 23:1 24:3 25:1 29:1 30:1 31:1 32:1 45:1 46:1 47:1 115:2 146:1 176:1 198:2 268:1 272:1 346:1 418:1 444:1 446:1 594:1 598:1 742:1 743:1 745:1 856:1 2027:1 3095:1 3133:1 3968:1 3995:1 3996:1 4036:1 4144:1 4179:1 4189:1 4207:1 4213:1 4214:1 4215:1 4244:1 4246:1 4255:1 4485:1 4493:1 4541:1 9123:1 9555:1 9684:1 10462:1 13243:1 13252:1 13253:1 13254:1 13255:1 13256:1 
0.02619703053043392 0.004224984370064403 24:1 25:1 29:1 30:1 31:1 45:2 46:2 47:2 67:5 115:2 168:1 176:1 213:1 292:1 346:1 466:1 759:1 850:1 2474:1 2478:1 3197:1 3201:1 4189:1 4214:1 4457:1 4459:1 4493:1 4495:1 4510:1 4533:1 4970:1 6390:1 7020:1 7029:1 7030:1 7033:1 7034:1 9406:1 9487:1 10382:1 10383:1 13159:1 13178:1 13257:1 13258:1 13259:1 13260:1 13261:1 13262:1 13263:1 13264:1 13265:1 13266:1 
0 0.006029624413371025 24:1 25:1 26:1 29:1 30:1 31:1 45:2 46:2 47:2 67:2 115:1 168:1 346:1 466:1 756:1 759:1 2474:1 2478:1 3197:1 3201:1 3996:1 4189:1 4214:1 4242:1 4257:1 4457:1 4459:1 4534:1 4546:1 4547:1 4548:1 4619:1 4970:1 6390:1 7020:1 7029:1 7030:1 7033:1 7034:1 9403:1 9406:1 10382:1 10383:1 13159:1 13257:1 13258:1 13265:1 13266:1 13278:1 
0.03411265644205068 0 22:1 23:1 24:1 26:1 29:1 30:1 31:1 32:1 115:2 198:3 759:1 1179:1 1342:1 1346:1 1698:1 1767:1 1967:1 2158:1 2544:1 3213:1 3214:1 3216:1 4063:1 4263:1 4498:1 4549:1 4550:1 4553:1 4569:1 4574:1 4594:1 4595:1 4599:1 4604:1 4605:1 9687:1 11559:1 12823:1 13274:1 13292:1 13293:1 13294:1 13295:1 13296:1 13297:1 13298:1 13299:1 13300:1 13301:1 13302:1 13303:1 13304:1 
0.003512500147830967 0 24:1 25:1 26:1 29:1 30:1 31:1 45:2 46:3 47:1 67:2 115:2 268:1 272:1 346:1 413:1 418:1 444:1 446:1 466:1 594:1 598:1 745:1 758:1 759:1 761:1 2642:1 2643:1 2698:1 3995:1 3996:1 4189:1 4214:1 4242:1 4244:1 4257:1 4457:1 4459:1 4465:1 4493:1 4495:1 4510:1 4532:1 4533:1 4534:1 12015:1 13257:1 13258:1 13330:1 13336:1 13337:1 
0.006286898331326257 0 22:1 23:1 24:3 25:1 29:1 30:1 31:1 32:1 45:1 46:1 47:1 115:2 146:1 198:2 268:1 272:1 346:1 418:1 444:1 446:1 594:1 598:1 742:1 743:1 745:1 838:1 856:2 1096:1 1967:1 2027:1 3095:1 3133:1 3968:1 3995:1 3996:1 4036:1 4144:1 4179:1 4189:1 4214:1 4244:1 4255:1 4485:1 4487:1 4493:1 4495:1 4510:1 4533:1 4534:1 4541:1 4626:1 10412:1 12015:1 13255:1 13285:1 13337:1 13338:1 13339:1 13340:1 13341:1 13342:1 
0.006467359839987938 0 24:1 29:1 30:1 31:1 67:2 115:3 176:1 268:1 446:1 466:1 759:1 798:1 812:1 822:1 823:1 1097:1 1098:1 1259:1 1261:1 1555:1 1561:1 1662:1 2400:1 2544:1 3996:1 4023:1 4068:1 4072:1 4228:1 4242:1 4263:1 4457:1 4459:1 4534:1 4574:1 10555:1 10556:1 12242:1 13201:1 13257:1 13258:1 13343:1 13344:1 13345:1 13346:1 
0.01095592459632736 0 22:1 23:1 24:1 29:1 30:1 31:1 32:1 40:1 43:1 115:1 123:1 194:1 198:3 390:1 1698:1 1767:1 3133:1 4497:1 13385:1 13386:1 13387:1 13388:1 13389:1 13390:1 13391:1 13392:1 13393:1 13394:1 13395:1 13396:1 13397:1 13398:1 13399:1 13400:1 13401:1 13402:1 13403:1 13404:1 13405:1 13406:1 13407:1 
0.01289770503192265 0 22:1 23:1 24:1 29:1 30:1 31:1 32:1 115:1 167:1 194:1 198:3 280:1 327:1 530:1 577:1 1698:1 1767:1 2235:1 2237:1 3133:1 4581:1 13385:1 13386:1 13387:1 13388:1 13389:1 13390:1 13391:1 13392:1 13393:1 13394:1 13395:1 13404:1 13408:1 13409:1 13410:1 13411:1 13412:1 13413:1 13414:1 13415:1 13416:1 
0.002924818276889901 0.00123367537083203 8:1 18:1 22:1 23:1 29:1 30:1 31:1 32:1 115:1 167:1 181:1 198:1 577:1 1096:1 1229:1 1491:1 3133:1 13404:1 13428:1 13429:1 13430:1 13431:1 13432:1 13433:1 13434:1 13435:1 13436:1 13437:1 13438:1 13439:1 13440:1 13441:1 13442:1 13443:1 13444:1 13445:1 13446:1 13447:1 
0.05 0.02484512264439243 8:1 24:1 26:1 29:1 30:1 31:1 67:1 115:1 176:1 198:1 798:1 1098:1 1205:1 1209:1 1546:1 1987:1 2123:1 3976:1 3978:1 3981:1 4013:1 4014:1 7287:1 10189:1 13386:1 13388:1 13412:1 13464:1 13465:1 13466:1 13467:1 13468:1 13469:1 13470:1 13471:1 13472:1 13473:1 13474:1 13475:1 13476:1 13477:1 
0 0.005310849794703291 24:1 25:1 30:1 45:2 46:3 47:1 67:3 138:1 139:1 176:1 268:1 272:1 413:1 418:1 427:1 444:1 446:1 460:1 466:1 758:1 759:1 761:1 798:1 1082:1 2620:1 2621:1 2622:1 2624:1 2625:1 4023:1 5178:1 6987:1 6990:1 9589:1 9884:1 10506:1 10631:1 10632:1 10633:1 10634:1 13568:1 13569:1 13570:1 13571:1 13572:1 13573:1 13574:1 13575:1 
0.03432553208575008 0.01021000757754133 24:1 25:1 30:1 40:1 43:1 44:1 45:3 46:4 47:2 67:2 110:1 138:1 139:1 176:1 194:1 198:1 1205:1 1209:1 2234:1 2533:1 2535:1 3833:1 3919:1 6924:1 9063:1 9354:1 12925:1 12932:1 12933:1 12942:1 12945:1 12972:1 13052:1 13606:1 13607:1 13608:1 13609:1 13610:1 13611:1 13614:1 13637:1 13638:1 13639:1 13640:1 13641:1 13642:1 13643:1 13644:1 13645:1 
0.02214359959581915 0 22:1 23:1 24:2 30:1 32:1 34:1 38:1 45:3 46:5 47:1 115:2 138:1 139:1 198:2 268:1 346:1 418:1 444:1 446:1 501:1 706:1 838:1 856:1 1096:1 1098:1 1698:1 1767:1 1967:1 2400:1 3741:1 3965:1 3981:1 3995:1 4056:1 4061:1 4068:1 4072:1 4207:1 4208:1 4213:1 4215:1 4216:1 13125:1 13164:1 13662:1 13663:1 13664:1 13665:1 13666:1 13667:1 13668:1 13669:1 13670:1 13671:1 13672:1 13673:1 13674:1 13675:1 13676:1 
0.01539964238222404 0 22:1 23:1 24:1 25:1 29:1 30:1 31:1 32:1 40:1 43:1 45:3.5 46:4 47:3 115:2 123:1 150:1 167:1 176:1 198:3 577:1 593:1 594:1 745:1 789:1 856:1 1096:1 1844:1 2410:1 2513:1 3140:1 4141:1 4144:1 4189:1 4207:1 4208:1 4212:1 4213:1 4214:1 4215:1 4216:1 7101:1 9483:1 9916:1 10293:1 10538:1 10540:1 13177:1 13717:1 13718:1 13719:1 13721:1 13722:1 13723:1 13725:1 13726:1 13727:1 13728:1 
0.02409893153293751 0 8:1 24:1 25:1 30:1 45:4 46:6 47:2 67:11 119:1 138:1 139:1 170:1 198:1 268:1 272:1 409:1 446:1 466:2 577:1 798:1 823:1 884:1 887:1 888:1 998:1 1116:1 2002:1 3183:1 3996:1 4242:1 4411:1 4873:1 4882:1 6449:1 8492:1 8615:1 9536:1 9659:1 9668:1 9670:1 9683:1 9763:1 11829:1 12242:1 13344:1 13345:1 13783:1 13784:1 13785:1 13786:1 13787:1 13788:1 13789:1 13790:1 13791:1 13792:1 13793:1 13794:1 13795:1 13796:1 13797:1 13798:1 
0.0167419763151437 0.007294351518758157 24:1 25:1 30:1 45:2 46:3 47:1 67:2 268:1 272:1 446:1 466:1 547:1 577:1 594:1 598:1 759:1 798:1 812:1 822:1 823:1 998:1 2048:1 2107:1 2139:1 2578:1 3996:1 4242:1 4411:1 6721:1 8492:1 8615:1 11829:1 12242:1 13344:1 13345:1 13789:1 13790:1 13791:1 13792:1 13797:1 13799:1 13800:1 13801:1 13802:1 13803:1 13804:1 13805:1 13806:1 13807:1 13808:1 13809:1 13810:1 13811:1 
0.01435129120307233 0 20:1 22:1 23:1 24:2 25:1 30:1 32:1 34:1 45:2 46:3 47:1 83:1 115:2 138:1 139:1 190:1 198:3 222:1 268:1 272:1 390:1 446:1 460:1 615:1 706:1 856:1 1844:1 1967:1 2169:1 2537:1 2538:1 3096:1 3628:1 4141:1 4144:1 4189:1 4207:1 4213:1 4214:1 4215:1 4485:1 4493:1 7168:1 9684:1 9918:1 9999:1 13812:1 13813:1 13814:1 13815:1 13816:1 13817:1 13818:1 13819:1 13820:1 13821:1 13822:1 13823:1 13824:1 
0.001796289178274671 0 9:1 22:1 23:1 24:2 25:1 29:1 30:1 31:1 32:1 45:2 46:3 47:1 115:3 150:1 198:3 268:1 272:1 310:1 446:1 451:1 594:1 598:1 745:1 759:1 856:1 1967:1 2721:1 3628:1 3996:1 4116:1 4141:1 4142:1 4144:1 4189:1 4205:1 4207:1 4208:1 4214:1 4215:1 4216:1 4217:1 4218:1 4222:1 4223:1 4224:1 4229:1 4239:1 4240:1 9850:1 9884:1 10293:1 13177:1 13884:1 13885:1 13886:1 13887:1 13888:1 
0.007894718795038235 0 30:1 67:2 115:2 138:1 139:1 176:1 268:1 446:1 547:1 798:1 1096:1 1098:1 1179:1 1180:1 2400:1 2679:1 3981:1 3989:1 4013:1 4014:1 4015:1 4068:1 4072:1 4213:1 4215:1 4216:1 4218:1 4222:1 4223:1 4531:1 4536:1 6370:1 9613:1 9712:1 9717:1 9723:1 10395:1 13125:1 13948:1 13949:1 13950:1 13951:1 13952:1 13953:1 13954:1 13955:1 13956:1 13957:1 13958:1 13959:1 13960:1 
0.006568981871319622 0 22:1 23:1 24:1 30:1 32:1 40:1 43:1 45:1.5 46:2 47:1 54:1 83:1 115:1 123:1 138:1 139:1 150:1 198:1 998:1 1102:1 1103:1 1108:1 1109:1 1110:1 1111:1 6373:1 6376:1 6726:1 7396:1 9534:1 9707:1 13089:1 13855:1 13862:1 13864:1 13865:1 13876:1 13878:1 13961:1 13962:1 13963:1 13964:1 13965:1 13966:1 13967:1 13968:1 13969:1 
0.01751006885468992 0 16:1 22:1 23:1 24:1 25:2 30:1 34:1 38:1 45:2 46:3 47:1 115:1 138:1 139:1 706:1 820:1 3741:1 4710:1 4712:1 4713:1 5151:1 5152:1 5156:1 6922:1 6923:1 6928:1 13510:1 13537:1 13538:1 13539:1 13977:1 13981:1 13982:1 13983:1 13984:1 13985:1 13986:1 13988:1 13989:1 13990:1 13992:1 13993:1 13994:1 13995:1 13996:1 13997:1 13998:1 
0.04554848686672479 0.02796954170550006 16:1 22:1 23:1 24:2 25:2 29:1 32:1 45:1 46:1 47:1 58:1 135:1 146:1 178:1 181:1 184:1 185:1 198:1 529:1 1205:1 1209:1 1546:1 3741:1 3795:1 3851:1 3919:1 4737:1 10167:1 10187:1 14008:1 14010:1 14011:1 14013:1 14014:1 14016:1 14018:1 14019:1 14020:1 14021:1 14025:1 14026:1 14027:1 14028:1 14029:1 14030:1 14031:1 14032:1 14033:1 14034:1 
0 0.05 22:1 23:1 24:4 25:1 30:1 32:1 40:1 43:1 44:1 45:2.5 46:4 47:1 138:1 139:1 198:1 460:1 856:2 1601:1 1844:1 1967:1 3212:1 3435:1 3628:1 4065:1 4148:1 4149:1 4421:1 4433:1 4485:1 4542:1 4547:1 4548:1 4909:1 4921:1 6993:1 10274:1 14027:1 14029:1 14030:1 14057:1 14058:1 14059:1 14066:1 14067:1 14072:1 14073:1 14074:1 14075:1 14076:1 14077:1 14078:1 14079:1 14080:1 14081:1 14082:1 14083:1 14084:1 
0 0.004200492390996971 22:1 23:1 24:2 25:1 29:1 30:1 31:1 32:1 45:2.5 46:3 47:2 115:1 181:1 185:1 198:1 1491:1 2598:1 2599:1 3225:1 3780:1 3790:1 3851:1 3852:1 4808:1 7172:1 7174:1 8547:1 8922:1 10173:1 10174:1 10227:1 12631:1 12633:1 12975:1 14276:1 14278:1 14285:1 14286:1 14287:1 14292:1 14303:1 14304:1 14305:1 14306:1 14307:1 14308:1 14309:1 14310:1 14311:1 14312:1 14313:1 14314:1 14315:1 
0.04942341835658817 0 22:1 23:1 24:3 30:1 32:1 45:4 46:7 47:1 115:1 126:1 128:1 138:1 139:1 198:1 280:1 327:1 346:1 351:1 501:1 518:1 530:1 838:1 856:1 1082:1 1096:1 1098:1 1378:1 1698:2 1767:2 1967:1 2235:1 2237:1 2620:1 2621:1 2622:1 2624:1 2625:1 3628:1 3754:1 3963:1 3964:1 3966:1 3967:1 3975:1 3976:1 3977:1 3978:1 3979:1 3986:1 4043:1 4747:1 13092:1 13095:1 14316:1 14317:1 14318:1 14319:1 14322:1 14324:1 14325:1 14326:1 14327:1 
0.03099657737900741 0 22:1 23:1 24:3 25:1 30:1 32:1 45:3 46:5 47:1 126:1 128:1 138:1 139:1 280:1 327:1 331:1 390:1 393:1 530:1 615:1 838:1 856:1 1082:1 1698:1 1767:1 1967:1 2235:1 2237:1 2620:1 2621:1 2622:1 2624:1 2625:1 3628:1 3754:1 3963:1 3964:1 3988:1 4002:1 4003:1 4004:1 4005:1 4006:1 4007:1 4011:1 10159:1 10189:1 13092:1 13095:1 14317:1 14320:1 14321:1 14322:1 14323:1 14328:1 14329:1 
0.02997542542695212 0 6:1 24:1 25:1 29:1 30:1 31:1 45:2 46:3 47:1 67:2 176:1 198:2 268:1 390:1 413:1 418:1 444:1 446:1 466:1 569:1 758:1 759:1 761:1 1097:1 1098:1 1339:1 1600:1 1601:1 1602:1 1604:1 2400:1 2523:1 2665:1 3609:1 3993:1 3994:1 3995:1 3996:1 3997:1 4072:1 4099:1 4228:1 4242:1 4527:1 4528:1 4529:1 4530:1 13164:1 14345:1 14346:1 14347:1 14348:1 14350:1 14351:1 14352:1 14353:1 
0.02120571010813882 0.002811222580051791 8:1 24:1 25:1 29:1 30:1 31:1 34:1 37:1 38:1 45:2.5 46:3 47:2 67:5 115:1 176:1 198:1 268:1 272:1 413:1 418:1 444:1 446:1 466:1 798:1 1289:1 1663:1 2707:1 2708:1 3995:1 3996:1 4229:1 4240:1 4242:1 8557:1 8944:1 10342:1 10344:1 10428:1 13137:1 14372:1 14373:1 14374:1 14375:1 14376:1 14377:1 14378:1 14379:1 14380:1 14381:1 14382:1 14383:1 14384:1 14385:1 14386:1 14387:1 
0.003847222075251008 0.003827994450965616 8:1 22:1 23:1 29:1 30:1 31:1 32:1 176:1 198:1 577:1 798:1 1096:2 1098:1 1967:1 3133:1 3965:1 3981:1 4356:1 4358:1 5359:1 13432:1 13460:1 14373:1 14374:1 14388:1 14389:1 14390:1 14391:1 14392:1 14393:1 14394:1 14395:1 14396:1 14397:1 14398:1 
0.0008715937068906057 0.01132469624623334 22:1 23:1 24:3 25:1 26:1 29:1 30:1 31:1 32:1 115:3 176:1 198:3 213:1 919:1 1342:1 3095:1 3133:1 3213:1 3214:1 3216:1 3217:1 3973:1 4063:1 4112:1 4116:1 4140:1 4142:1 4144:1 4189:1 4207:1 4208:1 4214:1 4215:1 4216:1 4229:1 4239:1 4240:1 4498:1 4553:1 5472:1 6551:1 10346:1 13253:1 13255:1 13295:1 14408:1 14409:1 14410:1 14411:1 14412:1 
0.004611234830441099 0 9:1 22:1 23:1 29:1 30:1 31:1 32:1 115:1 198:2 998:1 1341:1 1342:1 1346:1 2544:1 3216:1 4063:1 4153:1 4241:1 4280:1 4281:1 4498:1 4543:1 4550:1 4553:1 4554:1 7052:1 9474:1 9475:1 9479:1 9498:1 9499:1 10420:1 14430:1 14431:1 14432:1 14433:1 14434:1 14435:1 14436:1 
0.009523137223482908 0.001428972388413169 22:1 23:1 24:3 26:1 29:1 30:1 31:1 32:1 115:1 198:4 481:1 1135:1 1342:1 1346:1 1698:1 1767:1 2544:1 3213:1 3214:1 3216:1 4063:1 4255:1 4282:1 4300:1 4490:1 4498:1 4541:1 4545:1 4550:1 4553:1 9388:1 9509:1 10346:1 13146:1 13176:1 13215:1 13295:1 14420:1 14421:1 14424:1 14437:1 14438:1 14439:1 14440:1 14441:1 14442:1 14443:1 
0.02156089071271029 0 22:1 23:1 24:3 29:1 30:1 31:1 32:1 115:2 198:4 758:1 759:1 1179:2 1342:1 1346:1 1698:1 1767:1 3095:1 3213:1 3214:1 3216:1 3741:1 4063:1 4207:1 4213:1 4215:1 4246:1 4255:1 4485:1 4493:1 4497:1 4498:1 4541:1 4553:1 5721:1 6169:1 9543:1 10346:1 13255:1 13295:1 13323:1 13329:1 14062:1 14426:1 14461:1 14466:1 14467:1 14468:1 14469:1 14470:1 14471:1 14472:1 
0 0.00486320986869777 22:1 23:1 24:1 29:1 30:1 31:1 32:1 115:2 198:4 1135:1 1342:1 1346:1 3213:1 3214:1 3216:1 3741:1 4063:1 4207:1 4213:1 4215:1 4246:1 4485:1 4493:1 4497:1 4498:1 4553:1 5721:1 6169:1 9541:1 9543:1 9545:1 10346:1 13295:1 13323:1 14062:1 14461:1 14467:1 14470:1 14471:1 14472:1 14473:1 14474:1 
0.04916197233474872 0 20:1 22:1 23:1 24:7 25:2 26:1 29:1 30:1 31:1 32:1 40:1 43:1 44:1 198:3 518:1 856:1 1698:1 1767:1 1897:1 1904:1 1967:1 2544:1 3133:1 3628:1 3973:1 3996:1 4063:1 4112:1 4116:1 4221:1 4459:1 4490:1 4528:1 4540:1 4542:1 4543:1 4553:2 4889:1 4891:1 13154:1 13155:1 13295:1 14058:1 14059:1 14494:1 14495:1 14496:1 14497:1 14498:1 14499:1 14501:1 14504:1 14505:1 14506:1 14507:1 14508:1 14509:1 14510:1 14511:1 
0.005504265955689197 0 22:1 23:1 24:4 25:1 29:1 30:1 31:1 32:1 115:1 198:1 856:1 1342:1 1698:1 1767:1 3095:1 3133:1 3213:1 3214:1 3216:1 3217:1 3741:1 3754:1 3973:1 4063:1 4112:1 4116:1 4207:1 4213:1 4215:1 4246:1 4459:1 4485:1 4493:1 4497:1 4498:1 4553:1 6370:1 10130:1 10346:1 13255:1 13295:1 13323:1 13335:1 13341:1 14062:1 14417:1 14423:1 14461:1 14470:1 14476:1 14546:1 14547:1 14548:1 14549:1 14550:1 14551:1 14552:1 
0.03840850631844835 0 22:1 23:1 24:7 25:2 29:1 30:1 31:1 32:1 198:3 268:1 272:1 310:1 446:1 856:3 1179:1 1698:1 1897:2 1904:2 1967:2 2123:1 2544:1 2721:1 3095:2 3133:1 3158:1 3628:2 3973:1 3996:1 4063:1 4112:1 4116:2 4459:1 4488:1 4528:1 4543:1 4553:2 4619:1 4636:1 5037:1 5039:1 5071:1 7373:1 9411:1 10427:1 10438:1 12242:1 13134:2 13147:1 13255:1 13295:1 13341:1 13344:1 13345:1 14487:1 14488:1 14489:1 14497:1 14501:1 14558:1 14559:1 14560:1 14561:1 14563:1 14564:1 14565:1 
0.002669095221450974 0 22:1 23:1 24:4 25:1 26:1 29:1 30:1 31:1 32:1 198:1 759:1 1179:1 1342:1 1698:1 1767:1 2544:1 3095:1 3213:1 3214:1 3216:1 3217:1 4063:1 4112:1 4116:1 4217:1 4247:1 4459:1 4498:1 4528:1 4540:1 4542:1 4547:1 4548:1 4550:1 4553:1 10346:1 13255:1 13295:1 13300:1 13335:1 13341:1 14072:1 14073:1 14422:1 14426:1 14502:1 14571:1 14572:1 
0.02973639741366601 0 24:1 25:1 29:1 30:1 31:1 45:5 46:6 47:4 67:12 119:1 176:1 198:2 248:1 250:1 268:1 290:1 292:1 413:2 418:1 444:1 446:1 466:1 594:1 598:1 610:1 612:1 613:1 615:1 618:1 742:1 743:1 745:1 798:1 1098:1 1245:1 1247:1 1248:1 2027:1 2400:1 2679:1 2815:1 3083:1 3091:1 3183:1 3995:1 3996:1 4023:1 4242:1 5200:1 5433:1 6413:1 6429:1 12070:1 14652:1 14653:1 14654:1 14655:1 14656:1 14657:1 14658:1 14659:1 14660:1 14661:1 14662:1 
0.007643201904686457 0.007230834550609168 24:1 25:1 29:1 30:1 31:1 45:5.5 46:6 47:5 67:6 176:1 198:1 248:1 250:1 268:1 413:1 418:1 444:1 446:1 466:1 594:1 598:1 613:1 733:1 742:1 743:1 745:1 798:1 1098:1 1245:1 1247:1 1248:1 2081:1 2400:1 2721:1 3091:1 3183:1 3662:1 3666:1 3995:1 3996:1 4023:1 4242:1 5200:1 6449:1 7475:1 9232:1 9245:2 10087:1 14653:1 14654:1 14655:1 14656:1 14658:1 14659:1 14660:1 14661:1 14663:1 14664:1 14665:1 14666:1 
0.006895337263351931 0.01124644277763259 22:1 23:1 24:3 25:1 26:1 29:1 30:1 31:1 32:1 45:1.5 46:2 47:1 198:2 594:1 745:1 856:1 1096:1 1252:1 1599:1 1967:2 2721:1 3628:1 3639:1 3996:1 4036:1 4127:1 4198:1 4599:1 6473:1 6847:1 10347:1 12067:1 13756:1 14667:1 14668:1 14669:1 14670:1 14671:1 14672:1 14673:1 14674:1 14675:1 14676:1 14677:1 14678:1 14679:1 14680:1 14681:1 14682:1 14683:1 14684:1 14685:1 14686:1 14687:1 14688:1 14689:1 14690:1 14691:1 14692:1 
0.05 0 8:1 24:2 25:1 30:1 67:22 119:5 138:1 139:1 198:1 259:1 268:1 272:1 292:1 341:1 413:2 446:1 466:1 798:1 820:1 838:1 856:1 1443:1 1967:1 2571:1 2691:1 3183:1 3504:1 3593:1 3628:1 4158:1 4177:2 4933:1 4945:1 4947:1 5173:1 5187:1 6417:1 7213:1 11573:1 14693:1 14694:1 14695:1 14696:1 14697:1 14698:1 14699:1 14700:1 14701:1 14715:1 14716:1 14736:1 14741:1 14742:1 14743:1 14744:1 14745:1 14746:1 14747:1 14748:1 14749:1 14750:1 14751:1 
0.05 0 24:3 25:1 30:1 45:5.5 46:10 47:1 67:14 119:3 138:1 139:1 198:1 268:1 272:1 292:1 413:1 446:1 466:1 593:1 594:1 595:1 597:1 598:1 615:1 618:1 759:1 798:1 820:1 838:1 856:1 1443:1 1967:1 2099:1 2571:1 2691:1 3183:1 3504:1 3583:1 3593:1 4177:1 4599:1 5173:1 5187:1 7213:1 11573:1 14736:1 14741:1 14742:1 14743:1 14744:1 14745:1 14746:1 14747:1 14748:1 14749:1 14750:1 14751:1 14760:1 14761:1 14762:1 14763:1 14764:1 14765:1 14766:1 14767:1 14768:1 14769:1 14771:1 
0.05 0.004283387439712623 24:2 25:1 30:1 45:4.5 46:7 47:2 67:8 119:1 138:1 139:1 268:1 272:1 446:1 681:1 682:1 683:1 685:1 686:1 798:1 820:1 838:1 856:1 1096:1 1443:1 2081:1 2571:1 2691:1 3183:1 3504:1 3593:1 4036:1 4177:1 5173:1 5187:1 7213:1 11573:1 14741:1 14742:1 14743:1 14744:1 14745:1 14746:1 14749:1 14750:1 14751:1 14784:1 14785:1 14786:1 14787:1 14788:1 14789:1 14790:1 14791:1 14792:1 14793:1 14794:1 14795:1 14797:1 
0.01662709245122468 0 22:1 23:1 24:3 25:1 30:1 32:1 40:1 43:1 44:1 135:1 1664:1 1675:1 2136:1 2877:1 2951:1 3133:1 3741:1 3754:1 4497:1 10157:1 10187:1 12942:1 14820:1 14822:1 14824:1 14834:1 14835:1 14836:1 14837:1 14838:1 14839:1 14840:1 14841:1 14858:1 14859:1 14860:1 14861:1 14862:1 14863:1 14864:1 14865:1 14866:1 
0 0.001802852613428451 22:1 23:1 24:2 25:1 29:1 30:1 31:1 32:1 34:1 37:1 38:1 40:1 43:1 44:1 45:1.5 46:2 47:1 2198:1 2877:1 3741:1 3754:1 4497:1 5332:1 10157:1 10187:1 12942:1 14820:1 14822:1 14824:1 14834:1 14835:1 14836:1 14837:1 14838:1 14839:1 14840:1 14841:1 14859:1 14861:1 14862:1 14864:1 14866:1 14867:1 14868:1 14869:1 14870:1 14871:1 14872:1 14873:1 
0.02333174270598551 0 24:2 25:1 30:1 45:2 46:3 47:1 67:3 138:1 139:1 268:1 272:1 413:1 418:1 427:1 444:1 446:1 460:1 466:1 758:1 759:1 761:1 762:1 763:1 1082:1 2642:1 3410:1 4878:1 5178:1 6987:1 6990:1 7302:1 7304:1 9884:1 10506:1 10632:1 10634:1 11869:1 13569:1 13570:1 13571:1 13572:1 13574:1 14048:1 14049:1 14050:1 14874:1 14875:1 14876:1 14877:1 14878:1 14879:1 14880:1 14881:1 
0.0233899170891838 0 24:2 30:1 45:2 46:3 47:1 67:3 115:1 119:1 268:1 346:1 351:1 435:1 446:1 460:1 466:1 759:1 763:1 1098:1 1387:1 1601:1 1664:1 1675:1 2400:1 2522:1 2523:1 3209:1 4532:1 4804:1 4911:1 4920:1 4924:1 4925:1 4929:1 4931:1 7553:1 10131:1 10347:1 14222:1 14223:1 14224:1 14918:1 14919:1 14920:1 14921:1 14922:1 14923:1 14924:1 14925:1 14926:1 14927:1 14928:1 14929:1 14930:1 14931:1 14932:1 14933:1 14934:1 14935:1 
0.01914971267167696 0.02554123628608678 24:1 25:1 26:1 30:1 45:2 46:3 47:1 67:2 89:1 90:1 115:2 268:1 272:1 446:1 466:1 759:1 1600:1 1601:1 2523:1 2544:1 3526:1 3527:1 3528:1 3549:1 3550:1 3996:1 4063:1 4153:1 4161:1 4163:1 4189:1 4213:1 4214:1 4215:1 4242:1 4493:1 4551:1 5770:1 7068:1 9613:1 9684:1 10469:1 14027:1 14030:1 14085:1 14186:1 14187:1 15027:1 15028:1 15029:1 15030:1 
0.01402654697853772 0 16:1 22:1 23:1 24:1 25:1 30:1 40:1 43:1 45:2.5 46:3 47:2 115:1 123:1 138:1 139:1 589:1 1205:1 1209:1 1286:1 2234:1 3741:1 3919:1 6922:1 9354:1 13481:1 13483:1 13484:1 13486:1 13487:1 13510:1 13516:1 13537:1 13538:1 13539:1 13540:1 13541:1 13542:1 13986:1 14265:1 15090:1 15091:1 15092:1 15093:1 15094:1 15097:1 
0.05 0.03238190304496866 24:1 25:2 30:1 45:2 46:2 47:2 67:2 119:1 138:1 139:1 181:1 185:1 589:1 1205:1 1209:1 1280:1 1491:1 2234:1 3741:1 3791:1 3792:1 3851:1 3852:1 3919:1 6783:1 6922:1 9354:1 13494:1 13495:1 13496:1 13497:1 13498:1 13499:1 13500:1 13501:1 13502:1 13504:1 13505:1 13506:1 13510:1 13516:1 13517:1 13537:1 13538:1 13539:1 13540:1 13541:1 13542:1 13543:1 15096:1 
0.05 0.05 22:1 23:1 25:1 30:1 34:1 40:1 43:1 44:1 45:2 46:2 47:2 89:1 90:1 94:1 198:1 206:1 902:1 2586:1 3814:1 4547:1 4548:1 6956:1 12104:1 12105:1 13563:1 14004:1 14005:1 14072:1 14073:1 14076:1 14077:1 14079:1 14080:1 14081:1 14082:1 14083:1 14116:1 14138:1 14139:1 15161:1 15162:1 15163:1 15164:1 15165:1 15166:1 15167:1 15168:1 
0.0136579260017166 0.02392966780940059 22:1 23:1 25:1 29:1 30:1 31:1 34:1 37:1 58:1 198:1 206:1 3446:1 3790:1 4114:1 14008:1 14011:1 14037:1 14109:1 14142:1 14143:1 14144:1 14159:1 14160:1 15157:1 15180:1 15181:1 15182:1 15220:1 15221:1 15222:1 15223:1 15224:1 15225:1 15226:1 15227:1 15228:1 
0.01949488272446547 0.00781091446118206 24:1 25:1 30:1 34:1 38:1 45:2.5 46:3 47:2 67:4 115:1 138:1 139:1 170:1 222:1 226:1 268:1 272:1 413:1 418:1 427:1 444:1 446:1 460:1 466:1 706:1 1082:1 4174:1 4547:1 4548:1 4656:1 6413:1 6987:1 7179:1 9372:1 10631:1 10632:1 10633:1 10634:1 15229:1 15230:1 15231:1 15232:1 15233:1 15234:1 15235:1 15236:1 15237:1 15238:1 15239:1 15240:1 
0.05 0.01010465970246098 24:1 25:1 30:1 67:3 213:1 260:1 268:1 272:1 434:1 446:1 466:1 735:1 798:1 820:1 1663:1 1664:1 1675:1 1961:1 1972:1 2148:1 2537:1 2538:1 3996:1 4242:1 4656:1 4906:1 4907:1 14008:1 14011:1 14159:1 14160:1 15305:1 15306:1 15308:1 15309:1 15310:1 15312:1 15313:1 15314:1 15315:1 
0.0159690344816675 0 9:1 20:1 22:1 23:1 24:2 25:1 29:1 30:1 31:1 32:1 34:1 37:1 40:1 43:1 44:1 45:2 46:3 47:1 194:1 3096:1 4497:1 9131:1 9132:1 9973:1 9974:1 9975:1 9988:1 9989:1 9990:1 9991:1 9994:1 9995:1 9999:1 15335:1 15339:1 15411:1 15412:1 15413:1 15414:1 15415:1 15416:1 15417:1 15418:1 15419:1 15420:1 15421:1 15422:1 15423:1 
0.006945168087324404 0 22:1 23:1 24:1 29:1 30:1 31:1 32:1 40:1 43:1 45:1.5 46:2 47:1 115:1 123:1 198:1 594:1 598:1 675:1 745:1 6568:1 9131:1 9132:1 9245:2 9991:1 9995:1 11924:1 14607:1 15341:1 15342:1 15343:1 15374:1 15375:1 15376:1 15377:1 15378:1 15438:1 15439:1 15440:1 15441:1 15442:1 15443:1 15444:1 15445:1 15446:1 15447:1 15448:1 15449:1 15450:1 15451:1 
0.001280312913699059 0 22:1 23:1 24:2 25:1 29:1 30:1 31:1 32:1 45:1 46:1 47:1 74:1 77:1 78:1 141:1 145:1 146:1 167:1 611:1 614:1 785:1 792:1 794:1 1443:1 2586:1 2663:1 2675:1 3082:1 3133:1 3267:1 3272:1 3426:1 3446:1 3774:1 6644:1 6645:1 6653:1 6660:1 6661:1 6663:1 12105:1 13560:1 13563:1 15484:1 15486:1 15487:1 
0.01533734520644763 0.01085389781321787 24:1 25:1 29:1 30:1 31:1 45:3 46:3 47:3 67:1 115:1 176:1 198:2 268:1 272:1 278:1 390:1 435:1 446:1 577:1 594:1 598:1 610:1 612:1 613:1 742:1 743:1 745:1 770:1 3083:1 3091:1 4805:1 4806:1 4911:1 4920:1 4924:1 4925:1 6710:1 9167:1 9169:1 9170:1 10711:1 12070:1 12072:1 14660:1 15293:1 15556:1 15558:1 15559:1 15560:1 15561:1 15562:1 15563:1 
0.03232500432354998 0.002211492169122286 24:1 25:1 29:1 30:1 31:1 45:4 46:5 47:3 67:4 115:1 119:1 176:1 198:2 280:1 284:1 292:1 327:1 331:1 435:1 530:1 594:1 598:1 610:1 612:1 613:1 742:1 743:1 745:1 770:1 798:1 1999:1 2235:1 2237:1 3083:1 3091:1 4759:1 4793:1 4805:1 4806:1 4911:1 4920:1 6710:1 9167:1 9183:1 12070:1 12072:1 14660:1 15556:1 15564:1 15565:1 15566:1 15567:1 15568:1 15569:1 15570:1 
0.002217608291246974 0 22:1 23:1 24:1 29:1 30:1 31:1 32:1 40:1 43:1 45:1.5 46:2 47:1 115:1 123:1 176:1 198:2 567:1 569:1 578:1 579:1 681:1 682:1 686:1 724:1 789:1 1425:1 1694:1 3103:1 4136:1 4426:1 4458:1 6687:1 6690:1 9242:1 15576:1 15577:1 15578:1 15579:1 15580:1 15581:1 15582:1 15583:1 15584:1 15585:1 15586:1 15587:1 15588:1 15589:1 15590:1 
0.0228194488929855 0 9:1 22:1 23:1 24:1 29:1 30:1 31:1 32:1 40:1 43:1 45:1.5 46:2 47:1 115:1 123:1 198:1 388:1 594:1 598:1 613:1 745:1 1236:1 1659:1 2142:1 2721:1 3091:1 6297:1 7333:1 7456:1 7457:1 7458:1 7475:1 9232:1 9245:2 9448:1 10051:1 10053:1 10054:1 10904:1 10906:1 11631:1 11740:1 12733:1 14663:1 14664:1 15557:1 15591:1 15592:1 15593:1 15594:1 15595:1 15596:1 15597:1 
0.02167747407465828 0 22:1 23:1 24:1 29:1 30:1 31:1 32:1 45:2 46:3 47:1 115:1 198:3 388:1 594:1 613:1 745:1 1096:1 1098:1 1179:1 1203:1 1593:1 1599:1 1691:1 1698:1 2082:1 2085:1 3096:1 3133:1 3197:1 3643:1 4171:1 4172:1 4970:1 6370:2 6847:1 7457:1 9221:1 9223:1 10386:1 12824:1 12825:1 13154:1 13155:1 14356:1 14688:1 15617:1 15618:1 15619:1 15620:1 15630:1 15631:1 15632:1 15633:1 15690:1 15691:1 15692:1 15693:1 15694:1 15695:1 15696:1 15697:1 15698:1 15699:1 15700:1 15704:1 15706:1 15707:1 
0 0.003450955544052179 22:1 23:1 24:1 29:1 30:1 31:1 32:1 45:2 46:3 47:1 115:1 198:3 388:1 594:1 613:1 745:1 1096:1 1098:1 1179:1 1203:1 1593:1 1599:1 1714:1 2082:1 2085:1 2198:1 3096:1 3197:1 3643:1 4171:1 4172:1 4970:1 6370:1 6847:1 7457:1 9221:1 9223:1 10386:1 12824:1 12825:1 13154:1 13155:1 14356:1 14688:1 15617:1 15618:1 15619:1 15620:1 15630:1 15631:1 15632:1 15633:1 15691:1 15693:1 15694:1 15695:1 15696:1 15698:1 15704:1 15706:1 15707:1 15708:1 15709:1 15710:1 
0.006290609617587444 0 24:1 29:1 30:1 31:1 45:4 46:4 47:4 67:6 268:1 310:1 446:1 466:1 577:1 594:1 598:1 635:1 636:1 637:1 638:1 733:1 742:1 743:1 744:1 745:1 1098:1 1203:1 1245:1 1247:1 1248:1 2400:1 2534:1 2679:1 2711:1 3635:1 3662:1 3666:1 4006:1 4222:1 4223:1 6671:1 6672:1 6683:1 9259:1 9895:1 15711:1 15712:1 15713:1 15714:1 15715:1 15716:1 15717:1 15718:1 15719:1 15720:1 15721:1 
0.03785831340531752 0.0178304350002977 24:1 25:1 29:1 30:1 31:1 45:5 46:6 47:4 61:1 67:11 115:1 119:1 466:1 547:1 594:1 598:1 635:1 636:1 637:1 638:1 733:1 742:1 743:1 744:1 745:1 798:1 820:1 1245:2 1247:1 1248:1 1251:1 1252:1 1443:1 2679:1 2711:1 3639:1 3662:1 3666:1 4125:1 4127:1 4156:1 4271:1 4805:1 4806:1 9259:1 9895:1 15564:1 15565:1 15566:1 15711:1 15712:1 15718:1 15719:1 15720:1 15722:1 15723:1 15724:1 15725:1 15726:1 15727:1 15728:1 
0.009690868729765526 0.001452843010350936 22:1 23:1 24:1 25:1 30:1 34:1 38:1 40:1 43:1 44:1 45:1.5 46:2 47:1 115:1 138:1 139:1 194:1 201:1 706:1 3770:1 3776:1 3785:1 4497:1 6737:1 6747:1 6912:1 6914:1 6917:1 10183:1 12924:1 12979:1 12981:1 13032:1 13483:1 13540:1 14261:1 14263:1 14264:1 14265:1 14266:1 14267:1 14269:1 15729:1 15730:1 15731:1 15732:1 15733:1 15734:1 15735:1 
0.03292640726056202 0.003207927104465415 16:1 24:1 25:1 30:1 34:1 38:1 40:1 43:1 44:1 45:2 46:2 47:2 67:1 110:1 138:1 139:1 194:1 201:1 281:1 295:1 617:1 706:1 2533:1 2535:1 3435:1 3833:1 5332:1 5336:1 10139:1 10195:1 13025:1 13026:1 13027:1 13028:1 13124:1 15753:1 15754:1 15755:1 15756:1 15757:1 15758:1 15759:1 15760:1 15761:1 15762:1 15763:1 15764:1 15765:1 15766:1 15767:1 15768:1 
0.05 0.02090153599095727 24:2 25:1 30:1 45:2.5 46:3 47:2 67:2 130:1 138:1 139:1 168:1 198:1 268:1 272:1 434:1 446:1 547:1 1205:1 1209:1 2148:1 2184:1 2187:1 2234:1 2537:1 2538:1 2825:1 2951:1 3836:1 3837:1 3838:1 3839:1 3901:1 3902:1 3919:1 4726:1 5093:1 5094:1 5584:1 6940:1 7276:1 9354:1 11931:1 15804:1 15805:1 15808:1 15810:1 15811:1 15812:1 15814:1 15815:1 15816:1 15817:1 15818:1 15819:1 15820:1 15821:1 15822:1 15824:1 
0.004637095657083622 0 24:1 30:1 45:2 46:3 47:1 67:2 115:1 138:1 139:1 176:1 268:1 413:1 418:1 444:1 446:1 466:1 758:1 759:1 761:1 798:1 1082:1 1098:1 2400:1 2620:1 2621:1 2622:1 2624:1 2625:1 3754:1 3975:1 3976:1 3977:1 3978:1 3979:1 3990:1 3995:1 3996:1 4023:1 4242:1 6987:1 12979:1 12981:1 15729:1 15730:1 15835:1 15836:1 15837:1 15838:1 15839:1 15840:1 15841:1 
0.02313006686796337 0 8:1 18:1 22:1 23:1 24:1 26:1 29:1 30:1 31:1 32:1 40:1 43:1 115:1 123:1 198:1 615:1 1113:1 2676:1 2677:1 3715:1 5397:1 7028:1 7100:1 7107:1 7108:1 7109:1 7141:1 7143:1 8474:1 15881:1 15882:1 15883:1 15884:1 15885:1 15886:1 15887:1 15888:1 15889:1 15890:1 15891:1 
0.05 0.006147450208675956 8:1 25:2 26:1 30:1 34:1 45:2.5 46:3 47:2 67:6 89:1 90:1 94:1 115:3 119:2 198:1 206:1 292:1 327:1 466:1 530:1 1097:1 1135:1 1327:1 1339:2 2235:1 2237:1 2667:1 3715:1 3838:1 3839:1 3996:1 4174:1 4228:1 4229:1 4242:1 4411:1 4581:1 5397:1 7085:1 7091:1 9492:1 15882:1 15883:1 15884:1 15903:1 15904:1 15905:1 15906:1 15907:1 15908:1 15909:1 15910:1 15911:1 15912:1 15914:1 15915:1 15920:1 15921:1 15922:1 15923:1 15924:1 15925:1 15926:1 15927:1 15928:1 15929:1 15941:1 15942:1 
0.05 0.01368550272786257 8:1 25:2 26:1 30:1 34:1 45:2.5 46:3 47:2 67:8 89:1 90:1 94:1 115:2 119:2 198:1 206:1 268:1 272:1 292:1 434:1 446:1 466:1 1097:1 1135:1 1339:1 2513:1 2517:1 2537:1 2538:1 2667:1 3715:1 3838:1 3839:1 4006:1 4174:1 4228:1 4229:1 4431:1 5397:1 7085:1 7091:1 9491:1 9492:1 13264:1 15882:1 15883:1 15884:1 15906:1 15909:1 15910:1 15911:1 15912:1 15914:1 15916:1 15917:1 15919:1 15920:1 15921:1 15922:1 15923:1 15924:1 15925:1 15926:1 15927:1 15928:1 15929:1 15943:1 15944:1 
0.01572918906283712 0 22:1 23:1 24:1 29:1 30:1 31:1 32:1 40:1 43:1 45:1.5 46:2 47:1 115:1 123:1 198:1 280:1 641:1 654:1 681:1 682:1 686:1 724:1 759:1 4136:1 4174:1 7037:1 7039:1 15893:1 15895:1 15897:1 15898:1 15931:1 15932:1 15933:1 15934:1 15935:1 15936:1 15937:1 15938:1 15939:1 15945:1 15946:1 15947:1 15948:1 15949:1 15950:1 15951:1 15952:1 15953:1 15954:1 
0.03454417380213865 0 25:2 30:1 34:1 45:2.5 46:3 47:2 67:3 89:1 90:1 94:1 115:3 198:1 206:1 327:1 466:1 530:1 641:1 654:1 1097:1 1327:1 1339:2 2235:1 2237:1 2667:1 3838:1 3839:1 3996:1 4174:1 4228:1 4229:1 4242:1 4411:1 4581:1 4656:1 7036:1 7037:1 7038:1 7039:1 7085:1 7091:1 9492:1 15903:1 15904:1 15905:1 15906:1 15907:1 15908:1 15909:1 15911:1 15912:1 15914:1 15915:1 15948:1 15949:1 15952:1 15973:1 15974:1 15975:1 15976:1 15977:1 15978:1 15979:1 15980:1 15981:1 
0.05 0.01999036030207262 25:2 30:1 34:1 45:3.5 46:4 47:3 67:5 89:1 90:1 94:1 115:2 198:1 206:1 268:1 272:1 434:1 446:1 466:1 641:1 654:1 1097:1 1339:1 2513:1 2517:1 2537:1 2538:1 2667:1 3838:1 3839:1 4006:1 4174:1 4228:1 4229:1 4431:1 4656:1 7036:1 7037:1 7038:1 7039:1 7085:1 7091:1 9491:1 9492:1 13264:1 15906:1 15909:1 15911:1 15912:1 15914:1 15916:1 15917:1 15919:1 15948:1 15949:1 15952:1 15973:1 15974:1 15975:1 15976:1 15978:1 15979:1 15980:1 15982:1 15983:1 
0.00755288700110124 0.003271234022699941 22:1 23:1 24:2 26:1 29:1 30:1 31:1 32:1 40:1 43:1 45:1.5 46:2 47:1 115:1 123:1 176:1 198:1 789:1 2544:1 2620:1 2621:1 2625:1 3426:1 4550:1 6867:1 7388:1 7390:1 9134:1 9135:1 9136:1 9137:1 9138:1 9139:1 9142:1 9143:1 9144:1 9145:1 9146:1 9149:1 9150:1 9151:1 9152:1 9153:1 9154:1 9155:1 9156:1 15403:1 16031:1 16032:1 16033:1 
0.0309183694738792 0 24:1 25:1 30:1 34:1 38:1 45:2.5 46:4 47:1 58:1 67:2 110:1 138:1 139:1 194:1 201:1 521:1 527:1 547:1 706:1 2604:1 2605:1 2609:1 3746:1 3749:1 3752:1 3755:1 3760:1 3764:1 3766:1 3770:1 3771:1 3772:1 3773:1 3774:1 3775:1 3776:1 3781:1 3782:1 3801:1 3803:1 3804:1 5332:1 5336:1 6929:1 6930:1 10134:1 10135:1 10137:1 10138:1 10139:1 10140:1 10141:1 16119:1 
0.05 0 24:1 25:1 30:1 45:2 46:2 47:2 67:2 110:1 115:1 138:1 139:1 326:1 327:1 331:1 547:1 682:1 685:1 686:1 721:1 1016:1 2237:1 3764:1 3766:1 3773:1 3774:1 3775:1 3784:1 3785:1 3786:1 3790:1 3791:1 3792:1 3799:1 3800:1 3801:1 3803:1 3804:1 3806:1 3807:1 3819:1 3820:1 3821:1 3824:1 3825:1 3826:1 3827:1 3828:1 5332:1 5336:1 10134:1 10135:1 10137:1 10139:1 10151:1 16121:1 
0 0.001367376178236928 22:1 23:1 24:1 25:2 30:1 34:1 38:1 45:1.5 46:2 47:1 115:1 135:1 138:1 139:1 181:1 185:1 194:1 201:1 281:1 295:1 706:1 882:1 1491:1 2771:1 3435:1 3829:1 3830:1 3831:1 3832:1 3833:1 3851:1 3852:1 3858:1 3918:1 3942:1 4229:1 4240:1 4497:1 4681:1 4682:1 10157:1 10161:1 10210:1 16123:1 16124:1 16125:1 16126:1 16127:1 16128:1 16129:1 16130:1 16131:1 
0.006579208475162308 0 16:1 24:1 25:1 30:1 34:1 38:1 45:1.5 46:2 47:1 67:1 135:1 138:1 139:1 168:1 181:1 185:1 194:1 201:1 706:1 1491:1 2514:1 3435:1 3829:1 3830:1 3831:1 3832:1 3833:1 3840:1 3851:1 3852:1 3855:1 3856:1 3857:1 3858:1 3918:1 3942:1 5178:1 6990:1 8547:1 10161:1 10506:1 14877:1 16123:1 16128:1 16129:1 16130:1 16131:1 16132:1 16133:1 16134:1 16135:1 
0.007732843133077938 0.00426439709809203 22:1 23:1 24:1 25:1 30:1 34:1 38:1 40:1 43:1 45:2 46:2 47:2 115:2 123:1 138:1 139:1 176:1 706:1 1082:1 1286:1 3754:1 3764:1 3766:1 3972:1 3978:1 3984:1 4641:1 4642:1 6551:1 10134:1 10135:1 10189:1 11848:1 11849:1 16148:1 16149:1 16150:1 16151:1 16152:1 16153:1 16154:1 16155:1 16156:1 16157:1 16158:1 16159:1 16160:1 16161:1 16162:1 
0.005484119596816842 0.01755086730811995 24:1 25:1 29:1 30:1 31:1 45:3.5 46:5 47:2 67:6 115:1 176:1 268:1 272:1 413:1 418:1 427:1 444:1 446:1 460:1 466:2 759:1 798:1 812:1 822:1 823:1 1601:1 1604:1 2523:1 4023:1 4189:1 4214:1 4244:1 4254:1 4255:1 4541:1 4602:1 4921:1 4922:1 9412:1 10294:1 10295:1 10296:1 10300:1 10378:1 13263:1 16189:1 16190:1 16191:1 16193:1 16194:1 16195:1 16196:1 
0.0372269271917634 0.02550284935232623 8:1 29:1 30:1 31:1 67:2 115:1 198:1 346:1 351:1 547:1 1096:1 1098:1 2333:1 3197:1 3981:1 3989:1 4013:1 4014:1 4015:1 4068:1 4072:1 4216:1 4258:1 4289:1 4340:1 4970:1 7020:1 7029:1 7030:1 7033:1 7034:1 8076:1 9403:1 10385:1 10386:1 16240:1 16241:1 16242:1 16243:1 16244:1 16245:1 16246:1 16247:1 16248:1 16249:1 
0 0.008302584707470714 24:1 25:1 29:1 30:1 31:1 67:6 115:2 170:1 176:1 222:1 226:1 268:1 272:1 413:1 418:1 427:1 444:1 446:1 460:1 466:2 759:1 798:1 812:1 822:1 823:1 2544:1 4189:1 4214:1 4244:1 4254:1 4255:1 4493:1 4494:1 4500:1 4541:1 4602:1 9549:1 10300:1 10378:1 10463:1 13201:1 13285:1 16301:1 
0.02419159611131596 0 24:1 25:1 29:1 30:1 31:1 67:3 115:2 170:1 198:1 222:1 226:1 268:1 272:1 346:1 446:1 460:1 466:1 759:1 2544:1 4189:1 4214:1 4263:1 4457:1 4459:1 4493:1 4495:1 4510:1 4529:1 4533:1 4639:1 9409:1 10347:1 16274:1 16302:1 16303:1 16304:1 16305:1 16306:1 16307:1 16308:1 16309:1 16310:1 
0.02531915740158397 0 24:1 25:2 29:1 30:1 31:1 45:3 46:5 47:1 67:5 176:1 268:1 272:1 413:1 418:1 444:1 446:1 466:2 593:1 594:1 598:1 745:1 759:1 798:1 812:1 822:1 823:1 2552:1 3140:1 3995:1 3996:1 4112:1 4116:1 4195:1 4205:1 4210:1 4242:1 4683:1 4684:1 4903:1 5037:1 5039:1 10291:1 10441:1 10442:1 10443:1 10453:1 16320:1 16321:1 16322:1 16323:1 
0 0.001045215846792153 24:1 29:1 30:1 31:1 45:2 46:2 47:2 67:3 115:3 198:1 346:1 460:1 466:1 759:1 1098:1 1555:1 1561:1 2474:1 2478:1 3197:1 3741:1 4068:1 4072:1 4213:1 4215:1 4457:1 4459:1 4493:1 4495:1 4529:1 4970:1 5178:1 6390:1 6990:1 7020:1 7026:1 7029:1 7030:1 7033:1 7034:1 9409:1 9884:1 10347:1 10382:1 10383:1 10385:1 10386:1 10506:1 13265:1 16274:1 16305:1 16372:1 16389:1 16394:1 16395:1 
0.02388132274156586 0 24:1 29:1 30:1 31:1 45:3.5 46:5 47:2 67:5 115:2 198:1 280:1 284:1 292:1 327:1 346:1 466:1 530:1 759:1 1098:1 2235:1 2237:1 2474:1 2478:1 3741:1 4068:1 4072:1 4457:1 4459:1 4493:1 4495:1 4510:1 4512:1 4529:1 4581:1 4853:1 5178:1 6390:1 7020:1 7029:1 7030:1 9409:1 9700:1 9884:1 10347:1 10382:1 10383:1 13265:1 16274:1 16305:1 16391:1 16392:1 16394:1 16395:1 16396:1 
0.01360576816631502 0.004909793136482554 8:1 24:1 26:1 29:1 30:1 31:1 45:2.5 46:3 47:2 67:3 115:1 198:1 268:1 346:1 446:1 466:1 1098:1 1601:1 1604:1 2400:1 2523:1 3996:1 4068:1 4072:1 4242:1 4457:1 4459:1 4547:1 4548:1 4656:1 9549:1 15285:1 15855:1 16241:1 16242:1 16275:1 16277:1 16278:1 16279:1 16281:1 16282:1 16283:1 16361:1 16365:1 16366:1 16367:1 16413:1 16414:1 16415:1 16416:1 16417:1 16418:1 
0 0.007775338604997236 25:1 29:1 30:1 31:1 45:2 46:3 47:1 67:2 115:3 198:1 346:1 466:1 593:1 594:1 745:1 759:1 1096:1 2410:1 3140:1 3197:1 3201:1 3996:1 4189:1 4214:1 4229:1 4240:1 4242:1 4340:1 4529:1 4574:1 4605:1 4970:1 6202:1 7020:1 7029:1 7030:1 7033:1 7034:1 8076:1 9403:1 9406:1 9409:1 9884:1 10398:1 13741:1 16246:1 16330:1 16435:1 16436:1 16437:1 16438:1 16439:1 
0.04785760160807353 0.01165059037525089 24:1 25:1 29:1 30:1 31:1 67:7 115:2 119:1 176:1 198:1 259:1 460:1 466:1 501:1 504:1 798:1 1240:1 2544:1 3197:1 3201:1 4023:1 4457:1 4459:1 4529:1 4574:1 4688:1 4970:1 5178:1 6990:1 7026:1 7030:1 7033:1 7034:1 9409:1 10506:1 10555:1 13714:1 14659:1 16274:1 16311:1 16443:1 16448:1 16449:1 16450:1 16451:1 16452:1 16453:1 16454:1 
0 0.008813135843165782 25:1 29:1 30:1 31:1 45:2 46:3 47:1 67:3 115:2 176:1 460:1 466:1 539:1 593:1 594:1 745:1 759:1 798:1 1096:1 1240:1 2410:1 3140:1 3197:1 3201:1 4023:1 4574:1 4970:1 5178:1 6990:1 7020:1 7026:1 7029:1 7030:1 7033:1 7034:1 9884:1 10506:1 10537:1 10538:1 10539:1 10540:1 10555:1 13727:1 16349:1 16450:1 16451:1 16452:1 16453:1 16454:1 16455:1 16456:1 
0.05 0 24:2 25:1 29:1 30:1 31:1 45:2.5 46:4 47:1 67:3 115:1 198:4 268:1 272:1 446:1 466:1 798:1 820:1 856:1 1096:1 1601:1 1604:1 1967:1 3096:1 3628:1 3968:1 3996:1 4142:1 4144:1 4229:1 4240:1 4242:1 4340:1 4457:1 4459:1 4529:1 4568:1 4656:1 4681:1 4682:1 4909:1 4921:1 4922:1 9409:1 9410:1 10512:1 10513:1 10514:1 10515:1 10516:1 10967:1 13750:1 13751:1 13752:1 13753:1 13754:1 16480:1 16481:1 16483:1 16484:1 16485:1 16486:1 16487:1 16489:1 
0.01419746812015221 0.01472792437878778 25:1 29:1 30:1 31:1 45:2 46:3 47:1 67:3 115:1 198:1 346:1 460:1 466:1 759:1 1096:1 1601:1 1604:1 3197:1 3201:1 4189:1 4214:1 4340:1 4529:1 4909:1 4921:1 4922:1 4970:1 5178:1 6990:1 7020:1 7026:1 7029:1 7030:1 7033:1 7034:1 8076:1 9406:1 9409:1 9884:1 10506:1 10554:1 10555:1 10967:1 13335:1 16416:1 16435:1 16478:1 16485:1 16486:1 16487:1 16488:1 
0.008915067869103593 0 9:1 22:1 23:1 24:1 29:1 30:1 31:1 32:1 132:1 268:1 310:1 446:1 856:1 1096:1 1098:1 1443:1 2400:1 2837:1 3426:1 5472:1 16510:1 16511:1 16512:1 16513:1 16514:1 16515:1 16516:1 16517:1 16518:1 16519:1 16520:1 16521:1 16522:1 16523:1 16524:1 16525:1 16526:1 16527:1 16528:1 16529:1 
0.02253549138839034 0 22:1 23:1 24:3 25:1 30:1 32:1 45:3 46:3 47:3 126:1 128:1 138:1 139:1 194:1 201:1 326:1 327:1 331:1 648:1 820:1 1016:1 1179:2 1698:2 2237:1 3446:1 3770:1 3776:1 3789:1 3806:1 4713:1 4724:2 6914:1 6924:1 6925:1 9903:1 9906:1 12972:1 12983:1 12984:1 13073:1 16693:1 16694:1 16695:1 16696:1 16697:1 16698:1 16699:1 16700:1 16701:1 16702:1 16703:1 16704:1 16705:1 16706:1 16707:1 
0.007038099482667442 0.003702378947598945 22:1 23:1 24:2 25:1 30:1 32:1 55:1 126:1 128:1 138:1 139:1 194:1 201:1 3770:1 3776:1 4497:1 5544:1 5547:1 5595:1 6912:1 12999:1 13032:1 16684:1 16685:1 16687:1 16689:1 16695:1 16697:1 16708:1 16709:1 16710:1 16711:1 16712:1 
0.007490597107445338 0.002877816253716949 22:1 23:1 24:2 25:1 29:1 30:1 31:1 32:1 34:1 37:1 38:1 40:1 43:1 44:1 45:1.5 46:2 47:1 132:1 520:1 897:1 902:1 3234:1 4734:1 10342:1 10344:1 10369:1 16140:1 16736:1 16739:1 16749:1 16750:1 16751:1 16752:1 16753:1 16754:1 16755:1 16756:1 16799:1 16800:1 16801:1 16802:1 16803:1 16804:1 16805:1 16806:1 16807:1 16808:1 16809:1 16810:1 
0.01555724838962651 0 22:1 23:1 24:1 29:1 30:1 31:1 32:1 40:1 43:1 45:1.5 46:2 47:1 115:1 123:1 164:1 198:1 756:1 820:1 1205:1 1209:1 1546:1 3030:1 3225:1 3919:1 4737:1 6958:1 14310:1 14311:1 15149:1 15157:1 15222:1 16773:1 16775:1 16777:1 16782:1 16783:1 16784:1 16785:1 16786:1 16787:1 16840:1 16841:1 16842:1 16843:1 16844:1 16845:1 16846:1 16847:1 16848:1 
0.03338356065719014 0 22:1 23:1 24:6 25:1 30:1 32:1 45:2 46:3 47:1 126:1 128:1 138:1 139:1 268:1 272:1 390:1 393:1 418:1 444:1 446:1 789:1 838:1 856:3 1082:1 1698:2 1767:2 1967:1 2620:1 2621:1 2622:1 2624:1 2625:1 3628:1 3963:1 3964:1 3968:1 3969:1 3991:1 3992:1 3993:1 3994:1 3995:1 3996:1 3997:1 3998:1 4000:1 4488:1 5618:1 6984:1 6985:1 6987:1 14050:1 14053:1 16849:1 16850:1 16851:1 16852:1 16857:1 16861:1 
0.03322132767972787 0.003057964567956557 22:1 23:1 24:4 25:1 30:1 32:1 45:3 46:5 47:1 126:1 128:1 138:1 139:1 280:1 327:1 331:1 530:1 838:1 856:1 1082:1 1113:1 1135:1 1698:1 1767:1 1967:1 2235:1 2237:1 2620:1 2621:1 2622:1 2624:1 2625:1 3628:1 3963:1 3964:1 3988:1 4002:1 4003:1 4004:1 4005:1 4006:1 4007:1 4011:1 4552:1 4562:1 5787:1 5852:1 6987:1 8474:1 8712:1 14050:1 16850:1 16857:1 16862:1 16863:1 
0.01217012274331535 0 22:1 23:1 24:3 25:1 30:1 32:1 45:2 46:3 47:1 126:1 128:1 138:1 139:1 268:1 272:1 390:1 393:1 418:1 444:1 446:1 615:1 838:1 856:1 1082:1 1967:1 2620:1 2621:1 2622:1 2624:1 2625:1 3628:1 3963:1 3991:1 3992:1 3993:1 3994:1 3995:1 3996:1 3997:1 3998:1 4000:1 4035:1 4037:1 5618:1 5889:1 6987:1 14050:1 14053:1 16850:1 16857:1 16861:1 16874:1 
0.01690552139740455 0 22:1 23:1 24:1 29:1 30:1 31:1 32:1 40:1 43:1 115:1 123:1 198:1 213:1 224:1 501:1 919:1 1938:1 6990:1 6997:1 7215:1 16877:1 16879:1 16880:1 16882:1 16883:1 16884:1 16885:1 16886:1 16887:1 16888:1 16889:1 16890:1 16891:1 16903:1 16904:1 16905:1 
0.03015779743070001 0.007912175013615255 9:1 22:1 23:1 24:2 25:1 29:1 30:1 31:1 32:1 45:2.5 46:3 47:2 115:1 198:1 310:1 593:1 594:1 598:1 745:1 1967:1 2534:1 3096:1 3140:1 3197:1 3201:1 3628:1 3996:1 4142:1 4229:1 4240:1 4422:1 4838:1 4843:1 4844:1 4859:1 4860:1 4970:1 7033:1 7034:1 9403:1 9410:1 15000:1 15002:1 15313:1 16892:1 16893:1 16895:1 16932:1 16933:1 16934:1 16935:1 16936:1 16937:1 
0.01264442339563264 0.002526021374722929 8:1 24:1 25:1 26:1 29:1 30:1 31:1 40:1 43:1 67:3 115:1 123:1 170:1 176:1 198:2 222:1 226:1 405:1 413:1 427:1 460:1 466:1 758:1 759:1 761:1 4058:1 4174:1 4493:1 4639:1 8961:1 14061:1 16948:1 16949:1 16950:1 16951:1 16952:1 16953:1 16954:1 16955:1 16956:1 16957:1 16958:1 16959:1 16960:1 
0.002071610385241341 0 22:1 23:1 24:1 25:1 29:1 30:1 31:1 32:1 45:2 46:3 47:1 115:2 176:1 198:2 268:1 272:1 418:1 444:1 446:1 681:1 682:1 724:1 798:1 838:1 856:1 897:1 1096:1 1728:1 1817:1 1967:1 3133:1 3628:1 3966:1 3976:1 3978:1 3995:1 3996:1 4136:1 4340:1 13457:1 13458:1 16246:1 17029:1 17030:1 17031:1 17032:1 17033:1 17034:1 17035:1 17036:1 17037:1 17038:1 17039:1 17040:1 17041:1 17042:1 17043:1 
0.02007392530695262 0.01021760144861381 8:1 22:1 23:1 24:1 25:1 26:1 29:1 30:1 31:1 32:1 181:1 185:1 198:1 224:1 501:1 1096:1 1491:1 2711:1 4550:1 17076:1 17077:1 17078:1 17079:1 17080:1 17081:1 17082:1 17083:1 17084:1 17085:1 17086:1 17087:1 17088:1 17089:1 17090:1 17091:1 17092:1 17093:1 17094:1 17095:1 
0.05 0.01407581540591351 24:1 25:1 29:1 30:1 31:1 45:4 46:5 47:3 67:6 268:1 413:1 418:1 444:1 446:1 466:1 577:1 593:1 594:1 598:1 745:1 759:1 798:1 1098:1 1289:1 1662:1 2099:1 2400:1 2679:1 3140:1 3981:1 3995:1 4013:1 4014:1 4531:1 4536:1 14379:1 17086:1 17088:1 17096:1 17097:1 17098:1 17099:1 17100:1 17102:1 17103:1 17104:1 17126:1 17127:1 17128:1 17129:1 17130:1 17131:1 17132:1 17133:1 
0.01438166724737429 0.009652190869570714 22:1 23:1 29:1 30:1 31:1 32:1 45:1.5 46:2 47:1 115:1 181:1 198:1 569:1 577:1 789:1 1096:1 1229:1 1491:1 2544:1 2545:1 2620:1 2621:1 4143:1 4187:1 4188:1 4441:1 4442:1 4456:1 4550:1 7388:1 7390:1 9242:1 10546:1 15580:1 16061:1 17134:1 17135:1 17136:1 17137:1 17138:1 17139:1 17140:1 17141:1 17142:1 17143:1 17144:1 17145:1 17146:1 17147:1 
0 0.004589066616355216 16:1 22:1 23:1 24:2 25:1 30:1 32:1 40:1 43:1 44:1 45:2.5 46:3 47:2 138:1 139:1 194:1 201:1 281:1 295:1 542:1 1205:1 1209:1 2136:1 2234:1 2533:1 2951:1 3435:1 3833:1 12979:1 12981:1 17185:1 17186:1 17187:1 17188:1 17189:1 17190:1 17191:1 17192:1 17193:1 17194:1 17195:1 17196:1 17197:1 17198:1 17199:1 17200:1 17201:1 17202:1 17203:1 17204:1 17205:1 
0.05 0.007733063997622656 29:1 30:1 31:1 45:2 46:3 47:1 67:2 115:2 176:1 259:1 267:1 268:1 446:1 466:1 501:1 504:1 759:1 771:1 798:1 1066:1 1096:1 2620:1 2621:1 3538:1 3600:1 3996:1 4093:1 4213:1 4215:1 4242:1 4493:1 7388:1 7390:1 8575:1 9613:1 10546:1 13211:1 14062:1 14470:1 17318:1 17321:1 17323:1 17324:1 17325:1 17326:1 17327:1 17328:1 17329:1 
0.006794857745168538 0.01955844209915284 24:1 30:1 45:2 46:2 47:2 67:2 89:1 90:1 115:2 451:1 466:1 759:1 1341:1 1342:1 1346:1 1600:1 1601:1 2523:1 3216:1 3526:1 3549:1 3550:1 3996:1 4161:1 4163:1 4229:1 4240:1 4242:1 4493:1 4554:1 4878:1 5105:1 5770:1 9884:1 14027:1 14030:1 14062:1 14085:1 14186:1 14187:1 15029:1 15034:1 17296:1 17342:1 17343:1 17344:1 17345:1 
0.05 0.031744121135688 24:1 30:1 45:2 46:2 47:2 67:8 89:1 90:1 115:2 119:1 346:1 434:1 466:2 759:1 1259:1 1261:1 1341:1 1342:1 1346:1 1600:1 1601:1 2523:1 3216:1 3526:1 3549:1 3550:1 4006:1 4008:1 4161:1 4163:1 4554:1 4559:1 4574:1 5105:1 5178:2 6990:1 7289:1 9884:1 10506:1 13303:1 13718:1 14027:1 14030:1 14186:1 14187:1 15029:1 17296:1 17342:1 17346:1 17347:1 17348:1 17349:1 
