GIS
9
0.0
2
T
F
3
14 0
8 0 1
11 1
33
x=Cough
n=Review
n=
v=health
n=Cancer,
n=Consult
v=heart
x=concerns
x=disease
v=2000.
7
5
v=hypertension.
8
x=Mr
eos=.
s=
ncap
sn
2
v=
xcap
x=hypertension
12
n=Testing
n=Mr.
x=2000
n=Cough.
x=Dr
v=20,
v=cyst,
4
v=by
8.417698138721482
11.896218921053926
9.65039661291376
8.483738087845165
8.483738087845165
12.002940093113883
7.903114126412477
8.483738087845165
7.903114126412477
5.077918330254914
7.903114126412477
8.417698138721482
14.99867056546027
8.483738087845165
-0.7211021656450474
0.7273818486375838
2.1371296856095374
-2.64670736571271
2.1371296856095374
-2.64670736571271
-2.5846956626488677
2.0488559107221116
-2.1455565449550758
1.777945045092054
-7.709952264210628
4.38304385015139
-3.2468403082431965
3.384840506195764
2.3512182798668184
-3.308944888075679
8.590825952798905
8.590825952798905
12.107460409756012
8.590825952798905
8.590825952798905
8.590825952798905
8.490935622943125
8.590825952798905
8.590825952798905
8.590825952798905
8.490935622943125
