svm_type c_svc
kernel_type rbf
gamma 0.125
nr_class 2
total_sv 769
rho 0.19863680707410622
label 1 0
probA -2.845435567192968
probB 0.18283930075720792
nr_sv 267 502
SV
1.263181515478568 2:0.08333333333333333 3:0.05 12:1.0 15:1.0 18:1.0 20:1.0 21:1.0 22:1.0 25:1.0 30:1.0 32:1.0 33:1.0 34:1.0 39:1.0 41:1.0 42:0.75 45:1.0 49:1.0 52:1.0 60:1.0 76:1.0 82:1.0 114:1.0 115:1.0 127:1.0 140:1.0 179:1.0 
2.0 2:0.028333333333333332 12:1.0 15:1.0 18:1.0 22:1.0 24:1.0 30:1.0 32:1.0 33:1.0 39:1.0 41:1.0 42:0.95 44:1.0 47:1.0 52:1.0 58:1.0 60:1.0 65:1.0 76:1.0 113:1.0 114:1.0 115:1.0 116:1.0 179:1.0 
2.0 2:0.028333333333333332 3:0.05 12:1.0 15:1.0 18:1.0 22:1.0 24:1.0 30:1.0 32:1.0 33:1.0 35:1.0 39:1.0 42:1.1 43:1.0 44:1.0 58:1.0 65:1.0 82:1.0 116:1.0 117:1.0 
0.5504157805472023 2:0.09333333333333334 3:0.2 12:1.0 15:1.0 18:1.0 20:1.0 21:1.0 22:1.0 24:1.0 30:1.0 32:1.0 33:1.0 38:1.0 42:0.75 52:1.0 58:1.0 60:1.0 65:1.0 71:1.0 74:1.0 92:1.0 111:1.0 112:1.0 128:1.0 169:1.0 179:1.0 
0.6180090663519174 2:0.39166666666666666 3:0.6 6:1.0 7:1.0 12:1.0 15:1.0 18:1.0 20:1.0 21:1.0 22:1.0 25:1.0 30:1.0 32:1.0 33:1.0 34:1.0 40:1.0 41:1.0 42:0.8 48:1.0 58:1.0 60:1.0 65:1.0 76:1.0 78:1.0 82:1.0 114:1.0 115:1.0 138:1.0 
2.0 2:0.24333333333333335 3:0.5 12:1.0 15:1.0 18:1.0 21:1.0 22:1.0 24:1.0 30:1.0 32:1.0 33:1.0 38:1.0 41:1.0 42:0.3 44:1.0 58:1.0 65:1.0 73:1.0 111:1.0 112:1.0 116:1.0 174:1.0 
1.4107086840537102 2:0.19333333333333333 3:0.35 7:1.0 10:1.0 12:1.0 15:1.0 18:1.0 20:1.0 21:1.0 22:1.0 25:1.0 30:1.0 32:1.0 33:1.0 40:1.0 41:1.0 42:0.65 48:1.0 58:1.0 60:1.0 65:1.0 73:1.0 74:1.0 76:1.0 78:1.0 94:1.0 111:1.0 112:1.0 128:1.0 138:1.0 174:1.0 
2.0 2:0.041666666666666664 3:0.1 12:1.0 15:1.0 22:1.0 24:1.0 30:1.0 32:1.0 33:1.0 38:1.0 41:1.0 42:0.65 43:1.0 52:1.0 58:1.0 60:1.0 65:1.0 70:1.0 74:1.0 77:1.0 82:1.0 107:1.0 111:1.0 112:1.0 117:1.0 146:1.0 179:1.0 
0.6280430778549722 2:0.3416666666666667 3:0.9 4:1.0 5:1.0 6:1.0 7:1.0 10:1.0 12:1.0 15:1.0 18:1.0 20:1.0 21:1.0 22:1.0 23:1.0 30:1.0 32:1.0 33:1.0 34:1.0 40:1.0 41:1.0 42:0.45 46:1.0 47:1.0 50:1.0 58:1.0 60:1.0 65:1.0 78:1.0 82:1.0 111:1.0 112:1.0 113:1.0 138:1.0 143:1.0 
2.0 2:0.24833333333333332 3:0.65 12:1.0 15:1.0 22:1.0 24:1.0 30:1.0 32:1.0 33:1.0 39:1.0 41:1.0 42:0.7 47:1.0 52:1.0 58:1.0 60:1.0 76:1.0 77:1.0 82:1.0 105:1.0 111:1.0 112:1.0 113:1.0 114:1.0 115:1.0 127:1.0 156:1.0 179:1.0 
2.0 2:0.32166666666666666 3:0.8 12:1.0 15:1.0 21:1.0 22:1.0 24:1.0 30:1.0 33:1.0 37:1.0 41:1.0 42:0.4 48:1.0 52:1.0 58:1.0 60:1.0 73:1.0 114:1.0 115:1.0 127:1.0 144:1.0 174:1.0 179:1.0 
0.4965382081809917 2:0.09 3:0.25 4:1.0 5:1.0 6:1.0 7:1.0 12:1.0 15:1.0 18:1.0 20:1.0 21:1.0 22:1.0 24:1.0 30:1.0 32:1.0 33:1.0 35:1.0 37:1.0 41:1.0 42:0.25 47:1.0 48:1.0 60:1.0 100:1.0 113:1.0 
0.8589546803280333 2:0.06 3:0.2 6:1.0 12:1.0 15:1.0 18:1.0 21:1.0 22:1.0 24:1.0 30:1.0 32:1.0 33:1.0 37:1.0 41:1.0 42:0.55 47:1.0 48:1.0 52:1.0 58:1.0 60:1.0 73:1.0 88:1.0 111:1.0 112:1.0 113:1.0 114:1.0 115:1.0 127:1.0 174:1.0 179:1.0 
0.4097030119793345 2:0.058333333333333334 3:0.15 6:1.0 12:1.0 15:1.0 18:1.0 21:1.0 22:1.0 24:1.0 30:1.0 32:1.0 33:1.0 35:1.0 37:1.0 41:1.0 42:0.95 47:1.0 48:1.0 52:1.0 58:1.0 60:1.0 65:1.0 77:1.0 78:1.0 82:1.0 83:1.0 106:1.0 111:1.0 112:1.0 113:1.0 114:1.0 115:1.0 127:1.0 138:1.0 179:1.0 
2.0 2:0.03 3:0.1 12:1.0 15:1.0 22:1.0 24:1.0 30:1.0 32:1.0 33:1.0 37:1.0 41:1.0 42:0.8 47:1.0 48:1.0 52:1.0 58:1.0 60:1.0 65:1.0 78:1.0 82:1.0 105:1.0 113:1.0 138:1.0 179:1.0 
0.6741074087217533 2:0.013333333333333334 3:0.05 10:1.0 12:1.0 15:1.0 18:1.0 20:1.0 21:1.0 22:1.0 25:1.0 30:1.0 32:1.0 33:1.0 35:1.0 39:1.0 41:1.0 42:0.8 47:1.0 52:1.0 58:1.0 60:1.0 65:1.0 77:1.0 82:1.0 83:1.0 93:1.0 105:1.0 111:1.0 112:1.0 113:1.0 114:1.0 115:1.0 127:1.0 179:1.0 
0.3986535092062552 2:0.29333333333333333 3:1.0 4:1.0 5:1.0 6:1.0 7:1.0 12:1.0 15:1.0 18:1.0 20:1.0 21:1.0 22:1.0 24:1.0 30:1.0 32:1.0 33:1.0 40:1.0 42:0.3 46:1.0 50:1.0 60:1.0 61:1.0 76:1.0 82:1.0 143:1.0 152:1.0 172:1.0 
0.8566257712007095 2:0.09166666666666666 3:0.15 4:1.0 5:1.0 6:1.0 7:1.0 12:1.0 15:1.0 18:1.0 20:1.0 21:1.0 22:1.0 24:1.0 30:1.0 32:1.0 33:1.0 39:1.0 41:1.0 42:1.3 43:1.0 52:1.0 58:1.0 60:1.0 65:1.0 70:1.0 74:1.0 77:1.0 82:1.0 89:1.0 107:1.0 111:1.0 112:1.0 114:1.0 115:1.0 117:1.0 127:1.0 146:1.0 179:1.0 
0.9266829634959685 2:0.19166666666666668 3:0.4 12:1.0 15:1.0 18:1.0 20:1.0 21:1.0 22:1.0 24:1.0 30:1.0 32:1.0 33:1.0 37:1.0 41:1.0 42:0.25 47:1.0 52:1.0 58:1.0 60:1.0 71:1.0 105:1.0 113:1.0 169:1.0 179:1.0 
0.4201358912387022 2:0.08666666666666667 3:0.25 4:1.0 5:1.0 6:1.0 7:1.0 12:1.0 15:1.0 18:1.0 20:1.0 21:1.0 22:1.0 24:1.0 30:1.0 32:1.0 33:1.0 39:1.0 41:1.0 42:1.15 44:1.0 52:1.0 58:1.0 60:1.0 65:1.0 74:1.0 77:1.0 82:1.0 111:1.0 112:1.0 114:1.0 115:1.0 116:1.0 127:1.0 128:1.0 179:1.0 
1.7979314245477853 2:0.155 3:0.4 12:1.0 15:1.0 20:1.0 21:1.0 22:1.0 25:1.0 30:1.0 32:1.0 33:1.0 34:1.0 37:1.0 41:1.0 42:0.5 47:1.0 54:1.0 55:1.0 58:1.0 60:1.0 82:1.0 113:1.0 157:1.0 180:1.0 
1.3457719625132554 2:0.16666666666666666 3:0.4 4:1.0 5:1.0 6:1.0 7:1.0 12:1.0 15:1.0 18:1.0 20:1.0 21:1.0 22:1.0 24:1.0 30:1.0 33:1.0 39:1.0 41:1.0 42:0.95 43:1.0 44:1.0 58:1.0 65:1.0 77:1.0 82:1.0 111:1.0 112:1.0 116:1.0 117:1.0 
0.727045492539073 2:0.115 3:0.2 4:1.0 5:1.0 6:1.0 7:1.0 12:1.0 15:1.0 18:1.0 20:1.0 21:1.0 22:1.0 24:1.0 30:1.0 32:1.0 33:1.0 39:1.0 41:1.0 42:0.95 43:1.0 52:1.0 58:1.0 60:1.0 65:1.0 70:1.0 74:1.0 77:1.0 82:1.0 114:1.0 115:1.0 117:1.0 127:1.0 146:1.0 179:1.0 
0.3395839358889739 2:0.041666666666666664 3:0.15 12:1.0 15:1.0 18:1.0 20:1.0 21:1.0 22:1.0 24:1.0 30:1.0 32:1.0 33:1.0 35:1.0 38:1.0 41:1.0 42:0.45 47:1.0 60:1.0 70:1.0 74:1.0 76:1.0 88:1.0 113:1.0 146:1.0 174:1.0 
0.5230581371853908 2:0.06166666666666667 3:0.05 4:1.0 5:1.0 6:1.0 7:1.0 12:1.0 15:1.0 18:1.0 20:1.0 21:1.0 22:1.0 24:1.0 30:1.0 32:1.0 33:1.0 35:1.0 38:1.0 42:0.45 58:1.0 65:1.0 70:1.0 74:1.0 77:1.0 82:1.0 109:1.0 128:1.0 146:1.0 
2.0 2:0.12833333333333333 3:0.2 12:1.0 15:1.0 18:1.0 20:1.0 21:1.0 22:1.0 24:1.0 30:1.0 32:1.0 33:1.0 37:1.0 41:1.0 42:0.35 48:1.0 58:1.0 60:1.0 65:1.0 78:1.0 138:1.0 174:1.0 
2.0 2:0.023333333333333334 3:0.05 11:1.0 13:1.0 17:1.0 24:1.0 30:1.0 32:1.0 33:1.0 41:1.0 42:1.0 44:1.0 47:1.0 58:1.0 60:1.0 65:1.0 77:1.0 78:1.0 82:1.0 107:1.0 111:1.0 112:1.0 113:1.0 114:1.0 115:1.0 116:1.0 138:1.0 
0.5332462811515584 2:0.008333333333333333 3:0.05 7:1.0 12:1.0 15:1.0 18:1.0 20:1.0 21:1.0 22:1.0 25:1.0 30:1.0 32:1.0 33:1.0 34:1.0 35:1.0 40:1.0 41:1.0 42:0.4 43:1.0 44:1.0 58:1.0 65:1.0 111:1.0 112:1.0 116:1.0 117:1.0 
0.7460883845897336 2:0.15333333333333332 3:0.4 12:1.0 15:1.0 18:1.0 20:1.0 21:1.0 22:1.0 24:1.0 30:1.0 32:1.0 33:1.0 40:1.0 41:1.0 42:0.45 43:1.0 58:1.0 65:1.0 111:1.0 112:1.0 117:1.0 
2.0 2:0.20833333333333334 3:0.6 6:1.0 12:1.0 15:1.0 18:1.0 21:1.0 22:1.0 24:1.0 30:1.0 32:1.0 33:1.0 38:1.0 41:1.0 42:0.2 44:1.0 58:1.0 65:1.0 73:1.0 116:1.0 167:1.0 174:1.0 
2.0 2:0.2966666666666667 3:0.85 12:1.0 15:1.0 18:1.0 20:1.0 21:1.0 22:1.0 24:1.0 30:1.0 32:1.0 33:1.0 38:1.0 42:0.5 52:1.0 58:1.0 60:1.0 65:1.0 74:1.0 128:1.0 179:1.0 
0.9213337327772406 2:0.03 6:1.0 11:1.0 12:1.0 15:1.0 18:1.0 21:1.0 24:1.0 30:1.0 32:1.0 33:1.0 35:1.0 37:1.0 41:1.0 42:0.9 44:1.0 58:1.0 65:1.0 116:1.0 
2.0 2:0.35 3:0.45 12:1.0 15:1.0 22:1.0 24:1.0 30:1.0 32:1.0 33:1.0 38:1.0 42:0.5 48:1.0 52:1.0 58:1.0 60:1.0 75:1.0 98:1.0 101:1.0 102:1.0 114:1.0 115:1.0 127:1.0 179:1.0 
1.0946577672582887 2:0.08333333333333333 3:0.1 6:1.0 12:1.0 15:1.0 18:1.0 21:1.0 24:1.0 30:1.0 33:1.0 35:1.0 37:1.0 41:1.0 42:0.95 43:1.0 44:1.0 58:1.0 65:1.0 116:1.0 117:1.0 
2.0 2:0.09333333333333334 3:0.15 4:1.0 5:1.0 6:1.0 7:1.0 12:1.0 15:1.0 18:1.0 20:1.0 21:1.0 22:1.0 24:1.0 30:1.0 32:1.0 33:1.0 39:1.0 41:1.0 42:0.3 75:1.0 87:1.0 135:1.0 
0.11110784143181701 2:0.09166666666666666 3:0.15 4:1.0 5:1.0 6:1.0 7:1.0 10:1.0 12:1.0 15:1.0 18:1.0 20:1.0 21:1.0 22:1.0 23:1.0 30:1.0 32:1.0 33:1.0 34:1.0 35:1.0 40:1.0 41:1.0 42:0.6 43:1.0 44:1.0 58:1.0 65:1.0 75:1.0 101:1.0 102:1.0 116:1.0 117:1.0 
0.6342692185048153 2:0.25833333333333336 3:0.3 4:1.0 5:1.0 6:1.0 7:1.0 14:1.0 15:1.0 18:1.0 20:1.0 21:1.0 22:1.0 24:1.0 30:1.0 32:1.0 33:1.0 37:1.0 41:1.0 42:0.15 46:1.0 53:1.0 58:1.0 82:1.0 
0.9277275505115875 2:0.16333333333333333 3:0.25 5:1.0 12:1.0 15:1.0 18:1.0 20:1.0 21:1.0 22:1.0 24:1.0 30:1.0 32:1.0 33:1.0 38:1.0 41:1.0 42:0.75 47:1.0 48:1.0 52:1.0 58:1.0 60:1.0 75:1.0 101:1.0 102:1.0 113:1.0 114:1.0 115:1.0 127:1.0 140:1.0 179:1.0 
0.4382060903209421 2:0.08 3:0.1 4:1.0 5:1.0 6:1.0 7:1.0 10:1.0 12:1.0 15:1.0 18:1.0 20:1.0 21:1.0 22:1.0 23:1.0 30:1.0 32:1.0 33:1.0 34:1.0 35:1.0 40:1.0 41:1.0 42:0.75 43:1.0 48:1.0 58:1.0 60:1.0 65:1.0 75:1.0 101:1.0 102:1.0 114:1.0 115:1.0 117:1.0 140:1.0 
2.0 2:0.15666666666666668 3:0.15 13:1.0 15:1.0 22:1.0 24:1.0 30:1.0 32:1.0 33:1.0 39:1.0 41:1.0 42:0.7 48:1.0 60:1.0 75:1.0 114:1.0 115:1.0 135:1.0 140:1.0 
1.950376950542361 2:0.028333333333333332 3:0.1 10:1.0 13:1.0 15:1.0 22:1.0 25:1.0 30:1.0 32:1.0 33:1.0 35:1.0 39:1.0 41:1.0 42:0.7 47:1.0 48:1.0 60:1.0 75:1.0 113:1.0 114:1.0 115:1.0 132:1.0 133:1.0 140:1.0 
0.6850160228305493 2:0.11166666666666666 3:0.15 12:1.0 15:1.0 18:1.0 20:1.0 21:1.0 22:1.0 24:1.0 30:1.0 32:1.0 33:1.0 38:1.0 41:1.0 42:0.75 47:1.0 58:1.0 60:1.0 65:1.0 70:1.0 74:1.0 76:1.0 78:1.0 94:1.0 113:1.0 114:1.0 115:1.0 138:1.0 140:1.0 146:1.0 
2.0 2:0.06 3:0.15 12:1.0 15:1.0 22:1.0 24:1.0 30:1.0 32:1.0 33:1.0 35:1.0 38:1.0 41:1.0 42:0.5 58:1.0 60:1.0 65:1.0 74:1.0 76:1.0 78:1.0 94:1.0 128:1.0 138:1.0 153:1.0 154:1.0 
1.8700228877979315 2:0.7033333333333334 3:1.0 4:1.0 5:1.0 6:1.0 7:1.0 12:1.0 15:1.0 18:1.0 20:1.0 21:1.0 22:1.0 24:1.0 30:1.0 32:1.0 33:1.0 37:1.0 41:1.0 42:0.15 75:1.0 110:1.0 
2.0 2:0.32166666666666666 3:0.7 12:1.0 15:1.0 22:1.0 24:1.0 30:1.0 32:1.0 33:1.0 38:1.0 42:0.2 75:1.0 87:1.0 98:1.0 135:1.0 
2.0 2:0.15833333333333333 3:0.15 12:1.0 15:1.0 22:1.0 24:1.0 30:1.0 33:1.0 38:1.0 41:1.0 42:0.45 52:1.0 58:1.0 60:1.0 75:1.0 76:1.0 135:1.0 179:1.0 
1.7007676263397082 2:0.18333333333333332 3:0.15 6:1.0 12:1.0 15:1.0 18:1.0 20:1.0 21:1.0 22:1.0 24:1.0 30:1.0 32:1.0 33:1.0 40:1.0 42:0.7 48:1.0 52:1.0 58:1.0 59:1.0 60:1.0 75:1.0 76:1.0 90:1.0 91:1.0 106:1.0 135:1.0 157:1.0 179:1.0 
2.0 2:0.38666666666666666 3:0.95 12:1.0 15:1.0 22:1.0 24:1.0 30:1.0 32:1.0 33:1.0 38:1.0 41:1.0 42:0.6 52:1.0 58:1.0 60:1.0 65:1.0 70:1.0 74:1.0 76:1.0 77:1.0 82:1.0 83:1.0 146:1.0 179:1.0 
0.7946783519692833 2:0.03166666666666667 3:0.05 4:1.0 5:1.0 6:1.0 7:1.0 14:1.0 15:1.0 18:1.0 20:1.0 21:1.0 22:1.0 24:1.0 30:1.0 32:1.0 33:1.0 35:1.0 38:1.0 41:1.0 42:0.4 44:1.0 58:1.0 65:1.0 74:1.0 77:1.0 81:1.0 82:1.0 89:1.0 128:1.0 
2.0 2:0.08166666666666667 3:0.3 5:1.0 12:1.0 15:1.0 18:1.0 21:1.0 24:1.0 30:1.0 32:1.0 33:1.0 37:1.0 41:1.0 42:0.95 47:1.0 48:1.0 58:1.0 60:1.0 65:1.0 77:1.0 78:1.0 82:1.0 113:1.0 138:1.0 
0.9965755611145632 2:0.035 3:0.05 4:1.0 5:1.0 6:1.0 7:1.0 12:1.0 15:1.0 18:1.0 20:1.0 21:1.0 22:1.0 24:1.0 30:1.0 32:1.0 33:1.0 35:1.0 38:1.0 41:1.0 42:0.35 52:1.0 54:1.0 55:1.0 58:1.0 60:1.0 70:1.0 71:1.0 74:1.0 145:1.0 146:1.0 157:1.0 169:1.0 173:1.0 179:1.0 181:1.0 
0.15156919795445942 2:0.02666666666666667 3:0.1 4:1.0 5:1.0 6:1.0 7:1.0 12:1.0 15:1.0 18:1.0 20:1.0 21:1.0 22:1.0 24:1.0 30:1.0 32:1.0 33:1.0 35:1.0 38:1.0 41:1.0 42:0.35 60:1.0 70:1.0 74:1.0 100:1.0 114:1.0 115:1.0 129:1.0 146:1.0 
1.3460267402207757 2:0.01 3:0.05 12:1.0 15:1.0 18:1.0 20:1.0 21:1.0 22:1.0 24:1.0 30:1.0 32:1.0 33:1.0 38:1.0 41:1.0 42:0.35 45:1.0 46:1.0 49:1.0 50:1.0 51:1.0 58:1.0 82:1.0 143:1.0 
2.0 2:0.20666666666666667 3:0.35 8:1.0 12:1.0 17:1.0 24:1.0 31:1.0 32:1.0 41:1.0 42:1.0 47:1.0 52:1.0 58:1.0 60:1.0 71:1.0 105:1.0 111:1.0 112:1.0 113:1.0 169:1.0 179:1.0 
2.0 2:0.06 3:0.15 6:1.0 12:1.0 15:1.0 18:1.0 20:1.0 21:1.0 22:1.0 24:1.0 30:1.0 32:1.0 33:1.0 38:1.0 41:1.0 42:0.35 48:1.0 52:1.0 58:1.0 60:1.0 65:1.0 73:1.0 106:1.0 174:1.0 179:1.0 
1.3909534675969948 2:0.065 3:0.05 6:1.0 10:1.0 12:1.0 15:1.0 20:1.0 21:1.0 22:1.0 25:1.0 30:1.0 32:1.0 33:1.0 38:1.0 41:1.0 42:1.05 47:1.0 48:1.0 52:1.0 58:1.0 60:1.0 65:1.0 77:1.0 78:1.0 82:1.0 105:1.0 113:1.0 130:1.0 131:1.0 137:1.0 138:1.0 179:1.0 
0.5306986080135734 2:0.03833333333333333 3:0.05 4:1.0 5:1.0 6:1.0 7:1.0 10:1.0 12:1.0 15:1.0 18:1.0 20:1.0 21:1.0 22:1.0 23:1.0 30:1.0 32:1.0 33:1.0 34:1.0 35:1.0 38:1.0 41:1.0 42:1.0 46:1.0 47:1.0 50:1.0 58:1.0 60:1.0 65:1.0 77:1.0 78:1.0 82:1.0 113:1.0 137:1.0 138:1.0 
1.7904152434781075 2:0.19 3:0.2 6:1.0 12:1.0 15:1.0 18:1.0 20:1.0 21:1.0 22:1.0 24:1.0 30:1.0 33:1.0 38:1.0 41:1.0 42:0.65 47:1.0 52:1.0 58:1.0 60:1.0 65:1.0 75:1.0 76:1.0 78:1.0 105:1.0 108:1.0 113:1.0 118:1.0 138:1.0 179:1.0 
0.9238058136160904 2:0.05333333333333334 3:0.05 6:1.0 7:1.0 12:1.0 15:1.0 18:1.0 20:1.0 21:1.0 22:1.0 24:1.0 30:1.0 32:1.0 33:1.0 35:1.0 38:1.0 41:1.0 42:0.65 48:1.0 60:1.0 65:1.0 75:1.0 76:1.0 78:1.0 108:1.0 118:1.0 138:1.0 152:1.0 
2.0 2:0.115 3:0.1 12:1.0 15:1.0 22:1.0 24:1.0 30:1.0 32:1.0 33:1.0 35:1.0 39:1.0 41:1.0 42:0.75 52:1.0 58:1.0 60:1.0 65:1.0 70:1.0 74:1.0 82:1.0 146:1.0 179:1.0 
2.0 2:0.035 3:0.15 10:1.0 12:1.0 15:1.0 22:1.0 25:1.0 30:1.0 32:1.0 33:1.0 37:1.0 41:1.0 42:0.25 46:1.0 50:1.0 174:1.0 
2.0 2:0.03333333333333333 3:0.05 8:1.0 10:1.0 12:1.0 17:1.0 25:1.0 31:1.0 32:1.0 42:0.5 44:1.0 58:1.0 60:1.0 65:1.0 76:1.0 77:1.0 81:1.0 82:1.0 89:1.0 116:1.0 134:1.0 140:1.0 
1.207458272998323 2:0.09 3:0.2 6:1.0 10:1.0 12:1.0 15:1.0 20:1.0 21:1.0 22:1.0 25:1.0 30:1.0 32:1.0 33:1.0 38:1.0 41:1.0 42:0.5 58:1.0 73:1.0 111:1.0 112:1.0 174:1.0 
0.15197633983326403 2:0.02666666666666667 3:0.05 4:1.0 5:1.0 6:1.0 7:1.0 10:1.0 12:1.0 15:1.0 18:1.0 20:1.0 21:1.0 22:1.0 23:1.0 30:1.0 32:1.0 33:1.0 34:1.0 35:1.0 37:1.0 41:1.0 42:0.85 43:1.0 44:1.0 58:1.0 65:1.0 77:1.0 82:1.0 89:1.0 107:1.0 111:1.0 112:1.0 116:1.0 117:1.0 
2.0 2:0.05333333333333334 3:0.1 12:1.0 15:1.0 22:1.0 24:1.0 30:1.0 32:1.0 33:1.0 39:1.0 41:1.0 42:0.65 47:1.0 48:1.0 52:1.0 58:1.0 60:1.0 65:1.0 77:1.0 78:1.0 82:1.0 105:1.0 113:1.0 114:1.0 115:1.0 138:1.0 179:1.0 
2.0 2:0.025 3:0.1 12:1.0 15:1.0 22:1.0 24:1.0 30:1.0 33:1.0 35:1.0 39:1.0 41:1.0 42:0.8 47:1.0 48:1.0 52:1.0 58:1.0 60:1.0 65:1.0 78:1.0 82:1.0 106:1.0 113:1.0 114:1.0 115:1.0 138:1.0 179:1.0 
2.0 2:0.08166666666666667 3:0.15 10:1.0 14:1.0 17:1.0 25:1.0 30:1.0 32:1.0 33:1.0 41:1.0 42:0.95 44:1.0 47:1.0 52:1.0 58:1.0 60:1.0 65:1.0 82:1.0 105:1.0 111:1.0 112:1.0 113:1.0 116:1.0 179:1.0 
2.0 2:0.35 3:0.65 12:1.0 15:1.0 22:1.0 25:1.0 30:1.0 32:1.0 33:1.0 34:1.0 37:1.0 42:0.7 43:1.0 58:1.0 65:1.0 71:1.0 111:1.0 112:1.0 117:1.0 169:1.0 
0.7561619876895063 2:0.49666666666666665 3:0.95 4:1.0 5:1.0 6:1.0 7:1.0 12:1.0 15:1.0 18:1.0 20:1.0 21:1.0 22:1.0 24:1.0 30:1.0 32:1.0 33:1.0 37:1.0 41:1.0 42:0.15 70:1.0 74:1.0 100:1.0 128:1.0 141:1.0 142:1.0 146:1.0 
0.5279795558979183 2:0.39666666666666667 3:0.75 6:1.0 12:1.0 15:1.0 20:1.0 21:1.0 22:1.0 25:1.0 30:1.0 32:1.0 33:1.0 34:1.0 38:1.0 41:1.0 42:0.5 58:1.0 71:1.0 111:1.0 112:1.0 169:1.0 
0.5118922539199747 2:0.04666666666666667 3:0.15 4:1.0 5:1.0 6:1.0 7:1.0 12:1.0 15:1.0 18:1.0 20:1.0 21:1.0 22:1.0 24:1.0 30:1.0 32:1.0 33:1.0 35:1.0 37:1.0 41:1.0 42:0.65 44:1.0 58:1.0 65:1.0 75:1.0 101:1.0 102:1.0 116:1.0 
2.0 2:0.021666666666666667 3:0.05 13:1.0 15:1.0 18:1.0 21:1.0 22:1.0 24:1.0 30:1.0 32:1.0 33:1.0 35:1.0 37:1.0 41:1.0 42:0.6 43:1.0 58:1.0 65:1.0 77:1.0 82:1.0 83:1.0 92:1.0 117:1.0 139:1.0 
2.0 2:0.32666666666666666 3:0.8 12:1.0 15:1.0 18:1.0 22:1.0 24:1.0 30:1.0 32:1.0 33:1.0 37:1.0 41:1.0 42:0.45 52:1.0 58:1.0 60:1.0 73:1.0 74:1.0 76:1.0 114:1.0 115:1.0 127:1.0 128:1.0 167:1.0 174:1.0 179:1.0 
2.0 2:0.13 3:0.25 12:1.0 15:1.0 21:1.0 22:1.0 24:1.0 30:1.0 33:1.0 37:1.0 41:1.0 42:0.6 43:1.0 58:1.0 65:1.0 82:1.0 117:1.0 137:1.0 
2.0 2:0.12 3:0.15 12:1.0 15:1.0 22:1.0 24:1.0 30:1.0 32:1.0 33:1.0 38:1.0 41:1.0 42:0.85 58:1.0 65:1.0 70:1.0 74:1.0 82:1.0 109:1.0 111:1.0 112:1.0 146:1.0 
0.24832095270413754 2:0.18666666666666668 3:0.4 6:1.0 12:1.0 15:1.0 18:1.0 20:1.0 21:1.0 22:1.0 24:1.0 30:1.0 32:1.0 33:1.0 35:1.0 37:1.0 41:1.0 42:0.2 47:1.0 60:1.0 79:1.0 80:1.0 100:1.0 113:1.0 164:1.0 171:1.0 
0.5858016560431635 2:0.011666666666666667 3:0.05 6:1.0 12:1.0 15:1.0 18:1.0 20:1.0 21:1.0 22:1.0 24:1.0 30:1.0 32:1.0 33:1.0 35:1.0 37:1.0 41:1.0 42:0.2 48:1.0 60:1.0 79:1.0 80:1.0 100:1.0 147:1.0 171:1.0 
0.6523812119716149 2:0.21333333333333335 3:0.45 4:1.0 5:1.0 6:1.0 7:1.0 12:1.0 15:1.0 18:1.0 20:1.0 21:1.0 22:1.0 24:1.0 30:1.0 32:1.0 33:1.0 38:1.0 41:1.0 42:0.65 58:1.0 65:1.0 100:1.0 
0.09706086675487706 2:0.21166666666666667 3:0.45 4:1.0 5:1.0 6:1.0 7:1.0 12:1.0 15:1.0 18:1.0 20:1.0 21:1.0 22:1.0 24:1.0 30:1.0 32:1.0 33:1.0 38:1.0 41:1.0 42:0.15 100:1.0 129:1.0 158:1.0 
2.0 2:0.155 3:0.4 6:1.0 12:1.0 15:1.0 18:1.0 21:1.0 22:1.0 24:1.0 30:1.0 32:1.0 33:1.0 38:1.0 41:1.0 42:0.35 58:1.0 65:1.0 100:1.0 164:1.0 
0.5514443980900559 2:0.075 3:0.1 6:1.0 7:1.0 11:1.0 12:1.0 15:1.0 18:1.0 21:1.0 25:1.0 30:1.0 32:1.0 33:1.0 34:1.0 40:1.0 41:1.0 42:0.65 47:1.0 48:1.0 52:1.0 58:1.0 60:1.0 65:1.0 77:1.0 78:1.0 82:1.0 113:1.0 114:1.0 115:1.0 127:1.0 138:1.0 179:1.0 
2.0 2:0.08833333333333333 3:0.35 6:1.0 12:1.0 15:1.0 20:1.0 21:1.0 22:1.0 24:1.0 30:1.0 32:1.0 33:1.0 37:1.0 42:0.4 60:1.0 75:1.0 76:1.0 132:1.0 133:1.0 
0.4541994143867825 2:0.056666666666666664 3:0.15 6:1.0 12:1.0 15:1.0 18:1.0 20:1.0 21:1.0 22:1.0 24:1.0 30:1.0 32:1.0 33:1.0 35:1.0 37:1.0 41:1.0 42:0.5 48:1.0 60:1.0 75:1.0 76:1.0 114:1.0 115:1.0 132:1.0 133:1.0 152:1.0 
1.1450067988496315 2:0.04666666666666667 3:0.1 4:1.0 5:1.0 6:1.0 7:1.0 12:1.0 15:1.0 18:1.0 20:1.0 21:1.0 22:1.0 24:1.0 30:1.0 32:1.0 33:1.0 38:1.0 41:1.0 42:0.3 43:1.0 46:1.0 58:1.0 65:1.0 117:1.0 
2.0 2:0.18666666666666668 3:0.35 14:1.0 15:1.0 18:1.0 21:1.0 22:1.0 24:1.0 30:1.0 32:1.0 33:1.0 35:1.0 37:1.0 41:1.0 42:0.15 46:1.0 50:1.0 86:1.0 174:1.0 
2.0 2:0.12 3:0.4 6:1.0 12:1.0 15:1.0 18:1.0 21:1.0 22:1.0 24:1.0 30:1.0 32:1.0 33:1.0 37:1.0 41:1.0 42:0.35 52:1.0 58:1.0 60:1.0 71:1.0 76:1.0 152:1.0 169:1.0 179:1.0 
1.4271133906118054 2:0.07166666666666667 3:0.2 12:1.0 15:1.0 20:1.0 21:1.0 22:1.0 24:1.0 30:1.0 32:1.0 33:1.0 38:1.0 41:1.0 42:0.1 46:1.0 50:1.0 86:1.0 174:1.0 
2.0 2:0.01 3:0.05 8:1.0 12:1.0 17:1.0 24:1.0 31:1.0 41:1.0 42:0.2 45:1.0 48:1.0 49:1.0 60:1.0 95:1.0 96:1.0 97:1.0 169:1.0 
1.4499303576426839 2:0.016666666666666666 3:0.1 12:1.0 15:1.0 20:1.0 21:1.0 22:1.0 24:1.0 30:1.0 32:1.0 33:1.0 35:1.0 38:1.0 41:1.0 42:0.2 46:1.0 47:1.0 50:1.0 60:1.0 86:1.0 88:1.0 113:1.0 174:1.0 
0.14620817255375948 2:0.03166666666666667 3:0.05 4:1.0 5:1.0 6:1.0 7:1.0 12:1.0 15:1.0 18:1.0 20:1.0 21:1.0 22:1.0 24:1.0 30:1.0 32:1.0 33:1.0 38:1.0 41:1.0 42:0.2 45:1.0 46:1.0 49:1.0 50:1.0 51:1.0 63:1.0 82:1.0 172:1.0 
0.23916197444999793 2:0.056666666666666664 3:0.2 12:1.0 15:1.0 18:1.0 20:1.0 21:1.0 22:1.0 24:1.0 30:1.0 32:1.0 33:1.0 38:1.0 41:1.0 42:0.4 47:1.0 48:1.0 58:1.0 60:1.0 65:1.0 73:1.0 88:1.0 113:1.0 174:1.0 
1.8253112123068882 2:0.02666666666666667 3:0.05 6:1.0 10:1.0 12:1.0 15:1.0 18:1.0 20:1.0 21:1.0 22:1.0 25:1.0 30:1.0 32:1.0 33:1.0 39:1.0 41:1.0 42:0.35 43:1.0 44:1.0 58:1.0 65:1.0 77:1.0 82:1.0 116:1.0 117:1.0 
0.6719999232749163 2:0.2833333333333333 3:0.55 12:1.0 15:1.0 18:1.0 20:1.0 21:1.0 22:1.0 24:1.0 30:1.0 32:1.0 33:1.0 38:1.0 42:0.4 47:1.0 48:1.0 58:1.0 60:1.0 65:1.0 71:1.0 95:1.0 96:1.0 113:1.0 169:1.0 
1.0894570333001485 2:0.11666666666666667 3:0.4 6:1.0 12:1.0 15:1.0 18:1.0 20:1.0 21:1.0 22:1.0 24:1.0 30:1.0 32:1.0 33:1.0 38:1.0 41:1.0 42:0.2 47:1.0 60:1.0 100:1.0 113:1.0 158:1.0 
2.0 2:0.16166666666666665 3:0.35 6:1.0 12:1.0 15:1.0 21:1.0 22:1.0 24:1.0 30:1.0 32:1.0 33:1.0 38:1.0 41:1.0 42:0.2 44:1.0 58:1.0 65:1.0 73:1.0 116:1.0 174:1.0 
1.1023464777915755 2:0.16833333333333333 3:0.35 6:1.0 12:1.0 15:1.0 18:1.0 20:1.0 21:1.0 22:1.0 24:1.0 30:1.0 32:1.0 33:1.0 35:1.0 37:1.0 41:1.0 42:0.5 43:1.0 58:1.0 60:1.0 65:1.0 76:1.0 77:1.0 78:1.0 82:1.0 83:1.0 114:1.0 115:1.0 117:1.0 138:1.0 
0.6223628253062375 2:0.15333333333333332 3:0.3 4:1.0 5:1.0 6:1.0 7:1.0 12:1.0 15:1.0 18:1.0 20:1.0 21:1.0 22:1.0 24:1.0 30:1.0 32:1.0 33:1.0 35:1.0 38:1.0 41:1.0 42:0.9 48:1.0 52:1.0 58:1.0 60:1.0 65:1.0 74:1.0 77:1.0 78:1.0 82:1.0 83:1.0 114:1.0 115:1.0 128:1.0 138:1.0 179:1.0 
0.008631131683341607 2:0.0016666666666666668 3:0.05 4:1.0 5:1.0 6:1.0 7:1.0 12:1.0 15:1.0 18:1.0 20:1.0 21:1.0 22:1.0 24:1.0 30:1.0 32:1.0 33:1.0 35:1.0 38:1.0 41:1.0 42:0.55 47:1.0 58:1.0 60:1.0 65:1.0 70:1.0 74:1.0 78:1.0 82:1.0 113:1.0 114:1.0 115:1.0 138:1.0 143:1.0 146:1.0 155:1.0 
2.0 2:0.045 3:0.1 5:1.0 12:1.0 15:1.0 18:1.0 20:1.0 21:1.0 22:1.0 24:1.0 30:1.0 32:1.0 33:1.0 35:1.0 38:1.0 41:1.0 42:0.25 44:1.0 58:1.0 62:1.0 65:1.0 74:1.0 77:1.0 82:1.0 83:1.0 116:1.0 128:1.0 172:1.0 
2.0 2:0.09166666666666666 3:0.2 10:1.0 12:1.0 15:1.0 22:1.0 25:1.0 30:1.0 32:1.0 33:1.0 35:1.0 39:1.0 41:1.0 42:0.6 48:1.0 52:1.0 58:1.0 60:1.0 65:1.0 74:1.0 76:1.0 78:1.0 82:1.0 94:1.0 106:1.0 128:1.0 138:1.0 179:1.0 
2.0 2:0.09666666666666666 3:0.25 12:1.0 15:1.0 18:1.0 21:1.0 22:1.0 24:1.0 30:1.0 32:1.0 33:1.0 35:1.0 37:1.0 41:1.0 42:0.1 56:1.0 100:1.0 147:1.0 157:1.0 178:1.0 
2.0 2:0.09666666666666666 3:0.25 12:1.0 15:1.0 20:1.0 21:1.0 22:1.0 24:1.0 30:1.0 32:1.0 33:1.0 35:1.0 37:1.0 41:1.0 42:0.15 67:1.0 69:1.0 100:1.0 146:1.0 147:1.0 157:1.0 
2.0 2:0.135 3:0.45 6:1.0 12:1.0 15:1.0 18:1.0 21:1.0 24:1.0 30:1.0 32:1.0 33:1.0 38:1.0 41:1.0 42:0.05 100:1.0 147:1.0 164:1.0 
1.4250331191753327 2:0.19666666666666666 3:0.65 6:1.0 12:1.0 15:1.0 18:1.0 20:1.0 21:1.0 22:1.0 24:1.0 30:1.0 32:1.0 33:1.0 35:1.0 37:1.0 41:1.0 42:0.45 44:1.0 58:1.0 59:1.0 65:1.0 75:1.0 90:1.0 98:1.0 101:1.0 102:1.0 116:1.0 157:1.0 
2.0 2:0.22 3:0.35 12:1.0 15:1.0 18:1.0 22:1.0 24:1.0 30:1.0 33:1.0 38:1.0 41:1.0 42:0.4 44:1.0 58:1.0 65:1.0 116:1.0 174:1.0 
2.0 2:0.02 3:0.05 12:1.0 15:1.0 18:1.0 22:1.0 24:1.0 30:1.0 32:1.0 33:1.0 35:1.0 38:1.0 42:0.5 43:1.0 58:1.0 65:1.0 70:1.0 74:1.0 82:1.0 117:1.0 143:1.0 146:1.0 155:1.0 
0.9710409521290164 2:0.115 3:0.3 7:1.0 10:1.0 12:1.0 15:1.0 18:1.0 20:1.0 21:1.0 22:1.0 25:1.0 30:1.0 32:1.0 33:1.0 40:1.0 41:1.0 42:0.25 44:1.0 45:1.0 49:1.0 58:1.0 63:1.0 65:1.0 77:1.0 82:1.0 116:1.0 172:1.0 
1.1579844520107925 2:0.13833333333333334 3:0.25 12:1.0 15:1.0 20:1.0 21:1.0 22:1.0 24:1.0 30:1.0 32:1.0 33:1.0 37:1.0 41:1.0 42:0.6 58:1.0 60:1.0 65:1.0 70:1.0 74:1.0 82:1.0 114:1.0 115:1.0 140:1.0 146:1.0 
0.34020155049045947 2:0.028333333333333332 3:0.05 12:1.0 15:1.0 18:1.0 20:1.0 21:1.0 22:1.0 24:1.0 30:1.0 32:1.0 33:1.0 35:1.0 37:1.0 41:1.0 42:0.55 44:1.0 58:1.0 60:1.0 65:1.0 74:1.0 77:1.0 82:1.0 114:1.0 115:1.0 116:1.0 128:1.0 134:1.0 140:1.0 
2.0 2:0.285 3:0.5 6:1.0 12:1.0 15:1.0 18:1.0 21:1.0 22:1.0 24:1.0 30:1.0 32:1.0 33:1.0 37:1.0 41:1.0 42:0.6 43:1.0 52:1.0 58:1.0 60:1.0 65:1.0 76:1.0 77:1.0 82:1.0 83:1.0 92:1.0 117:1.0 179:1.0 
2.0 2:0.13 3:0.3 12:1.0 15:1.0 18:1.0 20:1.0 21:1.0 22:1.0 24:1.0 30:1.0 32:1.0 33:1.0 35:1.0 37:1.0 41:1.0 42:0.7 52:1.0 58:1.0 60:1.0 65:1.0 76:1.0 77:1.0 82:1.0 92:1.0 152:1.0 156:1.0 179:1.0 
0.9014090253720655 2:0.40166666666666667 3:0.85 6:1.0 12:1.0 15:1.0 18:1.0 21:1.0 22:1.0 24:1.0 30:1.0 32:1.0 33:1.0 35:1.0 37:1.0 42:0.25 44:1.0 58:1.0 65:1.0 73:1.0 116:1.0 167:1.0 174:1.0 
0.5467101631370129 2:0.013333333333333334 7:1.0 10:1.0 12:1.0 15:1.0 18:1.0 20:1.0 21:1.0 22:1.0 25:1.0 30:1.0 32:1.0 33:1.0 35:1.0 40:1.0 42:0.45 48:1.0 52:1.0 58:1.0 60:1.0 65:1.0 92:1.0 106:1.0 139:1.0 179:1.0 
0.8435760477415776 2:0.01 3:0.05 4:1.0 5:1.0 6:1.0 7:1.0 10:1.0 12:1.0 15:1.0 18:1.0 20:1.0 21:1.0 22:1.0 23:1.0 30:1.0 32:1.0 33:1.0 34:1.0 35:1.0 40:1.0 41:1.0 42:1.0 47:1.0 48:1.0 52:1.0 58:1.0 60:1.0 65:1.0 75:1.0 92:1.0 101:1.0 102:1.0 105:1.0 106:1.0 113:1.0 139:1.0 179:1.0 
2.0 2:0.14833333333333334 3:0.25 14:1.0 15:1.0 21:1.0 22:1.0 24:1.0 30:1.0 32:1.0 33:1.0 40:1.0 41:1.0 42:0.4 46:1.0 50:1.0 58:1.0 65:1.0 82:1.0 
2.0 2:0.005 10:1.0 14:1.0 17:1.0 22:1.0 25:1.0 30:1.0 32:1.0 33:1.0 41:1.0 42:0.2 45:1.0 49:1.0 65:1.0 149:1.0 150:1.0 
2.0 2:0.07666666666666666 3:0.2 14:1.0 17:1.0 24:1.0 30:1.0 32:1.0 33:1.0 41:1.0 42:0.7 53:1.0 58:1.0 65:1.0 71:1.0 137:1.0 169:1.0 
0.939665072751985 2:0.08333333333333333 3:0.2 6:1.0 7:1.0 12:1.0 15:1.0 18:1.0 20:1.0 21:1.0 22:1.0 24:1.0 30:1.0 33:1.0 37:1.0 41:1.0 42:0.7 48:1.0 52:1.0 58:1.0 60:1.0 65:1.0 73:1.0 76:1.0 137:1.0 174:1.0 179:1.0 
2.0 2:0.025 3:0.05 10:1.0 14:1.0 17:1.0 25:1.0 30:1.0 32:1.0 33:1.0 41:1.0 42:0.35 43:1.0 48:1.0 52:1.0 58:1.0 60:1.0 65:1.0 77:1.0 82:1.0 106:1.0 117:1.0 156:1.0 179:1.0 
2.0 2:0.30333333333333334 3:0.55 14:1.0 17:1.0 24:1.0 30:1.0 33:1.0 41:1.0 42:0.45 48:1.0 52:1.0 58:1.0 60:1.0 65:1.0 77:1.0 82:1.0 106:1.0 137:1.0 156:1.0 179:1.0 
0.3068032405715166 2:0.03833333333333333 3:0.1 10:1.0 12:1.0 15:1.0 18:1.0 20:1.0 21:1.0 22:1.0 25:1.0 30:1.0 32:1.0 33:1.0 35:1.0 40:1.0 41:1.0 42:0.2 46:1.0 50:1.0 74:1.0 128:1.0 174:1.0 
0.55289408447193 2:0.05 3:0.2 6:1.0 12:1.0 15:1.0 18:1.0 20:1.0 21:1.0 22:1.0 24:1.0 30:1.0 32:1.0 33:1.0 35:1.0 39:1.0 41:1.0 42:0.15 48:1.0 60:1.0 100:1.0 147:1.0 
0.26340099890201135 2:0.13333333333333333 3:0.45 6:1.0 12:1.0 15:1.0 18:1.0 20:1.0 21:1.0 22:1.0 24:1.0 30:1.0 33:1.0 38:1.0 41:1.0 42:0.65 58:1.0 60:1.0 65:1.0 73:1.0 93:1.0 140:1.0 174:1.0 
2.0 2:0.24 3:0.55 12:1.0 15:1.0 18:1.0 20:1.0 21:1.0 22:1.0 24:1.0 30:1.0 32:1.0 33:1.0 37:1.0 41:1.0 42:0.4 44:1.0 58:1.0 65:1.0 73:1.0 116:1.0 167:1.0 174:1.0 
2.0 2:0.056666666666666664 3:0.2 12:1.0 15:1.0 20:1.0 21:1.0 22:1.0 24:1.0 30:1.0 32:1.0 33:1.0 35:1.0 39:1.0 41:1.0 42:0.2 43:1.0 58:1.0 65:1.0 75:1.0 110:1.0 117:1.0 
1.6289205030713652 2:0.18166666666666667 3:0.5 4:1.0 5:1.0 6:1.0 7:1.0 12:1.0 15:1.0 18:1.0 20:1.0 21:1.0 22:1.0 24:1.0 30:1.0 33:1.0 39:1.0 41:1.0 42:0.4 44:1.0 52:1.0 58:1.0 60:1.0 65:1.0 76:1.0 77:1.0 82:1.0 83:1.0 116:1.0 152:1.0 179:1.0 
2.0 2:0.0016666666666666668 14:1.0 17:1.0 24:1.0 30:1.0 33:1.0 41:1.0 42:0.1 44:1.0 45:1.0 49:1.0 65:1.0 116:1.0 149:1.0 150:1.0 
2.0 3:0.05 13:1.0 15:1.0 22:1.0 24:1.0 30:1.0 32:1.0 33:1.0 35:1.0 39:1.0 41:1.0 42:0.1 46:1.0 50:1.0 119:1.0 125:1.0 
2.0 2:0.29833333333333334 3:0.55 4:1.0 5:1.0 6:1.0 7:1.0 12:1.0 15:1.0 18:1.0 20:1.0 21:1.0 22:1.0 24:1.0 30:1.0 32:1.0 33:1.0 40:1.0 42:0.45 52:1.0 58:1.0 60:1.0 76:1.0 77:1.0 82:1.0 152:1.0 156:1.0 179:1.0 
0.2314096362794713 2:0.08833333333333333 3:0.25 6:1.0 12:1.0 15:1.0 18:1.0 20:1.0 21:1.0 22:1.0 24:1.0 30:1.0 32:1.0 33:1.0 40:1.0 41:1.0 42:0.25 45:1.0 49:1.0 75:1.0 135:1.0 
2.0 2:0.415 3:0.9 6:1.0 12:1.0 15:1.0 18:1.0 21:1.0 22:1.0 24:1.0 30:1.0 32:1.0 33:1.0 37:1.0 41:1.0 42:0.35 43:1.0 44:1.0 58:1.0 65:1.0 72:1.0 75:1.0 116:1.0 117:1.0 135:1.0 
2.0 2:0.056666666666666664 3:0.2 12:1.0 15:1.0 22:1.0 24:1.0 30:1.0 32:1.0 33:1.0 35:1.0 37:1.0 41:1.0 42:0.5 43:1.0 58:1.0 60:1.0 65:1.0 70:1.0 72:1.0 74:1.0 75:1.0 78:1.0 117:1.0 135:1.0 138:1.0 146:1.0 
0.7458062176647692 2:0.055 3:0.1 4:1.0 5:1.0 6:1.0 7:1.0 12:1.0 15:1.0 18:1.0 20:1.0 21:1.0 22:1.0 24:1.0 30:1.0 32:1.0 33:1.0 35:1.0 37:1.0 41:1.0 42:0.95 52:1.0 58:1.0 60:1.0 65:1.0 70:1.0 74:1.0 78:1.0 82:1.0 93:1.0 128:1.0 138:1.0 146:1.0 148:1.0 179:1.0 
2.0 2:0.09333333333333334 3:0.2 12:1.0 15:1.0 18:1.0 20:1.0 21:1.0 22:1.0 24:1.0 30:1.0 32:1.0 33:1.0 39:1.0 41:1.0 42:0.25 70:1.0 74:1.0 75:1.0 135:1.0 146:1.0 
2.0 2:0.075 3:0.15 12:1.0 15:1.0 22:1.0 24:1.0 30:1.0 32:1.0 33:1.0 39:1.0 41:1.0 42:0.55 43:1.0 48:1.0 52:1.0 58:1.0 60:1.0 65:1.0 77:1.0 82:1.0 106:1.0 117:1.0 179:1.0 
1.898630398945535 2:0.01 6:1.0 14:1.0 15:1.0 21:1.0 22:1.0 24:1.0 30:1.0 32:1.0 33:1.0 35:1.0 39:1.0 41:1.0 42:0.15 45:1.0 46:1.0 49:1.0 50:1.0 51:1.0 
1.1528624877221572 2:0.105 3:0.2 10:1.0 12:1.0 15:1.0 18:1.0 20:1.0 21:1.0 22:1.0 25:1.0 30:1.0 32:1.0 33:1.0 39:1.0 42:0.2 46:1.0 50:1.0 62:1.0 74:1.0 82:1.0 128:1.0 143:1.0 172:1.0 
2.0 2:0.02666666666666667 3:0.05 5:1.0 10:1.0 12:1.0 15:1.0 22:1.0 23:1.0 30:1.0 32:1.0 33:1.0 34:1.0 35:1.0 39:1.0 41:1.0 42:0.2 44:1.0 45:1.0 49:1.0 58:1.0 63:1.0 65:1.0 77:1.0 82:1.0 83:1.0 116:1.0 172:1.0 
1.016800787696615 2:0.03 3:0.05 4:1.0 5:1.0 6:1.0 7:1.0 12:1.0 15:1.0 18:1.0 20:1.0 21:1.0 22:1.0 24:1.0 30:1.0 32:1.0 33:1.0 38:1.0 42:0.85 58:1.0 60:1.0 65:1.0 70:1.0 74:1.0 76:1.0 78:1.0 82:1.0 114:1.0 115:1.0 123:1.0 128:1.0 138:1.0 146:1.0 151:1.0 
0.33798997331288316 2:0.09333333333333334 3:0.3 4:1.0 5:1.0 6:1.0 7:1.0 12:1.0 15:1.0 18:1.0 20:1.0 21:1.0 22:1.0 24:1.0 30:1.0 32:1.0 33:1.0 35:1.0 38:1.0 41:1.0 42:0.4 58:1.0 65:1.0 70:1.0 74:1.0 77:1.0 82:1.0 83:1.0 109:1.0 120:1.0 124:1.0 128:1.0 146:1.0 
1.0230169899023644 2:0.056666666666666664 3:0.05 4:1.0 5:1.0 6:1.0 7:1.0 12:1.0 15:1.0 18:1.0 20:1.0 21:1.0 22:1.0 24:1.0 30:1.0 32:1.0 33:1.0 38:1.0 42:0.7 52:1.0 58:1.0 60:1.0 65:1.0 70:1.0 71:1.0 74:1.0 93:1.0 109:1.0 128:1.0 136:1.0 146:1.0 148:1.0 169:1.0 179:1.0 
1.1516387935434649 2:0.018333333333333333 3:0.05 12:1.0 15:1.0 20:1.0 21:1.0 22:1.0 24:1.0 30:1.0 32:1.0 33:1.0 40:1.0 41:1.0 42:0.25 45:1.0 49:1.0 63:1.0 70:1.0 74:1.0 82:1.0 146:1.0 172:1.0 
1.3601846023418127 2:0.03666666666666667 3:0.15 12:1.0 15:1.0 18:1.0 20:1.0 21:1.0 22:1.0 24:1.0 30:1.0 32:1.0 33:1.0 38:1.0 41:1.0 42:0.55 47:1.0 48:1.0 58:1.0 60:1.0 65:1.0 78:1.0 82:1.0 113:1.0 138:1.0 
0.8701790973351969 2:0.03166666666666667 3:0.05 4:1.0 5:1.0 6:1.0 7:1.0 12:1.0 15:1.0 18:1.0 20:1.0 21:1.0 22:1.0 24:1.0 30:1.0 32:1.0 33:1.0 35:1.0 38:1.0 42:0.6 47:1.0 58:1.0 60:1.0 65:1.0 70:1.0 74:1.0 77:1.0 78:1.0 82:1.0 113:1.0 138:1.0 146:1.0 
0.6911943426977369 2:0.058333333333333334 3:0.05 4:1.0 5:1.0 6:1.0 7:1.0 12:1.0 15:1.0 18:1.0 20:1.0 21:1.0 22:1.0 24:1.0 30:1.0 32:1.0 33:1.0 35:1.0 38:1.0 41:1.0 42:1.2 52:1.0 58:1.0 60:1.0 65:1.0 70:1.0 74:1.0 76:1.0 77:1.0 82:1.0 128:1.0 130:1.0 131:1.0 146:1.0 179:1.0 
1.0946971794186293 2:0.08333333333333333 3:0.25 12:1.0 15:1.0 20:1.0 21:1.0 22:1.0 24:1.0 30:1.0 32:1.0 33:1.0 35:1.0 38:1.0 41:1.0 42:0.95 52:1.0 58:1.0 60:1.0 65:1.0 71:1.0 74:1.0 76:1.0 128:1.0 130:1.0 131:1.0 169:1.0 179:1.0 
2.0 2:0.07833333333333334 3:0.3 12:1.0 15:1.0 20:1.0 21:1.0 22:1.0 24:1.0 30:1.0 32:1.0 33:1.0 35:1.0 38:1.0 41:1.0 42:0.05 146:1.0 
0.9969104707385007 2:0.08666666666666667 3:0.25 4:1.0 5:1.0 6:1.0 7:1.0 12:1.0 15:1.0 18:1.0 20:1.0 21:1.0 22:1.0 24:1.0 30:1.0 32:1.0 33:1.0 38:1.0 41:1.0 42:0.15 70:1.0 74:1.0 119:1.0 125:1.0 146:1.0 
1.4811447131715931 2:0.035 3:0.05 12:1.0 15:1.0 18:1.0 20:1.0 21:1.0 22:1.0 24:1.0 30:1.0 33:1.0 38:1.0 42:0.35 58:1.0 65:1.0 74:1.0 128:1.0 
0.27458341141978504 2:0.021666666666666667 3:0.05 4:1.0 5:1.0 6:1.0 7:1.0 10:1.0 12:1.0 15:1.0 18:1.0 20:1.0 21:1.0 22:1.0 23:1.0 30:1.0 32:1.0 33:1.0 34:1.0 35:1.0 38:1.0 41:1.0 42:0.15 45:1.0 46:1.0 49:1.0 50:1.0 51:1.0 63:1.0 82:1.0 143:1.0 172:1.0 
2.0 2:0.011666666666666667 7:1.0 12:1.0 15:1.0 18:1.0 20:1.0 21:1.0 22:1.0 25:1.0 30:1.0 32:1.0 33:1.0 34:1.0 35:1.0 38:1.0 41:1.0 42:0.25 45:1.0 48:1.0 49:1.0 52:1.0 58:1.0 60:1.0 106:1.0 179:1.0 
1.4996422024670737 2:0.006666666666666667 3:0.05 4:1.0 5:1.0 6:1.0 7:1.0 12:1.0 15:1.0 18:1.0 20:1.0 21:1.0 22:1.0 24:1.0 30:1.0 32:1.0 33:1.0 35:1.0 38:1.0 41:1.0 42:0.45 44:1.0 47:1.0 52:1.0 58:1.0 60:1.0 65:1.0 82:1.0 105:1.0 113:1.0 116:1.0 179:1.0 
1.3738898878006676 2:0.08833333333333333 3:0.2 4:1.0 5:1.0 6:1.0 7:1.0 12:1.0 15:1.0 18:1.0 20:1.0 21:1.0 22:1.0 24:1.0 30:1.0 32:1.0 33:1.0 38:1.0 41:1.0 42:0.4 43:1.0 58:1.0 65:1.0 70:1.0 74:1.0 77:1.0 82:1.0 83:1.0 109:1.0 117:1.0 146:1.0 
1.9933512068458716 2:0.006666666666666667 6:1.0 12:1.0 15:1.0 18:1.0 21:1.0 22:1.0 25:1.0 30:1.0 32:1.0 33:1.0 34:1.0 35:1.0 39:1.0 41:1.0 42:0.25 45:1.0 49:1.0 52:1.0 60:1.0 76:1.0 149:1.0 150:1.0 179:1.0 
0.6832015799472095 2:0.07166666666666667 3:0.25 4:1.0 5:1.0 6:1.0 7:1.0 14:1.0 15:1.0 18:1.0 20:1.0 21:1.0 22:1.0 24:1.0 30:1.0 32:1.0 33:1.0 35:1.0 37:1.0 41:1.0 42:0.15 100:1.0 129:1.0 158:1.0 
0.5581107237376115 2:0.07833333333333334 3:0.25 4:1.0 5:1.0 6:1.0 7:1.0 12:1.0 15:1.0 18:1.0 20:1.0 21:1.0 22:1.0 24:1.0 30:1.0 32:1.0 33:1.0 37:1.0 41:1.0 42:0.55 47:1.0 48:1.0 60:1.0 100:1.0 113:1.0 114:1.0 115:1.0 122:1.0 129:1.0 158:1.0 
0.4633697180394473 2:0.16166666666666665 3:0.4 12:1.0 15:1.0 18:1.0 20:1.0 21:1.0 22:1.0 24:1.0 30:1.0 32:1.0 33:1.0 35:1.0 37:1.0 41:1.0 42:0.55 47:1.0 60:1.0 76:1.0 98:1.0 113:1.0 114:1.0 115:1.0 
0.9269470693574405 2:0.13833333333333334 3:0.35 12:1.0 15:1.0 18:1.0 20:1.0 21:1.0 22:1.0 24:1.0 30:1.0 32:1.0 33:1.0 37:1.0 41:1.0 42:0.35 60:1.0 70:1.0 74:1.0 76:1.0 146:1.0 152:1.0 154:1.0 
0.12055694638281839 4:1.0 5:1.0 6:1.0 7:1.0 12:1.0 15:1.0 18:1.0 20:1.0 21:1.0 22:1.0 24:1.0 30:1.0 32:1.0 33:1.0 35:1.0 40:1.0 41:1.0 42:0.15 70:1.0 74:1.0 146:1.0 
2.0 2:0.006666666666666667 3:0.05 6:1.0 12:1.0 15:1.0 21:1.0 22:1.0 24:1.0 30:1.0 32:1.0 33:1.0 35:1.0 37:1.0 41:1.0 42:0.45 44:1.0 47:1.0 58:1.0 60:1.0 65:1.0 82:1.0 113:1.0 116:1.0 
1.406145043128977 2:0.155 3:0.45 4:1.0 5:1.0 6:1.0 7:1.0 12:1.0 15:1.0 18:1.0 20:1.0 21:1.0 22:1.0 24:1.0 30:1.0 32:1.0 33:1.0 35:1.0 39:1.0 41:1.0 42:0.5 45:1.0 48:1.0 49:1.0 58:1.0 60:1.0 169:1.0 
1.6653564684035256 2:0.19 3:0.5 4:1.0 5:1.0 6:1.0 7:1.0 12:1.0 15:1.0 18:1.0 20:1.0 21:1.0 22:1.0 24:1.0 30:1.0 32:1.0 33:1.0 40:1.0 42:0.35 60:1.0 70:1.0 74:1.0 100:1.0 128:1.0 146:1.0 
0.03970091985214281 2:0.075 3:0.3 4:1.0 5:1.0 6:1.0 7:1.0 12:1.0 15:1.0 18:1.0 20:1.0 21:1.0 22:1.0 24:1.0 30:1.0 32:1.0 33:1.0 37:1.0 41:1.0 42:0.05 100:1.0 147:1.0 164:1.0 
0.8517666870751541 2:0.041666666666666664 3:0.05 6:1.0 7:1.0 11:1.0 12:1.0 15:1.0 18:1.0 21:1.0 25:1.0 30:1.0 32:1.0 33:1.0 34:1.0 35:1.0 37:1.0 41:1.0 42:0.75 45:1.0 48:1.0 49:1.0 52:1.0 58:1.0 60:1.0 77:1.0 82:1.0 106:1.0 179:1.0 
0.932511334903802 2:0.045 3:0.05 6:1.0 7:1.0 10:1.0 12:1.0 15:1.0 18:1.0 21:1.0 25:1.0 30:1.0 32:1.0 33:1.0 37:1.0 41:1.0 42:0.75 46:1.0 47:1.0 50:1.0 52:1.0 58:1.0 60:1.0 77:1.0 82:1.0 105:1.0 113:1.0 179:1.0 
0.14381371243509683 2:0.11833333333333333 3:0.3 6:1.0 7:1.0 12:1.0 15:1.0 18:1.0 20:1.0 21:1.0 22:1.0 24:1.0 30:1.0 32:1.0 33:1.0 37:1.0 41:1.0 42:0.7 47:1.0 48:1.0 52:1.0 58:1.0 60:1.0 65:1.0 77:1.0 78:1.0 82:1.0 83:1.0 105:1.0 113:1.0 138:1.0 179:1.0 
0.7229484627607873 2:0.0033333333333333335 3:0.05 4:1.0 5:1.0 6:1.0 7:1.0 12:1.0 15:1.0 18:1.0 20:1.0 21:1.0 22:1.0 24:1.0 30:1.0 32:1.0 33:1.0 35:1.0 40:1.0 41:1.0 42:0.25 70:1.0 74:1.0 86:1.0 128:1.0 146:1.0 174:1.0 
0.9023373920933606 2:0.04666666666666667 3:0.05 6:1.0 7:1.0 10:1.0 12:1.0 15:1.0 18:1.0 20:1.0 21:1.0 22:1.0 25:1.0 30:1.0 32:1.0 33:1.0 40:1.0 42:0.55 58:1.0 60:1.0 65:1.0 76:1.0 77:1.0 78:1.0 82:1.0 83:1.0 138:1.0 
1.1220582923283442 2:0.0033333333333333335 12:1.0 15:1.0 22:1.0 24:1.0 30:1.0 32:1.0 33:1.0 35:1.0 37:1.0 41:1.0 42:0.25 45:1.0 49:1.0 56:1.0 65:1.0 149:1.0 150:1.0 157:1.0 178:1.0 
0.2140279114094491 2:0.03333333333333333 7:1.0 10:1.0 12:1.0 15:1.0 18:1.0 20:1.0 21:1.0 22:1.0 25:1.0 30:1.0 32:1.0 33:1.0 35:1.0 40:1.0 41:1.0 42:0.45 48:1.0 58:1.0 60:1.0 65:1.0 74:1.0 75:1.0 99:1.0 103:1.0 104:1.0 128:1.0 135:1.0 
1.398644862912754 2:0.021666666666666667 3:0.05 10:1.0 12:1.0 15:1.0 22:1.0 25:1.0 30:1.0 32:1.0 33:1.0 37:1.0 41:1.0 42:0.4 46:1.0 50:1.0 58:1.0 59:1.0 65:1.0 90:1.0 157:1.0 
0.3430745091803892 2:0.06666666666666667 3:0.15 4:1.0 5:1.0 6:1.0 7:1.0 10:1.0 12:1.0 15:1.0 18:1.0 20:1.0 21:1.0 22:1.0 23:1.0 30:1.0 32:1.0 33:1.0 34:1.0 40:1.0 42:0.65 47:1.0 48:1.0 58:1.0 60:1.0 65:1.0 113:1.0 
1.147858512510186 2:0.11833333333333333 3:0.15 7:1.0 10:1.0 14:1.0 15:1.0 18:1.0 20:1.0 21:1.0 22:1.0 25:1.0 30:1.0 32:1.0 33:1.0 40:1.0 42:0.55 48:1.0 60:1.0 74:1.0 75:1.0 99:1.0 128:1.0 135:1.0 
2.0 2:0.01 13:1.0 15:1.0 22:1.0 24:1.0 30:1.0 32:1.0 33:1.0 35:1.0 37:1.0 41:1.0 42:0.25 45:1.0 49:1.0 
2.0 2:0.065 3:0.25 12:1.0 15:1.0 18:1.0 21:1.0 24:1.0 30:1.0 32:1.0 33:1.0 40:1.0 42:0.25 75:1.0 110:1.0 
0.5102066817135977 2:0.065 3:0.2 4:1.0 5:1.0 6:1.0 7:1.0 12:1.0 15:1.0 18:1.0 20:1.0 21:1.0 22:1.0 24:1.0 30:1.0 32:1.0 33:1.0 40:1.0 42:0.35 68:1.0 74:1.0 75:1.0 87:1.0 128:1.0 135:1.0 166:1.0 
2.0 2:0.06833333333333333 3:0.2 6:1.0 12:1.0 15:1.0 21:1.0 22:1.0 24:1.0 30:1.0 32:1.0 33:1.0 39:1.0 41:1.0 42:0.25 75:1.0 110:1.0 
2.0 2:0.006666666666666667 3:0.05 12:1.0 15:1.0 22:1.0 24:1.0 30:1.0 32:1.0 33:1.0 37:1.0 41:1.0 42:0.35 46:1.0 50:1.0 52:1.0 60:1.0 75:1.0 76:1.0 108:1.0 152:1.0 179:1.0 
2.0 2:0.005 12:1.0 15:1.0 22:1.0 24:1.0 30:1.0 33:1.0 35:1.0 37:1.0 41:1.0 42:0.25 44:1.0 45:1.0 49:1.0 58:1.0 65:1.0 116:1.0 149:1.0 150:1.0 
1.9955392094926865 2:0.01 3:0.05 10:1.0 12:1.0 15:1.0 22:1.0 25:1.0 30:1.0 32:1.0 33:1.0 35:1.0 37:1.0 41:1.0 42:0.4 43:1.0 46:1.0 50:1.0 58:1.0 65:1.0 117:1.0 
0.6207493117960213 2:0.15833333333333333 3:0.25 4:1.0 5:1.0 6:1.0 7:1.0 12:1.0 15:1.0 18:1.0 20:1.0 21:1.0 22:1.0 24:1.0 30:1.0 32:1.0 33:1.0 40:1.0 42:0.45 47:1.0 60:1.0 67:1.0 69:1.0 86:1.0 113:1.0 146:1.0 157:1.0 174:1.0 
0.8671166773650669 2:0.15833333333333333 3:0.25 4:1.0 5:1.0 6:1.0 7:1.0 12:1.0 15:1.0 18:1.0 20:1.0 21:1.0 22:1.0 24:1.0 30:1.0 32:1.0 33:1.0 40:1.0 41:1.0 42:0.4 67:1.0 69:1.0 86:1.0 146:1.0 157:1.0 174:1.0 
2.0 2:0.085 3:0.15 12:1.0 15:1.0 22:1.0 25:1.0 30:1.0 32:1.0 33:1.0 34:1.0 37:1.0 41:1.0 42:0.3 45:1.0 48:1.0 49:1.0 58:1.0 60:1.0 63:1.0 77:1.0 81:1.0 82:1.0 89:1.0 165:1.0 172:1.0 
2.0 2:0.29833333333333334 3:0.5 6:1.0 12:1.0 15:1.0 21:1.0 22:1.0 24:1.0 30:1.0 33:1.0 40:1.0 41:1.0 42:0.35 46:1.0 50:1.0 86:1.0 174:1.0 
0.9110500268109056 2:0.07666666666666666 3:0.1 7:1.0 10:1.0 12:1.0 15:1.0 18:1.0 20:1.0 21:1.0 22:1.0 25:1.0 30:1.0 32:1.0 33:1.0 40:1.0 41:1.0 42:0.45 48:1.0 52:1.0 60:1.0 75:1.0 76:1.0 98:1.0 106:1.0 108:1.0 152:1.0 179:1.0 
2.0 2:0.07166666666666667 3:0.1 10:1.0 12:1.0 15:1.0 22:1.0 25:1.0 30:1.0 32:1.0 33:1.0 40:1.0 42:0.4 47:1.0 48:1.0 52:1.0 60:1.0 75:1.0 98:1.0 106:1.0 108:1.0 113:1.0 179:1.0 
1.5981334134489158 2:0.025 3:0.05 10:1.0 12:1.0 15:1.0 22:1.0 25:1.0 30:1.0 32:1.0 33:1.0 37:1.0 41:1.0 42:0.3 43:1.0 46:1.0 50:1.0 65:1.0 75:1.0 108:1.0 117:1.0 118:1.0 
0.39981540054362874 2:0.03333333333333333 7:1.0 12:1.0 15:1.0 18:1.0 20:1.0 21:1.0 22:1.0 25:1.0 30:1.0 32:1.0 33:1.0 34:1.0 35:1.0 37:1.0 41:1.0 42:0.25 45:1.0 48:1.0 49:1.0 52:1.0 58:1.0 60:1.0 106:1.0 179:1.0 
0.5303517910991186 2:0.011666666666666667 3:0.05 4:1.0 5:1.0 6:1.0 7:1.0 12:1.0 15:1.0 18:1.0 20:1.0 21:1.0 22:1.0 24:1.0 30:1.0 32:1.0 33:1.0 35:1.0 37:1.0 41:1.0 42:0.45 47:1.0 48:1.0 52:1.0 58:1.0 60:1.0 77:1.0 81:1.0 82:1.0 89:1.0 105:1.0 113:1.0 165:1.0 179:1.0 
2.0 2:0.016666666666666666 3:0.05 12:1.0 15:1.0 22:1.0 24:1.0 30:1.0 32:1.0 33:1.0 35:1.0 37:1.0 41:1.0 42:0.45 47:1.0 48:1.0 58:1.0 60:1.0 77:1.0 81:1.0 82:1.0 89:1.0 113:1.0 165:1.0 
0.4790866608339893 2:0.013333333333333334 3:0.05 6:1.0 12:1.0 15:1.0 18:1.0 20:1.0 21:1.0 22:1.0 24:1.0 30:1.0 32:1.0 33:1.0 35:1.0 40:1.0 41:1.0 42:0.25 45:1.0 48:1.0 49:1.0 60:1.0 63:1.0 82:1.0 143:1.0 172:1.0 
0.5116425775086232 2:0.016666666666666666 3:0.05 10:1.0 12:1.0 15:1.0 20:1.0 22:1.0 25:1.0 30:1.0 32:1.0 33:1.0 37:1.0 41:1.0 42:0.2 45:1.0 46:1.0 49:1.0 50:1.0 51:1.0 
0.10765389947034065 2:0.02 3:0.05 12:1.0 15:1.0 22:1.0 25:1.0 30:1.0 32:1.0 33:1.0 34:1.0 35:1.0 37:1.0 41:1.0 42:0.3 45:1.0 48:1.0 49:1.0 58:1.0 60:1.0 63:1.0 77:1.0 81:1.0 82:1.0 89:1.0 165:1.0 172:1.0 
2.0 2:0.028333333333333332 3:0.1 12:1.0 15:1.0 20:1.0 21:1.0 22:1.0 24:1.0 30:1.0 32:1.0 33:1.0 40:1.0 41:1.0 42:0.55 60:1.0 75:1.0 76:1.0 84:1.0 85:1.0 87:1.0 98:1.0 135:1.0 
2.0 2:0.018333333333333333 12:1.0 15:1.0 22:1.0 24:1.0 30:1.0 33:1.0 37:1.0 41:1.0 42:0.2 65:1.0 
2.0 2:0.16333333333333333 3:0.35 14:1.0 15:1.0 20:1.0 21:1.0 22:1.0 24:1.0 30:1.0 32:1.0 33:1.0 40:1.0 41:1.0 42:0.5 60:1.0 75:1.0 76:1.0 84:1.0 85:1.0 87:1.0 98:1.0 135:1.0 152:1.0 
0.0956008074464285 2:0.05 10:1.0 12:1.0 15:1.0 18:1.0 20:1.0 21:1.0 22:1.0 25:1.0 30:1.0 32:1.0 33:1.0 35:1.0 40:1.0 42:0.35 48:1.0 52:1.0 60:1.0 75:1.0 106:1.0 135:1.0 179:1.0 
1.8507630686155485 2:0.02 3:0.05 10:1.0 12:1.0 15:1.0 22:1.0 25:1.0 30:1.0 32:1.0 33:1.0 35:1.0 37:1.0 41:1.0 42:0.25 46:1.0 50:1.0 75:1.0 135:1.0 
0.9363847572723318 2:0.03166666666666667 3:0.1 4:1.0 5:1.0 6:1.0 7:1.0 12:1.0 15:1.0 18:1.0 20:1.0 21:1.0 22:1.0 24:1.0 30:1.0 32:1.0 33:1.0 37:1.0 41:1.0 42:0.4 47:1.0 58:1.0 60:1.0 65:1.0 70:1.0 74:1.0 77:1.0 82:1.0 83:1.0 89:1.0 109:1.0 113:1.0 146:1.0 165:1.0 
0.4759203114357384 2:0.015 3:0.1 12:1.0 15:1.0 18:1.0 20:1.0 21:1.0 22:1.0 24:1.0 30:1.0 32:1.0 33:1.0 40:1.0 42:0.4 47:1.0 60:1.0 70:1.0 74:1.0 75:1.0 98:1.0 99:1.0 113:1.0 135:1.0 146:1.0 
1.8411371060928392 2:0.013333333333333334 3:0.1 4:1.0 5:1.0 6:1.0 7:1.0 12:1.0 15:1.0 18:1.0 20:1.0 21:1.0 22:1.0 24:1.0 30:1.0 32:1.0 33:1.0 40:1.0 41:1.0 42:0.3 70:1.0 74:1.0 75:1.0 98:1.0 99:1.0 135:1.0 146:1.0 
2.0 2:0.03333333333333333 3:0.15 12:1.0 15:1.0 18:1.0 20:1.0 21:1.0 22:1.0 24:1.0 30:1.0 32:1.0 33:1.0 35:1.0 40:1.0 42:0.3 75:1.0 87:1.0 135:1.0 
1.4896677989734637 2:0.03833333333333333 3:0.15 12:1.0 15:1.0 20:1.0 21:1.0 22:1.0 24:1.0 30:1.0 32:1.0 33:1.0 35:1.0 39:1.0 41:1.0 42:0.25 75:1.0 110:1.0 
1.3346739912778007 2:0.03166666666666667 3:0.05 12:1.0 15:1.0 18:1.0 20:1.0 21:1.0 22:1.0 24:1.0 30:1.0 32:1.0 33:1.0 37:1.0 41:1.0 42:0.4 48:1.0 60:1.0 75:1.0 76:1.0 132:1.0 133:1.0 152:1.0 
2.0 2:0.043333333333333335 3:0.1 12:1.0 15:1.0 20:1.0 21:1.0 22:1.0 24:1.0 30:1.0 32:1.0 33:1.0 37:1.0 41:1.0 42:0.7 47:1.0 48:1.0 52:1.0 58:1.0 60:1.0 75:1.0 93:1.0 106:1.0 113:1.0 114:1.0 115:1.0 127:1.0 132:1.0 133:1.0 179:1.0 
1.9164456056023123 2:0.045 3:0.05 6:1.0 12:1.0 15:1.0 20:1.0 22:1.0 24:1.0 30:1.0 32:1.0 33:1.0 37:1.0 41:1.0 42:0.45 47:1.0 48:1.0 58:1.0 60:1.0 61:1.0 77:1.0 82:1.0 113:1.0 172:1.0 
2.0 2:0.03833333333333333 3:0.1 4:1.0 5:1.0 6:1.0 7:1.0 12:1.0 15:1.0 18:1.0 20:1.0 21:1.0 22:1.0 24:1.0 30:1.0 32:1.0 33:1.0 40:1.0 41:1.0 42:0.55 47:1.0 48:1.0 60:1.0 75:1.0 98:1.0 113:1.0 135:1.0 
2.0 2:0.023333333333333334 13:1.0 15:1.0 22:1.0 24:1.0 30:1.0 32:1.0 33:1.0 37:1.0 41:1.0 42:0.3 65:1.0 150:1.0 
0.5577077110760876 2:0.011666666666666667 3:0.05 10:1.0 13:1.0 15:1.0 22:1.0 25:1.0 30:1.0 32:1.0 33:1.0 37:1.0 41:1.0 42:0.3 46:1.0 50:1.0 58:1.0 65:1.0 
1.8936208764109415 2:0.16166666666666665 3:0.3 12:1.0 15:1.0 18:1.0 20:1.0 21:1.0 22:1.0 24:1.0 30:1.0 32:1.0 33:1.0 38:1.0 41:1.0 42:0.3 75:1.0 87:1.0 98:1.0 135:1.0 
2.0 2:0.0033333333333333335 3:0.1 12:1.0 15:1.0 20:1.0 21:1.0 22:1.0 24:1.0 30:1.0 32:1.0 33:1.0 35:1.0 40:1.0 41:1.0 42:0.35 75:1.0 98:1.0 135:1.0 
2.0 2:0.0016666666666666668 12:1.0 15:1.0 22:1.0 24:1.0 30:1.0 33:1.0 35:1.0 37:1.0 41:1.0 42:0.2 65:1.0 
2.0 2:0.07 3:0.3 6:1.0 12:1.0 15:1.0 21:1.0 22:1.0 24:1.0 30:1.0 32:1.0 33:1.0 39:1.0 41:1.0 42:0.25 75:1.0 110:1.0 
0.6743975102771745 2:0.08 3:0.3 12:1.0 15:1.0 18:1.0 20:1.0 21:1.0 22:1.0 24:1.0 30:1.0 32:1.0 33:1.0 40:1.0 42:0.3 75:1.0 87:1.0 135:1.0 
0.5667057569453674 2:0.08333333333333333 3:0.3 12:1.0 15:1.0 20:1.0 21:1.0 22:1.0 24:1.0 30:1.0 32:1.0 33:1.0 39:1.0 41:1.0 42:0.25 75:1.0 110:1.0 
2.0 2:0.06166666666666667 3:0.1 12:1.0 15:1.0 22:1.0 24:1.0 30:1.0 32:1.0 33:1.0 37:1.0 41:1.0 42:0.35 48:1.0 58:1.0 60:1.0 75:1.0 89:1.0 135:1.0 165:1.0 
2.0 2:0.12166666666666667 3:0.2 10:1.0 13:1.0 15:1.0 22:1.0 25:1.0 30:1.0 32:1.0 33:1.0 38:1.0 41:1.0 42:0.35 44:1.0 58:1.0 65:1.0 75:1.0 108:1.0 116:1.0 118:1.0 
2.0 2:0.16 3:0.35 12:1.0 15:1.0 18:1.0 21:1.0 22:1.0 24:1.0 30:1.0 32:1.0 33:1.0 40:1.0 41:1.0 42:0.3 47:1.0 60:1.0 75:1.0 98:1.0 110:1.0 113:1.0 
2.0 2:0.15166666666666667 3:0.25 4:1.0 5:1.0 6:1.0 7:1.0 12:1.0 15:1.0 18:1.0 20:1.0 21:1.0 22:1.0 24:1.0 30:1.0 32:1.0 33:1.0 39:1.0 41:1.0 42:0.25 75:1.0 110:1.0 
0.5692265478167072 2:0.1 3:0.15 4:1.0 5:1.0 6:1.0 7:1.0 12:1.0 15:1.0 18:1.0 20:1.0 21:1.0 22:1.0 24:1.0 30:1.0 32:1.0 33:1.0 35:1.0 37:1.0 42:0.5 48:1.0 58:1.0 60:1.0 74:1.0 77:1.0 81:1.0 82:1.0 89:1.0 128:1.0 165:1.0 
2.0 2:0.01 13:1.0 15:1.0 22:1.0 24:1.0 30:1.0 32:1.0 33:1.0 37:1.0 41:1.0 42:0.3 45:1.0 49:1.0 65:1.0 149:1.0 150:1.0 
2.0 2:0.021666666666666667 3:0.05 13:1.0 15:1.0 22:1.0 24:1.0 30:1.0 32:1.0 33:1.0 37:1.0 41:1.0 42:0.45 46:1.0 50:1.0 58:1.0 65:1.0 
2.0 2:0.023333333333333334 12:1.0 15:1.0 20:1.0 21:1.0 22:1.0 24:1.0 30:1.0 32:1.0 33:1.0 40:1.0 41:1.0 42:0.2 168:1.0 
1.0683333101625703 2:0.035 4:1.0 5:1.0 6:1.0 7:1.0 12:1.0 15:1.0 18:1.0 20:1.0 21:1.0 22:1.0 24:1.0 30:1.0 32:1.0 33:1.0 40:1.0 41:1.0 42:0.1 168:1.0 
0.11984494555057257 2:0.09 3:0.1 12:1.0 15:1.0 18:1.0 20:1.0 21:1.0 22:1.0 24:1.0 30:1.0 32:1.0 33:1.0 40:1.0 42:0.35 75:1.0 135:1.0 
2.0 2:0.015 12:1.0 15:1.0 22:1.0 24:1.0 30:1.0 32:1.0 33:1.0 35:1.0 37:1.0 41:1.0 42:0.25 56:1.0 65:1.0 157:1.0 178:1.0 
2.0 2:0.03166666666666667 3:0.15 12:1.0 15:1.0 22:1.0 24:1.0 30:1.0 32:1.0 33:1.0 40:1.0 42:0.25 75:1.0 110:1.0 
1.0256632723507202 2:0.03 3:0.15 4:1.0 5:1.0 6:1.0 7:1.0 12:1.0 15:1.0 18:1.0 20:1.0 21:1.0 22:1.0 24:1.0 30:1.0 32:1.0 33:1.0 35:1.0 40:1.0 42:0.35 68:1.0 74:1.0 75:1.0 87:1.0 128:1.0 135:1.0 166:1.0 
2.0 2:0.035 3:0.15 6:1.0 12:1.0 15:1.0 21:1.0 22:1.0 24:1.0 30:1.0 32:1.0 33:1.0 35:1.0 39:1.0 41:1.0 42:0.25 75:1.0 110:1.0 
2.0 2:0.04 3:0.15 14:1.0 15:1.0 20:1.0 21:1.0 22:1.0 25:1.0 30:1.0 32:1.0 33:1.0 34:1.0 40:1.0 41:1.0 42:0.3 47:1.0 60:1.0 75:1.0 98:1.0 110:1.0 113:1.0 
2.0 2:0.021666666666666667 3:0.05 12:1.0 15:1.0 22:1.0 24:1.0 30:1.0 32:1.0 33:1.0 37:1.0 41:1.0 42:0.2 46:1.0 50:1.0 75:1.0 135:1.0 
2.0 2:0.011666666666666667 3:0.1 4:1.0 5:1.0 6:1.0 7:1.0 12:1.0 15:1.0 18:1.0 20:1.0 21:1.0 22:1.0 24:1.0 30:1.0 32:1.0 33:1.0 40:1.0 41:1.0 42:0.35 47:1.0 60:1.0 75:1.0 87:1.0 98:1.0 113:1.0 135:1.0 
2.0 2:0.016666666666666666 12:1.0 15:1.0 22:1.0 24:1.0 30:1.0 33:1.0 37:1.0 41:1.0 42:0.25 44:1.0 52:1.0 60:1.0 65:1.0 93:1.0 116:1.0 148:1.0 179:1.0 
1.5163299929950125 3:0.05 10:1.0 12:1.0 15:1.0 22:1.0 25:1.0 30:1.0 32:1.0 33:1.0 35:1.0 37:1.0 41:1.0 42:0.4 43:1.0 46:1.0 50:1.0 52:1.0 60:1.0 65:1.0 75:1.0 93:1.0 108:1.0 117:1.0 148:1.0 179:1.0 
0.24996669749259642 2:0.058333333333333334 3:0.05 7:1.0 10:1.0 12:1.0 15:1.0 18:1.0 20:1.0 21:1.0 22:1.0 25:1.0 30:1.0 32:1.0 33:1.0 35:1.0 40:1.0 41:1.0 42:0.4 52:1.0 58:1.0 60:1.0 75:1.0 76:1.0 135:1.0 179:1.0 
0.028574028270754163 2:0.058333333333333334 3:0.1 12:1.0 15:1.0 18:1.0 22:1.0 25:1.0 30:1.0 32:1.0 33:1.0 34:1.0 37:1.0 41:1.0 42:0.3 45:1.0 48:1.0 49:1.0 58:1.0 60:1.0 63:1.0 77:1.0 81:1.0 82:1.0 89:1.0 165:1.0 172:1.0 
0.14141580546164756 2:0.015 3:0.05 12:1.0 15:1.0 18:1.0 22:1.0 24:1.0 30:1.0 32:1.0 33:1.0 35:1.0 37:1.0 41:1.0 42:0.45 47:1.0 48:1.0 58:1.0 60:1.0 77:1.0 81:1.0 82:1.0 89:1.0 113:1.0 165:1.0 
0.16387183786660006 2:0.03 3:0.1 4:1.0 5:1.0 6:1.0 7:1.0 12:1.0 15:1.0 18:1.0 20:1.0 21:1.0 22:1.0 24:1.0 30:1.0 32:1.0 33:1.0 40:1.0 41:1.0 42:0.45 47:1.0 60:1.0 75:1.0 76:1.0 84:1.0 85:1.0 87:1.0 98:1.0 113:1.0 135:1.0 
1.8550813674196667 2:0.0016666666666666668 12:1.0 15:1.0 22:1.0 24:1.0 30:1.0 33:1.0 35:1.0 37:1.0 42:0.2 65:1.0 
2.0 2:0.03833333333333333 3:0.05 12:1.0 15:1.0 22:1.0 24:1.0 30:1.0 32:1.0 33:1.0 37:1.0 41:1.0 42:0.35 46:1.0 50:1.0 65:1.0 75:1.0 
0.8953854821710349 2:0.005 3:0.1 12:1.0 15:1.0 18:1.0 20:1.0 21:1.0 22:1.0 24:1.0 30:1.0 32:1.0 33:1.0 35:1.0 40:1.0 41:1.0 42:0.2 75:1.0 87:1.0 98:1.0 135:1.0 
2.0 2:0.028333333333333332 3:0.05 10:1.0 12:1.0 15:1.0 22:1.0 25:1.0 30:1.0 32:1.0 33:1.0 37:1.0 41:1.0 42:0.25 46:1.0 50:1.0 75:1.0 135:1.0 
1.5987034846107628 2:0.0033333333333333335 3:0.1 12:1.0 15:1.0 18:1.0 21:1.0 22:1.0 24:1.0 30:1.0 32:1.0 33:1.0 35:1.0 40:1.0 41:1.0 42:0.25 47:1.0 60:1.0 75:1.0 84:1.0 85:1.0 98:1.0 110:1.0 113:1.0 
1.1006103107428438 2:0.013333333333333334 3:0.1 4:1.0 5:1.0 6:1.0 7:1.0 12:1.0 15:1.0 18:1.0 20:1.0 21:1.0 22:1.0 24:1.0 30:1.0 32:1.0 33:1.0 40:1.0 42:0.4 60:1.0 70:1.0 74:1.0 75:1.0 84:1.0 85:1.0 98:1.0 99:1.0 128:1.0 135:1.0 146:1.0 
2.0 2:0.0033333333333333335 12:1.0 15:1.0 22:1.0 24:1.0 30:1.0 32:1.0 33:1.0 35:1.0 37:1.0 41:1.0 42:0.2 56:1.0 65:1.0 157:1.0 178:1.0 
0.7835367360079588 2:0.013333333333333334 3:0.05 10:1.0 12:1.0 15:1.0 22:1.0 25:1.0 30:1.0 32:1.0 33:1.0 37:1.0 41:1.0 42:0.35 46:1.0 50:1.0 59:1.0 65:1.0 75:1.0 90:1.0 108:1.0 118:1.0 157:1.0 
1.9859270283424675 2:0.013333333333333334 12:1.0 15:1.0 22:1.0 24:1.0 30:1.0 33:1.0 35:1.0 37:1.0 41:1.0 42:0.15 44:1.0 65:1.0 116:1.0 
2.0 3:0.05 12:1.0 15:1.0 22:1.0 24:1.0 30:1.0 32:1.0 33:1.0 35:1.0 37:1.0 41:1.0 42:0.25 43:1.0 46:1.0 50:1.0 65:1.0 75:1.0 108:1.0 117:1.0 118:1.0 
2.0 2:0.021666666666666667 3:0.05 12:1.0 15:1.0 22:1.0 24:1.0 30:1.0 32:1.0 33:1.0 35:1.0 37:1.0 42:0.3 70:1.0 74:1.0 75:1.0 135:1.0 146:1.0 
1.0179708060721318 2:0.021666666666666667 3:0.1 5:1.0 6:1.0 10:1.0 12:1.0 15:1.0 18:1.0 20:1.0 21:1.0 22:1.0 23:1.0 30:1.0 32:1.0 33:1.0 34:1.0 35:1.0 38:1.0 41:1.0 42:0.35 47:1.0 52:1.0 60:1.0 75:1.0 105:1.0 108:1.0 113:1.0 179:1.0 
1.5361845359977515 2:0.035 3:0.05 7:1.0 12:1.0 15:1.0 18:1.0 20:1.0 21:1.0 22:1.0 25:1.0 30:1.0 32:1.0 33:1.0 34:1.0 35:1.0 37:1.0 41:1.0 42:0.3 45:1.0 48:1.0 49:1.0 52:1.0 58:1.0 60:1.0 63:1.0 77:1.0 82:1.0 106:1.0 172:1.0 179:1.0 
0.19877515116282976 2:0.006666666666666667 6:1.0 12:1.0 15:1.0 18:1.0 20:1.0 21:1.0 22:1.0 24:1.0 30:1.0 32:1.0 33:1.0 35:1.0 40:1.0 41:1.0 42:0.2 46:1.0 50:1.0 75:1.0 103:1.0 104:1.0 135:1.0 177:1.0 
1.8049836649999782 2:0.025 3:0.1 12:1.0 15:1.0 20:1.0 21:1.0 22:1.0 24:1.0 30:1.0 32:1.0 33:1.0 40:1.0 41:1.0 42:0.3 70:1.0 74:1.0 75:1.0 98:1.0 146:1.0 166:1.0 
2.0 2:0.006666666666666667 13:1.0 15:1.0 22:1.0 24:1.0 30:1.0 32:1.0 33:1.0 37:1.0 42:0.15 65:1.0 
1.4138492737307087 2:0.018333333333333333 3:0.05 13:1.0 15:1.0 22:1.0 24:1.0 30:1.0 32:1.0 33:1.0 37:1.0 41:1.0 42:0.3 46:1.0 50:1.0 65:1.0 75:1.0 108:1.0 118:1.0 
1.4609978775771695 2:0.11 3:0.2 4:1.0 5:1.0 6:1.0 7:1.0 12:1.0 15:1.0 18:1.0 20:1.0 21:1.0 22:1.0 24:1.0 30:1.0 32:1.0 33:1.0 40:1.0 41:1.0 42:0.35 68:1.0 70:1.0 74:1.0 75:1.0 128:1.0 146:1.0 166:1.0 
2.0 2:0.008333333333333333 12:1.0 15:1.0 22:1.0 24:1.0 30:1.0 32:1.0 33:1.0 35:1.0 37:1.0 41:1.0 42:0.1 
0.4577935242086274 2:0.07 3:0.05 6:1.0 7:1.0 10:1.0 12:1.0 15:1.0 18:1.0 20:1.0 21:1.0 22:1.0 25:1.0 30:1.0 32:1.0 33:1.0 40:1.0 42:0.65 48:1.0 52:1.0 58:1.0 60:1.0 65:1.0 75:1.0 106:1.0 135:1.0 137:1.0 154:1.0 179:1.0 
2.0 2:0.01 12:1.0 15:1.0 22:1.0 24:1.0 30:1.0 32:1.0 33:1.0 35:1.0 37:1.0 42:0.15 75:1.0 
0.3306026056525392 2:0.0016666666666666668 12:1.0 15:1.0 22:1.0 24:1.0 30:1.0 33:1.0 35:1.0 37:1.0 42:0.1 44:1.0 65:1.0 116:1.0 
2.0 2:0.09666666666666666 3:0.15 12:1.0 15:1.0 22:1.0 24:1.0 30:1.0 32:1.0 33:1.0 35:1.0 40:1.0 42:0.25 75:1.0 98:1.0 110:1.0 
2.0 2:0.04833333333333333 3:0.05 12:1.0 15:1.0 22:1.0 24:1.0 30:1.0 32:1.0 33:1.0 35:1.0 37:1.0 41:1.0 42:0.45 48:1.0 58:1.0 60:1.0 65:1.0 75:1.0 89:1.0 108:1.0 118:1.0 165:1.0 
2.0 2:0.005 12:1.0 15:1.0 22:1.0 24:1.0 30:1.0 32:1.0 33:1.0 35:1.0 37:1.0 42:0.15 65:1.0 70:1.0 74:1.0 109:1.0 146:1.0 
0.5695403799341271 2:0.01 3:0.05 10:1.0 12:1.0 15:1.0 22:1.0 25:1.0 30:1.0 32:1.0 33:1.0 37:1.0 41:1.0 42:0.3 46:1.0 50:1.0 65:1.0 74:1.0 75:1.0 108:1.0 109:1.0 118:1.0 128:1.0 136:1.0 
2.0 2:0.006666666666666667 13:1.0 15:1.0 22:1.0 24:1.0 30:1.0 32:1.0 33:1.0 37:1.0 41:1.0 42:0.25 65:1.0 
2.0 2:0.04 10:1.0 12:1.0 15:1.0 18:1.0 21:1.0 22:1.0 25:1.0 30:1.0 32:1.0 33:1.0 35:1.0 40:1.0 42:0.35 48:1.0 60:1.0 65:1.0 75:1.0 
2.0 2:0.021666666666666667 3:0.05 13:1.0 15:1.0 22:1.0 24:1.0 30:1.0 32:1.0 33:1.0 37:1.0 41:1.0 42:0.4 46:1.0 50:1.0 65:1.0 75:1.0 108:1.0 118:1.0 
-0.08566090363153879 2:0.11666666666666667 3:0.35 12:1.0 15:1.0 22:1.0 24:1.0 30:1.0 33:1.0 37:1.0 41:1.0 42:0.5 48:1.0 58:1.0 60:1.0 65:1.0 174:1.0 
-1.160846252552619 2:0.13833333333333334 3:0.3 12:1.0 15:1.0 21:1.0 22:1.0 24:1.0 30:1.0 32:1.0 33:1.0 38:1.0 41:1.0 42:0.15 75:1.0 87:1.0 98:1.0 135:1.0 
-0.1766095963010981 2:0.15333333333333332 3:0.5 12:1.0 15:1.0 22:1.0 24:1.0 30:1.0 32:1.0 33:1.0 37:1.0 41:1.0 42:0.35 60:1.0 70:1.0 74:1.0 76:1.0 146:1.0 152:1.0 154:1.0 
-0.3394466926380788 2:0.03666666666666667 3:0.1 14:1.0 17:1.0 24:1.0 30:1.0 32:1.0 33:1.0 41:1.0 42:0.55 47:1.0 48:1.0 52:1.0 58:1.0 60:1.0 65:1.0 78:1.0 82:1.0 106:1.0 113:1.0 138:1.0 179:1.0 
-2.0 2:0.3 3:0.55 4:1.0 5:1.0 6:1.0 7:1.0 12:1.0 15:1.0 18:1.0 20:1.0 21:1.0 22:1.0 24:1.0 30:1.0 32:1.0 33:1.0 40:1.0 42:0.55 52:1.0 58:1.0 60:1.0 70:1.0 74:1.0 76:1.0 77:1.0 82:1.0 94:1.0 128:1.0 146:1.0 156:1.0 179:1.0 
-0.21623813447251508 2:0.07833333333333334 3:0.35 12:1.0 15:1.0 24:1.0 30:1.0 32:1.0 33:1.0 38:1.0 41:1.0 42:0.35 60:1.0 74:1.0 75:1.0 76:1.0 94:1.0 110:1.0 128:1.0 132:1.0 133:1.0 
-0.34475920884860217 2:0.5 3:1.0 12:1.0 15:1.0 22:1.0 25:1.0 30:1.0 32:1.0 33:1.0 34:1.0 40:1.0 41:1.0 42:0.6 47:1.0 56:1.0 60:1.0 75:1.0 91:1.0 113:1.0 114:1.0 115:1.0 135:1.0 140:1.0 157:1.0 178:1.0 
-1.6297426195113398 2:0.04666666666666667 3:0.1 6:1.0 12:1.0 15:1.0 18:1.0 21:1.0 22:1.0 24:1.0 30:1.0 32:1.0 33:1.0 37:1.0 41:1.0 42:0.5 60:1.0 65:1.0 75:1.0 76:1.0 84:1.0 85:1.0 98:1.0 
-0.18585250346672083 2:0.05333333333333334 3:0.1 12:1.0 15:1.0 22:1.0 24:1.0 30:1.0 32:1.0 33:1.0 35:1.0 40:1.0 41:1.0 42:0.7 48:1.0 58:1.0 60:1.0 65:1.0 74:1.0 76:1.0 78:1.0 94:1.0 114:1.0 115:1.0 128:1.0 138:1.0 174:1.0 
-0.146186298349567 2:0.02 8:1.0 12:1.0 17:1.0 24:1.0 31:1.0 32:1.0 41:1.0 42:0.25 45:1.0 49:1.0 65:1.0 70:1.0 74:1.0 109:1.0 146:1.0 149:1.0 150:1.0 
-0.24515486770970785 2:0.15833333333333333 3:0.45 13:1.0 15:1.0 18:1.0 21:1.0 22:1.0 24:1.0 30:1.0 32:1.0 33:1.0 37:1.0 41:1.0 42:0.45 58:1.0 65:1.0 75:1.0 98:1.0 101:1.0 102:1.0 
-1.8728143471485734 2:0.06166666666666667 3:0.1 7:1.0 12:1.0 15:1.0 18:1.0 20:1.0 21:1.0 22:1.0 25:1.0 30:1.0 32:1.0 33:1.0 34:1.0 38:1.0 41:1.0 42:0.3 45:1.0 48:1.0 49:1.0 52:1.0 58:1.0 60:1.0 63:1.0 82:1.0 106:1.0 172:1.0 179:1.0 
-2.0 2:0.04 3:0.1 6:1.0 12:1.0 15:1.0 18:1.0 21:1.0 22:1.0 24:1.0 30:1.0 32:1.0 33:1.0 39:1.0 41:1.0 42:0.7 44:1.0 58:1.0 65:1.0 77:1.0 82:1.0 116:1.0 
-0.2830033886861186 2:0.135 3:0.35 12:1.0 15:1.0 22:1.0 24:1.0 30:1.0 32:1.0 33:1.0 38:1.0 41:1.0 42:0.75 43:1.0 52:1.0 58:1.0 60:1.0 65:1.0 70:1.0 74:1.0 77:1.0 82:1.0 111:1.0 112:1.0 117:1.0 146:1.0 156:1.0 179:1.0 
-2.0 2:0.12666666666666668 3:0.2 12:1.0 15:1.0 22:1.0 24:1.0 30:1.0 32:1.0 33:1.0 37:1.0 41:1.0 42:0.2 75:1.0 110:1.0 
-2.0 2:0.028333333333333332 3:0.05 4:1.0 5:1.0 6:1.0 7:1.0 12:1.0 15:1.0 18:1.0 20:1.0 21:1.0 22:1.0 24:1.0 30:1.0 32:1.0 33:1.0 38:1.0 41:1.0 42:0.45 47:1.0 48:1.0 52:1.0 58:1.0 60:1.0 82:1.0 105:1.0 106:1.0 113:1.0 179:1.0 
-1.4571942194802159 2:0.37666666666666665 3:1.0 5:1.0 12:1.0 15:1.0 18:1.0 20:1.0 21:1.0 22:1.0 24:1.0 30:1.0 33:1.0 38:1.0 41:1.0 42:0.3 43:1.0 58:1.0 65:1.0 77:1.0 82:1.0 83:1.0 117:1.0 
-0.6739259060929447 2:0.07 3:0.15 12:1.0 15:1.0 22:1.0 24:1.0 30:1.0 33:1.0 37:1.0 42:0.35 46:1.0 50:1.0 59:1.0 65:1.0 75:1.0 90:1.0 108:1.0 118:1.0 157:1.0 
-0.5106642512548174 2:0.22 3:0.3 14:1.0 15:1.0 22:1.0 24:1.0 30:1.0 32:1.0 33:1.0 37:1.0 41:1.0 42:0.5 46:1.0 58:1.0 65:1.0 82:1.0 89:1.0 
-0.6502343802959653 2:0.01 3:0.05 12:1.0 15:1.0 22:1.0 24:1.0 30:1.0 32:1.0 33:1.0 35:1.0 38:1.0 41:1.0 42:0.25 46:1.0 50:1.0 58:1.0 65:1.0 82:1.0 143:1.0 
-0.5513025184677324 2:0.065 3:0.1 13:1.0 15:1.0 20:1.0 21:1.0 22:1.0 24:1.0 30:1.0 32:1.0 33:1.0 37:1.0 41:1.0 42:0.75 43:1.0 44:1.0 52:1.0 58:1.0 60:1.0 65:1.0 93:1.0 116:1.0 117:1.0 148:1.0 179:1.0 
-0.47552055437598884 2:0.31833333333333336 3:0.3 12:1.0 15:1.0 22:1.0 24:1.0 30:1.0 32:1.0 33:1.0 37:1.0 42:0.6 52:1.0 58:1.0 60:1.0 65:1.0 70:1.0 74:1.0 76:1.0 77:1.0 82:1.0 83:1.0 146:1.0 152:1.0 179:1.0 
-1.2219767964298691 2:0.18666666666666668 3:0.8 12:1.0 15:1.0 20:1.0 22:1.0 24:1.0 30:1.0 32:1.0 33:1.0 40:1.0 41:1.0 42:0.1 75:1.0 154:1.0 
-0.4560046398495773 2:0.025 3:0.05 12:1.0 15:1.0 22:1.0 24:1.0 30:1.0 32:1.0 33:1.0 35:1.0 38:1.0 41:1.0 42:0.5 45:1.0 49:1.0 58:1.0 65:1.0 70:1.0 74:1.0 77:1.0 82:1.0 107:1.0 109:1.0 111:1.0 112:1.0 146:1.0 
-0.40570141306438906 2:0.29333333333333333 3:0.55 8:1.0 12:1.0 17:1.0 24:1.0 31:1.0 32:1.0 41:1.0 42:1.35 47:1.0 48:1.0 52:1.0 58:1.0 60:1.0 65:1.0 77:1.0 82:1.0 83:1.0 105:1.0 106:1.0 111:1.0 112:1.0 113:1.0 130:1.0 131:1.0 179:1.0 
-0.40943012366640896 2:0.09666666666666666 3:0.25 12:1.0 15:1.0 22:1.0 25:1.0 30:1.0 32:1.0 33:1.0 34:1.0 40:1.0 42:0.4 43:1.0 58:1.0 65:1.0 75:1.0 110:1.0 111:1.0 112:1.0 117:1.0 
-1.628092341352021 2:0.15666666666666668 3:0.35 14:1.0 15:1.0 18:1.0 20:1.0 21:1.0 22:1.0 24:1.0 30:1.0 32:1.0 33:1.0 38:1.0 41:1.0 42:0.15 44:1.0 58:1.0 65:1.0 116:1.0 119:1.0 125:1.0 
-0.29527203889328113 2:0.051666666666666666 14:1.0 17:1.0 22:1.0 24:1.0 30:1.0 32:1.0 33:1.0 41:1.0 42:0.85 58:1.0 65:1.0 70:1.0 74:1.0 109:1.0 111:1.0 112:1.0 137:1.0 146:1.0 
-0.23080141942579785 2:0.006666666666666667 3:0.05 12:1.0 15:1.0 22:1.0 24:1.0 30:1.0 32:1.0 33:1.0 35:1.0 39:1.0 41:1.0 42:0.4 43:1.0 44:1.0 58:1.0 65:1.0 82:1.0 116:1.0 117:1.0 
-1.2822598910910865 2:0.535 3:0.95 12:1.0 15:1.0 22:1.0 24:1.0 30:1.0 32:1.0 33:1.0 35:1.0 39:1.0 41:1.0 42:1.1 47:1.0 48:1.0 52:1.0 58:1.0 60:1.0 65:1.0 78:1.0 113:1.0 114:1.0 115:1.0 127:1.0 138:1.0 179:1.0 
-0.559093549472311 2:0.021666666666666667 3:0.15 12:1.0 15:1.0 22:1.0 24:1.0 30:1.0 32:1.0 33:1.0 35:1.0 38:1.0 41:1.0 42:0.15 45:1.0 49:1.0 56:1.0 97:1.0 157:1.0 169:1.0 178:1.0 
-0.058589081601916636 2:0.023333333333333334 3:0.05 13:1.0 15:1.0 22:1.0 25:1.0 30:1.0 32:1.0 33:1.0 34:1.0 40:1.0 41:1.0 42:0.5 43:1.0 46:1.0 50:1.0 58:1.0 65:1.0 75:1.0 92:1.0 108:1.0 117:1.0 118:1.0 
-0.7326016290964807 2:0.02666666666666667 3:0.1 12:1.0 15:1.0 22:1.0 24:1.0 30:1.0 32:1.0 33:1.0 35:1.0 37:1.0 41:1.0 42:0.8 43:1.0 58:1.0 60:1.0 65:1.0 70:1.0 74:1.0 76:1.0 78:1.0 82:1.0 94:1.0 117:1.0 138:1.0 146:1.0 
-0.22135900018671412 2:0.23833333333333334 3:0.45 12:1.0 17:1.0 24:1.0 30:1.0 32:1.0 33:1.0 41:1.0 42:0.8 47:1.0 52:1.0 58:1.0 60:1.0 70:1.0 71:1.0 74:1.0 76:1.0 94:1.0 105:1.0 113:1.0 146:1.0 169:1.0 179:1.0 
-0.8813604781788696 12:1.0 15:1.0 21:1.0 22:1.0 24:1.0 30:1.0 32:1.0 33:1.0 35:1.0 40:1.0 42:0.05 
-1.1033356439656217 2:0.01 3:0.05 12:1.0 15:1.0 18:1.0 21:1.0 24:1.0 30:1.0 32:1.0 33:1.0 35:1.0 39:1.0 41:1.0 42:0.4 75:1.0 135:1.0 
-0.061126896882791264 2:0.14666666666666667 3:0.2 12:1.0 15:1.0 22:1.0 24:1.0 30:1.0 32:1.0 33:1.0 39:1.0 42:0.75 58:1.0 65:1.0 70:1.0 74:1.0 82:1.0 109:1.0 111:1.0 112:1.0 128:1.0 136:1.0 146:1.0 
-0.24222719329610684 2:0.0033333333333333335 13:1.0 17:1.0 24:1.0 30:1.0 32:1.0 33:1.0 41:1.0 42:0.35 44:1.0 47:1.0 58:1.0 60:1.0 65:1.0 113:1.0 114:1.0 115:1.0 116:1.0 
-2.0 2:0.05333333333333334 3:0.1 13:1.0 15:1.0 22:1.0 24:1.0 30:1.0 32:1.0 33:1.0 37:1.0 41:1.0 42:0.4 65:1.0 98:1.0 
-0.73279977885235 2:0.295 3:0.6 12:1.0 15:1.0 20:1.0 21:1.0 22:1.0 24:1.0 30:1.0 32:1.0 33:1.0 37:1.0 41:1.0 42:1.05 43:1.0 48:1.0 52:1.0 58:1.0 60:1.0 65:1.0 77:1.0 82:1.0 106:1.0 117:1.0 179:1.0 
-0.07997634597157005 2:0.03166666666666667 3:0.1 12:1.0 15:1.0 22:1.0 24:1.0 30:1.0 32:1.0 33:1.0 35:1.0 37:1.0 42:0.3 59:1.0 75:1.0 87:1.0 90:1.0 98:1.0 135:1.0 157:1.0 
-0.06360295662584128 2:0.055 3:0.2 12:1.0 15:1.0 22:1.0 24:1.0 30:1.0 32:1.0 33:1.0 37:1.0 42:0.4 58:1.0 60:1.0 65:1.0 70:1.0 74:1.0 75:1.0 76:1.0 78:1.0 94:1.0 138:1.0 146:1.0 
-0.5526097350055132 2:0.05333333333333334 3:0.1 12:1.0 15:1.0 22:1.0 24:1.0 30:1.0 33:1.0 37:1.0 41:1.0 42:0.85 52:1.0 58:1.0 60:1.0 65:1.0 76:1.0 82:1.0 114:1.0 115:1.0 127:1.0 137:1.0 152:1.0 179:1.0 
-0.2015216947297171 2:0.11 3:0.1 12:1.0 15:1.0 22:1.0 24:1.0 30:1.0 32:1.0 33:1.0 35:1.0 38:1.0 41:1.0 42:0.7 58:1.0 60:1.0 65:1.0 70:1.0 74:1.0 77:1.0 78:1.0 82:1.0 114:1.0 115:1.0 138:1.0 146:1.0 
-0.7163735961770629 2:0.095 3:0.2 14:1.0 15:1.0 18:1.0 20:1.0 21:1.0 22:1.0 24:1.0 30:1.0 32:1.0 33:1.0 38:1.0 41:1.0 42:0.35 43:1.0 48:1.0 52:1.0 58:1.0 60:1.0 65:1.0 82:1.0 106:1.0 117:1.0 179:1.0 
-2.0 2:0.15 3:0.2 6:1.0 12:1.0 15:1.0 18:1.0 21:1.0 22:1.0 24:1.0 30:1.0 32:1.0 33:1.0 37:1.0 41:1.0 42:0.25 75:1.0 110:1.0 135:1.0 
-1.5901443671304551 2:0.3283333333333333 3:0.4 10:1.0 12:1.0 15:1.0 22:1.0 25:1.0 30:1.0 32:1.0 33:1.0 39:1.0 41:1.0 42:0.25 43:1.0 46:1.0 50:1.0 58:1.0 65:1.0 82:1.0 117:1.0 
-0.6820762377866479 2:0.065 3:0.1 13:1.0 15:1.0 22:1.0 24:1.0 30:1.0 32:1.0 33:1.0 37:1.0 41:1.0 42:0.55 44:1.0 65:1.0 75:1.0 92:1.0 108:1.0 116:1.0 118:1.0 135:1.0 139:1.0 
-2.0 2:0.14 3:0.4 10:1.0 12:1.0 15:1.0 22:1.0 25:1.0 30:1.0 32:1.0 33:1.0 37:1.0 41:1.0 42:0.1 46:1.0 50:1.0 86:1.0 174:1.0 
-0.14740481436527347 2:0.19833333333333333 3:0.4 10:1.0 12:1.0 15:1.0 22:1.0 25:1.0 30:1.0 32:1.0 33:1.0 39:1.0 42:0.4 58:1.0 65:1.0 82:1.0 172:1.0 181:1.0 
-1.3135628315072936 2:0.09 3:0.25 4:1.0 5:1.0 6:1.0 7:1.0 14:1.0 15:1.0 18:1.0 20:1.0 21:1.0 22:1.0 24:1.0 30:1.0 32:1.0 33:1.0 37:1.0 42:0.45 47:1.0 58:1.0 65:1.0 72:1.0 75:1.0 135:1.0 179:1.0 180:1.0 
-1.3728969166536535 2:0.07 3:0.15 12:1.0 15:1.0 18:1.0 20:1.0 21:1.0 22:1.0 24:1.0 30:1.0 33:1.0 38:1.0 41:1.0 42:0.45 52:1.0 58:1.0 60:1.0 65:1.0 74:1.0 76:1.0 77:1.0 82:1.0 109:1.0 128:1.0 136:1.0 156:1.0 179:1.0 
-1.1283233943068736 2:0.016666666666666666 12:1.0 15:1.0 22:1.0 25:1.0 30:1.0 33:1.0 34:1.0 35:1.0 37:1.0 41:1.0 42:0.3 45:1.0 48:1.0 49:1.0 52:1.0 60:1.0 76:1.0 149:1.0 150:1.0 179:1.0 
-1.8529435123986155 2:0.0016666666666666668 13:1.0 15:1.0 22:1.0 24:1.0 30:1.0 32:1.0 33:1.0 35:1.0 38:1.0 41:1.0 42:0.15 45:1.0 49:1.0 65:1.0 149:1.0 150:1.0 
-0.19115177301986036 2:0.03 3:0.05 12:1.0 15:1.0 22:1.0 25:1.0 30:1.0 32:1.0 33:1.0 34:1.0 35:1.0 40:1.0 42:0.25 45:1.0 49:1.0 63:1.0 67:1.0 69:1.0 82:1.0 143:1.0 146:1.0 157:1.0 172:1.0 
-2.0 2:0.11666666666666667 3:0.25 12:1.0 15:1.0 18:1.0 20:1.0 21:1.0 22:1.0 24:1.0 30:1.0 32:1.0 33:1.0 35:1.0 37:1.0 41:1.0 42:0.95 43:1.0 52:1.0 58:1.0 60:1.0 65:1.0 76:1.0 77:1.0 82:1.0 83:1.0 92:1.0 117:1.0 179:1.0 
-0.033385778062446754 2:0.3616666666666667 3:0.75 12:1.0 15:1.0 22:1.0 24:1.0 30:1.0 32:1.0 33:1.0 38:1.0 41:1.0 42:0.9 58:1.0 60:1.0 65:1.0 70:1.0 73:1.0 74:1.0 76:1.0 78:1.0 114:1.0 115:1.0 138:1.0 146:1.0 174:1.0 179:1.0 
-0.41835116088161256 2:0.055 3:0.1 12:1.0 15:1.0 22:1.0 24:1.0 30:1.0 32:1.0 33:1.0 35:1.0 37:1.0 41:1.0 42:0.85 47:1.0 48:1.0 52:1.0 58:1.0 60:1.0 105:1.0 113:1.0 114:1.0 115:1.0 127:1.0 179:1.0 
-0.23408753850318187 2:0.01 3:0.1 12:1.0 15:1.0 22:1.0 24:1.0 30:1.0 32:1.0 33:1.0 40:1.0 41:1.0 42:0.3 70:1.0 74:1.0 75:1.0 98:1.0 99:1.0 135:1.0 146:1.0 
-0.1605760619789337 2:0.06666666666666667 3:0.2 12:1.0 15:1.0 22:1.0 24:1.0 30:1.0 32:1.0 33:1.0 38:1.0 41:1.0 42:0.4 43:1.0 58:1.0 65:1.0 70:1.0 74:1.0 82:1.0 117:1.0 143:1.0 146:1.0 155:1.0 
-1.7006290975084921 2:0.09833333333333333 3:0.2 6:1.0 12:1.0 15:1.0 18:1.0 20:1.0 21:1.0 22:1.0 25:1.0 30:1.0 32:1.0 33:1.0 34:1.0 38:1.0 41:1.0 42:0.25 44:1.0 45:1.0 49:1.0 58:1.0 65:1.0 77:1.0 82:1.0 83:1.0 116:1.0 
-0.22466359859915822 2:0.021666666666666667 3:0.1 12:1.0 15:1.0 22:1.0 24:1.0 30:1.0 32:1.0 33:1.0 39:1.0 41:1.0 42:0.15 75:1.0 110:1.0 
-0.41892347635302096 2:0.23833333333333334 3:0.45 12:1.0 15:1.0 22:1.0 24:1.0 30:1.0 32:1.0 33:1.0 39:1.0 41:1.0 42:1.15 47:1.0 52:1.0 58:1.0 60:1.0 65:1.0 76:1.0 82:1.0 92:1.0 105:1.0 111:1.0 112:1.0 113:1.0 179:1.0 
-1.176670941648539 2:0.30333333333333334 3:0.7 7:1.0 12:1.0 15:1.0 18:1.0 20:1.0 21:1.0 22:1.0 25:1.0 30:1.0 32:1.0 33:1.0 34:1.0 40:1.0 42:0.9 43:1.0 52:1.0 58:1.0 60:1.0 65:1.0 70:1.0 74:1.0 76:1.0 82:1.0 94:1.0 111:1.0 112:1.0 117:1.0 146:1.0 179:1.0 
-1.0634698112051637 2:0.29833333333333334 3:0.95 12:1.0 15:1.0 20:1.0 22:1.0 24:1.0 30:1.0 33:1.0 38:1.0 41:1.0 42:0.5 48:1.0 52:1.0 58:1.0 60:1.0 65:1.0 73:1.0 106:1.0 167:1.0 174:1.0 179:1.0 
-0.04198649928049825 2:0.09 3:0.1 12:1.0 15:1.0 22:1.0 24:1.0 30:1.0 32:1.0 33:1.0 39:1.0 42:0.75 58:1.0 59:1.0 65:1.0 70:1.0 74:1.0 82:1.0 90:1.0 92:1.0 111:1.0 112:1.0 139:1.0 146:1.0 157:1.0 
-0.7952620489487634 2:0.06666666666666667 3:0.15 10:1.0 14:1.0 15:1.0 22:1.0 25:1.0 30:1.0 32:1.0 33:1.0 39:1.0 41:1.0 42:0.2 45:1.0 46:1.0 49:1.0 50:1.0 51:1.0 82:1.0 143:1.0 
-0.2191740282439655 2:0.37833333333333335 3:0.8 10:1.0 14:1.0 17:1.0 25:1.0 30:1.0 32:1.0 33:1.0 41:1.0 42:0.9 47:1.0 52:1.0 58:1.0 60:1.0 65:1.0 82:1.0 105:1.0 113:1.0 114:1.0 127:1.0 179:1.0 
-0.5800217910958251 2:0.043333333333333335 3:0.05 10:1.0 12:1.0 15:1.0 22:1.0 25:1.0 30:1.0 32:1.0 33:1.0 35:1.0 38:1.0 41:1.0 42:0.35 48:1.0 52:1.0 60:1.0 75:1.0 98:1.0 108:1.0 114:1.0 115:1.0 127:1.0 179:1.0 
-0.06861901488856803 2:0.255 3:0.75 13:1.0 15:1.0 22:1.0 24:1.0 30:1.0 32:1.0 33:1.0 37:1.0 41:1.0 42:0.1 100:1.0 147:1.0 158:1.0 
-0.10996240940478111 2:0.135 3:0.25 13:1.0 15:1.0 24:1.0 30:1.0 32:1.0 33:1.0 38:1.0 41:1.0 42:0.65 52:1.0 58:1.0 60:1.0 70:1.0 73:1.0 74:1.0 76:1.0 111:1.0 112:1.0 114:1.0 115:1.0 127:1.0 146:1.0 174:1.0 179:1.0 
-0.3581693253925577 2:0.11 3:0.2 8:1.0 10:1.0 13:1.0 17:1.0 25:1.0 31:1.0 32:1.0 42:0.45 46:1.0 50:1.0 58:1.0 65:1.0 82:1.0 
-0.2508404806555757 2:0.265 3:0.55 10:1.0 14:1.0 17:1.0 22:1.0 25:1.0 30:1.0 32:1.0 33:1.0 41:1.0 42:0.45 45:1.0 48:1.0 49:1.0 52:1.0 58:1.0 60:1.0 63:1.0 76:1.0 77:1.0 82:1.0 156:1.0 172:1.0 179:1.0 
-0.39710177548579983 2:0.10166666666666667 3:0.2 12:1.0 15:1.0 21:1.0 22:1.0 25:1.0 30:1.0 32:1.0 33:1.0 34:1.0 40:1.0 42:0.2 45:1.0 49:1.0 75:1.0 87:1.0 135:1.0 
-0.02551768858938263 2:0.05333333333333334 3:0.1 10:1.0 12:1.0 15:1.0 22:1.0 25:1.0 30:1.0 32:1.0 33:1.0 40:1.0 41:1.0 42:0.4 43:1.0 48:1.0 58:1.0 60:1.0 65:1.0 75:1.0 117:1.0 135:1.0 
-0.19962548716388728 2:0.4116666666666667 3:1.0 14:1.0 15:1.0 22:1.0 24:1.0 30:1.0 32:1.0 33:1.0 35:1.0 39:1.0 41:1.0 42:0.9 44:1.0 47:1.0 52:1.0 58:1.0 60:1.0 65:1.0 77:1.0 82:1.0 83:1.0 113:1.0 114:1.0 115:1.0 116:1.0 127:1.0 179:1.0 
-0.16351546703931896 2:0.02666666666666667 3:0.05 8:1.0 13:1.0 17:1.0 24:1.0 31:1.0 32:1.0 42:0.45 57:1.0 60:1.0 76:1.0 82:1.0 134:1.0 140:1.0 143:1.0 175:1.0 
-0.11252653118626203 2:0.021666666666666667 3:0.05 12:1.0 15:1.0 22:1.0 24:1.0 30:1.0 32:1.0 33:1.0 35:1.0 38:1.0 41:1.0 42:0.85 58:1.0 60:1.0 65:1.0 70:1.0 74:1.0 78:1.0 89:1.0 111:1.0 112:1.0 138:1.0 146:1.0 174:1.0 
-0.7113183186239098 2:0.058333333333333334 3:0.2 12:1.0 15:1.0 18:1.0 22:1.0 25:1.0 30:1.0 32:1.0 33:1.0 34:1.0 35:1.0 39:1.0 41:1.0 42:0.5 43:1.0 58:1.0 65:1.0 70:1.0 74:1.0 82:1.0 109:1.0 117:1.0 146:1.0 
-0.6388705884724172 2:0.11333333333333333 3:0.2 12:1.0 15:1.0 22:1.0 24:1.0 30:1.0 32:1.0 33:1.0 37:1.0 41:1.0 42:0.65 47:1.0 48:1.0 58:1.0 60:1.0 65:1.0 76:1.0 78:1.0 88:1.0 113:1.0 114:1.0 115:1.0 138:1.0 174:1.0 
-2.0 2:0.0033333333333333335 3:0.1 12:1.0 15:1.0 18:1.0 21:1.0 22:1.0 24:1.0 30:1.0 32:1.0 33:1.0 35:1.0 40:1.0 41:1.0 42:0.2 75:1.0 98:1.0 110:1.0 
-0.5274712186630972 2:0.18166666666666667 3:0.2 11:1.0 13:1.0 17:1.0 24:1.0 30:1.0 32:1.0 33:1.0 41:1.0 42:0.55 47:1.0 48:1.0 58:1.0 60:1.0 65:1.0 78:1.0 82:1.0 113:1.0 114:1.0 115:1.0 138:1.0 140:1.0 
-0.20475886009052108 2:0.013333333333333334 3:0.05 12:1.0 15:1.0 22:1.0 24:1.0 30:1.0 32:1.0 33:1.0 37:1.0 41:1.0 42:0.75 48:1.0 52:1.0 60:1.0 75:1.0 76:1.0 93:1.0 114:1.0 115:1.0 127:1.0 132:1.0 133:1.0 152:1.0 179:1.0 
-0.33985757895207996 2:0.115 3:0.2 10:1.0 12:1.0 15:1.0 22:1.0 25:1.0 30:1.0 32:1.0 33:1.0 35:1.0 40:1.0 42:0.4 46:1.0 50:1.0 58:1.0 65:1.0 74:1.0 82:1.0 128:1.0 
-0.3361594023555191 2:0.24833333333333332 3:0.45 6:1.0 12:1.0 15:1.0 18:1.0 21:1.0 24:1.0 30:1.0 32:1.0 33:1.0 37:1.0 41:1.0 42:0.6 60:1.0 64:1.0 75:1.0 132:1.0 133:1.0 135:1.0 157:1.0 173:1.0 178:1.0 
-0.020481656395852855 2:0.04833333333333333 3:0.1 12:1.0 15:1.0 22:1.0 24:1.0 30:1.0 32:1.0 33:1.0 39:1.0 41:1.0 42:1.15 52:1.0 58:1.0 60:1.0 65:1.0 76:1.0 93:1.0 137:1.0 140:1.0 152:1.0 179:1.0 
-2.0 2:0.065 3:0.25 12:1.0 15:1.0 20:1.0 21:1.0 22:1.0 24:1.0 30:1.0 32:1.0 33:1.0 40:1.0 42:0.3 75:1.0 87:1.0 135:1.0 
-1.4106845327859978 2:0.006666666666666667 6:1.0 10:1.0 12:1.0 15:1.0 21:1.0 22:1.0 25:1.0 30:1.0 32:1.0 33:1.0 35:1.0 40:1.0 41:1.0 42:0.2 48:1.0 60:1.0 
-2.0 2:0.008333333333333333 10:1.0 12:1.0 15:1.0 22:1.0 25:1.0 30:1.0 32:1.0 33:1.0 35:1.0 37:1.0 41:1.0 42:0.2 45:1.0 49:1.0 65:1.0 149:1.0 150:1.0 
-0.12152266240804606 2:0.12 3:0.4 10:1.0 13:1.0 15:1.0 22:1.0 25:1.0 30:1.0 32:1.0 33:1.0 40:1.0 42:0.25 46:1.0 50:1.0 58:1.0 65:1.0 74:1.0 82:1.0 109:1.0 128:1.0 136:1.0 143:1.0 
-0.4957226035783944 2:0.6833333333333333 3:1.0 8:1.0 10:1.0 12:1.0 17:1.0 25:1.0 31:1.0 32:1.0 41:1.0 42:1.05 46:1.0 47:1.0 50:1.0 52:1.0 58:1.0 60:1.0 82:1.0 105:1.0 111:1.0 112:1.0 113:1.0 179:1.0 
-1.5928569874644747 2:0.018333333333333333 3:0.05 12:1.0 15:1.0 22:1.0 24:1.0 30:1.0 32:1.0 33:1.0 37:1.0 41:1.0 42:0.4 46:1.0 47:1.0 50:1.0 58:1.0 60:1.0 65:1.0 82:1.0 113:1.0 
-0.07091646565533992 2:0.31333333333333335 3:0.85 12:1.0 15:1.0 22:1.0 24:1.0 30:1.0 32:1.0 33:1.0 37:1.0 41:1.0 42:0.35 47:1.0 60:1.0 100:1.0 113:1.0 114:1.0 115:1.0 129:1.0 180:1.0 
-1.683607384421541 3:0.05 6:1.0 12:1.0 15:1.0 21:1.0 22:1.0 24:1.0 30:1.0 32:1.0 33:1.0 35:1.0 37:1.0 42:0.1 75:1.0 154:1.0 
-2.0 2:0.025 3:0.1 12:1.0 15:1.0 20:1.0 21:1.0 22:1.0 24:1.0 30:1.0 32:1.0 33:1.0 40:1.0 41:1.0 42:0.35 47:1.0 60:1.0 75:1.0 87:1.0 98:1.0 113:1.0 135:1.0 
-1.4858551410492933 2:0.006666666666666667 3:0.05 12:1.0 15:1.0 22:1.0 24:1.0 30:1.0 32:1.0 33:1.0 35:1.0 37:1.0 42:0.55 47:1.0 48:1.0 52:1.0 58:1.0 60:1.0 76:1.0 77:1.0 81:1.0 82:1.0 89:1.0 113:1.0 165:1.0 179:1.0 
-0.33290179159385536 2:0.29 3:0.65 6:1.0 12:1.0 15:1.0 21:1.0 22:1.0 24:1.0 30:1.0 32:1.0 33:1.0 40:1.0 41:1.0 42:0.6 52:1.0 56:1.0 58:1.0 60:1.0 65:1.0 75:1.0 135:1.0 138:1.0 157:1.0 173:1.0 178:1.0 179:1.0 
-0.010439650080560308 2:0.0033333333333333335 3:0.05 12:1.0 15:1.0 22:1.0 24:1.0 30:1.0 32:1.0 33:1.0 35:1.0 40:1.0 41:1.0 42:0.15 45:1.0 49:1.0 70:1.0 74:1.0 97:1.0 146:1.0 169:1.0 
-0.44411473748192615 2:0.085 3:0.1 12:1.0 15:1.0 22:1.0 24:1.0 30:1.0 32:1.0 33:1.0 39:1.0 41:1.0 42:0.4 45:1.0 46:1.0 49:1.0 50:1.0 51:1.0 58:1.0 63:1.0 82:1.0 172:1.0 
-0.9608402741003835 2:0.055 3:0.15 5:1.0 12:1.0 15:1.0 21:1.0 22:1.0 24:1.0 30:1.0 33:1.0 37:1.0 41:1.0 42:0.25 43:1.0 46:1.0 50:1.0 65:1.0 75:1.0 108:1.0 117:1.0 118:1.0 
-0.11673229316232653 2:0.01 3:0.1 5:1.0 10:1.0 13:1.0 15:1.0 23:1.0 30:1.0 32:1.0 33:1.0 34:1.0 40:1.0 41:1.0 42:0.5 46:1.0 47:1.0 50:1.0 60:1.0 65:1.0 75:1.0 92:1.0 108:1.0 113:1.0 118:1.0 139:1.0 
-1.1840638057850594 2:0.018333333333333333 3:0.05 6:1.0 13:1.0 15:1.0 20:1.0 21:1.0 22:1.0 24:1.0 30:1.0 32:1.0 33:1.0 35:1.0 37:1.0 41:1.0 42:0.3 48:1.0 60:1.0 75:1.0 135:1.0 
-1.2645505231405796 2:0.023333333333333334 3:0.1 5:1.0 6:1.0 12:1.0 15:1.0 20:1.0 21:1.0 22:1.0 24:1.0 30:1.0 33:1.0 37:1.0 41:1.0 42:0.35 43:1.0 52:1.0 58:1.0 60:1.0 65:1.0 76:1.0 77:1.0 82:1.0 117:1.0 156:1.0 179:1.0 
-0.7176612542028924 2:0.058333333333333334 3:0.1 12:1.0 15:1.0 21:1.0 22:1.0 24:1.0 30:1.0 32:1.0 33:1.0 37:1.0 41:1.0 42:0.45 48:1.0 58:1.0 60:1.0 65:1.0 75:1.0 78:1.0 114:1.0 115:1.0 135:1.0 138:1.0 
-2.0 2:0.44166666666666665 3:0.85 12:1.0 15:1.0 18:1.0 20:1.0 21:1.0 22:1.0 24:1.0 30:1.0 32:1.0 33:1.0 38:1.0 42:0.15 74:1.0 100:1.0 128:1.0 129:1.0 164:1.0 
-0.025443799475601554 2:0.12333333333333334 3:0.25 14:1.0 15:1.0 22:1.0 24:1.0 30:1.0 32:1.0 33:1.0 37:1.0 41:1.0 42:0.25 43:1.0 46:1.0 58:1.0 65:1.0 77:1.0 82:1.0 117:1.0 
-0.13487874012331372 2:0.185 3:0.35 13:1.0 15:1.0 18:1.0 20:1.0 21:1.0 22:1.0 24:1.0 30:1.0 32:1.0 33:1.0 39:1.0 41:1.0 42:0.5 58:1.0 60:1.0 65:1.0 73:1.0 74:1.0 76:1.0 78:1.0 128:1.0 138:1.0 174:1.0 
-0.07820720190293019 2:0.045 3:0.25 12:1.0 15:1.0 22:1.0 24:1.0 30:1.0 32:1.0 33:1.0 38:1.0 41:1.0 42:0.35 56:1.0 60:1.0 74:1.0 75:1.0 76:1.0 94:1.0 128:1.0 132:1.0 133:1.0 154:1.0 157:1.0 178:1.0 
-1.5606553732671418 2:0.018333333333333333 12:1.0 15:1.0 22:1.0 24:1.0 30:1.0 32:1.0 33:1.0 37:1.0 41:1.0 42:0.3 52:1.0 56:1.0 60:1.0 65:1.0 93:1.0 148:1.0 157:1.0 178:1.0 179:1.0 
-0.11080741791600811 2:0.105 3:0.25 13:1.0 15:1.0 22:1.0 24:1.0 30:1.0 32:1.0 33:1.0 37:1.0 41:1.0 42:0.3 58:1.0 65:1.0 70:1.0 71:1.0 74:1.0 146:1.0 169:1.0 
-1.2213693739177374 2:0.055 3:0.1 10:1.0 12:1.0 15:1.0 22:1.0 25:1.0 30:1.0 32:1.0 33:1.0 35:1.0 38:1.0 41:1.0 42:0.15 46:1.0 50:1.0 174:1.0 
-0.5292712223892994 2:0.24833333333333332 3:0.65 5:1.0 10:1.0 12:1.0 15:1.0 20:1.0 22:1.0 23:1.0 30:1.0 32:1.0 33:1.0 34:1.0 40:1.0 42:0.5 44:1.0 52:1.0 58:1.0 60:1.0 65:1.0 76:1.0 114:1.0 115:1.0 116:1.0 121:1.0 127:1.0 179:1.0 
-0.2764010042903127 2:0.015 3:0.05 13:1.0 15:1.0 21:1.0 22:1.0 24:1.0 30:1.0 32:1.0 33:1.0 37:1.0 41:1.0 42:0.5 48:1.0 58:1.0 60:1.0 65:1.0 77:1.0 78:1.0 82:1.0 83:1.0 92:1.0 138:1.0 139:1.0 
-0.9089463434864196 2:0.021666666666666667 3:0.05 13:1.0 15:1.0 22:1.0 25:1.0 30:1.0 32:1.0 33:1.0 34:1.0 37:1.0 41:1.0 42:0.25 44:1.0 45:1.0 49:1.0 58:1.0 63:1.0 65:1.0 77:1.0 82:1.0 116:1.0 172:1.0 
-2.0 2:0.17166666666666666 3:0.3 12:1.0 15:1.0 22:1.0 24:1.0 30:1.0 33:1.0 37:1.0 41:1.0 42:0.25 43:1.0 46:1.0 50:1.0 65:1.0 75:1.0 108:1.0 117:1.0 118:1.0 
-0.3777433537740389 2:0.01 3:0.05 5:1.0 10:1.0 12:1.0 15:1.0 22:1.0 23:1.0 30:1.0 32:1.0 33:1.0 34:1.0 35:1.0 40:1.0 41:1.0 42:0.7 47:1.0 48:1.0 52:1.0 58:1.0 60:1.0 111:1.0 112:1.0 113:1.0 114:1.0 115:1.0 127:1.0 179:1.0 
-0.009201685861904856 2:0.14 3:0.25 12:1.0 15:1.0 22:1.0 24:1.0 30:1.0 32:1.0 33:1.0 38:1.0 41:1.0 42:0.95 47:1.0 52:1.0 58:1.0 60:1.0 65:1.0 70:1.0 74:1.0 76:1.0 77:1.0 78:1.0 82:1.0 83:1.0 93:1.0 109:1.0 113:1.0 138:1.0 146:1.0 179:1.0 
-0.34260632223554116 2:0.06666666666666667 3:0.2 12:1.0 15:1.0 22:1.0 24:1.0 30:1.0 32:1.0 33:1.0 37:1.0 41:1.0 42:0.3 47:1.0 48:1.0 60:1.0 75:1.0 113:1.0 132:1.0 133:1.0 140:1.0 
-0.521540017737488 2:0.44333333333333336 3:0.7 8:1.0 13:1.0 17:1.0 24:1.0 31:1.0 32:1.0 41:1.0 42:1.05 47:1.0 52:1.0 58:1.0 60:1.0 75:1.0 105:1.0 110:1.0 111:1.0 112:1.0 113:1.0 179:1.0 
-0.47728995404797653 2:0.21333333333333335 3:0.45 12:1.0 15:1.0 22:1.0 25:1.0 30:1.0 32:1.0 33:1.0 34:1.0 37:1.0 41:1.0 42:0.25 45:1.0 49:1.0 58:1.0 63:1.0 65:1.0 77:1.0 82:1.0 83:1.0 172:1.0 180:1.0 
-0.1441494173681998 2:0.065 3:0.05 12:1.0 15:1.0 22:1.0 24:1.0 30:1.0 32:1.0 33:1.0 35:1.0 39:1.0 41:1.0 42:0.5 46:1.0 50:1.0 58:1.0 82:1.0 172:1.0 
-0.013128390560623194 2:0.25666666666666665 3:0.5 13:1.0 15:1.0 22:1.0 24:1.0 30:1.0 33:1.0 39:1.0 41:1.0 42:0.8 44:1.0 47:1.0 52:1.0 58:1.0 60:1.0 65:1.0 77:1.0 82:1.0 83:1.0 92:1.0 105:1.0 111:1.0 112:1.0 113:1.0 116:1.0 179:1.0 
-1.6256212760677833 2:0.1 3:0.1 6:1.0 12:1.0 15:1.0 20:1.0 21:1.0 22:1.0 25:1.0 30:1.0 33:1.0 34:1.0 38:1.0 41:1.0 42:1.0 47:1.0 58:1.0 60:1.0 65:1.0 75:1.0 76:1.0 78:1.0 108:1.0 113:1.0 118:1.0 137:1.0 138:1.0 
-0.037292530352490666 2:0.10166666666666667 3:0.2 13:1.0 15:1.0 22:1.0 24:1.0 30:1.0 32:1.0 33:1.0 37:1.0 41:1.0 42:0.4 43:1.0 58:1.0 60:1.0 64:1.0 65:1.0 75:1.0 117:1.0 132:1.0 133:1.0 157:1.0 173:1.0 178:1.0 
-0.1274221067339717 2:0.3566666666666667 3:0.4 12:1.0 15:1.0 22:1.0 24:1.0 30:1.0 32:1.0 33:1.0 38:1.0 41:1.0 42:0.55 47:1.0 48:1.0 52:1.0 58:1.0 60:1.0 65:1.0 77:1.0 78:1.0 82:1.0 83:1.0 105:1.0 113:1.0 138:1.0 179:1.0 
-0.2504167544833331 2:0.065 3:0.15 13:1.0 15:1.0 22:1.0 24:1.0 30:1.0 32:1.0 33:1.0 37:1.0 41:1.0 42:0.7 52:1.0 60:1.0 75:1.0 76:1.0 93:1.0 114:1.0 115:1.0 127:1.0 132:1.0 133:1.0 135:1.0 179:1.0 
-0.4175399645517805 2:0.135 3:0.25 12:1.0 15:1.0 22:1.0 25:1.0 30:1.0 32:1.0 33:1.0 34:1.0 37:1.0 41:1.0 42:0.3 45:1.0 48:1.0 49:1.0 60:1.0 75:1.0 135:1.0 
-2.0 2:0.055 3:0.15 4:1.0 5:1.0 6:1.0 7:1.0 12:1.0 15:1.0 18:1.0 20:1.0 21:1.0 22:1.0 24:1.0 30:1.0 32:1.0 33:1.0 39:1.0 41:1.0 42:0.65 52:1.0 58:1.0 60:1.0 65:1.0 76:1.0 77:1.0 82:1.0 156:1.0 179:1.0 
-0.7284738203968556 2:0.021666666666666667 3:0.1 12:1.0 15:1.0 22:1.0 24:1.0 30:1.0 32:1.0 33:1.0 35:1.0 39:1.0 41:1.0 42:0.6 58:1.0 65:1.0 75:1.0 110:1.0 
-1.5792106809244395 2:0.0033333333333333335 3:0.05 12:1.0 15:1.0 22:1.0 24:1.0 30:1.0 32:1.0 33:1.0 35:1.0 37:1.0 41:1.0 42:0.45 43:1.0 58:1.0 65:1.0 70:1.0 74:1.0 82:1.0 112:1.0 117:1.0 146:1.0 
-0.3570842945046195 2:0.10833333333333334 3:0.25 12:1.0 15:1.0 22:1.0 25:1.0 30:1.0 32:1.0 33:1.0 34:1.0 37:1.0 41:1.0 42:0.3 45:1.0 48:1.0 49:1.0 58:1.0 60:1.0 63:1.0 65:1.0 77:1.0 78:1.0 82:1.0 83:1.0 138:1.0 172:1.0 
-0.20026545965318746 2:0.05333333333333334 3:0.15 6:1.0 13:1.0 15:1.0 18:1.0 21:1.0 22:1.0 24:1.0 30:1.0 32:1.0 33:1.0 37:1.0 41:1.0 42:0.35 47:1.0 52:1.0 56:1.0 60:1.0 75:1.0 105:1.0 108:1.0 113:1.0 157:1.0 178:1.0 179:1.0 
-0.49043342335632906 2:0.2733333333333333 3:0.5 12:1.0 17:1.0 24:1.0 30:1.0 33:1.0 41:1.0 42:0.55 47:1.0 52:1.0 58:1.0 60:1.0 76:1.0 77:1.0 82:1.0 105:1.0 111:1.0 112:1.0 113:1.0 156:1.0 179:1.0 
-0.15804669473336405 2:0.1 3:0.25 5:1.0 10:1.0 13:1.0 15:1.0 22:1.0 23:1.0 30:1.0 32:1.0 33:1.0 34:1.0 40:1.0 41:1.0 42:0.55 47:1.0 48:1.0 52:1.0 58:1.0 60:1.0 65:1.0 75:1.0 89:1.0 92:1.0 105:1.0 108:1.0 113:1.0 118:1.0 165:1.0 179:1.0 
-0.3837415726766251 2:0.018333333333333333 12:1.0 15:1.0 22:1.0 24:1.0 30:1.0 33:1.0 37:1.0 41:1.0 42:0.25 48:1.0 52:1.0 60:1.0 65:1.0 92:1.0 106:1.0 179:1.0 
-0.16778603169130585 2:0.01 3:0.05 5:1.0 10:1.0 13:1.0 15:1.0 22:1.0 23:1.0 30:1.0 32:1.0 33:1.0 34:1.0 40:1.0 42:0.2 46:1.0 50:1.0 82:1.0 143:1.0 172:1.0 
-0.7924089097658049 2:0.20833333333333334 3:0.25 12:1.0 15:1.0 22:1.0 24:1.0 30:1.0 32:1.0 33:1.0 35:1.0 37:1.0 41:1.0 42:0.8 43:1.0 58:1.0 65:1.0 75:1.0 101:1.0 102:1.0 117:1.0 
-1.6063609671787713 2:0.016666666666666666 3:0.1 12:1.0 15:1.0 20:1.0 21:1.0 22:1.0 24:1.0 30:1.0 32:1.0 33:1.0 35:1.0 40:1.0 41:1.0 42:0.35 47:1.0 60:1.0 75:1.0 87:1.0 98:1.0 113:1.0 135:1.0 
-0.9557959533462919 2:0.016666666666666666 3:0.05 14:1.0 17:1.0 24:1.0 30:1.0 32:1.0 33:1.0 41:1.0 42:0.65 47:1.0 48:1.0 52:1.0 58:1.0 60:1.0 65:1.0 77:1.0 78:1.0 82:1.0 105:1.0 113:1.0 114:1.0 115:1.0 138:1.0 179:1.0 
-0.9203939389289414 2:0.06166666666666667 3:0.05 12:1.0 15:1.0 18:1.0 21:1.0 22:1.0 24:1.0 30:1.0 32:1.0 33:1.0 39:1.0 41:1.0 42:0.75 58:1.0 60:1.0 61:1.0 65:1.0 76:1.0 77:1.0 78:1.0 82:1.0 83:1.0 114:1.0 115:1.0 138:1.0 152:1.0 172:1.0 
-0.3624847152778634 2:0.056666666666666664 3:0.05 10:1.0 12:1.0 15:1.0 22:1.0 25:1.0 30:1.0 32:1.0 33:1.0 40:1.0 41:1.0 42:0.5 44:1.0 58:1.0 65:1.0 75:1.0 92:1.0 108:1.0 116:1.0 118:1.0 
-2.0 2:0.018333333333333333 3:0.1 12:1.0 15:1.0 22:1.0 24:1.0 30:1.0 32:1.0 33:1.0 35:1.0 37:1.0 41:1.0 42:0.15 67:1.0 69:1.0 100:1.0 146:1.0 147:1.0 157:1.0 
-2.0 2:0.065 3:0.2 4:1.0 5:1.0 6:1.0 7:1.0 12:1.0 15:1.0 18:1.0 20:1.0 21:1.0 22:1.0 24:1.0 30:1.0 32:1.0 33:1.0 38:1.0 41:1.0 42:0.4 47:1.0 52:1.0 58:1.0 60:1.0 65:1.0 70:1.0 74:1.0 77:1.0 82:1.0 83:1.0 105:1.0 109:1.0 113:1.0 146:1.0 179:1.0 
-1.8291214030453207 2:0.065 3:0.1 12:1.0 15:1.0 22:1.0 24:1.0 30:1.0 32:1.0 33:1.0 37:1.0 41:1.0 42:0.45 46:1.0 50:1.0 58:1.0 65:1.0 75:1.0 131:1.0 135:1.0 154:1.0 
-0.9987438905323188 2:0.13833333333333334 3:0.2 10:1.0 14:1.0 15:1.0 22:1.0 25:1.0 30:1.0 32:1.0 33:1.0 40:1.0 41:1.0 42:0.2 46:1.0 50:1.0 75:1.0 135:1.0 
-0.8206096177590965 2:0.04666666666666667 3:0.25 12:1.0 15:1.0 22:1.0 24:1.0 30:1.0 32:1.0 33:1.0 40:1.0 42:0.2 70:1.0 74:1.0 75:1.0 98:1.0 146:1.0 166:1.0 
-2.0 2:0.10166666666666667 3:0.25 4:1.0 5:1.0 6:1.0 7:1.0 12:1.0 15:1.0 18:1.0 20:1.0 21:1.0 22:1.0 24:1.0 30:1.0 32:1.0 33:1.0 37:1.0 41:1.0 42:0.25 67:1.0 69:1.0 100:1.0 126:1.0 146:1.0 157:1.0 
-0.7061900725717696 2:0.09166666666666666 3:0.15 8:1.0 12:1.0 17:1.0 24:1.0 31:1.0 32:1.0 41:1.0 42:0.35 45:1.0 49:1.0 58:1.0 71:1.0 111:1.0 112:1.0 169:1.0 
-1.0354974853519592 2:0.013333333333333334 12:1.0 15:1.0 18:1.0 21:1.0 22:1.0 24:1.0 30:1.0 32:1.0 33:1.0 35:1.0 37:1.0 41:1.0 42:0.25 168:1.0 
-0.008163228954563907 2:0.07166666666666667 3:0.2 5:1.0 10:1.0 12:1.0 15:1.0 22:1.0 23:1.0 30:1.0 32:1.0 33:1.0 34:1.0 40:1.0 41:1.0 42:0.5 43:1.0 46:1.0 50:1.0 58:1.0 65:1.0 75:1.0 92:1.0 108:1.0 117:1.0 118:1.0 
-0.05755200559551851 2:0.13333333333333333 3:0.15 8:1.0 12:1.0 17:1.0 24:1.0 31:1.0 32:1.0 41:1.0 42:0.6 43:1.0 44:1.0 58:1.0 65:1.0 75:1.0 101:1.0 102:1.0 111:1.0 112:1.0 116:1.0 117:1.0 
-0.922008938517923 2:0.35833333333333334 3:0.9 5:1.0 12:1.0 15:1.0 20:1.0 21:1.0 22:1.0 24:1.0 30:1.0 32:1.0 33:1.0 38:1.0 42:0.4 46:1.0 47:1.0 50:1.0 58:1.0 60:1.0 65:1.0 78:1.0 82:1.0 113:1.0 138:1.0 143:1.0 
-1.6887283432104436 2:0.005 12:1.0 15:1.0 22:1.0 24:1.0 30:1.0 32:1.0 33:1.0 35:1.0 37:1.0 42:0.15 64:1.0 178:1.0 
-0.13064397257737118 2:0.21 3:0.6 10:1.0 12:1.0 15:1.0 22:1.0 25:1.0 30:1.0 32:1.0 33:1.0 38:1.0 41:1.0 42:0.55 44:1.0 52:1.0 58:1.0 60:1.0 65:1.0 76:1.0 77:1.0 82:1.0 114:1.0 115:1.0 116:1.0 127:1.0 152:1.0 179:1.0 
-0.3348923764981711 2:0.008333333333333333 3:0.05 12:1.0 15:1.0 22:1.0 24:1.0 30:1.0 32:1.0 33:1.0 35:1.0 39:1.0 41:1.0 42:0.15 75:1.0 110:1.0 
-1.2645413765906461 2:0.008333333333333333 3:0.05 12:1.0 15:1.0 22:1.0 24:1.0 30:1.0 32:1.0 33:1.0 35:1.0 39:1.0 41:1.0 42:0.15 75:1.0 110:1.0 
-0.49515401222969896 2:0.225 3:0.55 12:1.0 15:1.0 20:1.0 22:1.0 24:1.0 30:1.0 32:1.0 33:1.0 38:1.0 42:0.65 48:1.0 58:1.0 60:1.0 65:1.0 75:1.0 76:1.0 78:1.0 135:1.0 138:1.0 152:1.0 
-0.28957582938782345 2:0.375 3:0.85 12:1.0 15:1.0 22:1.0 24:1.0 30:1.0 32:1.0 33:1.0 37:1.0 42:0.45 58:1.0 65:1.0 72:1.0 75:1.0 135:1.0 181:1.0 
-2.0 2:0.12666666666666668 3:0.4 6:1.0 12:1.0 15:1.0 21:1.0 22:1.0 24:1.0 30:1.0 32:1.0 33:1.0 38:1.0 41:1.0 42:0.2 47:1.0 60:1.0 100:1.0 113:1.0 158:1.0 
-1.2287031540425009 2:0.13333333333333333 3:0.2 6:1.0 12:1.0 15:1.0 18:1.0 21:1.0 22:1.0 24:1.0 30:1.0 32:1.0 33:1.0 37:1.0 41:1.0 42:0.6 48:1.0 52:1.0 58:1.0 60:1.0 73:1.0 93:1.0 106:1.0 148:1.0 167:1.0 174:1.0 179:1.0 
-0.6325831070405074 2:0.12833333333333333 3:0.25 10:1.0 12:1.0 15:1.0 22:1.0 25:1.0 30:1.0 32:1.0 33:1.0 35:1.0 39:1.0 41:1.0 42:0.5 46:1.0 50:1.0 52:1.0 58:1.0 60:1.0 74:1.0 82:1.0 128:1.0 179:1.0 
-0.024594779779084808 2:0.02 3:0.05 14:1.0 15:1.0 22:1.0 25:1.0 30:1.0 32:1.0 33:1.0 34:1.0 40:1.0 41:1.0 42:0.95 47:1.0 52:1.0 58:1.0 60:1.0 65:1.0 75:1.0 92:1.0 101:1.0 102:1.0 105:1.0 113:1.0 139:1.0 161:1.0 171:1.0 179:1.0 
-0.46470845397629146 2:0.015 3:0.05 12:1.0 15:1.0 24:1.0 30:1.0 32:1.0 33:1.0 40:1.0 42:0.35 60:1.0 61:1.0 70:1.0 74:1.0 76:1.0 82:1.0 143:1.0 146:1.0 152:1.0 155:1.0 172:1.0 
-0.04900192575846228 2:0.595 3:0.75 8:1.0 12:1.0 17:1.0 24:1.0 31:1.0 32:1.0 41:1.0 42:1.1 43:1.0 58:1.0 60:1.0 65:1.0 67:1.0 69:1.0 75:1.0 78:1.0 108:1.0 117:1.0 118:1.0 138:1.0 146:1.0 157:1.0 
-1.1224855777885328 2:0.01 3:0.05 12:1.0 15:1.0 22:1.0 24:1.0 30:1.0 32:1.0 33:1.0 35:1.0 38:1.0 41:1.0 42:0.3 58:1.0 65:1.0 70:1.0 74:1.0 82:1.0 143:1.0 146:1.0 155:1.0 
-0.05652448540586713 2:0.06833333333333333 8:1.0 10:1.0 12:1.0 17:1.0 25:1.0 31:1.0 32:1.0 41:1.0 42:0.55 44:1.0 45:1.0 49:1.0 58:1.0 65:1.0 116:1.0 
-2.0 2:0.03 3:0.2 12:1.0 15:1.0 22:1.0 24:1.0 30:1.0 32:1.0 33:1.0 35:1.0 37:1.0 41:1.0 42:0.2 56:1.0 157:1.0 174:1.0 178:1.0 
-0.46867252778382573 2:0.058333333333333334 3:0.15 13:1.0 15:1.0 22:1.0 24:1.0 30:1.0 32:1.0 33:1.0 37:1.0 41:1.0 42:0.5 58:1.0 59:1.0 65:1.0 90:1.0 157:1.0 
-0.9168667677494863 2:0.006666666666666667 12:1.0 15:1.0 22:1.0 24:1.0 30:1.0 33:1.0 35:1.0 38:1.0 41:1.0 42:0.35 44:1.0 47:1.0 58:1.0 60:1.0 65:1.0 113:1.0 116:1.0 
-0.5037083422351947 3:0.05 12:1.0 15:1.0 22:1.0 25:1.0 30:1.0 32:1.0 33:1.0 34:1.0 35:1.0 37:1.0 41:1.0 42:0.3 46:1.0 47:1.0 50:1.0 52:1.0 60:1.0 75:1.0 105:1.0 108:1.0 113:1.0 179:1.0 
-0.04275458527491851 2:0.045 3:0.1 13:1.0 15:1.0 22:1.0 24:1.0 30:1.0 32:1.0 33:1.0 37:1.0 41:1.0 42:0.5 48:1.0 52:1.0 58:1.0 60:1.0 76:1.0 77:1.0 81:1.0 82:1.0 89:1.0 152:1.0 165:1.0 179:1.0 
-2.0 2:0.255 3:0.7 12:1.0 15:1.0 22:1.0 24:1.0 30:1.0 33:1.0 37:1.0 41:1.0 42:0.25 44:1.0 58:1.0 65:1.0 73:1.0 116:1.0 174:1.0 
-1.1284862546124819 2:0.375 3:0.9 12:1.0 15:1.0 22:1.0 24:1.0 30:1.0 33:1.0 37:1.0 41:1.0 42:0.3 48:1.0 52:1.0 58:1.0 60:1.0 73:1.0 114:1.0 115:1.0 127:1.0 144:1.0 174:1.0 179:1.0 
-2.0 2:0.59 3:1.0 12:1.0 15:1.0 18:1.0 21:1.0 22:1.0 24:1.0 30:1.0 32:1.0 33:1.0 38:1.0 41:1.0 42:0.35 58:1.0 65:1.0 75:1.0 110:1.0 
-0.15340803018983135 2:0.051666666666666666 3:0.1 12:1.0 15:1.0 22:1.0 24:1.0 30:1.0 32:1.0 33:1.0 35:1.0 37:1.0 41:1.0 42:0.3 45:1.0 48:1.0 49:1.0 52:1.0 58:1.0 60:1.0 63:1.0 77:1.0 82:1.0 106:1.0 172:1.0 179:1.0 
-0.43653925543044564 2:0.49333333333333335 3:0.85 12:1.0 15:1.0 22:1.0 24:1.0 30:1.0 32:1.0 33:1.0 39:1.0 41:1.0 42:0.8 47:1.0 52:1.0 58:1.0 60:1.0 65:1.0 70:1.0 74:1.0 76:1.0 77:1.0 82:1.0 109:1.0 113:1.0 114:1.0 115:1.0 134:1.0 140:1.0 146:1.0 179:1.0 
-0.03782908539578019 2:0.08833333333333333 3:0.25 13:1.0 15:1.0 24:1.0 30:1.0 32:1.0 33:1.0 38:1.0 41:1.0 42:0.5 43:1.0 46:1.0 50:1.0 58:1.0 65:1.0 82:1.0 111:1.0 112:1.0 117:1.0 143:1.0 
-2.0 2:0.008333333333333333 3:0.05 4:1.0 5:1.0 6:1.0 7:1.0 12:1.0 15:1.0 18:1.0 20:1.0 21:1.0 22:1.0 24:1.0 30:1.0 32:1.0 33:1.0 40:1.0 42:0.45 58:1.0 60:1.0 65:1.0 70:1.0 74:1.0 82:1.0 109:1.0 128:1.0 140:1.0 146:1.0 
-0.36951117985947274 2:0.03666666666666667 3:0.1 12:1.0 15:1.0 22:1.0 24:1.0 30:1.0 32:1.0 33:1.0 37:1.0 41:1.0 42:0.6 48:1.0 52:1.0 58:1.0 59:1.0 60:1.0 76:1.0 77:1.0 81:1.0 82:1.0 89:1.0 90:1.0 157:1.0 165:1.0 173:1.0 179:1.0 
-0.08163269799272739 2:0.4166666666666667 3:0.85 10:1.0 13:1.0 17:1.0 25:1.0 30:1.0 32:1.0 33:1.0 41:1.0 42:0.85 47:1.0 48:1.0 52:1.0 58:1.0 60:1.0 65:1.0 76:1.0 77:1.0 78:1.0 82:1.0 113:1.0 138:1.0 156:1.0 179:1.0 
-2.0 3:0.05 12:1.0 15:1.0 22:1.0 24:1.0 30:1.0 32:1.0 33:1.0 35:1.0 37:1.0 41:1.0 42:0.35 46:1.0 50:1.0 52:1.0 60:1.0 75:1.0 76:1.0 108:1.0 152:1.0 179:1.0 
-1.0534689456522863 2:0.145 3:0.2 5:1.0 12:1.0 15:1.0 18:1.0 21:1.0 22:1.0 24:1.0 30:1.0 32:1.0 33:1.0 38:1.0 41:1.0 42:1.0 43:1.0 44:1.0 58:1.0 65:1.0 77:1.0 82:1.0 107:1.0 111:1.0 112:1.0 116:1.0 117:1.0 
-0.19522761731101823 2:0.03333333333333333 3:0.1 12:1.0 15:1.0 22:1.0 24:1.0 30:1.0 33:1.0 38:1.0 42:0.6 48:1.0 52:1.0 58:1.0 60:1.0 74:1.0 77:1.0 82:1.0 106:1.0 114:1.0 115:1.0 128:1.0 179:1.0 
-0.11209008156748214 2:0.03833333333333333 3:0.1 13:1.0 15:1.0 22:1.0 24:1.0 30:1.0 32:1.0 33:1.0 37:1.0 41:1.0 42:0.25 43:1.0 65:1.0 75:1.0 98:1.0 110:1.0 117:1.0 
-2.0 2:0.28 3:0.4 12:1.0 15:1.0 18:1.0 20:1.0 22:1.0 24:1.0 30:1.0 32:1.0 33:1.0 40:1.0 42:0.3 74:1.0 75:1.0 98:1.0 128:1.0 135:1.0 
-0.2001655106773958 2:0.005 3:0.05 12:1.0 15:1.0 22:1.0 24:1.0 30:1.0 32:1.0 33:1.0 35:1.0 40:1.0 42:0.25 58:1.0 65:1.0 70:1.0 71:1.0 74:1.0 109:1.0 128:1.0 136:1.0 146:1.0 169:1.0 
-2.0 2:0.043333333333333335 3:0.05 7:1.0 12:1.0 15:1.0 18:1.0 20:1.0 21:1.0 22:1.0 25:1.0 30:1.0 32:1.0 33:1.0 34:1.0 38:1.0 41:1.0 42:0.35 45:1.0 48:1.0 49:1.0 52:1.0 58:1.0 60:1.0 82:1.0 106:1.0 179:1.0 
-0.3600401741875474 2:0.15 3:0.45 8:1.0 12:1.0 17:1.0 24:1.0 31:1.0 32:1.0 41:1.0 42:0.15 45:1.0 49:1.0 70:1.0 74:1.0 97:1.0 146:1.0 169:1.0 
-0.0010525968285872295 2:0.2733333333333333 3:0.5 14:1.0 15:1.0 22:1.0 24:1.0 30:1.0 32:1.0 33:1.0 38:1.0 41:1.0 42:1.1 47:1.0 48:1.0 52:1.0 58:1.0 60:1.0 65:1.0 76:1.0 78:1.0 106:1.0 113:1.0 114:1.0 115:1.0 121:1.0 138:1.0 179:1.0 
-0.7866977886134763 2:0.0033333333333333335 14:1.0 15:1.0 18:1.0 21:1.0 22:1.0 24:1.0 30:1.0 32:1.0 33:1.0 35:1.0 37:1.0 41:1.0 42:0.3 56:1.0 60:1.0 76:1.0 157:1.0 178:1.0 
-1.0296620364696027 2:0.06333333333333334 6:1.0 12:1.0 15:1.0 18:1.0 21:1.0 22:1.0 24:1.0 30:1.0 32:1.0 33:1.0 37:1.0 41:1.0 42:0.25 168:1.0 
-2.0 2:0.07666666666666666 3:0.15 12:1.0 15:1.0 22:1.0 24:1.0 30:1.0 33:1.0 37:1.0 42:0.2 46:1.0 50:1.0 75:1.0 135:1.0 
-0.3018044947316037 2:0.16833333333333333 3:0.4 14:1.0 17:1.0 24:1.0 30:1.0 32:1.0 33:1.0 41:1.0 42:1.4 52:1.0 53:1.0 58:1.0 60:1.0 65:1.0 70:1.0 74:1.0 76:1.0 77:1.0 82:1.0 83:1.0 137:1.0 146:1.0 179:1.0 
-0.08350904189080278 2:0.18666666666666668 3:0.3 10:1.0 14:1.0 15:1.0 22:1.0 25:1.0 30:1.0 32:1.0 33:1.0 40:1.0 42:0.7 48:1.0 58:1.0 60:1.0 65:1.0 75:1.0 101:1.0 102:1.0 
-0.8737574097254016 2:0.043333333333333335 3:0.1 12:1.0 15:1.0 22:1.0 24:1.0 30:1.0 32:1.0 33:1.0 37:1.0 41:1.0 42:0.85 48:1.0 52:1.0 58:1.0 60:1.0 75:1.0 76:1.0 93:1.0 106:1.0 114:1.0 115:1.0 127:1.0 132:1.0 133:1.0 152:1.0 179:1.0 
-0.17297438287156006 2:0.11833333333333333 3:0.35 10:1.0 12:1.0 15:1.0 22:1.0 25:1.0 30:1.0 32:1.0 33:1.0 40:1.0 41:1.0 42:0.2 46:1.0 50:1.0 68:1.0 74:1.0 75:1.0 128:1.0 166:1.0 
-0.05191273390247807 2:0.225 3:0.5 10:1.0 14:1.0 17:1.0 25:1.0 30:1.0 32:1.0 33:1.0 41:1.0 42:0.65 43:1.0 46:1.0 50:1.0 58:1.0 65:1.0 82:1.0 117:1.0 143:1.0 
-0.2702860458556896 2:0.31833333333333336 3:0.55 13:1.0 15:1.0 18:1.0 21:1.0 22:1.0 24:1.0 30:1.0 32:1.0 33:1.0 39:1.0 42:0.7 43:1.0 44:1.0 58:1.0 65:1.0 82:1.0 116:1.0 117:1.0 
-0.16452009765808437 2:0.25166666666666665 3:0.6 13:1.0 15:1.0 21:1.0 22:1.0 25:1.0 30:1.0 32:1.0 33:1.0 34:1.0 39:1.0 41:1.0 42:0.3 45:1.0 49:1.0 52:1.0 58:1.0 60:1.0 63:1.0 76:1.0 77:1.0 82:1.0 156:1.0 172:1.0 179:1.0 
-0.019790763164054825 2:0.03666666666666667 3:0.1 12:1.0 15:1.0 22:1.0 25:1.0 30:1.0 32:1.0 33:1.0 34:1.0 40:1.0 42:0.45 43:1.0 58:1.0 65:1.0 67:1.0 69:1.0 82:1.0 111:1.0 112:1.0 117:1.0 143:1.0 146:1.0 157:1.0 
-0.1925554434966553 2:0.26 3:0.35 14:1.0 15:1.0 21:1.0 22:1.0 24:1.0 30:1.0 32:1.0 33:1.0 37:1.0 41:1.0 42:0.25 45:1.0 48:1.0 58:1.0 60:1.0 95:1.0 96:1.0 169:1.0 
-0.7814240709506124 2:0.085 3:0.2 12:1.0 15:1.0 18:1.0 21:1.0 22:1.0 24:1.0 30:1.0 32:1.0 33:1.0 39:1.0 41:1.0 42:0.6 60:1.0 75:1.0 76:1.0 114:1.0 115:1.0 135:1.0 
-0.09694582626832712 2:0.3383333333333333 3:0.7 12:1.0 15:1.0 18:1.0 21:1.0 22:1.0 24:1.0 30:1.0 32:1.0 33:1.0 39:1.0 41:1.0 42:0.85 52:1.0 58:1.0 60:1.0 65:1.0 76:1.0 77:1.0 82:1.0 156:1.0 179:1.0 
-0.25997077337653074 2:0.011666666666666667 3:0.05 13:1.0 15:1.0 22:1.0 24:1.0 30:1.0 32:1.0 33:1.0 37:1.0 41:1.0 42:0.4 47:1.0 48:1.0 52:1.0 58:1.0 60:1.0 77:1.0 82:1.0 89:1.0 106:1.0 113:1.0 156:1.0 165:1.0 179:1.0 
-0.08445630927059421 2:0.35 3:0.95 13:1.0 15:1.0 22:1.0 24:1.0 30:1.0 32:1.0 33:1.0 38:1.0 41:1.0 42:0.6 52:1.0 57:1.0 58:1.0 60:1.0 73:1.0 79:1.0 80:1.0 159:1.0 160:1.0 161:1.0 167:1.0 171:1.0 174:1.0 175:1.0 179:1.0 
-0.7676071015091136 2:0.11166666666666666 3:0.15 12:1.0 15:1.0 22:1.0 24:1.0 30:1.0 32:1.0 33:1.0 40:1.0 42:0.2 75:1.0 98:1.0 110:1.0 
-0.06203419822686292 2:0.315 3:0.4 8:1.0 10:1.0 13:1.0 17:1.0 25:1.0 31:1.0 32:1.0 41:1.0 42:0.45 45:1.0 46:1.0 49:1.0 50:1.0 51:1.0 58:1.0 65:1.0 82:1.0 137:1.0 
-2.0 2:0.04 3:0.15 4:1.0 5:1.0 6:1.0 7:1.0 12:1.0 15:1.0 18:1.0 20:1.0 21:1.0 22:1.0 24:1.0 30:1.0 32:1.0 33:1.0 37:1.0 41:1.0 42:0.35 47:1.0 48:1.0 60:1.0 75:1.0 113:1.0 132:1.0 133:1.0 
-0.05051431999152603 2:0.055 3:0.05 14:1.0 15:1.0 22:1.0 24:1.0 30:1.0 32:1.0 33:1.0 40:1.0 42:0.6 46:1.0 50:1.0 58:1.0 65:1.0 74:1.0 75:1.0 101:1.0 102:1.0 128:1.0 
-0.14077200966418002 2:0.20333333333333334 3:0.4 8:1.0 12:1.0 17:1.0 24:1.0 31:1.0 41:1.0 42:1.1 45:1.0 48:1.0 49:1.0 52:1.0 58:1.0 60:1.0 82:1.0 106:1.0 111:1.0 112:1.0 179:1.0 
-0.5199120224098576 2:0.01 12:1.0 15:1.0 22:1.0 24:1.0 30:1.0 32:1.0 33:1.0 35:1.0 38:1.0 41:1.0 42:0.3 58:1.0 65:1.0 70:1.0 74:1.0 109:1.0 146:1.0 
-1.384038381704001 2:0.21 3:0.55 12:1.0 15:1.0 20:1.0 21:1.0 22:1.0 24:1.0 30:1.0 32:1.0 33:1.0 38:1.0 41:1.0 42:0.75 47:1.0 52:1.0 58:1.0 60:1.0 65:1.0 75:1.0 76:1.0 78:1.0 101:1.0 102:1.0 105:1.0 113:1.0 138:1.0 179:1.0 
-0.08275779573785111 2:0.11666666666666667 3:0.35 12:1.0 15:1.0 22:1.0 24:1.0 30:1.0 32:1.0 33:1.0 38:1.0 41:1.0 42:0.4 52:1.0 60:1.0 75:1.0 76:1.0 87:1.0 108:1.0 135:1.0 152:1.0 179:1.0 
-0.12377585177540332 2:0.035 3:0.1 12:1.0 15:1.0 22:1.0 24:1.0 30:1.0 32:1.0 33:1.0 35:1.0 39:1.0 41:1.0 42:0.6 43:1.0 48:1.0 58:1.0 60:1.0 65:1.0 78:1.0 114:1.0 115:1.0 117:1.0 138:1.0 
-2.0 2:0.02 12:1.0 15:1.0 20:1.0 21:1.0 22:1.0 24:1.0 30:1.0 32:1.0 33:1.0 35:1.0 37:1.0 42:0.3 44:1.0 58:1.0 59:1.0 65:1.0 90:1.0 116:1.0 157:1.0 
-2.0 2:0.065 3:0.2 4:1.0 5:1.0 6:1.0 7:1.0 12:1.0 15:1.0 18:1.0 20:1.0 21:1.0 22:1.0 24:1.0 30:1.0 32:1.0 33:1.0 39:1.0 41:1.0 42:0.4 70:1.0 74:1.0 75:1.0 98:1.0 99:1.0 128:1.0 135:1.0 146:1.0 
-0.5542402752228314 2:0.12166666666666667 3:0.25 14:1.0 15:1.0 22:1.0 24:1.0 30:1.0 32:1.0 33:1.0 37:1.0 41:1.0 42:0.45 45:1.0 58:1.0 65:1.0 82:1.0 111:1.0 112:1.0 123:1.0 151:1.0 
-0.10170480985027948 2:0.021666666666666667 3:0.05 12:1.0 17:1.0 24:1.0 30:1.0 32:1.0 33:1.0 41:1.0 42:1.15 47:1.0 52:1.0 58:1.0 60:1.0 65:1.0 70:1.0 74:1.0 77:1.0 82:1.0 92:1.0 105:1.0 107:1.0 111:1.0 112:1.0 113:1.0 146:1.0 179:1.0 
-2.0 2:0.023333333333333334 3:0.05 12:1.0 15:1.0 20:1.0 21:1.0 22:1.0 24:1.0 30:1.0 32:1.0 33:1.0 35:1.0 40:1.0 41:1.0 42:0.3 75:1.0 87:1.0 135:1.0 
-2.0 2:0.023333333333333334 3:0.15 12:1.0 15:1.0 18:1.0 22:1.0 24:1.0 30:1.0 32:1.0 33:1.0 37:1.0 41:1.0 42:0.1 46:1.0 50:1.0 86:1.0 174:1.0 
-2.0 2:0.006666666666666667 3:0.05 10:1.0 12:1.0 15:1.0 22:1.0 25:1.0 30:1.0 32:1.0 33:1.0 35:1.0 37:1.0 41:1.0 42:0.35 43:1.0 46:1.0 50:1.0 65:1.0 75:1.0 92:1.0 108:1.0 117:1.0 118:1.0 139:1.0 
-1.1444936725232795 2:0.023333333333333334 3:0.05 12:1.0 15:1.0 22:1.0 24:1.0 30:1.0 32:1.0 33:1.0 35:1.0 38:1.0 41:1.0 42:0.55 43:1.0 52:1.0 58:1.0 60:1.0 65:1.0 70:1.0 74:1.0 77:1.0 82:1.0 107:1.0 111:1.0 112:1.0 117:1.0 146:1.0 179:1.0 
-0.29445885921797904 2:0.0016666666666666668 5:1.0 12:1.0 15:1.0 18:1.0 21:1.0 24:1.0 30:1.0 32:1.0 33:1.0 35:1.0 37:1.0 41:1.0 42:0.1 168:1.0 
-0.962035769234741 2:0.025 3:0.1 12:1.0 15:1.0 18:1.0 21:1.0 22:1.0 24:1.0 30:1.0 32:1.0 33:1.0 39:1.0 41:1.0 42:0.35 75:1.0 135:1.0 
-0.9060731006502029 2:0.07 3:0.2 10:1.0 12:1.0 15:1.0 22:1.0 25:1.0 30:1.0 32:1.0 33:1.0 35:1.0 37:1.0 41:1.0 42:0.5 47:1.0 48:1.0 52:1.0 58:1.0 60:1.0 77:1.0 82:1.0 105:1.0 113:1.0 179:1.0 
-0.7181040122407674 2:0.07166666666666667 3:0.15 12:1.0 15:1.0 22:1.0 24:1.0 30:1.0 32:1.0 33:1.0 35:1.0 38:1.0 42:0.4 58:1.0 65:1.0 70:1.0 74:1.0 77:1.0 82:1.0 109:1.0 146:1.0 
-1.574780148715066 2:0.02666666666666667 12:1.0 15:1.0 18:1.0 21:1.0 22:1.0 24:1.0 30:1.0 32:1.0 33:1.0 39:1.0 41:1.0 42:0.45 52:1.0 60:1.0 76:1.0 114:1.0 115:1.0 152:1.0 179:1.0 
-1.5057457603371305 2:0.043333333333333335 3:0.05 12:1.0 15:1.0 18:1.0 20:1.0 21:1.0 22:1.0 25:1.0 30:1.0 33:1.0 34:1.0 35:1.0 38:1.0 41:1.0 42:0.6 47:1.0 52:1.0 58:1.0 60:1.0 76:1.0 77:1.0 82:1.0 113:1.0 156:1.0 179:1.0 
-2.0 2:0.08333333333333333 3:0.2 12:1.0 15:1.0 18:1.0 21:1.0 22:1.0 24:1.0 30:1.0 32:1.0 33:1.0 37:1.0 41:1.0 42:0.2 44:1.0 58:1.0 65:1.0 73:1.0 116:1.0 167:1.0 174:1.0 
-0.09105962764336407 2:0.04666666666666667 3:0.15 13:1.0 15:1.0 22:1.0 25:1.0 30:1.0 32:1.0 33:1.0 34:1.0 40:1.0 42:0.35 43:1.0 46:1.0 50:1.0 58:1.0 65:1.0 82:1.0 111:1.0 112:1.0 117:1.0 143:1.0 
-0.4127274321694504 2:0.035 3:0.1 12:1.0 15:1.0 22:1.0 24:1.0 30:1.0 32:1.0 33:1.0 35:1.0 37:1.0 42:0.95 44:1.0 52:1.0 58:1.0 60:1.0 65:1.0 76:1.0 77:1.0 82:1.0 116:1.0 137:1.0 179:1.0 181:1.0 
-0.05679710024908042 2:0.525 3:0.95 8:1.0 13:1.0 17:1.0 24:1.0 31:1.0 32:1.0 41:1.0 42:1.1 45:1.0 49:1.0 52:1.0 58:1.0 60:1.0 70:1.0 74:1.0 76:1.0 77:1.0 82:1.0 94:1.0 114:1.0 115:1.0 127:1.0 146:1.0 179:1.0 
-0.2583457702071744 2:0.056666666666666664 3:0.1 12:1.0 15:1.0 22:1.0 25:1.0 30:1.0 32:1.0 33:1.0 34:1.0 37:1.0 41:1.0 42:0.3 45:1.0 48:1.0 49:1.0 52:1.0 58:1.0 60:1.0 63:1.0 77:1.0 82:1.0 106:1.0 172:1.0 179:1.0 
-0.2536088940197044 2:0.08666666666666667 3:0.2 12:1.0 15:1.0 22:1.0 24:1.0 30:1.0 33:1.0 39:1.0 41:1.0 42:0.7 47:1.0 48:1.0 52:1.0 58:1.0 60:1.0 82:1.0 105:1.0 106:1.0 113:1.0 179:1.0 
-0.1412878997252729 3:0.05 12:1.0 15:1.0 22:1.0 24:1.0 30:1.0 32:1.0 33:1.0 35:1.0 37:1.0 41:1.0 42:0.2 47:1.0 60:1.0 70:1.0 74:1.0 100:1.0 113:1.0 141:1.0 142:1.0 146:1.0 
-0.801340646601132 2:0.23333333333333334 3:0.5 12:1.0 17:1.0 24:1.0 30:1.0 32:1.0 33:1.0 41:1.0 42:0.85 47:1.0 48:1.0 52:1.0 58:1.0 60:1.0 65:1.0 78:1.0 82:1.0 105:1.0 113:1.0 114:1.0 115:1.0 138:1.0 179:1.0 
-0.3246863718452661 2:0.24666666666666667 3:0.65 12:1.0 15:1.0 22:1.0 24:1.0 30:1.0 32:1.0 33:1.0 37:1.0 42:0.35 58:1.0 65:1.0 71:1.0 74:1.0 128:1.0 169:1.0 
-0.06005110789542023 2:0.10333333333333333 3:0.25 12:1.0 15:1.0 22:1.0 24:1.0 30:1.0 33:1.0 40:1.0 41:1.0 42:0.25 46:1.0 50:1.0 69:1.0 82:1.0 126:1.0 143:1.0 157:1.0 172:1.0 
-0.27821079130553583 2:0.255 3:0.9 14:1.0 15:1.0 20:1.0 22:1.0 24:1.0 30:1.0 32:1.0 33:1.0 38:1.0 41:1.0 42:0.55 46:1.0 58:1.0 65:1.0 73:1.0 140:1.0 174:1.0 
-1.6997545455863947 2:0.018333333333333333 3:0.1 13:1.0 15:1.0 18:1.0 20:1.0 21:1.0 22:1.0 24:1.0 30:1.0 32:1.0 33:1.0 35:1.0 39:1.0 41:1.0 42:0.35 70:1.0 74:1.0 75:1.0 99:1.0 135:1.0 146:1.0 
-0.13085195527990043 2:0.04666666666666667 10:1.0 12:1.0 15:1.0 25:1.0 30:1.0 32:1.0 33:1.0 40:1.0 41:1.0 42:0.3 48:1.0 52:1.0 60:1.0 68:1.0 74:1.0 75:1.0 106:1.0 128:1.0 166:1.0 179:1.0 
-0.25547119080318365 2:0.09666666666666666 3:0.2 5:1.0 10:1.0 12:1.0 15:1.0 22:1.0 23:1.0 30:1.0 32:1.0 33:1.0 34:1.0 40:1.0 41:1.0 42:0.5 43:1.0 46:1.0 50:1.0 58:1.0 65:1.0 77:1.0 82:1.0 117:1.0 
-0.3472196014169579 2:0.015 12:1.0 15:1.0 22:1.0 24:1.0 30:1.0 32:1.0 33:1.0 38:1.0 41:1.0 42:0.3 45:1.0 49:1.0 58:1.0 65:1.0 70:1.0 74:1.0 109:1.0 146:1.0 149:1.0 150:1.0 
-0.26542247469215924 2:0.09 3:0.15 10:1.0 12:1.0 15:1.0 22:1.0 25:1.0 30:1.0 32:1.0 33:1.0 40:1.0 41:1.0 42:0.5 44:1.0 47:1.0 58:1.0 60:1.0 65:1.0 73:1.0 111:1.0 112:1.0 113:1.0 116:1.0 174:1.0 
-0.0959450281102693 2:0.26666666666666666 3:0.3 10:1.0 12:1.0 15:1.0 25:1.0 30:1.0 32:1.0 33:1.0 40:1.0 42:0.55 44:1.0 58:1.0 65:1.0 75:1.0 92:1.0 108:1.0 116:1.0 118:1.0 135:1.0 
-0.6205816197156416 2:0.016666666666666666 3:0.05 10:1.0 12:1.0 17:1.0 25:1.0 30:1.0 32:1.0 33:1.0 41:1.0 42:0.75 47:1.0 48:1.0 52:1.0 58:1.0 60:1.0 65:1.0 77:1.0 82:1.0 105:1.0 113:1.0 179:1.0 
-0.1484888726674331 2:0.01 3:0.05 12:1.0 15:1.0 22:1.0 24:1.0 30:1.0 32:1.0 33:1.0 35:1.0 40:1.0 41:1.0 42:0.55 58:1.0 59:1.0 65:1.0 70:1.0 74:1.0 77:1.0 82:1.0 83:1.0 90:1.0 109:1.0 146:1.0 157:1.0 
-0.08872599938928577 2:0.04 3:0.1 12:1.0 15:1.0 22:1.0 24:1.0 30:1.0 32:1.0 33:1.0 35:1.0 40:1.0 41:1.0 42:0.55 58:1.0 60:1.0 65:1.0 74:1.0 76:1.0 78:1.0 82:1.0 94:1.0 128:1.0 138:1.0 
-2.0 2:0.03166666666666667 3:0.1 13:1.0 15:1.0 22:1.0 24:1.0 30:1.0 32:1.0 33:1.0 37:1.0 41:1.0 42:0.2 46:1.0 50:1.0 98:1.0 
-2.0 2:0.023333333333333334 6:1.0 12:1.0 15:1.0 18:1.0 21:1.0 22:1.0 24:1.0 30:1.0 32:1.0 33:1.0 37:1.0 41:1.0 42:0.45 52:1.0 58:1.0 60:1.0 65:1.0 76:1.0 92:1.0 179:1.0 
-0.2743299039532069 2:0.095 3:0.2 12:1.0 15:1.0 25:1.0 30:1.0 32:1.0 33:1.0 34:1.0 37:1.0 41:1.0 42:0.25 45:1.0 48:1.0 49:1.0 60:1.0 63:1.0 82:1.0 143:1.0 172:1.0 
-0.4963557259189939 2:0.17333333333333334 3:0.3 8:1.0 12:1.0 17:1.0 24:1.0 31:1.0 32:1.0 42:0.45 44:1.0 58:1.0 60:1.0 65:1.0 76:1.0 82:1.0 116:1.0 134:1.0 140:1.0 
-0.8034360570464528 2:0.1 3:0.15 6:1.0 12:1.0 15:1.0 18:1.0 21:1.0 22:1.0 24:1.0 30:1.0 32:1.0 33:1.0 37:1.0 42:0.5 56:1.0 59:1.0 65:1.0 75:1.0 90:1.0 108:1.0 118:1.0 157:1.0 178:1.0 
-0.04867840492952666 2:0.011666666666666667 6:1.0 12:1.0 15:1.0 22:1.0 24:1.0 30:1.0 32:1.0 33:1.0 38:1.0 41:1.0 42:0.45 47:1.0 48:1.0 58:1.0 60:1.0 65:1.0 78:1.0 113:1.0 138:1.0 
-0.989035917227135 2:0.005 12:1.0 17:1.0 24:1.0 30:1.0 32:1.0 33:1.0 41:1.0 42:0.15 44:1.0 45:1.0 49:1.0 65:1.0 116:1.0 149:1.0 150:1.0 
-0.3214867102207032 2:0.18 3:0.55 13:1.0 15:1.0 18:1.0 20:1.0 21:1.0 22:1.0 24:1.0 30:1.0 32:1.0 33:1.0 39:1.0 41:1.0 42:0.6 60:1.0 74:1.0 75:1.0 76:1.0 99:1.0 114:1.0 115:1.0 128:1.0 135:1.0 
-1.5291141807886517 2:0.075 3:0.1 10:1.0 12:1.0 15:1.0 22:1.0 25:1.0 30:1.0 32:1.0 33:1.0 40:1.0 41:1.0 42:0.25 46:1.0 50:1.0 75:1.0 
-1.3245804403920245 2:0.04666666666666667 3:0.05 6:1.0 12:1.0 15:1.0 18:1.0 21:1.0 22:1.0 24:1.0 30:1.0 32:1.0 33:1.0 38:1.0 41:1.0 42:0.9 44:1.0 58:1.0 65:1.0 75:1.0 92:1.0 101:1.0 102:1.0 116:1.0 139:1.0 
-0.13037640193976735 2:0.16 3:0.4 8:1.0 12:1.0 17:1.0 24:1.0 31:1.0 32:1.0 41:1.0 42:0.4 45:1.0 49:1.0 52:1.0 58:1.0 60:1.0 63:1.0 76:1.0 77:1.0 82:1.0 114:1.0 115:1.0 127:1.0 156:1.0 172:1.0 179:1.0 
-0.6007038144092864 2:0.005 3:0.1 12:1.0 15:1.0 22:1.0 24:1.0 30:1.0 32:1.0 33:1.0 37:1.0 41:1.0 42:0.15 70:1.0 74:1.0 100:1.0 141:1.0 142:1.0 146:1.0 181:1.0 
-0.5519372394880584 2:0.04833333333333333 3:0.05 10:1.0 12:1.0 15:1.0 22:1.0 25:1.0 30:1.0 32:1.0 33:1.0 35:1.0 38:1.0 41:1.0 42:1.0 43:1.0 48:1.0 58:1.0 60:1.0 65:1.0 77:1.0 78:1.0 82:1.0 117:1.0 130:1.0 131:1.0 137:1.0 138:1.0 
-1.7529835867659198 2:0.005 3:0.05 12:1.0 15:1.0 22:1.0 24:1.0 30:1.0 32:1.0 33:1.0 35:1.0 40:1.0 42:0.15 75:1.0 98:1.0 110:1.0 
-0.5236942315943909 2:0.175 3:0.2 13:1.0 15:1.0 18:1.0 22:1.0 24:1.0 30:1.0 33:1.0 37:1.0 41:1.0 42:1.25 47:1.0 58:1.0 60:1.0 65:1.0 78:1.0 113:1.0 138:1.0 
-0.7504842849662963 2:0.4266666666666667 3:0.65 8:1.0 12:1.0 17:1.0 24:1.0 31:1.0 32:1.0 41:1.0 42:1.5 44:1.0 47:1.0 52:1.0 58:1.0 60:1.0 65:1.0 77:1.0 82:1.0 105:1.0 111:1.0 112:1.0 113:1.0 116:1.0 137:1.0 179:1.0 
-0.33414863665119743 2:0.13333333333333333 3:0.15 12:1.0 17:1.0 24:1.0 30:1.0 32:1.0 33:1.0 41:1.0 42:0.5 47:1.0 48:1.0 60:1.0 82:1.0 113:1.0 114:1.0 115:1.0 140:1.0 
-0.7208345460715179 2:0.03 3:0.05 13:1.0 15:1.0 22:1.0 24:1.0 30:1.0 32:1.0 33:1.0 38:1.0 41:1.0 42:0.3 45:1.0 46:1.0 49:1.0 50:1.0 51:1.0 
-0.36669294578997486 2:0.07666666666666666 3:0.35 14:1.0 15:1.0 22:1.0 24:1.0 30:1.0 32:1.0 33:1.0 39:1.0 41:1.0 42:0.6 47:1.0 52:1.0 58:1.0 60:1.0 75:1.0 76:1.0 113:1.0 114:1.0 115:1.0 127:1.0 132:1.0 133:1.0 179:1.0 
-0.14055415990926434 2:0.12666666666666668 3:0.1 12:1.0 15:1.0 22:1.0 24:1.0 30:1.0 32:1.0 33:1.0 38:1.0 41:1.0 42:0.9 44:1.0 47:1.0 52:1.0 58:1.0 60:1.0 65:1.0 77:1.0 82:1.0 105:1.0 113:1.0 116:1.0 130:1.0 131:1.0 137:1.0 179:1.0 
